0,383,-879,165,-86,-347,-1410,-39,-27,-1556,446,2461,-1630,1056,1300,592,2689,449,-2420,520,478,1127,-415,170,243,-81,650,1243,387,-1010,610,57,1197,0,-192,-3918,-3428,-264,-1409,-1126,1299,-6054,-6267,-5173,-8165,-7623,-11103,-5229,-4689,-5788,-3544,-5041,-7256,-6746,-5036,-5040,346,-2680,-1493,-4342,-5201,-1330,-5947,-2229,-5509,-6047,0,368,-1023,-666,-95,483,-1154,-77,824,-71,620,-1113,-698,2303,334,-252,397,139,-270,-367,773,2133,58,738,2725,789,-185,806,1356,-975,823,-1071,597,0,8255,8963,6518,0,0,0,0,391,1520,614,2864,2090,-2835,1250,-515,-860,698,2246,0,2260,-8185,679,0,-2320,-10,-998,1628,2220,2792,703,-937,4677,0,-201,-762,-858,-35,338,-1397,-65,362,-522,606,688,-3729,269,738,171,-1599,-19,191,493,294,526,418,-229,-2882,-3874,743,-101,764,774,232,687,-680,0,-59,-369,-765,-765,63,-1414,-113,564,525,575,406,499,578,465,644,627,479,636,370,469,727,465,652,424,569,488,555,517,438,490,359,691,0,-109,-109,-109,-109,-109,-109,-109,-394,-132,-424,451,-1307,-983,232,-405,-454,-784,49,1234,-247,-1608,0,1749,-449,195,-403,-148,375,792,875,1058,-362,-205,311
0,29,258,172,-121,-673,12,-148,246,1181,757,856,2231,-1190,499,15,1457,591,2404,583,245,336,-631,742,954,-1338,392,-177,-1550,-939,956,934,1476,0,-728,-1448,-1710,-285,-877,-415,-597,-4129,-5911,-4382,-4459,-4840,-6410,-7658,-2444,-5912,-3318,-2052,-5658,-2473,-7657,-5214,916,-4046,-3706,-5110,-5460,-674,-7782,-3693,-5069,-3138,0,127,488,305,-273,680,-762,-654,-2672,-244,800,937,-1404,-13,482,622,-2301,651,-1675,1153,735,1005,-22,824,-157,-1158,393,30,633,-3488,366,1043,1852,0,10091,9191,10466,0,0,0,0,736,451,539,2565,2516,116,363,728,1096,-1145,3303,0,1020,-307,-1069,0,-203,-27,816,-381,-1068,1548,-1231,1806,2485,0,-172,125,222,-141,-29,-383,-333,-873,-595,-124,420,-2039,-485,548,301,1151,451,973,516,469,260,301,501,1220,-794,418,1203,711,807,735,-1084,37,0,-95,54,-51,-439,-597,-505,-284,302,128,247,350,269,382,230,254,225,266,325,208,264,360,-93,304,252,388,414,33,343,218,334,167,45,0,-187,-187,-187,-187,-187,-187,-187,-639,1548,317,-1712,-331,-774,-555,-61,-447,-1362,286,-151,26,-1060,2854,-220,-219,-682,-855,2652,-179,-325,-263,-310,592,-482,135
0,199,132,-218,32,762,-2132,4,596,3091,1315,3729,-263,1134,639,-864,-336,-570,2598,3100,966,531,444,18,586,-2321,924,-778,-2594,-610,86,-1893,3653,0,-1586,-1710,-2221,661,1269,-120,-243,-4215,-6654,-7217,-2565,-1526,-5327,-2860,-3759,-5941,-2871,-2062,-767,-2413,-6139,-5694,1613,-1939,-6705,-7914,-5747,1529,-4454,-2663,-1587,-3523,0,-283,-219,1132,1117,-397,-970,-188,-6168,2038,1984,1841,-3516,-572,-1655,1004,-3386,-80,-290,-1745,863,450,-116,1673,5834,726,2077,583,-2371,-1523,-915,-2715,2429,0,8865,9585,3175,0,0,0,0,-216,6039,-275,1027,-1879,-2561,105,-1767,2435,-2117,7260,0,2139,-4703,-681,0,3421,-55,820,1535,1176,3293,-358,565,905,0,-414,-191,-1326,701,-611,-1929,-1552,523,-43,1261,-1234,-3197,878,230,542,-3703,-65,6215,2509,-1408,518,-195,-640,380,-3090,-284,2274,1827,-663,-33,367,-4446,0,-705,346,-355,-378,-47,-1673,-701,670,838,731,-3,711,646,268,596,838,825,259,186,663,409,481,780,643,947,741,-34,797,705,415,770,764,0,122,122,122,122,122,122,122,-881,-761,-306,644,-967,-595,1176,-428,-585,-439,1398,1720,81,-960,985,381,708,-1463,-534,-531,35,-2,2420,-475,599,106,81
0,-1,0,-1,-1,0,0,-1,0,0,0,0,0,0,0,0,0,0,0,0,0,0,0,0,0,0,0,0,0,0,0,0,0,0,-1,0,0,-1,0,0,0,-1,0,0,0,0,0,0,0,0,0,0,0,0,0,0,0,0,0,-1,0,0,0,-1,0,0,0,-5,-1,-1,-1,0,0,0,0,0,0,0,0,0,-1,0,0,0,0,0,0,0,0,0,0,0,-1,-1,0,0,-2,0,0,0,0,0,0,0,0,0,0,0,0,0,0,0,0,0,0,0,0,0,0,0,0,0,0,0,0,0,0,0,0,0,0,0,0,-6,-1,0,-1,0,0,-3,-1,0,0,0,0,0,-3,-3,0,0,0,-1,0,0,0,0,0,0,0,-1,0,0,0,0,-1,0,-46,-28,-18,-8,-8,-8,-6,-8,0,0,0,-10,0,-6,-7,0,0,0,-6,0,0,-10,0,0,0,-8,-8,0,0,-7,0,-9,0,-1,-1,-1,-1,-1,-1,-1,-1,0,0,0,-1,0,-1,-1,0,0,0,-1,0,0,-1,0,0,0,-1,-1,0,0,-1,0,-1,-10,0
0,-5,-1,-1,-2,-1,-3,0,0,0,0,0,-2,0,0,0,0,0,0,0,0,-3,-3,0,0,0,0,0,0,0,-7,0,0,0,-2,0,0,-1,-1,0,0,0,0,0,0,0,0,0,0,0,-1,0,0,0,0,0,0,0,0,0,0,0,0,0,0,0,0,0,0,0,0,0,0,0,0,0,0,0,0,0,0,0,0,0,0,0,0,0,0,0,0,0,0,0,0,0,-1,0,0,0,0,0,0,0,0,0,0,0,0,0,0,0,0,0,0,0,0,0,0,0,0,0,0,0,0,0,0,0,0,-1,0,0,0,-7,-1,-5,-3,-2,-2,0,0,0,0,0,0,0,0,0,0,0,0,0,0,-2,0,0,0,0,0,0,-4,-1,-1,0,0,0,-46,-28,-14,-8,-4,-3,-10,0,0,0,0,-8,-10,0,0,0,-9,0,-10,0,-5,-7,0,-10,0,0,0,-6,-9,0,0,0,0,-1,-1,-1,-1,-1,-1,-1,0,0,0,0,-1,-1,0,0,0,-1,0,-1,0,-1,-1,0,-1,0,0,0,-1,-1,-1,0,0,-19,-1
0,-1,0,0,-1,0,0,0,0,0,0,0,0,0,0,0,0,0,0,0,0,0,0,0,0,0,0,0,0,0,0,0,0,0,-1,0,0,0,0,-1,0,0,0,0,0,0,0,0,0,0,0,0,0,0,0,0,0,0,0,0,0,0,-1,0,0,0,0,-4,-5,-3,0,-3,-3,0,-1,-1,0,0,0,0,0,0,0,0,0,0,0,0,-1,0,0,0,0,0,0,0,0,0,0,0,0,0,0,0,0,0,0,-2,0,0,0,0,0,-1,0,0,0,0,0,0,0,0,0,0,0,0,0,0,0,0,0,0,0,-1,0,0,0,-5,-2,0,-4,-2,0,-1,0,0,-7,0,0,0,0,0,0,-1,-4,0,0,0,-3,0,0,-1,0,0,0,0,-46,-25,-17,-8,0,-2,-10,-3,-7,0,-9,0,0,-2,0,-10,0,0,-9,0,-9,-5,0,0,0,-7,0,0,-8,0,0,0,0,-1,-1,-1,-1,-1,-1,-1,-1,-1,0,-1,0,0,-1,0,-1,0,0,-1,0,-1,-1,0,0,0,-1,0,0,-1,0,0,0,-20,0
0,-1,0,0,0,0,0,-2,-1,0,0,0,0,0,-1,0,0,0,0,0,0,0,0,0,0,0,0,-1,0,-1,-1,0,0,0,0,0,0,0,0,0,-1,0,0,0,0,0,0,0,0,0,0,0,0,0,0,0,0,0,0,0,0,0,0,-1,0,0,0,-2,0,0,0,0,0,-1,0,0,0,0,0,0,0,0,0,0,0,0,0,0,0,0,0,0,0,0,0,0,0,0,-1,0,0,0,0,0,0,0,0,-1,0,0,0,0,0,0,0,0,0,0,0,0,0,-1,0,0,0,0,0,0,0,0,0,0,0,0,0,-1,0,0,0,0,-3,-1,0,0,0,0,-2,0,0,0,0,0,0,0,-1,0,0,0,0,-1,0,-1,0,0,-1,0,-46,-30,-19,-8,-8,-8,0,-5,-9,0,0,0,-10,-7,0,0,0,0,0,0,0,-8,0,-10,0,0,-8,0,-8,-8,0,-8,0,-1,-1,-1,-1,-1,-1,-1,-1,-1,0,0,0,-1,-1,0,0,0,0,0,0,0,-1,0,-1,0,0,-1,0,-1,-1,0,-1,-14,0
0,252,-74,8,82,727,-1322,-281,749,-504,-308,203,-72,575,-78,252,-448,246,-2927,-1162,-180,2450,-204,775,543,-2035,-244,-415,176,329,117,-1120,-507,0,-233,-274,-264,32,486,-690,718,2356,2140,518,1347,4264,2706,-4328,-1720,2734,1643,1782,5043,930,3697,958,2596,5616,3166,570,1653,-629,3938,-708,3355,-1144,0,280,6,31,-220,592,-1480,-294,500,-1296,-239,-881,570,1656,-73,-97,400,1069,-5219,265,-529,2738,-308,456,1058,-932,455,-148,338,573,154,-893,-1087,0,0,0,0,0,0,0,0,532,-3309,-7364,-10455,118,-7199,2974,-374,59,-5664,0,0,4550,-5886,455,0,335,-7232,-6037,-7962,2049,-6637,5146,-6847,-7723,0,10,-252,-57,31,1413,-1136,-143,567,-518,-379,-191,452,644,-264,26,-314,-448,85,13,16,-122,320,939,-830,-799,-66,-465,117,-880,469,-456,1028,0,335,-269,-78,-132,1054,-1367,-77,444,-664,-549,-818,-247,-52,-16,-7,-62,-236,39,-118,-7,140,-7,662,-93,-111,-238,-308,-151,13,310,44,326,0,534,534,534,534,534,534,534,534,5587,4543,6308,2297,-167,-1907,-192,262,895,-624,194,478,-1853,-1177,-6322,-437,-10,1358,4505,190,140,-5190,-590,-3482,-210,625
0,-196,191,18,119,-253,-1652,226,304,144,-344,-1167,1005,-642,297,572,163,294,758,353,510,45,-455,681,615,-708,1090,425,70,370,369,-334,-1778,0,-478,-376,-379,1157,36,-1525,325,1085,2553,1856,-705,1860,1135,-2978,-595,1676,1532,3303,-1171,-258,4183,198,904,4049,394,1043,869,1270,1915,-22,3172,-5,0,-135,129,347,587,-135,-1295,151,-4,478,-49,-1432,-1592,341,282,382,14,-166,-1969,-105,282,924,-192,565,-1268,-1646,1002,-175,287,591,610,81,-709,0,-128,0,0,0,0,0,0,701,-4665,-4045,-4919,-4264,-4494,3531,947,-4183,-6417,-16747,1927,3648,-3271,-10,0,-3808,-2007,-4273,-5700,956,-5624,4804,-2098,-8581,0,-419,-28,110,37,-358,-1919,47,239,289,-227,-714,-1788,898,315,47,-286,142,581,863,263,-667,158,529,2859,-30,201,-349,-134,332,393,1465,-406,0,-263,77,8,-204,-322,-1786,58,345,125,-21,-202,216,459,361,297,-4,421,584,309,217,267,119,617,1047,1073,610,-168,602,515,541,223,541,0,-129,-129,-129,-129,-129,-129,-129,267,-129,3652,5160,2232,-734,-516,165,3218,-1716,-2192,258,939,1262,2890,-941,-7329,-6663,-1877,5370,-1685,-315,-1579,441,-1468,-99,529
0,150,61,272,-244,-493,2249,674,180,-1120,982,475,-5,-466,-1166,102,294,-305,841,3289,-564,-397,-670,-1359,-458,1218,-545,25,148,-716,-291,-642,630,0,1019,498,565,750,1502,3340,1387,2352,1701,3180,576,4155,-21,-2845,-1141,2872,2619,2762,2554,1847,-581,1482,2357,6442,-3016,948,3558,4492,2609,332,916,141,0,117,306,663,-443,-606,2296,566,5,-1049,927,1246,1095,-2056,-1433,294,-570,-147,565,1727,-275,217,-924,-204,630,418,-538,-900,829,409,-563,-882,748,0,-398,-39,-888,0,0,0,0,160,-5161,-9482,-10601,-7014,-11683,2957,-1696,-10485,-7440,-8525,0,6539,-13921,1393,0,-4405,-11994,-10244,-9644,360,-11005,6087,-4890,-14746,0,53,21,502,123,-130,2327,332,-417,424,376,-404,11,-720,-1078,-167,548,-159,897,59,-173,-430,-737,-320,-580,-398,-233,-705,-259,76,-247,-782,2138,0,152,-20,286,-92,-793,2040,358,-450,-349,516,-242,-352,-214,-966,-362,-279,-505,-1090,83,-324,-202,-852,-482,-489,-265,-476,-184,-382,-161,-182,-255,671,0,-65,-65,-65,-65,-65,-65,-65,183,51,-65,-1087,-211,-1516,5752,-297,-125,453,7496,-3989,705,-1164,4129,-1,114,-1265,875,-912,949,-484,115,-596,-9760,-302,658
0,139,-357,909,-470,817,2557,484,69,-12,-1116,-2049,-461,416,165,158,480,205,2646,-360,99,1580,-120,146,2114,1855,579,-324,60,-864,-533,-4921,1540,0,766,-1879,-540,-586,1287,3141,37,-2205,1056,-1357,-2154,8134,-4971,-3826,-3142,-2594,2359,788,-47,-6703,1171,-2137,1701,-2421,-3574,-301,-2512,-9336,-1722,-4279,1227,833,0,276,136,1097,-14,405,2358,427,-957,-1619,-740,-365,-1593,-490,-621,122,-1075,1051,3777,-1573,-271,-616,562,-616,1470,-2062,425,-1188,885,-1410,-450,-774,3754,0,0,0,0,0,0,0,0,46,-5383,-4516,-5364,97,-3986,3140,586,-4944,-7227,-8514,0,3110,-1709,-49,0,-2770,-3416,-2749,-6351,525,-7473,4175,-4113,-4374,0,-184,-763,546,936,1185,2317,-52,-249,-208,-111,-347,-1569,496,-201,-248,-113,-59,-2145,1778,-281,-1635,-536,-612,-246,-1480,44,-1378,299,490,-402,769,1049,0,-511,-441,644,730,962,2992,-147,-114,-1021,-561,-168,-108,45,-37,-66,46,-127,18,330,-64,-51,-571,-3,-167,47,-118,45,7,-1,-189,-2,-272,0,582,582,582,582,582,582,582,-341,8397,3699,582,450,-849,-138,-259,-820,-422,-343,-4144,-411,-126,3860,77,-202,-863,24,-1018,-756,-429,1014,-820,-342,-120,-68
0,827,-936,2536,-105,-5309,-119,-1056,344,-1140,-202,1934,-4432,-5730,1718,152,-738,1642,0,2063,8,-2317,1218,-444,3014,0,-272,1897,1586,1058,-600,3013,-1460,0,-41,60,2765,-2227,412,-2423,303,-9309,3497,-2872,3104,1000,-101,-6347,-3277,-1607,-1714,0,-6788,-5825,2089,-1146,-5975,6326,0,-1680,-434,-1136,-3551,-3991,0,-4236,0,144,1811,2931,-435,-3261,-968,1446,-384,3757,3020,-4064,-3229,-932,2384,-555,-1367,-1348,0,-4609,-192,-2402,-890,984,1386,-270,2696,-2631,1866,1862,-584,16,-1138,0,0,0,0,0,0,0,0,176,-4711,-6158,-2119,-10987,3254,6036,1065,-2306,-10847,0,293,6220,-8507,141,0,-1362,0,-7048,-5467,2158,-5967,5814,0,-7652,0,-321,-970,4466,169,1260,-2031,127,-480,-3285,220,2561,-2620,-485,-534,-152,3092,163,2769,-4805,-370,2558,998,-1415,-968,-369,-1984,-2971,-1118,-615,-584,1418,3545,0,-157,-409,3390,-980,-462,-1819,77,603,226,-42,-178,-2750,174,383,-173,275,-86,201,186,469,299,49,-35,284,-101,525,576,634,383,202,-267,87,0,-920,-920,-920,-920,-920,-920,-920,-905,-905,-602,504,-920,-382,364,-294,-894,-1219,297,-450,31,-828,37,1150,868,-74,-2305,-903,399,-683,-1503,418,-401,99,1684
0,369,-193,593,9,306,-285,403,350,-546,743,-556,321,702,-411,-853,894,133,-5237,2443,-484,560,-1651,-800,120,7800,616,231,-379,-467,-845,874,475,0,1464,977,1706,1640,671,2021,1713,2997,2273,705,1881,5901,4952,-2855,-52,1127,1798,401,5216,3192,1896,1470,3551,7088,-2813,2764,2041,2269,4712,618,6899,200,0,431,-313,266,-438,646,-895,557,-245,-67,146,428,3233,1799,-1462,-465,310,-315,0,-243,-2,272,-1262,-823,-134,1725,1682,534,-2261,989,-1228,1719,702,0,0,0,0,0,0,0,0,-585,-1488,-10800,-2812,0,-13737,2381,-1655,-5347,-4961,0,0,8354,-14258,1824,0,-4274,-9952,-8434,-12592,-869,-11476,6197,-3894,-13131,0,158,-571,-181,168,-768,-580,-132,-263,327,-165,-488,-702,-262,-175,-524,-1081,-209,172,-3183,-683,-292,-338,-792,-1027,-1121,-571,-1624,493,1228,-105,497,-2666,0,310,-172,189,264,-287,-569,-153,-274,-21,344,306,-173,394,-156,-51,-83,-120,-166,-525,-727,-98,-504,-592,-549,-319,64,175,-303,-242,-463,-245,-7,0,71,71,71,71,71,71,71,198,-995,-5224,-1791,858,71,-24,-360,-418,-2244,-483,3488,965,-1192,1954,3344,4347,-468,-2227,-2614,-105,-549,2976,585,618,191,782
0,-65,-438,-95,-26,1228,-947,108,-258,-1107,1178,278,403,-839,315,417,130,-1419,214,-1370,-555,1610,101,-448,-558,577,368,711,-384,128,-104,120,-238,0,-428,-903,-582,28,1080,-392,400,1635,1254,2197,1588,5827,1743,-956,875,1744,2461,5449,3122,831,2593,215,106,4157,7122,1689,3129,923,3785,-260,5921,-776,0,101,-359,327,-384,677,-956,350,162,-1237,962,449,1407,-696,-89,18,1365,-1203,918,-477,-217,-146,-439,-732,-521,-789,140,-46,377,927,-43,653,-516,0,-1572,0,0,0,0,0,0,747,-3266,-3952,-7490,-741,-4690,803,374,-3209,-1610,-7511,0,3974,-4799,183,0,1314,0,-3557,-4699,830,-3009,4222,-477,-10036,0,61,-440,126,177,1366,-802,52,61,-347,422,-77,1030,66,36,162,1310,-1284,905,633,196,-1147,407,-526,751,-1104,-488,-785,-395,508,418,-224,346,0,69,-325,30,-189,1217,-976,-3,-64,-331,564,-468,983,-106,77,160,386,-1278,-5,-122,71,-383,100,-359,26,-82,-221,207,-338,-19,162,-79,-14,0,696,696,696,696,696,696,696,738,4252,-6306,3993,-10275,659,696,-2024,-4029,12646,-3,660,77,3893,-2382,2402,-96,1251,1502,-2471,2499,-422,-2300,1134,866,-81,-163
0,179,40,-155,-101,-213,-43,-156,-11,289,661,895,-90,-143,12,1759,479,898,-1544,-666,-109,-421,780,-371,-625,503,1070,-490,639,292,-319,-787,1014,0,910,750,-9,960,1338,1089,1218,2616,2354,2190,2552,6012,976,-2975,3442,2769,4152,4154,5272,2190,1752,1875,1095,5530,1367,2288,2259,2185,4435,-400,2953,1089,0,250,1,41,-416,-234,-94,18,-154,-209,910,314,146,1369,-282,1426,-1167,1219,-3032,-95,422,-3106,534,-1120,-72,2860,647,-542,1643,1651,-346,-81,1109,0,0,-554,0,0,0,0,0,244,-4653,-8408,-8689,-2626,-10385,2084,284,-5240,-1394,0,0,5114,-9265,2233,0,-75,0,-5798,-9500,1481,-6643,3958,-4790,-15154,0,-34,-345,-775,195,-421,-276,-164,-65,-564,647,-272,-438,123,44,1080,111,-159,-1147,543,100,-741,672,-430,473,-164,137,150,1156,447,-241,-154,-14,0,175,-125,-534,-75,-390,-314,97,0,-531,499,-5,-174,70,31,1171,335,544,-433,76,13,191,631,-592,-282,9,623,306,591,2,-336,9,-711,0,10,10,10,10,10,10,10,263,5101,-4842,956,1511,-799,-934,10,-2110,-4997,5170,604,773,-1159,-5257,5717,2144,321,-5857,-856,-5853,371,4650,-285,5458,-37,212
0,-240,-815,1043,-392,1821,1993,675,1439,-324,878,-1321,-2151,-372,-1868,-227,-1862,2138,4416,-8804,-274,-3790,-886,-3125,2583,1251,-1736,1822,755,-1589,-607,-718,-4321,0,-289,-471,127,16,1912,1752,923,-4509,287,-779,-3188,-276,-5634,-7390,-5748,6321,786,2880,109,-807,5134,-4035,2732,819,-1511,-2649,-3942,1889,-2986,-5429,3942,-4189,0,-37,-1353,-1121,399,-1088,2735,-13,-392,58,-458,-2606,-2581,1620,-448,-295,140,941,0,4065,-298,-1048,-2010,-1694,-23,2137,-1563,-1086,-1456,-3095,160,-358,-728,0,0,0,0,0,0,0,0,1285,-6832,-4126,-6944,-11702,-1135,3253,-427,-7780,-4882,0,0,2537,-5382,-669,0,-6643,-8547,-8221,-3611,-1210,-8333,3756,2280,-9704,0,557,-491,714,-1486,-2483,1410,111,-629,-554,-1531,-1788,897,-708,-801,-222,1215,-3456,-561,-2380,-815,372,232,115,-2354,-3534,974,-454,2117,-413,-923,-2278,4132,0,-186,-403,1365,-1023,438,1987,83,-314,-87,-610,-278,75,-581,-368,-341,1914,-73,-425,-604,-413,-746,-779,-492,-206,-156,-634,-847,-179,156,-150,-124,-787,0,75,75,75,75,75,75,75,-312,-814,876,1114,-1548,-681,698,-726,75,243,631,2059,-7,166,4250,-308,185,-1036,228,-325,188,-1626,-1718,-118,-744,399,1777
0,-352,-255,-238,335,1862,-576,103,-172,-1430,149,-967,1801,1028,561,22,-251,-2119,-662,-471,325,-2,-130,67,-604,-1801,319,1233,-172,93,256,699,-1294,0,-830,-1243,-854,-219,683,-572,2150,-680,-1966,1145,-1847,1051,-1230,-3870,-1472,863,-891,5317,-2099,359,-1411,-873,974,2149,-543,1214,2748,-1426,987,-568,915,-2088,0,-231,-552,333,26,1455,993,26,-654,-1026,-395,-1356,-713,-2065,1132,-148,-1197,-1976,537,1502,1001,371,-168,202,1419,0,526,607,-1315,424,676,607,-2522,0,0,-49,-18,0,0,0,0,-39,-5575,-3954,-7714,-5761,-5217,4565,1303,57,-10361,-8946,0,5409,-4250,-947,0,-5158,-6037,-5180,-6253,815,-6941,5861,-6005,-6792,0,-2,-479,304,149,1294,635,-417,168,-103,603,185,-1463,823,-69,300,-1316,-2219,1656,-420,-253,715,892,-200,450,-749,1056,812,221,1025,183,1872,-1,0,-317,-459,185,182,1706,610,-167,387,-164,-24,104,335,291,355,255,490,-1984,268,-199,169,309,74,86,254,278,641,324,307,352,531,232,524,0,875,875,875,875,875,875,875,-99,4289,3245,1445,-475,-637,-393,26,-1502,875,-183,4162,701,-117,1709,3155,-149,790,-2772,-1360,-157,-406,-2054,-168,-1175,-128,428
0,918,-501,3036,144,16,335,-1384,-1225,-3006,-5045,1829,0,483,61,-714,-1555,-2838,202,-1661,353,2441,3724,4894,-1273,0,359,29,-1180,-344,1177,0,3240,0,557,-1687,-1198,-305,3537,-577,-2581,-7876,-1699,-1416,-5369,0,-400,-9404,-5425,-432,3857,34,-171,-11872,-3456,-3970,1061,-1400,0,3457,-881,-25,-16,-432,0,-1100,0,-147,-779,-2480,973,-3837,1671,813,-1404,-1422,4759,3208,0,-796,1225,314,0,2778,-11,1006,3518,1242,-264,-548,178,0,-4110,3176,942,288,695,0,2083,0,0,0,0,0,0,0,0,-2351,582,-2547,600,0,1447,6486,-649,2367,-4778,-1131,0,6950,-8348,4763,0,4379,0,-331,-6569,422,388,3090,0,-3744,0,339,2371,-447,3362,-411,-885,837,2844,-1531,-2773,-1509,0,648,83,-1755,-310,1469,988,1256,2505,486,-1444,1576,0,472,-309,-158,-614,229,2982,0,5754,0,-1295,799,-3095,-33,967,-272,591,572,-125,1832,3591,-390,1728,-241,2229,-400,512,267,645,386,2475,-2062,-479,1286,-72,1234,2143,2005,1745,348,-680,2587,0,34,34,34,34,34,34,34,-944,-796,-519,454,-39,311,-179,-600,-33,100,34,-492,184,-478,379,813,317,40,30,-226,155,229,786,-68,882,-778,-948
0,-84,2,-2082,-392,-753,1839,-1318,2046,1120,577,4389,152,691,862,1,-1166,436,1346,127,157,1522,1282,702,-2757,0,400,841,-3171,-603,15,203,197,0,919,1200,-916,137,3280,2022,747,23,1677,812,3002,6786,-5426,-4728,175,6942,4875,244,6909,-104,2603,-1695,4420,4980,0,3518,-935,-562,2634,604,261,-756,0,-13,1046,-2819,-249,2153,2527,-2347,2300,-2248,-3744,-2744,-4378,-1308,69,1809,-988,-1262,-5570,2939,657,1716,1539,-909,-487,0,2122,2804,670,-2407,1180,-6851,-1765,0,0,0,0,0,0,0,0,346,-4354,-6285,-1949,0,-6923,4323,-958,-4969,-4349,0,1379,4723,-3878,479,0,76,0,-4810,-13340,547,-5388,5474,0,-5286,0,276,477,-2541,-864,-187,-570,-1318,65,-349,-229,-1449,-1528,1860,704,615,3221,497,2302,3008,-10,1282,-963,-240,3810,2854,681,325,515,305,165,1000,-415,0,381,104,-1976,-1450,203,-121,-1768,260,327,357,92,198,356,484,148,190,512,340,1305,297,322,458,460,338,466,-246,595,451,299,362,297,26,0,587,587,587,587,587,587,587,504,1216,-977,870,123,-1075,-2085,179,323,-101,-334,587,572,515,110,-593,596,332,4004,-967,-155,-516,780,-509,2471,-305,-570
0,131,158,1027,-136,1577,-2657,340,331,85,86,1088,-849,-535,-154,22,1081,379,607,-486,-2508,1183,135,205,1715,-2119,1220,300,-77,339,125,1815,5,0,-452,-608,342,-212,1133,-2436,273,1208,1779,1834,1560,3675,3208,-4082,-1649,3360,3562,3567,3955,-1278,3875,-319,-956,6826,-658,2372,3442,-938,4114,-439,3364,-1014,0,137,26,1151,83,1255,-2401,-115,34,-223,-66,384,-98,-918,-230,883,-1519,1047,-1701,-87,-2013,-44,-15,508,2131,-1484,1154,364,991,983,365,171,202,0,-527,-1085,-3512,0,0,0,0,215,-3269,-5073,-3645,-4427,-4722,2642,509,-4950,-2456,-8666,0,1561,-4711,178,0,-2341,388,-3626,-5815,212,-5506,4654,633,-11354,0,-18,-35,593,-53,1484,-2766,27,216,19,438,40,143,605,-268,174,279,62,563,-116,-2253,-250,471,65,-173,426,875,-68,81,313,622,384,-1250,0,89,195,672,-144,1271,-2658,-88,110,71,89,389,87,222,28,161,-62,111,1024,-159,-2426,-117,-52,58,636,131,845,483,-87,101,721,199,-1138,0,840,840,840,840,840,840,840,-201,2110,1494,-2387,1645,-214,822,10,1944,611,-7959,2562,840,2982,1655,1489,-3357,562,-6104,-1276,3036,-218,-4475,701,12128,-223,-75
0,241,663,-2716,-93,-291,-2024,377,175,-210,812,1472,-786,-576,538,-720,-631,-2115,-1027,-1931,219,517,611,1798,3281,1476,612,1768,-496,2852,-203,-3577,-515,0,1166,513,-1804,543,-1204,105,560,-69,3284,3769,2429,2479,5649,261,640,3057,702,1854,-281,-992,2859,-1025,-1782,5587,0,203,3340,-248,4867,151,-558,-1727,0,380,-525,-3054,69,-3232,-1202,523,-379,-1909,1855,2870,-200,2029,2122,-2863,9,-1949,-2029,1879,-313,403,627,427,-726,0,-283,899,682,1745,-203,-2684,75,0,0,0,0,0,0,0,0,506,-682,-8235,1283,-2063,-8146,4355,-1240,-109,-3739,-5321,0,5485,-11062,3032,0,5550,0,-6888,-6556,-231,-1897,4046,-3819,-7720,0,30,-221,-2616,-434,-1403,-2094,-359,147,320,1639,2221,341,838,39,869,2804,1321,2756,1510,805,554,643,1573,-1493,-575,295,137,713,1579,-118,-1939,-1857,0,989,-91,-2787,267,-934,-2015,-230,560,539,702,211,589,326,379,370,280,510,427,221,798,99,514,812,111,414,234,310,301,163,335,706,892,0,-883,-883,-883,-883,-883,-883,-883,94,-1243,-4749,-874,36,12,-1415,-171,541,-527,-334,2630,-2254,-883,-1468,-2838,2807,-272,1372,961,90,-242,1157,-1533,273,161,1538
0,97,29,436,-287,2201,-1671,488,14,-167,117,689,-926,-259,25,249,-168,-348,562,-513,-312,786,-280,40,774,1122,-839,624,627,-522,-197,-1271,-386,0,-282,-824,-328,799,2851,-1423,1024,-3956,2584,-17,1010,4601,243,-2841,-5891,2588,2805,3217,3466,1011,1750,1174,916,5214,327,-252,1687,-3927,1998,-5747,4692,-1761,0,97,606,385,-183,2695,-2199,106,-107,-435,568,559,-130,-1208,-413,-521,-434,-122,801,446,-937,600,400,-151,-595,2806,-564,-207,-42,118,-262,-2138,-970,0,0,0,0,0,0,0,0,-125,-6283,-5065,-8789,-3416,-4964,1403,-329,-6685,-6326,-8960,0,2228,-4052,305,0,-6301,-5455,-3909,-5185,77,-7063,3393,-7571,-10554,0,187,-189,441,-18,2850,-1672,22,-204,518,-700,-616,-95,-108,-391,-363,56,-770,-34,1182,-139,-375,154,-25,-292,-920,-1378,-295,-789,-1023,-285,-1026,-555,0,297,-211,206,-224,2371,-2148,168,-322,331,-741,-1171,-284,-224,-408,-323,-374,-377,-326,-16,-401,-319,186,-269,-597,-230,-727,-454,-315,-553,-311,-293,-123,0,1621,1621,1621,1621,1621,1621,1621,-470,-5930,3255,7138,-25,-652,1518,867,-16,856,-474,-3406,145,-161,1621,-814,2114,-235,4342,1376,721,3920,351,557,-388,-262,413
0,-4,0,0,-2,0,0,0,-1,0,0,0,0,0,0,0,0,0,0,0,0,0,0,0,0,0,0,0,0,-1,0,0,0,0,-1,-1,0,0,0,0,0,0,0,0,0,0,0,0,0,0,0,0,0,0,0,0,-2,0,0,0,0,0,0,0,0,-1,0,-2,-1,-1,-1,0,0,0,-1,0,0,0,0,0,0,0,0,0,0,-1,0,0,0,-1,0,0,0,0,0,0,0,0,0,0,0,0,0,0,0,0,0,0,0,0,0,0,0,0,0,0,0,0,0,0,0,0,0,0,0,0,0,0,0,0,0,0,0,-10,0,0,-4,0,0,0,-1,0,0,0,0,0,0,0,0,-6,0,0,0,0,0,-5,0,0,0,0,0,0,0,0,0,0,-43,-28,-19,-7,-8,-8,-10,-7,0,0,0,0,0,0,-10,-10,-4,0,-7,0,-10,0,0,0,0,0,0,0,-9,0,-10,-9,0,-1,-1,-1,-1,-1,-1,-1,-1,0,0,0,0,0,0,-1,-1,-1,0,-1,0,-1,0,-1,0,0,0,0,0,-1,0,-1,-1,-10,0
0,189,1108,-1516,134,-1259,-830,2410,838,-79,4515,1233,-2931,1606,982,551,-1211,1968,1425,7086,868,-3279,-964,1567,-6126,626,-739,-3778,-3000,2898,-585,0,1916,0,94,12,-2107,19,-949,-54,-1968,-91,-779,4640,-794,2523,3925,-4830,86,-1860,1552,7077,-2876,511,3313,-2882,-1097,7786,-832,264,-1313,-382,6316,872,-844,934,0,278,1206,-302,-24,-1068,-155,570,594,-317,-2,21,856,-2122,818,-2521,-887,937,-914,2240,175,1763,-260,-308,-3885,3431,1073,-2917,-353,8621,-1469,1559,-647,0,0,0,0,0,0,0,0,735,-7469,-1251,-2614,-8159,-4469,5198,518,-3280,-5859,-7953,0,7385,-8756,-2769,0,-6771,-5916,-4960,-6915,-2641,-4170,6200,-3726,90,0,510,265,-569,308,602,1742,2388,864,866,-4094,-45,-1842,-115,1381,1149,953,-256,0,-23,124,3688,-219,1223,-417,-253,-1393,824,1517,-659,583,4051,415,0,-141,631,-1283,515,-462,1270,-24,320,381,182,325,493,-315,3,57,860,80,675,551,-283,425,246,31,-2195,224,425,149,-11,-216,-205,-270,1186,0,-392,-392,-392,-392,-392,-392,-392,326,2243,275,-818,-906,-149,1124,-16,-548,282,31,-5015,878,105,408,177,-392,-182,-510,-1812,-487,1279,-29,77,-261,-450,-1594
0,-930,-60,566,1338,-1728,-37,-1128,3335,-1871,-2801,171,634,4063,2369,2005,-2270,1343,0,-231,1825,-495,1554,-100,723,-706,2338,277,1201,-574,-63,1415,1452,0,-3296,628,1226,3240,1006,-1280,2152,-2886,-399,3558,689,0,-1006,-3192,-4758,1593,-1023,0,0,-5318,0,-3251,0,-911,555,-1785,4421,-20,-1236,-5459,186,3259,0,-829,-1455,900,-758,1540,662,1087,2117,-3819,864,426,0,1,-703,1443,737,0,0,439,931,681,1701,-252,21,-1856,-996,-3787,-28,-326,1815,-985,-2179,0,0,0,0,0,0,0,0,1440,1860,-498,0,0,-3645,1265,769,0,0,0,0,1162,-231,1275,0,957,-3409,-908,-1775,-1383,1852,3552,0,-2036,0,295,797,434,-329,-83,361,-3780,848,-647,813,-213,122,-448,-533,829,-48,142,69,-80,2108,-245,1418,-811,2295,427,-1418,-414,-180,-266,-1434,-83,411,0,1098,-27,-2017,-1312,-711,318,-1448,-1824,-28,-116,-597,964,-545,-716,1092,328,688,-199,358,-1218,480,737,-461,905,1618,1419,1348,-420,530,429,-363,-818,0,3,3,3,3,3,3,3,303,-361,182,-82,172,-158,-151,138,34,115,-13,-56,-51,19,138,-203,399,3,-135,7,-83,-2,-154,17,-48,-1269,198
0,3,-423,1187,197,-801,-238,380,-258,-581,-308,-1543,-334,283,-179,379,-422,339,-446,1606,-481,1124,-1161,-564,-44,-196,686,334,297,577,-193,-617,119,0,1313,636,1772,2070,-121,2044,2020,2512,2462,-3877,17,4957,298,-2055,-1520,1445,2264,803,6309,1934,-457,1028,2395,5967,3689,2852,-391,-767,2709,17,2920,-357,0,-44,-163,1601,-346,-1189,-1059,283,-1115,-689,-88,-1697,-1313,-405,-656,33,-2621,128,6171,2052,-301,1305,-953,-799,575,174,1335,-603,742,1404,-521,-199,-533,0,-1746,0,0,0,0,0,0,178,-4944,-10618,-4528,-2929,-13894,3064,-1630,-7551,-4989,-15458,0,6395,-11639,1979,0,-4013,-8065,-7433,-9022,55,-13062,5550,-4062,-9883,0,26,-280,1102,493,-1051,67,112,-58,-83,262,-298,-545,-129,-309,-290,217,-63,1630,1647,-187,-1001,-899,-103,-939,-3154,470,-356,-215,1195,-145,-294,444,0,9,-156,989,225,-974,-217,268,-219,-346,-91,-614,-537,-153,-192,-282,-57,6,-170,683,-548,-145,-640,-318,-353,-357,360,-540,-302,85,-235,-178,319,0,-517,-517,-517,-517,-517,-517,-517,104,774,-1472,4427,2373,-1400,467,-331,-521,-3232,-747,-8987,1682,-911,3923,807,1259,780,-517,2656,-19,-3251,536,-243,-3327,90,996
0,-62,-499,-786,109,-515,1388,147,270,-256,422,1170,-228,704,-27,486,62,-1078,503,-597,-453,2187,-49,-180,-1713,1555,796,596,457,-6,12,386,84,0,530,199,-419,1213,330,2240,1274,1667,2255,1018,1902,3238,-419,-2480,-1238,1799,2632,5646,5219,1884,-398,210,2428,6704,-871,1995,2674,-4705,3130,-172,2657,308,0,-89,-478,-766,-190,-621,1464,296,303,-670,682,121,780,438,-205,142,-445,97,-171,3582,57,529,-267,-355,-1435,-1275,690,420,701,763,-90,2272,551,0,0,-37,0,0,0,0,0,-633,-4579,-8730,-7919,-6589,-11295,4414,-840,-10018,-5679,-14433,0,7385,-11479,1199,0,-3216,-7782,-8239,-9716,773,-12995,6598,-3046,-14416,0,-94,-676,-811,133,207,1526,254,396,-357,573,-13,248,465,49,86,-253,-299,871,37,-17,145,82,268,-725,-292,499,347,187,1145,242,272,1079,0,-165,-441,-741,176,-145,1380,261,137,-512,417,270,395,248,229,254,306,-20,294,133,74,336,-71,131,235,228,629,200,167,206,274,241,563,0,-93,-93,-93,-93,-93,-93,-93,214,6479,-1781,-508,-3276,-489,198,-111,-894,2970,-729,379,893,-868,3255,940,-15,-343,-3598,-93,-242,638,361,-103,-4207,-13,647
0,117,807,-184,424,-609,1388,-556,325,981,1886,-21,-188,2684,124,1568,53,3813,318,-807,-642,2260,442,-1897,-4907,1688,467,1756,718,1965,-996,-7155,-55,0,-1255,-914,-2021,-602,1420,1653,841,3090,681,1568,-1896,2856,592,-7161,-2329,1717,4418,1223,-1476,-884,-2233,1066,-38,3610,4918,1895,2525,2012,2649,-3625,4766,-2120,0,73,-27,-508,541,-138,4022,-528,-1186,3391,1324,1616,362,-6635,-234,-1037,2220,5399,43,-1726,-1108,-231,202,-1472,-4560,-3174,1290,3222,80,665,-9,-2976,1111,0,0,-3367,0,0,0,0,0,908,147,-3825,-5759,-6819,-5302,3146,1164,-8462,-2118,0,0,3860,-8741,-1246,0,-1914,0,-4956,-11877,1180,-1076,4616,0,0,0,314,192,-59,-59,1838,3026,512,23,358,-1406,1728,-698,-664,-227,1791,-488,-715,1671,1729,1755,-772,1291,-591,-2337,3192,-189,-4711,1481,-1999,984,2756,468,0,-200,200,-940,480,-503,2739,163,0,246,112,-184,127,453,82,323,9,11,-15,4,-511,-173,-342,-355,114,-204,-107,1137,375,216,-489,35,349,0,251,251,251,251,251,251,251,316,1582,-1075,-734,-436,-1111,-427,148,-50,554,324,-2846,247,-989,-182,5760,-1582,642,-160,-1345,251,242,3405,-140,116,-518,548
0,-34,-157,-180,-276,1258,-2056,-124,90,54,507,1168,-1309,-88,285,359,338,-85,-2266,1318,-122,979,-5,-1970,-103,-258,132,-93,255,350,-432,899,-683,0,-270,-658,-298,-852,2125,-2110,-460,278,1334,580,876,1088,518,-5079,-3658,491,2618,-1323,2104,-2092,2501,-1717,-2447,4926,-3220,-653,-713,-593,2646,-2538,-1423,-1688,0,-127,-339,496,-95,1090,-1786,8,-119,-36,1871,593,-776,-154,143,6,990,998,0,-163,-339,222,-168,-2431,-1083,319,-201,-326,505,401,-278,1135,-383,0,0,0,0,0,0,0,0,238,-7037,-4794,-4421,-4104,-4643,4054,330,-4123,-5169,0,0,4948,-5386,-218,0,-5942,-4063,-5438,-6848,867,-7324,4848,0,-9629,0,72,-354,129,127,1610,-2043,-34,125,-5,278,1331,-496,61,173,96,113,-155,-1187,-212,202,-203,-250,-1623,-664,399,-194,-589,-287,120,397,1188,1051,0,-88,-167,245,-69,1565,-2152,-272,108,143,543,1248,297,196,264,307,343,418,256,-225,103,-182,-115,-1886,-62,278,-151,-278,293,-65,173,121,796,0,956,956,956,956,956,956,956,72,613,-3626,-11316,-530,-411,-589,-256,-1152,-2750,-452,3328,270,3398,2413,17116,1609,-1161,2970,3355,104,956,217,192,-4810,-128,295
0,208,25,185,355,278,-251,135,61,-737,585,1441,97,1199,382,720,518,200,26,27,-320,2884,-30,638,609,902,693,388,-27,1272,-444,-217,311,0,229,-91,156,899,400,952,715,2318,2286,1340,1894,4535,4321,-2444,-848,2825,3222,7801,5553,2053,5374,1406,1731,7695,1983,1970,3098,1687,4166,652,3015,73,0,61,44,454,53,-920,-169,250,-237,-713,370,1170,543,1300,169,586,80,89,1088,291,-55,1412,276,805,923,638,630,30,1491,1080,-394,-83,248,0,-5594,-3469,-629,0,0,0,0,147,-3331,-7571,-3299,-2012,-6898,1800,-349,-6552,-3273,-4309,0,4034,-5242,1054,0,2164,-4502,-5045,-6786,148,-4894,4408,1438,-4907,0,158,-70,293,57,-537,-80,-167,201,104,229,657,-794,852,130,106,796,282,-467,-1140,531,900,486,585,85,125,453,-170,-293,747,-276,121,4,0,-86,-65,206,0,-477,-305,28,250,-366,-164,177,-160,509,132,85,197,403,131,-256,-33,1061,45,432,208,116,364,313,20,175,-354,326,-322,0,-157,-157,-157,-157,-157,-157,-157,274,5245,3347,-971,2521,-4490,-1285,30,-336,-2657,427,3337,621,-8589,172,-1885,-1128,401,-2367,41,1841,-57,-157,-1232,5327,-254,-36
0,-273,517,-772,467,125,-1379,42,1332,-1077,-1839,3193,1663,-1937,-1036,1025,-5911,1085,0,-2998,-640,3017,-791,1045,0,6,2170,3785,-1836,78,351,1924,4035,0,-286,739,-553,-383,-2861,538,439,1186,1891,-4756,-1790,0,146,-4788,-489,4208,4668,0,-122,-1950,76,-4985,715,1047,-24,-1611,-172,-4730,-8898,-5005,-4202,123,0,1178,509,-2090,-387,-1326,-543,1004,1263,-1131,2540,-2657,-604,-6291,581,-419,-173,660,0,-1083,1281,951,532,226,380,201,1222,-34,-2405,1872,-2086,1000,4521,0,0,0,0,0,0,0,0,3788,-1205,-6430,0,0,-8166,4104,383,-1816,-2419,0,0,6332,2180,-1681,0,0,-1050,-8662,-6098,-327,-4801,7000,-9308,-6349,0,-340,120,-695,702,1539,-87,-600,-210,1182,-162,15,913,6596,-1092,-284,3737,-767,0,1450,216,-1278,921,-12,-6511,932,81,-2171,1147,-2385,370,1280,2427,0,-1274,504,-1242,883,379,260,-107,601,981,737,562,418,672,731,84,663,563,380,631,451,194,529,770,174,505,-156,820,891,474,607,2851,-242,0,-268,-268,-268,-268,-268,-268,-268,796,-1880,-991,-506,239,-898,-150,30,-941,379,38,409,569,514,-90,343,-491,57,1674,-387,-726,-1366,-33,-268,999,120,1490
0,189,253,415,50,-4373,1374,-379,101,-451,-101,-948,-3052,-1415,168,-456,1004,-1577,-1484,209,-381,1156,-841,-1397,381,919,-954,-219,-1290,634,-777,1094,175,0,921,53,188,2175,-2396,702,2738,-5524,-137,-463,1958,135,-183,-55,-1920,267,-570,2931,1122,-4001,2905,-255,1420,-3578,3118,523,-52,-4744,50,-3548,1608,1169,0,284,220,418,142,-3462,1496,-173,-276,-679,270,-282,-311,-873,631,-789,76,-2182,-619,1628,-762,309,-269,-1126,-99,-3683,-246,-330,-1049,-48,-931,1389,-106,0,-2908,-5002,-60,0,0,0,0,-386,-3630,-3395,-4499,-1805,-4247,1255,-305,-5641,-1848,-4429,0,1726,-3913,-504,0,-1511,-3646,-2770,-4289,25,-2915,1431,-2861,-991,0,-113,54,605,93,-2543,1463,-468,-142,-256,-203,-1170,490,441,-46,-166,235,-106,21,267,-230,-94,-163,-410,-1080,-112,171,450,129,520,-434,319,231,0,618,135,522,-171,-2626,1467,-302,-153,-297,-47,-503,-415,-20,78,-234,-13,-130,-170,266,-112,-236,-118,-517,-169,-173,-46,293,-85,-23,-546,85,468,0,-1925,-1925,-1925,-1925,-1925,-1925,-1925,-638,905,-942,3409,1643,-2090,-3023,-418,-1318,-642,-375,-4643,-376,-29,-555,1998,-693,260,-1966,-4678,-628,-2000,2290,-2816,-1925,18,412
