0,0,0,0,0,0,0,0,0,0,0,0,0,0,0,0,0,0,0,0,0,0,0,0,0,0,0,0,0,0,0,0,0,0,0,0,0,0,0,0,0,0,0,0,0,0,0,0,0,0,0,0,0,0,0,0,0,0,0,0,0,0,0,0,0,0,0,0,0,0,0,0,0,0,0,0,0,0,0,0,0,0,0,0,0,0,0,0,0,0,0,0,0,0,0,0,0,0,0,0,0,0,0,0,0,0,0,0,0,0,0,0,0,0,0,0,0,0,0,0,0,0,0,0,0,0,0,0,0,0,0,0,0,0,0,0,0,0,0,0,0,0,0,0,0,0,0,0,0,0,0,0,0,0,0,0,0,0,0,0,0,0,0,0,0,0,0,0,0,0,0,0,0,0,0,0,0,0,0,0,0,0,0,0,0,0,0,0,0,0,0,0,0,0,0,0,0,0,0,0,0,0,0,0,0,0,0,0,0,0,0,0,0,0,0,0,0,0,0,0,0,0,0,0,0,0,0,0,0,0,0,0,0,0
0,0,0,0,0,0,0,0,0,0,0,0,0,0,0,0,0,0,0,0,0,0,0,0,0,0,0,0,0,0,0,0,0,0,0,0,0,0,0,0,0,0,0,0,0,0,0,0,0,0,0,0,0,0,0,0,0,0,0,0,0,0,0,0,0,0,0,0,0,0,0,0,0,0,0,0,0,0,0,0,0,0,0,0,0,0,0,0,0,0,0,0,0,0,0,0,0,0,0,0,0,0,0,0,0,0,0,0,0,0,0,0,0,0,0,0,0,0,0,0,0,0,0,0,0,0,0,0,0,0,0,0,0,0,0,0,0,0,0,0,0,0,0,0,0,0,0,0,0,0,0,0,0,0,0,0,0,0,0,0,0,0,0,0,0,0,0,0,0,0,0,0,0,0,0,0,0,0,0,0,0,0,0,0,0,0,0,0,0,0,0,0,0,0,0,0,0,0,0,0,0,0,0,0,0,0,0,0,0,0,0,0,0,0,0,0,0,0,0,0,0,0,0,0,0,0,0,0,0,0,0,0,0,0
0,0,0,0,0,0,0,0,0,0,0,0,0,0,0,0,0,0,0,0,0,0,0,0,0,0,0,0,0,0,0,0,0,0,0,0,0,0,0,0,0,0,0,0,0,0,0,0,0,0,0,0,0,0,0,0,0,0,0,0,0,0,0,0,0,0,0,0,0,0,0,0,0,0,0,0,0,0,0,0,0,0,0,0,0,0,0,0,0,0,0,0,0,0,0,0,0,0,0,0,0,0,0,0,0,0,0,0,0,0,0,0,0,0,0,0,0,0,0,0,0,0,0,0,0,0,0,0,0,0,0,0,0,0,0,0,0,0,0,0,0,0,0,0,0,0,0,0,0,0,0,0,0,0,0,0,0,0,0,0,0,0,0,0,0,0,0,0,0,0,0,0,0,0,0,0,0,0,0,0,0,0,0,0,0,0,0,0,0,0,0,0,0,0,0,0,0,0,0,0,0,0,0,0,0,0,0,0,0,0,0,0,0,0,0,0,0,0,0,0,0,0,0,0,0,0,0,0,0,0,0,0,0,0
0,0,0,0,0,0,0,0,0,0,0,0,0,0,0,0,0,0,0,0,0,0,0,0,0,0,0,0,0,0,0,0,0,0,0,0,0,0,0,0,0,0,0,0,0,0,0,0,0,0,0,0,0,0,0,0,0,0,0,0,0,0,0,0,0,0,0,0,0,0,0,0,0,0,0,0,0,0,0,0,0,0,0,0,0,0,0,0,0,0,0,0,0,0,0,0,0,0,0,0,0,0,0,0,0,0,0,0,0,0,0,0,0,0,0,0,0,0,0,0,0,0,0,0,0,0,0,0,0,0,0,0,0,0,0,0,0,0,0,0,0,0,0,0,0,0,0,0,0,0,0,0,0,0,0,0,0,0,0,0,0,0,0,0,0,0,0,0,0,0,0,0,0,0,0,0,0,0,0,0,0,0,0,0,0,0,0,0,0,0,0,0,0,0,0,0,0,0,0,0,0,0,0,0,0,0,0,0,0,0,0,0,0,0,0,0,0,0,0,0,0,0,0,0,0,0,0,0,0,0,0,0,0,0
0,0,0,0,0,0,0,0,0,0,0,0,0,0,0,0,0,0,0,0,0,0,0,0,0,0,0,0,0,0,0,0,0,0,0,0,0,0,0,0,0,0,0,0,0,0,0,0,0,0,0,0,0,0,0,0,0,0,0,0,0,0,0,0,0,0,0,0,0,0,0,0,0,0,0,0,0,0,0,0,0,0,0,0,0,0,0,0,0,0,0,0,0,0,0,0,0,0,0,0,0,0,0,0,0,0,0,0,0,0,0,0,0,0,0,0,0,0,0,0,0,0,0,0,0,0,0,0,0,0,0,0,0,0,0,0,0,0,0,0,0,0,0,0,0,0,0,0,0,0,0,0,0,0,0,0,0,0,0,0,0,0,0,0,0,0,0,0,0,0,0,0,0,0,0,0,0,0,0,0,0,0,0,0,0,0,0,0,0,0,0,0,0,0,0,0,0,0,0,0,0,0,0,0,0,0,0,0,0,0,0,0,0,0,0,0,0,0,0,0,0,0,0,0,0,0,0,0,0,0,0,0,0,0
0,0,0,0,0,0,0,0,0,0,0,0,0,0,0,0,0,0,0,0,0,0,0,0,0,0,0,0,0,0,0,0,0,0,0,0,0,0,0,0,0,0,0,0,0,0,0,0,0,0,0,0,0,0,0,0,0,0,0,0,0,0,0,0,0,0,0,0,0,0,0,0,0,0,0,0,0,0,0,0,0,0,0,0,0,0,0,0,0,0,0,0,0,0,0,0,0,0,0,0,0,0,0,0,0,0,0,0,0,0,0,0,0,0,0,0,0,0,0,0,0,0,0,0,0,0,0,0,0,0,0,0,0,0,0,0,0,0,0,0,0,0,0,0,0,0,0,0,0,0,0,0,0,0,0,0,0,0,0,0,0,0,0,0,0,0,0,0,0,0,0,0,0,0,0,0,0,0,0,0,0,0,0,0,0,0,0,0,0,0,0,0,0,0,0,0,0,0,0,0,0,0,0,0,0,0,0,0,0,0,0,0,0,0,0,0,0,0,0,0,0,0,0,0,0,0,0,0,0,0,0,0,0,0
0,0,0,0,0,0,0,0,0,0,0,0,0,0,0,0,0,0,0,0,0,0,0,0,0,0,0,0,0,0,0,0,0,0,0,0,0,0,0,0,0,0,0,0,0,0,0,0,0,0,0,0,0,0,0,0,0,0,0,0,0,0,0,0,0,0,0,0,0,0,0,0,0,0,0,0,0,0,0,0,0,0,0,0,0,0,0,0,0,0,0,0,0,0,0,0,0,0,0,0,0,0,0,0,0,0,0,0,0,0,0,0,0,0,0,0,0,0,0,0,0,0,0,0,0,0,0,0,0,0,0,0,0,0,0,0,0,0,0,0,0,0,0,0,0,0,0,0,0,0,0,0,0,0,0,0,0,0,0,0,0,0,0,0,0,0,0,0,0,0,0,0,0,0,0,0,0,0,0,0,0,0,0,0,0,0,0,0,0,0,0,0,0,0,0,0,0,0,0,0,0,0,0,0,0,0,0,0,0,0,0,0,0,0,0,0,0,0,0,0,0,0,0,0,0,0,0,0,0,0,0,0,0,0
0,225,143,85,468,70,184,-392,-188,-341,88,474,476,215,-569,383,-317,-109,-329,-525,85,626,102,6,301,-266,-382,-892,517,-32,253,-190,-409,0,38,-220,-764,198,-424,494,1899,1136,993,-7,602,1281,61,-4530,-848,455,-194,-93,1216,1251,1242,707,286,757,440,-564,365,-987,1428,-597,-32,-660,0,146,-302,68,110,-11,49,-194,192,-141,-115,-632,427,236,-766,233,471,541,-142,11,-10,1030,-311,-89,593,-78,-525,-141,160,-102,-39,140,-14,0,0,0,0,0,0,0,0,-116,118,-541,-320,4,348,-860,-29,62,309,0,0,-380,1378,-196,0,-229,-86,110,-63,606,-309,-435,-350,76,0,120,-103,-115,-20,514,280,-152,-177,474,77,364,730,746,-642,-39,-981,-243,-387,-10,83,107,-310,109,-283,-496,-100,193,721,-718,-26,-427,178,0,425,-66,-113,-16,139,108,140,-488,-47,15,-183,-105,-236,-112,-90,-50,27,1,-244,111,-96,-93,-220,27,-66,-77,54,-127,-97,-132,119,36,0,36,36,36,36,36,36,36,36,107,145,212,308,137,-786,-39,-36,53,-95,375,114,407,-139,4,92,-56,-214,2,89,17,-208,-74,-91,-222,227,7571
0,65,24,-189,-243,-347,112,230,17,-202,-239,-401,50,32,-98,-23,-327,-362,260,-221,371,334,-162,124,158,-41,138,507,-150,-521,28,-361,-916,0,178,2,-215,1529,202,97,592,621,1631,1004,-263,-810,168,-1983,-45,-492,-6,293,-428,576,952,5,-381,-168,68,213,-300,62,-297,723,-125,607,0,-20,-63,430,229,267,-345,251,336,55,-151,-513,-19,83,-334,-115,52,51,-57,-13,-24,553,-9,-115,-311,-155,-284,-203,112,580,94,-296,585,0,0,0,0,0,0,0,0,74,1120,221,-72,230,-107,-63,-73,1078,-418,-95,0,-163,-63,66,0,230,19,148,475,271,249,-105,695,-233,0,-250,223,-329,49,-23,-211,-8,-4,-120,84,-441,-401,30,168,-79,269,-110,32,196,41,158,200,120,909,-339,17,4,-372,445,-128,571,-72,0,-39,69,-72,-215,8,-327,84,56,-121,41,65,39,60,2,105,91,134,5,23,-21,28,95,127,46,8,122,85,130,107,89,64,125,0,15,15,15,15,15,15,15,110,15,81,-125,-93,34,-299,-23,107,-166,45,367,78,237,-153,-30,60,-102,40,62,-24,45,-16,59,-159,48,38,-25341
0,461,465,-172,-327,282,134,41,391,60,715,-6,330,-114,-365,401,97,-187,-72,589,-31,-172,164,-763,386,161,-16,227,-206,-439,453,-44,1144,0,190,-538,-1244,-223,-256,-75,85,1478,209,919,-482,-160,-618,-2500,-97,632,337,-18,46,1619,-1478,717,335,575,-204,569,1005,504,315,600,117,59,0,428,431,207,-643,-307,42,44,-111,-11,59,952,558,-822,-522,576,292,-150,39,370,348,109,-40,329,-103,142,-70,-462,229,-7,-106,-332,864,0,0,0,0,0,0,0,0,-52,-1967,-1599,-885,-1280,-221,748,-265,-574,-1466,144,0,947,-1934,563,0,-211,0,-1840,-1219,165,-2180,1359,-670,-930,0,-57,185,-198,157,159,22,102,180,127,-116,131,395,-410,-206,74,292,-99,-85,434,231,-282,-76,287,564,-399,-19,-60,-138,-430,-5,-461,773,0,203,213,-429,116,-382,-105,129,-176,62,65,-27,57,-35,-172,-119,48,-3,-22,95,-54,4,-185,-124,-77,-15,-58,-43,50,83,58,53,-97,0,-63,-63,-63,-63,-63,-63,-63,171,-232,-63,-30,-10,-222,-234,57,113,-165,175,-322,306,-384,424,8,168,-28,-49,-61,81,-272,259,-128,-192,-138,252,-56066
0,-3,77,377,-376,499,-79,507,47,241,-424,-92,461,-318,370,269,303,212,37,-191,366,-157,-227,198,193,4,590,-63,-76,-109,-107,-345,123,0,1639,-719,-554,-25,-179,757,288,-601,1148,-209,-200,58,-652,-1175,-620,-475,1137,41,-348,-1464,620,-568,339,-404,-106,212,-1173,-147,-605,-1176,66,-324,0,-54,-93,582,27,-190,-343,201,323,-184,-166,69,395,228,-151,-132,105,421,161,-244,931,243,138,-105,284,-148,282,-11,169,-75,-161,-95,615,0,0,0,0,0,0,0,0,423,395,-505,-42,735,-318,256,-82,0,-559,69,0,365,795,828,0,476,-3,205,318,-72,355,113,-35,-114,0,-13,-521,15,190,120,-70,-246,-49,338,451,86,-131,71,-6,60,-103,-155,-282,547,-26,-462,103,199,63,-54,307,-569,-13,14,-26,-17,52,0,-69,-207,57,168,-37,324,22,17,20,116,-84,152,219,76,95,100,153,114,188,88,131,37,185,168,167,145,138,69,183,131,116,134,0,36,36,36,36,36,36,36,16,283,-43,36,167,-77,-63,-41,-7,147,14,-315,26,117,36,102,78,-14,184,-124,-7,-17,-114,-31,7,55,-180,-13373
0,380,-232,-155,-285,-156,-199,-359,97,117,310,19,455,-69,332,172,123,132,0,166,263,176,259,-10,79,0,-271,235,250,-42,-170,11,-294,0,318,488,-254,-248,325,297,82,-482,78,-266,-31,289,0,-1619,-618,-543,-188,0,-215,-938,858,-648,-21,-435,0,-259,-346,73,-754,-374,31,-408,0,93,367,294,368,-331,172,472,-47,-108,366,-115,-40,-21,-19,-128,62,-328,0,-65,506,-222,-173,444,406,82,179,-226,2,184,-144,-8,48,0,0,0,0,0,0,0,0,243,27,-109,113,128,88,309,410,227,-136,0,0,770,-525,-317,0,118,0,-264,300,17,539,134,56,198,0,115,-250,123,-15,224,-190,-396,-250,117,-27,37,-397,-86,-400,174,-16,-104,36,-78,198,246,-125,188,-145,68,-108,-159,167,185,-180,190,314,0,143,-52,-215,-3,-54,-72,-185,159,79,-78,-90,-502,88,207,180,160,98,-86,60,231,117,76,-34,227,70,163,96,321,228,-166,320,28,0,1,1,1,1,1,1,1,-28,37,27,-25,1,0,-119,19,-6,-64,-5,-46,103,65,-85,78,25,22,-56,-10,83,34,-90,60,-10,-87,174,-5898
0,442,259,154,240,302,184,214,-344,-319,1165,-458,195,-180,150,-468,141,168,-197,474,-55,161,-699,-326,220,76,-139,151,-269,-542,390,307,303,0,-143,-677,-626,253,-156,371,360,34,-23,75,559,0,303,-1822,-366,460,99,-111,636,976,-404,199,286,-557,-73,295,180,-492,1184,38,-64,-596,0,423,90,163,-204,779,-655,546,-271,384,-313,-223,110,785,-948,-40,-156,-232,157,-89,640,-540,-591,-175,365,131,501,226,-1,-22,-31,-49,213,0,0,0,0,0,0,0,0,-698,-168,-115,0,0,-518,-242,725,-192,232,-103,0,967,-226,397,0,-342,0,-145,-718,-64,-1107,1255,0,-476,0,109,95,35,200,-578,55,-18,627,616,-267,556,618,264,-384,-90,-220,-30,-75,-178,13,-264,355,249,-222,-25,-519,-637,506,807,308,357,-133,0,232,86,-121,-18,-91,-220,-1,-48,-45,57,73,47,-352,22,89,13,-185,119,-70,-241,3,-121,-16,119,-19,108,146,-90,-91,-100,-72,132,0,32,32,32,32,32,32,32,-70,80,19,23,97,32,-254,-15,-57,-16,-21,45,230,-127,70,36,-16,9,-57,-83,-41,54,384,-6,4,-228,-500,-16909
0,348,-225,-264,-5,455,-174,-121,-181,-619,545,-202,-794,-1108,214,376,-376,-771,403,-1129,-661,455,324,-413,5,53,566,-145,89,-684,-28,-248,-223,0,-562,-1436,-1486,-518,-464,-461,144,1150,568,696,1050,580,425,166,738,-334,1967,725,536,785,1009,-803,-301,-210,288,448,1810,2031,1626,634,1583,-711,0,193,-236,103,-246,-581,-71,202,619,-397,-575,561,-229,-1329,-71,-441,429,-488,469,-950,205,-544,-544,-356,127,29,-484,-792,158,-251,-125,241,-265,0,0,0,0,0,0,0,0,-139,-735,588,-789,249,1898,-377,196,-75,602,-500,0,-406,911,-1093,0,351,0,233,845,-107,-934,-631,151,-910,0,136,-177,112,-59,218,-121,-46,43,-226,-683,1057,490,-35,-173,-431,834,-17,987,227,233,-630,-94,-88,673,-378,-710,-695,-55,-121,10,-675,-454,0,297,-41,-55,162,196,-265,96,-152,56,-53,-258,-10,-50,43,-159,-81,-32,-184,-136,-46,-77,-85,-139,-97,82,-97,-52,-175,-96,-137,51,-68,0,-22,-22,-22,-22,-22,-22,-22,134,-99,-103,70,-76,-12,-22,-9,9,273,190,-414,11,171,-213,-251,28,-1,-11,89,196,-46,21,116,-271,142,-312,-120697
0,506,789,414,-82,346,117,-209,-25,865,93,-133,-376,-139,-174,340,818,-366,76,1,318,-1355,38,-407,-61,89,289,-374,-198,62,517,-437,387,0,368,-100,-617,462,164,176,1068,2231,1180,491,776,2304,-442,-4004,1356,411,785,180,1529,1780,-654,767,-392,1299,334,625,837,456,2066,471,356,205,0,455,183,168,-416,89,376,87,690,41,-242,-268,-514,475,-488,2,-728,-84,-611,179,990,-1347,-428,110,87,266,780,-166,371,265,441,151,745,0,0,0,0,0,0,0,0,-45,-1209,-554,-1131,-1201,-100,-529,-172,-138,-128,0,0,-976,63,854,0,-595,0,348,-802,-50,-1132,-896,-911,-825,0,10,-205,-378,382,59,-154,-203,5,-103,424,-374,383,464,-125,-435,-279,-815,-197,-288,-77,-290,-21,235,1471,-8,-771,263,642,78,-38,-42,453,0,334,191,-166,-23,-170,-289,66,-146,-111,-55,77,-121,-198,-269,-277,-37,29,42,-73,-105,3,-48,-84,-20,-103,-35,236,27,-42,-2,33,1,0,61,61,61,61,61,61,61,271,181,-29,-91,38,6,-579,61,-38,-23,23,386,193,-358,21,38,52,71,75,-41,47,134,59,-85,198,-223,-26,27502
0,180,159,68,42,839,-608,-36,774,21,65,-7,-6,-92,-390,-174,-183,15,0,-93,270,15,335,287,311,144,29,148,477,139,302,8,-355,0,824,1070,260,814,-125,459,435,-564,-683,-80,-694,493,-275,-1183,-748,-44,-336,108,-20,-856,418,-1275,243,89,-99,-336,-448,-212,-591,-773,-257,169,0,135,18,99,96,-321,-38,292,-30,-158,-85,23,118,555,20,287,-25,-453,0,93,722,100,-317,113,-96,43,-179,-136,-343,-224,247,-180,115,0,0,0,0,0,0,0,0,606,186,-203,91,-186,388,-785,93,47,181,0,0,56,-33,441,0,-92,0,-234,396,221,674,-278,455,232,0,-24,-138,-171,-70,-653,-38,-507,-234,136,-335,-170,212,-14,-479,-240,-136,-519,-156,-308,-220,64,319,412,162,-216,-56,388,616,210,-182,-202,164,0,189,12,13,-193,260,48,-358,-112,38,9,24,87,-142,-155,-8,309,197,38,-115,-2,-185,-82,-15,41,-52,-174,-280,32,72,-81,142,-153,0,0,0,0,0,0,0,0,44,16,-5,-29,85,42,-274,-79,0,-62,-1,44,-3,37,21,130,55,-18,-64,16,79,28,-106,-6,50,-214,264,-10208
0,-151,183,-54,242,18,-367,-111,-468,-409,-52,-189,-124,428,-39,-185,-207,-120,-138,-10,48,119,128,308,-318,-29,150,109,-407,-280,52,397,-532,0,3,-485,-398,-55,173,-118,1071,402,-1342,1235,-796,-53,-381,-3360,259,-207,64,-95,-1228,969,-279,-405,387,-413,-40,192,-266,-326,-511,991,-499,-274,0,-85,-344,455,224,370,579,-33,61,314,11,291,232,-202,-184,-336,-63,-64,60,-56,455,-87,310,558,223,126,272,-433,-426,-328,-127,297,-446,0,0,0,0,0,0,0,0,124,567,164,659,-283,4,415,238,221,681,-1,0,1075,-122,-175,0,576,3,-532,-35,-188,707,265,255,173,0,98,4,309,-31,-179,150,-199,-190,-8,40,-211,-193,15,22,183,-409,-211,-124,-574,-158,-188,95,10,193,-194,727,301,59,355,-29,222,-305,0,-1,-89,47,118,2,172,-155,161,34,87,-16,61,76,27,101,177,25,68,37,71,97,-17,88,109,162,-9,102,98,97,43,88,76,0,48,48,48,48,48,48,48,9,-26,190,-15,-36,-6,-319,26,-39,48,-23,218,246,-46,-65,180,37,21,138,-48,-119,4,99,76,-70,-174,-343,-15905
0,50,46,362,-180,88,118,-21,-205,106,-254,71,0,54,-133,186,-26,-19,-30,-54,-142,314,194,131,-107,0,-206,113,-229,45,182,0,20,0,348,-298,-355,4,165,-216,132,-216,-217,-64,-553,0,19,-569,-78,-23,-25,-2,-9,-534,-110,-444,-29,-66,0,146,-69,122,-36,-86,0,-59,0,-518,123,-92,-33,-188,154,-46,171,120,217,192,0,-48,285,121,0,0,-7,25,124,-27,95,-257,-42,0,-212,21,-83,2,56,0,49,0,0,0,0,0,0,0,0,151,-17,-175,234,0,128,218,-527,-31,-26,-13,0,182,-257,263,0,154,0,-76,-76,274,42,-95,0,1,0,-273,56,-44,371,0,62,-86,174,119,-71,-16,0,124,-129,-188,-181,-129,6,18,471,65,188,-90,48,-75,-139,82,-62,18,269,0,-58,0,62,225,-61,19,-81,-134,-38,185,-40,47,306,10,223,-102,106,-199,-91,26,-221,-11,-15,-279,-107,123,-255,237,349,178,109,114,-50,237,0,-2,-2,-2,-2,-2,-2,-2,26,15,-30,40,1,50,-43,-38,-46,-29,-2,-36,9,-11,27,-44,11,-33,-25,42,20,18,44,-5,19,-289,16,-835
0,354,-338,182,85,-115,9,360,-16,-21,-405,-54,-36,-192,-489,-606,24,24,-58,-93,-159,113,320,474,-159,0,-182,-395,25,164,547,-79,330,0,455,488,99,-85,349,-229,182,-437,281,75,186,69,-548,-1894,-364,132,880,-8,386,-736,93,-401,66,118,0,298,-222,-32,-199,94,14,-90,0,365,7,-135,31,155,304,-371,194,-154,33,3,-85,152,230,79,-14,167,-43,249,132,102,87,-107,-13,0,256,317,251,-10,202,67,-237,0,0,0,0,0,0,0,0,387,229,-309,-94,61,331,-626,-151,0,129,0,0,438,26,131,0,63,0,450,-190,333,34,127,0,280,0,209,-218,-153,-270,195,148,-377,-99,-205,362,-139,18,180,757,-138,242,-89,22,229,357,-168,-570,298,445,-34,-329,-183,-33,291,7,276,162,0,474,-173,-116,131,-544,-39,-196,-99,84,-47,1,-27,-203,-223,-60,18,139,-57,-111,58,-56,33,-43,36,114,-157,61,-74,-60,-137,-238,-159,0,5,5,5,5,5,5,5,-7,18,-29,-2,0,-28,-237,-124,41,130,-45,5,9,11,-40,86,49,8,63,-55,47,22,84,4,40,-370,-369,-6106
0,354,165,764,10,90,273,586,375,4,-249,-461,-143,-1108,-260,-316,513,-81,-393,-137,-80,-107,90,-335,496,-613,50,-252,-647,-1529,33,478,305,0,171,-567,381,652,-307,155,904,-686,316,1103,362,1172,1278,-3857,-750,657,1158,198,1135,1238,1939,-386,131,1073,-359,916,1885,-512,1231,-445,-183,287,0,282,-284,1210,229,131,52,-159,-31,-723,-416,383,-480,-1469,-364,564,-543,238,-33,-665,261,-447,165,855,-126,7,99,530,94,6,-336,-324,207,0,0,0,0,0,0,0,0,312,800,60,79,5,710,-835,62,-116,557,-40,0,-932,1123,183,0,-210,0,1004,1304,6,-305,-987,125,-221,0,-93,-151,460,-180,156,-127,-7,102,57,197,-728,354,799,-308,-106,-24,67,-1301,-259,-62,7,-25,172,95,611,-564,310,469,165,-30,365,-813,0,314,-56,344,-137,-62,-365,119,-162,-25,-92,-33,-55,-90,-205,6,-82,-60,-125,-169,-415,-82,-157,-121,-55,-45,32,-8,8,-142,-151,51,-131,0,1,1,1,1,1,1,1,-9,42,91,-330,98,12,-573,-54,68,191,-370,83,1,304,-121,48,108,-55,170,448,-44,-81,-245,10,218,-204,-323,176813
0,180,500,465,322,966,91,-150,460,471,-85,-333,52,-423,-147,-322,-168,4,13,139,-2,-330,381,218,252,153,991,-127,-261,525,243,-475,695,0,-653,-825,-858,-313,-332,-224,-99,-377,-332,574,-417,-1419,567,-16,-28,-93,-749,-446,-705,-2624,-52,-2078,-541,-340,0,-342,667,56,-842,-702,33,-1061,0,526,106,-377,-32,-496,139,439,86,-335,13,313,79,204,455,-306,215,-328,-104,314,58,71,56,-523,-230,0,550,-77,315,-97,68,-168,475,0,0,0,0,0,0,0,0,174,255,-297,577,524,-327,150,287,339,-36,345,0,195,-498,804,0,442,0,-288,-518,-467,1111,-90,0,123,0,-71,-64,-128,291,-550,-173,-285,-267,-110,-54,892,-129,-298,-204,106,195,-210,63,562,24,269,164,292,617,-206,78,549,-250,-103,-78,114,-374,0,138,99,-98,518,-28,-303,-64,14,75,-64,34,93,67,-69,18,1,5,-71,-36,129,-93,-43,74,-64,74,54,220,1,86,-49,-24,234,0,-55,-55,-55,-55,-55,-55,-55,9,52,-52,6,-80,-21,10,-21,40,-124,-20,-22,-222,-55,-52,-119,62,10,127,98,-59,68,-61,-70,-54,-173,-226,-16134
0,156,302,273,-6,-306,32,74,399,-627,564,639,-672,-188,355,580,-367,33,-116,82,194,188,-349,-90,140,-119,79,616,482,-435,707,-1144,-63,0,306,-503,-186,1728,931,879,1836,-1796,1619,-682,988,1109,-299,-739,-3006,1050,1392,234,814,1529,559,968,1209,575,102,-468,651,-663,1504,-2400,1340,47,0,87,560,482,-155,213,-807,144,377,-902,966,41,-142,-688,114,48,-529,-170,68,-53,63,536,104,282,143,214,396,161,410,-68,187,-1058,-225,0,0,0,0,0,0,0,0,-31,-684,99,-733,366,-90,-826,-298,-516,-355,-285,0,-1221,1038,613,0,-249,136,708,671,80,-1044,-815,0,-966,0,11,-110,471,184,-70,-80,-136,42,393,-133,-29,478,391,-170,78,-656,-359,-169,534,39,329,-248,46,338,536,-633,169,-66,-310,-202,-783,-285,0,223,-113,154,-65,-364,-368,153,-121,-17,-115,-139,-49,-136,-111,5,-75,-35,38,-199,-64,-130,-79,-121,-17,-109,-54,-103,-137,86,-16,-70,167,0,57,57,57,57,57,57,57,-113,9,118,196,109,-101,-64,-236,-104,86,-23,71,54,252,57,158,149,76,94,240,28,-25,-187,-139,-135,-146,78,46745
0,0,0,0,0,0,0,0,0,0,0,0,0,0,0,0,0,0,0,0,0,0,0,0,0,0,0,0,0,0,0,0,0,0,0,0,0,0,0,0,0,0,0,0,0,0,0,0,0,0,0,0,0,0,0,0,0,0,0,0,0,0,0,0,0,0,0,0,0,0,0,0,0,0,0,0,0,0,0,0,0,0,0,0,0,0,0,0,0,0,0,0,0,0,0,0,0,0,0,0,0,0,0,0,0,0,0,0,0,0,0,0,0,0,0,0,0,0,0,0,0,0,0,0,0,0,0,0,0,0,0,0,0,0,0,0,0,0,0,0,0,0,0,0,0,0,0,0,0,0,0,0,0,0,0,0,0,0,0,0,0,0,0,0,0,0,0,0,0,0,0,0,0,0,0,0,0,0,0,0,0,0,0,0,0,0,0,0,0,0,0,0,0,0,0,0,0,0,0,0,0,0,0,0,0,0,0,0,0,0,0,0,0,0,0,0,0,0,0,0,0,0,0,0,0,0,0,0,0,0,0,0,0,0
0,115,224,238,245,-328,17,-77,241,401,547,-98,-237,117,76,-465,90,-220,-71,12,-34,277,125,-160,-722,140,-95,-340,122,81,-537,159,-190,0,500,-204,33,414,302,-168,-270,-359,-302,-462,390,-410,418,-1644,323,183,62,137,-203,-712,23,-680,94,-48,40,-351,144,228,-190,-325,-43,412,0,135,400,31,-144,143,-102,392,-100,83,-401,-210,39,-306,148,-62,-82,283,-107,64,-97,428,482,-557,-126,44,-9,-470,169,350,-453,40,-59,0,0,0,0,0,0,0,0,293,-80,347,45,359,102,23,104,67,-271,-121,0,490,-504,-108,0,1007,0,15,91,-47,211,287,0,15,0,29,239,617,26,50,339,-96,-44,273,-61,-276,-224,-339,162,-124,131,136,130,612,144,194,-133,368,103,-199,-593,229,308,-332,615,61,32,0,-338,80,198,678,1,218,-213,-151,302,121,133,13,-52,56,164,310,90,332,59,59,59,-5,95,-123,179,-58,-192,-10,150,-37,-37,385,0,25,25,25,25,25,25,25,-12,129,9,-9,-46,-6,-102,-6,104,2,30,77,-15,53,26,-20,25,22,-83,-41,77,27,-45,18,36,3,-642,-8268
0,395,134,149,278,140,329,-138,181,-51,142,-8,34,162,8,327,-11,-30,0,0,297,0,148,-14,124,72,598,288,74,-182,166,88,146,0,-61,34,-123,491,56,-70,272,-127,-128,171,14,0,-63,-68,79,115,-5,0,0,-83,0,-59,0,-74,105,-43,-27,-2,57,-64,33,-59,0,200,-280,-165,-701,-122,-294,-121,-25,-75,-90,-89,0,6,45,-52,-89,-2,0,0,-27,-34,-86,-62,-138,-72,-306,-331,12,-132,45,-8,-208,0,0,0,0,0,0,0,0,-58,154,62,0,0,0,-115,-333,0,0,0,0,-233,0,-180,0,35,-150,40,-21,-33,75,-450,0,0,0,149,-384,178,255,-123,258,-376,-134,130,139,-29,18,30,-268,563,8,135,-38,40,382,-17,160,-148,-341,-81,119,-63,-227,-19,-267,-46,251,0,-70,-173,90,17,105,-167,12,-27,378,56,-167,-132,-55,-102,96,-63,172,88,-408,-196,301,100,-104,167,207,162,-6,-94,271,-131,273,-228,0,7,7,7,7,7,7,7,-19,39,48,-23,-8,8,-50,68,-4,27,5,-25,14,25,0,-41,43,7,57,-16,-27,7,-71,34,-28,418,89,-1901
0,169,234,406,-49,-328,-118,42,-56,291,417,-606,304,-17,-88,138,-348,546,308,365,161,1003,-106,-545,199,264,263,1108,-100,583,520,134,539,0,37,-311,-618,761,-233,189,795,1515,869,-2477,-530,539,-1028,-2019,-883,537,-209,-137,-44,1720,-1451,123,606,725,112,545,-1772,77,830,-124,299,-78,0,35,18,640,-176,-118,-533,23,-463,422,-406,72,-327,-146,-456,334,-74,-321,191,354,191,250,-249,-61,248,24,775,271,488,761,151,-160,-633,0,0,0,0,0,0,0,0,71,-689,-1412,390,-176,-1684,471,45,-265,-1289,-522,0,1102,-1052,220,0,-594,42,-731,-65,113,-2196,966,-829,-979,0,-191,203,403,84,95,35,-101,364,-149,270,-229,617,236,-156,148,806,120,-65,211,138,-378,450,347,47,-337,156,-126,457,675,-40,-314,374,0,-5,172,53,-384,128,-368,132,29,-40,-52,41,-119,39,29,-92,-16,54,-5,56,-12,4,-93,51,7,75,33,84,-55,-18,58,-30,-29,0,-57,-57,-57,-57,-57,-57,-57,146,96,-366,40,104,-260,-243,-31,79,-149,-23,-463,330,-152,78,90,101,41,-57,-19,98,76,172,-90,-168,-144,147,-12627
0,36,138,200,183,-441,310,-77,620,10,381,956,-2,965,-165,433,-139,-161,7,-280,-117,403,-113,-164,-439,177,534,433,553,146,258,65,433,0,-249,-407,-809,406,252,337,77,320,466,-1147,716,-340,-1008,-4035,-1121,214,943,363,122,1012,-1766,-608,506,-81,138,137,369,-538,1441,173,143,32,0,59,4,137,-17,-57,168,278,-7,88,548,26,363,155,-143,117,-331,222,-94,506,27,-231,-96,39,-13,234,558,492,138,311,105,555,363,0,0,0,0,0,0,0,0,-346,-325,-975,0,-100,-901,425,100,-106,-263,-169,0,1222,-2489,-83,0,-1326,-27,-1189,-804,431,-1410,1240,190,-1288,0,-14,107,64,-64,238,122,101,310,247,48,535,182,348,-28,166,19,-80,391,-136,147,-75,113,306,-103,-51,-201,171,239,324,242,-408,133,0,171,-76,4,100,-32,-186,278,63,-31,134,-63,48,-63,6,75,98,-32,22,2,-51,108,11,-33,179,36,-17,-53,-53,73,83,12,70,0,-5,-5,-5,-5,-5,-5,-5,96,113,-159,124,-7,-53,-394,-23,-19,55,52,109,224,-405,-12,105,-250,56,-108,-5,77,128,209,53,-16,-402,115,-48672
0,304,304,722,215,-214,-319,-808,4,486,458,25,-160,-419,761,920,235,449,-145,-233,210,908,-457,497,-357,-23,271,-162,-540,322,588,-211,-111,0,-534,-498,-3,-336,517,253,542,1356,244,-12,72,-364,274,-3669,-261,398,-87,-126,-493,531,-631,562,-46,-104,103,-78,932,939,328,-760,62,174,0,3,108,217,415,-430,275,-392,-239,186,715,64,-103,-528,-166,-312,235,257,196,-314,405,342,-443,94,141,-140,465,-305,-502,-23,83,-52,152,0,0,0,0,0,0,0,0,-555,143,302,22,-61,-110,320,77,-196,2,0,0,-660,-484,-335,0,-125,0,-250,175,222,-28,-713,0,0,0,298,-541,-209,-16,761,-97,-224,75,-133,-198,725,-468,-313,-691,747,819,-636,-80,491,402,-320,432,-338,-601,510,320,-756,295,647,357,28,448,0,28,165,-113,226,-354,182,-33,149,388,-112,-191,-14,204,-145,109,-80,200,-125,1,-178,-15,-201,-223,164,200,112,181,-14,24,-66,141,244,0,35,35,35,35,35,35,35,79,137,106,21,-117,-91,-359,128,133,8,-28,49,71,-20,-38,10,-101,65,84,6,35,127,0,0,45,15,133,3326
0,-12,212,-125,-72,-133,-250,185,12,-4,-383,-247,-183,-104,146,76,223,-603,-4,371,140,153,234,253,75,-241,257,80,422,509,2,62,-18,0,279,78,235,-299,297,258,278,-1360,17,-590,70,-175,-193,-3255,-865,244,519,2,232,-1479,1145,-1482,415,-68,-73,-403,-1461,-712,271,-771,-75,-235,0,138,-383,163,-165,-187,427,166,316,165,540,241,-295,469,-106,-50,551,-241,0,72,218,285,53,194,-274,-137,203,87,-394,74,-211,201,-256,0,0,0,0,0,0,0,0,80,122,31,10,248,-167,464,50,328,218,0,0,924,463,-113,0,-414,27,-349,233,218,-149,27,0,90,0,41,-109,-80,-35,179,6,69,312,110,-46,-486,125,-122,91,51,160,-171,47,-682,71,224,119,237,47,418,-195,-154,-42,-228,341,244,66,0,-8,-136,219,-115,-4,-193,-45,130,98,110,193,120,107,85,198,210,143,195,149,86,135,50,101,199,95,133,83,218,-404,152,118,-14,0,19,19,19,19,19,19,19,-51,51,-66,-105,-16,-1,-258,-54,158,-9,24,327,-4,274,-103,190,-49,7,-17,-85,-29,19,-46,55,-22,-52,195,-22878
0,351,519,160,348,888,83,-111,-300,-453,443,1414,243,-349,97,269,-139,-175,-157,-215,-272,817,-201,242,526,254,-158,-145,354,69,551,-423,-35,0,211,-55,-314,523,712,1008,469,1110,1081,727,1160,1117,1375,-1578,-541,426,598,707,19,1188,2612,574,48,1528,-310,561,1319,1011,1379,1765,11,125,0,205,308,425,-8,-430,-82,170,251,-568,112,1004,12,559,-417,360,142,-626,-9,351,-155,756,-221,71,-339,53,-378,-815,929,-529,478,-248,224,0,0,0,0,0,0,0,0,-245,-662,-510,97,352,578,-929,-278,-531,-126,-53,0,-1662,1673,703,0,372,-4,162,773,-666,-217,-365,295,10,0,82,171,265,-79,-150,179,-204,-78,-39,84,478,-322,227,-391,-234,697,-191,-132,-463,63,-258,-127,131,723,326,-532,109,-132,-34,219,-90,-314,0,294,464,67,174,-120,-158,183,-278,-92,-270,-257,-182,-322,-330,-326,-198,-280,-216,-325,-232,-152,-210,-298,-317,-147,-232,-73,-188,-132,246,-191,-100,0,113,113,113,113,113,113,113,46,-128,94,287,128,185,-391,-75,151,-237,14,311,-107,400,-55,60,169,12,-81,124,116,43,113,-67,18,-119,-875,193080
0,-206,606,273,95,-121,-305,75,-485,-471,-433,138,-34,162,29,-324,-556,265,0,-282,-44,40,-348,266,44,30,352,166,-366,-96,-270,223,-59,0,260,-144,712,-144,-79,6,-2,23,412,-72,-58,-38,17,-575,339,351,524,0,-76,-288,-38,-888,49,53,-9,-377,-201,-52,-200,-113,-239,-55,0,131,324,-475,-243,-110,48,308,154,-121,111,-66,-3,-110,-326,-236,19,212,0,4,141,3,250,472,91,19,111,-332,-108,82,-65,-71,82,0,0,0,0,0,0,0,0,34,20,47,0,7,-110,172,13,25,329,0,0,-268,-1,117,0,0,0,195,64,-103,106,685,0,20,0,-135,94,69,101,305,208,270,142,-256,130,103,-198,-112,-50,-158,398,-118,0,157,-138,-298,-317,-118,-20,41,161,-26,-205,331,-573,-163,176,0,-316,393,-50,282,-51,18,331,202,148,87,155,36,-87,120,16,52,-2,80,9,37,44,-27,145,-88,129,-73,339,184,117,284,148,-90,0,-7,-7,-7,-7,-7,-7,-7,7,-67,-13,26,-23,-24,-63,-35,4,121,8,4,-56,-25,-113,103,8,21,58,1,-65,34,-3,-7,29,42,368,-4648
0,176,149,-234,61,-803,288,-28,145,222,48,-506,-527,-726,170,-129,-122,-821,-211,128,238,522,34,-597,770,109,-618,-23,-731,196,172,103,31,0,1121,-53,-227,2865,241,-556,2829,-1739,-431,-1169,447,-787,-176,494,-157,-298,-896,-156,-28,-1562,615,194,136,-210,250,-149,-142,-474,-848,-600,275,680,0,465,110,272,-262,-347,-390,-239,465,413,982,-194,440,138,338,43,-88,-457,-164,160,166,250,-376,-1052,-298,-430,287,46,13,-322,-298,279,470,0,0,0,0,0,0,0,0,-50,-335,204,-131,1030,-260,-152,104,-566,-288,-20,0,-44,27,-449,0,479,74,367,614,57,476,-514,-98,93,0,93,-118,-288,-130,248,89,-364,-52,339,-266,-234,360,210,-64,-221,-325,-58,-307,-25,-61,283,-271,-38,-665,177,-252,132,32,-19,82,568,-233,0,142,-82,-299,-151,109,108,-209,31,-6,41,111,31,8,-21,-100,95,-1,98,-6,13,47,1,80,48,22,21,32,-137,93,-7,30,20,0,-69,-69,-69,-69,-69,-69,-69,-120,51,-19,58,107,-87,49,-46,-149,-253,-76,-12,-125,152,-102,-71,77,37,6,58,-119,-66,-90,119,-69,-198,468,-18045
