0,0,0,0,0,0,0,0,0,0,0,0,0,0,0,0,0,0,0,0,0,0,0,0,0,0,0,0,0,0,0,0,0,0,0,0,0,0,0,0,0,0,0,0,0,0,0,0,0,0,0,0,0,0,0,0,0,0,0,0,0,0,0,0,0,0,0,0,0,0,0,0,0,0,0,0,0,0,0,0,0,0,0,0,0,0,0,0,0,0,0,0,0,0,0,0,0,0,0,0,0,0,0,0,0,0,0,0,0,0,0,0,0,0,0,0,0,0,0,0,0,0,0,0,0,0,0,0,0,0,0,0,0,0,0,0,0,0,0,0,0,0,0,0,0,0,0,0,0,0,0,0,0,0,0,0,0,0,0,0,0,0,0,0,0,0,0,0,0,0,0,0,0,0,0,0,0,0,0,0,0,0,0,0,0,0,0,0,0,0,0,0,0,0,0,0,0,0,0,0,0,0,0,0,0,0,0,0,0,0,0,0,0,0,0,0,0,0,0,0,0,0,0,0,0,0,0,0,0,0,0,0,0
0,0,0,0,0,0,0,0,0,0,0,0,0,0,0,0,0,0,0,0,0,0,0,0,0,0,0,0,0,0,0,0,0,0,0,0,0,0,0,0,0,0,0,0,0,0,0,0,0,0,0,0,0,0,0,0,0,0,0,0,0,0,0,0,0,0,0,0,0,0,0,0,0,0,0,0,0,0,0,0,0,0,0,0,0,0,0,0,0,0,0,0,0,0,0,0,0,0,0,0,0,0,0,0,0,0,0,0,0,0,0,0,0,0,0,0,0,0,0,0,0,0,0,0,0,0,0,0,0,0,0,0,0,0,0,0,0,0,0,0,0,0,0,0,0,0,0,0,0,0,0,0,0,0,0,0,0,0,0,0,0,0,0,0,0,0,0,0,0,0,0,0,0,0,0,0,0,0,0,0,0,0,0,0,0,0,0,0,0,0,0,0,0,0,0,0,0,0,0,0,0,0,0,0,0,0,0,0,0,0,0,0,0,0,0,0,0,0,0,0,0,0,0,0,0,0,0,0,0,0,0,0,0
0,0,0,0,0,0,0,0,0,0,0,0,0,0,0,0,0,0,0,0,0,0,0,0,0,0,0,0,0,0,0,0,0,0,0,0,0,0,0,0,0,0,0,0,0,0,0,0,0,0,0,0,0,0,0,0,0,0,0,0,0,0,0,0,0,0,0,0,0,0,0,0,0,0,0,0,0,0,0,0,0,0,0,0,0,0,0,0,0,0,0,0,0,0,0,0,0,0,0,0,0,0,0,0,0,0,0,0,0,0,0,0,0,0,0,0,0,0,0,0,0,0,0,0,0,0,0,0,0,0,0,0,0,0,0,0,0,0,0,0,0,0,0,0,0,0,0,0,0,0,0,0,0,0,0,0,0,0,0,0,0,0,0,0,0,0,0,0,0,0,0,0,0,0,0,0,0,0,0,0,0,0,0,0,0,0,0,0,0,0,0,0,0,0,0,0,0,0,0,0,0,0,0,0,0,0,0,0,0,0,0,0,0,0,0,0,0,0,0,0,0,0,0,0,0,0,0,0,0,0,0,0,0
0,0,0,0,0,0,0,0,0,0,0,0,0,0,0,0,0,0,0,0,0,0,0,0,0,0,0,0,0,0,0,0,0,0,0,0,0,0,0,0,0,0,0,0,0,0,0,0,0,0,0,0,0,0,0,0,0,0,0,0,0,0,0,0,0,0,0,0,0,0,0,0,0,0,0,0,0,0,0,0,0,0,0,0,0,0,0,0,0,0,0,0,0,0,0,0,0,0,0,0,0,0,0,0,0,0,0,0,0,0,0,0,0,0,0,0,0,0,0,0,0,0,0,0,0,0,0,0,0,0,0,0,0,0,0,0,0,0,0,0,0,0,0,0,0,0,0,0,0,0,0,0,0,0,0,0,0,0,0,0,0,0,0,0,0,0,0,0,0,0,0,0,0,0,0,0,0,0,0,0,0,0,0,0,0,0,0,0,0,0,0,0,0,0,0,0,0,0,0,0,0,0,0,0,0,0,0,0,0,0,0,0,0,0,0,0,0,0,0,0,0,0,0,0,0,0,0,0,0,0,0,0,0
0,0,0,0,0,0,0,0,0,0,0,0,0,0,0,0,0,0,0,0,0,0,0,0,0,0,0,0,0,0,0,0,0,0,0,0,0,0,0,0,0,0,0,0,0,0,0,0,0,0,0,0,0,0,0,0,0,0,0,0,0,0,0,0,0,0,0,0,0,0,0,0,0,0,0,0,0,0,0,0,0,0,0,0,0,0,0,0,0,0,0,0,0,0,0,0,0,0,0,0,0,0,0,0,0,0,0,0,0,0,0,0,0,0,0,0,0,0,0,0,0,0,0,0,0,0,0,0,0,0,0,0,0,0,0,0,0,0,0,0,0,0,0,0,0,0,0,0,0,0,0,0,0,0,0,0,0,0,0,0,0,0,0,0,0,0,0,0,0,0,0,0,0,0,0,0,0,0,0,0,0,0,0,0,0,0,0,0,0,0,0,0,0,0,0,0,0,0,0,0,0,0,0,0,0,0,0,0,0,0,0,0,0,0,0,0,0,0,0,0,0,0,0,0,0,0,0,0,0,0,0,0,0
0,0,0,0,0,0,0,0,0,0,0,0,0,0,0,0,0,0,0,0,0,0,0,0,0,0,0,0,0,0,0,0,0,0,0,0,0,0,0,0,0,0,0,0,0,0,0,0,0,0,0,0,0,0,0,0,0,0,0,0,0,0,0,0,0,0,0,0,0,0,0,0,0,0,0,0,0,0,0,0,0,0,0,0,0,0,0,0,0,0,0,0,0,0,0,0,0,0,0,0,0,0,0,0,0,0,0,0,0,0,0,0,0,0,0,0,0,0,0,0,0,0,0,0,0,0,0,0,0,0,0,0,0,0,0,0,0,0,0,0,0,0,0,0,0,0,0,0,0,0,0,0,0,0,0,0,0,0,0,0,0,0,0,0,0,0,0,0,0,0,0,0,0,0,0,0,0,0,0,0,0,0,0,0,0,0,0,0,0,0,0,0,0,0,0,0,0,0,0,0,0,0,0,0,0,0,0,0,0,0,0,0,0,0,0,0,0,0,0,0,0,0,0,0,0,0,0,0,0,0,0,0,0
0,0,0,0,0,0,0,0,0,0,0,0,0,0,0,0,0,0,0,0,0,0,0,0,0,0,0,0,0,0,0,0,0,0,0,0,0,0,0,0,0,0,0,0,0,0,0,0,0,0,0,0,0,0,0,0,0,0,0,0,0,0,0,0,0,0,0,0,0,0,0,0,0,0,0,0,0,0,0,0,0,0,0,0,0,0,0,0,0,0,0,0,0,0,0,0,0,0,0,0,0,0,0,0,0,0,0,0,0,0,0,0,0,0,0,0,0,0,0,0,0,0,0,0,0,0,0,0,0,0,0,0,0,0,0,0,0,0,0,0,0,0,0,0,0,0,0,0,0,0,0,0,0,0,0,0,0,0,0,0,0,0,0,0,0,0,0,0,0,0,0,0,0,0,0,0,0,0,0,0,0,0,0,0,0,0,0,0,0,0,0,0,0,0,0,0,0,0,0,0,0,0,0,0,0,0,0,0,0,0,0,0,0,0,0,0,0,0,0,0,0,0,0,0,0,0,0,0,0,0,0,0,0
0,405,68,-127,592,-34,408,-124,-73,-534,89,231,225,47,-542,278,-870,-268,-742,-588,273,513,369,-113,-21,-311,-448,-879,244,51,166,-566,-445,0,40,-411,-600,432,-168,351,1174,861,964,389,446,1036,268,-4390,-801,761,-416,193,1018,1060,1741,832,618,684,283,-430,232,-846,1127,-711,-195,-367,0,103,-93,271,279,181,48,-145,140,59,-27,-621,391,290,-499,302,803,706,-316,68,170,903,-305,298,423,-81,-583,-108,-334,-333,-49,119,-312,0,0,0,0,0,0,0,0,-157,109,-158,-149,4,970,-774,-68,37,124,0,0,-491,972,-283,0,-221,-160,240,370,648,109,-569,-95,79,0,18,105,-76,26,162,-4,-38,-148,574,-107,247,787,593,-735,48,-498,-3,-149,96,-27,-89,-296,63,-560,-611,-123,181,730,-458,-115,-331,331,0,528,65,-201,47,51,-12,60,-383,-132,-153,-191,-201,-148,-161,-119,-78,-111,-176,-294,-65,-91,-120,-251,-44,-58,-84,61,-212,-66,-225,-32,-87,0,24,24,24,24,24,24,24,24,37,159,147,260,202,-750,-36,16,16,-119,362,92,367,-52,63,26,-89,-147,52,23,43,-230,-110,-116,-158,103
0,-75,81,-159,-42,-126,129,48,-57,-149,-132,-178,-10,126,-154,-43,-111,-287,163,108,504,-157,-375,457,303,-81,-111,588,-326,-610,177,-203,-693,0,5,-56,-316,1552,356,24,500,340,1593,686,-452,-605,36,-2042,-126,-713,424,334,-452,-38,832,-489,-37,-170,62,80,20,225,-282,681,-178,345,0,32,29,69,211,119,-196,-10,-48,51,-266,-264,-33,117,-367,-32,-48,-363,-82,19,-154,183,-85,367,-309,-90,-426,256,-14,544,177,-272,38,0,0,0,0,0,0,0,0,84,1101,337,81,247,-110,25,63,1285,-308,-115,0,-170,322,193,0,567,83,-258,294,287,-116,-47,478,-261,0,-174,157,-151,29,52,-127,16,32,140,75,-578,-437,-131,85,-174,-246,-300,43,479,149,-11,163,38,925,-173,187,-13,-405,406,-158,262,-113,0,-24,87,-81,-196,-45,-260,49,79,-85,-21,56,70,67,-32,42,145,107,46,-43,-41,81,138,-3,147,74,63,64,99,169,58,57,128,0,45,45,45,45,45,45,45,43,45,59,-89,-69,14,-273,-27,96,-197,53,564,25,169,-43,79,101,-63,8,85,-20,13,35,11,-169,-101,124
0,495,190,-410,-185,28,493,253,338,314,692,-194,335,472,-145,442,-170,-48,134,215,-106,-86,175,-781,515,53,157,174,-408,-521,458,-289,936,0,162,-611,-1307,-139,-352,-77,86,1180,160,1054,-430,-86,-315,-2211,144,775,613,-106,-32,1777,-1538,815,377,362,-77,498,927,674,289,832,-318,-163,0,355,367,79,-393,-207,2,-47,238,-194,119,1221,500,-592,-466,711,124,252,46,139,199,-12,-401,281,191,52,197,-387,874,318,-102,-83,1236,0,0,0,0,0,0,0,0,53,-2114,-1512,-793,-1190,-435,1001,50,-277,-1729,-107,0,768,-1734,952,0,-8,0,-1445,-1121,424,-1895,1289,-704,-795,0,-7,175,-113,118,454,0,-39,275,266,-285,-8,421,-455,-447,-31,675,-41,-266,383,333,-557,-217,130,845,373,-77,-246,3,-607,35,-540,994,0,68,163,-416,-76,-157,5,154,-124,40,-41,-84,-10,-165,-147,-146,32,-93,-74,23,-111,72,-177,-127,-135,7,-89,55,13,-8,96,-43,-126,0,-23,-23,-23,-23,-23,-23,-23,196,-207,-23,13,-3,-149,-206,117,166,-103,94,-393,286,-397,373,-15,177,32,-35,-48,172,-234,290,-205,-128,-137,102
0,61,231,310,-352,476,-104,674,71,650,-444,-200,219,-280,298,351,284,-124,352,-536,641,-6,175,115,461,-125,240,-216,-180,285,189,-225,165,0,1508,-617,-368,53,108,655,336,-866,1735,-298,-322,140,-458,-1285,-473,-510,746,28,-353,-1427,110,-733,509,-471,-85,54,-866,-53,-527,-1143,64,-320,0,82,-3,304,198,-238,-36,67,-137,-571,-250,97,469,65,265,166,134,269,70,-219,462,256,478,-60,-73,-16,122,-276,248,-413,17,-212,356,0,0,0,0,0,0,0,0,434,-5,-634,-7,575,-344,450,-169,-141,-636,60,0,397,810,490,0,503,-4,347,291,47,495,79,-63,-67,0,-87,-330,25,326,15,-247,-44,18,242,188,-307,-279,203,55,-39,-130,-150,-465,574,-56,-276,-49,-33,-73,54,278,-299,-234,110,-44,371,331,0,-204,-91,53,230,-114,161,93,10,23,141,-177,106,214,117,164,113,107,135,157,73,146,60,205,83,196,174,139,152,160,22,125,109,0,27,27,27,27,27,27,27,-47,252,-89,27,123,-60,-10,0,-25,20,18,-203,9,104,31,92,43,2,153,-98,-2,-4,-88,6,16,-20,-462
0,174,-95,-128,-102,-161,-39,-319,-69,70,375,151,229,-68,258,-35,-69,115,0,106,60,-160,127,100,-2,0,231,11,302,19,-131,58,-184,0,257,521,-176,175,388,115,420,-611,-196,-214,-49,251,0,-1851,-566,-608,-286,0,-115,-941,1111,-431,-175,-477,0,10,-596,49,-820,-213,18,-500,0,-162,50,150,144,-399,214,373,65,-42,175,-84,269,-41,371,-162,70,-539,0,-54,642,-156,-163,761,499,72,-55,-164,43,274,-158,-12,82,0,0,0,0,0,0,0,0,315,63,-477,-1,-161,64,178,188,351,-13,0,0,770,-654,-288,0,187,0,-237,618,182,620,149,82,82,0,-138,-346,-99,268,171,-199,-335,-300,389,-220,60,-312,-190,-415,144,77,-45,11,-168,147,268,13,-198,-143,52,-301,-2,354,161,-57,47,138,0,12,-160,-133,155,9,-83,156,190,270,-78,-45,-264,105,79,201,133,0,39,54,202,41,99,12,286,116,182,173,240,146,-30,287,28,0,1,1,1,1,1,1,1,-41,63,-39,-13,1,-13,-138,-23,-10,-73,5,-48,88,45,-50,89,35,24,-17,4,117,40,-44,48,-40,225,132
0,606,92,53,-307,163,319,383,36,-93,894,-198,204,-233,165,-454,351,107,-204,370,-241,15,-508,-362,222,74,-87,527,-147,-670,482,233,185,0,-340,-756,-581,248,-122,390,318,-135,235,-32,106,0,383,-1852,-347,529,64,-261,450,1262,-584,-273,156,-574,-123,298,215,-466,960,169,-74,-315,0,456,55,244,-401,730,-657,571,-371,265,-291,-175,87,1076,-1024,14,-238,-32,110,-5,667,-350,-849,72,184,69,326,300,101,-31,100,-97,175,0,0,0,0,0,0,0,0,-669,-28,-170,0,0,-843,-283,643,-48,243,-116,0,709,-136,517,0,-299,0,232,-831,-490,-1098,1018,0,-379,0,51,-38,71,168,-423,-84,2,631,591,-325,279,364,160,-368,61,351,149,48,-307,-45,-302,326,136,-365,-17,-523,-610,4,686,267,425,126,0,180,-6,-36,-185,-108,-279,27,-32,-23,-3,136,75,-436,-43,43,-13,-199,33,-93,-182,-23,-136,-25,148,-33,37,91,-122,-116,-127,-68,-42,0,30,30,30,30,30,30,30,-54,136,-26,9,73,30,-290,-4,48,39,-39,129,217,-138,-7,45,-27,-3,-43,-38,-112,-7,346,-7,23,-231,-271
0,317,-77,-172,11,250,-105,20,-5,-736,718,48,-277,-893,326,545,-315,-499,661,-1144,-588,682,216,-317,-207,14,262,-306,38,-645,89,-292,-418,0,-644,-1399,-1406,-389,-481,-463,226,1072,531,595,1093,688,154,185,577,-330,1894,1360,540,723,1029,-641,-526,-3,423,645,1594,2500,1494,351,1172,-656,0,167,-391,307,-345,-551,124,367,679,-421,-150,118,-102,-857,9,-294,258,-319,362,-771,36,-435,-328,-456,97,-170,-397,-911,17,-231,62,323,-420,0,0,0,0,0,0,0,0,-246,-212,686,-1175,421,1615,-369,159,117,723,-403,0,-670,1142,-708,0,320,0,641,443,-128,-560,-625,63,-441,0,89,-142,284,-177,99,-199,14,53,-393,-765,558,43,-29,-157,-311,961,37,911,691,381,-745,-67,-141,688,-1371,-651,-661,-218,194,61,-93,-320,0,408,-116,122,-52,107,-396,161,-142,101,-82,-160,-128,-150,36,-160,-90,-103,-61,-88,-42,39,-135,-189,-135,24,-27,-67,-177,-142,-99,-112,14,0,-72,-72,-72,-72,-72,-72,-72,148,-214,-100,-5,9,-8,-72,34,39,336,283,-498,-16,192,-505,-213,60,-100,39,-7,229,11,-248,112,-226,207,-292
0,526,878,223,57,627,388,-202,158,1132,-56,-125,39,-294,-319,295,549,-704,125,-249,284,-1158,-161,-45,-94,224,502,-859,-509,24,435,-182,177,0,294,-87,-528,701,188,373,775,2362,922,478,1256,1907,-772,-4071,1479,279,867,87,1449,1752,-365,852,-95,921,141,728,385,-271,2214,370,563,25,0,286,193,186,-249,-97,119,-40,673,-114,-152,-268,-525,579,-390,-129,-297,-36,-638,468,732,-854,-327,490,83,509,737,-13,130,415,723,116,560,0,0,0,0,0,0,0,0,-158,-1015,-652,-932,-1172,-51,-682,-140,-443,519,0,0,-1047,-21,504,0,125,0,441,-1337,-146,-1223,-935,-606,-801,0,81,-41,-293,109,-190,-280,-303,43,-343,237,-477,69,524,-132,-539,-276,-611,-530,128,4,-371,-111,233,1567,-20,-869,393,304,-65,-48,-89,-74,0,485,194,-139,-405,-184,-370,61,-78,-95,-123,14,-95,-96,-215,-346,-22,5,-52,-35,15,19,-71,-108,-28,-25,-96,226,-26,-46,131,58,-87,0,43,43,43,43,43,43,43,300,194,-67,-127,1,-11,-611,43,-30,-21,10,205,174,-275,-21,119,74,95,245,-122,-104,129,46,-14,198,-241,-32
0,81,-37,254,179,650,-361,92,792,-316,378,-33,-13,292,-372,56,-274,-9,17,-35,-101,-139,549,149,-14,249,311,217,420,87,-98,-156,-407,0,555,748,233,651,-117,117,231,-671,-434,236,-556,250,-260,-1212,-504,192,-329,137,-151,-671,197,-1235,129,-82,-95,-421,-681,-217,-559,-737,-61,490,0,-34,112,-239,165,-321,111,-162,-41,105,-217,77,153,329,217,223,-39,-300,0,24,618,243,-229,376,-147,38,-369,5,-415,-193,289,-83,73,0,0,0,0,0,0,0,0,920,543,-250,122,-128,550,-722,-51,-52,425,0,0,247,-177,320,0,120,0,-341,505,376,521,-116,332,201,0,35,-169,-26,-224,-448,41,-89,-165,80,-314,-91,273,-215,-614,-291,-37,-604,-134,-247,-77,255,304,461,259,-246,-99,544,650,179,-180,-172,369,0,19,49,108,-148,324,56,-203,-65,-57,-61,-94,111,-16,-67,77,301,136,-50,-185,84,-166,49,-59,-31,44,-270,-341,126,65,-97,61,-187,0,11,11,11,11,11,11,11,77,34,-4,-7,81,68,-277,-49,11,-50,-3,80,10,26,4,132,21,-1,-83,31,94,10,-122,-10,37,-134,230
0,15,177,195,100,323,-137,-19,-442,-118,291,-233,-24,178,130,-562,-164,-252,-146,-221,85,99,-21,381,123,-56,221,147,-159,-369,164,436,-492,0,-3,-507,-318,-45,-115,-227,1600,546,-1216,832,-796,-262,-126,-2798,531,-106,66,-75,-1152,704,-265,-357,223,-123,-6,157,134,-387,-997,408,-535,-656,0,86,10,354,-152,41,289,235,-174,67,-119,15,40,-143,246,-247,-282,140,55,239,468,114,263,375,250,89,-27,-440,-359,-436,-56,317,-119,0,0,0,0,0,0,0,0,323,584,520,368,-558,-137,526,455,180,522,-4,0,1008,-400,-146,0,500,34,-256,-567,62,897,266,97,128,0,127,-121,165,-92,-135,261,-215,-221,-185,172,-398,-253,229,-16,64,-336,-183,-105,-426,-415,451,87,85,51,-65,509,328,139,553,-167,268,-192,0,29,-161,183,10,118,142,-2,48,45,21,14,47,39,9,-1,80,35,65,87,80,41,90,38,99,199,94,43,114,42,35,97,104,0,29,29,29,29,29,29,29,8,-73,212,-73,-101,4,-178,24,-68,29,-21,69,193,4,-19,182,90,40,75,-57,-59,-31,69,68,-97,-112,264
0,99,41,149,59,-51,57,-40,147,49,32,54,0,76,50,138,-34,-31,23,-54,121,282,270,651,-8,0,-18,182,-95,16,160,0,43,0,17,-360,34,272,-52,-181,89,-230,-222,-55,-415,0,-9,-528,-68,-52,-17,0,-10,-516,124,-568,62,-26,0,154,-114,-10,-40,-79,0,4,0,-271,37,-7,-137,31,135,101,57,120,39,157,0,-68,47,75,0,0,-11,-76,-158,-62,24,-103,39,0,-280,34,-118,-6,79,0,10,0,0,0,0,0,0,0,0,-60,-150,-41,300,0,94,329,-257,-14,-14,-19,0,364,-194,348,0,75,0,-11,-154,125,37,-197,0,-30,0,118,207,-120,471,-91,133,-157,105,25,-39,-16,0,64,-12,-147,-121,-167,89,-10,276,-12,-47,-47,19,63,-184,33,-14,0,256,0,-17,0,-7,347,-292,97,163,-144,-5,71,-5,24,140,40,173,114,-41,-149,-261,-78,-161,73,-68,-280,-459,21,-23,379,309,12,-7,-149,-140,440,0,0,0,0,0,0,0,0,9,-18,-4,18,4,33,0,-30,-37,-49,0,-11,16,-3,-18,13,12,4,4,29,-10,0,7,-14,45,-261,-12
0,-63,-278,603,415,-15,234,265,115,114,-324,173,3,-88,-265,-254,29,268,-86,47,122,211,-101,678,-39,0,52,-327,-150,55,562,-198,135,0,-25,512,-27,-63,342,-280,537,-148,36,45,-209,15,-549,-1708,-201,171,570,-48,246,-884,59,-668,113,168,0,111,-249,-41,-57,-248,-23,-19,0,221,56,-172,-62,-101,384,-348,221,-313,64,-54,-72,-66,147,-188,-15,-90,-18,-303,78,179,-77,-170,-14,0,355,278,109,-207,485,16,-114,0,0,0,0,0,0,0,0,349,158,-23,81,99,38,-422,-119,0,-51,0,0,209,-242,151,0,0,0,370,-237,507,63,235,0,220,0,352,-18,-309,-331,241,139,-404,-256,-71,331,-64,-3,-165,687,-44,173,33,-15,509,421,-328,-459,54,256,-49,-349,-305,97,132,305,370,14,0,336,-185,-40,-104,-395,-273,-317,-11,167,87,57,38,-110,-129,-44,141,192,-19,-88,84,64,204,40,59,239,26,128,68,34,-19,-25,-61,0,9,9,9,9,9,9,9,27,6,18,7,8,-94,-190,-85,53,95,-45,9,3,-6,-95,83,43,19,72,-70,59,2,132,14,25,-447,-517
0,350,198,833,67,105,194,583,301,-59,-317,31,-74,-1011,-216,-264,744,-123,-156,-89,-151,-7,46,227,444,-776,362,-397,-494,-1005,13,110,60,0,-38,-624,299,642,-168,-64,713,-830,55,1156,562,630,1788,-3788,-785,798,822,278,1117,1321,1983,-216,-235,1210,-498,975,1948,-366,1309,-465,-210,364,0,229,-22,1030,141,-204,133,-116,52,-587,-795,448,-190,-1602,-504,481,-696,143,-9,-154,15,-220,409,774,-119,-471,178,58,9,-247,-225,57,398,0,0,0,0,0,0,0,0,237,655,32,131,217,746,-1027,119,-262,593,-47,0,-819,616,229,0,-98,16,1148,1404,78,-137,-895,104,-307,0,50,-184,457,-349,148,-272,-72,148,-197,105,-773,461,326,-372,-171,-219,250,-906,-308,-45,-189,-66,-98,-180,508,-711,120,479,29,-164,-12,-884,0,328,47,431,-246,23,-385,109,-59,30,-139,-52,-100,-187,-334,-160,9,-90,-112,-226,-441,-177,-197,-172,-127,-58,-101,-6,-83,-44,-163,-33,-114,0,-12,-12,-12,-12,-12,-12,-12,-22,-6,36,-244,118,6,-616,-78,52,150,-305,328,-12,262,-60,38,92,-151,136,333,-35,-26,-229,9,104,-206,-434
0,238,140,-84,229,343,149,-55,188,453,-137,-106,-104,-310,-52,10,-239,269,-232,229,170,-240,67,89,475,-24,740,-12,-202,980,23,-27,550,0,-674,-657,-565,-329,-268,-224,-147,-229,-792,490,-584,-1352,363,7,-56,74,-258,-414,-637,-2544,-338,-2077,-620,-368,0,125,671,5,-339,-580,6,-963,0,315,-100,-425,-167,-530,-301,17,261,-687,-127,573,-261,99,619,-300,184,-460,-74,107,140,563,65,-765,-82,0,374,38,180,99,-38,-220,396,0,0,0,0,0,0,0,0,184,391,-566,553,741,-104,161,310,157,-32,312,0,-3,-419,877,0,-94,0,-580,-548,-152,898,-138,0,-41,0,119,-234,46,-233,-282,-27,111,-75,-184,-86,779,-365,-89,-114,29,-169,193,58,226,247,-133,422,209,257,-286,29,-68,187,-149,-91,-70,-806,0,150,-171,21,364,145,-349,-56,121,114,17,38,211,81,-61,37,38,-34,10,8,110,-141,74,93,-41,114,19,151,11,21,69,67,199,0,-74,-74,-74,-74,-74,-74,-74,45,-62,-76,46,-113,4,50,3,-7,-23,-34,-139,-188,-74,-78,-135,-4,-15,69,32,4,151,-75,-35,-86,-164,-324
0,161,488,286,-38,-283,24,39,553,-797,604,536,-637,-239,401,595,-897,244,-223,-12,314,90,-498,-178,205,62,352,932,495,-127,483,-687,-186,0,333,-359,-352,1394,841,781,1461,-1977,1831,-435,1456,1149,-487,-419,-2842,848,1365,56,894,1837,441,935,815,357,29,-437,841,-716,1652,-2674,1322,95,0,45,610,706,-187,-137,-732,188,168,-808,803,430,-273,-609,196,-44,-150,54,362,120,-14,497,-42,297,-147,132,298,339,-116,123,123,-1142,46,0,0,0,0,0,0,0,0,107,-450,128,-1228,312,-267,-769,-268,-359,-532,-255,0,-1082,892,249,0,-459,87,723,977,150,-998,-726,0,-826,0,2,105,229,93,148,-151,-67,70,137,-372,-193,627,13,-410,-19,-219,-440,-198,146,110,-10,-466,34,339,211,-418,398,-237,-549,-99,-538,-378,0,308,101,166,-49,-300,-326,304,-81,-53,-118,-169,-38,-131,-155,-57,-160,-68,-62,-115,-145,-120,-297,-89,-7,-81,-186,-49,-91,38,-161,-139,12,0,34,34,34,34,34,34,34,-116,-9,77,230,114,-172,-42,-239,-92,69,-32,54,102,179,34,56,93,44,96,377,-42,20,-226,-87,-148,-136,-166
0,0,0,0,0,0,0,0,0,0,0,0,0,0,0,0,0,0,0,0,0,0,0,0,0,0,0,0,0,0,0,0,0,0,0,0,0,0,0,0,0,0,0,0,0,0,0,0,0,0,0,0,0,0,0,0,0,0,0,0,0,0,0,0,0,0,0,0,0,0,0,0,0,0,0,0,0,0,0,0,0,0,0,0,0,0,0,0,0,0,0,0,0,0,0,0,0,0,0,0,0,0,0,0,0,0,0,0,0,0,0,0,0,0,0,0,0,0,0,0,0,0,0,0,0,0,0,0,0,0,0,0,0,0,0,0,0,0,0,0,0,0,0,0,0,0,0,0,0,0,0,0,0,0,0,0,0,0,0,0,0,0,0,0,0,0,0,0,0,0,0,0,0,0,0,0,0,0,0,0,0,0,0,0,0,0,0,0,0,0,0,0,0,0,0,0,0,0,0,0,0,0,0,0,0,0,0,0,0,0,0,0,0,0,0,0,0,0,0,0,0,0,0,0,0,0,0,0,0,0,0,0,0
0,46,18,-10,532,-275,-70,-54,-123,235,92,72,-158,70,445,-704,-20,53,-51,-2,67,68,145,-309,-739,233,-28,-490,4,-215,-550,161,-143,0,335,-53,128,441,396,23,60,-104,-180,-276,261,-147,258,-1541,-120,84,-19,-14,-211,-703,120,-1002,125,30,-71,-107,209,263,347,-35,-35,568,0,88,107,29,105,34,-204,538,28,65,-208,-102,155,-269,382,117,-354,273,-97,-58,-145,243,325,-209,-365,6,116,-203,322,341,-863,110,-308,0,0,0,0,0,0,0,0,420,-163,491,64,314,27,273,-86,38,-116,6,0,409,-300,123,0,791,0,-359,164,27,-198,-171,0,13,0,70,257,430,-306,208,352,106,-91,259,-498,-279,-410,-283,457,51,169,-100,91,515,304,179,-145,189,63,-180,-915,254,255,-280,823,-182,221,0,-256,166,134,244,-235,127,112,-40,223,259,141,16,-3,-130,272,281,28,135,31,-22,-99,49,124,226,94,-39,94,-31,35,6,-64,191,0,15,15,15,15,15,15,15,9,95,-14,13,-23,-20,3,-47,47,13,7,98,-9,28,13,-10,15,8,-117,4,84,3,-79,-1,30,-80,-510
0,504,198,228,227,123,316,-279,328,-115,131,241,-87,75,12,202,3,96,0,-21,288,0,298,-18,39,73,495,196,78,-213,366,108,-18,0,-148,42,121,347,-28,-187,129,-128,32,158,-9,0,-36,-92,105,107,-72,0,0,-141,0,26,0,3,154,-242,76,-6,-4,55,23,79,0,107,-289,-231,-602,-101,-318,-267,18,-47,-68,-73,0,-7,53,191,-89,0,0,-5,-178,-77,-69,-48,-167,6,-312,-274,-158,-55,57,-37,-202,0,0,0,0,0,0,0,0,-170,-51,31,0,0,16,-35,-161,0,0,0,0,-356,-21,-255,0,25,-157,-38,-63,25,14,-405,0,0,0,64,-291,-70,357,-141,527,-346,24,48,45,-25,-86,45,-423,313,10,172,23,32,164,-114,228,-243,-566,-65,-63,9,-176,81,-294,-9,142,0,-90,-83,49,-53,203,-282,148,198,126,73,-38,223,27,-245,-80,-121,164,157,-117,-97,292,-120,-51,201,92,480,216,-33,127,76,225,-105,0,7,7,7,7,7,7,7,27,-5,37,4,5,12,-73,57,-9,36,18,-18,-32,8,7,-45,21,7,32,16,-27,-5,-19,31,-15,246,99
0,147,329,454,19,-196,153,179,46,274,385,-934,51,13,-86,497,136,140,458,321,275,557,-32,-716,370,94,339,921,19,435,575,222,735,0,121,-615,-467,838,-41,-17,667,1336,440,-2641,-289,138,-560,-2224,-853,13,-29,-129,-11,1916,-1319,45,689,351,301,387,-1795,130,324,66,341,131,0,204,86,429,-91,-54,-284,-19,-396,354,-327,-36,-754,263,-401,510,-19,-230,144,586,207,269,-112,-333,-75,338,731,-229,310,913,183,151,-294,0,0,0,0,0,0,0,0,93,-1067,-1364,17,62,-1594,468,195,-318,-1171,-598,0,1140,-837,123,0,-251,-23,-570,114,-303,-2374,842,-762,-671,0,-182,250,368,320,65,33,-182,346,155,258,-376,436,188,-222,221,670,-7,-57,212,-12,-71,679,477,-133,-246,306,-51,229,970,-4,-494,768,0,-80,125,175,45,74,-414,216,15,-3,49,1,-76,80,46,-130,12,92,32,87,-26,100,-61,62,80,-20,2,166,-135,-90,107,-8,5,0,-19,-19,-19,-19,-19,-19,-19,144,67,-364,-57,-5,-161,-256,44,58,-149,-15,-180,350,-125,99,75,87,64,-19,-54,25,19,239,-55,-21,-178,220
0,191,-249,329,212,-127,266,-63,671,100,476,744,-10,939,-405,554,273,-42,311,-162,-95,825,-77,-104,-479,252,223,500,286,311,199,25,533,0,-276,-485,-543,763,234,100,140,635,852,-1117,866,-139,-1310,-3758,-867,-90,1096,444,458,909,-1598,-468,677,-387,44,-72,910,-561,1364,-68,511,105,0,6,74,277,-81,-292,74,208,102,105,349,-203,507,555,-329,-46,-24,266,27,388,306,-470,-185,184,-226,24,255,385,-9,551,131,226,435,0,0,0,0,0,0,0,0,-427,-104,-604,0,-246,-1109,290,119,-85,-227,-317,0,1277,-2214,-92,0,-1437,88,-1138,-884,421,-1728,1214,265,-1336,0,-96,-150,35,245,175,174,55,442,154,-25,45,-43,270,11,21,-360,-95,652,-213,1,205,179,311,56,-325,-36,102,60,289,172,-683,146,0,194,-188,37,146,-94,-114,314,-3,-5,122,47,-49,56,11,39,72,-14,53,57,-8,122,61,-9,98,31,68,-102,13,0,54,78,-35,0,-13,-13,-13,-13,-13,-13,-13,142,233,-87,34,-21,-56,-418,-18,-15,115,117,-143,239,-313,-43,156,-378,14,-112,-13,21,121,170,61,64,-279,318
0,541,226,304,589,-79,-411,-897,427,180,207,-273,-37,-443,947,818,224,618,-148,-358,63,648,-389,-355,-651,99,600,188,-392,318,365,-92,244,0,-367,-642,-235,-364,445,409,607,1491,281,122,64,-235,188,-3331,-71,466,-170,-65,-159,309,-355,536,-185,400,88,-217,465,423,134,-906,8,-71,0,149,205,725,-101,-334,186,-484,-85,357,679,-29,-1,-393,187,-303,-33,212,96,-405,256,142,-473,313,-50,-102,158,-297,-462,-339,54,-74,73,0,0,0,0,0,0,0,0,-471,69,526,29,-87,-388,126,189,-76,-98,0,0,-925,-184,38,0,100,0,-213,211,583,31,-452,0,0,0,266,-755,-83,-462,516,123,57,293,-365,-32,678,-52,-615,-970,1326,573,-346,141,146,599,130,270,47,-395,313,177,-776,383,174,455,146,448,0,110,4,-234,317,-308,-19,10,95,464,-66,-31,42,349,-119,161,-135,221,86,16,-232,69,-81,-96,270,102,205,550,-160,72,-123,212,37,0,30,30,30,30,30,30,30,175,94,133,-2,-37,-134,-316,212,90,29,11,-139,7,45,-37,-61,-45,50,71,38,30,39,1,26,20,-62,165
0,70,194,-141,-140,-118,-8,67,-113,-148,-285,-45,-76,-234,238,0,-31,-365,-31,505,214,-2,213,569,188,-127,234,-149,357,345,7,-5,-135,0,173,-87,203,-184,83,-39,589,-1022,420,-732,148,-211,-134,-3393,-1136,216,612,41,-84,-1442,945,-1754,270,147,-14,-499,-1026,-532,619,-807,-50,-326,0,38,-288,195,-72,-214,345,290,138,427,534,157,-235,176,118,-118,636,29,0,156,-142,312,415,80,-359,16,505,-197,-302,-291,-218,17,-163,0,0,0,0,0,0,0,0,137,-374,172,307,414,-45,548,87,237,216,0,0,723,-122,-115,0,-59,29,-396,246,201,100,-104,0,-89,0,-36,-134,20,-19,186,-33,166,423,229,-145,30,177,-69,63,30,131,-198,41,-409,229,138,151,171,-75,145,-76,-165,-238,-327,411,251,77,0,30,-184,207,-239,95,-207,94,147,95,248,78,71,146,123,197,151,124,199,143,98,114,131,148,182,98,219,183,204,-459,161,167,62,0,4,4,4,4,4,4,4,-29,78,-42,-9,14,-16,-226,-94,120,50,25,74,-32,158,-99,186,14,17,8,-80,-31,4,-55,38,-33,-34,-129
0,370,349,103,448,1025,243,6,-224,-257,444,861,135,-213,6,356,-18,-146,-354,38,-360,305,8,75,587,103,-96,-501,-144,87,250,-229,-199,0,132,-310,-669,798,511,917,632,972,999,868,860,1414,1623,-1628,-706,559,243,323,308,1150,2247,836,-417,1795,-131,371,1229,911,1594,1764,37,162,0,162,259,261,95,-277,-30,192,-57,-139,-12,547,-240,606,-215,237,499,-841,-145,18,9,412,-34,255,-272,-77,-166,-517,658,-549,499,-155,2,0,0,0,0,0,0,0,0,-340,-375,-787,-223,137,30,-717,-350,-404,-41,-26,0,-1358,1162,1102,0,153,-72,571,469,-630,-391,-518,343,-150,0,271,228,46,-60,-216,45,-244,178,2,14,565,-346,21,-476,-213,531,52,-20,-502,214,-178,-102,57,820,306,-392,301,-181,188,-50,130,110,0,394,243,8,56,-111,-112,87,-209,-73,-276,-261,-284,-252,-340,-374,-276,-226,-178,-263,-295,-192,-333,-318,-236,-229,-171,58,-193,-172,-93,-147,10,0,119,119,119,119,119,119,119,32,-37,126,165,92,148,-321,-105,152,-167,-40,243,-64,296,269,-35,295,-20,-136,112,13,77,119,-54,30,-205,-913
0,-160,659,183,79,112,-380,5,-390,-324,-397,165,-67,36,212,-528,-406,99,0,-224,-135,-28,-219,326,22,28,225,246,-124,4,-157,102,196,0,150,-63,812,96,-301,-114,36,23,251,-116,-69,-86,32,-568,347,235,348,0,-51,-165,-6,-834,152,35,-2,-279,-108,-8,-254,-25,-184,-242,0,323,307,-462,-121,-75,135,525,151,-126,20,-56,-24,-169,-231,-330,44,259,0,-38,-120,-3,-34,381,75,12,330,-427,-127,155,-85,-25,101,0,0,0,0,0,0,0,0,-9,147,35,0,4,-14,286,-160,0,378,0,0,96,8,41,0,0,0,224,197,-100,144,556,0,-35,0,-13,-97,50,-61,312,224,218,193,-57,-46,154,0,43,19,129,281,-365,0,41,-79,-276,-79,-125,26,14,295,-39,-53,191,-574,-62,51,0,-172,287,-167,-9,-56,100,394,182,77,134,131,53,-98,62,52,-79,141,20,19,113,25,-9,180,2,68,-79,281,-28,110,247,130,33,0,-1,-1,-1,-1,-1,-1,-1,15,-20,-37,30,-12,-17,-22,-49,-24,86,2,-38,-29,-28,-110,115,16,12,77,15,-44,35,-1,-1,19,5,521
0,306,217,-223,39,-929,134,113,181,337,-8,-327,-346,-643,112,-126,-205,-790,-20,-604,247,441,-22,-266,339,125,-573,-236,-294,267,153,247,-70,0,1008,21,-392,2832,52,-383,2882,-1522,-342,-1212,1044,-484,-225,756,-559,-374,-842,-297,-268,-1427,519,110,285,-434,72,-216,-475,-320,-805,-682,352,631,0,270,76,382,312,53,-364,-413,416,238,531,-76,-137,-48,592,-146,-253,-379,-59,199,147,-171,-194,-816,-91,-204,277,27,-39,-241,103,212,437,0,0,0,0,0,0,0,0,6,-252,81,-177,498,-76,-175,64,-653,-276,-124,0,-49,-86,-357,0,33,25,393,563,141,461,-424,16,88,0,59,-53,-333,-136,139,109,-359,13,89,-46,-170,460,238,-69,-5,-288,52,-238,-74,19,378,-277,22,-541,177,-5,218,-106,86,75,160,88,0,145,-93,-242,-307,125,51,-131,46,-2,35,131,49,-1,-22,-87,63,75,18,106,93,57,26,16,109,59,50,46,49,119,-63,80,39,0,-70,-70,-70,-70,-70,-70,-70,-86,7,-69,30,7,-87,104,-87,-191,-216,-72,29,-97,111,-114,-13,10,39,65,21,-57,-39,-60,135,-70,-166,381
