0,74420.4,16343.8,-9944.46,63490.5,-19.2824,-3832.23,13440.1,-19219.3,-5875.53,-212.139,-4850.06,-926.491,-9850.6,-14645.6,-13582.9,-4139.31,116031,-1153.41,-2698.41,-22940.7,-11421,-19646.9,106350,800.018,-1.9897,1.50114,-6551.04,-1005.03,-18525.6,-17626.8,6529.61,-3337.86,0,-6398.65,-5303.3,3771.77,-4802.09,1480.67,-1532.5,-3306.54,576.163,-1.46285,-3264.64,-3279.8,595.306,-6663.05,-2716.43,1073.72,493.454,8496.07,-1.96185,108.063,-6773.93,121.765,-106.238,28719.5,0,-878.938,2175.07,-3413.78,0,-823.61,-1087.96,0,-3818.39,0,62841.6,9716.72,4090.8,56914.8,7773.71,-14595.1,20485.4,-13030,-3331.63,-7661.49,-2513.8,417.111,-6286.6,-10426.4,-6821.41,-1633.05,87116.1,-5.7348,3344.99,-17378.6,-11781.1,-4155.79,124707,1291.88,-655.118,-5556.11,-1525.05,-2681.26,-3526.38,-14206.4,5921.37,-2902.2,0,2660.91,-13525.6,-6852.36,0,0,0,0,647.329,2752.59,-99.1687,4289.51,-5249.6,-5872.77,17758.9,-6358.87,1661.86,40480.7,-1166.5,0,-18338.1,5249.23,-8718.69,0,1361.49,0,-7032.9,-1034.78,-1253.4,-8346.7,7939.8,3997.47,-2014.35,0,-21698.8,7618.35,26449,-28061.7,3736.6,14521.6,-9244.41,-23090.1,-3036.26,-2553.21,3166.26,-5068.21,-5027.43,-13559.2,5831.38,2287.73,28671.1,-1701.23,-4271.55,-33791.4,-3865.85,-11856.6,41088,970.216,-3846.34,7784.26,12646.6,7959.98,-20074.7,-3236.38,-5208.73,5711.62,0,-15479.5,19620.2,6852.5,-58588,75.1784,17203.1,-2790.97,-23196.8,-1222.99,-4381.82,-4696.04,-6011.52,-10024.2,-8596.08,19696.2,-17041.8,10857,-9493.41,-4807.81,-39378.6,-7576.63,61.8907,59757.5,-4868.46,2810.91,4073.38,11469,-13411.3,-20671.6,-4858.89,-1392.48,-3207.58,0,1630.86,1630.86,1630.86,1630.86,1630.86,1630.86,1630.86,-7731.26,-430.853,-1677.03,-727.702,-1624.52,-4372.57,-3210.27,-16.1945,-1744.75,29495.7,-1353.42,-3652.82,-13860.2,-2928.35,-4476.11,44578.1,-47.1424,-257.147,164.415,1253.17,-1039.09,-7298.45,-3296.58,1076.87,-515.418,28573.9,-9730.24,0,81066.5,15309.9,3360.49,56048.1,5073.76,-10236.5,21657.4,-13047.2,-3716.21,-7474.38,-4383.74,-2002.3,-4415.38,-3106.19,-9036,-1777.61,112084,-347.343,987.906,-24650.1,-5913.47,-2456.54,109434,2440.63,-14.9133,322.647,-2126.72,-609.226,-13532.9,-12630.2,6682.89,-6826.37,0,-17911.8,468.503,-9111.18,7300.28,-1847.16,7022.46,-10214.4,-804.59,-781.701,-1203.92,-2356.86,395.132,-4085.21,-1413.74,1142.37,-46.596,15792.6,470.355,384.413,-4602.29,-824.57,2515.99,36134.9,-733.513,0,-1571.55,-1129.03,-222.702,165.125,1226.5,233.753,3130.26,0,90346.5,10427.5,-3819.12,86556.9,4846.9,-21648.8,25694.5,-17430.3,-1300.17,-8937.35,-5671.49,2269.69,-10230.7,-12444.3,-4066.42,-1802.59,107474,770.701,-223.815,-33687.7,-7042.28,-5107.41,137249,1257.23,-483.17,-6722.76,-5405.28,-4240.42,-8153.45,-13421.7,7386.35,-2234.89,0,-3956.72,-12624.5,-10651.9,0,0,0,0,2284.09,-478.001,7451.57,5589.71,-6266.42,-8727.4,7314.2,-10749.3,-1295.31,38719.5,-3221.35,0,-8949.64,-7283.12,-26478.8,0,583.828,-1368.22,-5864.61,-5353.79,782.605,-12567.8,-3752.8,2861.89,-7773.75,0,-23830.7,15529.9,26563.1,-27389.2,4382.12,15511.4,-15494.7,-25970.3,-7748.63,-5080.24,3580.17,-5743.67,-9528.03,-14517.1,4336.03,4892.98,30955,-1724.64,-5188.28,-40342,-4947.77,-12700.7,50455.3,801.106,-3895.79,10915.3,11927.6,7992.02,-18006.8,-2351.35,-5982.3,6821.45,0,-5445.74,20163.4,24931.4,-79980.8,4741.27,25525.4,8504.33,-25884,-7133.72,-5104.39,12431.1,-3966.15,-10136.5,-10153.5,14386.1,-6377.6,2320.4,-3280.63,-3030.54,-18946.4,-12930.5,5.84458,40714.2,-2909.93,-1702.54,983.145,17076.8,-5198.55,-14739.6,2898.85,2130.01,-8051.1,0,2149.61,2149.61,2149.61,2149.61,2149.61,2149.61,2149.61,-8085.22,-1284.66,-1894.76,791.404,-1531.55,-4712.41,-3423.84,-398.726,-548.418,31112.1,-735.082,-3718.98,-13117.8,-3887.89,-4650.52,46192,141.179,-746.465,-186.095,1582.67,-149.626,-6785.14,-2792,1423.4,-1097.46,28853.3,-8787.53,0,98360.6,15707.7,-1205.43,93621.1,1827.16,-6679.19,30389.6,-34213.8,-6015.33,-3661.55,-6263.1,-4196.03,-19106,-9924.35,-16185.9,-5518.38,132883,-103.387,570.311,-40441.3,-9799.86,-13277.4,126781,102.248,-319.339,2496.92,3260.2,2600.62,-11001.4,-24622.2,12589.4,-5686.12,0,-7273.24,-3357.09,8447.85,-11699.3,3294.85,1920.89,-5668.07,-279.276,580.388,-5195.13,-1406.46,-341.286,-4209.09,4711.62,-656.25,455.324,11156,469.416,91.611,-2012.9,-3471.83,118.267,36582.8,-353.543,-8.05566,-1755.04,-1405.27,40.4514,-282.775,-724.74,-181.194,-1564.98,0,91083.4,9709.93,-22459.5,99258.6,736.667,-21163.5,13395.8,-14883.6,-11769.2,-13876.7,-6292.59,-1600.07,-7976.87,-15306.9,-3026.61,-3602.1,116235,907.636,843.379,-25778,-9361.03,-8155.11,147223,906.775,-1338.6,-12164.9,-6803.94,-6232.01,-9554.41,-16870,4227.37,-1072.58,0,-4743.18,-10447.8,-5919.14,0,0,0,0,17252.5,9951.28,8674.45,4637.5,-1979.43,-1374.07,12028,-1283.29,2651.81,33760.7,-3602.23,0,-13074.1,-102.778,-12512,0,3416.25,-558.115,-4611.45,-11124.2,-4221.81,-12367.7,3453.09,612.059,-5309.09,0,-17396.1,17898.8,26061.6,-33949.1,4835.4,18425,-26471.1,-30956.4,-7710.86,-4986.97,4987.3,-7966.38,-11969.4,-21062.3,-1829.76,2754.42,33489,-1729.47,-3561.37,-39387.7,-6593.54,-12132.8,65020.4,1072.22,-3468.49,11642.1,11435.4,7073.18,-19097.6,-4810.99,-5588.8,5915.66,0,-14237.8,29221.9,30639.9,-96196.8,10265,27414.3,27415.4,-13068.9,-4224.11,-1284.55,11776.5,3570.67,2215.03,-4766.63,18994.6,1554.97,-15976.3,1427.9,-845.633,-10484.2,-11713.4,2184.09,3079.48,-3714.59,-1622.61,2379.42,19980,3956.05,-9363.06,15508.3,1653.78,-6942.39,0,2619.9,2619.9,2619.9,2619.9,2619.9,2619.9,2619.9,-7614.95,-1285.66,-1894.76,791.404,-1060.27,-4242.14,-3423.84,-398.726,-78.1425,31582.4,-264.806,-3248.69,-13117.8,-3887.89,-4650.52,46662.3,140.181,-747.463,-186.095,1582.67,321.648,-6313.87,-2792,1423.4,-1097.46,25454.4,-8788.53,0,158283,31851.1,-17566.8,78880.9,-5827.39,-19715.8,24439.8,-6935.19,-10692.4,-11446,-5412.69,-327.444,-18637.5,-17422.1,-18740.8,-3015.7,132968,-1343.93,1269.61,-30577.8,-8986.76,-14847.9,143388,1434.66,-960.369,-11135.9,-8980.52,-5776.85,-14233.3,-24826.1,7792.72,-3162.34,0,-17850.4,-14091.7,-1010.33,34541.6,3252.02,20071.9,1983.3,-84.7328,-2082.64,-4786.43,-294.736,1070.28,-873.367,1019.93,-712.856,374.401,29597.8,-2.87932,-1539.27,-390.301,702.155,-5057.64,53557,-295.644,-6.8439,4115.27,103.538,58.4571,1227.61,-1472.58,-205.307,-723.847,0,127949,30076.7,-2894.67,93296.4,8828.38,-13269.8,14765.6,-5362.73,-689.534,-12458.4,-4735.88,979.389,-4844.32,-4709.79,-7425.53,-2330.09,112514,465.419,1195.15,-13855.1,-5965.94,-274.213,158730,1871.18,-943.838,-608.538,-5421.06,-2099.56,-8882.27,-10545.2,3740.34,-5347.88,0,-43157.8,-28864.6,-13821.3,0,0,0,0,-25249.9,4009.55,14017,1725.89,-9253.84,-12369.4,4337.3,646.109,-945.467,44531.9,-1478.34,0,-45564.9,-11544.8,-17374.9,0,2532.61,-86.3981,-10741.9,-3282.8,-1222.38,-11750.9,-8439.09,5912.99,-5088.97,0,-24636.7,16816,23346.4,-33309.3,3083.9,28937.4,-28694.1,-36675.4,-10699.8,-4230.65,5907.8,-10416.8,-15150.2,-21350,-7959.31,1120.36,34796.9,-791.686,1466.13,-41755.9,-5842.84,-13698.9,78581.2,1183.54,-3114.17,15928.3,7659.49,3686.47,-18686.8,-4296.17,-6014.33,5547.6,0,-49435.2,20510.1,35164.6,-115166,11622.2,5161.05,35171.1,-1841.65,-523.698,-1418.19,11190.7,5435.87,9454.56,4483.06,30205.3,3693.22,-43299.1,521.281,-2787.82,965.78,-9375.03,7938.48,-54901.2,-5288.99,-1887.24,-2392.16,25665.3,8570.37,-9341.27,19461.4,2011.94,-5634.73,0,2619.9,2619.9,2619.9,2619.9,2619.9,2619.9,2619.9,-7614.95,-1285.66,-1894.76,791.404,-1060.27,-4242.14,-3423.84,-398.726,-78.1425,31582.4,-264.806,-3248.69,-13117.8,-3887.89,-4650.52,46662.3,140.181,-747.463,-186.095,1582.67,321.648,-6313.87,-2792,1423.4,-1097.46,21845.1,-8788.53
0,467.349,331.72,-1917.05,119.655,-894.96,-417.595,49.3232,1891.54,1562.68,1153.74,-355.066,174.098,-112.243,-1695.42,404.492,-603.199,846.837,100.597,900.645,171.598,88.9229,-842.622,258.135,-576.237,-284.814,1930.48,-766.884,-68.1605,-1025.03,91.9583,-1654.98,-1423.2,0,1103.65,964.089,-1001.56,963.541,-121.957,72.0832,375.888,-274.444,129.465,342.572,-763.364,212.4,-486.812,-467.891,395.785,-153.571,177.217,-155.388,-276.506,417.2,-633.063,-308.451,234.781,4.3886,174.041,251.692,578.169,-47.9104,-75.2839,-423.424,68.6243,835.16,0,93.5489,-940.727,-987.596,1151.05,-77.4326,-399.937,-0.07881,-540.427,1520.82,1927.03,603.055,213.129,617.61,1219.72,1567.73,-908.234,1357.48,-358.028,-50.9797,6.76658,445.465,-160.914,1404.7,-98.9007,-66.3027,-998.555,1737.87,-895.73,263.193,956.21,-1726.77,-2329.14,0,1859.49,-984.564,769.284,0,0,0,0,228.374,-1285.56,131.213,638.885,-661.889,1355.86,747.984,189.245,-696.643,365.955,149.41,0,961.536,-861.013,1855.73,0,-580.656,169.299,-159.337,-1743.44,1154.4,-91.0886,405.762,473.001,-1295.75,0,-242.516,-205.417,-14.4464,1438.34,559.037,1584.84,542.93,1371.48,-241.569,317.951,1875.77,1018.77,224.667,401.65,405.381,429.225,141.927,265.568,-259.043,222.271,-261.632,-157.209,-140.883,976.685,-833.376,-1294.89,-993.432,1504.92,-255.226,-577.728,-691.335,69.4719,0,-502.335,983.98,792.324,383.615,668.919,-641.772,-184.277,-752.656,30.9684,-236.352,-470.614,-465.96,-466.108,-337.769,-47.7418,-1069.83,-260.6,-578.131,-5.94459,-966.875,-1262.34,-688.619,40.5966,20.6771,-88.4041,-431.9,-556.57,182.086,-40.9811,-196.675,-344.625,-1038.9,0,16.7008,16.7008,16.7008,16.7008,16.7008,16.7008,16.7008,192.387,271.626,362.869,317.415,34.3106,103.007,-13.3881,289.998,-304.893,316.519,21.059,57.3066,81.2493,-249.937,-90.0306,166.8,-26.9856,-92.9557,-136.634,-228.767,182.96,-186.861,29.2028,-393.833,-535.418,-1860.3,-52.5021,0,582.244,239.298,589.153,196.295,984.921,1130.74,392.977,-816.276,755.619,2338.17,-1381.09,-94.2978,494.963,-1664.82,351.53,-1458.25,1974.36,-378.546,-330.971,-8.17011,-77.3077,779.138,-281.738,309.573,-200.369,737.21,41.1784,-795.298,2.56087,557.256,-1741.46,-1185.35,0,235.743,-342.206,-2063.24,1183.16,380.841,-337.844,2292.55,-301.732,-1130.79,130.669,498.097,-89.1303,64.8186,-90.188,851.126,-186.775,359.965,-64.1197,-73.8946,256.284,-789.687,180.617,750.415,-280.631,197.646,-92.1313,261.228,-77.6881,-181.233,-1199.16,-142.142,-146.323,0,-153.449,-386.126,-332.669,-27.8801,-2430.12,-430.357,-266.091,-746.485,618.562,1854.94,-598.995,-1274.75,-456.891,-1087.43,-1518.33,407.729,-66.2027,313.324,1315,1116.84,188.976,-1058.61,566.48,-107.806,111.853,-152.567,1430.14,-264.019,1527.1,-393.403,-778.252,-843.961,0,-1058.52,-178.034,2036.19,0,0,0,0,648.047,784.328,-857.915,839.845,536.937,1462.55,-59.051,-630.323,-1059.88,548.191,-370.19,0,1145.6,-193.115,137.899,0,-900.535,-258.178,-1135.39,1089.42,919.424,-1971.34,609.526,-12.9567,-745.099,0,-1199.33,668.13,-1793.39,833.519,940.394,-1034.15,292.199,-448.646,206.273,312.451,671.632,565.822,801.007,726.936,423.209,430.265,-575.184,184.976,-443.329,281.358,-299.146,328.867,-568.305,1079.79,-1042.92,1188.95,449.716,325.246,798.9,-439.868,110.858,144.441,0,-559.007,38.5811,-196.152,-965.907,585.887,803.286,815.332,231.482,-144.895,-315.906,-415.557,121.579,-260.673,-527.844,-489.504,539.252,-586.141,750.574,-300.176,316.36,208.589,517.039,-74.3583,-250.61,-266.571,137.106,541.058,230.996,8.39879,-265.357,-653.18,1138.07,0,57.7395,57.7395,57.7395,57.7395,57.7395,57.7395,57.7395,-143.361,298.353,301.776,127.594,-51.4132,200.288,-274.604,-102.72,-141.394,257.424,120.382,273.361,310.828,-99.9568,46.5634,-64.4527,-16.6035,-145.854,26.3561,318.504,33.866,-59.2257,-125.148,-302.774,-210.391,-21.0761,1121.56,0,282.636,-55.9785,1184.32,1443.36,-410.706,1426.15,-583.378,-1989.72,-1575.13,2239.02,-1057.69,-115.283,1163.6,-2392.54,-253.765,-910.915,-100.936,787.339,770.605,-2630.24,-1073.42,1188.32,-1002.8,-288.382,136.705,-921.335,1971.58,512.681,492.473,-1480.74,-527.199,-268.101,0,107.575,291.369,-689.066,100.943,626.622,334.961,2137.45,-1209.07,570.197,1757.34,254.228,-258.477,-318.224,-918.325,-573.678,-455.633,571.889,-301.826,-627.847,451.087,345.744,-211.934,590.582,117.125,-71.8861,-970.291,941.785,221.575,383.887,-748.335,-283.794,-766.893,0,-519.178,1031.14,449.21,301.357,16.4076,-342.488,237.209,243.349,1515.95,1490.62,-321.708,-487.266,-107.234,-1175.86,-489.046,-1187.28,-692.972,-28.5892,1139.55,801.98,22.8791,255.927,453.498,594.103,165.088,-181.279,1533.4,-952.462,161.043,382.659,-1270.41,-1353.95,0,567.479,968.547,181.398,0,0,0,0,1218.11,-642.861,-1533.94,189.701,-280.376,189.403,2317.11,-894.872,-73.4222,1276.69,-792.561,0,51.52,648.952,330.165,0,-267.884,-199.784,499.312,1103.65,202.696,-1022.34,166.431,-856.865,1052.69,0,1240.52,-1033.49,-727.1,-2713.54,982.941,-1047.56,166.574,-1681.7,1436.5,-401.448,-1079.12,483.693,284.553,1493.13,-248.347,55.0776,-370.818,304.659,925.255,-345.83,211.98,283.408,120.255,582.467,-1138.69,-855.843,81.3643,-539.003,-5.12982,288.199,802.51,576.803,0,477.87,469.7,-1968.37,-1889.3,-425.337,127.732,345.972,-168.094,603.307,341.933,888.471,-21.1158,-62.1524,1563.68,875.765,627.171,644.016,-35.0017,822.885,99.4691,863.143,594.791,842.672,-41.2883,565.263,665.105,-0.896983,-77.9457,615.052,1111.99,738.812,163.975,0,98.7409,98.7409,98.7409,98.7409,98.7409,98.7409,98.7409,-358.711,274.698,266.967,134.142,-95.9115,104.705,74.4826,-159.979,-227.083,159.722,66.2555,686.964,-157.202,96.8681,154.566,-56.5346,87.8554,-58.1502,-140.089,515.195,-63.8454,16.1117,-67.6899,-100.02,-165.908,-1752.86,36.5634,0,256.995,1965.27,192.76,-1073.25,-1084.92,196.277,-1188.25,-2567.07,-946.36,1201.44,-296.215,169.975,2974.21,-1558.28,792.018,-825.324,659.886,-500.79,2022.84,-2001.69,694.155,401.839,-603.273,-797.91,-14.4774,617.379,1569.79,-160.686,452.877,-601.231,300.475,-1348.74,0,142.73,-511.206,1612.69,-334.234,2199.65,-143.972,-989.792,-1194.76,65.8049,-197.734,1774.01,264.315,-970.254,-880.307,11.6568,289.019,66.3245,-354.414,91.126,-378.12,366.602,365.153,70.0885,-168.386,331.211,-530.367,1496.4,398.716,-652.524,324.195,-253.218,414.07,0,-611.282,927.443,1403.23,-929.983,274.801,-1497.32,304.07,-1280.94,-279.803,1990.27,-1406.48,-1662.13,316.587,-1599.16,-449.936,-1150.34,-1628.04,207.183,-278.858,-1737.57,1279.85,-1893.06,928.148,123.547,201.016,-2931.11,1952.37,-937.876,2070.48,-2529.33,-828.193,2462.57,0,1174.38,1755.42,-2072.42,0,0,0,0,-1329.85,-749.003,-696.284,-1762.49,-750.956,-228.029,417.221,1152.18,-1613.3,-1599.01,745.001,0,-1798.77,64.7015,-37.5237,0,1392.87,82.6309,782.479,2214.34,70.5934,118.706,-337.072,-1123.58,1031.88,0,-288.153,-905.64,-362.903,557.339,-1019.76,748.739,-824.5,1049.74,-1030.7,613.24,204.039,-282.716,24.4442,-650.381,-445.446,160.531,476.942,490.459,1125.92,-919.94,-136.356,207.012,1219.82,387.302,-866.366,1362.06,1834.15,-438.439,2362.88,419.06,1610.03,-300.929,0,321.356,-1780.43,-648.863,301.572,702.069,1303.41,134.199,644.238,549.43,988.162,598.457,843.287,1008.33,41.9088,122.027,629.974,519.829,733.461,-338.682,601.926,596.093,601.736,508.332,382.399,423.186,30.2582,598.082,646.023,-191.135,588.034,334.464,-378.487,0,133.87,133.87,133.87,133.87,133.87,133.87,133.87,-467.864,-151.765,235.175,197.387,-150.754,302.24,-443.699,116.665,-237.583,-102.568,204.944,703.077,-623.416,279.943,-103.242,77.2786,132.635,8.32752,-38.1613,972.969,-42.7665,369.742,-302.994,39.5708,363.555,3496.7,-506.838
0,45.5482,-612.826,-637.659,2256.53,437.08,-1856.39,1382.68,658.368,617.903,-987.937,66.352,-1027.83,-560.241,323.631,581.004,-196.282,260.936,231.022,1237.97,-812.68,100.929,1368.68,-300.722,379.234,104.367,1439.37,1941.45,-318.246,1499.68,-462.925,-4.6455,124.864,0,-892.269,976.323,-1567.55,826.369,-112.937,2065.81,-299.158,-201.75,-870.42,430.571,115.334,-313.762,-300.354,-59.8811,1050.4,148.664,995.161,56.459,150.768,1604.89,542.266,-2292.26,-431.21,0,-88.274,-712.339,-666.955,-29.0218,-1072.47,148.487,8.57196,-1284.66,0,3.9554,360.872,260.279,1161.2,-378.067,-937.29,-674.38,-1049.53,259.755,-676.759,-290.125,961.869,471.66,497.265,-2057.75,-725.17,-1025.61,-340.639,113.376,800.658,-468.74,-1176.87,172.619,557.774,-90.955,-395.142,-2185.44,1767.16,539.438,-223.885,242.068,-289.528,0,2281.39,-1363.22,-171.566,0,0,0,0,-822.608,1633.67,-1330.91,270.904,271.195,-313.243,-2531.02,435.625,345.245,-696.437,-537.38,0,-2507.44,-466.801,3246.16,0,-314.482,-121.433,814.427,1496.91,751.129,-498.338,653.477,364.866,94.7341,0,-462.123,-836.619,-349.188,-463.305,-282.098,289.812,-1593.18,-269.417,518.294,-432.974,-145.414,1382.26,943.689,-315.448,38.8651,319.177,482.261,9.9668,293.559,-1458.27,312.798,1531.07,-30.4262,-1266.9,-738.089,284.409,418.509,-736.959,492.692,1369.74,421.033,-1338.91,0,-637.817,-46.1922,1121.25,1045.25,210.464,-176.869,545.447,69.6041,-203.984,-90.802,230.794,-833.027,-101.633,-905.784,267.448,496.146,157.145,484.108,618.275,-239.038,212.738,636.138,-1720.84,-1693.14,177.728,148.195,1063.45,66.4032,-881.979,-204.9,961.029,-963.024,0,-15.6947,-15.6947,-15.6947,-15.6947,-15.6947,-15.6947,-15.6947,-161.533,251.86,-290.203,66.3807,16.9636,13.9876,-214.992,31.4208,36.5454,33.2308,-9.64638,-131.646,-261.188,19.6343,466.594,-267.048,-242.991,-75.6656,76.5412,201.207,150.047,-16.0083,172.947,240.74,-264.123,468.714,207.647,0,1763.38,964.641,1074.82,-1082.1,129.172,246.925,-517.096,-2035.54,305.996,725.864,-352.322,378.724,1030.78,171.181,-673.772,50.069,-801.48,-303.859,663.249,-824.455,682.851,882.347,45.9857,331.734,-203.665,777.169,1382.74,33.8241,-422.027,616.344,-14.9589,-645.367,0,613.849,-2387.36,-3163.29,-17.9373,606.811,-47.0831,-547.976,91.6974,-543.229,-1877.74,-262.144,-327.561,-74.3604,559.391,-793.027,-577.479,-811.34,-222.368,-427.01,790.523,-442.307,-294.351,-413.204,-378.002,270.517,1351.53,-456.061,-152.199,1071.16,1309.12,-363.833,478.608,0,35.5278,-775.089,-306.443,537.801,-915.75,-828.3,-2082.5,811.196,1004.62,969.865,893.849,-139.897,-1441.08,-442.911,567.475,-61.693,-677.965,-197.127,301.967,-383.883,1014.26,-543.401,-792.467,-216.642,-98.7987,975.537,-61.4062,811.512,-388.571,-1057.66,-202.933,-153.322,0,1141.19,546.605,2042.93,0,0,0,0,122.286,1485.29,632.463,-857.23,360.019,989.614,-1706.83,159.574,-63.4218,1545.45,-6.52741,0,-1851.51,-631.764,1347.51,0,-130.201,-246.673,-1348.9,-1918.16,979.408,-1087.91,-959.527,394.635,506.224,0,-453.483,856.022,-1008.69,1470.38,108.074,-1336.07,108.797,488.658,151.929,440.944,916.242,391.89,883.563,654.647,-735.455,-511.925,-286.46,-257.936,1263.97,516.467,-394.067,-1902.39,968.402,-1202.73,120.801,-392.541,-1190.47,248.241,1176.64,-913.843,575.462,-244.513,0,-474.267,-1042.63,163.085,562.467,-162.272,1010.9,-511.214,699.928,-408.287,710.876,16.2311,-1178.25,1134.17,-542.035,600.069,-562.577,-695.112,-397.816,-407.386,-521.989,238.584,-689.794,262.709,-1000.22,121.975,-757.762,1115.02,257.204,-941.863,748.041,-1348.15,1160.21,0,-29.2457,-29.2457,-29.2457,-29.2457,-29.2457,-29.2457,-29.2457,17.8224,338.499,149.973,39.1557,-78.6138,252.097,-58.7636,-87.6529,-175.035,-150.297,-110.695,-311.247,-227.485,36.3212,-3.79653,62.9452,-270.637,-3.58447,-39.3949,-122.997,217.8,-88.2406,106.01,-55.381,270.738,680.836,786.319,0,-436.956,-799.443,-210.19,151.686,-892.208,931.164,2648.44,-759.426,-1385.84,1408.73,-2014.53,-99.6099,1176.65,650.628,187.228,21.1506,-781.211,-659.944,154.903,-1618.56,842.875,-832.409,-60.0885,-305.328,-239.493,283.082,2100.07,75.8725,1019.15,262.86,155.703,309.667,0,-925.313,-2323.2,-463.458,-375.673,250.336,-166.839,-748.314,-350.382,-1457.63,638.686,3043.27,-866.837,1000.71,-217.817,52.633,-220.855,-515.707,-327.178,422.704,232.151,-979.934,-140.518,-1009.32,-78.5693,-161.925,571.051,-61.0118,367.621,-1504.36,-1613.07,-178.007,-523.254,0,-942.632,290.259,1052.15,-1035.64,-639.98,178.89,-405.401,1672.91,-786.875,-777.056,-3133.35,-792.515,114.52,-2964.03,89.0872,-567.554,-276.152,137.307,-155.512,-461.772,331.022,-307.65,-1009.74,-330.204,-325.254,-644.239,1867.7,853.043,595.179,-999.982,-256.14,765.181,0,972.857,-1270.46,505.937,0,0,0,0,268.616,4172.11,2459.78,271.677,849.267,1089.82,1074.1,-395.915,-476.778,578.053,-105.972,0,89.3894,53.6106,22.8646,0,-992.267,-60.6766,1198.28,-2354.6,-147.466,-711.397,766.291,-287.641,-354.697,0,185.311,-233.371,-1126.7,37.0013,617.671,-292.358,-158.14,275.987,1468.98,-1243.55,797.648,-323.547,-606.307,-104.099,-1179.04,-166.45,-210.7,-238.613,334.336,819.98,122.233,-233.603,1055.4,-897.034,298.672,-575.92,-934.162,185.387,-150.886,297.302,363.693,-46.8975,0,1268.81,2502.69,-608.892,706.64,819.758,-2136.94,-2008.74,-412.975,-144.93,305.29,-483.71,883.85,-242.33,706.954,402.361,-199.773,-335.093,130.015,-419.212,-1146.02,410.698,413.33,1401.78,210.65,608.628,91.2805,-1208.98,1060.67,503.474,-493.573,-525.816,-208.297,0,19.4474,19.4474,19.4474,19.4474,19.4474,19.4474,19.4474,69.2273,387.193,163.829,20.8867,-62.0455,252.096,-26.6381,-87.6529,-164.624,-139.886,-78.57,-281.555,-208.483,52.8895,-3.79653,95.0699,-257.515,26.1065,-1.11283,-90.8709,239.513,-56.1152,92.8871,-33.6672,287.308,237.339,835.012,0,-431.738,2699.62,-252.632,-1986.87,-680.663,-598.866,886.726,133.944,-491.137,-1325.97,-788.138,-589.76,1305.43,-1218.94,108.378,713.967,-1905.67,-210.66,-601.691,-1712.88,-101.209,593.242,-943.987,-140.463,-104.82,-406.279,1988.11,1414.75,-84.4797,-1254.97,762.082,-494.079,0,-708.017,-829.31,-785.638,-13.1219,-863.349,-797.214,-988.999,1209.15,-623.673,2054.04,-920.298,-173.212,289.177,-435.885,608.118,-118.653,-297.183,-91.69,486.829,428.201,1644.57,1368.11,-369.786,-78.3313,-47.7203,-618.227,2452.68,-233.975,888.671,988.178,-9.34129,579.286,0,-949.829,1634.53,254.323,-1944.22,-412.609,-769.882,2161.37,-1001.9,-2074.53,-157.64,117.539,388.806,826.938,-1610.09,-742.124,-25.7029,-299.679,21.4081,1081.34,-3037.18,50.2771,-2707.56,-1344.91,-818.294,-560.71,-634.079,374.375,686.079,1129.32,-2325.9,-783.819,-1915.25,0,-379.374,59.1929,-71.0727,0,0,0,0,364.659,2231.54,2362.6,-1805.16,-454.673,2957.01,1674.51,-273.202,-2040.76,586.662,-1257.32,0,-518.39,80.8706,-1714.95,0,-1560.5,-11.9215,662.588,-1204.34,1566.47,-2019.93,586.113,-600.638,3773.16,0,-191.702,115.046,1784.68,1060.83,348.593,-1228.55,1770.84,962.997,-273.253,-554.453,345.585,-573.207,-1384.96,-288.458,1062.94,-518.84,-140.205,-315.553,-1291.18,681.164,-154.323,211.133,1989.35,-2035.61,1121.45,1323.67,-2331.82,-53.7574,-1860.93,-809.038,147.643,603.058,0,889.323,-1900.69,-802.637,1788.31,1893.68,2410.62,-98.8119,-960.806,1353.12,-321.703,511.367,1052.65,-1436.51,1262.45,-1607.76,399.315,595.615,789.433,32.5423,2075.24,-855.577,523.51,1089.96,2318.05,-181.758,374.529,-2290.34,-1164.46,1764.63,1127.84,-7.69802,-1044.22,0,19.4474,19.4474,19.4474,19.4474,19.4474,19.4474,19.4474,69.2273,387.193,163.829,20.8867,-62.0455,252.096,-26.6381,-87.6529,-164.624,-139.886,-78.57,-281.555,-208.483,52.8895,-3.79653,95.0699,-257.515,26.1065,-1.11283,-90.8709,239.513,-56.1152,92.8871,-33.6672,287.308,-2487.13,835.012
0,-160.913,-72.7169,291.039,789.706,-138.65,-313.52,224.92,-399.737,-1114.5,-1887.22,1437.57,4.79741,-1566.88,726.657,-648.217,217.241,-1265.99,-182.596,-101.747,2095.87,-133.51,361.709,-403.362,117.574,366.916,-82.8083,-9.60544,-163.547,541.625,-224.098,862.497,663.223,0,-332.331,626.395,371.327,1508.36,1091.42,663.358,907.572,-752.425,-640.987,3683.07,-67.9757,-262.169,430.839,-590.864,83.3058,121.539,-128.67,-4.38663,-192.545,-128.794,-749.43,271.638,-84.6855,536.567,-48.5955,-516.049,859.678,-1.5475,641.669,478.119,209.616,280.812,0,-51.0348,2278.16,2367.18,-1874.68,-1327.37,68.6594,826.899,-0.111273,-960.03,-747.697,-570.434,1028.96,-244.807,991.837,393.974,-447.289,-1006.09,-38.5338,1339.83,-2364.86,1150.47,1902,387.726,812.638,878.594,-1365.97,-1293.34,1075.12,-470.009,-361.014,-160.802,291.729,0,-2549.16,1367.41,-592.517,0,0,0,0,519.317,1247.5,885.153,-975.652,-41.2128,458.951,270.584,1377.68,-491.219,1923.27,218.217,0,-493.154,444.874,-759.899,0,612.643,405.621,3282.07,-361.347,-162.841,3215.45,-1286.33,-586.576,-1166.52,0,-421.957,-1085.91,1580.95,-2014.31,-705.239,-763.39,-181.741,84.2814,-1546.97,377.025,-432.767,776.272,-596.839,1175.67,-1003.65,-487.618,-393.18,-990.825,-495.301,190.038,1067.5,-1151.34,-217.392,-1280.79,-240.442,2.8727,943.517,127.39,-151.303,85.1254,-1409.64,-633.309,0,2885.67,-406.309,-1015.23,98.528,1997.96,1593.38,-269.769,-53.3626,1675.74,-1811.93,52.7922,-540.39,1373.28,-1318.79,-952.49,-317.49,3966.36,73.7154,421.139,445.514,-1442.25,-179.833,2116.74,-354.22,-144.828,-440.275,296.457,13.342,-377.685,2823.6,378.725,-232.511,0,114.767,114.767,114.767,114.767,114.767,114.767,114.767,-60.2039,-48.1405,47.0583,-56.0874,96.531,-18.5408,173.246,-45.516,-143.43,361.316,-169.447,237.364,-25.5389,57.1882,67.2807,-54.8913,10.5619,121.727,6.99173,57.2783,88.7922,321.873,180.968,-93.064,34.3519,-1286.01,-101.636,0,458.393,-854.666,2105.8,573.356,-388.31,1419.13,675.687,-1009.61,-1179.68,3222.62,219.378,933.615,1266.39,-641.024,-8.93909,-582.427,61.393,-349.364,370.749,869.445,440.931,-840.893,1476.79,313.747,595.523,-820.812,2084.6,-103.656,901.803,29.4882,-252.628,1204.27,0,-702.924,3558.1,1562.54,-995.112,-40.4462,-944.048,2450.6,-536.838,345.138,-56.0253,226.864,464.323,-656.373,2256.43,-979.58,-64.8211,1024.73,-7.6185,-95.7929,189.715,73.7892,1644.62,913.031,427.115,-145.291,748.346,519.224,-28.5329,794.813,431.822,10.1338,754.049,0,1237.69,-665.271,-20.527,-855.036,1765.07,-550.683,133.164,2375.3,-288.511,-1164.71,-1593.3,293.485,-2943.55,974.742,-653.109,229.014,1785.51,-242.933,-390.356,-301.523,-112.535,172.091,-1169.89,1002.57,420.227,-983.743,-1200.85,337.841,1555.62,-1348.39,458.522,-970.475,0,-481.178,233.335,-1097.52,0,0,0,0,-429.404,721.665,-1188.89,667.66,-766.544,2387.24,-1805.63,78.7858,-411.476,-1029.63,585.032,0,-26.3673,-1158.71,-1094.75,0,-627.329,349.274,2097.47,-1178.54,150.478,214.566,298.905,490.484,-791.269,0,770.377,316.81,-395.723,1233.14,619.988,966.028,-440.109,-295.001,-1898.16,-1454.83,-630.774,232.942,-80.4992,-1236.57,-654.887,-935.218,983.838,-997.211,597.485,137.109,124.093,56.3988,806.044,-1006.45,-207.006,230.078,1424.58,568.637,0.0337564,937.566,-1563.65,83.4155,0,42.3871,-75.2236,493.021,-1570.17,-1054.13,922.972,-12.0784,-706.492,1368.14,881.603,35.5974,-201.53,-128.656,1886.84,1448.39,381.734,379.355,77.7144,-275.469,-1133.74,1239.4,751.783,365.183,298.812,186.378,-330.037,-954.788,-46.8278,-34.1782,-295.967,49.411,-435.372,0,112.771,112.771,112.771,112.771,112.771,112.771,112.771,-60.2039,-49.1388,47.0583,-56.0874,95.5338,-19.5391,172.249,-47.5113,-144.428,360.317,-170.444,236.367,-26.536,55.1928,67.2807,-55.8884,9.5637,119.731,4.99642,57.2783,87.7939,321.873,180.968,-93.064,34.3519,-1406.06,-103.631,0,499.011,-452.074,588.364,949.767,-6.02782,708.436,147.171,-1931.11,474.95,296.172,-215.017,-151.729,298.611,-128.79,369.711,-296.319,1680.99,221.58,1069.89,283.748,-764.898,261.85,1520.06,-227.669,-227.588,1552.82,768.961,80.3988,758.274,-1341.52,-409.53,1061.51,0,91.9877,-162.947,2745.91,-64.2049,2420.84,596.988,2002.82,728.833,413.49,-896.63,47.2285,-201.921,109.59,-439.058,-539.337,-98.0203,805.497,19.7862,-51.6281,-193.569,-200.498,-613.695,-1960.71,523.819,-138.885,435.131,-35.666,-28.3834,-583.524,-827.744,190.853,559.102,0,25.9043,-1339.81,105.344,522.262,-445.949,60.9199,-141.969,98.8746,-1655.05,-513.849,-292.199,11.4923,-2927.72,1257.92,-1155.01,-408.142,1625.74,-226.494,-716.074,-2625.61,794.582,1356.53,1804.82,1425.35,176.614,-253.818,576.022,-291.122,2017.42,1556.81,913.869,-821.836,0,6.47938,2073.71,119.055,0,0,0,0,-167.197,-433.962,-159.537,-37.1535,734.498,2437.66,2075.35,-562.866,-28.3876,116.913,-67.8258,0,2200.94,-166.743,-1376.93,0,-878.801,925.91,-886.902,-1598.16,688.466,1708.13,-1198.66,196.762,-735.637,0,-777.121,274.181,-514.839,-368.166,-560.047,-422.394,2360.94,-7.69138,1414.08,-543.179,-1153.15,119.73,194.551,-688.605,1587.95,-607.625,1107.32,-1002.17,1423.69,-673.67,644.699,2031.58,-69.0952,-882.373,14.8108,-53.8117,1186.96,750.019,-112.146,361.909,-1789.7,443.792,0,-797.806,546.131,-981.56,-353.557,-580.553,264.001,-901.863,656.255,-819.092,725.784,147.498,451.248,-278.128,-563.388,-489.787,181.793,-2239.11,122.553,722.417,732.804,-269.773,-635.534,866.806,83.9368,211.868,673.719,-31.8414,-318.035,-285.876,436.596,90.0185,-120.433,0,110.772,110.772,110.772,110.772,110.772,110.772,110.772,-62.2036,-50.1386,46.0583,-57.0874,94.5338,-20.5387,172.249,-49.511,-145.428,359.318,-170.444,235.367,-27.536,55.1928,67.2807,-55.8884,8.56399,119.731,4.99642,56.2783,87.7939,319.874,178.968,-93.064,33.3519,1345.85,-104.631,0,2163.33,1822.33,-693.508,2694.95,3300.66,1685.07,671.519,-289.245,-484.619,-1909.2,-829.427,-92.776,-1078.1,406.323,-1217.64,-1029.59,2264.76,11.7648,239.051,-328.129,-1569.36,-77.1305,570.106,-1192.59,28.1307,924.094,-974.344,59.8669,47.3497,-755.406,549.374,-297.856,0,2471.61,748.908,1448.95,412.554,-64.7142,2106.71,1101.81,-195.172,-996.583,-947.766,1130.62,-624.928,631.897,229.166,-243.164,617.658,571.691,138.251,244.487,-333.616,473.249,953.837,848.841,169.409,-36.4099,-1125.54,-440.464,206.074,453.66,-916.112,-194.587,1056.49,0,977.563,-1450.38,-1352.35,2024.12,487.849,969.597,-618.309,-2686.38,-1715.44,-487.028,-313.9,1789.02,-592.296,-959.135,-680.129,229.265,2194.67,-36.2259,-283.827,-1777.8,405.229,-207.889,2258.96,751.607,1008.82,419.185,-55.6649,-304.826,-395.772,893.981,1274.71,-224.738,0,-575.166,1457.55,-284.553,0,0,0,0,2613.72,2257.75,3027.39,-437.054,-1064.87,-585.251,1796.24,309.12,-753.901,-632.447,13.2806,0,1662.41,339.141,-963.469,0,1078.75,-65.9478,2166.89,767.482,370.89,3111.65,970.419,-582.231,-325.745,0,-662.89,-243.193,-486.129,-736.722,160.096,347.628,-1482.81,370.546,2490.47,-1114.7,-1155.33,244.743,1997.15,-281.733,672.69,-101.75,1542.19,-1003.8,996.403,511.054,-75.0591,-59.5514,1642.37,-495.982,210.03,-504.918,188.661,-184.975,-328.282,956.413,-1555.25,-328.453,0,-1306.46,-116.608,300.296,-3415.23,-2966.68,-4149.49,1562.73,-445.514,-1653.89,587.093,-59.1948,702.961,-538.843,575.24,369.78,-75.4945,-2385.24,-55.8449,-1457.25,-18.3197,849.475,934.036,-2701.6,-198.546,-5.3268,-40.4093,1240.7,734.313,624.779,-2611.43,-299.741,87.398,0,109.772,109.772,109.772,109.772,109.772,109.772,109.772,-63.2036,-50.1386,45.0583,-57.0874,93.5339,-20.5387,171.249,-49.511,-145.428,359.318,-170.444,234.367,-28.536,54.1928,67.2807,-55.8884,8.56399,118.731,3.99642,56.2783,87.7939,319.874,178.968,-93.064,32.3519,966.459,-105.631
0,673.829,-1183.21,1155.61,-177.533,-2109.79,-286.465,979.934,-1276.55,1091.48,1585.33,-799.366,-714.773,163.545,-1010.04,-802.622,-384.572,242.564,-223.803,842.168,-1046.08,-590.917,744.98,822.238,485.952,307.22,-1820.07,-215.424,198.152,833.153,-104.583,48.0414,-647.296,0,677.852,1045.72,1784.66,-100.678,-406.765,754.264,-598.441,181.21,348.883,904.307,427.166,646.022,356.355,-289.374,857.602,-145.246,129.416,-41.8662,27.9812,130.45,-114.595,-593.68,220.745,-7.83595,-193.46,2131.87,-62.2926,31.2761,-607.795,-803.175,159.839,777.168,0,-390.56,889.823,-57.7132,-1873.18,551.277,70.8093,-17.013,-1008.82,276.791,-1439.25,950.666,-61.6094,-2032.02,-565.223,1139.08,-449.476,921.488,57.5322,-830.273,1251.75,416.597,-102.841,2998.06,-162.549,-373.24,-700.578,1331.19,-130.32,361.008,-789.414,261.21,-915.721,0,-755.09,-511.984,-2700.75,0,0,0,0,1725.65,174.952,-1920.53,-836.038,979.041,1407.38,-134.323,-851.181,1211.77,319.627,-242.077,0,610.689,100.703,-1319.79,0,-2304.08,244.092,477.702,-1204.25,-1046.61,-679.418,372.238,-531.94,-608.183,0,1832.99,156.164,-836.518,170.279,245.625,-523.397,-221.378,1006.99,-562.983,-132.122,-386.261,1181.14,353.009,276.728,-72.9978,-69.639,-105.898,-242.664,988.27,-463.773,-1042.83,635.594,815.68,-1127.15,514.28,779.976,-1266.57,723.202,284.789,-1370.08,-698.415,-40.6417,0,-235.334,-565.935,955.651,1089.83,1709.94,174.108,-405.718,-932.282,244.479,1098.35,284.536,288.582,685.986,-34.5503,135.398,129.522,494.216,178.024,475.427,-1200.9,1201.81,-32.7238,-394.155,499.298,142.927,-710.221,438.351,367.858,-189.211,1648.95,-140.386,-672.223,0,-1.21402,-1.21402,-1.21402,-1.21402,-1.21402,-1.21402,-1.21402,-30.3801,284.777,-21.2377,-149.111,231.74,73.9536,-191.2,41.2133,-19.791,231.049,10.7783,-151.075,-71.7865,-80.9187,-130.816,614.323,-284.682,64.1821,78.3965,-86.7326,14.3562,17.4163,-108.668,-121.323,-226.603,561.54,-519.121,0,1275.94,-772.08,2317.57,935.462,-1141.99,730.108,444.591,538.399,-1207.62,-1638.52,14.2521,793.001,2986.25,-1131.45,2024.33,-392.468,1369.74,36.0625,-342.461,173.431,689.68,-2677.62,3811.97,-68.8856,395.439,-1026.18,1060.06,-530.989,561.15,483.834,535.57,587.363,0,-305.32,-328.956,-1074.34,-301.017,61.2603,-1714.61,-1021.03,-354.739,548.646,1232.03,81.7722,-338.391,-1700.82,-820.781,-1063.63,-380.671,-107.754,-1.96497,-5.0547,-113.203,185.742,1408.77,-318.38,2.09066,-87.9874,714.316,-703.253,8.77951,-213.908,-1044.59,274.539,-723.151,0,145.904,-487.685,-264.39,38.9991,821.012,228.026,1786.26,-1527.68,896.691,113.292,-252.95,517.768,-486.33,-2424.41,205.707,416.929,527.513,13.5821,-440.981,445.235,-365.21,-736.835,70.7634,-347.041,103.414,604.852,1165.54,-71.8596,-895.354,-2191.75,-639.51,-211.675,0,-794.198,1802.48,-281.764,0,0,0,0,970.095,-404.519,106.434,131.146,985.463,124.183,1027.8,816.619,807.909,274.059,-486.596,0,297.356,-724.235,318.781,0,-1491.12,29.825,-162.437,-691.728,467.393,491.744,1144.84,-313.079,-1163.39,0,-2956.64,-152.868,-31.0709,1357.54,-685.412,69.9778,-670.015,510.421,959.372,747.188,-381.954,962.343,380.289,-141.077,-534.105,28.5951,296.438,-298.191,-80.2485,265.188,-166.551,775.949,797.018,-1289.67,107.574,67.6921,-804.512,-148.283,232.816,-56.0707,-658.207,-340.118,0,2322.8,221.859,376.872,-961.151,908.09,960.104,-935.806,-460.421,208.621,-284.475,290.305,-601.784,-370.246,1807.23,-1053.65,-269.061,-245.73,246.735,16.2499,-1810.03,-183.842,186.562,183.668,562.987,-136.291,-279.515,-1051.82,346.32,-197.15,539.557,-115.009,-255.802,0,-4.63041,-4.63041,-4.63041,-4.63041,-4.63041,-4.63041,-4.63041,-32.3923,282.671,-22.2377,-150.421,231.74,73.8601,-193.617,40.2133,-22.2075,229.036,10.374,-151.48,-74.203,-81.9187,-130.816,613.323,-287.693,61.1699,74.9801,-86.7326,14.3562,15.0934,-108.668,-122.728,-228.007,1287.14,-522.537,0,313.134,1756.76,1069.75,-334.069,879.595,-1451.91,-1027.43,-1138.73,998.903,-302.39,941.626,566.51,-368.69,-32.1225,341.134,808.572,1908.53,-364.93,-498.383,-1493.73,228.258,547.091,3458.92,-965.385,703.257,49.8488,616.353,345.583,-429.846,-1558.93,430.386,-508.939,0,1055.09,962.028,-194.599,152.898,-2394.32,-289.649,171.369,-284.878,-574.028,1225.29,-909.952,-80.2758,11.5735,-2833.77,164.358,-404.686,487.176,0,-316.463,-917.555,96.403,-50.2719,211.983,46.452,404.812,-406.499,563.654,74.0576,224.802,142.096,-74.2642,-2151.19,0,842.953,-849.376,-71.0008,1234.22,1465.27,-12.5448,931.899,350.439,-488.527,-1076.74,610.809,-318.921,1067.22,332.063,-976.713,15.989,-643.279,-73.8974,268.919,-899.479,-426.187,81.7465,767.258,-379.372,25.6928,55.5955,509.943,-450.183,470.845,92.1775,-638.147,-183.226,0,1288.95,-1228.26,1007.98,0,0,0,0,-109.947,204.763,-270.642,-177.695,1550.1,364.621,1416.68,974.761,241.843,133.754,21.1544,0,896.525,66.9929,-1834.41,0,91.4772,-67.4144,1249.01,-1305.11,604.614,-266.529,-219.261,53.9955,1390.38,0,-755.347,980.645,741.218,-665.362,382.134,1384.32,-1222.67,872.941,333.125,238.726,430.809,823.543,670.63,-326.914,-6.90197,-684.733,464.53,-306.3,-854.479,-421.284,27.9216,671.915,-1014.89,-1255.29,-597.078,-144.944,-903.732,14.0045,-201.027,1162.36,-497.426,-173.758,0,117.787,-930.392,-2791.67,-244.035,-377.731,296.864,165.447,-26.2158,296.186,267.683,-99.8778,-203.306,-812.037,-248.616,-149.449,-12.1885,-232.715,233.599,147.047,2093.49,-542.526,-65.7279,845.299,-172.288,-36.8759,-700.405,-572.411,-516.715,181.05,-807.823,-200.238,219.158,0,-5.63041,-5.63041,-5.63041,-5.63041,-5.63041,-5.63041,-5.63041,-33.3923,282.671,-23.2376,-150.421,231.74,73.8601,-194.617,39.2133,-22.2075,229.036,10.374,-151.48,-74.203,-82.9187,-131.816,612.323,-287.693,60.1699,74.9801,-86.7326,14.3562,15.0934,-109.668,-123.728,-228.007,-266.81,-523.537,0,2957.71,957.967,-1658.56,939.159,523.294,-92.664,756.325,-1636.46,-952.129,-230.553,-273.489,675.035,1693.28,-156.3,-128.72,140.795,322.211,405.651,-211.505,-702.904,-115.71,-787.587,478.96,152.641,-231.525,-1716.62,997.946,-806.315,1688.87,-1563.3,-633.282,236.866,0,225.913,-1307.76,2076.99,2391.35,-982.974,2662.44,-276.587,-36.782,-149.415,730.609,-421.551,180.223,161.272,350.018,-214.737,94.5568,95.8562,-13.3365,5.29037,-211.551,296.125,-29.1813,2906.81,188.571,533.522,-1362.9,579.134,-68.3152,-46.4116,-138.947,-16.4689,175.344,0,203.342,-1585.59,233.17,-267.488,1148.58,-506.232,269.169,316.371,688.351,-855.314,793.135,-411.923,-2813.68,-1077.29,83.3367,-723.811,373.179,-41.8662,-23.8574,-3188.08,483.63,-663.782,376.221,622.139,34.9093,117.44,-1370.48,-426.56,-1698.38,688.161,180.189,-588.412,0,1737.48,1535.17,-269.139,0,0,0,0,-197.521,1191.94,-49.1451,580.666,1131.56,1512.21,1209.74,-1263.76,499.879,659.577,-787.465,0,393.044,-538.033,24.43,0,-2290.11,736.091,2016.8,-195.074,910.497,-322.218,342.984,22.5205,-960.664,0,1448.35,-1097.66,-1367.83,-1490.03,958.026,3946.84,364.621,-521.201,289.988,271.868,521.16,874.081,-46.2755,-1341.68,1407.75,-610.171,661.597,-307.254,-484.193,1879.25,-7.95875,262.232,711.928,-991.959,-1277.78,-652.443,-790.322,156.673,-9.47548,60.1592,-766.419,-570.774,0,-269.41,649.362,543.648,-2474.84,-1856.09,-5796.34,-1077.31,1725.9,77.7318,-473.455,-49.9242,-54.4229,426.523,-820.622,463.317,422.512,-403.504,255.862,-574.429,1082.62,-561.793,685.649,-166.392,-902.216,638.802,1973.34,-793.755,306.105,179.519,-304.328,148.49,663.078,0,-5.63041,-5.63041,-5.63041,-5.63041,-5.63041,-5.63041,-5.63041,-33.3923,282.671,-23.2376,-150.421,231.74,73.8601,-194.617,39.2133,-22.2075,229.036,10.374,-151.48,-74.203,-82.9187,-131.816,612.323,-287.693,60.1699,74.9801,-86.7326,14.3562,15.0934,-109.668,-123.728,-228.007,-402.118,-523.537
0,1340.48,-601.412,164.874,-1081.27,1237.8,-906.312,-2041.25,1502.96,-174.653,-152.18,1264.4,-98.5077,671.935,-3152.92,-271.272,-1637.46,113.373,-194.598,1177.43,-1610.33,436.256,-1556.91,2105.06,-230.891,0.993672,1185.63,-505.328,111.848,-1967.7,-1179.51,489.464,1121.95,0,368.392,-2943.21,-706.907,-2228.68,280.567,487.556,1956.43,931.408,-931.351,-2224.96,-971.511,-554.045,638.926,1716.97,-1939.37,54.6144,-1285.66,-6.06831,-126.404,-977.281,-590.129,750.641,143.074,4.9164,192.906,-853.102,-341.05,0,444.176,45.7054,0,-481.758,0,-676.193,1432.22,2019.71,-586.552,-186.156,331.531,399.825,1193.02,-494.343,1190.72,-842.412,-395.945,736.558,-1214.56,325.744,293.877,938.22,-324.644,-357.327,1007.45,1315.46,1769.76,289.974,417.777,35.3618,1291.43,-350.483,-166.53,810.932,-1229.29,77.5114,-561.938,0,192.732,1661.42,999.844,0,0,0,0,-272.612,1462.95,-473.967,1951.47,1741.14,785.198,-520.349,2184.51,-166.321,1669.54,69.3061,0,-533.1,1357.67,-791.256,0,-1228.4,11.3067,-346.643,1264.79,1258.68,-568.026,855.972,-494.315,-413.517,0,-1147.5,1444.9,-525.968,1638.33,-139.191,-708.059,384.472,-403.524,2204,-653.984,359.728,218.92,-292.51,-305.72,-997.777,-293.912,554.782,-372.464,-661.418,102.454,823.617,-946.404,356.608,-989.2,265.998,-291.771,-817.87,-460.982,-1089.79,637.359,-218.586,98.8249,0,465.1,726.703,587.078,1168.42,-549.283,1126.41,43.4806,-1128.4,-188.57,476.075,291.143,79.1697,404.604,1550.97,357.88,465.26,-227.456,469.986,1169.99,651.743,273.102,1193.59,679.652,168.163,159.672,81.3363,-687.334,-530.617,-427.684,-843.073,-278.536,-723.455,0,80.4673,80.4673,80.4673,80.4673,80.4673,80.4673,80.4673,182.285,25.6937,-147.54,216.517,97.125,294.548,-222.229,-34.0274,-141.317,220.039,-92.89,453.734,-135.906,354.234,-26.9577,472.42,-221.663,66.6237,85.1904,-140.269,21.2401,-230.977,-120.43,-36.063,-134.709,2703.78,1989.84,0,1136.71,1815,516.613,1891.08,826.807,-348.801,-3148.91,1812.97,216.473,28.3125,72.0694,-78.2047,-276.4,-343.416,1903.91,-386.928,1042.75,-137.754,-116.642,-873.511,-191.253,-673.988,1274.79,496.034,-195.746,219.047,-134.258,652.364,-529.116,411.816,167.716,8.335,0,-153.972,-3469.9,569.485,-1036.79,332.458,882.569,817.642,-56.8197,-320.455,883.897,397,223.288,494.388,-1184.32,-617.279,115.261,4.17823,225.971,792.405,-520.57,563.899,1471.15,1115.51,-211.971,18.5862,136.241,-144.862,116.364,-182.397,-1080.84,-39.3018,-178.617,0,1267.91,435.559,1021.23,-1526.7,858.609,307.006,2399.59,344.763,140.207,-1796.59,-1173.01,-156.43,2315.3,-2233.04,-1665.81,185.753,-862.322,26.1637,-855.3,1644.36,864.12,-1174.75,1608.62,-59.5774,181.892,-634.253,261.719,219.219,-310.563,-2701.35,427.202,485.244,0,-384.048,-538.78,-490.156,0,0,0,0,669.262,853.917,-831.34,1908.72,-313.726,956.233,2672.29,-262.717,-992.653,1700.13,-639.679,0,-738.455,2055.81,171.448,0,-849.368,50.1808,243.382,204.995,377.656,-374.955,1343.42,-553.392,-991.455,0,-1943.51,760.356,-1006.22,2395.46,-689.011,-1800.9,47.0477,-1218.28,1036.6,251.013,181.825,868.271,383.823,-1018.58,113.153,-815.085,583.18,-384.102,-443.053,257.032,1504.21,879.413,-635.141,-1128.47,323.578,710.591,347.33,-1641.76,-1676.71,568.799,-187.385,-824.128,0,877.98,2103.93,1141.37,-527.687,-685.125,1241.84,691.681,270.949,-56.6486,527.566,193.22,447.522,-930.366,181.739,188.47,609.715,-624.283,333.858,-1015.07,-1127.92,-1253.76,-298.279,300.354,-109.971,287.747,-33.2716,-1515.58,482.988,505.937,426.837,-205.972,727.5,0,80.4673,80.4673,80.4673,80.4673,80.4673,80.4673,80.4673,182.285,25.6937,-147.54,216.517,97.125,294.548,-222.229,-34.0274,-141.317,220.039,-92.89,453.734,-135.906,354.234,-26.9577,472.42,-221.663,66.6237,85.1904,-140.269,21.2401,-230.977,-120.43,-36.063,-134.709,1208.75,1989.84,0,1519.63,1663.34,4051.58,-269.485,1325.76,-240.914,238.489,1052.89,-534.511,-876.172,1619.56,392.386,1533.92,775.446,-560.5,-652.309,-944.925,25.1146,-748.334,-2330.95,1.42512,382.905,100.048,218.157,-309.387,330.855,-337.806,-411.308,645.287,-1268.09,-1.02545,348.508,0,2395.86,-912.788,-1761.23,-756.095,529.137,309.181,-575.783,-305.545,146.744,-743.786,-116.116,-264.117,-929.425,-2468.96,488.627,245.974,208.058,191.336,-24.1745,1504.2,1772.57,-551.126,820.418,95.6991,-210.337,-1633.79,1084.32,-136.38,280.549,1221.03,36.9985,-1853.43,0,-642.974,2977.13,-1751.11,424.111,1171.92,2250.57,201.933,2052.7,-657.973,986.049,63.9683,292.851,1488.68,-167.748,847.345,198.491,155.04,-246.46,56.8682,-1133.46,802.925,1289.66,2609.09,108.134,99.9419,1112.65,-300.843,343.022,-468.018,-730.747,648.305,1027.89,0,758.247,2771.25,1464.2,0,0,0,0,-1789.72,1974.72,-1179.1,-908.443,-577.297,774.798,551.378,578.464,-295.706,2657.08,-464.382,0,297.207,-143.164,-339.03,0,-1601.84,89.8183,-798.18,-559.076,1249.9,-1358.66,-1038.31,-499.071,-908.854,0,701.09,-611.141,-258.967,2453.09,-1704.21,-2162.51,623.068,655.939,450.067,920.837,155.82,1310.16,1028.26,1454.9,31.8013,-437.705,-117.778,-384.102,-1350.63,1602.76,1691.92,119.262,-628.785,-673.95,725.468,152.073,-865.247,-1185.74,-1468.21,299.067,-491.951,-21.8352,0,-25.2491,-2011.14,390.039,1484.58,-678.863,1145.75,-634.049,156.588,1444.3,-200.114,228.185,-163.266,-963.624,-2119.11,-1726.01,-361.769,-223.007,302.952,-952.748,-1298.82,-140.96,-604.663,129.648,-133.561,270.734,1017.66,-354.187,347.341,12.6756,1293.94,-99.7777,329.435,0,80.4673,80.4673,80.4673,80.4673,80.4673,80.4673,80.4673,182.285,25.6937,-147.54,216.517,97.125,294.548,-222.229,-34.0274,-141.317,220.039,-92.89,453.734,-135.906,354.234,-26.9577,472.42,-221.663,66.6237,85.1904,-140.269,21.2401,-230.977,-120.43,-36.063,-134.709,15.931,1989.84,0,992.042,2998.43,4557.81,2261.61,696.349,2121.54,-43.8216,-103.834,-167.908,-1941.69,390.423,-36.1438,-175.52,-2151.19,1649.14,-1841.14,-66.0873,-640.653,-478.574,-139.7,1575.41,-1786.38,2314.44,-400.7,181.619,459.897,1951.05,-428.825,700.142,-581.101,-81.6552,210.962,0,872.451,-360.111,669.459,601.885,1550.07,4354.43,3296.59,-170.918,-479.986,1292.52,-70.2129,222.246,578.605,-186.273,-653.254,-63.2657,-76.8608,-15.4123,-457.545,941.56,331.175,544.672,349.843,166.509,-469.66,1251.21,-291.197,237.704,-150.679,308.215,237.811,369.415,0,149.874,-215.1,-2385.28,873.176,937.005,554.235,-1272.53,-2363.6,141.71,-782.342,-860.16,-97.2483,-45.298,-3883.34,-1501.78,-506.653,-444.697,19.4513,-919.296,-6977.9,-1624.86,-472.403,1096.52,-41.8347,36.3572,-2149.91,-650.153,966.237,-2186.06,-1833.21,468.314,-562.581,0,761.217,1532.12,2216.95,0,0,0,0,2547.8,1160.28,814.746,855.778,12.1532,1499.6,1833.75,312.834,1100.86,1582.57,129.532,0,3585.84,1489.56,499.458,0,-1083,105.485,765.11,-2464.6,-179.036,334.22,2114.7,-28.987,-2037.65,0,140.941,1031.85,860.087,184.003,-3596.2,270.153,-2130.31,1813.32,1739.35,155.191,-445.811,1528.66,53.9777,1785.88,-618.969,-43.3297,189.836,-384.102,945.746,-728.621,1179.35,-102.236,-504.72,-286.293,745.91,863.471,-418.352,-948.722,-1915.11,-874.943,-626.1,183.119,0,194.132,-1540.66,-3869.39,446.494,1056.51,-6846.57,-374.866,100.082,77.9839,-357.932,-27.625,-638.945,996.324,832.921,471.753,-241.587,436.651,315.639,678.037,1959.76,1216.6,740.417,104.539,-319.396,-46.4384,-1369.85,1409.47,541.423,861.123,994.666,-472.637,-124.545,0,80.4673,80.4673,80.4673,80.4673,80.4673,80.4673,80.4673,182.285,25.6937,-147.54,216.517,97.125,294.548,-222.229,-34.0274,-141.317,220.039,-92.89,453.734,-135.906,354.234,-26.9577,472.42,-221.663,66.6237,85.1904,-140.269,21.2401,-230.977,-120.43,-36.063,-134.709,-293.652,1989.84
0,9422.01,941.797,470.444,3297.89,940.888,0,1414.22,470.346,0,0,0,0,0,0,0,0,5181.48,0,0,0,0,0,5652.91,0,0,0,0,0,940.79,0,0,0,0,2824.36,0,470.346,1413.23,0,0,942.785,0,0,1881.46,0,0,0,0,0,0,0,0,0,0,0,0,471.354,0,0,1881.46,0,0,0,0,0,1881.46,0,2828.43,940.888,0,2355.18,0,0,3771.14,0,0,0,0,0,0,0,0,0,3296.9,0,0,0,0,0,3298.88,0,0,0,0,0,0,0,0,0,0,1412.23,0,2351.82,0,0,0,0,9877.66,0,1411.04,0,0,0,7525.85,1411.04,0,1413.23,0,0,940.692,0,1881.46,0,0,0,1881.46,1881.46,0,1881.46,2351.73,0,470.346,0,20701.9,10352.3,5178.26,4706.86,470.444,1414.3,3762.93,9407.32,0,940.692,0,0,0,3292.79,1881.58,0,940.888,0,0,2354.75,0,1881.46,1411.33,0,0,1881.46,4706.63,2352.22,3292.7,1411.04,0,3294.59,0,166127,100716,66829.9,27293.7,28709,28706,23055.7,3762.78,4242.89,19284.9,23518.2,4703.46,9427.85,17414,6115.28,4713.54,3299.79,14132.3,4704.44,6121.55,0,15051.7,471.354,9418.77,4704.44,13170.2,26357.9,7066.55,22107.6,940.692,28242.4,26829.3,0,3765.04,3765.04,3765.04,3765.04,3765.04,3765.04,3765.04,2351.82,471.432,2351.82,2351.82,470.346,942.785,2823.27,940.79,471.354,1413.23,1413.23,470.444,941.699,0,1881.46,1413.23,941.877,470.444,1881.46,3294.59,941.877,2822.25,470.346,2824.24,3294.59,56943.1,3765.04,0,6594.63,941.797,1881.46,2826.46,940.888,0,942.785,9407.32,0,3762.93,0,0,0,7525.85,0,0,3767.35,0,0,0,0,1881.46,4712.03,0,0,1881.46,1881.46,0,0,0,0,0,0,1884.49,0,2351.82,471.432,0,0,471.432,0,0,0,0,0,0,0,470.346,0,471.354,0,0,0,0,0,940.888,0,0,1881.46,0,0,0,0,0,1881.46,0,6125.33,940.888,0,5181.72,0,0,5185.28,0,0,0,0,0,0,0,0,0,4710.14,0,0,0,0,0,4241.59,0,0,0,0,0,0,0,0,0,0,1883.58,0,940.79,0,0,0,0,940.692,0,1881.39,0,0,0,1881.46,1411.04,0,942.785,0,0,1411.04,0,0,0,0,0,0,0,0,2822.25,2351.73,0,470.346,0,20701.9,10352.3,7061.73,5647.75,470.444,1414.3,3762.93,9407.32,0,940.692,0,0,0,5174.25,1881.58,0,940.888,0,0,2354.75,0,1881.46,1411.33,0,0,1881.46,4706.63,2352.22,3292.7,1411.04,0,3294.59,0,165656,100716,63065,24939.5,28709,28706,21173.3,3762.78,4242.89,16933.1,23518.2,4703.46,9427.85,13651,5644.94,4713.54,3299.79,14132.3,4704.44,5651.21,0,15051.7,0,9418.77,4704.44,13170.2,26357.9,7066.55,22107.6,940.692,28242.4,26829.3,0,3765.04,3765.04,3765.04,3765.04,3765.04,3765.04,3765.04,2351.82,471.432,2351.82,2351.82,470.346,942.785,2823.27,940.79,471.354,1413.23,1413.23,470.444,941.699,0,1881.46,1413.23,941.877,470.444,1881.46,3294.59,941.877,2822.25,470.346,2824.24,3294.59,60708.1,3765.04,0,4710.96,0,0,1883.76,940.888,0,471.354,0,0,0,0,0,0,0,0,0,2825.55,0,0,0,0,0,2827.29,0,0,0,0,0,0,0,0,0,0,941.877,0,2351.82,942.707,0,470.346,471.432,0,0,1881.46,0,0,0,0,0,0,0,0,0,0,0,1881.46,1884.74,0,0,3762.93,0,0,0,0,0,1881.46,0,8952.71,940.888,470.444,6595.03,470.444,0,6128.14,0,0,0,0,0,0,0,0,0,7066.97,0,0,0,0,0,5182.48,0,0,0,0,0,470.444,0,0,0,0,1412.14,941.797,2351.82,0,0,0,0,10348,0,3762.85,0,0,0,11288.8,2351.73,0,941.797,0,0,1881.39,0,0,0,0,0,0,1881.46,0,2351.82,2351.73,0,470.346,0,19287.9,10823.7,7061.73,6118.09,940.888,4707.88,3762.93,9407.32,0,940.692,0,0,0,5174.25,1881.58,0,940.888,0,0,2354.75,0,1881.46,1411.33,0,0,1881.46,4706.63,2352.22,3292.7,1411.04,0,3294.59,0,165656,100245,63065,23527.4,27768.1,24942.1,19290.9,3762.78,4242.89,16933.1,23518.2,4703.46,9427.85,11769.6,5174.6,4713.54,2357.08,14132.3,4704.44,5180.86,0,15051.7,0,9418.77,4704.44,13170.2,26357.9,7066.55,22107.6,940.692,28242.4,26829.3,0,3765.04,3765.04,3765.04,3765.04,3765.04,3765.04,3765.04,2351.82,471.432,2351.82,2351.82,470.346,942.785,2823.27,940.79,471.354,1413.23,1413.23,470.444,941.699,0,1881.46,1413.23,941.877,470.444,1881.46,3294.59,941.877,2822.25,470.346,2824.24,3294.59,64473.2,3765.04,0,1885.41,0,0,1412.32,470.444,0,471.354,0,0,0,0,0,0,0,0,0,1412.32,0,0,0,0,0,471.354,0,0,0,0,0,0,0,0,0,0,2355.1,0,2351.82,471.432,0,5173.96,0,0,0,2351.82,0,0,0,0,0,0,0,0,0,0,0,1881.46,1885.49,0,0,1881.46,0,0,0,0,0,1881.46,0,11306.8,1882.69,470.444,9421.4,940.888,0,7542.36,0,0,0,0,0,0,0,0,0,8480.13,0,0,0,0,0,7537.66,0,0,0,0,0,470.444,0,0,0,0,470.346,0,2351.82,0,0,0,0,10348,0,3292.51,0,0,0,11288.8,2351.73,0,1413.23,0,0,1881.39,0,0,0,0,0,1881.46,1881.46,0,2351.82,2822.08,0,470.346,0,19287.9,10823.7,7061.73,6118.09,1881.68,7532.13,7525.85,9407.32,0,940.692,0,0,0,5174.25,1881.58,0,940.888,0,0,2354.75,0,3762.93,1411.33,0,0,1881.46,4706.63,2352.22,3292.7,1411.04,0,3294.59,0,165656,100245,63065,21643.6,26827.3,17414.2,14114.8,3762.78,4242.89,16933.1,23518.2,4703.46,9427.85,11769.6,5174.6,4713.54,1885.73,14132.3,4704.44,5180.86,0,13170.2,0,9418.77,4704.44,13170.2,26357.9,7066.55,22107.6,470.346,28242.4,26829.3,0,3765.04,3765.04,3765.04,3765.04,3765.04,3765.04,3765.04,2351.82,471.432,2351.82,2351.82,470.346,942.785,2823.27,940.79,471.354,1413.23,1413.23,470.444,941.699,0,1881.46,1413.23,941.877,470.444,1881.46,3294.59,941.877,2822.25,470.346,2824.24,3294.59,68238.2,3765.04
0,2376.16,-1778.29,439.514,1041.04,209.722,215.807,-96.381,-806.659,651.775,-1022.43,-500.584,21.2458,549.325,1461.52,504.319,843.538,-145.246,298.985,-1416.35,-1246.09,862.663,1644.04,643.042,-170.717,-88.3693,-1506.55,-301.991,-76.8194,-620.832,282.789,223.862,81.5049,0,2294.42,-830.442,381.057,-141.439,-100.895,-911.426,920.307,-538.427,194.079,363.712,813.295,0,-260.622,-126.44,97.355,502.932,171.87,394.444,313.997,-971.73,-650.055,1132.11,-702.38,0,-192.198,1841.97,-535.603,-0.631211,48.9859,-305.802,-12.6783,422.064,0,1161.81,1557.57,-621.748,1571.91,-244.09,-153.573,371.435,604.627,-1760.87,-200.247,968.493,613.56,117.616,58.8906,-1137.85,329.951,-1165,277.525,-33.7703,2722.39,-717.496,-2413.84,1306.38,52.0854,593.588,-1281.06,1272.41,219.074,-890.819,1411.52,705.074,-1248.8,0,-2090.02,422.117,611.485,0,0,0,0,1943.14,725.414,813.123,-2898.03,-28.0009,-960.442,158.545,-879.764,-197.178,-206.011,-416.002,0,1446.8,-1326.13,445.144,0,1269.39,-30.5623,721.009,-650.257,-710.835,-1411.53,-2206.77,1085.73,-303.967,0,963.084,-733.578,-1537.23,-1799.19,-503.545,2239.16,-197.992,459.113,-456.317,1212.82,1160.75,-424.894,692.401,138.324,928.683,-989.205,-872.134,717.957,411.867,208.777,693.037,-1272.69,367.308,118.913,405.75,-2418.95,-162.032,867.56,-971.522,-119.908,-197.099,-41.599,0,299.281,-355.656,20.9454,-673.482,482.194,-1546.58,607.082,-1857.56,1142.53,-687.725,679.932,-343.827,485.233,-257.593,828.655,620.644,1176.27,1058.58,-94.4589,-63.1459,187.21,-220.167,155.68,-507.753,-1049.28,579.082,-388.586,73.5221,701.068,815.548,-1461.2,-356.215,0,-19.5768,-19.5768,-19.5768,-19.5768,-19.5768,-19.5768,-19.5768,-19.5768,299.509,30.0225,-44.9717,-16.1916,62.3511,125.601,34.14,111.069,-107.608,232.047,-641.926,209.699,-95.077,-54.4295,250.875,76.1918,-36.1069,-210.923,-76.6059,37.1868,-314.465,-12.6756,34.3688,-68.2726,-770.383,-357.981,0,523.819,191.893,569.537,571.182,44.6595,184.638,1111.21,196.214,-320.601,811.904,-543.863,425.334,-1363.14,-837.514,948.194,1136.38,383.184,839.093,490.901,400.845,-901.631,812.095,492.794,-161.777,233.245,-1568.32,304.892,-445.413,-973.345,1889.41,339.962,-245.415,0,-224.425,56.3387,426.668,298.977,-27.6228,-463.711,633.105,-288.016,125.664,-8.21424,139.207,-59.7142,518.568,26.9109,151.961,86.9141,-257.178,25.5718,-221.515,-157.159,-199.74,-1276.51,-47.1968,34.985,-2.75539,795.799,774.861,553.661,-471.702,446.522,-76.0075,-859.555,0,-204.233,183.595,-634.117,869.031,-273.244,-654.712,-3301.29,-336.202,-93.0094,-587.804,-1145.81,883.678,-1515.17,1647.25,-219.673,336.58,970.42,-96.8369,130.069,-684.301,-725.111,650.36,437.565,-49.8917,-217.638,655.895,16.869,152.907,-1136.03,611.142,676.918,-1876.57,0,1211.19,-689.252,560.164,0,0,0,0,-446.579,448.97,468.726,-66.3188,-703.638,1303.5,1402.07,-590.854,-349.635,-1538.11,-15.6984,0,-947.937,-174.933,77.7387,0,767.856,244.031,87.8773,-710.011,-661.997,-52.4593,-269.165,820.3,1547.33,0,785.091,-1056.23,-17.8255,-645.982,-889.882,1539.37,149.569,687.494,546.182,-722.057,1115.31,-564.754,44.6804,-1260.26,301.093,-938.879,-1305.6,616.471,24.6901,-520.927,95.9412,-929.793,723.433,934.887,341.383,-77.5559,505.202,475.998,172.091,445.544,156.568,-398.554,0,-331.18,-123.665,-1555.84,-573.266,951.254,-762.839,1926.03,-56.4535,62.617,813.841,-438.796,-768.486,-368.695,-275.076,-1420.7,-322.339,669.148,-317.497,206.869,-360.118,-918.264,1668.46,-876.14,-474.574,1449.77,28.5141,-194.081,317.313,355.182,-100.652,431.859,507.475,0,-24.3544,-24.3544,-24.3544,-24.3544,-24.3544,-24.3544,-24.3544,-24.3544,277.05,44.8191,-164.987,-78.7581,-138.025,58.1557,-82.9976,-5.0981,-138.822,75.2448,-541.791,-226.96,-282.374,124.708,136.812,104.862,204.804,25.8337,67.6315,38.9551,-210.626,301.567,234.96,-44.1558,-28.0482,-619.288,0,-327.503,36.7893,-47.8204,-211.479,-322.887,-1055.79,-491.12,1063.34,-438.455,1633.13,-294.646,509.987,-854.696,564.843,-892.774,1287.05,745.893,119.592,122.56,-1769.12,-68.5099,-168.552,-791.269,254.662,-210.595,-757.768,-2056.42,-156.141,-721.107,1399.53,-113.498,54.3675,0,624.061,-1445.36,1623.63,973.573,-146.847,-891.235,-138.888,-588.241,652.288,-2010.47,-2578.79,-141.157,64.5665,1309.94,-570.937,385.494,53.9846,290.776,24.7676,-914.461,-392.78,999.045,565.033,98.0889,371.796,104.564,1059.65,-170.117,220.945,555.631,478.836,-475.698,0,-716.587,1467.9,-665.178,1040.72,-354.481,603.212,55.0263,-1744.78,77.9055,1418.99,-67.3334,427.446,37.1637,-1227.11,518.215,79.8809,252.309,-17.9658,891.55,995.635,-203.106,176.905,443.148,-47.5272,818.605,-550.755,1428.69,-147.736,-176.957,1385.44,-3.60849,397.207,0,-64.052,-1433.72,-1792.99,0,0,0,0,1049.21,728.778,-1790.55,1786.34,-304.382,27.4254,-2.26619,1333.3,-669.242,-207.196,261.47,0,-337.372,-955.895,1086.43,0,-51.2641,244.217,351.726,580.44,-79.5779,-575.505,184.153,1450.78,-1058.86,0,-2523.07,1832.19,-601.372,377.258,-10.083,32.9333,-1240.86,-1890.37,-985.623,620.842,1014.25,-655.243,-853.378,-153.112,-1352.61,-292.36,-1489.37,734.705,1356.52,227.755,-358.059,487.269,-449.006,913.716,538.268,-156.093,256.062,2354.88,-678.657,1.22944,-67.1145,-1157.52,0,1543.88,-1207.63,526.873,-547.723,808.833,1366.59,-1205.72,2079.01,-262.942,239.918,102.23,-397.385,687.089,672.774,-210.158,-209.53,-885.233,-653.336,-1227.53,-653.577,-858.821,-1389.84,893.527,714.15,146.567,781.001,-787.875,-434.965,-169.532,-523.12,952.608,59.526,0,-3.18301,-3.18301,-3.18301,-3.18301,-3.18301,-3.18301,-3.18301,-3.18301,241.964,49.3625,-129.159,-56.6676,-89.183,114.719,-117.497,58.1297,-185.115,43.6585,-621.271,-245.114,-284.687,153.098,110.322,187.749,190.886,23.3908,45.9142,136.343,-210.082,313.442,269.8,-28.6501,450.392,-552.978,0,-928.57,-517.965,-265.645,-1535.85,389.4,-2503.09,-849.816,-933.179,261.025,-2492.04,-163.043,-187.11,26.1543,-718.656,932.424,1419.42,938.922,-406.267,835.538,-1268.75,438.296,-334.113,-746.264,-261.768,291.855,29.2901,364.477,109.863,-1015.3,1366.69,680.54,-1332.97,0,-668.369,-148.291,-1228.83,2046.55,-742.9,-489.694,-1469.6,2281.56,655.883,-82.3695,-45.9908,-156.852,-259.197,1328.6,-849.216,657.288,2639.39,-220.513,-445.257,-745.293,-1767.66,1759.47,-700.505,91.3705,-8.69634,3035.67,486.611,49.052,140.86,1926,-2.98443,-489.336,0,-1921.31,-339.089,-2000.74,278.547,-480.158,-1278.32,1452.25,-784.971,1144.75,797.311,-969.841,687.657,72.8505,611.37,750.965,1044.34,525.597,425.59,-906.722,-1655.65,-1915.87,738.478,1450.15,26.2046,545.491,-517.321,-766.462,-367.081,394.611,-2010.78,1115.72,1182.48,0,1129.29,-2529.32,1024.42,0,0,0,0,478.13,332.161,908.757,148.242,-493.757,-385.335,957.044,-421.729,-384.241,-2409.76,578.146,0,332.22,1767.61,-323.864,0,209.821,367.533,-589.053,785.003,-154.171,-475.274,542.77,-320.225,-409.283,0,2041.13,-223.679,291.11,-1160.54,-452.369,-183.618,-124.817,703.797,-1182.23,790.955,1084.48,-740.605,-147.635,1306.47,-851.205,-1487.06,-1439.3,918.862,1086.56,-796.995,-988.079,1071.82,-773.572,90.5572,254.779,-1368.37,30.9682,1258.92,-176.956,-937.143,316.103,-962.982,0,-404.953,1343.66,1390.92,1089,908.474,3607.73,-1808.26,-2217.27,-867.408,-729.54,-162.972,828.045,-1568.28,270.336,119.661,-353.255,-1252.07,-263.376,1169.51,851.422,811.744,115.756,747.572,-246.476,-615.365,-1654.1,-733.492,-90.761,-617.201,659.096,-1311.5,420.7,0,-47.1941,-47.1941,-47.1941,-47.1941,-47.1941,-47.1941,-47.1941,-47.1941,287.081,-57.1267,-222.984,14.6476,-226.143,356.268,-31.91,88.4399,-96.2381,68.2599,-700.379,-328.304,-129.43,271.875,21.7214,1.3668,83.5597,-88.0996,43.0408,77.5279,-174.926,222.403,47.6671,46.9361,883.383,-681.334
0,-183.956,580.801,-133.476,1818.81,-91.5623,-699.711,-221.51,-874.841,-1561.52,390.521,454.059,219.288,-111.775,1706.02,1450.42,563.521,1131.27,-155.128,12.0288,587.121,772.904,-115.378,-256.719,-141.549,-7.92074,420.837,-1102.69,-105.247,-591.842,1573.8,-376.598,376.168,0,1152.95,636.063,-1606.59,-203.163,-70.5219,447.798,-150.64,2.90607,-705.275,19.1846,181.67,670.442,-210.778,-756.323,-4.67964,-242.267,-341.805,176.629,-29.9488,-248.742,-190.57,470.397,-101.752,0,0,-317.797,726.298,0,-91.5842,739.617,-9.99604,-996.93,0,347.746,1445.36,182.11,567.566,1546.11,764.851,218.192,716.205,532.765,-346.236,-713.047,320.465,-19.801,244.307,-109.066,-637.698,283.31,233.048,-367.336,36.0094,-463.199,206.009,-435.397,-46.7875,0,294.06,-118.957,-69.0859,1854.61,-373.937,-185.753,696.242,0,16.0866,-770.283,452.034,0,0,0,0,875.032,-655.718,-675.994,-173.334,-210.224,-392.825,-1077.33,-1964.9,1046.72,-504.291,-333.265,0,243.394,-553.474,-653.419,0,-872.103,-119.577,-267.681,1114.41,-237.753,-789.131,160.285,-33.0742,351.016,0,-934.442,-112.112,932.457,-838.434,-646.474,-193.026,1533.75,-1053.75,519.228,-385.298,-1295.77,291.072,-593.304,874.356,-1050.07,-52.4298,57.4071,0,-614.473,-196.057,-712.672,-1182.23,130.957,-110.794,166.887,1369.88,463.39,225.848,-329.827,963.745,-123.071,-1057.92,0,875.446,-449.722,36.4789,-672.466,-1016.5,-447.152,-584.901,548.475,669.996,317.985,14.6946,-456.581,-560.55,-996.657,-814.702,-281.789,-349.569,1017.14,212.299,66.5155,-35.7907,1177.4,-848.014,-108.462,1165.45,296.6,-656.445,1219.39,798.252,-1841.45,-929.616,1796.26,0,-34.8685,-34.8685,-34.8685,-34.8685,-34.8685,-34.8685,-34.8685,21.4032,-34.8685,-76.6519,-274.421,83.4461,-167.272,-5.01254,-249.299,15.2005,52.8806,93.8423,47.0423,48.824,-119.999,-22.4659,-210.568,-128.283,120.484,199.535,30.9307,103.315,146.985,172.495,-166.083,-30.1415,-607.016,-642.721,0,1267.68,416.726,276.259,-278.827,750.924,-385.832,662.578,1732.75,-905.334,155.267,-531.356,35.8734,-425.58,402.108,-1568.36,-292.166,443.401,105.305,134.92,-246.632,-1130.71,60.618,412.288,-464.082,-119.577,-881.873,1050.22,364.518,1649.78,110.308,17.4753,773.05,0,-327.276,1222.44,-337.988,601.715,-185.594,979.932,-297.291,-104.094,-1036.96,-576.095,-357.545,-54.1062,7.29651,-162.747,2.58483,-32.0878,-681.218,-4.55453,-105.126,-331.345,-331.408,926.061,-439.458,-15.5252,0,-169.239,-585.315,0,455.403,-438.308,0,-312.819,0,-466.06,-243.247,1033.61,1534.04,245.933,-451.498,-767.131,-265.206,629.273,-975.738,511.452,285.397,568.595,45.9545,-180.152,-68.0378,-53.9096,-233.838,44.7127,-796.197,-92.7068,-638.376,-1671.56,107.714,0,975.324,-140.68,35.88,-810.569,1686.04,-357.064,-923.617,0,-768.89,-361.612,62.5052,0,0,0,0,75.1509,-1123.11,-3.54482,-360.164,810.448,-1005.25,477.84,683.905,127.716,346.129,-152.75,0,-28.0019,276.685,-359.273,0,333.292,395.434,260.938,64.4863,-802.599,-874.395,-175.024,95.0981,1352.06,0,-75.386,-323.842,-470.74,-354.061,-85.3137,-87.9758,-183.185,-41.8307,161.156,-1110.24,-52.6919,101.273,103.368,843.176,-65.2145,-16.0643,519.962,0,569.477,655.365,-354.67,-1647.51,1019.64,-136.69,796.058,339.247,931.595,-345.963,-359.966,255.547,-89.7389,-1175.43,0,-246.354,1018.92,-385.749,-971.851,-1201.81,-34.4584,-332.22,-30.3182,84.0318,-1306.49,-1802.81,361.069,-16.8877,1682.13,-514.619,-180.665,-503.105,-1121.65,370.129,-529.298,344.971,-336.346,1419.19,226.709,-700.798,-667.201,300.726,-693.716,-167.075,488.284,146.678,-313.431,0,-59.4831,-59.4831,-59.4831,-59.4831,-59.4831,-59.4831,-59.4831,136.646,-59.4831,-405.918,-328.922,153.995,-55.215,340.128,-164.186,-7.58174,15.9954,-141.098,218.836,-127.611,-133.92,-212.496,67.4845,4.82839,36.3198,28.6445,153.227,-144.436,51.2535,224.127,-41.3144,-204.136,954.083,-1038.66,0,-588.13,1119.27,833.794,-431.623,1600.02,148.059,982.598,-664.918,-710.382,-1399.89,-61.8432,292.705,-103.706,-608.442,277.112,-324.519,990.545,177.966,-255.115,664.524,256.305,-1658.31,-422.68,338.837,395.434,-1001.28,370.219,-67.8525,-655.382,2011.9,-420.461,278.896,0,-735.594,335.23,521.657,1044.93,317.866,65.9462,-846.556,-163.562,-1135.65,-423.217,-121.804,226.789,6.33373,1335.38,463.592,64.956,759.251,-67.6833,-75.7306,236.814,-252.806,496.248,75.0839,-23.1842,0,273.547,-1574.85,0,542.874,320.87,-71.7378,647.869,0,478.767,-15.9781,1491.67,243.73,-1609.92,-147.988,69.6231,94.2162,-407.03,397.258,535.734,679.125,-413.323,-469.369,-182.603,383.575,-559.984,155.745,-237.823,-446.392,-542.322,-301.905,-2083.41,-406.714,0,134.07,913.208,-162.113,-1767.78,-1960.94,-152.377,43.5517,0,-676.718,71.6255,-790.039,0,0,0,0,1731.99,-1044.01,531.889,-1117,-183.925,-92.7444,-654.071,-1216.69,110.737,-610.748,-329.808,0,-1694.96,-406.466,646.79,0,-40.5334,-1.94822,-20.222,967.032,-866.95,2369.74,453.592,573.333,889.027,0,-1106.82,672.1,-1365.03,-808.98,-48.678,-61.9955,7.17582,403.262,335.808,-891.308,826.488,20.4514,-862.656,-271.904,978.113,-402.684,1201.09,0,-611.821,-211.031,-342.56,868.098,1485.23,-350.583,539.328,176.605,362.439,447.612,-365.28,102.733,-194.17,-353.587,0,395.097,877.555,43.743,-351.038,-548.019,365.817,-118.539,-1163.56,1035.83,138.396,2075.5,-1200.19,-604.991,-327.58,432.092,984.849,389.239,538.8,-664.164,273.657,-479.178,-81.4258,-509.27,-596.995,207.349,302.936,-417.583,-486.505,-543.325,1355.91,19.8753,-1341.63,0,-36.091,-36.091,-36.091,-36.091,-36.091,-36.091,-36.091,23.7427,-36.091,-215.079,150.991,-17.2034,-185.478,-87.4473,75.1612,117.28,209.406,46.7802,46.442,-117.738,-182.269,48.8211,-210.444,-110.438,99.9664,47.7436,101.785,-123.511,20.0215,233.043,-47.113,-249.283,560.109,-353.125,0,-712.094,707.178,1755.5,56.4088,-107.466,-698.787,247.31,-286.092,-504.937,-154.056,-538.355,496.088,-804.24,-2772.88,-618.416,295.465,-279.459,317.278,-373.49,-1266.75,-1659.48,-611.685,-2279.75,-92.4756,-1.94822,-278.25,-526.221,-221.217,-357.843,78.1352,-389.728,-1317.36,0,-981.952,-18.5253,3147.92,722.186,423.573,635.616,798.757,544.332,-1427.7,572.734,248.316,-118.616,-64.4189,1030.48,285.314,-347.386,176.574,-306.273,-31.3112,668.285,255.714,-575.354,277.429,203.299,0,-864.561,-654.838,-23.1349,-37.9355,354.886,-28.0203,2131.01,0,-2046.38,722.828,-599.159,1243.45,-656.773,50.6101,-1496.02,430.593,-257.12,-1129.9,-37.8355,-90.0279,315.02,-983.473,-1031.9,-30.8174,279.68,-163.029,265.852,428.999,-86.7064,609.857,-918.075,-307.201,0,-878.282,1450.86,-260.573,-110.822,1030.33,-160.088,-144.255,0,359.277,1588.79,-18.2094,0,0,0,0,-179.827,-3404.17,83.3286,144.786,655.555,-902.582,1164.72,181.629,-71.4854,513.534,-28.0131,0,541.819,-41.913,-295.804,0,-214.633,292.851,-203.44,-387.996,-1189,1304.46,675.225,412.33,1239.18,0,293.071,465.424,-2410.17,767.788,-429.378,-65.1356,-1737.72,-1851.42,2477.47,1146.18,669.215,-32.4071,-870.743,112.848,563.792,-8.76931,908.037,0,-299.966,-638.909,-659.384,457.973,702.803,128.997,369.128,-89.1106,-208.178,515.021,-1090.23,585.696,-210.751,426.78,0,-297.502,-788.412,-421.746,465.636,627.464,569.524,1479.5,87.2863,1964.5,1574.41,38.9232,670.603,827.206,336.197,635.977,-334.385,-362.693,205.487,-105.654,162.185,352.157,139.623,518.159,106.492,-291.678,-186.889,114.13,158.699,94.7961,735.861,-153.494,-1144,0,-33.0296,-33.0296,-33.0296,-33.0296,-33.0296,-33.0296,-33.0296,-125.512,-33.0296,142.13,-46.7606,156.922,-128.345,-124.627,1.63948,-17.4673,142.613,1.82322,160.195,-10.4371,-189.721,48.7036,-231.523,-21.7488,91.3172,-191.991,67.3947,-112.285,40.7476,355.458,-96.5988,-209.195,-795.168,-244.04
0,-772.867,363.455,255.809,-805.767,-416.587,-122.337,1821.3,191.597,358.84,-1043.15,-334.199,43.5763,-752.087,225.234,869.118,1168.98,899.868,-37.2685,158.281,1410.63,-2303.9,-471.12,-758.175,-209.776,-45.3013,1216.41,-227.201,23.8253,96.6824,-541.425,250.863,1704.75,0,255.732,297.069,21.7444,1927.16,-108.1,-602.984,-632.123,-537.683,53.4425,765.71,-672.278,-149.978,-19.9571,1180.34,-975.599,-279.231,279.562,186.366,-0.582926,-514.533,893.981,232.363,-165.023,-47.8886,-3.9448,-837.069,-159.142,0,377.093,-521.267,0,-198.013,0,-530.518,761.208,-87.1411,-34.9573,-221.995,-521.826,674.568,-126.284,131.587,1090.2,-484.131,494.044,-308.268,1177.21,838.121,156.819,-1206.05,-169.746,561.641,-2715.68,-612.998,-722.011,-590.913,-39.8313,-5.45326,10.3378,-704.832,-691.481,95.666,-906.449,-266.214,-405.293,0,-195.153,-1072.99,-940.535,0,0,0,0,870.383,-11.361,-543.264,694.053,453.09,67.5398,601.562,103.946,-294.307,-1209.34,501.907,0,-282.539,-986.296,-528.929,0,57.0613,-4.34151,-754.696,1159.62,-277.987,383.3,70.5833,131.664,-227.583,0,1082.66,-754.714,-165.381,421.635,420.352,1213.74,-1045.45,-87.2113,-806.166,-349.62,279.225,-179.4,239.945,315.538,-589.649,9.32377,985.447,294.833,52.9213,507.667,292.269,434.828,-80.8007,-96.7169,-113.193,-391.761,183.629,327.115,-470.59,-746.945,363.049,-332.513,0,105.442,-977.212,589.149,-229.011,259.892,-19.4358,469.5,-828.13,-140.339,-717.404,506.622,-87.7542,-760.691,-27.5661,-846.791,-268.166,273.091,-7.26997,590.796,311.576,1004.54,-178.293,1702.59,736.728,-51.6425,-99.4301,827.602,548.334,321.919,677.572,-111.384,414.824,0,-8.30464,-8.30464,-8.30464,-8.30464,-8.30464,-8.30464,-8.30464,-51.7328,-109.813,-8.30464,57.7145,57.3579,-153.352,370.259,-60.0856,49.3417,40.0476,76.1288,60.4542,-128.288,-175.802,-155.416,13.2135,39.9577,-22.3876,-114.201,136.303,-7.01932,39.2743,-213.762,23.755,153.31,-747.551,749.281,0,87.6251,1281.51,147.071,-689.841,-426.722,-2383.92,-581.074,757.666,-406.752,-13.1774,-240.175,-72.9382,-553.924,-1427.45,-688.744,-176.672,-382.63,188.789,549.212,-124.063,-731.896,548.505,-964.358,-231.981,-44.266,-978.443,-176.601,-19.3875,-978.466,277.25,88.1224,331.745,0,-2113.12,-359.341,666.685,-775.617,-306.03,1412.57,2185.19,130.813,-207.055,-2710.22,-188.364,601.833,-163.946,-409.267,-614.501,328.049,853.119,181.251,-45.051,38.2447,62.2465,-700.955,-399.837,-16.7891,0,173.743,-698.923,0,101.933,-1210.44,-13.0058,-197.752,0,-1272.31,-263.236,-319.597,-566.912,-378.541,-601.435,-483.985,1776.86,884.111,1466,473.138,989.189,-490.895,2378,2268.88,12.5184,-480.812,168.443,-629.008,-961.264,-369.19,53.7739,-853.737,-82.8806,-8.28631,-1109.27,-253.727,344.579,-861.207,2452.56,-256.383,360.567,0,551.593,-822.875,-846.189,0,0,0,0,-246.479,265.369,93.7752,-858.757,235.112,-356.267,1739.87,-299.216,410.433,-1656.63,110.2,0,-594.055,-1437.71,36.3582,0,-202.098,-18.3906,931.366,-709.579,-760.416,2163.79,-74.9768,633.159,122.228,0,607.64,-1819.16,209.68,30.9885,723.913,1373.06,1011.78,-662.67,-168.067,-345.267,-329.099,247.449,157.727,199.368,-791.301,675.856,1956.14,240.358,994.475,-2511.04,-422.258,-1040.89,141.286,-18.0818,-180.168,784.343,-461.756,379.408,-7.9606,-46.9469,34.476,1136.53,0,-366.688,211.132,-803.841,-1225.82,238.644,64.5846,-1321.78,680.502,1187.68,442.719,-630.442,-153.628,823.392,-457.308,208.137,854.446,-658.387,221.74,235.845,718.131,-614.53,847.356,-1694.43,-948.023,743.382,648.781,-70.5519,289.002,434.399,1233.26,-618.631,494.063,0,-18.5918,-18.5918,-18.5918,-18.5918,-18.5918,-18.5918,-18.5918,243.669,58.1626,-18.5918,-132.159,184.701,-58.3913,203.32,8.32497,210.035,0.572143,105.293,-99.3936,-343.404,-360.457,-29.7322,-472.117,-149.985,49.2271,0.617982,-202,23.2203,43.1099,241.541,-2.22337,310.742,-392.417,530.903,0,992.804,-65.4864,-402.207,230.259,-588.037,64.39,-517.499,1800.03,1249.11,-1801.23,-119.549,-661.261,-308.865,-697.606,-511.631,246.827,388.544,5.1412,178.085,342.284,-1358.32,-981.753,-964.148,5.45349,-7.28988,933.326,-468.803,854.871,181.867,908.339,-46.8484,974.768,0,-502.599,-275.475,-487.686,412.266,-16.5764,-1192.7,903.92,1124.25,1672.39,-753.045,329.356,351.6,-353.479,411.817,87.9925,-197.823,111.164,257.576,-123.795,-38.8515,-583.672,69.7994,-510.08,-11.6214,-0.0124656,923.465,-861.456,-17.5491,218.031,-1025.67,-83.5054,84.9178,0,-243.787,-1124.2,497.236,766.935,-878.4,-175.832,808.346,368.137,-855.361,-354.866,-201.355,-645.189,-754.59,1469.51,823.123,131.16,-866.92,-5.80327,35.3096,2121.79,-85.1011,1540.41,-1217.06,-44.538,-22.1474,-519.551,-394.067,-533.651,-262.457,732.767,-20.2076,-1107.7,0,549.855,-727.708,-1092.61,0,0,0,0,465.997,-1333.22,688.495,204.296,1907.04,-210.961,-133.083,823.988,81.9378,-2623.95,232.186,0,-22.7804,-1580.53,-485.777,0,-281.421,-44.266,-747.137,-727.687,-846.054,275.144,-629.664,220.06,160.465,0,-1852.44,505.879,-771.298,1053.05,761.535,242.067,-1614.34,-246.094,545.913,-460.03,-735.526,415.888,342.527,-346.368,-1379.07,1154.6,1267.66,239.415,1287.85,-846.111,52.0763,463.969,0.692986,-303.651,-303.712,1385,-1206.1,-146.673,-348.355,806.043,-26.1721,170.204,0,-310.165,651.245,1243.64,-985.47,509.845,887.566,37.4874,-849.212,-539.971,1703.34,673.088,839.934,-989.618,1262.23,-205.499,-180.847,434.685,321.882,-326.128,-26.5386,-831.004,61.308,1544.91,-137.194,-202.012,-901.357,180.4,-56.8062,-524.237,448.564,327.144,-409.976,0,-26.4543,-26.4543,-26.4543,-26.4543,-26.4543,-26.4543,-26.4543,266.312,36.4854,-26.4543,35.8939,220.801,-227.498,197.549,-36.1092,122.878,-94.9848,129.923,-192.31,152.979,-447.779,80.0943,-143.944,-77.2972,-58.7215,45.9737,-327.114,-76.6836,-89.7177,122.454,48.0497,74.6774,268.603,16.2203,0,1508.45,562.446,124.279,564.41,-1199.47,-2302.86,58.2579,487.128,329.937,2522.82,-159.463,81.0971,-335.62,2082.5,318.663,279.089,-1435.59,735.936,-315.812,602.905,-1668.34,301.195,-1243.68,-285.928,-32.8755,-1263.64,-976.977,-633.115,-543.357,2301.8,-492.805,-66.2429,0,582.243,-746.417,63.4385,-1208.58,-686.684,-65.2751,1252.54,-1476.86,701.039,-5092.43,124.223,-778.501,-209.417,-280.593,-83.3458,-30.0076,-766.143,170.021,-53.533,-1634.29,-702.864,288.012,-380.099,109.566,-260.37,825.692,-1266.77,-74.3935,446.314,-3183.8,0,368.362,0,324.119,261.225,191.432,-869.16,-329.754,166.838,-320.306,822.497,-1969.25,-246.277,555.64,-373.251,-660.829,3394.66,133.418,-82.2278,-1370.25,-368.249,-191.312,1776.03,-323.663,-19.8035,-1406.94,-105.015,-35.1315,176.513,-1215.76,-262.533,-722.114,4452.64,152.583,478.353,0,-714.469,121.141,1018.68,0,0,0,0,1509.24,1311.37,971.917,-819.17,725.707,92.8507,543.57,-870.28,443.35,1006.97,-239.874,0,3836.36,-2475.91,-1237.98,0,-307.014,-5.70876,729.809,490.524,649.274,1082.88,2833.26,343.444,-1412.93,0,-167.429,-107.13,607.033,-449.499,1448.32,264.518,276.97,-171.163,260.279,1113.61,412.646,903.103,-179.079,-448.886,1091.64,812.63,-134.854,237.624,-840.874,413.434,113.912,1484.6,203.42,-903.582,35.4448,797.237,-1672.89,-947.427,-817.113,-2068.29,-80.8061,-668.007,0,1540.81,-606.673,-1757.21,-1157.99,628.285,1947.87,-666.319,667.244,313.509,-566.869,-206.345,-121.713,500.385,-544.172,237.411,-174.504,-618.874,154.486,-161.118,15.2039,761.63,258.995,-438.616,162.712,10.3006,310.432,-1375.93,47.8309,-108.829,-197.6,175.979,-1300.86,0,-17.4132,-17.4132,-17.4132,-17.4132,-17.4132,-17.4132,-17.4132,183.809,95.033,-17.4132,28.9807,43.6441,-79.1711,471.278,82.7505,123.323,-303.031,93.7019,-248.267,500.965,-406.302,232.595,-409.46,-132.926,-34.3698,131.583,-584.251,-124.234,-109.939,426.375,20.1273,-158.937,422.907,248.123
0,-1023.99,-235.162,-11.6177,403.872,-14.3454,-0.999603,-38.098,363.207,-178.011,-18.032,-142.982,0,0,-37.4184,-82.9166,-2.8654,-267.39,-9.26627,-0.622321,-107.535,-37.0283,-86.669,-67.7564,-14.6593,0,-128.536,-270.869,-13.5971,-39.9164,-106.034,-0.999603,373.919,0,-281.777,-27.4407,0,-992.731,0,0,-25.9425,-2.72061,272.346,-7.2854,-30.3515,-1.90133,0,-5.17872,-43.6342,0,-42.08,0,0,0,-0.94974,-145.673,-50.3717,0,0,491.206,-0.99723,0,-15.324,-8.22353,0,-64.5591,0,1772.23,-81.7198,-3.79473,759.723,-1.95657,-0.999603,-66.0622,-89.6265,146.694,-51.6295,-10.5087,136.197,0,-78.6427,269.113,0,-82.6754,0,-36.0639,255.526,77.8018,-152.062,-176.777,-3.01918,0,260.479,371.57,-3.62301,-148.719,-62.9734,-0.999603,-148.004,0,553.844,64.4718,-7.36067,0,0,0,0,-28.6188,131.225,-9.4521,-376.693,-39.1677,-9.23695,-35.9397,-113.703,0,-95.3835,-5.38053,0,115.667,-27.7806,-117.679,0,-0.992387,0,-114.279,-257.049,-9.54349,97.8945,-101.073,0,-35.8171,0,104.62,-489.54,-68.8952,51.8557,-5.99051,-48.6186,-173.732,-147.657,-568.582,-358.549,186.323,-331.504,101.213,263.228,75.7776,-153.498,23.998,0,-10.4377,-104.391,-13.505,27.1164,-338.111,-5.67498,-36.6417,182.793,355.564,-51.0813,175.323,96.6241,-4.68617,-342.481,0,-291.027,331.391,-223.543,-68.5313,-103.792,-75.4669,168.279,-1652.96,341.95,1089.04,317.821,253.172,251.545,1064.52,-447.519,449.685,-582.815,-1607.77,324.213,905.96,684.737,-373.667,-956.042,-760.39,694.597,1647.16,100.077,-580.794,-207.668,-283.477,-993.616,1342.09,0,-15.7606,-15.7606,-15.7606,-15.7606,-15.7606,-15.7606,-15.7606,-155.838,14.562,64.4087,-15.7606,1.6797,34.3521,117.057,-34.2883,29.3321,-104.933,-162.242,9.68035,106.523,68.3275,-84.8633,-199.233,-78.4736,65.7955,233.882,29.8295,-65.8638,2.87246,-46.5157,-100.03,112.134,-1174.73,526.71,0,127.146,410.479,-15.3474,-975.859,-11.5334,-6.75412,-64.0061,-184.033,561.74,-20.8679,-293.211,168.406,-50.0744,-36.2225,124.52,-1.86568,-214.964,-0.954952,-4.00253,323.598,85.2052,-378.896,-107.764,-4.94509,0,684.392,-3.08556,-16.0527,-22.9261,-199.179,-0.999603,552.333,0,679.411,-24.9085,-3.89673,1021.72,-4.72592,0,-34.2491,-0.998283,255.757,-1.92788,-18.8173,0,0,-45.0724,-5.63162,0,-65.0458,0,0,0,177.218,-3.93738,-14.0888,-14.7191,0,155.41,314.609,0,-3.02086,0,0,-106.66,0,1044.45,-415.243,-11.7113,398.251,-2.98175,-0.999603,-97.4429,-14.9451,432.132,-34.1619,-327.307,-52.5656,-6.8377,-77.2615,188.546,168.944,-171.755,-6.03432,-43.5125,-165.293,-5.62191,-246.28,-297.828,0,0,-232.967,-285.242,-15.46,-130.896,-260.148,-0.999603,-10.5169,0,58.6738,-510.782,-28.6583,0,0,0,0,333.141,-72.7816,-121.838,-539.405,-38.1743,-6.64652,-64.0718,-239.599,-0.999721,-135.469,-13.6918,0,-152.452,-106.375,-158.578,0,0,0,202.224,255.347,-15.3577,-13.4279,-157.121,-0.999422,-59.4705,0,139.603,-414.168,-30.9375,100.92,-6.99011,-59.0824,-221.745,-279.767,73.9361,-541.156,-95.5338,-382.263,61.0545,45.8237,239.987,-179.645,262.739,0,461.62,-476.567,-22.0807,-222.936,-522.247,-5.67498,-38.5998,20.4599,96.2579,191.722,4.07728,18.8414,-49.0651,-235.207,0,-1068.58,256.622,-408.184,-76.9329,-173.263,-132.658,208.226,1917.93,1128.98,-1337.58,1126.12,-570.04,-199.865,-543.36,-578.993,-36.9783,-629.173,1.73687,646.673,97.6805,-1485.06,593.22,1192.2,-86.9773,915.913,-1145.06,-68.0735,10.749,239.276,130.423,-457.908,-463.83,0,-24.9368,-24.9368,-24.9368,-24.9368,-24.9368,-24.9368,-24.9368,177.133,237.977,-205.852,-24.9368,-87.5591,-20.2369,-72.0164,-27.117,-5.05448,-95.8634,-1.89443,75.1106,-37.3033,-135.672,-41.7408,30.6829,-11.2316,87.7312,-31.5544,30.9812,15.56,24.0216,-46.7183,-51.097,-32.7163,-1052.42,563.364,0,-896.967,-435.578,-29.5508,769.584,-1.91393,-7.7966,-33.1265,-41.7118,-150.295,-53.0951,-297.595,122.94,-4.54106,-137.424,416.992,168.944,-251.548,-6.03432,-45.7315,-261.154,-83.777,-156.084,-222.741,-1.98571,0,311.088,-413.795,-15.4942,-142.845,-266.741,-3.21632,318.214,0,622.424,-80.942,-17.7419,-226.922,-12.4799,-41.8945,-82.7389,-20.5325,84.2762,-81.3076,-245.012,-1.5071,-2.81553,-18.1209,-19.9903,-0.726159,-56.9428,0,0,-14.63,0,45.2319,-49.6965,-1.93351,0,234.079,-50.9155,0,0,-0.999422,0,-30.5853,0,845.661,-549.735,-22.7375,-480.454,-6.77632,-0.999603,-185.678,-52.1111,224.941,260.189,-544.067,-89.5118,-4.72859,297.257,225.655,0,-529.458,-370.972,-38.6374,852.734,353.148,580.412,-228.314,-31.4017,0,265.76,370.202,-12.4425,51.37,350.634,-9.99773,58.0155,0,94.0426,139.119,-56.4006,0,0,0,0,177.054,902.723,-35.0912,-800.493,-36.7032,-135.312,252.316,-123.669,-4.67991,-193.533,-14.6468,0,-35.6497,55.769,-224.197,0,-4.0189,0,-195.075,135.586,-28.7295,-141.978,-459.443,0,-68.6254,0,14.2222,-899.972,-523.978,-58.9316,-27.5672,-88.7752,-82.2216,-442.453,80.709,-373.554,238.391,-63.9004,-7.71333,220.234,612.658,-279.94,-24.6088,0,374.871,196.358,-39.6281,-218.942,-622.797,-6.6683,-38.5998,209.911,1109.09,135.31,63.4624,-716.028,-191.535,526.286,0,-438.674,1642.48,409.368,115.956,-48.0789,42.6498,356.953,-847.809,-591.636,457.486,1384.48,498.101,-709.822,-308.647,-194.106,1010.23,-749.567,965.055,-758.6,923.317,-602.854,-806.176,-911.078,132.488,-966.541,918.291,485.322,171.286,139.364,1052.46,15.3945,-1889.04,0,-12.102,-12.102,-12.102,-12.102,-12.102,-12.102,-12.102,-122.756,54.5901,17.3635,-12.102,42.8463,-86.4933,30.5616,91.754,89.3825,-181.555,57.3402,-53.6324,166.098,-31.7342,-77.9756,-256.593,8.64795,-100.514,173.754,163.549,24.9929,13.6507,-4.01195,-19.0354,-109.148,-473.99,714.215,0,-1013.37,55.0156,-94.0443,161.068,-11.5759,-4.97785,-103.283,-145.083,481.971,-107.649,-1996.95,-105.266,-444.51,-143.523,-48.7249,-2.72055,-212.144,-370.972,-28.6114,504.414,-112.751,300.501,-354.699,-19.6954,0,718.079,493.79,-27.3893,289.985,-63.7014,-9.97623,-345.202,0,2467.38,-150.388,-59.5706,-32.1559,-1.95469,-20.4103,-180.193,-11.7691,706.092,-38.6164,-310.087,-2.49541,0,358.528,-40.0059,0,-176.463,-6.03432,0,-64.661,-4.08724,-102.458,-79.5102,-0.992387,0,159.102,-92.7851,-0.696302,-106.033,563.549,0,87.7628,0,-1014.96,-152.477,-65.196,-1189.72,-14.4425,-127.396,101.586,277.982,-166.517,318.143,-497.346,15.8457,-34.2092,-158.467,-136.502,-22.2773,-754.861,88.6927,-9.38074,-476.008,-101.236,210.775,-119.592,-13.5421,0,-52.0317,425.17,-16.1798,-84.625,-130.296,-0.999603,453.154,0,434.822,-173.442,-49.316,0,0,0,0,124.255,122.183,131.685,-673.691,-27.0792,-31.2927,445.074,450.477,161.318,-354.405,-9.26627,0,525.664,705.322,171.425,0,-16.6629,0,263.021,59.4276,-28.2106,-213.078,-597.71,-3.21614,-44.905,0,251.003,-122.829,-662.036,112.941,-28.517,-135.119,426.851,168.308,983.615,-735.221,-559.93,142.949,-78.7842,69.4878,810.281,21.0522,-186.199,0,634.664,-42.531,-67.4309,-64.4377,-673.417,-188.605,-38.5998,154.366,515.8,-206.994,4.05644,27.4785,-535.978,152.465,0,-479.045,270.991,603.666,127.366,-76.0696,156.293,-193.828,-24.3748,-111.708,59.8314,3740.69,-584.095,203.746,515.12,116.464,-1180.56,742.262,266.404,-505.906,-957.843,1204.23,1035.97,-434.798,-592.386,-528.86,-920.7,-527.189,-29.8195,-843.549,243.495,-898.404,-1559.32,0,-16.57,-16.57,-16.57,-16.57,-16.57,-16.57,-16.57,38.9318,243.336,-37.2821,-16.57,-56.1094,-38.505,108.622,115.199,-102.319,-95.1696,-3.11764,-18.1711,-51.0965,162.405,155.078,-213.125,-83.1883,-56.746,30.3662,87.4213,-30.929,-78.6109,4.28156,-144.957,-85.4456,178.11,179.538
0,-219.312,338.889,130.893,-477.762,-29.3397,-164.17,-439.215,-262.036,-387.482,-1056.24,-143.039,1031.43,-313.754,106.03,222.264,-21.2772,28.5088,-4.11603,91.9655,90.529,-104.932,415.854,-337.699,166.767,-9.15655,316.157,-289.264,-114.926,657.46,-602.788,365.882,663.018,0,-491.133,-127.94,-200.914,-1088.8,-85.2689,-439.406,-400.1,-30.7241,379.925,393.877,-52.9991,-231.879,-25.7292,560.703,294.259,-0.885514,22.7438,0,-67.1061,-129.94,-270.051,425.134,938.532,-72.6523,0,153.931,-78.1581,0,-74.3369,-112.555,-33.9817,169.24,0,1069.88,-761.449,-398.309,816.556,-147.714,46.5515,229.085,-154.653,-458.376,688.207,213.421,599.644,-198.806,865.324,-651.454,-32.4516,-715.233,0,-311.568,-816.79,-22.0773,-355.809,932.142,4.28394,-1.98638,-244.578,1084.8,-89.7216,548.428,1178.98,7.5958,551.028,0,-37.0963,-91.4964,129.513,0,0,0,0,-640.307,-205.356,318.14,-401.625,-667.748,-106.444,-737.067,-873.479,-133.357,252.846,-14.6261,0,-359.348,-74.4378,-220.27,0,-132.73,-13.7141,-292.791,-260.842,472.992,155.658,-634.294,-304.368,-899.325,0,-320.636,-200.008,486.845,-1777.67,-61.0107,227.287,-440.343,-21.761,819.263,-104.987,-112.526,-450.301,916.092,63.6854,-1.11483,-361.041,547.056,-138.311,-160.629,-764.855,-227.601,-75.3275,-1010.42,837.405,-40.3,746.657,-1338.78,104.407,397.391,-14.3327,-74.1258,742.984,0,-0.0105228,946.52,-344.376,-7.19623,211.765,218.169,330.842,-1249.05,162.136,354.175,617.935,-350.799,-954.997,568.765,212.041,25.9373,-289.577,653.435,738.976,-137.227,84.6561,-813.626,184.365,2.20478,-638.27,-163.627,811.205,839.463,-539.474,1264.49,205.762,-1255.39,0,-13.9459,-13.9459,-13.9459,-13.9459,-13.9459,-13.9459,-13.9459,-235.853,8.60593,59.3175,22.3558,-13.9459,-68.3639,142.744,-79.7482,-52.3077,47.494,49.6382,-23.0402,-211.763,-62.5635,-67.2688,-43.2558,78.048,-70.3427,44.826,-7.10349,121.221,114.513,107.951,16.6764,-17.2936,-537.36,-1458.25,0,402.663,-1122.09,-345.684,-245.98,-73.4568,241.764,-30.449,760.897,63.753,-60.0362,-55.102,-95.5478,-297.694,947.3,-731.07,-52.8049,-205.266,-34.3672,-398.884,-601.003,-1045.83,-651.747,979.419,-49.4461,-46.1459,255.064,107.498,-156.348,-374.206,-313.594,47.2878,-184.404,0,520.14,-467.532,-636.672,-136.353,-14.616,-806.075,-343.327,-15.6649,107.01,327.287,-98.0553,-99.8963,-62.6072,-54.0275,-129.853,0,-208.688,0,-201.953,-154.989,-61.2907,-176.013,444.543,-59.7657,-9.15655,-235.759,-114.966,0,-48.4335,-118.222,-1.808,37.6654,0,-576.699,-82.5856,-477.632,312.418,-325.345,-429.751,-263.771,-1068.85,-382.103,484.639,79.4349,-417.066,-107.163,244.18,-610.247,-13.4577,-63.8404,0,171.858,24.5847,165.594,-14.8289,983.133,7.35159,-1.98638,13.5109,749.874,100.601,111.086,378.034,-291.281,203.32,0,32.3569,1186.73,232.605,0,0,0,0,-1430.9,-500.861,-757.316,-153.496,1079.31,-277.037,1067.91,1225.26,-140.164,606.309,-8.08756,0,-1077.29,589.002,297.502,0,175.77,-12.3332,-219.116,564.302,201.384,1080.22,736.034,117.28,107.425,0,-367.897,1274.84,422.008,-831.678,279.263,1160.04,79.2047,-392.573,693.256,200.925,-77.9408,-790.003,896.457,440.723,-51.8771,-415.43,278.902,-139.241,-725.472,-776.12,-432.826,543.376,-653.303,811.148,-49.4566,337.636,-1635.78,411.715,404.806,-312.492,-79.7848,476.689,0,32.6932,-731.423,471.695,-8.71804,-58.4223,-358.556,-616.587,258.438,325.622,57.1332,42.1771,153.808,-276.499,189.1,260.994,-653.679,-938.357,-404.787,69.1035,67.4125,-129.883,459.993,-658.797,831.56,551.813,334.863,114.96,-588.397,-531.16,154.372,-194.941,-105.609,0,-24.0721,-24.0721,-24.0721,-24.0721,-24.0721,-24.0721,-24.0721,-188.865,-19.1016,25.2632,-19.8316,-24.0721,-12.4543,283.248,-3.67955,-127.554,9.6662,-58.6482,-156.602,-251.741,-92.7675,30.9534,31.1079,169.182,43.2734,34.3322,-21.4113,-3.10456,64.2315,52.4133,-40.3247,35.7648,-477.747,-1363.43,0,1235.53,-1616.9,30.2425,217.096,-77.1533,-386.17,113.915,-82.1429,-479.923,-672.239,537.402,136.225,-252.083,-176.217,-369.608,-24.8541,-1259.94,-37.5185,-260.861,-767.916,-373.232,-601.831,-203.408,133.887,-12.3332,-198.989,101.256,279.328,461.638,67.0696,-99.938,-184.843,0,-872.338,832.563,-724.606,1089.21,-25.5825,-571.413,-649.584,-23.4406,762.931,815.559,-183.678,-295.89,-153.629,1060.97,-157.001,0,395.795,0,305.488,-131.919,471.772,573.953,-121.355,-73.3169,-32.4318,305.358,63.0699,-80.6703,-77.5541,-69.4818,-67.0805,-32.9444,0,-443.904,-155.001,-574.998,-828.508,-556.161,-236.034,-295.686,-414.045,-317.289,-72.786,-163.895,818.059,-121.769,287.713,-151.73,-16.6153,999.979,0,-119.278,-538.712,-351.629,85.4308,4244.27,-208.554,-2.85012,-225.24,-280.181,679.109,-114.619,-1005.31,165.192,170.279,0,-227.004,136.571,85.5318,0,0,0,0,-146.957,-822.121,-572.841,-641.155,-341.952,-371.535,242.918,789.989,100.57,164.126,-4.93629,0,340.006,65.5196,-255.112,0,3.94241,-13.5596,-456.088,118.785,-617.797,552.689,1423.19,-233.917,336.295,0,1716.1,1217.91,-126.297,-461.263,367.697,916.689,-60.5707,281.288,325.471,222.309,-80.3892,-769.589,1376.05,769.419,-534.491,-545.601,374.714,-148.93,-921.581,-1020.65,-430.289,95.3005,-522.181,1076.21,-77.701,1083.25,-1372.68,908.616,356.652,-671.665,-191.316,899.378,0,305.128,-53.2613,1166.03,-152.408,114.722,114.165,-85.3073,-259.199,-549.835,69.5773,-510.865,303.876,557.533,-533.536,360.946,-525.353,-217.862,-536.118,-530.88,-387.198,418.601,934.435,144.867,-1121.58,-69.2988,-429.172,-75.719,10.3074,422.149,389.763,-821.611,-179.643,0,-22.0598,-22.0598,-22.0598,-22.0598,-22.0598,-22.0598,-22.0598,-64.4497,-142.869,-21.042,-103.155,-22.0598,103.456,164.856,-6.18951,-101.185,107.943,-72.7504,-221.699,-250.638,-21.7793,63.7167,335.572,-25.0224,-22.1888,-18.7545,-144.647,117.889,160.096,13.3559,-124.867,75.8145,-735.962,-1479.47,0,-147.266,757.76,154.768,-334.953,-120.76,-760.893,-420.445,-481.719,-333.436,144.498,229.359,-529.272,-214.204,-1216.25,-293.549,-17.3192,-354.633,-4.64369,1006.4,-996.465,-228.917,1673.48,639.92,-46.222,-37.5946,-170.846,404.553,682.178,67.2353,-817.109,-198.397,-69.7455,0,-751.823,-250.603,-475.003,326.6,-120.004,-1191.95,-297.739,-94.8563,105.9,-624.41,-194.183,19.1153,-14.5149,-56.8195,3.18962,-0.407016,-226.998,0,-201.238,-62.0225,-48.3339,765.608,1173.37,-266.071,0,-358.914,-121.436,-160.831,302.522,39.0392,-1.94264,-63.7557,0,-854.303,-701.632,-570.288,-1272.27,-901.035,23.6212,-440.07,284.103,-337.01,-90.1921,-506.445,1174.2,-446.295,251.686,1548.66,-40.7914,702.149,0,-284.84,-192.08,-411.646,-355.952,1765.62,446.126,-7.68209,579.817,-430.077,-15.3085,-291.916,72.9276,-281.143,-11.6395,0,-194.683,-449.399,-798.012,0,0,0,0,648.941,-685.941,105.874,-52.5531,-647.986,-419.338,1768.18,-440.828,102.845,34.8187,-42.4547,0,1297.5,141.884,-1116.74,0,259.054,-33.9904,-698.456,-721.74,-537.664,534.287,279.254,236.461,893.11,0,-279.272,523.316,1243.93,-995.399,324.549,1342.46,53.2938,-109.33,786.007,201.029,-711.715,-483.914,1369.78,645.935,-1193.4,-740.986,86.0028,-148.93,-297.722,-1944.34,293.93,72.9972,-682.123,858.607,-143.218,1234.21,-644.615,1456.47,-125.552,-168.136,-226.076,282.44,0,-714.424,828.808,150.747,-151.602,613.233,422.637,561.402,-285,-990.217,-393.027,438.29,305.724,215.379,-244.694,-779.309,864.039,536.172,24.8745,-285.563,-866.251,-577.394,-8.60858,1135.08,-698.702,-99.3526,-788.886,-857.681,403.633,674.764,-519.111,-620.491,578.458,0,-25.5022,-25.5022,-25.5022,-25.5022,-25.5022,-25.5022,-25.5022,-3.78628,-173.034,-65.6229,-41.7835,-25.5022,49.0807,112.323,-115.524,16.7382,138.795,-17.1155,-165.478,-276.365,-84.9012,73.5103,427.779,45.9381,-34.7885,-63.1087,-237.3,182.849,116.134,-111.314,-109.159,106.614,-404.292,-1600.16
0,464.371,-159.198,-798.012,136.01,-15.7647,-154.561,-25.5952,-486.764,286.14,-589.111,-847.276,-222.824,-1024.87,1009.06,955.271,440.655,536.667,-94.1783,-39.3907,-1115.86,-552.856,-482.912,211.215,-209.646,-13.6363,499.729,-778.907,159.517,1232.02,534.881,-461.964,-1128.72,0,-581.6,-884.221,1204.89,-1045.61,-12.8065,-383.386,-450.444,-179.153,193.271,60.9967,-509.808,0,-190.457,-406.197,59.7023,-240.784,314.974,-5.14743,244.218,388.403,344.06,182.049,303.346,0,-26.8538,-694.038,-184.28,-1.62312,799.715,-172.747,-3.75793,-255.588,0,892.256,322.247,-593.666,691.344,-163,-338.549,-5.45093,-231.856,1014.44,-117.006,-457.659,-239.563,-123.7,-432.738,666.863,-569.843,75.2866,0,-15.1054,-321.387,-45.0724,-149.274,233.575,87.6067,0,642.531,944.008,478.513,-91.8423,195.918,-193.755,875.456,0,18.7006,-2139.73,355.452,0,0,0,0,-93.6579,-672.414,135.346,2056.14,-1140.81,328.767,-421.888,685.697,-536.912,139.972,-352.254,0,685.946,-850.005,-13.8028,0,371.214,-39.12,-543.273,52.9875,25.3239,341.031,446.908,659.894,1029.64,0,-1390.21,923.303,-319.757,754.332,-530.071,1729.91,-1043.56,-359.469,-238.452,-701.974,1712.08,38.5818,1963.16,-1010.44,-1288.74,423.478,-741.695,348.266,-1502.54,-693.857,-1680.64,1209.08,-132.414,-230.611,40.9802,-854.732,240.871,-46.9334,472.743,345.161,-446.619,398.357,0,-312.722,1101.54,-203.308,136.677,876.52,-698.541,-914.912,-902.733,-631.3,918.329,660.629,504.795,-858.714,2424.53,-860.413,616.207,138.315,-51.5488,-143.583,995.839,-421.723,841.843,638.849,-7.26012,-979.771,-603.179,-850.678,-108.546,-540.467,1880.38,-82.7898,-869.937,0,19.3597,19.3597,19.3597,19.3597,19.3597,19.3597,19.3597,-225.364,-13.1236,-35.3967,254.427,-105.982,19.3597,118.206,21.8373,49.4259,45.6063,-15.4862,-132.496,-6.09121,-320.624,146.403,127.808,-1.69159,-101.84,-143.212,-58.2415,50.6252,236.451,323.05,-38.2831,-1.77188,217.99,-1411.64,0,964.355,348.019,-77.8967,600.655,-371.671,-947.287,-162.399,-348.128,1177.69,-339.057,161.84,-653.824,-678.586,1598.32,-786.002,-542.269,308.594,-306.764,-110.667,1196.36,-524.368,-255.891,-778.769,-365.487,-13.77,1355.14,1116.79,724.862,1080.01,106.505,378.211,-385.11,0,-1470.26,281.699,553.46,204.118,-161.142,419.058,138.917,-138.636,502.566,251.238,-639.713,-70.7499,-587.031,18.7916,-198.263,269.674,210.833,0,67.119,280.345,-375.189,-899.468,293.677,333.316,0,-887.927,-216.887,-64.8151,-376.923,-543.074,-15.7376,423.163,0,-594.602,185.755,-740.371,-62.4527,-106.368,-727.894,-343.522,-29.4467,-1364.38,115.498,73.9706,-167.263,1291.71,-580.04,1523.11,-774.138,200.826,-13.5182,-3.90409,16.7528,-494.691,-125.531,1163.94,-467.996,-65.9739,347.714,-236.728,-463.741,751.277,1280.07,89.6925,9.69791,0,807.858,-349.019,-200.789,0,0,0,0,443.07,133.949,-802.17,691.313,-990.243,-277.362,-1103.01,1207.05,72.933,-145.017,-137.673,0,-1464.86,297.477,565.551,0,304.997,-0.82978,145.291,-1003.99,133.38,1150.95,589.999,-215.873,-60.222,0,291.496,-1426.82,-448.571,688.753,-851.979,1558.77,-749.391,177.635,-291.625,-428.392,2300.78,-44.2025,161.479,-645.026,-809.837,144.953,-401.539,668.701,36.0706,468.8,-1548.51,296.231,-221.863,47.9636,-271.042,-773.988,-182.883,-322.485,-654.601,303.229,-558.384,26.2828,0,-631.803,-455.775,-278.108,603.987,1587.49,-204.355,-208.651,123.238,545.579,613.906,-566.991,-100.896,110.792,-1157.9,106.603,-36.7113,190.77,128.576,389.355,149.564,195.675,-1164.71,649.178,-535.799,640.939,948.988,-946.199,-190.503,526.582,913.947,175.21,75.8333,0,12.0414,12.0414,12.0414,12.0414,12.0414,12.0414,12.0414,22.7735,82.473,-29.0453,199.003,-202.718,12.0414,-187.643,104.265,-50.41,34.9236,33.9323,-6.92717,64.6964,-244.96,-193.786,84.3781,-71.3165,28.9323,115.126,-151.713,-18.3303,262.268,267.138,-0.0719993,-34.6168,-241.242,-1184.69,0,-1000.81,685.771,602.992,-836.955,-51.2596,-704.657,714.586,-1015.95,305.864,-607.069,733.885,-232.122,157.654,46.5429,-1191.96,-387.194,227.076,-150.91,-121.684,1424.61,-165.082,517.655,1395.3,864.739,-65.9739,1728.64,-721.469,-419.772,-105.585,2359.55,-220.063,486.495,0,-194.008,859.805,157.171,234.829,-172.737,1179.62,-1153.94,-70.4986,93.5479,-58.2162,-69.8808,-31.3087,581.863,-584.25,462.562,-12.5291,-116.716,0,-16.2968,48.7534,-594.539,-1069.85,765.716,-26.7293,-2.65769,-907.605,-158.452,-23.3276,196.234,-155.575,-16.5274,-246.764,0,-503.375,-708.028,-1323.32,-621.634,-168.426,-1775.35,106.433,74.8851,-604.585,-491.344,-227.593,-819.507,-1392.13,998.325,878.891,-57.3499,151.409,-7.1434,-123.712,798.252,-460.489,-93.6216,-535.868,-286.246,0,-560.894,-286.719,107.238,1951.62,2057.26,-30.9012,-80.9408,0,1179.87,732.833,285.65,0,0,0,0,-178.353,-75.7053,518.801,173.686,-808.303,-89.7457,418.464,27.2107,-208.696,343.903,-317.435,0,-1947.02,-906.43,-673.826,0,-637.155,-13.77,600.468,-30.9815,791.558,510.48,472.857,503.785,-729.72,0,541.75,-219.453,409.232,-430.908,-797.925,-676.473,-183.069,534.927,-220.927,220.907,1444.2,225.103,838.017,-1211.44,844.033,311.845,-236.763,668.701,586.002,-526.608,-1025.21,-190.369,-152.86,-752.524,-21.1429,-51.244,-185.813,-616.824,-1115.99,-1181.95,-301.066,-231.166,0,322.106,-1486.64,84.3179,990.578,1342.06,2143.04,-284.96,396.512,991.635,-526.343,246.762,222.987,-5.42334,-763.2,-229.588,-153.172,-52.7103,605.115,552.297,848.978,216.839,649.311,-351.768,379.991,-159.568,-17.2218,-1.99684,-419.92,1283.47,-998.912,-285.34,672.565,0,18.9639,18.9639,18.9639,18.9639,18.9639,18.9639,18.9639,-25.8475,68.9716,-70.9536,187.453,-144.315,18.9639,-124.268,79.1153,-14.564,30.0967,79.8329,64.9476,64.6964,-293.491,-145.137,74.6694,-50.9944,-26.3112,74.3525,-154.662,-58.1047,330.313,255.633,-20.3952,-10.3637,31.7289,-1161.34,0,1397.04,1148.76,708.722,-336.84,30.3768,-717.588,1181.8,417.581,-260.083,-729.69,-29.6811,-558.952,-1076.59,1384.18,418.154,461.847,-611.633,-231.221,-42.4563,369.956,-386.413,-482.883,-103.241,90.1288,-41.0996,2135.61,343.898,760.705,2.46466,2902.17,-2.19083,1916.24,0,-369.793,22.2967,608.024,549.268,465.234,-1092.37,-915.924,-277.011,448.401,-707.364,126.143,-9.37071,-596.32,-528.794,268.366,455.369,169.469,0,-324.12,-451.798,-5.62825,-439.968,488.294,134.77,-0.96354,-847.615,-399.397,-54.0471,300.108,-294.607,-9.70373,-1455.23,0,492.611,234.975,-952.297,119.459,549.752,580.2,-345.174,-1122.27,987.573,70.1068,-512.268,-873.664,397.413,-2107.5,-266.121,-470.174,375.241,-5.14743,274.577,1100.92,-920.19,-1206.2,748.604,-197.251,-15.4642,913.677,-534.053,-152.512,-0.453895,1300.93,-348.772,-1114.97,0,201.116,-1145.49,1056.49,0,0,0,0,831.466,-459.65,647.48,958.038,-519.554,-1562.03,1157.25,-767.31,-932.636,253.429,-267.847,0,1460.5,-1019.13,1181.82,0,-273.8,-26.8538,-1356.17,-1000.24,-270.217,1772.29,822.85,503.17,-243.114,0,182.474,-148.927,-1352.22,387.926,-950.908,124.674,703.547,860.966,25.0795,626.152,1232.72,160.817,890.792,-285.943,-242.128,479.756,-878.489,668.701,1234.68,43.9116,-999.599,-744.897,-86.4589,-1119.41,200.003,181.234,-423.71,-656.045,99.8443,-652.56,-348.147,-477.925,0,5.17878,289.916,-220.525,1198.47,66.2251,1438.39,-195.158,-269.241,207.31,-966.45,-504.251,-572.306,2042.57,19.4289,839.422,88.1972,-340.581,55.9537,-774.482,-919.061,217.987,556.252,788.184,505.68,940.714,-170.973,438.902,1421.34,-42.8954,-758.565,-484.933,-73.5161,0,19.5238,19.5238,19.5238,19.5238,19.5238,19.5238,19.5238,44.1487,108.947,-91.4872,78.2831,-237.303,19.5238,-53.5668,25.0385,44.0957,-94.7302,22.0441,101.776,160.343,-311.596,-192.919,175.513,-93.6692,105.634,71.1841,-184.768,104.923,269.256,299.712,-54.5298,-120.613,617.697,-1161.32
