0,17114,4784.37,-3304.51,12571.3,375.051,-678.456,3262.39,-3719.52,-1009.31,-209.607,-545.186,599.82,-1584.15,-1917.15,-2256.22,-716.523,20491.8,-111.82,-438.239,-6680.46,-2182.43,-2538.03,18091,747.242,-83.8642,-48.3859,-820.58,-267.228,-2523.12,-1173.73,1569.55,-324.054,0,-965.826,-1135.2,731.678,-1161.92,487.67,-1154.27,-162.239,-224.751,-48.9322,-614.377,-736.767,118.291,-955.568,589.545,210.706,-86.0751,2216.73,-1.66865,18.9451,-1120.11,-112.927,295.753,5808.09,-24.0024,-127.368,-260.729,-106.874,-12.3,-119.177,-166.549,153.61,-1079.25,0,13590.5,2485.05,1548.37,10561.1,1496,-1939.52,3541.28,-3723.57,-1194.6,-3176.12,-88.8229,984.853,-1428.76,-2804.08,-233.503,-377.284,15893.2,-1.88845,133.628,-3757.14,-1648.61,-1574.31,23184.6,274.198,-126.767,-810.329,-653.05,-614.666,-1182.92,-2807.47,1535.83,-1010.76,0,416.352,-2863.05,-352.087,0,0,0,0,47.5575,1005.11,-609.651,-13.6589,-377.688,-398.213,2720.59,-1942.47,770.927,6125.2,-40.4495,-84.1283,-4941.7,486.919,195.577,0,60.4259,-72.9543,-1902.94,-769.738,-1397.37,-2270.09,1320.67,1382.42,-373.767,0,-6576.97,383.496,3961.53,-1562.74,3406.33,3243.67,-3486.47,-5001.33,-691.073,-149.434,881.609,364.696,-348.617,-2189.68,1095.69,870.19,4684.21,-555.564,-1543.81,-7796.06,-565.161,-878.852,8669.38,188.458,-603.079,950.339,1950.94,745.842,-3665.31,600.494,-124.369,76.1518,0,-3165.16,2725.26,2571.68,-14460,-3132.56,2862.25,1508.39,-6179.11,-1347.19,-374.268,-383.504,-1269.76,-917.672,-1162.43,4628.93,-1854.22,-512.712,-1136.38,-87.6534,-8096.78,-3353.42,-944.929,13964.6,-818.439,1371.62,1537.31,2664.11,-1069.85,-5006.87,-65.6609,479.567,-713.086,0,329.062,329.062,329.062,329.062,329.062,329.062,329.062,-1880.07,-289.573,-514.139,-116.852,54.8921,-563.583,-378.364,150.313,-113.374,4914.48,-186.144,-619.247,-3239.22,-738.678,-458.971,8571.92,42.8881,35.7592,-45.6817,234.125,-261.558,-1502.04,-112.6,514.696,-208.354,7028.84,-2791.69,0,20707.8,5150.81,491.169,13963.5,2356.32,-895.768,3672.45,-3616.01,-602.662,-1942.98,-997.601,875.241,-767.27,-327.381,-2668.99,-528.599,21194.3,-57.6587,-141.07,-6356,-1304.04,380.388,22496.9,676.237,-94.9274,-853.09,-922.918,-906.254,-1897.28,-2537.82,2202.77,-1040.32,0,-2693.56,-1065.72,-711.574,2310.79,87.5205,766.916,-531.352,-203.55,-204.895,-584.645,-367.725,104.195,-839.3,-303.136,72.5959,-28.9887,3134.14,75.544,-98.482,-515.841,-69.9528,321.389,5983.43,-58.4015,0,-260.916,-90.0922,-3.43268,-156.98,143.424,225.535,108.187,0,15597.4,1906.16,-515.951,14149.6,-220.532,-5217.49,4069.47,-5311.81,-899.435,-2542.69,-800.576,899.661,-1566.31,-1172.51,-1093.01,-348.975,18279.8,110.758,-102.326,-6201.97,-1788,-1254.58,23557.9,308.727,-75.2575,-1330.69,-354.782,-787.825,-1825.08,-1752.89,1815.96,-658.049,0,507.584,-3021.71,-1698.12,0,0,0,0,1715.59,376.396,-203.938,540.167,-464.072,-1058.22,-276.412,-341.598,231.098,5328,-296.037,98.716,-4438.66,-690.128,-2535.42,0,-7.065,-202.393,-1140.55,-1370.91,-955.757,-2584.82,554.115,795.261,-1324.14,0,-6475.54,2048.61,4296.88,-1309.41,3006.07,4119.57,-5038.66,-6198.15,-1405.34,-277.396,857.078,574.994,-967.594,-3040.25,1729.26,1139.68,5152.46,-565.157,-1235.78,-9397.61,-970.514,-880.968,10385.5,-20.2301,-653.061,1228.14,1731.38,754.937,-3482.41,620.444,-362.026,289.983,0,-2461.6,3256.5,4772.27,-19924.5,-1825.54,3760.21,3754.75,-6050.18,-928.541,-1059.55,1991.26,-662.661,-1389.63,-1012.18,3175.48,-393.84,-379.41,286.547,-1067.96,-5463.98,-2200.81,-880.077,10320.9,215.517,40.8055,766.202,4291.5,-239.58,-2708,1825.42,678.848,-2394.65,0,425.479,425.479,425.479,425.479,425.479,425.479,425.479,-1966.41,-309.391,-661.913,71.9581,145.607,-659.117,-515.713,87.3742,32.9624,5312.3,-46.5634,-768.35,-3237.41,-701.944,-405.039,8955.67,111.578,-106.803,-148.174,331.298,-213.791,-1291.13,60.8335,550.385,-373.423,7199.01,-2834.49,0,20908,3046.44,-496.586,19309.1,798.132,-1696.93,4108.97,-9711.44,-1356.03,-642.857,-1085.22,1250.09,-3463.84,-1678.5,-3099.95,-494.769,23919.5,11.5554,206.269,-8190.95,-1173.14,-1346.82,25056.4,530.108,-24.6508,-568.928,200.731,-134.416,-1664.51,-3070.64,3229.56,-884.587,0,-1314.35,-676.917,2648.54,-3281.27,419.476,-1237.01,172.937,-537.279,-488.546,-1857.35,-620.259,-298.282,-314.779,110.639,-189.73,65.0384,1763.4,75.605,-242.873,-388.471,-610.075,225.381,6220.28,-41.0029,-2.28877,-1108.55,-287.674,-18.3375,106.113,-852.865,1.1186,-682.462,0,20387.8,3615.32,-3559.29,18517.6,692.713,-4140.24,3370.43,-3573.1,-2182.83,-3320.47,-1083.29,-355.457,-918.049,-2905.26,-991.678,-776.875,20470.1,118.54,314.055,-6999.81,-1893.24,-793.899,27772.2,185.672,-178.645,-1773.77,-830.904,-671.875,-2068.1,-2710.06,1623.09,-626.231,0,254.338,-3393.69,-944.004,0,0,0,0,4756.3,2292.19,-317.185,773.803,-268.466,-335.547,1988.87,310.962,417.046,5210.02,-373.953,196.07,-3824.22,-739.101,-1957.56,0,295.257,-121.293,-511.705,-1982.65,-2093.29,-2716.03,1682.39,238.351,-879.465,0,-5111.42,3293.27,4337.11,-2112.64,2959.97,3910.08,-7286.94,-7986.57,-1998.55,-376.574,971.962,292.389,-1046.27,-4062.79,1230.61,797.213,5563.57,-567.47,-1033.34,-10159.8,-1106.27,-673.672,13832.4,-30.9522,-593.442,942.951,1745.71,453.175,-3914.78,165.235,-429.382,263.106,0,-4348.6,5172.97,6350.65,-22610.4,-540.139,6719.87,7232.73,-2105.45,-464.126,562.131,2622.97,1183.67,-116.731,420.146,4378.31,1401.97,-2634.05,682.831,291.753,-2417.35,-2102.66,-530.389,1046.37,175.705,8.44183,1266.09,5227.48,833.419,-796.697,3242.95,1200.58,-2172.05,0,541.268,541.268,541.268,541.268,541.268,541.268,541.268,-1915.75,-346.52,-596.783,137.088,222.047,-619.806,-515.713,163.852,174.532,5453.87,-7.25219,-691.91,-3198.06,-701.944,-405.039,9071.46,111.578,-106.803,-173.955,407.776,-163.132,-1138.21,23.7046,601.082,-373.423,5973.08,-2795.14,0,31748.3,7507.63,-2570.82,16294.6,-1217.73,-3507.27,3472.33,-2576.65,-2552.67,-2526.99,-918.111,961.446,-2678.27,-3838.67,-2933.6,-757.552,23013.2,-129.975,445.333,-5626.6,-1971.61,-1141.44,25914.1,-71.9207,-174.109,-944.685,-1049.28,-544.173,-2659.06,-4769.5,1612,-380.183,0,-3823.43,-3020.48,1700.59,5973.06,1046.16,752.273,1164.46,-238.298,-381.347,-1631.35,-351.435,435.38,-295.449,-68.7111,16.6498,99.6673,5567.2,0,-93.5142,150.663,303.344,-497.214,10812.1,20.6123,-18.7809,236.403,-59.8064,13.4791,425.023,-68.5056,437.713,-891.974,0,30027.8,7218.13,-271.06,17108.7,1715.15,-1982.83,4016.98,-2238.93,-455.293,-2482.09,-901.022,734.873,-760.068,-1418.89,-2526.83,-424.672,21257.1,61.0737,101.598,-4819.26,-1548.17,671.776,30931,490.772,-125.535,-1041.09,-699.237,-489.199,-1675.11,-1050.17,1191.07,-930.329,0,-8479.32,-6956.52,-3224.9,0,0,0,0,-4803.5,1323.74,-339.096,213.61,-1734.08,-2190.13,1865.58,48.4525,85.8661,6153.01,-89.5692,-44.6101,-10251,-2017.11,-3633.42,0,753.648,-3.19226,-2645.52,-1126.73,-2173.14,-2595.5,-1794.02,1893.85,-1031.12,0,-4266.87,4707.56,2631.58,-1874.71,2287.61,6232.47,-8567.88,-9185.23,-2442.08,-458.113,1091.9,74.2019,-1688.08,-3693.81,899.211,688.078,5743.07,-417.128,-413.354,-10911.5,-998.684,-1292.43,17419.4,87.4734,-522.46,1299.08,1526.41,-70.5608,-3987.45,-601.557,-407.865,115.192,0,-8957.37,3965.93,8688.95,-25396.6,1110.62,2952.13,9293.32,-114.922,839.056,1414.34,3295.5,1211.96,1416.78,1008.18,5828.9,1643.64,-7170.98,547.635,218.701,-519.027,-588.674,1674.2,-10318.1,601.778,720.527,1136.86,5572.62,2397.78,202.661,6907.78,1045.06,-1841.01,0,617.726,617.726,617.726,617.726,617.726,617.726,617.726,-1915.75,-270.061,-596.783,213.546,222.047,-619.806,-515.713,163.852,174.532,5453.87,-7.25219,-691.91,-3198.06,-625.486,-328.581,9147.91,188.036,-30.3445,-173.955,407.776,-86.674,-1061.75,100.163,601.082,-373.423,5345.59,-2795.14
0,181.738,55.9232,-550.132,-244.403,-173.208,-95.7262,-25.8853,526.149,-15.0144,664.135,-221.637,-204.322,293.727,-671.304,-607.744,-185.061,125.229,9.98942,-43.973,377.305,49.8752,-167.116,-86.4622,-128.35,13.2583,230.707,-218.684,170.811,-115.673,-37.4149,-281.916,-335.94,0,325.506,32.9563,-47.6973,374.27,-76.4745,301.827,340.831,-41.302,201.604,164.824,-138.885,-55.5886,-181.149,-111.139,35.0162,-49.3407,37.2071,-65.0312,-128.412,-30.7659,-82.5257,-106.936,210.919,15.3231,30.2508,88.6956,144.453,-16.6095,-0.102859,21.8003,-51.4044,564.945,0,-124.655,-468.117,-487.995,994.722,-226.737,-257.47,-181.103,-140.904,175.291,462.217,297.343,-201.807,348.879,27.271,664.863,-277.001,160.515,-79.5436,-117.31,-150.013,251.26,44.9504,285.131,-14.9286,-65.9231,-162.953,543.661,-49.7251,-227.699,225.218,-402.03,-523.591,0,654.25,-32.8098,170.705,0,0,0,0,-224.335,-199.012,178.963,-107.884,114.053,412.722,346.166,300.446,1.03738,58.6543,17.0942,0,104.076,-269.319,393.584,0,57.1049,52.4377,-175.975,-204.621,71.3605,-249.875,-97.9462,7.49731,-593.531,0,36.9013,-539.366,-322.49,231.236,86.0648,114.177,125.183,545.076,-59.5385,4.98525,328.267,23.9657,258.41,533.71,52.7448,200.254,333.407,203.085,5.20322,242.903,-237.337,-110.395,153.777,222.804,-154.046,-484.563,-90.5077,169.064,162.104,-336.101,-602.443,13.0445,0,-690.237,953.401,412.046,-421.405,314.644,-157.913,213.179,-124.265,141.006,-126.295,-192.384,39.0488,-20.6306,-199.978,285.191,-388.287,75.2732,-88.9996,-358.963,-528.661,-536.217,-2.751,302.55,75.0501,15.3786,-203.459,69.4591,30.3716,-40.6936,163.615,-121.37,-899.169,0,-9.46401,-9.46401,-9.46401,-9.46401,-9.46401,-9.46401,-9.46401,54.0419,14.8907,133.678,15.799,-30.5247,109.453,-10.2321,72.7207,-71.1524,88.667,9.97636,-65.2528,1.48445,-82.4264,-16.314,108.703,22.2742,-10.8644,-83.6571,14.2048,37.5273,-53.894,-1.79541,-146.172,-205.775,-941.089,285.534,0,450.329,116.457,246.559,199.739,92.6122,6.06887,35.2413,-770.534,-133.861,775.232,-6.04149,-190.352,291.813,-269.684,503.086,-228.96,490.623,24.831,-104.15,-329.059,30.6119,129.111,-171.175,58.8861,-13.4264,227.597,-132.138,-115.241,-242.587,27.887,-359.36,-299.934,0,16.6939,181.498,-721.115,953.906,244.428,460.852,528.448,-110.643,-84.296,274.462,114.889,-60.4553,11.0121,-260.576,155.111,-78.0294,-176.695,28.9565,-70.9455,98.4051,-39.6335,56.9847,286.74,37.4256,71.2089,-106.187,-18.2071,-19.5164,-20.435,-225.176,-67.5021,-285.98,0,14.4766,59.1678,-97.7802,-152.164,-794.73,-202.851,-103.329,-498.213,69.5275,106.943,-393.072,-439.587,-127.403,-592.586,-882.885,29.5165,-624.729,-2.54605,134.115,155.993,373.075,-71.9471,203.9,115.874,-26.4905,69.0024,878.468,109.167,256.692,-332.543,-328.822,43.2432,0,-52.9889,-24.6119,431.624,0,0,0,0,618.766,77.074,248.614,-158.518,193.209,512.039,300.237,-120.517,-206.174,374.36,5.70898,4.32283,275.52,-92.5329,31.313,0,-217.924,-33.1007,-283.053,345.258,272.886,-444.977,303.415,-16.5339,7.26009,0,-125.91,-152.263,-473.86,235.679,297.655,-412.656,12.9314,-87.6729,77.1293,-10.224,16.8107,-5.50961,-105.415,557.132,493.909,19.4229,120.454,136.598,-109.629,430.012,-233.732,-46.0289,169.138,264.015,-224.321,14.7374,141.845,-1.04212,446.273,74.7144,-436.883,-7.90642,0,-460.264,498.97,216.125,-517.615,209.658,123.975,143.407,-109.614,-174.986,57.6094,-74.9254,218.934,-456.311,-79.3447,-651.407,59.0975,-267.83,11.6221,280.691,144.341,441.889,-47.8163,48.0284,-106.21,-241.663,71.5551,133.193,336.655,173.675,-265.682,-137.45,800.41,0,6.20285,6.20285,6.20285,6.20285,6.20285,6.20285,6.20285,-95.7911,-11.2881,140.95,-26.3996,-31.2875,9.82406,-39.8898,-50.6013,-42.6111,9.08008,30.2446,42.5667,77.5213,47.6225,-16.6987,51.8813,14.596,-46.7792,-20.2264,126.677,58.2909,9.70914,-40.3822,-133.865,-1.11473,-288.237,138.481,0,36.8202,217.332,175.942,1210.64,-308.39,612.83,-214.055,-812.899,-540.912,373.894,-388.377,-329.626,156.458,-1051.51,386.602,-187.951,-457.758,267.968,349.805,-987.179,-13.3185,63.8416,-308.345,24.5422,0.962946,-82.1207,406.097,213.622,389.786,-513.87,-134.452,80.9913,0,283.242,87.667,-139.102,431.397,61.5657,199.852,602.485,-196.415,246.588,600.559,-20.8313,-81.9915,24.823,-294.127,-219.009,23.2103,198.324,-70.3739,-226.778,105.307,75.3487,-15.3021,71.9504,100.393,-12.0447,-401.661,85.8063,55.9557,223.763,-273.309,28.6887,54.7732,0,9.87617,519.126,341.16,-140.04,49.9892,-118.635,71.0757,-71.0742,-4.13649,709.606,-266.802,-220.858,107.053,-515.467,-376.603,-339.92,-663.01,-34.171,-130.781,424.337,312.872,58.1357,292.037,52.9852,83.8245,-151.55,644.31,-149.989,-247.295,88.7691,-432.971,-264.551,0,319.586,622.549,343.614,0,0,0,0,-185.136,-58.5446,114.845,-128.038,36.9806,272.249,1226.51,-439.426,-67.1547,355.454,-0.127906,3.30738,-637.572,9.46742,175.664,0,-122.162,-1.22598,463.28,439.802,368.046,-388.038,-238.953,-430.493,-2.44269,0,401.92,-521.622,-18.0467,-238.803,245.567,-408.027,-1.82565,-416.425,112.41,23.9308,-238.261,-165.836,-167.171,448.098,274.084,-122.043,133.621,260.697,147.52,-105.98,-278.314,-123.811,243.97,84.5057,-245.556,-530.445,309.542,-173.275,579.093,86.0156,-333.541,320.388,0,65.9825,-43.7696,-721.122,-699.067,144.675,-98.0153,315.909,12.5463,622.806,279.25,302.24,-11.6106,201.516,587.044,582.65,426.349,267.44,114.062,372.185,174.426,274.595,361.962,270.288,-34.7204,444.931,420.461,62.3218,-239.532,255.781,238.604,125.684,-72.8143,0,24.1758,24.1758,24.1758,24.1758,24.1758,24.1758,24.1758,-166.94,27.7346,198.285,-39.7558,-80.2056,55.3242,33.3205,20.4988,-35.4943,-13.9106,62.2093,94.6702,-102.666,37.4655,23.2201,33.0633,13.9598,26.5831,-26.7865,185.389,7.03362,80.7048,-62.4967,-114.453,-14.9952,-658.425,-25.4742,0,-372.884,1513.77,807.824,-536.015,-309.82,-60.0756,-443.134,-818.105,-481.434,595.151,-51.8305,-304.034,849.76,-796.731,472.152,-50.2886,-284.231,-11.9522,102.848,-119.449,436.598,513.103,-130.995,-98.5626,3.23344,147.169,-21.1948,142.756,-362.514,-354.149,55.729,-271.033,0,-237.21,-710.442,383.792,75.2078,397.561,298.403,-247.17,-202.817,-146.172,305.969,295.254,-45.6232,-115.246,69.0142,-31.6172,71.6645,-84.6861,76.4897,-3.36574,-25.6001,155.398,-4.40877,379.094,-45.1661,55.581,-172.9,397.613,191.932,-114.361,-26.2037,-114.592,-40.8954,0,-518.159,1397.68,843.132,-91.7236,-127.926,31.9869,530.57,-254.747,-338.382,703.303,-493.528,-544.232,325.576,-960.667,-596.607,-286.771,-662.144,6.1007,-203.752,-624.837,120.973,-218.539,-71.4398,-38.0355,46.6207,-642.136,1346.93,-68.628,894.837,-1176.94,-352.332,1237.79,0,1327.86,837.765,-789.208,0,0,0,0,-1076.63,-220.023,-135.943,-672.914,-36.1703,-317.715,256.182,-243.582,-298.05,-677.704,178.558,4.05654,-1234.45,-72.5795,-486.589,0,168.298,10.1275,99.8666,373.644,143.217,158.876,-173.93,-331.459,263.412,0,-246.539,-96.9318,151.579,-408.11,-52.5533,-242.712,143.847,148.862,-340.82,-205.54,23.5584,-432.891,-174.051,129.865,99.433,-242.271,56.7177,314.496,289.139,-233.746,-332.346,-267.706,651.332,105.768,-115.81,379.177,765.626,-318.84,1090.05,389.976,-154.513,-237.292,0,621.424,-1448.04,-656.504,-61.1776,445.613,296.305,106.855,413.441,441.421,487.707,446.587,621.861,423.689,152.156,271.866,628.451,479.117,594.427,169.119,340.576,334.416,383.329,457.782,308.573,286.994,261.424,572.351,572.754,119.047,559.205,315.39,36.5306,0,44.1093,44.1093,44.1093,44.1093,44.1093,44.1093,44.1093,-179,-114.833,158.487,2.87669,-78.1291,95.0327,-120.111,-3.45532,-25.4084,-108.653,120.585,94.7445,-189.751,63.0534,-34.6454,124.303,40.6716,27.5011,13.0987,337.087,65.239,176.598,-84.184,-58.0194,118.004,1199.69,-367.811
0,-530.36,-779.772,-9.77815,329.493,4.22253,-688.461,212.871,383.009,516.979,-333.55,242.406,-193.235,-73.4012,203.63,499.606,-165.115,105.178,2.95522,66.8509,-246.575,118.435,373.183,-290.628,51.6439,-18.9649,246.44,804.59,-107.96,463.696,271.691,-189.501,414.31,0,-169.985,340.452,-453.552,383.5,-1.81407,523.178,180.822,12.8231,-125.684,40.5062,-105.26,-84.7072,67.5295,126.617,-77.7186,94.5376,298.585,6.35557,85.752,263.488,10.2744,-578.125,-74.1668,-31.0632,-51.0956,-130.88,-31.7183,41.1056,-244.54,86.6651,-76.5261,-805.479,0,-440.253,266.998,394.971,330.747,-71.5438,-289.787,60.2565,-632.043,-113.166,1.05464,-166.392,81.7226,366.601,-36.6947,-669.864,-206.095,-214.235,-56.8535,62.419,-204.377,-3.17086,-124.239,-164.885,-18.4805,-12.3928,360.128,-195.912,177.269,207.463,112.342,-126.394,131.264,0,789.972,424.573,-621.341,0,0,0,0,-956.285,565.605,-62.555,348.431,19.6474,-126.472,-649.409,-129,-273.445,-371.704,-250.384,0,-765.749,-79.1761,256.4,0,-86.4963,-14.9945,-200.114,-62.0936,-48.7893,-37.8064,-666.769,-51.7407,-39.724,0,-14.701,-258.668,133.047,-108.282,-41.3125,17.7706,-553.192,-299.836,312.611,-376.855,-162.585,137.962,100.119,146.244,-551.422,-108.005,-91.4431,8.09468,252.008,-57.8951,-161.726,373.154,128.225,-54.0089,56.4006,177.483,134.336,-0.154888,325.772,201.308,104.466,-483.799,0,-329.28,77.2445,74.1462,463.101,32.6463,388.935,548.828,791.93,-78.6653,20.7114,-150.789,37.8378,-259.522,-239.816,85.0403,177.183,609.456,418.743,378.559,-226.09,239.692,163.395,-478.239,-747.74,222.24,248.746,301.41,220.661,248.723,-216.799,144.799,-1088.23,0,-9.72521,-9.72521,-9.72521,-9.72521,-9.72521,-9.72521,-9.72521,-70.0402,138.387,-62.2289,22.9812,-2.92,7.48553,-25.0313,-84.4358,-48.6223,28.7188,12.8911,66.4084,-123.72,10.4808,74.616,-91.4657,-90.3793,18.1193,54.8264,96.7615,28.1026,100.924,-14.6532,-13.9316,-130.526,-405.178,258.073,0,109.47,359.292,477.898,-960.014,278.442,423.094,606.718,-746.789,202.077,168.974,-353.228,57.8214,412.182,46.6559,-680.265,-211.676,-361.022,-106.468,12.4921,15.8988,478.263,251.876,-87.0706,25.8106,37.6428,277.539,707.208,-63.1841,300.526,169.317,-250.543,199.155,0,-91.6525,-602.727,-1181.58,-129.828,59.502,-416.763,213.323,106.42,-62.5645,-525.146,-208.869,-120.986,98.9296,-61.7545,-158,-73.0977,20.4094,-107.195,-83.4018,146.076,-107.429,155.516,-130.184,-67.9279,26.5178,92.672,-31.1982,-49.9029,394.082,152.561,-45.5319,-104.996,0,-747.533,130.655,-828.048,786.78,-464.228,68.8395,-313.759,402.88,205.978,271.633,185.082,-214.736,-147.708,-319.633,509.725,-82.5042,-36.7118,-52.9569,-22.8179,-697.998,56.6109,-30.0379,-706.195,-175.529,-72.6077,-54.8321,-39.8592,67.8863,-345.506,-560.597,-315.188,-62.1779,0,680.869,512.046,518.161,0,0,0,0,-506.563,546.16,159.112,470.638,59.4487,138.662,-605.207,-94.3857,-97.0318,-39.3581,-75.8963,0,-437.324,-247.999,-332.691,0,-106.503,-49.1505,-308.716,-16.9874,112.189,-361.035,-566.584,-16.1488,-180.673,0,-249.566,0.443619,-114.814,25.3045,173.459,-330.668,283.104,34.2217,179.111,43.181,116.735,15.6297,77.268,355.595,-396.065,-171.248,-313.436,-27.0538,758.65,286.299,-217.972,-78.07,485.8,87.0495,149.133,269.839,-219.227,-27.5895,349.348,-16.5857,21.707,-469.085,0,-369.225,-292.035,546.257,486.025,-152.79,174.598,-275.258,105.03,405.248,507.377,13.9575,-101.297,277.601,-439.082,413.513,-137.055,-176.771,-47.7142,-0.465817,-437.733,-338.72,-306.057,15.3138,-223.636,-89.0222,-156.37,45.2973,370.24,-181.041,561.103,-445.73,535.346,0,-13.2018,-13.2018,-13.2018,-13.2018,-13.2018,-13.2018,-13.2018,-60.48,206.812,67.02,40.7302,-33.2547,85.3697,-72.8204,-40.6477,-77.7897,-83.324,-37.9145,33.9812,-112.478,-41.8776,0.656545,-12.9009,-48.5467,0.251274,-13.6784,38.7213,40.8534,19.8766,5.70262,-99.5853,63.3053,-55.1777,322.186,0,-521.425,-25.068,-532.363,60.4191,-19.576,-225.866,669.476,-606.998,-114.011,746.323,-289.556,-26.764,208.431,-74.8812,74.2136,101.826,-164.338,-138.669,155.966,-953.069,-88.299,-11.4428,-240.766,-101.21,-0.725171,262.656,964.967,-198.503,336.955,-513.079,-68.6882,-37.5151,0,-203.799,-466.146,-287.78,-96.3522,62.3078,63.5255,369.779,129.479,-292.364,-18.6455,373.244,-121.113,356.705,78.4709,-67.2043,-64.4703,-130.159,-117.955,168.874,-81.2777,-232.334,-220.142,-352.878,-36.4681,-15.6222,-307.225,67.1682,112.535,-186.584,-289.875,-156.009,-768.366,0,-518.683,224.281,838.003,-1181.46,-386.818,147.637,235.462,184.924,-97.2071,-286.049,-652.257,-325.443,480.464,-1162.34,-154.229,-230.513,-273.133,-33.4469,-6.29053,-511.909,-39.862,-371.586,-799.519,-107.91,-48.5691,71.3198,842.268,71.5301,16.0402,-52.6047,-226.831,614.303,0,761.709,-36.8626,-86.0524,0,0,0,0,171.197,1057.31,470.694,182.62,-27.1034,-13.5605,-436.689,-172.589,-365.715,44.31,-147.276,0,479.598,286.656,-119.035,0,-291.766,-78.0117,7.74565,-625.993,-50.2781,-288.267,-256.487,-418.737,319.603,0,326.797,38.6592,-82.2994,180.423,2.08211,-147.861,102.971,292.969,492.72,-238.851,42.2845,-41.9618,-241.725,156.277,-26.4285,-242.208,-107.781,-52.0835,250.846,-22.9265,-335.882,172.297,619.484,39.3765,216.873,369.582,-147.721,279.978,143.313,204.089,32.0658,-78.4048,0,302.551,564.94,-56.1961,737.73,330.219,87.9329,-724.094,-485.714,306.768,-34.3957,63.4836,284.564,76.7312,434.12,-53.8252,11.0722,-254.628,147.069,-54.4803,-115.249,125.754,144.11,403.634,198.695,125.907,-31.0379,-571.347,287.694,81.87,210.911,-117.137,-84.9225,0,-1.47309,-1.47309,-1.47309,-1.47309,-1.47309,-1.47309,-1.47309,-31.4143,218.54,53.9197,27.6299,-29.0181,92.8619,-72.8204,-40.6477,-79.6293,-85.1635,-30.4223,53.7151,-120.483,-37.641,0.656545,-5.40875,-33.0494,19.9852,-0.110093,38.7213,50.1852,19.8766,-2.30255,-90.2536,67.5418,-196.393,333.915,0,-148.595,1104.32,474.766,-1046.2,-304.915,-463.051,71.826,-305.603,-337.814,-436.561,-590.603,-191.522,698.669,-565.542,-260.383,-123.623,-651.921,-155.82,-59.1193,-857.515,-375.165,-3.48535,-680.653,-103.32,-49.1392,352.164,688.169,90.1423,-219.129,-639.689,-8.63754,-180.781,0,-146.731,-407.472,-740.74,217.419,-126.999,-586.996,-126.286,50.5135,-143.711,873.468,22.4891,-35.1417,-42.4498,3.09815,160.852,-23.9479,-16.559,-13.5298,126.72,-7.54548,487.88,266.742,-106.394,18.2687,-18.0384,-268.05,630.211,-53.9458,257.503,197.356,-45.0429,-316.157,0,95.5882,890.75,518.99,-789.885,-5.27404,540.453,572.344,-13.4035,-377.628,-119.669,81.6073,-60.1659,519.978,-699.944,-516.52,-96.3452,-226.522,-3.80973,110.893,-176.7,387.917,-897.024,-1036.74,-228.926,-116.668,-595.71,512.367,140.674,635.67,-862.295,-704.696,-305.648,0,-927.276,-599.045,73.0248,0,0,0,0,166.301,1343.88,618.456,-321.395,-327.227,478.081,-526.475,24.4678,-329.089,150.558,-383.804,-23.2998,-1099.27,-317.657,-655.734,0,-467.913,0.408222,215.25,-119.759,437.224,-516.622,265.547,-135.821,1054.03,0,-405.563,-101.917,305.113,699.413,-100.659,-743.929,1036.9,310.681,168.119,-400.592,56.0372,-17.5037,-495.44,422.816,523.327,-345.33,-159.042,-92.6776,18.7423,-51.0312,-556.206,179.504,842.615,-198.461,263.376,379.218,-507.32,429.074,-293.948,248.987,-40.3767,231.796,0,905.279,-201.162,-581.616,1200.89,530.228,1065.9,-190.515,-518.129,222.008,-209.725,304.229,378.182,-303.241,346.782,-324.937,152.52,33.9332,329.785,-109.749,987.232,78.269,476.109,737.08,697.304,76.9861,275.784,-791.425,-581.582,305.858,-35.1108,11.6219,-492.046,0,-1.47309,-1.47309,-1.47309,-1.47309,-1.47309,-1.47309,-1.47309,-31.4143,218.54,53.9197,27.6299,-29.0181,92.8619,-72.8204,-40.6477,-79.6293,-85.1635,-30.4223,53.7151,-120.483,-37.641,0.656545,-5.40875,-33.0494,19.9852,-0.110093,38.7213,50.1852,19.8766,-2.30255,-90.2536,67.5418,-900.384,333.915
0,-39.1273,-313.787,329.023,-120.063,-20.587,-379.933,56.6954,-822.913,-192.995,-268.363,155.784,245.747,66.6395,593.86,376.563,76.409,-585.71,-134.069,-39.0444,-126.733,-82.6652,13.6295,358.339,-19.6751,52.4296,-169.63,513.918,-284.798,-34.4659,123.488,268.586,48.8564,0,-461.326,328.284,357.847,395.831,225.046,554.548,306.218,-149.739,-294.045,624.111,100.218,227.807,97.8566,-457.709,-97.2753,-17.2032,402.509,3.77211,-41.4964,-18.4374,-254.252,-155.473,-706.53,42.7895,-31.1236,-103.717,-25.7468,-5.79257,-91.1546,-8.46919,16.0947,16.7466,0,-114.042,824.537,186.017,-883.902,-272.926,33.3029,264.698,-265.901,-12.731,-758.524,-126.874,-122.025,-63.1445,473.542,-43.2923,-198.316,-358.344,84.9682,320.595,-291.04,-30.2718,68.0302,-334.426,192.109,178.977,-369.496,100.75,129.795,-216.546,-922.607,345.659,137.795,0,-850.665,457.694,-98.9232,0,0,0,0,-324.947,387.984,503.785,-228.654,566.553,204.261,1298.81,-134.949,-49.0503,714.466,-47.7489,23.384,670.009,163.451,121.574,0,250.2,193.652,719.822,-555.196,79.6317,216.345,69.758,-70.6513,-81.9028,0,-415.138,-20.0475,946.917,-647.523,-525.249,-461.683,-327.068,195.771,-191.18,182.95,42.7879,-180.327,318.224,9.90101,-393.592,142.005,260.484,-336.434,-72.0001,340.46,347.886,-295.978,-130.765,-270.708,79.6601,126.22,494.457,125.945,-178.857,345.686,-256.047,-240.792,0,627.932,-225.298,-1040.45,110.124,930.473,682.237,-256.565,279.647,308.993,-198.301,279.227,-58.7469,490.814,-807.532,-32.6895,-469.654,610.979,222.757,-83.1706,-352.155,-402.692,261.661,1066.14,-228.332,-125.719,-282.528,302.13,42.9537,-676.637,643.124,-97.6974,62.0149,0,42.0946,42.0946,42.0946,42.0946,42.0946,42.0946,42.0946,-108.808,34.3851,12.2881,3.82652,72.7473,109.618,158.638,-28.5863,-55.9188,87.423,-31.6386,140.778,22.2104,-23.9197,20.2817,-46.4385,-0.938562,34.7876,-23.155,91.489,8.36063,-105.404,6.57889,18.7205,23.6216,226.626,-168.081,0,362.878,-192.773,184.293,712.156,-298.936,1029.68,67.1442,-15.0732,3.8952,276.001,68.3952,73.7217,-41.7268,437.922,-214.71,-274.221,-350.458,-96.3487,101.498,-48.087,418.296,-332.103,808.558,132.299,170.713,-178.491,151.515,-163.022,68.6144,-4.98941,206.236,26.2375,0,-107.466,1258.92,1089.1,-719.099,81.9758,59.2639,985.34,26.4158,-195.72,-2.92104,26.0367,71.041,-164.478,606.201,-109.565,21.4755,180.564,54.7792,-51.4826,-13.1744,47.2659,649.258,-199.166,105.692,-18.0215,120.731,154.98,43.0049,54.9622,294.156,-7.09978,355.956,0,333.94,-212.977,-95.8655,79.7151,687.184,-784.939,-313.305,85.5782,-503.922,-348.437,-120.455,463.773,-506.717,169.403,-671.515,27.8737,1177.41,-76.3596,-43.2557,2.42637,-112.327,-177.297,-232.758,266.598,43.7761,-352.309,-247.526,8.83554,-70.1089,-460.189,179.901,-233.094,0,-335.435,83.4198,-208.569,0,0,0,0,-637.268,795.795,26.4631,-186.7,391.992,1026.39,79.4393,667.424,14.018,-132.663,20.1756,41.0924,59.3407,-961.033,-451.143,0,-173.697,54.253,451.62,212.702,0.231371,-319.889,-381.915,118.535,-80.1171,0,93.3011,242.143,-275.616,-6.3523,-141.809,108.447,-12.8706,215.945,-152.326,-112.585,-46.5789,-320.862,597.216,-298.327,245.231,-15.6012,756.85,-336.718,155.574,-88.8919,120.005,-104.958,303.838,-135.332,196.826,-184.22,616.799,173.886,-328.13,535.145,-232.541,0.336068,0,276.301,421.226,177.414,-779.564,149.542,410.529,-244.571,-582.532,-14.2876,-12.9823,-43.0415,137.028,-104.006,543.258,-67.4676,379.395,459.347,-85.2884,-283.696,14.9743,333.914,-96.3749,363.166,-11.6342,112.068,56.2417,-263.238,-149.272,307.81,-185.677,158.692,-409.478,0,59.7446,59.7446,59.7446,59.7446,59.7446,59.7446,59.7446,-90.6934,32.5031,-9.18296,-34.9401,92.3771,77.6869,201.789,-11.2055,10.9562,180.901,-63.1078,139.494,-7.3412,-17.2762,-30.7466,35.1399,23.5091,57.3232,-16.8318,58.2296,-9.33106,-37.115,-20.7537,43.0663,-7.00334,-222.809,-139.465,0,455.915,745.927,565.514,829.627,466.864,432.729,49.4757,-544.961,-123.589,262.343,-381.543,-93.4329,262.827,-13.4741,-646.915,-59.4861,1125.18,65.8285,288.064,-109.3,-668.944,767.298,483.532,-187.234,84.1056,-138.824,294.117,-270.569,-303.789,107.588,11.9945,53.8341,0,276.957,296.735,1062.51,-560.387,996.199,-261.31,203.627,95.3757,-87.1124,4.88699,188.037,84.9261,-115.462,189.711,-168.059,-50.8863,268.568,-3.38276,41.7888,-9.62184,-101.222,-324.797,-156.197,72.0036,-47.0786,46.9347,112.198,-0.84606,-118.087,-216.557,-28.9765,336.909,0,448.516,-404.814,5.42466,235.111,111.896,252.023,430.717,-402.279,-356.882,-601.684,69.2571,759.34,-500.47,691.569,-287.541,-20.2173,390.534,-57.7815,-289.285,-721.042,101.901,-223.234,558.527,370.026,70.4966,69.599,288.485,-182.121,132.314,236.958,454.996,-189.429,0,-86.6511,-20.6288,-513.024,0,0,0,0,-360.8,775.538,-371.24,-243.205,162.583,629.154,846.092,629.418,-113.576,-54.8954,-113.087,-46.4479,595.84,188.638,-683.555,0,-112.671,202.731,82.8529,-536.432,185.879,6.7669,-535.759,212.531,-209.747,0,-168.848,88.0716,-379.649,-93.2,-392.989,224.67,120.156,153.223,-146.173,80.0919,-2.20039,-130.913,644.471,-425.21,414.286,313.055,853.904,-339.563,250.631,28.4796,180.97,98.8579,434.075,-202.29,175.849,-112.927,370.074,143.882,-105.958,45.3737,-189.566,121.12,0,-161.549,596.639,-382.033,-1139.12,-746.168,-13.6797,81.8213,143.154,3.67763,108.761,-136.045,63.334,-132.088,78.2417,-128.762,92.5741,-480.921,-91.1267,289.26,124.613,47.9609,-152.884,-191.336,47.7111,19.0986,120.612,6.185,29.3728,129.083,-117.873,-55.2059,-291.36,0,56.0474,56.0474,56.0474,56.0474,56.0474,56.0474,56.0474,-91.6287,30.7411,-11.8802,-37.8421,91.4418,75.7517,199.886,-14.9027,9.19421,179.901,-65.043,139.494,-9.10318,-19.0713,-32.4771,35.1399,20.7472,56.3233,-16.8318,58.2296,-10.2979,-37.115,-23.451,41.2712,-8.00325,-4.12731,-142.196,0,971.266,1125.73,-474.281,1295.74,1121.69,1026.26,148.156,-716.147,-171.285,-386.447,-170.235,519.039,-205.846,285.758,-1006.23,-86.7025,842.345,-62.2121,129.48,-109.207,-521.366,-352.197,261.37,-293.252,40.4171,873.364,285.092,-178.008,-263.445,-709.023,29.466,223.587,0,1346.06,639.192,387.439,-227.679,43.676,638.598,271.751,-80.0466,-384.138,-403.045,196.812,-152.4,27.4424,388.29,302.249,85.3395,81.6243,55.4437,-9.5411,-49.9268,-42.7244,226.442,134.271,35.1937,-23.3327,-350.009,84.6721,-36.0659,25.2389,-324.957,-64.7822,55.5264,0,359.75,-812.86,-1300.24,1656.65,960.919,801.232,336.884,-992.374,-162.994,-641.123,-36.7831,408.31,-59.189,-534.026,-450.626,-92.2867,720.575,-26.7271,-92.2002,-846.594,85.3199,-920.17,819.687,166.935,167.213,-370.462,-188.123,-127.787,-290.248,-363.987,652.19,-14.9489,0,-342.436,101.526,66.5087,0,0,0,0,1009.61,1018.07,703.537,-345.928,46.5149,252.717,785.107,-103.588,-237.102,442.251,-72.125,42.8308,691.509,19.4035,182.612,0,147.082,123.116,165.639,-49.567,75.5533,110.07,811.645,192.754,-261.807,0,-34.432,402.696,-238.509,-405.627,326.682,833.761,-273.964,104.617,-15.7783,-89.6608,-74.6035,-43.445,916.81,176.306,142.477,390.624,903.632,-342.849,181.52,15.3828,12.8851,102.298,882.525,-146.299,127.384,-250.924,262.823,83.8141,-132.574,-54.9622,-167.711,-61.0515,0,-27.6571,60.3746,774.309,-2958.44,-1983.8,-2861.87,405.586,-241.945,-41.5479,319.768,-68.0897,61.9173,-143.503,391.486,533.252,89.5414,-816.314,-78.7808,-59.9704,218.569,285.129,184.658,-882.519,88.5391,109.347,102.863,210.14,100.775,292.033,-99.2707,-245.165,-190.945,0,55.0485,55.0485,55.0485,55.0485,55.0485,55.0485,55.0485,-91.6287,29.7422,-11.8802,-37.8421,90.4429,75.7517,199.886,-14.9027,9.19421,178.903,-65.043,138.495,-9.10318,-19.0713,-32.4771,35.1399,20.7472,55.3244,-17.8307,58.2296,-11.2968,-38.114,-24.4499,40.2723,-8.00325,-490.509,-143.195
0,342.168,1.10714,629.533,-8.33973,-401.455,-304.007,418.941,-539.637,155.432,-146.553,-308.316,205.783,221.221,-473.781,-203.804,-145.577,-29.7261,-42.6834,3.18653,-549.904,-510.199,602.851,374.033,116.277,31.2991,-401.18,-445.788,2.43005,378.938,-346.555,239.364,-341.061,0,54.0678,148.645,379.525,-111.315,-46.9437,-384.385,-31.9598,96.4887,106.942,33.4572,261.761,77.2598,239.543,154.066,81.0227,-75.3554,-10.9055,-6.21486,13.1616,74.4751,-56.4112,-177.872,-11.5134,-1.66822,-67.3278,642.168,-29.6461,-7.50214,-91.6345,-69.1418,125.092,624.86,0,-45.1076,112.694,232.694,-339.127,521.931,46.1305,111.289,-303.255,387.895,-531.546,110.538,290.951,-517.656,-250.165,436.175,-45.0482,304.057,8.31902,-296.646,240.914,242.814,-100.526,1287.16,-150.168,43.8519,56.5116,195.677,-126.505,-190.433,-762.108,676.657,-330.744,0,-429.193,-14.685,-879.351,0,0,0,0,397.179,102.114,-324.379,-467.747,316.742,297.532,66.3196,-105.879,498.991,266.653,-184.58,-0.402802,574.367,-181.579,-53.2244,0,-483.166,54.6356,258.981,59.3422,-59.5907,-210.35,278.442,91.7578,-405.28,0,4.4063,131.659,-487.393,-53.5555,-3.89026,150.086,-465.086,255.179,217.506,-58.7026,-93.4157,591.16,241.214,-95.8611,-183.445,-157.348,348.234,-200.564,-155.17,28.3331,22.9889,-362.82,513.044,-198.973,-163.603,-175.816,-95.0258,-134.446,33.8639,-744.841,41.534,-39.0526,0,394.291,-458.326,643.616,194.559,81.1347,615.456,-292.911,-376.13,361.126,282.893,9.83108,335.513,236.986,192.86,116.474,-5.57296,356.106,130.058,4.05782,-150.98,217.182,183.128,109.862,-96.0669,89.4091,46.9716,-165.737,66.7299,-4.64491,834.397,-195.117,-226.45,0,18.847,18.847,18.847,18.847,18.847,18.847,18.847,-47.0175,184.146,-79.7429,-71.9139,182.635,71.9076,-36.0608,14.2651,-3.10434,135.835,-13.0925,-292.544,21.7205,-29.5402,19.5266,266.154,-84.094,-1.17349,73.1438,-50.3995,-24.7921,-13.64,-65.8522,96.2888,-64.1845,431.879,-315.614,0,1006.97,-170.252,1178.74,295.061,21.6805,169.066,320.874,-137.845,10.4928,-777.945,-65.5368,293.18,922.13,-452.024,639.262,18.9124,278.682,-65.7347,-226.832,137.703,-81.7093,-407.967,1577.08,-83.3756,67.4196,-209.148,-342.327,-170.909,69.3933,-316.654,336.253,301.408,0,-204.02,-480.052,425.741,217.356,-199.704,-824.337,136.036,-167.301,150.89,168.955,47.0231,96.3488,-273.425,-2.64936,-62.8932,-118.596,-83.4841,-6.78078,-69.0154,37.2177,63.5553,266.736,-13.4806,2.89819,-3.61653,369.158,-338.032,1.48696,-57.0069,-65.3361,25.7269,-198.839,0,102.67,-120.985,-387.099,-201.542,394.44,-187.693,257.569,-497.746,259.715,-23.3172,-137.296,472.787,-188.173,-667.469,-196.582,77.2561,363.582,-35.2543,-133.335,-84.2741,-55.3843,-75.9876,114.578,-164.162,106.738,104.635,434.022,-23.5186,-199.828,-547.499,406.997,31.2547,0,-403.621,573.117,-335.817,0,0,0,0,367.606,-72.4028,-133.792,-190.198,433.918,-12.2298,627.325,-43.5186,235.258,289.18,-111.555,40.6048,116.945,-412.756,363.997,0,-404.989,20.8503,463.828,15.5327,156.308,59.0644,130.535,320.676,-553.658,0,-886.599,-489.78,-139.532,288.681,-323.779,190.62,-334.503,515.038,490.902,26.3416,-105.305,595.674,370.723,-207.884,321.576,-188.537,438.482,-205.414,-180.328,444.495,175.14,-66.9066,248.611,-301.095,-233.807,-511.679,-107.725,-239.489,16.5063,-399.622,8.65787,-105.213,0,698.504,70.2762,-117.578,-172.185,242.15,737.582,-348.843,-549.928,371.636,2.85881,42.3115,-74.4988,-110.174,291.429,-530.957,35.8088,-88.0657,134.568,7.45772,-444.88,12.7823,42.116,354.319,125.592,6.67052,113.592,-231.437,-5.8491,9.44603,353.393,-128.181,-127.185,0,16.8485,16.8485,16.8485,16.8485,16.8485,16.8485,16.8485,-47.0175,184.146,-79.7429,-72.9127,182.635,70.9089,-37.0596,13.2653,-4.10312,135.835,-14.0913,-292.544,20.7207,-30.5401,17.528,265.154,-85.0939,-2.17331,72.1451,-50.3995,-25.7909,-15.6386,-66.852,95.289,-65.1833,518.539,-317.613,0,768.371,578.368,387.172,-66.0169,580.339,-620.005,-81.6221,-82.4823,602.722,-1.9914,68.7659,574.406,-24.0901,202.612,115.698,194.593,706.774,-25.5816,-228.683,-327.435,-135.244,350.346,1928.33,-225.636,58.6904,369.815,-107.619,224.152,-130.5,-760.634,195.561,-80.9542,0,232.045,-225.899,634.34,-166.134,-524.27,30.3033,223.859,-202.743,-23.8399,353.482,-251.789,27.1324,76.0192,-628.3,70.0546,-62.3477,-70.4426,-5.80311,-100.588,-241.96,42.2361,-225.194,-515.387,-50.4054,70.4617,71.657,91.1596,3.09635,24.5979,67.8956,15.3021,-297.271,0,109.926,-275.986,-626.854,715.078,74.7898,228.239,178.557,-165.026,-77.6924,-780.777,-93.6847,79.9206,162.971,-387.578,-381.67,-73.7756,-81.7252,-38.2972,-60.1977,-681.574,-347.233,190.18,766.985,-78.1762,71.4684,-222.341,183.332,-90.789,48.9763,-481.682,451.463,-243.301,0,228.711,-322.668,405.619,0,0,0,0,-284.884,122.278,-390.209,42.1065,655.465,332.727,638.894,94.3368,70.6241,427.888,-141.716,45.5952,917.216,67.9042,-56.8449,0,-221.839,25.0907,549.789,-491.51,-67.7212,-54.2652,481.378,373.556,200.147,0,-405.762,117.133,267.107,-302.642,82.9012,797.574,-630.46,83.0582,409.21,-5.24412,-204.231,625.114,224.906,-215.071,128.295,-285.195,496.277,-206.391,-303.578,317.272,229.862,-75.0949,-41.0934,-292.787,-421.784,-293.923,-38.9269,-330.734,-108.719,165.808,-31.3887,-67.4058,0,-6.76593,-422.249,-927.26,23.4672,-78.9722,-543.474,-87.9971,181.902,121.141,111.753,129.866,-120.226,-63.6807,-35.4432,90.906,168.297,-156.296,127.619,294.455,223.688,-132.206,-18.7939,163.405,55.144,134.669,-67.2183,-198.086,-19.9744,119.339,-369.224,-34.3644,-46.9898,0,16.8485,16.8485,16.8485,16.8485,16.8485,16.8485,16.8485,-47.0175,184.146,-79.7429,-72.9127,182.635,70.9089,-37.0596,13.2653,-4.10312,135.835,-14.0913,-292.544,20.7207,-30.5401,17.528,265.154,-85.0939,-2.17331,72.1451,-50.3995,-25.7909,-15.6386,-66.852,95.289,-65.1833,96.5395,-317.613,0,1397.98,542.674,-160.681,279.112,748.812,576.33,194.43,-305.783,106.472,-317.046,-65.0723,226.449,827.06,-63.9578,-60.6704,-65.9816,223.817,35.3526,10.0616,-354.903,-409.905,225.229,774.135,-143.434,-48.6418,-315.153,-39.9158,-234.565,664.192,-254.545,276.662,56.0191,0,-535.365,-535.29,713.741,760.778,74.1415,792.225,52.3761,-108.279,69.8333,33.8953,-134.481,72.6672,-29.2219,-16.99,132.07,84.4372,8.30427,-7.7291,-72.4133,82.6895,154.871,-15.1129,862.709,-12.1514,53.0662,6.1159,179.567,25.6093,47.9472,-4.08118,-43.7107,-10.5403,0,191.409,-1051.6,-163.853,393.855,530.203,-109.218,246.356,-265.712,256.223,-509.252,179.557,335.488,-848.458,-812.438,-140.969,-276.837,298.618,-39.2656,77.5735,-281.896,157.676,-120.294,777.043,59.0949,104.745,171.585,-663.852,-349.987,-546.158,-504.629,713.025,-171.624,0,485.971,286.174,-239.721,0,0,0,0,-460.472,144.049,-35.6648,-122.306,517.369,380.163,682.783,-678.437,251.365,403.974,-201.854,16.1139,-463.896,-415.141,38.2132,0,-466.22,128.814,624.247,21.4691,423.576,-301.735,434.788,37.1456,-268.962,0,716.609,-409.615,-474.169,185.29,674.526,2590.18,-352.034,-374.243,379.486,-18.7075,-190.173,725.551,54.2863,-456.329,383.918,-266.412,499.103,-205.142,-245.368,637.051,149.25,-162.303,319.497,-386.972,-581.788,-523.822,-117.932,-565.125,2.28152,-147.57,-82.3708,-177.519,0,11.4862,498.732,158.184,-1362.28,-1898.9,-4015.18,-191.519,1039.81,279.163,47.7568,144.57,-57.2963,325.959,174.419,487.895,201.794,-68.9025,136.104,125.621,603.641,100.345,239.622,-393.861,65.5378,285.349,507.134,-103.155,442.178,-6.65512,-379.142,38.4932,44.3294,0,16.8485,16.8485,16.8485,16.8485,16.8485,16.8485,16.8485,-47.0175,184.146,-79.7429,-72.9127,182.635,70.9089,-37.0596,13.2653,-4.10312,135.835,-14.0913,-292.544,20.7207,-30.5401,17.528,265.154,-85.0939,-2.17331,72.1451,-50.3995,-25.7909,-15.6386,-66.852,95.289,-65.1833,73.3714,-317.613
0,623.647,598.619,155.383,-208.658,248.775,62.7314,-434.971,243.802,-126.22,-135.86,315.78,67.2354,255.998,-1191.57,-471.382,-312.056,102.484,-70.8695,187.645,-624.661,211.809,-1096.26,633.988,-96.9629,21.9806,-226.322,-156.796,144.634,-830.488,-684.725,245.9,141.153,0,-12.7317,-752.016,-276.169,-881.438,9.41776,362.693,460.103,31.9195,-272.191,-187.128,-197.011,-125.465,-23.7365,283.452,-209.947,0.0547758,-281.389,-3.34205,51.0042,-443.147,-85.1303,347.298,166.91,-13.5711,46.6142,-122.926,174.824,1.17325,22.9815,57.8195,12.4196,126.804,0,-268.751,643.341,530.151,263.165,-22.8815,438.445,187.781,361.211,133.505,711.771,-204.877,-25.0685,-90.4935,-400.024,191.708,-0.142614,91.3495,-62.7204,-89.3928,399.802,160.08,929.408,199.962,109.764,10.4837,-67.289,143.021,-31.8879,201.449,-237.862,-11.3595,-383.507,0,-317.616,-114.089,403.023,0,0,0,0,-18.7171,146.961,-282.869,615.356,31.9548,279.041,-238.44,799.315,-108.266,499.836,185.452,-20.7925,535.422,794.217,15.1474,0,-524.541,16.4833,-63.1104,290.585,297.473,328.133,-204.953,33.131,-151.378,0,-820.519,390.907,-576.571,-46.0335,-188.678,-909.984,510.397,263.476,642.955,-1.32635,220.066,451.733,75.9466,185.712,-187.013,4.38466,132.76,-74.535,-393.426,456.464,160.619,-206.796,-134.405,19.1961,24.9221,493.407,-86.7378,-876.783,-526.23,-133.786,-233.697,285.349,0,535.003,87.2771,597.781,672.403,273.127,359.725,-177.077,-366.088,532.685,23.3407,138.379,88.619,127.651,409.01,-58.7224,148.272,126.986,212.465,410.614,-611.174,-4.37754,260.254,410.289,17.4451,159.585,157.97,-784.687,-83.0364,-200.505,40.0468,-118.612,-321.655,0,39.9701,39.9701,39.9701,39.9701,39.9701,39.9701,39.9701,51.5604,77.9842,20.4139,94.7368,46.7961,62.5285,-100.053,6.39586,-29.1516,75.5177,6.95329,154.568,-28.7294,124.897,39.8026,180.027,-48.2494,28.0069,9.84892,-39.5242,-54.8427,-101.204,-119.202,-3.46182,-55.9185,1183,1343.04,0,-48.2209,1445.38,-45.245,1179.72,103.888,-116.126,-558.908,699.303,72.9973,402.401,6.06254,84.3658,-252.016,392.696,907.221,18.6131,296.797,8.95792,-52.8868,-925.262,-147.357,113.693,431.628,34.5613,-34.202,-249.239,375.209,147.845,-99.3999,-707.324,250.841,-134.323,0,590.9,-942.501,272.623,-454.235,111.276,876.502,93.1251,33.3283,-61.4344,209.47,277.456,-2.64278,-43.2588,-401.582,-97.8685,64.6708,16.0786,76.6336,169.047,-302.638,165.432,124.787,421.071,-4.31742,7.54379,-182.51,-127.523,31.1812,-45.1782,-121.358,-5.87393,208.394,0,158.364,530.171,705.622,-700.767,189.65,313.577,741.328,-52.8105,-259.673,-325.898,-442.917,-17.9687,153.098,-1535.1,-311.377,14.903,-298.087,-2.6614,-78.9081,80.8959,338.658,15.972,443.132,51.392,34.4691,-22.4305,360.661,27.4544,-214.802,-1103.57,189.924,-96.2566,0,-129.683,-617.822,458.353,0,0,0,0,-146.246,312.955,-415.481,694.322,-513.379,591.454,347.842,-89.9466,-448.487,435.358,-55.1229,-5.9834,941.42,1025.07,-72.6109,0,-473.558,22.4742,-133.225,-374.483,119.439,-148.753,733.354,-47.3815,-449.532,0,-613.238,388.122,-745.109,339.177,-340.624,-1289.43,59.8624,-162.22,509.44,359.407,211.015,540.914,425.576,251.444,32.1442,-55.9667,178.665,-95.7228,-591.096,296.883,171.109,65.6306,-399.518,11.7473,29.5568,637.13,-111.99,-1033.27,-753.541,-218.881,-377.58,153.152,0,519.767,488.385,28.7009,509.721,255.57,532.629,-13.6619,144.25,496.428,33.8865,106.128,397.72,-253.684,-14.3421,-376.214,138.513,16.8127,202.066,35.6971,-378.592,-373.504,25.49,398.828,-100.227,197.983,40.384,-542.495,151.649,234.813,373.056,-74.5947,-51.6823,0,39.9701,39.9701,39.9701,39.9701,39.9701,39.9701,39.9701,51.5604,77.9842,20.4139,94.7368,46.7961,62.5285,-100.053,6.39586,-29.1516,75.5177,6.95329,154.568,-28.7294,124.897,39.8026,180.027,-48.2494,28.0069,9.84892,-39.5242,-54.8427,-101.204,-119.202,-3.46182,-55.9185,524.693,1343.04,0,-139.948,963.995,1501.93,1157.05,116.016,172.936,363.221,1055.28,-15.586,-586.5,419.582,-95.4458,314.5,-545.038,174.529,-272.348,-200.397,-17.066,-126.164,-493.155,454.71,146.576,428.446,-161.935,-36.0135,-202.49,330.036,-46.2292,66.9856,-844.787,148.162,-226.155,0,999.391,325.638,-635.232,-311.158,62.818,795.441,-205.129,-70.2819,200.205,-3.01583,75.4471,-42.6239,-229.433,-503.29,123.195,139.667,67.6816,63.4565,-4.88667,140.843,369.295,-51.0453,515.721,81.1444,-53.0362,-482.614,56.2668,-60.667,-3.69455,7.69202,6.40577,-210.731,0,484.772,911.296,306.647,-299.041,411.045,777.916,291.967,867.392,-354.939,245.98,58.7032,141.557,84.0255,-343.405,207.892,154.066,-270.209,-19.0525,61.9236,-751.279,68.7787,-77.4246,854.483,139.588,47.5355,261.583,-152.678,10.9698,-329.129,-320.215,269.526,390.228,0,387.988,769.979,301.328,0,0,0,0,-1532.88,381.596,308.167,-143.9,-429.999,-62.6775,210.214,-218.884,-193.693,902.62,1.37802,-4.36923,815.802,109.528,79.4848,0,-498.533,23.2611,-125.084,-287.829,315.508,-212.626,-35.3696,22.2564,-716.251,0,766.682,-399.133,-526.143,867.868,-626.072,-1080.72,466.628,361.553,637.924,106.508,225.607,625.614,761.011,790.593,229.044,-95.4069,46.0506,-95.7228,-602.791,391.45,321.784,266.802,-276.05,118.085,153.844,340.696,-300.055,-942.717,-797.552,-71.4559,-444.4,179.352,0,144.168,-371.992,-58.2177,919.357,355.953,-239.443,-166.669,-165.457,330.027,70.1002,70.7641,289.09,-184.985,-595.66,-451.819,-8.42576,11.2567,201.157,-166.932,-390.955,14.2303,-92.5889,-259.092,-187.631,116.295,151.749,-148.981,167.436,273.465,320.576,-70.2594,-53.8228,0,39.9701,39.9701,39.9701,39.9701,39.9701,39.9701,39.9701,51.5604,77.9842,20.4139,94.7368,46.7961,62.5285,-100.053,6.39586,-29.1516,75.5177,6.95329,154.568,-28.7294,124.897,39.8026,180.027,-48.2494,28.0069,9.84892,-39.5242,-54.8427,-101.204,-119.202,-3.46182,-55.9185,555.282,1343.04,0,1332.55,1256.08,1236.96,1489.68,165.051,1417.93,159.688,-342.987,-273.265,33.8535,123.839,82.1433,-612.503,-731.974,597.803,-120.044,42.6834,-13.0558,-65.4786,-927.384,165.192,-439.663,893.549,50.3638,59.4412,-371.042,85.4003,-179.584,226.549,-164.629,314.551,264.933,0,330.006,363.79,100.338,243.69,176.633,2074.84,911.051,-2.19386,-200.812,150.832,8.89615,-45.2207,206.67,141.122,-141.489,-94.0654,40.2359,-4.57639,-37.6606,141.763,96.9948,535.358,257.705,1.00435,-70.1206,-64.1942,-72.4671,51.4501,-140.592,158.669,54.5161,-156.029,0,874.16,380.047,-239.001,-315.314,64.8983,624.37,105.837,-824.804,-110.938,-395.912,-307.222,-4.21286,-55.588,-1310.62,-439.94,-24.632,-258.856,-7.82736,-62.8483,-1549.31,-332.899,270.586,713.021,5.6513,52.6164,-79.2744,-202.402,164.133,-676.329,-575.01,140.801,-161.48,0,139.661,391.943,1215.49,0,0,0,0,478.143,618.779,48.2781,387.049,-94.1127,439.754,225.977,-222.763,-57.4691,486.304,68.9333,0,1088.03,1175.52,-649.55,0,-671.172,13.4621,-99.5965,-49.3431,43.6913,-26.3414,-259.567,41.8016,-751.09,0,-174.69,118.73,390.918,468.453,-1338.5,57.2755,-949.799,980.761,904.314,302.002,174.204,589.975,622.897,568.304,-298.141,57.8226,142.717,-79.677,-297.5,-374.673,11.9876,43.7295,-502.007,151.082,158.544,593.62,-256.046,-884.78,-882.589,-160.803,-462.436,177.475,0,-271.682,-402.976,-1964.15,733.968,1251.68,-3981.55,360.939,226.685,31.3319,-74.5619,28.4795,39.8705,81.21,145.851,630.94,-97.0321,43.5884,217.271,109.739,1318.1,254.655,312.878,-58.8762,-74.3422,30.6021,-143.62,72.2538,229.043,506.101,170.849,-157.543,-96.6186,0,39.9701,39.9701,39.9701,39.9701,39.9701,39.9701,39.9701,51.5604,77.9842,20.4139,94.7368,46.7961,62.5285,-100.053,6.39586,-29.1516,75.5177,6.95329,154.568,-28.7294,124.897,39.8026,180.027,-48.2494,28.0069,9.84892,-39.5242,-54.8427,-101.204,-119.202,-3.46182,-55.9185,486.836,1343.04
0,2676.14,611.724,76.4605,764.536,305.85,0,229.322,229.371,0,0,0,0,0,382.229,0,0,1070.41,0,0,229.394,0,0,1529.16,0,0,0,76.4645,0,152.9,0,0,0,0,841.024,305.814,76.4392,458.749,0,305.765,382.288,0,0,0,0,0,0,0,0,0,152.929,0,0,0,0,0,76.4766,0,0,76.4573,0,0,0,0,0,152.882,0,1682.08,917.58,0,1299.76,305.864,0,993.918,458.795,0,0,0,0,0,305.864,76.4573,0,535.18,0,0,76.4573,0,0,993.899,0,0,152.915,305.846,0,0,76.4573,152.932,0,0,535.176,458.736,76.4392,0,0,0,0,382.204,0,535.082,76.4573,458.647,0,993.758,305.775,0,382.242,0,0,229.336,0,305.765,0,0,0,152.915,229.396,0,0,764.418,0,76.4392,0,4205.54,1452.71,1146.61,2064.41,382.321,764.429,1452.82,305.765,0,458.729,152.882,0,0,382.264,1375.98,0,152.921,0,0,1452.79,0,0,994.035,0,0,382.287,764.54,841.098,229.36,535.147,0,229.338,0,31957.2,19189.5,13914.7,4969.48,5122.24,5046.09,4434.13,3211.04,1452.45,2828.62,2828.45,3363.89,3058.31,3288.04,2064.19,764.766,2293.38,2293.6,1376.26,2599.72,0,1223.06,76.4766,2293.4,3058.57,0,3975.67,2217.05,1911.31,1681.77,3670.02,3287.11,0,764.535,764.535,764.535,764.535,764.535,764.535,764.535,458.718,152.887,382.243,305.779,382.253,305.831,535.216,382.239,76.4766,458.707,229.36,152.918,458.77,0,152.882,458.756,229.34,305.857,76.4573,535.192,305.815,229.357,305.779,382.295,382.221,12309.2,688.078,0,1605.68,535.26,0,688.106,305.85,0,152.899,0,0,0,76.4573,0,0,76.4645,0,0,764.57,0,0,305.851,0,0,993.911,0,0,0,0,0,0,76.4573,0,0,0,841.058,305.765,76.4392,305.802,0,458.647,229.337,0,0,0,0,0,0,0,76.4392,0,152.941,0,0,0,0,152.882,535.249,0,0,76.4573,76.4573,0,0,0,0,152.882,0,2676.07,1299.91,0,1758.44,535.26,0,1299.77,458.795,0,0,0,0,0,382.328,0,0,917.469,0,0,0,0,0,1146.85,0,0,0,382.328,0,0,0,152.932,0,0,611.653,305.804,152.9,0,0,0,0,611.575,0,764.404,0,458.647,0,1223.06,382.232,0,305.781,0,0,382.232,0,152.882,0,0,0,305.829,152.922,0,152.9,993.758,0,76.4392,0,4434.94,1529.18,1452.39,2370.27,688.086,840.886,1529.28,305.765,0,458.729,152.882,0,0,535.146,1375.98,0,152.921,0,0,1452.79,0,152.882,994.035,0,0,382.287,764.54,841.098,229.36,535.147,0,229.338,0,31651.3,18960.1,13609,4434.32,4587.08,4816.75,4051.87,3211.04,1452.45,2599.3,2828.45,3363.89,3058.31,3135.16,1987.75,764.766,2293.38,2293.6,1376.26,2446.82,0,1070.18,0,2293.4,3058.57,0,3975.67,2217.05,1911.31,1452.43,3670.02,3287.11,0,764.535,764.535,764.535,764.535,764.535,764.535,764.535,458.718,152.887,382.243,305.779,382.253,305.831,535.216,382.239,76.4766,458.707,229.36,152.918,458.77,0,152.882,458.756,229.34,305.857,76.4573,535.192,305.815,229.357,305.779,382.295,382.221,13073.7,688.078,0,2829.17,1682.14,0,1376.29,1070.41,458.647,535.272,917.492,0,458.647,0,305.765,0,1452.5,76.4573,0,611.632,0,0,76.4645,0,458.647,1223.45,0,0,152.915,305.864,0,0,611.529,152.932,152.882,0,305.815,0,76.4392,688.189,152.882,76.4392,229.337,0,0,0,0,0,0,0,0,0,152.882,0,0,0,0,0,535.125,0,0,0,0,0,0,0,0,0,0,1911.35,305.85,76.4605,1223.09,152.925,0,1146.73,0,0,0,0,0,0,76.4645,0,0,1376.26,0,0,0,0,0,917.443,0,0,0,152.929,0,76.4605,0,0,0,0,535.23,458.741,76.4392,0,0,0,0,152.878,0,382.214,76.4573,152.882,0,152.882,458.654,0,152.937,0,0,764.515,0,0,0,0,0,229.372,152.915,0,76.4392,611.568,0,76.4392,0,4281.97,1605.65,1452.39,2523.17,917.478,1375.95,1682.19,305.765,0,458.729,152.882,0,0,535.146,1375.98,0,152.921,0,0,1452.79,0,152.882,994.035,0,0,382.287,764.54,841.098,229.36,688.062,0,229.338,0,31574.9,18883.7,13609,3746.21,3822.58,4205.24,3440.3,3211.04,1452.45,2522.84,2828.45,3363.89,3058.31,3135.16,1911.31,764.766,2140.43,2293.6,1376.26,2293.92,0,917.294,0,2293.4,3058.57,0,3975.67,2217.05,1911.31,1146.63,3670.02,3287.11,0,764.535,764.535,764.535,764.535,764.535,764.535,764.535,458.718,152.887,382.243,305.779,382.253,305.831,535.216,382.239,76.4766,458.707,229.36,152.918,458.77,0,152.882,458.756,229.34,305.857,76.4573,535.192,305.815,229.357,305.779,382.295,382.221,13838.2,688.078,0,2141.08,994.052,0,1299.85,688.185,0,688.187,458.795,0,0,0,0,0,152.932,76.4573,0,305.808,0,0,229.379,0,0,458.805,0,0,229.372,305.846,0,0,0,152.932,0,0,382.243,458.696,76.4392,305.812,76.4573,611.54,152.915,0,0,76.4392,0,0,0,0,0,0,0,0,0,0,0,0,688.18,0,0,0,0,0,0,0,0,152.882,0,2752.42,535.252,76.4605,2675.82,917.379,152.882,1223.14,0,0,0,0,0,0,76.4645,0,0,1605.68,0,0,152.929,0,0,1529.03,0,0,0,152.929,0,76.4605,0,0,0,0,305.836,458.736,76.4392,0,0,0,0,611.575,0,764.422,76.4573,458.647,0,1452.45,458.654,0,458.707,0,0,458.672,0,458.647,0,0,0,152.915,152.932,0,76.4392,1299.54,0,76.4392,0,4281.97,1605.65,1452.39,2752.56,1299.72,1528.85,1835.13,305.765,0,458.729,152.882,0,0,535.146,1375.98,0,152.921,0,0,1452.79,0,305.765,994.035,0,0,382.287,764.54,841.098,229.36,688.062,0,229.338,0,31498.4,18883.7,13609,2522.91,3134.53,3823.01,3058.03,3211.04,1452.45,2522.84,2828.45,3363.89,3058.31,3135.16,1911.31,764.766,2063.95,2293.6,1376.26,2293.92,0,764.411,0,2293.4,3058.57,0,3975.67,2217.05,1911.31,1070.19,3670.02,3287.11,0,764.535,764.535,764.535,764.535,764.535,764.535,764.535,458.718,152.887,382.243,305.779,382.253,305.831,535.216,382.239,76.4766,458.707,229.36,152.918,458.77,0,152.882,458.756,229.34,305.857,76.4573,535.192,305.815,229.357,305.779,382.295,382.221,14602.8,688.078
0,1126.8,-689.663,-83.513,510.771,30.2592,-97.5124,137.775,127.522,16.9033,-347.909,-21.8271,-91.1544,-183.041,85.0099,80.7282,228.149,252.577,143.231,-94.7502,-286.139,286.228,777.32,-5.2945,-48.4037,-1.83971,-288.04,27.4348,201.386,105.557,375.757,76.8763,100.611,0,673.302,-392.847,240.312,-184.003,-10.8294,-324.618,-14.1095,-116.813,59.5255,91.0429,196.174,-36.2727,-101.639,96.9962,29.0773,38.5501,-42.6844,57.9393,62.8189,-112.516,-116.687,343.756,-11.6906,0,-23.1597,195.549,44.9668,-2.36619,38.9332,-175.027,-64.1865,-88.2795,0,576.024,604.337,-221.11,849.472,-86.3516,101.575,14.9342,204.78,-239.816,151.559,104.286,-25.2975,238.164,2.07299,-36.371,-48.6,-42.2907,70.7492,167.144,818.485,-74.5747,-867.083,430.918,59.9823,36.6331,-223.182,220.361,208.479,-29.4657,575.166,2.52446,-37.8302,0,-561.244,-23.9513,224.806,0,0,0,0,113.657,29.8974,169.512,-584.578,-114.797,-385.876,-284.627,-449.55,142.29,-79.2779,8.10976,11.848,-56.7522,-147.992,269.109,0,63.8922,-16.3141,-16.5826,-316.473,40.0793,-538.71,-1171.51,6.05093,-16.0106,0,93.7984,-282.058,-240.713,-841.864,-105.632,562.504,38.4119,-520.732,190.687,119.353,283.239,-317.666,-67.5842,-703.531,332.008,-147.864,-271.923,118.845,234.9,-176.176,-47.7086,-187.024,7.99003,-26.3335,85.4504,-742.599,-152.207,356.413,-294.259,89.4537,-153.343,-199.381,0,-204.134,91.8555,-171.772,-113.548,58.4218,-419.127,638.049,48.9215,634.408,-338.172,141.325,494.701,438.36,-441.649,145.544,218.303,273.817,474.526,180.431,-173.916,-197.326,-178.056,28.9597,-95.7548,-90.8173,124.971,-221.245,25.9331,497.247,609.043,-569.985,-62.977,0,-14.2665,-14.2665,-14.2665,-14.2665,-14.2665,-14.2665,-14.2665,-14.2665,105.234,-23.2719,-10.5342,-9.0486,-6.16169,-128.796,10.1437,43.0829,7.16989,87.3401,-110.525,1.29859,-29.8061,11.5403,53.8926,-4.66176,-1.00473,-95.9512,-39.7162,82.7943,-16.2988,29.1563,-70.2064,-14.0685,-460.069,-728.31,0,442.983,-315.698,-5.29307,-134.157,-31.2219,146.007,619.035,222.709,-216.025,-37.8272,-143.875,-243.483,-295.391,-592.347,110.228,184.087,204.069,201.208,256.46,188.156,67.8714,183.327,-240.041,-6.53488,38.8895,-357.133,97.0562,54.5396,-209.155,717.635,82.017,-22.861,0,-109.582,-400.301,-200.605,361.381,-31.8952,-538.768,-82.1479,-20.6988,335.953,-192.341,-41.4066,-58.2543,122.226,73.7621,24.9645,88.9522,49.5015,69.8467,27.8597,64.1396,-56.3934,-115.224,170.496,26.5661,0,318.16,228.384,43.7405,-289.311,65.1959,74.1982,45.8597,0,-50.8948,183.038,133.982,862.935,-82.5208,-2.57184,-1004.79,-328.802,-92.3074,141.943,-66.1741,94.7131,-201.341,436.271,232.106,33.2263,388.267,-9.7124,121.725,-43.4352,-26.4829,199.276,656.891,-3.1146,-51.0014,82.2995,-290.782,-7.10726,-9.55546,233.339,-276.07,-85.2206,0,-42.5611,-414.314,112.655,0,0,0,0,-76.3296,-101.871,65.3482,-74.4028,-162.035,-40.3269,-165.515,-558.426,140.431,-388.023,42.7146,-46.706,-442.89,24.9333,455.999,0,120.815,-1.83971,-325.48,-186.463,344.202,335.983,-399.49,-32.2806,82.2968,0,526.458,-153.438,-381.463,-557.807,-186.965,740.81,-130.714,-254.418,-3.4596,-383.106,314.68,-377.435,-288.949,-627.259,30.5711,-55.8834,-161.946,87.2886,186.995,-237.127,-198.001,-192.375,155.367,138.054,49.9975,-494.539,80.8663,393.986,-14.2143,162.133,-120.941,-297.337,0,-218.428,20.8918,-214.915,59.4163,142.108,-650.604,673.471,219.42,198.016,121.412,-195.328,-327.719,-210.288,343.975,-237.588,-306.864,167.59,-240.808,-80.132,13.2973,-266.001,419.598,-318.738,197.44,570.316,140.338,-172.941,-69.6158,230.355,78.2495,422.318,-118.378,0,-23.8119,-23.8119,-23.8119,-23.8119,-23.8119,-23.8119,-23.8119,-23.8119,33.7855,-39.2046,-47.0389,-107.421,-91.4071,-59.7794,-39.8143,8.39491,14.9083,13.2861,-99.9521,-45.7859,-45.4073,84.0769,47.915,47.1563,60.6362,-62.6416,-24.8694,75.7765,10.1811,80.9096,14.9241,-42.9358,-147.815,-881.749,0,-444.449,-236.179,-328.597,-163.122,-85.26,82.301,-28.8517,611.708,-161.689,594.307,-44.5869,-36.3069,-59.1331,443.741,-803.496,404.412,310.608,131.325,137.637,-662.839,-410.759,-257.049,-151.868,195.289,-31.1213,-139.217,-201.573,381.458,-25.3447,491.741,-284.843,16.7301,0,-158.097,-1142.73,-76.0741,1031.49,-51.9003,-562.009,187.668,-187.137,135.809,-735.704,-336.015,-150.737,11.0413,484.106,-15.0733,82.4731,60.9379,46.1675,70.0774,-77.1734,-187.118,615.873,654.656,33.9414,51.6327,58.7461,184.604,52.1611,108.503,44.3752,33.5338,161.571,0,94.7931,47.5243,5.50824,195.674,-168.681,-110.095,-351.479,-710.728,28.2776,246.649,-150.689,-45.0299,-95.8008,-586.559,-39.7532,47.5586,-41.428,-35.6622,352.023,899.235,322.217,497.37,-108.466,-10.0429,84.5783,262.008,-62.486,162.296,558.417,449.005,-217.383,400.558,0,-199.553,-92.8212,-329.919,0,0,0,0,545.037,-61.6042,-686.733,319.408,-309.658,-224.253,-422.664,797.155,-46.6845,72.0803,144.798,-57.5262,-521.119,382.468,248.51,0,-131.202,59.2181,-391.401,129.449,20.6347,-496.167,75.5733,358.336,-467.586,0,-700.377,235.07,-559.351,-606.092,-53.5238,127.702,-263.74,-742.395,-219.47,67.006,446.313,-460.448,-428.829,-104.289,-843.134,27.9219,-121.856,110.32,173.563,-292.079,-315.759,207.832,-345.687,203.218,75.5739,-606.166,387.527,647.253,-19.9473,276.89,-84.1574,-484.366,0,338.119,70.3074,690.822,49.6848,174.538,223.013,-220.281,252.482,188.111,57.4009,166.368,-55.7609,-46.6774,448.168,144.004,-56.0809,-326.552,-288.55,-200.937,126.757,-402.026,-475.901,363.859,125.292,-1.46646,220.749,-479.218,-67.9687,-449.415,-598.299,200.439,-82.8758,0,-23.1034,-23.1034,-23.1034,-23.1034,-23.1034,-23.1034,-23.1034,-23.1034,23.8331,-43.6997,-9.15406,-105.893,-84.3652,17.5829,-76.0298,45.96,-8.1531,9.07217,-93.5258,-52.7218,-61.7214,67.5556,44.3875,41.1971,22.917,-64.391,1.85082,119.385,-27.6569,61.288,0.59251,-36.2411,64.6027,-855.398,0,-1040.7,-887.615,-40.9264,-1012.09,-158.686,-798.775,130.066,33.1343,17.1972,-366.676,-88.217,-100.801,-444.709,-379.539,230.557,204.041,314.728,-70.9164,39.5479,-89.3767,311.864,38.8147,-230.81,-104.404,47.9544,127.504,53.9298,457.476,96.8795,684.592,-409.536,-294.162,0,20.0907,-13.1332,-412.639,565.024,-185.4,-683.675,-363.939,705.158,242.675,-160.414,-94.4496,-49.0869,58.8932,96.8293,-233.428,270.406,563.372,-13.1679,41.6223,-254.946,-323.252,501.02,198.675,-55.1185,-1.83971,726.842,170.246,33.8683,69.7297,420.878,-7.15134,203.914,0,-1119,-105.741,-225.726,605.626,-426.792,-405.909,279.231,789.197,188.877,98.8075,-26.6034,-241.233,-34.949,457.461,-82.9415,222.825,218.218,58.3795,-36.0189,22.7067,-229.631,634.388,34.3564,-3.11894,16.816,76.4144,-122.938,21.4796,-63.1451,-203.586,480.225,451.161,0,178.069,-1049.29,119.553,0,0,0,0,225.325,-166.784,-103.635,23.6868,-347.278,-74.1174,342.839,422.2,26.1431,-734.902,310.818,-8.01405,-165.495,353.175,-262.976,0,222.211,97.0781,-739.809,-24.4801,129.354,23.7803,-453.403,-14.7838,-258.984,0,733.379,110.649,-387.348,-544.748,-118.876,-413.922,414.475,-1.4841,-108.248,434.634,498.292,-487.079,-185.096,162.986,-630.795,-133.891,-275.63,147.264,165.546,-452.41,-275.487,261.641,-481.231,351.907,12.5586,-660.041,250.706,339.65,-44.6267,20.7092,-9.37633,-489.123,0,353.989,552.125,517.19,580.805,656.471,2094.01,-941.519,-2042.93,-432.395,-342.216,-63.6718,48.037,-477.043,-8.35668,-186.458,-16.7999,-125.295,78.1433,20.2987,-30.9444,106.861,86.1615,680.556,-544.895,-459.728,-346.181,-340.44,32.3733,-72.0316,330.611,-700.492,297.366,0,-29.1605,-29.1605,-29.1605,-29.1605,-29.1605,-29.1605,-29.1605,-29.1605,4.00573,-50.5725,-43.7685,-112.743,-115.702,57.2168,-53.0884,57.0159,11.2726,46.9053,-65.5383,-97.0465,2.53838,103.327,21.8613,-13.9707,-29.6406,-89.3337,1.85082,98.906,4.25386,68.9421,-66.3276,-2.80768,714.441,-922.319
0,-68.1455,-40.881,281.805,375.484,71.6487,-246.942,219.824,-275.628,-234.883,195.199,102.788,69.6293,-93.8012,458.96,567.488,318.927,93.4672,0.686541,31.4443,-17.832,123.593,196.393,-212.895,-152.244,-0.40883,40.6282,-315.148,-98.1421,56.8344,306.031,-45.8181,55.8301,0,421.991,112.564,-420.427,147.863,-29.1673,-14.6074,-167.605,3.41575,-211.077,-58.2439,-72.3018,183.281,-52.2288,-127.72,-61.8144,-70.2105,-71.205,60.9792,-5.81451,-70.0533,-2.53895,77.2817,-248.422,-3.95241,-0.823501,-209.637,74.2459,-5.04526,-19.0134,86.7423,-3.39004,-121.825,0,-209.395,483.776,213.738,286.872,255.95,-15.2615,-41.1192,234.019,-58.0912,-155.128,-25.1598,33.6643,92.1862,-107.431,-183.833,-163.33,270.675,-27.661,-110.375,-83.8204,-45.0528,75.7159,72.0166,-61.7288,0,60.1766,-219.732,18.1661,361.358,165.24,-60.0519,216.498,0,11.4328,-114.474,276.912,0,0,0,0,379.552,-155.651,-341.027,32.6834,-98.8532,-118.549,-4.25161,-439.857,139.174,-73.8763,-103.94,0.927115,55.4645,-160.735,-484.527,0,-109.468,-54.8377,-229.284,408.406,-116.905,-129.057,-506.093,-15.5314,30.5742,0,-607.452,-376.55,118.039,-270.721,71.3751,93.0468,773.702,-239.487,-67.1691,-379.559,-291.819,158.685,-17.2582,207.463,-25.4979,-70.1973,177.822,0,19.7971,0.130886,-95.8979,-383.263,-33.932,-146.652,118.547,396.911,-63.737,-172.952,-6.89899,-61.1516,47.1752,-74.3132,0,46.4777,512.721,-472.615,63.5174,-465.838,110.051,-549.821,115.506,290.97,319.798,65.5814,-166.983,-247.953,-487.489,-430.538,-228.286,-30.2757,1.10205,-260.62,182.908,-307.651,579.935,176.698,166.634,477.018,317.556,-233.825,561.113,-92.2383,-344.481,-87.7245,484.132,0,-12.0041,-12.0041,-12.0041,-12.0041,-12.0041,-12.0041,-12.0041,21.7377,-12.0041,-42.9843,-35.0138,17.368,-44.0671,-8.6749,-57.4052,-9.31971,48.8294,-6.88334,23.773,6.67981,-48.8283,-18.6904,-41.4492,-30.9132,53.9496,46.3556,-36.5561,18.5466,33.6495,-23.4906,-16.5341,41.8846,-346.841,-55.2168,0,260.884,340.127,5.18803,-3.68836,44.2432,-148.129,354.951,665.037,8.02013,-191.046,-357.907,-5.25588,-164.073,158.503,-527.135,-109.97,306.987,23.682,-37.5647,-218.443,-239.729,-364.241,81.7754,-144.779,-54.8377,-376.676,258.261,49.5938,393.365,-137.747,3.84429,175.064,0,-839.232,130.221,194.255,258.023,-53.4608,-141.111,21.5356,130.85,-240.545,-33.4429,-49.0246,-9.79621,84.0443,-59.2018,-53.9118,-9.82289,-90.2692,0,-33.4177,-49.634,-68.5757,119.636,-286.761,-7.23731,-0.952134,-51.7315,-25.68,-0.469435,0.590545,-118.161,-0.969435,17.2895,0,-570.259,60.7483,222.157,420.656,245.927,-178.346,-224.641,-205.772,-47.9843,-213.006,-1.29763,79.642,166.035,-129.302,166.372,-64.0367,-162.241,-54.9432,-58.5227,-70.6411,-29.9492,-239.127,-354.355,-26.1347,-0.823501,33.5108,-29.2387,-107.441,-131.264,89.5212,-68.2309,-143.478,0,233.658,5.0389,332.911,0,0,0,0,-3.31582,-457.023,55.2076,286.48,130.812,-219.684,196.76,486.448,181.864,60.7869,-87.9949,4.53837,-54.3241,85.0181,73.0741,0,15.9345,114.083,-81.6128,-238.243,-243.795,-53.3674,173.212,-6.07862,164.575,0,-432.399,-345.505,-391.578,-333.51,61.1904,86.258,340.1,113.749,249.078,-355.581,-168.243,127.366,108.552,138.616,-24.8185,-50.0761,266.62,0,163.771,268.071,-92.3491,-583.382,476.116,-103.264,312.055,272.873,-79.7528,-196.144,-34.9373,193.869,33.1865,-201.452,0,-17.2002,528.785,-190.904,59.0482,-422.438,323.76,-523.957,-125.115,-204.168,-462.418,-216.571,125.55,80.9881,671.29,-24.0735,39.3911,-570.258,356.82,266.819,-413.821,-289.691,-157.74,532.877,90.4598,-300.043,-442.05,430.596,47.0856,251.738,-359.412,-152.32,-86.0007,0,-15.5672,-15.5672,-15.5672,-15.5672,-15.5672,-15.5672,-15.5672,57.5434,-15.5672,-125.75,-62.8282,44.2574,5.27954,100.408,2.28802,10.7279,-6.30038,23.5252,94.434,-53.8791,-63.5276,-125.974,38.1976,-17.7987,6.90727,-50.8482,29.0586,-45.3789,57.6415,-10.2283,-21.2786,-26.5811,318.925,-111.461,0,-342.992,426.634,-41.5648,-130.822,302.721,-106.225,-197.823,-437.974,-74.5816,-144.941,29.3436,21.7545,41.3673,113.653,229.147,-32.8448,271.164,-38.3956,-92.1889,201.36,43.3321,-468.013,-179.212,57.3904,84.9913,-371.949,-114.775,-63.1108,-28.6816,227.684,-76.7201,-88.1815,0,-902.173,336.982,43.3789,563.671,-27.9216,-98.4206,-324.359,218.775,-471.766,179.06,46.7693,54.9858,-82.0218,377.177,17.9003,-27.8523,45.4716,-14.3404,-13.6461,-99.4828,-38.6463,39.6705,-135.805,-5.0777,58.7975,-245.141,-4.52646,0,31.6501,35.8854,-17.3467,-130.019,0,150.701,121.28,834.945,185.098,-127.807,160.714,694.991,-219.237,-144.735,45.3398,115.346,73.7518,-68.8589,-496.291,188.709,82.3288,-151.896,34.067,18.034,-332.44,-236.851,-123.952,-432.908,-144.685,-10.627,-154.915,243.454,-152.193,-308.36,-213.12,-45.4072,-16.7999,0,-59.5011,36.5454,74.4672,0,0,0,0,579.685,-296.763,-406.078,-270.872,77.1743,100.803,133.763,27.4693,-45.9605,-191.379,-58.5323,3.33812,-308.103,-202.891,117.722,0,-53.0889,-31.7349,-16.739,-9.78621,-315.316,552.485,-305.172,91.5626,570.894,0,-134.456,386.509,-576.625,-26.0791,60.2132,-252.055,-509.585,81.804,280.619,-492.264,-0.840462,98.053,95.571,127.87,168.29,-249.624,393.852,0,37.7187,118.209,-84.4966,-129.717,701.071,-27.5138,273.867,131.919,-146.843,-105.548,-9.17733,137.194,-20.7718,-75.0398,0,326.759,14.4546,82.1193,-9.09192,-254.711,377.034,164.526,-251.871,-12.4939,-269.807,430.861,52.975,-417.494,154.116,89.8104,415.472,352.614,171.484,-38.0239,261.414,332.007,-183.796,-289.571,-46.465,363.013,301.407,-105.207,-229.894,-261.353,626.099,-43.5502,-843.899,0,-5.93817,-5.93817,-5.93817,-5.93817,-5.93817,-5.93817,-5.93817,-2.8818,-5.93817,-119.789,22.9728,37.1101,-33.3858,40.4557,72.1326,24.7268,96.2697,8.19021,74.0245,-15.9043,-18.7546,-77.6351,-61.4866,-23.9098,71.2152,-7.70932,-3.97217,-87.8396,18.2243,47.1671,-13.4452,-99.2193,127.446,4.12035,0,-809.833,317.888,536.855,55.7778,18.5927,-248.975,-123.738,103.23,14.5906,-197.219,169.04,92.952,-255.088,-761.445,231.122,81,-202.305,48.6915,-125.517,-167.529,-228.055,-108.244,-782.161,-65.0968,-31.7349,-530.081,-2.74239,38.0446,-42.1092,-282.077,-99.8858,-183.988,0,299.579,333.899,737.584,546.912,-115.253,51.6577,188.527,216.74,-434.127,138.45,164.015,-28.0358,55.4992,439.263,214.757,7.13041,193.049,-43.1884,0,157.219,85.7016,-50.7749,-271.235,45.4754,-1.88269,-175.802,-162.683,-20.7597,-21.0414,104.302,-14.861,335.382,0,-983.398,183.997,400.185,197.765,151.125,-158.15,-98.5628,318.46,75.137,-192.481,-34.261,68.8707,113.05,-163.21,-125.528,-41.1675,225.51,-38.0284,4.68885,-51.0941,-29.4647,-80.7111,137.059,-145.533,47.9488,-329.586,319.645,-98.6877,232.115,339.468,-31.2573,-98.9679,0,456.868,531.95,102.159,0,0,0,0,-456.404,-1114.51,9.61382,-230.547,151.404,-105.681,481.306,-208.822,-111.434,-215.298,-63.936,0,-507.698,-279.73,-528.131,0,-50.7386,23.9165,-108.073,-108.763,-598.686,131.48,-18.1583,61.0464,258.481,0,266.376,252.617,-656.552,319.215,-107.299,-45.7742,-860.464,-345.22,689.685,-247.557,-87.2498,88.4306,195.083,271.844,-1.74515,-179.928,368.809,0,-92.642,197.148,-71.5468,-131.001,1200.46,74.939,260.799,-98.9874,-417.191,-143.657,-173.485,177.046,-71.7787,48.8308,0,82.0161,-371.293,-173.026,212.29,11.45,544.215,753.194,100.857,274.149,792.427,112.613,212.347,200.715,123.808,458.421,-17.2231,-104.561,-215.281,-14.062,32.1299,244.906,143.079,236.815,-60.1428,-257.786,77.0804,-144.23,-55.8043,275.526,636.621,-137.35,-861.684,0,-7.40288,-7.40288,-7.40288,-7.40288,-7.40288,-7.40288,-7.40288,-6.23366,-7.40288,16.0408,-8.20624,55.5554,19.959,32.6701,56.8205,-18.828,53.8534,-33.6704,63.2716,-34.0639,-27.8188,-72.9192,47.6124,-22.6805,17.9998,-89.8412,-32.1742,-90.5674,60.6666,91.2004,-34.1363,-111.136,-342.143,19.4115
0,-738.099,335.793,-230.933,-321.492,-53.3351,-138.585,212.581,342.724,57.5709,42.4107,-68.4991,-37.6317,-75.1785,86.8051,408.148,277.985,-223.366,79.8942,-84.4986,192.593,-468.438,-422.571,-281.918,27.3229,-9.01534,161.147,86.6715,-92.017,151.365,18.9868,18.6543,631.471,0,262.062,170.601,33.8195,637.704,-16.1175,-115.076,-419.708,-57.7826,-121.314,-82.4118,-81.4132,-37.8602,-5.72616,263.005,-136.884,-39.6375,376.183,-58.9706,-7.9878,-91.7814,124.191,222.946,-113.102,-12.6899,0,26.3935,-51.1867,0,27.6753,191.294,-6.41972,-101.237,0,-260.456,-115.32,-233.452,9.24314,-70.0955,-213.877,358.841,-29.9351,363.295,-38.6899,-162.511,-78.4072,-41.0932,235.279,195.836,55.4531,-242.806,-17.9013,92.6161,-570.984,-265.241,-374.634,-250.404,-3.18119,0,59.6837,-27.1117,-17.1643,-115.707,23.7193,-56.0503,-264.222,0,-269.304,-306.525,64.4378,0,0,0,0,251.812,-32.4484,51.7604,20.818,204.352,9.58946,762.326,-64.4184,-110.576,-136.854,79.4926,1.67481,-138.052,-305.403,149.526,0,47.0657,-0.933635,-203.47,188.072,-51.084,153.537,149.349,-35.021,-125.122,0,203.462,-716.945,89.5301,46.3048,189.507,417.138,-305.088,125.02,-457.624,-379.995,150.733,109.707,48.2049,27.8784,-368.894,95.9012,570.888,-131.695,-172.53,-140.699,113.201,81.8141,171.698,8.01496,-83.6348,399.149,-43.2056,372.7,45.632,-293.646,137.681,197.764,0,-372.55,375.547,323.405,-111.769,-30.0593,73.9169,488.7,-788.503,-101.257,315.965,211.144,16.1582,-501.879,-8.98281,-665.844,350.458,-114.485,202.647,225.455,87.6999,703.795,-413.647,354,138.405,-56.8061,127.863,213.443,333.224,-129.229,121.869,-397.83,-202.414,0,2.48746,2.48746,2.48746,2.48746,2.48746,2.48746,2.48746,-15.6665,-50.325,2.48746,5.93291,17.6318,-56.6082,137.538,-63.2056,62.9583,31.3844,14.5863,-15.9974,-66.1224,-10.769,-80.2236,-15.3325,20.4937,-15.039,49.1273,41.0745,54.5659,3.92846,10.7035,-38.2757,0.0271608,36.3805,51.5759,0,-313.684,56.3277,-148.795,-281.179,-85.0326,-604.553,-310.256,247.194,-107.499,126.685,91.5103,-131.832,-69.9511,60.319,-430.609,-45.2084,-98.8323,-28.396,245.849,-399.428,-268.025,325.827,-364.29,-33.5656,-9.45408,-141.222,-174.824,-4.48189,-336.197,516.035,21.9505,-26.1468,0,-17.6472,559.335,171.101,-111.926,-47.7314,251.963,516.845,-49.2553,-183.317,-427.644,61.6567,170.346,-14.3692,-116.176,-224.881,81.7854,97.1498,-19.4784,-16.3309,-33.3729,-18.06,-197.124,-160.926,-3.60453,0,-103.031,174.916,0,16.071,-251.32,-13.6448,-308.135,0,-538.013,-185.371,29.418,-119.952,-105.85,-153.344,-32.9561,473.578,508.258,475.607,51.5051,193.844,-103.488,747.376,535.505,20.9158,-126.143,45.1986,-51.4047,-134.083,-121.042,-237.318,-338.479,-9.11686,-0.933635,-169.47,-109.147,51.7919,-127.863,694.415,-64.9838,152.56,0,52.6621,-170.102,-66.4143,0,0,0,0,-261.29,97.2559,243.872,-507.778,-26.5103,-52.6684,436.566,189.503,52.4249,-229.426,108.692,4.89927,143.6,-478.085,45.0545,0,18.8436,-4.51289,372.235,165.076,-173.822,446.86,9.21709,8.26345,109.723,0,161.624,-476.1,35.4568,-60.8932,153.7,402.082,310.826,-170.26,-181.832,-278.713,90.8003,210.836,49.2435,307.658,-594.209,179.707,542.818,-142.778,55.509,-601.768,-34.9765,-234.03,134.99,65.9599,-123.058,594.992,-70.7077,465.563,47.7481,-398.278,145.102,464.189,0,-207.456,-17.1791,-65.3453,-256.183,113.771,137.265,-82.3179,302.301,137.176,-195.34,-333.251,180.375,442.042,-154.4,-148.397,-96.9495,297.638,-127.621,-147.346,620.467,-508.436,368.462,-668.096,-477.053,377,-137.102,-93.7834,-20.4531,104.656,1268.38,-139.44,32.6741,0,3.60703,3.60703,3.60703,3.60703,3.60703,3.60703,3.60703,54.2267,-6.94196,3.60703,-55.6289,59.7058,25.0808,125.226,-67.3089,19.2675,56.0014,-17.6818,-38.9134,-40.4585,-144.821,-13.5966,-175.522,-43.8536,23.904,31.4372,-8.2791,31.8597,4.80224,172.143,-5.18294,46.9983,-90.0736,75.4638,0,473.982,-168.845,-123.602,-479.257,-174.182,-335.078,-179.583,603.295,188.047,-104.417,-166.105,-260.36,-111.519,149.696,11.0183,58.2268,55.9135,6.29707,0.131898,175.666,-530.956,-620.109,-424.019,20.2502,-1.85155,155.656,-26.3102,92.4106,53.0593,1192.54,-62.8519,301.205,0,38.211,-73.4089,70.8338,768.532,-87.1909,-223.139,496.05,-61.5346,249.758,-391.585,105.323,-78.5956,-39.7403,240.945,-62.3023,-96.7593,188.083,36.8085,-24.1583,-75.0476,-25.7751,-76.2828,-195.6,-3.08291,0,160.508,-100.109,0,-94.2034,33.951,-16.1454,-93.6931,0,-174.429,-426.893,-30.3906,24.5952,-143.152,-164.494,-24.3809,251.853,333.375,233.298,-172.986,-74.1273,-70.5518,1383.71,74.9277,103.548,205.733,-3.50445,-64.9414,811.61,-185.637,755.391,-429.901,-8.20695,-4.04833,6.91292,56.7403,-105.369,12.889,583.873,-16.2688,-6.26149,0,-140.278,439.698,-469.783,0,0,0,0,156.402,-328.591,57.178,110.8,550.006,15.5722,-729.375,-80.415,23.6731,-1279.25,7.94958,0,-333.959,-448.037,-186.232,0,45.1877,-9.45408,-276.814,88.6445,-106.397,58.1325,-553.817,-7.3331,-165.198,0,-853.304,-63.7127,20.9575,254.039,230.603,171.97,-337.154,-210.016,97.9128,-16.4833,-173.157,377.382,140.8,27.5752,-526.435,295.268,353.361,-157.042,48.179,-145.529,-173.593,-61.552,17.5885,45.7139,-147.659,615.319,-258.204,379.783,-14.4141,-183.28,156.399,141.721,0,27.0381,316.739,475.951,-303.4,227.126,618.657,-149.311,-276.839,39.0189,281.121,390.066,397.401,-387.295,410.421,-51.2241,-110.386,-257.186,214.601,7.91656,70.1539,-238.606,110.125,998.523,43.7431,-224.21,-366.919,-412.584,189.822,-159.256,-32.0696,59.8873,-240.025,0,6.65061,6.65061,6.65061,6.65061,6.65061,6.65061,6.65061,46.316,26.149,6.65061,15.6935,91.1705,-45.2733,145.15,-63.443,27.2573,-60.2323,19.2982,-52.7084,50.2894,-162.318,-23.5378,-5.8345,14.3605,-38.7223,28.2832,-69.6153,43.7323,-25.8837,92.3529,10.461,-3.09043,-256.216,18.2158,0,865.235,333.977,110.036,476.532,-263.472,-579.667,-25.4136,-52.1143,111.472,929.493,-12.5381,51.4959,-27.9496,836.246,63.2128,38.0208,-752.38,142.423,-100.138,615.606,-533.315,-272.202,-448.976,-87.5818,-9.41224,-282.28,12.0688,-114.436,44.4356,817.592,-71.4371,-272.128,0,-258.647,-631.015,-165.982,-843.308,-183.921,-431.484,56.1492,-482.411,88.209,-1577.73,-75.0076,-99.9301,-30.9665,-77.4438,-72.6476,-39.5335,-51.5334,-55.6242,-46.9981,-492.419,-168.527,-275.32,-215.747,-0.338094,-32.2707,12.866,-308.918,-27.4987,-68.5373,-655.697,-2.54797,-99.872,0,-146.251,150.604,-48.9243,-389.263,-213.609,-165.08,61.42,392.149,-263.861,622.724,3.35106,-251.648,-39.2541,1059.88,57.683,10.626,-374.11,-80.2082,-162.814,83.2861,-1.68091,343.415,-531.444,18.5946,-8.18985,-61.327,-352.918,1.31891,-397.539,1688.12,-5.69524,231.608,0,-231.046,273.928,192.529,0,0,0,0,744.264,261.749,214.345,84.8967,112.865,-90.3879,398.048,-260.369,182.587,122.471,-77.6324,0,1833.25,-888.236,311.185,0,112.726,-0.453354,430.156,441.284,72.6061,409.805,583.112,-76.4308,24.1076,0,158.073,83.5452,318.727,-35.6809,201.591,-50.2669,250.202,-307.098,97.5334,337.188,2.62105,353.573,36.6896,-117.308,119.277,178.54,222.59,-161.967,-180.382,67.7429,-252.33,49.8373,-58.5595,-107.069,-89.5785,541.569,-278.847,271.84,-59.6638,-692.915,158.441,132.831,0,439.734,-233.069,-262.811,-76.3045,536.001,1339.76,-541.567,276.756,376.698,-525.219,-275.123,61.0137,-58.7538,-211.556,373.999,-62.8478,-210.875,-89.498,-0.770253,-178.261,58.9223,135.591,40.6512,44.7697,45.7958,242.616,-655.431,-125.599,133.004,-218.672,76.5195,-612.365,0,9.57381,9.57381,9.57381,9.57381,9.57381,9.57381,9.57381,57.1545,41.6825,9.57381,-23.0833,22.737,-21.0622,183.931,27.3687,30.319,-92.6029,-14.2249,-62.065,192.92,-174.799,15.4119,-153.643,-1.88991,-10.8966,85.5663,-119.464,6.00273,-5.42962,148.588,6.79736,-53.1538,-45.5258,62.4812
0,-155.805,68.8888,119.702,223.232,195.864,237.615,-11.1486,-3.27284,16.759,-16.1095,-98.0424,-10.7368,-6.72163,-92.5205,-86.2274,-2.45074,-119.789,-0.858249,-5.66309,85.5982,-10.3928,-62.4453,-89.5038,-11.4201,0,-40.2638,33.4656,-7.37132,28.4454,-103.471,-0.69015,-47.229,0,191.589,-58.8942,-13.3839,-211.226,-1.14231,-24.4987,88.0365,-5.36263,51.3946,-10.6657,-18.8254,-2.25003,0,64.0777,-8.07131,0,112.714,0,0,-14.5993,0,-12.8334,-27.5692,-0.369658,0,57.2179,-1.73151,0,-10.9538,127.639,0,38.8938,0,389.308,-139.219,-51.0117,227.947,-32.1221,-55.521,-129.739,-47.7132,-47.5798,-27.8388,-13.1399,57.1847,-15.9965,-108.146,72.359,-1.97614,-28.4032,0,44.2981,114.416,41.5514,-29.9339,-93.5799,-3.07178,0,40.1761,-67.4767,-5.92302,-45.8751,1.68454,-3.91664,39.5078,0,178.449,-89.2193,-46.3983,0,0,0,0,51.934,30.6041,116.297,-125.569,-13.5665,-9.06055,57.3584,-68.0234,0,-102.337,-3.97242,0,74.6989,-23.4807,62.8694,0,-3.08756,-0.479851,-36.8983,16.1328,-6.40583,-12.709,-142.125,-1.93108,-33.382,0,-245.249,136.484,-23.8276,85.8869,43.9831,53.2034,19.9497,-165.413,-130.555,-153.145,-42.0136,-80.2302,38.4505,15.0542,45.3899,-47.6356,63.6592,0,-45.1303,-36.5217,-22.3914,8.10948,-159.892,-12.6322,-8.72744,-45.1074,-3.33502,-26.9288,89.6603,-143.086,-7.97349,-13.2161,0,-62.0824,-27.2137,-82.9983,-251.344,-248.813,-252.444,38.8033,-390.653,2.19715,250.235,257.718,394.53,-65.4057,649.253,-211.279,316.899,160.395,-590.137,489.293,520.544,-333.588,-190.89,-65.2901,136.889,-12.9161,380.813,430.327,-732.547,-53.5786,-359.918,-510.515,710.541,0,-5.27885,-5.27885,-5.27885,-5.27885,-5.27885,-5.27885,-5.27885,-56.0481,-8.48961,15.8773,-5.27885,34.4931,-5.87339,58.5076,-25.5853,26.4836,7.98538,-59.4968,35.5685,74.4136,-34.8302,-22.5123,-54.7398,10.6308,-2.21233,35.396,40.7382,-77.9176,5.83399,-61.9276,-52.5026,68.698,-336.822,128.502,0,229.216,104.223,150.276,-181.063,126.639,233.523,-17.1866,6.61546,-2.47191,-24.4499,-46.2791,60.9934,-21.724,-98.7576,12.0647,-3.47013,-132.907,-2.09706,51.7641,246.103,51.9897,-82.739,-105.664,-6.01578,-0.479851,92.6288,4.86412,-11.2187,22.7155,-72.4052,-1.99685,85.4866,0,588.387,-43.0837,-28.2957,275.991,58.4552,-39.5898,-60.4677,-1.15463,31.8013,-6.07246,-19.7312,-1.95881,-6.08307,-15.1917,-4.45264,0,-30.5145,0,0,-0.96628,62.1891,-11.8635,-25.1003,-6.74064,0,-26.325,-5.79441,0,-16.9128,69.0736,0,-47.3602,0,108.846,-197.37,-74.403,243.496,-41.5942,-63.2558,-4.53414,105.414,18.9322,87.8077,-88.265,-20.8213,-4.3789,37.8545,-59.5802,46.5475,-73.332,-4.404,17.1222,-36.5834,-9.30014,-49.5036,-116.55,-3.42754,0,-36.1694,9.00511,-9.67949,-62.5033,-64.5189,-5.07812,8.38908,0,46.7768,-240.828,-87.0977,0,0,0,0,-10.5902,24.2338,114.259,-196.068,-15.7135,-7.73318,144.357,-121.793,-1.95544,94.58,-3.34303,0,-42.9292,-43.8376,48.7266,0,-2.56286,-2.99437,12.6054,76.8776,-10.1426,-14.2671,-66.4837,-0.69015,23.2321,0,3.99036,32.0393,0.847075,109.436,37.7472,-0.900736,55.6306,-159.704,-9.61395,-175.257,-113.149,-15.039,24.9871,-44.4609,51.1339,-53.8642,142.858,0,82.6571,-61.9913,-27.6358,13.1843,-187.904,-14.4922,-9.77788,-81.8374,-63.1979,-36.8645,55.6304,-227.823,-13.478,-2.63033,0,-296.394,155.636,-119.855,-432.126,-248.478,-196.422,25.2491,371.139,707.707,-125.162,399.884,168.441,-210.358,-19.0485,11.8863,-215.978,-456.098,-97.2908,16.8112,-200.927,-340.213,361.343,286.497,-25.5166,184.726,238.138,184.156,95.0717,68.5329,-136.009,-670.746,28.6956,0,-8.40387,-8.40387,-8.40387,-8.40387,-8.40387,-8.40387,-8.40387,31.1719,76.1177,-12.9619,-8.40387,17.5902,-22.529,0.475321,-11.0741,-22.872,-46.725,-10.7135,2.09623,-9.72945,-30.6808,27.9147,-18.961,-5.87556,17.1474,19.7063,20.591,2.71664,11.6546,-49.8165,-69.1989,8.32081,-329.523,42.695,0,174.244,-157.028,4.45435,-263.325,88.4788,121.881,-121.053,69.1294,56.0804,-48.1464,-125.166,45.2998,-13.1858,-7.6399,223.511,46.5475,-129.142,-8.31675,17.7928,-84.9038,-28.8053,11.353,-137.631,-3.54833,-2.99437,-0.743939,-33.9762,-15.4674,5.88353,-92.069,-5.08966,-23.0173,0,257.182,-45.5123,-18.8349,281.215,-3.25551,-8.48406,-9.06617,-8.8556,-39.4712,-9.24586,-48.0287,-3.01963,-1.63955,-16.0524,-5.34944,0,-29.9187,0,0,-11.975,-2.03365,46.1352,-41.2384,-1.8756,0,51.8578,-8.71091,0,-44.6668,-6.12259,0,26.5727,0,336.63,-176.231,-61.0288,205.274,36.9913,-49.5252,64.2539,106.652,38.1109,245.399,-168.392,-23.1144,-16.0131,223.854,61.0781,-2.18435,-65.7037,-75.9098,-4.10109,333.661,99.7572,334.83,-105.716,-13.2545,-0.792268,29.4188,6.48042,-6.51216,44.9564,68.6606,-0.987562,65.8608,0,102.241,-57.8979,-30.8044,0,0,0,0,-24.0085,16.1008,-45.3958,-183.284,-12.4062,-20.2016,-151.348,-173.316,-9.12559,-80.3803,-1.52733,0,61.1791,35.5533,-116.193,0,-5.06651,0,-79.6884,0.0675619,-20.8287,-74.6573,-134.663,-3.70284,36.2135,0,-117.096,-185.832,-139.957,23.8337,72.3543,-42.302,-88.1222,-47.4033,-44.298,-170.127,-168.622,52.0206,15.7243,-22.865,112.398,-71.7104,26.5675,-13.0705,60.4964,87.2885,-34.7868,69.7711,-217.741,-24.1903,-10.5701,-64.3813,53.2122,-44.9368,89.0729,-322.816,-44.3291,-37.8108,0,-90.8358,580.92,178.862,-361.524,-228.063,-53.9984,144.614,-99.2037,-156.91,4.96634,536.875,-238.52,-438.818,306.978,21.0343,92.8467,-83.2778,475.722,-145.918,509.74,-83.0128,-253.384,102.076,-300.79,-101.942,307.837,-25.1903,90.1462,438.231,363.706,-56.9969,-734.143,0,-4.18674,-4.18674,-4.18674,-4.18674,-4.18674,-4.18674,-4.18674,-0.368984,-14.9256,-2.32949,-4.18674,-17.974,-47.4133,33.2231,23.9356,5.63738,-37.4653,37.6898,-1.81842,89.499,-1.33281,9.25117,-51.0593,-34.8725,-11.6778,24.2322,-0.910283,0.240115,52.217,-12.3303,-11.1106,-68.0173,-193.653,31.1278,0,-420.528,-12.1731,-128.493,-0.247637,26.0936,90.94,-78.8434,-102.672,186.831,-27.8742,-481.255,-29.3552,-27.0677,36.2639,-59.8359,-2.18435,-125.075,-80.9908,-82.5214,166.492,-49.9654,24.1022,-123.557,-4.34961,0,132.536,-45.7585,-12.3612,159.681,-160.017,-1.86446,-11.1978,0,1342.7,-56.8245,-45.6173,217.775,43.1038,-100.028,-99.3367,-14.4074,50.0032,199.793,-115.184,-5.17841,0,-20.5281,-20.9199,-5.47101,-75.2508,-1.1387,0,-36.2007,-3.5136,54.6005,-47.9662,-1.16735,0,28.3362,-26.729,-1.9199,-34.8548,-29.6155,0,9.66454,0,97.3194,-26.7878,-7.96084,-125.936,103.923,-21.0216,155.975,90.7168,-64.1554,-37.7305,-110.189,23.1103,-15.0527,-114.602,-33.182,-2.67603,-217.766,17.0195,48.1895,26.6262,-16.7327,277.433,-132.496,-8.78019,-0.792268,-19.2131,124.155,-6.77377,-95.0277,-18.0025,-4.6904,23.2234,0,-14.1695,-113.987,5.60706,0,0,0,0,162.656,8.15637,110.723,-263.023,-15.3473,-22.6176,185.98,135.174,42.7868,68.921,-2.09706,0,149.044,231.563,132.295,0,-9.82052,0,-13.498,30.9159,-25.2547,-79.9065,126.401,-3.22519,39.2464,0,60.5491,156.909,-109.089,58.0837,123.425,-114.053,-23.7286,155.418,161.101,-168.088,-441.547,147.159,10.7774,-112.463,181.191,10.5692,-44.6565,-11.4691,55.8025,65.6727,-52.2794,129.66,-236.469,-48.3554,-10.7596,-16.0723,-47.4336,-86.7326,110.332,-410.728,-48.1392,-15.7741,0,25.8902,75.1197,247.249,-276.346,-322.525,119.804,93.9257,-134.868,232.777,68.9963,1270.5,27.1444,134.268,143.979,288.372,29.6839,265.736,111.697,64.3779,-248.324,165.886,201.385,-348.05,-82.9338,-87.7999,-292.478,-305.203,212.74,-133.113,380.442,-126.627,-1184.06,0,-3.24746,-3.24746,-3.24746,-3.24746,-3.24746,-3.24746,-3.24746,15.6843,55.5221,14.5075,-3.24746,14.7533,8.03075,11.7935,49.0799,7.27085,-14.4374,3.30212,8.00567,12.331,27.4958,81.8731,-112.856,-15.5407,-10.3171,-18.3509,-27.2024,7.96981,-0.95384,-11.1519,-18.4546,-117.582,-137.098,-94.9089
0,108.253,177.942,-104.648,-198.865,-51.081,-23.6059,-129.701,-116.893,-109.858,-161.228,-51.7723,353,-64.5451,-52.3031,219.148,-0.736169,-3.43047,-1.26928,-4.51214,-29.396,-114.036,11.4323,-74.8402,16.88,0,-21.75,-22.5382,-28.9645,158.187,-201.829,111.004,196.243,0,-86.688,-129.647,-104.302,-78.2549,22.3011,85.7033,-73.1309,-13.2484,47.797,8.35976,-42.887,9.07823,-20.7147,56.7741,-45.0883,-0.999424,-55.7004,0,-12.5567,-18.9928,-62.101,38.3941,177.786,-22.0855,0,131.139,-5.6339,0,-10.8933,-67.2885,-11.2287,-77.3863,0,507.286,-316.842,-108.874,192.428,-48.5577,-72.3934,57.6243,-87.1762,-123.766,68.3543,-16.8724,320.257,-51.7604,4.7746,-73.897,-2.72616,-238.479,0,-67.2591,-74.9921,-84.8379,-290.525,146.732,31.7795,0,-58.3165,179.477,6.57917,137.155,177.604,-96.1178,15.2428,0,-123.755,17.3792,-20.113,0,0,0,0,430.609,29.1016,27.5896,-90.1767,-196.786,-26.2576,118.281,-272.064,-5.55428,148.26,-1.51594,0,-114.748,84.166,45.5451,0,-34.3182,-2.18589,-48.271,-116.419,105.689,-33.4332,360.49,87.3722,-91.7427,0,137.697,-0.321622,399.542,-25.7767,-41.0212,203.672,-10.274,-230.079,213.311,196.238,110.579,-229.794,208.524,-346.589,-93.2136,-72.3717,-142.263,-17.8356,-91.9575,-374.695,-157.694,-36.0963,-58.9503,197.183,-8.45426,448.811,-379.235,60.907,68.9836,-31.58,-10.057,106.143,0,140.226,-94.8168,-75.7643,-284.968,102.09,-209.646,74.1666,-463.548,-240.817,165.657,463.716,-264.034,-217.686,404.453,740.062,335.675,66.145,276.046,316.453,-19.0835,544.181,-464.994,-252.711,-431.409,-508.799,-177.408,226.714,457.004,-59.2505,407.51,-148.015,-287.968,0,-2.03365,-2.03365,-2.03365,-2.03365,-2.03365,-2.03365,-2.03365,-48.0336,-25.425,30.4971,32.135,-2.03365,-17.244,18.0014,47.4947,25.3287,-11.5026,25.5426,-16.0912,-63.1907,20.9678,-71.094,-37.5996,-24.3276,-51.9439,24.248,-11.7635,60.1216,26.0749,64.451,-6.70432,-8.24531,-243.568,-503.905,0,531.941,-300.15,-132.909,-45.9319,-50.0337,29.495,39.8958,677.283,-19.6272,150.497,-146.451,159.251,-67.9912,-52.2126,-161.937,-4.15176,-69.2557,-2.1449,-84.0456,-19.1493,-249.909,-283.712,190.902,-64.3674,-5.03583,137.755,-56.5421,-16.761,-89.196,154.176,62.4056,-150.141,0,-43.5516,41.3477,-131.746,232.372,-30.8306,-22.7087,-120.285,-21.1771,88.5023,-117.337,-30.611,-2.87153,-23.9055,12.9153,-24.2008,0,-68.8855,0,-17.6122,-14.9016,-79.1545,-25.9625,84.0119,-1.82443,0,-75.0684,-39.9162,-0.912381,-3.08739,-73.9302,-12.8754,27.5467,0,-11.984,-301.78,-148.012,148.675,-97.0496,-103.517,-97.9013,-175.376,-67.4758,548.473,-2.03619,58.9757,-30.2632,594.671,-184.265,-1.65672,-11.5167,0,-10.7539,-240.486,10.9386,-67.8894,196.944,53.3564,0,-41.0305,80.3564,50.8495,-27.1053,129.837,-86.2879,153.83,0,-128.084,199.409,-65.353,0,0,0,0,-532.702,-150.652,-608.627,-40.1934,332.948,-72.8049,-213.216,470.164,-14.0987,-124.468,-2.61841,1.92546,-122.478,254.913,79.2863,0,60.0754,-6.2635,-68.1259,100.258,27.9191,308.942,125.646,59.5067,-28.2634,0,-144.708,252.102,295.095,-61.9827,133.626,283.638,96.3791,-300.951,169.568,134.288,-13.9267,-297.78,116.334,-362.948,-22.3082,29.7141,-191.608,-31.8012,-216.896,-384.453,-143.959,31.6847,-68.7494,137.164,-9.68745,413.639,-475.281,146.518,128.815,-2.27075,-47.7786,60.4213,0,123.563,-294.916,139.752,-269.34,10.1375,-221.057,-120.413,83.7475,115.967,207.004,39.8776,-273.784,-315.814,624.837,77.7021,-380.978,-327.358,-204.687,16.2368,-172.243,-172.973,207.031,-62.1397,267.587,113.115,127.526,445.403,108.015,-142.556,571.533,46.739,-103.698,0,-4.2688,-4.2688,-4.2688,-4.2688,-4.2688,-4.2688,-4.2688,-26.9176,4.57743,31.4297,-16.3457,-4.2688,-39.9821,59.3681,15.5155,-37.1171,-68.5129,-24.1251,-61.0636,-95.3711,-38.0918,-7.4258,19.0343,45.0685,9.21286,45.7967,5.42777,31.5629,17.5813,90.4594,2.17094,-0.671797,-290.983,-493.972,0,89.2973,-419.2,-64.5953,-1.67661,-105.96,-142.795,-1.24486,-124.976,-116.085,-157.888,35.7354,351.88,-76.1078,144.259,-204.663,-13.2164,-153.392,-4.20631,-61.9445,69.3277,59.3093,-171.433,-236.794,33.1952,-6.2635,-91.6463,81.8783,22.1387,75.9798,266.489,18.0675,-14.3356,0,-190.245,316.935,-164.485,204.117,-15.3554,28.5675,-129.505,-61.3357,28.0033,-47.8621,-82.3381,-96.7645,-17.3062,82.9303,14.3732,0,8.26033,0,52.118,-28.2775,101.206,22.9401,53.9742,-37.1718,-2.84994,43.7532,43.6644,0,-15.0147,-196.586,-15.4801,-266.507,0,-284.135,-132.261,-154.545,38.5435,-181.602,-163.57,-111.715,-114.151,-106.724,-134.378,-79.392,291.952,-43.2032,1.57933,-78.7941,-4.37725,-75.0861,0,-46.4614,-150.525,-69.311,7.24723,996.369,-91.5706,-2.13401,-53.5038,-33.85,155.315,-88.891,-268.342,-40.1041,23.4137,0,-89.2822,-311.986,-183.266,0,0,0,0,743.237,-18.2359,300.015,-86.7036,-75.5639,-101.923,165.937,357.152,-20.8997,-157.791,-1.34914,1.31252,-107.567,26.034,-66.4701,0,51.2796,-2.86473,-36.458,-164.763,-86.807,159.731,431.049,44.7797,234.193,0,53.3839,6.16938,-78.873,-152.185,282.313,122.61,36.6602,-35.8688,197.137,75.4808,-43.5929,-370.78,108.213,-282.778,-85.4689,-2.28639,-234.025,-32.9181,-279.602,-260.86,-94.1528,-13.7643,48.5881,213.876,-13.4038,546.042,-467.9,201.285,110.722,-64.7613,-90.2386,181.112,0,11.5862,73.619,613.185,-384.829,-26.3638,110.405,175.064,36.6634,-363.66,81.8325,107.217,-140.006,199.532,-258.218,-29.4866,-47.015,-117.668,-136.454,-101.874,-386.943,222.324,331.871,170.013,-189.069,-120.522,-167.583,60.6692,277.639,324.233,-85.7878,-118.446,63.2845,0,-5.87095,-5.87095,-5.87095,-5.87095,-5.87095,-5.87095,-5.87095,44.3569,-50.6306,11.72,-15.2504,-5.87095,5.8839,-15.6655,-2.68869,-8.77947,-62.7083,-17.4927,-75.1254,-86.4844,24.1954,8.85765,106.715,-2.07663,-15.0224,19.1958,-48.03,56.957,56.6761,8.16653,-20.1422,24.5337,-171.852,-479.489,0,216.99,-241.457,-189.494,-97.4962,-46.1156,-339.299,-113.293,-121.652,-54.7154,-216.997,-113.435,321.303,-116.066,-328.529,-345.297,-9.20795,-183.394,-1.82186,159.086,-544.689,-144.115,-65.286,-98.077,-15.6712,-5.18375,-125.677,-51.7394,149.69,-143.935,-544.435,-77.3828,-212.477,0,-379.432,92.6072,-161.444,90.8305,-48.08,-68.9233,-107.193,58.4714,20.1683,168.146,-31.2901,67.7608,-5.76635,-60.1194,137.398,-0.396708,-162.443,0,-31.6428,-16.7136,-6.23054,195.518,196.159,-22.5587,0,-111.086,-3.08838,-34.9132,65.2277,224.695,-10.2292,79.4642,0,40.1801,-433.837,-218.563,-119.092,-342.082,-234.607,-132.976,-23.3561,-89.9891,-56.6285,-149.53,760.26,-75.1701,192.631,476.523,-3.08412,-162.843,-0.792135,-62.5042,85.017,-41.4614,-24.7947,657.075,88.0974,-2.13401,55.1236,-37.0461,26.0977,-97.0739,134.953,-95.7138,-17.2332,0,-184.536,-52.7332,-99.4181,0,0,0,0,659.248,-66.7851,274.116,11.7747,-127.369,-97.5556,767.102,-42.5185,-30.9674,6.15796,-4.76331,0,355.749,297.893,-256.99,0,-8.21444,-4.06157,-8.08889,-155.124,-83.1298,231.617,493.098,200.022,172.675,0,-511.714,-133.088,361.438,-300.501,280.53,-123.43,205.31,18.31,188.001,-15.4443,-229.071,-393.035,191.758,-348.524,-164.36,32.9618,-245.215,-33.926,-197.454,-432.937,48.6978,-23.7213,16.4111,175.69,-17.7399,691.516,-285.706,327.291,-27.3282,-180.475,-111.77,190.564,0,-134.72,268.837,329.898,-229.426,126.372,741.256,323.714,-602.275,-255.173,-411.424,181.696,-644.122,65.8192,-542.195,-362.467,354.78,78.0338,45.6954,-129.111,-688.091,-80.5555,390.682,1186.99,-141.645,328.254,158.219,-226.806,-110.712,263.478,96.7372,-310.906,185.152,0,-3.67193,-3.67193,-3.67193,-3.67193,-3.67193,-3.67193,-3.67193,-1.12534,-36.1078,-25.9216,-27.8464,-3.67193,-4.73459,-33.1305,-30.0722,34.323,-56.9763,0.439212,-76.9167,-124.166,6.6527,18.6578,228.414,7.20984,29.0685,60.0815,-75.951,27.4324,29.1985,22.2834,-40.598,36.7384,-235.222,-500.922
0,38.94,422.733,-383.722,190.91,-23.9026,-115.377,-119.42,-186.543,190.183,91.9536,-268.434,-174.593,170.777,-22.2462,231.398,110.91,185.435,41.5449,-17.9197,-15.9234,-221.47,102.164,28.5128,-12.5645,-0.988864,61.1966,-324.585,-63.6288,454.396,756.073,-88.6368,-332.239,0,-183.673,-526.07,-24.834,-495.467,-3.02684,42.8298,-363.28,-33.8101,80.7632,-97.142,-130.689,-4.14913,-179.378,-111.636,-53.564,8.43072,76.2341,-3.11704,72.8763,86.571,73.7938,-63.6873,231.624,-0.466174,-5.90706,-169.004,-12.9026,-2.08853,209.181,-9.62601,-28.4375,-188.314,0,149.872,793.44,-261.681,-128.816,40.9519,-35.9851,-1.67707,-119.68,-65.6155,-15.683,-82.072,-47.2459,-244.309,-208.549,111.033,-30.3888,-36.8561,0,-17.3689,-337.509,-41.0307,50.9186,-65.1412,93.0423,-9.6016,152.375,258.879,60.674,5.57949,-49.1847,-117.02,216.111,0,-134.815,-962.048,258.274,0,0,0,0,-59.8838,-364.689,-144.544,446.455,-162.758,-80.4014,-206.211,-119.834,-129.8,4.14956,-38.0841,0,467.411,-203.238,-319.966,0,204.208,-4.35132,-165.889,71.6278,26.6702,200.298,-19.0382,135.422,550.985,0,-564.601,-188.984,133.269,274.912,-67.8691,452.336,32.0072,-103.878,-134.948,-176.711,321.92,-169.11,212.785,-298.458,-124.897,-182.144,-178.968,109.794,-179.146,-123.145,-315.541,80.9372,84.5736,-35.0331,-18.7277,-319.574,-16.4645,-9.19546,226.852,367.718,-304.02,15.5226,0,-22.7373,145.617,94.7005,163.023,54.3744,-326.814,-267.89,-626.114,15.4472,287.722,51.6971,-69.4338,92.0415,742.295,-364.913,429.221,-61.5898,462.097,-77.2046,369.59,-190.431,592.958,206.019,221.834,-388.764,-176.323,-723.853,-291.354,474.702,691.463,34.1037,-393.104,0,0.0659727,0.0659727,0.0659727,0.0659727,0.0659727,0.0659727,0.0659727,-112.991,-26.1417,-7.95694,32.4323,-62.7289,0.0659727,-11.8265,-32.0778,24.8149,-1.60628,57.2235,-61.3248,44.6994,-89.7917,36.5809,64.2946,46.169,-42.8341,-55.4242,-71.3774,-27.8923,168.996,173.74,-33.7406,-10.6437,19.1006,-507.745,0,248.525,331.854,-364.077,101.274,-37.5291,-366.86,-416.637,-434.515,171.676,6.79295,56.9519,-129.402,-226.746,103.231,142.813,-105.031,6.30949,-38.7654,158.924,294.878,-168.136,-157.362,-276.566,-90.1808,-10.4799,82.6909,518.658,148.688,254.051,99.9588,-33.3443,100.98,0,-692.447,-123.608,77.0516,-431.895,-30.7713,80.7081,74.9942,-32.1366,-21.049,-38.1128,-48.2033,-62.2097,-54.5619,30.4429,-71.551,-14.0568,37.7668,0,-12.5092,139.536,-66.5623,-143.869,11.7844,60.5905,0,-111.116,-45.0769,-10.0823,-54.9448,-90.4592,-8.30202,-1.48055,0,-307.273,7.16015,1.58936,-61.5021,-18.9396,-97.6746,-145.257,-11.6884,-250.903,23.5936,216.833,-58.105,373.981,24.1374,-232.29,-5.2051,88.9094,-5.46618,6.41284,-149.333,-70.9267,-30.4442,371.167,-65.4858,-10.2584,0.696391,-137.539,-34.0724,279.184,782.635,-53.5931,55.1634,0,438.393,51.9397,-352.383,0,0,0,0,114.513,4.32075,-142.43,-192.268,-147.128,-113.958,-482.699,331.783,39.7853,18.8554,42.2262,1.14675,-111.986,-13.492,101.819,0,326.738,-0.988864,-64.6317,-502.08,-125.695,421.148,138.952,-25.4815,77.27,0,125.827,-625.73,205.945,226.61,-136.419,410.662,-189.578,-43.1095,-98.0156,-94.7138,353.176,-207.185,-58.9861,-328.289,-102.082,-225.991,-167.98,181.051,85.8206,-44.6241,-290.084,-75.9464,-36.4364,90.5307,-69.171,-308.726,-114.423,8.66521,117.496,199.909,-272.236,-7.59155,0,-263.201,-145.005,16.5704,239.086,175.819,-41.7514,124.911,208.716,385.696,-26.353,74.4972,31.8592,-8.67216,-285.075,123.61,-220.516,158.131,54.6199,77.8286,263.066,49.3903,-279.421,152.014,-407.478,132.719,240.907,-227.583,-58.144,71.4,302.048,-11.9384,-196.467,0,-5.97993,-5.97993,-5.97993,-5.97993,-5.97993,-5.97993,-5.97993,-19.822,20.7295,-22.5292,41.3951,-57.217,-5.97993,-97.3572,19.2283,-48.9094,13.5917,23.3666,-27.8803,39.1538,-55.9811,-66.8094,38.3664,-9.7035,4.18207,-13.1637,-48.5345,-7.06407,120.729,141.958,-37.3712,-4.17758,-133.631,-371.095,0,-448.649,317.583,3.99727,-443.816,-17.2702,-142.494,165.952,-450.517,70.8223,-73.7995,90.2979,-33.2336,105.426,-110.236,-673.297,-69.7152,7.57216,-16.9361,94.9516,551.356,-41.2154,282.043,248.556,178.929,-19.86,177.986,-136.372,-90.4751,-4.35336,816.238,-86.3196,169.8,0,-41.6587,53.7304,-43.5513,156.034,-17.0453,69.8079,-433.843,50.587,-7.86749,-36.9463,-75.7943,-9.6738,19.9469,-41.267,173.177,-8.75714,18.0029,0,28.6513,1.6812,-158.846,-205.923,8.71872,-9.36832,-2.36413,-151.606,210.872,-3.16351,0.815405,-102.299,-22.3065,-6.57301,0,-320.797,196.796,-412.755,-153.099,-66.4529,-492.939,34.8685,-56.3817,-8.67842,-15.5944,-218.585,-149.934,-273.001,286.112,82.386,76.3178,65.5659,54.8148,-45.2704,425.101,-91.3534,-13.4728,-131.218,12.5664,0,-268.456,-397.906,14.3257,751.918,276.979,-61.1933,-103.399,0,77.0877,-134.395,161.244,0,0,0,0,-74.4965,-221.128,-48.9553,196.579,-169.159,-12.7607,-286.043,288.388,-38.3876,45.8507,-39.8841,6.31665,-720.798,-227.782,-300.246,0,54.2375,-0.878289,73.6992,-35.6261,60.3704,310.894,327.747,25.696,-3.3238,0,-30.9843,-467.657,319.446,-144.218,-171.911,9.17872,192.042,144.869,42.8703,135.877,213.591,-234.174,59.0214,-439.471,2.94304,-264.87,-205.708,170.93,229.051,38.6463,-260.452,-147.881,18.5414,-119.015,-107.469,-233.01,-153.65,-171.834,-68.4232,185.684,-310.145,-87.3535,0,170.307,-63.1939,-148.742,352.904,260.882,585.81,-241.468,126.714,201.648,-318.064,154.99,315.761,59.9896,-124.706,177.879,97.6,192.999,158.247,302.093,85.9952,6.9733,-6.95946,-9.0431,35.1719,54.2442,130.73,6.7273,0.117523,408.266,-244.045,-65.2444,126.241,0,-1.47466,-1.47466,-1.47466,-1.47466,-1.47466,-1.47466,-1.47466,-25.9226,3.92365,-32.9438,22.6999,-28.0413,-1.47466,-75.9089,5.14757,-16.5892,11.5914,32.7171,1.16701,38.1982,-77.2675,-48.9453,25.6391,14.0772,-7.63269,-24.9912,-52.3199,-19.0659,151.692,121.717,-48.9193,16.7056,-82.3943,-362.802,0,311.689,422.932,-92.9242,82.7346,-79.2616,-543.183,-63.9433,39.3952,110.696,-228.626,-110.752,-106.229,211.967,410.576,36.8407,93.6541,-294.052,-21.7573,55.7276,360.127,-181.619,-15.4031,23.4555,87.3683,-4.35132,394.056,201.369,69.3713,85.6122,820.068,-93.6375,466.625,0,-637.112,-353.299,-417.131,-419.2,46.9291,-502.036,-213.921,-55.8659,18.8081,-81.7125,200.695,-5.06299,-85.6779,-53.6358,61.8392,72.2063,-44.5404,0,-58.6363,-130.162,-29.5462,-155.227,-0.233416,42.3961,-0.878289,-336.38,-303.282,-15.0883,10.6591,-131.575,-19.807,-212.383,0,51.1962,168.339,316.027,349.74,153.646,236.191,112.346,-327.827,296.505,2.7041,-161.379,-212.755,108.304,-269.969,-303.596,-26.3038,192.81,54.8148,11.6812,170.242,-244.508,-156.107,98.9996,22.8703,-2.36413,288.514,15.4617,-64.9143,37.0583,720.744,-101.979,-137.551,0,65.1693,-235.951,369.957,0,0,0,0,66.1307,-414.207,120.504,119.331,0.707005,-839.616,-155.338,61.9592,-199.031,162.582,-47.7268,7.93032,314.496,-21.7855,304.166,0,-17.0283,-15.5087,-491.752,-407.074,-86.3276,757.75,-59.9191,58.6299,-90.6107,0,280.741,82.354,-310.515,-433.492,-258.351,-33.6638,293.22,200.806,-96.4562,199.936,76.6882,-250.654,18.2971,-340.991,-115.597,-285.836,-289.265,170.93,505.556,305.086,-247.837,-133.645,-139.192,-140.529,-59.4278,-167.021,-171.5,-213.631,137.754,471.097,-342.323,-139.544,0,291.457,-25.1055,-55.3509,465.853,154.998,981.589,-48.7454,7.8078,462.742,-445.015,-118.993,-130.525,587.704,4.0304,99.7393,145.347,-127.897,-208.818,51.3838,-53.6737,29.3756,-121.612,544.752,165.884,434.157,320.601,194.561,635.254,-170.878,-416.218,-89.4322,-189.992,0,2.24509,2.24509,2.24509,2.24509,2.24509,2.24509,2.24509,-6.95535,30.966,-43.7676,-13.3365,-70.452,2.24509,-45.8049,-15.8815,-15.9731,-42.367,-5.25576,6.25874,96.6115,-69.592,-44.2331,73.1876,13.9726,35.1627,0.959164,-53.2959,32.4664,96.1676,134.975,-55.8229,-17.7835,-64.6415,-340.444
