0,-1.02723e+07,-4.39128e+07,1.23953e+08,-2.69396e+08,2.58599e+07,5.45372e+08,-9.0176e+07,-2.28699e+08,-5.60524e+07,-6.27619e+08,1.82115e+08,4.37795e+07,2.08607e+08,1.72669e+08,1.60369e+08,1.00804e+08,-1.07518e+08,-5.03596e+07,2.91358e+07,1.21244e+08,-2.11286e+08,-1.03852e+07,-6.73899e+06,-1.38626e+08,-3.14078e+08,-7.74141e+07,-9.26574e+07,3.32663e+08,-1.21889e+08,-2.02282e+08,-1.10537e+08,-3.97628e+08,0,-4.56339e+08,7.78839e+07,6.65171e+07,-8.96877e+08,6.64393e+07,-6.42699e+08,-1.82117e+09,-1.13252e+06,-2.3885e+06,-1.72858e+06,-481495,-1798,-447629,4.38042e+06,191365,-302087,-649861,-13170,-4489,-1.43901e+06,-3.40383e+06,-4.67485e+06,-5.14127e+08,-494595,1.2306e+06,-1.32904e+06,-1.06267e+06,-4725,77272,-574784,-284369,1.03178e+07,0,-1.15835e+08,-3.2403e+07,-1.87377e+08,-6.3801e+06,-7.45045e+07,2.91527e+08,-2.46598e+07,-7.98321e+07,1.79613e+08,-2.42162e+08,-7.24316e+07,-2.38293e+08,2.12598e+08,-1.11503e+08,1.68321e+08,-6.91013e+07,1.81297e+08,-1.43731e+08,-1.74943e+08,-1.38057e+08,8.20097e+07,1.94243e+08,1.55558e+08,-1.75728e+08,2.35078e+08,1.07031e+08,5.87795e+07,7.92684e+07,-1.32456e+08,-2.07902e+08,1.33914e+08,1.74681e+08,0,0,0,0,0,0,0,0,1.40216e+07,-3.58663e+08,4.20426e+07,3.91381e+08,-2.00329e+08,-1.06656e+08,3.09181e+08,2.00596e+08,1.79482e+08,2.40182e+08,3.92772e+08,0,2.94121e+08,1.99392e+08,-4.6628e+08,0,-5.00786e+07,-2.76139e+06,-2.60668e+08,-2.45776e+08,9.94262e+07,2.14909e+08,2.86213e+08,6.20021e+07,3.88069e+08,0,1.61147e+08,1.20749e+08,1.2039e+08,-6.61491e+07,-1.02496e+08,-1.43158e+08,1.14451e+07,-1.02493e+08,2.12299e+08,2.8389e+08,5.06084e+08,1.41123e+08,1.19899e+07,4.63205e+07,-1.1973e+08,3.14695e+08,-3.94246e+08,6.56496e+07,-1.15687e+08,-5.34156e+07,9.81431e+07,2.26145e+08,-5.30193e+07,4.04439e+07,-4.86736e+07,5.84239e+07,-4.08866e+06,4.50251e+07,-4.75869e+08,2.68262e+08,-1.38452e+08,1.678e+06,0,-1.79726e+08,1.28527e+08,-1.5425e+07,-2.86822e+08,5.09375e+07,2.38848e+07,-1.79288e+08,-6.2983e+07,-3.82182e+07,6.8143e+07,-6.8185e+07,6.2218e+06,-3.40451e+07,-4.74481e+06,5.8599e+06,-2.00759e+07,-2.96789e+06,6.66132e+06,3.02137e+07,3.65649e+07,-6.80608e+07,-9.33236e+07,1.06797e+08,4.7072e+07,-4.48249e+07,1.32255e+07,-8.71367e+07,-8.53697e+07,1.1302e+08,6.37619e+07,1.2617e+08,1.97517e+07,0,-4.22053e+06,-4.22053e+06,-4.22053e+06,-4.22053e+06,-4.22053e+06,-4.22053e+06,-4.22053e+06,-4.61118e+07,-1.01573e+07,-5.96985e+07,4.76318e+07,-3.98697e+07,3.10206e+07,3.61115e+07,5.0027e+07,3.90824e+07,8.35764e+06,2.55818e+07,-9.17274e+07,2.59019e+07,8.58721e+06,-90435,-1.76962e+07,-3.37161e+07,-2.07215e+07,-3.59484e+07,-3.90783e+07,4.81654e+07,-1.30974e+07,3.84507e+07,-2.80089e+07,3.47988e+07,-1.81396e+07,-1.06538e+08
0,0,0,0,0,0,0,0,0,0,0,0,0,0,0,0,0,0,0,0,0,0,0,0,0,0,0,0,0,0,0,0,0,0,0,0,0,0,0,0,0,0,0,0,0,0,0,0,0,0,0,0,0,0,0,0,0,0,0,0,0,0,0,0,0,0,0,0,0,0,0,0,0,0,0,0,0,0,0,0,0,0,0,0,0,0,0,0,0,0,0,0,0,0,0,0,0,0,0,0,0,0,0,0,0,0,0,0,0,0,0,0,0,0,0,0,0,0,0,0,0,0,0,0,0,0,0,0,0,0,0,0,0,0,0,0,0,0,0,0,0,0,0,0,0,0,0,0,0,0,0,0,0,0,0,0,0,0,0,0,0,0,0,0,0,0,0,0,0,0,0,0,0,0,0,0,0,0,0,0,0,0,0,0,0,0,0,0,0,0,0,0,0,0,0,0,0,0,0,0,0,0,0,0,0,0,0,0,0,0,0,0,0,0,0,0,0,0,0,0,0,0,0,0,0,0,0,0,0,0,0,0,0
0,0,0,0,0,0,0,0,0,0,0,0,0,0,0,0,0,0,0,0,0,0,0,0,0,0,0,0,0,0,0,0,0,0,0,0,0,0,0,0,0,0,0,0,0,0,0,0,0,0,0,0,0,0,0,0,0,0,0,0,0,0,0,0,0,0,0,0,0,0,0,0,0,0,0,0,0,0,0,0,0,0,0,0,0,0,0,0,0,0,0,0,0,0,0,0,0,0,0,0,0,0,0,0,0,0,0,0,0,0,0,0,0,0,0,0,0,0,0,0,0,0,0,0,0,0,0,0,0,0,0,0,0,0,0,0,0,0,0,0,0,0,0,0,0,0,0,0,0,0,0,0,0,0,0,0,0,0,0,0,0,0,0,0,0,0,0,0,0,0,0,0,0,0,0,0,0,0,0,0,0,0,0,0,0,0,0,0,0,0,0,0,0,0,0,0,0,0,0,0,0,0,0,0,0,0,0,0,0,0,0,0,0,0,0,0,0,0,0,0,0,0,0,0,0,0,0,0,0,0,0,0,0
0,0,0,0,0,0,0,0,0,0,0,0,0,0,0,0,0,0,0,0,0,0,0,0,0,0,0,0,0,0,0,0,0,0,0,0,0,0,0,0,0,0,0,0,0,0,0,0,0,0,0,0,0,0,0,0,0,0,0,0,0,0,0,0,0,0,0,0,0,0,0,0,0,0,0,0,0,0,0,0,0,0,0,0,0,0,0,0,0,0,0,0,0,0,0,0,0,0,0,0,0,0,0,0,0,0,0,0,0,0,0,0,0,0,0,0,0,0,0,0,0,0,0,0,0,0,0,0,0,0,0,0,0,0,0,0,0,0,0,0,0,0,0,0,0,0,0,0,0,0,0,0,0,0,0,0,0,0,0,0,0,0,0,0,0,0,0,0,0,0,0,0,0,0,0,0,0,0,0,0,0,0,0,0,0,0,0,0,0,0,0,0,0,0,0,0,0,0,0,0,0,0,0,0,0,0,0,0,0,0,0,0,0,0,0,0,0,0,0,0,0,0,0,0,0,0,0,0,0,0,0,0,0
0,0,0,0,0,0,0,0,0,0,0,0,0,0,0,0,0,0,0,0,0,0,0,0,0,0,0,0,0,0,0,0,0,0,0,0,0,0,0,0,0,0,0,0,0,0,0,0,0,0,0,0,0,0,0,0,0,0,0,0,0,0,0,0,0,0,0,0,0,0,0,0,0,0,0,0,0,0,0,0,0,0,0,0,0,0,0,0,0,0,0,0,0,0,0,0,0,0,0,0,0,0,0,0,0,0,0,0,0,0,0,0,0,0,0,0,0,0,0,0,0,0,0,0,0,0,0,0,0,0,0,0,0,0,0,0,0,0,0,0,0,0,0,0,0,0,0,0,0,0,0,0,0,0,0,0,0,0,0,0,0,0,0,0,0,0,0,0,0,0,0,0,0,0,0,0,0,0,0,0,0,0,0,0,0,0,0,0,0,0,0,0,0,0,0,0,0,0,0,0,0,0,0,0,0,0,0,0,0,0,0,0,0,0,0,0,0,0,0,0,0,0,0,0,0,0,0,0,0,0,0,0,0
0,0,0,0,0,0,0,0,0,0,0,0,0,0,0,0,0,0,0,0,0,0,0,0,0,0,0,0,0,0,0,0,0,0,0,0,0,0,0,0,0,0,0,0,0,0,0,0,0,0,0,0,0,0,0,0,0,0,0,0,0,0,0,0,0,0,0,0,0,0,0,0,0,0,0,0,0,0,0,0,0,0,0,0,0,0,0,0,0,0,0,0,0,0,0,0,0,0,0,0,0,0,0,0,0,0,0,0,0,0,0,0,0,0,0,0,0,0,0,0,0,0,0,0,0,0,0,0,0,0,0,0,0,0,0,0,0,0,0,0,0,0,0,0,0,0,0,0,0,0,0,0,0,0,0,0,0,0,0,0,0,0,0,0,0,0,0,0,0,0,0,0,0,0,0,0,0,0,0,0,0,0,0,0,0,0,0,0,0,0,0,0,0,0,0,0,0,0,0,0,0,0,0,0,0,0,0,0,0,0,0,0,0,0,0,0,0,0,0,0,0,0,0,0,0,0,0,0,0,0,0,0,0
0,0,0,0,0,0,0,0,0,0,0,0,0,0,0,0,0,0,0,0,0,0,0,0,0,0,0,0,0,0,0,0,0,0,0,0,0,0,0,0,0,0,0,0,0,0,0,0,0,0,0,0,0,0,0,0,0,0,0,0,0,0,0,0,0,0,0,0,0,0,0,0,0,0,0,0,0,0,0,0,0,0,0,0,0,0,0,0,0,0,0,0,0,0,0,0,0,0,0,0,0,0,0,0,0,0,0,0,0,0,0,0,0,0,0,0,0,0,0,0,0,0,0,0,0,0,0,0,0,0,0,0,0,0,0,0,0,0,0,0,0,0,0,0,0,0,0,0,0,0,0,0,0,0,0,0,0,0,0,0,0,0,0,0,0,0,0,0,0,0,0,0,0,0,0,0,0,0,0,0,0,0,0,0,0,0,0,0,0,0,0,0,0,0,0,0,0,0,0,0,0,0,0,0,0,0,0,0,0,0,0,0,0,0,0,0,0,0,0,0,0,0,0,0,0,0,0,0,0,0,0,0,0
0,0,0,0,0,0,0,0,0,0,0,0,0,0,0,0,0,0,0,0,0,0,0,0,0,0,0,0,0,0,0,0,0,0,0,0,0,0,0,0,0,0,0,0,0,0,0,0,0,0,0,0,0,0,0,0,0,0,0,0,0,0,0,0,0,0,0,0,0,0,0,0,0,0,0,0,0,0,0,0,0,0,0,0,0,0,0,0,0,0,0,0,0,0,0,0,0,0,0,0,0,0,0,0,0,0,0,0,0,0,0,0,0,0,0,0,0,0,0,0,0,0,0,0,0,0,0,0,0,0,0,0,0,0,0,0,0,0,0,0,0,0,0,0,0,0,0,0,0,0,0,0,0,0,0,0,0,0,0,0,0,0,0,0,0,0,0,0,0,0,0,0,0,0,0,0,0,0,0,0,0,0,0,0,0,0,0,0,0,0,0,0,0,0,0,0,0,0,0,0,0,0,0,0,0,0,0,0,0,0,0,0,0,0,0,0,0,0,0,0,0,0,0,0,0,0,0,0,0,0,0,0,0
0,952535,3.24845e+06,2.3719e+07,1.44746e+06,33069,1.51491e+07,140586,2.60242e+07,686669,85862,72106,0,0,4.04197e+07,372924,33069,0,0,91620,150321,116160,713980,5758,2.00879e+07,0,5758,192847,192884,7.83467e+06,793149,0,4.23478e+06,0,4.26323e+07,3.08734e+07,-4.9103e+07,2.37062e+06,0,1.74583e+07,0,1.13252e+06,0,0,0,0,0,0,0,0,0,0,0,0,0,0,5.14028e+06,0,0,0,0,0,0,0,0,0,0,153200,321407,422894,192847,0,-4.94838e+07,385694,-3.14838e+07,1.5863e+06,0,0,0,0,0,0,0,0,0,0,584299,12400,-3.18473e+07,5.14028e+06,-3.26528e+07,0,2879,192847,192847,192847,0,0,-1.18517e+07,0,0,0,0,0,0,0,0,-4.06113e+07,1.23659e+07,3.43043e+06,0,0,375882,-3.17949e+07,3.70011e+07,5.14028e+06,0,0,0,890535,0,-2.91016e+07,0,0,2.6106e+06,1.54208e+07,2.47317e+06,0,0,3.67164e+07,1.70945e+06,0,0,5.24903e+07,-1.20315e+06,2.5964e+07,1.91928e+07,716859,-1.08612e+07,7.83031e+06,-8.16177e+07,9.86871e+06,3.25727e+06,2.6106e+06,0,680911,-8.62859e+07,1.15495e+07,5.52577e+06,748727,0,0,2.23548e+06,272772,-3.02889e+07,1.12892e+07,-4.25184e+07,6.01434e+06,2.56924e+07,432556,360880,3.63515e+06,3.80733e+07,3.7604e+06,-1.02275e+07,0,3.57117e+07,-1.18611e+07,6.28308e+07,1.30309e+06,8.31026e+06,3.46843e+07,1.18951e+06,1.37881e+08,5.68016e+07,1.68296e+07,4.84924e+07,-4.59262e+07,9.97976e+06,1.65118e+07,7.53613e+06,4.58719e+07,4.1378e+07,2.09175e+07,5.11544e+06,-8.88933e+07,2.07395e+06,2.04918e+07,-4.58104e+07,-1.80304e+07,-3.07685e+07,2.41935e+07,7.03716e+06,2.58307e+06,2.09884e+07,3.65491e+07,-7.31053e+07,-3.44975e+07,0,1.13252e+06,1.13252e+06,1.13252e+06,1.13252e+06,1.13252e+06,1.13252e+06,1.13252e+06,1.13252e+06,8.81872e+06,2.36031e+06,5.19683e+06,-4.07859e+06,1.10366e+06,-5.90357e+06,5.64597e+06,5.6571e+06,4.21296e+06,2.09175e+06,701374,-8.50327e+06,247528,-6.60685e+06,-3.02936e+06,-7.31136e+06,-2.21436e+06,7.04556e+06,1.03286e+06,332968,3.26511e+06,1.17416e+07,-6.76354e+06,-4.85065e+06,-2.3465e+07,-2.72961e+07
0,2.53974e+08,-1.45999e+08,-1.92012e+08,-3.71875e+07,3.30297e+07,-1.98032e+08,4.05303e+07,6.3005e+07,-8.3236e+07,2.08728e+08,-1.66487e+08,0,2.71022e+08,-2.0932e+08,-1.96472e+08,-5.94352e+07,3.76016e+07,0,1.24675e+07,2.26199e+08,-2.09049e+07,-3.81992e+08,3.5454e+06,-1.04482e+08,734174,3.66405e+08,-1.133e+08,-1.30556e+08,-1.96926e+08,-3.58117e+07,1.20794e+07,-1.74638e+08,0,-1.5966e+08,-5.85739e+07,1.06443e+08,5.9787e+08,1.00845e+08,5.32085e+08,8.06656e+07,0,2.3885e+06,0,0,0,0,0,0,0,0,0,0,0,0,0,812324,0,0,0,0,0,0,0,0,0,0,-7.30562e+07,-3.85876e+08,-2.42283e+08,3.37067e+07,-4.85699e+07,-7.89318e+07,1.49566e+08,-2.99872e+08,-1.108e+08,4.49402e+07,4.30429e+07,0,-3.7495e+08,-1.73976e+08,3.03203e+08,1.1904e+07,1.69931e+06,0,5.00253e+06,-6.42854e+07,-8.07808e+07,1.20579e+08,7.51661e+07,0,-1.10339e+08,-1.09605e+08,-4.04421e+07,-2.97193e+08,1.49425e+08,-9.49742e+07,-1.29594e+08,2.38936e+07,0,0,0,0,0,0,0,0,2.01437e+08,2.73732e+08,1.88097e+08,-1.20306e+08,1.15083e+06,-2.27351e+08,3.03782e+08,3.19628e+08,1.00864e+07,1.59946e+07,-1.32137e+08,0,2.04855e+08,-1.2703e+08,3.30066e+08,0,1.83938e+08,0,2.74573e+08,2.16706e+08,1.06202e+08,-2.82325e+07,5.74461e+06,5.90342e+07,2.39576e+07,0,-7.63971e+07,5.57186e+07,2.16611e+07,-6.20237e+08,4.21141e+07,-1.47191e+08,-7.65056e+07,-9.10401e+07,3.85834e+07,-3.58668e+07,-3.10434e+08,-1.41101e+08,-1.61862e+08,-1.08262e+08,-3.74531e+08,1.37793e+08,-1.67196e+08,8.97881e+07,3.19588e+07,-1.01364e+08,9.25087e+07,7.23174e+07,3.38722e+08,-7.63897e+07,-9.08421e+06,1.9085e+08,1.15336e+08,-3.91429e+07,-1.3354e+08,-1.93829e+07,1.47402e+08,-1.483e+08,0,1.4831e+08,1.95983e+07,6.55776e+07,-1.30762e+08,-1.08311e+08,-1.56989e+08,-9.7676e+07,-1.4392e+08,-4.98386e+07,9.77072e+07,1.35184e+07,-1.07342e+08,-6.58087e+07,3.80241e+07,-7.2758e+07,1.2873e+08,-1.37041e+08,2.23544e+06,4.64307e+07,-3.24124e+07,7.03647e+07,1.07532e+08,-6.39676e+07,4.84366e+07,-2.11235e+08,-2.09411e+07,1.49092e+08,1.0242e+08,1.58336e+08,1.99964e+07,-1.03702e+08,-1.44716e+08,0,2.3885e+06,2.3885e+06,2.3885e+06,2.3885e+06,2.3885e+06,2.3885e+06,2.3885e+06,-2.7039e+07,2.3885e+06,4.77479e+07,-3.11115e+07,-2.15596e+07,-4.9187e+07,-8.67977e+06,-2.09297e+06,3.9566e+07,-5.30419e+07,-2.49518e+06,5.63337e+07,2.32991e+07,-6.58418e+06,8.87854e+06,4.42857e+07,8.41779e+06,-3.05164e+07,9.18447e+07,2.90503e+07,-2.73507e+07,-1.59246e+06,-2.87355e+07,-1.47805e+06,-3.6463e+07,-6.67175e+07,2.25907e+07
0,2.19449e+08,1.95138e+07,2.96106e+07,9.28002e+07,2.06867e+06,1.07285e+07,784774,1.83431e+07,1.03328e+07,3.82625e+07,1.97421e+06,6.82698e+06,7.36563e+06,2.6559e+07,1.89992e+07,2.34722e+06,1.34013e+06,0,0,7.86096e+07,1.31941e+07,9.33857e+06,86380,0,0,1.28753e+06,2.20606e+07,8.17481e+06,3.74939e+07,2.53046e+07,0,3.57704e+07,0,-2.01069e+08,-1.54397e+07,9.34001e+07,-8.08714e+07,1.56075e+06,9.69912e+07,185568,0,0,1.72858e+06,0,0,0,0,0,0,0,0,0,0,0,0,43190,0,0,0,0,0,0,0,0,0,0,5.43173e+07,1.11951e+07,7.13945e+07,3.94612e+07,56779,6.16641e+06,3.25287e+06,5.66425e+07,6.63366e+07,3.41052e+07,1.33284e+06,0,0,7.97703e+06,194826,443767,4.41123e+06,0,6.44095e+06,4.23426e+07,6348,1.68121e+07,86380,133444,0,25350,3.88923e+07,12675,2.66983e+06,1.34269e+07,0,1.15714e+07,0,0,0,0,0,0,0,0,4.51993e+07,6.6478e+07,-1.96594e+08,-8.75381e+06,-1.68851e+07,4000,-7.96182e+07,-5.46042e+07,-8.54854e+06,9.1746e+06,0,0,-1.09804e+08,8.77907e+06,5.33692e+07,0,0,0,3.97518e+07,-1.3028e+07,1.19732e+06,-3.08458e+07,-1.94455e+08,-6.24795e+06,-1.32304e+08,0,3.00391e+07,1.41397e+07,6.12102e+06,7.55917e+07,-9.174e+06,-3.01464e+06,-2.72652e+07,1.59684e+08,-3.01294e+06,-790707,2.00265e+07,-3.47469e+07,3.06331e+07,-1.01038e+08,2.52811e+08,-5.57763e+06,-1.23952e+07,0,-1.83909e+07,3.23491e+07,-7.48946e+06,2.93795e+07,-6.84237e+06,260540,-1.0453e+08,2.40841e+07,-5.23297e+07,-7.94528e+06,-7.32698e+06,6.67108e+07,4.46876e+06,1.98907e+07,0,1.25115e+08,-1.60811e+08,-1.57366e+08,-4.8674e+07,1.93164e+07,-9.70428e+07,1.73791e+08,-4.76224e+07,-2.69318e+08,1.40499e+08,-6.23374e+07,-1.10881e+07,1.67006e+08,-1.74025e+08,-2.32007e+08,8.7352e+07,1.31368e+08,3.94357e+07,-6.11627e+07,3.54461e+07,-4.95382e+07,-1.0642e+08,9.16349e+07,-5.1052e+07,1.1915e+07,-2.22895e+08,1.15308e+07,7.62251e+07,9.91943e+07,3.25701e+07,-2.83611e+07,1.46217e+06,0,1.72858e+06,1.72858e+06,1.72858e+06,1.72858e+06,1.72858e+06,1.72858e+06,1.72858e+06,2.32247e+07,-3.49451e+06,1.72858e+06,-5.60982e+06,-5.58932e+06,2.05008e+07,-3.13705e+07,-1.46066e+06,7.60169e+06,1.33899e+07,3.94357e+06,-1.2706e+07,7.89434e+06,-3.50481e+06,7.96097e+06,1.06261e+07,-5.06580e+06,-2.64186e+06,-1.57715e+07,712604,7.76646e+06,1.01185e+07,-7.5609e+06,-2.96072e+06,-446156,1.38501e+08,-4.91925e+07
0,-1.58082e+08,-1.36425e+08,2.39279e+08,-1.26788e+08,1.09456e+08,-3.28287e+08,2.39143e+08,-1.61235e+08,1.25593e+08,-4.90931e+08,2.13753e+07,-7.23646e+07,-5.46152e+07,7.38923e+07,1.31291e+08,-7.58626e+07,7.86844e+06,1.00584e+07,467420,2.20635e+07,-1.22669e+08,-1.19755e+08,-1.5831e+06,-6.58557e+06,5.1237e+07,2.62861e+07,-5.77373e+07,-1.06262e+08,-2.06499e+07,-4.6288e+08,1.91608e+06,-2.8259e+07,0,1.48338e+09,1.77554e+08,-5.64289e+08,-3.10284e+08,-7.76138e+07,-1.78377e+07,-3.53455e+08,0,0,0,481495,0,0,0,0,0,0,0,0,0,0,0,6.12772e+07,0,0,0,0,0,0,0,0,0,0,-4.03354e+08,-6.10491e+07,2.26935e+08,2.10899e+08,1.43667e+08,1.66208e+08,4.60385e+07,7.50809e+07,-3.75851e+07,-2.14443e+08,-9.05518e+06,1.85324e+08,2.54895e+07,2.57214e+08,-4.01131e+08,1.06134e+07,4.11193e+07,7.18545e+07,1.5202e+08,-5.64511e+07,1.00549e+07,-1.79267e+08,1.43908e+08,-1.31354e+07,-1.42272e+08,1.00454e+08,1.75653e+08,1.047e+08,3.00609e+07,-5.87389e+07,6.30199e+06,2.61947e+07,0,0,0,0,0,0,0,0,2.30337e+08,9.27136e+07,1.7911e+08,0,-4.40598e+07,1.26567e+08,2.38868e+08,-2.48932e+08,-3212,-5.4204e+07,-2.04239e+07,0,3.10065e+08,9.30365e+07,2.80109e+07,0,-1.62635e+07,0,8.71208e+07,-8.45946e+07,-1.45212e+08,-3.65462e+07,5.44886e+08,0,0,0,1.61682e+08,-1.18748e+08,9.25564e+07,-1.569e+08,1.39017e+08,7.11761e+07,5.16102e+07,1.25887e+08,-8.10069e+07,4.31266e+07,-7.16011e+07,-3.4239e+08,3.30813e+08,1.42685e+08,1.56631e+08,-2.06315e+07,7.70251e+07,-1.48854e+08,2.30527e+07,-1.56412e+08,-1.8246e+08,3.70721e+08,-2.56625e+08,-6.98275e+07,4.14958e+07,9.32961e+07,-7.07982e+07,-1.39933e+06,-1.24962e+07,-4.20028e+08,3.15708e+07,-1.19125e+07,0,-2.22514e+08,4.78586e+07,8.3112e+07,2.65679e+08,-3.10674e+08,1.22861e+08,1.54952e+08,1.74813e+08,-2.48255e+07,-2.61619e+07,2.16564e+07,6.68694e+07,1.0541e+08,-6.39789e+07,-8.90222e+07,-1.62935e+08,-7.9231e+07,-1.05129e+08,-4.11268e+07,4.14596e+07,5.21593e+07,-7.55454e+07,1.62494e+08,-5.07135e+07,5.51345e+07,-1.09011e+08,7.33947e+07,-8.52566e+07,-8.26351e+07,1.38842e+08,-5.35663e+07,-1.32513e+08,0,481495,481495,481495,481495,481495,481495,481495,4.44883e+07,-1.02385e+07,-4.35529e+07,481495,-2.06621e+07,5.33664e+07,6.48681e+07,-4.51163e+07,-2.48818e+07,9.68519e+06,-1.92494e+07,4.44667e+07,1.60725e+07,-1.49877e+07,6.82353e+06,1.36839e+07,-1.56525e+07,559530,1.98145e+07,3.59178e+06,-2.3343e+07,-1.09924e+07,-2.57919e+07,-1.37774e+06,-1.72407e+07,4.07481e+07,9.00837e+07
0,28768,0,0,7192,0,0,0,0,0,0,0,14384,0,0,0,0,0,0,0,3596,0,1798,7192,0,0,0,0,0,0,0,0,0,0,1798,0,0,0,0,0,0,0,0,0,0,1798,0,0,0,0,0,0,0,0,0,0,1798,0,0,0,0,0,0,0,0,0,0,0,0,0,0,0,0,0,0,0,0,0,0,0,0,0,0,0,0,0,0,0,0,0,0,0,0,0,0,0,0,0,0,0,0,0,0,0,0,0,0,0,0,0,0,0,0,0,0,0,0,0,0,1798,0,1798,0,0,0,0,0,0,0,0,0,0,0,8990,3596,0,3596,1798,5394,0,0,0,0,0,1798,0,0,0,0,0,0,0,10788,1798,5394,3596,0,0,0,0,0,0,0,0,1798,0,55738,50344,35960,8990,12586,8990,17980,17980,0,0,17980,0,0,0,17980,17980,0,0,0,1798,16182,8990,0,0,0,0,0,0,0,0,0,16182,0,1798,1798,1798,1798,1798,1798,1798,1798,0,0,1798,1798,0,0,1798,1798,0,0,0,1798,1798,1798,1798,0,0,0,0,0,0,0,0,1798,30566,1798
0,3.02995e+07,3.10795e+06,1.89585e+07,1.03522e+07,133723,1.77463e+06,1.06613e+07,172544,1.03468e+07,53102,5.09377e+06,0,1.38818e+07,3.79265e+06,280748,73876,380629,0,111883,7.05167e+06,172507,1.0961e+07,895582,0,0,305649,481070,243559,3.86265e+06,7.59125e+06,0,1.02293e+07,0,-1.39963e+08,-4.4986e+06,1.84994e+06,-3.63728e+07,168089,1.10973e+06,1.35371e+06,0,0,0,0,0,447629,0,0,0,0,0,0,0,0,0,383037,0,0,0,0,0,0,0,0,0,0,4.7412e+06,8.19093e+06,5.56277e+06,2.99093e+06,141959,4.51458e+06,1.93624e+07,185782,318783,406584,340015,0,721611,496535,1.14232e+06,98631,168089,0,0,5.01988e+06,194428,1.34888e+06,659426,35555,0,-9.01271e+06,805085,98631,1.31694e+06,3.93694e+06,0,5.72495e+06,0,0,0,0,0,0,0,0,2.19307e+07,-9.01271e+06,5.86909e+06,0,0,-4.35185e+07,-1.09283e+08,4.10703e+06,0,0,0,0,-4.4362e+07,-9.01271e+06,3.71488e+06,0,9.47741e+06,0,-2.57779e+07,-2.83305e+06,-1.47786e+07,-1.17719e+07,1.51115e+06,0,-2.83305e+06,0,-1.07377e+08,7.94938e+06,3.6453e+07,-3.18431e+07,1.15226e+06,-1.05372e+07,-2.50671e+06,1.50274e+07,2.92008e+06,1.93431e+07,5.61486e+06,1.30188e+07,-3.43039e+07,-6.84687e+07,3.45679e+06,798772,1.16958e+07,-1.47786e+07,333526,-3.42356e+07,-5.19291e+06,4.19285e+06,4.6502e+06,252778,864400,-6.05116e+07,1.91546e+07,350224,163962,1.06641e+07,1.24748e+06,1.2336e+07,0,1.85829e+07,-1.82254e+06,-5.48506e+07,1.50891e+06,1.985e+06,6.71932e+06,-4.89491e+07,2.427e+07,-9.70264e+06,6.14931e+07,8.91925e+07,1.79466e+07,6.4385e+07,2.25748e+07,1.02024e+07,1.94079e+07,1.08806e+08,-1.84623e+08,2.68998e+07,-3.20169e+07,6.11911e+07,-3.267e+07,-5.10835e+07,-5.60486e+07,1.04872e+07,-9.99905e+07,6.96825e+07,-5.70803e+07,-3.02554e+07,9.95205e+07,7.17712e+06,1.07075e+08,0,447629,447629,447629,447629,447629,447629,447629,6.15865e+06,59550,9.18949e+06,1.09871e+07,3.09654e+06,447629,-1.48025e+07,1.91893e+06,2.04147e+06,1.21051e+07,-1.99401e+07,3.30558e+06,-9.85429e+06,4.73524e+06,-848478,-5.50741e+06,-4.62828e+06,1.13516e+06,-1.94987e+07,8.72902e+06,-7.11665e+06,-3.66838e+06,1.23224e+07,842460,1.32669e+07,-1.47325e+07,1.72203e+07
0,-2.8832e+08,-1.20094e+08,-8.21316e+07,9.67661e+07,4.88577e+06,8.29496e+06,-5.89981e+06,-5.48639e+07,2.90428e+07,5.00171e+07,-527056,-36704,3.60943e+07,1.26803e+07,7.61758e+07,-3.15578e+07,-7.7172e+07,6.82569e+06,-210671,-3.82894e+07,-6.69446e+07,-7.1275e+07,6.8959e+07,-3.95341e+07,0,5.69888e+07,641241,1.28589e+07,-1.13729e+07,-2.5699e+08,-1.75821e+07,1.07232e+06,0,2.78208e+07,-1.02463e+08,-2.60923e+07,-1.41397e+08,0,5.76966e+07,-1.32818e+07,0,0,0,0,0,0,-4.38042e+06,0,0,0,0,0,0,0,0,-4.25242e+07,0,0,0,0,0,0,0,0,0,0,1.76958e+08,5.28614e+07,-2.31787e+07,-2.46153e+07,-1.31389e+07,-7.8428e+06,-5.36688e+07,-4.78332e+07,-4.39477e+07,1.62698e+07,1.08811e+07,-699569,6.91646e+07,8.21966e+07,-4.25242e+07,-4.25242e+07,-4.96788e+07,3.79474e+07,0,6.42538e+07,0,8.71202e+07,2.21518e+07,-9.17787e+07,0,2.4487e+07,-1.10363e+07,0,-1.54974e+07,-6.79648e+07,2.78906e+07,-27150,0,0,0,0,0,0,0,0,6.10783e+07,-686926,-7.84633e+06,-2.62312e+06,0,-9.14678e+06,-7.39242e+07,-9.05644e+06,-686926,-6.06392e+06,0,0,6.16544e+07,3.09022e+07,7.35469e+07,0,0,0,-1.16922e+08,-5.70215e+06,-386182,0,-9.28441e+07,0,-457159,0,-1.13628e+08,9.74689e+07,6.40323e+07,-8.68617e+06,2.25995e+07,3.08516e+07,3.14392e+07,-8.99931e+07,-2.23245e+07,2.51264e+07,6.23237e+06,-5.03241e+06,1.46337e+08,1.06319e+08,-7.75355e+07,4.55045e+07,2.67395e+07,0,1.6142e+07,2.68172e+08,1.81151e+07,-2.52917e+08,-1.33906e+08,3.57334e+07,1.49498e+07,3.17752e+07,-4.55481e+07,5.93033e+07,-3.11017e+07,5.09498e+07,-5.49679e+07,-1.64871e+07,0,-2.2436e+07,-2.45044e+07,-1.92642e+07,1.04421e+07,-4.93898e+07,-1.24044e+08,3.21203e+07,4.45337e+06,7.69414e+07,1.34323e+08,5.2662e+07,2.48304e+07,-1.07358e+08,-1.48309e+08,2.27796e+08,1.05785e+08,-2.35e+08,1.38274e+08,5.02846e+07,2.23331e+08,-1.29406e+08,-1.36917e+08,2.36133e+07,1.67319e+08,1.16113e+08,-3.91812e+07,-8.57587e+07,-5.72296e+07,-2.23201e+08,-2.42405e+07,-4.4425e+07,-1.40033e+08,0,-4.38042e+06,-4.38042e+06,-4.38042e+06,-4.38042e+06,-4.38042e+06,-4.38042e+06,-4.38042e+06,-1.27158e+07,8.96091e+06,2.1789e+07,6.65148e+06,1.90617e+06,1.35091e+07,-4.38042e+06,1.74856e+07,7.65206e+06,-3.41175e+07,1.83047e+07,-3.21529e+06,5.79122e+07,-1.47334e+07,-3.24795e+07,-7.71321e+06,7.17391e+06,1.46012e+07,-4.28528e+06,-1.47426e+07,1.45464e+06,-2.81173e+07,-4.0372e+07,-8.90844e+06,-1.54244e+07,-1.80167e+08,1.26059e+08
0,3.59002e+07,1.33283e+07,1.66624e+07,2.95529e+07,790396,4.72271e+07,5.56748e+07,5.7454e+06,3.14748e+06,1.68883e+07,1.11976e+07,1.6988e+07,3.12874e+06,2.23788e+07,2.27544e+07,390114,585612,0,233310,4.47267e+07,645126,1.17791e+07,0,20370,48798,194638,5.56619e+06,1.18496e+06,8.94517e+06,1.9984e+07,0,3.45219e+07,0,-4.78846e+07,-2.71581e+07,3.22019e+07,-2.11896e+07,6.95946e+06,-6.15269e+07,7.48715e+06,0,0,0,0,0,0,0,-191365,0,0,0,0,0,0,0,0,0,0,0,0,0,0,0,0,0,0,1.32875e+07,1.04988e+07,2.58339e+07,2.23693e+07,-8.36032e+07,1.26047e+07,1.76818e+07,5.47382e+06,133425,638454,8.01277e+06,0,0,1.45558e+08,7.93140e+06,166586,1.04295e+06,0,-2.16182e+07,1.17838e+06,0,1.2775e+06,194934,376,19092,26058,1.13766e+06,195310,3.34847e+06,3.08585e+06,97382,1.61077e+07,0,0,0,0,0,0,0,0,-5.99406e+07,-1.66998e+07,-1.11451e+08,-1.38516e+07,0,4.09469e+06,-3.38516e+08,-2.8325e+07,-1.25216e+07,-4.32372e+07,0,0,-1.10452e+08,0,8.31426e+06,0,1.57348e+06,0,-1.94395e+07,1.22528e+07,-3.70841e+07,-1.57484e+07,-7.62723e+07,0,-4.03984e+07,0,3.90803e+07,3.59899e+07,-3.91039e+07,8.18312e+07,2.18739e+07,-4.14577e+07,2.07942e+07,6.65969e+07,-1.05298e+07,2.91471e+06,8.3777e+06,1.80368e+07,7.2555e+06,-1.16604e+08,5.21974e+07,1.76528e+07,1.77014e+07,0,639565,-6.28181e+07,5.04919e+06,1.37345e+07,2.51976e+06,1.18238e+07,52283,-4.38753e+06,-1.78885e+07,6.50243e+06,1.15369e+07,4.24906e+07,1.82037e+07,132085,0,-2.80555e+07,-2.80095e+07,-2.81062e+07,1.80257e+07,5.24485e+07,4.16177e+07,-1.41761e+08,1.81482e+08,-3.22885e+07,-7.22049e+07,-6.41961e+07,1.49951e+08,6.45977e+07,7.73182e+07,2.83821e+07,-1.33643e+08,5.63543e+07,7.25412e+07,2.01714e+07,3.6964e+06,-5.54876e+07,1.49453e+07,1.11234e+08,1.0326e+08,1.03276e+08,-2.01335e+07,-9.45267e+07,-8.63305e+07,4.57687e+07,-2.63956e+07,2.55868e+07,8.57872e+06,0,-191365,-191365,-191365,-191365,-191365,-191365,-191365,1.99358e+07,-5.53049e+06,-1.63214e+07,-4.1476e+06,1.84975e+07,7.90767e+06,-2.07839e+07,-191365,-1.34061e+07,3.26163e+06,7.25412e+06,-1.84155e+06,-1.23668e+07,-4.97933e+06,3.75291e+06,1.42435e+07,1.16678e+07,1.03396e+07,-4.37398e+06,-9.34586e+06,-1.21638e+07,5.38508e+06,-3.71075e+06,4.38879e+06,614810,9.21092e+06,-2.87672e+07
0,3.40869e+06,615323,4.24242e+07,4.93709e+07,9252,3.92527e+06,0,2.43999e+07,25589,4.17596e+07,2.43918e+07,0,1.97493e+06,1.73983e+07,163846,159658,38112,0,0,0,245022,29621,13912,29896,0,235770,0,4.50385e+06,1.37413e+06,7.59959e+07,0,3.47057e+06,0,2.46274e+07,9.03308e+07,-1.16892e+08,-1.96381e+06,0,-3.05754e+07,0,0,0,0,0,0,0,0,0,302087,0,0,0,0,0,0,0,0,0,0,0,0,0,0,0,0,0,4.28901e+07,-9.82e+06,-2.42441e+08,-6.47184e+07,-1.92952e+07,-1.65792e+07,0,-9.96285e+06,-1.91786e+07,-5.46492e+07,-4.46863e+07,0,32665,3.279e+07,-1.92952e+07,-4.46863e+07,1.73617e+07,0,0,-1.92952e+07,0,0,5.3667e+06,0,0,0,0,1.73617e+07,0,-7.19782e+07,0,-1.79839e+07,0,0,0,0,0,0,0,0,-1.64953e+07,1.48261e+07,5.77039e+07,1.73617e+07,2.68335e+06,14317,3.34728e+06,-2.21517e+07,2.37159e+07,0,0,0,2.71405e+07,2.79306e+06,3.18014e+07,0,0,0,120642,0,4.91344e+06,2.74367e+06,2.8319e+06,0,0,0,5.81881e+06,-9.58155e+06,5.69362e+07,1.55794e+07,-1.92464e+07,-4.36453e+07,0,-6.52367e+07,3.37647e+07,-6.55209e+07,-2.16111e+06,0,2.18214e+06,-1.49276e+08,-1.81547e+07,1.50204e+07,-2.07949e+07,235770,2016,-2.69169e+07,2.82459e+06,-3.77892e+07,2.72509e+06,6.03774e+06,60321,416733,0,-2.08158e+07,1.41595e+06,1.90361e+07,116614,-2.87078e+06,0,2.68443e+07,6.73103e+07,2.77097e+08,2.16821e+07,4.09491e+07,8.92914e+07,3.02087e+06,5.33731e+07,-5.01924e+07,-1.46994e+07,-66081,2.62787e+07,1.76763e+07,4.05744e+07,2.26976e+07,6.50149e+06,-2.84764e+07,1.4959e+07,1.58458e+07,1.93456e+07,3.00335e+07,-3.41241e+07,4.06073e+07,7.35952e+06,-3.82784e+07,1.94162e+07,1.42848e+06,-1.02698e+06,3.54023e+07,-6.67194e+07,1.61937e+07,2.50198e+06,0,302087,302087,302087,302087,302087,302087,302087,-1.39218e+06,-607136,-3.5406e+06,-463863,2.89620e+06,2.18804e+06,-5.5166e+06,-3.67401e+06,302087,-3.18715e+06,1.51948e+06,2.22816e+06,27394,3.61319e+06,-1.05992e+06,6.08913e+06,1.34272e+06,-3.82181e+06,2.01893e+06,142848,493624,4.09361e+06,-2.61505e+06,1.63103e+06,312747,-1.44313e+08,-2.1183e+07
0,0,6091,0,643770,0,643770,0,0,0,18273,0,0,643770,24364,0,0,6091,6091,0,0,0,0,0,0,0,0,6091,0,0,0,0,6091,0,643770,1.29363e+06,3.21885e+06,0,0,662043,0,0,0,0,0,0,0,0,0,0,649861,0,0,0,0,0,0,0,0,0,0,0,0,0,0,0,0,0,0,0,1.93131e+06,1.28754e+06,0,0,0,0,6091,0,0,0,0,0,0,6091,0,0,0,0,0,0,0,0,0,0,0,0,0,0,0,0,0,0,0,0,0,0,0,3.86262e+06,0,1.93131e+06,643770,0,643770,24364,1.93131e+06,0,649861,0,0,0,0,1.93131e+06,0,0,0,0,6091,0,0,5.18062e+06,0,0,0,1.94958e+06,655952,1.94349e+06,2.57508e+06,643770,1.9374e+06,18273,2.57508e+06,0,649861,643770,0,0,12182,1.28754e+06,0,6091,0,0,0,0,1.28754e+06,0,0,0,0,6091,0,0,1.30581e+06,0,24364,0,2.86061e+07,1.75402e+07,7.83488e+06,3.91135e+06,3.26758e+06,1.95567e+06,6.4377e+06,0,0,3.89308e+06,5.15016e+06,0,5.15016e+06,0,3.21885e+06,60910,5.18062e+06,54819,4.50639e+06,0,60910,3.21885e+06,48728,0,6.4377e+06,0,42637,0,0,12182,0,30455,0,649861,649861,649861,649861,649861,649861,649861,643770,0,649861,643770,0,643770,6091,643770,6091,649861,6091,643770,0,6091,643770,6091,0,643770,0,6091,0,0,649861,0,6091,1.10598e+07,649861
0,0,0,0,0,0,13170,0,0,13170,0,0,0,0,0,0,0,0,0,0,13170,13170,0,0,0,0,0,0,0,0,0,0,0,0,0,0,0,13170,0,39510,0,0,0,0,0,0,0,0,0,0,0,13170,0,0,0,0,0,0,0,0,0,0,0,0,0,0,0,0,0,0,0,0,0,0,0,0,0,0,0,0,0,0,0,0,0,0,0,0,0,0,0,0,0,0,0,0,0,0,0,0,0,0,0,0,0,0,0,0,0,0,13170,0,0,65850,0,0,0,13170,0,52680,52680,0,0,0,0,0,0,0,0,39510,0,0,0,39510,26340,39510,39510,0,26340,0,0,0,0,13170,0,0,13170,0,0,0,0,0,65850,26340,0,0,0,0,0,0,13170,0,52680,0,0,0,605820,368760,223890,105360,105360,26340,131700,0,118530,0,105360,0,0,52680,0,0,0,105360,0,0,39510,0,0,0,131700,0,0,118530,0,39510,131700,0,0,13170,13170,13170,13170,13170,13170,13170,0,13170,0,13170,0,0,13170,0,0,0,13170,0,13170,13170,0,0,0,13170,0,0,13170,0,13170,13170,0,223890,13170
0,0,0,4489,0,0,0,4489,4489,0,0,0,0,0,0,0,0,0,0,4489,0,0,0,0,0,0,0,0,0,4489,0,0,4489,0,0,0,8978,4489,0,0,0,0,0,0,0,0,0,0,0,0,0,0,4489,0,0,0,0,0,0,0,0,0,0,0,0,0,0,0,0,0,0,0,0,0,0,0,0,0,0,0,0,0,0,0,0,0,0,0,0,0,0,0,0,0,0,0,0,0,0,0,0,0,0,0,0,0,0,0,0,0,0,0,0,0,0,0,0,0,0,4489,0,0,0,0,0,0,0,0,0,0,0,0,0,8978,8978,4489,8978,0,0,0,0,0,0,0,0,0,0,0,0,0,0,0,8978,0,0,0,0,0,0,4489,0,4489,0,0,4489,0,206494,125692,71824,35912,35912,35912,40401,40401,0,0,0,0,0,0,0,0,0,44890,35912,31423,0,0,0,44890,44890,0,40401,44890,35912,0,0,35912,0,4489,4489,4489,4489,4489,4489,4489,4489,0,0,0,0,0,0,0,0,0,4489,4489,4489,0,0,0,4489,4489,0,4489,4489,4489,0,0,4489,49379,0
0,5.12063e+07,2.31606e+07,-3.94899e+07,1.04232e+07,102265,1.10119e+07,6.98779e+06,339707,-4.99224e+07,1.10683e+07,0,3.20311e+06,417769,9.94221e+06,-1.45241e+08,-5.1959e+07,38480,18143,0,1.71047e+07,5.94284e+06,-5.15703e+07,3.77678e+06,18143,543858,62373,7.46419e+06,47836,-4.81727e+07,2.98372e+06,0,1.0608e+07,0,3.38408e+07,4.12211e+07,-1.41869e+07,1.28043e+06,61811,6.20547e+06,265200,0,0,0,0,0,0,0,0,0,0,0,0,1.43901e+06,0,0,3.34124e+06,0,0,0,0,0,0,0,0,0,0,1.52353e+08,6.18502e+07,138114,9.93798e+06,29693,6.33494e+06,6.31679e+06,204928,204928,67409,353461,1.66155e+06,0,132157,0,0,169499,0,0,217335,520807,2.43102e+06,563956,0,0,0,0,0,2.90841e+07,204928,0,-2.39721e+07,0,0,0,0,0,0,0,0,2.80977e+07,1.43306e+07,2.98106e+07,0,607624,67409,4.43033e+07,3.09292e+07,0,0,0,0,5.50326e+06,7.33128e+06,4.94742e+06,0,183081,0,0,6.3467e+06,29693,4.83452e+06,3.20833e+07,0,4.82015e+06,0,-8.97505e+07,-7.31604e+07,1.75884e+06,6.40485e+07,9.23782e+06,-1.50837e+07,2.3521e+07,-4.89986e+07,1.51241e+07,4.30562e+06,167659,2.00732e+07,88849,2.07287e+07,3.44402e+07,1.0805e+07,184921,0,191790,1.86127e+06,1.53997e+07,-4.0351e+07,1.11819e+07,653430,543858,2.88774e+06,9.48868e+06,4.41655e+06,-1.19299e+07,2.88914e+07,2.57776e+06,-8.70545e+06,0,4.35059e+07,7.07613e+07,8.03663e+07,-2.30099e+07,2.08051e+06,3.04346e+06,-7.38195e+07,-5.59218e+07,-3.2449e+07,-1.19702e+08,2.71043e+07,2.31099e+07,2.55378e+06,7.77867e+07,-1.22119e+07,-5.41802e+07,5.82688e+06,5.91297e+06,6.62695e+07,-1.17355e+07,6.85333e+07,-1.67681e+07,6.73279e+07,1.25067e+07,8.56593e+07,4.88247e+07,-1.7077e+08,5.38868e+07,-6.3577e+07,6.51929e+07,3.50247e+07,-5.33111e+07,0,1.43901e+06,1.43901e+06,1.43901e+06,1.43901e+06,1.43901e+06,1.43901e+06,1.43901e+06,-7.62781e+06,-5.27118e+06,-7.44499e+06,2.78884e+06,4.86554e+06,312781,1.52893e+07,-9.20835e+06,-9.53342e+06,621978,593111,8.4799e+06,1.43901e+06,1.02336e+07,-1.01311e+07,1.10522e+07,1.33614e+06,8.6747e+06,5.64056e+06,-1.47432e+07,5.83809e+06,-8.9761e+06,1.33964e+07,3.76024e+06,-6.99609e+06,-4.57326e+07,3.66389e+07
0,-4.56518e+07,6.29847e+07,6.03512e+07,1.37951e+07,2.97217e+07,-1.74782e+08,6.42974e+07,2.83903e+07,4.96141e+06,-2.60211e+07,1.87387e+06,-3.52419e+07,0,1.34958e+07,-1.79463e+07,106504,1.49214e+07,25165,1.10733e+07,2.47665e+08,-3.04791e+07,4.19357e+07,-1.09991e+07,3.48946e+07,0,5.33846e+06,3.08013e+07,2.58946e+07,-5.29098e+07,-1.10797e+08,0,1.56323e+07,0,-2.16038e+08,-1.10869e+08,-5.91889e+07,-9.60128e+07,4.81678e+06,4.20069e+07,-2.81644e+06,0,0,0,0,0,0,0,0,0,0,0,0,0,3.40383e+06,0,0,0,0,0,0,0,0,0,0,0,0,1.54641e+08,3.59753e+07,2.30387e+07,9.05235e+07,-5.62846e+07,7.92216e+07,3.30288e+07,3.45279e+06,5.25898e+06,1.09102e+06,7.58602e+06,947561,6.33628e+06,3.76853e+07,-4.46423e+07,288417,4.50392e+06,3.24463e+06,6.22382e+06,3.13072e+07,9.93934e+07,6.46998e+07,759206,47406,0,2.30308e+06,134922,12830,3.88255e+06,5.55507e+07,0,1.10192e+08,0,0,0,0,0,0,0,0,5.4496e+07,3.58653e+07,2.60359e+07,6.53605e+06,4.41995e+07,633855,1.11046e+08,-2.13877e+08,4.55689e+06,1.5399e+07,0,0,6.90875e+07,-5.44744e+07,5.19858e+07,0,3.80116e+06,0,-3.75887e+07,-5.18087e+07,5.44555e+07,1.36287e+07,-1.29254e+08,0,-1.24351e+08,0,-1.2869e+08,8.17126e+07,6.32714e+07,5.50505e+07,1.62979e+07,1.63437e+08,-1.86768e+08,-1.18761e+08,4.87201e+07,-2.98878e+07,2.78354e+07,-919979,3.11775e+07,-1.10424e+08,-7.58174e+07,7.78146e+06,2.34475e+07,2.34642e+06,2.6095e+07,-3.40952e+07,4.30724e+07,-2.628e+07,1.09999e+07,3.53786e+06,412086,-7.03723e+06,-4.51933e+07,-3.69214e+07,-6.41126e+07,-7.08414e+07,6.404e+06,-3.28732e+06,0,1.08183e+08,-1.5543e+07,-4.8734e+07,-2.12689e+07,3.26788e+07,-8.76926e+07,2.4916e+08,2.20455e+08,9.02657e+07,-2.1341e+08,1.73598e+08,-7.19399e+07,1.12411e+08,1.17478e+08,1.06805e+08,2.18729e+07,1.94316e+07,2.92694e+06,-1.01737e+08,-8.21412e+06,-3.61095e+07,1.67656e+07,-1.84619e+08,-1.75155e+08,-3.35607e+07,1.42295e+08,2.63881e+07,-9.30137e+07,-3.98683e+07,-1.1997e+08,2.8728e+08,4.29472e+07,0,3.40383e+06,3.40383e+06,3.40383e+06,3.40383e+06,3.40383e+06,3.40383e+06,3.40383e+06,1.88033e+07,2.03682e+07,-2.42102e+07,2.21626e+07,-6.29546e+06,1.50559e+07,1.70461e+07,-2.45478e+07,3.51336e+06,7.77034e+06,854315,-1.08154e+07,3.05751e+07,3.40383e+06,1.49244e+07,-2.29822e+07,-1.21694e+07,-3.31486e+06,1.05398e+07,-3.96777e+06,-4.95723e+06,-1.37465e+07,-3.75311e+07,2.93884e+07,4.17054e+06,5.83791e+07,-4.3114e+07
0,-1.28642e+08,-1.97944e+08,3.43084e+07,1.31364e+08,-1.54638e+08,6.82454e+07,-9.68342e+06,2.69123e+08,-6.5595e+07,1.10885e+08,-1.59981e+07,1.44192e+08,-4.68782e+08,1.62179e+08,1.28823e+08,1.982e+08,1.55412e+08,1.17732e+07,2.94503e+07,-5.87459e+08,2.64554e+08,6.87879e+08,1.17063e+08,1.51017e+08,2.94341e+06,-6.47196e+07,2.79067e+08,4.49127e+07,3.05821e+07,2.81586e+08,1.30564e+08,4.64694e+08,0,7.6888e+07,-3.1984e+08,1.70818e+08,1.97107e+08,-2.60808e+07,4.67221e+08,1.1008e+08,0,0,0,0,0,0,0,0,0,0,0,0,0,0,4.67485e+06,4.04125e+08,0,0,0,0,0,0,0,0,0,0,-1.06678e+08,2.11262e+08,2.78093e+08,-3.56199e+08,1.23228e+08,-3.58693e+08,-9.02488e+07,2.51035e+08,-7.77564e+07,1.63443e+08,1.31901e+08,1.88481e+08,1.2305e+08,-2.45915e+08,-1.352e+08,5.99371e+07,-4.55277e+07,763509,245298,2.53521e+08,8.25549e+07,-1.19682e+08,-1.87168e+08,2.37714e+07,148736,-6.32788e+07,-1.81615e+08,-3.27082e+07,2.30355e+08,-8.08215e+07,-3.44655e+07,-2.57512e+08,0,0,0,0,0,0,0,0,-2.02604e+08,-1.08353e+08,-3.32788e+08,-2.46691e+08,3.24219e+08,2.11124e+08,-5.37636e+07,-2.9302e+08,-3.44336e+07,7.65847e+07,0,0,-2.16675e+08,1.59375e+08,-7.18324e+07,0,1.07563e+08,150792,9.6136e+07,1.33181e+08,6.6899e+07,-2.65199e+07,-3.03045e+08,0,-5.60251e+07,0,1.78709e+07,-4.50124e+07,-2.0234e+08,4.58632e+08,1.05645e+07,1.00871e+08,1.92076e+08,-1.51868e+08,-2.69838e+07,-3.20448e+08,-2.59079e+07,3.01252e+07,2.51071e+06,3.31049e+08,2.15949e+08,-3.04672e+08,1.19309e+08,-2.59144e+07,-3.11186e+07,2.83199e+07,-2.7816e+08,-4.58625e+08,1.98688e+08,1.7923e+08,-5.01107e+07,-3.74164e+08,-1.93908e+07,-2.39762e+08,1.64146e+08,1.17554e+08,1.88956e+08,-4.08004e+07,0,9.70222e+07,8.90914e+07,-1.93316e+08,-1.5863e+08,8.43247e+07,-2.44047e+08,-1.22557e+08,-2.5222e+07,-8.42008e+07,-1.19417e+08,-4.38774e+07,3.20516e+06,-1.54683e+08,-3.34751e+07,1.28377e+08,5.62882e+06,5.93289e+07,-1.94616e+08,-8.31277e+07,-1.29007e+08,-1.81496e+08,7.98974e+07,-4.67518e+07,-7.23096e+07,7.88739e+07,-4.98937e+07,9.08082e+07,9.10979e+07,-1.12493e+08,-1.57389e+08,5.59781e+07,3.44128e+07,0,4.67485e+06,4.67485e+06,4.67485e+06,4.67485e+06,4.67485e+06,4.67485e+06,4.67485e+06,1.40464e+07,-2.70523e+07,-4.98324e+07,-2.96986e+07,6.90223e+07,-2.86781e+07,1.76422e+07,4.49284e+06,-6.9403e+06,3.74333e+07,-2.07993e+07,-1.47693e+07,-6.513e+07,4.68278e+06,4.67485e+06,6.11277e+07,4.05618e+07,3.28012e+06,-4.39574e+07,3.02051e+07,-1.08346e+07,2.37586e+07,-1.42116e+07,3.41033e+07,1.36211e+07,-1.64027e+08,1.36722e+08
0,0,0,0,0,0,0,0,0,0,0,0,0,0,0,0,0,0,0,0,0,0,0,0,0,0,0,0,0,0,0,0,0,0,0,0,0,0,0,0,0,0,0,0,0,0,0,0,0,0,0,0,0,0,0,0,0,0,0,0,0,0,0,0,0,0,0,0,0,0,0,0,0,0,0,0,0,0,0,0,0,0,0,0,0,0,0,0,0,0,0,0,0,0,0,0,0,0,0,0,0,0,0,0,0,0,0,0,0,0,0,0,0,0,0,0,0,0,0,0,0,0,0,0,0,0,0,0,0,0,0,0,0,0,0,0,0,0,0,0,0,0,0,0,0,0,0,0,0,0,0,0,0,0,0,0,0,0,0,0,0,0,0,0,0,0,0,0,0,0,0,0,0,0,0,0,0,0,0,0,0,0,0,0,0,0,0,0,0,0,0,0,0,0,0,0,0,0,0,0,0,0,0,0,0,0,0,0,0,0,0,0,0,0,0,0,0,0,0,0,0,0,0,0,0,0,0,0,0,0,0,0,0
0,1.57223e+07,6.8278e+06,5.04726e+06,1.09833e+07,3.90032e+06,8.50889e+06,0,105279,41320,299698,3.6381e+06,0,9190,6.53201e+06,211351,142848,0,1.68794e+06,0,1.28899e+07,41320,231466,263596,100688,0,0,5.20355e+06,1.95016e+06,0,606613,0,2.87792e+06,0,1.00473e+06,7.261e+06,-1.48256e+07,-1.2712e+07,1.13388e+06,-1.13098e+07,0,0,0,0,0,0,0,0,0,0,0,0,0,0,0,0,1.98366e+06,494595,0,0,0,0,0,0,0,0,0,1.88163e+06,3.08231e+06,5.9628e+06,-2.70664e+07,0,-1.34264e+07,0,0,5.85481e+06,22744,-1.3509e+07,0,96846,0,0,0,0,0,1.68794e+06,96846,0,25232,0,48423,0,0,0,1.73636e+06,48423,0,0,3.05688e+06,0,0,0,0,0,0,0,0,2.65322e+07,5.91437e+06,462932,0,422702,59564,-2.97174e+07,-6.03634e+07,0,5.87755e+06,-1.35574e+07,0,-6.42673e+06,59564,-2.24772e+07,0,2.9966e+06,0,2.38866e+07,862966,-1.35574e+07,5.85481e+06,4.75469e+07,0,0,0,1.16172e+07,1.29949e+06,2.22541e+07,-2.89186e+07,7.82125e+06,-8.58892e+06,2.22761e+07,1.49278e+07,32130,1.03878e+06,-5.75244e+06,678740,188344,-5.27767e+06,-2.64687e+07,113441,0,0,0,-1.57722e+07,64260,-1.92835e+07,1.15733e+06,3.96376e+06,-1.32425e+07,1.2433e+07,0,8.28651e+06,8.08024e+06,1.23525e+07,723039,6.6873e+06,0,2.02757e+07,-1.27311e+07,9.47165e+06,1.55568e+07,-8.89869e+06,2.87731e+07,-1.9285e+07,5.36698e+07,5.0029e+07,1.16481e+06,-2.91587e+07,5.73338e+07,3.15878e+06,-4.60162e+07,1.21551e+07,2.77688e+07,5.52126e+07,-1.03513e+08,-9.0096e+07,-4.83521e+07,843696,-4.46653e+07,3.63549e+07,-2.65811e+06,-6.76884e+07,2.47888e+07,2.20647e+07,-2.91042e+07,6.6819e+07,2.52667e+06,4.13926e+07,4.76339e+07,0,494595,494595,494595,494595,494595,494595,494595,9.52351e+06,6.18716e+06,298897,-3.55513e+06,5.84352e+06,351272,-7.44793e+06,-7.44656e+06,2.80938e+06,6.10902e+06,-1.15383e+07,-9.77374e+06,-5.75643e+06,100884,-8.61693e+06,4.96994e+06,494595,-8.09309e+06,6.11085e+06,2.81312e+06,-3.06886e+06,8.08024e+06,6.30327e+06,4.21156e+06,6.03569e+06,1.39114e+07,-4.47708e+06
0,2.57104e+07,2.92567e+07,1.34681e+07,1.45783e+07,131544,4.19671e+07,265826,189591,-1.46737e+08,2.41677e+07,5.53238e+06,0,0,0,-7.32166e+07,0,0,0,0,4.42073e+07,21304,2.31136e+07,42608,42608,6.78206e+07,0,55120,0,1.38359e+06,554411,0,1.28039e+07,0,-1.03986e+07,-7.00454e+06,-6.98733e+07,922710,0,-6.67627e+07,123139,0,0,0,0,0,0,0,0,0,0,0,0,0,0,0,21304,0,-1.2306e+06,0,0,0,0,0,0,0,0,3.32453e+07,3.61863e+06,7.89772e+07,4.05212e+06,0,-1.18546e+07,0,758364,189591,900037,0,0,0,6.02336e+06,1.09276e+07,0,0,0,0,-1.56815e+06,540038,1.28634e+07,21304,-1.26314e+07,1.12529e+07,189591,379182,-2.70629e+07,-1.25945e+07,18480,0,-1.24418e+07,0,0,0,0,0,0,0,0,189591,6.66347e+07,0,0,0,0,-6.69056e+06,-7.15271e+07,0,0,0,0,-7.42094e+07,0,2.12857e+06,0,0,0,0,22673,0,0,737140,0,0,0,4.19321e+07,1.66012e+07,-7.82735e+06,5.46413e+07,620966,-1.33187e+08,1.815e+06,1.23922e+07,-1.46669e+08,1.13075e+07,5.53238e+06,0,0,-8.36845e+07,2.79521e+07,0,0,5.45458e+06,0,2.17846e+07,291323,6.05364e+07,895273,3.86959e+06,1.06914e+07,568773,534768,-8.07688e+06,1.37352e+07,-6.49118e+06,189591,7.74605e+07,0,-5.66927e+07,-7.96813e+07,3.62783e+07,-1.02111e+07,-1.05973e+07,1.59993e+08,-1.49798e+07,1.13705e+08,2.56971e+08,2.01621e+07,-9.08426e+07,-7.52877e+06,226730,-6.33227e+07,9.87247e+07,551200,551200,4.90913e+07,5.2659e+07,-4.62926e+06,8.39906e+06,9.25076e+07,6.4209e+06,-6.03385e+06,-2.73254e+07,1.13755e+06,1.6821e+06,-4.5416e+07,-5.39745e+06,-4.67105e+07,995859,-7.18789e+07,0,-1.2306e+06,-1.2306e+06,-1.2306e+06,-1.2306e+06,-1.2306e+06,-1.2306e+06,-1.2306e+06,1.27235e+07,-6.37656e+06,5.65373e+06,-7.97778e+06,-752877,22673,-1.47674e+07,-713923,55120,55120,5.45458e+06,5.91419e+06,-1.44149e+06,925173,1.17635e+07,925173,-1.47531e+06,-1.2306e+06,189591,267384,-8.05558e+06,-287314,-5.87718e+06,118545,-7.41813e+06,-1.48474e+08,-1.63161e+06
0,1.1155e+08,2.46445e+07,2.01436e+07,3.12314e+07,334026,2.27157e+07,490446,1.20035e+07,5.40453e+06,1.61275e+06,9.10711e+06,0,1.256e+07,891896,1.2891e+07,3.68009e+07,63209,3.61344e+07,0,2.11972e+08,7.48415e+07,3.43058e+06,0,329873,0,1.64992e+07,3.84736e+06,0,2.41717e+07,6.52734e+07,0,1.01775e+07,0,-3.63357e+07,4.03877e+07,-3.0748e+07,1.79446e+07,5.08843e+06,1.0743e+08,662967,0,0,0,0,0,0,0,0,0,0,0,0,0,0,0,0,0,0,1.32904e+06,0,0,0,0,0,0,0,-1.00621e+08,1.66017e+07,2.59644e+07,-4.31302e+07,285272,4.45352e+06,490769,6.37504e+06,9.95924e+06,7.25716e+07,1119,0,1.05846e+07,444670,239544,1.08199e+06,63209,0,53022,3.59444e+07,9.41272e+06,-3.50211e+07,0,228315,0,3.48499e+07,27735,156724,3.94601e+07,3.11064e+07,1.26448e+06,1.55868e+07,0,0,0,0,0,0,0,0,-1.70676e+08,-1.63495e+07,3.61245e+07,0,0,-6.50313e+07,3.78543e+07,1.59548e+07,0,3.11433e+06,-4.853e+07,0,-1.16833e+08,-8.2039e+07,-3.8696e+07,0,0,0,2.47151e+07,3.39545e+06,4.97302e+06,-3.63815e+07,4.94141e+07,-2.35215e+07,-1.46769e+07,0,-1.25001e+07,-3.49228e+07,-4.09404e+07,-6.84578e+07,7.45113e+07,3.36977e+07,2.41787e+07,6.15233e+07,-8.70068e+06,9.62812e+06,1.28037e+07,0,1.56979e+07,2.48737e+07,8.99974e+06,4.02156e+07,7.13603e+06,0,1.89535e+06,6.88776e+07,5.20769e+07,5.62469e+07,-4.57283e+07,790123,3.6582e+06,-5.69551e+07,6.08967e+06,1.05538e+07,-2.74788e+07,-5.04877e+07,5.15643e+06,2.10089e+07,0,-1.28292e+07,-9.51118e+07,5.10448e+07,3.33476e+07,-6.95867e+07,-1.57664e+08,-2.0539e+07,-1.63215e+08,3.60216e+07,-2.07885e+08,-9.2038e+07,-1.44296e+08,-2.51393e+07,1.26743e+08,6.69795e+07,-9.57598e+07,1.28933e+08,-1.61511e+08,-2.63869e+07,9.40535e+07,4.94768e+07,-752237,-9.22343e+07,5.34182e+07,-4.33696e+06,-1.67889e+07,5.87341e+07,1.40239e+08,8.26846e+07,-7.77738e+07,-1.88135e+08,-2.18517e+07,0,1.32904e+06,1.32904e+06,1.32904e+06,1.32904e+06,1.32904e+06,1.32904e+06,1.32904e+06,-2.53989e+07,2.70201e+06,-8.79484e+06,-6.8116e+06,-1.44296e+07,-5.13281e+06,1.91035e+07,1.05064e+07,-1.76613e+06,1.39309e+07,-1.73906e+07,2.67937e+06,2.94014e+07,1.40055e+07,-1.03172e+06,-1.72453e+07,5.49948e+06,-67876,1.32904e+06,7.20943e+06,1.55923e+07,8.2456e+06,1.75325e+06,-2.05235e+07,-75001,2.40157e+08,-4.54004e+07
0,2.89222e+07,4.62915e+07,4.54628e+07,2.36052e+07,146829,1.70758e+07,3.11271e+07,3.1412e+07,76423,446509,2.59208e+06,65497,5.84596e+06,-7.74298e+06,-5.1286e+06,0,36899,0,85552,2.95814e+07,3.07535e+07,1.30414e+07,27234,3.07451e+06,0,1.6139e+06,3.08193e+07,4.50352e+06,1.89466e+07,7.38125e+07,0,3.83212e+07,0,-4.96489e+07,-3.50034e+07,8.29038e+06,-1.51754e+07,16550,7.92362e+06,2.71975e+07,0,0,0,0,0,0,0,0,0,0,0,0,0,0,0,27234,0,0,0,1.06267e+06,0,0,0,0,0,0,-7.20301e+07,2.42348e+07,1.32588e+07,-3.27746e+07,156354,7.48164e+06,7.95662e+07,1.16447e+06,5.46937e+06,81810,1.40582e+07,0,406322,2.13369e+07,1.69351e+07,0,0,14155,1.8043e+06,2.51115e+07,19762,2.28601e+06,2.9853e+06,4.98314e+06,0,96109,4.37966e+06,2.82718e+06,1.03443e+07,7.13447e+06,0,1.27696e+07,0,0,0,0,0,0,0,0,-7.20104e+06,7.76551e+06,352403,0,0,-2.69237e+07,-6.74152e+07,-2.72475e+07,0,-7.74618e+06,0,0,4.93776e+07,-2.92664e+06,-2.75094e+07,0,0,0,6.43145e+06,-3.91947e+07,4.36352e+06,-5.5183e+07,-1.1309e+08,0,-4.23864e+07,0,6.11628e+07,-9.83867e+06,-2.73208e+07,1.88657e+07,1.62224e+07,5.31855e+07,-5.75326e+07,2.70212e+07,1.37193e+07,1.45403e+06,1.86362e+07,2.64084e+07,-1.17068e+07,1.41605e+07,5.77167e+06,8.82623e+06,1.61724e+07,92687,69992,7.96042e+07,2.33097e+07,-4.11588e+07,5.53057e+07,-2.01097e+07,0,-854825,4.47027e+06,-9.34766e+07,-4.90947e+06,9.26475e+07,-2.47286e+07,-3.95981e+07,0,-7.13506e+06,-3.33024e+06,-1.86891e+07,-1.1665e+07,-8.04079e+06,-7.71652e+07,7.1129e+07,-1.2702e+08,1.08545e+08,1.37895e+08,-6.85435e+07,4.44086e+06,-1.39128e+08,4.47312e+07,-3.87926e+07,-765109,-9.11685e+07,1.74196e+08,-2.8636e+07,-4.19822e+07,2.37623e+07,3.38054e+07,-1.70607e+08,-1.46962e+08,-2.19182e+07,1.39835e+08,8.9355e+06,1.75571e+07,-4.30562e+07,2.33966e+07,-3.90965e+07,1.05735e+08,0,1.06267e+06,1.06267e+06,1.06267e+06,1.06267e+06,1.06267e+06,1.06267e+06,1.06267e+06,-7.46235e+06,1.35576e+07,1.40267e+07,-4.06409e+06,3.09147e+06,-1.71506e+07,507046,-4.8462e+06,806112,-8.27053e+06,1.74303e+07,1.53422e+06,1.41693e+07,7.49186e+06,-1.9392e+06,-1.23937e+07,-1.59014e+07,-2.19182e+06,1.48793e+07,1.06267e+06,-6.42253e+06,-7.38578e+06,8.39006e+06,-7.01462e+06,8.72298e+06,3.92615e+07,-5.36312e+06
0,0,0,14175,0,9450,0,0,14175,0,0,0,0,0,0,0,0,0,0,0,0,0,0,0,4725,0,0,0,14175,0,0,0,4725,0,0,0,0,0,9450,4725,4725,0,0,0,0,0,0,0,0,0,0,0,0,0,0,0,0,0,0,0,0,4725,0,0,0,0,0,0,0,0,0,0,0,0,0,0,0,0,0,0,0,0,0,0,0,0,0,0,0,0,0,0,0,0,0,0,0,0,0,0,0,0,0,0,0,0,0,9450,0,0,0,0,0,0,0,0,0,0,0,0,0,0,0,0,0,0,0,0,0,0,0,0,0,4725,18900,9450,4725,9450,23625,0,0,0,0,0,0,0,0,0,0,0,0,0,0,0,0,0,0,0,0,4725,0,0,0,0,4725,0,217350,108675,47250,37800,9450,9450,18900,23625,42525,0,42525,47250,0,0,0,47250,0,0,0,0,47250,0,0,42525,0,0,42525,28350,0,0,0,28350,0,4725,4725,4725,4725,4725,4725,4725,4725,4725,0,4725,4725,0,0,0,4725,0,0,0,0,4725,0,0,4725,0,0,4725,4725,0,0,0,4725,108675,4725
0,3.8076e+06,5.6118e+06,-2.75468e+06,51280,0,-1.72133e+06,144708,3.66538e+06,5.32489e+06,39591,0,0,198418,-8.93001e+06,1.93098e+06,0,0,0,0,-1.1569e+07,733839,780393,206592,777378,211763,3.48832e+06,-8.95844e+06,211763,0,8.90294e+06,0,3.86796e+06,0,1.26964e+07,2.70989e+06,1.72885e+07,2.19694e+06,0,-4.77641e+07,1187,0,0,0,0,0,0,0,0,0,0,0,0,0,0,0,379304,0,0,0,0,0,-77272,0,0,0,0,956150,689676,392415,5.76956e+06,0,1.05897e+06,145895,0,461326,0,0,0,0,5.16932e+06,0,0,0,0,0,165800,10502,39591,31506,123792,0,2374,39591,123792,17928,446695,0,1.84999e+06,0,0,0,0,0,0,0,0,1.12914e+07,1.04999e+07,285945,5.0269e+06,0,8.62945e+06,-1.32853e+07,1.12569e+06,303643,303643,0,0,-6.72198e+07,-3.45922e+07,1.41941e+06,0,0,0,0,-2.0057e+07,211763,303643,4.42634e+07,0,-1.23878e+07,0,3.90751e+07,-5.11759e+06,-1.75443e+07,2.95618e+07,54443,8.2043e+06,-8.93703e+06,-167835,1.60807e+07,2.51691e+06,5.54971e+06,0,1.89246e+06,-5.26482e+06,2.79602e+06,0,39591,0,0,-5.11903e+06,5.41423e+06,1.40823e+06,185588,732391,463117,3.48357e+06,-1.2691e+07,3.07417e+06,1.06493e+07,3.171e+07,39591,-3.18627e+06,0,8.80058e+06,-7.18077e+06,164612,-2.18546e+07,-672619,3.9604e+07,3.12145e+07,-7.69788e+07,2.59785e+07,1.70483e+07,-4.85624e+07,4.48098e+06,5.23761e+07,-1.93561e+06,1.91073e+06,4.3748e+06,1.60192e+07,5.68877e+07,1.1825e+06,2.78438e+07,-2.55028e+07,5.97756e+06,7.92118e+06,-5.97432e+07,4.06256e+07,2.78733e+07,462057,-6.41611e+07,-1.16768e+07,1.35385e+07,2.02579e+07,-5.60913e+07,0,-77272,-77272,-77272,-77272,-77272,-77272,-77272,-6.21899e+06,6.34672e+06,2.01756e+06,-4.96901e+06,448098,6.30964e+06,-2.42464e+06,776342,467844,1.63625e+06,5.68877e+06,180557,-5.58983e+06,-5.39364e+06,962519,1.09052e+06,-5.81096e+06,4.13004e+06,3.48476e+06,-3.1151e+06,-6.05396e+06,-77272,9.88615e+06,2.02975e+06,-6.57485e+06,1.03534e+07,-999838
0,5.26988e+06,8.60044e+07,-1.22506e+08,1.41705e+08,2.23044e+06,-3.01783e+07,-1.78532e+08,1.51142e+07,2.976e+07,1.20178e+08,2.26194e+07,2.12241e+06,3.68139e+07,-2.57234e+07,-9.00186e+07,170081,1.28752e+07,29486,4.02245e+06,9.63629e+07,3.92513e+07,2.24442e+07,2.68818e+06,76085,0,4.35192e+06,-1.66141e+07,4.26096e+07,-3.16913e+07,1.5959e+08,181538,9.06242e+06,0,-4.83298e+08,7.22424e+07,1.38661e+08,-1.26973e+08,-4.82298e+07,-1.13219e+08,-1.49657e+07,0,0,0,0,0,0,0,0,0,0,0,0,0,0,0,482925,0,0,0,0,0,0,574784,0,0,0,3.80242e+08,-6.39202e+07,9.39364e+07,7.01946e+06,9.46284e+06,1.28916e+08,2.01328e+08,4.9015e+07,2.09894e+07,-1.3869e+07,1.42751e+07,6.35627e+06,6.23046e+06,1.33449e+07,1.23913e+08,1.70296e+06,4.63530e+06,232867,-6.9894e+07,-2.82708e+08,-1.14217e+08,2.15644e+07,2.79541e+07,501856,6.11249e+06,3.71119e+07,6.89905e+07,3.02055e+07,5.39164e+07,2.38219e+08,1.36354e+06,0,0,0,0,0,0,0,0,0,1.40437e+07,-4.07977e+07,-9.1339e+07,-2.86116e+07,356768,-4.94861e+07,-3.629e+08,9.70808e+07,9.19261e+06,-2.78374e+07,0,0,-3.02258e+08,-9.122e+07,-1.38081e+07,0,149894,0,-2.39662e+08,-4.81661e+07,-7.08466e+07,-4.99732e+07,-1.76727e+08,3.37101e+06,8.97267e+06,0,-2.43729e+08,-6.18312e+07,-1.08223e+08,4.85428e+07,-1.90925e+06,-5.72469e+06,-1.19351e+08,2.65165e+08,2.55891e+07,1.21389e+08,5.96646e+06,1.19427e+07,-5.58068e+07,7.9533e+07,-6.12029e+07,4.32022e+06,6.50206e+06,184893,1.17071e+08,1.06381e+08,6.38924e+07,3.94135e+07,4.64311e+07,3.56963e+06,6.38586e+06,-2.12703e+08,-7.44795e+06,5.8703e+07,-4.05488e+06,-2.48407e+08,5.13688e+07,2.7971e+07,0,-6.32997e+06,1.08458e+07,4.89956e+06,-6.35558e+07,4.3044e+07,2.48042e+07,6.7831e+07,-1.96182e+08,6.97804e+07,3.22485e+07,1.68083e+08,-6.42263e+07,2.62425e+07,-6.94384e+07,-1.98653e+08,1.28817e+08,-1.01121e+08,1.42916e+08,3.34533e+07,-1.35075e+08,5.79814e+07,1.15539e+08,-5.43236e+07,2.07939e+08,5.26146e+07,1.37065e+08,2.13769e+07,1.14078e+08,-3.18451e+07,3.24982e+07,-1.02251e+08,1.89814e+08,0,574784,574784,574784,574784,574784,574784,574784,1.47155e+07,1.14696e+07,1.86656e+07,1.92017e+07,-4.34482e+06,-3.6006e+06,-3.65184e+07,-1.28881e+07,1.44203e+07,-1.04621e+07,1.43364e+07,-1.36987e+07,-5.17296e+07,-9.46955e+06,1.85153e+07,2.90409e+06,2.12562e+07,6.5113e+06,-2.73836e+07,1.84805e+06,1.83942e+07,-6.36481e+06,574784,-4.56669e+06,2.39619e+07,9.2008e+07,-6.69394e+07
0,0,568738,0,0,0,0,284369,0,0,0,0,0,0,0,0,0,0,0,0,0,0,0,0,0,0,0,0,0,0,0,0,284369,0,0,0,0,0,0,0,0,0,0,0,0,0,0,0,0,0,0,0,0,0,0,0,0,0,0,0,0,0,0,0,284369,0,0,284369,0,0,284369,0,0,284369,0,0,0,0,0,0,0,0,0,0,0,0,0,0,0,0,0,0,0,0,0,0,0,0,0,0,0,0,0,0,0,0,0,0,0,0,0,0,0,0,0,0,0,0,0,568738,0,853107,0,0,0,0,284369,0,0,0,0,0,0,1.42184e+06,1.13748e+06,0,284369,0,0,853107,0,0,0,0,0,0,0,0,0,0,0,0,568738,0,853107,0,0,0,0,1.42184e+06,0,0,0,0,284369,0,1.3081e+07,6.82486e+06,5.68738e+06,2.27495e+06,2.27495e+06,2.27495e+06,568738,0,2.84369e+06,0,0,2.84369e+06,0,0,0,2.84369e+06,0,0,2.55932e+06,1.70621e+06,0,1.13748e+06,2.27495e+06,0,0,0,1.13748e+06,0,0,0,2.55932e+06,2.27495e+06,0,284369,284369,284369,284369,284369,284369,284369,0,284369,0,0,284369,0,0,0,284369,0,0,284369,284369,0,284369,284369,0,0,0,284369,0,0,0,284369,284369,3.6968e+06,0
0,-1.55233e+08,3.19203e+08,-2.34513e+08,-2.25306e+08,-5.82059e+07,-6.96531e+07,-1.66246e+08,-5.32537e+07,1.76786e+08,5.20061e+08,-1.08571e+08,-1.09549e+08,-7.51666e+07,-3.11139e+08,-2.62393e+07,-1.20413e+08,-4.64774e+07,-1.61989e+07,-8.69329e+07,-5.22527e+08,2.17576e+07,-1.90703e+08,-1.7826e+08,7.87543e+07,1.90538e+08,-3.4093e+08,-9.69384e+07,-2.43148e+08,3.49012e+08,3.45782e+08,-1.66224e+07,-5.7119e+07,0,9.71002e+07,1.39093e+08,3.065e+08,9.20119e+08,-3.51756e+07,-3.45138e+08,1.97766e+09,0,0,0,0,0,0,0,0,0,0,0,0,0,0,0,7.86329e+07,0,0,0,0,0,0,0,0,-1.03178e+07,0,-1.44377e+08,1.12686e+08,-1.5463e+08,1.25746e+08,1.70813e+07,-1.71676e+08,-3.88871e+08,1.95951e+07,-7.10809e+06,1.9058e+08,-9.21019e+07,-1.43778e+08,-7.97596e+07,-7.8975e+07,9.98546e+06,7.00751e+07,-1.61271e+08,2.96737e+07,9.2977e+07,1.02621e+08,-8.97322e+07,-1.59472e+08,-2.53379e+08,2.96053e+08,0,-1.24682e+08,-1.16319e+08,1.20072e+08,-3.93576e+08,2.29249e+08,-6.77277e+06,-7.784e+07,0,0,0,0,0,0,0,0,-2.14998e+08,-5.05638e+07,1.68762e+08,-126186,-1.12366e+08,1.759e+08,1.18436e+08,3.2075e+08,-1.76284e+08,-2.28191e+08,-1.78137e+08,0,2.49161e+07,-1.00426e+08,7.7614e+07,0,-2.43341e+08,0,1.31902e+08,1.35629e+08,-6.08068e+07,4.89277e+07,2.85188e+07,-9.63472e+07,0,0,1.46723e+08,-7.40647e+07,-7.00966e+07,5.6738e+07,-2.30633e+08,9.9034e+07,9.10089e+07,-624149,-1.17474e+08,-7.74332e+07,-2.10239e+08,2.62781e+08,-3.17768e+08,6.88908e+07,-2.04019e+07,-2.78172e+08,2.87924e+08,2.57949e+07,-5.22551e+07,-1.20091e+08,5.28389e+07,3.04519e+07,-1.88635e+08,-8.20535e+07,1.4005e+08,2.72702e+08,1.18432e+08,2.50951e+08,5.59452e+08,3.49385e+07,-2.44036e+08,1.17891e+08,0,-1.39405e+08,-1.84249e+07,-1.48993e+08,4.02533e+08,2.24391e+08,3.65058e+08,-7.2768e+07,-6.51195e+07,-1.83305e+08,4.20741e+07,-3.18158e+07,6.47878e+07,-1.05011e+08,4.34509e+07,-7.72184e+07,-1.18273e+08,4.66152e+07,2.22308e+07,7.66459e+07,4.88377e+07,1.20618e+08,4.9359e+07,5.26684e+07,-8.69233e+06,-8.1377e+07,179618,-1.05688e+08,5.70937e+06,2.17562e+07,-9.24577e+06,1.38949e+07,9.25949e+07,0,-1.03178e+07,-1.03178e+07,-1.03178e+07,-1.03178e+07,-1.03178e+07,-1.03178e+07,-1.03178e+07,-3.144e+07,-1.24332e+07,8.92682e+07,-1.73562e+07,7.62383e+06,-4.89908e+07,-1.79914e+07,2.06876e+07,-6.77441e+07,-1.014e+07,-1.16636e+07,3.1791e+07,-4.66243e+07,1.60003e+06,-1.63823e+07,-8.47228e+07,3.97158e+06,2.49211e+07,-1.1679e+07,-1.97203e+06,1.13068e+07,3.13544e+07,6.29243e+07,830579,-1.03178e+07,1.48069e+08,-2.90818e+07
