0,-296.495,-255.124,107.441,-375.935,47.6186,318.523,-124.708,-413.816,-55.1744,-417.277,-57.8221,24.2968,77.2849,86.6577,302.456,-19.7841,-214.083,-63.1802,197.392,13.1795,-42.7322,-225.758,344.452,29.8372,-199.35,-380.767,-35.4956,413.565,-38.1436,-486.344,-88.4454,-371.449,0,-1048.71,392.415,761.947,-1798.71,109.123,-497.367,-2154.35,-2.71616,5.70999,0.891307,-1.00052,-0.995623,-1.24704,8.48077,0.131815,1.80654,-1.70767,1.04627,-0.999999,-2.26455,-3.20272,3.30851,-525.335,-1.97016,0.424322,-1.5442,-0.762443,-0.992004,-0.913877,-2.29797,-0.986044,9.53101,0,-383.925,-138.381,-521.608,-89.3019,-75.3831,323.282,113.869,-522.658,-21.5308,-348.568,-49.9968,-98.0884,299.427,121.1,210.792,-119.174,-13.7014,-129.296,-148.908,252.426,-174.137,-33.6937,-68.7241,-4.13447,124.954,113.926,146.085,-13.22,-295.32,-164.82,-39.6866,125.532,0,0,0,0,0,0,0,0,223.959,-102.642,63.7735,225.026,6.09001,-30.0737,551.389,726.981,134.41,150.359,276.091,0,466.464,186.088,-506.12,0,32.6649,-4.04254,-85.9811,-158.699,-176.369,206.267,617.613,94.2959,488.358,0,-129.752,48.3759,292.975,-212.784,-100.855,-287.735,342.827,-135.525,-35.9009,359.936,198.844,154.552,-53.6123,294.412,-20.1865,142.196,-207.699,224.784,-85.5617,-101.686,-329.101,507.454,-109.562,216.216,-93.2841,-216.423,-205.806,147.614,-560.381,273.548,53.7243,413.081,0,-305.813,-36.7457,-38.8486,-488.949,81.3335,300.416,-14.8336,127.824,-47.0864,61.5407,-68.8823,102.487,-19.1915,96.6071,49.7193,84.2754,160.316,108.632,26.6671,73.8419,69.9902,34.242,285.653,118.729,34.2691,160.947,27.2947,81.7148,132.029,164.807,86.1595,-84.4093,0,7.72956,7.72956,7.72956,7.72956,7.72956,7.72956,7.72956,-72.2933,-27.9604,-45.2087,11.5385,13.7559,21.6299,111.591,131.676,13.9229,-3.24442,39.0776,-159.042,70.196,-33.8479,-24.9601,-3.81576,44.8552,-15.0708,-62.5078,-20.1449,42.3709,-40.178,43.191,-2.73798,44.5025,163.649,44.6026
0,0,0,0,0,0,0,0,0,0,0,0,0,0,0,0,0,0,0,0,0,0,0,0,0,0,0,0,0,0,0,0,0,0,0,0,0,0,0,0,0,0,0,0,0,0,0,0,0,0,0,0,0,0,0,0,0,0,0,0,0,0,0,0,0,0,0,0,0,0,0,0,0,0,0,0,0,0,0,0,0,0,0,0,0,0,0,0,0,0,0,0,0,0,0,0,0,0,0,0,0,0,0,0,0,0,0,0,0,0,0,0,0,0,0,0,0,0,0,0,0,0,0,0,0,0,0,0,0,0,0,0,0,0,0,0,0,0,0,0,0,0,0,0,0,0,0,0,0,0,0,0,0,0,0,0,0,0,0,0,0,0,0,0,0,0,0,0,0,0,0,0,0,0,0,0,0,0,0,0,0,0,0,0,0,0,0,0,0,0,0,0,0,0,0,0,0,0,0,0,0,0,0,0,0,0,0,0,0,0,0,0,0,0,0,0,0,0,0,0,0,0,0,0,0,0,0,0,0,0,0,0,0
0,0,0,0,0,0,0,0,0,0,0,0,0,0,0,0,0,0,0,0,0,0,0,0,0,0,0,0,0,0,0,0,0,0,0,0,0,0,0,0,0,0,0,0,0,0,0,0,0,0,0,0,0,0,0,0,0,0,0,0,0,0,0,0,0,0,0,0,0,0,0,0,0,0,0,0,0,0,0,0,0,0,0,0,0,0,0,0,0,0,0,0,0,0,0,0,0,0,0,0,0,0,0,0,0,0,0,0,0,0,0,0,0,0,0,0,0,0,0,0,0,0,0,0,0,0,0,0,0,0,0,0,0,0,0,0,0,0,0,0,0,0,0,0,0,0,0,0,0,0,0,0,0,0,0,0,0,0,0,0,0,0,0,0,0,0,0,0,0,0,0,0,0,0,0,0,0,0,0,0,0,0,0,0,0,0,0,0,0,0,0,0,0,0,0,0,0,0,0,0,0,0,0,0,0,0,0,0,0,0,0,0,0,0,0,0,0,0,0,0,0,0,0,0,0,0,0,0,0,0,0,0,0
0,0,0,0,0,0,0,0,0,0,0,0,0,0,0,0,0,0,0,0,0,0,0,0,0,0,0,0,0,0,0,0,0,0,0,0,0,0,0,0,0,0,0,0,0,0,0,0,0,0,0,0,0,0,0,0,0,0,0,0,0,0,0,0,0,0,0,0,0,0,0,0,0,0,0,0,0,0,0,0,0,0,0,0,0,0,0,0,0,0,0,0,0,0,0,0,0,0,0,0,0,0,0,0,0,0,0,0,0,0,0,0,0,0,0,0,0,0,0,0,0,0,0,0,0,0,0,0,0,0,0,0,0,0,0,0,0,0,0,0,0,0,0,0,0,0,0,0,0,0,0,0,0,0,0,0,0,0,0,0,0,0,0,0,0,0,0,0,0,0,0,0,0,0,0,0,0,0,0,0,0,0,0,0,0,0,0,0,0,0,0,0,0,0,0,0,0,0,0,0,0,0,0,0,0,0,0,0,0,0,0,0,0,0,0,0,0,0,0,0,0,0,0,0,0,0,0,0,0,0,0,0,0
0,0,0,0,0,0,0,0,0,0,0,0,0,0,0,0,0,0,0,0,0,0,0,0,0,0,0,0,0,0,0,0,0,0,0,0,0,0,0,0,0,0,0,0,0,0,0,0,0,0,0,0,0,0,0,0,0,0,0,0,0,0,0,0,0,0,0,0,0,0,0,0,0,0,0,0,0,0,0,0,0,0,0,0,0,0,0,0,0,0,0,0,0,0,0,0,0,0,0,0,0,0,0,0,0,0,0,0,0,0,0,0,0,0,0,0,0,0,0,0,0,0,0,0,0,0,0,0,0,0,0,0,0,0,0,0,0,0,0,0,0,0,0,0,0,0,0,0,0,0,0,0,0,0,0,0,0,0,0,0,0,0,0,0,0,0,0,0,0,0,0,0,0,0,0,0,0,0,0,0,0,0,0,0,0,0,0,0,0,0,0,0,0,0,0,0,0,0,0,0,0,0,0,0,0,0,0,0,0,0,0,0,0,0,0,0,0,0,0,0,0,0,0,0,0,0,0,0,0,0,0,0,0
0,0,0,0,0,0,0,0,0,0,0,0,0,0,0,0,0,0,0,0,0,0,0,0,0,0,0,0,0,0,0,0,0,0,0,0,0,0,0,0,0,0,0,0,0,0,0,0,0,0,0,0,0,0,0,0,0,0,0,0,0,0,0,0,0,0,0,0,0,0,0,0,0,0,0,0,0,0,0,0,0,0,0,0,0,0,0,0,0,0,0,0,0,0,0,0,0,0,0,0,0,0,0,0,0,0,0,0,0,0,0,0,0,0,0,0,0,0,0,0,0,0,0,0,0,0,0,0,0,0,0,0,0,0,0,0,0,0,0,0,0,0,0,0,0,0,0,0,0,0,0,0,0,0,0,0,0,0,0,0,0,0,0,0,0,0,0,0,0,0,0,0,0,0,0,0,0,0,0,0,0,0,0,0,0,0,0,0,0,0,0,0,0,0,0,0,0,0,0,0,0,0,0,0,0,0,0,0,0,0,0,0,0,0,0,0,0,0,0,0,0,0,0,0,0,0,0,0,0,0,0,0,0
0,0,0,0,0,0,0,0,0,0,0,0,0,0,0,0,0,0,0,0,0,0,0,0,0,0,0,0,0,0,0,0,0,0,0,0,0,0,0,0,0,0,0,0,0,0,0,0,0,0,0,0,0,0,0,0,0,0,0,0,0,0,0,0,0,0,0,0,0,0,0,0,0,0,0,0,0,0,0,0,0,0,0,0,0,0,0,0,0,0,0,0,0,0,0,0,0,0,0,0,0,0,0,0,0,0,0,0,0,0,0,0,0,0,0,0,0,0,0,0,0,0,0,0,0,0,0,0,0,0,0,0,0,0,0,0,0,0,0,0,0,0,0,0,0,0,0,0,0,0,0,0,0,0,0,0,0,0,0,0,0,0,0,0,0,0,0,0,0,0,0,0,0,0,0,0,0,0,0,0,0,0,0,0,0,0,0,0,0,0,0,0,0,0,0,0,0,0,0,0,0,0,0,0,0,0,0,0,0,0,0,0,0,0,0,0,0,0,0,0,0,0,0,0,0,0,0,0,0,0,0,0,0
0,0,0,0,0,0,0,0,0,0,0,0,0,0,0,0,0,0,0,0,0,0,0,0,0,0,0,0,0,0,0,0,0,0,0,0,0,0,0,0,0,0,0,0,0,0,0,0,0,0,0,0,0,0,0,0,0,0,0,0,0,0,0,0,0,0,0,0,0,0,0,0,0,0,0,0,0,0,0,0,0,0,0,0,0,0,0,0,0,0,0,0,0,0,0,0,0,0,0,0,0,0,0,0,0,0,0,0,0,0,0,0,0,0,0,0,0,0,0,0,0,0,0,0,0,0,0,0,0,0,0,0,0,0,0,0,0,0,0,0,0,0,0,0,0,0,0,0,0,0,0,0,0,0,0,0,0,0,0,0,0,0,0,0,0,0,0,0,0,0,0,0,0,0,0,0,0,0,0,0,0,0,0,0,0,0,0,0,0,0,0,0,0,0,0,0,0,0,0,0,0,0,0,0,0,0,0,0,0,0,0,0,0,0,0,0,0,0,0,0,0,0,0,0,0,0,0,0,0,0,0,0,0
0,10.835,4.91958,6.29791,7.86582,1.97844,2.94908,3.89142,6.55238,0.991859,0,0,0,0,3.9805,4.70201,0.999988,0,0,0.997093,0.954895,0,1.95063,0.954895,0,0,0.954895,2.98193,0,1.94264,5.417,0,2.79034,0,15.0323,26.0936,-17.0473,1.98773,1.97844,32.9697,1.99419,2.71616,0,0,0,0,0,0,0,0,0,0,0,0,0,0,14.304,0,0,0,0,0,0,0,0,0,0,3.96285,3.85155,9.65056,2.88256,2.96766,-4.92103,0.964777,-20.5195,4.85144,0,0.954895,0,0,0.991859,0,0,1.99998,0,0,1.92766,0,-21.933,15.304,-25.3587,0,1.90979,1.92955,0,0.964777,0,0,-21.7282,0,0,0,0,0,0,0,0,26.1591,30.5803,3.76352,0,0,0,42.7563,101.841,14.304,0,0,0,7.11088,0,-22.933,0,0,0,44.8956,7.27717,0.713641,0,63.7425,0.980461,0,0,122.461,11.4101,13.6327,23.9682,0,31.6309,29.3257,-75.3647,23.1115,7.27774,0.954895,0,0,-24.7674,33.0294,17.0039,1.99998,0,0.997093,7.45443,0,-19.2409,23.5165,-50.7174,2.42572,60.1573,3.91439,1.92955,2.90741,52.7351,0.999988,-18.9378,0,77.955,-66.8792,35.2908,12.976,14.8047,-40.8993,-22.6408,87.6182,112.189,43.7366,65.9673,-95.1571,29.7817,-67.0842,30.5741,166.909,5.99993,53.4113,30.2087,-199.926,19.8483,-105.038,-83.7918,-120.396,-44.0282,64.8719,37.6503,61.237,23.2593,93.2038,-225.844,-142.678,0,2.71616,2.71616,2.71616,2.71616,2.71616,2.71616,2.71616,2.71616,18.702,5.47778,7.12657,-8.08531,2.97817,-4.4123,17.0147,19.9217,0.999988,5.34113,4.89784,-18.2478,1.98483,-16.4769,-3.71406,-19.6472,-4.16024,18.9077,5.37533,6.38802,2.90741,21.5098,-22.3864,-17.9574,57.7038,-21.6798
0,88.8764,-46.6507,-237.287,-54.4384,25.7494,-46.9019,-62.2803,30.2486,-186.178,83.997,-53.7935,0,295.007,-140.407,-293.741,-30.6522,-37.5583,0,-195.531,234.713,-105.793,-261.651,9.16968,-78.9768,8.7003,210.2,-140.118,-223.99,-217.388,-416.419,32.5962,-146.439,0,202.226,121.186,114.582,721.607,35.5782,412.7,84.2657,0,-5.70999,0,0,0,0,0,0,0,0,0,0,0,0,0,2.97394,0,0,0,0,0,0,0,0,0,0,-174.196,-486.256,-46.8028,-25.1036,-34.9795,-41.1383,125.133,-74.6012,162.399,82.4997,36.8193,0,-323.52,-73.1206,55.1497,6.75027,0.941236,0,13.2473,-195.894,-64.9249,84.6674,78.3511,4.13651,-55.1061,-100.663,15.0742,-28.3925,132.015,-326.98,-98.2667,8.01512,0,0,0,0,0,0,0,0,197.235,112.737,309.241,-50.705,9.66476,-57.2076,260.321,-79.3326,28.6807,27.5626,-69.9849,0,64.5669,-32.3123,247.052,0,88.8173,0,29.7497,237.375,145.931,42.5298,189.018,5.77161,20.2255,0,196.852,404.46,-101.51,-572.011,12.7361,-289.477,-47.5213,283.166,372.983,-15.9237,-192.118,-73.5368,-185.9,-335.894,-524.919,-56.988,-34.9254,0,-62.553,-313.888,-45.7917,-16.2205,100.905,41.7738,39.2976,222.547,104.421,-8.75259,-25.7084,-76.0519,50.5728,-153.95,0,-81.4231,31.9625,-129.719,81.3884,-84.764,-143.832,-21.8391,50.7887,-507.95,190.734,38.0829,-314.14,95.1526,264.719,-3.38116,-238.912,-26.1724,-85.7767,528.77,41.8278,135.857,180.107,-141.534,129.354,-331.421,9.4878,393.156,-51.1263,-38.3454,-119.95,116.919,107.16,0,-5.70999,-5.70999,-5.70999,-5.70999,-5.70999,-5.70999,-5.70999,48.6837,-5.70999,67.773,-10.4739,-37.8012,-11.2437,3.55396,-84.6223,-23.0445,-19.2972,-12.8461,45.1293,-16.8675,-11.2965,24.5252,6.23331,15.6739,-30.1174,44.2215,52.1272,-21.8046,-6.81559,-77.5769,10.7593,-6.26288,187.667,80.6805
0,251.951,65.4455,99.0797,149.999,12.8061,69.4266,14.4446,60.5535,3.86696,103.675,16.2322,11.1605,6.77264,46.126,49.3917,9.42755,9.8845,0,0,126.848,23.5823,11.5498,6.917,0,0,4.1505,42.04,5.95083,49.641,99.8377,0.997506,73.4714,0,-261.263,-103.761,20.9369,-195.441,12.1957,12.6446,8.715,0,0,-0.891307,0,0,0,0,0,0,0,0,0,0,0,0,1.96224,0,0,0,0,0,0,0,0,0,0,117.208,29.6975,23.9366,71.488,2.39924,20.9619,16.115,132.863,6.78666,47.927,17.6482,1.89792,2.75583,32.8728,10.4851,2.73278,13.3583,0,6.97485,40.6153,0,16.0191,3.92448,0.759104,0,1.84272,72.2164,0.985619,2.9152,37.9646,0.995842,15.1482,0,0,0,0,0,0,0,0,-176.889,-6.89722,-475.746,-43.2556,0,0.997484,-207.468,-143.515,-15.5662,-38.8498,0,0,-273.043,-5.28952,32.8699,0,0.997484,0,-8.33978,-6.39807,0.991255,-27.5808,-574.816,-18.589,-83.7908,0,-114.229,-74.5235,-74.7165,49.8434,-16.3589,-54.8535,15.87,70.8008,10.5646,15.6393,7.14971,-39.1712,39.1407,-167.423,180.53,-5.75693,-14.9914,0.94004,-23.7138,-31.1533,10.9447,48.6427,-64.2536,5.49293,1.96292,4.72646,-81.0669,-4.63391,29.6717,107.49,4.91521,21.2366,0,86.3191,3.5219,-92.7081,-111.701,-18.1727,-55.31,177.5,-162.022,36.8307,299.519,-147.759,-88.5296,247.557,88.4054,-154.993,224.655,117.378,-43.0356,-157.039,209.883,-138.54,-59.0008,-66.7042,146.374,291.699,-479.42,54.3619,134.466,271.61,-28.8638,-20.4242,99.0635,0,-0.891307,-0.891307,-0.891307,-0.891307,-0.891307,-0.891307,-0.891307,-7.46938,5.49518,-0.891307,-16.4581,-11.4642,29.7223,-20.151,-5.81008,21.5492,8.67793,-4.20956,-21.3864,7.31498,-10.9303,5.77571,-14.7693,15.3623,29.3661,-47.514,8.11533,13.7759,32.6257,-35.8387,-3.21046,13.409,-15.0459,-92.3483
0,-67.7661,-327.618,34.7372,-81.6763,125.889,-413.996,-18.9998,-153.133,167.003,-413.03,-43.4785,-28.8153,-50.9561,49.6863,-110.915,57.5059,12.6813,7.24898,2.81596,-161.511,-163.958,-161.856,26.5414,-20.4638,23.0147,64.8675,-139.107,-194.523,-13.365,-128.489,5.25248,-23.8514,0,1495.25,25.1433,-622.412,-263.911,-138.047,82.1074,-379.499,0,0,0,1.00052,0,0,0,0,0,0,0,0,0,0,0,30.4581,0,0,0,0,0,0,0,0,0,0,-168.114,53.7929,243.424,335.38,254.09,-103.069,231.163,34.9662,-31.0721,-273.952,-16.1368,131.283,11.9214,127.873,-148.017,25.9205,35.4274,41.9172,75.5452,-397.394,-30.2972,73.2731,69.7287,-20.3134,-87.6442,64.0715,129.577,38.1089,83.8992,66.1283,19.4489,23.7275,0,0,0,0,0,0,0,0,457.512,38.691,258.79,0,-29.1921,121.835,313.002,-149.751,0,19.8673,-35.4593,0,421.52,40.979,331.272,0,-26.2267,0,93.2271,-10.6167,-125.238,73.9184,453.462,0,0,0,-34.6204,-104.843,214.935,244.757,222.156,40.1946,260.618,158.558,-90.9186,167.404,-98.2002,-288.109,52.9921,-198.565,331.711,76.1593,47.0959,-181.949,19.9263,-28.8932,-265.131,331.097,-469.759,-38.8426,42.234,122.106,-42.6144,-147.583,172.439,-412.362,-15.9716,-8.59204,0,-193.342,-122.758,192.314,121.434,-456.084,393.825,75.9301,74.8807,-13.3991,57.4471,137.136,115.593,-51.1935,-227.96,-335.364,-253.008,82.6986,-79.2008,-110.273,228.453,-181.596,166.1,268.523,-134.954,274.933,181.697,116.809,-299.899,-65.6918,260.758,-217.576,-90.9966,0,1.00052,1.00052,1.00052,1.00052,1.00052,1.00052,1.00052,57.2784,-4.97008,-13.4592,1.00052,-9.92399,8.45987,6.40366,-41.2337,-9.34226,23.5904,-24.7443,-12.01,6.21753,-60.0003,82.889,-9.31352,-24.08,25.2537,56.8752,9.49014,-72.9134,25.12,23.9498,-20.8846,-13.6476,-14.2873,187.984
0,0,0,0,0,0,0,0,0,0,0,0,0,0,0,0,0,0,0,0,0,0,0,0,0,0,0,0,0,0,0,0,0,0,0,0,0,0,0,2.98687,0,0,0,0,0,0.995623,0,0,0,0,0,0,0,0,0,0,0,0,0,0,0,0,0,0,0,0,0,0,0,0,0,0.995623,1.99125,0,0,0,0,0,0,0,0,0,0,0,0,0,0,0,0,0,0,0,0,0,0,0,0,0,0,0,0,0,0,0,0,0,0,0,1.99125,1.99125,0,0,0,2.98687,0,0,0,0,0,0,0,0,0,0,0,0,0,0,0.995623,4.97811,0,0,0,2.98687,0,4.97811,1.99125,0.995623,2.98687,0,0,0,0.995623,0,0,0,0.995623,0,0,0,0,0,0,0,0,0,0,0,0,0,0,1.99125,4.97811,0,0.995623,0,45.7987,29.8687,11.9475,7.96498,5.97374,0,9.95623,0,7.96498,5.97374,9.95623,8.96061,0,5.97374,0,0,0,0,8.96061,0,0,0,0,0,9.95623,0,0,0,6.96936,0,0,7.96498,0,0.995623,0.995623,0.995623,0.995623,0.995623,0.995623,0.995623,0,0.995623,0.995623,0.995623,0.995623,0,0.995623,0,0,0,0,0.995623,0,0,0,0,0,0.995623,0,0,0,0.995623,0.995623,0,0.995623,20.9081,0.995623
0,138.158,39.1094,62.8173,59.2572,3.05858,30.8449,20.6666,22.619,29.6624,6.763,15.0431,0,41.2736,11.8689,13.2257,0,5.24396,0,1.36146,26.2951,1.97957,35.2366,8.58142,0,0,1.87752,7.52976,1.96649,19.7345,40.1328,0,19.161,0,-313.567,-20.4352,-58.89,-66.1997,0,22.6531,4.16472,0,0,0,0,0,1.24704,0,0,0,0,0,0,0,0,0,9.62313,0,0,0,0,0,0,0,0,0,0,45.6608,16.3645,19.3841,32.183,1.91912,19.2231,28.9926,1.98174,3.85023,4.72966,0.970026,0,7.41601,5.63599,8.77075,0.989516,0.962177,0,0,15.9333,1.97203,1.96586,7.85228,1.89857,0,-23.4364,4.48775,0.989516,5.388,22.6111,0.895953,13.1033,0,0,0,0,0,0,0,0,33.3417,-44.1753,7.60626,0,0,-120.899,-376.025,22.4182,-9.38501,4.75737,0,0,-121.65,-25.4053,10.4848,0,14.0974,0,-83.7128,-11.9292,-21.6666,-57.066,-25.6495,0,-12.8907,0,-103.229,50.2557,99.5786,-4.90626,10.1493,-21.5392,4.15187,29.742,14.4933,31.6729,9.29542,16.8886,-59.1058,-230.582,7.41314,8.99654,31.6743,-33.1763,0,-154.157,-17.9754,17.6973,29.8019,9.28486,2.94224,-184.358,24.0382,4.82425,-4.216,-33.7462,3.89028,19.6651,0,23.452,-32.9455,-106.395,-41.0055,-5.15066,-41.2055,-41.1041,130.121,-61.1079,146.207,191.502,10.7365,135.65,103.787,27.0864,85.2333,205.53,-325.822,195.854,-57.1987,44.6282,-115.758,-44.0115,-152.766,196.913,-173.9,58.2525,-13.9406,-118.693,148.748,23.0371,197.162,0,1.24704,1.24704,1.24704,1.24704,1.24704,1.24704,1.24704,21.7806,-4.35006,20.4585,22.6471,2.76252,1.24704,-47.8426,7.89142,8.68168,23.8783,-35.8999,29.4119,-29.0778,0.519905,-4.25763,1.48091,-12.7485,19.9856,-46.2544,8.23789,-2.7827,-15.4852,15.2096,2.88092,24.0952,-37.9942,39.0733
0,-594.996,-224.574,-92.4784,-19.7537,-25.6391,61.7674,-38.2129,-150.474,31.0778,107.187,-1.90809,-4.71983,111.277,-102.924,3.38539,-5.23199,-11.3703,8.15041,-5.54042,-1.78864,-9.5884,-178.972,59.7052,-46.6403,0,-4.14013,-24.36,62.1039,32.3427,-262.854,-57.2287,-54.9132,0,14.4381,-256.002,-129.729,-77.5539,0,60.5383,-83.247,0,0,0,0,0,0,-8.48077,0,0,0,0,0,0,0,0,-25.3061,0,0,0,0,0,0,0,0,0,0,340.942,99.0843,50.6392,201.005,-50.3766,22.3643,-48.2551,-59.4284,-40.864,30.5861,42.935,-7.15932,163.19,107.147,-34.6077,-25.3061,-25.9601,86.7276,0,146.899,0,133.509,44.822,-60.8776,0,65.2293,-28.368,0,-32.7984,-15.1438,-1.34341,-5.48363,0,0,0,0,0,0,0,0,228.897,-2.49571,-103.973,-2.07738,0,-25.1756,245.158,-100.369,-2.49571,0,0,0,91.1821,45.0099,120.091,0,0,0,-12.2099,-21.3895,-9.2076,0,-140.093,0,-12.7988,0,11.9507,141.861,165.649,87.0342,51.7773,28.5009,65.203,-304.807,-54.8542,-2.66089,2.76817,-8.01695,325.838,36.3819,-279.725,65.5215,15.01,-3.87068,0.973529,372.209,78.5471,-267.95,-71.7781,24.1787,34.5325,-98.3193,-112.844,136.625,-127.671,-0.670181,-34.527,-34.0368,0,-74.4196,-18.7962,-180.677,-4.66711,-43.6077,-241.017,128.945,-123.997,344.427,236.237,35.6057,-135.812,-161.038,-335.584,652.033,38.0203,-213.566,100.427,-100.044,78.5112,-21.2857,-283.483,-142.956,416.625,-143.762,-12.0852,-287.22,-72.0202,-244.457,104.039,-198.155,-164.496,0,-8.48077,-8.48077,-8.48077,-8.48077,-8.48077,-8.48077,-8.48077,-40.9809,41.113,26.7376,7.09836,-15.5708,41.4091,-8.48077,24.0716,7.05081,-23.5887,19.1435,-34.9657,68.7013,9.26829,-50.8443,-16.9391,33.3286,-7.36983,-6.15253,-47.4181,11.7502,-37.2584,-30.4046,-29.1254,-25.3809,-460.833,133.496
0,98.032,33.7327,36.6435,103.83,2.75695,31.5075,50.1066,5.76329,1.79608,6.61794,22.9996,8.97494,12.2033,42.3528,79.9386,1.97579,0,0.906891,0,29.7267,0,11.1106,0,0,0,1.79608,33.4831,5.42081,15.5589,34.6476,0,15.2814,0,-137.455,-22.9864,48.5732,14.8794,8.97494,-10.0254,32.5398,0,0,0,0,0,0,0,-0.131815,0,0,0,0,0,0,0,0,0,0,0,0,0,0,0,0,0,0,44.5376,36.0713,11.4751,36.5858,-45.8872,19.2892,35.5752,0.987895,0,2.94692,31.0248,0,0,1.91623,40.328,0.918951,0,0,0.987895,1.91283,0,0.76658,3.61238,0,0.993882,0,14.1891,0,6.53039,10.7193,0,7.94408,0,0,0,0,0,0,0,0,-78.5591,-20.0273,-20.0273,5.64192,-51.476,4.87379,-261.313,-271.818,0,0,0,0,-1.0791,0,28.0118,0,-17.7573,0,1.99457,-38.4725,0,0,27.1828,0,-45.854,0,48.6131,-81.3619,82.0685,138.477,8.16753,-49.536,-62.171,62.1361,-17.1398,-15.0144,42.5858,-64.3213,9.70073,1.10306,-17.4199,-42.2746,7.61006,0,1.98518,-23.1202,9.46184,42.4316,32.0531,-28.0408,-26.8357,-46.7933,38.6116,5.3484,27.8118,107.212,10.7801,-17.707,0,-54.7321,162.503,-156.531,64.8622,24.9333,7.71015,-41.7234,311.028,-63.9969,-184.547,4.60367,241.892,-126.688,85.1988,214.653,-89.4015,180.841,-237.023,-15.3452,12.2264,-227.093,120.876,-72.5896,47.551,-57.6974,-141.463,-281.466,193.679,189.377,167.3,113.789,-136.734,0,-0.131815,-0.131815,-0.131815,-0.131815,-0.131815,-0.131815,-0.131815,30.1357,-9.93679,-21.0024,9.43634,13.5069,-9.99106,-15.077,-0.131815,-12.8781,18.8451,-23.6116,4.25478,1.96665,-21.7631,20.3197,-4.61551,-4.4387,-8.35392,-18.4465,-23.3655,20.4448,23.9278,34.7061,12.457,-17.707,-5.98468,-28.7549
0,11.8013,13.2603,51.1665,84.2186,0,12.1629,2.87282,48.9572,0.957608,55.3421,38.7658,0,0.975716,14.7669,15.0297,1.80146,0,0,0,0.810723,1.9035,1.99739,0,1.8966,0,1.9035,0.957608,5.27204,3.67206,81.1799,0.810723,17.5013,0,50.8581,139.355,-126.051,-1.97463,0,-40.1127,2.87282,0,0,0,0,0,0,0,0,-1.80654,0,0,0,0,0,0,0,0,0,0,0,0,0,0,0,0,0,53.5233,-30.5909,-323.454,-98.0485,-26.1362,-17.5607,0,-33.8916,-24.3281,-91.5935,-58.5663,0,1.91425,12.1724,-23.5429,-59.3987,12.7695,0,1.98833,-23.5966,0,2.56127,11.5936,0,0,0,0,12.7695,0,-103.389,0,-23.4112,0,0,0,0,0,0,0,0,-18.0819,0.729066,80.3781,12.7695,5.7968,0.975716,-6.01865,-20.5655,34.5274,0,0,0,24.4851,1.9035,40.2413,0,0,0,1.37366,0,9.16942,10.0117,19.5614,0,0,0,69.8659,33.4534,13.7469,-2.92833,-14.3172,-29.2698,3.83043,-92.574,10.579,-104.29,-10.3887,0,4.78611,-206.008,-2.67392,17.1006,-23.8794,1.9035,0.998696,12.2009,17.6306,-39.6806,5.7968,9.68251,0.686832,3.96399,1.91522,-21.4122,7.88693,-2.30359,0.920883,-6.09837,0,-69.4411,-5.20312,362.19,10.6852,26.0011,60.328,-27.6415,120.569,-88.445,-107.279,-46.332,126.862,59.6942,-126.402,-10.5971,-12.2039,-71.3777,35.9164,101.604,-66.5867,108.846,-63.2276,112.59,58.9936,-180.216,96.5843,49.2743,36.9986,105.51,-186.209,34.6194,-23.5521,0,-1.80654,-1.80654,-1.80654,-1.80654,-1.80654,-1.80654,-1.80654,2.49786,-10.0507,-16.7442,-6.03939,13.2659,6.8346,-31.1489,-4.23498,-1.80654,-8.24875,3.78199,12.4252,-5.26866,13.2187,-5.81082,16.2475,7.05727,-17.9529,10.3825,5.21471,4.27974,12.708,-19.116,3.6351,-3.19255,-162.209,-36.1284
0,0.996618,0.711048,0,0,0,0,0,0,0,2.13314,0,0,0,2.84419,0,0,0.711048,0.711048,0,0,0,0,0,0,0,0,0.711048,0,0,0.996618,0,0.711048,0,0.996618,1.70767,0.996618,2.98985,0,2.13314,0,0,0,0,0,0,0,0,0,0,1.70767,0,0,0,0,0,0,0,0,0,0,0,0,0,0,0,0,1.99324,2.98985,0,0,0,0,0,0,0,0.711048,0,0,0,0,0,0.996618,1.70767,0,0,0.996618,0.996618,0,0,0,0,0,0,0.996618,0,0,0,0,0,0,0,0,0,0,0,0,0,0,0,0,0,0,4.83743,0,0,0.711048,0,0,2.98985,0.996618,0,0,0,0,0.996618,0.711048,0,0,3.55524,0,0,0,7.11623,4.41195,2.41871,2.98985,0,0.711048,2.13314,0,0,0.711048,0,0,0,2.41871,0,0.996618,0.711048,0,0,2.98985,0.996618,0,0,0,0,0.996618,0.711048,1.99324,0,4.12638,0,2.84419,0,78.5526,39.4162,30.738,13.6613,13.6613,10.8171,9.96618,0,0,3.55524,0,0,0,6.97633,0,15.0834,11.5282,16.3656,0,2.98985,14.0868,0,5.68838,9.96618,0,7.97294,4.97734,6.97633,0,8.39842,0,3.55524,0,1.70767,1.70767,1.70767,1.70767,1.70767,1.70767,1.70767,0,0,0.711048,0,0,0,1.70767,0,1.70767,1.70767,1.70767,0,0.996618,1.70767,0,0.711048,0.996618,0,0.996618,0.711048,0.996618,0,1.70767,0,0.711048,26.4659,0.711048
0,-72.6382,-16.4188,-13.3809,-44.3894,-54.9746,-37.4842,8.42543,7.399,2.56811,0,0,0,0,10.8359,15.2992,0,0,0,0,4.92973,2.56811,-11.0008,-37.3009,0,0,4.72323,3.18629,0,0,0,0,0,0,-18.1061,8.95341,-25.1552,7.48487,5.69987,12.047,2.9577,0,0,0,0,0,0,0,0,0,0,-1.04627,0,0,0,0,0,0,0,0,0,0,0,0,0,0,0,-5.94425,-29.81,-11.1376,5.16157,3.90655,-8.80814,6.79245,0,0,0,0.976637,0,0,0.954631,0,0,0,-18.6504,0,0,0,7.08258,0,0,0,0,0.976637,0.976637,2.62967,5.55958,0,2.62967,0,0,0,0,0,0,0,0,22.9018,5.88332,0,2.56811,0,1.98106,33.7367,8.82499,2.36162,0,2.56811,0,28.2786,19.2755,8.75762,0,0,0,0,3.96212,5.88332,2.62967,10.4545,0,3.32073,0,-150.761,31.6722,13.9675,-154.911,-65.8235,39.5161,43.2643,13.4956,0,2.92991,6.48641,0,1.98106,18.3267,11.3013,2.36162,-111.903,0,-18.6504,38.4785,18.7251,3.65877,-111.903,0,0,3.32073,6.14398,7.49084,2.62967,30.3128,0,3.32073,0,61.4126,-32.8698,14.7808,130.232,102.822,-13.6409,-71.9025,63.5904,46.6463,6.83646,51.8913,-156.927,15.8485,42.9173,25.854,28.4841,-21.5838,6.66589,-92.4005,55.1275,113.301,-107.426,21.0374,-154.641,-71.9025,25.1633,47.1708,103.531,18.4077,-151.276,-117.849,50.2329,0,-1.04627,-1.04627,-1.04627,-1.04627,-1.04627,-1.04627,-1.04627,10.7387,5.50978,0.976637,6.48641,-15.6927,1.98106,10.6771,6.12795,3.32073,-13.3486,-1.04627,-13.4831,12.6814,15.6231,-9.89281,-16.0208,-15.4641,-7.19025,3.32073,6.14398,11.7882,2.62967,-10.4949,-11.7849,5.9504,-90.7034,14.9745
0,0,0,0,0,0,0,0,0,0,0,0,0,0,0,0,0,0,0,0,0,0.999999,0,0,0,0,0,0,0,0,0,0,0,0,0.999999,0,0,0,0,0,0,0,0,0,0,0,0,0,0,0,0,0,0.999999,0,0,0,0,0,0,0,0,0,0,0,0,0,0,0.999999,0,0,0,0,0,0.999999,0,0,0,0,0,0,0,0,0,0,0,0,0,0,0,0,0,0,0,0,0,0,0,0,0.999999,0,0,0,0,0,0,0,0,0,0,0,0,0,0,0,0,0,0,0,0,0.999999,0,0,0,0,0,0,0,0,0,0,0,0,0,4,0.999999,2,0.999999,0,0,0,0,0,0,0,0,0,0,0,0,0,0,0,4,0,0,0,0,0,0.999999,0.999999,0,0.999999,0,0,0.999999,0,46,29,18,7.99999,7.99999,7.99999,8.99999,0,9.99999,0,0,0,0,0,0,0,0,9.99999,5.99999,5,8.99999,0,0,0,9.99999,8.99999,8.99999,0,8.99999,0,0,7.99999,0,0.999999,0.999999,0.999999,0.999999,0.999999,0.999999,0.999999,0,0.999999,0,0,0,0,0,0,0,0,0.999999,0.999999,0.999999,0.999999,0,0,0,0.999999,0.999999,0.999999,0,0.999999,0,0,0.999999,9.99999,0.999999
0,60.5401,25.0096,-19.5145,30.3927,3.9609,18.7277,13.2187,1.93062,-38.359,21.6278,1.98045,2.70034,9.36405,16.9774,-122.24,-43.6145,1.77541,0,0,30.2994,7.46495,-38.7528,4.06303,0,1.89317,3.97757,12.5004,0,-36.1237,13.5388,0.946585,14.9182,0,48.5264,31.8218,-7.41973,5.77859,0,35.1117,1.96121,0,0,0,0,0,0,0,0,0,0,0,0,2.26455,0,0,2.62823,0,0,0,0,0,0,0,0,0,0,-23.141,15.0717,4.72888,12.6658,0,11.0036,7.71598,0,0.919412,6.82585,3.72294,1.31412,0,6.21211,0,1.77541,2.34212,0,0,5.96802,0,2.29889,0,0,0,0,1.02347,1.99342,0,0.996711,0,-40.7243,0,0,0,0,0,0,0,0,18.7231,23.6592,35.1793,0,0,0,79.8621,69.1132,7.5189,0,0,0,49.9912,4.26273,10.2511,0,6.66708,0,0,21.4138,0.996711,2.94861,55.2649,0,2.72418,0,-53.9332,-25.7158,52.0623,68.0443,13.9935,19.1708,114.13,-27.6664,23.2212,27.8795,4.83086,11.8271,4.92389,58.4817,-2.67004,4.66306,8.77923,0.980605,0.98894,36.8189,12.7003,-16.2824,11.2913,4.20974,0.971182,1.98377,13.4872,11.2547,-27.187,42.6652,4.80561,-10.2728,0,78.3722,55.0681,5.94568,-22.0075,0.161982,-65.8974,-154.214,-213.544,-193.498,-254.193,50.9155,126.207,51.138,167.6,-169.303,-141.496,79.8808,58.2683,60.9249,-102.697,73.0852,-164.769,129.295,140.983,150.542,57.9119,-261.856,108.255,-170.505,111.649,122.645,-122.275,0,2.26455,2.26455,2.26455,2.26455,2.26455,2.26455,2.26455,-22.0557,-18.4057,-16.2681,6.14498,14.2048,6.5426,32.9134,-22.51,-17.1153,9.27776,5.92489,7.52393,2.26455,10.0462,-19.2217,18.574,15.186,15.3406,6.65974,-21.3431,12.2499,-23.0867,22.5219,12.8397,-15.563,131.979,25.8106
0,-122.602,18.8973,60.1426,17.2215,9.17782,-253.684,15.2487,32.937,-22.4465,-35.5773,15.8072,-47.7963,0,11.6129,-28.156,2.89056,25.3665,0.975407,8.29506,285.258,2.18156,74.0088,-4.75054,11.6989,2.75079,2.84072,22.0978,12.2766,-74.0145,-161.032,0,73.3387,0,-308.103,-46.2885,-135.805,-176.374,5.57094,73.9605,-16.2816,0,0,0,0,0,0,0,0,0,0,0,0,0,3.20272,0,9.20649,0,0,0,0,0,0,0,0,0,0,296.102,128.611,137.517,217.512,23.878,115.234,105.722,9.12451,60.7973,2.83297,4.65403,2.801,0.953523,53.7097,-63.9678,2.94707,12.6981,1.71272,11.8564,69.4662,84.9297,30.7706,7.54703,0.908998,0.908998,1.84208,52.7056,3.65099,10.222,81.1812,0,67.006,0,0,0,0,0,0,0,0,99.643,49.1886,0.189549,-0.059207,50.5406,2.55967,155.68,-340.745,3.31249,19.3864,0.975407,0,32.2809,-71.9127,22.7076,0,9.49307,0,-84.8654,-145.501,75.5064,-2.8598,-188.991,0,-134.36,0,-232.272,68.5708,-33.8659,-78.5121,48.585,168.245,-270.038,-122.14,39.5609,-35.483,34.9917,15.2345,33.505,-170.197,-130.217,8.78789,7.12991,4.68048,19.9124,198.915,123.268,-98.5727,74.6935,42.819,2.97959,-43.7376,-56.2175,-40.1554,-69.8654,-60.5836,10.6072,-45.5838,0,92.7492,-122.095,6.79021,-5.97873,-61.59,-81.9592,243.942,445.497,-10.3903,-322.548,123.587,112.009,252.532,126.409,218.356,-81.568,4.36213,166.719,-116.917,-120.516,-122.282,-32.9022,-424.593,-385.729,-123.881,220.811,60.8752,-155.322,-268.875,-96.8101,528.2,116.17,0,3.20272,3.20272,3.20272,3.20272,3.20272,3.20272,3.20272,46.5062,14.1509,-39.0586,15.7701,13.2789,28.955,17.9042,-34.473,-6.10527,6.8943,17.5063,10.9354,46.5404,3.20272,-0.398789,-41.7429,-31.868,-11.6373,9.68907,-6.60396,-10.4043,-39.9122,-42.6236,54.0946,11.427,73.7798,-58.1633
0,-116.993,-140.268,-47.6349,-90.9744,-95.6069,222.662,-20.1538,182.159,-47.2155,165.367,55.6487,37.7507,-260.935,221.781,65.7576,-30.5496,216.533,27.048,7.66074,-566.914,223.508,636.358,-85.7696,70.9587,4.05612,-93.5192,241.872,17.9241,3.16063,451.139,-8.68892,274.716,0,86.0153,-657.332,68.123,642.942,47.9661,289.942,259.121,0,0,0,0,0,0,0,0,0,0,0,0,0,0,-3.30851,235.931,0,0,0,0,0,0,0,0,0,0,-293.001,293.959,157.322,-464.494,-25.7675,-194.031,-249.437,129.249,-70.2885,364.642,29.7444,71.5945,-39.6359,-156.512,-13.4795,79.3354,30.3116,17.5894,4.53895,115.118,85.3819,-142.558,23.6214,18.0268,4.05612,-106.164,-170.299,-34.9931,175.045,255.284,86.4931,-146.227,0,0,0,0,0,0,0,0,-201.297,-81.0758,-496.855,-104.529,67.6504,123.945,-73.3781,-335.223,-61.2269,55.0574,0,0,-456.569,125.478,-234.833,0,108.633,4.04254,-67.9762,-41.3798,83.3377,-47.284,-55.9232,0,-103.15,0,319.88,42.351,-128.855,338.676,21.3384,125.736,201.643,-154.446,-163.923,-392.249,-132.481,185.028,199.183,623.491,311.983,-150.065,123.403,-54.0314,-126.98,-311.37,165.665,-330.603,384.779,43.6798,-71.8926,-456.087,111.394,-203.857,161.245,215.176,128.818,-79.5392,0,74.032,157.197,-206.598,-216.231,25.6018,-428.819,-93.1009,-109.704,-136.161,-108.254,-42.0601,82.5676,-120.978,141.297,-113.203,-109.398,-149.893,-120.023,-22.5654,-341.604,-171.658,128.409,-11.6973,221.92,149.884,-190.719,-80.7453,221.205,-16.2328,-469.185,136.62,38.1706,0,-3.30851,-3.30851,-3.30851,-3.30851,-3.30851,-3.30851,-3.30851,-15.4039,-52.3742,-46.7348,-20.6862,44.4591,-9.84206,77.0847,-8.41639,-23.2277,27.5412,-12.9417,-29.2912,-156.134,42.8375,-3.30851,69.6661,47.7386,9.27329,-90.0297,6.08422,9.8556,26.6073,39.6491,34.3243,0.184369,-344.525,-101.931
0,0,0,0,0,0,0,0,0,0,0,0,0,0,0,0,0,0,0,0,0,0,0,0,0,0,0,0,0,0,0,0,0,0,0,0,0,0,0,0,0,0,0,0,0,0,0,0,0,0,0,0,0,0,0,0,0,0,0,0,0,0,0,0,0,0,0,0,0,0,0,0,0,0,0,0,0,0,0,0,0,0,0,0,0,0,0,0,0,0,0,0,0,0,0,0,0,0,0,0,0,0,0,0,0,0,0,0,0,0,0,0,0,0,0,0,0,0,0,0,0,0,0,0,0,0,0,0,0,0,0,0,0,0,0,0,0,0,0,0,0,0,0,0,0,0,0,0,0,0,0,0,0,0,0,0,0,0,0,0,0,0,0,0,0,0,0,0,0,0,0,0,0,0,0,0,0,0,0,0,0,0,0,0,0,0,0,0,0,0,0,0,0,0,0,0,0,0,0,0,0,0,0,0,0,0,0,0,0,0,0,0,0,0,0,0,0,0,0,0,0,0,0,0,0,0,0,0,0,0,0,0,0
0,0,0,0.970282,0,2.91085,2.94044,0,0,0,0.970282,0,0.970282,0,0,0,0,0,0,0,0.999877,0,0,0,0,0,1.94056,0.970282,0,0,1.94056,0,1.97016,0,0,0.970282,4.9106,0,1.94056,2.99963,0,0,0,0,0,0,0,0,0,0,0,0,0,0,0,0,0,1.97016,0,0,0,0,0,0,0,0,0,0,0,0,0,0,0,0,0,0,0,0,0,0,0,0,0,0,0,0,0,0,0,0,0,0,0,0,0,0,0,0,0,0,0,0,0,0,0,0,0,0,0,3.96991,0,0,0,0,0,0,0,0,0,4.99939,0,0,0,0,0,0,0,0,0,5.88088,0,0,0,4.96979,3.96991,2.97004,0.999877,0.970282,5.85129,4.85141,0,0,5.94007,0,0.970282,0,0,0,0,0,0,0,3.99951,0,0.999877,1.99975,1.99975,0,0.970282,0.970282,1.94056,0,2.94044,0,1.97016,0,89.6274,51.2241,28.5821,15.7613,9.93958,3.96991,11.9393,0,9.99877,8.82132,0,7.76226,0,0,0,8.73254,19.7016,0,0,0,0,8.99889,5.99926,15.7317,0,6.79197,7.76226,7.76226,0,8.9397,9.99877,15.7613,0,1.97016,1.97016,1.97016,1.97016,1.97016,1.97016,1.97016,0,0.999877,1.97016,0,0.970282,0,0,0,0.970282,1.97016,0,0,0.999877,0,0.999877,0.999877,1.97016,0,0.970282,0.970282,0.970282,0,1.97016,0.999877,1.97016,35.3741,1.97016
0,68.5855,59.412,28.4645,57.7531,1.98708,72.1173,9.46649,0,-120.102,34.3421,17.0525,0,0,0,-53.2081,0,0,0,0,82.4861,0.991292,46.1765,4.96994,2.97837,52.8029,0,1.88851,0,12.7724,12.958,0,21.4235,0,-0.123923,-11.5817,-58.7949,9.52822,0,-39.875,9.47847,0,0,0,0,0,0,0,0,0,0,0,0,0,0,0,0.991292,0,-0.424322,0,0,0,0,0,0,0,0,47.3936,18.0355,61.5767,8.58904,1.99157,-23.7687,0,0,0,3.85073,0,0,0,13.2635,29.1595,0,0,0,0,-14.5637,5.64992,19.539,1.98708,-25.4055,11.8376,0,0,-60.5041,-19.1446,3.62836,0,-26.4013,0,0,0,0,0,0,0,0,0,45.8884,0,0,0,0,-16.7742,-40.0325,0,0,0,0,-63.8646,0,13.7436,0,0,0,0,1.90049,0,0,13.0714,0,0,0,58.31,24.9804,-3.59599,127.996,6.75987,-87.1137,11.343,15.2457,-115.396,4.64428,17.0525,0,0,-86.6728,76.2573,0,0,13.2635,0,12.4118,4.31414,108.831,14.9295,4.55832,5.97852,0,7.57799,-16.9886,42.4599,2.17072,0,49.9784,0,-27.4671,-107.89,23.9497,-17.6578,-14.1331,75.2456,-42.1332,175.718,196.999,-19.6156,-146.23,-92.6715,19.0049,-247.445,51.9956,18.8851,18.8851,119.371,140.315,-40.5836,93.5757,111.49,60.747,-5.25943,-11.7752,0,26.523,-72.5222,-47.4987,-40.3758,-7.89138,-223.919,0,-0.424322,-0.424322,-0.424322,-0.424322,-0.424322,-0.424322,-0.424322,19.0964,-10.5596,2.32214,-11.2125,-9.26715,1.90049,-33.7628,6.41719,1.88851,1.88851,13.2635,15.5905,-2.4114,10.4531,23.7117,10.4531,-2.31283,-0.424322,0,3.78899,-15.0015,-1.14111,-2.53215,-0.789138,-25.6028,-11.9764,-11.1308
0,303.179,75.1265,45.8571,130.449,3.90293,38.2515,10.0402,37.6249,16.3617,6.44372,22.0799,0,22.2695,13.6929,49.8211,40.4404,1.98504,33.9445,0.833244,233.956,67.8891,8.97687,4.96955,9.52753,0,91.875,13.2798,0,30.0081,56.1764,8.46586,30.1768,0,-220.629,91.9483,43.2457,-19.4838,9.34565,139.883,12.9333,0,0,0,0,0,0,0,0,0,0,0,0,0,0,0,1.99199,0,0,1.5442,0,0,0,0,0,0,0,-99.816,-137.616,28.3096,-73.7204,8.2349,18.7277,6.87072,63.2912,-61.9633,60.9138,4.51129,0,14.0439,-141.06,2.95108,-24.8736,0,0,0,53.1481,4.7741,-43.3554,1.99088,0,0,3.62845,8.72634,0.911347,17.9069,-81.8181,11.8144,15.0523,0,0,0,0,0,0,0,0,-325.949,-29.7599,27.1107,3.24464,0,-163.762,81.0096,62.2551,0,0,-56.0524,0,-44.5722,-75.5453,-42.3629,0,0,0,-12.1636,9.13878,-19.6487,-32.6903,-221.372,-21.6953,-19.9006,0,134.761,-101.538,-78.6008,-112.295,87.0947,51.1914,58.4549,89.6683,-34.2425,25.5483,-2.92667,3.56566,19.2258,61.0063,86.582,40.4879,7.13454,0,7.60979,211.392,70.1718,47.636,-27.5955,9.70927,11.6083,-54.6743,32.4106,16.6971,-45.1109,-344.534,-10.8042,31.8536,0,3.10605,-6.71704,-29.547,19.3954,-96.2246,-235.7,-114.168,-116.728,38.5706,-60.9075,-66.7993,-230.378,-59.8922,114.729,283.223,-40.1018,54.9576,-172.457,-158.465,395.462,-91.2219,-119.214,33.3478,-11.2465,-115.755,-19.5419,201.74,-65.0705,150.963,197.647,-255.827,63.9317,0,1.5442,1.5442,1.5442,1.5442,1.5442,1.5442,1.5442,-25.2093,-6.9086,5.9109,-2.75679,-22.6812,-16.8115,12.9378,48.4833,1.59529,6.40772,-19.4565,-7.81073,84.9386,1.00122,-14.5342,1.96215,0.799029,-10.4147,1.5442,26.5296,-6.71107,12.2049,-39.3901,-26.8046,10.6165,298.742,-49.6981
0,66.3517,76.8954,93.4503,46.7403,6.95644,24.113,48.4465,50.0309,2.86729,3.69336,18.9903,3.72448,9.26542,-17.895,34.4876,0,0.875662,0,1.87303,33.1201,36.0417,23.2184,1.97366,0,0,7.91475,63.2896,1.44315,30.998,115.77,0,53.9514,0,-133.304,-124.513,-82.4744,52.0164,3.90322,51.6177,54.7177,0,0,0,0,0,0,0,0,0,0,0,0,0,0,0,0.993933,0,0,0,0.762443,0,0,0,0,0,0,6.30944,36.1553,29.8778,-55.2244,7.85109,40.5727,75.4156,0,3.98142,5.86831,9.97135,0.973224,0,5.09011,18.2421,0,0.973224,0,6.08796,22.2454,0.995257,2.91158,0.993988,0.973224,0,4.98905,5.85857,6.08962,10.4495,24.9276,0,14.5784,0,0,0,0,0,0,0,0,-7.39129,6.70806,17.5469,0,0,-98.1319,-135.814,-104.081,0,-24.5752,0,0,89.239,17.9228,-14.3888,0,0,0,7.67141,-48.8736,6.95325,-62.9137,-136.08,0,-74.2674,0,80.5479,5.66566,-104.9,38.0102,30.7314,90.0493,-182.764,64.292,6.67837,28.3215,37.9716,6.56307,-20.4096,6.08697,-16.7719,0.935953,30.8929,0.946378,3.68873,69.4246,19.0726,-14.7801,67.7621,3.68641,1.92362,-21.724,6.50218,-111.392,14.6351,164.151,-48.2762,-86.0243,0,7.11736,55.4311,76.3227,8.44776,-43.3426,-204.156,197.788,-143.015,170.213,181.56,-0.04762,107.398,-135.861,0.344446,-59.8704,-36.2586,-293.061,171.371,-92.1563,47.353,66.2427,172.424,-64.5293,-143.725,-40.0726,56.8492,-20.7904,165.721,-98.1788,-32.8386,-252.418,-14.0852,0,0.762443,0.762443,0.762443,0.762443,0.762443,0.762443,0.762443,-3.60839,19.0449,23.699,7.34158,12.055,-24.414,-14.2187,-12.7994,-3.53227,-28.4894,17.2318,-4.07337,26.1382,14.0275,16.9385,0.899302,-13.9065,-3.8149,5.70571,0.762443,6.88148,-10.501,13.5931,-30.6046,-6.73151,94.0905,-12.5048
0,0,0,0,0,0,1.98401,0,0,0,0,0,0,0,0,0,0,0,0,0,1.98401,0.992004,0,0,0,0,0,0,0,0,0,0,0.992004,0,0,0,0,0,0,2.97601,0,0,0,0,0,0,0,0,0,0,0,0,0,0,0,0,0,0,0,0,0,0.992004,0,0,0,0,0,0,0,0,0,0,0,0,0,0,0,0,0,0,0,0,0,0,0,0,0,0,0,0,0,0,0,0,0,0,0,0,0,0,0,0,0,0,0,0,0,0,0,0,0,1.98401,0,0,0,0,0,0,0,3.96802,0.992004,0,0,0,0,0,0,0,0,0,0,0,0,0,2.97601,3.96802,0,1.98401,1.98401,0,0,0,0,0,0.992004,0,0,0,0,0,0,0,1.98401,1.98401,0,0,0,0,0,0,1.98401,0,0,0,0.992004,0,45.6322,26.7841,15.8721,7.93603,5.95202,0.992004,9.92004,9.92004,0,0,0,6.94403,0,0,9.92004,0,9.92004,0,0,1.98401,5.95202,0,7.93603,0,9.92004,0,0,6.94403,0,0,0,7.93603,0,0.992004,0.992004,0.992004,0.992004,0.992004,0.992004,0.992004,0.992004,0,0,0,0.992004,0,0,0.992004,0,0.992004,0,0,0.992004,0.992004,0,0.992004,0,0.992004,0,0,0.992004,0,0,0,0.992004,15.8721,0
0,35.9291,8.32926,-21.7197,9.22525,0.997497,-9.86219,3.98999,10.5453,0.997497,0.909019,0.999763,0,0,-24.684,5.63406,0,0.977011,0,0,-25.6316,0,6.19114,7.16815,0,0,4.60282,-19.3645,4.26178,0,4.96507,0,4.93758,0,20.2352,31.5749,38.3428,24.1078,0.937247,-121.055,0,0,0,0,0,0,0,0,0,0,0,0,0,0,0,0,12.3823,0,0,0,0,0,0.913877,0,0,0,0,22.7657,14.7421,11.2047,6.73657,2.93224,7.70018,5.59667,0.997497,0.635247,0,0,0,0.977011,4.80553,0.917504,0.977011,0.977011,0,0,15.1199,5.80715,2.81425,0.977011,0,0,0,4.1791,0.937247,2.86755,3.89128,0,8.47769,0,0,0,0,0,0,0,0,26.5971,5.39621,1.87902,0,0,34.2898,-39.6565,27.3119,1.66707,1.66707,0,0,-123.349,-83.4403,18.5734,0,0,0,0,-38.4634,3.23683,1.66707,66.4962,0,-29.5888,0,117.37,-18.6295,-60.8651,66.1421,0,30.0644,0.079457,4.02292,1.99499,5.56314,2.33248,0,15.7164,-42.6908,39.1225,0.999763,4.88506,0,0,12.1638,0.997497,14.3218,12.993,0,0,8.33197,-39.3028,26.3697,29.5876,50.7414,0,-5.96205,0,64.8048,-10.2676,48.3224,-11.6837,2.44403,100.463,119.083,-129.063,66.6012,47.8674,-172.151,47.0681,44.023,-91.8215,25.3219,95.3439,44.7629,49.1609,43.378,94.9973,-156.246,48.7785,81.3823,-156.863,92.2277,89.7801,13.2641,-153.42,-25.8974,40.3944,61.7853,-102.199,0,0.913877,0.913877,0.913877,0.913877,0.913877,0.913877,0.913877,-8.69,7.99896,5.62186,-19.2376,4.70681,9.50063,-19.4047,9.83078,9.89877,5.3269,4.91609,5.18793,-2.66996,-23.2881,9.06791,14.3628,-15.5865,9.22277,10.2715,-7.96874,-11.8614,0.913877,16.6488,6.17853,-11.8091,3.78637,-6.27476
0,101.025,81.7789,-63.3269,170.296,0.933277,-30.9,-110.814,38.9914,18.4596,142.901,24.712,0.884951,17.2028,-9.88265,-71.3517,10.3447,3.82095,0.986065,5.06545,98.2834,37.9302,22.2573,2.88558,5.96198,0,14.9792,9.32318,2.84089,7.72053,116.395,0.95981,16.2282,0,-482.578,94.6179,126.689,-166.655,1.60106,38.1183,9.2132,0,0,0,0,0,0,0,0,0,0,0,0,0,0,0,2.88558,0,0,0,0,0,0,2.29797,0,0,0,173.902,-23.0459,14.9923,-159.719,5.79643,57.9852,103.111,47.4482,7.03586,-51.2245,10.8115,1.68615,4.34146,-45.7225,-5.95179,1.90606,3.83412,0,-35.9653,-187.488,-46.5188,34.6722,6.26268,0,0,1.83631,33.298,0,5.61314,175.743,10.8004,10.8536,0,0,0,0,0,0,0,0,-34.4492,18.8869,-164.894,-48.6242,0.993235,0,-210.907,97.3138,17.2666,-47.7811,0,0,-44.6764,-62.8118,-19.4461,0,0.843073,0,2.8554,-54.101,-51.6445,0,-61.3291,0,1.97275,0,-254.658,-72.9647,-194.529,-103.531,27.0792,110.174,-270.392,197.036,45.9319,17.0439,-14.1682,24.3384,25.0658,128.903,1.59645,11.5198,-29.7284,0,90.3195,174.551,74.4579,28.1548,33.6081,3.849,5.66943,11.5745,-25.3408,24.507,19.6409,-99.0972,49.6771,43.9686,0,21.8965,-67.8172,154.868,-40.5425,-17.0262,-156.994,164.559,-507.996,355.952,-128.614,176.375,-24.4677,7.73938,-182.464,-494.104,281.259,-267.444,287.058,-57.4622,-256.961,317.014,48.9726,-180.448,71.7153,-41.5762,144.769,-61.9274,-176.211,137.205,-112.006,-2.14278,287.562,0,2.29797,2.29797,2.29797,2.29797,2.29797,2.29797,2.29797,-25.897,44.7251,-18.0313,17.2592,0.343507,5.53393,-32.0073,-47.2498,32.3293,-33.7299,28.8044,-10.7783,-21.629,32.0071,12.1159,-16.8508,8.23694,-3.59068,17.6991,-9.77813,-18.3241,17.018,2.29797,5.92945,36.5459,234.577,-15.333
0,1.97209,0.986044,0,0,0,0,0,0,0,0,0,0,0,0,0,0.986044,0,0,0,0.986044,0,0,0,0,0,0,0,0,0,1.97209,0,0.986044,0,0,1.97209,2.95813,0,0,0,0,0,0,0,0,0,0,0,0,0,0,0,0,0,0,0,0,0,0,0,0,0,0,0,0.986044,0,0,0,0,0,0,0,0,0,0,0,0,0,0,0,0,0,0,0,0,0,0,0,0,0,0,0,0,0,0,0,0,0,0,0,0,0,0,0,0,0,0,0,0,0.986044,0,0,0,0,0,0,0,0,0,0.986044,0,0,0,0,0,0,0,0,0,1.97209,0,0,0,2.95813,1.97209,0.986044,0,0,0,0,0,0,0.986044,0,0,0,0,4.93022,0.986044,0,0,0,3.94418,0,0,0,0,0,0,0,0,0,0.986044,0,0.986044,0,45.358,22.679,15.7767,7.88835,7.88835,7.88835,9.86044,0,9.86044,7.88835,0,0,0,0,4.93022,7.88835,0,0,0,3.94418,0,0,0,0,9.86044,0,0,9.86044,0,4.93022,8.8744,7.88835,0,0.986044,0.986044,0.986044,0.986044,0.986044,0.986044,0.986044,0,0.986044,0.986044,0,0,0,0,0.986044,0.986044,0,0,0,0.986044,0,0,0,0,0.986044,0,0,0.986044,0,0.986044,0.986044,0.986044,12.8186,0
0,33.2562,507.04,-131.726,-200.081,-74.4629,-115.149,174.351,181.111,192.865,123.915,-93.3091,-9.13171,-291.006,-237.391,40.4829,3.46003,-16.8427,-16.7912,-25.2223,-448.985,-85.9609,-1.04063,-354.53,13.2216,106.132,59.8231,-97.6667,-114.513,171.483,418.073,104.334,-25.9032,0,989.263,275.14,32.4731,1282.98,-106.768,-566.954,2148.44,0,0,0,0,0,0,0,0,0,0,0,0,0,0,0,224.309,0,0,0,0,0,0,0,0,-9.53101,0,-7.16199,97.2741,98.9645,35.4223,-58.4327,-265.038,-566.346,290.189,-1.20946,151.004,-70.0445,-106.303,-143.784,-77.3298,-87.2284,103.503,-78.6409,0,63.6461,77.1602,125.372,-171.312,-209.844,109.386,0,-29.0117,-291.66,68.7002,-109.183,3.51465,8.848,-49.0921,0,0,0,0,0,0,0,0,-492.352,-53.2659,449.092,0,-62.0517,203.792,-443.386,469.373,-155.375,-168.162,-118.138,0,-160.259,-86.1906,-43.9724,0,-218.229,0,172.485,294.045,71.0545,-110.574,-128,-60.7637,0,0,-109.189,-397.81,-184.499,51.9505,-347.163,73.5176,-324.838,-75.6395,-36.7431,-136.873,85.0184,53.1968,-413.031,231.194,-89.8738,-143.633,136.801,25.529,170.059,-198.67,49.0609,-347.595,60.7212,-303.539,38.7999,680.439,210.095,166.196,346.234,-29.8846,-210.133,-125.187,0,-135.547,-33.6721,-100.668,449.79,510.579,739.776,-523.088,-91.4862,-284.22,-111.965,-195.361,41.5961,-283.277,33.7967,-252.85,-52.4216,46.3374,-120.029,-220.015,-65.5288,38.4956,30.4215,220.655,-112.362,-68.1172,-115.509,-114.105,-78.8182,50.0445,-73.2999,55.4805,94.7859,0,-9.53101,-9.53101,-9.53101,-9.53101,-9.53101,-9.53101,-9.53101,-18.8178,-9.4951,53.7583,-25.9808,-4.81059,-94.3924,-49.2631,7.99042,-26.771,-8.05081,-22.9429,155.488,-79.6282,3.23635,-46.6378,-14.8005,-51.1522,7.68151,82.6612,2.07131,16.0733,15.7199,19.0403,3.24342,-9.53101,-223.854,-97.351
