0,-7.73946e+08,-2.83254e+08,-6.01426e+07,2.23561e+08,1.06787e+09,3.6436e+08,4.59688e+08,1.62033e+09,2.01859e+09,8.14241e+08,-1.96668e+09,4.0936e+09,9.0619e+09,8.2571e+08,5.96154e+08,5.55656e+09,1.70932e+09,-1.26247e+09,3.84019e+09,4.13942e+08,1.66304e+09,1.59635e+08,1.90841e+09,3.2584e+09,-2.49508e+09,-4.12397e+08,2.20585e+09,-5.26725e+08,2.93359e+08,2.65345e+08,6.87282e+09,1.66549e+09,0,-8.21407e+08,-8.03677e+08,-1.62128e+08,2.2915e+08,-3.33575e+08,-3.64259e+08,7.90948e+08,7.90568e+08,3.52456e+09,1.71652e+08,-4.50589e+09,-5.20214e+08,-9.94978e+07,3.11885e+09,1.98853e+09,-3.59574e+08,1.25242e+09,-1.13462e+10,2.66203e+09,1.38978e+09,2.92279e+08,9.13504e+08,-1.19314e+09,1.40777e+09,-3.96904e+09,8.23679e+08,1.93273e+08,-5.09212e+08,-9.86335e+07,2.25397e+09,-3.27967e+09,2.30285e+09,0,-8.49158e+08,1.70066e+08,1.27044e+08,3.68858e+07,2.11632e+09,-5.86666e+08,1.22758e+09,1.80388e+08,2.33729e+09,-9.37437e+08,-2.93968e+09,1.4353e+09,1.33421e+08,7.84951e+08,2.10135e+09,-2.65137e+09,-1.12631e+09,-1.06538e+10,-1.63382e+09,1.45668e+09,9.6796e+08,2.45001e+09,7.93996e+08,7.09748e+09,-5.22743e+09,3.02323e+08,2.43353e+09,3.42211e+08,6.74265e+08,6.29272e+08,-6.47082e+09,2.50054e+09,0,0,0,0,0,0,0,0,4.97624e+08,2.0549e+08,3.03035e+09,1.06958e+09,-1.05158e+10,5.46492e+09,-6.12514e+07,1.21379e+09,0,-6.29901e+09,0,0,-1.16546e+09,-3.3034e+09,3.74152e+09,0,0,5.7968e+08,9.78445e+09,1.11668e+09,2.2595e+07,-8.11169e+09,-1.04052e+09,0,0,0,-2.28732e+08,-1.00526e+09,-2.75574e+08,-6.53216e+08,7.63846e+07,-5.16628e+08,8.65475e+08,3.35162e+08,2.58853e+08,4.81271e+08,2.84447e+09,1.74332e+09,-1.50534e+09,2.89158e+08,1.66313e+07,-9.71106e+08,1.17696e+09,1.25361e+09,-1.19741e+09,7.08655e+08,9.05715e+08,1.03584e+09,5.93164e+08,-3.20776e+09,1.36222e+09,5.98206e+08,-3.20617e+08,-1.75653e+09,1.38113e+09,5.57048e+08,3.09876e+09,-2.45725e+09,0,-9.87153e+08,-3.79416e+08,-2.71486e+08,-4.25896e+08,5.12694e+08,-1.22268e+08,5.2677e+08,4.39256e+08,1.05209e+09,4.15072e+08,2.80718e+08,-3.49027e+07,2.78585e+08,6.36103e+08,1.87981e+08,4.55408e+08,5.61798e+08,9.45767e+08,4.16892e+08,7.50287e+08,2.40497e+08,9.75644e+08,9.88163e+08,7.76799e+08,1.47332e+08,5.90749e+08,2.21575e+07,-5.72027e+08,1.61017e+09,7.55638e+08,7.50072e+08,8.35986e+08,0,8.27851e+08,8.27851e+08,8.27851e+08,8.27851e+08,8.27851e+08,8.27851e+08,8.27851e+08,3.86333e+08,-2.27785e+09,5.44799e+08,-2.89525e+08,-3.79868e+08,1.3334e+09,2.94998e+09,6.10442e+08,1.85099e+09,-1.86192e+08,-2.97518e+09,5.06968e+09,3.55399e+08,7.66078e+07,-2.13982e+09,-6.67241e+08,9.6159e+08,-9.5515e+08,1.58206e+09,1.00615e+09,8.27851e+08,-1.02284e+09,5.69761e+08,2.7809e+08,7.69067e+08,-7.14439e+08,5.01717e+08
0,-1.60655e+09,-1.38957e+09,5.3247e+06,-2.01757e+09,-1.02651e+10,1.15746e+09,2.61818e+09,1.30004e+09,1.60127e+09,-9.34183e+08,-2.33807e+09,2.35691e+08,5.25574e+09,1.00038e+09,-3.61879e+08,3.16771e+09,1.14595e+09,-5.51561e+09,8.13206e+09,2.03471e+09,1.60529e+09,1.93936e+09,2.47995e+09,-5.31564e+09,-1.37097e+09,-1.57258e+10,-2.60699e+09,1.50262e+09,-2.3015e+09,-2.47779e+09,5.74347e+09,-8.56598e+09,0,-4.99451e+09,-1.18041e+09,-1.38306e+09,-4.63538e+09,5.12596e+09,6.09988e+08,-8.76709e+07,7.09033e+08,-3.63571e+09,-9.63099e+09,-5.23018e+09,9.34263e+08,-4.50483e+09,-4.83127e+08,-7.23102e+08,7.2935e+09,-6.2095e+09,8.33649e+09,3.46406e+09,-7.41212e+08,-3.37371e+09,-7.49784e+08,3.47923e+09,1.19105e+09,-5.02481e+09,-3.10932e+08,-2.9202e+09,5.01691e+08,-2.00265e+09,-4.88572e+08,5.06213e+08,-6.5461e+09,0,-2.93955e+09,7.82012e+08,3.58006e+09,-8.75042e+09,5.16228e+09,4.3827e+08,-5.84377e+08,-2.75312e+09,5.00986e+09,1.53298e+10,-5.76536e+09,-1.68309e+09,2.36815e+09,2.96594e+09,-4.76145e+08,2.18661e+09,-2.51551e+09,4.30164e+09,0,5.27294e+09,4.6263e+09,2.70928e+09,-2.31766e+09,1.53143e+08,1.09023e+07,-3.22306e+09,-8.67846e+08,-7.95621e+08,1.2731e+09,3.03421e+09,-4.14054e+09,-7.27927e+09,0,0,0,0,0,0,0,0,2.40507e+09,3.079e+09,9.04401e+08,-5.81833e+09,0,-9.21106e+08,-3.55542e+07,1.04873e+08,2.52294e+09,1.25344e+09,0,0,2.83242e+09,-2.48261e+08,5.2859e+09,0,-5.51561e+09,0,9.52549e+08,-1.69037e+09,7.01704e+07,-7.29418e+07,3.70559e+09,0,0,0,4.2933e+08,-5.73105e+08,-2.42911e+09,-7.41051e+08,1.63264e+09,-1.14649e+09,-5.68194e+08,-1.60344e+08,-3.24064e+09,3.97287e+09,5.3038e+09,2.56339e+09,-2.04509e+09,-6.85367e+08,-6.18835e+07,-8.59467e+08,8.93556e+08,2.26585e+09,7.24636e+08,-2.16103e+09,-2.1202e+09,-6.35738e+09,-1.28937e+09,-1.03831e+10,3.37079e+09,9.66075e+08,1.38191e+09,-1.50727e+09,-4.24985e+09,-2.32589e+09,-8.28178e+08,3.42328e+09,0,1.99343e+09,-2.58999e+08,-1.3638e+07,-9.09909e+08,1.95547e+09,5.97054e+08,2.62898e+08,-7.58935e+08,-1.39887e+09,-9.83805e+08,-3.44451e+08,-4.96088e+08,-4.27619e+08,-1.88119e+08,-5.51643e+08,-5.36642e+08,-6.04504e+08,-3.21917e+08,-1.1443e+09,-8.66402e+08,-4.00789e+08,-3.62888e+08,-5.83746e+08,2.72169e+08,1.28365e+08,-6.19971e+08,-1.01663e+09,-1.2688e+09,-8.65275e+07,2.49727e+07,-9.20952e+08,-1.09723e+09,0,4.51411e+08,4.51411e+08,4.51411e+08,4.51411e+08,4.51411e+08,4.51411e+08,4.51411e+08,7.41744e+07,3.44853e+09,8.65817e+08,1.38839e+09,1.55417e+08,-2.74753e+07,-2.02722e+08,-2.06978e+08,1.32056e+09,-1.30222e+09,9.06646e+08,3.80559e+09,6.37142e+08,8.86314e+06,-7.10168e+08,6.19764e+08,-2.10085e+09,-2.95285e+08,-1.71404e+09,-2.26144e+08,4.51411e+08,-7.50752e+08,1.4725e+08,-4.18466e+08,-1.36035e+09,-9.75334e+08,-6.79357e+09
0,-2.05013e+08,-2.94511e+07,2.28602e+06,4.37535e+07,-1.96433e+07,-2.36054e+08,-1.87782e+06,1.19494e+08,-5.03035e+07,8.88672e+07,-6.32237e+07,-6.67753e+06,3.03038e+07,2.42131e+08,1.40309e+08,-1.11437e+07,3.76563e+07,-1.96028e+07,0,-8.69133e+07,8.28919e+07,-9.45742e+07,-7.1345e+07,7.08459e+07,4.54164e+07,-5.93385e+06,-1.23701e+07,6.74789e+06,3.89527e+07,1.17819e+08,-2.76548e+06,-2.44627e+07,0,-2.70071e+08,-1.2598e+08,8.25837e+06,-1.36541e+07,2.70125e+07,4.26017e+07,-3.17357e+07,5.87001e+07,-2.7322e+07,304899,-1.22291e+07,2.81399e+07,-2.85058e+07,3.28379e+07,9.2183e+07,5.67345e+07,2.22676e+07,1.17964e+07,-1.38966e+06,-9.82121e+07,-1.90717e+07,1.89039e+07,-2.82799e+07,8.94537e+07,-824349,1.68053e+07,9.57377e+06,915628,-5.60019e+07,-7.41303e+07,0,6.05959e+07,0,-2.25075e+07,-9.93969e+07,2.34106e+07,8.35236e+07,9.41457e+07,1.10309e+08,2.60495e+07,-5.44276e+07,-5.72022e+06,-1.46281e+07,6.88369e+07,1.79224e+07,-4.06635e+07,7.92516e+06,1.78449e+08,-1.64634e+07,-7.57611e+06,-1.90177e+07,0,-4.11219e+07,-2.47656e+07,-9.88175e+06,-2.23507e+07,-9.18479e+06,-1.15144e+07,-2.96062e+07,-1.05469e+07,-5.4558e+07,6.9511e+07,-2.72958e+07,-8.28956e+06,-7.27e+07,0,0,0,0,0,0,0,0,-1.93722e+07,0,-2.59545e+07,0,0,-4.15353e+06,1.63456e+08,-8.02156e+07,0,0,0,0,-6.61645e+07,-1.88306e+06,-4.72332e+07,0,-1.81901e+07,0,-671955,-95043,-4.60064e+07,0,2.67818e+08,0,0,0,6.42379e+07,-7.09344e+07,-1.16937e+08,-5.58394e+07,-8.81668e+07,9.81203e+07,-9.34522e+07,4.00337e+07,-1.22916e+08,-6.73947e+07,-8.74054e+07,-5.63599e+07,-1.58432e+08,-8.69894e+07,-1.24267e+08,-1.26923e+08,-2.7236e+07,2.73024e+07,-1.18741e+06,1.49658e+08,-9.15442e+07,-9.13356e+07,-1.50565e+08,-6.64723e+07,-1.24909e+08,-1.01929e+08,3.90679e+07,-2.25484e+07,7.82308e+06,4.92501e+07,6.30127e+07,7.77629e+07,0,8.32376e+07,-3.73792e+07,-4.9198e+07,-9.06783e+07,-2.72186e+07,-2.11089e+07,-6.06022e+07,-2.99331e+07,3.41322e+07,-1.18816e+07,2.07957e+07,3.81156e+07,-2.72564e+07,3.84413e+06,6.91488e+07,2.96844e+06,-2.60688e+07,-3.66764e+07,-3.08439e+07,-4.61213e+07,-4.57371e+07,7.52993e+07,6.07805e+07,-2.54949e+07,3.17906e+07,-4.23326e+07,-3.89264e+07,3.81197e+07,5.26758e+07,-4.62941e+07,-4.02643e+06,1.79743e+07,0,-1.73381e+06,-1.73381e+06,-1.73381e+06,-1.73381e+06,-1.73381e+06,-1.73381e+06,-1.73381e+06,1.14495e+07,-2.3419e+07,-3.25445e+06,-5.80308e+06,2.09102e+06,-2.28707e+07,3.97779e+07,2.75607e+07,-1.19353e+07,3.94965e+06,-3.61982e+06,7.97421e+06,-1.88875e+07,-1.0011e+07,-4.0624e+06,-2.64701e+07,3.88241e+06,-6.00404e+06,-1.64716e+07,-2.05972e+06,-1.73381e+06,1.09995e+07,2.85223e+07,1.07954e+06,1.97758e+06,58409,-1.53907e+07
0,4.259e+07,1.95232e+07,-1.08713e+07,2.92969e+07,795546,-2.86076e+07,1.66357e+07,-1.08233e+07,-2.30685e+07,-1.25575e+07,1.64895e+07,6.79703e+06,1.79409e+07,2.23936e+07,3.00366e+07,3.04676e+06,-1.35718e+07,7.0375e+06,8.05548e+06,9.73258e+06,7.06366e+06,-3.60195e+07,463634,899130,1.16911e+07,1.59401e+07,4.47899e+06,6.95185e+07,-1.32818e+07,3.49934e+06,9.54202e+06,-3.60321e+07,0,-3.4399e+07,-3.83898e+07,8.3397e+06,3.39533e+07,512535,2.69057e+07,1.00543e+06,2.84242e+07,-3.26578e+07,-1.46742e+07,1.04267e+07,27996,1.90119e+07,31870,-4.67954e+07,-1.21757e+06,4.38514e+06,4.42272e+06,0,40551,1.14588e+07,1.30574e+07,414489,3.81408e+06,0,-3.23148e+07,1.65992e+07,-3.49009e+06,7.6226e+06,-1.48256e+07,0,3.74732e+06,0,7.22491e+07,7.58262e+07,5.08296e+07,-3.30473e+07,472143,-2.41067e+07,4.14159e+06,1.14136e+07,3.66031e+06,-5.53061e+06,4.61955e+06,15804,2.81282e+06,6.11608e+06,1.41046e+07,1.1638e+07,369660,0,0,4.61563e+06,0,-8.30122e+06,529520,-8.8908e+06,0,1.04027e+06,1.20786e+06,1.7544e+07,2.00278e+06,8.01003e+06,1.33868e+07,3.43176e+07,0,0,0,0,0,0,0,0,-1.79164e+07,0,1.17706e+06,-2.66421e+07,0,1.39119e+07,1.94916e+07,-3.42276e+07,92586,0,0,0,-7.54243e+06,-2.32594e+07,3.88247e+06,0,0,0,249482,153903,-2.14828e+07,0,-1.85192e+07,0,0,0,4.22213e+07,4.06581e+06,-6.07679e+06,2.61497e+07,1.32102e+07,3.19103e+07,8.88378e+06,1.02765e+07,-2.24134e+07,5.1702e+06,-4.63957e+07,-2.56579e+07,-2.41208e+07,2.31009e+07,-8.92774e+06,5.56882e+06,1.6735e+06,3.64281e+06,-2.30266e+07,-5.40936e+06,-2.80662e+07,1.86675e+07,-3.46955e+07,1.70119e+07,-2.59081e+07,1.27108e+07,1.89791e+07,-4.35528e+07,2.9441e+07,-4.11011e+07,-1.0101e+07,-2.92438e+06,0,3.24237e+07,-7.47406e+07,2.24246e+07,3.69198e+07,-7.65723e+06,698234,-6.57912e+07,-4.50894e+06,1.25625e+07,1.23124e+07,-8.0276e+06,-5.98408e+06,-1.6474e+07,1.56792e+07,8.35612e+07,2.51785e+07,7.73828e+07,2.82476e+06,1.92034e+07,3.82827e+07,-4.93589e+07,1.84632e+07,3.73261e+07,1.19549e+07,-5.7205e+07,-4.48932e+07,1.32635e+07,-1.32498e+07,1.63747e+07,2.17654e+07,3.86932e+07,-3.77678e+07,0,916653,916653,916653,916653,916653,916653,916653,1.68657e+06,-6.59799e+06,-1.41026e+06,-7.8312e+06,-2.48012e+06,1.70065e+06,8.68133e+06,3.77516e+06,5.04615e+06,7.3053e+06,1.79278e+06,948235,3.97197e+06,-8.2162e+06,1.36293e+06,504776,2.47892e+06,-7.1422e+06,-4.72674e+06,5.46826e+06,916653,4.21592e+06,-4.11711e+06,5.1521e+06,-3.31935e+06,5.7151e+06,-6.57983e+07
0,674434,303411,-371188,349735,-56886,94202,88891,-873800,0,95673,19091,14694,31891,83596,337223,46585,0,34451,0,0,0,63782,42764,29941,0,74655,90130,-450121,54747,203537,0,-174760,0,144103,87137,-85343,81158,-458939,80571,130757,0,96730,0,0,14694,0,4022,0,0,4022,0,0,0,0,66407,0,-174760,0,0,0,26097,0,46585,0,0,0,147387,88822,26957,62067,0,99283,7104,0,0,0,0,0,0,4022,96118,0,0,0,0,0,0,38182,0,0,0,7381,87993,3933,0,0,0,4022,0,0,0,0,0,0,0,0,0,0,0,0,0,0,41454,22806,0,0,0,0,0,0,11403,0,0,0,0,4022,160980,0,0,0,0,0,766101,-234821,427642,250770,25759,-288417,580854,0,222780,162015,19091,31891,0,16088,303697,46585,4022,7381,0,0,39272,62385,85528,0,0,128292,26476,24132,0,154449,0,-166805,0,235506,207218,1.04639e+06,-113409,547266,7779,54710,-292460,-1.00353e+06,1.10953e+06,-1.23295e+06,-724479,714759,382488,12066,-758183,336226,376488,609025,0,-733262,381691,213820,-1.16648e+06,507190,414069,-716111,306479,683533,29388,772250,-848741,0,7150,7150,7150,7150,7150,7150,7150,-116626,-78030,136722,-136953,-66320,74665,53167,77191,-66108,34427,41832,76761,0,-69399,62385,42764,-129661,50719,82036,-50749,7150,73828,46585,77225,-152111,-331142,-65654
0,-2.5279e+07,3.78836e+07,2.1675e+07,-1.23498e+07,-1.3979e+07,3.07211e+07,3.42558e+06,-5.94503e+07,6.16969e+06,2.77033e+06,-7.13559e+06,6.14167e+06,-3.80371e+06,2.10891e+07,1.7267e+07,-4.40894e+06,1.02226e+07,-5.81779e+06,0,3.55835e+06,3.23546e+06,8.40584e+06,2.11032e+06,9.15428e+06,1.60815e+06,1.32448e+06,1.17447e+06,-1.63829e+07,-7.82509e+06,1.52897e+06,0,873616,0,-1.27304e+07,-4.26802e+06,-2.21842e+07,3.96304e+06,2.39282e+06,-1.9855e+07,893987,-306876,-2.33094e+07,1.17199e+06,2.95925e+06,823700,-1.19148e+06,4.2304e+06,1.76777e+07,151692,-1.14429e+07,2.68582e+06,0,-8.94354e+06,43602,1.62438e+06,3.18047e+06,1.0651e+07,4.10216e+06,-3.64972e+06,1.64224e+06,1.48944e+07,-324676,529550,0,-7.75689e+06,0,2.70537e+07,-437976,9.12176e+06,2.30346e+07,6.59331e+06,3.38365e+06,4.99155e+06,9.11534e+06,1.14879e+07,-4.01801e+06,1.88124e+06,18543,70006,6.76168e+06,1.96486e+06,567182,239043,5.94101e+06,0,502573,0,1.21776e+06,440628,149064,480134,52703,-2.69826e+06,7.0499e+06,1.40871e+06,995786,92657,6.25488e+06,0,0,0,0,0,0,0,0,6.23605e+06,0,4.34072e+06,0,0,-1.21427e+07,-6.49465e+07,-1.82422e+07,0,0,-1.24187e+07,0,-1.10759e+07,23072,1.01213e+06,0,-1.82686e+07,0,111538,496010,-1.89559e+07,0,2.98941e+06,0,0,0,1.10993e+07,-5.03745e+06,575418,2.91418e+07,2.19055e+06,1.45996e+07,-1.47441e+07,-2.56196e+07,6.03254e+06,1.11505e+07,2.67448e+06,986860,6.78853e+06,1.14121e+07,1.535e+07,-8.99142e+06,1.37433e+07,0,76210,-1.88129e+07,3.25327e+06,1.00817e+07,1.66923e+07,8.66061e+06,-1.87788e+06,-2.26339e+06,2.58425e+06,9.8072e+06,-3.73755e+06,8.0249e+06,-1.92464e+06,-5.15455e+06,0,9.48805e+06,448620,-1.36552e+07,-7.59678e+06,7.22882e+06,-1.75386e+07,-6.97241e+06,3.25294e+07,1.06542e+07,-9.49079e+06,-5.59921e+06,-4.09106e+06,-1.51975e+07,-4.83493e+06,-1.25283e+07,-6.03449e+06,5.96506e+06,1.07483e+07,1.03443e+07,51593,-1.41693e+06,4.41944e+07,-7.32689e+06,-2.37859e+07,-1.15595e+07,9.99182e+06,-2.81896e+06,1.58914e+07,-5.85503e+06,3.10248e+07,1.23516e+07,1.64978e+07,0,553308,553308,553308,553308,553308,553308,553308,-3.74961e+06,180209,592472,34688,387971,-2.54769e+06,-2.51712e+06,2.14891e+06,-1.83987e+06,1.35665e+06,117061,1.08646e+06,-3.47198e+06,513847,6.66559e+06,1.90979e+06,-1.34326e+06,-707806,556743,148253,553308,-1.63019e+06,4.50934e+06,1.23531e+06,1.34399e+06,-1.27758e+07,-1.20022e+07
0,1.55583e+07,8.27926e+06,6.54382e+06,9.96794e+06,-1.52652e+07,3.16442e+06,1.09552e+07,6.99204e+06,-885984,3.52739e+06,-823844,554204,3.64033e+06,5.85078e+06,-1.39093e+07,0,-2.81188e+06,15164,965590,7.19915e+06,887901,8.20302e+06,-1.74224e+07,827003,0,1.90427e+06,1.32014e+07,8.41306e+06,-5.72783e+06,-3.5019e+06,907801,7.41774e+06,0,1.7044e+07,4.36837e+06,-6.07696e+06,-8.58296e+06,-3.2906e+06,1.55459e+06,1.12371e+07,2.62408e+06,-2.41545e+06,0,1.54665e+06,647080,-2.02068e+06,3.96253e+06,4.1933e+06,274237,2.96667e+06,503742,0,4.08536e+06,244050,760697,-2.73922e+06,7367,969965,1.06944e+06,802012,-8.90279e+06,-3.57451e+06,1.98797e+06,22277,-1.38064e+07,0,2.28501e+07,-3.05658e+06,1.06202e+06,1.54445e+07,1.15252e+06,5.20768e+06,8.15453e+06,1.65351e+06,5.09284e+06,2.12549e+06,-2.41142e+06,1.5936e+06,-1.01128e+07,2.59582e+06,9.07898e+06,0,987691,0,260658,-8.77628e+06,-3.46055e+06,5.97925e+06,6.53015e+06,-3.798e+06,1.64246e+06,3.59113e+06,4.86913e+06,8.5299e+06,-752327,-1.78869e+06,2.37091e+06,5.53362e+06,0,0,0,0,0,0,0,0,1.50281e+06,349350,0,0,0,575246,1.30709e+06,3.95908e+06,0,0,0,0,-9.6902e+06,349350,-5.52846e+06,0,0,0,0,-1.26955e+07,1.89796e+06,0,-1.43666e+06,0,0,0,5.33074e+06,-6.55144e+06,-7.26912e+06,3.66602e+06,1.07625e+06,2.70573e+06,-1.49141e+07,1.1339e+07,1.44796e+06,1.11564e+07,-2.70196e+06,2.19841e+06,-2.93817e+06,7.11769e+06,8.76557e+06,458792,-1.28786e+06,0,178545,-1.4529e+07,-7.36331e+06,-7.82404e+06,6.08781e+06,0,-5.97059e+06,-7.03911e+06,4.37233e+06,-5.22628e+06,-5.38346e+06,-5.21816e+06,-3.33324e+06,237387,0,2.50679e+06,-6.0444e+06,7.42151e+06,-1.23816e+07,1.63823e+07,-1.25771e+07,-1.47109e+07,2.18839e+07,2.07968e+06,-4.7057e+06,9.45155e+06,7.58737e+06,7.84698e+06,-2.00899e+07,-1.02054e+06,2.64514e+07,7.89671e+06,-8.49221e+06,-610976,-1.12852e+07,-930109,475786,-1.14201e+07,-1.79073e+07,7.18563e+06,9.92817e+06,-1.07098e+07,-4.6427e+06,1.43611e+06,-2.29497e+07,387569,-7.71713e+06,0,6915,6915,6915,6915,6915,6915,6915,4.59954e+06,593845,1.21036e+06,497634,1.25807e+06,-300907,97082,1.10671e+06,2.71845e+06,790907,-797330,521598,-3.29962e+06,-1.02727e+06,206625,-2.37048e+06,-2.08709e+06,382747,945390,6915,6915,-1.33975e+06,-3.29072e+06,116768,-477236,-9.7801e+06,-119864
0,1.38383e+06,132866,541542,662962,-324545,27395,791839,-837785,-330012,-38359,326139,-11857,-85273,200990,-105703,-11517,-7727,0,0,748692,0,-83918,-1456,-31,0,401827,-304277,823605,278565,-40278,-35473,-117129,0,693833,401377,-508357,820128,-109345,-239315,146762,-525024,3850,0,-103035,0,265879,-184656,-123095,-79025,-92558,0,0,-91900,175761,-130673,-55315,-50986,196401,-99845,284525,-253304,-53770,-26357,0,-109277,0,-120463,-246890,-578458,-528869,-265776,108336,512268,8521,72213,0,-40402,0,-40402,0,0,-53503,0,0,0,265879,0,-46615,-79629,-11857,-53503,-160509,40505,-410639,-122903,-58945,0,-31912,0,0,0,0,0,0,0,0,1.53762e+06,0,-20789,0,0,0,-302304,448136,0,0,0,0,-38607,0,-104057,0,0,0,0,-112391,281286,0,-175231,0,0,0,-90228,-176540,289306,-17347,-699488,-88077,-345058,-706144,84689,-1444,203133,-202010,426108,-367404,79180,-50224,-69444,-30144,-11517,1.53169e+06,259043,-809240,-266839,-104790,-85788,252980,241266,192566,160938,-105101,-100737,-323034,0,739571,267117,494040,548288,1.38907e+06,47790,-855187,510210,2.4662e+06,-1.56059e+06,-157591,-495993,1.63358e+06,2.13894e+06,-668818,-246751,153131,-89546,186431,-365723,-769284,-1.23641e+06,1.9216e+06,-1.31673e+06,1.35183e+06,-522403,1.4996e+06,-646114,-437610,-615688,-1.37348e+06,-2.55961e+06,0,-1260,-1260,-1260,-1260,-1260,-1260,-1260,-1260,250710,-162118,15144,-70986,219989,146194,-37030,-44102,9018,-11969,11109,205003,-33448,-243454,189795,-148439,140894,-12795,164923,-1260,-17478,-102160,-150969,-327911,-450551,-222529
0,-3.15996e+07,1.58916e+07,1.39782e+08,-9.72113e+07,-4.61348e+07,1.0323e+08,-8.56224e+07,4.69855e+07,-9.90009e+07,-1.54545e+07,2.12591e+07,-5.05142e+07,2.46358e+07,5.78299e+07,1.7752e+06,-3.1619e+07,5.1299e+06,4.05077e+07,-2.09054e+06,2.85987e+07,5.63035e+07,6.65527e+07,-8.41503e+07,-174030,-3.06761e+06,8.73079e+07,2.37711e+07,-2.58027e+07,-2.22863e+07,-2.35222e+07,1.39765e+07,902976,0,-1.43243e+08,2.47043e+07,-8.64173e+07,-1.45342e+08,1.64376e+07,-7.65911e+07,-1.23886e+08,-2.47103e+07,-1.83375e+07,5.12088e+07,-1.07424e+07,2.54187e+07,-8.46677e+06,-4.64721e+07,9.47344e+07,6.83071e+06,2.03187e+07,0,0,1.36031e+08,3.66129e+07,1.04084e+08,-4.84175e+07,6.38992e+06,2.04956e+07,4.48964e+06,9.76401e+07,1.25363e+07,-6.02973e+07,-2.34094e+07,0,914741,0,7.80862e+07,-1.15295e+08,-8.87443e+07,-1.48265e+08,5.81445e+07,-2.64278e+07,1.16495e+07,-3.9195e+07,-5.28959e+07,1.72572e+07,-2.76198e+07,2.37368e+07,8.69588e+06,4.2617e+07,3.48475e+06,5.40391e+06,-3.0566e+07,0,0,-7.09641e+07,6.75173e+07,-2.73858e+07,3.75363e+06,-2.28302e+07,-1.29958e+07,-2.58656e+07,-4.58294e+07,-2.5914e+07,7.81747e+07,1.25556e+07,0,0,0,0,0,0,0,0,0,0,3.93981e+07,0,5.25962e+06,0,0,-2.75163e+07,-1.21192e+06,-9.43801e+07,0,0,0,0,1.5396e+08,4.05077e+07,1.30309e+07,0,0,0,1.58782e+06,-6.34433e+06,7.90823e+06,0,-1.07132e+08,0,0,0,1.64448e+07,1.99292e+07,-1.24252e+07,9.81573e+07,-3.26384e+07,-9.5013e+06,1.24972e+08,-4.36215e+07,9.55061e+07,6.66788e+07,-4.65419e+07,-1.20974e+07,-4.05675e+07,-2.42794e+06,-1.67578e+08,2.16246e+07,9.04848e+06,-1.98962e+07,-3.66595e+07,6.20575e+07,1.12868e+08,4.88788e+07,-2.59982e+07,3.68098e+07,820326,4.5185e+07,8.0583e+06,-5.26065e+07,-7.17438e+07,-5.09922e+07,4.28481e+07,-1.00462e+08,0,4.23568e+07,-1.93629e+07,-3.96074e+07,3.64661e+07,-1.03525e+07,-2.34384e+06,1.98311e+08,2.83721e+07,-1.93878e+07,-7.63941e+06,-4.15706e+07,-2.43506e+07,-5.28159e+07,-7.381e+06,-5.65322e+07,-7.44623e+07,-2.16782e+07,-5.64716e+07,-1.36106e+07,-1.29625e+08,-4.95514e+07,-8.35279e+07,3.55965e+07,2.8548e+07,-2.57568e+06,-1.59885e+07,1.2559e+08,5.965e+07,4.00807e+07,-2.03415e+07,-4.97322e+07,-4.88627e+07,0,-1.81794e+06,-1.81794e+06,-1.81794e+06,-1.81794e+06,-1.81794e+06,-1.81794e+06,-1.81794e+06,722896,-1.81794e+06,1.1731e+07,-1.5919e+07,-3.78066e+06,-9.60348e+06,7.91189e+06,-2.18496e+07,-7.22222e+06,34411,464755,-1.74793e+07,1.80058e+07,2.64258e+07,1.49192e+07,-1.4902e+07,4.26083e+06,-1.33866e+06,1.0514e+07,2.11527e+07,-1.81794e+06,-9.4077e+06,-1.94057e+07,2.30923e+06,-1.20877e+07,-4.4637e+07,786534
0,-310538,-2.30391e+06,196822,-1.46702e+06,-105549,525719,-2.08885e+06,-2.27839e+06,-241568,149605,-668018,-335468,1.01728e+06,-1.75427e+06,320810,-167889,-2.11422e+06,0,0,-612841,-205573,-1.04853e+06,-124000,-470619,-139319,236847,-658788,382943,-818613,-1.64624e+06,-62000,792982,0,-151643,1.20441e+06,639368,-2.09664e+06,-47165,525861,-618003,-278463,626796,-198493,120984,0,1.01728e+06,-88353,182994,-39731,39913,0,-47165,-376698,-200528,-47165,-62000,-203928,0,555946,-379412,128572,306813,-681633,0,-100754,0,1.16091e+06,565592,131738,1.71446e+06,-97706,-191328,-723134,2.06495e+06,0,504596,950087,0,0,-639020,-50541,0,2.96628e+06,0,-94415,-332601,0,-157552,-12795,-65863,0,209998,-99032,1.97893e+06,-424535,2.05349e+06,-62000,0,0,0,0,0,0,0,0,0,-797294,0,-407579,0,0,0,-958159,54940,0,-100264,0,0,-615196,-147429,13570,0,0,0,189213,0,-986143,-47165,-966347,0,0,0,8.00431e+06,3.40771e+06,-2.53659e+06,2.0708e+06,-972513,544092,-1.21293e+06,-2.17638e+06,-142658,-263462,304103,168395,1.01728e+06,-347031,-1.75943e+06,-867682,2.97457e+06,0,599928,310190,-324642,1.43745e+06,3.76288e+06,-104092,0,-36232,-1.24489e+06,520750,-1.15346e+06,1.89531e+06,-199650,-697065,0,-1.43315e+06,-283300,2.15795e+06,1.00551e+06,1.15364e+06,-1.47364e+06,5.60705e+06,-410541,-962090,329241,1.28291e+06,2.20248e+06,-51889,-6.55993e+06,-4.43751e+06,3.30032e+06,-1.59164e+06,-1.03556e+06,-1.68525e+06,-759314,3.71219e+06,3.26919e+06,2.89132e+06,5.59189e+06,578079,420578,-1.59201e+06,-2.11167e+06,-3.88893e+06,2.31466e+06,-2.46117e+06,2.26063e+06,0,-8662,-8662,-8662,-8662,-8662,-8662,-8662,-387612,-75719,-8662,199007,203541,299996,-1.03468e+06,-568874,222330,254137,-103556,-145533,-238646,283402,329249,806925,474739,43876,162470,-397413,-8662,-602589,296925,-278482,187207,-5.84182e+06,1.17179e+06
0,-2.99314e+07,1.97992e+06,1.15129e+07,9.15664e+06,2.26491e+06,-4.24252e+06,-3.88134e+06,2.30312e+07,-1.84888e+07,4.21951e+06,105398,0,1.26796e+07,2.63866e+07,1.17342e+07,0,5.90993e+06,0,2.19484e+06,-5.12288e+06,8.59828e+06,4.98189e+06,-1.36165e+06,7.41634e+06,0,555726,-5.38577e+06,1.2641e+06,191136,5.97599e+06,0,2.2121e+06,0,-4.11345e+07,-1.26793e+07,-7.66429e+06,6.99745e+06,2.47334e+06,5.31329e+06,365895,-3.62079e+06,2.44329e+07,-267498,0,0,816372,1.57568e+07,5.91176e+06,0,-4.0182e+06,0,0,-2.73575e+06,-2.56744e+06,7.70925e+06,557278,-7.39262e+06,-5.13475e+06,-6.77669e+06,-1.03372e+07,2.0664e+07,1.26242e+07,6.61289e+06,0,4.79585e+06,0,7.46365e+06,-1.18076e+07,24506,-6.2428e+06,5.36183e+06,5.0409e+06,4.11134e+06,-1.26902e+06,347813,-296630,70733,0,2.71086e+06,1.05576e+06,-6.437e+06,-1.75625e+06,1.65632e+06,0,2.19484e+06,-5.1225e+06,-1.20116e+06,6.57386e+06,830426,-7.3485e+06,0,240824,-1.99412e+06,-4.03212e+06,22044,5.16929e+06,1.45681e+06,0,0,0,0,0,0,0,0,0,-1.48991e+07,0,0,0,0,-950506,-4.65907e+07,3.90108e+06,0,0,0,0,-1.17665e+07,-5.10864e+06,-3.02048e+06,0,0,0,0,0,1.73156e+07,-486461,-3.84288e+06,0,0,0,-4.98579e+07,2.01231e+07,-3.29908e+06,980763,2.54211e+07,1.64419e+07,-4.80696e+07,-1.27574e+07,5.21007e+06,-1.68126e+07,4.32473e+06,-93098,2.82698e+07,-3.32398e+07,1.39896e+06,-3.51902e+06,-1.00787e+07,0,0,4.45367e+06,-6.78692e+06,-1.91571e+07,9.3895e+06,0,-2.92266e+06,6.38376e+06,-6.58329e+06,-1.83061e+07,-1.0761e+06,1.98423e+07,1.59167e+06,1.71491e+07,0,6.50398e+06,1.35075e+07,2.22248e+06,-6.49192e+06,-3.4678e+07,-2.17104e+07,4.29382e+07,-4.82821e+06,-6.40853e+06,2.41299e+07,-4.82972e+06,1.52042e+07,5.50215e+06,1.80325e+07,2.11262e+07,-1.6481e+07,-9.87092e+06,-7.70504e+06,-1.02392e+07,-9.19042e+06,-2.51303e+07,2.66109e+07,-3.78915e+06,1.37291e+07,7.97096e+06,-3.36221e+07,4.34123e+07,-1.58515e+07,-2.20857e+07,-2.53905e+07,755502,2.04748e+06,0,105398,105398,105398,105398,105398,105398,105398,-1.43434e+06,806060,1.09727e+06,105398,1.51111e+06,4.90282e+06,-1.85989e+06,3.76352e+06,-2.17562e+06,-1.64016e+06,-770504,-780316,-2.94844e+06,-3.21962e+06,2.36983e+06,703300,640430,-8645,-3.32185e+06,1.91119e+06,105398,-1.08109e+06,991018,380398,1.0067e+06,2.40137e+06,1.1832e+07
0,637169,1.94797e+06,973913,-156434,0,244054,-73,-74840,973986,0,-37420,-794623,-54396,-1.65673e+06,0,973986,0,0,0,0,0,0,-108792,899146,0,0,0,2.16483e+06,0,2.00493e+06,0,0,0,-943848,57409,-74840,-27344,0,0,-73,0,-37420,0,0,973986,0,973986,0,0,0,0,0,0,0,0,0,-851959,0,0,0,946715,0,-1.70392e+06,0,0,0,-219,-852032,-851959,-73,-1.70392e+06,-851959,-146,0,-851959,0,0,0,0,-146,0,-851959,0,0,-73,0,0,0,-27198,0,0,0,-73,-1.70392e+06,0,0,0,0,0,0,0,0,0,0,0,0,-37420,0,0,0,0,0,936566,0,0,0,0,0,0,0,0,0,0,0,0,0,-821821,0,0,0,0,0,1.10874e+06,29992,202219,331455,122027,-781388,-219,-261940,-401271,0,-64618,0,0,-187100,0,122027,0,0,0,0,0,0,0,0,0,0,-146,-37420,-27198,450688,0,0,0,2.80064e+06,534509,1.29866e+06,1.29066e+06,2.04058e+06,1.84798e+06,573871,0,768727,0,675398,393997,-217584,778765,0,976216,-730,-730,845413,0,-271980,0,-82178,404876,-730,-271980,-511,24976,-244782,94374,-374200,1.09824e+06,0,57336,57336,57336,57336,57336,57336,57336,-37420,57409,0,57336,57336,-27198,84534,0,122027,-73,-73,84534,0,-27198,0,-27271,57409,-73,-27198,-73,57336,-27198,84607,-37420,122027,-1.2822e+06,-64691
0,-489130,142990,-187077,-284972,0,-142925,-10572,-160415,-10572,0,-76539,0,-76956,52771,-146812,0,-83472,0,0,-87111,0,-66386,0,-74361,0,-23427,0,-43344,114546,-524883,0,0,0,-98616,-61450,101246,-231125,-10572,143945,-20638,-10572,46233,0,237310,0,461102,254483,-80007,0,-97788,0,0,-198014,0,0,0,-28958,0,-253044,0,37869,59746,0,0,-89813,0,-237159,-227167,231009,-271262,-10572,-76072,-30198,-24193,0,0,-127623,0,-93241,50038,-40863,0,0,0,-13621,-47374,0,0,-30198,-86874,0,-28958,-20638,66997,-54217,0,0,104255,0,0,0,0,0,0,0,0,-42655,0,0,0,0,174811,547616,-73406,0,0,0,0,-153078,0,0,0,0,0,-123393,0,154100,0,-199932,0,0,0,-197328,541102,517465,128176,331447,-28832,-83058,-128332,-331338,-10066,176012,-66386,392265,-222128,-418957,-32083,-43559,0,0,-936502,0,0,146803,0,0,-281230,-20638,93303,-195508,-338438,273672,14442,0,214545,-665812,-555249,305513,-331063,83124,139660,-196593,1.49422e+06,920096,198249,-1.44215e+06,-883931,1.29799e+06,-774085,1.46749e+06,-497581,-1.53497e+06,-1.1196e+06,-589420,-610,-597474,2.21348e+06,-1.39871e+06,3.29927e+06,-117328,-165104,-334875,2.01024e+06,-680627,354058,-573315,0,-2595,-2595,-2595,-2595,-2595,-2595,-2595,-56276,112200,91003,33087,-150854,-2595,198077,-153413,143541,-72240,-153497,-116046,-208586,-61,-66386,291261,-158890,329927,-82738,-20638,-2595,193481,-174388,62773,-62097,-5250,-336396
0,2.7289e+08,-8.65937e+08,2.01456e+08,1.74806e+08,-4.99872e+08,4.45189e+07,-3.79681e+07,7.33535e+08,-4.60647e+08,-9.58843e+08,-1.78729e+08,4.30488e+08,2.01776e+08,-7.41616e+08,1.25212e+09,2.812e+08,3.49083e+08,5.94489e+08,-2.68923e+07,2.1789e+08,2.30952e+08,7.90055e+08,-3.65513e+06,1.93287e+08,3.05562e+08,1.95337e+07,7.77305e+08,6.55917e+08,8.93096e+08,-4.18655e+08,-1.23458e+08,1.03751e+09,0,3.67942e+07,-5.63376e+08,-1.24411e+08,-1.17711e+09,3.10945e+08,1.16931e+08,-5.08962e+08,-1.16871e+09,-2.17596e+08,-3.46756e+08,5.32375e+08,1.5535e+08,-8.43515e+08,3.45373e+08,-6.02856e+08,-2.11664e+07,-2.53694e+08,-3.35126e+08,0,2.14437e+08,-9.01953e+07,-7.34998e+08,-34669,-4.72855e+08,1.55833e+08,-1.95111e+08,-6.25226e+08,-7.03538e+08,-2.9604e+08,-1.86956e+08,-1.56184e+08,-1.40968e+08,0,-4.98962e+07,6.97928e+08,4.22687e+08,7.72693e+06,3.80158e+08,-5.3736e+08,1.05432e+08,-1.17238e+09,3.45285e+08,2.99827e+08,5.36233e+08,-3.21265e+08,5.9531e+07,-5.12245e+08,-2.92412e+08,-1.0448e+07,-1.14639e+08,-1.21858e+07,-2.82812e+08,4.45088e+08,-2.40542e+07,5.3586e+08,1.83633e+08,-4.63103e+08,-2.2276e+08,-5.15599e+08,-2.48143e+08,-3.27351e+08,2.33027e+08,-1.11675e+09,-1.9421e+07,-5.50182e+08,0,0,0,0,0,0,0,0,-1.31789e+09,0,4.14925e+08,0,0,-4.13416e+07,6.07366e+08,-8.13998e+08,0,0,0,0,-4.93102e+07,-1.17076e+08,6.15959e+07,0,6.57114e+08,0,-7.02108e+08,1.67362e+08,4.47518e+08,0,-6.01597e+08,0,0,0,2.57419e+08,-3.25299e+08,-1.56407e+08,2.65889e+08,-2.28859e+08,2.37679e+08,8.67391e+07,4.09604e+07,-4.74583e+07,1.10686e+09,5.14029e+08,-4.19353e+08,-5.37346e+08,3.65377e+08,5.39163e+08,5.23119e+07,-4.71291e+08,6.96985e+07,-1.22026e+07,-2.42349e+08,3.4388e+08,3.18837e+08,-4.12978e+08,2.06602e+08,-9.11781e+07,4.87121e+08,3.73246e+08,-1.5128e+08,-4.96326e+08,-3.02159e+07,1.12502e+09,-4.99529e+07,0,-9.11894e+07,-6.39587e+07,-6.3219e+08,1.01108e+09,-2.07982e+07,1.93232e+08,1.30186e+08,1.72162e+08,6.36634e+08,-1.45705e+08,-1.87782e+08,1.2484e+08,2.95844e+08,-3.7726e+08,1.05432e+08,1.23642e+08,3.36504e+08,7.4703e+07,-2.01859e+08,1.40677e+08,3.86463e+08,-5.58081e+07,3.19767e+08,1.18184e+07,1.71797e+08,1.35008e+08,-3.30172e+07,2.41845e+08,1.22707e+08,-3.13149e+07,1.95491e+08,4.62231e+08,0,-7.30324e+06,-7.30324e+06,-7.30324e+06,-7.30324e+06,-7.30324e+06,-7.30324e+06,-7.30324e+06,-2.71233e+08,9.16451e+07,3.70308e+07,6.10119e+07,-2.99395e+06,-8.65051e+07,-7.30324e+06,1.87448e+07,3.59876e+07,-1.47647e+07,8.7595e+07,-1.96298e+08,7.26254e+07,7.29968e+07,1.00278e+08,1.08415e+07,1.30491e+07,2.84492e+07,-9.36556e+07,4.0965e+07,-7.30324e+06,4.21702e+07,-2.38548e+08,1.02145e+08,3.0038e+07,-2.56922e+08,4.82041e+08
0,-1.38909e+07,5.02618e+06,-3.17262e+06,-3.13403e+06,-3.75827e+06,-7.95049e+06,2.54522e+07,-1.48529e+06,1.3771e+06,-1.18397e+06,-4.50942e+06,-944700,-1352,-5.42314e+06,-1.41594e+07,0,-1.40477e+06,0,-86909,1.65483e+06,0,-4.3108e+06,-79191,-1.16827e+06,3.83896e+06,1.94066e+06,-1.08069e+07,-132741,1.6433e+06,-5.05786e+06,4.41208e+06,7.2866e+06,0,4.74241e+06,2.08526e+06,2.5134e+06,-458792,2.16254e+06,-1.16353e+06,5.18304e+06,-323730,-421044,-272535,2.80059e+06,-395187,-420991,-480197,-1.61122e+07,-230732,-916620,-290628,0,-1.60604e+06,3.54182e+06,1.12834e+06,-131523,-1.04646e+06,-589239,-1.9898e+06,1.60344e+07,-1.01169e+07,-5.32881e+06,-321317,-882531,-2.45888e+06,0,2.04405e+07,-7.37258e+06,-3.45288e+06,1.07765e+06,-2.72715e+06,-5.71069e+06,1.15519e+07,-18383,-4.07543e+06,0,2.42126e+06,-137591,-59800,-209075,-3.81095e+06,-240199,-166745,-211622,0,3.16285e+06,0,2.43564e+06,-395955,-211721,1.55867e+06,-1.68327e+06,-936168,-8.25144e+06,-801753,-672164,0,-1.35921e+06,0,0,0,0,0,0,0,0,-900902,0,-10321,0,0,-26544,-5.00707e+06,-1.04623e+06,0,0,0,0,-2.93349e+06,0,398846,0,0,0,-315908,-328459,2.96839e+07,0,-2.1428e+06,0,0,0,-1.23779e+07,-5.04212e+06,-8.71458e+06,-4.00737e+06,236287,1.25777e+07,-3.20769e+06,-4.88081e+06,502480,-1.62194e+06,-1.9811e+06,-1.34629e+06,-987157,-1.02647e+07,2.58055e+07,-497040,-1.95595e+06,-536773,-59800,-1.24696e+06,-2.0388e+06,-1.04699e+07,-316717,-290744,-396349,-3.41603e+06,636022,-5.82182e+06,-2.07658e+06,-1.06057e+07,-492850,-1.55358e+06,0,-4.48165e+06,3.87707e+06,5.23373e+06,3.26098e+06,3.39702e+06,-1.31904e+06,-2.05415e+07,-1.37665e+07,1.36285e+07,9.18291e+06,1.03621e+07,1.79338e+07,1.16109e+07,-9.08727e+06,8.46144e+06,9.83484e+06,5.64707e+06,-1.16676e+06,4.22607e+06,320036,1.60968e+06,7.72249e+06,-1.25388e+07,-521677,-8.37185e+06,-2.04221e+06,9.06087e+06,-1.16847e+07,2.22454e+07,-1.34189e+07,-1.22587e+06,3.66648e+06,0,-86197,-86197,-86197,-86197,-86197,-86197,-86197,-2.13757e+06,551004,609415,1.16263e+06,1.511e+06,1.01151e+06,-3.07812e+06,-86197,732448,471333,-220578,1.00326e+06,-64878,311270,396367,-1.68278e+06,-323888,-401214,-872825,1.36598e+06,-86197,1.56816e+06,-3.22737e+06,69799,555465,-1.12816e+07,-3099
0,-656481,469170,1.60306e+06,-62028,419308,914298,-131299,1.04155e+06,69831,1.23356e+06,411186,201130,-15366,2.95648e+06,-84781,-36054,822372,0,0,177545,-278206,225381,-57196,0,-366721,201130,-262598,989740,543967,2.04227e+06,0,-162134,0,-1.82789e+06,-1.10926e+06,670138,417652,75027,26097,483526,-344426,118245,1.01458e+06,-201110,-50483,-15366,241763,86301,0,0,-95486,0,456035,-32181,-43210,-171922,411186,140559,201130,-30732,-8107,-101494,972931,0,-116851,0,-780423,-987815,-940679,-1.63626e+06,-358614,-229533,0,-344426,118245,0,0,0,0,-80112,-50571,-358614,0,0,0,0,-101054,-241105,-86128,-358614,0,-258384,0,-711063,-86128,153156,0,0,0,0,0,0,0,0,0,0,-131299,0,0,0,0,-78207,130241,1.37033e+06,0,0,0,0,-79584,0,0,0,0,0,0,0,-317554,0,-798550,0,0,0,-2.44944e+06,-2.21818e+06,2.84541e+06,916229,305030,-444510,-810155,-42591,-358903,1.32085e+06,411186,201130,-117903,272019,16621,792822,-50571,0,-172213,967103,-115046,-694246,-1.1192e+06,0,449251,0,110464,-558258,605005,1.56011e+06,-564343,-198033,0,2.58009e+06,3.68091e+06,-3.64388e+06,1.2461e+06,-68447,105952,481452,-158210,681322,-1.8322e+06,-2.40205e+06,1.61636e+06,-533888,1.04331e+06,-2.18927e+06,-180895,2.93901e+06,-2.96563e+06,-117050,3.24792e+06,-4.60357e+06,-450220,-2.06447e+06,-54422,768001,-819206,1.13385e+06,1.07062e+06,4.79949e+06,-730739,-2.7274e+06,-2.85636e+06,0,46538,46538,46538,46538,46538,46538,46538,2060,62874,173678,-178079,196814,-76073,456370,-85137,46538,367870,-306112,-32943,476902,-513006,-120340,-437365,-185,99109,-67533,95098,46538,576084,319918,-329174,-308526,180878,-211135
0,1.06003e+07,9.05824e+06,2.54746e+06,8.37558e+06,655684,2.13768e+06,1.62546e+06,-3.19601e+06,422982,1.94794e+06,1.77968e+06,3.3471e+06,-130921,5.22995e+06,3.03164e+06,155340,-5.55233e+06,0,410648,-383253,-1.90215e+06,-3.15921e+06,-9.46051e+06,1.03714e+06,0,-4.18298e+06,4.00249e+06,3.77505e+06,-2.22914e+06,-1.74466e+06,-1.90215e+06,1.00415e+06,0,1.85199e+06,-6.40727e+06,-6.09472e+06,129153,465404,5.27335e+06,2.72906e+06,4.67583e+06,-1.1907e+06,358877,831006,-909375,-867057,-1.10694e+06,-646258,-1.75952e+06,5.16236e+06,0,136315,-3.96614e+06,0,-100494,-65805,-401197,0,723519,1.81552e+06,-8.18397e+06,1.07002e+06,1.99754e+06,-272973,-2.03872e+06,0,-1.60446e+07,3.30342e+06,3.79393e+06,-9.44977e+06,255326,-362098,-550437,-857114,0,-701610,215792,643741,-1.29587e+06,1.93823e+06,-1.11435e+06,425105,-1.03294e+06,0,-120612,-3.85315e+06,1.44622e+06,-2.1348e+06,-5.5241e+06,273937,0,594381,-965056,-5.61154e+06,390951,-2.47134e+06,-142197,-618152,0,0,0,0,0,0,0,0,2.11011e+06,0,2.30631e+06,0,0,619063,4.4057e+06,-1.74588e+06,0,0,0,0,1.61672e+06,-132591,-416985,0,0,0,0,-1.36246e+06,907710,-132591,3.88817e+06,0,0,0,-702471,-9.53505e+06,-1.90202e+06,2.72236e+06,3.40126e+06,8.38614e+06,5.21021e+06,-6.05325e+06,2.19394e+06,8.79554e+06,1.28464e+06,-2.10466e+06,-7.1978e+06,-5.78149e+06,-9.10907e+06,-492440,-2.7588e+06,-12447,1.78452e+06,-2.78826e+06,-1.32549e+06,-491619,-8.72832e+06,-947143,3.19572e+06,-3.19186e+06,1.43441e+06,-6.29918e+06,-2.0265e+06,3.5065e+06,-1.2121e+06,-425152,0,1.56883e+06,-303976,-4.4734e+06,-1.663e+06,-6.37156e+06,-1.74519e+07,-89390,1.17237e+07,2.39117e+06,-1.55012e+07,1.37492e+07,2.16735e+07,-1.25804e+07,-1.34398e+06,-7.70174e+06,-4.79007e+06,2.18937e+06,2.59152e+06,-3.68452e+06,6.31934e+06,3.23045e+06,1.00218e+06,1.259e+07,3.86418e+06,5.17892e+06,-4.24788e+06,1.00993e+07,1.38102e+07,1.04908e+07,-2.12099e+07,-637090,-2.15165e+06,0,-199235,-199235,-199235,-199235,-199235,-199235,-199235,840330,371117,-279415,1.78603e+06,2.26503e+06,-2.1453e+06,334146,-1.72857e+06,-646159,-199235,257907,-764484,-263177,131644,-558532,-1.29591e+06,382692,837464,-1.03048e+06,1.50242e+06,-199235,756356,-1.60337e+06,-274587,-469039,4.37563e+06,-2.27975e+06
0,-271838,0,430818,-212365,0,0,0,430818,0,0,-391728,0,0,1.47332e+06,861636,0,0,37591,180862,0,0,1.15654e+06,-135919,0,0,0,0,-46442,-135919,0,0,0,0,-407757,-391728,-352638,180862,0,-484612,0,430818,861636,0,0,0,-46442,0,400814,0,0,0,0,-210866,0,180862,-135919,-391728,0,0,0,-182361,-46442,0,0,-46442,0,89886,180862,0,-1.05529e+06,-783456,-602594,0,0,0,0,180862,0,0,225805,180862,0,0,0,0,0,0,-135919,0,0,0,0,0,0,0,0,0,0,0,0,0,0,0,0,0,0,0,0,0,0,0,-92884,-744366,-1.56691e+06,0,0,0,0,-139326,0,-783456,0,0,0,0,0,468409,0,0,0,0,0,-346696,462965,488792,-139629,-391728,-225570,0,430818,337934,0,219952,-679595,-278652,219952,439904,0,0,0,0,-746826,0,-557651,-407757,0,-391728,0,0,384376,-46442,0,-271838,0,0,2.13694e+06,968515,968304,692456,1.47591e+06,1.6135e+06,375910,2.55131e+06,2.69063e+06,0,1.75962e+06,-679595,0,-334377,1.88322e+06,0,0,338319,-1.97049e+06,-1.47606e+06,2.94899e+06,979959,-407757,-2.18135e+06,2.59125e+06,0,0,-248072,-1.59481e+06,-1.35919e+06,-1.08735e+06,-371536,0,37591,37591,37591,37591,37591,37591,37591,384376,384376,0,219952,-135919,-46442,84033,219952,0,0,37591,-257308,-257308,294899,84033,-135919,-257308,219952,0,0,37591,-182361,-135919,-135919,-46442,-645374,173510
0,-558,0,0,0,0,0,0,0,0,0,0,0,0,0,0,0,0,0,-279,0,0,0,0,0,0,0,0,0,0,0,0,0,0,-837,0,0,-279,0,0,0,0,0,0,0,0,0,0,0,0,0,0,0,0,0,0,0,0,0,0,0,0,0,0,0,-279,0,0,0,0,0,0,0,-279,0,0,0,0,0,0,0,0,0,0,0,0,0,0,0,0,0,0,0,0,0,0,0,0,0,0,0,0,0,0,0,0,0,0,0,0,0,0,0,0,0,0,0,0,0,0,0,0,0,0,0,0,0,-279,0,0,0,0,0,-1953,-558,-279,-837,0,0,0,0,0,0,0,0,0,0,0,0,0,0,0,0,0,0,0,0,0,0,-279,0,0,0,0,-279,0,-12834,-7812,-5301,-2232,-2232,-2232,-2511,0,0,0,0,0,0,-2790,-2790,0,0,-2790,-2232,0,-2790,0,0,0,0,0,-2511,-2511,0,-2790,-2790,-2232,0,-279,-279,-279,-279,-279,-279,-279,0,0,0,0,0,0,-279,-279,0,0,-279,-279,0,-279,0,0,0,0,0,-279,-279,0,-279,-279,-279,-1395,-279
0,-2.75028e+07,-8.56782e+07,2.79e+07,1.25266e+08,-1.19665e+07,-2.55304e+07,-3.2062e+07,2.0656e+07,-2.57833e+07,-1.62373e+07,1.91039e+07,-2.4272e+07,-5.52454e+07,-4.72438e+07,3.43078e+07,-1.93513e+07,1.94128e+06,-8.42095e+06,-411190,7.52875e+07,5.89859e+07,-7.75237e+07,-3.13375e+07,-691709,-568409,-9.08571e+07,2.55102e+07,8.69022e+07,2.18284e+06,2.88813e+07,-1.95144e+07,8.67616e+07,0,-1.96593e+08,8.85482e+07,4.95304e+07,4.75781e+07,2.97239e+07,8.44988e+07,2.79815e+07,1.30688e+07,-3.10818e+07,5.91623e+07,1.37956e+07,-2.40404e+06,-4.36092e+07,2.06317e+07,-9.17678e+06,3.1031e+07,-4.85817e+06,0,0,-6.28262e+07,-1.54553e+07,-3.67985e+07,-1.2167e+07,5.78306e+06,0,-1.40153e+07,8.5754e+07,-2.67446e+07,-6.97283e+06,-2.12897e+07,0,-9.45792e+07,0,-8.75351e+07,-2.82414e+07,-4.92489e+07,369132,2.73197e+06,-1.24784e+08,-1.27779e+07,-185516,-2.53118e+07,7.0805e+07,-1.17345e+07,0,-643859,8.39305e+07,-3.70053e+07,-373147,1.42756e+07,0,0,-3.09731e+07,-405777,2.68015e+07,-1.00397e+07,1.30499e+07,-859699,7.39185e+07,5.19484e+07,245029,-2.42366e+07,-3.83423e+07,0,1.79653e+07,0,0,0,0,0,0,0,0,-3.41641e+06,-5145,-9.09537e+06,0,0,-1.99765e+07,9.45076e+06,-9.14602e+07,0,-5145,0,0,-8.57179e+07,1.29024e+06,-8.91559e+07,0,0,0,3.55228e+07,-3.01235e+07,-1.17888e+08,0,2.37564e+07,0,0,0,-2.69607e+07,3.14825e+07,-2.44277e+07,4.95107e+07,3.95597e+07,-5.17029e+07,2.16853e+07,-2.84203e+07,1.15289e+08,-1.0232e+08,3.46572e+07,-2.98388e+06,2.1503e+07,-1.07373e+08,1.98817e+07,1.39533e+07,5.14767e+07,-1.7027e+07,-2.09911e+06,4.58721e+07,6.93072e+06,-7.66531e+07,-8.38742e+06,3.819e+06,-1.28769e+07,9.63729e+07,1.03994e+08,1.79241e+07,-9.61441e+06,6.98899e+07,-8.63922e+06,-5.61504e+06,0,-3.07399e+07,3.02563e+07,-4.05717e+07,1.71526e+07,-7.39199e+07,1.04344e+08,8.53977e+07,-4.58299e+07,2.77435e+07,-1.31822e+06,1.36131e+07,1.90193e+07,-5.69263e+07,-7.07532e+07,-1.2464e+07,-5.55413e+07,6.93741e+07,-6.02822e+07,4.75559e+07,4.10191e+07,-3.57174e+07,-1.04015e+07,-1.8274e+07,2.3159e+06,1.54824e+07,3.70838e+07,5.54061e+07,8.07886e+07,-8.6853e+07,33444,-1.31004e+07,1.78264e+07,0,-1.73385e+06,-1.73385e+06,-1.73385e+06,-1.73385e+06,-1.73385e+06,-1.73385e+06,-1.73385e+06,-4.41274e+06,9.16255e+06,99115,5.04329e+06,-1.06406e+06,-1.54898e+07,-1.11364e+07,-9.59168e+06,-3.05121e+06,1.24119e+07,-8.57367e+06,4.05676e+06,-1.73385e+06,1.56284e+06,-2.71559e+07,-1.09549e+07,2.42761e+06,117745,1.16215e+07,2.92455e+07,-1.73385e+06,-1.25494e+07,1.02433e+07,-5.01138e+06,9.12818e+06,5.05238e+07,1.16572e+06
0,-1.65614e+06,-606991,-1.1118e+06,-1.14213e+06,131089,1.40308e+06,-275004,-170325,499426,-71670,-561666,0,0,-549806,0,567624,-71670,0,0,185153,168697,-387820,0,0,0,-54137,-113374,-334361,-337578,541619,0,-44481,0,-831884,194152,-270581,-151626,65155,-344115,-92651,0,-87749,0,202856,-152,0,-278854,0,-147434,0,0,0,-249983,1.33918e+06,-130907,0,0,0,0,402719,-31522,-91902,-186594,0,-215352,0,-233560,-505358,-190241,287848,6413,-593135,-16478,188663,-18278,0,241270,-76,0,-304,0,-329700,0,0,0,887570,-48321,-465669,-28218,0,0,-74369,354500,758543,100516,57926,0,402719,0,0,0,0,0,0,0,0,0,0,0,0,-88962,0,230624,0,0,0,0,0,83578,-44481,561109,0,0,0,0,-38514,275173,0,1.46282e+06,0,0,0,-417355,-1.18234e+06,-435790,-558267,434099,-342983,215707,964570,-471429,298237,-445114,-44481,-18278,-217280,-340679,-93373,0,0,0,-182801,623731,71219,8643,343482,0,-78048,-200107,-703433,25855,-918183,0,142886,0,-390452,1.79691e+06,932079,82660,-704740,-190832,-2.73559e+06,4.18126e+06,770740,-1.15889e+06,1.59226e+06,-3.52436e+06,-2.52859e+06,-1.89732e+06,-1.36158e+06,1.4971e+06,2.32746e+06,183360,662808,-548437,-2.12379e+06,440658,-3.39624e+06,-729981,-2.08527e+06,-2.22425e+06,2.75464e+06,-49380,2.17969e+06,876440,-272300,740369,0,-8498,-8498,-8498,-8498,-8498,-8498,-8498,516417,69271,-93232,141497,-365803,-254687,-271294,-170226,149422,225579,18336,14628,17508,-8498,8859,-426977,1622,-208527,-243080,315986,-8498,187658,183403,-27230,142886,849268,-451693
0,-8.74149e+07,2.19136e+06,7.13194e+07,2.00902e+08,-9.35391e+06,-1.60019e+08,1.52793e+07,-1.43484e+08,-6.64539e+07,-1.57691e+07,9.52268e+07,-3.27449e+07,6.04045e+07,1.27536e+08,-3.07291e+07,-9.85222e+07,-1.50045e+08,3.68538e+07,-2.5509e+07,-2.19527e+08,-9.53147e+06,-1.17897e+07,-7.69673e+07,-1.14815e+07,-2.15657e+07,1.12303e+07,1.50101e+08,-2.7499e+07,1.00743e+08,1.29627e+08,-5.89576e+06,-9.6755e+07,0,1.02437e+08,-2.49374e+07,2.13231e+08,-2.54088e+08,-6.27278e+07,-9.19004e+06,1.96222e+07,-1.14264e+08,-3.4105e+07,9.01582e+06,-6.65379e+07,0,1.73416e+06,-1.729e+08,-4.81732e+07,3.48546e+06,-5.62704e+07,-3.4119e+06,-1.83477e+07,2.3191e+07,-1.89721e+07,3.95932e+08,-4.72384e+07,7.21196e+06,0,1.40359e+07,2.34694e+07,-1.67781e+08,4.9846e+07,4.53599e+07,-4.67337e+06,5.59459e+07,0,-1.06064e+08,7.86265e+07,-2.07745e+08,1.7807e+06,-1.59861e+08,6.60408e+07,9.79508e+07,-6.93896e+07,5.12302e+07,-3.63038e+06,6.83676e+07,3.72459e+07,0,-4.00286e+07,-1.36511e+08,3.3602e+07,2.42585e+07,-4.18293e+06,-3.38452e+07,1.74387e+08,1.65159e+07,-8.3309e+07,5.22366e+06,3.79083e+07,-3.35939e+07,-6.04107e+07,-4.00877e+07,3.89538e+07,-1.10454e+08,-1.16147e+08,-2.41874e+07,5.60065e+06,0,0,0,0,0,0,0,0,9.43615e+07,8.83257e+07,0,0,0,2.10328e+07,1.85019e+07,8.0201e+07,0,0,0,0,-1.07335e+08,-6.72494e+06,4.207e+07,0,0,0,0,-7.90398e+07,7.50112e+07,0,-3.23762e+07,0,0,0,-1.00756e+08,1.80838e+07,-5.71151e+07,3.95845e+07,6.95611e+07,-7.01847e+06,3.71841e+06,9.11569e+07,-2.42233e+07,-3.93718e+07,-2.67277e+07,2.64152e+08,2.71022e+07,-1.66857e+08,2.66038e+07,-7.55155e+07,1.60763e+08,-5.28761e+07,-1.18804e+07,1.15241e+08,-1.30156e+08,-1.04541e+08,-1.08784e+08,-6.57913e+07,-3.46039e+07,-5.19601e+07,1.58954e+08,3.50818e+07,-7.94292e+07,3.63373e+07,3.97467e+07,-1.99872e+07,0,-8.86311e+07,-6.79802e+06,-2.26881e+07,1.14303e+08,1.15054e+08,6.09003e+07,3.48407e+07,-4.70183e+07,3.17421e+07,-2.51771e+07,3.58525e+07,-2.75304e+07,2.50486e+07,2.85772e+07,1.40986e+07,6.99847e+07,3.76333e+07,-8.63457e+06,9.28212e+06,2.11938e+07,5.82457e+07,-1.37353e+08,9.94985e+07,9.83405e+07,5.94016e+07,7.2369e+07,4.49917e+07,6.68331e+07,7.74106e+07,7.17663e+07,8.29928e+07,-1.82997e+07,0,535763,535763,535763,535763,535763,535763,535763,-1.88637e+07,6.67516e+06,-7.49326e+06,1.97951e+07,2.41123e+07,1.35322e+07,-1.82501e+07,-9.45104e+06,-7.05634e+06,2.43233e+06,-5.36399e+06,-2.85787e+07,675214,-9.06232e+06,535763,-1.60334e+07,6.6188e+06,-2.69537e+06,-2.23301e+06,2.58389e+07,535763,9.72025e+06,1.34568e+07,6.69614e+06,-185941,5.90088e+07,-2.29193e+07
0,0,0,0,0,0,0,0,0,0,0,0,0,0,0,0,0,0,0,0,0,0,0,0,0,0,0,0,0,0,0,0,0,0,0,0,0,0,0,0,0,0,0,0,0,0,0,0,0,0,0,0,0,0,0,0,0,0,0,0,0,0,0,0,0,0,0,0,0,0,0,0,0,0,0,0,0,0,0,0,0,0,0,0,0,0,0,0,0,0,0,0,0,0,0,0,0,0,0,0,0,0,0,0,0,0,0,0,0,0,0,0,0,0,0,0,0,0,0,0,0,0,0,0,0,0,0,0,0,0,0,0,0,0,0,0,0,0,0,0,0,0,0,0,0,0,0,0,0,0,0,0,0,0,0,0,0,0,0,0,0,0,0,0,0,0,0,0,0,0,0,0,0,0,0,0,0,0,0,0,0,0,0,0,0,0,0,0,0,0,0,0,0,0,0,0,0,0,0,0,0,0,0,0,0,0,0,0,0,0,0,0,0,0,0,0,0,0,0,0,0,0,0,0,0,0,0,0,0,0,0,0,0
0,383414,-295121,1.23764e+06,3.17268e+06,-954673,7.18997e+06,-1.87578e+06,-1.9778e+06,0,-1.84922e+06,23282,0,4.14674e+06,3.2796e+06,-932983,0,-94716,0,0,3.5214e+06,0,0,-29932,-110292,0,-908344,259060,1.87299e+06,2.07337e+06,413801,0,-935885,0,-1.6194e+06,2.44278e+07,3.11833e+06,-1.7455e+06,-954673,1.41959e+07,518120,-4.25462e+06,-265645,-4.16756e+06,933624,4.98568e+06,-862322,44151,448114,-22551,4.01248e+06,0,0,2.95296e+06,0,0,-333701,4.50608e+06,849144,-320471,0,-1.02145e+06,-709429,-320471,-3.19292e+06,167071,0,-3.17794e+06,-8.23472e+06,345439,-4.1961e+06,0,5.05208e+06,-590084,0,0,-333701,-1.76272e+06,0,0,0,0,0,-333701,-200515,0,121060,0,-49614,-667402,0,1.08011e+06,0,0,-1.3348e+06,1.08011e+06,0,0,1.08011e+06,0,0,0,0,0,0,0,0,-159130,0,5.81703e+06,0,0,0,8.19511e+06,663658,0,-3.19292e+06,0,0,0,0,-200515,0,0,0,0,0,9.4526e+06,0,-474108,0,0,0,6.66333e+06,-2.05688e+07,1.38344e+06,7.67431e+06,-195036,-1.54185e+07,5.35392e+06,-763808,-148842,269531,2.21337e+06,-3.19292e+06,9.9824e+06,-6.4039e+06,143814,528673,-1.40164e+06,0,-1.0011e+06,1.57418e+06,-320471,1.00683e+06,-1.72837e+06,3.29301e+06,-1.23322e+06,-898489,-436553,1.56742e+06,-1.05939e+06,996548,4.07235e+06,-507533,0,-3.81478e+06,3.26948e+06,-3.86652e+06,-4.80136e+06,1.22205e+06,-1.19018e+07,264266,-3.96357e+06,-1.05684e+07,-1.43934e+07,-4.4008e+06,2.93348e+06,3.67083e+06,2.06423e+06,-4.05083e+06,-8.22306e+06,1.77936e+07,2.24432e+06,-1.31075e+07,5.86873e+06,-5.79086e+06,6.04518e+06,7.97444e+06,-8.79172e+06,-5.24321e+06,-9.06569e+06,-6.77864e+06,-1.16397e+07,2.91568e+06,8.49496e+06,4.78542e+06,-3.27854e+06,0,-110292,-110292,-110292,-110292,-110292,-110292,-110292,-1.11189e+06,-1.22032e+06,-1.46573e+06,-394792,472624,1.69376e+06,717918,-372823,-771694,1.67831e+06,204380,-1.50487e+06,1.40383e+06,-611133,670265,651880,-110292,-454718,-1.1193e+06,-695613,-110292,430034,911073,566485,-560016,7.93568e+06,5.30228e+06
0,-384430,-768860,-3.06199e+07,-384430,0,-3.06199e+07,-1.57723e+07,3.61683e+07,0,0,-384430,0,0,0,0,0,0,0,0,0,0,0,-384430,0,-232957,0,0,-4.63922e+07,0,-384430,0,924744,0,-384430,-617387,3.26208e+07,-2.31981e+06,0,0,0,-3.06199e+07,0,0,0,0,0,0,0,0,-384430,0,0,0,0,0,-384430,0,0,0,0,924744,0,0,0,0,0,-1.93097e+06,-1.54213e+06,-3.09308e+06,-768860,-384430,-1.54654e+06,1.66971e+07,0,0,0,-773271,0,0,0,-773271,0,0,0,0,0,0,0,0,0,0,0,0,0,0,0,0,0,0,0,0,0,0,0,0,0,0,0,0,0,0,0,0,0,0,0,0,0,0,0,0,0,0,0,0,0,-1.00182e+06,0,-384430,0,0,0,-2.76367e+06,1.22769e+06,-1.39228e+07,-1.85216e+06,0,-1.56208e+07,0,2.9257e+06,0,-773271,-773271,0,0,-2.31981e+06,-4.63963e+06,0,-3.45987e+06,-773271,0,0,0,0,-2.30658e+06,0,0,0,924744,2.77423e+06,0,-1.54654e+06,-773271,924744,0,-8.79387e+06,-6.21277e+06,1.03558e+07,-1.63511e+06,-1.47923e+06,4.59236e+07,-8.80278e+06,-6.95944e+06,0,2.288e+06,-9.64604e+06,9.24744e+06,9.24744e+06,-5.4129e+06,-6.16411e+06,-3.8443e+06,0,-1.5563e+06,0,0,0,0,0,0,-2.09661e+06,-3.8443e+06,8.3227e+06,4.13655e+07,0,-9.26161e+06,2.288e+06,7.39795e+06,0,-232957,-232957,-232957,-232957,-232957,-232957,-232957,151473,0,151473,-1.1577e+06,924744,924744,-773271,-1.1577e+06,-384430,-384430,-232957,0,0,0,0,-384430,0,-232957,-384430,924744,-232957,0,-1.1577e+06,151473,924744,-3.63482e+07,540314
0,-257712,-84244,72599,21262,112543,-464915,1.14503e+06,33274,-299825,80625,-156896,0,-423687,-1.02676e+06,141621,89735,-317245,0,47608,-858277,201230,-5834,206465,-285868,-5481,-1.48078e+06,-22540,-314196,-91622,-569086,0,-320117,0,859497,-236558,-344617,-315775,206186,-410416,537527,3285,-280751,154064,103683,-87257,130795,-152708,-60369,-8966,-422946,0,0,-413405,5826,-73920,-211114,56565,0,850768,52004,-610457,196785,-102022,-39837,-2533,0,2.35462e+06,223283,444891,745579,255800,-142618,282803,225015,371757,152479,105619,82064,31634,1.40478e+06,438360,108572,1.08599e+06,0,0,46004,183732,16318,237127,473885,43715,335394,-9424,1.22464e+06,101264,50262,0,0,0,0,0,0,0,0,0,0,-44521,0,-179638,0,0,-185100,-361676,320025,0,0,0,0,-428004,5826,23560,0,0,0,-39915,-204853,-497681,0,-927031,0,0,0,572874,220362,143676,758765,-976408,904552,446974,752480,-258130,419099,210760,15738,-456375,477210,1.55937e+06,121820,615950,129882,0,-198592,529224,-242707,858608,-58528,-8966,-1.5479e+06,48058,-485228,-538299,-507253,29033,-330605,0,-621705,-359472,-344690,800943,382559,94077,-1.12245e+06,-317483,1.44308e+06,2.85218e+06,225967,1.20136e+06,603023,-224187,-224860,1.41272e+06,307549,-1.7513e+06,3.76909e+06,-3.2682e+06,2.09963e+06,-684987,-616974,-1.91602e+06,-1.68276e+06,1.59004e+06,-645195,702968,4612,-773490,-1.62892e+06,-2.6278e+06,0,-2415,-2415,-2415,-2415,-2415,-2415,-2415,65205,97613,347881,54450,121191,-29971,19065,217415,172388,126930,-162142,424354,-512047,302547,-96757,59264,-172997,-165349,-2415,-78195,-2415,-32726,-282862,-163972,-330605,-182608,-659502
0,1.12405e+07,1.41816e+06,1.497e+06,7.577e+06,-266291,-1.29642e+07,452335,3.41754e+06,6.61918e+06,9.62991e+06,535790,-3.30646e+06,0,-1.03221e+07,-6.6246e+06,-2.81233e+06,-1.3937e+06,0,0,-1.09159e+06,-75381,1.19036e+07,-3.71468e+06,-943008,4.88522e+06,-5.96655e+06,-5.95739e+06,7.85774e+06,-2.01564e+06,1.06918e+07,4.93866e+06,-4.35404e+06,0,-2.7273e+06,1.56072e+06,1.85408e+07,-2.04506e+06,-6.32364e+06,-6.89594e+06,-1.12955e+07,820897,-3.64103e+06,0,-121201,3.47966e+06,4.10314e+06,2.92103e+06,-3.46244e+06,-2.84251e+06,4.82984e+06,0,0,-1.88394e+06,332150,-4.01507e+06,0,-479297,138522,704765,1.15653e+07,4.3092e+06,-287104,-3.95468e+06,0,-591764,0,-4.86821e+06,-4.33146e+06,6.37374e+06,3.44534e+06,5.26642e+06,5.98862e+06,4.87253e+06,715510,1.65199e+06,-2.52906e+06,3.78418e+06,-2.48018e+06,0,-3.28519e+06,-9.62818e+06,-2.91834e+06,52582,0,0,-619865,332150,-3.67822e+06,620478,-75381,4.38402e+06,-2.84082e+06,2.61606e+06,-5.66444e+06,5.74525e+06,-7.78206e+06,0,5.97592e+06,0,0,0,0,0,0,0,0,-2.83378e+06,0,-2.06493e+06,0,0,0,-3.2149e+06,1.34127e+06,0,0,0,0,-297494,0,4.93866e+06,0,0,0,0,0,-2.11663e+06,0,-9.33903e+06,0,0,0,-1.77356e+07,-3.2855e+06,6.86549e+06,-6.88503e+06,4.90697e+06,1.18509e+07,1.73342e+07,-3.23268e+06,1.05869e+07,4.29797e+06,5.87888e+06,0,8.21012e+06,207040,-6.37673e+06,-106001,-439169,0,-6141,-1.20704e+07,-808622,1.41121e+07,-2.41728e+07,-373973,4.04194e+06,-2.51474e+06,-1.80885e+06,-1.45543e+07,-2.63319e+06,1.77495e+07,-25033,-1.94774e+06,0,326007,3.45643e+06,-3.63565e+07,1.28183e+07,-4.81522e+06,788840,-1.33911e+06,2.5796e+07,1.53002e+07,6.18012e+06,1.24212e+07,-2.24804e+06,4.95336e+06,-1.27202e+07,-2.23238e+07,-6.90538e+06,-1.77836e+07,-1.49982e+07,-4.14882e+06,-2.03247e+06,-3.04923e+06,3.81436e+06,-1.27764e+07,-1.31526e+07,-392007,1.61338e+07,-7.84883e+06,8.62876e+06,-980873,648298,2.45066e+07,1.13413e+07,0,-153970,-153970,-153970,-153970,-153970,-153970,-153970,2.46835e+06,3.31841e+06,1.5514e+06,2.52911e+06,-455503,1.72666e+06,-2.64143e+06,-4.70744e+06,-1.55846e+06,-1.52134e+06,-1.49982e+06,-1.34476e+06,-1.79958e+06,-326893,2.70754e+06,-5.06293e+06,-1.50243e+06,1.30577e+06,853193,-153970,-153970,-45113,801387,2.94202e+06,1.03011e+06,4.64494e+06,-1.17996e+06
0,1.24268e+08,8.56431e+06,-1.25826e+07,-4.16792e+08,1.14079e+08,-8.30683e+07,1.82576e+08,-1.29637e+08,-4.16015e+08,-9.04145e+07,-1.35467e+08,-7.44731e+07,-2.89554e+08,2.25102e+08,-4.31787e+08,-2.08923e+08,-2.35204e+08,1.4383e+08,-6.7359e+06,2.63973e+08,-1.08422e+08,3.4219e+08,1.74473e+08,-4.05992e+08,-1.47882e+08,4.53061e+08,-1.62954e+08,-4.40406e+07,4.67947e+07,-2.13283e+08,-8.96795e+06,3.64479e+08,0,1.54147e+08,2.29521e+08,7.1988e+07,-4.34073e+07,2.4912e+07,4.41182e+08,-5.65116e+07,-3.47727e+08,-1.48808e+08,2.43007e+08,3.16526e+07,-1.89784e+07,5.92644e+08,-2.35215e+08,-2.56492e+08,-5.01248e+07,-1.51272e+08,-8.9985e+07,-6.62448e+06,-3.52474e+08,6.02364e+07,-1.43902e+08,8.90174e+07,-2.14624e+07,2.13178e+08,2.76657e+08,6.19126e+08,-1.47475e+08,6.07474e+07,-2.04561e+08,-1.37628e+07,-2.75512e+08,0,-2.61796e+07,-6.56599e+07,-1.80286e+08,-2.17888e+08,-1.93607e+08,-1.0215e+08,-2.42808e+08,1.99708e+08,1.32148e+08,-2.39581e+08,2.52699e+08,-6.28442e+06,1.13508e+08,-6.24022e+07,-3.84452e+07,-3.64426e+06,1.73011e+08,-2.66227e+06,0,3.59106e+08,-8.3137e+07,4.48285e+06,-1.7291e+08,-3.32666e+08,-5.15031e+07,3.22079e+07,-7.70531e+07,1.52671e+08,1.97487e+07,-1.25511e+08,-2.10534e+07,-5.23946e+07,0,0,0,0,0,0,0,0,2.66713e+08,0,-4.42418e+07,0,0,5.59439e+07,8.4485e+07,-1.9574e+08,0,-1.54238e+08,0,0,-1.73189e+08,-4.27348e+07,-2.63115e+08,0,1.33467e+08,0,-8.46186e+06,2.78954e+07,-7.25634e+07,0,-3.31496e+07,0,0,0,-1.11264e+08,-8.22251e+07,-1.56254e+08,-3.53416e+08,-2.24429e+08,-2.59074e+08,-1.7253e+08,-4.33674e+07,-2.54808e+08,-1.77768e+08,-6.91461e+07,3.18991e+08,-3.08276e+07,-5.81305e+07,-1.17622e+08,-5.89339e+08,2.04257e+08,-6.09339e+07,1.59861e+08,-2.63239e+08,-1.44262e+08,1.90926e+08,-6.91271e+07,-3.82026e+08,-2.28305e+08,-5.07064e+07,2.00381e+08,-4.38845e+07,-9.30436e+07,1.53744e+08,-1.87957e+08,-1.08579e+07,0,-7.01277e+07,1.58823e+08,-1.98232e+08,-1.43999e+08,1.4636e+08,-1.02406e+08,6.2273e+07,1.31097e+08,-1.35177e+07,-4.4868e+07,2.84136e+07,-1.61349e+07,9.08404e+07,3.39078e+07,6.40974e+07,1.06407e+08,1.81837e+08,1.48594e+08,1.28503e+08,8.59535e+07,-1.08777e+07,-3.07666e+06,5.95974e+07,1.10716e+08,2.03104e+07,5.72949e+07,2.98009e+07,1.5708e+07,-3.22921e+06,-5.88947e+07,8.33717e+07,-1.71663e+08,0,-1.65858e+07,-1.65858e+07,-1.65858e+07,-1.65858e+07,-1.65858e+07,-1.65858e+07,-1.65858e+07,7.67865e+06,-1.96687e+07,-3.58408e+07,-3.89619e+06,2.03121e+07,5.32556e+07,-5.56387e+06,-9.7599e+07,-7.6661e+07,-208496,1.38843e+07,9.09048e+07,-7.98697e+06,-3.29197e+07,1.22136e+07,9.76513e+06,-9.25064e+07,-2.11202e+07,7.50854e+07,4.0242e+07,-1.65858e+07,1.59683e+07,-4.81655e+07,-1.9849e+07,-2.65965e+07,2.04471e+08,9.26387e+07
0,-1.87876e+07,2.7399e+06,-6.75601e+06,-2.1973e+07,-3.10192e+06,-8.34532e+06,-6.81726e+06,-1.12305e+06,-3.2655e+06,7.7707e+06,-6.17364e+06,0,336967,5.05622e+06,5.16352e+07,-954476,-1.95683e+06,0,-1.01146e+06,2.09802e+07,0,2.03961e+06,2.29592e+06,533703,2.30541e+06,2.31422e+06,-2.47131e+06,1.24065e+07,301446,-1.21125e+07,0,1.44698e+07,0,-3.52958e+07,2.75763e+06,2.9738e+06,1.48336e+07,-1.01166e+06,-5.74353e+06,7.82162e+06,-9.38951e+06,-2.50471e+06,-1.85529e+06,7.80201e+06,0,-7.92553e+06,1.92132e+06,9.78493e+06,7.24886e+06,3.79571e+06,0,0,1.62116e+06,-454953,-2.87095e+06,2.55826e+06,1.86458e+06,3.7309e+06,3.24565e+06,4.88144e+06,-2.4433e+06,-6.63255e+06,131091,0,-3.11511e+06,0,-1.33516e+06,-4.62227e+06,-281360,6.59975e+06,-5.26701e+06,1.72517e+06,3.95954e+06,-5.89492e+06,-3.11667e+06,-1.87384e+06,-2.47557e+06,-1.73506e+06,-5.2667e+06,1.06914e+06,-5.1331e+06,-3.04108e+06,2.12962e+06,-1.17964e+06,0,-328974,-377776,-1.76781e+06,4.73258e+06,2.21101e+06,-468068,1.5374e+06,-527763,1.06446e+07,-5.10647e+06,-8.80829e+06,0,-7.97665e+06,0,0,0,0,0,0,0,0,5.41804e+06,-798352,6.25427e+06,0,0,-879675,-8.70696e+06,1.76034e+06,0,0,0,0,-3.25004e+06,-905558,6.86436e+06,0,-764381,0,-85676,-1.59289e+06,-1.16023e+07,-13503,2.24781e+07,0,0,0,1.57009e+07,-9.83282e+06,-4.83379e+06,1.21294e+07,-1.43899e+07,1.28289e+07,1.59885e+07,-1.74448e+07,-1.54736e+07,1.91955e+07,-627010,-1.14513e+07,-1.01177e+07,-1.07808e+07,1.7498e+07,-3.68774e+06,-3.94037e+06,4.74161e+06,0,9.3631e+06,2.86034e+06,-1.10032e+07,-1.29823e+07,-511283,3.19608e+06,924456,1.2953e+07,-2.2315e+07,-1.09999e+07,-1.38492e+06,-1.73104e+06,8.95822e+06,0,4.9913e+06,-4.13321e+06,-2.87321e+06,6.25646e+06,2.10002e+07,-2.93657e+06,-6.34055e+06,-1.30017e+07,-6.47759e+06,-1.6982e+07,7.9791e+06,-1.51224e+07,-1.30302e+07,-5.96216e+06,1.67207e+07,-1.46983e+07,-3.10641e+07,-1.07568e+07,-3.7532e+06,1.68623e+07,1.88351e+07,-2.56622e+07,-4.68237e+06,2.33929e+07,-5.28164e+06,1.35538e+07,-1.7522e+07,9.84674e+06,2.20542e+07,2.10613e+07,-1.16225e+07,-1.47336e+07,0,-346279,-346279,-346279,-346279,-346279,-346279,-346279,-4.1436e+06,-3.16365e+06,1.25093e+06,577101,-2.83087e+06,-3.68829e+06,-1.74033e+06,9.22661e+06,-1.59423e+06,-3.12707e+06,-719481,-846182,4.52477e+06,1.99571e+06,-3.26105e+06,-1.00974e+06,2.67265e+06,348268,2.62315e+06,-570595,-346279,-346279,2.13647e+06,-1.33535e+06,-95464,-4.74983e+06,-9.01896e+06
0,2.14856e+06,520077,-536523,2.41343e+06,-420262,391772,-140493,1.92795e+06,813871,-720930,310643,-390834,939340,-2.75814e+06,-678115,-350527,-841653,0,-39621,-429872,-377493,737178,1.48384e+06,66984,0,4.0747e+06,-546643,176264,-238312,902318,-423041,-286974,0,2.13416e+06,-1.01577e+06,1.75913e+06,-168438,-552365,305890,-495953,-766367,-535333,-164023,-148545,-423846,1.56341e+06,424112,0,-33207,-68552,0,0,756195,-161275,-421459,74364,-508120,0,480074,-75052,-560256,744999,-85808,-75052,-342841,0,4.79045e+06,-2.60437e+06,-342724,-1.06059e+06,477805,-780437,-159695,-218665,-19289,-337821,-226932,-19289,0,-593095,-27786,-31120,786057,0,0,-10575,0,-256189,-338184,0,880171,-332558,-265067,209031,-186860,-1.20381e+06,-153482,-335258,0,0,0,0,0,0,0,0,637358,0,-839131,0,0,768306,2.83339e+06,-755415,0,0,0,0,-193916,-57224,196852,0,0,0,-583133,-155595,1.82025e+06,0,332424,0,-57224,0,120016,1.0995e+06,1.08216e+06,-561479,-1.23306e+06,4.6663e+06,-2.48841e+06,-1.35129e+06,2.94826e+06,31451,-490143,-257484,-218237,-404089,-2.48522e+06,-821632,-429194,0,0,1.20004e+06,-603924,-115692,-1.18856e+06,-581896,-68732,-1.3277e+06,-996413,-651466,40184,-2.56791e+06,-389142,44882,0,-371883,2.57196e+06,-2.14332e+06,-1.04053e+06,1.63354e+06,-5.64686e+06,3.34174e+06,-5.64728e+06,-721748,2.49816e+06,63414,1.06794e+06,5.54411e+06,-94509,-4.16374e+06,4.08533e+06,6.51466e+06,-1.05343e+06,-261958,833471,1.78904e+06,-1.26146e+06,-655472,3.45845e+06,769091,1.43122e+06,-5.54611e+06,-1.11175e+06,41829,2.50486e+06,-2.01413e+06,-3.09008e+06,0,-11792,-11792,-11792,-11792,-11792,-11792,-11792,-541829,234400,46771,-74510,-2351,859693,-59233,-811027,272650,596132,-105343,-220287,305579,137313,-133111,-78002,243542,158053,531061,-758488,-11792,40184,-11792,-305485,-430048,-850483,114160
0,-153,63202,-1036,19686,50508,-3496,0,-6992,-7905,0,25254,0,0,-10488,0,0,0,0,50508,0,0,21758,25254,0,0,0,-3496,39107,0,75762,12817,-4532,0,-18918,34575,25254,-16846,25254,0,-3496,-3496,0,0,0,0,25254,0,0,0,25254,0,0,0,0,-3496,0,0,0,0,0,0,0,25254,0,0,0,25254,-3496,0,50508,0,0,0,0,0,0,0,0,0,0,0,0,0,0,0,0,0,-3496,0,0,0,0,0,0,0,0,0,0,0,0,0,0,0,0,0,0,0,0,0,0,0,25254,-3496,0,0,0,0,0,0,0,25254,0,0,0,0,0,12817,0,24218,0,0,0,156283,81333,-21889,222221,0,-3496,-24472,-12560,0,0,-1036,0,0,-13984,-7905,0,75762,0,0,0,0,-19306,176778,0,0,0,-3496,-6992,0,125234,39107,-3496,0,539074,208896,254011,-74242,26774,109528,163130,-22272,-71145,0,183002,-79050,167072,-17352,-71145,0,72474,-114010,115910,0,-10360,117816,-8288,0,173490,0,-27968,83238,0,-87338,76246,-37292,0,12817,12817,12817,12817,12817,12817,12817,-4532,-7905,0,20722,-7905,21758,-4532,-7905,0,17349,-11401,24218,0,-1036,13853,24218,0,17349,0,-3496,12817,0,16313,12817,-4532,359633,13853
0,-1.54917e+08,-2.50226e+07,-3.38963e+07,-1.85041e+07,89674,4.69754e+07,-4.32686e+07,1.0213e+08,0,-166865,4.53406e+06,2.84382e+06,1.8454e+07,4.47684e+07,-2.26631e+07,0,-2.54347e+07,0,-3.77119e+07,-1.46712e+07,0,-3.75673e+07,0,1.78612e+07,0,0,-9.87496e+06,-2.09974e+07,-2.67728e+07,-6.95792e+07,-4.16902e+07,2.76958e+06,0,-3.02417e+08,8.80341e+07,9.50288e+07,-8.70342e+07,27452,4.05509e+07,-1.38265e+07,-3.91317e+06,-1.37841e+07,5.8831e+07,-1.31044e+07,2.84629e+06,6.59122e+07,2.26321e+07,-4.64758e+07,763038,-3.43446e+07,2.75595e+06,60059,-6.23854e+07,-5.67594e+07,6.99862e+07,3.0568e+06,1.97109e+07,0,1.33416e+07,-2.55579e+07,4.3161e+07,2.01065e+07,1.01924e+07,784077,0,0,4.80645e+07,-1.103e+08,1.15734e+06,2.30308e+07,3.32243e+07,3.8296e+07,-1.83863e+07,3.90667e+07,0,-5.79199e+06,8.21369e+06,0,0,-1.95834e+07,-9.39414e+07,-1.85327e+07,3.0568e+06,0,-3.77119e+07,-1.84163e+07,0,9.9459e+06,13726,1.30222e+07,0,0,-5.78952e+06,-1.94774e+07,-4.83807e+07,1.6864e+07,-2.76529e+07,0,0,0,0,0,0,0,0,0,-1.92936e+07,0,1.51268e+07,0,0,0,-6.05989e+07,3.62964e+07,0,3.76301e+06,0,0,7.74954e+07,0,4.38698e+07,0,0,0,0,6.49101e+06,-3.71156e+07,0,3.78846e+07,0,0,0,-5.21191e+07,4.24673e+06,-1.28409e+07,-1.00272e+06,3.40264e+07,-494475,3.64954e+07,-3.29834e+07,-4.49457e+07,3.81097e+07,-1.97859e+07,2.92671e+06,3.33109e+07,-5.25418e+07,-8.43284e+07,1.3574e+07,-2.62844e+07,0,5.17647e+06,-7.03648e+07,-1.71099e+07,9.37847e+07,8.81808e+06,6.54449e+07,3.60048e+07,-3.961e+07,-6.40423e+07,1.54307e+08,-4.23149e+07,-1.00247e+07,-1.08211e+08,2.909e+07,0,-3.16882e+07,7.60658e+07,-4.5743e+07,5.28321e+07,-4.52112e+07,-1.03171e+08,1.66158e+07,5.26087e+07,6.69703e+07,2.46485e+07,3.61582e+07,3.59772e+07,-4.28274e+07,5.32999e+07,1.57482e+08,-1.13178e+07,6.10715e+06,-1.31013e+07,7.93915e+07,-2.41043e+07,1.29627e+07,-1.24545e+07,5.05718e+07,1.98775e+07,-1.1746e+07,5.10027e+06,6.72412e+07,-7.73993e+07,2.62646e+07,-1.3301e+07,5.25172e+07,2.09065e+07,0,2.76958e+06,2.76958e+06,2.76958e+06,2.76958e+06,2.76958e+06,2.76958e+06,2.76958e+06,1.37616e+07,1.85528e+06,1.30757e+07,-1.35151e+06,4.4594e+06,7.48497e+06,-1.20237e+06,-5.36298e+06,-1.54998e+06,-7.31368e+06,-1.03454e+06,3.78004e+06,-1.12447e+07,-6.09066e+06,1.52783e+07,8.89e+06,1.35917e+07,2.42588e+06,-2.11682e+06,-3.15325e+06,2.76958e+06,-7.10973e+06,-2.79639e+06,-1.21196e+07,2.76958e+06,-2.53572e+07,-9.16862e+07
