0,-274.529,88.7333,-135.567,-14.0537,-30.3141,28.2096,27.7422,17.8455,107.987,-162.071,-35.0222,11.803,-182.561,83.9388,240.208,73.3944,-16.9512,0,173.631,354.505,149.757,103.306,-6.67588,84.5866,267.97,262.512,60.1756,-163.769,-72.2469,-445.997,101.958,-244.084,0,523.717,-239.201,-343.137,-84.7805,6.95206,-95.8856,289.863,-132.752,-133.616,-109.67,-217.848,167.61,-212.808,89.1758,-2.18564,103.951,329.333,142.157,16.8346,366.5,205.163,-166.83,-3.04706,0,27.5689,-474.115,-156.209,251.295,-93.8447,-60.6108,-200.177,-172.605,0,-498.317,113.161,587.802,84.9319,-236.911,666.091,221.446,584.578,-287.754,56.3116,196.576,26.5884,233.8,-284.509,144.14,0,184.087,0,-9.81481,-71.538,207.31,-440.908,22.2908,96.916,66.6568,-184.803,206.941,131.249,123.131,-87.9288,0,174.313,0,0,0,0,0,0,0,0,-80.8423,2.9646,2.9244,0,15.8649,4.97044,-156.82,264.939,0,0,0,0,-739.654,-348.239,-22.8137,0,0,0,128.399,-294.893,-243.843,0,51.8873,0,0,0,-563.363,-250.677,2.40864,385.965,80.0473,-610.435,-20.9965,-621.317,133.11,-167.317,409.443,-279.003,313.998,-53.1126,509.763,581.625,-304.024,-146.747,-72.0687,348.367,342.427,-327.199,650.639,-158.864,0.999443,165.437,-184.495,-389.702,219.803,348.269,110.978,-19.1579,0,-247.216,241.646,70.1906,306.028,211.283,43.0764,168.889,-434.596,114.39,-131.209,-90.0644,-174.848,-180.82,-187.14,230.521,-221.407,-58.6765,72.1486,162.057,13.9477,-155.179,-432.403,355.506,228.606,-114.126,441.231,-456.231,453.591,84.2774,56.3798,312.995,-50.0935,0,3.88214,3.88214,3.88214,3.88214,3.88214,3.88214,3.88214,-66.7083,-24.1517,-51.1031,4.222,-23.1985,-13.6308,-50.8467,138.739,53.7563,-1.57227,6.75591,35.6122,27.2127,40.1239,-154.697,98.9782,25.1245,24.9069,33.8661,-82.4712,3.88214,26.112,-13.5036,32.5754,-31.1628,296.244,368.506
0,-429.498,-211.107,-8.00505,-210.505,-65.5135,-21.8294,3.38329,171.529,36.6934,-45.5843,55.5126,-33.7109,0,72.2433,37.8776,0,28.7519,0,0,-145.588,37.7788,103.256,-59.4952,0,46.5726,-28.8123,-88.0342,-70.479,-3.94459,-65.3642,-34.654,-19.5465,0,-193.04,1.95301,-178.18,62.6093,-33.8154,58.5777,-1.84564,65.4762,22.8576,-33.6872,36.7013,0,-32.6594,110.999,236.863,-33.6592,-64.3542,-21.7915,-15.9054,101.316,-23.7722,117.203,-21.7915,0,0,-40.7102,25.7651,16.8992,-72.4423,-26.8234,17.7622,9.85602,0,-235.486,-147.841,-44.7984,-206.27,-86.2477,14.8785,83.9318,0,60.5215,56.5347,-26.7826,0,0,-67.5383,-129.905,0.938761,20.7602,0,-2.9971,-83.393,32.6044,53.5855,-24.8192,21.784,0,-5.97658,40.5402,9.86268,73.331,83.2406,-23.8433,-28.8556,0,0,0,0,0,0,0,0,91.2725,-20.8405,78.3498,0,0,-62.5215,-30.7372,53.8062,0,-0.999997,0,0,162.686,23.7801,32.6858,0,0,0,-26.8007,0,-10.8742,-8.95111,-80.4487,0,0,0,-290.219,192.353,-1.1712,-22.1168,-92.235,-57.6643,97.2429,170.424,-19.7928,72.4307,-4.99015,-11.8939,-77.2447,72.9568,-47.3069,-7.96171,-65.6538,0,0,4.05267,116.801,-74.2987,-51.5174,16.791,38.6116,-108.257,46.8124,100.305,-84.2959,87.2061,45.6192,4.10505,0,-60.7862,187.487,100.145,86.9232,246.047,-4.93006,-222.808,-141.85,-11.7888,-29.0463,-49.0385,124.435,-205.008,-238.544,-31.1968,61.1373,-186.263,22.061,-12.9208,99.4515,60.3237,145.164,-152.072,-208.094,43.6957,-67.9561,-129.435,-113.179,36.0732,52.1294,-5.54564,-82.2164,0,-3.97063,-3.97063,-3.97063,-3.97063,-3.97063,-3.97063,-3.97063,35.6851,19.8638,9.89974,-2.92233,7.88303,-37.7434,-8.062,12.0138,2.04551,-26.7759,0.0269444,-31.6816,13.8525,24.7516,37.7595,-40.6925,-16.9519,12.888,-27.8513,-12.8155,-3.97063,-6.02297,4.99397,-0.0661458,-5.81372,38.9184,111.213
0,-20.9763,0.995839,-6.99257,-8.99135,-5.99519,-2.00061,-8.99451,6.98112,-2.99667,-0.997673,0,0,0,-2.99617,22.9644,-0.999989,-0.999989,0,0,-0.998343,0,-3.99337,0,-3.99155,-0.999672,7.98615,11.9822,6.98584,0,5.991,0,11.9822,0,-10.9823,13.9857,7.98623,-1.99716,-2.9976,-0.998343,-4.99655,-4.98921,-0.999989,0,0,0,0,-1.99668,10.9822,0,0,0,0,-0.998343,0,-0.999989,0,7.98623,0,8.98926,-2.99435,-5.99233,0,-3.99996,0,-5.99013,0,-9.98461,-2.99473,-4.99378,-2.99414,0,-1.99772,-3.99381,-2.99414,0,0,0,0,-0.999672,-0.998343,0,0,0,0,0,-0.998343,0,0,0,0,-0.998343,-0.998048,-3.99544,-0.998048,0,-0.998048,0,-0.998343,0,0,0,0,0,0,0,0,10.9818,0,0,0,0,0,-1.99668,3.99761,0,0,0,0,0,0,0,0,0,0,0,0,-4.99745,0,7.98959,0,0,0,-59.9316,-21.9769,-3.00269,-19.9792,-2.9976,15.9699,-14.9848,-14.9809,-4.99336,0,-0.999989,-3.99544,-0.999485,-6.99182,26.962,-0.999989,0,-0.999485,0,-1.99669,0,-4.99336,-8.99217,-0.998343,-0.998343,0,-0.00236764,-10.9844,-0.998343,12.9819,0,4.9937,0,-25.0281,-16.0132,-8.00267,-7.00176,3.98896,-18.9747,-61.9173,24.9595,55.9114,-8.97905,-44.9617,3.99354,-27.9729,-24.9654,24.9671,-47.9526,-46.9416,-8.99537,-49.95,-4.99171,-29.976,-15.9867,-6.98958,26.9738,-36.9642,33.975,24.9584,5.98464,-8.98508,27.96,-9.98343,45.9448,0,-1.00018,-1.00018,-1.00018,-1.00018,-1.00018,-1.00018,-1.00018,1.99583,3.99304,-0.997673,-4.99593,-0.000189455,-2.9972,-3.99451,8.98732,-4.99526,-4.99383,-0.999485,-5.99388,-0.998343,-2.9976,-2.99667,-1.99772,2.99702,-3.99605,4.99524,2.99484,-1.00018,-0.998343,4.99244,-0.998343,4.9937,-38.9915,1.99532
0,1.00757,-1.9881,3.99696,6.99207,0,6.99047,8.99161,-3.9923,0,2.99604,0.997677,1.99764,0,4.99307,0.997677,-9.98423,1.99535,0,0.997677,-1.99593,0,7.99079,0,0.999365,0,0.997677,5.99274,3.9933,3.99716,1.9961,0,-8.98817,0,8.98701,-16.9776,-1.99771,2.99749,0,0.999844,1.99759,0.999306,0,-8.98817,1.9998,0,0,0.999134,2.99497,0,1.99909,0,0,2.99695,0.998485,3.99495,0,0,0,1.99969,2.9977,-7.98928,0.998725,0.999033,0,-1.99799,0,28.9707,-7.98864,0.999748,12.9868,0,-12.9819,9.98998,3.99579,0.999618,7.9903,1.99875,0,1.99711,-5.99175,5.99382,1.99711,0.999134,0,0.999033,6.99151,0,0,0,0,0,0,-8.98912,5.99384,1.99752,3.9959,2.99598,0.997761,0,0,0,0,0,0,0,0,0,0,0,0,0,0,13.9762,3.99463,0,0,0,0,-9.98423,0,0,0,0,0,-9.98423,0,-4.9889,0,-7.98639,0,0,0,4.99566,-4.99265,-19.9616,9.98918,1.99807,24.973,-3.99421,10.9913,2.99673,-3.99153,5.99097,0.998333,-2.99505,-0.992738,23.9728,-9.98423,-7.98579,0.999618,-8.98912,-33.9443,-4.99128,2.99935,0,0,0,5.99301,6.98807,-8.98241,5.99407,4.99734,0,-8.98892,0,-7.90293,36.9947,12.0067,-1.9819,-1.98286,-21.9633,15.9941,-11.9679,-24.9785,11.9938,27.9617,-22.979,0.980534,-22.9636,61.9146,-21.9741,3.01595,-20.9543,-1.98946,-63.9085,-5.99741,-14.9579,7.99321,-30.9296,99.872,-38.9391,32.9478,11.9925,66.9317,-23.9645,16.9789,-61.933,0,0.00190109,0.00190109,0.00190109,0.00190109,0.00190109,0.00190109,0.00190109,0.00261818,-1.99826,1.00004,3.99486,-1.99831,-0.00174036,-0.997967,9.98685,-3.99455,0.00237418,-1.99547,-0.998319,-9.98445,-0.99902,0.00271382,0.999151,-2.99302,9.9872,-3.9933,3.99372,0.00190109,7.99192,-1.99625,1.99749,-7.99116,-28.9159,-12.9829
0,50.9707,14.9874,-8.99061,12.9949,1.00109,1.99767,3.99558,-31.9655,0,5.99393,0,4.99808,0,6.99235,0,0.998843,0.998994,1.99735,0,0,0,0.998994,2.99983,1.99784,0,1.99824,1.99824,-23.9763,0,1.99799,0.999662,-5.99384,0,4.9958,2.99684,-6.99349,4.99378,-16.9822,5.99514,3.9947,1.99854,0,0,0,2.99888,0,0,0,0,0,0,0,0,0.998994,0,0.999944,-6.99349,0,0,0,1.99784,0,3.99649,0,0,0,5.99263,0.998994,4.99363,2.99634,1.99719,3.99585,-3.9965,1.99744,0,0,0,0.998994,0,0.998994,0,0.998597,0,0,0,0,0,0.998994,0,0,0.998843,0.998994,3.9947,0.998597,0,2.99698,0,1.99744,0,0,0,0,0,0,0,0,0.998597,0,0,0,0,0,0.998994,0,0,0,0,0,0,0,0,0,0,0,0,0,3.99655,0,0,0,0,0,27.9697,-7.99354,20.983,2.99515,-0.99802,-2.995,9.98674,6.99471,0.999662,6.9935,0,3.99623,0,5.99397,0,0,0.998994,0,0,0,2.99765,2.99698,0,2.99724,1.99744,5.99447,-1.99915,2.99793,0,16.9844,0,-2.99646,0,26.9801,33.9827,49.9591,4.99735,22.9783,-0.997318,29.9806,-9.99731,-62.9318,56.9395,-62.9293,-42.9446,19.9744,24.9757,0,-3.99018,27.9744,37.9627,21.981,0,-23.9831,4.99497,0,-17.9762,36.9742,40.9551,-43.9588,23.9808,0,3.99649,28.9704,-6.98756,0,0.999544,0.999544,0.999544,0.999544,0.999544,0.999544,0.999544,-2.99735,-6.99243,6.99269,-6.99214,-2.99524,1.99744,3.996,0,0.000550182,2.99724,3.996,2.99729,0,-1.99864,0.998994,0.999944,-1.99747,3.99705,4.99468,-3.9965,0.999544,0,2.99724,2.99701,-2.99646,-12.9747,-5.99474
0,0,0,0,0,0,0,0,0,0,0,0,0,0,0,0,0,0,0,0,0,0,0,0,0,0,0,0,0,0,0,0,0,0,0,0,0,0,0,0,0,0,0,0,0,0,0,0,0,0,0,0,0,0,0,0,0,0,0,0,0,0,0,0,0,0,0,0,0,0,0,0,0,0,0,0,0,0,0,0,0,0,0,0,0,0,0,0,0,0,0,0,0,0,0,0,0,0,0,0,0,0,0,0,0,0,0,0,0,0,0,0,0,0,0,0,0,0,0,0,0,0,0,0,0,0,0,0,0,0,0,0,0,0,0,0,0,0,0,0,0,0,0,0,0,0,0,0,0,0,0,0,0,0,0,0,0,0,0,0,0,0,0,0,0,0,0,0,0,0,0,0,0,0,0,0,0,0,0,0,0,0,0,0,0,0,0,0,0,0,0,0,0,0,0,0,0,0,0,0,0,0,0,0,0,0,0,0,0,0,0,0,0,0,0,0,0,0,0,0,0,0,0,0,0,0,0,0,0,0,0,0,0
0,65.7046,-8.03931,-25.8915,67.667,20.9381,-27.8466,2.00573,6.99444,0,0,0.999843,0,0,26.8723,1.99925,0,0,4.98461,17.9029,0.999843,0,0,-18.9329,1.99827,0,0.999897,5.93683,-1.03021,0,0,0,38.8111,0,61.6717,-6.96363,9.95894,7.96093,4.98461,1.99827,-10.9386,3.99654,0,0,0,0,0,19.9098,0,0,0,0,0,0.999843,0,0,0,0,0,0,0.976852,4.98461,0.999843,0,0,-45.7808,0,22.8526,-25.9271,7.95914,16.9233,-37.8658,-9.96874,24.8892,0,5.97784,0,0,0,0,-10.9738,0,0,0,0,0,0,0,0,15.9183,0,0,0,17.9284,3.97957,0,0,0,0,0,0,0,0,0,0,0,0,0,0,0,0,0,0,-31.8757,0,0,0,0,0,0,0,0,0,0,0,0,0,-27.8514,0,0,0,0,0,-38.693,-11.9158,6.97937,-11.8552,0,23.8506,-19.8278,3.99932,3.97957,4.98461,0.999843,0,0,-35.8523,0.999627,0,0,0,0,2.99953,0,0,15.9183,0,0,0,-19.8856,-44.8645,0,0,7.95914,-9.96787,0,41.8386,70.7716,18.9167,-21.8933,19.9115,19.9348,80.7561,74.8337,49.821,44.8615,-93.6783,29.9817,9.99897,1.90224,6.99739,-49.8305,0,94.6535,-10.0106,4.99922,-10.0369,0,-84.7933,37.9819,69.7894,8.99907,5.004,74.7423,8.99859,0,-41.9584,-74.7405,0,0.996046,0.996046,0.996046,0.996046,0.996046,0.996046,0.996046,8.9824,5.97784,4.98461,-8.96803,2.99817,0.999897,-3.00175,0.999627,-4.98305,0,9.96381,-2.00185,0.999843,-1.00369,0,-8.9862,3.99801,6.97894,0.999897,0.996046,0.996046,0.999843,0,-3.00197,-8.96798,-61.8439,-21.8633
0,5.99753,0.999681,-5.99399,3.99393,-3.99777,-7.99272,-0.999633,3.9958,-0.999099,-0.999986,0,0,0,-0.00253564,-3.99966,0,-0.999914,0,0,0,0,-2.99655,0,-0.998354,0,0,0,-2.99655,6.99367,-2.99996,0,-0.9992,0,-5.99341,6.99262,-4.99508,3.99623,-2.99946,-2.99849,-0.998589,-0.999914,-1.9982,0,-0.999914,0,0,-0.999914,0,0,0,0,0,0,6.99367,-0.999986,0,-1.99822,0,0,0,-0.998589,-0.998729,0,0,-2.99695,0,25.9763,-2.99754,-0.998354,0.997744,0,4.99377,0,11.989,-0.998354,-0.999986,-1.99919,0,0,-0.998354,0,-0.999986,0,0,0,0,0,-0.998354,6.99367,0,0,-0.998354,0,-1.99834,0,0,0,0,0,0,0,0,0,0,0,0,-1.0011,0,0,0,0,-0.998729,-3.99573,-2.99974,0,0,0,0,0,0,0,0,0,0,0,0,1.99607,0,0,0,0,0,18.979,-11.9916,5.99658,6.98916,-1.99822,-2.00051,0,11.9896,-5.99413,-3.99994,-0.999914,-0.9992,-0.998729,-8.99247,-3.99973,-0.999986,0,0,-0.9992,0,13.9873,-6.99235,6.99367,-0.999099,-0.999914,-0.999099,-1.99822,-6.99156,5.99494,-6.9999,0,-2.99695,0,-41.9941,-12.0073,-6.01265,-4.99892,0.996789,-0.000712,1.99101,-35.9717,33.9656,-3.99994,-52.9633,20.9872,-7.98983,44.9648,-8.99988,-37.9741,-26.9763,0,28.9792,0,28.9735,-23.9795,33.9684,-55.9522,50.9455,-27.9769,-17.984,0.990643,47.9595,0,-19.9864,-28.972,0,-0.999833,-0.999833,-0.999833,-0.999833,-0.999833,-0.999833,-0.999833,-0.999833,1.99801,-0.999986,-5.99605,1.9988,-0.998729,2.99758,-1.9999,-3.99741,-2.99737,0,1.99838,0,4.99545,-3.99617,5.99447,-5.99479,4.99456,-2.99744,-1.99822,-0.999833,5.99494,-0.999986,-1.99864,-3.99615,-25.9904,-5.99442
0,0.00478655,5.99473,3.99641,-8.98812,0,-2.99691,4.99219,0,1.00182,1.00195,-2.99575,0,0,5.9921,7.99541,0,0,0,0,-6.99141,3.99508,0.00263855,0,0,0,3.9977,1.99614,7.98973,3.9977,11.9931,0,0,0,3.98091,-10.9868,-4.98597,7.98782,0,-9.98461,-1.00158,-3.99763,0,3.9977,11.981,0,0,0,-5.98691,0,0,0,0,2.99517,-3.99507,7.99278,2.99605,0,0,3.9977,1.99614,6.90909e-06,3.9977,0,0,0,0,6.99073,-0.00534982,-0.00254764,-2.99721,0,-3.99165,-8.99719,-3.99763,0,-0.999912,-3.99344,0,0,0,-3.99344,0,0,0,0,4.99042,2.99517,0,2.99605,0,0,-3.99965,0,3.99508,0,0,0,-3.99763,0,0,0,0,0,0,0,0,0,0,0,0,0,0,-2.99575,7.98931,0,0,0,0,0,0,0,0,0,0,0,0,-7.98686,0,3.9977,0,0,0,43.9509,20.9589,13.9783,1.99841,0,3.99366,16.9764,-20.9644,7.99315,12.9882,-1.99636,-5.9915,6.90909e-06,-9.98434,-12.9665,0,-2.99575,0,0,1.99869,7.99017,6.90909e-06,11.9842,0,0,2.99779,-0.00534982,3.99771,3.99771,7.99541,5.9921,0.995203,0,-3.00234,-22.9571,-12.9889,-11.9853,-0.00109382,18.9714,-14.9672,38.9117,-8.99633,32.9607,-51.9495,-14.0139,39.9292,-42.9425,56.9332,-79.9107,-26.9618,-19.973,69.9375,-42.9494,-11.0294,-11.9504,5.9921,0.000770909,-9.97381,22.9844,-24.0018,-7.99704,-1.97352,15.9908,-18.962,7.96162,0,-0.000136727,-0.000136727,-0.000136727,-0.000136727,-0.000136727,-0.000136727,-0.000136727,0.995203,-0.000136727,4.99487,-5.99399,-2.00054,3.99292,-4.99305,4.9971,-7.99107,-2.99575,-1.9973,6.99375,-3.99566,-0.00440218,0.00427236,2.99605,7.70909e-05,-0.997381,2.99779,-2.00149,-0.000136727,1.00196,3.9977,-0.997388,0.995203,21.9843,8.4e-05
0,0,-2.99997,0,0,0,-0.999991,-0.999991,0,0,-2.99997,0,0,0,0,0,0,0,0,0,-1.99998,0,0,0,0,0,0,-0.999991,0,0,0,0,-0.999991,0,0,-0.999991,0,0,0,0,-2.99997,0,0,0,0,0,0,0,0,0,0,0,0,-0.999991,0,0,0,0,0,0,0,0,0,0,0,0,0,0,0,0,0,0,0,0,0,0,0,0,0,0,0,0,0,0,0,0,0,0,0,0,0,0,0,0,0,0,0,0,0,0,0,0,0,0,0,0,0,0,0,-0.999991,0,0,0,0,0,0,0,0,0,-1.99998,0,0,0,0,0,0,0,-0.999991,0,0,0,0,0,0,-1.99998,-0.999991,0,0,-0.999991,-1.99998,-0.999991,0,-2.99997,0,0,0,0,0,0,0,0,0,-4.99995,0,0,0,0,0,0,-0.999991,0,0,0,0,-0.999991,0,-45.9996,-23.9998,-18.9998,-7.99993,-7.99993,-5.99995,0,-8.99992,0,-2.99997,0,0,0,0,0,-9.99991,0,0,-7.99993,0,-9.99991,0,0,0,-9.99991,0,-7.99993,-8.99992,0,0,0,-6.99994,0,-0.999991,-0.999991,-0.999991,-0.999991,-0.999991,-0.999991,-0.999991,-0.999991,0,-0.999991,0,0,0,0,0,-0.999991,0,0,-0.999991,-0.999991,-0.999991,0,0,0,-0.999991,0,-0.999991,-0.999991,0,0,0,-0.999991,-15.9999,-0.999991
0,-10.9928,-2.99857,1.99961,-2.99739,0,0,0,0,-2.99857,2.99851,0.000246909,0,0,2.00045,3.99744,0,0.999804,0,0,-4.99716,-2.99857,0.999804,0,0,0,0,0,0.999804,-0.99879,-0.999813,0,0,0,-11.994,1.99976,6.99642,0.000308727,0,1.99887,0,0,-0.999696,-1.99876,0,0,0,3.99744,3.99744,0,0,0,0,-4.99716,0,0.999804,0,0,0,0.999828,0.999828,1.99872,0,0,0,0,0,5.99803,-0.999851,-1.99792,7.99579,0,6.99596,0.999828,0,-2.99857,-2.99857,0.999804,0,0,-1.9997,5.99615,0,1.99872,0,0,-8.99571,0,0,0,0,0,0.999828,0,1.99963,1.99872,0,0,0,0,0,0,0,0,0,0,0,0,0,0,0,0,0,3.99744,3.99759,0,0,0,0,0,0,0,0,0,0,0,0,0.000246909,0,0,0,0,0,6.00024,19.9925,4.99735,1.99878,3.99744,7.99576,0,5.99662,-1.99951,-5.99704,0.999022,-8.99571,0,-11.9935,3.99744,0,-1.99876,0,0,-16.9914,0.998867,0.999796,0,0,0,0,1.99966,3.99922,-0.99879,-0.999813,0,0.000278182,0,0.0113578,-14.9878,-11.9905,0.00197527,-3.99546,-16.9886,-0.997359,3.99398,1.9981,17.986,-1.9966,8.99703,0.00278182,-15.9885,7.99173,-9.99813,-1.00022,-19.9859,27.9865,-13.9902,21.9882,-2.99949,0,-19.9859,19.9963,17.9877,6.9988,-8.99515,-9.98927,-7.9985,0.0103782,-1.99637,0,0.000246909,0.000246909,0.000246909,0.000246909,0.000246909,0.000246909,0.000246909,0.99906,-0.999681,0.999013,0.000246909,0.000132,0.000278182,-1.99864,2.99778,-0.999813,-4.65455e-05,-1.99859,2.99852,-4.99716,1.99885,-8.36364e-06,0,-1.99859,1.99963,1.99873,0.999828,0.000246909,-0.998813,-0.999813,0.00103782,0.000278182,16.9949,0.999828
0,0,0,0,0,0,0,0,0,0,0,0,-0.999857,0,0,0,0,0,0,0,-0.999857,0,0,0,0,0,0,0,0,0,0,0,-0.999857,0,0,0,0,0,0,0,0,0,0,0,0,0,0,0,0,0,0,0,0,-0.999857,-0.999857,0,0,0,0,0,0,0,0,0,0,0,0,0,0,0,0,0,0,0,0,0,0,0,0,0,0,0,0,0,0,0,-0.999857,0,0,0,0,0,0,0,0,0,0,0,0,0,0,0,0,0,0,0,0,0,0,0,0,-0.999857,0,0,0,0,0,0,0,-1.99971,0,0,0,0,0,0,0,-0.999857,0,0,0,0,0,0,-2.99957,-3.99943,0,0,0,0,0,0,0,0,-0.999857,0,0,0,0,0,0,0,-0.999857,-0.999857,0,0,0,0,0,0,-0.999857,0,0,0,-0.999857,0,-45.9934,-26.9962,-15.9977,-7.99886,-7.99886,-7.99886,-9.99857,-9.99857,0,0,0,-6.999,0,0,-9.99857,0,-9.99857,0,0,-3.99943,-7.99886,0,-7.99886,0,-9.99857,0,0,-7.99886,0,0,0,-7.99886,0,-0.999857,-0.999857,-0.999857,-0.999857,-0.999857,-0.999857,-0.999857,-0.999857,0,0,0,-0.999857,0,0,-0.999857,0,-0.999857,0,0,-0.999857,-0.999857,0,-0.999857,0,-0.999857,0,0,-0.999857,0,0,0,-0.999857,-11.9983,0
0,0,-0.99991,-0.99991,0,0,0,0,0,0,0,0,0,-0.99991,0,0,0,0,0,0,0,0,0,0,0,0,0,0,0,0,0,0,0,0,0,-0.99991,-1.99982,0,0,-0.99991,0,0,0,0,0,0,0,0,0,0,0,0,0,0,0,0,0,0,0,0,0,0,-0.99991,0,0,-0.99991,0,0,0,0,0,0,0,0,0,0,0,0,0,0,0,0,0,0,0,0,0,0,0,0,0,0,0,0,0,0,0,0,0,0,0,0,0,0,0,0,0,0,0,0,0,0,0,0,0,0,0,0,0,0,0,0,0,0,0,0,0,-0.99991,0,0,0,0,0,-1.99982,-3.99964,-1.99982,0,0,-2.99973,0,0,0,0,0,0,-0.99991,0,0,0,0,0,0,0,0,0,0,0,0,0,0,0,0,0,0,-0.99991,0,-45.9959,-23.9978,-14.9986,-7.99928,-7.99928,-3.99964,-9.9991,0,0,-9.9991,0,-9.9991,-7.99928,0,0,0,0,-9.9991,-8.99919,0,-9.9991,0,0,-9.9991,0,0,0,-8.99919,-8.99919,0,0,-7.99928,0,-0.99991,-0.99991,-0.99991,-0.99991,-0.99991,-0.99991,-0.99991,0,0,-0.99991,0,-0.99991,-0.99991,0,0,0,0,-0.99991,-0.99991,0,-0.99991,0,0,-0.99991,0,0,0,-0.99991,-0.99991,0,0,-0.99991,-13.9987,0
0,-3.00264,2.99185,-13.9901,-11.9904,-5.99746,-13.9867,-5.99629,1.99761,6.99335,-13.9841,-8.99279,-1.99591,0,-17.9842,-0.999123,0,-0.996241,0,0,11.9896,-1.99591,-5.99753,8.99256,0,0,-1.99962,-1.99899,-4.9894,0.00176182,-7.99143,0,-1.99732,0,0.998027,-0.000150909,5.99323,-5.99783,0,-3.99533,0,-1.00062,3.99439,11.9869,-3.99695,-4.99158,0,2.00207,-0.000535636,-0.998631,0,0,0,-3.9953,-2.99568,-3.99778,0,-0.999771,0,0,0,-0.999712,0.001544,-0.999149,0,-0.999845,0,17.9829,21.9769,19.9873,15.9853,0,7.99124,0,1.99971,0,13.9882,9.992,-0.999771,0,16.9856,0,0,2.99552,0,0,-0.999548,0,8.98999,0,0,0,0,0,15.9841,1.9959,-0.999771,0,0,0,0,0,0,0,0,0,0,0,0,-1.99591,0,0,0,-4.99459,-4.99748,0,0,0,0,2.99804,4.99394,1.99886,0,0,0,0,0,-5.99518,0,-5.99241,0,0,0,-5.99768,-12.9795,20.981,5.98602,2.99689,-18.9814,-4.99575,0.00268945,-1.99241,10.9932,8.98936,6.9897,-0.999845,6.98418,-5.99555,0,20.9794,0,0,8.99262,9.98947,-1.00378,14.9876,-0.999771,-0.999712,-3.99923,-2.99814,7.99167,1.9992,-19.9752,0,-2.99716,0,-13.0005,-11.9983,-31.977,5.99354,2.99842,28.9701,14.9887,-12.9845,17.9904,-10.9934,-5.99954,1.00399,-28.9718,-2.99576,11.9929,-8.98768,-3.00857,0.0100291,14.9929,-18.9853,19.9805,-19.9953,15.9881,-7.9979,20.9693,-13.9973,-14.9928,-11.9942,35.9785,-13.985,-10.0065,-23.9773,0,-0.000268727,-0.000268727,-0.000268727,-0.000268727,-0.000268727,-0.000268727,-0.000268727,-0.998512,2.99837,0.99949,-0.000792364,0.000642909,-2.99716,-0.000268727,2.65455e-05,-0.998631,1.99701,0.00100291,0.999489,1.27273e-05,2.99723,-2.00055,4.99603,-0.999744,1.99696,-1.99962,-1.99899,-0.000268727,3.99769,-4.9943,-1.00065,-2.99716,27.972,-2.99438
0,-6.99233,8.98641,1.99264,-8.99286,13.9817,11.9829,-0.997894,3.99034,8.99023,0,-1.99955,0,0,-8.99547,9.98009,0,-0.999301,-0.999193,-0.999301,15.9813,0,25.9715,0,-1.99917,0,-1.99994,-0.999976,-1.99956,6.99275,-3.99731,0,-0.999976,0,-8.99043,-4.99386,-3.99664,-4.99455,8.99023,-3.99484,0,7.99162,-2.99597,-2.99695,-2.99598,0,0,0,3.99607,0,-0.999583,-0.998608,0,6.99162,0,-4.99377,0,0,0,-2.99992,-0.997894,-0.999966,-3.99472,-2.99925,0,-0.999301,0,-9.98238,-0.99818,0,-1.99607,0,-3.99472,-0.997894,0,-0.99818,0,0,0,0,-1.99679,-3.99315,0,0,0,0,-1.99579,0,-0.99818,0,0,0,0,-0.997894,0,0,0,0,0,0,0,0,0,0,0,0,0,-0.998608,0,-1.99736,0,0,0,-3.99502,1.99775,0,0,0,0,0,0,-1.99736,0,0,0,-3.99472,0,-0.999837,0,-5.99209,0,0,0,-39.9523,-6.99004,-8.99327,-20.9778,-1.99917,24.9662,-6.98526,5.99168,-2.99554,-5.99258,-4.99553,0,-0.999301,-5.99333,8.98669,0,0,0,-0.999301,-5.99485,-1.99917,5.99366,0,-0.997894,-1.99709,-2.99733,-1.99787,-4.99204,5.99497,-6.99398,0,6.99095,0,-45.9925,-42.9799,-3.00378,-5.00214,-28.9715,-36.9583,8.98244,42.9417,39.9578,-38.9612,-39.9642,-9.99976,-18.9726,-18.975,-30.9658,-9.9818,-17.99,51.9406,-49.9606,34.9564,-37.9613,7.99735,0,33.9648,-47.9347,-37.977,-14.9851,-1.00697,40.9609,-19.9838,-9.9818,55.9276,0,-0.999837,-0.999837,-0.999837,-0.999837,-0.999837,-0.999837,-0.999837,5.99168,3.9961,-4.99481,-4.99553,-0.999976,-1.99719,-3.99556,-0.999837,-0.99818,-1.99888,4.99428,-5.99541,4.99387,-3.99605,2.99758,0,3.9958,-4.99318,-4.99689,-1.99787,-0.999837,4.99539,-3.99664,-0.99818,6.99095,29.9523,0.997926
0,0,0,0,0,0,0,0,0,0,0,0,0,0,0,0,0,0,0,0,0,0,0,0,0,0,0,0,0,0,0,0,0,0,0,0,0,0,0,0,0,0,0,0,0,0,0,0,0,0,0,0,0,0,0,0,0,0,0,0,0,0,0,0,0,0,0,0,0,0,0,0,0,0,0,0,0,0,0,0,0,0,0,0,0,0,0,0,0,0,0,0,0,0,0,0,0,0,0,0,0,0,0,0,0,0,0,0,0,0,0,0,0,0,0,0,0,0,0,0,0,0,0,0,0,0,0,0,0,0,0,0,0,0,0,0,0,0,0,0,0,0,0,0,0,0,0,0,0,0,0,0,0,0,0,0,0,0,0,0,0,0,0,0,0,0,0,0,0,0,0,0,0,0,0,0,0,0,0,0,0,0,0,0,0,0,0,0,0,0,0,0,0,0,0,0,0,0,0,0,0,0,0,0,0,0,0,0,0,0,0,0,0,0,0,0,0,0,0,0,0,0,0,0,0,0,0,0,0,0,0,0,0
0,23.9283,19.9603,7.98813,55.8438,0,0,-0.999968,2.99532,0,8.99346,15.9419,13.9702,-4.99009,39.8995,-13.9706,0,-0.997032,0,15.9419,-9.98017,0,0,-13.9612,0,0,0,-1.99994,7.96134,5.99212,13.9702,0,0,0,37.887,-25.9368,-16.9607,-5.97729,0,10.9776,-3.99276,5.99064,0,6.98758,-10.9674,0,0,-0.990999,0,0,15.9419,0,0,-4.99009,0,-9.98017,-6.98058,0,0,15.9419,0,-3.97978,-7.97609,7.98564,0,-4.99009,0,-34.8639,14.9843,12.9783,-13.9591,0,4.99475,-6.97845,0,0,12.9782,2.99532,0,0,-44.8399,-6.97845,2.99532,-14.9526,0,-14.953,0,0,-0.988509,-4.98562,2.99532,0,-10.9674,-3.98565,-6.97805,-1.99283,15.9711,0,-7.97609,0,0,0,0,0,0,0,0,0,0,25.9223,0,0,0,94.7083,-24.9504,0,0,0,0,0,-7.97609,-0.988509,0,0,0,0,0,-5.97313,-7.97609,13.9702,0,0,0,-94.717,1.9832,3.04069,2.00792,-3.98114,-27.9178,-16.9568,0.005056,0,28.9552,21.945,0,-9.98017,65.8422,-0.0622458,5.99064,-9.96186,0,0,-9.98017,0,13.9752,-52.8596,0,0,4.97452,-5.98559,32.9509,-3.97679,37.9269,0,-12.9662,0,1.00349,-58.8738,-32.9776,1.99499,-3.99511,3.9692,18.9577,-8.96574,0,55.8275,119.659,25.9528,-34.9306,-84.7606,-53.9276,70.7125,-0.000696364,0.0451055,2.00108,-24.9504,-51.9675,-61.8039,-0.999968,-42.8479,49.9732,39.7962,-17.9568,-33.9516,-23.8382,-39.9207,-9.88509,-103.729,0,-0.997032,-0.997032,-0.997032,-0.997032,-0.997032,-0.997032,-0.997032,0.002528,0,13.9664,14.9574,3.99229,-4.99009,6.98585,-9.98893,7.96985,-0.997032,0.00451055,-3.99235,-4.99009,-5.99435,-5.97859,-9.97337,-3.98525,4.99732,4.97452,-2.99279,-0.997032,-3.97679,4.99032,-0.988509,-12.9662,51.963,6.97202
0,0,0,0.999818,0.999413,0,0,0,0.999818,0,0,-2.99856,0,0,4.99844,1.99964,0,0,0.000243636,1.99899,0,0,2.99945,0,0,0,0,0,0,0,0,0,0,0,0,-2.99856,-4.99731,1.99899,0,-2.99856,0,0.999818,1.99964,0,0,0,0,0,1.99923,0,0,0,0,-0.999575,0,1.99899,0,-2.99856,0,0,0,0,0,0,0,0,0,3.99798,1.99899,0,-5.99712,-5.99712,-3.99814,0,0,0,0,1.99899,0,0,3.99798,1.99899,0,0,0,0,0,0,0,0,0,0,0,0,0,0,0,0,0,0,0,0,0,0,0,0,0,0,0,0,0,0,0,-7.99587,-11.9942,0,0,0,0,0,0,-5.99712,0,0,0,0,0,1.00006,0,0,0,0,0,4.99804,1.00031,3.99822,-2.99783,-2.99856,-4.99706,0,0.999818,0.999818,0,0.000243636,0,0,0.000243636,0.000487273,0,0,0,0,-1.99915,0,-1.99915,0,0,-2.99856,0,0,0.999818,0,0,0,0,0,0.0112073,0.00657818,6.00127,3.00051,8.99764,11.9957,0.00243636,6.99873,6.99873,0,0.00194909,0,0,-0.998356,5.99834,0,0,0.00219273,-5.99761,-6.99702,9.99818,3.00027,0,-6.99718,3.001,0,0,-1.99744,0,0,0,0,0,0.000243636,0.000243636,0.000243636,0.000243636,0.000243636,0.000243636,0.000243636,0.999818,0.999818,0,0.000243636,0,0,0.000243636,0.000243636,0,0,0.000243636,-0.999575,-0.999575,0.999818,0.000243636,0,-0.999575,0.000243636,0,0,0.000243636,0,0,0,0,-10.9915,0.000243636
0,-1.99982,0,0,-1.99982,0,0,0,0,0,0,-0.999911,0,0,0,0,0,0,0,-0.999911,0,0,0,0,0,0,0,0,-0.999911,0,0,0,0,0,-1.99982,0,0,-0.999911,0,0,0,0,0,0,0,0,0,-0.999911,0,0,-0.999911,0,0,0,0,0,0,0,0,-0.999911,0,0,0,0,0,0,0,0,0,0,0,0,0,0,0,0,0,0,0,0,0,0,0,-0.999911,0,0,0,0,0,0,0,0,0,0,0,0,0,0,0,0,0,0,0,0,0,0,0,0,0,-0.999911,0,0,0,-4.99956,0,0,0,0,0,0,0,0,0,0,0,0,0,-0.999911,0,0,0,0,0,-1.99982,-1.99982,-0.999911,-2.99973,0,0,0,0,0,0,-0.999911,0,0,-1.99982,-3.99965,0,0,0,0,0,0,0,0,0,0,-0.999911,0,0,0,0,0,0,0,-45.9959,-27.9975,-18.9983,-7.99929,-7.99929,-7.99929,-9.99911,0,0,-8.9992,-7.99929,0,0,-1.99982,-5.99947,-9.99911,-7.99929,0,-8.9992,0,-9.99911,0,0,0,0,-7.99929,0,-7.99929,0,0,0,0,0,-0.999911,-0.999911,-0.999911,-0.999911,-0.999911,-0.999911,-0.999911,0,0,-0.999911,-0.999911,0,0,-0.999911,-0.999911,-0.999911,-0.999911,0,-0.999911,0,-0.999911,0,0,0,0,-0.999911,0,-0.999911,0,0,0,0,-10.999,-0.999911
0,14.9855,-9.96415,-1.99321,19.9731,0,-23.9368,-23.9371,0,-3.99355,0,-3.99355,0,0,2.00209,0,0,0,0,0,-4.9796,0,5.98864,0,-1.99853,0,1.00194,0.00549927,-7.97221,0,0,0,10.9801,0,-11.9764,22.9583,2.99032,-8.98115,0,-6.99564,-0.998353,0,-0.999995,-1.99999,0,-2.99489,-0.999088,7.98443,-6.98092,0,0,0,0,-1.9995,-1.99988,-0.999995,0,0,0,7.98443,17.9725,-12.9747,0,0,0,-7.97637,0,10.9645,0.00442764,-6.99449,-3.00524,0,-5.99602,18.9618,0,-1.99823,0,0,0,0,0,0,0,0,0,0,-3.99523,0,-0.999995,-0.999088,0,-1.99853,-2.99646,-0.998353,5.98456,-1.99853,0,0,5.98591,0,0,0,0,0,0,0,0,0,-0.999995,0,0,0,0,-2.99446,-6.98092,0,-0.999995,0,0,-19.9861,-7.99466,-8.99661,0,0,0,-1.99811,-1.99797,5.98489,0,-2.99554,0,0,0,-32.9951,-0.988915,-18.9853,24.9217,-5.99701,-11.9919,2.00838,0,0,0,0,-4.99208,-8.97881,-8.95267,-13.9821,0,-29.953,-2.99773,0,-23.9613,-7.99456,7.98649,-6.99362,-1.99853,-3.99705,18.9736,14.9838,-21.943,-0.99988,0,5.993,7.98965,0,-37.0063,-37.0057,11.9809,4.98857,-2.00187,40.9215,21.8677,29.981,-61.926,-56.919,-55.9272,27.9547,119.846,41.9125,-31.9647,0,-48.9314,-76.9185,-22.9822,44.9232,-101.875,56.9015,0.0291578,13.9644,-4.01405,46.9299,69.9044,20.9219,-26.9857,-26.9599,33.9517,63.9172,0,-0.999861,-0.999861,-0.999861,-0.999861,-0.999861,-0.999861,-0.999861,2.9981,-6.99177,-5.99189,-5.99207,1.99677,10.9868,3.99519,-5.99086,0,-7.98843,-7.99163,-2.99773,-0.999861,-11.9864,5.98801,-0.995443,0.996737,-1.00096,6.98953,9.98698,-0.999861,-2.99841,-2.99554,3.99447,7.98965,-78.8563,-9.98942
0,2.99936,1.99941,1.99957,0.999787,-6.99966,-0.000330182,0,0,0,-0.999952,0,0,0,-2.99985,0,0.999787,-0.999952,0,0,1.99957,-0.000165091,-0.999952,0,0,0,0,0,-0.999952,-0.999952,1.99957,0,0,0,1.99957,0.999787,0,1.99957,0,0.999787,0,0,0,0,0,0,0.999787,0,0,0,0,0,0,0,0,-0.999952,0,0,0,0,0,0,-0.999952,0,0,-0.999952,0,0,0,0,0,0,0,0,0,0,0,0,0,0,0,0,0,0,0,0,0,0,0,0,0,0,0,0,0,0,0,0,0,0,0,0,0,0,0,0,0,0,0,0,0,0,0,-0.999952,0,0,0,0,0,0.999787,0.999787,-0.999952,0,0,0,0,0,-2.00007,0,0.999787,0,0,0,0.998631,4.99877,-3.99997,2.99886,-0.999952,-3.99997,0,0,0,-1.9999,0,0,2.99936,0,0,0,0,0,0,1.99957,0,-1.9999,3.99915,0,0,0,0,-1.9999,-0.999952,2.99936,0.999787,-0.999952,0,-1.00738,-8.00291,1.9971,-2.00073,7.99829,2.99919,-0.00165091,0,0,-6.99966,0,0,5.99872,-5.99971,0,8.99808,-8.99956,0,-2.00089,4.99893,-1.00127,-4.99976,3.99915,9.99787,0,0,0,4.99827,-6.99966,3.99915,-1.00144,-7.99961,0,-0.000165091,-0.000165091,-0.000165091,-0.000165091,-0.000165091,-0.000165091,-0.000165091,0,0,-0.999952,0,0,0.999787,-0.999952,0,0.999787,-0.999952,0,-0.000165091,0.999787,-0.000165091,-0.999952,0.999787,0.999787,0,0,0,-0.000165091,-0.999952,0.999787,-0.000165091,-0.999952,-7.00214,0
0,-66.0477,-108.497,-9.95127,98.8714,-253.995,-164.696,0,0,-68.6424,-51.3341,0,0,0,-108.557,-97.9298,0,-52.332,0,-37.4431,-123.544,254.545,-113.534,0,0,0,11.8268,0,281.685,16.3298,0,0,-31.5035,0,-106.837,33.0262,60.6863,-307.744,-53.3712,-35.1506,0,-72.1408,-82.092,0.997885,-94.9386,0,0,-68.2601,0,0,38.1562,21.7909,0,250.367,-135.437,235.136,0,0,0,0,76.2458,-361.522,1.08727,0,0,28.6283,0,153.868,51.7576,68.2471,-20.3367,-42.192,112.133,0,-29.8538,53.6703,-1.0266,5.92928,0,2.99075,-59.2843,8.97321,5.98198,-12.9635,-25.7891,-15.9281,160.048,53.3304,-41.2433,0,0,0,0,0,162.156,-53.3712,0,0,0,0,0,0,0,0,0,0,0,115.723,187.863,0,0,0,0,189.326,140.504,0,0,0,0,-178.894,-77.3426,-89.9326,0,0,0,0,-70.3324,-53.5322,0,0,0,0,0,-61.7014,12.6489,-12.8608,69.0938,-9.66541,32.7717,-40.7655,1.88836,-3.96929,-43.2936,0.988351,0,1.93921,8.78507,33.0925,2.99123,6.95375,5.91339,5.91339,105.875,70.4222,-116.123,0,-9.95127,0,1.87551,0,-16.8025,-25.2001,8.97369,0,-37.0414,0,44.731,-24.346,-74.0751,50.0427,367.003,59.7311,50.4896,-155.111,-137.161,135.437,50.5614,-80.1206,44.3696,-90.6314,-45.4098,50.8466,-28.5908,17.237,143.117,-105.419,-155.727,155.323,0,-30.4275,108.082,-54.0811,53.2205,-2.25997,91.4191,20.9386,10.8727,11.1641,0,0.972413,0.972413,0.972413,0.972413,0.972413,0.972413,0.972413,-13.9494,-6.02824,4.07802,5.94633,-8.01206,4.92996,-12.8622,3.92302,5.98198,-5.87277,1.91522,3.03137,10.8433,0.979181,0.972413,0,-4.03788,10.8082,-4.03788,5.91339,0.972413,3.02648,2.99123,1.08727,-2.87525,-241.95,4.85232
0,0,0,0,0,0,0,0,0,0,0,0,0,0,0,0,0,0,0,0,0,0,0,0,0,0,0,0,0,0,0,0,0,0,0,0,0,0,0,0,0,0,0,0,0,0,0,0,0,0,0,0,0,0,0,0,0,0,0,0,0,0,0,0,0,0,0,0,0,0,0,0,0,0,0,0,0,0,0,0,0,0,0,0,0,0,0,0,0,0,0,0,0,0,0,0,0,0,0,0,0,0,0,0,0,0,0,0,0,0,0,0,0,0,0,0,0,0,0,0,0,0,0,0,0,0,0,0,0,0,0,0,0,0,0,0,0,0,0,0,0,0,0,0,0,0,0,0,0,0,0,0,0,0,0,0,0,0,0,0,0,0,0,0,0,0,0,0,0,0,0,0,0,0,0,0,0,0,0,0,0,0,0,0,0,0,0,0,0,0,0,0,0,0,0,0,0,0,0,0,0,0,0,0,0,0,0,0,0,0,0,0,0,0,0,0,0,0,0,0,0,0,0,0,0,0,0,0,0,0,0,0,0
0,0,0.999691,1.00001,-1.9997,-0.999375,1.99917,-0.999375,-2.99812,0,0,-0.999796,0,1.99938,1.99928,-2.99939,0,0,0,0,1.99938,0,0,0,-0.000309091,0,0,0,-0.999375,0.999691,0,0,0,0,0,0.999171,1.99886,0,-0.999375,2.99835,0,-1.99875,0,0,0,0,0,0,-1.99959,0,0,0,0,0.999065,0,0,0,0,0,0,0,0,0,0,0,0.000316,0,0,-0.999796,1.99834,1.99834,0,1.99834,0,0,0,0,0,0,0,0,0,0,0,-0.999796,0,0.999171,0,0,0,0,0.999171,0,0,0,0.999171,0,0,0.999171,0,0,0,0,0,0,0,0,0,0,0,0,0,0,-0.999901,0,0,0,0,0,0,0,-0.999796,0,0,0,0,0,-0.000513091,0,0,0,0,0,2.99814,1.99824,-0.00165127,-1.00073,-0.000204,-2.99926,0,0,0,0,-0.000105091,0,2.99907,-0.000625091,-1.99959,0,0,0,0,3.99699,0,-1.99959,0,2.99855,0.998545,0,-0.999375,1.99886,0.999691,0,0,0.999487,0,-0.0142182,-0.00845745,-6.00082,-3.99967,1.99648,-3.99907,5.99316,-4.99687,-8.99437,0,1.99618,-0.00204,4.99845,8.9919,-2.99939,-9.99375,0,0.998745,-8.99816,1.99605,-9.99375,-6.99857,0,-3.00133,-2.00397,0,-8.99437,-1.00206,16.9901,0,19.9886,9.99464,0,-0.000309091,-0.000309091,-0.000309091,-0.000309091,-0.000309091,-0.000309091,-0.000309091,-0.999375,-0.999375,0,-0.000309091,-0.000204,0.999691,0.999065,-0.999796,-0.999375,0,-0.000105091,-0.999796,0.999065,-0.999375,-0.999796,0,-0.000309091,-0.000625091,0,-0.999375,-0.000309091,1.99886,0,1.99886,0.999487,3.99269,-0.000309091
0,0,0,0,-0.999993,0,0,0,0,0,0,0,0,0,0,0,0,0,0,0,-0.999993,0,0,0,0,-0.999993,0,0,0,0,0,0,0,0,-0.999993,0,0,0,0,-1.99999,0,0,0,0,0,0,0,0,0,0,0,0,0,-0.999993,0,0,0,0,0,0,0,0,0,0,0,-0.999993,0,0,-0.999993,0,0,0,0,0,0,0,0,0,0,0,0,0,0,0,0,0,0,0,0,0,-0.999993,0,0,0,0,-0.999993,0,0,0,0,0,0,0,0,0,0,0,0,0,0,0,0,0,0,0,0,0,0,0,0,0,0,0,0,0,0,0,-1.99999,0,0,0,0,0,-1.99999,-2.99998,-4.99997,0,0,-0.999993,0,0,0,0,0,0,0,-0.999993,0,0,0,0,0,-2.99998,0,0,0,-0.999993,-0.999993,0,0,-0.999993,0,0,0,-0.999993,0,-45.9997,-25.9998,-12.9999,-7.99994,-7.99994,-4.99997,-9.99993,0,0,0,-9.99993,-9.99993,0,-8.99994,0,0,0,0,0,-4.99997,0,0,0,-7.99994,-7.99994,0,0,-6.99995,-8.99994,0,-9.99993,-7.99994,0,-0.999993,-0.999993,-0.999993,-0.999993,-0.999993,-0.999993,-0.999993,0,0,0,-0.999993,-0.999993,0,-0.999993,0,0,0,0,0,-0.999993,0,0,0,-0.999993,-0.999993,0,0,-0.999993,-0.999993,0,-0.999993,-0.999993,-15.9999,-0.999993
0,2.99853,0.99951,0.99951,2.99853,0,0.99951,0,0,0,1.99902,0.99951,0,0,0,0.99951,0,0,0,0,2.99853,0,0,0,0,0,-0.000379636,0,0.99951,0,0,0,0,0,0.99951,-1.00027,0.99951,-0.999889,0,0.99951,-0.999889,0,0,0,0,0,0,0,0,0,0,0,0,0,0,0,0,0,0,0.99951,0,0,0,0,0,-0.999889,0,0,0,0,0,0,0,-0.999889,0,0,0,0,0,0,0,0,0,0,0,0,0,0,0,0,0,0,0,0,0,0,0,0,0,0,0,0,0,0,0,0,0,0,0,0,0,0,0,0,0,0,0,0,0,0,0,0,0,0,0,0,0,-0.000379636,0,0,0,0,0,-6.99923,-2.00016,1.99826,-0.00113891,0.99951,2.99853,0,-1.00027,0,2.99853,0.99951,0,0,0,3.99804,0,0,0,0,4.99755,0,0,0,0,0,1.99902,-1.99978,0,0,0,0,0,0,-0.0174633,1.98953,-4.00487,-0.00303709,-1.00255,-5.00059,1.99598,0.996473,0,4.99755,7.99608,-9.99889,-9.99889,0,4.99755,0,0,9.9951,0.996093,1.99902,9.9951,0,0,-9.99889,-9.99889,-3.00195,-7.99912,-1.00293,0,0,0,-8.99901,0,-0.000379636,-0.000379636,-0.000379636,-0.000379636,-0.000379636,-0.000379636,-0.000379636,-0.000379636,0,0.99951,0.99951,-0.999889,-0.999889,0,0.99951,0,0,0.99951,-0.000379636,0.99951,0.99951,0,0,-0.999889,-0.999889,-0.000379636,-0.999889,-0.000379636,0,0,0,-0.999889,6.99315,-0.000379636
0,17.9874,2.99712,2.99712,3.99717,-0.999813,-2.99944,9.99349,-0.999331,0,0,0,0,4.99675,4.99675,0,0,0,0,0,0,0,0,0,0,0,0,-1.00008,-2.9992,0,0,0,-0.999813,0,-0.000754545,-4.99737,-2.99859,-3.99744,0,-2.99944,-1.99866,0,0,0,0,0,4.99675,0,0,0,0,0,0,0,0,-0.999574,0,0,0,-0.999574,0,0,0,8.99416,0,2.99797,0,-7.99551,-4.99689,3.99742,2.99746,0,0,-2.99837,-2.99811,0,0,0,0,0,4.99675,-1.99878,0,0,0,0,-3.9983,0,-1.99915,0,0,0,-1.9989,0,-3.99744,0,0,0,4.99675,0,0,0,0,0,0,0,0,0,0,0,0,0,0,-0.999813,-1.99878,0,0,0,0,0,0,0,0,0,0,0,0,-0.000751273,0,4.99675,0,0,0,-20.9896,-9.99708,-0.00101345,-5.99671,-4.99907,16.9884,-0.00187018,-6.99543,0,0,0,-0.999331,4.99675,-1.99963,-1.99878,0,0,-0.999574,-0.999574,-3.9983,-0.999574,0,-0.999813,0,0,0,-0.000508364,-2.99896,0,14.9902,0,1.99815,0,2.96343,11.9749,-4.00995,-0.00601018,5.99287,-10.9955,-21.9873,-18.9882,49.9675,0,14.9848,-8.99398,19.9872,32.9753,-13.9915,-9.99813,0,20.9835,-20.991,-1.99915,-38.9821,-6.99702,-14.9933,-9.99574,9.99062,-16.9906,1.99289,9.98884,0,10.993,-29.9859,10.9885,0,-0.000751273,-0.000751273,-0.000751273,-0.000751273,-0.000751273,-0.000751273,-0.000751273,-2.99811,4.99675,0,1.99815,-0.999331,3.99742,3.99693,-1.99878,-0.999813,0,1.99839,-2.99872,-0.999574,-3.99817,-0.999574,-1.99914,-0.999574,0.999062,-1.9989,-0.000751273,-0.000751273,0,3.99742,-2.99859,1.99815,10.9782,-4.9975
0,185.446,28.8568,81.4888,94.1346,-12.9749,105.221,-33.7455,36.779,-7.86426,7.94639,0,0,-1.99966,44.6149,6.94737,-0.999993,-2.02125,0,-1.99589,-107.235,-13.8639,-68.5559,0,11.9263,0,-6.9868,-46.6221,18.7633,24.7465,27.7647,0,2.0143,0,-28.3694,82.3705,35.5937,33.7276,32.7108,26.7387,-22.8006,-7.98438,-2.99345,1.97429,-2.98981,-1.99517,0,-9.97405,-9.97265,-5.97109,8.94703,-2.99345,0,-56.573,32.6738,-24.8569,8.94703,-2.99365,0,-3.98221,66.5598,-60.5214,-35.653,0,0,-16.9388,0,-8.721,-56.5117,-72.3663,-50.4124,-4.02624,-86.3103,-4.96308,1.98397,28.7338,-7.96799,0,-4.96797,0,-1.99689,8.94703,0,7.94883,0,0,-23.8719,-56.5153,30.6693,17.8941,0,0,7.9596,0,5.94399,13.9051,32.8279,0,-1.99304,0,0,0,0,0,0,0,0,-2.99345,-0.996974,-2.99092,-0.996974,-1.99395,0,-20.8855,-34.9142,0,-3.98679,0,0,-59.7077,-22.8543,-54.6947,0,0,0,-0.999993,-6.97978,-35.7226,0,-1.99819,0,0,0,235.887,102.244,-19.0871,95.3541,-38.9001,-10.1697,-5.14983,92.5272,19.8687,6.90816,-24.9119,35.8431,-5.00603,22.695,-31.8645,-4.97804,56.6968,-8.97227,43.6683,-218.677,-84.3426,4.96789,77.5094,-0.998195,0,-43.8221,44.7777,-16.7902,11.8832,64.8457,-4.98149,-14.9245,0,-28.2198,-105.435,15.034,2.98828,31.0835,-27.5862,-45.6043,-1.03586,52.3275,-65.8842,-73.7731,182.549,-12.4091,64.6815,50.4501,1.99351,-71.3417,1.48243,226.369,197.016,-43.8592,-108.451,102.855,-77.4498,39.279,27.6747,-42.8019,98.1933,5.08794,-23.3557,-24.8383,-127.356,0,0.986648,0.986648,0.986648,0.986648,0.986648,0.986648,0.986648,11.9276,10.8939,-6.00143,-10.9657,20.9436,-1.94148,9.91349,-1.04068,-0.995562,1.0166,-1.04833,28.8922,-26.9049,-18.8762,-19.9062,25.9006,-6.95153,3.9279,-2.01567,0.00573782,0.986648,1.99697,10.0084,-2.98198,-16.9175,5.31217,15.8649
0,-73.8399,-25.9421,-7.98177,-43.9022,-4.99013,15.9678,-33.9121,-0.996848,0,-3.9924,-3.99007,0,0,-10.974,-8.98145,0,-12.9741,0,-3.99007,6.98864,0,-4.9909,-14.9704,-0.999264,0,0,-2.99192,-1.99347,-6.98676,-10.972,0,9.97893,0,-2.9972,-0.000614182,-17.963,17.9602,0,-7.98224,-0.999264,-2.9923,0,0,0,0,-0.999776,-2.99136,13.9694,0,-1.99855,0,0,6.98864,-0.997668,0,0,10.9787,10.9787,0,0,-10.9781,0,0,0,-3.98997,0,51.8701,-12.982,-10.9823,13.9596,-6.98632,-2.99795,-2.99329,-0.999264,0,-1.99855,0,0,-1.99478,18.9539,-5.98953,0,27.9388,0,0,0,0,-1.99478,27.9388,0,0,0,-0.999264,-12.9751,0,-6.98561,0,-2.99404,0,0,0,0,0,0,0,0,-3.99091,0,0,0,0,-1.99546,-21.9545,-2.99192,0,0,0,0,0,0,0,0,0,0,0,0,-0.998964,0,-0.997014,0,0,0,-7.00135,8.98468,2.00976,-28.9466,-15.9702,-6.98432,-17.9515,-10.9754,0,-9.98422,-7.9834,-4.9918,-6.98387,-15.9722,-11.9803,0,-15.977,0,0,20.9659,-0.999403,-9.97861,16.9576,10.9787,10.9787,0,-12.9672,0.9953,-5.98856,-19.9605,0,2.99492,0,-57.9198,2.96335,-7.0194,15.9605,19.9549,-5.995,47.8651,-29.9311,0,-53.9408,12.0036,74.8251,-57.8648,62.903,65.8533,-69.8411,2.96752,39.8852,-67.8943,24.9731,-27.9714,-82.8315,17.9428,68.8472,67.855,-19.9478,-72.8243,15.9608,2.98568,-30.9303,49.9019,23.9594,0,-0.998964,-0.998964,-0.998964,-0.998964,-0.998964,-0.998964,-0.998964,-4.98858,0,-6.99159,0.00300945,6.98333,-6.98387,2.99649,4.98795,-6.98411,-0.00432982,3.98852,-7.98662,5.99162,-2.99685,-9.97958,5.98359,8.98053,8.98124,-1.99478,-8.97827,-0.998964,-0.998964,-6.98454,4.99019,2.99492,-84.8255,2.99465
0,0,0,-1.99998,0,0,0,0,0,0,0,0,0,0,0,-0.999991,0,-0.999991,0,0,0,0,0,0,0,0,0,0,-0.999991,0,-0.999991,0,0,0,0,-0.999991,-0.999991,0,0,-0.999991,0,0,-1.99998,0,0,0,0,0,0,-0.999991,0,0,0,0,0,-0.999991,0,0,0,0,0,0,0,-1.99998,0,0,0,0,0,0,0,0,0,0,0,0,0,0,0,0,0,0,0,0,0,0,0,0,0,0,0,0,0,0,0,0,0,0,0,0,0,0,0,0,0,0,0,0,0,0,0,0,0,0,-3.99997,0,0,0,0,0,0,0,0,0,0,0,0,-2.99997,0,0,0,0,0,0,-1.99998,-3.99997,-1.99998,0,-2.99997,0,0,-0.999991,0,-0.999991,0,0,0,-2.99997,-0.999991,0,0,0,0,0,-0.999991,0,0,0,0,0,-0.999991,0,0,0,0,0,-45.9996,-23.9998,-12.9999,-7.99993,-7.99993,-3.99997,-9.99991,0,-6.99994,0,-7.99993,0,0,0,-1.99998,-7.99993,-8.99992,0,-9.99991,0,0,-7.99993,0,0,-9.99991,0,0,-4.99996,0,-5.99995,0,0,0,-0.999991,-0.999991,-0.999991,-0.999991,-0.999991,-0.999991,-0.999991,0,-0.999991,0,-0.999991,0,0,0,-0.999991,-0.999991,-0.999991,0,-0.999991,0,0,-0.999991,0,0,-0.999991,0,0,-0.999991,0,-0.999991,0,0,-13.9999,-0.999991
0,0,-0.99986,0,0,0,0,-0.99986,0,0,0,0,0,0,0,0,0,0,0,0,-0.99986,0,0,0,0,0,0,-0.99986,0,0,0,-0.99986,0,0,0,-0.99986,0,-1.99972,0,0,-0.99986,0,0,0,0,0,0,0,0,0,0,0,0,0,0,0,0,0,0,0,0,0,0,0,0,-0.99986,0,0,0,0,0,0,0,-1.99972,0,0,0,0,0,0,0,0,0,0,0,0,0,0,0,0,0,0,0,-0.99986,-0.99986,0,0,0,0,0,0,0,0,0,0,0,0,0,0,0,0,0,0,0,0,0,0,0,0,0,0,0,0,0,0,0,0,-0.99986,0,0,0,0,0,0,-1.99972,0,0,0,0,-1.99972,0,0,0,0,0,0,0,0,0,0,0,0,-1.99972,0,0,0,0,0,0,-1.99972,-1.99972,0,0,0,-0.99986,0,-45.9936,-25.9964,-19.9972,-7.99888,-7.99888,-7.99888,-2.99958,-9.9986,0,0,0,0,-9.9986,0,-9.9986,0,0,0,0,-6.99902,0,0,-7.99888,-9.9986,0,0,-5.99916,-5.99916,0,0,-8.99874,-7.99888,0,-0.99986,-0.99986,-0.99986,-0.99986,-0.99986,-0.99986,-0.99986,-0.99986,0,0,0,0,-0.99986,0,-0.99986,0,0,0,0,-0.99986,0,0,-0.99986,-0.99986,0,0,-0.99986,-0.99986,0,0,-0.99986,-0.99986,-11.9983,0
0,-2.99973,-1.99991,-0.999953,0,0.999945,0.999945,0,0,0,0,0,0.999928,0,0,0,0,0,0,0,0,0,0,0,0,0,0,0,0,0,0,-0.999953,3.27273e-05,0,-3.99975,-0.999895,0,-2.99966,1.99989,0,0,0,0,0.999945,0,0.999928,0,0,0,0,0.999945,0,0.999945,0.999928,-2.50909e-05,0.999945,0,0,0,0,0,0,0,0,0,0,0,-0.999953,0,-0.999953,-1.99991,1.99989,0.999945,-0.999887,0,0,0,0,0,0,0,0,-0.999953,0,0,0,0,0,0.999945,0,0,0,0,0,-0.999953,0.999945,0,0,0,0,0,0,0,0,0,0,0,0,0,0,0,0,0,3.99978,0,0,0,0,0,1.99986,0.999945,0.999945,0,0,0,0,0,1.99992,0.999945,0,0,0,0,-3.99941,-0.999839,5.9996,-0.999772,0.999945,2.99982,0,-1.99991,0,1.99989,0,0.999928,0,0,0,0,0,0,0,0.999928,-2.50909e-05,1.99989,0,0,0,0,-1.99977,2.99982,0.999945,0,0,0.99992,0,0.00150545,6.00053,-3.99904,0.000261818,-5.99941,-4.99945,1.00021,-7.99922,-9.99953,6.99962,0,-12.9989,-9.99887,5.99967,9.99928,-8.99957,18.9988,0,-0.999425,5.99957,8.99931,4.99973,-0.000200727,-9.99887,-9.99912,-9.99887,-7.9991,-3.99945,6.99962,0,0.999876,-0.999625,0,3.27273e-05,3.27273e-05,3.27273e-05,3.27273e-05,3.27273e-05,3.27273e-05,3.27273e-05,-0.999912,-0.999953,0.999945,0,-0.999912,-0.999887,0.999945,0.999928,-0.999953,1.99987,0,5.78182e-05,0.999928,0.99992,0.999945,-2.50909e-05,-0.999887,-0.999912,-0.999887,-0.999887,3.27273e-05,0.999945,0,-7.63636e-06,3.27273e-05,15.9991,-0.999887
