0,0,0,0,0,0,0,0,0,0,0,0,0,0,0,0,0,0,0,0,0,0,0,0,0,0,0,0,0,0,0,0,0,0,0,0,0,0,0,0,0,0,0,0,0,0,0,0,0,0,0,0,0,0,0,0,0,0,0,0,0,0,0,0,0,0,0,0,0,0,0,0,0,0,0,0,0,0,0,0,0,0,0,0,0,0,0,0,0,0,0,0,0,0,0,0,0,0,0,0,0,0,0,0,0,0,0,0,0,0,0,0,0,0,0,0,0,0,0,0,0,0,0,0,0,0,0,0,0,0,0,0,0,0,0,0,0,0,0,0,0,0,0,0,0,0,0,0,0,0,0,0,0,0,0,0,0,0,0,0,0,0,0,0,0,0,0,0,0,0,0,0,0,0,0,0,0,0,0,0,0,0,0,0,0,0,0,0,0,0,0,0,0,0,0,0,0,0,0,0,0,0,0,0,0,0,0,0,0,0,0,0,0,0,0,0,0,0,0,0,0,0,0,0,0,0,0,0,0,0,0,0,0
0,0,0,0,0,0,0,0,0,0,0,0,0,0,0,0,0,0,0,0,0,0,0,0,0,0,0,0,0,0,0,0,0,0,0,0,0,0,0,0,0,0,0,0,0,0,0,0,0,0,0,0,0,0,0,0,0,0,0,0,0,0,0,0,0,0,0,0,0,0,0,0,0,0,0,0,0,0,0,0,0,0,0,0,0,0,0,0,0,0,0,0,0,0,0,0,0,0,0,0,0,0,0,0,0,0,0,0,0,0,0,0,0,0,0,0,0,0,0,0,0,0,0,0,0,0,0,0,0,0,0,0,0,0,0,0,0,0,0,0,0,0,0,0,0,0,0,0,0,0,0,0,0,0,0,0,0,0,0,0,0,0,0,0,0,0,0,0,0,0,0,0,0,0,0,0,0,0,0,0,0,0,0,0,0,0,0,0,0,0,0,0,0,0,0,0,0,0,0,0,0,0,0,0,0,0,0,0,0,0,0,0,0,0,0,0,0,0,0,0,0,0,0,0,0,0,0,0,0,0,0,0,0
0,0,0,0,0,0,0,0,0,0,0,0,0,0,0,0,0,0,0,0,0,0,0,0,0,0,0,0,0,0,0,0,0,0,0,0,0,0,0,0,0,0,0,0,0,0,0,0,0,0,0,0,0,0,0,0,0,0,0,0,0,0,0,0,0,0,0,0,0,0,0,0,0,0,0,0,0,0,0,0,0,0,0,0,0,0,0,0,0,0,0,0,0,0,0,0,0,0,0,0,0,0,0,0,0,0,0,0,0,0,0,0,0,0,0,0,0,0,0,0,0,0,0,0,0,0,0,0,0,0,0,0,0,0,0,0,0,0,0,0,0,0,0,0,0,0,0,0,0,0,0,0,0,0,0,0,0,0,0,0,0,0,0,0,0,0,0,0,0,0,0,0,0,0,0,0,0,0,0,0,0,0,0,0,0,0,0,0,0,0,0,0,0,0,0,0,0,0,0,0,0,0,0,0,0,0,0,0,0,0,0,0,0,0,0,0,0,0,0,0,0,0,0,0,0,0,0,0,0,0,0,0,0
0,0,0,0,0,0,0,0,0,0,0,0,0,0,0,0,0,0,0,0,0,0,0,0,0,0,0,0,0,0,0,0,0,0,0,0,0,0,0,0,0,0,0,0,0,0,0,0,0,0,0,0,0,0,0,0,0,0,0,0,0,0,0,0,0,0,0,0,0,0,0,0,0,0,0,0,0,0,0,0,0,0,0,0,0,0,0,0,0,0,0,0,0,0,0,0,0,0,0,0,0,0,0,0,0,0,0,0,0,0,0,0,0,0,0,0,0,0,0,0,0,0,0,0,0,0,0,0,0,0,0,0,0,0,0,0,0,0,0,0,0,0,0,0,0,0,0,0,0,0,0,0,0,0,0,0,0,0,0,0,0,0,0,0,0,0,0,0,0,0,0,0,0,0,0,0,0,0,0,0,0,0,0,0,0,0,0,0,0,0,0,0,0,0,0,0,0,0,0,0,0,0,0,0,0,0,0,0,0,0,0,0,0,0,0,0,0,0,0,0,0,0,0,0,0,0,0,0,0,0,0,0,0
0,0,0,0,0,0,0,0,0,0,0,0,0,0,0,0,0,0,0,0,0,0,0,0,0,0,0,0,0,0,0,0,0,0,0,0,0,0,0,0,0,0,0,0,0,0,0,0,0,0,0,0,0,0,0,0,0,0,0,0,0,0,0,0,0,0,0,0,0,0,0,0,0,0,0,0,0,0,0,0,0,0,0,0,0,0,0,0,0,0,0,0,0,0,0,0,0,0,0,0,0,0,0,0,0,0,0,0,0,0,0,0,0,0,0,0,0,0,0,0,0,0,0,0,0,0,0,0,0,0,0,0,0,0,0,0,0,0,0,0,0,0,0,0,0,0,0,0,0,0,0,0,0,0,0,0,0,0,0,0,0,0,0,0,0,0,0,0,0,0,0,0,0,0,0,0,0,0,0,0,0,0,0,0,0,0,0,0,0,0,0,0,0,0,0,0,0,0,0,0,0,0,0,0,0,0,0,0,0,0,0,0,0,0,0,0,0,0,0,0,0,0,0,0,0,0,0,0,0,0,0,0,0
0,0,0,0,0,0,0,0,0,0,0,0,0,0,0,0,0,0,0,0,0,0,0,0,0,0,0,0,0,0,0,0,0,0,0,0,0,0,0,0,0,0,0,0,0,0,0,0,0,0,0,0,0,0,0,0,0,0,0,0,0,0,0,0,0,0,0,0,0,0,0,0,0,0,0,0,0,0,0,0,0,0,0,0,0,0,0,0,0,0,0,0,0,0,0,0,0,0,0,0,0,0,0,0,0,0,0,0,0,0,0,0,0,0,0,0,0,0,0,0,0,0,0,0,0,0,0,0,0,0,0,0,0,0,0,0,0,0,0,0,0,0,0,0,0,0,0,0,0,0,0,0,0,0,0,0,0,0,0,0,0,0,0,0,0,0,0,0,0,0,0,0,0,0,0,0,0,0,0,0,0,0,0,0,0,0,0,0,0,0,0,0,0,0,0,0,0,0,0,0,0,0,0,0,0,0,0,0,0,0,0,0,0,0,0,0,0,0,0,0,0,0,0,0,0,0,0,0,0,0,0,0,0
0,0,0,0,0,0,0,0,0,0,0,0,0,0,0,0,0,0,0,0,0,0,0,0,0,0,0,0,0,0,0,0,0,0,0,0,0,0,0,0,0,0,0,0,0,0,0,0,0,0,0,0,0,0,0,0,0,0,0,0,0,0,0,0,0,0,0,0,0,0,0,0,0,0,0,0,0,0,0,0,0,0,0,0,0,0,0,0,0,0,0,0,0,0,0,0,0,0,0,0,0,0,0,0,0,0,0,0,0,0,0,0,0,0,0,0,0,0,0,0,0,0,0,0,0,0,0,0,0,0,0,0,0,0,0,0,0,0,0,0,0,0,0,0,0,0,0,0,0,0,0,0,0,0,0,0,0,0,0,0,0,0,0,0,0,0,0,0,0,0,0,0,0,0,0,0,0,0,0,0,0,0,0,0,0,0,0,0,0,0,0,0,0,0,0,0,0,0,0,0,0,0,0,0,0,0,0,0,0,0,0,0,0,0,0,0,0,0,0,0,0,0,0,0,0,0,0,0,0,0,0,0,0
0,-2.62953e+06,-705895,592114,-192599,399846,206145,0,-51912,50519,101038,542381,0,211635,-432298,0,0,1877,-226496,-168217,-662940,-476353,1.09008e+06,-73651,-167979,0,-241099,0,-533162,74022,948424,0,216856,0,-32786,231814,-714424,38453,262572,-849904,0,54455,0,-175977,-212247,309310,134280,556696,0,0,-167916,0,0,389286,496190,869592,0,67237,0,-226496,0,0,-264704,646774,38586,-123173,0,356624,-893225,-1.72554e+06,-204165,-168217,-1.01815e+06,0,-235936,0,0,0,0,0,-640574,-336434,244173,0,0,0,-1.05358e+06,146430,-647507,210877,-298818,0,0,0,0,959147,316791,0,-557483,0,0,0,0,0,0,0,0,1.86002e+06,50519,101038,122034,131286,0,753676,-336434,172291,0,0,0,2.00871e+06,499489,282076,0,26578,0,0,0,-113477,210051,2.53582e+06,0,309310,0,-1.35391e+06,157512,-60133,470666,41010,237531,0,-1.67775e+06,35916,-452992,113686,0,-469778,-148031,408216,203135,-1.66542e+06,37459,0,2.0067e+06,680468,-2.41445e+06,-1.23435e+06,-167979,0,34030,0,182023,556581,774209,-152761,40568,0,-1.44794e+06,529917,1.80914e+06,-272020,-813803,1.14578e+06,-348240,-297117,-4.61688e+06,-1.75286e+06,1.22291e+06,373864,512413,-2.63559e+06,1.84859e+06,-2.00956e+06,-3.1442e+06,1.63892e+06,493737,620034,-922032,-2.71159e+06,-2.39116e+06,293141,2.1486e+06,664348,0,-1.68259e+06,3.0119e+06,424612,-1.02758e+06,539882,0,-34824,-34824,-34824,-34824,-34824,-34824,-34824,-34824,-449453,-217975,175687,81446,38855,-254612,158394,-138996,-497566,144988,314685,330821,-34824,-454904,-436035,-24782,214860,21618,0,-214721,459681,543024,-114175,40568,616746,-434105
0,-121928,-142579,-328563,10737,4933,-74977,21304,43303,59334,48032,-34687,0,10652,143989,0,-48352,0,-34687,-7387,346368,-65445,222418,0,64962,0,22364,0,90,-13000,69195,0,30823,0,-169979,71318,19789,-51167,0,-104725,0,0,-73341,44240,-18762,0,0,-19265,0,-4890,31878,0,0,87492,144563,66865,0,-15342,0,61056,0,0,-38693,0,0,39404,0,-359421,-18998,-32884,-109394,-4890,-267592,10652,0,-4890,32108,4816,0,0,-216552,0,0,0,0,0,-43703,-145915,-33778,0,-43703,0,-118528,10652,90,-4890,-105722,0,0,0,0,0,0,0,0,0,0,16934,14015,28030,0,0,0,54575,0,0,90,0,0,-123208,-69413,182568,0,21999,0,-35248,0,65169,14015,-114915,0,0,0,32065,-37510,359120,31026,-119522,-112694,53260,-248968,59429,-177447,-19219,0,52431,-500801,25967,53168,0,0,0,-10327,-35810,-276380,0,-54214,21999,-27942,10652,41791,-26475,-127514,0,60361,0,-22198,-6540,86282,68149,117471,557980,-109030,27461,44043,374445,-16583,-204530,179707,-495805,391943,-183396,276852,114017,-92730,-156657,152246,616951,1664,287609,98031,-373513,85216,223230,-192937,-299374,-296450,482888,0,-251,-251,-251,-251,-251,-251,-251,-16127,-251,37709,-3978,-20453,24279,-105387,41791,-18836,30882,7933,-21192,7933,-251,59292,208,24130,12003,-52218,10652,33037,-26549,-57833,-29645,60361,-393941,21381
0,-2.89291e+07,-8.24147e+06,-1.00288e+06,140982,-1.10387e+06,-2.55892e+06,0,9.08018e+06,5.67796e+06,-2.07899e+07,705303,-744315,25048,328543,-3.66044e+06,0,-2.18903e+06,627634,0,-1.81761e+07,1.28655e+06,-208764,627634,0,0,2.51054e+06,0,712787,446304,4.44999e+06,0,1.86795e+06,0,2.3394e+07,4.6173e+06,-1.04823e+06,-2.34216e+06,0,827163,0,0,1.15592e+06,-2.33799e+06,0,0,0,254965,180927,0,0,0,0,3.76493e+07,-1.98316e+06,158005,0,0,0,0,1.21667e+06,264097,1.31836e+06,1.21667e+06,0,728854,0,436814,2.98834e+06,-2.58269e+06,2.44888e+06,-1.10387e+06,1.35612e+06,-4.19714e+06,2.51054e+06,-2.18255e+06,726013,-2.18255e+06,0,94215,2.47194e+06,-1.83022e+06,0,0,0,1.22917e+06,4.80275e+06,0,26659,3.13817e+06,0,0,0,0,7484,-1.83022e+06,-744315,0,0,0,0,0,0,0,0,0,0,1.6454e+06,0,302457,0,847142,0,448905,-1.28744e+06,0,1.24535e+06,0,0,1.11632e+07,-73509,-3.63618e+06,0,0,0,0,361854,25732,0,767516,0,25048,0,-2.43796e+06,2.31266e+06,-7.33943e+06,-1.63295e+06,2.72586e+06,1.00273e+07,723708,4164,432249,1.40116e+06,216282,2.9082e+06,1.01797e+06,-3.51185e+06,-3.09731e+06,-2.18255e+06,-3.40033e+06,0,1.21667e+06,1.12491e+07,7.1909e+06,-2.00537e+06,627634,0,0,119263,-1.82718e+06,-2.67069e+06,-1.38747e+06,-2.50661e+06,0,-418624,0,-5.19956e+06,-1.79024e+06,9.36903e+06,-7.02248e+06,-1.42239e+06,-1.0556e+07,-3.06639e+06,1.77364e+06,4.41492e+06,-1.26067e+07,5.07215e+06,-1.01227e+06,7.70562e+06,-2.42859e+07,6.38842e+06,-1.6164e+07,-3.90787e+06,7.66148e+06,-1.95044e+07,5.34848e+06,-7.01397e+06,-3.08575e+06,-1.15342e+07,-6.04827e+06,6.89347e+06,271151,-1.97908e+07,-1.02791e+07,-1.35144e+07,-4.17053e+06,2.46871e+07,-3.34899e+06,0,-113034,-113034,-113034,-113034,-113034,-113034,-113034,1.50139e+06,1.04679e+06,-113034,466948,199876,884286,-2.42893e+06,-330606,-1.83465e+06,-825188,828911,-1.52643e+06,5.20368e+06,-113034,-863861,-892594,-604827,689347,290095,-2.00394e+06,-1.19397e+06,-1.49675e+06,-98727,2.5035e+06,-418624,1.66179e+07,-5.11623e+06
0,-67239,-18659,-71659,-54824,-21022,-48543,0,-40705,-14586,-31852,895,0,0,-41393,-3214,0,0,15965,7442,-68098,-68458,8867,0,0,0,0,0,0,-3281,-68372,0,0,0,111024,-57266,-84325,-74501,-38740,-21115,0,0,-14111,-12168,0,0,0,599,0,0,0,0,781,-16983,29205,11054,0,0,0,781,0,-15536,0,19786,0,0,0,42656,11467,1425,60230,0,13488,0,0,3628,0,0,0,0,38830,0,0,0,11467,0,37818,18909,0,0,0,0,0,0,0,1300,0,0,0,0,0,0,0,0,0,0,0,37154,0,0,0,0,2600,30155,0,0,0,8398,0,6079,3678,-5317,0,19786,0,781,0,0,2081,59559,0,0,0,47051,-16390,5897,-47752,-17027,-21056,0,-131989,-9702,-94037,-26919,-26955,-6611,-70715,26716,4114,-18082,0,0,112449,-884,-83774,-48923,0,0,0,0,-2785,22830,-36835,0,19786,0,-37974,108335,166822,26530,83949,84386,8950,64610,109556,-71983,15188,-42935,-144919,347884,158288,44836,-162738,-13120,-322004,161903,26500,-177830,138099,-71416,220570,-64333,0,-47189,-50550,107695,139840,158288,0,895,895,895,895,895,895,895,-7093,6003,-21004,895,-6989,-14893,30536,18179,4895,-18082,2271,-36201,23129,895,-24700,11147,-5163,22057,-6199,0,-6551,-2762,4810,13984,19786,-134559,15131
0,1.90215e+06,-8.8284e+06,-1.13101e+08,2.42556e+07,0,1.60801e+08,0,3.58006e+07,0,0,3.23613e+07,7.18848e+07,3.23613e+07,-1.53786e+07,1.48811e+06,0,0,0,3.23613e+07,-8.45246e+07,-4.84286e+07,4.10531e+07,0,0,0,417038,0,-8.75737e+07,5.2434e+07,-6.457e+07,0,-5.86429e+07,0,-1.02074e+07,4.99409e+06,4.24867e+07,-3.00318e+07,0,-8.22329e+07,0,0,0,-2.87635e+06,0,-1.4338e+08,0,-2.76529e+07,0,0,0,0,0,-9.24491e+07,5.21591e+07,-3.85263e+07,0,0,0,149010,0,-8.03714e+06,-5.69676e+07,5.55269e+07,0,1.54534e+07,0,-1.14739e+07,2.13628e+07,6.95409e+07,-2.74876e+06,0,2.15713e+07,0,0,0,0,0,1.18275e+07,0,2.15713e+07,-2.1877e+06,0,50965,0,0,6.09785e+07,-4.94047e+07,2.13628e+07,0,0,0,259484,0,2.75858e+07,-2.1877e+06,-2.13674e+06,0,1.8967e+07,0,0,0,0,0,0,0,0,3.58814e+07,0,0,-2.64977e+07,6.99702e+07,0,6.91039e+07,-2.07689e+06,0,128249,0,0,1.26132e+08,4.91912e+07,3.61068e+07,0,179214,0,199975,0,4.3512e+07,9.84301e+06,4.85391e+06,0,26933,0,-4.24312e+07,-3.20561e+07,-4.48826e+07,-8.47118e+06,2.78159e+07,-4.30438e+07,0,134665,0,0,2.01527e+06,9.59441e+06,5.94243e+06,-8.14254e+06,1.28381e+07,3.23613e+07,179214,-3.84825e+06,0,-2.16978e+07,-8.54262e+07,5.73156e+07,0,50965,0,648300,0,-4.51392e+07,6.67832e+06,4.24005e+06,0,3.06054e+06,0,-8.80598e+06,1.90998e+07,4.95956e+07,1.52775e+06,-2.62882e+07,-5.55677e+07,1.90969e+06,-2.29363e+07,0,1.35784e+07,5.85661e+07,-4.55183e+07,-1.73619e+07,-3.77492e+07,-2.28176e+07,3.20453e+06,3.75242e+06,-3.28421e+07,-5.65394e+07,1.79833e+08,1.049e+08,-8.80222e+07,-6.90277e+07,-4.4284e+07,-3.58945e+07,5.18224e+06,0,2.3392e+07,-9.36864e+06,-1.89015e+07,5.0567e+07,2.44844e+07,0,190969,190969,190969,190969,190969,190969,190969,4.88802e+06,0,851439,6.64449e+06,190969,2.09418e+06,-5.52156e+06,-1.2756e+06,3.55658e+06,411085,-3.66904e+06,826396,5.04888e+06,190969,2.92898e+06,-8.62846e+06,-4.40538e+06,-3.58945e+06,685605,0,-4.62604e+06,-726507,-2.0831e+06,5.0567e+06,3.06054e+06,1.97113e+07,1.01472e+07
0,-463092,69713,-86201,-17263,68938,-101857,-102632,0,0,-102632,0,0,-5387,0,0,34469,0,0,0,-604963,0,-307896,0,0,0,0,-205264,0,34469,172345,0,-209096,0,-86201,-205049,510882,172617,0,-418192,-102632,0,0,-91803,0,0,0,0,0,0,34469,0,0,351879,0,0,0,0,0,0,0,0,-106464,0,0,51947,0,552592,138148,-74780,0,0,0,0,0,0,117293,0,0,0,0,0,0,0,0,0,0,0,0,0,0,0,0,0,0,117293,0,0,0,0,0,0,0,0,0,0,0,0,0,-106464,0,0,0,0,0,0,0,0,0,10829,-5387,0,0,0,0,0,0,0,34469,345234,0,0,0,-428623,230781,-209604,35244,-178459,241395,-410528,0,51947,-205264,34469,0,51947,0,0,0,0,0,0,-252976,22433,-102632,0,0,0,10829,-102632,0,10829,242042,0,-178004,0,-247802,-395203,-248037,-77565,66425,235558,972450,452980,467523,-529160,310221,344690,-100430,519470,0,-716099,418511,-506850,0,241283,-70916,-615792,0,519470,0,97461,-718424,519470,362384,104539,-398560,-318848,0,-5387,-5387,-5387,-5387,-5387,-5387,-5387,45298,51947,-91803,34469,34469,-5387,51947,0,-68163,45298,-50685,0,-57334,-5387,-102632,0,51947,0,10829,-102632,51947,45298,86416,-39856,-39856,-580676,10829
0,-5.34986e+06,3.84118e+07,1.6367e+07,6.84855e+07,-7.28369e+06,8.15335e+07,0,1.91011e+07,3.35304e+07,6.66922e+06,3.50258e+07,-4.35142e+07,0,8.09762e+07,-7.94563e+06,3.302e+06,2.03929e+07,-373864,2.20296e+07,-7.90247e+07,-9.29185e+07,5.21146e+07,-1.31474e+07,2.14163e+07,0,3.64857e+07,-7.69974e+06,2.0038e+07,4.7393e+07,-1.13002e+07,0,1.63675e+07,0,-1.12584e+08,-8.19493e+07,-2.15157e+06,-1.07985e+08,-7.69534e+06,-9.08789e+07,-7.89891e+07,837851,-2.8081e+07,1.38058e+06,-5.2949e+06,1.92374e+07,0,-1.12844e+08,0,0,-1.71242e+07,3.6326e+06,2.49718e+07,4.31211e+07,3.77163e+07,139375,645431,69869,0,3.13384e+07,2.92664e+07,9.2455e+06,-1.60388e+07,6.58367e+07,0,1.57716e+07,0,6.05336e+07,1.89551e+07,1.56935e+07,2.07345e+07,-1.51341e+06,-1.52672e+07,-2.11561e+07,-2.29074e+06,-3.2166e+07,605293,-3.70209e+07,3.14201e+07,0,1.11656e+06,0,0,1.76054e+06,0,-6.88062e+06,-3.91031e+07,-5.71633e+07,1.92796e+07,2.95086e+07,-4.05243e+06,0,2.97063e+07,-3.70408e+07,1.4803e+07,-6.4555e+07,2.25973e+07,0,-6.08772e+07,0,0,0,0,0,0,0,0,-2.16692e+07,-1.1151e+07,2.48564e+07,1.41807e+07,5.09829e+07,0,7.55871e+07,-3.12188e+06,0,3.36815e+06,1.57583e+07,0,5.12427e+07,-4.282e+07,-3.26335e+07,0,-1.42626e+07,0,-2.56754e+07,0,4.28636e+06,2.71651e+07,3.17536e+07,0,2.83083e+07,0,-4.35177e+07,8.00421e+06,-3.46357e+07,-1.02844e+07,-2.54513e+07,5.74289e+07,1.97038e+07,-2.19462e+07,3.99303e+07,-3.10093e+07,6.85738e+06,2.24132e+07,-5.96722e+06,-3.68414e+07,-5.64595e+07,1.00813e+07,-5.43139e+06,3.08955e+07,1.77774e+07,4.20242e+07,5.27868e+07,-3.44705e+07,-2.72727e+07,-883740,0,2.56531e+06,2.76522e+07,-1.83995e+07,-2.60135e+07,3.58996e+06,7169,5.23141e+06,0,-1.93708e+07,1.20587e+07,1.17508e+07,3.92327e+07,3.88768e+07,-3.58832e+07,2.72244e+07,-3.32486e+07,-2.31018e+07,1.63814e+07,-1.78732e+07,-3.10142e+07,-6.6501e+06,1.89213e+07,1.10719e+07,1.03418e+07,-3.11948e+07,3.77957e+07,-7.52697e+06,3.81918e+07,8.06397e+07,-2.21904e+07,2.44419e+07,2.27026e+06,-3.18195e+07,-2.5973e+07,6.1044e+06,-2.93698e+07,-3.24918e+06,-3.1979e+07,2.06501e+07,1.69902e+07,0,-383367,-383367,-383367,-383367,-383367,-383367,-383367,-6.75165e+06,-3.08066e+06,2.02569e+06,-1.46042e+06,4.95252e+06,-1.26173e+06,-383367,-5.64551e+06,2.37251e+06,-2.82288e+06,6.05123e+06,2.43923e+06,-323342,-383367,-2.29675e+06,1.77198e+06,-825464,-3.18195e+06,2.37092e+06,1.82825e+06,60364,-3.52984e+06,-294235,2.06572e+06,2.46907e+06,-2.89921e+06,-2.35907e+07
0,186434,306871,5266,105879,0,46323,3064,0,0,86103,0,45498,0,1532,43122,0,0,0,0,301999,13351,3064,0,0,0,0,173738,0,45498,0,1532,40519,0,-31504,-215675,7899,-181503,2633,-17692,3064,0,0,0,0,0,0,0,177185,0,0,0,0,86103,23365,0,0,0,0,0,0,0,0,0,0,-14521,0,-157336,-29664,-92158,-18426,-92158,-123354,-117816,0,0,45498,-32728,13351,0,-90626,14729,0,0,0,13351,96521,-19377,3064,0,0,0,0,0,0,-32301,-45652,0,0,0,0,0,0,0,0,0,0,0,0,0,0,0,0,0,-35701,2633,0,0,0,142968,-5352,0,0,0,0,0,-62738,0,0,90996,0,0,0,70375,-72064,26485,-94050,-135604,-166371,-61206,0,0,-108817,-32728,0,13351,-319489,-274003,15984,-46079,0,0,-163341,46730,1532,2633,0,0,0,49794,-92466,-19531,0,0,25998,0,-286245,-163193,-54532,-42816,182313,218278,49279,0,0,-72302,-261824,378753,120159,-36887,65566,156543,-414711,248970,-223683,24990,-112237,7660,17199,258440,41650,-460790,150914,-369864,-322486,-1232,13788,207984,0,-5352,-5352,-5352,-5352,-5352,-5352,-5352,0,0,-9517,-32728,39195,13351,-44547,-5352,17516,-46079,24897,-6884,40881,-5352,1532,2479,25844,4165,-46079,24897,-46233,-32882,-154,1532,25998,-83634,53221
0,-876,0,-219,-219,-219,270,0,0,-438,-219,0,0,0,0,0,270,0,0,0,0,0,0,0,0,0,0,0,0,-219,0,0,0,0,489,-438,0,-219,0,-219,0,0,0,0,0,0,0,0,0,-219,0,489,0,489,978,0,0,0,0,-219,0,0,0,0,0,0,0,-657,0,978,0,759,489,0,0,-219,0,0,0,0,0,0,0,0,0,0,1467,0,0,0,0,0,978,0,0,-219,0,0,0,0,0,0,0,0,0,0,0,0,0,0,0,0,0,0,0,0,0,0,0,1467,270,0,0,0,0,0,0,0,0,0,0,489,0,-1533,-774,321,-657,270,810,0,0,0,-438,0,0,0,0,0,489,0,0,0,1467,978,0,0,0,0,489,0,0,0,0,0,489,0,11931,8064,4758,2160,1350,810,2700,0,-1314,-1533,0,-2190,0,0,0,2160,2700,4401,0,0,-15,0,0,-2190,4890,1452,0,2700,-1752,0,4890,3912,0,270,270,270,270,270,270,270,0,-219,-219,0,-219,0,0,0,270,270,489,0,489,270,0,0,-219,489,270,0,270,-219,0,489,489,2904,489
0,13880,4910,-48194,77677,0,33983,0,0,29392,0,0,0,0,140977,-49948,0,-3352,0,1008,41610,15995,104004,0,47533,0,27715,-31812,67593,104305,-36757,0,9053,0,-206019,34254,-95696,-18115,27715,-203605,0,7378,0,-45959,0,-95436,0,111529,0,0,0,0,-24974,8386,0,31142,0,9564,0,0,-31812,62013,38520,-22248,0,1907,0,-53822,-4865,7378,-118432,-92160,29271,0,0,0,58784,0,27715,0,-232745,0,5851,0,0,18106,-11205,7378,-132137,0,-4097,0,-90558,0,-273689,-75351,-35128,0,-20391,0,0,0,0,0,0,0,0,-2651,0,0,0,-28700,0,293684,-49948,0,9053,0,0,48911,3803,139011,0,0,0,47533,0,60534,18280,197168,0,0,0,-262823,54364,49805,-8944,-13653,80861,0,-24974,0,-50461,0,55430,-95436,3626,29392,5851,-135792,0,0,-78152,75256,-337271,-199792,-94655,0,118378,0,76072,13876,143833,0,19961,0,-29322,-224466,-8048,-26816,51282,32674,220976,127697,264528,49046,0,-319029,49456,-101264,114684,46808,96571,294970,-162950,381950,-135952,-180174,0,-3275,0,-102018,-153886,-65113,114481,-440928,-133380,159688,0,-3352,-3352,-3352,-3352,-3352,-3352,-3352,10745,29392,1141,0,-36002,-4598,22486,4418,5851,-3352,29497,-26695,39150,-3352,-44922,-24974,-4493,0,105,-21751,-7259,13876,-19406,-13338,19961,-37568,98790
0,3.76755e+06,0,0,-1.439e+06,0,3.57821e+06,0,0,3.97456e+06,0,2.37036e+06,0,0,3.08966e+06,0,663325,0,-3.23768e+06,0,-9.98997e+06,-1.90756e+06,-146876,0,0,0,0,0,0,0,1.57676e+06,0,0,0,-5.64605e+06,-544482,-174218,3.47982e+06,0,161608,0,0,-578517,0,0,0,0,-2.39947e+06,0,0,0,0,0,3.13052e+06,-388342,-74671,0,0,0,0,-47329,0,0,0,0,1.4397e+06,0,-322935,512389,2.16197e+06,-1.8029e+06,1.32665e+06,-479698,-47329,0,0,0,-901452,0,0,-3.80926e+06,0,835324,0,612244,0,2.04595e+06,-3.80926e+06,0,0,0,0,2.16197e+06,-146876,0,0,612244,0,661106,0,0,0,0,0,0,0,0,0,-2.49217e+06,0,-1.49993e+06,0,0,798041,0,0,0,1.69718e+06,0,1.42578e+07,1.9123e+06,-174218,0,0,0,0,0,0,0,-3.74149e+06,0,663325,0,-2.60406e+06,870482,656939,-1.32157e+06,663325,2.28462e+06,-47329,0,0,0,291911,-645870,0,-31024,0,1.32443e+06,0,0,0,-1.66768e+06,-1.59813e+06,0,0,0,0,270150,-443094,-1.69857e+06,-645870,-648618,0,48603,0,145309,-3.13632e+06,-2.29312e+06,463567,-1.84934e+06,-5.4041e+06,2.39126e+06,0,2.6272e+06,0,-571127,-2.58348e+06,-5.44482e+06,2.62033e+06,0,-2.33705e+06,2.7015e+06,1.10404e+06,-1.77238e+06,-1.84689e+06,4.46814e+06,-1.59816e+06,-2.58348e+06,0,2.39126e+06,269376,-1.55083e+06,5.10371e+06,-2.58348e+06,5.12022e+06,5.62061e+06,388824,0,17579,17579,17579,17579,17579,17579,17579,0,291911,0,-31024,-322935,-544482,-31024,0,48603,270150,17579,-221547,17579,17579,-221547,-322935,0,239126,270150,-221547,340514,-322935,291911,562061,48603,-2868,17579
0,-31368,-17854,-14690,-23029,15238,-7345,0,0,3712,7814,3712,0,0,19755,0,0,-4913,0,-323,3187,-994,-4913,0,0,0,3712,0,7814,7814,-994,-7345,10153,0,-14868,7773,-10215,-1420,0,-10216,0,0,0,-12727,512,0,0,3712,0,0,-1435,0,0,0,1842,7814,0,0,0,3712,2339,15628,0,0,0,-5423,0,-6663,-12727,-1435,-1846,-19075,4944,2339,0,0,0,0,0,0,-50396,-2870,0,0,0,0,1024,512,-12727,0,0,0,0,7304,-50908,-12727,-1435,0,0,0,0,0,0,0,0,0,0,14848,0,14608,0,0,0,67277,-2870,0,14608,0,0,18001,189,18027,0,0,0,3712,0,7814,11526,24251,0,0,0,-67577,14133,-12375,-35279,6223,3522,4678,11543,3712,19390,512,0,0,8779,-1988,0,-5611,0,-497,-26755,-11880,-29072,-10456,0,0,0,4678,-9826,-1201,25099,0,4730,0,-7683,-1015,32255,286,-4970,6511,-24281,15824,-47466,-19375,37504,-4970,0,-33037,-11592,37120,6911,-73450,-21771,35018,7101,-65039,-904,-50060,0,31104,82109,-10462,-4695,30189,-115235,37840,0,-323,-323,-323,-323,-323,-323,-323,4078,-3633,971,4224,-497,0,1609,-1932,3712,956,-7345,-323,2313,-323,-9469,-1420,-5006,0,4224,9643,-3994,-1201,7711,-12258,4730,-3072,4631
0,-3.85097e+08,3.96699e+08,-1.28698e+08,-3.96828e+09,7.59666e+08,8.3155e+08,3.13323e+09,-1.09603e+09,1.01625e+09,4.00935e+09,1.41002e+09,-3.12088e+09,-1.27605e+08,1.18546e+09,-3.09544e+09,4.72296e+09,1.79165e+09,-8.66143e+08,1.97999e+09,-2.49964e+09,5.23846e+08,6.81133e+08,-8.56274e+08,-3.8781e+09,1.02086e+07,5.44732e+09,5.10792e+07,6.56643e+09,2.4781e+09,4.52345e+09,-1.89213e+06,1.16437e+09,0,-3.76275e+09,-4.81192e+09,-4.11378e+09,-3.58376e+09,1.25241e+09,-2.55115e+09,-4.55115e+08,1.49055e+09,-4.71779e+09,2.51936e+09,1.17434e+09,8.02825e+08,0,4.91607e+08,3.81608e+09,-7.05682e+08,-6.45223e+08,3.38257e+07,-1.42075e+09,-4.59961e+09,5.48697e+09,-3.16674e+09,8.49169e+08,1.12185e+07,0,-8.85404e+08,6.32008e+09,1.62579e+08,1.13955e+08,7.36281e+09,0,1.72575e+09,0,3.46897e+09,-1.51195e+09,-4.58599e+09,-2.79913e+09,1.74964e+09,3.1785e+09,1.45864e+09,7.77209e+08,1.10016e+10,1.04113e+09,5.54501e+08,8.10143e+08,-2.99648e+09,-1.46308e+09,4.74525e+07,589291,1.51573e+08,3.93316e+08,4.3536e+08,-2.57725e+09,-3.18865e+09,-3.95222e+09,7.59616e+08,1.26723e+09,0,-6.15378e+09,-1.95556e+09,-2.53811e+09,4.87514e+09,2.06345e+09,-6.2071e+08,1.53604e+09,0,0,0,0,0,0,0,0,2.96864e+09,-1.67678e+09,-5.09743e+08,-1.98236e+09,4.76628e+09,3.11791e+09,-3.40989e+08,8.12118e+08,-1.75604e+09,2.4733e+09,1.0048e+08,0,5.51028e+08,-2.99245e+09,6.31461e+08,0,41469,0,2.07307e+09,-3.13856e+08,-3.43632e+09,-5.32839e+09,4.87685e+09,0,-3.97372e+09,0,-1.15924e+09,-3.89775e+08,-1.63179e+09,-1.02434e+09,-2.23992e+09,-2.52417e+09,-9.8528e+08,3.08483e+08,5.37338e+08,-5.01849e+08,2.76992e+09,1.96261e+09,1.8897e+09,-4.89784e+09,-2.10689e+09,2.97445e+08,3.44792e+08,-4.04231e+09,3.30766e+09,-2.83232e+09,-1.82818e+09,-2.19976e+09,-7.66185e+08,3.34493e+08,6.40231e+08,2.26884e+07,-1.0888e+09,-7.27118e+07,2.58255e+07,-2.69887e+09,7.6088e+08,4.22819e+09,0,-2.63635e+09,1.12888e+09,9.74759e+08,4.79508e+08,-1.28035e+09,-1.13535e+08,2.40295e+09,6.72788e+08,2.13389e+08,1.17996e+09,-7.91892e+07,9.17094e+08,1.02329e+09,8.46915e+08,-5.93472e+08,6.44336e+08,9.05473e+08,5.1635e+08,7.30006e+08,-1.68606e+09,2.09742e+08,1.31153e+09,1.03651e+09,1.36537e+09,1.89554e+09,6.16007e+08,2.05794e+09,2.00704e+09,2.76977e+08,2.10091e+09,-5.88311e+08,-1.71809e+09,0,3.01813e+07,3.01813e+07,3.01813e+07,3.01813e+07,3.01813e+07,3.01813e+07,3.01813e+07,4.64396e+08,8.49395e+08,1.1152e+09,1.63208e+08,2.86349e+08,2.87154e+08,-1.8396e+09,-7.29821e+08,3.2036e+08,5.0216e+08,-9.08868e+08,-5.15366e+08,3.01813e+07,3.01813e+07,-4.75713e+08,-4.26395e+08,1.82061e+07,2.99948e+08,-9.30631e+08,-6.29808e+07,2.35201e+08,2.20665e+08,1.08164e+09,-2.6761e+07,3.13711e+08,3.51923e+09,-4.25452e+09
0,-6.89078e+08,-1.16249e+08,-1.52667e+09,9.57561e+08,1.14146e+07,2.97499e+07,-6.75505e+07,-3.59163e+08,7.60913e+08,-1.23647e+07,8.03875e+08,5.03076e+08,54253,-8.56141e+08,307097,2.73411e+07,6.73156e+06,8.69593e+08,1.6447e+08,5.22753e+08,-1.79081e+08,3.27017e+08,3.50782e+07,-1.4884e+08,0,-4.84321e+08,3.44395e+07,-3.20305e+08,2.04294e+09,7.10256e+08,0,3.59788e+08,0,-2.06883e+08,-8.60453e+08,9.89744e+08,-9.78056e+08,-3.63904e+08,-2.52811e+09,4.56807e+07,4.1367e+07,-1.10611e+08,7.70474e+07,-6.36511e+08,-4.7752e+08,0,1.3032e+09,1.40546e+08,0,5.26789e+07,0,-2.44212e+09,6.41795e+08,-4.86386e+09,5.82365e+08,0,982915,0,-2.33787e+09,-1.65569e+08,3.86912e+07,-1.25415e+08,4.95987e+08,0,-1.17101e+09,0,7.71042e+08,9.80505e+08,-7.55734e+08,1.1501e+08,1.37431e+08,7.97914e+08,-2.13625e+09,-6.38727e+08,9.64798e+07,109507,4.75166e+08,-3.64904e+07,0,8.99265e+08,483145,1.23103e+07,4.22956e+07,0,1.2551e+08,-1.05415e+09,-1.39668e+09,-2.85465e+08,-9.12171e+08,1.72662e+08,0,-8.91192e+07,394900,4.5773e+07,2.51638e+09,-3.2735e+08,0,1.81824e+09,0,0,0,0,0,0,0,0,-9.86753e+08,1.30092e+09,1.35056e+06,-4.62608e+08,-1.02684e+09,33138,-6.25745e+08,5.34087e+08,1.96348e+06,6.06045e+07,4.04983e+08,0,1.00154e+09,-6.2996e+08,-5.97123e+08,0,4.19788e+07,0,-1.13255e+08,-4.69991e+08,2.2246e+08,-2.41886e+09,1.96276e+09,0,7.86946e+07,0,6.5206e+08,4.75261e+08,1.5076e+09,8.51953e+08,-8.81951e+08,1.63204e+09,1.64902e+09,-1.74027e+09,-8.31584e+08,7.83823e+08,-2.85006e+07,-4.7477e+08,5.15422e+08,1.67825e+08,2.00999e+08,2.11932e+08,1.92943e+08,-1.71186e+08,-1.13299e+08,-2.23788e+08,-5.09754e+08,-1.05364e+09,3.22745e+07,-1.25141e+07,2.59607e+09,-6.10665e+08,-5.1819e+08,-1.36653e+08,2.84447e+08,-1.66707e+08,-2.82821e+08,-1.7832e+07,0,1.6064e+08,1.10867e+08,1.07787e+08,1.91904e+08,1.10955e+09,8.09437e+07,-8.81435e+08,-2.88456e+08,-6.23049e+08,-1.82574e+08,-2.61849e+08,-7.81508e+08,2.42543e+08,-6.81177e+08,4.18474e+08,9.75773e+07,9.94912e+07,-1.23858e+08,-7.39302e+08,-1.00593e+09,1.06258e+09,1.45481e+08,-8.59479e+08,-2.38386e+08,-2.02818e+08,2.09203e+08,-8.22427e+08,-2.87437e+08,-4.48183e+08,4.37298e+08,-1.69043e+08,-3.31057e+07,0,1.56705e+06,1.56705e+06,1.56705e+06,1.56705e+06,1.56705e+06,1.56705e+06,1.56705e+06,-4.16846e+08,-2.20536e+08,8.48658e+07,-3.3042e+07,-2.07804e+08,7.58053e+07,1.20119e+08,1.2949e+08,3.51124e+07,4.54745e+07,-5.26133e+07,1.94993e+08,5.98055e+08,1.56705e+06,-1.77987e+08,-2.12823e+08,-3.36497e+07,2.32571e+08,-1.3733e+08,-1.71504e+08,-4.69251e+07,1.85099e+08,9.56159e+07,-4.51755e+07,-2.68598e+07,-3.08094e+08,1.77864e+08
0,-1.3203e+07,-3.54945e+07,4.18516e+06,-1.62801e+07,1.50331e+07,2.59874e+07,2.55689e+06,-4.50848e+06,-508925,9.47351e+06,3.24637e+06,2.3927e+07,113669,5.14072e+07,2.14441e+07,-8.61195e+06,-5.29303e+06,1.49717e+07,791193,-1.49862e+07,2.96522e+07,1.18598e+08,-2.76451e+07,-2.40436e+06,0,2.52049e+07,-8.36298e+06,2.54497e+07,2.96777e+07,-4.8473e+07,-117096,-2.59772e+07,0,-6.07547e+07,-2.29665e+07,-9.4077e+07,-3.98498e+06,1.39058e+07,1.34085e+07,6.97408e+06,15080,-1.58861e+07,1.25253e+07,751501,8.66848e+06,389798,3.51236e+07,1.27844e+06,0,3.61622e+06,0,-1.29537e+07,-9.28894e+06,-4.40215e+07,-1.00572e+08,8.1047e+06,978713,0,526714,-4.75162e+06,-7.23488e+06,-4.52291e+06,7.53857e+06,0,2.756e+07,0,1.34505e+06,-9.49604e+06,3.16236e+07,-4.89956e+06,-2.63718e+07,-2.44819e+07,3.01983e+07,-3.99694e+07,-1.29325e+07,4.7833e+06,-1.13705e+06,-1.02932e+07,0,-4.10925e+07,-1.92613e+07,0,4.92635e+06,8.88681e+06,0,-2.19759e+07,-648823,-7.08956e+06,21159,525114,0,-8.44812e+06,3.27985e+06,-3.06235e+06,-1.94052e+07,-1.3662e+06,-1.25772e+07,2.55789e+07,0,0,0,0,0,0,0,0,2.28897e+07,2.60595e+07,-3.59326e+07,166507,-1.74381e+07,36186,5.50259e+07,-1.65255e+06,0,-1.3385e+06,-3.10065e+07,0,5.30772e+07,2.30918e+07,-1.72002e+07,0,4.57113e+06,0,896271,9.32076e+06,-1.30472e+07,5.25694e+06,3.33396e+06,0,0,0,960824,1.60721e+07,1.0714e+07,7.6111e+06,2.5368e+07,-1.15298e+07,2.79617e+07,-2.08982e+06,-3.63085e+07,-1.63717e+07,4.43231e+06,-2.00661e+07,2.68271e+06,7.71251e+06,2.73145e+07,1.8223e+07,-3.05043e+06,8.53935e+06,3.07667e+06,-1.27078e+07,-1.28896e+07,-1.1933e+07,-5.76891e+06,1.13383e+07,0,3.52231e+06,-2.90475e+06,4.33548e+06,-4.05122e+06,-1.35071e+07,1.49516e+07,266249,0,-5.1799e+07,4.32128e+07,2.02345e+07,2.12035e+07,-3.31037e+07,-5.9706e+06,9.60306e+06,-1.89137e+07,1.00758e+07,2.2534e+07,9.67402e+06,2.9343e+07,2.16538e+07,7.98149e+06,-1.17015e+07,-6.27876e+06,-4.16518e+07,1.70679e+07,-2.06428e+07,1.47421e+07,888923,6.43933e+07,-471883,2.48743e+07,2.37152e+06,-1.99545e+06,-1.39387e+07,-1.88963e+06,-9.15116e+06,8.50931e+06,1.12335e+06,-1.28507e+07,0,-646065,-646065,-646065,-646065,-646065,-646065,-646065,-4.68249e+06,-4.22676e+06,-4.30272e+06,1.53367e+06,1.41411e+06,2.48762e+06,1.28993e+07,1.74217e+06,333230,-4.27912e+06,1.84593e+06,427459,-1.70193e+06,-646065,-646065,-4.44665e+06,3.37633e+06,237152,-47982,-1.8715e+06,221781,-1.11525e+06,-5.06811e+06,933657,-878423,2.09556e+07,1.28781e+07
0,0,0,0,0,0,0,0,0,0,0,0,0,0,0,0,0,0,0,0,0,0,0,0,0,0,0,0,0,0,0,0,0,0,0,0,0,0,0,0,0,0,0,0,0,0,0,0,0,0,0,0,0,0,0,0,0,0,0,0,0,0,0,0,0,0,0,0,0,0,0,0,0,0,0,0,0,0,0,0,0,0,0,0,0,0,0,0,0,0,0,0,0,0,0,0,0,0,0,0,0,0,0,0,0,0,0,0,0,0,0,0,0,0,0,0,0,0,0,0,0,0,0,0,0,0,0,0,0,0,0,0,0,0,0,0,0,0,0,0,0,0,0,0,0,0,0,0,0,0,0,0,0,0,0,0,0,0,0,0,0,0,0,0,0,0,0,0,0,0,0,0,0,0,0,0,0,0,0,0,0,0,0,0,0,0,0,0,0,0,0,0,0,0,0,0,0,0,0,0,0,0,0,0,0,0,0,0,0,0,0,0,0,0,0,0,0,0,0,0,0,0,0,0,0,0,0,0,0,0,0,0,0
0,-153679,-46584,-112599,1376,0,-54306,0,0,-73737,0,0,0,0,-72361,0,0,1376,0,0,-120321,-27153,1376,0,-6274,0,-46584,0,0,0,1902,0,526,0,-42129,0,-46584,0,0,0,0,0,-454,0,0,0,0,40310,0,0,0,0,0,39460,526,38408,0,-27153,0,-27153,0,0,0,1902,0,0,0,117976,0,0,2752,0,0,0,0,0,0,0,0,0,0,0,0,0,0,0,0,0,38408,0,0,0,76816,0,0,0,0,0,0,0,0,0,0,0,0,0,0,526,0,0,526,0,0,58761,0,0,0,0,0,108100,32134,78192,0,0,0,-19431,0,0,0,0,0,0,0,7160,39986,155008,4128,0,-171349,0,0,60464,0,0,0,0,-108994,1052,0,1376,0,0,-123768,-42129,-186336,0,-8176,0,-14976,0,0,0,2954,0,526,0,-291234,-132566,-66999,-50192,-50192,175463,-62740,4734,-16352,0,4208,-68000,-81760,27720,4208,0,-70752,13760,0,1052,-6687,-21696,0,-12961,5260,-28496,0,13760,0,12262,0,4208,0,-6274,-6274,-6274,-6274,-6274,-6274,-6274,526,-8176,0,526,-6800,-8176,-6274,526,0,-6800,1376,0,-7650,-6274,-6800,0,-6274,526,-6800,0,1376,0,1902,0,526,-205158,40310
0,0,0,0,0,0,0,0,0,0,0,0,0,0,0,0,0,0,0,0,0,0,0,0,0,0,0,0,0,0,0,0,0,0,0,0,0,0,0,0,0,0,0,0,0,0,0,0,0,0,0,0,0,0,0,0,0,0,0,0,0,0,0,0,0,0,0,0,0,0,0,0,0,0,0,0,0,0,0,0,0,0,0,0,0,0,0,0,0,0,0,0,0,0,0,0,0,0,0,0,0,0,0,0,0,0,0,0,0,0,0,0,0,0,0,0,0,0,0,0,0,0,0,0,0,0,0,0,0,0,0,0,0,0,0,0,0,0,0,0,0,0,0,0,0,0,0,0,0,0,0,0,0,0,0,0,0,0,0,0,0,0,0,0,0,0,0,0,0,0,0,0,0,0,0,0,0,0,0,0,0,0,0,0,0,0,0,0,0,0,0,0,0,0,0,0,0,0,0,0,0,0,0,0,0,0,0,0,0,0,0,0,0,0,0,0,0,0,0,0,0,0,0,0,0,0,0,0,0,0,0,0,0
0,3.55605e+06,-627498,55355,-2.09191e+06,2.1321e+06,-852405,323909,2.42359e+06,2.74079e+06,2.33453e+06,438997,640250,0,-1.91108e+06,0,-980115,2.34738e+06,-1.24716e+06,2.95634e+06,704864,3.28711e+06,-1.31361e+06,7.79455e+06,-395983,4.43162e+06,7.64754e+06,-70143,835067,2.40022e+06,1.21423e+06,0,3.73371e+06,0,-7.58182e+06,-1.08489e+06,-28982,-906652,296959,-163004,-87361,0,-388004,-936636,-193425,149,0,637710,0,-197165,-2.63576e+06,0,-967704,3.88097e+06,-537604,-574737,1.29909e+06,0,0,-3.06058e+06,0,0,-1.61627e+06,29684,0,336140,0,5.91174e+06,2.61837e+06,-536006,-580357,0,199538,-262083,-343187,97894,0,-343187,0,0,-815931,0,691736,8580,0,0,-8.25132e+06,-740867,874062,-262083,118205,0,-1.90197e+06,-752460,-2.21251e+06,-839821,-2.04759e+06,0,-1.81343e+06,0,0,0,0,0,0,0,0,556891,0,0,0,306356,0,1.16823e+06,0,0,0,1.29909e+06,0,2.42728e+06,-2.78944e+06,2.77901e+06,0,0,0,-3.45687e+06,747706,1.67013e+06,936022,511881,0,5175,0,-2.89308e+06,-713760,-1.1715e+06,-839034,1.76617e+06,2.86657e+06,-357920,-99420,1.26448e+06,-88216,0,606542,576950,-1.98824e+06,0,-485544,296959,-621122,-423957,-4.55537e+06,112629,-1.85694e+06,1.12437e+06,-1.01309e+06,0,-3.2544e+06,-26625,611078,155410,969805,0,812814,0,-1.76331e+06,4.01615e+06,2.32904e+06,52435,-3.88878e+06,-1.74425e+06,-1.40772e+06,-7.63159e+06,5.32706e+06,1.35453e+06,-878535,2.09455e+06,2.70968e+06,5.78908e+06,0,-4.8605e+06,-2.24094e+06,-1.54636e+06,-1.69926e+06,4.73977e+06,1.80481e+06,1.00244e+06,-1.00618e+07,1.78221e+06,-3.39538e+06,4.42833e+06,-647448,-7.02919e+06,518535,-536367,-2.2246e+06,5.02531e+06,0,38306,38306,38306,38306,38306,38306,38306,-517408,717804,266421,-97615,364785,328663,95874,0,-583159,-222378,-211555,283532,-161038,38306,-120063,-13229,-298,103623,38306,-74897,-612542,155410,14164,-222460,812814,4.20997e+06,827387
0,-93520,-118920,421162,-64680,0,182407,-85531,0,0,0,0,0,0,271247,-278124,0,0,-203804,0,-460025,90617,108991,0,0,0,29037,100187,0,115051,127340,0,-103165,0,-479573,313069,-463584,-177657,-21678,152948,-635186,0,0,0,0,99686,0,92230,0,0,0,0,0,724332,-209168,-203804,0,0,0,-43040,467345,85873,62975,113527,0,31850,0,-114478,-121284,-135404,14958,-43356,-469074,108563,0,0,0,-60168,0,0,-92952,0,0,49843,0,0,65717,119345,72754,0,49843,0,-31169,62975,15274,-234968,294054,0,-78302,0,0,0,0,0,0,0,0,0,0,0,0,99686,0,79835,85873,0,0,0,0,640305,-167788,-153961,0,0,0,0,-30505,87112,34549,163775,0,92230,0,-361098,-225328,54589,22507,182489,-640056,586081,142810,-132170,-92708,0,0,179114,-58296,613752,-203804,27654,106738,-98775,-263753,-148972,356202,0,166962,-148236,-74934,-138604,-203804,13510,188113,0,-74319,0,-34694,162939,148657,81606,-107287,783943,-1.33351e+06,-867470,-401960,-1.26755e+06,250227,1.44111e+06,286836,-364642,-558681,-1.87809e+06,264293,-233504,476535,-102083,305855,-461629,221232,-291055,890735,-727794,-570472,-23515,-215047,1.11124e+06,1.17119e+06,289768,0,1271,1271,1271,1271,1271,1271,1271,-72466,-53413,-136026,27803,164048,46595,-29148,-13718,-208189,34179,-33057,-65900,61439,1271,-47223,27654,-7425,76532,-89094,1271,-3906,-22393,199805,117119,36952,420928,48521
0,231743,59644,-63432,-151298,-41891,27281,0,0,19610,12521,10786,20506,0,123728,0,2746,45298,0,1735,264653,25310,206195,0,0,0,52713,0,180977,2228,-24289,0,1735,0,-287505,-4749,-19723,41469,5812,124321,0,0,0,10786,0,5812,0,23947,0,0,7349,0,0,0,90362,1397,0,5812,0,16351,1274,124808,0,0,0,35124,0,-376519,13473,-159689,-1930,19379,-127178,1274,0,-18644,0,0,8435,4491,0,0,4491,5812,0,0,-328360,-164180,-135969,0,0,0,-122124,-61062,-215539,0,14794,0,0,0,0,0,0,0,0,0,0,0,7097,32077,7097,71054,0,206232,0,0,7097,0,0,81362,50978,65144,0,17644,0,38034,31626,-220852,1735,102543,0,0,0,-234801,28846,138570,-502969,-94312,-25006,-222403,0,55046,88425,17883,-39407,-5171,175573,129041,2746,-15523,-29436,16351,-68566,-95195,-153442,17964,23456,0,-21366,2548,135242,5573,-219523,4491,45683,0,64058,-32061,26013,419623,124676,14246,238209,114470,-362,365431,222480,-157740,-585560,153540,-189061,62387,214507,97286,-383381,97033,154276,-221741,38948,-479052,-266140,4052,-168556,11047,-219686,88885,282589,365464,0,1708,1708,1708,1708,1708,1708,1708,11447,8063,50924,26707,-9134,-58624,68302,-6002,7237,26454,6785,-45199,-1494,1708,-36054,7114,-43214,-26614,-3234,-19417,1708,-21015,-3759,28708,45683,-58823,212
0,-467174,-317089,-122559,-221490,-362448,-834412,173470,301055,301158,477869,75690,-162360,148527,554692,0,0,-91119,0,-198112,-446613,262632,-44616,-117855,0,0,144654,61047,9313,126295,469187,0,-468226,0,-1.12673e+06,-99339,222126,-238600,-279690,-209818,0,68706,8042,-25970,-139426,43181,0,357555,0,24772,68834,0,0,463834,-86422,101394,0,0,0,-303731,54412,113898,-5056,95443,-23571,80491,0,140005,-199697,-187648,208548,-293790,224219,35464,49461,-145924,68611,64928,0,83794,-607602,0,15183,0,0,0,513580,205562,-124370,-27895,0,0,0,35464,-792448,-136880,251908,0,91457,0,0,0,0,0,0,0,0,-140987,42318,84636,26805,0,0,405566,0,30616,0,0,0,1.36803e+06,224068,-77728,0,0,0,0,82928,83947,0,1.11279e+06,0,191758,0,36069,1.03032e+06,-337022,333124,128359,-341015,375254,-607395,-63834,-834355,7911,130632,85520,84750,214612,55388,-65829,-116447,14838,-631796,-80687,-527178,-189678,-40757,34362,289446,256230,-225212,144733,2.27558e+06,0,72658,0,335258,-536711,434763,-156819,811433,1.16489e+06,-1.06231e+06,-475918,35456,128849,1.36175e+06,97377,-799251,-940555,-522522,-374939,-2.38246e+06,963707,-477654,801232,-400652,-299952,-369212,118427,-481990,-1.67392e+06,1.19511e+06,-524038,-72269,-516247,1.02335e+06,498270,0,483,483,483,483,483,483,483,-95422,3779,-10036,152737,10883,-48141,-57037,-30791,-24898,-247057,84726,-43604,190596,483,-97245,-88080,7767,-43279,-180048,168519,-133454,483,326151,99978,57820,515706,281794
0,3.46804e+07,-4.90349e+06,-9.3312e+06,9.07238e+07,1.92129e+07,1.35222e+08,269960,1.69361e+08,-1.78977e+07,106696,2.53508e+07,987452,134980,1.29616e+08,-3.16817e+07,4.8481e+06,1.8902e+07,-2.87469e+06,7.01946e+06,-3.94579e+07,-1.92672e+08,3.98604e+08,90747,1.78165e+07,0,8.40123e+07,5536,-4.22481e+07,1.01975e+08,-3.86213e+07,0,-1.10118e+08,0,-1.21555e+08,6.5086e+07,5.603e+07,3.88427e+07,-1.0086e+08,-9.39895e+07,0,1.03988e+07,2.86548e+07,-2.81956e+07,-7.86177e+07,1.2054e+08,289758,-1.60417e+07,0,0,7.01116e+06,296676,0,4.53343e+07,-3.82449e+07,5.55128e+07,90747,2271,0,3.74943e+07,9198,0,7.9604e+06,5.25842e+06,0,7.90393e+07,0,-1.55419e+08,-1.47481e+08,-6.63411e+07,2.26446e+07,4.63757e+07,4.9765e+07,134980,0,-1.02488e+06,690952,3.8912e+07,1.10685e+07,4.11865e+06,-9.84186e+07,-1.58378e+07,0,5.63678e+07,2.85123e+07,1.88604e+07,-6.04677e+07,6.89582e+07,2.01791e+08,90747,7.52012e+06,0,2.52647e+06,134980,-4.74052e+07,-2.38216e+06,2.104e+08,0,-1.36055e+08,0,0,0,0,0,0,0,0,1.61755e+08,-6.96955e+07,2.05759e+06,-1.23859e+08,8.76812e+07,9.38157e+06,-1.20785e+08,-3.6665e+07,317472,449008,9.26962e+06,0,2.78187e+08,-1.72489e+08,-2.9653e+08,0,-1.94466e+07,0,3.53799e+07,11928,-5.76737e+07,-9.81864e+07,8.51455e+06,0,1.24916e+08,0,-5.70509e+07,1.41636e+08,-1.89859e+07,4.61901e+07,-1.09903e+07,-7.18044e+07,735629,-1.69727e+08,8.98852e+07,1.14091e+08,-3.10512e+07,-2.09558e+08,8.83382e+07,5.49503e+07,2.40396e+07,5.16557e+06,-2.85498e+07,5.51333e+07,1.92067e+06,-1.68171e+08,7.51876e+07,-7.8777e+07,5.33916e+07,4.89676e+07,0,1.12677e+08,145115,-4.10384e+07,-3.34988e+07,-7.9063e+07,0,4.59278e+07,0,8.50312e+07,-7.66293e+07,3.32526e+07,2.45603e+07,5.89987e+07,-6.45608e+06,1.44709e+07,6.60113e+07,-1.10542e+08,-4.99981e+07,-8.39464e+07,-5.39093e+06,4.74142e+07,-4.12167e+07,-7.34318e+07,1.11404e+08,8.20626e+07,-2.37905e+07,-1.05427e+07,1.87709e+07,1.94938e+08,-1.89961e+08,-1.28219e+08,-6.18581e+07,-3.39769e+07,-1.82961e+07,1.17635e+06,1.16196e+07,-1.19358e+08,-7.88131e+07,-7.90677e+06,-4.62488e+06,0,1.59218e+06,1.59218e+06,1.59218e+06,1.59218e+06,1.59218e+06,1.59218e+06,1.59218e+06,1.64285e+07,-8.06202e+06,2.29116e+06,-1.32074e+07,-2.09249e+06,1.49677e+07,-1.55131e+07,-1.33577e+07,1.21735e+07,1.36243e+07,-1.36767e+07,1.88117e+07,2.59385e+06,1.59218e+06,7.16739e+06,-9.31945e+06,-699813,-844071,2.53794e+07,148311,-1.76746e+07,-1.43534e+07,1.59218e+06,-787704,8.74004e+06,-3.14692e+07,7.14993e+06
0,-4412,-6192,-2438,-658,0,0,-1316,0,0,0,0,0,0,-658,-1316,0,0,0,0,0,0,-1316,0,0,0,0,-658,0,0,0,1439,0,0,5633,-3096,0,-658,0,0,-1316,0,0,0,0,0,0,0,-658,0,0,0,0,0,0,4535,0,0,0,0,0,0,0,0,0,0,0,13728,7754,6632,8071,0,-658,-3290,0,0,0,0,0,0,3877,-658,-2438,0,0,0,-1316,0,-1316,0,0,0,0,0,-2438,0,0,0,0,0,0,0,0,0,0,0,0,0,0,0,0,0,0,0,0,0,0,0,0,3877,1439,0,0,0,0,0,0,-4876,0,0,0,0,0,17387,-2315,-6192,11631,0,-6850,-658,-4876,0,0,0,0,0,3219,-3290,0,0,0,0,26552,6632,12947,0,0,0,0,-1316,0,0,0,0,-2438,0,66194,51895,30778,11512,11512,19020,20970,25846,20970,0,0,-24380,0,32332,-658,-28522,0,38770,45350,9657,6319,23920,-19504,45350,-30960,0,-4606,-17066,0,0,12951,-19504,0,1439,1439,1439,1439,1439,1439,1439,2097,2097,0,0,-2438,0,3877,-658,-3096,0,3877,4535,3877,1439,3877,-2438,4535,-3096,0,-658,-2438,0,0,1439,-2438,1495,0
0,5.92529e+07,2.59212e+07,-3.3423e+06,-3.3079e+07,-13464,-3.84375e+07,3.89717e+06,-7.56599e+06,4.72251e+06,2.53166e+06,-1.1239e+07,4.79364e+06,-1.3231e+06,-3.36517e+07,-5.43695e+06,0,-1.83565e+06,-5.21137e+06,3.89695e+06,-2.46634e+07,-4.44871e+07,4.75263e+06,0,-7.88817e+06,1.16908e+07,1.45876e+07,1.37539e+07,2.55788e+06,1.23811e+07,-1.36435e+07,-323351,3.59214e+06,0,-6.48956e+07,1.08617e+08,3.71376e+07,-2.68424e+06,-26928,1.68978e+07,4.89502e+07,755221,-5.88678e+06,-8.09883e+06,3.4853e+06,-6.54441e+06,0,-1.56634e+07,-5.43695e+06,-6.92158e+06,-720453,2.64153e+06,0,-515814,-768971,-1.8578e+07,2.33224e+06,-7.94319e+06,0,6.88967e+06,1.83044e+06,973700,-3.90688e+06,-5.90253e+06,0,0,0,-6.65995e+06,-2.51555e+07,-4.7644e+06,-3.17696e+07,0,1.07795e+07,1.35155e+06,0,-88317,-1.78454e+07,0,-6.28294e+06,-7.99332e+06,-2.66078e+07,0,-323351,0,-9.00661e+06,-1.65237e+06,-4.32384e+07,-1.48667e+07,-7.72477e+06,0,-351531,0,0,-9.00661e+06,-323351,-743303,-212546,0,0,0,0,0,0,0,0,0,0,-7.81846e+06,0,-444426,0,1.87508e+07,0,4.01284e+07,24200,0,-826185,-3.78039e+06,0,3.91061e+07,3.95832e+07,-1.335e+07,0,-1.75377e+07,0,6.79366e+06,-6.74253e+06,-1.08866e+06,1.93358e+06,2.064e+07,0,0,0,-1.77748e+07,2.96985e+06,-3.47142e+07,1.24603e+07,-5.45821e+06,-901749,-2.58032e+07,-1.20193e+07,-1.0153e+07,1.10858e+07,0,-3.58279e+06,2.48498e+07,-4.45351e+07,-1.00728e+08,-1.59282e+07,833798,1.55485e+07,5.14661e+06,1.03961e+06,1.38729e+07,4.99807e+07,-6.90955e+06,-300311,0,-2.70198e+07,-8.62184e+06,-1.09808e+07,-1.84136e+07,-5.65985e+06,0,2.76459e+07,0,1.63212e+07,-7.6876e+07,2.17721e+06,-2.21932e+06,3.06018e+06,9.22356e+06,-1.07588e+07,-2.86632e+06,9.77669e+06,2.27922e+07,-8.10906e+06,8.71241e+06,6.1575e+06,7.86203e+06,1.03313e+07,-1.44205e+06,175376,2.60122e+07,-1.50653e+06,7.69358e+07,-7.35365e+06,-2.34481e+07,6.62874e+06,7.39336e+06,-3.45986e+06,5.9576e+06,1.30509e+07,4.11809e+07,1.72588e+07,2.26972e+07,2.03696e+07,-2.46233e+07,0,-304803,-304803,-304803,-304803,-304803,-304803,-304803,-2.95148e+06,-162891,1.00209e+06,-2.31031e+06,1.58467e+06,1.91097e+06,-6.21171e+06,-1.01247e+07,-2.46152e+06,-237311,2.62039e+06,6.11546e+06,934689,-304803,-1.09589e+06,248255,-2.66276e+06,669529,720865,1.54893e+06,3.23197e+06,962995,1.66484e+06,2.56448e+06,-304803,4.24795e+07,3.15379e+06
