0,4.5314e+09,-7.23448e+09,4.01122e+09,8.06656e+09,-1.28836e+09,-3.38571e+09,-9.37527e+09,-1.20131e+09,-3.51808e+09,-5.00285e+09,2.92293e+09,5.05358e+07,7.43716e+09,-9.79305e+09,-8.26081e+09,6.62109e+08,4.47772e+09,3.0568e+06,-2.61906e+09,-8.45039e+09,-1.56697e+09,3.19814e+09,-3.23971e+09,5.36363e+09,3.18125e+09,-7.75032e+09,1.236e+09,-2.27922e+09,2.8992e+09,3.46101e+09,5.75034e+09,2.89271e+09,0,-5.21951e+09,-6.22305e+07,-1.78341e+10,6.13127e+09,1.53042e+09,-1.81834e+09,-9.47846e+09,6.8411e+09,1.65532e+10,1.60584e+09,-1.27302e+10,2.12277e+09,-1.47021e+09,-2.21815e+09,4.26605e+09,-3.79875e+08,-4.30413e+09,2.64251e+09,-1.0512e+09,7.576e+09,4.31199e+09,2.92405e+09,-3.26784e+09,2.25738e+09,2.4079e+09,3.70215e+07,-3.03886e+09,-7.99201e+09,-1.24607e+10,8.3356e+09,-3.09852e+09,6.55707e+08,0,-3.68095e+09,-1.10942e+10,-8.91564e+09,4.57609e+08,5.2613e+09,2.14537e+09,1.68689e+09,-5.59498e+09,-8.18388e+09,2.31654e+08,6.86468e+09,1.73464e+09,-7.38174e+08,-2.676e+09,-7.96473e+09,-1.90461e+09,5.42345e+09,0,-3.84798e+08,-3.77164e+09,2.8725e+09,-1.00434e+09,-2.19737e+09,5.17433e+09,2.98579e+09,-5.38293e+09,-5.26307e+09,-1.6144e+08,2.00743e+09,5.84554e+09,3.10635e+09,-3.11134e+09,0,0,0,0,0,0,0,0,0,0,0,0,0,0,0,0,0,0,0,0,0,0,0,0,0,0,0,0,0,0,0,0,0,0,4.23832e+09,3.24844e+09,-1.36309e+10,8.87328e+09,-6.60304e+09,-1.18806e+10,4.42369e+09,9.40824e+09,-7.94129e+09,-8.92957e+09,-3.74519e+09,-4.65714e+09,-9.44583e+08,-6.6644e+09,-5.11606e+09,-8.77556e+09,-7.02766e+09,6.14421e+08,-1.01223e+09,-1.74699e+08,7.75623e+09,-1.36177e+09,1.1659e+09,3.9145e+09,1.7469e+09,-3.78199e+09,-5.24237e+08,-1.55606e+10,-4.55407e+09,-2.56829e+10,3.496e+09,-1.14955e+10,0,-2.20469e+11,-1.30035e+11,-6.14948e+10,-3.42224e+10,-3.80895e+10,-2.42468e+10,-1.54485e+10,2.27095e+08,-7.82804e+09,-9.88113e+09,-1.70626e+10,-1.05178e+10,-3.17219e+09,-4.09846e+09,-8.97736e+09,-2.0114e+10,-2.1274e+10,-4.91162e+09,-2.1881e+10,-8.82313e+09,-2.37329e+09,-3.58847e+10,-1.5853e+09,-2.3978e+10,-1.52081e+10,-4.14299e+10,-1.85671e+09,-2.86216e+10,-2.6675e+10,-1.09732e+10,-2.95823e+10,-2.80176e+10,0,-4.89865e+09,-4.89865e+09,-4.89865e+09,-4.89865e+09,-4.89865e+09,-4.89865e+09,-4.89865e+09,9.68014e+08,-1.44105e+09,-2.22102e+09,-2.79068e+09,-1.1267e+09,1.11201e+08,-2.51069e+09,-2.60529e+09,-3.16521e+09,-2.25199e+09,-1.65163e+08,-1.06805e+09,-1.36439e+09,1.10006e+09,-3.90864e+09,-1.14667e+09,-7.59961e+08,-4.17522e+08,-5.83069e+09,-1.00176e+09,-5.46149e+09,-4.89865e+09,-1.90141e+09,-2.03281e+09,-3.09593e+09,-6.36895e+10,5.46657e+09
0,2.24531e+09,-6.50193e+09,-4.33541e+09,1.28088e+10,7.95972e+08,-2.39784e+09,-4.43258e+09,6.42517e+09,4.56729e+09,-5.12549e+09,-5.16931e+09,2.05778e+08,3.14085e+08,-8.44024e+09,-6.41881e+09,-1.31332e+09,4.66993e+09,-461885,-6.04371e+08,-5.04546e+09,3.64387e+09,2.68834e+09,-1.52623e+08,6.30075e+09,-5.98064e+09,3.13682e+09,6.33893e+09,-2.65927e+10,-2.40955e+09,-1.41908e+08,-3.23325e+09,3.87579e+09,0,-9.4458e+09,3.18337e+09,-1.25371e+10,1.69785e+10,-3.58229e+08,-1.13605e+10,-2.46892e+09,1.00815e+09,-1.31721e+07,-1.59809e+09,1.34108e+09,1.03627e+07,-3.80394e+09,-5.32772e+09,4.75564e+09,5.94987e+08,9.92709e+06,-58339,-5.09215e+08,5.47305e+08,5.84269e+08,-1.9108e+09,-2.51588e+08,3.6917e+08,-7.90335e+08,-1.22537e+10,1.12081e+09,3.85242e+09,-1.26274e+10,6.03302e+08,-5.05378e+08,1.58676e+10,0,-7.17932e+09,-9.64931e+09,-7.73036e+09,-5.93386e+08,-1.74571e+09,-4.59552e+09,-4.36586e+09,8.73608e+09,-7.22415e+09,1.6854e+08,1.99012e+09,-1.93247e+09,-2.49888e+08,4.93349e+09,-4.33608e+09,2.57787e+09,-2.87295e+08,0,-5.16674e+06,7.70622e+08,7.05417e+09,-7.73261e+08,-1.41013e+09,2.99878e+09,2.05866e+08,-3.61688e+09,5.65325e+09,-2.5948e+09,1.89409e+09,9.90882e+08,5.02306e+09,-7.05502e+09,0,0,0,0,0,0,0,0,0,0,0,0,0,0,0,0,0,0,0,0,0,0,0,0,0,0,0,0,0,0,0,0,0,0,4.16486e+09,-1.28235e+09,-1.23996e+10,6.90136e+09,-1.94083e+09,1.62397e+08,7.31746e+09,7.34679e+09,-3.79435e+09,-3.59424e+09,6.7038e+08,2.07552e+09,-1.51401e+10,-8.36738e+09,-2.32211e+09,1.91887e+09,-4.27835e+09,0,-3.83562e+09,-4.38852e+07,3.60695e+09,-7.65941e+09,2.96819e+09,5.53782e+09,-9.46151e+08,-8.07955e+09,-3.32852e+09,-1.71405e+10,-4.19247e+09,-1.70747e+10,2.10413e+09,-7.26638e+09,0,-2.20669e+11,-1.31048e+11,-6.43861e+10,-3.19357e+10,-3.65231e+10,-2.15805e+10,-1.62456e+10,6.20917e+08,-7.48746e+09,-9.18459e+09,-1.9672e+10,-8.80177e+09,-2.4324e+09,-3.6608e+09,-8.95927e+09,-2.03712e+10,-2.08206e+10,-4.46098e+09,-2.21132e+10,-8.59231e+09,-1.8963e+09,-3.49028e+10,-2.03426e+09,-2.24778e+10,-1.36811e+10,-4.15576e+10,-1.79065e+09,-2.78311e+10,-3.1671e+10,-9.60397e+09,-2.68181e+10,-2.53566e+10,0,-4.97149e+09,-4.97149e+09,-4.97149e+09,-4.97149e+09,-4.97149e+09,-4.97149e+09,-4.97149e+09,2.41371e+09,-1.56796e+09,-1.93257e+09,-3.29962e+09,-8.44257e+08,-2.13122e+09,-2.15307e+09,-1.72806e+09,-1.65936e+09,-1.87554e+09,-4.4615e+08,-3.46135e+09,-1.23638e+09,1.29929e+09,-4.15966e+09,-1.10052e+08,-5.98943e+08,-2.11924e+09,-6.2371e+09,7.97202e+08,-7.03067e+09,-4.97149e+09,-2.52263e+09,-2.34295e+09,-1.79682e+09,-6.56307e+10,6.05957e+09
0,-5.66306e+09,1.80066e+09,-9.72917e+09,1.55826e+09,-2.18378e+09,-3.14471e+08,-9.16647e+09,2.03016e+09,-4.33767e+09,-3.05363e+09,1.94276e+09,0,-5.8533e+09,-7.45918e+09,7.19369e+08,2.2417e+09,2.9586e+09,-3.45913e+07,2.69214e+09,7.55888e+09,7.19316e+08,2.46228e+09,-5.09622e+08,-4.86603e+08,1.08608e+09,1.82391e+09,5.1316e+09,-2.38564e+10,1.11376e+10,2.27595e+09,-4.04944e+06,-9.07356e+09,0,-5.86643e+09,-1.72168e+10,-5.16055e+09,7.49155e+08,1.65867e+08,-6.55216e+09,8.45247e+08,2.50578e+09,1.08615e+09,-2.2003e+09,4.76193e+09,-3.26036e+08,7.84091e+09,7.20204e+08,1.91865e+07,2.19827e+09,-2.56866e+08,0,-3.00277e+09,3.54827e+09,6.03879e+09,1.46285e+08,1.31096e+08,7.99756e+08,1.2965e+09,-9.26743e+09,-5.16716e+09,2.276e+09,-1.31879e+10,7.41287e+09,-1.68524e+08,7.80022e+09,0,-1.01064e+10,-8.99073e+09,-4.612e+09,-2.9043e+09,-5.02553e+09,-3.95001e+09,-7.77793e+09,-2.27516e+09,-2.95392e+09,2.6226e+08,-2.91348e+09,-6.05126e+08,2.99485e+09,4.34852e+09,-5.23934e+09,-3.48953e+08,-7.51147e+07,0,-8.18341e+08,1.53807e+09,7.99129e+08,-4.17118e+08,-6.70029e+08,-928914,-8.30077e+07,-6.90421e+09,-5.19857e+09,-1.64505e+08,1.17465e+09,-3.62661e+09,0,-2.92333e+09,0,0,0,0,0,0,0,0,0,0,0,0,0,0,0,0,0,0,0,0,0,0,0,0,0,0,0,0,0,0,0,0,0,0,4.97822e+09,2.84198e+09,-1.24979e+10,7.13563e+09,-1.6564e+09,-1.87034e+09,-3.1592e+08,3.66108e+09,1.30473e+08,-4.72882e+09,-8.51021e+08,-2.00829e+09,-5.05354e+09,-1.20084e+10,1.44085e+09,1.81936e+09,-1.9866e+09,0,5.91107e+08,2.30401e+09,1.32461e+09,-1.60628e+09,2.04474e+09,1.26573e+09,6.54557e+08,-9.40345e+09,-3.3486e+09,-7.77595e+09,-3.77611e+09,-1.92481e+10,3.116e+09,-5.21393e+09,0,-2.17414e+11,-1.26718e+11,-6.65458e+10,-4.18095e+10,-2.88121e+10,-2.66014e+10,-1.716e+10,3.05934e+09,-8.97766e+09,-1.47159e+10,-1.91641e+10,-9.99954e+09,-2.48402e+09,-3.06465e+09,-5.7788e+09,-1.98031e+10,-2.38146e+10,-3.74821e+09,-1.9241e+10,-1.3025e+10,-3.51396e+09,-3.93585e+10,-1.99108e+09,-2.44246e+10,-1.52356e+10,-4.09504e+10,-1.76638e+09,-2.74064e+10,-4.14032e+10,-9.00378e+09,-2.78166e+10,-2.98535e+10,0,-4.68899e+09,-4.68899e+09,-4.68899e+09,-4.68899e+09,-4.68899e+09,-4.68899e+09,-4.68899e+09,8.98119e+08,-1.78451e+09,-2.39681e+09,-2.39505e+09,-1.2939e+09,-2.55509e+08,-1.74634e+09,-8.83874e+08,-1.46442e+09,-2.45832e+09,-3.7828e+08,3.15235e+08,1.92427e+08,5.36788e+08,-3.87737e+09,-1.24362e+08,-2.20679e+09,-1.23918e+09,-6.47016e+09,-9.57046e+08,-5.69271e+09,-4.68899e+09,-2.21898e+09,-2.48732e+09,-3.8125e+09,-6.90695e+10,-7.98586e+09
0,5.50785e+09,-1.01301e+09,1.20092e+09,9.15034e+09,2.55555e+09,2.57469e+09,-1.01092e+09,-7.35883e+09,-1.23579e+10,-2.89433e+09,6.91101e+08,7.22414e+07,-7.34979e+09,-1.49459e+10,-6.52617e+09,1.76182e+09,1.12007e+10,0,2.8299e+09,-1.06957e+10,1.43246e+09,1.03294e+10,1.69543e+10,3.45895e+09,7.14263e+08,-4.24215e+09,-1.1523e+10,-1.59054e+09,9.53587e+08,7.02779e+09,-3.44895e+09,2.07811e+09,0,-9.52118e+09,7.47626e+08,3.70303e+09,2.6575e+09,1.48979e+09,1.12163e+10,6.07804e+09,1.35769e+10,-1.0803e+10,9.63977e+08,2.88893e+09,6.38833e+07,1.2339e+09,-1.38783e+09,5.51339e+09,4.77933e+08,4.50521e+09,0,1.00834e+09,5.30034e+09,-1.25739e+09,-7.85942e+09,9.37141e+09,-3.45555e+07,6.7468e+08,1.38295e+09,-5.22976e+09,-8.84674e+09,-1.38023e+10,1.50546e+09,6.00264e+09,-3.3302e+10,0,-4.87533e+09,-7.27123e+09,-1.20394e+10,-4.41309e+09,5.42509e+09,-4.10282e+09,-1.55088e+09,6.79249e+09,-6.11554e+09,3.26784e+08,5.10728e+09,2.05179e+08,-6.69923e+09,1.1248e+10,-1.15239e+10,8.48254e+09,1.50678e+08,0,1.47443e+09,-1.32011e+09,1.77614e+09,5.61199e+09,8.68873e+09,-4.4185e+09,1.21856e+09,6.19078e+09,-3.67289e+09,4.74489e+09,4.60318e+09,7.87707e+09,-5.96909e+09,-8.10316e+09,0,0,0,0,0,0,0,0,0,0,0,0,0,0,0,0,0,0,0,0,0,0,0,0,0,0,0,0,0,0,0,0,0,0,3.26533e+09,7.32909e+09,-7.33632e+09,1.13093e+10,-3.47795e+09,-1.8235e+10,3.6228e+09,1.01371e+10,-8.12503e+09,-9.36892e+09,1.27689e+10,3.15031e+09,-3.95606e+09,-1.67191e+09,-3.83958e+09,-8.85732e+09,-9.63511e+08,1.41855e+07,4.92138e+09,1.93171e+09,1.1516e+10,-5.26794e+09,5.40038e+09,4.00597e+08,2.88662e+09,-4.47604e+09,3.47352e+09,-1.20525e+10,5.96893e+08,-2.34963e+10,-4.71271e+09,5.3878e+09,0,-2.20981e+11,-1.26725e+11,-6.18854e+10,-3.47508e+10,-4.16294e+10,-2.70933e+10,-1.84973e+10,5.86743e+08,-7.36444e+09,-9.70683e+09,-1.7154e+10,-9.4763e+09,-2.39131e+09,-3.98525e+09,-8.99587e+09,-2.00216e+10,-2.1089e+10,-4.571e+09,-2.02056e+10,-8.35342e+09,-2.23345e+09,-3.50779e+10,-7.94019e+08,-2.34249e+10,-1.44787e+10,-4.07856e+10,-1.56924e+09,-2.89446e+10,-2.49155e+10,-1.14662e+10,-2.85348e+10,-2.81626e+10,0,-4.45462e+09,-4.45462e+09,-4.45462e+09,-4.45462e+09,-4.45462e+09,-4.45462e+09,-4.45462e+09,2.37343e+09,-5.92901e+09,-2.06758e+09,7.83399e+08,-5.98469e+08,-1.91625e+09,-9.02367e+08,-2.53721e+09,-1.81566e+09,-3.4115e+08,-4.55681e+08,-1.14971e+09,-1.31371e+09,1.12338e+09,-4.38613e+09,4.9184e+09,-2.40159e+09,-8.81743e+08,-4.193e+09,-1.61635e+09,-4.66895e+09,-4.45462e+09,-1.85522e+09,-3.66629e+09,-6.59409e+09,-6.57143e+10,2.82762e+09
0,-9.64009e+09,-4.29626e+09,-1.22732e+10,-4.34158e+09,-5.9552e+09,-7.65269e+09,-1.4062e+09,2.33482e+06,-1.03721e+09,1.87354e+06,164736,1463,1.08901e+06,88715,-7.80576e+09,0,664518,84139,0,-2.56287e+09,-1.48674e+09,1.08991e+07,8.90041e+07,5.10787e+06,-1.04176e+09,592207,-7.94375e+08,3.32405e+06,-2.28012e+09,-7.08468e+08,664518,164251,0,-6.80366e+08,212306,918235,-1.44246e+09,-6.37115e+09,-7.13711e+09,-6.66424e+08,0,2.55393e+06,0,-1.77923e+08,0,415833,0,-1.77887e+08,-1.04259e+09,0,250,0,0,0,-9.50957e+08,2.63832e+06,0,0,0,960337,0,-2.52644e+09,8.66141e+07,0,-1.04207e+09,0,-5.33109e+09,-2.39556e+09,-3.88883e+09,-3.82541e+09,-2.70064e+09,-3.1297e+09,-3.56558e+08,738761,8.40435e+07,-4.57646e+08,0,0,415833,0,-3.5205e+08,544504,0,0,0,-2.97842e+09,8.38962e+07,-2.89023e+09,2.54244e+08,1.67792e+08,-1.79822e+08,544504,955999,1463,-1.58269e+09,7.4587e+07,0,0,0,0,0,0,0,0,0,0,0,0,0,0,0,0,0,0,0,0,0,0,0,0,0,0,0,0,0,0,0,0,0,0,0,0,-1.58167e+10,-1.05265e+10,-8.97139e+09,-1.01919e+10,-8.30853e+09,-1.13432e+10,-2.434e+09,-2.40605e+09,1.57227e+06,-1.79586e+09,-1.7767e+08,2926,-4.57102e+08,621138,-1.29769e+10,-1.48875e+09,0,0,0,-1.13849e+10,-4.38066e+09,-6.35986e+09,3.46053e+08,1.729e+08,-1.79657e+08,804529,-9.73078e+08,266,-4.87623e+09,-8.89998e+08,295568,-2.07936e+09,0,-2.04246e+11,-1.03852e+11,-6.36114e+10,-2.96624e+10,-1.20582e+10,-6.13101e+09,-3.93811e+10,-1.55987e+10,-2.35527e+10,-3.06426e+10,-1.54474e+10,-4.87366e+09,-4.10725e+09,-4.57628e+09,-2.07287e+10,-3.38896e+10,-1.22143e+10,-1.34771e+10,-1.00714e+10,-1.32153e+10,-8.22123e+09,-1.41754e+10,-8.34037e+09,5.26244e+08,-1.46121e+10,-7.63711e+09,-1.34684e+10,-2.75355e+10,-3.30636e+10,5.1894e+08,-3.075e+09,-1.66342e+10,0,-4.42421e+09,-4.42421e+09,-4.42421e+09,-4.42421e+09,-4.42421e+09,-4.42421e+09,-4.42421e+09,-1.80017e+09,-2.45013e+09,-3.28942e+09,-1.58028e+09,-4.87366e+08,-4.56243e+08,-4.57557e+08,-4.20412e+09,-3.74576e+09,-1.22136e+09,-1.34771e+09,-1.94643e+09,-3.01415e+09,-1.40047e+09,-2.43656e+09,-9.56053e+08,8.72044e+07,-1.59269e+09,-7.63517e+08,-1.5234e+09,-2.75321e+09,-4.42421e+09,-9.18324e+07,-3.07404e+08,-2.07927e+09,-8.58662e+10,-1.88983e+09
0,-2.71124e+09,5.07907e+09,-1.21667e+10,1.66549e+09,-1.1384e+09,1.9876e+08,-2.84053e+09,1.61768e+09,-5.79955e+08,1.20058e+07,2.08592e+09,1.60243e+08,-4.55981e+09,-1.00409e+10,6.2197e+08,2.01049e+06,0,-129096,0,-2.3721e+09,1.48151e+09,-1.75834e+09,3.1786e+08,-1.96408e+09,1.0428e+09,1.97156e+06,6.40448e+08,-1.5027e+10,2.3359e+09,1.07601e+09,0,-3.99479e+09,0,-1.97623e+09,-6.57681e+08,-5.13964e+09,-3.01528e+09,5.13748e+07,-6.41892e+09,-2.34277e+09,1.02433e+09,5.26341e+08,9.52132e+06,0,232398,4.42129e+08,-3.80268e+09,1.79212e+09,1.0428e+09,0,7.69888e+08,0,3.14367e+09,-4.42789e+08,-1.08656e+09,-9.82189e+08,6.55504e+06,1.21921e+06,-5.0094e+09,2.71739e+08,741494,-6.4694e+09,2.75334e+07,0,2.03018e+09,0,-1.47885e+10,-3.96753e+09,-1.42854e+09,-2.78462e+09,2.10019e+09,-9.3996e+08,-3.22662e+09,2.26505e+08,-4.27148e+08,1.53978e+07,-1.92298e+09,0,-7.66857e+08,6.43761e+08,-1.42246e+10,5.69415e+06,1.63427e+06,0,-3.28612e+08,6.59729e+08,-1.1963e+09,-7.5678e+08,7.80548e+08,6.55504e+06,0,2.60159e+06,-6.94987e+08,2.49264e+06,-2.56173e+09,-5.47528e+09,0,1.39717e+08,0,0,0,0,0,0,0,0,0,0,0,0,0,0,0,0,0,0,0,0,0,0,0,0,0,0,0,0,0,0,0,0,0,0,-7.97862e+09,-3.51104e+09,-3.28906e+09,1.07376e+09,-9.56044e+08,4.57656e+09,-5.52473e+09,1.3253e+09,-5.80873e+07,-2.18842e+09,1.52653e+09,1.46226e+09,-8.77517e+09,-2.06504e+10,-1.63113e+09,-1.7082e+08,-7.72922e+08,0,9.77503e+08,-6.42835e+09,-2.42598e+09,-4.42535e+09,2.91883e+09,-1.94517e+09,2.40286e+08,-3.11119e+08,-5.94128e+08,-1.05467e+10,-4.52837e+09,-4.71326e+09,1.0527e+09,-1.87123e+09,0,-2.04102e+11,-1.30859e+11,-6.8658e+10,-3.69481e+10,-3.60179e+10,-3.33772e+10,-3.14999e+10,-1.99125e+09,-4.73762e+09,-1.28317e+10,-2.54946e+10,-8.65688e+08,-1.50474e+10,-9.24261e+09,7.04952e+09,-3.23328e+10,3.61668e+09,-1.23486e+10,-8.95714e+09,-1.65609e+09,-5.33617e+09,-4.46675e+10,-9.05795e+09,-1.20773e+10,3.37892e+09,-2.4394e+10,-6.27644e+09,-2.61649e+10,-3.37561e+10,-1.0351e+10,-1.29288e+10,-2.33154e+10,0,-4.4951e+09,-4.4951e+09,-4.4951e+09,-4.4951e+09,-4.4951e+09,-4.4951e+09,-4.4951e+09,2.20257e+08,-4.83492e+08,-1.49832e+09,-2.88144e+09,7.57045e+07,-2.87071e+09,-4.30929e+09,-6.39214e+08,-3.20481e+09,2.8454e+08,-1.15788e+09,-6.42891e+08,-6.65315e+08,-7.91973e+08,-5.26945e+09,-7.52863e+08,-1.59724e+09,4.66323e+08,-2.971e+09,-6.65336e+08,-5.17353e+09,-4.4951e+09,-1.9436e+09,-1.1876e+09,-2.79674e+09,-7.6012e+10,-5.52648e+09
0,1.43991e+09,-8.98883e+09,-4.52453e+09,-5.88893e+08,6.62309e+09,-4.93915e+09,-8.63659e+09,6.43169e+08,-5.04588e+08,1.94931e+08,-2.39774e+09,0,-1.11666e+09,-4.19468e+08,5.37883e+07,0,1.48567e+09,0,0,-1.32054e+10,-1.40473e+08,2.3135e+09,-8.64411e+08,9.52001e+08,6.98074e+08,-8.38494e+08,5.66832e+09,9.05885e+09,-1.22256e+10,6.17672e+08,-1.99153e+08,-5.83594e+09,0,-5.02275e+09,4.34811e+09,-1.92712e+10,-6.23172e+09,-1.85799e+09,2.40685e+09,5.98284e+09,-5.70646e+08,1.63906e+08,1.23519e+08,1.89052e+08,0,1.84593e+09,1.30875e+09,2.8152e+08,0,2.13317e+08,0,9.66696e+08,9.14899e+09,1.84688e+08,-2.31267e+09,45813,1.53261e+08,2.45046e+07,0,-1.09947e+10,-1.01104e+09,2.25425e+09,-2.24801e+09,2.36584e+09,-3.33799e+09,0,-7.57619e+09,-7.47395e+09,-9.1407e+09,-7.73733e+09,1.01669e+09,2.37938e+09,-6.95037e+09,2.43095e+09,3.62897e+09,1.24158e+08,8.65399e+08,0,2.73297e+09,3.71016e+08,5.97386e+09,-1.23233e+09,3.37471e+08,0,5.58145e+08,3.8665e+08,5.58174e+08,1.7777e+09,-5.26023e+08,0,-5.16069e+08,3.40303e+09,-6.54917e+09,-5.98576e+09,6.6546e+09,-3.33413e+09,1.64633e+07,3.97446e+09,0,0,0,0,0,0,0,0,0,0,0,0,0,0,0,0,0,0,0,0,0,0,0,0,0,0,0,0,0,0,0,0,0,0,1.17804e+09,-1.83508e+09,-1.5252e+09,2.43818e+09,-3.11041e+09,-9.37737e+09,1.22137e+09,4.52716e+09,2.76732e+09,-9.63037e+09,1.09874e+09,680608,8.36386e+08,7.22618e+09,6.00029e+08,-1.23218e+09,-1.17628e+09,0,0,-1.08561e+09,-9.27612e+08,3.88259e+08,-8.05668e+08,-1.36144e+09,-9.71434e+08,-4.41081e+09,-9.39685e+09,2.25651e+09,-4.22147e+09,-3.50668e+10,-1.0778e+09,-6.01939e+09,0,-2.1645e+11,-1.23217e+11,-6.08795e+10,-3.70218e+10,-4.01521e+10,-2.79504e+10,-8.23492e+09,-2.20889e+09,-8.91404e+09,-9.08143e+09,-1.89153e+10,-8.98264e+09,-3.81657e+09,-6.07941e+09,-7.3666e+09,-1.41465e+10,-2.13893e+10,-5.24904e+08,-2.43736e+10,-2.9959e+09,-2.7578e+09,-3.22745e+10,-2.25646e+09,-2.1253e+10,-1.63298e+10,-3.68182e+10,-2.56228e+10,-2.72189e+10,-3.93925e+10,-1.12352e+10,-2.8269e+10,-3.8162e+10,0,-4.68509e+09,-4.68509e+09,-4.68509e+09,-4.68509e+09,-4.68509e+09,-4.68509e+09,-4.68509e+09,4.82174e+08,-2.85458e+08,-1.82692e+09,-1.90348e+09,-8.98196e+08,4.82064e+07,2.40706e+08,-4.5741e+07,-1.6611e+09,-2.05291e+09,-5.24904e+07,-2.19213e+09,-7.75124e+08,-3.08302e+08,-3.01077e+09,-5.56564e+08,-2.15091e+09,-1.70948e+09,-3.86645e+09,-4.68509e+09,-2.29004e+09,-4.68509e+09,-5.12665e+09,-2.71636e+09,-4.82274e+09,-6.0806e+10,7.23402e+09
0,-2.60701e+09,2.65508e+09,-5.64806e+09,-7.58073e+09,-5.0728e+07,8.79966e+08,-3.20828e+09,-5.96207e+09,-5.87914e+08,-1.16781e+09,-3.0778e+08,0,2.17863e+09,-1.61747e+09,-5.24168e+08,-3.59899e+08,2.10985e+09,-4.97807e+06,-1.15981e+06,-2.43063e+08,-6.71887e+07,-1.18526e+09,-5.87401e+06,-57469,1.57025e+08,-1.59862e+09,5.64696e+07,2.06141e+08,1.82512e+09,-1.7667e+09,-283,-3.24615e+09,0,1.90541e+09,-6.89493e+09,-3.58138e+09,3.58377e+09,1.06784e+09,-1.06376e+09,-9.39867e+08,-9.81517e+09,-2.07757e+08,8.41259e+07,-3.25793e+08,0,2.3646e+09,-4.26859e+09,2.20496e+09,-7.71164e+07,-4.55853e+08,-836620,1.78873e+09,3.28098e+09,0,1.68541e+09,0,-282111,-2.92417e+06,0,-1.02504e+08,-9.92316e+08,-7.58384e+09,-3.48387e+09,0,-3.62363e+08,0,-1.29398e+09,-4.97996e+09,4.7273e+08,-2.05766e+09,3.47546e+09,-3.04958e+09,-5.35018e+09,-3.90331e+09,3.00538e+09,-2.69175e+09,-4.49248e+08,1.98081e+08,-4.73399e+09,-1.3526e+09,6.35893e+08,-11025,2.26088e+08,0,-9.98346e+06,-6.71404e+09,-3.705e+08,-1.04541e+09,-3.44553e+08,-535513,-9.75191e+06,1.01163e+09,2.19505e+08,-9.21859e+07,1.48843e+09,3.22846e+09,-226167,4.30342e+08,0,0,0,0,0,0,0,0,0,0,0,0,0,0,0,0,0,0,0,0,0,0,0,0,0,0,0,0,0,0,0,0,0,0,3.02714e+09,-3.75258e+09,-9.45569e+09,-7.88535e+08,-1.93581e+08,-1.08522e+10,5.26015e+09,-1.05728e+10,-3.57136e+09,-1.9415e+08,-1.62196e+09,0,4.68334e+08,-5.69609e+09,-3.7733e+09,4.49702e+08,-2.91351e+08,-214460,1.93894e+08,-1.77259e+09,1.71066e+09,-1.87945e+09,-3.31543e+08,-2.18319e+09,0,-1.15766e+09,-4.22977e+09,-2.43278e+08,-2.90941e+09,-1.16592e+10,-1.0143e+09,-2.20016e+09,0,-2.15527e+11,-1.25558e+11,-7.10459e+10,-3.78488e+10,-4.08932e+10,-2.09166e+10,-2.8316e+10,-1.54894e+10,-5.51231e+09,-2.00053e+09,-1.75888e+10,-3.22533e+09,-9.33689e+09,-3.42827e+09,-9.07937e+09,-1.90394e+10,-1.59517e+10,-4.17678e+09,-1.8909e+10,-4.19777e+09,5.61e+09,-2.87197e+10,-2.57675e+09,-1.85139e+10,-1.26868e+10,-3.6888e+10,-1.45616e+10,-2.15159e+10,-3.8563e+10,-8.96389e+09,-2.33473e+10,-2.50108e+10,0,-4.57427e+09,-4.57427e+09,-4.57427e+09,-4.57427e+09,-4.57427e+09,-4.57427e+09,-4.57427e+09,-4.57427e+09,-6.95174e+08,-6.8589e+08,-2.11232e+09,-3.02726e+08,-9.05932e+08,-1.6363e+09,-1.0536e+09,-1.90268e+09,-1.48658e+09,-4.18281e+08,-2.4027e+09,-9.64649e+08,6.88297e+08,-3.08204e+09,-4.0734e+08,-1.99289e+09,-1.25425e+09,-3.86327e+09,-1.86179e+09,-2.26375e+09,-4.57427e+09,-2.26452e+09,-2.43618e+09,-3.28964e+09,-6.95317e+10,3.39471e+08
0,1.08204e+09,1.64636e+09,-2.13829e+09,5.65021e+09,-1.15262e+09,3.33537e+09,-2.15583e+09,1.4599e+09,-1.34494e+10,4.48012e+08,-1.66205e+09,0,-5.79363e+08,-4.33341e+09,-5.76917e+09,-1.11234e+09,-9.41534e+08,0,1.03124e+08,-4.21104e+09,1.33454e+09,-3.54095e+09,-3.06713e+06,-2.71466e+08,0,2.67474e+09,2.32944e+08,-1.74175e+09,-6.17499e+08,2.01924e+09,0,-1.5707e+09,0,-5.51448e+09,4.63224e+09,-4.50443e+09,-4.55706e+09,-1.12019e+08,1.49298e+09,-2.13778e+09,-3.86391e+09,-3.16114e+09,1.2915e+09,2.16865e+08,82691,-1.54686e+09,-3.53958e+08,-4.20259e+09,3.43704e+07,-1.21206e+06,0,-3.58816e+08,-3.21805e+09,1.92216e+09,1.42347e+09,-1.01418e+06,2.0618e+09,0,0,-1.85803e+08,-1.3109e+09,2.01052e+09,-5.67263e+09,0,1.93156e+07,0,-9.46179e+09,-3.12491e+09,-7.81285e+09,-3.11957e+09,-1.53071e+09,-8.68343e+08,-2.80965e+09,8.79857e+07,-3.77944e+08,-3.57069e+09,5.32245e+07,0,-9.50644e+08,-5.14044e+09,-3.37416e+08,-1.41569e+09,-4.24448e+08,0,-2.72091e+06,-3.05439e+09,-1.23051e+09,-2.56436e+08,-8.27939e+06,-4.1638e+08,0,-1.12519e+09,1.22204e+09,-2.46757e+08,-8.53356e+09,3.42721e+09,0,-1.20128e+09,0,0,0,0,0,0,0,0,0,0,0,0,0,0,0,0,0,0,0,0,0,0,0,0,0,0,0,0,0,0,0,0,0,0,-1.62286e+09,-4.74599e+09,-1.21481e+10,2.0838e+09,1.79201e+09,-1.50858e+10,-8.26976e+08,1.50591e+09,-5.44982e+09,5.76969e+09,-1.62812e+09,-1.01943e+09,1.27205e+09,4.64488e+09,-1.33172e+10,9.67836e+08,1.53364e+09,0,1.92296e+09,4.44237e+09,-8.92848e+07,-7.66416e+09,-7.10908e+06,8.16019e+07,-1.0107e+09,-5.08588e+09,-3.7261e+09,-1.76244e+09,-6.30739e+09,-1.33828e+10,8.29228e+08,-3.71406e+09,0,-2.13994e+11,-1.32414e+11,-6.19152e+10,-3.48414e+10,-3.58472e+10,-2.57264e+10,-2.66818e+10,3.50238e+09,-2.07523e+10,-1.13486e+10,-1.07077e+10,-1.26178e+10,-6.40439e+09,-3.79753e+09,-5.74073e+09,-1.6592e+10,-1.1568e+10,-4.70584e+09,-1.85937e+10,-4.17079e+09,-2.19768e+09,-2.58636e+10,-2.32505e+09,-1.77471e+10,-8.16105e+09,-4.04986e+10,-3.02511e+09,-2.69945e+10,-3.37014e+10,-1.47845e+10,-2.08164e+10,-2.12581e+10,0,-4.60631e+09,-4.60631e+09,-4.60631e+09,-4.60631e+09,-4.60631e+09,-4.60631e+09,-4.60631e+09,2.69226e+08,-4.60631e+09,-6.90687e+08,-1.29653e+09,-1.36372e+09,-8.20919e+08,-9.99117e+08,-2.9367e+09,-1.72113e+09,-1.35325e+09,-4.70584e+08,-1.66051e+09,-1.02119e+09,-2.60776e+07,-3.8526e+09,-2.93065e+08,-1.73063e+09,-9.17276e+08,-4.40349e+09,-6.51702e+08,-3.20564e+09,-4.60631e+09,-2.83935e+09,-1.99872e+09,-2.86685e+09,-7.34746e+10,2.40238e+08
0,3.5014e+09,-4.17746e+09,-1.27258e+10,2.74122e+07,-7.33272e+06,-4.83173e+09,2.48873e+08,-2.46537e+09,9.48674e+08,-8.46216e+09,1.54189e+09,1.97591e+08,-1.40141e+09,-9.32275e+08,-2.40466e+09,-2.7902e+08,-5.97142e+08,0,4.78686e+08,-2.30097e+09,-3.08664e+08,9.36148e+06,0,-7.3295e+07,-1.4659e+08,1.08555e+09,1.62547e+09,-1.04527e+09,-9.07411e+08,-3.76074e+09,0,-4.12978e+09,0,-8.18599e+09,4.24545e+08,-4.50885e+09,3.536e+09,0,-2.99223e+09,-8.19039e+08,-1.83888e+09,-2.82341e+09,2.04143e+09,0,1.05428e+09,8.99644e+08,-2.6452e+09,-4.84837e+08,0,0,0,4.78686e+08,-5.49137e+09,8.39899e+08,1.59753e+09,0,0,0,0,1.03164e+08,-4.82147e+08,-2.44378e+09,-6.72367e+09,0,3.16786e+09,0,-5.8827e+09,-2.92138e+09,-3.95773e+09,-3.25649e+09,2.18506e+09,-5.79451e+08,-5.09977e+09,-6.74656e+08,-2.35937e+09,-5.22974e+09,-1.22627e+09,-8.47582e+08,-5.4148e+08,-2.97394e+09,-4.0915e+09,-1.17859e+08,-3.26221e+08,0,-2.29495e+07,-8.96543e+08,8.24574e+08,-2.03188e+09,-3.67772e+08,0,0,3.57317e+09,1.65124e+09,-2.24876e+09,-2.8607e+09,-1.54579e+09,0,2.23649e+08,0,0,0,0,0,0,0,0,0,0,0,0,0,0,0,0,0,0,0,0,0,0,0,0,0,0,0,0,0,0,0,0,0,0,4.58673e+09,-2.41445e+09,-9.42919e+09,1.72901e+09,2.77685e+08,-4.73693e+09,-2.70583e+09,2.57479e+09,-3.8437e+09,-1.21505e+10,-8.64638e+08,-2.5073e+08,2.57819e+08,-5.67624e+09,9.83049e+08,-1.83644e+09,-9.05779e+08,0,0,-1.86607e+09,7.78647e+08,-1.95402e+09,-1.24439e+09,9.54869e+08,7.42917e+07,1.16375e+09,-3.59721e+09,-1.5586e+09,-4.95734e+09,-1.4868e+10,-5.01417e+08,-3.37082e+09,0,-2.15621e+11,-1.3222e+11,-6.60246e+10,-3.28239e+10,-4.0272e+10,-2.46763e+10,-2.03322e+10,2.92971e+09,-1.15029e+10,-2.16225e+10,-1.52981e+10,-7.57948e+09,-4.43075e+08,1.82073e+09,-8.15228e+09,-1.92568e+10,-1.65007e+10,-3.09267e+09,-1.83887e+10,-2.97334e+09,-5.12947e+09,-3.58557e+10,-6.11897e+07,-2.10198e+10,-1.47287e+10,-3.5304e+10,-3.86457e+08,-2.76641e+10,-3.64191e+10,-1.1764e+10,-2.59852e+10,-2.81581e+10,0,-4.72708e+09,-4.72708e+09,-4.72708e+09,-4.72708e+09,-4.72708e+09,-4.72708e+09,-4.72708e+09,5.25579e+07,-1.97075e+09,-4.72708e+09,-1.61527e+09,-7.42592e+08,-1.2285e+08,-1.0407e+09,-1.41502e+09,-2.14901e+09,-1.83335e+09,-3.09267e+08,-1.20942e+09,-1.35283e+09,-2.99501e+08,-3.94961e+09,-2.09169e+08,-2.01382e+09,-1.4801e+09,-2.94815e+09,-6.038e+07,-3.2999e+09,-4.72708e+09,-3.86623e+09,-2.64866e+09,-3.33266e+09,-6.88784e+10,-3.00091e+09
0,3.3177e+09,-3.68676e+09,-1.79444e+09,-4.55613e+09,1.04793e+07,-3.58892e+09,-4.39068e+09,-1.58571e+09,1.83691e+09,1.26194e+09,-6.69901e+08,0,-1.58936e+09,461044,-2.49022e+09,-6.69901e+08,0,0,0,4.16253e+08,-1.15192e+09,-1.41049e+09,0,-3.27593e+09,0,1.37168e+09,2.08459e+07,2.44953e+08,-4.89757e+07,2.88057e+09,0,2.72185e+08,0,-9.78136e+09,3.33457e+09,-1.13405e+09,-1.40342e+09,-1.67103e+08,-8.38425e+07,-1.96744e+09,6.45269e+08,7.2309e+08,0,-4.57192e+09,0,1.41227e+09,-4.05997e+09,-1.74107e+09,0,0,0,0,-1.21802e+09,-1.08856e+07,1.55603e+09,0,2.76484e+09,-4.34731e+07,0,3.17491e+08,1.68566e+06,-1.70704e+09,-4.58387e+09,-1.14183e+09,-1.49153e+09,0,-9.05009e+09,-6.47605e+09,-1.48885e+09,-5.38783e+09,-1.67235e+08,-5.40049e+09,-2.59097e+09,1.56614e+09,-2.13751e+06,-1.97474e+09,0,0,-6.71029e+08,-1.09636e+09,4.67165e+09,0,9.6675e+06,0,0,-3.84031e+09,-40214,2.77173e+08,0,0,542576,-1.37914e+09,-9.50379e+08,-1.36768e+09,-3.10057e+09,-4.72277e+09,-4.34731e+07,-7.46754e+08,0,0,0,0,0,0,0,0,0,0,0,0,0,0,0,0,0,0,0,0,0,0,0,0,0,0,0,0,0,0,0,0,0,0,-1.05292e+10,-7.29503e+09,-4.71522e+09,-1.28197e+09,-1.60116e+08,-6.52285e+09,-1.70456e+09,-5.46533e+09,-1.734e+09,7.52888e+08,1.66585e+08,3.64436e+08,-2.88151e+09,-1.81814e+09,-9.37505e+09,8.46648e+08,-2.97346e+08,0,-8.38425e+07,-1.49768e+09,-2.03439e+08,-3.89201e+09,0,1.70466e+06,0,-4.93951e+09,-1.27352e+09,-4.12458e+09,-5.24708e+09,-1.08002e+10,0,-3.28465e+09,0,-2.1044e+11,-1.21716e+11,-8.23075e+10,-3.51102e+10,-3.60913e+10,-2.09792e+10,-3.34219e+10,-8.0184e+09,-3.85625e+09,-2.91642e+09,-3.96608e+10,-9.13814e+09,-8.43973e+09,-9.26229e+09,-7.43353e+09,-1.17032e+10,-2.72482e+10,-1.03356e+10,-1.06442e+10,-4.22266e+09,-7.96084e+08,-1.84326e+10,1.76074e+09,-2.44065e+10,-1.60275e+10,-3.78042e+10,-1.16865e+10,-2.60301e+10,-3.53445e+10,1.75821e+09,-1.90085e+10,-2.75957e+10,0,-4.57192e+09,-4.57192e+09,-4.57192e+09,-4.57192e+09,-4.57192e+09,-4.57192e+09,-4.57192e+09,-1.2858e+09,-3.03238e+08,-2.87633e+08,-4.57192e+09,-8.7737e+08,-1.21694e+09,-1.62363e+09,-1.63683e+09,-1.15264e+09,-2.89148e+09,-1.03356e+09,-1.19637e+09,-1.03624e+09,-2.16237e+08,-2.1902e+09,2.20093e+08,-2.6295e+09,-1.60705e+09,-4.27511e+09,-1.35721e+09,-3.12757e+09,-4.57192e+09,-1.54681e+09,-2.01938e+09,-3.28465e+09,-5.9072e+10,-2.5278e+09
0,-1.16541e+10,-2.98827e+09,-4.12434e+09,-5.87898e+09,-1.79022e+09,50690,-4.37142e+08,271181,0,-2.85418e+09,0,-9.16606e+08,-9.8283e+08,-3.53289e+09,-1.07448e+08,0,-5.61332e+08,0,0,1.26101e+09,7.10761e+08,-1.57934e+09,-5.06934e+09,0,0,0,-2.18571e+08,0,-2.29384e+09,-4.1037e+09,-1.19349e+09,-1.76163e+09,0,-7.5949e+09,-1.9656e+09,2.05162e+07,-1.85141e+09,0,0,0,0,3.01241e+07,-1.80127e+09,0,-4.42507e+09,-2.10575e+08,-5.61332e+08,7.10761e+08,0,482268,0,0,24488,1.39952e+08,-1.14695e+09,-5.96546e+08,0,0,0,0,0,-9.60789e+06,-2.85413e+09,0,-9.60789e+06,0,-6.69214e+09,-2.08697e+09,506756,-1.41574e+09,-5.96546e+08,-3.23031e+08,-8.74285e+08,7.99616e+06,0,-5.61283e+08,-1.07702e+08,-7.34994e+08,-3.26273e+08,-1.34124e+09,-1.07702e+08,0,0,0,-1.07702e+08,-1.19103e+09,-2.14414e+08,-1.17755e+09,-1.30446e+09,0,0,0,0,0,0,-1.6824e+09,0,0,0,0,0,0,0,0,0,0,0,0,0,0,0,0,0,0,0,0,0,0,0,0,0,0,0,0,0,0,0,0,0,0,0,0,-2.22366e+10,-4.77044e+09,-7.27154e+09,-1.21006e+10,-2.38704e+09,-1.30105e+09,-6.55713e+08,-1.94966e+09,0,-2.89391e+09,-1.18351e+08,0,-8.87458e+08,-2.76972e+09,8.83015e+08,-7.04442e+08,-5.61332e+08,0,0,-9.8179e+08,1.06249e+06,-2.53411e+09,-1.16954e+09,0,0,0,-4.37142e+08,-1.12208e+09,-5.94008e+09,-1.20488e+10,-5.96741e+08,-2.36799e+09,0,-1.99962e+11,-1.20939e+11,-7.65289e+10,-3.36186e+10,-3.06264e+10,-3.37762e+10,-4.22831e+10,-9.99264e+09,-1.77426e+10,-2.24862e+10,-2.05147e+10,-3.81736e+10,-1.25507e+10,-2.32738e+10,1.09842e+09,-2.02256e+10,-1.26394e+10,-1.70858e+10,-2.43622e+10,1.20285e+09,1.84475e+09,-1.47781e+10,-8.83639e+09,5.57446e+06,-2.55115e+10,-9.74834e+09,-1.53e+09,-9.99103e+09,-3.60068e+10,-1.23795e+10,-4.17694e+09,-1.95406e+10,0,-4.42503e+09,-4.42503e+09,-4.42503e+09,-4.42503e+09,-4.42503e+09,-4.42503e+09,-4.42503e+09,-1.1934e+09,-1.77124e+09,-3.05968e+09,-2.07408e+09,-4.42503e+09,-1.49578e+09,-3.14789e+09,2.47705e+08,-2.093e+09,-1.37616e+09,-1.70858e+09,-2.63488e+09,2.91073e+07,2.48211e+08,-2.12161e+09,-2.12204e+09,557446,-2.55115e+09,-9.74834e+08,-2.18571e+08,-1.11131e+09,-4.42503e+09,-3.30686e+09,-5.96716e+08,-2.36799e+09,-5.71719e+10,-3.64514e+09
0,1.01704e+09,-8.3307e+09,-4.47705e+09,-3.24159e+09,-165589,1.14952e+09,-3.09425e+09,-9.43843e+08,-1.45162e+08,-1.11965e+07,-1.76365e+09,0,1.84198e+09,-2.83869e+09,3.1645e+09,-1.41258e+08,-1.38995e+08,0,-2.71684e+07,-5.41479e+09,-5.9035e+08,-4.29656e+09,2.0852e+09,-2.47063e+09,0,-8.34524e+08,7.9467e+08,-4.66906e+09,-3.13063e+09,1.65169e+09,0,-4.53547e+09,0,-5.45301e+09,2.27129e+09,-7.10481e+09,-1.79489e+09,-504847,8.72405e+08,-1.89599e+09,-1.62252e+09,8.72406e+08,-9.34335e+08,-1.4025e+09,4.96988e+08,-5.25887e+09,-2.74691e+09,-1.89538e+09,7.51727e+07,1.04497e+09,0,0,3.19147e+09,2.7152e+06,-1.37383e+09,-3.28841e+08,6.27314e+08,0,0,2.29893e+08,-1.11594e+09,-2.89792e+08,-7.75303e+09,0,2.74417e+09,0,-7.10005e+09,-2.21809e+09,-5.23007e+09,-6.9958e+09,-3.31329e+09,-5.96037e+09,-1.30329e+10,-1.14378e+09,-1.74627e+09,-7341,1.43471e+09,0,-2.72635e+09,-3.39516e+08,2.89608e+08,-8.56565e+08,-41900,0,0,3.04509e+09,0,-5.03944e+08,2.31979e+09,-5.11748e+07,0,-2.80561e+09,-1.17218e+09,-5.18513e+08,1.02814e+08,-2.22815e+09,0,-7.92939e+08,0,0,0,0,0,0,0,0,0,0,0,0,0,0,0,0,0,0,0,0,0,0,0,0,0,0,0,0,0,0,0,0,0,0,-4.16177e+09,-1.84592e+08,-7.7068e+09,-1.69643e+09,-5.32629e+07,-9.01301e+09,2.42669e+09,2.1256e+09,-1.01525e+09,1.15197e+08,-2.69632e+09,0,-8.63138e+09,-8.3647e+09,-5.94864e+09,2.24774e+08,-1.51048e+09,0,-1.06946e+09,-1.19524e+09,-7.12387e+08,-1.55701e+09,-2.27984e+09,-1.33144e+09,0,-5.74977e+09,-9.64097e+08,-3.44277e+09,2.10067e+08,-1.30084e+10,0,-1.95916e+09,0,-2.14312e+11,-1.29017e+11,-6.59055e+10,-3.31076e+10,-3.30943e+10,-2.351e+10,-2.8706e+10,4.32127e+09,-1.50045e+10,-8.02796e+09,-2.00137e+10,-9.4405e+09,-3.08023e+10,-4.62256e+08,-6.72996e+09,-1.35349e+10,-1.07633e+10,-8.90592e+09,-1.66472e+10,-9.72426e+09,-2.771e+09,-3.07886e+10,1.38025e+09,-1.39093e+10,-9.63602e+09,-3.05354e+10,-3.08432e+09,-2.82851e+10,-4.24689e+10,-6.66209e+09,-1.43032e+10,-2.6775e+10,0,-4.55769e+09,-4.55769e+09,-4.55769e+09,-4.55769e+09,-4.55769e+09,-4.55769e+09,-4.55769e+09,2.73673e+08,-1.70478e+09,-8.87265e+08,-2.51533e+09,-8.94352e+08,-4.55769e+09,-1.47521e+09,-1.11198e+09,-1.42328e+09,-1.16045e+09,-8.90592e+08,-1.53702e+09,-1.00977e+09,-4.07111e+08,-3.85199e+09,3.97071e+08,-1.71351e+09,-9.63602e+08,-3.99253e+09,-4.19603e+08,-3.80314e+09,-4.55769e+09,-2.8e+09,-1.43032e+09,-3.14039e+09,-6.96353e+10,1.68425e+09
0,8.27694e+09,8.55084e+07,-1.6116e+10,-9.19971e+09,-4.67428e+08,-1.72196e+09,-3.45603e+09,3.45871e+09,4.90983e+09,3.62287e+09,-2.31074e+09,2.88388e+08,-7.34831e+09,-1.43463e+10,-3.98974e+08,-1.19292e+09,1.55647e+09,0,-1.2061e+09,-2.79412e+09,1.34546e+08,4.25017e+09,-2.816e+07,2.7723e+06,-2.06753e+08,-2.93325e+09,5.36952e+08,-1.04627e+10,6.48566e+09,-2.61345e+09,0,-1.0235e+10,0,1.07599e+10,-5.30605e+09,-2.60878e+09,4.00995e+09,-2.22945e+08,-4.44677e+09,-1.07149e+09,-5.71222e+09,-5.96855e+08,-2.26092e+08,3.62666e+09,-4.40575e+08,-2.04518e+09,3.33109e+09,-1.19064e+09,1.10995e+09,-3.24975e+09,-628991,-4.22486e+09,-3.17906e+09,-8.66472e+07,5.3581e+07,-1.99869e+06,0,0,-5.45206e+09,-5.31918e+09,-1.80939e+09,-1.16636e+10,-4.83e+09,0,1.18035e+10,0,-7.1364e+09,2.41644e+08,-3.23414e+09,-2.10989e+09,5.47256e+08,9.53556e+08,-7.8729e+09,-8.52563e+08,-2.9917e+09,7.20162e+09,-8.53499e+08,1.33428e+09,6.86377e+08,-1.71005e+09,-1.29093e+09,7.16554e+08,4.27872e+08,0,-9.54531e+06,2.45604e+09,1.67147e+08,2.16389e+09,6.12778e+08,-3.5275e+08,1.05343e+07,-4.39273e+08,2.39105e+09,-2.25266e+09,-2.42905e+09,3.31504e+09,0,-3.97668e+09,0,0,0,0,0,0,0,0,0,0,0,0,0,0,0,0,0,0,0,0,0,0,0,0,0,0,0,0,0,0,0,0,0,0,4.84842e+09,-8.69043e+09,-7.79237e+09,-4.99239e+09,-7.9788e+07,-4.13193e+09,-1.38275e+09,2.19454e+09,-2.78001e+09,1.48987e+08,-1.7985e+09,-2.24684e+09,-7.40445e+09,-1.92681e+10,-1.90752e+09,3.37893e+08,-4.87933e+09,0,6.11161e+08,4.50336e+08,1.30433e+09,7.01826e+08,4.01086e+09,-6.48397e+08,2.84341e+06,-5.12362e+09,-9.0588e+09,2.97894e+08,-2.32197e+09,-1.84322e+10,-4.89645e+06,-5.26313e+09,0,-2.13859e+11,-1.30704e+11,-6.47516e+10,-3.57385e+10,-3.78309e+10,-2.85204e+10,-2.49863e+10,-5.63045e+08,-7.61199e+09,-7.39528e+09,-1.73201e+10,-6.21778e+09,-2.06495e+07,-1.54595e+10,-8.82179e+09,-1.58148e+10,-1.99791e+10,-6.96337e+09,-1.90513e+10,-5.84313e+09,1.42665e+09,-3.73233e+10,1.9939e+09,-1.75197e+10,-1.18518e+10,-3.70871e+10,1.96063e+09,-2.82146e+10,-3.76383e+10,-7.47094e+09,-2.02802e+10,-2.91658e+10,0,-4.75672e+09,-4.75672e+09,-4.75672e+09,-4.75672e+09,-4.75672e+09,-4.75672e+09,-4.75672e+09,-1.47459e+08,-7.23559e+08,2.26697e+08,-2.28695e+09,-7.28253e+08,-1.61322e+09,-4.75672e+09,-1.36098e+09,-1.48433e+09,-2.68779e+09,-6.964e+08,-1.92082e+09,-8.90994e+08,2.94603e+08,-3.01321e+09,9.39601e+08,-1.8518e+09,-1.20452e+09,-5.10366e+09,-9.48936e+08,-4.24415e+09,-4.75672e+09,-3.00315e+09,-2.02851e+09,-3.57597e+09,-7.2822e+10,-8.77151e+09
0,2.46677e+09,-2.27073e+09,-1.03566e+10,3.09367e+09,2.30232e+08,-4.09327e+09,-1.27888e+08,1.48652e+09,-1.75679e+09,-7.21436e+08,1.86645e+09,-2.09689e+07,7.7345e+08,-1.85914e+09,-1.79283e+09,2.27425e+08,-4.71853e+08,0,-2.68496e+08,-2.7456e+09,-1.33492e+09,2.6903e+08,-65700,-2.49372e+07,-3.07122e+08,-1.96282e+09,1.3904e+08,-626518,-1.44865e+09,-3.55086e+09,-8.71728e+08,-1.47355e+09,0,-6.94296e+09,1.60355e+09,-1.80488e+09,-2.85178e+09,-751561,1.04822e+09,-1.88369e+07,-2.31366e+09,-1.49008e+09,-8.54348e+08,-1.05035e+09,-2.80263e+08,-2.6219e+08,-1.71643e+09,-2.52773e+09,-7.18052e+07,0,0,0,-2.62785e+08,-5.4646e+08,1.47475e+08,0,-116796,-3.06948e+08,0,-7.51757e+08,-9.01436e+08,-1.07856e+09,-7.94783e+08,-30052,3.27124e+08,0,-4.62457e+09,-2.9324e+09,-2.72845e+09,-3.71225e+09,1.7901e+09,6.48904e+08,-2.6392e+09,-3.1235e+08,-6.91096e+08,-1.19689e+09,-3.34841e+08,-1.32884e+07,1.05973e+09,-1.09691e+09,-5.65805e+09,-9.64617e+08,-341628,0,-6.94749e+08,-2.42794e+08,-1.02972e+09,-2.29234e+09,-1.73298e+07,-526432,0,-5.45023e+08,-2.15201e+08,-1.15299e+09,-2.33513e+09,-2.61488e+09,0,-2.02071e+09,0,0,0,0,0,0,0,0,0,0,0,0,0,0,0,0,0,0,0,0,0,0,0,0,0,0,0,0,0,0,0,0,0,0,-6.99567e+09,-4.94593e+09,-1.01523e+10,7.24089e+07,2.38212e+09,-8.80795e+09,-5.78708e+08,-7.14371e+08,-3.60403e+09,-4.10101e+09,-1.21857e+09,7.76577e+08,-1.54114e+09,-5.77021e+09,-1.90236e+10,-3.36414e+08,1.55076e+09,0,1.26972e+09,1.06115e+09,2.9691e+09,-1.37466e+09,-2.84389e+09,-431409,-54740,-2.8982e+09,-2.97191e+09,-3.94622e+09,-3.62872e+09,-1.08824e+10,-9.02318e+07,-1.52509e+09,0,-2.15479e+11,-1.29068e+11,-6.77991e+10,-3.83507e+10,-4.13207e+10,-2.57148e+10,-2.61597e+10,2.88356e+09,-1.37462e+10,-1.10304e+10,-1.38296e+10,-1.02374e+10,5.08985e+09,-3.91271e+09,-1.71465e+10,-1.39994e+10,-1.32516e+10,-7.30422e+09,-1.32076e+10,-6.63125e+09,-6.43496e+08,-2.82109e+10,-4.21429e+09,-1.85496e+10,-1.11267e+10,-3.57233e+10,-6.89219e+09,-2.05378e+10,-3.76577e+10,-1.21562e+10,-2.43547e+10,-2.22648e+10,0,-4.61486e+09,-4.61486e+09,-4.61486e+09,-4.61486e+09,-4.61486e+09,-4.61486e+09,-4.61486e+09,1.0297e+08,-2.18773e+09,-1.79041e+09,-1.58116e+09,-9.77531e+08,5.11971e+08,-1.43576e+09,-4.61486e+09,-1.43972e+09,-1.41728e+09,-7.30422e+08,-1.53895e+09,-8.82128e+08,-5.85508e+07,-3.19008e+09,-1.00239e+09,-1.95694e+09,-1.17408e+09,-4.11294e+09,-1.14489e+09,-2.65391e+09,-4.61486e+09,-2.99991e+09,-2.53167e+09,-2.72745e+09,-7.03247e+10,-2.07186e+09
0,-9.94597e+09,1.31988e+09,-2.47868e+09,-3.79455e+09,1.78398e+08,-4.42108e+09,-4.83242e+09,-8.6138e+08,4.08717e+08,0,-680217,0,-1.09253e+09,224127,2.23674e+08,1.05551e+06,0,0,0,1.75987e+08,0,-3.44591e+09,0,1.15574e+08,0,-1.21015e+09,-1.20879e+09,-9.63923e+08,-3.84025e+09,-4.02983e+09,0,-4.67582e+08,0,-5.49377e+09,-4.57762e+09,-1.40125e+09,-3.51161e+09,0,27180,-1.20811e+09,-3.41807e+08,22410,0,0,0,2.27917e+08,-9.71789e+08,4.39936e+08,-4.57839e+09,0,0,0,1.78398e+08,0,0,0,-680217,0,0,-1.20811e+09,-9.63119e+08,1.80783e+08,-1.21131e+09,0,-8.67678e+08,0,-6.92296e+09,-3.62595e+09,-4.48682e+09,-3.74656e+09,-9.53063e+08,-1.62911e+09,0,-1.73412e+07,-3.3161e+08,-4.67528e+08,0,0,-1.1903e+07,-3.36269e+07,0,246537,0,0,-6.68794e+07,-6.68794e+07,0,0,0,27180,0,-6.68794e+07,0,-3.33344e+08,-9.80422e+08,-9.6155e+06,0,-9.63092e+08,0,0,0,0,0,0,0,0,0,0,0,0,0,0,0,0,0,0,0,0,0,0,0,0,0,0,0,0,0,0,0,0,0,0,-1.88344e+10,-1.06366e+10,-7.53133e+09,-6.87187e+09,-7.74665e+08,-5.61112e+09,-6.04256e+09,5.04549e+08,-2.32489e+09,-1.67563e+09,0,0,-2.4162e+09,-4.3353e+07,-1.15023e+09,-1.09656e+09,3.67923e+07,0,-8.67061e+06,-2.24028e+08,-803718,-4.2206e+09,0,2.27944e+08,22410,-2.4162e+09,-2.41824e+09,0,-5.41652e+09,-5.70577e+09,0,-1.15684e+09,0,-2.10605e+11,-1.15878e+11,-7.55677e+10,-3.66098e+10,-3.50778e+10,-2.49658e+10,-3.37007e+10,-1.25597e+10,-2.67647e+10,-2.24695e+10,-1.91702e+10,-2.16855e+10,-7.7584e+09,-8.65843e+09,-5.28871e+09,-4.01102e+10,-1.16691e+10,-8.6747e+09,-1.73545e+10,-2.29486e+09,-7.23346e+06,-1.6837e+10,-1.12217e+10,-1.41752e+10,-2.63158e+10,-1.86837e+10,-5.46872e+09,-2.8925e+10,-3.57275e+10,-1.42155e+10,-3.33232e+09,-1.69597e+10,0,-4.57839e+09,-4.57839e+09,-4.57839e+09,-4.57839e+09,-4.57839e+09,-4.57839e+09,-4.57839e+09,-1.32757e+09,-2.90124e+09,-2.46127e+09,-1.91709e+09,-2.16855e+09,-1.10511e+09,-9.70695e+08,-5.77533e+08,-4.57839e+09,-1.16323e+09,-8.6747e+08,-1.7185e+09,-2.23139e+08,-803718,-2.45035e+09,-1.40271e+09,-1.38323e+09,-2.63158e+09,-2.23769e+09,-1.03039e+09,-3.11854e+09,-4.57839e+09,-2.5172e+09,-3.33232e+08,-2.11995e+09,-5.80985e+10,-2.08506e+09
0,2.86924e+08,3.31633e+09,8.52517e+08,-1.75421e+09,2.67909e+08,-1.39347e+09,-1.30266e+09,-4.35133e+09,-2.84518e+08,-1.26695e+09,-1.26764e+09,6.12278e+08,-1.78807e+09,1.0719e+09,1.65792e+09,-6.2751e+08,-7.72032e+09,0,1.29548e+09,4.99003e+09,1.31503e+09,-3.21762e+09,-3.26417e+09,-1.51701e+09,0,-1.29977e+09,1.13685e+09,1.05065e+09,-2.33252e+09,-5.6301e+09,3.39818e+08,-1.6628e+08,0,-9.17846e+09,-3.47276e+09,-2.61208e+09,-3.19623e+09,71116,6.13501e+08,-1.29127e+09,-3.30029e+08,1.044e+09,0,0,-2.88475e+06,-2.67255e+08,-4.62635e+09,4.96743e+08,6.48027e+08,-6.84005e+08,0,0,1.12482e+09,-2.72862e+08,6.13499e+08,-2.26715e+08,-1.30244e+09,0,0,-7.95794e+07,3.93725e+08,2.60822e+09,1.35465e+08,0,-1.57492e+09,0,-1.13274e+10,-4.07102e+09,-2.13013e+09,-3.8461e+09,5.39777e+08,-2.56355e+09,-7.04205e+09,1.83905e+09,-1.01623e+09,-1.87967e+09,-1.31972e+09,0,6.97941e+08,-4.75734e+09,-1.52378e+09,1468,-3.7898e+09,0,0,-9.74078e+07,-4.69167e+08,-3.97209e+09,-1.10269e+09,0,0,-4.06487e+09,-7.30213e+08,-2.23217e+09,-5.1547e+09,-3.62766e+09,-1.27485e+08,-1.52679e+09,0,0,0,0,0,0,0,0,0,0,0,0,0,0,0,0,0,0,0,0,0,0,0,0,0,0,0,0,0,0,0,0,0,0,-6.46142e+08,-2.97713e+09,-1.08984e+10,1.26798e+09,6.03866e+07,-5.10471e+09,3.19614e+09,-1.01562e+10,1.34057e+08,-3.63949e+09,1.58988e+09,1.2768e+08,-2.19841e+09,-8.66467e+09,3.33976e+09,-8.09724e+08,-1.06884e+09,0,6.99085e+08,2.85146e+08,6.75581e+08,-7.12844e+09,-3.95897e+07,-6.2751e+08,0,-4.46893e+09,-2.12013e+09,-3.54457e+09,-7.12428e+09,-1.86438e+10,2.74649e+08,-2.39922e+09,0,-2.12798e+11,-1.26355e+11,-7.60606e+10,-4.01826e+10,-3.71885e+10,-2.78725e+10,-3.59121e+10,-1.16637e+09,-1.02138e+10,-3.53815e+09,-1.37534e+10,-8.08784e+09,3.03546e+09,-2.00973e+09,-3.22626e+09,-7.26292e+09,-3.13299e+10,-5.6652e+08,-1.61479e+10,-1.02803e+10,2.81076e+09,-3.03371e+10,-1.01627e+10,-1.50756e+10,-1.97776e+10,-2.9265e+10,-5.50536e+09,-2.36733e+10,-3.33973e+10,-8.23809e+09,-2.06422e+10,-2.74865e+10,0,-4.54005e+09,-4.54005e+09,-4.54005e+09,-4.54005e+09,-4.54005e+09,-4.54005e+09,-4.54005e+09,-1.41649e+09,-1.03365e+09,-1.11318e+09,-1.47508e+09,-7.35077e+08,-5.20332e+07,-1.89862e+09,7.44388e+07,-8.05212e+08,-4.54005e+09,-5.6652e+07,-1.18126e+09,-3.97769e+08,4.05935e+08,-4.48494e+09,-1.84948e+09,-1.85226e+09,-1.97776e+09,-3.90986e+09,-7.29842e+08,-2.80056e+09,-4.54005e+09,-3.60042e+09,-2.01552e+09,-3.41511e+09,-6.0412e+10,-1.20164e+09
0,-2.6832e+09,-2.84417e+09,-2.6832e+09,-4.26626e+09,0,-8.21057e+09,0,-5.3664e+09,0,0,-1.42209e+09,0,0,-1.42209e+09,0,0,0,0,0,-2.84417e+09,-4.26626e+09,0,-4.10529e+09,0,0,0,0,0,-5.3664e+09,-5.3664e+09,0,-2.6832e+09,0,-2.6832e+09,-2.6832e+09,0,0,0,-4.10529e+09,0,-2.6832e+09,0,0,0,0,0,-1.42209e+09,0,0,0,-4.10529e+09,0,-2.84417e+09,0,0,0,0,0,0,0,0,0,0,0,0,0,-8.21057e+09,-2.6832e+09,-2.6832e+09,-1.42209e+09,0,-1.08938e+10,0,0,0,0,0,0,0,0,0,0,0,0,0,-2.84417e+09,0,-2.6832e+09,-1.42209e+09,0,0,0,0,0,-2.6832e+09,-8.0496e+09,0,0,0,0,0,0,0,0,0,0,0,0,0,0,0,0,0,0,0,0,0,0,0,0,0,0,0,0,0,0,0,0,0,0,0,0,-2.8737e+10,-4.26626e+09,-4.26626e+09,-1.37379e+10,0,-2.84417e+09,0,-2.6832e+09,0,0,0,-2.84417e+09,0,-1.42209e+09,0,0,0,0,0,-2.17876e+10,-1.91043e+10,-1.07328e+10,-1.42209e+09,0,0,0,0,0,-5.52738e+09,-1.3416e+10,0,0,0,-1.85999e+11,-1.10682e+11,-7.24731e+10,-2.99981e+10,-3.28422e+10,-6.78848e+09,-4.10529e+10,-1.60992e+10,0,0,-1.27988e+10,-1.13767e+10,-1.42209e+10,-9.95461e+09,0,0,0,-3.69476e+10,0,-1.07328e+10,-1.76823e+10,-1.3416e+10,-2.58929e+10,0,-4.10529e+10,0,0,0,-2.74759e+10,0,0,-2.41488e+10,0,-4.10529e+09,-4.10529e+09,-4.10529e+09,-4.10529e+09,-4.10529e+09,-4.10529e+09,-4.10529e+09,-2.6832e+09,0,0,-1.42209e+09,-1.42209e+09,-1.42209e+09,-1.42209e+09,0,0,0,-4.10529e+09,0,-4.10529e+09,-4.10529e+09,-2.6832e+09,-4.10529e+09,0,-4.10529e+09,0,0,0,-4.10529e+09,-2.6832e+09,0,-2.6832e+09,-7.94225e+10,-1.42209e+09
0,4.68507e+09,-2.26525e+09,-5.81172e+08,8.61839e+08,0,0,-8.94977e+08,-4.45759e+09,-5.74203e+08,0,0,-2.22043e+08,-5.7712e+08,-2.29906e+09,-6.8998e+08,0,-1.17717e+09,0,-2.73866e+08,-5.28711e+08,-9.19273e+08,-8.97894e+08,0,-8.97894e+08,0,0,-2.7676e+06,0,-4.9089e+09,0,-8.97894e+08,-3.0213e+09,0,-4.29432e+09,-1.1229e+09,-1.00781e+09,-2.9073e+09,0,0,-1.27705e+09,-1.70796e+09,-5.747e+08,-1160,0,0,0,-1.17737e+09,-2.68971e+08,0,0,0,-4.475e+09,-1.40393e+09,0,0,0,0,2.92071e+06,0,0,0,2.34359e+09,-4.11558e+09,0,-3.88624e+08,0,-4.3863e+09,-1.93987e+09,-1.60248e+09,-1.63884e+09,2.91839e+06,-1.3651e+09,-1.80234e+09,-2.947e+09,2.84872e+06,-2.68971e+08,-2.22043e+08,0,0,-5.38229e+08,-1.83806e+09,0,-71987,0,-2.34111e+08,-1.96287e+09,-4.41165e+08,0,0,0,2.92071e+06,1.75242e+07,-2.31046e+08,0,-1.13194e+09,-3.72396e+06,0,-7.34123e+08,0,0,0,0,0,0,0,0,0,0,0,0,0,0,0,0,0,0,0,0,0,0,0,0,0,0,0,0,0,0,0,0,0,0,-9.40788e+09,-6.71049e+09,-2.49089e+09,-2.13186e+09,-2.33968e+08,-1.72093e+09,-2.31051e+08,-8.26414e+09,-5.77319e+08,-1160,-2.22043e+08,0,-1.37393e+09,-9.65686e+09,-4.16395e+09,-7.96814e+08,-197635,0,0,-4.0017e+09,8.76212e+06,-9.00661e+08,0,-2.68971e+08,0,-9.693e+08,-1.67685e+09,-3.72396e+06,-5.84585e+09,-2.35469e+08,0,-3.01511e+09,0,-2.05183e+11,-1.21636e+11,-8.35486e+10,-3.40753e+10,-3.55689e+10,-3.27139e+10,-3.93044e+10,-1.88458e+10,-2.21228e+10,-9.36113e+09,-6.4707e+09,-1.01318e+10,-8.38295e+09,-1.21518e+10,-6.89345e+09,-1.5925e+10,-1.05969e+10,-1.61277e+10,-3.22037e+10,-5.63699e+09,-5.62866e+09,-1.29485e+10,-1.24669e+10,-2.58581e+10,-1.66893e+10,-8.71201e+09,-1.71989e+10,-4.67132e+09,-3.52069e+10,1.93518e+09,-1.49293e+10,-2.29919e+10,0,-4.475e+09,-4.475e+09,-4.475e+09,-4.475e+09,-4.475e+09,-4.475e+09,-4.475e+09,-3.62224e+09,-2.38461e+09,-9.63011e+08,-6.91479e+08,-1.03538e+09,-1.0334e+09,-2.58233e+09,-1.38544e+09,-1.67218e+09,-1.17744e+09,-1.61277e+09,-4.475e+09,-1.35342e+09,-6.98033e+08,-1.4747e+09,-1.55835e+09,-2.70249e+09,-1.66805e+09,-9.66379e+08,-1.91095e+09,-4.67505e+08,-4.475e+09,-2.41959e+08,-1.58271e+09,-3.01511e+09,-6.25229e+10,-1.74477e+09
0,1.90407e+09,-1.8793e+09,-6.35835e+08,2.94675e+09,-5.07641e+08,-5.76438e+09,-4.18819e+09,1.78939e+09,2.23897e+09,6.88651e+08,4.03665e+08,1.64935e+09,-6.16129e+09,1.07404e+08,-1.70352e+09,-3.85547e+06,-4.10397e+08,0,-1.83395e+06,-5.44444e+09,7.11105e+09,1.11226e+09,6.9318e+08,1.11567e+08,-2.7116e+08,-4.90602e+09,-2.21029e+09,-4.9923e+09,-1.03698e+09,-7.04012e+08,0,-8.39184e+08,0,-7.63618e+09,-8.64642e+09,-8.81986e+09,6.86566e+09,-73036,-3.24491e+09,-5.56407e+09,5.22426e+09,2.44819e+09,-1.39187e+09,-2.08951e+09,-712063,-6.3018e+09,5.20728e+08,-1.41068e+09,-2.03585e+08,2.13167e+09,6.94388e+08,8.16809e+08,-4.42575e+09,-6.55189e+09,2.35951e+09,0,-3.94448e+09,-8.87435e+08,0,-5.15532e+09,1.82019e+09,-6.41274e+09,4.61697e+09,0,4.25986e+09,0,-5.29068e+09,5.81145e+09,-1.62389e+09,2.20125e+09,-5.6642e+08,3.35351e+09,-9.8321e+09,1.19175e+09,-1.0823e+08,-7.05516e+09,-8.29021e+06,0,2.46721e+09,-9.5836e+08,-3.89512e+09,-1.32443e+09,-6.83794e+08,0,-1.83395e+06,-3.98607e+09,3.04651e+09,3.97438e+07,1.48957e+08,-1.62194e+08,-3.02889e+08,-4.16259e+09,1.58447e+09,-1.17419e+08,-4.47378e+09,-3.37131e+09,0,-7.12329e+09,0,0,0,0,0,0,0,0,0,0,0,0,0,0,0,0,0,0,0,0,0,0,0,0,0,0,0,0,0,0,0,0,0,0,5.90319e+09,-5.27513e+09,-1.26893e+10,4.54586e+09,1.25763e+09,-4.94831e+09,-1.72515e+09,2.01402e+09,2.71079e+09,-1.79317e+09,-1.41656e+09,7.87097e+08,-1.53167e+09,-2.44001e+08,-4.12765e+09,-7.59436e+08,4.48618e+08,-5.06293e+08,-7.15492e+08,-9.91887e+09,3.37793e+08,-3.14552e+09,-9.14863e+08,-1.1167e+09,-1.14415e+09,-3.42162e+09,-3.66904e+09,-1.30616e+09,-5.00531e+09,-1.66791e+10,-5.71593e+08,-5.01077e+09,0,-2.18559e+11,-1.27793e+11,-6.68294e+10,-4.10912e+10,-3.68937e+10,-2.61061e+10,-1.82763e+10,2.78865e+09,-8.1077e+09,-7.92209e+09,-1.69114e+10,-9.66047e+09,-4.37988e+09,-1.75399e+09,-6.62583e+09,-1.88069e+10,-1.66566e+10,-1.02043e+09,-1.67765e+10,-2.21125e+10,-2.53429e+09,-3.28936e+10,1.77635e+09,-2.03813e+10,-1.21747e+10,-3.59515e+10,2.18128e+08,-2.95851e+10,-2.89439e+10,-6.50356e+09,-2.79926e+10,-2.29448e+10,0,-4.58877e+09,-4.58877e+09,-4.58877e+09,-4.58877e+09,-4.58877e+09,-4.58877e+09,-4.58877e+09,1.30081e+09,7.52759e+07,-1.74737e+09,-2.10313e+09,-7.22474e+08,-1.59074e+09,-2.32823e+08,-1.77628e+09,-2.10982e+09,-1.51704e+09,-8.32334e+07,-1.75331e+09,-4.58877e+09,1.11973e+08,-3.25289e+09,2.12953e+08,-2.52554e+09,-1.5444e+09,-4.84417e+09,-9.23204e+08,-3.41808e+09,-4.58877e+09,-2.2641e+09,-2.85642e+09,-3.14618e+09,-7.03773e+10,3.60737e+09
0,-5.63676e+09,-7.451e+08,-3.63746e+09,-5.61737e+09,-4.40508e+08,-5.98054e+09,-1.09786e+09,1.47112e+09,-1.24006e+09,-2.30049e+09,-1.87582e+09,-1.38392e+09,-9.06914e+08,-8.30528e+08,-1.6446e+09,-1.40263e+09,-6.51569e+08,0,-2.80283e+09,-3.014e+09,-4.9977e+09,-2.56146e+08,-167584,-5.76344e+07,0,-1.0643e+09,0,-833385,1.12224e+09,-1.41987e+09,0,-5.03168e+09,0,-6.69072e+09,-1.52144e+09,-3.34542e+09,-4.14081e+09,-4.40424e+08,1.98971e+09,4.46643e+08,0,-565779,-7.1435e+07,3.82738e+09,-7.7677e+07,-1.91808e+07,-3.60197e+09,-1.79917e+09,0,-9.09498e+06,0,0,-6.40241e+09,1.12316e+09,4.17776e+08,0,0,0,-3.04946e+07,-8.80787e+08,-555590,-3.92231e+09,-2.25137e+09,0,1.54995e+09,0,-6.72353e+09,-1.68585e+09,-1.18651e+09,-7.44012e+08,-1.12321e+09,-5.2706e+09,6.53666e+08,-9.7826e+08,1.55673e+08,-1.74741e+06,4.99697e+07,-1.27047e+09,1.66883e+08,2.78259e+09,-7.22895e+08,-1.74741e+06,-6.35237e+08,0,6.36295e+08,-2.11881e+09,-9.30992e+09,-1.42972e+09,-2.3037e+08,-5.76344e+07,0,1.36639e+08,-6.10977e+08,0,-2.38041e+09,-5.52436e+09,0,-3.13793e+08,0,0,0,0,0,0,0,0,0,0,0,0,0,0,0,0,0,0,0,0,0,0,0,0,0,0,0,0,0,0,0,0,0,0,-1.42999e+09,-5.37148e+09,-9.80479e+09,-9.37247e+08,-2.00434e+09,-4.3882e+09,-5.93138e+09,6.82086e+08,-1.09285e+09,-1.63504e+09,-1.21308e+09,-2.10074e+09,-5.75163e+09,-2.17941e+09,-5.32039e+09,1.60834e+09,7.07442e+08,1.06826e+09,-1.62852e+09,-1.28232e+10,-8.13316e+09,-3.47951e+08,1.32569e+09,-1.15269e+08,-5.76344e+07,-7.11575e+08,4.36594e+08,-3.33869e+09,-1.62762e+09,-7.76206e+09,-2.26316e+08,-2.09867e+09,0,-2.10132e+11,-1.248e+11,-7.38806e+10,-3.4122e+10,-3.27568e+10,-2.31156e+10,-3.76551e+10,-7.19884e+09,-1.09284e+10,-1.87576e+10,-1.07476e+10,-6.79113e+09,-3.91358e+09,-6.52495e+09,-5.23345e+09,-1.44558e+10,-9.79681e+09,-4.05463e+09,-1.16232e+10,-4.44728e+09,-2.4639e+10,-3.62137e+10,1.30015e+10,-1.90294e+10,-1.10229e+10,-2.42222e+10,-1.03237e+10,-2.19079e+10,-3.9146e+10,-5.61824e+09,-2.47241e+10,-2.47412e+10,0,-4.59566e+09,-4.59566e+09,-4.59566e+09,-4.59566e+09,-4.59566e+09,-4.59566e+09,-4.59566e+09,-6.02388e+08,-1.31062e+09,-2.27663e+09,-1.084e+09,-1.16239e+09,-1.04244e+09,-1.03543e+09,-1.47205e+09,-1.42519e+09,-1.03853e+09,-2.98636e+08,-2.0134e+09,-2.88058e+09,-4.59566e+09,-3.78297e+09,1.76209e+09,-1.92599e+09,-1.10805e+09,-2.58919e+09,-1.13789e+09,-2.52479e+09,-4.59566e+09,-2.25759e+09,-2.49504e+09,-3.06354e+09,-7.46566e+10,1.57716e+09
0,1.29032e+09,7.2084e+08,-4.38226e+09,3.32069e+09,1.95989e+09,-3.08135e+08,-8.69249e+09,-5.34834e+09,2.58592e+09,-1.10318e+09,-1.06593e+09,1.0919e+09,-8.75313e+08,-4.39212e+09,-5.99142e+09,-3.44585e+07,1.69787e+08,6.7721e+08,0,2.09077e+09,-1.78064e+09,-2.64944e+08,4.99423e+09,6.58069e+08,0,2.80951e+09,-6.98124e+08,-1.64811e+09,-7.20734e+09,-6.04141e+09,-8.00395e+08,-3.06261e+09,0,-4.03226e+09,8.17447e+08,-1.3256e+08,-2.99831e+09,-3.463e+08,-5.49444e+09,1.26752e+08,3.0321e+08,-4.13756e+08,1.08493e+09,-5.19674e+08,1.59314e+09,-4.46646e+07,-3.05418e+08,-2.74248e+09,0,-1.35962e+09,0,0,-7.10577e+09,-1.40902e+09,-1.30882e+09,-8.36944e+07,1.23965e+09,7.98041e+07,0,-2.31116e+09,-4.21904e+08,1.51869e+08,-1.00453e+09,1.59922e+09,5.24755e+08,0,-6.03531e+09,-4.09073e+09,-7.10325e+09,-5.10903e+09,-3.57484e+09,-1.91953e+08,-7.39596e+09,-5.7603e+09,1.03032e+09,8.48592e+08,1.27218e+09,1.2106e+09,1.2156e+09,2.42937e+09,-1.36326e+08,-151063,-4.87619e+07,0,0,1.06046e+09,1.39562e+09,-1.99583e+09,1.81362e+09,-3.2865e+08,-7.59772e+08,3.20323e+08,2.18861e+09,-2.83848e+09,2.5106e+09,-4.66664e+09,-8.20228e+08,7.36893e+08,0,0,0,0,0,0,0,0,0,0,0,0,0,0,0,0,0,0,0,0,0,0,0,0,0,0,0,0,0,0,0,0,0,0,-6.5398e+09,-1.48076e+09,-7.36183e+09,-2.31459e+09,2.58089e+09,-4.86547e+09,3.67902e+09,-4.38668e+09,-1.81704e+09,-4.43193e+09,-2.80373e+09,0,3.22262e+09,-9.38817e+09,-1.06897e+10,6.58747e+08,-2.00827e+09,-5.52065e+08,5.03222e+07,2.96904e+09,-7.66775e+08,1.5138e+09,1.31113e+09,1.00407e+09,5.02034e+08,6.02973e+08,-1.81996e+09,-3.01432e+09,-5.80316e+09,-1.519e+10,6.70084e+08,-1.98384e+09,0,-2.12275e+11,-1.30011e+11,-7.10692e+10,-3.92824e+10,-3.64582e+10,-2.49786e+10,-1.99264e+10,-9.42168e+08,-1.30416e+10,-1.19471e+10,-1.7076e+10,-6.74716e+09,-3.29628e+09,-1.49917e+09,-1.06761e+10,-2.05639e+10,-1.88822e+10,-3.27509e+09,-1.54612e+10,-1.15506e+10,1.00833e+09,-4.15386e+10,6.27724e+09,-2.46195e+10,-1.76826e+10,-3.47946e+10,-6.02884e+09,-2.35041e+10,-3.44502e+10,1.81496e+09,-2.7622e+10,-2.49055e+10,0,-4.47981e+09,-4.47981e+09,-4.47981e+09,-4.47981e+09,-4.47981e+09,-4.47981e+09,-4.47981e+09,-1.61343e+09,-1.1391e+09,-1.55516e+09,-2.01932e+09,-2.85152e+08,2.21972e+07,-1.31555e+09,-3.0236e+09,-1.99587e+09,-2.2132e+09,-3.14994e+08,-1.5782e+09,-1.25361e+09,-1.55248e+08,-4.47981e+09,1.78907e+09,-2.20464e+09,-1.78605e+09,-3.10617e+09,-8.70725e+08,-3.1427e+09,-4.47981e+09,-2.50877e+09,-2.69734e+09,-2.871e+09,-6.71892e+10,-4.03198e+09
0,-3.24791e+10,-1.39373e+10,8.2694e+07,-1.45294e+10,-1.82921e+09,-7.9725e+08,-7.67501e+09,1.61662e+08,3.91312e+08,0,0,-8.52459e+06,206143,0,0,1.2991e+06,-1.28446e+10,56679,0,-2.05658e+09,8.50676e+06,-1.36615e+06,-1.48548e+10,1.49207e+06,0,1.35836e+06,-2.05546e+08,57076,-4.93004e+09,-1.26318e+06,-1.9588e+09,75261,0,-3.98939e+09,1.9935e+08,64019,-7.96835e+09,-902174,6.37558e+07,-91813,206330,-1.22814e+06,0,0,-4.99585e+06,0,116144,6.24161e+07,0,-4.32134e+09,18208,0,56889,0,1.1781e+06,-7.06997e+09,0,304459,0,7.98417e+07,0,1.19952e+08,-866999,0,187,0,-3.39607e+09,-1.03712e+09,276414,-3.4916e+09,7.04232e+08,333633,-46000,1.28352e+08,-8.9997e+08,0,0,-1.23612e+06,6.24304e+07,116144,1.25449e+08,0,-3.63467e+09,0,0,1.04684e+06,1.20257e+08,-716941,-3.93806e+09,1.20389e+08,0,0,1.47698e+07,0,-5.53795e+08,-876950,1.4954e+08,-9.83585e+08,0,0,0,0,0,0,0,0,0,0,0,0,0,0,0,0,0,0,0,0,0,0,0,0,0,0,0,0,0,0,0,0,0,0,-1.8595e+10,-6.17922e+09,-3.6856e+09,-5.50763e+09,-1.43586e+09,-9.2607e+09,3.63676e+08,2.59943e+08,-5.68584e+08,-2.85388e+08,-2.86659e+08,6.24161e+07,-4.11866e+09,-3.08913e+09,-1.07411e+09,1.28373e+08,-7.33621e+08,0,2.48443e+06,-6.45527e+09,963320,-4.1155e+09,-8.92446e+09,1.82923e+08,0,2.73098e+06,-3.07651e+09,-3.85206e+08,-6.60832e+09,5.63376e+06,2.95395e+07,-3.04165e+09,0,-1.95863e+11,-1.1616e+11,-8.77179e+10,-2.49196e+10,-3.39677e+10,-2.65356e+10,-3.63831e+10,-7.45247e+09,-7.27925e+09,-1.15619e+10,-1.22653e+10,-7.63228e+09,-1.57572e+10,-1.17164e+10,-1.57937e+10,-1.15291e+10,-1.46134e+10,-2.43309e+10,-4.91927e+09,-1.49112e+10,-6.89082e+09,-1.64676e+10,-2.07096e+09,-2.50718e+10,-1.48067e+10,-2.05707e+10,-8.55664e+09,-2.56666e+10,-3.36883e+10,4.08115e+06,-9.4775e+09,-2.63906e+10,0,-4.56618e+09,-4.56618e+09,-4.56618e+09,-4.56618e+09,-4.56618e+09,-4.56618e+09,-4.56618e+09,-6.90231e+08,-8.35772e+08,-1.18473e+09,-1.25519e+09,-7.58462e+08,-1.98132e+09,-1.48052e+09,-1.66799e+09,-1.13994e+09,-3.58189e+09,-2.43308e+09,-4.83297e+08,-2.3422e+09,-6.76109e+08,-2.0584e+09,-4.56618e+09,-2.4767e+09,-1.48076e+09,-2.05666e+09,-1.1744e+09,-2.60518e+09,-4.56618e+09,670779,-1.12572e+09,-3.04158e+09,-6.7195e+10,-3.7448e+09
0,-4.41452e+09,-1.78412e+09,-2.28534e+09,-3.34407e+09,-6.29726e+07,-2.54158e+09,-1.29995e+08,1.25442e+09,-6.03832e+07,-6.41566e+07,-1.47312e+07,0,1.32062e+08,-1.23994e+09,3.85781e+08,5.75057e+08,-1.68549e+09,0,0,-2.34561e+09,-2.31033e+08,-4.90035e+08,-4.24461e+08,-1.84396e+09,-1.23994e+09,1.90373e+07,2.0874e+06,-1.1958e+09,1.05613e+09,2.7924e+08,2.3266e+07,-1.20929e+09,0,-4.23413e+09,-7.61619e+09,-2.18711e+09,-1.68829e+09,0,99025,-3.06524e+08,3.19378e+06,-587083,0,-1.39681e+09,0,949804,0,5.10901e+08,2.0874e+06,5.75057e+08,0,0,-2.00654e+09,0,-2.15e+08,0,-4.79768e+09,-1.23994e+09,0,0,0,-3.47241e+09,-1.81758e+09,-3.78913e+08,4.6532e+07,0,-8.71368e+09,-5.94394e+09,-4.00267e+09,-4.25184e+09,-34447,-5.64265e+08,-6.49979e+08,-5.45174e+09,-1.16668e+06,-1.53261e+08,-9.58035e+07,0,-1.54046e+09,-221645,-3.62568e+09,-1.66459e+09,8.79361e+07,0,0,-1.69305e+09,-34447,-2.02138e+08,-7.44088e+07,-1.0112e+07,-4.59785e+08,0,-1.53261e+08,-9.22908e+08,-1.36312e+09,-3.50179e+09,-1.19898e+08,-1.222e+09,0,0,0,0,0,0,0,0,0,0,0,0,0,0,0,0,0,0,0,0,0,0,0,0,0,0,0,0,0,0,0,0,0,0,-8.33025e+09,-5.33235e+09,-6.07459e+09,-2.73161e+09,-1.88597e+08,-4.62485e+09,-3.00261e+08,-5.16709e+09,-2.26346e+09,-6.41566e+07,2.93594e+06,0,-4.86337e+09,-2.87025e+09,-9.77278e+08,-1.08953e+09,0,0,0,-5.26732e+09,-2.5644e+08,-9.07752e+08,-3.76375e+08,-3.52244e+09,-1.47357e+09,6.38755e+06,-2.76995e+08,-2.58603e+09,-5.97855e+09,-8.83216e+09,0,-3.13105e+09,0,-2.1092e+11,-1.13879e+11,-7.30028e+10,-3.55535e+10,-3.65726e+10,-2.90937e+10,-4.46435e+10,-1.38162e+10,-1.15086e+10,-1.87173e+09,-2.76685e+10,-1.17626e+10,-1.33971e+10,-1.99826e+10,-9.33183e+09,-8.04567e+09,-1.64321e+10,-7.25502e+09,-1.2097e+10,-9.86454e+09,-2.73545e+09,-1.21804e+10,-4.54964e+09,-3.58561e+10,-1.97007e+10,2.73869e+07,-5.51998e+09,-1.87889e+10,-3.62408e+10,-6.5526e+09,-3.01878e+10,-2.57946e+10,0,-4.60302e+09,-4.60302e+09,-4.60302e+09,-4.60302e+09,-4.60302e+09,-4.60302e+09,-4.60302e+09,-2.31774e+09,-1.38343e+09,-2.15331e+08,-2.91728e+09,-1.17626e+09,-1.96679e+09,-2.40931e+09,-1.30381e+09,-1.02227e+09,-1.74546e+09,-7.25502e+08,-1.53322e+09,-2.11771e+09,-3.22296e+08,-1.39953e+09,-6.78109e+08,-4.60302e+09,-2.41139e+09,5.28118e+06,-5.94816e+08,-2.34936e+09,-4.60302e+09,-2.04249e+09,-3.06634e+09,-3.13105e+09,-6.81103e+10,-1.08532e+09
0,-5.46208e+09,-4.93512e+09,-4.18176e+09,-1.72618e+09,0,-4.13686e+09,-3.22373e+07,-1.50182e+09,-5.99625e+08,9.43308e+07,-103233,0,-7.9789e+07,-1.10796e+09,-4.20857e+08,-6.10773e+08,0,0,0,-3.6264e+09,0,-313550,-7.9789e+07,-7.30851e+08,-1.80912e+09,-7.9789e+07,-7.0343e+08,-1.01063e+09,-1.83514e+09,-2.32686e+09,-7.98388e+08,-2.50392e+09,0,-1.17968e+09,-3.54053e+09,-3.60258e+09,-1.47353e+09,0,-1.28679e+09,1.89916e+08,-1.17976e+06,0,0,-8.25706e+08,0,0,0,-7.98388e+08,0,0,0,-5.99625e+08,-1.78532e+09,0,-7.9789e+07,-7.9789e+07,-1.10559e+09,-4.50615e+09,0,-1.17976e+06,0,-7.9814e+08,-8.25706e+08,0,-6.10773e+08,0,-4.22512e+09,-4.98006e+09,-2.59527e+09,-3.15976e+09,-1.39715e+09,-1.35351e+09,-5.99625e+08,-1.17976e+06,-5.99625e+08,0,0,0,-7.9789e+07,-1.34965e+09,-2.02447e+09,0,0,0,0,-4.71562e+09,-5.99625e+08,-6.76318e+08,-3.98945e+08,-13025,-5.99939e+08,-5.02719e+09,-5.99625e+08,-13025,-7.55298e+08,-6.22194e+09,-8.25809e+08,-6.00805e+08,0,0,0,0,0,0,0,0,0,0,0,0,0,0,0,0,0,0,0,0,0,0,0,0,0,0,0,0,0,0,0,0,0,0,-4.13762e+09,-4.99709e+09,-7.11011e+09,-3.24412e+09,-7.89145e+07,-1.36874e+10,-4.10889e+08,-8.11064e+09,1.48613e+06,-2.39579e+09,-7.9789e+07,0,-6.46201e+07,-2.02683e+09,-7.58313e+09,247689,0,0,0,-5.46795e+09,-1.79887e+09,-1.59155e+09,0,-1.10592e+09,-1.10633e+09,-8.34403e+08,-1.20927e+09,-2.11625e+09,-6.25247e+09,-6.3458e+09,0,-3.942e+09,0,-2.10693e+11,-1.17748e+11,-7.12159e+10,-3.47462e+10,-3.53327e+10,-1.63443e+10,-3.53707e+10,-5.40646e+09,-1.09037e+10,-4.73598e+09,-1.92063e+10,-1.10567e+10,3.75887e+08,-1.33294e+10,-9.06344e+09,-1.30412e+10,-1.43633e+10,-1.21158e+10,-9.584e+09,-1.60405e+10,-2.65997e+09,-1.34712e+10,-4.97541e+09,-1.54228e+10,-3.73898e+10,-7.59854e+09,-1.05288e+10,-1.30873e+10,-3.637e+10,-7.26992e+09,-2.64723e+10,-3.17593e+10,0,-4.6011e+09,-4.6011e+09,-4.6011e+09,-4.6011e+09,-4.6011e+09,-4.6011e+09,-4.6011e+09,-1.50213e+09,-1.21016e+09,-7.03744e+08,-2.0112e+09,-1.10567e+09,1.51689e+07,-1.78136e+09,-1.98903e+09,-1.36514e+09,-1.43633e+09,-1.21158e+09,-1.39801e+09,-3.16358e+09,-5.05847e+08,-1.58192e+09,-6.91742e+08,-1.83651e+09,-4.6011e+09,-1.354e+09,-1.30423e+09,-1.62142e+09,-4.6011e+09,-2.29903e+09,-2.80965e+09,-3.94169e+09,-8.11472e+10,-65861
0,-1.3829e+09,-4.14885e+09,-1.18669e+10,-2.7659e+09,0,-4.41661e+09,0,0,0,-1.38295e+09,-1.38295e+09,0,-3.03366e+09,-6.06733e+09,0,0,-1.38295e+09,0,0,88326,0,0,0,0,0,0,0,-9.10098e+09,0,-5.53179e+09,0,-3.03366e+09,0,-2.76586e+09,-3.03361e+09,-3.03366e+09,-1.38295e+09,0,-4.41661e+09,0,0,0,0,0,0,0,-3.03366e+09,0,0,0,0,0,0,44163,0,0,0,0,-4.41657e+09,0,0,-3.03366e+09,44163,0,0,0,176652,0,0,0,0,0,0,0,44163,0,0,0,44163,176652,0,0,0,0,0,44163,0,0,0,0,0,88326,0,0,44163,88326,0,0,0,0,0,0,0,0,0,0,0,0,0,0,0,0,0,0,0,0,0,0,0,0,0,0,0,0,0,0,0,0,0,0,0,0,-4.14854e+09,-3.03361e+09,-7.45023e+09,-4.14885e+09,-1.38295e+09,-2.7659e+09,0,0,44163,-5.53179e+09,-1.38295e+09,0,-6.06724e+09,-1.21345e+10,0,0,-1.38295e+09,0,0,132489,0,-4.41661e+09,0,0,0,-3.03357e+09,0,-6.06733e+09,-4.41657e+09,-8.29756e+09,0,-3.03366e+09,0,-2.03162e+11,-1.22281e+11,-6.59806e+10,-3.53325e+10,-3.39496e+10,-2.37335e+10,-4.41657e+10,0,353304,-6.91475e+09,-3.83665e+10,-1.38295e+10,-2.12354e+10,-9.1009e+09,0,-3.03366e+10,-1.10636e+10,-4.41657e+10,-1.38295e+10,176652,397467,-3.97495e+10,0,0,0,-3.67156e+10,0,-1.51683e+10,-3.67155e+10,176652,441630,-2.42693e+10,0,-4.41657e+09,-4.41657e+09,-4.41657e+09,-4.41657e+09,-4.41657e+09,-4.41657e+09,-4.41657e+09,0,44163,-1.38295e+09,-4.41661e+09,-1.38295e+09,-3.03361e+09,-3.03361e+09,0,-3.03366e+09,-1.38295e+09,-4.41657e+09,-1.38295e+09,44163,44163,-4.41661e+09,0,0,0,-4.41657e+09,0,-3.03366e+09,-4.41657e+09,-1.3829e+09,44163,-3.03366e+09,-6.62486e+10,-3.03361e+09
0,5.91387e+09,-3.63845e+09,2.03499e+09,1.07488e+10,-5.8577e+07,1.17303e+09,-5.67513e+09,3.39436e+09,-1.55316e+09,2.11299e+08,3.06791e+09,-1.16228e+08,3.35318e+09,-2.16975e+08,-5.16478e+09,0,-1.43549e+08,0,0,-1.22966e+09,3.60541e+09,-8.67632e+08,-152,0,-5.93914e+07,-3.57892e+09,1.45912e+08,-2.90052e+09,6.43129e+09,-1.87775e+08,-1.25304e+09,-7.239e+09,0,-9.53258e+09,-4.28567e+09,-7.17775e+09,5.31014e+09,-1.49273e+07,-4.91823e+08,-4.2079e+09,-4.10161e+08,-1.72686e+09,4.67089e+09,-2.80482e+09,0,-1.69415e+07,3.61421e+09,2.59227e+09,0,-38,0,0,1.54695e+09,30065,-2.29610e+08,-829,0,5.83973e+06,0,-2.72363e+09,-1.91678e+08,1.02533e+09,-1.0591e+10,0,4.67473e+08,0,-3.79022e+09,-8.60082e+09,-4.67425e+09,-3.51332e+09,-2.62989e+09,-7.33634e+09,-2.74657e+09,5.11919e+07,4.47582e+09,-175401,-6.46078e+08,0,2.86438e+09,-3.72446e+09,-3.2069e+08,0,0,0,0,2.47044e+09,-6.43805e+08,-6.63878e+08,-51615,-1.62317e+07,-5.93914e+07,-1.18784e+09,-5.32642e+09,-350802,-6.39434e+09,4.41148e+09,-5.95668e+07,4.24701e+09,0,0,0,0,0,0,0,0,0,0,0,0,0,0,0,0,0,0,0,0,0,0,0,0,0,0,0,0,0,0,0,0,0,0,5.12187e+08,-3.55246e+09,-1.57154e+10,4.12615e+09,-8.15362e+08,-8.42005e+09,2.28385e+09,1.99143e+09,-1.63841e+09,4.53303e+09,-2.92617e+09,-9.05671e+08,6.5633e+09,-6.58234e+09,1.15383e+09,-8.54364e+08,-2.23405e+08,0,-3.93623e+08,-1.99763e+09,3.13195e+09,-4.24265e+09,-1.33906e+09,0,8.17845e+08,-1.30014e+10,-1.47393e+10,1.84824e+09,-5.93048e+09,-2.14746e+10,2.58152e+09,-6.42289e+09,0,-2.17398e+11,-1.24899e+11,-6.64933e+10,-3.79436e+10,-3.43346e+10,-2.27781e+10,-1.26836e+10,-7.64219e+08,-5.22563e+09,-1.4675e+10,-1.69338e+10,-1.08805e+10,-4.26417e+09,-3.24567e+08,-1.70935e+09,-1.88932e+10,-2.32823e+10,-5.63635e+09,-2.03921e+10,-1.07076e+10,-2.03863e+09,-3.67871e+10,-5.24501e+09,-2.32427e+10,-1.27728e+10,-3.58101e+10,-2.33855e+10,-2.98118e+10,-4.23731e+10,-1.04512e+10,-2.23067e+10,-2.66368e+10,0,-4.73167e+09,-4.73167e+09,-4.73167e+09,-4.73167e+09,-4.73167e+09,-4.73167e+09,-4.73167e+09,4.2626e+08,-6.30698e+08,-5.26e+08,-1.98283e+09,-1.19024e+09,8.49975e+08,-7.23413e+08,-3.44872e+08,-1.97475e+09,-2.36492e+09,-5.63635e+08,-1.73641e+09,-9.91758e+08,4.05494e+08,-4.37773e+09,-8.23014e+08,-2.32589e+09,-1.16589e+09,-5.35782e+09,-4.73167e+09,-3.10562e+09,-4.73167e+09,-3.82932e+09,-2.10378e+09,-3.41647e+09,-6.15048e+10,-7.21992e+08
0,-2.0507e+09,-1.12051e+09,-6.46778e+09,1.04662e+09,869974,-2.53997e+09,-3.01652e+09,-1.82015e+09,-1.43956e+09,-1.61425e+09,5.75423e+07,0,-2.47054e+09,-5.70144e+08,-6.80851e+08,0,-3.83644e+08,0,0,-1.1353e+08,-587508,-1.0852e+09,-212477,869974,1.73995e+06,-1.46608e+09,2.20928e+06,-2.75187e+09,-2.10753e+08,-1.46605e+09,0,1.03352e+09,0,-2.45427e+09,-2.67559e+09,-2.48053e+08,-2.51602e+09,0,-5.8216e+08,-1.21484e+09,1.7651e+08,-271377,-5.26428e+08,-1.04127e+07,0,9.89454e+08,-4.94006e+09,-9.12359e+08,-1.58273e+08,-2.37252e+07,0,0,2.7095e+08,0,9.46599e+08,0,0,0,0,-8.33771e+08,-2.73241e+09,-2.36049e+09,-2.25071e+09,0,-3.29901e+09,0,-4.62268e+09,-3.65143e+09,-9.16636e+09,-3.74162e+09,1.3405e+09,-3.25893e+09,-4.77015e+09,-1.06945e+09,-1.06055e+08,-1.36218e+09,1.29634e+08,2.45297e+06,-3.92001e+07,-6.16227e+08,-1.28431e+09,-462367,5.75423e+07,0,0,1.01878e+09,-298167,5.08189e+07,4.5626e+06,0,0,0,-1.00156e+08,-6.69844e+09,-1.8049e+09,-1.45955e+09,-94683,-1.10811e+09,0,0,0,0,0,0,0,0,0,0,0,0,0,0,0,0,0,0,0,0,0,0,0,0,0,0,0,0,0,0,0,0,0,0,-4.20304e+09,-6.0107e+09,-1.13418e+10,-1.35873e+08,-1.17139e+09,-6.48738e+09,-3.98132e+08,-1.1719e+09,-1.71965e+09,-3.96782e+09,2.8149e+08,2.47329e+08,-1.17308e+09,-3.89541e+09,-2.09472e+09,-462367,-1.12442e+09,0,-924734,4.46726e+08,1.12552e+08,-9.42761e+09,2.0065e+06,869974,869974,-2.91807e+09,-2.91462e+09,-4.99547e+09,-4.54192e+09,-9.70554e+09,0,-2.97035e+09,0,-2.17773e+11,-1.26075e+11,-6.44542e+10,-3.56981e+10,-3.7423e+10,-2.43846e+10,-3.42163e+10,6.06916e+08,-1.22801e+10,-1.14115e+10,-1.59485e+10,-2.96745e+06,-1.03198e+10,-7.08923e+09,-6.21547e+09,-1.18187e+10,-9.80011e+09,-1.36301e+10,-2.36745e+10,4.79985e+08,-5.49361e+08,-3.64868e+10,-4.54967e+09,-1.3729e+10,-9.24696e+09,-3.19508e+10,-1.54225e+10,-2.9388e+10,-3.61915e+10,-1.67712e+10,-2.07997e+10,-2.50304e+10,0,-4.65662e+09,-4.65662e+09,-4.65662e+09,-4.65662e+09,-4.65662e+09,-4.65662e+09,-4.65662e+09,-3.27807e+08,-1.70024e+09,-1.88822e+09,-1.79504e+09,2.46815e+07,-1.30132e+09,-1.7111e+09,-1.11877e+09,-1.19779e+09,-1.12744e+09,-1.36301e+09,-2.36759e+09,2.10291e+08,-4.37695e+07,-4.74635e+09,-5.67915e+08,-1.37287e+09,-9.24435e+08,-3.63349e+09,-1.92689e+09,-4.65662e+09,-4.65662e+09,-3.1653e+09,-2.07998e+09,-3.12862e+09,-7.13694e+10,-2.77314e+09
0,6.14026e+09,1.55713e+09,3.8887e+09,5.23565e+08,4.99283e+09,-5.7158e+09,-6.02072e+09,4.31809e+09,3.8117e+09,4.52793e+09,-1.50661e+09,-3.26041e+07,-5.12092e+09,-1.09895e+10,-4.47984e+08,-2.39773e+09,4.44937e+09,-6.3764e+08,3.03052e+08,-4.57719e+09,2.14111e+08,-3.28264e+07,7.73097e+09,1.08506e+09,9.52042e+08,-2.29827e+09,-5.17934e+09,-2.57663e+10,-1.93453e+09,1.16943e+09,1.51786e+09,-3.5578e+09,0,-1.15895e+10,-8.08044e+09,-2.00407e+10,-3.52258e+09,4.69182e+09,-3.16171e+09,-1.16698e+10,-6.30887e+09,-3.40565e+09,-5.78973e+08,1.0384e+10,-7.5532e+08,2.71908e+09,-7.89757e+09,-1.1301e+09,1.07372e+08,7.94576e+09,0,6.50581e+09,-7.0858e+09,1.3704e+09,5.21795e+09,3.42469e+09,-1.42007e+09,1.38304e+09,-8.27979e+09,1.66525e+10,-6.93679e+09,1.11865e+10,-5.24638e+09,0,1.20841e+10,0,-1.48831e+09,-5.7945e+09,-6.56486e+09,-2.98605e+09,-1.99074e+09,-1.45559e+09,-4.50791e+09,4.30856e+09,-9.22222e+08,-1.43112e+09,-1.59332e+09,5.9767e+08,4.20395e+09,5.2102e+09,1.07975e+08,-1.99819e+09,4.47927e+09,0,-7.50824e+07,4.33102e+09,1.53255e+09,9.54118e+09,-1.05047e+09,-2.7427e+09,-3.32197e+06,-3.73479e+09,-6.65877e+09,-3.48893e+09,-6.13749e+09,5.78773e+09,-8.30595e+07,-9.72865e+09,0,0,0,0,0,0,0,0,0,0,0,0,0,0,0,0,0,0,0,0,0,0,0,0,0,0,0,0,0,0,0,0,0,0,2.63654e+09,2.13831e+09,-6.42793e+09,3.97231e+09,-1.331e+09,-5.89025e+09,4.74751e+08,7.98225e+09,-5.42609e+09,-2.99106e+09,1.2101e+09,2.77449e+09,-7.51745e+09,-1.01347e+10,-4.35438e+09,-7.3389e+08,-7.0185e+09,8.04851e+07,-8.33744e+08,6.1102e+09,2.26192e+09,-2.38322e+09,-8.81334e+08,-2.10979e+09,-3.74193e+08,-7.59915e+09,-2.38816e+09,-1.46583e+10,-1.2721e+10,-2.19688e+10,-1.863e+08,-9.03128e+09,0,-2.14477e+11,-1.32483e+11,-6.06829e+10,-4.35003e+10,-4.43602e+10,-2.17739e+10,-1.91041e+10,1.61987e+09,-7.37914e+09,-1.04606e+10,-1.73735e+10,-1.02635e+10,-2.08503e+09,-3.29574e+09,-7.76002e+09,-2.1794e+10,-2.11442e+10,-4.89499e+09,-2.20357e+10,-9.59474e+09,-2.31847e+09,-3.66225e+10,-1.77018e+08,-2.28585e+10,-1.43555e+10,-3.97627e+10,-6.03104e+08,-2.78879e+10,-3.60304e+10,-1.04319e+10,-2.82683e+10,-2.73691e+10,0,-4.74966e+09,-4.74966e+09,-4.74966e+09,-4.74966e+09,-4.74966e+09,-4.74966e+09,-4.74966e+09,1.19198e+09,-1.52717e+09,-8.15803e+08,-1.2433e+09,-7.67925e+08,-7.80036e+08,-2.73752e+09,-1.35846e+09,-2.49269e+09,-8.64559e+08,-5.45214e+08,-1.34671e+09,-1.08165e+09,3.28435e+08,-2.29958e+09,1.13184e+09,-2.73718e+09,-1.23979e+09,-6.16748e+09,1.82315e+08,-7.87384e+09,-4.74966e+09,-3.06899e+09,-2.70198e+09,-3.93169e+09,-7.00008e+10,6.80571e+09
0,8.3709e+09,-4.85746e+09,-3.95294e+09,8.28957e+09,-8.21628e+08,-3.40207e+09,-5.19789e+09,7.74042e+09,-4.20386e+09,-9.89412e+08,9.21656e+09,-1.29868e+09,-4.28343e+09,7.89506e+09,2.21862e+08,4.06928e+09,3.18594e+09,-2.59491e+06,-2.58768e+06,-7.41529e+09,2.62862e+09,3.18076e+09,-2.75212e+08,-3.40996e+09,3.07889e+09,1.20376e+09,2.3279e+09,-2.11531e+09,8.92981e+09,-4.56733e+08,3.10339e+09,-7.35864e+09,0,-8.0953e+09,-1.08137e+08,-1.78253e+09,-1.32757e+09,7.65505e+08,-2.15473e+09,-4.96074e+08,1.53096e+08,1.26054e+09,-2.33948e+09,1.11538e+09,9.70006e+08,-8.99052e+08,6.69141e+09,-8.8456e+09,-1.829e+07,-2.94152e+09,0,0,3.38827e+09,-6.66238e+09,-1.94248e+09,-4.03357e+07,2.01542e+09,1.14765e+09,-900,-3.62176e+09,-3.9771e+09,-1.12581e+10,-4.1802e+09,-3.36142e+09,1.0134e+10,0,1.9165e+09,-7.09082e+09,-1.05639e+10,6.2425e+09,4.5024e+08,-5.62032e+08,-9.51885e+09,-4.00929e+09,2.72416e+09,-4.49414e+09,-6.21607e+09,1.68455e+07,6.13226e+08,-3.90777e+09,4.3711e+09,-1.50351e+08,-1.76254e+08,0,-368737,6.33656e+08,-1.851e+09,1.91238e+09,1.7268e+09,-2.06925e+07,-1.45124e+09,-3.76044e+09,7.01232e+08,-5.53274e+08,-2.03361e+09,-7.17153e+09,4.81069e+08,-2.44149e+09,0,0,0,0,0,0,0,0,0,0,0,0,0,0,0,0,0,0,0,0,0,0,0,0,0,0,0,0,0,0,0,0,0,0,1.05922e+09,-2.03234e+09,-1.22348e+10,6.43137e+09,-4.6408e+08,-8.16833e+09,5.68126e+08,4.90027e+09,2.25158e+09,-5.93707e+09,-1.10084e+09,2.38395e+09,-5.59716e+09,-1.02934e+10,-7.99813e+09,-2.35215e+09,2.3815e+09,-7.16266e+08,-4.345e+08,-1.30631e+08,5.8471e+09,-1.27516e+09,1.44577e+09,4.0623e+08,3.45116e+08,-3.55297e+09,-5.59651e+09,-2.24239e+09,-1.04968e+08,-2.2615e+10,-2.47489e+09,-6.82646e+08,0,-2.16865e+11,-1.32408e+11,-6.42313e+10,-3.86247e+10,-3.7196e+10,-2.29788e+10,-2.05421e+10,7.83534e+08,-8.24801e+09,-9.99345e+09,-1.42214e+10,-8.53062e+09,-1.62804e+09,-4.44721e+09,-8.43574e+09,-1.9644e+10,-2.1534e+10,-2.37304e+09,-2.19302e+10,-5.47624e+09,-2.58666e+09,-3.46056e+10,-2.88117e+09,-2.20614e+10,-1.56485e+10,-3.65206e+10,-4.14539e+09,-3.17293e+10,-3.93859e+10,-1.2159e+10,-2.61881e+10,-2.37448e+10,0,-4.65825e+09,-4.65825e+09,-4.65825e+09,-4.65825e+09,-4.65825e+09,-4.65825e+09,-4.65825e+09,9.56802e+08,-9.38678e+08,-2.26349e+09,-1.06256e+09,-6.45852e+08,-1.17945e+09,-4.06185e+08,-2.06865e+09,-1.80955e+09,-1.78843e+09,-3.0919e+08,-2.58285e+09,-9.00023e+08,-2.55871e+08,-3.76298e+09,-3.01948e+06,-2.30947e+09,-1.25286e+09,-4.26302e+09,-9.8011e+08,-4.06174e+09,-4.65825e+09,-4.65825e+09,-2.84399e+09,-2.53479e+09,-6.6616e+10,-3.41196e+09
0,-5.80541e+08,2.62892e+09,0,-4.65373e+08,0,0,-2.36584e+09,-2.74431e+09,0,0,0,-3.59976e+08,0,0,0,0,0,0,0,0,0,1.03357e+08,0,-1.08984e+09,0,0,-9.05447e+08,-1.8109e+09,-2.16611e+09,-1.08984e+09,0,4.70839e+09,0,-4.20457e+09,2.48111e+09,-1.87963e+08,1.65389e+09,0,0,-7.09754e+09,0,0,0,-1.08984e+09,0,0,0,-2.36584e+09,0,0,0,0,0,0,-3.07198e+09,0,-1.80022e+09,0,0,0,0,0,-1.99486e+09,-4.46818e+09,-1.94888e+08,0,-1.22048e+10,-1.38621e+10,-7.49003e+09,-5.85676e+09,0,-1.02043e+08,-8.00298e+09,-4.73526e+08,0,0,0,-417897,0,0,-2.46789e+09,0,-1.54837e+09,0,0,218033,0,0,-1.28624e+09,0,436066,0,-2.36563e+09,-9.05447e+08,1.03575e+08,-1.08962e+09,0,-5.80676e+09,0,0,0,0,0,0,0,0,0,0,0,0,0,0,0,0,0,0,0,0,0,0,0,0,0,0,0,0,0,0,0,0,0,0,-9.4684e+09,-3.74691e+09,-3.00874e+09,-2.1753e+09,0,-9.46295e+09,0,-1.00514e+10,0,-9.04793e+08,-6.42915e+08,0,0,-9.42453e+09,-3.19393e+09,0,-2.90224e+08,0,0,436066,0,-1.15731e+09,0,0,0,0,-3.27108e+09,0,-4.46818e+09,-3.80531e+09,-417897,-2.55985e+09,0,-2.04893e+11,-1.21546e+11,-7.86769e+10,-3.57456e+10,-3.57454e+10,-2.61805e+10,-2.01201e+10,-1.40903e+10,0,-8.1475e+09,-1.55949e+10,-7.90952e+09,0,-8.87738e+09,4.90494e+09,-1.00331e+10,-3.12723e+10,-1.75465e+10,-1.60501e+10,1.52623e+06,-6.42915e+09,-3.1004e+10,-1.45881e+10,-2.60106e+10,-2.30761e+10,0,-1.232e+10,-6.33813e+09,-3.81511e+10,-1.84002e+10,-4.02132e+10,-2.53451e+10,0,-4.46818e+09,-4.46818e+09,-4.46818e+09,-4.46818e+09,-4.46818e+09,-4.46818e+09,-4.46818e+09,-2.73596e+09,0,-9.05229e+08,-1.73276e+09,-8.26991e+08,0,-1.83019e+09,-3.12273e+08,-1.00331e+09,-3.3111e+09,-1.75465e+09,-1.6459e+09,218033,-6.42915e+08,-3.51299e+09,-1.9843e+09,-2.89006e+09,-2.30756e+09,0,-1.88622e+09,-9.05447e+08,-4.46818e+09,-2.63799e+09,-4.46818e+09,-2.91982e+09,-6.3535e+10,-1.90876e+09
0,2.29063e+09,-3.35095e+09,6.5505e+09,5.16513e+09,1.42978e+08,1.20729e+09,-9.17651e+09,6.65951e+08,-2.0664e+09,2.71837e+08,-2.06645e+09,5.91039e+06,8.01621e+08,2.54498e+09,-3.3965e+09,6.10773e+08,-1.62698e+09,0,1.07186e+08,5.51349e+09,-5.63478e+09,-5.83271e+09,-187,5.09012e+07,2.76515e+08,-4.82203e+09,2.58557e+08,7.00358e+07,-7.0026e+09,4.41829e+09,4.09286e+09,-3.17229e+09,0,-1.47089e+10,5.12282e+08,-8.00987e+09,-1.30131e+10,1.36671e+08,4.32814e+09,-1.61492e+10,5.66108e+09,2.56704e+08,8.19213e+08,5.42667e+08,0,4.17057e+08,3.88599e+07,7.13435e+09,2.39812e+08,7.75473e+08,0,2.598e+09,3.4911e+09,-3.08221e+08,4.72782e+09,-187,1.46379e+09,7.52143e+08,0,2.78364e+09,2.33272e+09,-2.85882e+09,-6.97781e+09,5.5756e+09,-3.07007e+09,0,-1.93052e+09,-1.14232e+10,-9.06163e+09,-1.01531e+10,2.31129e+09,4.65451e+08,-1.64223e+08,7.31004e+09,-497940,-7.1995e+09,42688,0,-3.83276e+08,-1.38555e+10,3.76724e+09,-6.9994e+07,0,0,3.16431e+06,-1.49586e+09,-2.80744e+09,2.19238e+09,1.36044e+07,3.16431e+06,379287,-2.11154e+09,-4.29984e+09,-8.81589e+07,-1.26918e+09,4.73211e+09,-8.62065e+08,-3.58013e+08,0,0,0,0,0,0,0,0,0,0,0,0,0,0,0,0,0,0,0,0,0,0,0,0,0,0,0,0,0,0,0,0,0,0,3.40622e+09,3.26309e+09,-9.52283e+09,4.17709e+09,1.32555e+09,-1.07579e+10,2.26063e+09,4.22848e+09,-2.14478e+08,-3.35963e+09,6.46293e+09,1.81506e+09,1.51439e+09,5.10981e+09,-6.35395e+09,8.54224e+08,6.85256e+08,0,-1.3189e+09,6.84118e+09,-9.97754e+08,-4.86e+09,-3.51598e+08,1.92619e+09,0,-5.23332e+09,-3.07017e+09,3.07561e+09,-5.78239e+08,-2.86191e+10,-2.76326e+09,-1.33424e+07,0,-2.05686e+11,-1.33273e+11,-6.85154e+10,-4.07843e+10,-4.01873e+10,-3.15138e+10,-2.05088e+10,-8.14387e+08,-9.79046e+09,-9.9086e+09,-1.81755e+10,-9.96029e+09,-3.09628e+09,-5.01786e+09,-1.0204e+10,-2.08733e+10,-2.17392e+10,-5.83271e+09,-1.95411e+10,-1.0042e+10,-2.44822e+09,-3.49749e+10,-1.86194e+09,-2.3798e+10,-1.42293e+10,-4.12851e+10,-1.99479e+09,-3.11496e+10,-3.36297e+10,-1.16148e+10,-2.96924e+10,-3.89097e+10,0,-4.53386e+09,-4.53386e+09,-4.53386e+09,-4.53386e+09,-4.53386e+09,-4.53386e+09,-4.53386e+09,1.70512e+09,-1.18152e+09,-1.93767e+09,-1.32319e+09,-8.13932e+08,-7.46491e+07,-1.11797e+09,-9.05283e+08,-1.92385e+09,-2.19055e+09,-5.83271e+08,-2.90562e+09,4.3079e+08,-1.21964e+09,-3.87474e+09,-2.74991e+08,-2.03539e+09,-1.32003e+09,-5.34519e+09,-6.32261e+08,-2.57594e+09,-4.53386e+09,-3.80613e+09,-2.36493e+09,-4.53386e+09,-7.67261e+10,7.93881e+08
