0,-1.21252e+10,-7.84791e+09,-1.06258e+09,-2.0118e+08,-1.99978e+09,-2.78531e+09,3.09269e+08,-9.33803e+09,-2.64601e+08,9.72524e+08,9.97693e+08,2.0259e+09,-3.27753e+09,-7.08799e+09,-8.15847e+08,2.12847e+09,-2.22523e+09,9660,1.24193e+08,-3.03075e+09,6.48794e+08,-5.10888e+09,-8.16729e+08,-3.74347e+09,2.52689e+07,-1.38727e+10,-1.29462e+09,-2.31785e+09,-3.51981e+09,-1.08992e+10,3.95625e+08,2.13547e+08,0,-3.60836e+09,5.00247e+09,-3.37887e+09,2.84098e+08,-2.43149e+09,-1.13378e+09,-4.32993e+09,2.75586e+09,6.1005e+09,1.22773e+09,-3.77297e+09,2.33485e+09,-2.62538e+09,-9.07846e+09,4.56512e+09,1.711e+09,1.80077e+09,1.07207e+09,2.61363e+09,6.04605e+09,1.57372e+09,4.91565e+08,1.04114e+09,2.04486e+09,1.08405e+09,-4.28047e+10,-4.88361e+09,5.57427e+09,-1.03417e+10,-4.90729e+09,2.11984e+09,-2.52234e+09,0,-2.80011e+09,-1.86644e+09,-1.13156e+09,-4.50027e+09,2.67253e+09,-4.50822e+07,2.39515e+09,-5.75996e+09,-6.71758e+08,7.35774e+07,1.42733e+09,1.24105e+09,8.33053e+08,7.50416e+08,2.0146e+09,-3.75418e+09,7.97282e+08,0,1.36234e+09,1.5863e+09,3.91303e+09,7.58597e+08,-1.21009e+09,6.63154e+08,2.84105e+09,3.48481e+08,-5.65159e+09,-1.0495e+09,2.12881e+09,-3.91403e+09,7.30581e+06,-4.84553e+09,0,0,0,0,0,0,0,0,0,0,0,0,0,0,0,0,0,0,0,0,0,0,0,0,0,0,0,0,0,0,0,0,0,0,-2.05857e+10,-1.12682e+10,-1.88804e+10,-2.12879e+07,-7.45658e+09,-8.38416e+09,-6.24206e+09,-4.59544e+09,-7.88485e+09,-1.3582e+09,-2.4655e+09,4.32402e+08,-3.80196e+09,-1.81655e+10,3.03873e+08,-1.08984e+09,2.66643e+08,3.92363e+08,-2.57814e+08,-5.66115e+09,4.40731e+09,8.84104e+08,-7.10242e+07,2.55217e+09,1.93663e+09,-2.37578e+10,-7.78441e+09,-1.74319e+09,-7.35667e+09,-2.92312e+10,6.08496e+08,-1.02918e+10,0,-4.46495e+11,-2.72066e+11,-1.65741e+11,-7.66527e+10,-6.69934e+10,-6.38599e+10,-6.21113e+10,-1.88766e+10,-3.12836e+10,-1.08402e+10,-1.17823e+10,-1.72449e+10,-5.25199e+10,-1.56766e+10,-7.64486e+09,-3.97127e+10,-1.28623e+10,-3.68038e+10,-3.4597e+10,-2.27616e+10,-4.34223e+09,-2.84642e+10,-1.09142e+10,-3.19102e+10,-4.54706e+10,-9.22443e+10,-5.32882e+10,-4.68073e+09,-7.60342e+10,-3.39013e+10,-1.11484e+10,-5.26078e+10,0,-9.52609e+09,-9.52609e+09,-9.52609e+09,-9.52609e+09,-9.52609e+09,-9.52609e+09,-9.52609e+09,-3.58142e+09,-3.03187e+09,-9.59796e+08,-1.69071e+09,-1.12107e+09,-6.13917e+09,-4.93597e+09,-1.57712e+08,-4.07173e+09,-1.1186e+09,-3.53394e+09,-1.45642e+09,-2.38212e+09,6.20017e+08,-3.0418e+09,-1.70188e+09,-3.05578e+09,-3.85115e+09,-1.72329e+10,-7.261e+09,-4.217e+08,-9.52609e+09,-8.2853e+09,-8.0171e+08,-6.52109e+09,-1.4158e+11,-1.51566e+09
0,-1.17937e+10,-6.76825e+09,-4.32526e+09,1.26835e+09,-2.00241e+09,-4.04899e+09,3.30306e+09,5.31365e+08,1.9054e+07,-3.13362e+08,-6.81196e+08,-2.49415e+08,-4.9261e+09,-1.27653e+10,-5.28808e+08,1.02825e+09,-1.14335e+09,0,1.78402e+08,-8.13112e+08,4.41553e+09,-2.91413e+09,-1.99764e+09,-1.14902e+09,-1.70397e+09,-7.77322e+09,-3.75595e+09,-1.52898e+09,-3.65257e+09,-1.01245e+10,7.09636e+08,-5.08458e+09,0,-3.06694e+09,-4.21636e+09,-5.18857e+09,3.73035e+09,-4.49157e+08,8.60458e+08,2.35816e+09,-1.21532e+09,1.34221e+08,-1.21824e+09,2.56777e+08,415718,-3.03361e+09,-7.6493e+09,-1.89631e+09,4.69782e+08,-5.73057e+08,0,-3.29619e+08,-8.45871e+07,2.64718e+09,-6.03293e+08,-9.41707e+08,1.78607e+09,2.10302e+07,-1.92599e+10,-1.65398e+09,-9.48978e+08,-1.12513e+10,-1.26718e+10,5.22865e+08,6.71891e+09,0,-2.21749e+09,-3.06292e+09,-5.96849e+09,-3.18952e+09,-3.02293e+09,-6.8889e+09,3.17018e+09,-3.66781e+09,-1.1971e+09,1.06606e+09,-9.99137e+08,-1.81624e+08,-3.99171e+08,2.48518e+09,2.54634e+09,1.24013e+09,-2.9856e+09,0,-9.22322e+06,1.40658e+09,3.56252e+09,7.49668e+08,-2.51336e+09,1.60906e+09,4.15895e+08,6.65975e+07,2.86238e+09,-1.24452e+09,1.64028e+09,-4.12222e+09,1.66261e+09,-5.7508e+09,0,0,0,0,0,0,0,0,0,0,0,0,0,0,0,0,0,0,0,0,0,0,0,0,0,0,0,0,0,0,0,0,0,0,-1.65656e+10,-1.42263e+10,-1.76974e+10,-6.80999e+09,-2.99156e+09,-8.00272e+09,-4.62426e+09,-1.22568e+10,-8.90905e+09,-9.41283e+08,-1.71904e+09,1.8599e+09,-1.28774e+10,-1.40151e+10,-9.04625e+08,2.23848e+09,-3.68817e+09,0,-4.48169e+08,-4.45375e+09,4.47528e+09,-3.35082e+09,-2.23229e+09,1.22385e+09,-3.52173e+08,-2.6207e+10,-2.2614e+09,-4.14961e+09,-8.38223e+09,-2.94672e+10,9.19e+08,-4.7581e+09,0,-4.49427e+11,-2.71973e+11,-1.62949e+11,-7.376e+10,-7.08542e+10,-6.16276e+10,-5.99773e+10,-1.84648e+10,-2.8704e+10,-9.44163e+09,-1.27677e+10,-1.69656e+10,-5.20716e+10,-1.5578e+10,-6.55647e+09,-4.16089e+10,-1.24748e+10,-3.61094e+10,-3.59521e+10,-2.28638e+10,-4.44648e+09,-2.74866e+10,-1.1884e+10,-3.08365e+10,-4.59465e+10,-9.24596e+10,-5.34319e+10,-5.63456e+09,-7.73295e+10,-3.25614e+10,-9.51389e+09,-5.33138e+10,0,-9.91503e+09,-9.91503e+09,-9.91503e+09,-9.91503e+09,-9.91503e+09,-9.91503e+09,-9.91503e+09,-3.50734e+09,-3.96601e+09,-1.03806e+09,-1.72339e+09,-1.55363e+09,-7.33079e+09,-4.78628e+09,-7.33988e+08,-3.66322e+09,-2.08653e+09,-3.61094e+09,-2.93715e+09,-2.68086e+09,1.0654e+09,-3.26935e+09,-2.44613e+09,-2.64722e+09,-4.75657e+09,-1.45633e+10,-5.82977e+09,-1.35066e+09,-9.91503e+09,-8.89472e+09,-5.69979e+08,-6.35475e+09,-1.38467e+11,-3.1365e+08
0,-1.47906e+10,-7.6305e+09,-2.65899e+09,-8.89081e+09,-1.67526e+09,-1.20014e+09,4.20885e+09,-5.78712e+09,-2.09285e+09,-6.74594e+08,-2.19572e+09,2.62803e+07,-3.35911e+09,-1.39096e+10,-5.00324e+09,1.11341e+09,-3.78464e+08,-49835,-1.14587e+06,-1.73321e+09,5.98783e+08,-4.6816e+09,-1.48909e+09,-7.57693e+08,7.34691e+08,-8.75518e+09,-2.92504e+09,-2.07051e+08,-4.09099e+09,-2.92417e+09,0,-2.24831e+09,0,-3.61371e+09,-1.03266e+10,-1.25977e+10,1.2802e+09,-1.26418e+09,3.1671e+08,1.79222e+09,-2.89411e+09,1.59628e+09,1.1536e+09,6.43555e+08,-874697,-2.11452e+09,-1.44277e+09,-3.86498e+08,7.37857e+08,-8.79816e+07,0,-8.50285e+08,-1.07032e+09,2.30614e+08,-1.00969e+08,1.62111e+08,1.05016e+09,1.06682e+09,-1.37596e+10,-1.91554e+09,-1.96134e+09,-2.58078e+09,-6.09223e+09,0,7.40575e+08,0,-3.72401e+09,-4.78416e+09,-7.48835e+08,-2.55317e+09,-3.87983e+09,-3.02033e+09,-2.04568e+09,-4.87259e+09,-9.18045e+08,3.62472e+08,-6.84901e+08,3.19368e+08,2.68096e+09,-7.08545e+08,-8.92421e+08,-1.13725e+06,-3.94062e+08,0,0,3.39937e+07,-3.9003e+08,-1.13638e+09,-7.16876e+08,-97560,-8.4704e+08,-3.69961e+09,-1.16141e+09,7.68783e+08,-1.2165e+09,-5.89412e+09,0,-3.45961e+09,0,0,0,0,0,0,0,0,0,0,0,0,0,0,0,0,0,0,0,0,0,0,0,0,0,0,0,0,0,0,0,0,0,0,-1.80977e+10,-1.00603e+10,-2.08748e+10,-8.99699e+09,-4.89107e+09,-1.20038e+10,-6.60034e+09,-7.73809e+09,1.41806e+09,1.21505e+08,1.53736e+08,-1.22192e+09,-4.27205e+09,-1.92293e+10,2.52752e+09,-3.41178e+08,-3.13294e+09,0,-1.05751e+06,-4.91093e+09,-3.47296e+09,-1.9063e+09,3.23615e+08,1.76814e+09,8.78239e+08,-1.92198e+10,-4.41444e+09,-4.90759e+09,-1.17576e+10,-3.31298e+10,-8.54932e+07,-8.94293e+09,0,-4.51277e+11,-2.65064e+11,-1.64967e+11,-7.99301e+10,-6.711e+10,-6.36734e+10,-6.36659e+10,-1.52321e+10,-2.77302e+10,-1.06003e+10,-6.95524e+09,-1.53554e+10,-5.29098e+10,-2.058e+10,-1.07695e+10,-3.87608e+10,-1.44229e+10,-3.69788e+10,-3.172e+10,-2.00239e+10,-1.46601e+09,-3.33252e+10,-1.13464e+10,-2.93709e+10,-4.53295e+10,-8.6918e+10,-5.57422e+10,-2.17333e+09,-7.88728e+10,-3.15877e+10,-7.60875e+09,-5.42821e+10,0,-9.85255e+09,-9.85255e+09,-9.85255e+09,-9.85255e+09,-9.85255e+09,-9.85255e+09,-9.85255e+09,-3.6524e+09,-2.77614e+09,-9.92555e+08,-1.06809e+09,-1.62325e+09,-5.99745e+09,-5.58702e+09,-1.45242e+09,-3.78007e+09,-1.84128e+09,-3.69789e+09,-3.53719e+09,-2.77044e+09,-4.4996e+08,-4.11505e+09,-1.63334e+09,-2.73104e+09,-4.34978e+09,-1.32353e+10,-6.61587e+09,-8.48053e+08,-9.85255e+09,-7.9628e+09,-7.69424e+08,-7.1861e+09,-1.42372e+11,-5.31887e+09
0,-1.34365e+10,-3.27379e+09,-3.34402e+09,2.11486e+09,-2.80753e+09,-2.63642e+09,-2.36448e+09,-7.31539e+09,-2.88229e+09,-3.82878e+09,-7.09452e+07,5.37225e+09,-3.74416e+09,-1.26231e+10,6.77066e+08,7.96209e+08,1.80945e+09,0,9.94027e+08,-1.63252e+09,-1.29961e+09,-5.41039e+09,-4.66539e+09,-8.79059e+08,2.11782e+07,-9.09834e+09,-6.55117e+09,1.06966e+09,-4.48033e+09,-1.11309e+10,-5.77468e+08,9.13476e+08,0,-8.47829e+09,-6.79519e+06,-7.99482e+08,-3.38847e+09,1.23798e+09,4.40238e+09,-1.82833e+09,2.53246e+09,-6.21362e+09,-7.86002e+08,1.20093e+09,4.06777e+09,3.96267e+08,1.29023e+09,3.83259e+09,1.51476e+09,2.57739e+09,0,1.81655e+09,-6.70177e+08,-1.79465e+08,4.19871e+09,7.96948e+09,3.16987e+09,-1.1476e+09,-3.36302e+10,-3.37812e+09,-4.18161e+06,-9.35674e+09,-6.70163e+09,2.06218e+09,-1.89761e+10,0,-2.53464e+09,-6.47164e+09,-1.13647e+09,-3.4481e+09,4.32779e+08,-1.09564e+09,7.69291e+08,-6.21192e+09,-2.11524e+09,2.0553e+09,-1.04438e+07,2.7885e+09,2.97172e+09,1.38405e+09,4.01562e+07,-1.90896e+09,-6.4734e+08,0,-8.80975e+08,-1.17911e+09,-1.94648e+09,2.24914e+09,3.48516e+08,2.55218e+08,1.05981e+09,2.60166e+08,-9.91792e+08,-1.44841e+09,3.96512e+09,-3.37917e+09,-1.79075e+09,1.78056e+09,0,0,0,0,0,0,0,0,0,0,0,0,0,0,0,0,0,0,0,0,0,0,0,0,0,0,0,0,0,0,0,0,0,0,-2.11763e+10,-1.09708e+10,-2.12217e+10,3.02481e+09,-1.91911e+09,-1.25756e+10,-5.75405e+09,-7.94715e+09,-8.47315e+09,2.30099e+09,4.49082e+09,5.85536e+07,-1.66518e+09,-1.52411e+10,-2.53909e+09,5.31528e+07,3.5971e+09,4.51547e+07,5.46297e+08,-7.48416e+09,3.0826e+08,-2.15284e+09,2.41215e+09,4.86369e+08,2.39315e+09,-1.66503e+10,-6.82466e+09,-2.63832e+09,-1.09161e+10,-2.82081e+10,1.30271e+09,-3.98191e+09,0,-4.44841e+11,-2.7415e+11,-1.62738e+11,-7.39748e+10,-7.49667e+10,-6.63356e+10,-6.20841e+10,-1.91045e+10,-3.19694e+10,-1.06846e+10,-1.15649e+10,-1.73061e+10,-5.20815e+10,-1.55987e+10,-7.55844e+09,-3.88088e+10,-1.3034e+10,-3.70755e+10,-3.37134e+10,-2.18126e+10,-4.15222e+09,-2.77898e+10,-1.00372e+10,-3.18599e+10,-4.47414e+10,-9.24566e+10,-5.3008e+10,-3.93983e+09,-7.46135e+10,-3.40552e+10,-1.06748e+10,-5.37973e+10,0,-9.75283e+09,-9.75283e+09,-9.75283e+09,-9.75283e+09,-9.75283e+09,-9.75283e+09,-9.75283e+09,-3.80465e+09,-5.11737e+09,-1.09431e+09,-7.02216e+08,-5.01899e+08,-5.41228e+09,-4.07887e+09,-5.54771e+08,-3.83536e+09,-7.43867e+08,-3.70304e+09,-3.44196e+09,-3.27785e+09,-7.26952e+08,-2.97444e+09,-8.22976e+08,-2.88269e+09,-4.24149e+09,-1.51575e+10,-7.04508e+09,-6.96109e+08,-9.75283e+09,-8.3475e+09,-9.67818e+08,-7.64443e+09,-1.40154e+11,1.02946e+09
0,-4.19647e+10,-1.19992e+09,-5.8365e+09,-1.17829e+10,-9.75426e+09,-7.48215e+09,-2.02267e+09,-2.14438e+09,-2.14425e+09,-4.987e+08,-1.07219e+09,0,0,-1.97008e+10,-7.70157e+09,0,-7.99277e+09,3107,0,-3.46584e+09,130,-5.56719e+09,-2.39783e+10,0,0,-1.07219e+09,-1.22281e+09,0,-6.29134e+09,4.5272e+08,0,1.07219e+09,0,-5.46841e+09,0,-5.36069e+09,-5.29496e+09,-1.01052e+10,-3.21636e+09,-1.24577e+09,130,130,0,-4.22883e+08,0,-2.14429e+09,-2.14439e+09,-4.22883e+08,-4.987e+08,0,1.07214e+09,0,0,0,-1.57081e+09,1.07214e+09,0,0,-8.285e+09,-2.14429e+09,0,-6.14066e+09,94211,0,6379,0,-1.57073e+09,-7.12803e+09,-5.28578e+09,-3.48864e+09,-7.27959e+09,-9.42279e+09,-8.45815e+08,1.07219e+09,-2.14439e+09,-9.97399e+08,0,0,110,-7.43036e+09,-8.45702e+08,0,0,0,0,-4.987e+08,-1.07219e+09,-1.07227e+09,0,0,-4.22914e+08,-1.57089e+09,97483,0,6.4927e+08,-4.63666e+09,0,-2.14429e+09,0,0,0,0,0,0,0,0,0,0,0,0,0,0,0,0,0,0,0,0,0,0,0,0,0,0,0,0,0,0,0,0,0,0,-1.05014e+10,-1.80764e+10,-1.68063e+10,-4.26588e+09,-1.65281e+10,-2.39024e+10,-4.11401e+09,-2.14442e+09,-1.07215e+09,-1.39735e+09,-9.21563e+08,0,-2.14429e+09,-3.60463e+10,-1.76242e+10,-1.07213e+09,-3.99639e+09,0,0,4.48489e+09,7.50503e+09,-2.06394e+08,9321,0,-4.22914e+08,-1.0137e+10,-3.78997e+09,-2.14426e+09,-1.53703e+10,-1.04238e+09,6379,-8.28489e+09,0,-4.2237e+11,-2.53287e+11,-1.57768e+11,-6.97933e+10,-3.31845e+10,-3.28279e+10,-6.63935e+10,-1.15043e+10,-2.68036e+10,-2.75355e+10,-2.82418e+10,-8.22867e+09,-1.71542e+10,-2.2515e+10,-3.33067e+10,-6.01797e+10,-3.22034e+10,-5.57562e+10,-9.64905e+09,-1.3736e+10,-6.43275e+09,-4.72555e+10,7.50499e+09,63790,-2.48261e+10,-7.07709e+10,-3.32354e+10,-1.25766e+10,-6.89116e+10,-1.47109e+10,-4.39629e+10,-6.06262e+10,0,-9.60646e+09,-9.60646e+09,-9.60646e+09,-9.60646e+09,-9.60646e+09,-9.60646e+09,-9.60646e+09,-1.47209e+09,-3.21644e+09,-3.04289e+09,-3.06584e+09,-8.22867e+08,-2.14428e+09,-8.78368e+09,-5.99011e+09,-6.28227e+09,-4.41925e+09,-5.46841e+09,-1.07212e+09,-1.32156e+09,7987,-5.56722e+09,-2.92424e+09,6379,-2.56719e+09,-9.1836e+09,-4.03924e+09,-1.47208e+09,-9.60646e+09,-1.99371e+09,-4.39629e+09,-7.21275e+09,-1.81117e+11,-2.96715e+09
0,-6.61011e+09,-7.45018e+09,-6.79439e+09,-5.96632e+09,-1.31239e+08,-1.2576e+10,7.56198e+08,-7.1243e+09,-2.85742e+09,2.66988e+08,-2.22066e+09,55259,-3.42671e+09,-1.44271e+10,-1.06301e+10,3.07185e+08,6.80474e+07,-3107,0,-9.34358e+09,1.40585e+09,-1.00159e+10,3.84865e+08,0,0,-5.50925e+09,-2.24662e+09,-2.12344e+09,-7.28975e+09,-3.84256e+09,0,-3.15016e+09,0,-5.20056e+09,-3.09364e+09,-4.12707e+09,-1.32511e+09,-1.7861e+09,-9.67679e+09,-1.56809e+09,7.61884e+08,5.2403e+07,743299,2.90106e+08,7835,4.3611e+08,-2.07418e+09,-1.37005e+09,1.44229e+09,-1.07215e+09,652184,0,-1.49835e+09,-8.8284e+07,-5.36998e+08,-3598,0,444937,-1.21232e+10,-3.04975e+08,1.57652e+09,-2.80099e+09,-4.28842e+09,0,-1.07186e+09,0,-3.84003e+09,-2.71224e+09,-1.18317e+09,-8.61762e+08,-1.99175e+09,-6.01512e+09,8.16724e+08,5.77771e+08,-2.77888e+08,32159,5.01292e+07,0,-2.44184e+09,-1.96107e+09,-3.64385e+09,6.10909e+06,2.90123e+08,0,0,-3.29733e+09,-1.62796e+09,-3.45607e+09,6.11246e+06,23228,426595,-1.01232e+09,-1.171e+09,1.99655e+07,-1.97041e+09,-3.37458e+09,0,1.08927e+09,0,0,0,0,0,0,0,0,0,0,0,0,0,0,0,0,0,0,0,0,0,0,0,0,0,0,0,0,0,0,0,0,0,0,-3.71928e+10,-1.60029e+10,-1.50742e+10,-7.17061e+09,3.07247e+09,-2.6151e+09,-1.14742e+10,-1.30966e+10,-5.85647e+09,-8.41539e+08,9.93487e+08,4.08398e+06,-2.34295e+09,-1.54964e+10,-1.08104e+10,-2.94695e+09,-2.30741e+09,0,3.58834e+08,-9.89809e+09,8.70116e+08,-7.11188e+09,-7.97324e+09,-1.79401e+09,-2.6476e+09,-1.26349e+10,-3.08363e+09,-2.28718e+09,-1.19265e+10,-1.64235e+10,103961,-6.05077e+09,0,-4.39164e+11,-2.60936e+11,-1.65588e+11,-7.73566e+10,-7.6232e+10,-4.64757e+10,-6.94447e+10,-2.39163e+10,-4.62366e+10,-1.73769e+10,-3.32713e+10,-3.3939e+09,-4.20937e+10,-1.94895e+10,-1.2477e+10,-4.60694e+10,-1.38827e+10,-2.14318e+10,-2.10074e+10,-1.27686e+10,-8.05632e+09,-3.79084e+10,-1.87012e+10,-2.93428e+10,-4.10835e+10,-6.32992e+10,-2.75262e+10,-1.51286e+10,-7.2348e+10,-4.51935e+09,-5.14946e+09,-4.94791e+10,0,-9.63357e+09,-9.63357e+09,-9.63357e+09,-9.63357e+09,-9.63357e+09,-9.63357e+09,-9.63357e+09,-4.27975e+09,-5.69405e+09,-1.79504e+09,-3.71533e+09,-3.38976e+08,-4.98691e+09,-5.30779e+09,-3.89314e+09,-4.72256e+09,-1.74649e+09,-2.14311e+09,-2.2097e+09,-3.6806e+09,-7.49571e+08,-5.90292e+09,-3.55348e+09,-3.11368e+09,-4.37302e+09,-9.45788e+09,-3.43324e+09,-1.79428e+09,-9.63357e+09,-3.24484e+09,-5.14935e+08,-6.05086e+09,-1.55807e+11,-9.70176e+09
0,-2.44754e+10,-8.42692e+09,-8.41907e+09,4.29796e+09,1.23233e+09,-4.91035e+09,-9.95128e+09,-4.60563e+09,-3.62762e+09,7.66812e+08,-2.59901e+09,0,-5.37216e+09,-6.12254e+09,-5.51992e+08,-2.13715e+09,-2.01452e+08,0,3.01544e+08,-2.14846e+09,-2.14393e+09,-8.26163e+09,1.20131e+09,1.51239e+09,7.67805e+08,-1.06057e+10,-6.82312e+09,1.38602e+09,-1.08034e+10,-1.32875e+10,1.04544e+09,-2.15517e+09,0,-6.00296e+09,-3.31265e+09,-2.6394e+08,-8.26824e+09,-8.00497e+08,8.0132e+07,-6.32773e+09,-2.66496e+09,1.25701e+09,5.07289e+08,7.83937e+08,0,3.50213e+08,-2.5052e+08,5.61232e+08,1.07641e+09,8.53982e+08,0,1.05204e+09,-2.92982e+09,19420,8.50648e+08,-3.82613e+08,2.75391e+08,1.53292e+09,-1.44682e+10,-2.26418e+09,3.92248e+08,9.62524e+08,-6.52302e+09,1.09708e+09,-6.51812e+09,0,-1.31809e+10,3.06919e+08,-4.35664e+07,-7.33151e+09,-7.63668e+08,-6.29246e+09,-5.79769e+09,-1.2456e+09,2.68494e+09,6.45637e+08,7.13293e+08,739754,5.42557e+08,4.13255e+08,3.78379e+09,-4.21893e+06,-2.39657e+09,0,0,-6.03195e+09,0,2.6789e+09,-4.25185e+09,911729,1.92723e+08,-3.28825e+09,-1.00799e+09,-5.41972e+08,-5.03387e+09,-5.80366e+09,-6.74659e+08,1.32444e+09,0,0,0,0,0,0,0,0,0,0,0,0,0,0,0,0,0,0,0,0,0,0,0,0,0,0,0,0,0,0,0,0,0,0,-2.36166e+10,-7.19819e+09,-1.67432e+10,-1.0818e+10,8.10274e+08,-3.30633e+09,-8.99435e+09,-6.14999e+09,3.98399e+09,-3.29442e+09,1.5441e+08,7.45447e+07,-2.73704e+09,-1.08887e+10,2.01462e+09,-2.13703e+09,-2.52962e+09,0,3.62679e+07,-1.70588e+09,-2.09522e+07,-4.50404e+09,-3.16437e+09,-4.82169e+08,-6.24322e+08,-1.65573e+10,-1.34825e+10,3.43959e+09,-8.78581e+09,-2.55628e+10,-2.07908e+09,-6.79623e+09,0,-4.43694e+11,-2.65886e+11,-1.66992e+11,-8.38853e+10,-7.75441e+10,-6.26366e+10,-5.72542e+10,-1.72402e+10,-3.0542e+10,-1.24305e+10,-1.3832e+10,-1.87395e+10,-4.67019e+10,-1.83562e+10,2.29898e+09,-3.75909e+10,-8.3676e+09,-3.11865e+10,-3.46387e+10,-1.62156e+10,-7.31255e+09,-2.21588e+10,-5.49497e+09,-2.37437e+10,-4.45528e+10,-8.48955e+10,-7.32508e+10,-7.67641e+09,-7.30888e+10,-3.82171e+10,-1.10754e+10,-6.73603e+10,0,-9.6332e+09,-9.6332e+09,-9.6332e+09,-9.6332e+09,-9.6332e+09,-9.6332e+09,-9.6332e+09,-3.19064e+09,-2.62412e+09,-1.38052e+09,-1.47739e+09,-1.86642e+09,-5.39183e+09,-3.52047e+09,8.10664e+08,-4.07928e+09,-1.26411e+09,-3.11865e+09,-3.38619e+09,-2.90317e+09,-9.47741e+08,-3.1392e+09,-1.51156e+09,-2.24372e+09,-4.26837e+09,-1.29815e+10,-9.6332e+09,-3.00052e+08,-9.6332e+09,-8.9394e+09,-1.16866e+09,-8.17328e+09,-1.38525e+11,1.14548e+09
0,-1.30427e+10,-5.57482e+09,-8.5804e+09,-6.47662e+09,-1.76682e+09,-5.49486e+09,-1.27076e+09,-1.15913e+10,-1.84333e+09,3.38373e+08,-5.83185e+07,-3.81484e+08,3.37727e+08,-1.16471e+10,1.65338e+09,1.06639e+09,3.78378e+08,-233490,5.40535e+06,4.05229e+09,-6.24255e+08,-3.93694e+09,-7.63477e+08,-86111,-2.09664e+07,-9.64363e+09,-1.76149e+09,7.43248e+07,-3.62636e+09,-1.59167e+10,0,-9.5739e+09,0,-7.05995e+09,-3.67532e+09,-2.22737e+09,2.90415e+08,6.43975e+08,-9.41673e+08,-2.641e+09,-1.12292e+10,7.70678e+08,1.4485e+09,-5.54773e+08,0,1.16326e+09,-3.4481e+09,4.18261e+09,-3.93097e+08,-6.97736e+08,0,1.07186e+09,-1.5742e+08,0,-1.99089e+08,-236873,-2.06303e+08,0,-1.15293e+10,-3.3974e+09,7.54958e+08,-3.49035e+09,-9.62135e+09,0,4.47618e+08,0,-9.65016e+09,-4.29099e+09,-1.41856e+09,-2.02933e+09,-8.35004e+07,-4.75617e+09,3.01478e+09,-7.21666e+09,5.19137e+08,7.96292e+07,4.41435e+07,6.77209e+08,-2.97662e+09,-3.04636e+09,2.37701e+08,-1.01068e+06,-2.16019e+09,0,-641733,7.84961e+07,1.4475e+09,-8.25157e+08,2.75575e+09,-3.60472e+08,-23636,-1.70408e+09,9.42371e+08,-13256,-3.04278e+09,-4.3851e+09,0,8.904e+08,0,0,0,0,0,0,0,0,0,0,0,0,0,0,0,0,0,0,0,0,0,0,0,0,0,0,0,0,0,0,0,0,0,0,-2.85744e+10,-8.04326e+09,-1.76798e+10,-5.49567e+09,-2.27982e+09,-8.63173e+09,-7.05122e+09,-3.0292e+10,-3.02378e+09,6.19491e+08,-8.34128e+08,0,-4.45841e+08,-1.79213e+10,1.56545e+09,4.36138e+08,-1.83561e+08,-37396,1.5957e+09,4.39548e+09,4.81018e+09,-3.93187e+09,-1.29212e+09,-6.27642e+07,294294,-1.60612e+10,-5.07576e+09,3.04544e+08,-9.34654e+09,-2.53314e+10,7.43004e+08,-7.29824e+09,0,-4.46997e+11,-2.71149e+11,-1.64242e+11,-7.52842e+10,-7.47278e+10,-5.78813e+10,-6.05201e+10,-3.74382e+10,-2.67582e+10,-1.11314e+10,-1.73013e+10,-1.82095e+10,-4.0923e+10,-2.47606e+10,-2.51967e+09,-4.26054e+10,-2.23721e+10,-3.81206e+10,-3.91847e+10,-1.38915e+10,-4.28567e+09,-3.40562e+10,-8.88033e+09,-3.09295e+10,-4.10801e+10,-7.59363e+10,-4.62076e+10,-4.0212e+09,-7.82614e+10,-2.95653e+10,-6.94275e+09,-5.21455e+10,0,-9.77674e+09,-9.77674e+09,-9.77674e+09,-9.77674e+09,-9.77674e+09,-9.77674e+09,-9.77674e+09,-9.77674e+09,-3.07272e+09,-8.00389e+08,-1.83881e+09,-1.79138e+09,-4.28445e+09,-6.12165e+09,5.11947e+08,-4.1497e+09,-2.50354e+09,-3.81208e+09,-3.70491e+09,-5.52266e+08,1.34775e+08,-4.29492e+09,-1.02255e+09,-3.05333e+09,-4.11008e+09,-1.14875e+10,-5.56859e+09,-2.88739e+08,-9.77674e+09,-8.48199e+09,-6.19975e+08,-7.30107e+09,-1.38422e+11,-7.28771e+09
0,-1.30211e+10,-3.05543e+09,-6.39501e+09,4.79397e+08,3.51096e+08,-2.25929e+09,-5.19379e+09,-2.54374e+09,-9.62821e+09,-3.68379e+09,-1.65652e+09,0,-1.75025e+09,-8.21182e+09,-1.04478e+10,-1.62868e+09,-3.71446e+08,0,-5.84774e+08,-1.04802e+10,2.8387e+09,-4.308e+09,-116461,-9.4825e+08,-1.07203e+09,-5.60105e+09,-4.69752e+09,3.23063e+08,-3.80504e+09,-8.82806e+09,0,-1.69053e+09,0,-1.14246e+10,1.48962e+09,-7.68823e+09,-4.58955e+09,-6.58826e+08,6.51253e+08,-1.00826e+09,-1.72862e+09,-9.68329e+09,-6.16648e+08,3.45435e+07,58858,-1.84176e+09,-2.98115e+09,-3.86423e+09,0,-5.1981e+08,0,-6.34233e+08,-1.10726e+09,2.36321e+08,-7.28575e+08,0,7.68963e+08,0,-3.88427e+09,-8.94352e+07,-4.9554e+08,-2.70819e+08,-4.99547e+09,0,-1.07203e+09,0,-1.30885e+10,-1.41824e+09,-4.41501e+09,-6.75639e+09,-1.26837e+09,-3.0024e+09,-3.34068e+09,-9.75415e+08,-7.70049e+07,-1.16942e+09,-1.12533e+09,0,-2.12749e+09,-4.69503e+09,-1.75089e+09,1.55535e+06,-1.57925e+09,0,0,6.84314e+08,2.36358e+08,-3.4019e+08,-469383,-4.91382e+08,-1.07203e+09,-3.88962e+09,1.0419e+09,-101980,-8.67692e+09,-5.07993e+09,0,-1.07211e+09,0,0,0,0,0,0,0,0,0,0,0,0,0,0,0,0,0,0,0,0,0,0,0,0,0,0,0,0,0,0,0,0,0,0,-3.19617e+10,-1.83645e+10,-1.07815e+10,-9.43592e+09,2.65696e+09,-1.38991e+10,-1.13752e+10,-8.15408e+09,-4.8799e+09,-3.36318e+09,-1.36011e+09,0,-3.18249e+09,-3.13368e+09,-1.89607e+10,1.06265e+09,-5.18288e+08,0,1.04682e+09,-3.32802e+09,-3.78782e+08,-3.6947e+09,-2.2227e+06,2.38829e+06,0,-6.31397e+09,-5.56556e+09,-2.05543e+09,-1.09077e+10,-1.92448e+10,-7.13366e+08,-4.18237e+09,0,-4.46961e+11,-2.64357e+11,-1.61547e+11,-7.79313e+10,-7.893e+10,-5.93396e+10,-6.47649e+10,-1.93679e+10,-6.83113e+10,-1.97772e+10,-1.11173e+10,-1.92963e+10,-2.34402e+10,-1.78061e+10,-1.04526e+10,-2.75467e+10,-1.58858e+10,-2.96179e+10,-3.97671e+10,-1.06301e+10,-2.54857e+10,-1.94033e+10,-1.53263e+10,-3.20438e+10,-3.85939e+10,-5.71669e+10,-4.90566e+10,-2.0771e+10,-7.36855e+10,-1.77891e+10,-6.57521e+09,-4.02851e+10,0,-9.73114e+09,-9.73114e+09,-9.73114e+09,-9.73114e+09,-9.73114e+09,-9.73114e+09,-9.73114e+09,-3.27698e+09,-9.73114e+09,-2.86096e+09,-1.61067e+09,-1.92962e+09,-3.23422e+09,-3.68278e+09,-4.54762e+09,-2.81112e+09,-1.97913e+09,-2.96179e+09,-4.78567e+09,-2.48612e+09,-2.25531e+09,-3.05961e+09,-1.91614e+09,-3.33709e+09,-4.0738e+09,-7.68558e+09,-5.83673e+09,-2.2999e+09,-9.73114e+09,-5.59374e+09,-7.28857e+08,-4.89573e+09,-1.32288e+11,-3.9812e+09
0,-1.27715e+10,-4.9159e+09,-1.32909e+10,1.19667e+08,-7.89596e+08,-1.08916e+10,-1.9395e+09,-4.06324e+09,8.62173e+08,-1.30006e+10,2.32399e+09,1.038e+09,-1.55077e+09,-2.30843e+09,-3.45576e+09,-1.11531e+09,-1.03379e+08,0,9.09991e+08,-1.21126e+10,-1.63704e+08,2.12304e+09,-8.59776e+08,-628571,-1.25714e+06,-1.23517e+09,-2.28569e+09,1.80267e+09,-1.33944e+09,-9.36897e+09,0,-6.3127e+09,0,-8.96195e+09,-1.65857e+09,-3.71182e+09,-3.94042e+09,0,-1.59398e+09,7.53731e+08,-2.94481e+09,9.22708e+07,-6.19947e+09,0,1.82768e+09,1.76911e+07,-4.40586e+09,9.74463e+08,0,1.07215e+09,0,9.09991e+08,-5.22706e+09,2.83965e+08,-7.82299e+08,0,0,0,-1.50126e+09,-2.51876e+09,-1.97094e+06,-3.54066e+09,-1.08142e+10,0,1.95307e+09,0,-5.69583e+09,-9.32588e+08,-6.43493e+09,-5.14691e+08,-1.13147e+09,-2.74971e+09,-3.06325e+09,-1.70162e+07,-1.80577e+09,-9.75639e+09,-3.37787e+08,-1.614e+09,-3.28647e+08,-5.26194e+09,-4.25329e+09,4.0712e+08,-1.07237e+09,0,0,-1.80986e+08,3.85003e+08,-5.9513e+08,-1.54086e+09,0,0,-2.2534e+09,3.78874e+08,-1.52235e+09,-2.70185e+09,-3.22788e+09,0,-8.15982e+08,0,0,0,0,0,0,0,0,0,0,0,0,0,0,0,0,0,0,0,0,0,0,0,0,0,0,0,0,0,0,0,0,0,0,-2.43549e+10,-1.57061e+10,-1.3481e+10,-7.5407e+09,9.18345e+08,-9.10355e+09,-8.17935e+09,-2.95058e+09,-4.03113e+09,-1.38689e+10,2.91867e+08,7.21003e+07,-1.57324e+09,-6.25633e+09,-5.97331e+09,-2.03983e+09,-1.03522e+08,0,0,-1.06168e+10,-1.58546e+09,-3.61232e+08,-3.7191e+09,-6.5195e+08,7.11665e+08,-3.48392e+09,-8.9124e+09,2.40911e+09,-1.23506e+10,-2.56247e+10,-7.22735e+08,-6.24614e+09,0,-4.4513e+11,-2.69503e+11,-1.60626e+11,-7.24032e+10,-7.79361e+10,-5.45999e+10,-6.92155e+10,-1.40977e+10,-3.09198e+10,-5.51812e+10,-7.75342e+09,-1.93208e+10,-4.07395e+10,-1.64517e+10,-1.13609e+10,-3.8293e+10,-9.72787e+09,-2.90026e+10,-2.88938e+10,-2.24491e+10,-1.23596e+10,-4.18433e+10,-1.61408e+10,-2.15423e+10,-3.85752e+10,-7.16368e+10,-4.70157e+10,-5.9624e+09,-7.85828e+10,-3.05613e+10,-1.73181e+10,-4.84328e+10,0,-9.86735e+09,-9.86735e+09,-9.86735e+09,-9.86735e+09,-9.86735e+09,-9.86735e+09,-9.86735e+09,-2.40733e+09,-3.68619e+09,-9.86735e+09,-5.96266e+08,-1.7997e+09,-4.41744e+09,-3.46842e+09,-2.40688e+09,-4.1041e+09,-9.93498e+08,-2.90026e+09,-2.25228e+09,-5.05866e+09,-1.34398e+09,-4.33144e+09,-2.78256e+09,-2.21948e+09,-3.78648e+09,-8.01105e+09,-6.03536e+09,-3.27495e+08,-9.86735e+09,-7.9597e+09,-1.80408e+09,-6.24614e+09,-1.36195e+11,-6.22173e+09
0,-2.72479e+10,-9.3573e+09,-3.97416e+09,-1.21872e+10,3.09842e+08,-2.20327e+09,-1.35498e+10,-6.90634e+09,-3.46261e+09,1.02218e+07,-1.28497e+09,0,-2.78698e+09,-1.3634e+09,-5.54498e+09,-1.28497e+09,-101039,0,0,-1.53515e+09,-829546,-4.27945e+09,0,0,-3.87642e+08,-2.2033e+09,1.0592e+08,-2.09851e+08,-1.17647e+09,-8.88998e+09,0,42912,0,-9.81052e+09,-1.81811e+08,-1.87046e+09,-4.92665e+09,-7.49411e+08,-5.10277e+08,-2.17154e+09,-3.87967e+08,1.01589e+07,0,-9.63967e+09,0,1.41104e+09,-4.32696e+09,-3.65088e+09,59913,0,0,0,-1.19068e+09,6.198e+08,-7.6237e+08,0,-3.8534e+08,-3.87642e+08,-2.70479e+09,-2.01459e+09,11434,-3.32955e+09,-1.23413e+09,0,-2.1434e+09,0,-2.7162e+09,-1.98328e+09,-1.21312e+09,-4.16709e+09,-4.41052e+08,-7.24399e+09,-2.26965e+09,5.41448e+08,-5.07784e+08,-2.53198e+09,59913,0,-1.62238e+08,-8.27647e+08,2.60551e+09,-3.87642e+08,-5.1338e+08,0,0,-3.66402e+09,492620,1.27563e+09,0,0,-1.72615e+06,-8.83333e+08,-1.58082e+09,-4.9454e+08,-3.34083e+09,-2.1318e+09,0,-8.02598e+08,0,0,0,0,0,0,0,0,0,0,0,0,0,0,0,0,0,0,0,0,0,0,0,0,0,0,0,0,0,0,0,0,0,0,-4.00292e+10,-1.93576e+10,-1.17627e+10,-1.31565e+10,-1.68923e+09,-8.8416e+09,-1.14978e+10,-7.50321e+09,-5.4593e+09,-1.51319e+09,-2.21407e+09,4.82003e+08,-3.8412e+09,-4.4452e+09,-5.58633e+09,1.27021e+09,4.77167e+08,0,-2.4924e+06,-6.08003e+09,-3.08274e+08,-6.371e+09,0,-4.77125e+08,-1.72615e+06,-4.41273e+09,-7.04954e+09,-3.52993e+09,-1.05753e+10,-1.55918e+10,0,-4.1645e+09,0,-4.41774e+11,-2.54472e+11,-1.73974e+11,-7.29356e+10,-7.45475e+10,-5.78104e+10,-6.37212e+10,-1.95592e+10,-3.772e+10,-9.24715e+09,-8.22396e+10,-1.2552e+10,-3.34651e+10,-2.0018e+10,-1.7216e+10,-5.21528e+10,-2.03664e+10,-3.20983e+10,-1.63579e+10,-1.72336e+10,-1.28797e+10,-3.27665e+10,-1.38819e+10,-2.5579e+10,-3.92445e+10,-6.7184e+10,-4.29416e+10,-3.25567e+10,-7.69125e+10,-3.73439e+09,-3.20113e+10,-3.45345e+10,0,-9.63967e+09,-9.63967e+09,-9.63967e+09,-9.63967e+09,-9.63967e+09,-9.63967e+09,-9.63967e+09,-3.38152e+09,-4.71395e+09,-1.32821e+09,-9.63967e+09,-1.207e+09,-3.88444e+09,-3.09812e+09,-2.93927e+09,-5.25551e+09,-2.14061e+09,-3.20983e+09,-1.72019e+09,-2.97035e+09,-1.25685e+09,-4.29037e+09,-1.73524e+09,-2.69372e+09,-4.00232e+09,-7.73882e+09,-5.34806e+09,-3.6791e+09,-9.63967e+09,-3.1582e+09,-3.20113e+09,-4.1645e+09,-1.23194e+11,-5.77734e+09
0,-2.72292e+10,-7.42055e+09,-4.85074e+09,-1.08294e+10,-2.28184e+09,-1.07215e+09,-6.43182e+09,6917,-1.07215e+09,-3.26942e+09,0,-2.7287e+09,-2.14407e+09,-6.4322e+09,-2.9148e+08,0,-5.62581e+08,0,0,-6.88605e+09,4.00284e+08,-1.99138e+09,-7.11577e+09,0,0,0,-2.14401e+09,0,-4.94219e+09,-1.02111e+10,-1.52123e+09,-1.07212e+09,0,-1.02712e+10,-2.14434e+09,-2.14392e+09,-5.03398e+09,0,-1.0719e+09,0,0,0,-4.28814e+09,0,-9.53164e+09,-2.14401e+09,-2.70662e+09,4.00284e+08,0,12322,0,0,23805,-3.82817e+08,-2.12834e+09,-1.0778e+09,0,0,0,0,0,-1.07178e+09,-2.19728e+09,0,-1.07178e+09,0,-1.70371e+10,-5.75528e+09,36127,-4.6046e+09,-1.0778e+09,-8.74368e+08,-6.43226e+09,6917,0,-5.62533e+08,-2.9148e+08,-2.32607e+09,-2.43549e+09,-2.19728e+09,-2.9148e+08,0,0,0,-2.9148e+08,-5.25647e+09,-5.82911e+08,-1.52122e+09,-1.89656e+09,0,0,0,0,0,0,-1.68756e+09,0,0,0,0,0,0,0,0,0,0,0,0,0,0,0,0,0,0,0,0,0,0,0,0,0,0,0,0,0,0,0,0,0,0,0,0,-5.39722e+10,-1.39935e+10,-1.30401e+10,-2.59809e+10,-5.82057e+09,-3.04338e+09,-7.50394e+09,-2.14433e+09,0,-4.3412e+09,-8.179e+08,0,-4.48826e+09,-8.06665e+09,-6.5683e+08,-1.05209e+09,-5.62581e+08,0,0,-9.93924e+09,119864,-3.47857e+09,-1.67981e+09,0,0,0,-4.28803e+09,-1.12515e+09,-1.26804e+10,-1.83308e+10,-7.60614e+08,-3.97665e+09,0,-4.22952e+11,-2.51877e+11,-1.66666e+11,-7.19095e+10,-6.58041e+10,-6.89225e+10,-7.33624e+10,-3.00175e+10,-3.10882e+10,-3.69597e+10,-4.72274e+10,-7.9144e+10,-3.71265e+10,-4.74297e+10,-7.38706e+07,-5.48925e+10,-3.35468e+10,-2.84952e+10,-5.01635e+10,-2.71548e+08,-3.4769e+08,-2.44714e+10,-1.51029e+10,361270,-5.92263e+10,-1.07217e+10,-1.50081e+10,-1.97638e+10,-7.5036e+10,-1.60808e+10,-5.32406e+09,-3.25738e+10,0,-9.37304e+09,-9.37304e+09,-9.37304e+09,-9.37304e+09,-9.37304e+09,-9.37304e+09,-9.37304e+09,-3.21618e+09,-3.21604e+09,-4.9421e+09,-4.83368e+09,-9.37304e+09,-4.83383e+09,-6.68325e+09,-9.13376e+07,-5.59446e+09,-3.4672e+09,-2.84952e+09,-5.39625e+09,-2.23533e+09,-9.13015e+07,-3.35909e+09,-3.35911e+09,36127,-5.92263e+09,-1.07217e+09,-2.14401e+09,-2.08889e+09,-9.37304e+09,-4.85075e+09,-7.60591e+08,-3.97665e+09,-1.25547e+11,-6.66647e+09
0,-9.28585e+09,-9.29281e+09,-3.48304e+09,-6.63152e+09,-3.39483e+09,-7.04268e+08,1.33328e+09,1.88769e+09,-6.37109e+08,-3.60422e+08,-171694,0,-4.36027e+09,-9.56549e+09,1.20751e+09,5.08748e+08,-1.2255e+09,0,-6.53188e+07,-2.98279e+09,0,-2.49176e+09,-7.28331e+08,1.88827e+08,0,-4.18034e+09,-4.09584e+08,-3.27188e+08,-2.86256e+09,-1.42718e+10,0,-5.39185e+09,0,-5.72461e+09,-1.81709e+08,-6.38693e+09,-9.3925e+08,-1.01661e+09,-1.75263e+09,-9.4268e+08,-7.62837e+08,1.91103e+09,-4.43052e+08,-5.58284e+08,8.87825e+08,-9.91257e+09,-4.97647e+09,1.20881e+08,-4.85029e+08,2.51398e+08,0,0,-2.34517e+09,162369,-5.5192e+08,-4.20691e+08,2.4103e+08,0,-6.88378e+09,-1.01446e+09,-2.97414e+09,-5.37297e+09,-1.25223e+10,0,-9.96597e+08,0,-6.06524e+09,-2.82097e+09,-5.21111e+09,-3.67657e+09,-2.24434e+09,-7.91478e+09,6.08214e+07,-2.35255e+08,-5.23409e+08,0,1.06028e+09,-5.84097e+06,5.47504e+08,-2.27784e+09,5.22337e+08,-1.95828e+08,0,0,0,-3.08137e+08,0,-2.39675e+09,4.67233e+08,-6.92706e+06,0,-1.68194e+09,-2.14137e+09,-9.32763e+07,5.8582e+08,-4.23218e+09,0,-1.4583e+09,0,0,0,0,0,0,0,0,0,0,0,0,0,0,0,0,0,0,0,0,0,0,0,0,0,0,0,0,0,0,0,0,0,0,-1.97888e+10,-1.22481e+10,-1.70561e+10,-7.02914e+09,-6.20975e+09,-7.19194e+09,1.28972e+08,1.46296e+09,-2.52816e+09,1.95020e+06,-4.7277e+07,-1.93531e+08,-1.09499e+10,-2.19263e+10,-1.30315e+08,-6.54139e+08,-7.10047e+08,0,-1.5676e+09,-6.21612e+09,-430580,-1.90942e+09,-2.65222e+09,-9.88268e+08,0,-1.36126e+10,-5.08411e+09,-2.56724e+09,-8.61025e+09,-2.84492e+10,0,-7.05273e+09,0,-4.47215e+11,-2.70041e+11,-1.6385e+11,-7.70426e+10,-6.48997e+10,-6.02016e+10,-6.7113e+10,-7.00045e+09,-2.76044e+10,-1.17605e+10,-9.1468e+09,-2.09966e+10,-7.25313e+10,-1.78554e+10,-6.95622e+09,-3.66564e+10,-7.97585e+09,-4.11195e+10,-3.49815e+10,-1.58007e+10,-4.92257e+09,-3.68449e+10,-1.40103e+10,-2.93815e+10,-4.24358e+10,-7.15803e+10,-5.64513e+10,-3.05929e+09,-8.09466e+10,-3.23944e+10,-6.44224e+09,-5.59243e+10,0,-9.72066e+09,-9.72066e+09,-9.72066e+09,-9.72066e+09,-9.72066e+09,-9.72066e+09,-9.72066e+09,-4.64789e+08,-2.93822e+09,-1.32828e+09,-1.01877e+09,-2.03082e+09,-9.72066e+09,-5.66015e+09,-5.2358e+08,-3.74827e+09,-9.03396e+08,-4.11195e+09,-3.92588e+09,-2.76529e+09,-4.92284e+08,-4.41948e+09,-2.16803e+09,-2.99468e+09,-4.24358e+09,-9.7939e+09,-6.51008e+09,-9.02114e+08,-9.72066e+09,-9.18699e+09,-6.44224e+08,-6.9905e+09,-1.43381e+11,-3.38545e+09
0,-6.73434e+09,-6.70791e+09,-5.4362e+09,-4.89051e+09,-2.00936e+09,-4.19157e+09,2.29006e+09,-3.92555e+09,1.38643e+09,4.90527e+09,-2.08363e+08,6.31705e+08,-3.23975e+09,-1.94469e+10,-2.7032e+09,-8.579e+08,-7.46369e+08,0,-4.5325e+06,-1.84313e+09,2.59845e+09,-3.77409e+09,-1.73133e+09,-1.54364e+09,-5.62564e+08,-1.33319e+10,-3.56485e+09,1.25044e+09,-3.46336e+09,-1.11966e+10,0,-8.79043e+09,0,3.84753e+09,-1.0004e+09,-3.62389e+09,1.859e+09,-3.3104e+08,2.01595e+08,8.59458e+08,-6.3373e+09,-2.78865e+08,1.04304e+09,8.54171e+08,-4.75578e+08,-3.25892e+09,-1.05955e+10,-1.65077e+09,-1.93007e+07,-1.30839e+09,-16391,-3.034e+08,-6.74416e+08,-3.50449e+06,-1.25438e+09,-18247,-9.64098e+07,-33582,-1.34501e+10,-3.04047e+09,-2.92463e+09,-6.51663e+09,-1.66045e+10,0,2.53136e+09,0,-2.95645e+09,9.453e+08,1.42338e+08,-1.59847e+09,-1.71431e+09,-2.82608e+09,-3.07987e+09,-3.51339e+08,-3.31277e+09,2.44462e+09,-1.81477e+08,7.86865e+07,-6.32064e+08,-8.31498e+09,-1.15639e+09,8.50026e+07,1.81978e+08,0,-144362,4.41216e+09,1.62317e+08,-6.71482e+08,2.14392e+09,-759328,2.12482e+07,-1.47662e+09,1.11007e+09,1.46045e+09,-2.45367e+08,-1.69302e+09,0,2.01404e+08,0,0,0,0,0,0,0,0,0,0,0,0,0,0,0,0,0,0,0,0,0,0,0,0,0,0,0,0,0,0,0,0,0,0,-1.8199e+10,-1.48278e+10,-1.63619e+10,-6.42449e+09,-2.36078e+09,-8.78265e+09,-6.15052e+09,-6.93491e+09,-1.08207e+09,8.98048e+07,-8.98572e+08,2.97341e+07,-9.76042e+09,-2.80626e+10,-1.39927e+09,-2.12411e+08,-3.3247e+09,0,-7.44999e+08,3.52427e+09,4.92718e+09,-1.21203e+09,-4.19536e+09,-1.06921e+09,1.94506e+06,-1.42488e+10,-5.70019e+09,9.0768e+08,-9.36027e+09,-3.10216e+10,-1.06622e+09,-6.64771e+09,0,-4.44517e+11,-2.72501e+11,-1.69486e+11,-7.81493e+10,-7.21304e+10,-6.20934e+10,-6.0526e+10,-1.52724e+10,-3.04455e+10,-6.75645e+09,-7.01744e+09,-1.06731e+10,-4.96728e+10,-3.16976e+10,-7.69215e+09,-3.72822e+10,-8.0739e+09,-3.68421e+10,-3.11253e+10,-1.58091e+10,-4.12266e+09,-3.25877e+10,-6.1127e+09,-3.34575e+10,-4.57473e+10,-8.6717e+10,-5.05933e+10,-5.31106e+08,-7.85967e+10,-2.78475e+10,-6.6612e+09,-5.32381e+10,0,-9.81823e+09,-9.81823e+09,-9.81823e+09,-9.81823e+09,-9.81823e+09,-9.81823e+09,-9.81823e+09,-3.28215e+09,-3.46206e+09,2.90505e+07,-8.86617e+08,-1.04086e+09,-6.65639e+09,-9.81823e+09,-1.46018e+09,-3.82868e+09,-1.41706e+09,-3.68421e+09,-3.17561e+09,-1.03902e+09,3.56179e+08,-3.94895e+09,-1.5125e+09,-3.61675e+09,-4.62867e+09,-1.29224e+10,-6.17887e+09,1.62835e+07,-9.81823e+09,-8.83632e+09,-7.72742e+08,-6.59732e+09,-1.46246e+11,-5.56966e+09
0,-1.65636e+10,-7.31547e+09,-8.37713e+09,-5.03766e+09,-1.40556e+08,-5.96144e+09,-1.68699e+09,-2.0589e+09,-2.63025e+09,-2.77758e+09,8.46476e+08,-2.19373e+06,-1.09236e+09,-2.55256e+09,-1.48231e+10,-5.96729e+08,-5.46244e+07,0,-1.32101e+06,-2.31336e+09,-6.1116e+08,-2.01734e+09,-4956,-3.29069e+08,-2.4815e+08,-1.33228e+09,-1.1486e+09,-1.42901e+08,-4.05323e+09,-8.47028e+09,-2.5621e+08,-1.06083e+09,0,-9.2478e+09,-6.71645e+09,-2.03459e+09,-1.49748e+09,-1.19193e+08,-4.91671e+07,-1.36638e+09,-2.33519e+09,-1.05443e+09,-4.56763e+08,-1.43765e+06,-8067,-7.46686e+08,-7.22754e+08,-7.80695e+09,-5.62394e+07,-5.62145e+07,0,0,-5.76601e+08,-8067,-1.49341e+09,-4860,-1.26538e+07,0,-2.0566e+09,-1.56507e+09,-7.99756e+08,-3.88437e+09,-3.88517e+09,-5.39814e+07,-2.747e+09,0,-6.59993e+09,-6.101e+09,-3.95065e+09,-1.86582e+09,1.19146e+09,-2.54354e+09,-4.06752e+09,-1.14034e+09,-2.7126e+09,-1.52165e+09,1.20102e+09,-6.99137e+07,1.13154e+09,-1.26634e+09,-8.05602e+09,-5.96287e+08,-9.12533e+06,0,0,-8.20072e+08,-4.34857e+08,-3.9647e+08,-5.72944e+08,-1.9163e+06,6.34444e+07,-2.15146e+09,-4.9384e+07,-4.02422e+07,-3.12002e+09,-1.98953e+08,0,-2.6382e+09,0,0,0,0,0,0,0,0,0,0,0,0,0,0,0,0,0,0,0,0,0,0,0,0,0,0,0,0,0,0,0,0,0,0,-2.80993e+10,-1.16333e+10,-1.60621e+10,-5.33127e+09,3.03591e+09,-1.01807e+10,-8.08885e+09,-7.8132e+09,-2.75647e+09,-3.41352e+09,-8.75755e+08,-1.20564e+09,-2.26066e+09,-9.30156e+09,-2.72023e+10,-8.11798e+08,9.57612e+08,0,4.70846e+08,4.83537e+07,5.07686e+08,-4.35625e+09,-3.68819e+08,-2.32126e+06,2.9019e+08,-4.836e+09,-5.00921e+09,-9.0809e+08,-1.2981e+10,-1.67429e+10,-1.69443e+08,-7.80699e+09,0,-4.50826e+11,-2.58671e+11,-1.64941e+11,-7.93368e+10,-8.19777e+10,-5.92753e+10,-6.39211e+10,-1.67186e+10,-4.06306e+10,-2.49383e+10,-2.15329e+10,-1.50026e+10,-3.35699e+10,-2.21365e+10,-3.96242e+10,-4.14985e+10,-1.63164e+10,-3.24507e+10,-2.26994e+10,-1.26994e+10,1.56796e+09,-3.52573e+10,-2.0893e+10,-2.77768e+10,-4.20695e+10,-6.92593e+10,-4.2255e+10,-1.08552e+10,-7.3474e+10,-1.63627e+10,-2.51689e+10,-5.34918e+10,0,-9.75126e+09,-9.75126e+09,-9.75126e+09,-9.75126e+09,-9.75126e+09,-9.75126e+09,-9.75126e+09,-3.00662e+09,-5.14902e+09,-3.31078e+09,-2.12403e+09,-1.62804e+09,-3.65381e+09,-3.59798e+09,-9.75126e+09,-4.30108e+09,-1.54399e+09,-3.24507e+09,-2.53802e+09,-1.63611e+09,1.02963e+08,-4.44244e+09,-2.74301e+09,-2.8131e+09,-4.1964e+09,-7.96357e+09,-5.00272e+09,-1.27462e+09,-9.75126e+09,-4.566e+09,-2.56485e+09,-6.81178e+09,-1.39129e+11,-6.11112e+09
0,-3.09452e+10,-4.041e+09,-5.60279e+09,-9.82082e+09,1.58904e+09,-1.91606e+09,-7.5006e+09,-1.28054e+07,-9.31839e+08,-2.13988e+09,-1.07126e+09,0,-3.21207e+09,5.17699e+08,1.14656e+09,0,0,0,0,-2.52917e+09,0,-3.21645e+09,0,-1.071e+09,0,-5.35849e+09,-4.2875e+09,-1.61072e+09,-5.50499e+09,-8.28459e+09,0,-2.05001e+09,0,-8.56645e+09,-3.22302e+09,-2.72025e+09,-8.60959e+09,71984,-1.61417e+09,-3.21624e+09,5.29602e+08,0,0,0,0,-3.89924e+08,-5.94986e+08,-3.58767e+08,-9.53328e+09,-3.58774e+08,0,-1.07101e+09,0,0,35992,0,-1.06943e+09,0,-2.14071e+09,-1.07216e+09,-3.26734e+09,0,-2.53414e+09,0,-214983,0,-1.06368e+10,-2.84818e+09,-1.99626e+09,-4.74606e+09,-1.36232e+09,-5.28702e+07,0,-3.58774e+08,-66688,-9.78598e+08,0,0,-3.89938e+08,71984,0,0,0,0,-4.66253e+06,-4.62654e+06,0,0,-1.07101e+09,0,0,-4.62654e+06,0,-281671,-1.84242e+09,-1.88729e+09,0,-1.12465e+09,0,0,0,0,0,0,0,0,0,0,0,0,0,0,0,0,0,0,0,0,0,0,0,0,0,0,0,0,0,0,0,0,0,0,-4.8943e+10,-1.60497e+10,-1.16964e+10,-1.98295e+10,-2.98857e+09,-5.13182e+09,-1.39288e+10,-3.89917e+08,-6.06361e+09,-2.05076e+09,35992,0,-3.57514e+09,5.29921e+08,1.19933e+09,-2.30693e+09,-1.4656e+09,0,0,-3.60487e+09,-4.86066e+08,-5.65104e+09,0,-3.89924e+08,0,-6.43063e+09,-7.50218e+09,0,-1.02137e+10,-1.3712e+10,0,-9.78885e+08,0,-4.38531e+11,-2.52222e+11,-1.68108e+11,-7.73256e+10,-7.35045e+10,-6.75513e+10,-7.06872e+10,-3.90189e+10,-4.20654e+10,-5.34371e+10,-3.45083e+10,-1.90505e+10,-3.74937e+10,-2.83633e+10,-1.97536e+10,-8.34926e+10,-2.71362e+10,0,-3.06904e+10,-9.47938e+09,-4.37459e+09,-2.5266e+10,-1.92522e+10,-3.91178e+10,-4.78816e+10,-6.16544e+10,-3.00086e+10,-2.48506e+10,-7.77717e+10,-2.00631e+10,-1.07136e+10,-2.53991e+10,0,-9.53328e+09,-9.53328e+09,-9.53328e+09,-9.53328e+09,-9.53328e+09,-9.53328e+09,-9.53328e+09,-3.92508e+09,-4.85312e+09,-5.86064e+09,-3.55795e+09,-1.90505e+09,-4.50608e+09,-2.73809e+09,-1.77665e+09,-9.53328e+09,-2.89606e+09,0,-3.57973e+09,-1.5618e+09,-4.86066e+08,-3.41335e+09,-2.5404e+09,-4.16482e+09,-4.78816e+09,-7.55889e+09,-4.28704e+09,-2.9729e+09,-9.53328e+09,-4.64812e+09,-1.07136e+09,-3.17488e+09,-1.05598e+11,-3.48538e+09
0,-2.08228e+10,-5.2969e+09,-3.47134e+09,-8.58799e+09,1.63387e+09,-3.81635e+09,-2.68426e+09,-4.46441e+09,9.82585e+08,5.40948e+08,-1.34534e+09,2.16456e+08,-2.03311e+09,-9.68467e+09,-3.73598e+09,-6.59403e+08,-8.07213e+09,0,0,3.66394e+09,4.35243e+08,-4.51705e+09,-8.21829e+09,6.89879e+07,0,-2.13075e+09,1.70335e+09,3.42927e+07,-3.86141e+09,-8.81398e+09,-410382,-1.7031e+09,0,-1.18677e+10,-1.34911e+09,-7.88425e+08,-8.22973e+09,4.08502e+08,-5.13622e+08,-1.15379e+09,-5.46392e+08,7.11249e+08,-4.31685e+08,0,0,-1.07195e+09,-2.85869e+09,-6.85551e+08,8.57989e+08,-1.0048e+10,0,8.07763e+08,7.13927e+08,-1.072e+09,2.17608e+08,-1.88729e+06,-3.14194e+09,0,-2.51245e+09,-3.49469e+08,5.22172e+08,-2.06906e+09,-1.53547e+09,0,-1.90607e+09,0,-1.9017e+10,-5.03925e+09,-7.2764e+08,-8.57134e+09,-1.3325e+09,-4.5521e+08,-1.42548e+10,1.75638e+08,-1.13979e+09,-3.11146e+08,-5.56809e+08,0,-678903,-3.92145e+09,-1.45617e+09,0,-1.01448e+10,0,0,4.93919e+08,-1.24301e+06,-3.63696e+08,-1.51474e+10,0,0,-6.59586e+09,-1.65901e+09,8.44972e+08,-4.80995e+09,-7.92134e+09,-8.96345e+07,-2.81028e+09,0,0,0,0,0,0,0,0,0,0,0,0,0,0,0,0,0,0,0,0,0,0,0,0,0,0,0,0,0,0,0,0,0,0,-2.94934e+10,-7.67856e+09,-1.36155e+10,-1.15512e+10,-3.94718e+09,-7.88559e+09,-1.15852e+08,-1.68056e+10,-1.43329e+09,-4.1353e+08,1.37781e+09,1.19097e+06,-3.28122e+09,-1.69081e+10,-9.64243e+09,-4.84595e+07,-1.08626e+10,0,116018,-1.54195e+09,-1.30089e+09,-3.99508e+09,-8.68686e+09,-1.66553e+09,0,-8.25048e+09,-6.37763e+09,-2.16376e+09,-1.29367e+10,-2.22314e+10,4.08502e+08,-3.81672e+09,0,-4.38499e+11,-2.68839e+11,-1.73489e+11,-7.34842e+10,-7.43621e+10,-6.49287e+10,-7.75531e+10,-1.30047e+10,-3.00378e+10,-3.34564e+09,3.9947e+09,-9.1356e+09,-3.93221e+10,-2.4531e+10,-1.7544e+10,-2.13035e+10,-5.78717e+10,-4.17158e+10,-2.00727e+10,-2.61405e+10,2.8008e+09,-2.87316e+10,-1.74859e+10,-2.61604e+10,-3.48752e+10,-6.47602e+10,-4.36278e+10,-1.20378e+10,-7.33222e+10,-3.62704e+10,-1.01899e+10,-4.38913e+10,0,-9.69993e+09,-9.69993e+09,-9.69993e+09,-9.69993e+09,-9.69993e+09,-9.69993e+09,-9.69993e+09,-3.46454e+09,-3.09171e+09,-3.96105e+08,3.47037e+08,-8.91796e+08,-4.57091e+09,-5.79039e+09,-3.30642e+09,-2.11534e+09,-9.69993e+09,-4.17158e+09,-2.36571e+09,-2.28107e+09,8.61907e+07,-3.73898e+09,-6.35032e+09,-3.08989e+09,-3.48752e+09,-8.42498e+09,-5.03106e+09,-1.28001e+09,-9.69993e+09,-7.67726e+09,-9.87145e+08,-5.51996e+09,-1.34712e+11,-1.95688e+09
0,-4.28858e+09,-4.2886e+09,-2.14429e+09,-3.21647e+09,0,-8.57718e+09,0,-3.21644e+09,0,0,-1.07216e+09,0,0,-1.07216e+09,0,0,0,0,0,-2.14431e+09,-3.21647e+09,0,-2.1443e+09,0,0,0,0,0,-3.21644e+09,-6.43287e+09,0,-2.14429e+09,0,-2.14429e+09,-1.07215e+09,0,0,-1.07215e+09,-3.21645e+09,0,-1.07215e+09,0,0,0,0,0,-1.07216e+09,0,0,0,-3.21645e+09,0,-2.14431e+09,0,0,-1.07215e+09,0,0,0,0,0,0,0,0,0,0,-4.2886e+09,-1.07215e+09,-2.14429e+09,-1.07216e+09,-1.07215e+09,-6.43289e+09,0,-2.14429e+09,0,0,0,0,0,0,0,0,0,0,0,-2.14431e+09,0,-3.21644e+09,-1.07216e+09,0,0,0,0,0,-3.21644e+09,-4.28858e+09,0,0,0,0,0,0,0,0,0,0,0,0,0,0,0,0,0,0,0,0,0,0,0,0,0,0,0,0,0,0,0,0,0,0,0,0,-2.25151e+10,-3.21647e+09,-3.21647e+09,-1.07215e+10,0,-2.14431e+09,0,-5.36073e+09,0,0,0,-2.14431e+09,0,-1.07216e+09,0,0,0,0,0,-1.92987e+10,-1.71544e+10,-1.17936e+10,-1.07216e+09,0,0,0,0,0,-4.2886e+09,-1.07215e+10,0,0,0,-1.45812e+11,-8.6844e+10,-5.68239e+10,-2.35873e+10,-2.35873e+10,-5.36074e+09,-3.21645e+10,-9.64931e+09,0,0,-9.6494e+09,-8.57724e+09,-1.07216e+10,-7.50509e+09,0,0,0,-2.8948e+10,0,-6.43287e+09,-1.17936e+10,-6.43287e+09,-2.03708e+10,0,-3.21645e+10,0,0,0,-2.1443e+10,0,0,-1.92986e+10,0,-3.21645e+09,-3.21645e+09,-3.21645e+09,-3.21645e+09,-3.21645e+09,-3.21645e+09,-3.21645e+09,-2.14429e+09,0,0,-1.07216e+09,-1.07216e+09,-1.07216e+09,-1.07216e+09,0,0,0,-3.21645e+09,0,-3.21645e+09,-3.21645e+09,-2.14429e+09,-3.21645e+09,0,-3.21645e+09,0,0,0,-3.21645e+09,-2.14429e+09,0,-2.14429e+09,-6.43289e+10,-1.07216e+09
0,-1.15649e+10,-9.15721e+09,-5.77298e+08,-4.42053e+09,0,0,-2.79575e+09,-1.53748e+09,-1.73218e+09,0,0,-5.57895e+08,-282975,0,-4.5258e+09,-5.81926e+08,-7.68746e+08,0,-1.47128e+09,-2.07856e+09,-3.26008e+09,-1.06385e+09,0,-1.44925e+09,0,-5.81926e+08,-6.92099e+08,0,-2.29059e+09,-9.17905e+07,-1.06385e+09,-4.11257e+09,0,-1.03318e+10,-3.28117e+09,-2.14453e+09,-5.26938e+09,0,0,-1.64115e+09,-3.50358e+09,-5.77302e+08,-5.77302e+08,0,0,0,-7.68738e+08,-8.93974e+08,-3.85406e+08,-9.17382e+07,0,-9.56072e+09,-5.42906e+09,0,0,-5.81926e+08,0,4292,-3.85406e+08,0,0,9.87183e+07,-1.06333e+09,0,-1.41578e+09,0,-1.33353e+10,-5.57322e+09,-2.14426e+09,-4.94326e+09,-1.1546e+09,-4.89008e+09,-3.19985e+09,-4.98778e+09,4292,-8.93974e+08,-5.57895e+08,0,0,-1.78795e+09,-4.34311e+09,-52356,-7847,0,-1.07213e+09,-5.40055e+09,-1.11584e+09,0,-2.13118e+09,-5.81926e+08,4292,25752,-1.07213e+09,0,-2.13598e+09,-143332,0,-3.03834e+09,0,0,0,0,0,0,0,0,0,0,0,0,0,0,0,0,0,0,0,0,0,0,0,0,0,0,0,0,0,0,0,0,0,0,-3.43763e+10,-1.23274e+10,-5.56224e+09,-9.81197e+09,-1.64943e+09,-6.00564e+09,-3.38134e+09,-8.7619e+09,-2.51225e+09,-5.77302e+08,-5.57895e+08,0,-5.58178e+08,-4.85374e+09,-1.76599e+10,-6.49686e+08,-9.67332e+08,0,-1.16385e+09,-1.64226e+10,12876,-1.17864e+09,0,-8.93974e+08,0,-4.51402e+09,-3.90023e+09,-143332,-1.09391e+10,-4.19234e+08,0,-6.43071e+09,0,-4.36956e+11,-2.56483e+11,-1.79892e+11,-7.59084e+10,-7.36817e+10,-6.559e+10,-7.97233e+10,-4.37693e+10,-5.1469e+10,-3.38447e+10,-1.66247e+10,-7.61049e+09,-2.2435e+10,-2.12992e+10,-1.72984e+10,-3.11812e+10,-1.64506e+10,-3.98526e+10,-6.3049e+10,-2.55186e+10,-2.26477e+10,-1.77487e+10,-2.102e+10,-4.23695e+10,-3.45268e+10,-3.38396e+10,-4.74965e+10,-1.59928e+06,-8.03402e+10,-5.36862e+09,-2.07011e+10,-4.93098e+10,0,-9.56072e+09,-9.56072e+09,-9.56072e+09,-9.56072e+09,-9.56072e+09,-9.56072e+09,-9.56072e+09,-6.25601e+09,-5.62907e+09,-3.58932e+09,-1.77405e+09,-8.16838e+08,-2.29935e+09,-2.87097e+09,-4.47211e+09,-3.27983e+09,-1.82784e+09,-3.98526e+09,-9.56072e+09,-5.48494e+09,-2.70236e+09,-1.99912e+09,-2.96664e+09,-4.52947e+09,-3.45268e+09,-3.93209e+09,-5.3161e+09,-174261,-9.56072e+09,-6.94311e+08,-2.1765e+09,-6.43072e+09,-1.20853e+11,-6.14178e+09
0,-1.61033e+10,-4.28238e+09,-6.63599e+09,-7.25648e+09,-2.19132e+09,-9.23691e+09,2.93826e+07,-1.12423e+09,1.64126e+09,1.39174e+09,-2.51295e+08,3.0713e+09,-2.30421e+09,-1.03967e+10,9.92688e+08,-1.56535e+09,-1.1336e+09,0,-199173,-1.34786e+10,6.14309e+09,6.47207e+08,-1.57034e+08,2.79091e+08,-1.85894e+09,-1.39639e+10,-5.28849e+09,1.73523e+09,-4.42365e+09,-1.21224e+10,0,-3.38817e+09,0,-1.25244e+10,-3.4543e+09,-2.35741e+09,-5.12883e+09,-2914,-1.12655e+09,2.04347e+09,7.96833e+07,-1.27002e+09,9.56753e+07,-7.11911e+07,-14538,-2.17397e+09,-1.48025e+09,-7.82088e+08,-3954,1.52319e+09,1.0716e+09,1.50616e+09,-5.85502e+09,1.54884e+09,2.75059e+09,-4.71847e+08,-9.83985e+06,-123895,-1.59335e+10,-5.10576e+09,1.3648e+09,-1.96251e+09,-2.52059e+09,0,1.69737e+08,0,-6.77045e+09,-4.48496e+09,-1.86016e+09,-8.51427e+09,7.21441e+07,-4.57796e+09,-1.35335e+08,1.17737e+09,-1.89175e+09,-1.91257e+09,-4.96291e+08,-1.75262e+08,1.02234e+09,-4.07056e+09,1.01777e+09,-5.59366e+08,-108968,0,-1.74845e+08,-1.25395e+10,-2.11853e+09,-4.59043e+08,-3.26253e+09,-2.9471e+06,-2.9306e+09,-6.53081e+09,-4.1707e+08,1.07046e+09,-1.97379e+09,-2.36261e+09,0,-4.27371e+09,0,0,0,0,0,0,0,0,0,0,0,0,0,0,0,0,0,0,0,0,0,0,0,0,0,0,0,0,0,0,0,0,0,0,-1.62867e+10,-1.15243e+10,-1.80215e+10,-9.97962e+09,-2.15027e+09,-7.14105e+09,-6.92948e+09,-2.3781e+09,-1.95033e+08,1.66343e+09,-2.19719e+09,1.24496e+09,-1.97566e+09,-1.75257e+10,1.0474e+09,-1.34669e+09,1.10134e+08,-1.07613e+07,-1.80081e+09,-2.15534e+10,-2.61809e+09,5.65884e+08,-1.71655e+09,-7.54603e+08,-1.05555e+09,-2.03625e+10,-7.00107e+09,-6.43516e+08,-9.54731e+09,-1.83417e+10,-1.43347e+08,-5.86301e+09,0,-4.47692e+11,-2.7007e+11,-1.66207e+11,-7.62888e+10,-7.3756e+10,-5.61362e+10,-6.30097e+10,-1.82603e+10,-2.79812e+10,-9.24801e+09,-5.48955e+09,-1.26278e+10,-4.8693e+10,-1.78689e+10,-1.00715e+10,-3.413e+10,-6.49502e+09,-2.59278e+10,-2.48417e+10,-4.41052e+10,-1.26154e+10,-3.59415e+10,-1.03715e+10,-3.25559e+10,-4.01149e+10,-8.01334e+10,-5.91714e+10,-2.6289e+08,-7.96234e+10,-1.80853e+10,-1.19267e+10,-5.24852e+10,0,-9.75318e+09,-9.75318e+09,-9.75318e+09,-9.75318e+09,-9.75318e+09,-9.75318e+09,-9.75318e+09,-2.05055e+09,-2.98209e+09,-8.00972e+08,-8.56088e+08,-8.48685e+08,-5.41245e+09,-5.1342e+09,-7.79574e+08,-3.76014e+09,-6.37437e+08,-2.4867e+09,-3.97603e+09,-9.75318e+09,-9.66006e+08,-3.24371e+09,-1.99743e+09,-3.3042e+09,-4.60731e+09,-1.36924e+10,-7.69837e+09,3.26408e+08,-9.75318e+09,-5.34325e+09,-1.20701e+09,-6.5672e+09,-1.40173e+11,-2.56401e+09
0,-1.59024e+10,-1.24421e+10,-8.24209e+09,-8.47584e+09,-8.89381e+08,-5.20506e+09,-2.14428e+09,6.75153e+08,-1.07256e+09,-2.27145e+09,-2.44423e+08,-3.38451e+09,-1.63931e+09,-6.8587e+09,-5.25482e+08,-5.63088e+08,-6.51266e+08,0,-5.63088e+08,-1.2916e+10,-8.41576e+09,-1.70405e+09,0,0,0,-3.85731e+08,-1.07215e+09,0,-3.46542e+09,-1.16157e+10,0,-5.89155e+09,0,-1.06598e+10,-2.76887e+09,-2.70353e+09,-1.89331e+09,-1.07147e+09,6.6443e+08,-1.07214e+09,0,-144560,-1.26284e+09,1.5974e+09,-2.01914e+08,-1.28499e+08,-1.99646e+09,-5.80495e+08,0,-5.37347e+08,0,0,-1.02745e+10,-8.49989e+09,-8.73142e+08,0,0,0,0,-1.07214e+09,0,-2.5844e+09,-5.72086e+09,0,-7.75064e+08,0,-3.08141e+09,-1.05111e+09,-7.4367e+08,-3.29028e+09,-1.72301e+08,-3.52177e+09,0,-1.3579e+07,-60901,0,-1.15183e+09,-7.04806e+08,-96238,-3.75705e+08,-2.5821e+06,0,-3.5116e+08,0,1.07162e+09,-1.22028e+09,-5.73328e+09,-2.07473e+09,-348701,0,0,-4.19224e+07,0,0,-1.28403e+09,-4.88743e+09,0,-32533,0,0,0,0,0,0,0,0,0,0,0,0,0,0,0,0,0,0,0,0,0,0,0,0,0,0,0,0,0,0,0,0,0,0,-3.07749e+10,-9.69924e+09,-1.51913e+10,-9.09473e+09,-1.25856e+09,-9.01968e+09,-6.43286e+09,-4.23284e+09,-2.14553e+09,-1.96726e+09,-1.62642e+09,-1.0702e+09,-5.92914e+09,-9.19939e+09,-1.04824e+10,-3.68247e+06,-7.22195e+08,-1.27836e+07,-47969,-2.38683e+10,-1.12803e+10,-4.86396e+08,161892,0,-1.07215e+09,-6.0563e+09,-2.14429e+09,-3.42595e+09,-1.34625e+10,-1.58303e+10,-47969,-6.80018e+09,0,-4.39887e+11,-2.6082e+11,-1.65022e+11,-7.5655e+10,-7.33693e+10,-5.96789e+10,-8.09413e+10,-1.84246e+10,-3.39817e+10,-2.4378e+10,-8.25669e+09,-2.23382e+10,-3.93057e+10,-1.66903e+10,-3.20796e+09,-2.38054e+10,-2.74962e+10,-3.91029e+10,-1.90747e+10,-1.95738e+10,-6.20216e+10,-3.00487e+10,-1.47907e+09,-2.32955e+10,-4.59185e+10,-4.56282e+10,-2.78748e+10,-1.17091e+10,-7.51549e+10,-2.5085e+10,-1.35938e+10,-6.00652e+10,0,-9.59513e+09,-9.59513e+09,-9.59513e+09,-9.59513e+09,-9.59513e+09,-9.59513e+09,-9.59513e+09,-2.19959e+09,-3.72e+09,-2.98796e+09,-1.07541e+09,-2.76996e+09,-4.70028e+09,-3.51205e+09,-1.47989e+09,-2.43722e+09,-2.97581e+09,-3.91157e+09,-2.5062e+09,-6.78528e+09,-9.59513e+09,-3.5187e+09,-1.84907e+08,-2.32955e+09,-4.69907e+09,-5.21122e+09,-3.21634e+09,-1.5135e+09,-9.59513e+09,-6.31392e+09,-1.35939e+09,-7.35321e+09,-1.44536e+11,-4.52425e+09
0,-1.92745e+10,4.82825e+09,-5.47024e+09,-7.67145e+09,2.16861e+09,-7.76285e+09,-5.83976e+09,-1.34845e+10,3.01998e+09,-3.53459e+09,-6.16747e+08,3.77499e+08,-4.1563e+09,-4.06254e+09,-3.3436e+09,-5.93008e+08,1.07477e+09,336266,0,-4.01357e+09,-5.76136e+09,-7.64942e+09,3.65564e+09,1.27675e+09,0,-3.93324e+08,-8.35036e+07,-2.65014e+09,-8.54379e+09,-1.63011e+10,4.68183e+08,-4.30521e+09,0,-3.23598e+09,-5.26173e+08,5.13413e+08,-3.59109e+09,-1.09687e+09,-2.79868e+09,-2.6711e+09,-1.2455e+09,1.49673e+09,-5.73257e+08,-1.52567e+09,8.20918e+08,-2.6624e+09,-3.9907e+09,-8.83287e+08,-1.28408e+07,-1.27442e+09,0,0,-5.00778e+09,-1.4454e+09,-9.09442e+09,7.7508e+08,6.68952e+07,1.07194e+09,-5.41569e+09,-3.56654e+09,3.53347e+08,-4.99571e+09,-2.46094e+09,1.98512e+09,-9.81251e+08,0,-9.2712e+09,4.00257e+09,-1.22199e+09,-8.38614e+09,-2.33769e+09,-2.12562e+09,-1.24367e+10,-5.80928e+09,8.11792e+08,1.07025e+09,-2.36073e+06,1.05285e+09,-2.62326e+08,-1.65397e+09,2.81576e+07,-1.07112e+09,-5.27699e+07,0,0,-1.06386e+09,-6.15304e+07,-3.0485e+09,3.91619e+09,-984523,0,-1.02596e+09,-1.27507e+09,5.80086e+08,1.06725e+09,-3.22744e+09,4.01651e+06,1.01363e+09,0,0,0,0,0,0,0,0,0,0,0,0,0,0,0,0,0,0,0,0,0,0,0,0,0,0,0,0,0,0,0,0,0,0,-3.01185e+10,-1.0178e+10,-1.61314e+10,-6.20466e+09,1.69008e+08,-5.71948e+09,-3.68267e+09,-1.28141e+10,-3.71902e+09,1.91769e+08,-1.2469e+09,0,-1.50884e+09,-1.2755e+10,-1.27226e+10,2.25019e+08,-1.05798e+09,-1.45379e+09,0,-5.76494e+09,-2.72106e+09,-9.19951e+09,-1.06807e+08,0,0,-2.89078e+09,-4.40449e+09,-9.80513e+08,-1.5243e+10,-1.98808e+10,1.82056e+09,-3.68403e+09,0,-4.38327e+11,-2.80483e+11,-1.68531e+11,-7.81459e+10,-7.43676e+10,-5.70579e+10,-5.15409e+10,-2.29421e+10,-3.82429e+10,-1.86738e+10,-1.65851e+10,-1.28852e+10,-3.8372e+10,-1.56369e+10,-8.84555e+09,-3.63874e+10,-1.10302e+10,-3.05737e+10,-2.79394e+10,-2.24893e+10,-1.39041e+10,-6.52864e+10,-5.30147e+09,-3.39944e+10,-3.19394e+10,-6.97524e+10,-3.5451e+10,-1.89967e+09,-6.66128e+10,-2.26365e+10,-1.34935e+10,-5.09579e+10,0,-9.43307e+09,-9.43307e+09,-9.43307e+09,-9.43307e+09,-9.43307e+09,-9.43307e+09,-9.43307e+09,-5.62955e+09,-3.62282e+09,-2.15196e+09,-1.99767e+09,-1.06339e+09,-4.69619e+09,-3.80991e+09,-2.57669e+09,-3.78394e+09,-1.23406e+09,-3.20271e+09,-3.07509e+09,-3.83395e+09,-2.38934e+09,-9.43307e+09,3.67328e+08,-3.26517e+09,-3.08675e+09,-7.94781e+09,-4.63445e+09,-4.59689e+08,-9.43307e+09,-6.45068e+09,-9.21563e+08,-5.99848e+09,-1.43245e+11,-4.48392e+09
0,-4.7409e+10,-1.07084e+10,-7.09969e+08,-1.65416e+10,-3.09515e+09,-7.09953e+08,-3.63218e+09,-1.78209e+09,679548,0,0,-2.24145e+09,2349,-3.21647e+09,0,0,-2.07567e+10,0,0,-7.09974e+08,15316,-2.89847e+09,-2.26966e+10,-7.09974e+08,0,-3.21642e+09,-1.48799e+09,0,-2.14425e+09,-2.14424e+09,15316,5390,0,-1.05814e+10,-2.12613e+09,0,-7.35508e+09,1.06895e+08,5433,-2.45016e+09,2349,0,0,0,-8.96602e+08,0,-1.07216e+09,43,0,-1.65245e+09,5390,0,-7.09974e+08,0,-1.07211e+09,-1.43629e+10,0,0,-4.99853e+09,0,0,-1.05399e+09,0,0,0,0,-3.25499e+10,-5.69212e+09,1.06913e+08,-2.71554e+10,-3.60695e+09,5390,-4.97761e+09,-3.19828e+09,-3.0695e+06,0,0,-4.48284e+08,43,-4.28853e+09,86,-7.09974e+08,-1.12331e+10,0,0,-7.09974e+08,1.81514e+07,29744,-1.23528e+10,1.81514e+07,0,-1.07216e+09,-1.07212e+09,0,-3.10838e+09,5390,1.81514e+07,0,0,0,0,0,0,0,0,0,0,0,0,0,0,0,0,0,0,0,0,0,0,0,0,0,0,0,0,0,0,0,0,0,0,0,-5.99917e+10,-1.49399e+10,-5.71592e+09,-2.17078e+10,-4.99376e+09,-7.99259e+09,-2.14429e+09,-6.35341e+09,-7.12364e+08,-4.15819e+08,-8.64102e+08,43,-8.96567e+08,-1.46688e+10,-1.05105e+10,1.81667e+07,-9.03183e+09,0,0,-2.5457e+09,37730,-3.72979e+09,-1.79194e+10,-1.4018e+09,0,-1.35613e+10,-7.53767e+09,-5.36487e+08,-1.16823e+10,-9.6491e+09,0,-2.14429e+09,0,-4.07699e+11,-2.55189e+11,-1.86579e+11,-5.44135e+10,-6.55702e+10,-6.84567e+10,-8.32448e+10,-1.70578e+10,-3.40387e+10,-3.21055e+10,-7.77692e+09,-9.27171e+08,-2.50287e+10,-7.65606e+09,-6.76476e+10,-3.631e+10,-4.85829e+10,-6.39304e+10,-1.69637e+10,-6.58226e+09,1.33011e+08,-2.51152e+10,-5.53965e+09,-2.13555e+10,-9.45926e+09,-5.54698e+10,-4.3836e+10,-3.50299e+10,-7.84601e+10,-9.6492e+09,-2.54376e+10,-1.92986e+10,0,-9.6449e+09,-9.6449e+09,-9.6449e+09,-9.6449e+09,-9.6449e+09,-9.6449e+09,-9.6449e+09,-2.83916e+09,-3.54634e+09,-3.25214e+09,-8.64102e+08,-4.51351e+08,-2.59252e+09,-3.0902e+09,-7.81581e+09,-3.70018e+09,-9.19663e+09,-6.39304e+09,-2.12236e+09,-1.12579e+09,1.51215e+07,-3.28156e+09,-9.6449e+09,-2.34491e+09,-9.45926e+08,-7.83182e+09,-5.39338e+09,-3.55664e+09,-9.6449e+09,-2.14425e+09,-2.54194e+09,-2.14428e+09,-1.37859e+11,-3.209e+09
0,-1.64245e+10,-9.80352e+09,-6.1093e+09,-6.96055e+09,0,-2.25745e+09,-2.1452e+09,-2.57244e+09,-1.07603e+09,-1.07208e+09,-1.07206e+09,0,-1.8739e+09,-6.14131e+09,2.97745e+08,-7.79895e+07,-1.60524e+09,0,0,-1.68672e+09,7096,-9.81783e+08,0,-6.96409e+08,-1.57845e+09,-6.15852e+09,-1.87e+09,-7.80513e+08,2.627e+08,-6.47085e+09,209847,-1.70936e+09,0,-1.10285e+10,-6.49543e+09,-2.92458e+09,-4.54795e+09,0,-872149,-5.50783e+08,-1.76923e+09,-9.17042e+08,0,-1.86995e+09,0,229073,-1.07216e+09,-7.79895e+07,-1.07206e+09,1.44848e+08,0,0,-1.35196e+09,0,-9.28837e+08,0,-1.08503e+10,-1.57845e+09,-4.01434e+09,0,0,-3.70553e+09,-2.45886e+09,-1.90309e+09,419694,0,-1.18399e+10,-1.08025e+10,-4.97301e+09,-6.01396e+09,0,-1.34912e+09,-1.37591e+09,-5.22458e+09,-9.13171e+08,-1.07333e+09,0,0,-3.05741e+09,-872149,-3.72974e+09,-2.90462e+09,-3.48936e+08,0,0,-2.4213e+09,0,219362,0,-1.03479e+09,-8.26174e+08,-7.97941e+08,-2.75391e+08,-1.3474e+09,-4.6183e+09,-3.75431e+09,0,-2.04713e+09,0,0,0,0,0,0,0,0,0,0,0,0,0,0,0,0,0,0,0,0,0,0,0,0,0,0,0,0,0,0,0,0,0,0,-3.33151e+10,-2.20103e+10,-1.63922e+10,-1.30045e+10,0,-1.09657e+10,-8.82874e+09,-6.99698e+09,-4.41448e+09,0,8,0,-1.13725e+10,-8.43296e+09,-3.37844e+09,-2.18467e+09,0,0,0,-6.00606e+09,3548,-1.90653e+09,0,-3.31379e+09,-7.80513e+08,-2.14432e+09,-6.16057e+09,-1.83729e+09,-1.08503e+10,-2.01993e+10,0,-3.38095e+09,0,-4.45292e+11,-2.34281e+11,-1.57943e+11,-7.68211e+10,-7.76016e+10,-6.30285e+10,-8.41014e+10,-4.0451e+10,-3.44179e+10,-1.93085e+10,-3.05386e+10,-7.81385e+09,-4.68875e+10,-3.26371e+10,-1.39588e+10,-3.43073e+10,-1.6284e+10,-1.07201e+10,-4.23245e+10,-6.06847e+09,-2.26459e+10,-2.43823e+10,-2.25594e+10,-8.07582e+10,-4.43962e+10,-1.63065e+10,-3.21768e+10,-1.73227e+10,-7.80906e+10,-8.85534e+09,-5.06066e+10,-2.66724e+10,0,-9.7002e+09,-9.7002e+09,-9.7002e+09,-9.7002e+09,-9.7002e+09,-9.7002e+09,-9.7002e+09,-5.70142e+09,-4.17386e+09,-2.14539e+09,-3.34806e+09,-7.81385e+08,-6.31911e+09,-4.82844e+09,-2.08472e+09,-4.05466e+09,-1.80933e+09,-1.07201e+09,-4.78438e+09,-1.75345e+09,-2.26459e+09,-2.81992e+09,-2.81993e+09,-9.7002e+09,-4.91598e+09,-2.94216e+09,-4.04828e+09,-2.12879e+09,-9.7002e+09,-4.17386e+09,-5.25095e+09,-3.38095e+09,-1.38207e+11,-3.25682e+09
0,-1.9018e+10,-1.88418e+10,-1.4596e+10,-8.40551e+09,-1.07003e+09,-7.2682e+09,-7.09894e+09,-3.21645e+09,-1.07217e+09,-2.43488e+09,-9.25362e+06,0,-1.95298e+09,-2.99986e+09,-2.11453e+09,0,0,0,0,-8.33956e+09,0,-9.70814e+08,-1.07194e+09,-4.94074e+08,-4.37277e+09,-3.02514e+09,-3.51726e+09,-1.34959e+09,-4.22144e+09,-3.24752e+09,-2.14215e+09,-3.97028e+09,0,-3.60888e+09,-5.63371e+09,-3.97071e+09,-4.00504e+09,-1.07003e+09,-1.07311e+09,-9.97403e+08,-1.07214e+09,0,0,-8.81038e+08,0,-74613,-1.07216e+09,-1.07253e+09,0,0,0,-1.07217e+09,-3.97011e+09,0,-1.07194e+09,-1.07194e+09,-1.73655e+09,-1.01356e+10,-1.9532e+09,-1.08139e+09,0,-1.07212e+09,-9.25362e+06,0,-1.07003e+09,0,-8.37456e+09,-9.45866e+09,-6.41755e+09,-2.14453e+09,-3.21675e+09,-5.16969e+09,-1.07224e+09,-3.21645e+09,-2.14433e+09,-8.81112e+08,-74613,0,-1.07194e+09,-1.07216e+09,0,-1.95327e+09,0,0,0,-1.3836e+10,-1.07217e+09,-2.04254e+09,-5.35972e+09,-152893,-2.04306e+09,-8.38622e+09,-1.07224e+09,-78280,-3.21665e+09,-3.21676e+09,0,-2.14431e+09,0,0,0,0,0,0,0,0,0,0,0,0,0,0,0,0,0,0,0,0,0,0,0,0,0,0,0,0,0,0,0,0,0,0,-1.8234e+10,-2.4624e+10,-2.54413e+10,-1.64978e+10,-1.08143e+09,-3.18388e+10,-7.58428e+09,-6.43288e+09,-2.14432e+09,-8.36725e+09,-1.0812e+09,0,-4.40019e+09,-2.14427e+09,-7.24916e+09,0,0,0,0,-1.92654e+10,-3.21651e+09,-8.1704e+09,0,-1.82599e+09,-2.80565e+09,-2.14389e+09,-7.93645e+09,-2.20525e+09,-1.07417e+10,-8.61486e+09,0,-7.08285e+09,0,-4.39218e+11,-2.26968e+11,-1.37691e+11,-7.19893e+10,-7.0693e+10,-3.17814e+10,-5.07346e+10,-1.7209e+10,-1.60825e+10,-3.31941e+10,-2.62074e+10,-1.83525e+10,-1.70461e+10,-2.27104e+10,-1.60227e+10,-2.83914e+10,-1.08141e+10,-2.14431e+10,-2.3568e+10,-3.14705e+10,-2.20993e+10,-1.88933e+10,-9.65234e+09,-3.86807e+10,-7.59848e+10,-2.54654e+10,-4.31016e+10,-9.94173e+09,-7.71621e+10,-6.42974e+09,-5.70739e+10,-4.6857e+10,0,-9.6414e+09,-9.6414e+09,-9.6414e+09,-9.6414e+09,-9.6414e+09,-9.6414e+09,-9.6414e+09,-3.1147e+09,-2.14433e+09,-4.48774e+09,-2.8179e+09,-1.83525e+09,-2.44713e+09,-2.99988e+09,-2.64589e+09,-3.03447e+09,-1.08141e+09,-2.14431e+09,-3.21432e+09,-7.68815e+09,-2.63879e+09,-3.1149e+09,-2.14449e+09,-4.27375e+09,-9.6414e+09,-4.09738e+09,-5.67089e+09,-1.34966e+09,-9.6414e+09,-2.15181e+09,-5.92161e+09,-6.11245e+09,-1.89933e+11,-9.79655e+08
0,-8.45659e+09,-6.2656e+09,-5.70752e+09,-2.87665e+09,-9.98513e+08,-6.37397e+09,-3.1838e+08,-2.38232e+09,-4.62321e+08,-1.69538e+08,-6.12965e+07,0,-3.41842e+09,-1.18111e+10,-2.41728e+09,0,-5.98786e+08,0,0,-3.15971e+09,0,-2.31485e+09,-9.99955e+08,-4.6956e+08,0,-7.48057e+09,-3.21876e+09,-1.25456e+06,-4.93365e+09,-1.34516e+10,0,-4.45949e+09,0,-5.45147e+09,-3.05706e+09,-5.17618e+09,-1.92316e+09,-6.79607e+08,-4.34815e+08,-4.27681e+06,-9.59965e+08,-4.54623e+08,-6.2482e+08,-5.00145e+06,0,-2.75489e+09,-5.23961e+09,-3.06069e+07,-1.20425e+07,-3.56568e+08,0,-1.20425e+07,-1.74661e+09,0,-3.18387e+07,0,-458844,0,-1.06102e+10,-1.60637e+09,-2.10481e+08,-3.2747e+09,-1.12287e+10,0,-8.98196e+08,0,-5.22221e+09,-2.72191e+09,-2.3257e+09,-2.96654e+09,-9.06512e+08,-3.32565e+09,-2.3347e+09,-5.44136e+08,-1.64997e+08,-3.45672e+08,-4.54623e+08,0,-1.3516e+08,-2.39692e+09,-8.97998e+07,-8.06233e+08,-4.81667e+08,0,0,-2.4462e+08,-5.95934e+07,-4.81216e+08,-1.20425e+07,0,0,-1.21231e+09,-3.02657e+08,-4.29342e+07,-1.00366e+09,-5.46619e+09,0,-1.94769e+09,0,0,0,0,0,0,0,0,0,0,0,0,0,0,0,0,0,0,0,0,0,0,0,0,0,0,0,0,0,0,0,0,0,0,-2.17729e+10,-1.19806e+10,-1.54109e+10,-8.24947e+09,-3.83114e+09,-7.26881e+09,-6.17732e+09,-4.56502e+09,-1.41106e+09,-1.28389e+08,-9.58979e+08,0,-8.09229e+09,-1.76776e+10,-2.12196e+09,-2.18928e+08,-8.53579e+08,0,-4.62593e+08,-5.85052e+09,0,-2.29594e+09,-2.53832e+09,-1.25456e+06,0,-1.16956e+10,-5.0364e+09,-6.4889e+08,-1.12706e+10,-2.60258e+10,0,-6.88545e+09,0,-4.50513e+11,-2.70785e+11,-1.67561e+11,-7.77223e+10,-7.23561e+10,-6.13686e+10,-5.95202e+10,-1.71944e+10,-2.77233e+10,-1.01211e+10,-1.2193e+10,-1.84877e+10,-5.35087e+10,-2.07934e+10,-1.00627e+10,-4.09003e+10,-1.68394e+10,-3.88293e+10,-3.62352e+10,-1.74209e+10,-6.69499e+09,-3.10343e+10,-1.48079e+10,-3.27795e+10,-4.63131e+10,-6.74662e+10,-5.56926e+10,-5.18149e+09,-7.79822e+10,-2.86886e+10,-5.48694e+09,-5.81801e+10,0,-9.84649e+09,-9.84649e+09,-9.84649e+09,-9.84649e+09,-9.84649e+09,-9.84649e+09,-9.84649e+09,-2.56459e+09,-3.02163e+09,-1.13896e+09,-1.37783e+09,-1.84877e+09,-6.79094e+09,-5.79186e+09,-1.47223e+09,-4.19375e+09,-1.913e+09,-3.88293e+09,-3.75121e+09,-2.84224e+09,-6.75458e+08,-3.61582e+09,-2.39979e+09,-3.32508e+09,-4.63131e+09,-9.84649e+09,-6.58568e+09,-6.08505e+08,-9.84649e+09,-8.48609e+09,-5.48694e+08,-7.30551e+09,-1.42123e+11,-4.42008e+09
0,-1.42395e+10,-6.3053e+09,2.87295e+09,-2.83671e+09,-8.91988e+08,-2.11698e+09,4.33296e+08,1.90166e+09,-5.92453e+08,1.16766e+09,5.55435e+08,4.36311e+08,2.46312e+08,-1.41315e+10,-1.09111e+09,-21116,-1.67796e+09,0,0,-1.03585e+10,-4.79055e+07,-9.50412e+08,-4.91698e+08,0,-1.00121e+09,-1.05633e+10,-3.0343e+09,-1.24282e+09,1.82672e+08,-1.42442e+10,-4.2035e+08,-3.64897e+09,0,-6.00286e+09,-6.17884e+09,-5.0225e+09,-4.61876e+08,-8.97378e+08,6.42808e+08,1.1602e+09,4.49885e+09,-9.63121e+08,2.10298e+09,9.90294e+08,0,-9.03509e+08,-3.83523e+09,2.06137e+09,-229132,-4.91698e+08,0,0,-4.79119e+09,3.50833e+08,1.05827e+09,0,0,1.07214e+09,-1.53657e+10,-9.36132e+09,-1.08509e+09,-4.84274e+09,-9.72073e+09,-2.58479e+08,3.64912e+09,0,-5.36269e+09,-3.31827e+09,-6.49866e+09,-5.95274e+09,-1.4181e+09,-5.31031e+09,1.09583e+09,1.46546e+09,-5.5707e+08,-8.52516e+08,-1.78913e+08,0,3.04966e+08,-3.22164e+09,-1.15404e+08,-7.66184e+08,-1.47511e+09,0,0,-3.29689e+09,-606623,2.4215e+08,-2.48365e+09,-2.54682e+08,-1.74183e+09,-2.45001e+09,-9.97441e+08,-3.62455e+08,-3.84402e+08,-5.30739e+09,1.06998e+09,-5.1131e+09,0,0,0,0,0,0,0,0,0,0,0,0,0,0,0,0,0,0,0,0,0,0,0,0,0,0,0,0,0,0,0,0,0,0,-2.36908e+10,-1.17314e+10,-1.89953e+10,-1.01027e+10,-3.37575e+09,-9.16482e+09,-4.82375e+09,6.75812e+08,-1.953e+09,1.70452e+09,2.92941e+08,-5.29188e+08,-4.84865e+09,-1.91467e+10,1.54282e+08,-7.66436e+08,-2.45205e+09,0,1.13777e+08,-6.43416e+09,-1.13716e+09,6.18803e+08,-9.83397e+08,-420,2.27921e+08,-1.84077e+10,-6.86796e+09,-1.47978e+09,-1.43607e+10,-2.33359e+10,1.63567e+09,-7.91001e+09,0,-4.47632e+11,-2.65714e+11,-1.67192e+11,-7.66703e+10,-7.15545e+10,-6.21884e+10,-6.03336e+10,-1.46673e+10,-2.79126e+10,-1.40993e+10,-9.22273e+09,-1.79226e+10,-5.55671e+10,-1.69708e+10,-3.12834e+09,-4.37392e+10,-6.76289e+09,-3.49972e+10,-3.13843e+10,-1.91873e+10,-1.21763e+09,-3.11002e+10,-8.00919e+09,-2.30317e+10,-4.25245e+10,-8.33651e+10,-7.74104e+10,-9.55403e+09,-7.82669e+10,-3.41232e+10,-4.50772e+09,-5.58862e+10,0,-9.76722e+09,-9.76722e+09,-9.76722e+09,-9.76722e+09,-9.76722e+09,-9.76722e+09,-9.76722e+09,-6.12549e+08,-3.20869e+09,-9.97667e+08,-7.07802e+08,-1.80154e+09,-6.0768e+09,-5.73059e+09,-2.1192e+08,-4.52721e+09,-1.28597e+09,-3.49972e+09,-3.38221e+09,-4.4068e+09,-2.05247e+08,-3.10432e+09,-1.49599e+09,-2.32864e+09,-4.38535e+09,-1.30152e+10,-9.76722e+09,-1.37242e+09,-9.76722e+09,-8.67314e+09,-2.48089e+08,-6.8599e+09,-1.40454e+11,-2.35717e+09
0,-1.31228e+10,-6.63074e+09,-3.46951e+09,-4.93818e+09,3.57275e+08,1.47292e+09,-6.16173e+09,-3.29510e+06,-1.26759e+09,-2.71317e+09,3.93268e+08,0,-3.22622e+09,-6.10966e+09,-1.97061e+09,6.25792e+08,-1.03649e+09,0,0,4.17774e+08,-1.57259e+09,-4.45816e+09,-170925,4.22943e+08,8.45886e+08,-1.52983e+09,-7.31803e+08,-7.22457e+09,-1.62425e+09,-4.27994e+09,0,-7.09363e+08,0,-7.13392e+09,-1.29345e+09,9.51959e+07,-4.20102e+09,0,-3.03496e+09,-3.24676e+09,8.33992e+08,-4.36832e+08,-163588,-1.26555e+07,0,-2.14291e+09,-8.39197e+09,5.37895e+08,-1.53893e+09,-2.74418e+06,0,0,-6.13614e+08,-2.19058e+08,-1.71854e+09,0,0,0,-2.14394e+09,-1.1363e+09,-1.41687e+10,-4.33639e+09,-3.75081e+09,0,-2.53571e+09,0,-1.56175e+10,-2.31811e+09,-8.64089e+09,-2.25666e+09,-9.92855e+08,-3.54474e+09,-7.21399e+09,-3.33452e+09,-4.53268e+08,5.43907e+07,3.93268e+08,1.75204e+08,-1.07528e+09,-9.38108e+08,-7.1977e+08,-217115,3.93268e+08,0,0,-1.37594e+09,-3.00478e+06,1.70205e+08,1.3455e+08,0,0,0,-7.75001e+07,-3.60757e+09,-3.52301e+09,-4.32371e+09,0,-1.55741e+09,0,0,0,0,0,0,0,0,0,0,0,0,0,0,0,0,0,0,0,0,0,0,0,0,0,0,0,0,0,0,0,0,0,0,-3.06501e+10,-1.12422e+10,-2.36044e+10,-8.49287e+09,-4.3186e+09,-6.76908e+09,-2.31687e+09,-4.81502e+09,-2.89553e+09,-4.66871e+09,-2.45173e+06,-1.72878e+09,-9.46075e+09,-1.39201e+10,-3.5931e+09,6.25575e+08,-4.57685e+07,0,5.5969e+08,-4.36381e+09,1.25773e+09,-3.77726e+09,6.54879e+07,4.22943e+08,4.22943e+08,-3.47404e+09,-6.14569e+09,-6.86616e+09,-8.7666e+09,-1.78339e+10,0,-3.94347e+09,0,-4.42042e+11,-2.65113e+11,-1.57199e+11,-7.72312e+10,-7.27476e+10,-6.58259e+10,-7.81576e+10,-1.70532e+10,-2.87915e+10,-1.64676e+10,-3.7374e+10,-1.64985e+10,-4.60916e+10,-1.73276e+10,-1.35917e+10,-4.1129e+10,-1.76675e+10,-4.2676e+10,-3.21652e+10,-1.32956e+10,4.47668e+09,-5.75356e+10,-1.28676e+10,-3.21882e+10,-3.99978e+10,-5.37872e+10,-3.11054e+10,-6.52602e+10,-7.78129e+10,-1.6572e+10,-3.5215e+09,-4.38592e+10,0,-9.71272e+09,-9.71272e+09,-9.71272e+09,-9.71272e+09,-9.71272e+09,-9.71272e+09,-9.71272e+09,-2.43721e+09,-3.49674e+09,-2.37953e+09,-3.98161e+09,-1.80521e+09,-6.19968e+09,-4.66874e+09,-1.93373e+09,-4.14168e+09,-1.83593e+09,-4.2676e+09,-3.04602e+09,-1.92312e+09,3.93975e+08,-6.86456e+09,-1.58347e+09,-3.13426e+09,-3.87289e+09,-6.0935e+09,-3.91967e+09,-9.71272e+09,-9.71272e+09,-4.67604e+09,-3.5215e+08,-5.4824e+09,-1.32523e+11,-3.56509e+09
0,-8.8505e+09,-6.70818e+09,-2.0615e+09,-4.70477e+09,-2.3095e+09,-3.06027e+09,2.69774e+09,-6.47983e+09,1.03777e+09,5.77158e+08,-1.52921e+09,-1.4407e+09,-3.16996e+09,-1.62338e+10,2.77095e+09,-1.49561e+08,-1.9177e+07,-52941,-1.11541e+08,-1.53449e+09,-2.841e+09,-3.46876e+09,-3.3774e+07,-4.37565e+08,1.35679e+09,-1.18093e+10,-3.55058e+09,-2.37664e+09,-2.98398e+09,-1.07868e+10,1.07213e+09,-6.56736e+09,0,-2.07646e+09,-7.13621e+09,-5.58726e+09,1.22845e+09,7.20586e+08,-1.00256e+09,2.14656e+09,-5.93066e+09,-2.40972e+09,3.27613e+09,2.82087e+09,0,-1.2962e+09,-9.60138e+09,-1.44252e+09,11843,7.93352e+08,0,1.44607e+09,4.68253e+08,2.00922e+09,2.73159e+09,9.74842e+08,1.28099e+08,1.07213e+09,-2.48759e+10,3.42816e+09,-2.64405e+09,-6.70086e+09,-1.05254e+10,0,6.24002e+09,0,-2.94077e+09,2.06413e+09,-4.24796e+09,-2.70023e+09,-2.49669e+08,-2.95884e+09,2.27689e+09,3.83819e+08,1.72721e+08,2.86115e+08,-1.51984e+09,2.59405e+06,1.30937e+09,-7.51457e+08,2.13789e+09,5.55704e+08,-9.78138e+07,0,-145712,5.38152e+09,2.80605e+09,-3.04653e+08,-1.15481e+09,-1.58043e+07,-3.44158e+08,2.89378e+08,6.01639e+08,-6.2011e+08,-1.44324e+08,2.35094e+09,-1.50911e+07,-3.75475e+09,0,0,0,0,0,0,0,0,0,0,0,0,0,0,0,0,0,0,0,0,0,0,0,0,0,0,0,0,0,0,0,0,0,0,-1.83121e+10,-8.09172e+09,-1.53683e+10,-5.08227e+09,-3.90634e+09,-8.23247e+09,-1.05806e+10,-6.59794e+09,1.5005e+09,6.03434e+09,2.21088e+09,7.68064e+08,-1.16663e+10,-1.73097e+10,-3.14868e+08,1.1814e+08,-5.76116e+09,3.16872e+08,-3.64158e+08,-6.14279e+08,9.7889e+08,-4.78194e+08,-1.2275e+09,-1.84406e+09,-5.206e+08,-1.98557e+10,-2.81685e+09,-2.15051e+09,-1.14888e+10,-3.38782e+10,-6.2393e+08,-9.65092e+09,0,-4.44579e+11,-2.72917e+11,-1.66894e+11,-7.83862e+10,-7.24414e+10,-6.29336e+10,-6.1882e+10,-1.86733e+10,-2.99048e+10,-1.26307e+10,-1.12171e+10,-1.90474e+10,-5.22922e+10,-1.73336e+10,-5.75989e+09,-4.27274e+10,-1.20276e+10,-3.73021e+10,-3.58261e+10,-2.33359e+10,-4.20035e+09,-2.84573e+10,-1.23956e+10,-3.37831e+10,-4.52828e+10,-9.22344e+10,-5.3264e+10,-4.76095e+09,-7.64136e+10,-3.28296e+10,-1.02833e+10,-5.34984e+10,0,-9.77329e+09,-9.77329e+09,-9.77329e+09,-9.77329e+09,-9.77329e+09,-9.77329e+09,-9.77329e+09,-3.72979e+09,-3.01492e+09,-7.79972e+07,-6.34004e+08,-1.97174e+09,-6.71153e+09,-6.123e+09,-2.60844e+08,-4.11661e+09,-1.64563e+09,-3.69852e+09,-2.9718e+09,-1.96349e+09,-1.2472e+08,-2.97855e+09,-1.8069e+09,-3.61661e+09,-4.37186e+09,-1.48486e+10,-5.56017e+09,-1.25523e+09,-9.77329e+09,-8.5669e+09,-9.85023e+08,-6.92517e+09,-1.43935e+11,5.25934e+09
0,-6.47281e+09,-6.49757e+09,-6.75864e+09,-9.29425e+08,-3.3435e+09,-1.04787e+10,-7.95429e+08,-1.1347e+09,-1.18397e+09,4.18035e+09,-4.86456e+08,-9.64587e+08,-5.85968e+09,-9.8465e+09,2.4231e+09,7.07903e+08,-1.65083e+09,-9660,-48331,-6.46134e+09,2.73249e+09,2.10083e+09,-1.70315e+09,-4.66873e+08,1.35252e+09,-1.70353e+10,-2.0394e+09,-1.36743e+09,-3.58815e+09,-1.83637e+10,4.63899e+08,-5.95772e+09,0,-2.15096e+09,-2.57386e+09,-4.73973e+09,2.85804e+08,1.06513e+09,-5.40976e+08,2.38694e+09,-8.19232e+08,-9.83149e+08,-1.69281e+09,4.70446e+08,1.03598e+09,-5.27215e+09,-2.11482e+09,-2.18162e+09,-2.14175e+08,1.60921e+08,0,-97451,-1.30124e+09,3.35429e+08,-8.24359e+08,-5.29722e+06,2.24435e+08,0,-2.35918e+10,8.38296e+08,2.34872e+09,-9.57406e+09,-1.48596e+10,-2.11099e+08,2.13442e+09,0,1.60733e+09,1.50433e+08,-2.77358e+09,-1.81004e+09,-2.11024e+09,-3.44995e+09,-7.72084e+09,-4.27687e+09,1.20262e+09,1.10047e+09,-8.57311e+08,2.88788e+08,1.44457e+08,-8.43005e+08,8.44671e+08,-1.0036e+09,-1.83777e+09,0,0,1.32203e+09,1.40238e+09,1.40421e+09,8.42036e+08,-2395,-5.60324e+08,-5.27205e+09,4.151e+08,2.5579e+09,-2.98711e+09,-9.91688e+09,-2.67048e+07,-3.12859e+09,0,0,0,0,0,0,0,0,0,0,0,0,0,0,0,0,0,0,0,0,0,0,0,0,0,0,0,0,0,0,0,0,0,0,-1.64021e+10,-1.53052e+10,-1.81844e+10,-5.47353e+09,-9.14425e+08,-5.53849e+09,-5.38332e+09,-6.30147e+09,-1.78562e+09,1.55669e+09,-9.6587e+08,2.25904e+09,-1.28139e+10,-1.6864e+10,-2.32612e+09,-7.27229e+08,1.55807e+09,7.23213e+08,-3.34391e+08,-9.79305e+09,2.95831e+09,-1.26368e+09,7.28996e+08,6.77996e+08,2.01342e+08,-2.7353e+10,-5.0089e+09,1.27893e+07,-8.76715e+09,-2.46209e+10,-5.79204e+08,-7.21069e+09,0,-4.52301e+11,-2.69958e+11,-1.65514e+11,-7.90669e+10,-7.37373e+10,-5.90322e+10,-6.20975e+10,-1.73991e+10,-3.03409e+10,-1.15974e+10,-4.0878e+09,-1.55966e+10,-4.87993e+10,-1.76596e+10,-1.09806e+10,-4.15432e+10,-1.01428e+10,-3.73176e+10,-3.26846e+10,-1.27218e+10,-4.37561e+09,-3.0089e+10,-1.11226e+10,-3.04046e+10,-4.33301e+10,-8.82961e+10,-5.65799e+10,-4.47083e+09,-7.38839e+10,-3.10394e+10,-6.08868e+09,-5.19953e+10,0,-9.88004e+09,-9.88004e+09,-9.88004e+09,-9.88004e+09,-9.88004e+09,-9.88004e+09,-9.88004e+09,-2.99314e+09,-3.30925e+09,-6.62344e+08,-6.23791e+08,-1.29773e+09,-7.26006e+09,-4.73279e+09,-1.22206e+09,-4.27803e+09,-1.19139e+09,-3.65944e+09,-3.66796e+09,-2.89554e+09,3.05299e+08,-2.86721e+09,-1.4075e+09,-3.00097e+09,-4.23366e+09,-1.61548e+10,-6.18459e+09,-9.18849e+07,-9.88004e+09,-9.88004e+09,-6.44179e+08,-6.96729e+09,-1.36983e+11,-6.02608e+09
0,-1.17934e+10,-3.21641e+09,0,-4.28853e+09,0,0,-1.07216e+09,-1.07212e+09,0,0,0,-1.07214e+09,0,0,0,0,0,0,0,0,0,0,0,0,0,0,0,0,-1.07212e+09,0,0,-1.07212e+09,0,-1.17936e+10,-2.14427e+09,0,-2.14426e+09,0,0,-4.28865e+09,0,0,0,0,0,0,0,-1.07216e+09,0,0,0,0,0,0,-3.21643e+09,0,-1.07212e+09,0,0,0,0,0,0,-6.43288e+09,0,0,-8.57725e+09,-1.17938e+10,-3.21647e+09,-6.43291e+09,0,0,-1.07217e+10,-3.21653e+09,0,0,0,-1.07214e+09,0,0,-1.07216e+09,0,0,0,0,0,0,0,-1.07214e+09,-1.07218e+09,0,0,-1.07216e+09,0,-1.07218e+09,0,0,-7.50515e+09,0,0,0,0,0,0,0,0,0,0,0,0,0,0,0,0,0,0,0,0,0,0,0,0,0,0,0,0,0,0,0,0,0,0,-1.92985e+10,-2.14427e+09,-2.14429e+09,-7.50497e+09,0,-4.28863e+09,0,-7.50513e+09,0,0,0,0,0,-7.5051e+09,-5.36078e+09,0,0,0,0,0,0,-2.1443e+09,0,0,0,0,-2.14433e+09,0,-6.43288e+09,0,-1.07214e+09,-5.36074e+09,0,-2.9484e+11,-1.73688e+11,-1.23297e+11,-5.1463e+10,-5.1463e+10,-4.71744e+10,-4.50298e+10,-9.64919e+09,0,0,0,-4.07416e+10,0,-5.68237e+10,-1.3938e+10,-2.14427e+10,-4.28858e+10,-2.14427e+10,-2.03708e+10,0,0,-3.7525e+10,-5.03909e+10,-1.92987e+10,-2.14431e+10,0,-3.96696e+10,0,-5.57516e+10,0,-5.68238e+10,-5.03908e+10,0,-6.43288e+09,-6.43288e+09,-6.43288e+09,-6.43288e+09,-6.43288e+09,-6.43288e+09,-6.43288e+09,-2.1443e+09,0,0,0,-4.28858e+09,0,-6.43288e+09,-2.14431e+09,-2.14427e+09,-4.28858e+09,-2.14427e+09,-2.1443e+09,0,0,-4.28857e+09,-6.43288e+09,-2.1443e+09,-2.14431e+09,0,-4.28861e+09,0,-6.43288e+09,0,-6.43288e+09,-6.43288e+09,-6.3257e+10,-2.14427e+09
0,-9.95716e+09,-5.16408e+09,-6.36068e+09,-3.73027e+09,-9.96648e+08,-3.18812e+09,-2.61037e+09,-7.51796e+09,-3.31965e+08,-1.35406e+09,-2.84986e+08,2.62845e+08,-1.14774e+09,-1.16067e+10,1.70824e+09,-5.26768e+08,-1.60874e+08,0,3.035e+08,-6.0945e+09,-6.9801e+08,-2.14521e+09,0,118619,8.01399e+08,-5.93812e+09,-3.53965e+09,-6.97569e+08,-9.08239e+09,-4.30434e+09,1.85855e+09,-1.09761e+09,0,-3.46029e+09,1.58582e+09,-5.69393e+09,-8.15144e+09,5.80459e+08,-1.59619e+08,-3.66355e+09,3.76303e+08,3.71972e+08,-1.04522e+09,4.54091e+08,0,-2.33119e+09,-5.67986e+09,-1.10406e+09,3.21016e+06,6.46853e+08,0,4.15302e+08,1.8214e+09,1.05122e+09,1.22404e+09,0,4.45979e+06,1.07003e+09,-1.12469e+10,-5.06326e+08,1.45434e+09,-3.51785e+09,-1.26511e+10,0,-9.65862e+09,0,-2.57873e+09,-3.48714e+09,-1.75402e+09,-2.92206e+09,1.51811e+08,-3.09612e+09,3.64686e+09,-1.01716e+09,0,-9.80616e+08,0,0,-4.85535e+08,-2.70508e+09,-1.16887e+09,-2.19186e+06,0,0,4822,-2.66944e+08,1.94126e+08,6.7555e+08,0,4822,-2.84182e+08,-2.1683e+08,-1.50153e+09,-2.30689e+08,-6.53741e+08,-1.776e+09,-3.66958e+08,-2.24777e+06,0,0,0,0,0,0,0,0,0,0,0,0,0,0,0,0,0,0,0,0,0,0,0,0,0,0,0,0,0,0,0,0,0,0,-1.44653e+10,-1.11032e+10,-1.34777e+10,-2.62152e+09,-2.35558e+09,-9.328e+09,-8.58388e+09,-2.78151e+09,-2.85673e+09,2.76572e+09,1.47323e+09,2.92103e+08,-9.09607e+09,-1.67971e+10,-1.66919e+09,265082,-1.38196e+09,0,-2.71402e+08,-3.34412e+09,4.63911e+08,2.09518e+09,403,-4.69436e+08,1.25446e+06,-6.21659e+09,-5.0182e+09,1.64774e+09,-1.01855e+10,-3.25276e+10,5.78728e+08,-7.66363e+09,0,-4.45037e+11,-2.70105e+11,-1.64513e+11,-7.76424e+10,-7.46847e+10,-6.15328e+10,-6.06796e+10,-1.87636e+10,-3.03447e+10,-8.52688e+09,-1.1455e+10,-1.75587e+10,-5.26487e+10,-1.70991e+10,-7.62821e+09,-3.9396e+10,-1.08602e+10,-3.79413e+10,-3.2931e+10,-2.41581e+10,-3.18416e+09,-2.71305e+10,-7.49509e+09,-3.08184e+10,-4.66936e+10,-9.16821e+10,-5.48522e+10,-4.28383e+09,-7.31914e+10,-3.20681e+10,-1.2203e+10,-7.65931e+10,0,-9.66308e+09,-9.66308e+09,-9.66308e+09,-9.66308e+09,-9.66308e+09,-9.66308e+09,-9.66308e+09,-2.97039e+09,-3.31614e+09,-9.14105e+08,-9.81178e+08,-1.70037e+09,-6.57093e+09,-5.38878e+09,-9.86209e+08,-3.99215e+09,-1.17562e+09,-3.79413e+09,-3.36052e+09,-3.20422e+09,-2.17291e+08,-2.5281e+09,-9.36886e+08,-3.12832e+09,-4.51051e+09,-1.15301e+10,-6.54179e+09,-2.11001e+08,-9.66308e+09,-8.33272e+09,-1.01327e+09,-9.66308e+09,-1.36954e+11,-6.74369e+06
