0,-5.3813e+11,-3.42201e+11,-4.93397e+10,2.8875e+10,-6.25713e+10,-1.62566e+11,-4.63686e+09,-4.3695e+11,-2.32942e+10,4.93023e+10,2.27853e+10,9.45767e+10,-1.31631e+11,-3.34102e+11,1.87533e+09,1.07186e+11,-1.22545e+11,32631,-5.85486e+09,-1.696e+11,8.69467e+06,-2.83236e+11,7.43107e+09,-1.63712e+11,3.92178e+09,-6.95242e+11,-8.41291e+10,-1.29463e+11,-1.74025e+11,-5.94655e+11,1.36644e+10,2.64259e+10,0,-2.79742e+11,2.2238e+11,-1.59481e+11,-1.61718e+10,-9.66015e+10,-4.25968e+10,-2.03689e+11,1.71464e+11,2.65089e+11,7.64949e+10,-1.26689e+11,1.26746e+11,-1.23802e+11,-4.6351e+11,2.18262e+11,1.12635e+11,1.25306e+11,4.74285e+10,1.34585e+11,3.04782e+11,1.15048e+11,9.11735e+10,1.05563e+11,1.09774e+11,9.32587e+10,-2.23283e+12,-2.08113e+11,2.97534e+11,-5.10338e+11,-3.15586e+11,9.48026e+10,-1.99154e+11,0,-1.16097e+11,-6.65687e+10,-8.05143e+10,-2.733e+11,1.12054e+11,4.70866e+09,8.33165e+10,-3.34242e+11,-7.39007e+10,-3.22431e+10,1.02645e+11,8.12222e+10,3.99453e+10,-1.10675e+10,4.13206e+10,-2.48614e+11,1.75784e+10,0,7.95132e+10,7.23428e+10,1.95504e+11,5.604e+09,-1.95298e+09,3.50089e+10,1.30376e+11,-1.11927e+11,-2.60228e+11,-4.25658e+10,1.10827e+11,-2.34168e+11,1.40973e+09,-2.30648e+11,0,0,0,0,0,0,0,0,0,0,0,0,0,0,0,0,0,0,0,0,0,0,0,0,0,0,0,0,0,0,0,0,0,0,-1.01282e+12,-4.69509e+11,-9.22875e+11,-7.55918e+10,-3.71254e+11,-4.01815e+11,-3.38628e+11,-2.50217e+11,-4.18985e+11,-9.75034e+10,-1.77672e+11,-1.36576e+09,-1.94519e+11,-8.09442e+11,1.07002e+11,-4.04665e+10,4.66035e+10,2.03487e+10,-5.93361e+10,-2.08512e+11,2.0609e+11,-2.00917e+10,3.9568e+09,1.17183e+11,1.2214e+11,-1.16869e+12,-3.40686e+11,-1.0749e+11,-3.47626e+11,-1.44382e+12,4.0167e+10,-4.87837e+11,0,-2.16439e+13,-1.31567e+13,-8.058e+12,-3.73659e+12,-3.27668e+12,-3.09279e+12,-2.99696e+12,-1.02215e+12,-1.47326e+12,-5.02817e+11,-5.11054e+11,-8.34837e+11,-2.56432e+12,-7.47608e+11,-3.50551e+11,-1.99328e+12,-5.52089e+11,-1.82411e+12,-1.70261e+12,-1.0423e+12,-1.62889e+11,-1.48661e+12,-4.95403e+11,-1.59087e+12,-2.15747e+12,-4.50912e+12,-2.68063e+12,-1.45796e+11,-3.70719e+12,-1.67237e+12,-4.15865e+11,-2.49332e+12,0,-4.61882e+11,-4.61882e+11,-4.61882e+11,-4.61882e+11,-4.61882e+11,-4.61882e+11,-4.61882e+11,-1.87209e+11,-1.49721e+11,-5.02271e+10,-7.5001e+10,-5.33658e+10,-2.97432e+11,-2.36792e+11,1.79087e+09,-2.06254e+11,-4.39218e+10,-1.75633e+11,-7.46373e+10,-1.04328e+11,3.53761e+10,-1.64168e+11,-4.32206e+10,-1.50528e+11,-1.76035e+11,-8.7178e+11,-3.55874e+11,-1.27782e+10,-4.61882e+11,-4.26059e+11,-2.65822e+10,-3.12559e+11,-6.8503e+12,-7.94182e+10
0,-5.01393e+11,-3.33402e+11,-2.23722e+11,9.88502e+10,-8.65756e+10,-2.68748e+11,2.49267e+11,-3.30956e+10,1.25647e+10,1.82506e+09,-3.95477e+10,-1.59252e+09,-2.18401e+11,-5.59568e+11,6.26385e+09,4.80449e+10,-3.66525e+10,-12675,1.07122e+10,1.69593e+10,2.07688e+11,-1.53582e+11,-1.0066e+11,-3.08747e+10,-4.70926e+10,-4.22856e+11,-2.10356e+11,-4.29165e+10,-1.39754e+11,-5.18718e+11,5.75973e+10,-2.38785e+11,0,-1.89104e+11,-2.33444e+11,-2.53109e+11,9.91781e+10,-1.13555e+10,7.02487e+10,1.84325e+11,-6.34705e+10,1.15352e+10,-5.21424e+10,2.24776e+10,417303,-1.32431e+11,-3.90197e+11,-4.0083e+10,2.37986e+10,-4.05845e+10,0,-1.52093e+10,2.20628e+10,1.29693e+11,-1.96793e+10,-4.96377e+10,9.54708e+10,3.5267e+10,-9.5248e+11,-4.45718e+10,-4.95291e+10,-5.33318e+11,-6.80749e+11,1.83236e+10,2.82783e+11,0,-9.13345e+10,-1.05724e+11,-2.61329e+11,-1.51983e+11,-1.35532e+11,-3.19605e+11,1.47854e+11,-1.76605e+11,-4.87138e+10,5.39957e+10,-4.60975e+10,-1.35712e+10,1.49373e+10,4.94463e+10,1.04275e+11,5.89763e+10,-1.59642e+11,0,-3.07505e+07,8.18826e+10,1.6666e+11,1.32214e+10,-1.13856e+11,7.81597e+10,1.48013e+09,5.79063e+10,1.21091e+11,-5.70598e+10,5.06128e+10,-1.49023e+11,8.01569e+10,-2.45449e+11,0,0,0,0,0,0,0,0,0,0,0,0,0,0,0,0,0,0,0,0,0,0,0,0,0,0,0,0,0,0,0,0,0,0,-8.36003e+11,-6.84603e+11,-7.8246e+11,-3.37336e+11,-1.45052e+11,-4.17596e+11,-2.79381e+11,-5.98151e+11,-3.88287e+11,-1.88909e+10,-1.02638e+11,1.03089e+11,-6.81315e+11,-6.61447e+11,2.45244e+10,1.06124e+11,-1.67965e+11,0,-4.14793e+10,-2.01039e+11,2.33847e+11,-2.23772e+11,-1.18765e+11,7.15203e+10,-2.8999e+10,-1.35442e+12,-6.00586e+10,-1.52774e+11,-4.16373e+11,-1.50184e+12,1.96083e+10,-2.22679e+11,0,-2.18065e+13,-1.31961e+13,-7.90169e+12,-3.57313e+12,-3.46037e+12,-2.92424e+12,-2.80736e+12,-1.00424e+12,-1.3561e+12,-4.42573e+11,-5.63305e+11,-8.31325e+11,-2.54689e+12,-7.44013e+11,-2.88861e+11,-2.088e+12,-5.52677e+11,-1.80583e+12,-1.78972e+12,-1.04621e+12,-1.84373e+11,-1.43302e+12,-5.67832e+11,-1.53501e+12,-2.18301e+12,-4.54245e+12,-2.69302e+12,-2.34681e+11,-3.74957e+12,-1.61345e+12,-3.20336e+11,-2.52988e+12,0,-4.79861e+11,-4.79861e+11,-4.79861e+11,-4.79861e+11,-4.79861e+11,-4.79861e+11,-4.79861e+11,-1.87556e+11,-1.82362e+11,-4.40872e+10,-8.21122e+10,-7.434e+10,-3.5641e+11,-2.32643e+11,-1.9388e+10,-1.85105e+11,-9.57522e+10,-1.80583e+11,-1.51335e+11,-1.12635e+11,5.53515e+10,-1.77091e+11,-1.18844e+11,-1.28164e+11,-2.22235e+11,-7.21431e+11,-2.89376e+11,-5.3696e+10,-4.79861e+11,-4.46378e+11,-1.44649e+10,-2.98112e+11,-6.65813e+12,-1.3564e+10
0,-6.90354e+11,-4.13498e+11,-1.19295e+11,-3.8655e+11,-5.44586e+10,-7.71498e+10,1.99263e+11,-2.44311e+11,-1.02455e+11,-4.08447e+10,-1.02814e+11,1.90002e+07,-1.63698e+11,-7.21488e+11,-2.43301e+11,6.11177e+10,-5.6516e+09,-10743,-686602,-4.24923e+10,4.53962e+10,-2.60351e+11,-7.10895e+10,-4.05038e+10,2.91462e+10,-4.36831e+11,-1.53939e+11,1.80388e+10,-1.86436e+11,-1.5028e+11,0,-1.28433e+11,0,-1.259e+11,-5.02803e+11,-6.31999e+11,4.21076e+10,-6.90271e+10,1.06271e+10,5.88817e+10,-1.46391e+11,8.99105e+10,7.87861e+10,4.17439e+10,-736021,-9.34071e+10,-1.03392e+11,-3.99742e+10,3.75588e+10,-9.63725e+09,0,-4.73362e+10,-2.61375e+10,1.0878e+10,-3.85887e+09,1.57853e+10,4.74271e+10,4.74285e+10,-6.86963e+11,-9.55561e+10,-1.17823e+11,-1.15022e+11,-3.0525e+11,0,9.73016e+09,0,-1.6881e+11,-2.05195e+11,-3.55584e+10,-1.36347e+11,-1.99448e+11,-1.73528e+11,-6.27647e+10,-2.73423e+11,-6.21107e+10,3.37969e+10,-3.20184e+10,2.20426e+10,7.4137e+10,-3.22473e+10,-3.1066e+10,-251834,-1.59453e+10,0,-63755,1.94396e+10,-1.5629e+10,-4.49349e+10,-1.72135e+10,-190674,-3.70583e+10,-1.96978e+11,-4.46004e+10,2.82119e+10,-1.06438e+11,-3.34952e+11,0,-1.68073e+11,0,0,0,0,0,0,0,0,0,0,0,0,0,0,0,0,0,0,0,0,0,0,0,0,0,0,0,0,0,0,0,0,0,0,-8.97534e+11,-5.16466e+11,-1.02536e+12,-4.45347e+11,-2.59401e+11,-5.48379e+11,-3.27217e+11,-3.47616e+11,8.62247e+10,2.56094e+10,2.748e+10,-5.44425e+10,-2.53194e+11,-9.15338e+11,1.28073e+11,-9.22861e+09,-1.73604e+11,0,-3.17223e+06,-1.91278e+11,-1.66761e+11,-7.14087e+10,1.92896e+10,9.08098e+10,3.37162e+10,-9.56005e+11,-2.35935e+11,-2.58038e+11,-5.40557e+11,-1.67397e+12,-9.63858e+09,-4.5536e+11,0,-2.18896e+13,-1.283e+13,-7.97261e+12,-3.81388e+12,-3.25083e+12,-3.15396e+12,-3.09707e+12,-7.85771e+11,-1.26428e+12,-4.54884e+11,-3.02746e+11,-7.29142e+11,-2.62008e+12,-9.76948e+11,-4.83978e+11,-1.88994e+12,-6.50203e+11,-1.84804e+12,-1.53688e+12,-9.46997e+11,-2.75493e+10,-1.69301e+12,-5.77182e+11,-1.49183e+12,-2.15716e+12,-4.26962e+12,-2.78442e+12,-5.06296e+10,-3.84002e+12,-1.59811e+12,-2.58884e+11,-2.63559e+12,0,-4.79146e+11,-4.79146e+11,-4.79146e+11,-4.79146e+11,-4.79146e+11,-4.79146e+11,-4.79146e+11,-1.79751e+11,-1.2558e+11,-3.78598e+10,-4.87866e+10,-7.61523e+10,-3.05624e+11,-2.74941e+11,-6.70246e+10,-1.82914e+11,-8.40323e+10,-1.84804e+11,-1.68732e+11,-1.18746e+11,-1.53665e+10,-2.07357e+11,-7.88013e+10,-1.3941e+11,-2.08393e+11,-6.5464e+11,-3.31445e+11,-3.8024e+10,-4.79146e+11,-4.06257e+11,-2.68523e+10,-3.50822e+11,-6.88897e+12,-2.50171e+11
0,-6.24382e+11,-7.64081e+10,-1.19801e+11,1.51517e+11,-1.02701e+11,-1.56701e+11,-9.62251e+10,-3.76653e+11,-1.18451e+11,-1.92228e+11,-3.35047e+10,2.18336e+11,-2.36172e+11,-5.55657e+11,8.30792e+10,4.67971e+10,2.99537e+10,0,4.57783e+10,-4.96924e+10,-6.24606e+10,-3.23392e+11,-2.08049e+11,-1.60422e+10,8.27524e+08,-5.09261e+11,-3.59509e+11,6.11637e+10,-1.83783e+11,-6.4157e+11,-1.27812e+10,3.88539e+10,0,-4.53558e+11,-2.31196e+10,-7.29481e+09,-2.11906e+11,1.06768e+11,2.20149e+11,-1.47272e+11,1.33954e+11,-2.37076e+11,-2.27405e+10,7.23745e+10,1.80273e+11,2.19737e+10,9.65053e+10,1.65762e+11,5.12314e+10,1.13558e+11,0,9.23125e+10,-5.13845e+10,-1.33295e+10,1.94816e+11,3.18721e+11,1.46447e+11,-4.7429e+10,-1.69826e+12,-1.55927e+11,1.6754e+10,-4.43345e+11,-3.05758e+11,9.48595e+10,-8.34438e+11,0,-1.27018e+11,-2.55869e+11,-4.70564e+10,-1.6202e+11,4.54622e+10,-1.19559e+10,2.59915e+10,-2.75279e+11,-1.15143e+11,7.38844e+10,3.45281e+09,1.40345e+11,1.31877e+11,4.01364e+10,-5.02331e+09,-7.36644e+10,-2.34414e+10,0,-3.83456e+10,-4.40884e+10,-6.54341e+10,1.12146e+11,4.12039e+10,2.56317e+10,4.74111e+10,-4.59442e+09,-5.84295e+10,-5.57939e+10,1.60903e+11,-1.25856e+11,-9.45186e+10,7.31349e+10,0,0,0,0,0,0,0,0,0,0,0,0,0,0,0,0,0,0,0,0,0,0,0,0,0,0,0,0,0,0,0,0,0,0,-1.06912e+12,-5.53754e+11,-1.0281e+12,1.28344e+11,-9.76453e+10,-5.86864e+11,-3.03753e+11,-3.97901e+11,-4.39743e+11,7.35877e+10,1.9369e+11,1.00743e+08,-8.15844e+10,-6.67248e+11,2.3194e+10,-5.27353e+10,1.91279e+11,2.89681e+07,5.00519e+10,-2.70529e+11,1.61046e+10,-1.55342e+11,8.45613e+10,7.62526e+10,1.3529e+11,-7.77045e+11,-3.8717e+11,-1.06383e+11,-4.93754e+11,-1.36028e+12,4.72311e+10,-2.19097e+11,0,-2.15472e+13,-1.33103e+13,-7.90709e+12,-3.59907e+12,-3.70978e+12,-3.23381e+12,-2.96058e+12,-1.02634e+12,-1.5102e+12,-4.94734e+11,-5.08699e+11,-8.39609e+11,-2.53238e+12,-7.49264e+11,-3.41567e+11,-1.94486e+12,-5.47606e+11,-1.83663e+12,-1.6574e+12,-1.003e+12,-1.58284e+11,-1.45123e+12,-4.4424e+11,-1.61295e+12,-2.12314e+12,-4.54094e+12,-2.6678e+12,-1.15026e+11,-3.64255e+12,-1.67701e+12,-4.00255e+11,-2.54949e+12,0,-4.69736e+11,-4.69736e+11,-4.69736e+11,-4.69736e+11,-4.69736e+11,-4.69736e+11,-4.69736e+11,-1.94221e+11,-2.39837e+11,-5.62231e+10,-3.20118e+10,-3.00554e+10,-2.69628e+11,-1.83553e+11,-7.45558e+09,-1.97323e+11,-3.1028e+10,-1.8366e+11,-1.48138e+11,-1.41869e+11,-2.83403e+10,-1.67037e+11,-3.99773e+10,-1.38066e+11,-1.98704e+11,-7.53009e+11,-3.60734e+11,-1.99285e+10,-4.69736e+11,-4.11047e+11,-3.65464e+10,-3.59235e+11,-6.7935e+12,2.80258e+10
0,-2.09794e+12,-1.08851e+11,-3.13514e+11,-6.0508e+11,-4.89215e+11,-3.70049e+11,-1.18564e+11,-9.48711e+10,-9.48522e+10,-3.82855e+10,-4.74331e+10,0,6308,-9.3931e+11,-3.5344e+11,0,-3.79362e+11,23381,0,-1.80001e+11,10971,-2.754e+11,-1.13809e+12,0,0,-4.74331e+10,-7.07599e+10,0,-3.07851e+11,3.05004e+09,0,4.74282e+10,0,-2.60993e+11,360,-2.371e+11,-2.75771e+11,-5.02805e+11,-1.42286e+11,-6.98141e+10,14125,10971,0,-2.29561e+10,0,-9.48383e+10,-9.48663e+10,-2.29561e+10,-3.82855e+10,0,4.74282e+10,0,0,0,-8.57141e+10,4.74282e+10,0,0,-3.79376e+11,-9.48383e+10,0,-2.84533e+11,40318,0,11670,0,-8.57186e+10,-3.44272e+11,-2.66243e+11,-1.79036e+11,-3.74936e+11,-4.25261e+11,-4.59122e+10,4.74233e+10,-9.48663e+10,-7.65709e+10,0,0,1263,-3.61114e+11,-4.59122e+10,0,0,0,0,-3.82855e+10,-4.74331e+10,-4.74431e+10,0,0,-2.29561e+10,-8.57186e+10,26595,0,2.44671e+10,-2.41775e+11,0,-9.48383e+10,0,0,0,0,0,0,0,0,0,0,0,0,0,0,0,0,0,0,0,0,0,0,0,0,0,0,0,0,0,0,0,0,0,0,-5.20773e+11,-9.31536e+11,-7.8099e+11,-3.02099e+11,-7.70522e+11,-1.18715e+12,-2.3429e+11,-9.48814e+10,-4.74331e+10,-1.00473e+11,-6.12416e+10,0,-9.48383e+10,-1.78546e+12,-9.31899e+11,-4.74236e+10,-1.89681e+11,0,0,1.36862e+11,3.31998e+11,-3.82595e+10,70143,0,-2.29561e+10,-4.74201e+11,-1.88554e+11,-9.48471e+10,-7.61355e+11,-6.73161e+10,5241,-3.79372e+11,0,-2.04139e+13,-1.21424e+13,-7.64513e+12,-3.33923e+12,-1.57868e+12,-1.59142e+12,-3.22824e+12,-5.71025e+11,-1.1857e+12,-1.35507e+12,-1.42935e+12,-4.6858e+11,-7.58706e+11,-9.95869e+11,-1.62931e+12,-2.85051e+12,-1.55733e+12,-2.65736e+12,-4.26898e+11,-7.70015e+11,-2.84613e+11,-2.30719e+12,3.31997e+11,65040,-1.13199e+12,-3.42891e+12,-1.5371e+12,-6.18408e+11,-3.31593e+12,-7.80475e+11,-2.13583e+12,-2.7978e+12,0,-4.6452e+11,-4.6452e+11,-4.6452e+11,-4.6452e+11,-4.6452e+11,-4.6452e+11,-4.6452e+11,-7.13354e+10,-1.42285e+11,-1.5704e+11,-1.56098e+11,-4.6858e+10,-9.48383e+10,-4.17662e+11,-2.98351e+11,-2.98365e+11,-2.12637e+11,-2.60993e+11,-4.74331e+10,-8.51439e+10,-4.90048e+06,-2.754e+11,-1.42253e+11,6504,-1.1779e+11,-4.41564e+11,-1.89125e+11,-7.13255e+10,-4.6452e+11,-1.08652e+11,-2.13583e+11,-3.31943e+11,-8.83124e+12,-1.41715e+11
0,-3.21128e+11,-3.22827e+11,-3.69221e+11,-2.98074e+11,-6.28577e+10,-6.34029e+11,3.89395e+10,-3.2923e+11,-1.53433e+11,1.35583e+10,-1.16029e+11,0,-1.94777e+11,-7.16463e+11,-5.03723e+11,6.11119e+09,6.41928e+09,-23381,0,-4.47115e+11,6.3692e+10,-4.99979e+11,1.67215e+10,0,0,-2.70623e+11,-1.13593e+11,-5.85924e+10,-3.68648e+11,-1.853e+11,0,-1.41902e+11,0,-2.65994e+11,-1.61697e+11,-2.17384e+11,-7.9134e+10,-9.48565e+10,-4.73923e+11,-7.8132e+10,2.97028e+10,1.56356e+09,1.15074e+06,1.54622e+10,0,3.44315e+09,-8.59696e+10,-5.53107e+10,7.37147e+10,-4.74238e+10,366523,0,-8.09259e+10,-8.04936e+09,-3.42882e+10,5201,3635,9.47217e+08,-5.55175e+11,-8.84007e+09,8.34216e+10,-1.34122e+11,-1.89691e+11,0,-4.74283e+10,0,-2.00088e+11,-1.36825e+11,-4.98451e+10,-6.53092e+10,-7.99854e+10,-3.47705e+11,4.13522e+10,2.10108e+10,-1.02666e+10,53830,1.56342e+09,0,-1.22605e+11,-9.70475e+10,-2.0457e+11,945051,1.54622e+10,0,0,-1.91527e+11,-8.58585e+10,-1.65784e+11,1.76294e+06,6869,9.47203e+08,-4.7433e+10,-6.55931e+10,-7.08579e+09,-8.50359e+10,-1.70761e+11,0,6.07341e+10,0,0,0,0,0,0,0,0,0,0,0,0,0,0,0,0,0,0,0,0,0,0,0,0,0,0,0,0,0,0,0,0,0,0,-1.91095e+12,-8.17783e+11,-7.60093e+11,-4.2204e+11,1.45895e+11,-1.11417e+11,-5.84478e+11,-6.21824e+11,-2.7636e+11,-5.82643e+10,4.39078e+10,1.40136e+06,-1.4723e+11,-7.48733e+11,-5.14553e+11,-1.42265e+11,-1.08831e+11,0,1.26825e+10,-5.67122e+11,2.88656e+10,-3.59921e+11,-3.82255e+11,-8.79422e+10,-1.55087e+11,-5.75329e+11,-1.5063e+11,-1.14172e+11,-5.8308e+11,-7.81267e+11,140765,-2.84186e+11,0,-2.127e+13,-1.25628e+13,-7.92755e+12,-3.6974e+12,-3.63762e+12,-2.17781e+12,-3.38417e+12,-1.17866e+12,-2.17898e+12,-8.92553e+11,-1.61666e+12,-1.5387e+11,-2.10918e+12,-9.40135e+11,-5.66387e+11,-2.31978e+12,-7.07874e+11,-9.48379e+11,-9.49181e+11,-6.21169e+11,-5.98589e+11,-1.80387e+12,-9.58284e+11,-1.34459e+12,-2.00128e+12,-2.89839e+12,-1.27976e+12,-6.98596e+11,-3.4909e+12,-2.61086e+11,-2.86531e+11,-2.21443e+12,0,-4.66178e+11,-4.66178e+11,-4.66178e+11,-4.66178e+11,-4.66178e+11,-4.66178e+11,-4.66178e+11,-2.079e+11,-2.69935e+11,-9.37258e+10,-1.8123e+11,-1.53868e+10,-2.57035e+11,-2.57537e+11,-1.84454e+11,-2.38222e+11,-8.72478e+10,-9.48379e+10,-1.00515e+11,-1.90786e+11,-5.9994e+10,-2.86384e+11,-1.77333e+11,-1.43254e+11,-2.15448e+11,-4.34695e+11,-1.61842e+11,-7.95025e+10,-4.66178e+11,-1.5881e+11,-2.86531e+10,-2.70876e+11,-7.65762e+12,-4.78181e+11
0,-1.1053e+12,-3.33757e+11,-4.68817e+11,2.70956e+11,4.73931e+10,-2.39874e+11,-4.5722e+11,-1.68538e+11,-1.50646e+11,3.33679e+10,-1.02466e+11,0,-3.11814e+11,-3.58237e+11,5.64276e+10,-1.13099e+11,-3.04651e+10,0,1.84425e+10,-3.58312e+10,-9.48567e+10,-4.70402e+11,3.83885e+10,4.93959e+10,3.65325e+10,-5.67198e+11,-3.26501e+11,5.841e+10,-5.45003e+11,-6.60421e+11,3.03014e+10,-1.36789e+11,0,-3.24889e+11,-1.95832e+11,2.89542e+10,-4.38599e+11,-3.84558e+10,-5.33817e+08,-4.19947e+11,-1.2329e+11,6.80485e+10,3.16555e+10,4.21064e+10,0,1.89058e+10,-3.0514e+08,1.33426e+10,4.74139e+10,4.09232e+10,0,3.13086e+10,-1.37668e+11,0,4.97509e+10,-1.82839e+10,1.72618e+10,7.98559e+10,-6.84756e+11,-6.09863e+10,2.0192e+10,4.59877e+10,-3.17294e+11,4.74689e+10,-2.84295e+11,0,-6.47689e+11,8.80319e+08,-2.01266e+10,-3.53642e+11,-2.4033e+10,-2.72145e+11,-2.59172e+11,-7.74945e+10,8.66769e+10,2.7953e+10,3.25133e+10,4.86535e+06,9.08421e+09,3.20516e+10,1.92518e+11,-4.15189e+06,-9.99875e+10,0,0,-2.70706e+11,1340,9.85284e+10,-2.07297e+11,366238,2.73375e+10,-1.52156e+11,-3.40293e+10,-1.6248e+10,-2.45396e+11,-2.41404e+11,-2.12693e+10,6.45183e+10,0,0,0,0,0,0,0,0,0,0,0,0,0,0,0,0,0,0,0,0,0,0,0,0,0,0,0,0,0,0,0,0,0,0,-1.15805e+12,-3.61951e+11,-7.85896e+11,-5.2332e+11,6.55463e+10,-1.49036e+11,-4.6669e+11,-2.3615e+11,1.54922e+11,-1.54535e+11,2.72384e+10,7.45041e+07,-1.91313e+11,-5.85411e+11,1.71749e+11,-1.13099e+11,-1.18474e+11,0,4.76015e+09,-7.01509e+10,1.15553e+09,-2.85926e+11,-1.66667e+11,-2.16734e+10,-1.76515e+10,-8.08936e+11,-6.40306e+11,1.31898e+11,-3.96046e+11,-1.22207e+12,-9.43731e+10,-3.0655e+11,0,-2.15137e+13,-1.28802e+13,-8.09314e+12,-4.05439e+12,-3.78862e+12,-3.07658e+12,-2.72185e+12,-8.82347e+11,-1.45075e+12,-5.66995e+11,-5.85605e+11,-8.85683e+11,-2.2866e+12,-8.85588e+11,1.21865e+11,-1.95465e+12,-3.11188e+11,-1.60805e+12,-1.669e+12,-7.15254e+11,-3.10516e+11,-1.20828e+12,-2.01979e+11,-1.21598e+12,-2.12188e+12,-4.19629e+12,-3.62693e+12,-3.40242e+11,-3.54581e+12,-1.91115e+12,-4.47113e+11,-3.22588e+12,0,-4.67272e+11,-4.67272e+11,-4.67272e+11,-4.67272e+11,-4.67272e+11,-4.67272e+11,-4.67272e+11,-1.48782e+11,-1.29175e+11,-6.28554e+10,-5.86206e+10,-8.85603e+10,-2.76174e+11,-1.79749e+11,5.55902e+10,-2.13343e+11,-5.19191e+10,-1.60805e+11,-1.61859e+11,-1.22961e+11,-4.04217e+10,-1.81632e+11,-6.94798e+10,-1.17099e+11,-1.9958e+11,-6.40933e+11,-4.67272e+11,-1.4599e+10,-4.67272e+11,-4.35234e+11,-4.84985e+10,-3.91481e+11,-6.6759e+12,4.75183e+09
0,-6.27143e+11,-2.81877e+11,-4.33494e+11,-3.07438e+11,-6.274e+10,-3.81273e+11,-4.90866e+10,-5.05833e+11,-8.17942e+10,2.13335e+10,-2.72302e+07,-2.43827e+10,1.05281e+10,-5.04725e+11,1.16511e+11,4.88865e+10,-1.07354e+09,-22101,1.57863e+07,2.66143e+11,-2.97111e+10,-1.74644e+11,-4.87657e+10,-37230,-2.83637e+06,-4.86236e+11,-1.03186e+11,3.05398e+10,-1.85911e+11,-9.03711e+11,0,-4.79883e+11,0,-3.56194e+11,-1.48581e+11,-1.15479e+11,-5.58827e+09,3.71779e+10,-3.47187e+10,-1.10851e+11,-5.56665e+11,4.73481e+10,6.99042e+10,-2.92943e+10,0,5.82325e+10,-1.42271e+11,2.28724e+11,-8.71547e+09,-3.05885e+10,0,4.74274e+10,-7.88504e+09,0,-5.4933e+09,-102577,-1.73767e+10,0,-6.45982e+11,-1.32176e+11,4.02682e+10,-1.5485e+11,-5.45642e+11,0,3.21342e+10,0,-4.17792e+11,-1.86887e+11,-8.25702e+10,-7.58287e+10,-1.59315e+10,-1.99629e+11,2.01724e+11,-3.40274e+11,2.1388e+10,1.01462e+10,5.14346e+09,3.80403e+10,-1.17784e+11,-1.07424e+11,7.38598e+09,-2.39548e+06,-1.19295e+11,0,-1.3169e+06,-2.8966e+09,6.15014e+10,-6.21993e+10,1.06097e+11,-2.70952e+10,-14562,-9.28842e+10,4.61902e+10,0,-1.66905e+11,-3.07176e+11,0,3.75722e+10,0,0,0,0,0,0,0,0,0,0,0,0,0,0,0,0,0,0,0,0,0,0,0,0,0,0,0,0,0,0,0,0,0,0,-1.45024e+12,-3.79997e+11,-7.76635e+11,-2.86379e+11,-8.44532e+10,-3.32705e+11,-4.26438e+11,-1.50944e+12,-1.32432e+11,5.4646e+10,-3.69077e+10,0,-3.72525e+10,-8.84337e+11,3.75997e+10,6.45196e+09,4.42015e+10,-7476,7.86066e+10,2.12794e+11,2.37102e+11,-2.14301e+11,-7.49015e+10,-1.07432e+10,599984,-7.47969e+11,-2.66287e+11,2.1695e+10,-4.74278e+11,-1.2551e+12,3.61881e+10,-4.05582e+11,0,-2.16862e+13,-1.31442e+13,-8.00014e+12,-3.63766e+12,-3.66464e+12,-2.81627e+12,-2.86127e+12,-1.82602e+12,-1.24237e+12,-4.81957e+11,-7.01611e+11,-8.1593e+11,-2.00413e+12,-1.21727e+12,-5.26458e+10,-2.08174e+12,-1.02411e+12,-1.97902e+12,-1.88063e+12,-6.81106e+11,-1.4033e+11,-1.69596e+12,-4.16098e+11,-1.42071e+12,-2.02062e+12,-3.7395e+12,-2.35818e+12,-2.60501e+11,-3.75629e+12,-1.41897e+12,-1.86408e+11,-2.5557e+12,0,-4.73823e+11,-4.73823e+11,-4.73823e+11,-4.73823e+11,-4.73823e+11,-4.73823e+11,-4.73823e+11,-4.73823e+11,-1.39657e+11,-2.90316e+10,-7.49944e+10,-8.02273e+10,-2.09041e+11,-2.86474e+11,3.37575e+10,-2.03512e+11,-1.13086e+11,-1.97902e+11,-1.79035e+11,-2.12951e+10,1.28562e+10,-2.1526e+11,-5.42086e+10,-1.42372e+11,-2.02062e+11,-5.71257e+11,-2.81366e+11,-1.67998e+10,-4.73823e+11,-4.4306e+11,-1.5022e+10,-3.61534e+11,-6.67261e+12,-4.3523e+11
0,-6.34521e+11,-1.71536e+11,-3.20207e+11,2.13118e+10,8.6838e+09,-9.57933e+10,-2.61472e+11,-1.16865e+11,-4.43638e+11,-1.88717e+11,-8.5423e+10,0,-8.49828e+10,-3.71668e+11,-5.12349e+11,-7.19439e+10,-1.88319e+10,0,-2.94732e+10,-5.50887e+11,1.32283e+11,-2.29135e+11,-92695,-4.37963e+10,-4.74285e+10,-2.58807e+11,-2.24539e+11,3.25646e+09,-1.81211e+11,-3.94942e+11,0,-8.34805e+10,0,-5.88683e+11,6.04723e+10,-3.51314e+11,-2.11031e+11,-3.71833e+10,3.78029e+10,-5.00277e+10,-8.45876e+10,-4.73278e+11,-3.1299e+10,5.28415e+07,0,-7.81304e+10,-1.35753e+11,-1.88373e+11,0,-2.98508e+10,0,-3.1307e+10,-5.24399e+10,1.89647e+10,-4.33265e+10,0,3.20838e+10,0,-1.86e+11,-1.33397e+09,-2.54427e+10,-1.64459e+10,-2.41198e+11,0,-4.74285e+10,0,-6.11629e+11,-4.38236e+10,-2.10354e+11,-3.28024e+11,-6.26139e+10,-1.37815e+11,-1.43673e+11,-5.5198e+10,-7.84239e+09,-5.04936e+10,-5.46625e+10,0,-9.91778e+10,-2.12594e+11,-7.8717e+10,754301,-7.00245e+10,0,0,4.03261e+10,1.89647e+10,-2.21929e+10,-330628,-2.55438e+10,-4.74285e+10,-1.91992e+11,4.74117e+10,-23169,-3.83477e+11,-2.34455e+11,0,-4.74286e+10,0,0,0,0,0,0,0,0,0,0,0,0,0,0,0,0,0,0,0,0,0,0,0,0,0,0,0,0,0,0,0,0,0,0,-1.57963e+12,-8.85886e+11,-5.32698e+11,-4.67668e+11,1.14618e+11,-6.81262e+11,-5.60108e+11,-4.1586e+11,-2.47179e+11,-1.54964e+11,-6.43814e+10,0,-1.63847e+11,-1.06459e+11,-9.08171e+11,4.74317e+10,-3.1377e+10,0,4.74082e+10,-1.60042e+11,-1.00029e+10,-1.91538e+11,-701266,992322,0,-2.91898e+11,-2.61011e+11,-9.65242e+10,-5.36931e+11,-9.07629e+11,-3.09902e+10,-1.97495e+11,0,-2.16596e+13,-1.27963e+13,-7.83445e+12,-3.79251e+12,-3.79687e+12,-2.89629e+12,-3.16802e+12,-1.0107e+12,-3.32266e+12,-9.33327e+11,-6.17033e+11,-8.82968e+11,-1.07205e+12,-9.26554e+11,-5.09934e+11,-1.37365e+12,-7.91514e+11,-1.45453e+12,-1.91846e+12,-4.92346e+11,-1.29922e+12,-1.00974e+12,-7.7923e+11,-1.71207e+12,-1.78816e+12,-2.72618e+12,-2.29859e+12,-1.05641e+12,-3.59869e+12,-8.27633e+11,-2.89581e+11,-1.87183e+12,0,-4.7167e+11,-4.7167e+11,-4.7167e+11,-4.7167e+11,-4.7167e+11,-4.7167e+11,-4.7167e+11,-1.68321e+11,-4.7167e+11,-1.3588e+11,-8.62349e+10,-8.82968e+10,-1.49818e+11,-1.75303e+11,-2.19754e+11,-1.39816e+11,-9.82552e+10,-1.45453e+11,-2.29246e+11,-1.21539e+11,-1.13901e+11,-1.59252e+11,-9.7404e+10,-1.78651e+11,-1.88302e+11,-3.65488e+11,-2.73806e+11,-1.17512e+11,-4.7167e+11,-2.60586e+11,-3.20571e+10,-2.28485e+11,-6.37191e+12,-2.00021e+11
0,-5.3833e+11,-1.74151e+11,-6.22019e+11,7.96806e+09,-4.24615e+10,-5.14691e+11,-1.15989e+11,-1.87473e+11,4.30077e+10,-6.38527e+11,1.08035e+11,4.7275e+10,-6.97525e+10,-1.21386e+11,-1.72088e+11,-5.52366e+10,-4.60788e+09,0,4.40519e+10,-5.89417e+11,-1.07937e+10,9.48245e+10,-1.32847e+10,-1.1895e+06,-179562,-7.39466e+10,-1.60824e+11,9.33655e+10,-4.61166e+10,-5.08663e+11,0,-2.9311e+11,0,-4.84793e+11,-9.49857e+10,-1.85091e+11,-1.33335e+11,0,-7.39297e+10,3.08397e+10,-1.47172e+11,2.96323e+10,-3.0205e+11,0,8.52225e+10,-8.05397e+08,-1.72991e+11,1.82985e+10,0,4.74238e+10,0,4.40519e+10,-2.57695e+11,1.51216e+10,-3.63042e+10,0,0,0,-5.40701e+10,-1.06183e+11,-155545,-1.81729e+11,-5.4057e+11,0,9.95251e+10,0,-3.01977e+11,-6.40298e+10,-3.26384e+11,-5.58875e+10,-6.86788e+10,-1.53651e+11,-1.49609e+11,-7.19972e+09,-7.70582e+10,-4.60577e+11,-1.98671e+10,-8.33709e+10,-1.98323e+10,-2.38354e+11,-2.23186e+11,1.43064e+10,-4.74344e+10,0,0,-5.43032e+09,1.58275e+10,-3.86781e+10,-8.00485e+10,0,0,-8.42881e+10,2.65957e+09,-9.05298e+10,-1.31047e+11,-1.65977e+11,0,-5.15281e+10,0,0,0,0,0,0,0,0,0,0,0,0,0,0,0,0,0,0,0,0,0,0,0,0,0,0,0,0,0,0,0,0,0,0,-1.15698e+12,-7.29536e+11,-6.87468e+11,-3.35809e+11,5.50361e+10,-4.17407e+11,-3.75493e+11,-1.47711e+11,-1.86672e+11,-7.01349e+11,1.33641e+10,8.99804e+09,-5.91919e+10,-2.83168e+11,-3.02577e+11,-9.24724e+10,-4.61851e+09,0,0,-5.0992e+11,-7.36903e+10,-2.25932e+10,-1.71494e+11,-2.46591e+10,3.8458e+10,-1.75503e+11,-4.58268e+11,9.76799e+10,-5.93279e+11,-1.24065e+12,-3.36912e+10,-2.92535e+11,0,-2.15758e+13,-1.31308e+13,-7.74599e+12,-3.54515e+12,-3.76767e+12,-2.6641e+12,-3.3202e+12,-6.73238e+11,-1.43437e+12,-2.65162e+12,-3.46967e+11,-9.94107e+11,-1.95502e+12,-7.90387e+11,-5.00226e+11,-1.88818e+12,-4.23903e+11,-1.41204e+12,-1.4589e+12,-1.04347e+12,-6.36019e+11,-2.18967e+12,-7.9813e+11,-1.05136e+12,-1.77028e+12,-3.50405e+12,-2.35252e+12,-2.36052e+11,-3.82087e+12,-1.48214e+12,-8.15585e+11,-2.22587e+12,0,-4.77972e+11,-4.77972e+11,-4.77972e+11,-4.77972e+11,-4.77972e+11,-4.77972e+11,-4.77972e+11,-1.16279e+11,-1.67207e+11,-4.77972e+11,-2.57842e+10,-9.35982e+10,-2.1046e+11,-1.60629e+11,-1.17978e+11,-2.02158e+11,-4.3314e+10,-1.41204e+11,-1.12005e+11,-2.40593e+11,-6.89554e+10,-2.28443e+11,-1.3287e+11,-1.07602e+11,-1.73182e+11,-3.89186e+11,-3.07513e+11,-1.35537e+10,-4.77972e+11,-3.938e+11,-8.49276e+10,-2.92535e+11,-6.62585e+12,-3.26206e+11
0,-1.30861e+12,-4.44102e+11,-1.71176e+11,-5.85527e+11,1.59686e+10,-1.02416e+11,-6.78112e+11,-3.68145e+11,-1.79528e+11,4.87624e+06,-6.26323e+10,0,-1.48482e+11,-7.10678e+10,-2.60633e+11,-6.26323e+10,-49216,0,0,-5.83954e+10,9.25703e+09,-1.97308e+11,0,0,-1.17842e+10,-1.07956e+11,5.58333e+09,-1.55801e+10,-6.17004e+10,-4.64931e+11,0,362509,0,-4.81467e+11,-9.15867e+09,-8.86079e+10,-2.5421e+11,-3.92952e+10,-2.67587e+10,-9.50803e+10,-2.79436e+10,4.85794e+06,0,-4.66885e+11,0,6.97058e+10,-1.99391e+11,-1.6288e+11,0,0,0,0,-4.7506e+10,3.19385e+10,-5.8546e+10,0,-1.1781e+10,-1.17842e+10,-1.26461e+11,-1.04916e+11,353358,-1.54739e+11,-6.86657e+10,0,-9.48474e+10,0,-1.39928e+11,-1.02642e+11,-7.11206e+10,-2.04483e+11,-2.3328e+10,-3.55036e+11,-1.20415e+11,1.71721e+10,-2.67545e+10,-1.06641e+11,0,0,-4.48286e+09,-3.34744e+10,1.01047e+11,-1.17842e+10,-2.67597e+10,0,0,-1.68778e+11,1.17796e+06,4.77479e+10,0,0,-1.1107e+06,-3.69105e+10,-7.41706e+10,-2.51246e+10,-1.61638e+11,-9.83248e+10,0,-4.1201e+10,0,0,0,0,0,0,0,0,0,0,0,0,0,0,0,0,0,0,0,0,0,0,0,0,0,0,0,0,0,0,0,0,0,0,-1.93634e+12,-9.27935e+11,-5.52174e+11,-6.61189e+11,-8.92089e+10,-4.30139e+11,-5.29239e+11,-3.95936e+11,-2.7835e+11,-8.02587e+10,-1.0978e+11,2.3163e+10,-1.7451e+11,-2.1171e+11,-2.65368e+11,6.27364e+10,3.4215e+10,0,-4.17254e+06,-2.6763e+11,-2.92544e+10,-2.95924e+11,0,-2.18043e+10,-1.1107e+06,-2.179e+11,-3.15938e+11,-1.48993e+11,-5.02246e+11,-7.72388e+11,0,-1.91553e+11,0,-2.13914e+13,-1.23448e+13,-8.45462e+12,-3.49832e+12,-3.59922e+12,-2.79398e+12,-3.07668e+12,-1.07068e+12,-1.86745e+12,-4.05362e+11,-3.97035e+12,-5.95517e+11,-1.48534e+12,-9.4827e+11,-8.93738e+11,-2.58496e+12,-9.04864e+11,-1.63956e+12,-8.11058e+11,-9.40083e+11,-6.841e+11,-1.56554e+12,-6.85411e+11,-1.24226e+12,-1.87517e+12,-3.20441e+12,-2.04088e+12,-1.5347e+12,-3.7411e+12,-1.79579e+11,-1.53815e+12,-1.58793e+12,0,-4.66885e+11,-4.66885e+11,-4.66885e+11,-4.66885e+11,-4.66885e+11,-4.66885e+11,-4.66885e+11,-1.84553e+11,-2.35208e+11,-5.92257e+10,-4.66885e+11,-5.72354e+10,-1.74311e+11,-1.46391e+11,-1.48157e+11,-2.59664e+11,-9.4929e+10,-1.63956e+11,-8.47955e+10,-1.48239e+11,-6.72158e+10,-2.06957e+11,-8.56764e+10,-1.30098e+11,-1.89874e+11,-3.69364e+11,-2.53033e+11,-1.7244e+11,-4.66885e+11,-1.58389e+11,-1.53815e+11,-1.91553e+11,-5.94838e+12,-2.74985e+11
0,-1.29009e+12,-3.82492e+11,-2.2539e+11,-5.51582e+11,-1.2656e+11,-4.74287e+10,-2.84524e+11,0,-4.74287e+10,-1.66275e+11,0,-1.16018e+11,-9.48524e+10,-2.84524e+11,-2.29107e+10,0,-3.57181e+10,0,0,-3.26236e+11,1.71745e+10,-9.17552e+10,-3.3527e+11,0,0,0,-9.48381e+10,0,-2.39718e+11,-4.62528e+11,-8.43733e+10,-4.74099e+10,0,-5.21163e+11,-9.48573e+10,-9.48522e+10,-2.42153e+11,0,-4.74237e+10,0,0,0,-1.89691e+11,0,-4.55872e+11,-9.48381e+10,-1.3057e+11,1.71745e+10,0,3060,0,0,0,-3.72342e+10,-1.17022e+11,-4.64664e+10,0,0,0,0,0,-4.74235e+10,-1.18846e+11,0,-4.74235e+10,0,-8.72439e+11,-2.8216e+11,3060,-2.31469e+11,-4.64664e+10,-6.87322e+10,-2.84505e+11,1348,0,-3.57181e+10,-2.29107e+10,-1.21327e+11,-1.17749e+11,-1.18851e+11,-2.29107e+10,0,0,0,-2.29107e+10,-3.02628e+11,-4.58215e+10,-8.43733e+10,-1.03153e+11,0,0,0,0,0,0,-1.07154e+11,0,0,0,0,0,0,0,0,0,0,0,0,0,0,0,0,0,0,0,0,0,0,0,0,0,0,0,0,0,0,0,0,0,0,0,0,-2.6457e+12,-7.09434e+11,-6.23214e+11,-1.2654e+12,-2.72154e+11,-1.56853e+11,-3.31938e+11,-9.48573e+10,0,-2.13698e+11,-4.69465e+10,0,-2.1876e+11,-3.67656e+11,-8.02046e+10,-6.50974e+10,-3.57181e+10,0,0,-4.49687e+11,6120,-1.66565e+11,-8.65132e+10,0,0,0,-1.89676e+11,-7.14362e+10,-6.10318e+11,-8.54188e+11,-4.21867e+10,-1.84449e+11,0,-2.04606e+13,-1.2143e+13,-8.089e+12,-3.4926e+12,-3.18468e+12,-3.30942e+12,-3.63635e+12,-1.32781e+12,-1.37519e+12,-1.79194e+12,-2.26575e+12,-3.84411e+12,-1.80945e+12,-2.24845e+12,-3.43832e+10,-2.69242e+12,-1.65599e+12,-1.5488e+12,-2.5047e+12,-1.30654e+10,-7.73536e+10,-1.20619e+12,-7.61321e+11,30600,-2.72818e+12,-4.74286e+11,-6.63867e+11,-1.0555e+12,-3.63986e+12,-7.11372e+11,-2.95307e+11,-1.51778e+12,0,-4.53732e+11,-4.53732e+11,-4.53732e+11,-4.53732e+11,-4.53732e+11,-4.53732e+11,-4.53732e+11,-1.42267e+11,-1.42262e+11,-2.39732e+11,-2.33561e+11,-4.53732e+11,-2.33565e+11,-3.15005e+11,-1.43235e+10,-2.75752e+11,-1.72743e+11,-1.5488e+11,-2.69279e+11,-1.09162e+11,-1.43235e+10,-1.6659e+11,-1.6659e+11,3060,-2.72818e+11,-4.74286e+10,-9.48381e+10,-1.12693e+11,-4.53732e+11,-2.25409e+11,-4.21867e+10,-1.84449e+11,-6.06294e+12,-3.23176e+11
0,-4.06768e+11,-4.48118e+11,-1.52996e+11,-2.91495e+11,-1.51624e+11,-7.33139e+10,5.80693e+10,7.25267e+10,-4.81264e+10,-1.26025e+10,-63226,0,-2.26466e+11,-4.76582e+11,7.32633e+10,2.56598e+10,-5.23561e+10,0,-8.36311e+07,-1.49922e+11,-2384,-1.3555e+11,-3.52671e+10,4.49298e+09,0,-2.01822e+11,-1.23591e+10,-2.12797e+09,-1.3961e+11,-6.85808e+11,0,-2.6926e+11,0,-3.1197e+11,8.71048e+09,-3.073e+11,-5.42366e+10,-5.33593e+10,-9.42601e+10,-4.27215e+10,-2.26544e+10,1.04966e+11,-2.11669e+10,-1.73895e+10,3.24073e+10,-4.97489e+11,-2.06646e+11,1.3556e+10,-2.73806e+10,1.89697e+10,0,0,-1.06279e+11,507841,-1.80454e+10,-2.00755e+10,1.84637e+10,0,-3.42954e+11,-5.33579e+10,-1.5524e+11,-2.64043e+11,-5.9332e+11,0,-4.41644e+10,0,-2.96554e+11,-1.53785e+11,-2.71999e+11,-1.91445e+11,-1.06693e+11,-3.86849e+11,-1.50566e+09,-1.51613e+10,-2.09343e+10,0,4.74253e+10,-1.74697e+07,2.36861e+10,-1.19004e+11,5.54414e+10,-7.83945e+09,0,0,0,-4.06728e+09,0,-1.37442e+11,4.07638e+09,-8.83939e+06,0,-7.68231e+10,-1.11152e+11,-1.98951e+09,3.80006e+10,-2.40128e+11,0,-7.40755e+10,0,0,0,0,0,0,0,0,0,0,0,0,0,0,0,0,0,0,0,0,0,0,0,0,0,0,0,0,0,0,0,0,0,0,-9.45146e+11,-6.01633e+11,-8.06189e+11,-3.3913e+11,-3.04516e+11,-3.11449e+11,6.38107e+09,1.0315e+11,-1.18281e+11,1.40869e+06,4.4546e+09,-5.26462e+09,-4.88226e+11,-1.0691e+12,-6.06961e+09,-3.21514e+10,-3.08563e+10,0,-7.1885e+10,-2.84008e+11,-132193,-1.16894e+11,-1.51748e+11,-6.58154e+10,0,-6.69637e+11,-2.62304e+11,-1.38474e+11,-3.97978e+11,-1.43056e+12,0,-3.48807e+11,0,-2.16933e+13,-1.30816e+13,-7.95491e+12,-3.73558e+12,-3.15725e+12,-2.90757e+12,-3.23259e+12,-3.81574e+11,-1.29223e+12,-5.59754e+11,-3.96385e+11,-1.03655e+12,-3.52831e+12,-8.48487e+11,-3.1757e+11,-1.81743e+12,-3.48974e+11,-1.98864e+12,-1.65556e+12,-7.59182e+11,-2.1664e+11,-1.88332e+12,-6.77449e+11,-1.46929e+12,-2.02709e+12,-3.54222e+12,-2.76764e+12,-1.08124e+11,-3.95318e+12,-1.52862e+12,-2.25047e+11,-2.76427e+12,0,-4.71681e+11,-4.71681e+11,-4.71681e+11,-4.71681e+11,-4.71681e+11,-4.71681e+11,-4.71681e+11,-2.43713e+10,-1.37461e+11,-6.18726e+10,-4.3122e+10,-1.00943e+11,-4.71681e+11,-2.71982e+11,-1.81378e+10,-1.85914e+11,-3.8729e+10,-1.98864e+11,-1.86426e+11,-1.30346e+11,-2.16639e+10,-2.29125e+11,-1.10058e+11,-1.51216e+11,-2.02709e+11,-4.83345e+11,-3.20681e+11,-4.05955e+10,-4.71681e+11,-4.47843e+11,-2.25047e+10,-3.45534e+11,-6.93284e+12,-1.63091e+11
0,-2.71922e+11,-3.37638e+11,-2.58375e+11,-2.31882e+11,-1.29391e+11,-2.68167e+11,1.04178e+11,-1.27608e+11,7.64676e+10,2.52383e+11,-8.93183e+09,4.61926e+10,-1.68075e+11,-9.24367e+11,-1.90053e+11,-6.10332e+10,-1.34994e+09,0,-1.26972e+07,-1.15857e+11,1.47975e+11,-1.88647e+11,-6.71782e+10,-7.85478e+10,-3.20534e+10,-6.97187e+11,-1.91527e+11,1.10285e+11,-2.05077e+11,-5.60527e+11,0,-4.35803e+11,0,1.83985e+11,-1.4552e+10,-1.34077e+11,8.31035e+10,-1.4133e+10,7.12293e+10,3.17462e+10,-3.38338e+11,-1.04606e+10,3.53472e+10,2.30065e+10,-1.17124e+10,-1.55867e+11,-5.93361e+11,-6.61434e+10,-260515,-6.50062e+10,0,-6.90867e+09,2.06602e+10,-4.70712e+06,-6.13544e+10,-19288,-6.50973e+06,0,-7.34682e+11,-1.17068e+11,-1.46169e+11,-2.67245e+11,-8.19586e+11,0,1.35035e+11,0,-8.41047e+10,2.35424e+10,1.43947e+10,-1.53222e+11,-7.5899e+10,-2.15902e+11,-2.16269e+11,4.7206e+09,-1.5214e+11,1.12384e+11,-1.88347e+10,7.96226e+09,1.65714e+10,-4.00787e+11,-6.87537e+10,-6.21227e+09,1.13124e+10,0,-485988,1.85381e+11,5.18014e+08,-3.29271e+10,9.48664e+10,-196485,1.64927e+06,-6.32148e+10,3.26108e+10,4.52257e+10,-1.87896e+10,-1.12131e+11,0,1.84744e+10,0,0,0,0,0,0,0,0,0,0,0,0,0,0,0,0,0,0,0,0,0,0,0,0,0,0,0,0,0,0,0,0,0,0,-9.67903e+11,-6.88986e+11,-8.65984e+11,-3.84627e+11,-6.44896e+10,-3.92381e+11,-3.01809e+11,-2.94655e+11,-7.6867e+10,1.98072e+10,-4.07875e+09,-3.10406e+09,-4.83454e+11,-1.34395e+12,-2.93117e+10,-1.2975e+10,-1.77657e+11,0,-3.62004e+10,1.79834e+11,2.79398e+11,-2.76005e+10,-2.89857e+11,-5.03245e+10,7.1807e+06,-7.0623e+11,-2.98036e+11,7.37255e+10,-4.54145e+11,-1.54633e+12,-5.03182e+10,-3.19065e+11,0,-2.15127e+13,-1.32766e+13,-8.25914e+12,-3.69979e+12,-3.52799e+12,-2.89746e+12,-2.90199e+12,-7.95613e+11,-1.47354e+12,-3.29535e+11,-2.82645e+11,-4.95441e+11,-2.45046e+12,-1.5024e+12,-3.62027e+11,-1.8201e+12,-3.49317e+11,-1.8166e+12,-1.46131e+12,-6.08308e+11,-1.518e+11,-1.73501e+12,-2.85122e+11,-1.71524e+12,-2.16087e+12,-4.27882e+12,-2.50364e+12,-7.65857e+09,-3.81962e+12,-1.39247e+12,-1.41393e+11,-2.62176e+12,0,-4.76488e+11,-4.76488e+11,-4.76488e+11,-4.76488e+11,-4.76488e+11,-4.76488e+11,-4.76488e+11,-1.55149e+11,-1.67841e+11,1.63151e+09,-3.45336e+10,-4.56103e+10,-3.24129e+11,-4.76488e+11,-7.16289e+10,-1.90032e+11,-6.34616e+10,-1.8166e+11,-1.44627e+11,-3.3829e+10,2.76087e+10,-2.04359e+11,-8.51062e+10,-1.84412e+11,-2.19292e+11,-6.48014e+11,-3.07766e+11,7.54092e+09,-4.76488e+11,-4.43104e+11,-1.91711e+10,-3.2496e+11,-7.11129e+12,-2.91179e+11
0,-7.63178e+11,-3.50209e+11,-3.78037e+11,-1.96996e+11,-9.1759e+09,-3.32347e+11,-1.05007e+11,-5.94845e+10,-1.37956e+11,-1.47722e+11,2.99814e+10,-4.00975e+06,-4.53706e+10,-1.6777e+11,-7.30453e+11,-2.55048e+10,-1.12486e+10,0,-3.4146e+06,-1.16021e+11,-3.62453e+10,-1.12854e+11,-36887,-9.00219e+09,-3.77336e+09,-8.69333e+10,-5.74859e+10,-1.85789e+09,-2.03796e+11,-4.12543e+11,-1.84303e+10,-5.2892e+10,0,-4.6245e+11,-3.25605e+11,-8.9059e+10,-9.74988e+10,-2.2976e+09,6.42022e+09,-4.71342e+10,-1.47021e+11,-4.84171e+10,-1.21563e+10,-2.61042e+06,-10385,-4.38759e+10,-5.59881e+10,-3.5271e+11,-3.02872e+09,-3.02865e+09,0,0,-8.39543e+09,-10385,-4.37508e+10,-11110,-7.60571e+06,0,-1.113e+11,-7.88737e+10,-5.13838e+10,-1.79634e+11,-1.9273e+11,-7.97294e+07,-1.35241e+11,0,-3.13286e+11,-3.36278e+11,-2.03829e+11,-1.0601e+11,5.03941e+10,-9.26916e+10,-2.1924e+11,-2.9326e+10,-1.33694e+11,-8.25378e+10,8.64095e+10,-2.14212e+09,4.93219e+10,-5.54076e+10,-4.05112e+11,-3.34915e+10,-5.42711e+06,0,0,1.97794e+09,-1.50918e+10,-2.06443e+10,-1.27993e+10,-2.61542e+06,4.65863e+09,-1.16489e+11,-1.97089e+09,-1.87079e+08,-1.52792e+11,4.61924e+10,0,-1.23971e+11,0,0,0,0,0,0,0,0,0,0,0,0,0,0,0,0,0,0,0,0,0,0,0,0,0,0,0,0,0,0,0,0,0,0,-1.44335e+12,-5.77687e+11,-7.76493e+11,-2.59213e+11,1.33602e+11,-5.00351e+11,-3.93187e+11,-4.18303e+11,-1.32032e+11,-1.71845e+11,-4.97686e+09,-7.12806e+10,-1.03799e+11,-4.78531e+11,-1.31766e+12,-3.99085e+10,3.08997e+10,0,2.53595e+10,1.06779e+11,6.57808e+10,-2.31169e+11,-6.76788e+10,-4.53522e+06,1.72136e+10,-2.62313e+11,-2.43692e+11,-5.30628e+10,-6.32019e+11,-8.33573e+11,-2.25252e+09,-3.83684e+11,0,-2.18847e+13,-1.25116e+13,-8.01317e+12,-3.84106e+12,-3.95178e+12,-2.86028e+12,-3.10626e+12,-8.48614e+11,-1.95347e+12,-1.1391e+12,-1.06704e+12,-7.39773e+11,-1.57079e+12,-1.10111e+12,-1.91813e+12,-2.04404e+12,-7.88188e+11,-1.64423e+12,-1.14539e+12,-5.51252e+11,1.41606e+11,-1.76686e+12,-9.62911e+11,-1.38836e+12,-1.99191e+12,-3.35262e+12,-2.10069e+12,-5.15998e+11,-3.55583e+12,-8.06262e+11,-1.12959e+12,-2.59346e+12,0,-4.72407e+11,-4.72407e+11,-4.72407e+11,-4.72407e+11,-4.72407e+11,-4.72407e+11,-4.72407e+11,-1.50275e+11,-2.49225e+11,-1.55336e+11,-9.9973e+10,-8.13199e+10,-1.71451e+11,-1.85881e+11,-4.72407e+11,-2.11732e+11,-7.6833e+10,-1.64423e+11,-1.2932e+11,-5.66911e+10,1.5605e+10,-2.22833e+11,-1.33236e+11,-1.39738e+11,-1.97381e+11,-3.92966e+11,-2.48271e+11,-6.2249e+10,-4.72407e+11,-2.19892e+11,-1.15036e+11,-3.30796e+11,-6.68308e+12,-2.9693e+11
0,-1.47721e+12,-1.89794e+11,-2.62664e+11,-4.74796e+11,5.57642e+10,-1.02038e+11,-3.31937e+11,-1.02477e+10,-4.44088e+10,-9.4832e+10,-5.10969e+10,0,-1.42256e+11,8.33158e+09,2.4051e+10,0,0,0,0,-1.2288e+11,0,-1.42271e+11,0,-4.74278e+10,0,-2.47661e+11,-1.9334e+11,-8.2399e+10,-2.58353e+11,-3.6309e+11,0,-9.48566e+10,0,-4.34713e+11,-1.54619e+11,-1.25873e+11,-4.17598e+11,58020,-7.62679e+10,-1.42243e+11,1.8588e+10,0,0,0,0,-1.55826e+10,-3.86602e+10,-2.57534e+10,-4.61739e+11,-2.57534e+10,0,-4.74278e+10,0,0,29010,0,-5.08714e+10,0,-9.50755e+10,-4.74238e+10,-1.52114e+11,0,-1.10416e+11,0,-401571,0,-5.34788e+11,-1.50638e+11,-1.03775e+11,-2.35597e+11,-6.29369e+10,-9.82046e+09,0,-2.57534e+10,-56616,-4.74239e+10,0,0,-1.55826e+10,58020,0,0,0,0,-5.45336e+09,-5.45333e+09,0,0,-4.74278e+10,0,0,-5.45333e+09,0,-458187,-1.08756e+11,-9.82544e+10,0,-5.72483e+10,0,0,0,0,0,0,0,0,0,0,0,0,0,0,0,0,0,0,0,0,0,0,0,0,0,0,0,0,0,0,0,0,0,0,-2.3792e+12,-8.21396e+11,-5.54146e+11,-9.74139e+11,-1.49461e+11,-2.44322e+11,-6.27246e+11,-1.55826e+10,-2.93667e+11,-9.48477e+10,29010,0,-1.68011e+11,1.85883e+10,4.01818e+10,-1.1391e+11,-6.84638e+10,0,0,-1.75761e+11,-2.51507e+10,-2.526e+11,0,-1.55826e+10,0,-2.84546e+11,-3.42958e+11,0,-4.92831e+11,-6.51972e+11,0,-4.74244e+10,0,-2.124e+13,-1.21712e+13,-8.15948e+12,-3.73109e+12,-3.53728e+12,-3.26146e+12,-3.51596e+12,-1.92314e+12,-2.11285e+12,-2.55737e+12,-1.66178e+12,-9.17546e+11,-1.8195e+12,-1.34192e+12,-9.91608e+11,-4.04174e+12,-1.3221e+12,0,-1.55912e+12,-4.76225e+11,-2.26356e+11,-1.1828e+12,-9.56218e+11,-1.96859e+12,-2.32029e+12,-2.87634e+12,-1.34973e+12,-1.2189e+12,-3.75745e+12,-1.0188e+12,-5.1097e+11,-1.21684e+12,0,-4.61739e+11,-4.61739e+11,-4.61739e+11,-4.61739e+11,-4.61739e+11,-4.61739e+11,-4.61739e+11,-1.95613e+11,-2.43234e+11,-2.79448e+11,-1.71287e+11,-9.17546e+10,-2.16093e+11,-1.33508e+11,-9.53128e+10,-4.61739e+11,-1.41632e+11,0,-1.82301e+11,-7.80319e+10,-2.51507e+10,-1.57767e+11,-1.25456e+11,-2.08247e+11,-2.32029e+11,-3.50907e+11,-1.93345e+11,-1.45341e+11,-4.61739e+11,-2.24253e+11,-5.1097e+10,-1.52105e+11,-5.08664e+12,-1.73482e+11
0,-9.43605e+11,-2.24573e+11,-1.73851e+11,-3.95249e+11,9.50712e+10,-2.05585e+11,-1.39453e+11,-2.01506e+11,3.49631e+10,3.30848e+10,-6.00395e+10,4.48749e+09,-9.03665e+10,-5.25669e+11,-2.08943e+11,-2.36549e+10,-3.7785e+11,0,0,1.84305e+11,8.97637e+09,-2.2962e+11,-3.6153e+11,1.81507e+10,0,-9.48487e+10,7.72225e+10,1.4431e+10,-1.74153e+11,-4.12881e+11,-332327,-8.91401e+10,0,-5.63733e+11,-7.54301e+10,-8.15589e+09,-3.9349e+11,2.37678e+10,-4.22482e+10,-5.99083e+10,-2.69789e+10,3.51204e+10,-1.63553e+10,0,0,-4.74282e+10,-1.37741e+11,-4.08163e+10,3.39318e+10,-4.91912e+11,0,4.33726e+10,3.74998e+10,-4.74284e+10,4.48813e+09,-1.18676e+06,-1.42252e+11,0,-1.45144e+11,-1.59096e+10,3.28341e+10,-1.04566e+11,-8.5831e+10,0,-8.8931e+10,0,-9.25468e+11,-2.38889e+11,-3.08694e+10,-4.72134e+11,-7.42098e+10,-1.55928e+10,-6.79636e+11,-5.77333e+09,-5.51249e+10,-3.11526e+08,-3.05847e+10,-8806,-660906,-1.94229e+11,-7.25445e+10,0,-4.99144e+11,0,0,1.98606e+10,-686088,-4.25266e+10,-7.51144e+11,-8806,0,-2.98827e+11,-8.38423e+10,2.94222e+10,-2.42528e+11,-3.58971e+11,-4.58852e+06,-1.23983e+11,0,0,0,0,0,0,0,0,0,0,0,0,0,0,0,0,0,0,0,0,0,0,0,0,0,0,0,0,0,0,0,0,0,0,-1.58507e+12,-3.51482e+11,-6.34194e+11,-6.18118e+11,-2.02407e+11,-3.95494e+11,-2.25655e+10,-7.82752e+11,-6.08618e+10,-4.29479e+09,6.46726e+10,-144820,-1.54492e+11,-8.35704e+11,-4.4862e+11,-5.32878e+09,-5.46826e+11,0,93261,-6.9198e+10,-6.21129e+10,-2.12066e+11,-4.72996e+11,-7.10619e+10,0,-3.87947e+11,-3.26322e+11,-8.97452e+10,-6.33934e+11,-1.0197e+12,2.37678e+10,-1.68308e+11,0,-2.12225e+13,-1.30767e+13,-8.4501e+12,-3.5356e+12,-3.59838e+12,-3.09724e+12,-3.73082e+12,-7.03991e+11,-1.45419e+12,-1.35015e+11,2.25511e+11,-4.33976e+11,-1.95123e+12,-1.18906e+12,-9.10014e+11,-1.05424e+12,-2.77947e+12,-2.12162e+12,-9.29334e+11,-1.16924e+12,1.28445e+11,-1.49105e+12,-8.59902e+11,-1.35223e+12,-1.58255e+12,-3.13742e+12,-2.07235e+12,-5.30966e+11,-3.54001e+12,-1.7738e+12,-4.60365e+11,-2.05661e+12,0,-4.6952e+11,-4.6952e+11,-4.6952e+11,-4.6952e+11,-4.6952e+11,-4.6952e+11,-4.6952e+11,-1.721e+11,-1.5001e+11,-1.22892e+10,1.9956e+10,-4.29489e+10,-2.24351e+11,-2.8824e+11,-1.68094e+11,-1.0493e+11,-4.6952e+11,-2.12162e+11,-1.08743e+11,-9.96775e+10,2.78799e+09,-1.97078e+11,-3.16125e+11,-1.54739e+11,-1.58255e+11,-4.06419e+11,-2.4212e+11,-5.44024e+10,-4.6952e+11,-3.65119e+11,-4.36602e+10,-2.5744e+11,-6.50355e+12,-1.02497e+11
0,-1.89715e+11,-1.89724e+11,-9.48572e+10,-1.423e+11,0,-3.79439e+11,0,-1.42286e+11,0,0,-4.74333e+10,0,0,-4.74333e+10,0,0,0,0,0,-9.48666e+10,-1.423e+11,0,-9.48618e+10,0,0,0,0,0,-1.42286e+11,-2.84572e+11,0,-9.48572e+10,0,-9.48572e+10,-4.74285e+10,0,0,-4.74287e+10,-1.42291e+11,0,-4.74285e+10,0,0,0,0,0,-4.74333e+10,0,0,0,-1.42291e+11,0,-9.48666e+10,0,0,-4.74287e+10,0,0,0,0,0,0,0,0,0,0,-1.89724e+11,-4.74285e+10,-9.48572e+10,-4.74333e+10,-4.74287e+10,-2.84581e+11,0,-9.48575e+10,0,0,0,0,0,0,0,0,0,0,0,-9.48666e+10,0,-1.42286e+11,-4.74333e+10,0,0,0,0,0,-1.42286e+11,-1.89714e+11,0,0,0,0,0,0,0,0,0,0,0,0,0,0,0,0,0,0,0,0,0,0,0,0,0,0,0,0,0,0,0,0,0,0,0,0,-9.96034e+11,-1.423e+11,-1.423e+11,-4.74305e+11,0,-9.48666e+10,0,-2.37143e+11,0,0,0,-9.48666e+10,0,-4.74333e+10,0,0,0,0,0,-8.53734e+11,-7.58877e+11,-5.21715e+11,-4.74333e+10,0,0,0,0,0,-1.89724e+11,-4.74286e+11,0,0,0,-6.4505e+12,-3.84184e+12,-2.5138e+12,-1.04346e+12,-1.04347e+12,-2.37148e+11,-1.42291e+12,-4.26857e+11,0,0,-4.269e+11,-3.79467e+11,-4.74333e+11,-3.32033e+11,0,0,0,-1.28061e+12,0,-2.84572e+11,-5.21729e+11,-2.84571e+11,-9.01167e+11,0,-1.42291e+12,0,0,0,-9.4861e+11,0,0,-8.53715e+11,0,-1.42291e+11,-1.42291e+11,-1.42291e+11,-1.42291e+11,-1.42291e+11,-1.42291e+11,-1.42291e+11,-9.48572e+10,0,0,-4.74333e+10,-4.74333e+10,-4.74333e+10,-4.74333e+10,0,0,0,-1.42291e+11,0,-1.42291e+11,-1.42291e+11,-9.48572e+10,-1.42291e+11,0,-1.42291e+11,0,0,0,-1.42291e+11,-9.48572e+10,0,-9.48572e+10,-2.84581e+12,-4.74333e+10
0,-5.79712e+11,-4.37124e+11,-3.11873e+10,-2.33796e+11,0,0,-1.40994e+11,-8.10404e+10,-9.35623e+10,0,0,-2.96658e+10,-253760,0,-2.18574e+11,-3.48924e+10,-4.05202e+10,0,-7.67956e+10,-1.02809e+11,-1.54193e+11,-4.74318e+10,0,-5.9722e+10,0,-3.48924e+10,-4.0618e+10,0,-1.08765e+11,-4.89179e+08,-4.74318e+10,-1.87202e+11,0,-4.99246e+11,-1.64898e+11,-9.48574e+10,-2.61815e+11,0,0,-7.86191e+10,-1.74077e+11,-3.11873e+10,-3.11873e+10,0,0,0,-4.05202e+10,-4.56082e+10,-1.22902e+10,-4.89056e+08,0,-4.63294e+11,-2.54278e+11,0,0,-3.48924e+10,0,16239,-1.22902e+10,0,0,-4.257e+09,-4.74228e+10,0,-6.52409e+10,0,-6.97808e+11,-2.67949e+11,-9.48572e+10,-2.48416e+11,-6.23747e+10,-2.31283e+11,-1.42297e+11,-2.33509e+11,16239,-4.56082e+10,-2.96658e+10,0,0,-9.12165e+10,-2.19104e+11,-123169,-20267,0,-4.74286e+10,-2.89683e+11,-5.93317e+10,0,-1.16968e+11,-3.48924e+10,16239,97434,-4.74286e+10,0,-9.48604e+10,-125255,0,-1.40466e+11,0,0,0,0,0,0,0,0,0,0,0,0,0,0,0,0,0,0,0,0,0,0,0,0,0,0,0,0,0,0,0,0,0,0,-1.72073e+12,-5.92205e+11,-2.63172e+11,-5.00212e+11,-7.8616e+10,-2.8546e+11,-1.72178e+11,-4.35573e+11,-1.25553e+11,-3.11873e+10,-2.96658e+10,0,-2.96661e+10,-2.28415e+11,-8.80936e+11,-3.0155e+10,-4.71827e+10,0,-6.97849e+10,-7.72394e+11,48717,-5.68624e+10,0,-4.56082e+10,0,-2.24227e+11,-1.82911e+11,-125255,-5.4025e+11,-5.85648e+09,0,-2.98048e+11,0,-2.11527e+13,-1.24366e+13,-8.7362e+12,-3.67516e+12,-3.56536e+12,-3.18961e+12,-3.87795e+12,-2.14719e+12,-2.50321e+12,-1.65289e+12,-7.55506e+11,-4.05193e+11,-1.05804e+12,-1.01935e+12,-9.24858e+11,-1.55732e+12,-7.93727e+11,-1.82811e+12,-3.04679e+12,-1.24398e+12,-1.03175e+12,-9.37235e+11,-1.05883e+12,-2.14598e+12,-1.64349e+12,-1.62194e+12,-2.21052e+12,-1.19938e+06,-3.88481e+12,-2.674e+11,-1.01017e+12,-2.28952e+12,0,-4.63294e+11,-4.63294e+11,-4.63294e+11,-4.63294e+11,-4.63294e+11,-4.63294e+11,-4.63294e+11,-3.07139e+11,-2.75352e+11,-1.76087e+11,-8.14837e+10,-4.34859e+10,-1.08771e+11,-1.3795e+11,-2.28908e+11,-1.63466e+11,-8.8192e+10,-1.82811e+11,-4.63294e+11,-2.66314e+11,-1.24528e+11,-1.04153e+11,-1.51336e+11,-2.2862e+11,-1.64349e+11,-1.89335e+11,-2.48148e+11,-132464,-4.63294e+11,-3.21169e+10,-1.0576e+11,-2.98048e+11,-5.82229e+12,-2.89116e+11
0,-7.72987e+11,-2.00094e+11,-3.15568e+11,-3.83841e+11,-9.83301e+10,-4.58565e+11,1.45003e+10,-5.96184e+10,6.71777e+10,6.00655e+10,-5.20582e+09,1.47883e+11,-1.32561e+11,-5.64795e+11,3.63615e+10,-7.35191e+10,-5.05906e+10,0,-463584,-6.21827e+11,2.95797e+11,4.73726e+10,-7.10763e+09,1.39964e+10,-8.57808e+10,-7.26403e+11,-2.57139e+11,7.82883e+10,-2.09094e+11,-6.08293e+11,0,-1.54465e+11,0,-5.81176e+11,-1.25135e+11,-5.03796e+10,-2.9592e+11,0,-8.14534e+10,9.46788e+10,-1.37641e+09,-4.64923e+10,-1.42267e+10,-5.41104e+09,0,-9.60749e+10,-1.26964e+11,-3.65395e+10,-137354,6.94937e+10,4.7433e+10,7.75361e+10,-3.43271e+11,8.78256e+10,1.23523e+11,-1.88864e+10,-4.52219e+06,-3262,-7.38559e+11,-2.27166e+11,6.48709e+10,-8.66369e+10,-1.40483e+11,0,7.19102e+09,0,-3.25527e+11,-2.15264e+11,-1.02699e+11,-3.96924e+11,2.71586e+10,-2.18538e+11,-2.54669e+10,4.22783e+10,-8.18793e+10,-1.00185e+11,-2.57214e+10,-1.27674e+10,5.43975e+10,-1.76092e+11,6.72508e+10,-1.79564e+10,-1.88011e+06,0,-1.27674e+10,-5.94689e+11,-1.09274e+11,-1.65385e+10,-1.73919e+11,-1.2411e+07,-1.332e+11,-3.13765e+11,-1.38159e+10,4.74224e+10,-9.42773e+10,-1.17186e+11,0,-2.16459e+11,0,0,0,0,0,0,0,0,0,0,0,0,0,0,0,0,0,0,0,0,0,0,0,0,0,0,0,0,0,0,0,0,0,0,-8.09883e+11,-5.98648e+11,-9.06827e+11,-4.85935e+11,-1.48694e+11,-3.06415e+11,-3.68887e+11,-9.76066e+10,2.52415e+09,9.28719e+10,-1.0566e+11,6.63528e+10,-1.49717e+11,-8.8335e+11,1.04222e+11,-5.75251e+10,5.20333e+08,-3.56679e+07,-8.15662e+10,-1.03003e+12,-1.09679e+11,4.07682e+10,-7.01246e+10,-3.37148e+10,-4.30276e+10,-9.89053e+11,-3.39205e+11,-2.68725e+10,-4.75795e+11,-8.83161e+11,-1.63396e+09,-2.86613e+11,0,-2.17294e+13,-1.30903e+13,-8.06067e+12,-3.6188e+12,-3.55458e+12,-2.71441e+12,-3.02816e+12,-9.36439e+11,-1.32382e+12,-4.44978e+11,-2.22942e+11,-6.38742e+11,-2.38406e+12,-8.35137e+11,-4.75129e+11,-1.65011e+12,-2.31656e+11,-1.22899e+12,-1.15862e+12,-2.12823e+12,-5.96213e+11,-1.89033e+12,-4.97762e+11,-1.6489e+12,-1.90141e+12,-3.92492e+12,-2.99451e+12,5.7291e+10,-3.85225e+12,-8.70256e+11,-4.36607e+11,-2.51323e+12,0,-4.71805e+11,-4.71805e+11,-4.71805e+11,-4.71805e+11,-4.71805e+11,-4.71805e+11,-4.71805e+11,-1.05276e+11,-1.38318e+11,-4.06452e+10,-3.6497e+10,-4.37273e+10,-2.70802e+11,-2.58634e+11,-3.03834e+10,-1.79911e+11,-2.291e+10,-1.18159e+11,-1.85482e+11,-4.71805e+11,-4.31543e+10,-1.6952e+11,-9.5975e+10,-1.66864e+11,-2.16601e+11,-6.6927e+11,-3.83184e+11,2.21e+10,-4.71805e+11,-2.61938e+11,-4.38241e+10,-3.15466e+11,-6.76969e+12,-1.43627e+11
0,-7.55249e+11,-5.97702e+11,-3.86556e+11,-3.86562e+11,-4.01238e+10,-2.7514e+11,-9.48565e+10,3.53114e+10,-4.74283e+10,-9.4995e+10,-8.58595e+09,-1.75483e+11,-7.72707e+10,-3.46293e+11,-2.33846e+10,-2.35081e+10,-2.91056e+10,0,-2.35081e+10,-6.51558e+11,-4.08757e+11,-8.77686e+10,0,0,0,-2.93211e+10,-4.74284e+10,0,-1.53874e+11,-5.69584e+11,0,-2.6609e+11,0,-4.8595e+11,-1.25962e+11,-1.32583e+11,-7.62612e+10,-4.74283e+10,3.42236e+10,-4.74282e+10,0,-7123,-5.98234e+10,7.15358e+10,-8.58874e+09,-1.38473e+08,-9.12467e+10,-2.37488e+10,0,-2.7549e+10,0,0,-4.98587e+11,-4.32058e+11,-5.21186e+10,0,0,0,0,-4.74282e+10,0,-1.30131e+11,-2.89717e+11,0,-5.14848e+10,0,-2.06747e+11,-5.28333e+10,-3.12548e+10,-1.89765e+11,-7.11121e+09,-1.67179e+11,0,-1.29105e+07,0,0,-5.38925e+10,-3.62039e+10,-2184,-1.32423e+10,-3.27343e+06,0,-1.81003e+10,0,4.74251e+10,-8.18716e+10,-2.78699e+11,-1.18782e+11,-742170,0,0,-2.68057e+07,0,0,-6.48215e+10,-2.61797e+11,0,-20459,0,0,0,0,0,0,0,0,0,0,0,0,0,0,0,0,0,0,0,0,0,0,0,0,0,0,0,0,0,0,0,0,0,0,-1.50637e+12,-4.71105e+11,-7.45037e+11,-4.14771e+11,-5.37385e+10,-4.23904e+11,-2.8457e+11,-2.22372e+11,-9.48568e+10,-1.05998e+11,-7.09966e+10,-4.74805e+10,-2.77121e+11,-4.18882e+11,-4.84118e+11,5.76636e+08,-3.05392e+10,-2.14904e+07,-2271,-1.11844e+12,-5.43303e+11,-4.13835e+10,-9.51979e+06,0,-4.74284e+10,-2.67123e+11,-9.48566e+10,-1.7684e+11,-6.65938e+11,-7.72072e+11,-2271,-3.37399e+11,0,-2.12999e+13,-1.26383e+13,-7.99348e+12,-3.66974e+12,-3.56716e+12,-2.88356e+12,-3.98046e+12,-9.50628e+11,-1.59557e+12,-1.15086e+12,-3.60316e+11,-1.11063e+12,-1.88901e+12,-7.52286e+11,-1.72612e+11,-1.18622e+12,-1.35931e+12,-1.83636e+12,-9.31663e+11,-9.51293e+11,-2.98164e+12,-1.5928e+12,-1.39452e+11,-1.16907e+12,-2.21047e+12,-2.08428e+12,-1.23314e+12,-5.58904e+11,-3.62969e+12,-1.23252e+12,-7.01699e+11,-2.93373e+12,0,-4.64445e+11,-4.64445e+11,-4.64445e+11,-4.64445e+11,-4.64445e+11,-4.64445e+11,-4.64445e+11,-1.1377e+11,-1.73785e+11,-1.41167e+11,-4.69683e+10,-1.37839e+11,-2.24354e+11,-1.62195e+11,-7.03866e+10,-1.20915e+11,-1.4646e+11,-1.83638e+11,-1.18951e+11,-3.30175e+11,-4.64445e+11,-1.89285e+11,-1.74328e+10,-1.16907e+11,-2.25789e+11,-2.38075e+11,-1.42285e+11,-7.35744e+10,-4.64445e+11,-3.12569e+11,-7.01699e+10,-3.5887e+11,-6.96208e+12,-2.20459e+11
0,-9.36346e+11,2.48844e+11,-2.26553e+11,-4.12606e+11,1.26428e+11,-4.17277e+11,-3.05461e+11,-6.80191e+11,1.21675e+11,-1.79518e+11,-1.1658e+10,2.95863e+10,-2.75103e+11,-2.18367e+11,-1.12254e+11,-3.35802e+10,5.30254e+10,592338,0,-2.45803e+11,-2.71233e+11,-3.16153e+11,2.00174e+11,5.27978e+10,0,-5.25164e+10,-2.05096e+10,-1.18058e+11,-3.79171e+11,-8.43897e+11,3.69763e+10,-2.01907e+11,0,-1.79964e+11,-2.91885e+10,3.37662e+10,-1.46572e+11,-4.74142e+10,-1.17099e+11,-1.35067e+11,-5.33388e+10,6.62284e+10,-3.03162e+10,-8.2637e+10,4.22387e+10,-1.32033e+11,-1.84819e+11,-3.21267e+10,-65650,-5.18969e+10,0,0,-2.37515e+11,-6.41597e+10,-4.71907e+11,4.22096e+10,4.22099e+07,4.74331e+10,-3.03799e+11,-1.66099e+11,2.50739e+10,-2.47451e+11,-1.44742e+11,9.48219e+10,-5.56107e+10,0,-4.88565e+11,2.07763e+11,-9.75077e+10,-3.27147e+11,-1.40461e+11,-1.99923e+11,-5.86224e+11,-3.40384e+11,5.10081e+10,6.9203e+10,-3.29957e+09,4.15508e+10,1.00446e+10,-7.75614e+10,3.03558e+09,-4.7414e+10,-2.97179e+09,0,0,3.21371e+09,-1.07764e+08,-1.04022e+11,1.96453e+11,-1.48941e+06,0,-4.55956e+10,-4.91835e+10,2.51575e+10,3.93415e+10,-1.25785e+11,5.40293e+06,4.60959e+10,0,0,0,0,0,0,0,0,0,0,0,0,0,0,0,0,0,0,0,0,0,0,0,0,0,0,0,0,0,0,0,0,0,0,-1.5561e+12,-4.7811e+11,-7.43008e+11,-2.96537e+11,-5.17622e+10,-3.02241e+11,-1.72072e+11,-6.45649e+11,-1.64319e+11,4.99092e+10,-3.57853e+10,0,-1.21469e+11,-5.97468e+11,-5.64285e+11,1.63645e+10,-4.74121e+10,-6.77522e+10,0,-2.65325e+11,-1.06848e+11,-4.43937e+11,2.66237e+10,0,0,-2.56853e+11,-2.2546e+11,2.59394e+09,-7.62445e+11,-1.13396e+12,8.95997e+10,-1.67146e+11,0,-2.12396e+13,-1.36128e+13,-8.21906e+12,-3.85054e+12,-3.54461e+12,-2.62128e+12,-2.49521e+12,-1.19984e+12,-1.87985e+12,-8.87001e+11,-6.97427e+11,-6.54934e+11,-1.90849e+12,-7.19035e+11,-3.34882e+11,-1.77631e+12,-4.24908e+11,-1.58346e+12,-1.37073e+12,-1.1454e+12,-6.20031e+11,-3.24391e+12,-1.77305e+11,-1.69956e+12,-1.38918e+12,-3.44373e+12,-1.78054e+12,2.93439e+10,-3.21925e+12,-1.19693e+12,-6.65426e+11,-2.41196e+12,0,-4.57227e+11,-4.57227e+11,-4.57227e+11,-4.57227e+11,-4.57227e+11,-4.57227e+11,-4.57227e+11,-2.9194e+11,-1.78602e+11,-9.77723e+10,-8.30807e+10,-5.41558e+10,-2.42705e+11,-1.79725e+11,-1.04051e+11,-1.84094e+11,-4.74164e+10,-1.65121e+11,-1.5391e+11,-1.89083e+11,-1.06238e+11,-4.57227e+11,3.60194e+10,-1.64672e+11,-1.34174e+11,-4.1025e+11,-2.30526e+11,-3.58889e+09,-4.57227e+11,-3.44531e+11,-4.44023e+10,-2.83797e+11,-6.89537e+12,-2.35467e+11
0,-2.11095e+12,-5.37462e+11,-3.70046e+10,-8.31696e+11,-1.54866e+11,-3.70029e+10,-1.93477e+11,-1.31862e+11,4.31504e+06,0,0,-9.5353e+10,0,-1.35893e+11,0,274,-8.41059e+11,0,0,-3.70052e+10,860,-1.22656e+11,-1.07356e+12,-3.70052e+10,0,-1.58709e+11,-2.01859e+10,0,-1.42285e+11,-9.48545e+10,519176,561633,0,-5.15712e+11,-6.17622e+10,0,-2.81778e+11,3.57823e+09,561633,-1.05716e+11,0,0,0,0,-3.8141e+10,0,-4.52977e+10,0,0,-6.45742e+10,561633,0,-3.70052e+10,0,-9.48567e+10,-7.68032e+11,0,0,-2.90571e+11,899,0,-4.32084e+10,0,0,0,0,-1.70115e+12,-2.63347e+11,3.57823e+09,-1.136e+12,-2.0754e+11,570021,-1.56847e+11,-1.25612e+11,3.61876e+06,0,0,-1.90706e+10,0,-3.79428e+11,16776,-3.70052e+10,-5.38347e+11,0,0,-3.70052e+10,2.08926e+09,1.65014e+06,-5.39735e+11,2.08926e+09,0,-4.52977e+10,-9.4857e+10,0,-1.75589e+11,561633,2.08926e+09,0,0,0,0,0,0,0,0,0,0,0,0,0,0,0,0,0,0,0,0,0,0,0,0,0,0,0,0,0,0,0,0,0,0,0,-2.68933e+12,-6.52035e+11,-2.68865e+11,-9.36096e+11,-2.22211e+11,-4.01604e+11,-1.1128e+11,-3.28865e+11,-3.69972e+10,-3.76266e+09,-2.28333e+10,0,-3.81412e+10,-9.06132e+11,-5.63581e+11,2.08952e+09,-4.27793e+11,0,1.06567e+06,-1.14774e+11,3.93143e+06,-1.57876e+11,-6.96574e+11,-7.19211e+10,0,-7.29324e+11,-3.50324e+11,-2.11246e+10,-6.05192e+11,-4.26853e+11,259158,-1.40154e+11,0,-1.98916e+13,-1.25089e+13,-9.07001e+12,-2.88058e+12,-3.16788e+12,-3.31031e+12,-4.11883e+12,-8.75575e+11,-1.70026e+12,-1.27383e+12,-2.05499e+11,-3.81026e+10,-1.10113e+12,-2.68253e+11,-3.29127e+12,-1.65537e+12,-2.58667e+12,-3.3508e+12,-6.93076e+11,-1.81884e+11,1.88467e+10,-1.5083e+12,-3.90713e+11,-8.88114e+11,-3.33455e+11,-2.90051e+12,-1.92507e+12,-1.4725e+12,-3.71988e+12,-4.26855e+11,-1.42036e+12,-1.26138e+12,0,-4.68615e+11,-4.68615e+11,-4.68615e+11,-4.68615e+11,-4.68615e+11,-4.68615e+11,-4.68615e+11,-1.46191e+11,-1.77426e+11,-1.2776e+11,-2.28333e+10,-1.90667e+10,-1.13927e+11,-1.735e+11,-3.85485e+11,-1.69029e+11,-4.49545e+11,-3.3508e+11,-9.15105e+10,-4.07673e+10,2.09399e+09,-1.88368e+11,-4.68615e+11,-9.94951e+10,-3.33455e+10,-4.12441e+11,-2.39044e+11,-1.49363e+11,-4.68615e+11,-9.48562e+10,-1.41827e+11,-1.40153e+11,-6.56591e+12,-1.22327e+11
0,-8.03937e+11,-5.01167e+11,-2.90944e+11,-3.43949e+11,0,-1.06218e+11,-1.03489e+11,-1.57114e+11,-4.74558e+10,-4.74238e+10,-4.74237e+10,0,-8.62544e+10,-2.76579e+11,5.10817e+09,-1.49748e+10,-7.472e+10,0,0,-7.89303e+10,0,-4.74853e+10,0,-2.73502e+10,-7.82395e+10,-2.75936e+11,-8.62271e+10,-3.94361e+10,-2.20686e+10,-3.31882e+11,114228,-8.68503e+10,0,-5.21852e+11,-3.16025e+11,-1.34288e+11,-2.23393e+11,0,-736942,-3.45236e+10,-7.75091e+10,-4.74536e+10,0,-8.6232e+10,0,425921,-4.74285e+10,-1.49748e+10,-4.74238e+10,7.33882e+06,0,0,-6.67243e+10,0,-4.74142e+10,0,-5.32238e+11,-7.82395e+10,-1.81084e+11,0,0,-1.59672e+11,-1.09928e+11,-9.4845e+10,228456,0,-6.02099e+11,-5.14547e+11,-2.37708e+11,-2.88939e+11,0,-7.33275e+10,-8.63085e+10,-2.37158e+11,-4.74263e+10,-5.60652e+10,0,0,-1.42284e+11,-742187,-1.76818e+11,-1.33665e+11,-1.50407e+10,0,0,-1.12121e+11,0,420676,0,-4.74281e+10,-5.17854e+10,-3.88034e+10,-1.72618e+10,-6.46904e+10,-2.22016e+11,-1.72373e+11,0,-9.48602e+10,0,0,0,0,0,0,0,0,0,0,0,0,0,0,0,0,0,0,0,0,0,0,0,0,0,0,0,0,0,0,0,0,0,0,-1.59327e+12,-1.06387e+12,-7.74514e+11,-6.34497e+11,5245,-5.16388e+11,-4.18236e+11,-3.31414e+11,-2.19726e+11,0,3033,0,-5.66739e+11,-3.79414e+11,-2.00942e+11,-1.09836e+11,0,0,0,-2.90265e+11,0,-9.48718e+10,0,-1.61578e+11,-3.94361e+10,-9.4857e+10,-2.93205e+11,-9.61347e+10,-5.32243e+11,-1.00615e+12,0,-1.61628e+11,0,-2.15649e+13,-1.13183e+13,-7.70087e+12,-3.71924e+12,-3.75868e+12,-3.06274e+12,-4.05579e+12,-1.99161e+12,-1.68512e+12,-9.314e+11,-1.39644e+12,-3.94368e+11,-2.28679e+12,-1.58797e+12,-6.82525e+11,-1.65473e+12,-8.0778e+11,-4.74286e+11,-2.03819e+12,-2.92407e+11,-1.12144e+12,-1.23321e+12,-1.13839e+12,-3.91471e+12,-2.13038e+12,-7.45876e+11,-1.58664e+12,-8.41011e+11,-3.76235e+12,-4.26847e+11,-2.3837e+12,-1.27294e+12,0,-4.69835e+11,-4.69835e+11,-4.69835e+11,-4.69835e+11,-4.69835e+11,-4.69835e+11,-4.69835e+11,-2.7948e+11,-2.04718e+11,-1.03489e+11,-1.5301e+11,-3.94368e+10,-3.08207e+11,-2.29139e+11,-1.07015e+11,-1.96063e+11,-8.97534e+10,-4.74286e+10,-2.32027e+11,-8.40447e+10,-1.12144e+11,-1.42299e+11,-1.42299e+11,-4.69835e+11,-2.37808e+11,-1.33656e+11,-1.98334e+11,-1.04127e+11,-4.69835e+11,-2.04718e+11,-2.47855e+11,-1.61628e+11,-6.71794e+12,-1.57264e+11
0,-9.60989e+11,-9.63216e+11,-6.991e+11,-4.42169e+11,-4.74238e+10,-3.73345e+11,-4.15698e+11,-1.42295e+11,-4.74284e+10,-1.28476e+11,-6.79852e+09,0,-9.17114e+10,-1.42285e+11,-1.57423e+11,0,0,0,0,-4.19831e+11,0,-4.83571e+10,-4.74331e+10,-3.36567e+10,-2.2022e+11,-1.39145e+11,-1.72792e+11,-8.10847e+10,-2.24138e+11,-1.70413e+11,-9.48569e+10,-1.89699e+11,0,-1.75928e+11,-2.70798e+11,-1.90642e+11,-1.93353e+11,-4.74238e+10,-4.93232e+10,-7.4112e+10,-4.74287e+10,0,0,-4.42782e+10,0,-90151,-4.74332e+10,-4.83803e+10,0,0,0,-4.74284e+10,-1.89699e+11,0,-4.74331e+10,-4.74331e+10,-9.17061e+10,-4.98756e+11,-9.17114e+10,-5.42272e+10,0,-4.74331e+10,-6.79852e+09,0,-4.74238e+10,0,-3.83208e+11,-4.2374e+11,-3.15068e+11,-9.58137e+10,-1.42295e+11,-2.34006e+11,-4.74284e+10,-1.42295e+11,-9.48615e+10,-4.42783e+10,-90151,0,-4.74331e+10,-4.74332e+10,0,-9.17115e+10,0,0,0,-6.17526e+11,-4.74284e+10,-9.48385e+10,-2.37166e+11,-151831,-9.57855e+10,-3.76282e+11,-4.74284e+10,-61680,-1.43242e+11,-1.43246e+11,0,-9.4857e+10,0,0,0,0,0,0,0,0,0,0,0,0,0,0,0,0,0,0,0,0,0,0,0,0,0,0,0,0,0,0,0,0,0,0,-9.52037e+11,-1.22551e+12,-1.21471e+12,-8.26165e+11,-5.42319e+10,-1.47705e+12,-4.17555e+11,-2.84586e+11,-9.48664e+10,-3.7939e+11,-5.42316e+10,0,-2.1708e+11,-9.48573e+10,-3.92601e+11,0,0,0,0,-9.47629e+11,-1.42285e+11,-3.81262e+11,0,-9.48378e+10,-1.49046e+11,-9.48662e+10,-4.03459e+11,-1.28513e+11,-5.33875e+11,-4.1342e+11,0,-3.31962e+11,0,-2.12048e+13,-1.08894e+13,-6.6453e+12,-3.48364e+12,-3.42942e+12,-1.58706e+12,-2.41563e+12,-8.06113e+11,-7.11459e+11,-1.64987e+12,-1.35407e+12,-1.01636e+12,-8.97458e+11,-1.09089e+12,-7.64189e+11,-1.36772e+12,-5.42317e+11,-9.4857e+11,-1.04343e+12,-1.55923e+12,-1.1049e+12,-8.60298e+11,-4.3444e+11,-1.99133e+12,-3.63975e+12,-1.16373e+12,-2.06657e+12,-6.0125e+11,-3.7023e+12,-2.92148e+11,-2.72868e+12,-2.18158e+12,0,-4.65099e+11,-4.65099e+11,-4.65099e+11,-4.65099e+11,-4.65099e+11,-4.65099e+11,-4.65099e+11,-1.42272e+11,-9.48615e+10,-2.20202e+11,-1.45938e+11,-1.01636e+11,-1.25368e+11,-1.4229e+11,-1.36259e+11,-1.45943e+11,-5.42317e+10,-9.4857e+10,-1.42285e+11,-3.73392e+11,-1.29461e+11,-1.43219e+11,-9.5809e+10,-2.21153e+11,-4.65099e+11,-1.86573e+11,-2.74447e+11,-8.10847e+10,-4.65099e+11,-1.02603e+11,-2.82353e+11,-2.84552e+11,-9.22024e+12,-5.42084e+10
0,-3.76508e+11,-3.19864e+11,-2.82678e+11,-1.31047e+11,-3.95425e+10,-3.32573e+11,-4.77277e+09,-9.42771e+10,-2.61494e+10,-1.53724e+09,-5.74034e+06,0,-1.7076e+11,-5.49288e+11,-1.17122e+11,0,-4.86377e+10,0,0,-1.44094e+11,0,-9.47571e+10,-4.17294e+10,-2.24239e+10,0,-3.96157e+11,-1.68326e+11,-15051,-2.65329e+11,-7.49437e+11,0,-2.169e+11,0,-2.81547e+11,-1.51377e+11,-2.43482e+11,-7.41693e+10,-3.22707e+10,-2.35036e+09,-240852,-5.71246e+10,-2.4949e+10,-2.56284e+10,-3.61784e+09,0,-1.22898e+11,-2.99463e+11,-2.08673e+07,0,-4.22919e+08,0,0,-1.13756e+11,0,-3.63799e+09,0,-67027,0,-5.02402e+11,-6.69899e+10,-2.86813e+09,-1.237e+11,-5.77255e+11,0,-4.91879e+10,0,-2.53849e+11,-1.19763e+11,-1.13207e+11,-1.46498e+11,-3.2463e+10,-1.58314e+11,-1.16417e+11,-3.49886e+10,-1.52614e+09,-1.21359e+10,-2.4949e+10,0,-7.27579e+09,-1.1287e+11,-3.03879e+09,-2.84156e+10,-3.49786e+10,0,0,-6.55811e+09,0,-7.46808e+09,0,0,0,-6.78397e+10,-1.81208e+10,-1.5164e+09,-6.41701e+10,-3.05783e+11,0,-9.24321e+10,0,0,0,0,0,0,0,0,0,0,0,0,0,0,0,0,0,0,0,0,0,0,0,0,0,0,0,0,0,0,0,0,0,0,-1.04533e+12,-5.53955e+11,-7.58732e+11,-4.4553e+11,-1.85493e+11,-3.27369e+11,-2.82418e+11,-2.08727e+11,-7.1145e+10,-1.22711e+10,-4.53151e+10,0,-3.95653e+11,-8.60853e+11,-8.50419e+10,-7.37193e+09,-4.50822e+10,0,-1.628e+10,-2.88879e+11,0,-1.04705e+11,-1.37173e+11,0,0,-5.87167e+11,-2.26447e+11,-2.39892e+10,-5.46929e+11,-1.24647e+12,0,-3.35979e+11,0,-2.18429e+13,-1.31735e+13,-8.1271e+12,-3.71868e+12,-3.53112e+12,-3.00028e+12,-2.89792e+12,-8.89994e+11,-1.27267e+12,-4.5301e+11,-4.81238e+11,-9.13969e+11,-2.63383e+12,-9.65916e+11,-5.08036e+11,-2.02472e+12,-8.74073e+11,-1.90486e+12,-1.71373e+12,-7.9359e+11,-3.07394e+11,-1.57481e+12,-6.82365e+11,-1.63531e+12,-2.18663e+12,-3.22255e+12,-2.72612e+12,-2.50625e+11,-3.77599e+12,-1.38613e+12,-2.25618e+11,-2.84889e+12,0,-4.77611e+11,-4.77611e+11,-4.77611e+11,-4.77611e+11,-4.77611e+11,-4.77611e+11,-4.77611e+11,-1.28511e+11,-1.39644e+11,-5.04582e+10,-5.5656e+10,-9.13969e+10,-3.33041e+11,-2.78839e+11,-7.1326e+10,-2.06051e+11,-1.00319e+11,-1.90486e+11,-1.77377e+11,-1.34688e+11,-3.07394e+10,-1.78537e+11,-1.13294e+11,-1.65773e+11,-2.18663e+11,-4.77611e+11,-3.20601e+11,-2.78999e+10,-4.77611e+11,-4.26507e+11,-2.25618e+10,-3.5852e+11,-6.89299e+12,-2.43027e+11
0,-6.33346e+11,-2.95856e+11,1.16276e+11,-9.3312e+10,-3.9664e+10,-9.48189e+10,5.4064e+10,6.09787e+10,-2.32649e+10,8.00221e+10,2.66693e+10,2.59836e+10,-1.88109e+10,-6.74444e+11,-1.90538e+10,-14697,-8.74556e+10,0,0,-4.42202e+11,1.71754e+09,-8.29474e+10,-2.7761e+10,0,-4.63044e+10,-4.80363e+11,-1.58429e+11,-4.08342e+10,-9.17554e+09,-7.15719e+11,-2.89632e+10,-1.63195e+11,0,-2.93981e+11,-2.89807e+11,-2.40377e+11,-4.42807e+10,-4.46501e+10,2.93749e+10,7.11609e+10,1.84599e+11,-4.69569e+10,1.06226e+11,4.60974e+10,0,-4.46582e+10,-1.86399e+11,8.91948e+10,-552399,-2.7761e+10,0,0,-2.04467e+11,2.30592e+10,4.74253e+10,0,0,4.74287e+10,-7.22431e+11,-4.50552e+11,-3.89936e+10,-2.07327e+11,-4.74013e+11,-1.71656e+10,1.68978e+11,0,-2.39303e+11,-1.718e+11,-2.80338e+11,-3.04107e+11,-6.5963e+10,-2.51733e+11,3.62123e+10,7.13712e+10,-1.98446e+10,-4.02405e+10,-1.25002e+10,0,7.31595e+09,-1.50631e+11,-2.60948e+10,-4.01054e+10,-8.32831e+10,0,0,-1.34859e+11,-258853,3.06106e+09,-1.4093e+11,-5.77886e+09,-7.54415e+10,-1.12845e+11,-2.36036e+10,-1.92629e+10,-2.20602e+10,-2.90838e+11,4.74219e+10,-2.5374e+11,0,0,0,0,0,0,0,0,0,0,0,0,0,0,0,0,0,0,0,0,0,0,0,0,0,0,0,0,0,0,0,0,0,0,-1.16086e+12,-5.55079e+11,-9.19249e+11,-5.08744e+11,-1.74663e+11,-4.53935e+11,-2.77919e+11,1.2809e+10,-7.69828e+10,8.76271e+10,1.47508e+10,-2.98081e+10,-2.16692e+11,-9.46663e+11,2.34776e+10,-4.0106e+10,-1.22292e+11,0,2.59794e+09,-2.58459e+11,-4.69778e+10,9.35499e+09,-5.55221e+10,-9.48638e+09,5.19698e+09,-8.90505e+11,-3.32563e+11,-1.00891e+11,-6.91147e+11,-1.15041e+12,8.33881e+10,-3.85999e+11,0,-2.16902e+13,-1.28959e+13,-8.12528e+12,-3.72111e+12,-3.45927e+12,-3.0131e+12,-2.90204e+12,-8.2693e+11,-1.33614e+12,-6.44645e+11,-3.7029e+11,-9.10752e+11,-2.72874e+12,-8.17572e+11,-1.24534e+11,-2.15306e+12,-2.82971e+11,-1.76535e+12,-1.48901e+12,-8.70679e+11,-6.623e+09,-1.58449e+12,-4.20455e+11,-1.16795e+12,-2.05602e+12,-4.06371e+12,-3.76512e+12,-3.86476e+11,-3.80056e+12,-1.67258e+12,-1.12488e+11,-2.72398e+12,0,-4.73027e+11,-4.73027e+11,-4.73027e+11,-4.73027e+11,-4.73027e+11,-4.73027e+11,-4.73027e+11,-4.97172e+10,-1.50327e+11,-4.1101e+10,-2.6185e+10,-9.14576e+10,-3.00158e+11,-2.77571e+11,-5.70102e+09,-2.23328e+11,-6.03764e+10,-1.76535e+11,-1.58604e+11,-1.91067e+11,-2.88244e+09,-1.65352e+11,-8.05835e+10,-1.18321e+11,-2.12254e+11,-6.26986e+11,-4.73027e+11,-5.86458e+10,-4.73027e+11,-4.30356e+11,-2.78065e+09,-3.33923e+11,-6.81242e+12,-1.20347e+11
0,-5.50794e+11,-3.0849e+11,-1.41292e+11,-2.38782e+11,1.77397e+10,9.15139e+10,-3.0929e+11,-6.51938e+08,-5.59606e+10,-1.28951e+11,1.59443e+10,0,-1.72821e+11,-3.89855e+11,-9.68179e+10,2.9726e+10,-4.74079e+10,0,0,5.43579e+10,-7.03763e+10,-2.55697e+11,-557928,1.81e+10,3.62e+10,-7.91169e+10,-3.50324e+10,-3.12489e+11,-8.06145e+10,-2.00159e+11,0,-7.33836e+10,0,-3.43556e+11,-5.54639e+10,-3.54522e+10,-2.03772e+11,0,-6.56751e+10,-1.42388e+11,3.02975e+10,-3.06383e+10,-119058,-436467,0,-1.38535e+11,-3.79189e+11,1.23981e+10,-6.01521e+10,-1.88414e+06,0,0,-3.24926e+10,-1.11632e+10,-7.23332e+10,0,0,0,-1.38537e+11,-5.45154e+10,-7.14617e+11,-2.26653e+11,-1.81752e+11,0,-1.01168e+11,0,-7.92436e+11,-1.41312e+11,-3.87524e+11,-1.41341e+11,-5.08186e+10,-2.0592e+11,-3.42723e+11,-1.20289e+11,-1.98157e+10,-1.42169e+10,1.59443e+10,5.83022e+09,-4.74255e+10,-3.91864e+10,-4.50289e+10,-102677,1.59443e+10,0,0,-6.59078e+10,-6.51147e+08,4.777e+09,-2.00332e+08,0,0,0,-1.8236e+09,-1.57281e+11,-1.59344e+11,-2.26565e+11,0,-6.01543e+10,0,0,0,0,0,0,0,0,0,0,0,0,0,0,0,0,0,0,0,0,0,0,0,0,0,0,0,0,0,0,0,0,0,0,-1.51878e+12,-5.59306e+11,-1.18034e+12,-4.1579e+11,-9.86536e+10,-2.53984e+11,-1.05566e+11,-2.31668e+11,-1.30852e+11,-2.45359e+11,164312,-8.31586e+10,-4.3572e+11,-6.95024e+11,-2.04185e+11,2.97259e+10,-3.89956e+09,0,2.93655e+10,-1.78574e+11,5.92125e+10,-1.77108e+11,-4.2667e+08,1.81e+10,1.81e+10,-1.45934e+11,-3.00047e+11,-4.20045e+11,-4.37659e+11,-9.21829e+11,0,-1.97566e+11,0,-2.14014e+13,-1.28969e+13,-7.6235e+12,-3.73753e+12,-3.62896e+12,-3.32662e+12,-3.80078e+12,-7.79281e+11,-1.28755e+12,-7.21744e+11,-1.84953e+12,-7.87302e+11,-2.26455e+12,-7.26299e+11,-6.57003e+11,-2.03177e+12,-8.2794e+11,-2.20231e+12,-1.53375e+12,-6.29974e+11,2.02127e+11,-2.98563e+12,-6.49904e+11,-1.56295e+12,-1.7537e+12,-2.67197e+12,-1.45782e+12,-3.09643e+12,-3.74916e+12,-7.74726e+11,-8.91794e+10,-2.06175e+12,0,-4.70086e+11,-4.70086e+11,-4.70086e+11,-4.70086e+11,-4.70086e+11,-4.70086e+11,-4.70086e+11,-1.10159e+11,-1.58686e+11,-1.11027e+11,-1.99046e+11,-8.6463e+10,-3.05905e+11,-2.22955e+11,-9.90636e+10,-2.03247e+11,-8.63305e+10,-2.20231e+11,-1.45023e+11,-8.5259e+10,1.79149e+10,-3.55658e+11,-8.13165e+10,-1.52675e+11,-1.6994e+11,-3.03555e+11,-1.84923e+11,-4.70086e+11,-4.70086e+11,-2.30503e+11,-8.91794e+09,-2.57719e+11,-6.35553e+12,-1.51545e+11
0,-3.8452e+11,-3.11934e+11,-1.33919e+11,-1.8155e+11,-9.49389e+10,-1.69077e+11,7.09731e+10,-2.95934e+11,2.06867e+10,3.32336e+10,-6.17541e+10,-8.77007e+10,-1.79762e+11,-7.74923e+11,1.57089e+11,-1.86292e+10,-6.59749e+08,-559494,-5.68242e+08,-1.26314e+11,-1.27562e+11,-1.36021e+11,7.37407e+10,-1.30827e+10,7.84616e+10,-5.96756e+11,-1.49239e+11,-1.31589e+11,-1.2886e+11,-5.63576e+11,4.74331e+10,-3.31184e+11,0,-6.40979e+10,-3.16588e+11,-2.98236e+11,3.1359e+10,3.6587e+10,-5.36498e+10,1.11366e+11,-2.73651e+11,-1.45403e+11,1.37312e+11,1.30887e+11,0,-1.00625e+11,-4.90509e+11,-6.80332e+10,203471,5.5631e+10,0,7.63044e+10,9.47654e+09,7.71111e+10,1.1771e+11,4.71566e+10,3.27314e+10,4.74331e+10,-1.11815e+12,1.33011e+11,-1.5213e+11,-3.14577e+11,-5.58824e+11,0,3.32409e+11,0,-1.28061e+11,6.32925e+10,-1.80687e+11,-1.58016e+11,-8.37521e+09,-1.46144e+11,1.04377e+11,-6.9398e+09,3.87713e+10,2.97757e+10,-5.88559e+10,1.41415e+06,4.24641e+10,-1.46689e+10,9.08104e+10,4.05589e+10,9.14812e+09,0,-515,2.68834e+11,1.31681e+11,8.64611e+08,-1.24108e+10,-1.25555e+08,-1.87793e+10,-1.17526e+10,-1.04855e+10,-2.83823e+10,1.43317e+09,8.08758e+10,-1.24692e+08,-1.96377e+11,0,0,0,0,0,0,0,0,0,0,0,0,0,0,0,0,0,0,0,0,0,0,0,0,0,0,0,0,0,0,0,0,0,0,-9.09959e+11,-3.85429e+11,-6.99905e+11,-2.4655e+11,-1.69562e+11,-4.08694e+11,-5.09905e+11,-2.93888e+11,3.47052e+10,2.83478e+11,1.08071e+11,5.79896e+10,-5.78281e+11,-8.13317e+11,5.56259e+10,1.73471e+10,-2.36865e+11,1.72924e+09,-2.833e+10,4.92875e+10,9.17887e+10,1.05948e+10,-3.63444e+10,-6.16699e+10,-2.29087e+10,-9.57861e+11,-1.43126e+11,-1.51092e+11,-5.45988e+11,-1.67302e+12,-2.57786e+10,-4.67876e+11,0,-2.15752e+13,-1.3223e+13,-8.07068e+12,-3.74917e+12,-3.54015e+12,-2.99887e+12,-2.97468e+12,-9.85591e+11,-1.41404e+12,-5.66289e+11,-5.03242e+11,-9.07143e+11,-2.56516e+12,-8.29657e+11,-2.68922e+11,-2.13153e+12,-5.13982e+11,-1.85031e+12,-1.75682e+12,-1.06962e+12,-1.60875e+11,-1.50132e+12,-5.81618e+11,-1.66885e+12,-2.15088e+12,-4.52228e+12,-2.67351e+12,-1.77601e+11,-3.73255e+12,-1.623e+12,-3.7406e+11,-2.54029e+12,0,-4.72055e+11,-4.72055e+11,-4.72055e+11,-4.72055e+11,-4.72055e+11,-4.72055e+11,-4.72055e+11,-1.856e+11,-1.48656e+11,-1.51686e+09,-2.75258e+10,-9.36852e+10,-3.38136e+11,-2.92308e+11,-3.34301e+09,-2.04482e+11,-6.62675e+10,-1.84858e+11,-1.53029e+11,-8.68335e+10,1.21435e+09,-1.49421e+11,-6.63949e+10,-1.71228e+11,-2.06667e+11,-7.2068e+11,-2.84334e+11,-6.40794e+10,-4.72055e+11,-4.33754e+11,-3.5253e+10,-3.31653e+11,-6.93501e+12,1.97303e+11
0,-1.83609e+11,-2.63343e+11,-3.44589e+11,-6.9049e+10,-1.32142e+11,-5.87961e+11,5.39655e+10,-3.61122e+10,3.21064e+09,2.03909e+11,-1.11062e+10,-3.83475e+10,-2.54339e+11,-5.04872e+11,1.28274e+11,3.18064e+10,-6.75087e+10,-19956,-10256,-3.43853e+11,1.57689e+11,-4.40215e+09,-7.91834e+10,-8.01426e+09,6.46502e+10,-9.15349e+11,-4.43306e+10,-7.40545e+10,-1.57029e+11,-9.54681e+11,2.15523e+10,-2.94745e+11,0,-1.1415e+11,-1.05991e+11,-2.82079e+11,-5.8561e+09,4.74235e+10,-1.95863e+10,1.26449e+11,-5.75369e+10,-6.51851e+10,-6.01223e+10,1.31445e+10,4.74274e+10,-2.89133e+11,-1.49554e+11,-7.37074e+10,-5.83312e+09,3.07836e+10,0,-114316,-5.83631e+10,4.78985e+10,-2.71783e+10,-912155,1.45548e+10,0,-1.17388e+12,2.84877e+10,1.0389e+11,-3.91293e+11,-7.26077e+11,-1.08076e+09,2.91511e+10,0,9.57618e+10,2.30187e+10,-1.68528e+11,-1.01645e+11,-7.06722e+10,-1.4851e+11,-3.96242e+11,-2.40077e+11,-2.4686e+09,2.86229e+10,-5.09503e+10,-1.10914e+09,1.07246e+10,-7.87817e+10,8.87682e+10,-4.73924e+10,-1.17157e+11,0,0,5.24691e+10,7.21229e+10,1.02788e+11,2.69321e+10,-1521,-5.24408e+09,-2.7303e+11,-1.14154e+10,1.32016e+11,-1.83214e+11,-5.03585e+11,-1.1585e+07,-7.42614e+10,0,0,0,0,0,0,0,0,0,0,0,0,0,0,0,0,0,0,0,0,0,0,0,0,0,0,0,0,0,0,0,0,0,0,-8.19605e+11,-8.41841e+11,-8.23357e+11,-2.54672e+11,-1.00299e+11,-2.11527e+11,-2.0238e+11,-2.60274e+11,-5.63965e+10,1.38952e+11,-5.18493e+10,1.19464e+11,-6.29888e+11,-8.39924e+11,-5.03336e+10,-3.55764e+10,1.66206e+11,4.57024e+10,-3.47217e+10,-5.24685e+11,1.07436e+11,-7.03689e+10,4.6595e+10,4.29135e+10,1.41749e+10,-1.38017e+12,-2.73881e+11,-6.04731e+09,-4.35879e+11,-1.15201e+12,-2.81455e+10,-3.7174e+11,0,-2.19783e+13,-1.30539e+13,-8.00967e+12,-3.79517e+12,-3.57754e+12,-2.86565e+12,-2.97821e+12,-9.18935e+11,-1.4658e+12,-5.50512e+11,-1.54317e+11,-7.37985e+11,-2.37374e+12,-7.58816e+11,-5.21484e+11,-2.06848e+12,-4.49402e+11,-1.89209e+12,-1.57323e+12,-5.40307e+11,-1.20226e+11,-1.54362e+12,-5.68818e+11,-1.55946e+12,-2.02978e+12,-4.34189e+12,-2.80918e+12,-2.0611e+11,-3.62413e+12,-1.45519e+12,-1.80008e+11,-2.51745e+12,0,-4.79154e+11,-4.79154e+11,-4.79154e+11,-4.79154e+11,-4.79154e+11,-4.79154e+11,-4.79154e+11,-1.51294e+11,-1.58664e+11,-2.17563e+10,-2.56129e+10,-6.1055e+10,-3.53638e+11,-2.33195e+11,-4.28482e+10,-2.12548e+11,-4.37079e+10,-1.84639e+11,-1.76309e+11,-1.41474e+11,2.64919e+10,-1.54278e+11,-7.18094e+10,-1.51001e+11,-1.95619e+11,-8.08432e+11,-3.09255e+11,-5.03059e+09,-4.79154e+11,-4.79154e+11,-1.87694e+10,-3.38791e+11,-6.59717e+12,-2.81194e+11
0,-5.21621e+11,-1.42258e+11,0,-1.897e+11,0,0,-4.74239e+10,-4.74143e+10,0,0,0,-4.74287e+10,0,0,0,0,0,0,0,0,0,1114,0,0,0,0,0,0,-4.74143e+10,0,0,-4.74143e+10,0,-5.21676e+11,-9.48333e+10,0,-9.48337e+10,0,0,-1.89705e+11,0,0,0,0,0,0,0,-4.74239e+10,0,0,0,0,0,0,-1.42267e+11,0,-4.74143e+10,0,0,0,0,0,0,-2.84538e+11,0,0,-3.7939e+11,-5.21685e+11,-1.42272e+11,-2.84529e+11,0,0,-4.74303e+11,-1.42299e+11,0,0,0,-4.74193e+10,0,0,-4.74239e+10,0,0,0,0,0,0,0,-4.74193e+10,-4.7433e+10,0,0,-4.74239e+10,0,-4.7433e+10,0,0,-3.31985e+11,0,0,0,0,0,0,0,0,0,0,0,0,0,0,0,0,0,0,0,0,0,0,0,0,0,0,0,0,0,0,0,0,0,0,-8.53617e+11,-9.4848e+10,-9.48432e+10,-3.31963e+11,0,-1.89696e+11,0,-3.31994e+11,0,0,0,0,0,-3.31976e+11,-2.3711e+11,0,0,0,0,0,0,-9.48473e+10,0,0,0,0,-9.48568e+10,0,-2.84538e+11,0,-4.74193e+10,-2.3711e+11,0,-1.30413e+13,-7.68252e+12,-5.45365e+12,-2.27631e+12,-2.27631e+12,-2.08661e+12,-1.99168e+12,-4.26766e+11,0,0,0,-1.80206e+12,0,-2.51341e+12,-6.16471e+11,-9.4848e+11,-1.89691e+12,-9.4848e+11,-9.0104e+11,0,0,-1.65984e+12,-2.22889e+12,-8.53626e+11,-9.48429e+11,0,-1.75462e+12,0,-2.466e+12,0,-2.51342e+12,-2.22887e+12,0,-2.84538e+11,-2.84538e+11,-2.84538e+11,-2.84538e+11,-2.84538e+11,-2.84538e+11,-2.84538e+11,-9.48473e+10,0,0,0,-1.89691e+11,0,-2.84538e+11,-9.48429e+10,-9.4848e+10,-1.89691e+11,-9.4848e+10,-9.48473e+10,0,0,-1.89695e+11,-2.84538e+11,-9.48473e+10,-9.48429e+10,0,-1.8969e+11,0,-2.84538e+11,0,-2.84538e+11,-2.84538e+11,-2.798e+12,-9.4848e+10
0,-4.75441e+11,-2.04451e+11,-2.95012e+11,-1.41563e+11,-4.68629e+10,-1.78692e+11,-1.42584e+11,-3.50669e+11,-2.49524e+10,-5.64634e+10,-4.83836e+09,1.63538e+09,-6.54158e+10,-5.55343e+11,1.24192e+11,-3.02271e+10,-4.01721e+08,0,1.73001e+10,-2.81204e+11,-5.85742e+10,-1.09812e+11,0,449,3.83784e+10,-2.53254e+11,-1.77427e+11,-4.85437e+10,-4.46447e+11,-2.22373e+11,7.93117e+10,-5.58854e+10,0,-1.70279e+11,5.67987e+10,-2.86093e+11,-3.60314e+11,2.22546e+10,-3.18556e+10,-1.89812e+11,8.25681e+09,1.37654e+10,-4.62304e+10,2.71416e+10,154736,-9.85222e+10,-2.2538e+11,-5.50448e+10,3.04397e+06,3.50396e+10,0,1.71556e+10,9.41386e+10,5.58889e+10,5.14529e+10,0,2.51246e+06,4.74238e+10,-5.08184e+11,-4.4781e+10,6.77162e+10,-1.7348e+11,-6.0726e+11,0,-4.68368e+11,0,-1.51155e+11,-1.69273e+11,-7.29619e+10,-1.55863e+11,6.67712e+09,-1.42834e+11,1.22107e+11,-4.73833e+10,0,-4.07797e+10,0,0,-2.74181e+10,-1.36376e+11,-2.49755e+10,-2.03772e+06,0,0,4382,-6.94723e+08,1.1024e+10,3.54849e+10,0,4382,-9.06669e+09,-5.147e+09,-8.16416e+10,-2.42527e+10,-7.65261e+09,-1.1842e+11,-1.51544e+10,4.3259e+07,0,0,0,0,0,0,0,0,0,0,0,0,0,0,0,0,0,0,0,0,0,0,0,0,0,0,0,0,0,0,0,0,0,0,-7.23701e+11,-5.52248e+11,-6.65974e+11,-1.71185e+11,-1.12608e+11,-4.08368e+11,-4.45578e+11,-1.12738e+11,-1.40619e+11,9.51221e+10,5.30835e+10,1.1539e+10,-4.259e+11,-8.03158e+11,-2.54237e+10,501179,-8.03368e+10,0,-9.18506e+08,-1.4982e+11,3.67708e+10,1.32966e+11,0,-4.25646e+10,1.10102e+06,-3.11705e+11,-2.60997e+11,7.42645e+10,-4.84277e+11,-1.62e+12,2.64773e+10,-3.97503e+11,0,-2.15748e+13,-1.30816e+13,-7.97497e+12,-3.751e+12,-3.61642e+12,-2.98521e+12,-2.90488e+12,-1.00757e+12,-1.44361e+12,-4.1105e+11,-5.14678e+11,-8.36409e+11,-2.59146e+12,-8.32261e+11,-3.56774e+11,-1.96401e+12,-4.57419e+11,-1.88761e+12,-1.60006e+12,-1.13473e+12,-1.33351e+11,-1.42317e+12,-3.33052e+11,-1.55751e+12,-2.23642e+12,-4.47762e+12,-2.76448e+12,-1.29302e+11,-3.57185e+12,-1.58387e+12,-4.91472e+11,-3.69547e+12,0,-4.6837e+11,-4.6837e+11,-4.6837e+11,-4.6837e+11,-4.6837e+11,-4.6837e+11,-4.6837e+11,-1.51011e+11,-1.59542e+11,-4.59401e+10,-4.39291e+10,-8.23235e+10,-3.20872e+11,-2.55252e+11,-3.38026e+10,-1.99424e+11,-5.03118e+10,-1.88761e+11,-1.61014e+11,-1.47231e+11,-8.82415e+09,-1.31308e+11,-4.16315e+10,-1.60007e+11,-2.15969e+11,-5.55591e+11,-3.32933e+11,-6.01176e+09,-4.6837e+11,-4.15192e+11,-4.00837e+10,-4.6837e+11,-6.59725e+12,-2.07031e+10
