0,5.95385e+09,-7.83872e+09,4.75315e+09,9.86271e+09,-1.30226e+09,-3.37686e+09,-1.07284e+10,-8.30332e+08,-3.89613e+09,-5.5141e+09,3.46527e+09,8.83872e+07,7.97189e+09,-1.10181e+10,-9.27614e+09,7.59291e+08,5.07835e+09,1.49169e+06,-2.9667e+09,-9.65882e+09,-1.29986e+09,4.10951e+09,-3.28497e+09,5.99342e+09,3.42688e+09,-8.61013e+09,1.64111e+09,-2.43852e+09,3.64732e+09,3.54703e+09,6.23765e+09,3.14633e+09,0,-5.93634e+09,-4.24535e+07,-1.97299e+10,5.80276e+09,1.64147e+09,-2.034e+09,-1.03997e+10,7.8805e+09,1.7867e+10,1.97652e+09,-1.41868e+10,2.41633e+09,-1.70625e+09,-2.42104e+09,5.22475e+09,-4.20419e+08,-4.9051e+09,3.00317e+09,-8.84033e+08,8.51668e+09,4.93836e+09,3.23218e+09,-3.60981e+09,2.39671e+09,2.74e+09,3.32471e+07,-3.66973e+09,-8.85133e+09,-1.35712e+10,8.33476e+09,-3.00721e+09,8.30415e+08,0,-4.30936e+09,-1.25683e+10,-1.01295e+10,6.75829e+08,5.81007e+09,2.133e+09,5.88484e+08,-5.9076e+09,-9.16779e+09,8.01057e+07,7.28076e+09,2.11769e+09,-8.94497e+08,-2.91891e+09,-8.93992e+09,-1.73265e+09,6.35555e+09,0,-4.34607e+08,-4.51131e+09,3.06801e+09,-1.03507e+09,-2.25673e+09,5.4627e+09,3.23693e+09,-5.77787e+09,-6.12249e+09,1.93371e+08,2.06453e+09,6.84895e+09,3.28168e+09,-3.8524e+09,0,0,0,0,0,0,0,0,0,0,0,0,0,0,0,0,0,0,0,0,0,0,0,0,0,0,0,0,0,0,0,0,0,0,4.91676e+09,3.44678e+09,-1.51664e+10,1.02427e+10,-7.38913e+09,-1.32658e+10,4.9616e+09,1.0945e+10,-9.04912e+09,-9.86672e+09,-4.18987e+09,-5.0336e+09,-1.20771e+09,-7.76199e+09,-5.50683e+09,-1.00735e+10,-7.75501e+09,7.26492e+08,-1.2967e+09,-3.33217e+08,8.69277e+09,-1.41608e+09,9.98657e+08,4.10585e+09,1.90386e+09,-3.5872e+09,-2.59698e+08,-1.78028e+10,-5.26232e+09,-2.91188e+10,4.18341e+09,-1.28628e+10,0,-2.50709e+11,-1.4839e+11,-7.02034e+10,-3.91106e+10,-4.31791e+10,-2.78729e+10,-1.80035e+10,1.3579e+08,-9.32834e+09,-1.2034e+10,-1.98294e+10,-1.12734e+10,-4.14626e+09,-4.52471e+09,-1.02686e+10,-2.28762e+10,-2.40216e+10,-5.32237e+09,-2.4422e+10,-1.05726e+10,-3.45527e+09,-4.11609e+10,-1.28405e+09,-2.6713e+10,-1.68004e+10,-4.69576e+10,-2.10456e+09,-3.25412e+10,-3.06209e+10,-1.25156e+10,-3.25307e+10,-3.19562e+10,0,-5.55237e+09,-5.55237e+09,-5.55237e+09,-5.55237e+09,-5.55237e+09,-5.55237e+09,-5.55237e+09,1.22233e+09,-1.76775e+09,-2.5594e+09,-3.21814e+09,-1.16846e+09,1.71779e+06,-2.82355e+09,-2.87668e+09,-3.56169e+09,-2.51905e+09,-1.59122e+08,-1.28597e+09,-1.65592e+09,1.19441e+09,-4.42343e+09,-1.1849e+09,-9.07321e+08,-4.7224e+08,-6.48992e+09,-1.11845e+09,-6.14404e+09,-5.55237e+09,-2.29037e+09,-2.18352e+09,-3.57986e+09,-7.21994e+10,6.15342e+09
0,2.29611e+09,-7.24369e+09,-5.19787e+09,1.42133e+10,1.13787e+09,-2.58035e+09,-4.498e+09,7.36134e+09,5.31605e+09,-5.48092e+09,-5.42443e+09,2.55084e+08,2.5623e+08,-9.25774e+09,-7.70125e+09,-1.20239e+09,5.32301e+09,-175915,-7.8978e+08,-6.07284e+09,4.03971e+09,3.23479e+09,-1.19506e+08,7.09644e+09,-6.64284e+09,3.43152e+09,7.10529e+09,-3.00239e+10,-2.94158e+09,2.88585e+08,-3.60009e+09,4.46707e+09,0,-1.06616e+10,3.89778e+09,-1.38762e+10,1.87362e+10,-4.0243e+08,-1.28226e+10,-2.73159e+09,1.13247e+09,-5.55074e+07,-1.61506e+09,1.44017e+09,8.39787e+06,-4.34842e+09,-6.20389e+09,5.70753e+09,6.54264e+08,2.20395e+07,-326431,-6.48343e+08,4.66112e+08,7.58388e+08,-2.13727e+09,-2.51825e+08,2.95363e+08,-8.99993e+08,-1.37947e+10,9.44543e+08,4.06287e+09,-1.38306e+10,9.77965e+08,-6.80774e+08,1.71304e+10,0,-7.49472e+09,-1.09733e+10,-8.87333e+09,-1.06444e+09,-2.05161e+09,-5.27669e+09,-4.59074e+09,9.60533e+09,-7.80107e+09,4.50136e+08,2.205e+09,-2.13086e+09,-1.95786e+08,5.40028e+09,-4.8092e+09,2.85107e+09,-4.12074e+08,0,3.89882e+06,9.71936e+08,7.84997e+09,-9.41987e+08,-1.48867e+09,3.18987e+09,2.81922e+08,-3.92961e+09,6.3714e+09,-2.88361e+09,1.67507e+09,1.51038e+09,5.53294e+09,-7.91443e+09,0,0,0,0,0,0,0,0,0,0,0,0,0,0,0,0,0,0,0,0,0,0,0,0,0,0,0,0,0,0,0,0,0,0,4.78482e+09,-1.46509e+09,-1.44318e+10,7.29831e+09,-1.95589e+09,2.4335e+08,7.69272e+09,8.17102e+09,-4.15235e+09,-4.53345e+09,7.39216e+08,2.23245e+09,-1.72248e+10,-9.53658e+09,-3.10982e+09,2.06487e+09,-4.72726e+09,0,-4.04242e+09,-3.1702e+07,4.45205e+09,-8.62603e+09,3.4894e+09,6.14285e+09,-7.62546e+08,-8.97887e+09,-3.98095e+09,-1.91281e+10,-4.69006e+09,-1.97202e+10,2.43304e+09,-8.24238e+09,0,-2.50749e+11,-1.49112e+11,-7.27355e+10,-3.66412e+10,-4.18755e+10,-2.47113e+10,-1.88258e+10,6.94016e+08,-8.53486e+09,-1.04485e+10,-2.25804e+10,-1.06007e+10,-2.78194e+09,-4.53009e+09,-1.01351e+10,-2.26898e+10,-2.30902e+10,-5.58161e+09,-2.50963e+10,-1.04478e+10,-2.16282e+09,-3.88466e+10,-1.84112e+09,-2.55391e+10,-1.58187e+10,-4.69965e+10,-2.40406e+09,-3.16684e+10,-3.58712e+10,-1.13078e+10,-3.02254e+10,-2.85196e+10,0,-5.64344e+09,-5.64344e+09,-5.64344e+09,-5.64344e+09,-5.64344e+09,-5.64344e+09,-5.64344e+09,2.69642e+09,-1.71243e+09,-2.16156e+09,-3.71897e+09,-1.02356e+09,-2.42947e+09,-2.48553e+09,-2.00478e+09,-1.83239e+09,-2.05453e+09,-5.58211e+08,-3.9771e+09,-1.51142e+09,1.49373e+09,-4.62734e+09,-2.64651e+07,-7.37604e+08,-2.38422e+09,-7.02681e+09,8.01693e+08,-7.96412e+09,-5.64344e+09,-2.82511e+09,-2.65403e+09,-2.06719e+09,-7.45206e+10,7.01314e+09
0,-6.0181e+09,1.89926e+09,-1.09071e+10,1.89069e+09,-2.37208e+09,-4.30552e+08,-1.01552e+10,2.36721e+09,-5.10599e+09,-3.39798e+09,2.31233e+09,0,-6.67752e+09,-8.22748e+09,1.24165e+09,2.45848e+09,3.42028e+09,-4.27019e+07,3.06624e+09,8.47979e+09,8.7611e+08,2.74973e+09,-5.2588e+08,-6.27869e+08,1.26865e+09,2.04041e+09,5.71399e+09,-2.70055e+10,1.25161e+10,2.75059e+09,-1.58206e+06,-9.95872e+09,0,-6.3204e+09,-1.94202e+10,-5.6504e+09,9.49464e+08,1.70669e+08,-7.36286e+09,6.09534e+08,2.71959e+09,1.13428e+09,-2.50069e+09,5.43059e+09,-3.56455e+08,8.85346e+09,7.35642e+08,-2.9845e+07,2.46178e+09,-2.07196e+08,0,-3.43207e+09,4.09975e+09,6.73654e+09,1.00591e+08,1.49669e+08,9.18466e+08,1.46247e+09,-1.0513e+10,-5.69707e+09,2.43095e+09,-1.51889e+10,8.19163e+09,-1.60053e+08,8.75886e+09,0,-1.1781e+10,-1.03539e+10,-5.20378e+09,-3.17663e+09,-5.44156e+09,-4.33214e+09,-8.79191e+09,-2.51007e+09,-3.43246e+09,3.19827e+08,-3.30202e+09,-7.13014e+08,3.17423e+09,4.82574e+09,-5.78413e+09,-4.16692e+08,-8.06621e+07,0,-9.34497e+08,1.66162e+09,9.54067e+08,-4.26729e+08,-8.14139e+08,-1.19109e+06,-1.10032e+08,-7.70424e+09,-5.7668e+09,-3.88513e+08,1.40365e+09,-4.32052e+09,0,-3.6418e+09,0,0,0,0,0,0,0,0,0,0,0,0,0,0,0,0,0,0,0,0,0,0,0,0,0,0,0,0,0,0,0,0,0,0,5.86627e+09,3.18466e+09,-1.40821e+10,8.40762e+09,-1.87226e+09,-2.37823e+09,6.81198e+07,4.03748e+09,2.10472e+08,-5.30909e+09,-9.66549e+08,-2.22586e+09,-5.83329e+09,-1.34376e+10,2.11339e+09,2.07817e+09,-2.3721e+09,0,6.63444e+08,2.63039e+09,1.36203e+09,-1.81983e+09,2.25053e+09,1.4798e+09,6.4478e+08,-1.06492e+10,-3.96102e+09,-8.70196e+09,-4.16491e+09,-2.2123e+10,3.38699e+09,-5.9243e+09,0,-2.47211e+11,-1.43954e+11,-7.61389e+10,-4.7835e+10,-3.31609e+10,-3.02221e+10,-1.94254e+10,2.79033e+09,-9.9051e+09,-1.66781e+10,-2.15848e+10,-1.10803e+10,-2.80235e+09,-3.31447e+09,-7.30673e+09,-2.31754e+10,-2.70978e+10,-4.41221e+09,-2.17598e+10,-1.46651e+10,-3.91562e+09,-4.45849e+10,-1.93672e+09,-2.74838e+10,-1.67999e+10,-4.67051e+10,-1.98184e+09,-3.09823e+10,-4.6964e+10,-9.90611e+09,-3.17321e+10,-3.39447e+10,0,-5.33452e+09,-5.33452e+09,-5.33452e+09,-5.33452e+09,-5.33452e+09,-5.33452e+09,-5.33452e+09,9.40453e+08,-2.01946e+09,-2.71315e+09,-2.71393e+09,-1.43757e+09,-3.28546e+08,-1.94216e+09,-9.76567e+08,-1.7418e+09,-2.7991e+09,-4.45491e+08,3.21109e+08,2.20645e+08,6.01313e+08,-4.39814e+09,-1.09567e+08,-2.4821e+09,-1.36553e+09,-7.35311e+09,-1.07992e+09,-6.46473e+09,-5.33452e+09,-2.54074e+09,-2.85067e+09,-4.33191e+09,-7.86862e+10,-8.76193e+09
0,6.34904e+09,-1.27398e+09,1.40808e+09,1.04201e+10,2.70763e+09,2.81014e+09,-1.718e+09,-8.40158e+09,-1.38803e+10,-3.96746e+09,6.42844e+08,1.09606e+08,-8.2e+09,-1.67196e+10,-7.084e+09,1.91754e+09,1.321e+10,0,3.1475e+09,-1.20542e+10,1.57459e+09,1.0995e+10,1.9219e+10,3.87574e+09,7.69866e+08,-4.64661e+09,-1.31516e+10,-1.89771e+09,1.45002e+09,8.04173e+09,-4.07402e+09,2.0102e+09,0,-1.02126e+10,3.89575e+08,3.82007e+09,3.18307e+09,1.71272e+09,1.26026e+10,6.80755e+09,1.4903e+10,-1.16421e+10,1.28004e+09,3.12644e+09,9.22946e+07,1.38463e+09,-1.59695e+09,5.6788e+09,5.19358e+08,5.20669e+09,0,1.06893e+09,5.40911e+09,-1.66288e+09,-8.46748e+09,1.05319e+10,6.14103e+07,7.80934e+08,1.57701e+09,-5.97699e+09,-9.93718e+09,-1.60589e+10,1.42151e+09,6.56278e+09,-3.6336e+10,0,-5.70866e+09,-7.5025e+09,-1.3766e+10,-5.58591e+09,6.22474e+09,-4.50158e+09,-1.58342e+09,7.25239e+09,-6.8331e+09,3.18037e+08,5.86859e+09,2.30878e+08,-7.2195e+09,1.24533e+10,-1.30304e+10,9.35645e+09,2.50685e+08,0,1.67031e+09,-1.51769e+09,2.1784e+09,6.2674e+09,9.71112e+09,-4.59543e+09,1.34202e+09,6.85581e+09,-3.84439e+09,4.83216e+09,5.19565e+09,9.39162e+09,-6.3074e+09,-9.09541e+09,0,0,0,0,0,0,0,0,0,0,0,0,0,0,0,0,0,0,0,0,0,0,0,0,0,0,0,0,0,0,0,0,0,0,3.19459e+09,8.20007e+09,-8.20506e+09,1.25354e+10,-4.07425e+09,-2.07227e+10,4.22379e+09,1.14982e+10,-9.39564e+09,-1.04547e+10,1.4463e+10,3.51991e+09,-4.05355e+09,-1.78708e+09,-4.74738e+09,-1.01093e+10,-1.11406e+09,1.44128e+07,5.61836e+09,2.59273e+09,1.29538e+10,-5.88114e+09,6.14698e+09,6.95524e+08,3.17606e+09,-5.03209e+09,3.56191e+09,-1.37701e+10,4.79264e+08,-2.68913e+10,-5.37343e+09,5.88107e+09,0,-2.51679e+11,-1.44331e+11,-7.05094e+10,-3.95553e+10,-4.72219e+10,-3.08422e+10,-2.09706e+10,1.10347e+08,-8.86526e+09,-1.10834e+10,-1.94669e+10,-1.15054e+10,-2.70703e+09,-4.04062e+09,-9.87513e+09,-2.27253e+10,-2.41042e+10,-5.20584e+09,-2.24123e+10,-1.00669e+10,-3.05326e+09,-3.96061e+10,-1.41877e+09,-2.6062e+10,-1.69129e+10,-4.67047e+10,-1.59518e+09,-3.25002e+10,-2.85481e+10,-1.29531e+10,-3.2226e+10,-3.28887e+10,0,-5.08138e+09,-5.08138e+09,-5.08138e+09,-5.08138e+09,-5.08138e+09,-5.08138e+09,-5.08138e+09,2.53623e+09,-6.68233e+09,-2.38934e+09,8.63055e+08,-7.55275e+08,-2.07954e+09,-9.811e+08,-2.90581e+09,-2.10412e+09,-3.45465e+08,-5.19143e+08,-1.16542e+09,-1.56369e+09,1.19906e+09,-4.96529e+09,5.47742e+09,-2.6027e+09,-1.06255e+09,-4.79506e+09,-1.84728e+09,-5.3273e+09,-5.08138e+09,-2.09896e+09,-4.14181e+09,-7.47596e+09,-7.49738e+10,3.16842e+09
0,-1.08993e+10,-4.88955e+09,-1.3955e+10,-4.94445e+09,-6.8095e+09,-8.70295e+09,-1.62548e+09,2.62694e+06,-1.19521e+09,2.22069e+06,399998,0,2.28012e+06,973255,-8.98462e+09,0,540316,34699,0,-2.9568e+09,-1.67023e+09,1.33006e+07,1.0388e+08,6.67801e+06,-1.18027e+09,1.51136e+06,-9.18791e+08,2.70158e+06,-2.58782e+09,-8.25024e+08,540316,101516,0,-7.70543e+08,329666,1.0303e+06,-1.63395e+09,-7.21157e+09,-8.09976e+09,-7.74011e+08,110421,3.44943e+06,0,-2.08212e+08,0,194121,0,-2.08231e+08,-1.18109e+09,0,21610,0,0,0,-1.09518e+09,3.39531e+06,0,0,0,1.33418e+06,0,-2.8691e+09,1.00621e+08,0,-1.18091e+09,0,-5.97159e+09,-2.7149e+09,-4.36999e+09,-4.29936e+09,-3.02956e+09,-3.52948e+09,-4.16535e+08,1.24607e+06,9.73028e+07,-5.13553e+08,0,0,194121,0,-4.12645e+08,1.14006e+06,0,0,0,-3.34707e+09,9.72022e+07,-3.24489e+09,2.94946e+08,1.94404e+08,-2.10102e+08,1.14006e+06,571920,0,-1.78331e+09,8.51551e+07,0,0,0,0,0,0,0,0,0,0,0,0,0,0,0,0,0,0,0,0,0,0,0,0,0,0,0,0,0,0,0,0,0,0,0,0,-1.79603e+10,-1.20408e+10,-1.01712e+10,-1.15327e+10,-9.42959e+09,-1.28655e+10,-2.81933e+09,-2.73038e+09,1.19406e+06,-2.02708e+09,-2.07722e+08,0,-5.12413e+08,1.51258e+06,-1.46707e+10,-1.67254e+09,0,0,0,-1.2869e+10,-4.91987e+09,-7.20022e+09,4.02269e+08,2.01082e+08,-2.09812e+08,1.71173e+06,-1.12747e+09,0,-5.5535e+09,-1.03903e+09,43015,-2.37643e+09,0,-2.31978e+11,-1.17845e+11,-7.22949e+10,-3.36746e+10,-1.37151e+10,-6.99767e+09,-4.46094e+10,-1.78836e+10,-2.67968e+10,-3.48087e+10,-1.73905e+10,-5.64182e+09,-4.61101e+09,-5.13491e+09,-2.34395e+10,-3.85172e+10,-1.39027e+10,-1.53388e+10,-1.13129e+10,-1.51709e+10,-9.21549e+09,-1.61199e+10,-9.44847e+09,6.05727e+08,-1.65336e+10,-8.6626e+09,-1.55456e+10,-3.10958e+10,-3.75512e+10,6.03383e+08,-3.55051e+09,-1.9011e+10,0,-5.02442e+09,-5.02442e+09,-5.02442e+09,-5.02442e+09,-5.02442e+09,-5.02442e+09,-5.02442e+09,-2.061e+09,-2.78898e+09,-3.73471e+09,-1.7806e+09,-5.64182e+08,-5.12076e+08,-5.13243e+08,-4.77157e+09,-4.25652e+09,-1.39022e+09,-1.53388e+09,-2.18682e+09,-3.43438e+09,-1.57084e+09,-2.76468e+09,-1.0805e+09,1.00789e+08,-1.80332e+09,-8.65824e+08,-1.759e+09,-3.10931e+09,-5.02442e+09,-1.07489e+08,-3.54993e+08,-2.37638e+09,-9.7525e+10,-2.13788e+09
0,-3.19377e+09,5.66406e+09,-1.39374e+10,1.91859e+09,-1.31403e+09,2.37403e+07,-3.30534e+09,1.75458e+09,-6.63554e+08,1.05158e+07,2.38964e+09,1.35042e+08,-5.17865e+09,-1.13732e+10,6.3214e+08,1.81467e+06,0,-78298,0,-2.70343e+09,1.70811e+09,-1.95614e+09,3.42147e+08,-2.23741e+09,1.18143e+09,2.57162e+06,7.24246e+08,-1.68977e+10,2.55057e+09,1.18187e+09,0,-4.46026e+09,0,-2.21711e+09,-6.66787e+08,-5.92375e+09,-3.48877e+09,4.77959e+07,-7.2718e+09,-2.6567e+09,1.13795e+09,5.76536e+08,6.02782e+06,27512,25465,4.55477e+08,-4.27916e+09,2.06773e+09,1.18143e+09,0,9.06835e+08,0,3.52464e+09,-4.97596e+08,-1.27734e+09,-1.11878e+09,2.70553e+06,2.3481e+06,-5.63267e+09,2.92116e+08,68677,-7.3181e+09,3.54979e+07,0,2.21979e+09,0,-1.67548e+10,-4.45834e+09,-1.5954e+09,-3.06001e+09,2.39711e+09,-9.32447e+08,-3.55136e+09,2.49523e+08,-4.84906e+08,1.43514e+07,-2.1858e+09,0,-8.6345e+08,7.07866e+08,-1.5977e+10,3.69514e+06,2.64193e+06,0,-3.71674e+08,8.32033e+08,-1.35113e+09,-8.46914e+08,9.03985e+08,2.70552e+06,0,5.00071e+06,-8.12017e+08,2.29535e+06,-2.85276e+09,-6.19209e+09,0,1.51539e+08,0,0,0,0,0,0,0,0,0,0,0,0,0,0,0,0,0,0,0,0,0,0,0,0,0,0,0,0,0,0,0,0,0,0,-9.16284e+09,-3.90598e+09,-3.69844e+09,1.25253e+09,-1.07051e+09,5.16861e+09,-6.3613e+09,1.49387e+09,417286,-2.4589e+09,1.70275e+09,1.72745e+09,-9.9338e+09,-2.33829e+10,-2.00495e+09,-2.07926e+08,-8.60694e+08,0,1.13406e+09,-7.15925e+09,-2.56919e+09,-5.0554e+09,3.25279e+09,-2.2263e+09,3.05132e+08,-5.69372e+08,-6.80022e+08,-1.18812e+10,-5.10113e+09,-5.44406e+09,1.17839e+09,-2.11899e+09,0,-2.32472e+11,-1.49096e+11,-7.81363e+10,-4.21604e+10,-4.10235e+10,-3.79512e+10,-3.5811e+10,-2.48923e+09,-5.6895e+09,-1.47353e+10,-2.88412e+10,-1.17368e+09,-1.64947e+10,-1.065e+10,8.03545e+09,-3.66423e+10,4.19138e+09,-1.38274e+10,-1.03027e+10,-2.19298e+09,-6.36193e+09,-5.08107e+10,-1.04089e+10,-1.3483e+10,3.81509e+09,-2.77103e+10,-7.4557e+09,-2.9701e+10,-3.84978e+10,-1.20609e+10,-1.49217e+10,-2.66804e+10,0,-5.12039e+09,-5.12039e+09,-5.12039e+09,-5.12039e+09,-5.12039e+09,-5.12039e+09,-5.12039e+09,2.14668e+08,-5.77174e+08,-1.71633e+09,-3.25671e+09,6.8883e+07,-3.20152e+09,-4.89775e+09,-7.24665e+08,-3.63423e+09,3.33337e+08,-1.29207e+09,-7.34305e+08,-7.69898e+08,-9.07174e+08,-5.99465e+09,-8.7859e+08,-1.79391e+09,5.304e+08,-3.39048e+09,-7.93137e+08,-5.84775e+09,-5.12039e+09,-2.24797e+09,-1.37433e+09,-3.19812e+09,-8.63443e+10,-6.26063e+09
0,1.23086e+09,-9.65595e+09,-5.45513e+09,-4.37982e+08,7.29208e+09,-5.51238e+09,-9.60777e+09,5.78157e+08,-5.13851e+08,1.82268e+08,-2.64903e+09,0,-1.31924e+09,-4.82976e+08,5.60082e+07,53433,1.6585e+09,0,0,-1.46249e+10,-1.56787e+08,2.78915e+09,-9.67443e+08,1.08098e+09,7.83215e+08,-1.10565e+09,6.20552e+09,1.02388e+10,-1.37767e+10,8.10886e+08,-2.85803e+08,-6.71192e+09,0,-5.68386e+09,4.6717e+09,-2.15844e+10,-7.16086e+09,-2.07011e+09,2.67614e+09,6.70375e+09,-6.47152e+08,2.72434e+08,1.58972e+08,2.13725e+08,0,2.09952e+09,1.40116e+09,3.30215e+08,0,2.31821e+08,0,1.10092e+09,1.02048e+10,1.44844e+08,-2.56864e+09,-63898,1.70788e+08,1.68952e+07,0,-1.21535e+10,-1.16132e+09,2.31096e+09,-2.55331e+09,2.69294e+09,-3.60218e+09,0,-8.21355e+09,-8.4526e+09,-1.0075e+10,-8.61587e+09,1.06272e+09,2.95089e+09,-7.4832e+09,2.69613e+09,4.09236e+09,1.54456e+08,9.57771e+08,0,3.08269e+09,3.52192e+08,6.76101e+09,-1.42236e+09,3.6879e+08,0,6.70443e+08,4.81412e+08,6.70443e+08,1.9763e+09,-5.36129e+08,0,-5.6412e+08,3.71555e+09,-7.30132e+09,-6.87136e+09,7.57964e+09,-3.92082e+09,1.73707e+07,4.35356e+09,0,0,0,0,0,0,0,0,0,0,0,0,0,0,0,0,0,0,0,0,0,0,0,0,0,0,0,0,0,0,0,0,0,0,1.27123e+09,-2.22672e+09,-2.06645e+09,2.7653e+09,-3.37162e+09,-1.08603e+10,1.56727e+09,5.03744e+09,3.06715e+09,-1.07523e+10,1.17008e+09,106935,1.00915e+09,7.90009e+09,4.69537e+08,-1.42233e+09,-1.34316e+09,0,0,-1.05275e+09,-9.97792e+08,6.86502e+08,-9.37887e+08,-1.51485e+09,-1.07526e+09,-5.00365e+09,-1.05827e+10,2.55551e+09,-4.65954e+09,-3.93947e+10,-1.25211e+09,-6.79105e+09,0,-2.45942e+11,-1.40074e+11,-6.91378e+10,-4.21548e+10,-4.55032e+10,-3.18445e+10,-1.01919e+10,-2.44744e+09,-9.80519e+09,-1.01016e+10,-2.17557e+10,-1.03589e+10,-4.1622e+09,-6.61434e+09,-8.63936e+09,-1.6335e+10,-2.41365e+10,-8.74344e+08,-2.70817e+10,-3.59431e+09,-3.0307e+09,-3.67163e+10,-2.52455e+09,-2.40875e+10,-1.84308e+10,-4.16711e+10,-2.94371e+10,-3.08384e+10,-4.47794e+10,-1.28497e+10,-3.26431e+10,-4.35817e+10,0,-5.32377e+09,-5.32377e+09,-5.32377e+09,-5.32377e+09,-5.32377e+09,-5.32377e+09,-5.32377e+09,5.21715e+08,-2.88616e+08,-2.03582e+09,-2.19173e+09,-1.03588e+09,7.09923e+07,2.55613e+08,-1.02259e+08,-1.91797e+09,-2.32206e+09,-8.74344e+07,-2.4333e+09,-8.5858e+08,-3.36999e+08,-3.38326e+09,-6.20758e+08,-2.43506e+09,-1.927e+09,-4.40648e+09,-5.32377e+09,-2.60767e+09,-5.32377e+09,-5.79076e+09,-3.14707e+09,-5.50976e+09,-6.87572e+10,8.10377e+09
0,-3.12909e+09,2.86818e+09,-6.15853e+09,-8.47577e+09,-1.74318e+08,1.05426e+09,-3.56219e+09,-6.6233e+09,-6.31031e+08,-1.12126e+09,-3.01967e+08,0,2.44122e+09,-2.00495e+09,-4.20001e+08,-4.25851e+08,2.35022e+09,-6.47509e+06,-1.06274e+06,-1.05047e+08,-7.40621e+07,-1.42454e+09,-6.65862e+06,-9638,1.65248e+08,-1.75341e+09,1.98776e+06,1.91556e+08,1.96908e+09,-1.87945e+09,-30093,-3.46181e+09,0,2.26075e+09,-7.82499e+09,-4.04707e+09,3.99984e+09,1.1193e+09,-1.23702e+09,-1.1258e+09,-1.11274e+10,-2.71447e+08,1.58903e+08,-3.8669e+08,0,2.65814e+09,-4.69901e+09,2.33695e+09,-7.2846e+07,-4.33754e+08,-99007,1.97774e+09,3.64893e+09,0,1.82922e+09,0,-584656,-2.71085e+06,0,-1.21098e+08,-1.07287e+09,-8.4135e+09,-3.85714e+09,0,-5.67845e+08,0,-1.56776e+09,-5.74524e+09,2.02513e+08,-2.25831e+09,3.86748e+09,-3.51939e+09,-5.9435e+09,-4.19498e+09,3.36705e+09,-2.93182e+09,-4.94979e+08,2.20043e+08,-5.48297e+09,-1.55677e+09,6.5323e+08,-182105,2.29363e+08,0,-1.45807e+07,-7.50001e+09,-3.69626e+08,-1.20743e+09,-3.56404e+08,-369913,-7.25879e+06,1.01039e+09,1.20936e+08,-9.00545e+07,1.44726e+09,3.47974e+09,-356711,4.0672e+08,0,0,0,0,0,0,0,0,0,0,0,0,0,0,0,0,0,0,0,0,0,0,0,0,0,0,0,0,0,0,0,0,0,0,2.82832e+09,-4.3481e+09,-1.06016e+10,-1.25359e+09,-2.61347e+08,-1.26932e+10,5.88731e+09,-1.18462e+10,-3.97633e+09,-1.25686e+08,-1.85766e+09,0,4.82564e+08,-6.63425e+09,-4.19329e+09,4.53337e+08,-3.03849e+08,-162825,1.91537e+08,-2.17801e+09,1.85359e+09,-2.01884e+09,-3.5382e+08,-2.4063e+09,0,-1.47947e+09,-4.80392e+09,-1.96708e+08,-3.33947e+09,-1.31044e+10,-1.14825e+09,-2.53136e+09,0,-2.44929e+11,-1.42407e+11,-8.1022e+10,-4.2987e+10,-4.61901e+10,-2.33248e+10,-3.17736e+10,-1.82569e+10,-5.98907e+09,-1.93487e+09,-2.03683e+10,-3.86266e+09,-1.07514e+10,-3.44786e+09,-1.05996e+10,-2.14627e+10,-1.79888e+10,-4.8082e+09,-2.12283e+10,-4.84845e+09,6.09165e+09,-3.31018e+10,-2.63707e+09,-2.10436e+10,-1.4418e+10,-4.24786e+10,-1.63084e+10,-2.47469e+10,-4.37121e+10,-1.01392e+10,-2.65652e+10,-2.86765e+10,0,-5.20487e+09,-5.20487e+09,-5.20487e+09,-5.20487e+09,-5.20487e+09,-5.20487e+09,-5.20487e+09,-5.20487e+09,-7.5994e+08,-6.90459e+08,-2.44142e+09,-3.64262e+08,-1.06525e+09,-1.83428e+09,-1.22227e+09,-2.15083e+09,-1.67502e+09,-4.81494e+08,-2.68013e+09,-1.09826e+09,7.50156e+08,-3.55487e+09,-4.19244e+08,-2.25872e+09,-1.42627e+09,-4.47011e+09,-2.11105e+09,-2.5915e+09,-5.20487e+09,-2.55004e+09,-2.77138e+09,-3.77235e+09,-7.93018e+10,3.48746e+08
0,1.02342e+09,1.51182e+09,-2.36675e+09,6.4423e+09,-1.23857e+09,3.70154e+09,-2.43984e+09,1.75567e+09,-1.51108e+10,5.32893e+08,-1.98801e+09,0,-6.88118e+08,-4.88572e+09,-6.21988e+09,-1.2377e+09,-1.01353e+09,0,1.17718e+08,-4.58195e+09,1.48412e+09,-4.03745e+09,-1.23749e+06,-2.67978e+08,0,3.13361e+09,2.29189e+08,-1.90617e+09,-9.02094e+08,2.09164e+09,0,-1.82107e+09,0,-6.60029e+09,5.1091e+09,-5.01942e+09,-5.01226e+09,-9.96921e+07,1.64473e+09,-2.29979e+09,-4.27806e+09,-3.72266e+09,1.31981e+09,3.46506e+08,23957,-1.7196e+09,-4.38278e+08,-4.81225e+09,2.32228e+07,-1.13191e+06,0,-3.75012e+08,-3.47995e+09,2.04355e+09,1.60928e+09,-320241,2.24749e+09,0,0,-8.77908e+07,-1.42895e+09,2.37106e+09,-6.59196e+09,0,1.50606e+07,0,-1.07503e+10,-3.62597e+09,-8.90517e+09,-3.31748e+09,-1.80104e+09,-1.06303e+09,-3.07898e+09,2.27303e+08,-4.97389e+08,-3.92011e+09,1.51011e+07,0,-9.83504e+08,-5.83394e+09,-4.19971e+08,-1.6721e+09,-5.05859e+08,0,-3.36352e+06,-3.4739e+09,-1.53302e+09,-2.60892e+08,-7.79196e+06,-4.25139e+08,0,-1.32435e+09,1.35828e+09,-2.76749e+08,-9.67081e+09,3.31743e+09,0,-1.33663e+09,0,0,0,0,0,0,0,0,0,0,0,0,0,0,0,0,0,0,0,0,0,0,0,0,0,0,0,0,0,0,0,0,0,0,-2.34675e+09,-5.47444e+09,-1.39997e+10,2.26213e+09,2.01134e+09,-1.70132e+10,-1.02653e+09,1.56137e+09,-6.28446e+09,6.13542e+09,-1.78488e+09,-1.07297e+09,1.53441e+09,4.58651e+09,-1.44767e+10,1.05119e+09,1.69447e+09,0,2.12615e+09,5.09896e+09,-2.70073e+08,-8.56585e+09,615205,1.45637e+08,-1.17542e+09,-5.72761e+09,-4.1173e+09,-2.00803e+09,-7.05597e+09,-1.54847e+10,9.16052e+08,-4.18425e+09,0,-2.43187e+11,-1.50015e+11,-7.05209e+10,-3.9603e+10,-4.07634e+10,-2.91629e+10,-3.0706e+10,4.08489e+09,-2.34387e+10,-1.27343e+10,-1.20226e+10,-1.45361e+10,-7.21291e+09,-4.33605e+09,-6.6799e+09,-1.87162e+10,-1.32921e+10,-5.21091e+09,-2.07476e+10,-5.11987e+09,-2.74223e+09,-2.94997e+10,-2.73383e+09,-1.98291e+10,-9.42465e+09,-4.61972e+10,-3.29851e+09,-3.04667e+10,-3.8367e+10,-1.67751e+10,-2.39542e+10,-2.4162e+10,0,-5.23642e+09,-5.23642e+09,-5.23642e+09,-5.23642e+09,-5.23642e+09,-5.23642e+09,-5.23642e+09,3.35118e+08,-5.23642e+09,-8.13114e+08,-1.44796e+09,-1.56091e+09,-9.06972e+08,-1.20829e+09,-3.26087e+09,-1.95365e+09,-1.53923e+09,-5.21091e+08,-1.83187e+09,-1.15567e+09,-1.01766e+08,-4.37434e+09,-3.42821e+08,-1.92401e+09,-1.06004e+09,-5.01155e+09,-7.03858e+08,-3.60867e+09,-5.23642e+09,-3.34427e+09,-2.30382e+09,-3.25176e+09,-8.35876e+10,2.06787e+08
0,4.04799e+09,-4.58847e+09,-1.37844e+10,2.55815e+08,-5.24728e+07,-5.54071e+09,5.4556e+08,-2.80482e+09,1.24241e+09,-9.3759e+09,1.71633e+09,1.69352e+08,-1.46724e+09,-1.1627e+09,-2.68096e+09,-3.06133e+08,-6.37682e+08,0,5.96611e+08,-2.40719e+09,-3.36052e+08,-2.8324e+07,0,-5.91377e+07,-1.18275e+08,1.16577e+09,2.00436e+09,-1.20646e+09,-1.11335e+09,-4.35419e+09,0,-4.73853e+09,0,-9.55833e+09,7.01367e+08,-4.94655e+09,3.71563e+09,0,-3.35733e+09,-9.34585e+08,-2.07375e+09,-2.88641e+09,1.89591e+09,0,1.22468e+09,9.77218e+08,-2.98239e+09,-4.33045e+08,0,0,0,5.96611e+08,-6.29066e+09,9.773e+08,1.7957e+09,0,0,0,0,-3.67392e+07,-5.72499e+08,-2.55894e+09,-7.52423e+09,0,3.57482e+09,0,-7.10439e+09,-3.59761e+09,-5.17841e+09,-4.19271e+09,2.53737e+09,-7.12651e+08,-5.81498e+09,-7.81733e+08,-2.74771e+09,-5.88922e+09,-1.35657e+09,-9.90583e+08,-5.68802e+08,-3.3645e+09,-4.57798e+09,-1.49625e+08,-3.71017e+08,0,-2.15657e+07,-8.98334e+08,8.11763e+08,-2.32208e+09,-4.32285e+08,0,0,3.97385e+09,1.89865e+09,-2.67329e+09,-3.20684e+09,-1.7988e+09,0,1.81695e+08,0,0,0,0,0,0,0,0,0,0,0,0,0,0,0,0,0,0,0,0,0,0,0,0,0,0,0,0,0,0,0,0,0,0,4.93719e+09,-2.80289e+09,-1.10206e+10,1.74928e+09,2.83098e+08,-5.44485e+09,-2.94841e+09,2.78634e+09,-4.34193e+09,-1.39335e+10,-1.05017e+09,-2.12848e+08,3.07079e+08,-6.53786e+09,7.59677e+08,-2.03664e+09,-1.01195e+09,0,0,-1.87227e+09,8.48981e+08,-2.32021e+09,-1.40785e+09,1.01194e+09,8.53887e+07,1.25082e+09,-4.22391e+09,-1.96975e+09,-5.71401e+09,-1.66508e+10,-5.65985e+08,-3.8075e+09,0,-2.44855e+11,-1.50133e+11,-7.4655e+10,-3.75672e+10,-4.57167e+10,-2.78932e+10,-2.34855e+10,3.48771e+09,-1.2599e+10,-2.43749e+10,-1.72721e+10,-8.92354e+09,-7.72845e+08,1.91404e+09,-1.0033e+10,-2.18166e+10,-1.86127e+10,-2.93265e+09,-2.02777e+10,-3.68336e+09,-5.8442e+09,-4.10454e+10,-1.09783e+08,-2.3481e+10,-1.68782e+10,-4.03209e+10,-2.1413e+08,-3.11124e+10,-4.1454e+10,-1.43913e+10,-2.90423e+10,-3.19733e+10,0,-5.36859e+09,-5.36859e+09,-5.36859e+09,-5.36859e+09,-5.36859e+09,-5.36859e+09,-5.36859e+09,6.13738e+07,-2.14436e+09,-5.36859e+09,-1.82545e+09,-8.73293e+08,-1.52459e+08,-1.21334e+09,-1.69653e+09,-2.4309e+09,-2.06368e+09,-2.93265e+08,-1.29081e+09,-1.51518e+09,-3.54221e+08,-4.54051e+09,-2.43739e+08,-2.25282e+09,-1.69111e+09,-3.39304e+09,-5.71768e+07,-3.75344e+09,-5.36859e+09,-4.47193e+09,-2.96083e+09,-3.792e+09,-7.80487e+10,-3.43879e+09
0,3.5377e+09,-4.06463e+09,-1.9365e+09,-5.29814e+09,4.32653e+07,-3.98416e+09,-4.85548e+09,-1.73817e+09,2.04514e+09,1.34329e+09,-7.68373e+08,0,-1.65532e+09,-6.2165e+06,-2.72485e+09,-7.68373e+08,0,0,0,2.95979e+08,-1.28673e+09,-1.38445e+09,0,-3.59863e+09,0,1.44516e+09,2.4244e+07,2.79844e+08,-6.3849e+07,3.2828e+09,0,2.67097e+08,0,-1.10785e+10,3.62761e+09,-1.32823e+09,-1.62715e+09,-1.39186e+08,-8.13156e+07,-2.21762e+09,7.85177e+08,8.13146e+08,0,-5.21005e+09,0,1.55331e+09,-4.60074e+09,-1.94458e+09,0,0,0,0,-1.35112e+09,-9.10041e+06,1.79659e+09,0,3.0476e+09,-4.32324e+07,0,3.81188e+08,1.18764e+06,-1.98176e+09,-5.10211e+09,-1.29126e+09,-1.68771e+09,0,-1.02274e+10,-7.17427e+09,-1.73083e+09,-5.98859e+09,-1.45667e+08,-5.97664e+09,-3.11975e+09,1.84701e+09,-2.9674e+06,-2.22829e+09,0,0,-8.14236e+08,-1.24323e+09,5.32425e+09,0,-1.26943e+06,0,0,-4.48198e+09,-104976,2.10165e+08,0,0,262825,-1.59281e+09,-1.14114e+09,-1.58668e+09,-3.53671e+09,-5.29272e+09,-4.32324e+07,-8.39126e+08,0,0,0,0,0,0,0,0,0,0,0,0,0,0,0,0,0,0,0,0,0,0,0,0,0,0,0,0,0,0,0,0,0,0,-1.21443e+10,-8.36222e+09,-5.46904e+09,-1.37927e+09,-1.10418e+08,-7.27851e+09,-1.89384e+09,-6.0913e+09,-1.96537e+09,8.48225e+08,2.48377e+08,4.19071e+08,-3.17925e+09,-2.0606e+09,-1.04529e+10,9.44127e+08,-3.39142e+08,0,-8.12559e+07,-1.89031e+09,-1.65496e+08,-4.30383e+09,0,1.89157e+06,-6647,-5.72912e+09,-1.54734e+09,-4.66515e+09,-6.00548e+09,-1.21276e+10,0,-3.75445e+09,0,-2.39843e+11,-1.38904e+11,-9.37382e+10,-4.02613e+10,-4.13284e+10,-2.43597e+10,-3.82179e+10,-8.79199e+09,-4.51377e+09,-3.39003e+09,-4.52356e+10,-1.07472e+10,-9.73046e+09,-1.03709e+10,-8.99162e+09,-1.33175e+10,-3.12252e+10,-1.14098e+10,-1.18824e+10,-5.22291e+09,-6.75504e+08,-2.09591e+10,1.78662e+09,-2.75935e+10,-1.79272e+10,-4.29106e+10,-1.38744e+10,-2.96977e+10,-4.01873e+10,1.9091e+09,-2.17745e+10,-3.15303e+10,0,-5.21005e+09,-5.21005e+09,-5.21005e+09,-5.21005e+09,-5.21005e+09,-5.21005e+09,-5.21005e+09,-1.39893e+09,-3.62382e+08,-3.42681e+08,-5.21005e+09,-1.03281e+09,-1.3826e+09,-1.82817e+09,-1.87897e+09,-1.31418e+09,-3.31574e+09,-1.14098e+09,-1.33316e+09,-1.26503e+09,-2.13694e+08,-2.46407e+09,2.23327e+08,-2.97355e+09,-1.79702e+09,-4.87873e+09,-1.61575e+09,-3.56685e+09,-5.21005e+09,-1.73306e+09,-2.3109e+09,-3.75445e+09,-6.6664e+10,-2.85947e+09
0,-1.34375e+10,-3.45459e+09,-4.70366e+09,-6.69309e+09,-2.08397e+09,159858,-4.73725e+08,586110,0,-3.19452e+09,0,-1.0712e+09,-1.12735e+09,-4.0777e+09,-8.41966e+07,0,-5.95589e+08,0,0,1.50267e+09,7.94577e+08,-1.82144e+09,-5.84707e+09,0,0,0,-2.36862e+08,0,-2.55378e+09,-4.68316e+09,-1.38931e+09,-2.0337e+09,0,-8.7068e+09,-2.25454e+09,2.00698e+07,-2.10203e+09,0,0,0,0,3.03657e+07,-2.07398e+09,0,-5.03823e+09,-2.30643e+08,-5.95589e+08,7.94577e+08,0,373542,0,0,110638,2.27217e+08,-1.35287e+09,-6.94112e+08,0,0,0,0,0,-1.02959e+07,-3.19436e+09,0,-1.02959e+07,0,-7.42776e+09,-2.34549e+09,484180,-1.5689e+09,-6.94112e+08,-2.54656e+08,-9.47449e+08,6.21974e+06,0,-5.95367e+08,-8.49959e+07,-9.05177e+08,-3.21858e+08,-1.42804e+09,-8.49959e+07,0,0,0,-8.49959e+07,-1.06859e+09,-1.69134e+08,-1.37767e+09,-1.50031e+09,0,0,0,0,0,0,-1.78498e+09,0,0,0,0,0,0,0,0,0,0,0,0,0,0,0,0,0,0,0,0,0,0,0,0,0,0,0,0,0,0,0,0,0,0,0,0,-2.5124e+10,-5.37267e+09,-8.34266e+09,-1.37653e+10,-2.77838e+09,-1.47368e+09,-7.10587e+08,-2.24226e+09,0,-3.23518e+09,-1.00148e+08,0,-9.95945e+08,-3.11331e+09,1.16417e+09,-7.79653e+08,-5.95589e+08,0,0,-1.03156e+09,1.18964e+06,-2.92235e+09,-1.37068e+09,0,0,0,-4.73725e+08,-1.19048e+09,-6.7626e+09,-1.36963e+10,-6.94657e+08,-2.73866e+09,0,-2.27663e+11,-1.37719e+11,-8.70437e+10,-3.82295e+10,-3.47492e+10,-3.85775e+10,-4.82503e+10,-1.13445e+10,-2.04704e+10,-2.53833e+10,-2.37199e+10,-4.33675e+10,-1.43665e+10,-2.64964e+10,1.33417e+09,-2.3213e+10,-1.40765e+10,-1.94907e+10,-2.76416e+10,1.35197e+09,2.27472e+09,-1.7268e+10,-1.03834e+10,6.44038e+06,-2.87645e+10,-1.12113e+10,-1.65804e+09,-1.13483e+10,-4.10554e+10,-1.42419e+10,-4.86149e+09,-2.26039e+10,0,-5.03821e+09,-5.03821e+09,-5.03821e+09,-5.03821e+09,-5.03821e+09,-5.03821e+09,-5.03821e+09,-1.35799e+09,-2.044e+09,-3.44824e+09,-2.3905e+09,-5.03821e+09,-1.70423e+09,-3.57111e+09,3.12372e+08,-2.39926e+09,-1.52673e+09,-1.94907e+09,-2.98556e+09,7.54608e+07,3.12857e+08,-2.47424e+09,-2.47445e+09,644038,-2.87645e+09,-1.12113e+09,-2.36862e+08,-1.25388e+09,-5.03821e+09,-3.76007e+09,-6.94547e+08,-2.73866e+09,-6.47296e+10,-4.20587e+09
0,1.19594e+09,-9.4479e+09,-5.21775e+09,-3.70945e+09,-218090,1.07147e+09,-3.48346e+09,-1.21816e+09,-2.13289e+08,-1.44221e+07,-1.91905e+09,0,1.91127e+09,-3.2751e+09,3.54375e+09,-1.62653e+08,-1.22541e+08,0,-2.42937e+07,-6.17334e+09,-6.51777e+08,-5.16002e+09,2.34282e+09,-2.74572e+09,0,-1.01804e+09,9.22102e+08,-5.27118e+09,-3.6905e+09,1.87616e+09,0,-5.15628e+09,0,-6.20488e+09,2.70708e+09,-7.90265e+09,-2.02777e+09,-1.13425e+06,9.39017e+08,-2.15932e+09,-1.77405e+09,9.96532e+08,-1.04545e+09,-1.73469e+09,5.79014e+08,-6.05641e+09,-3.1325e+09,-2.11846e+09,6.30664e+07,1.15917e+09,0,0,3.58968e+09,2.86462e+06,-1.40001e+09,-3.62586e+08,7.36797e+08,0,0,2.10552e+08,-1.15513e+09,-2.75932e+08,-8.94052e+09,0,3.0626e+09,0,-7.7847e+09,-2.45221e+09,-5.88251e+09,-7.69046e+09,-3.67926e+09,-6.69261e+09,-1.45385e+10,-1.3179e+09,-1.97966e+09,-15486,1.62072e+09,0,-3.10461e+09,-3.55341e+08,4.0499e+08,-9.47673e+08,0,0,0,3.57013e+09,0,-5.2666e+08,2.6307e+09,-8.23101e+07,0,-3.13244e+09,-1.32739e+09,-5.70759e+08,1.35283e+08,-2.69076e+09,0,-8.98327e+08,0,0,0,0,0,0,0,0,0,0,0,0,0,0,0,0,0,0,0,0,0,0,0,0,0,0,0,0,0,0,0,0,0,0,-4.69587e+09,-3.78039e+08,-8.81563e+09,-1.96545e+09,-3.88209e+07,-1.01374e+10,2.74036e+09,2.53233e+09,-1.15824e+09,1.04996e+08,-2.92994e+09,0,-9.77828e+09,-9.21358e+09,-6.72398e+09,2.53647e+08,-1.69227e+09,0,-1.20993e+09,-1.24935e+09,-8.07804e+08,-1.68185e+09,-2.5423e+09,-1.54894e+09,0,-6.56514e+09,-1.12457e+09,-3.81394e+09,2.5943e+08,-1.48554e+10,0,-2.26152e+09,0,-2.43997e+11,-1.46911e+11,-7.50794e+10,-3.7785e+10,-3.78191e+10,-2.6719e+10,-3.29325e+10,4.60346e+09,-1.712e+10,-9.08149e+09,-2.29423e+10,-1.05763e+10,-3.48952e+10,-8.56194e+08,-7.57733e+09,-1.5781e+10,-1.20176e+10,-1.00923e+10,-1.85987e+10,-1.10013e+10,-3.35757e+09,-3.50164e+10,1.33091e+09,-1.56312e+10,-1.05084e+10,-3.46262e+10,-3.65669e+09,-3.2445e+10,-4.83504e+10,-7.62669e+09,-1.64453e+10,-3.0848e+10,0,-5.19232e+09,-5.19232e+09,-5.19232e+09,-5.19232e+09,-5.19232e+09,-5.19232e+09,-5.19232e+09,2.82569e+08,-1.94853e+09,-1.00547e+09,-2.87323e+09,-9.99729e+08,-5.19232e+09,-1.68327e+09,-1.2471e+09,-1.65746e+09,-1.29873e+09,-1.00923e+09,-1.71223e+09,-1.12642e+09,-4.81437e+08,-4.37849e+09,4.24944e+08,-1.92714e+09,-1.05084e+09,-4.53419e+09,-4.97599e+08,-4.3256e+09,-5.19232e+09,-3.22372e+09,-1.64453e+09,-3.62113e+09,-7.89764e+10,1.68533e+09
0,8.94377e+09,1.20176e+07,-1.83e+10,-1.00095e+10,-4.09676e+08,-1.95522e+09,-3.83337e+09,3.80426e+09,5.3807e+09,3.97799e+09,-2.54017e+09,3.26865e+08,-7.95365e+09,-1.60399e+10,-4.53731e+08,-1.41937e+09,1.57084e+09,0,-1.28754e+09,-3.31449e+09,2.15684e+08,4.80437e+09,-3.25611e+07,2.22171e+06,-2.93518e+08,-3.3783e+09,6.1881e+08,-1.18216e+10,6.76677e+09,-2.78454e+09,0,-1.15945e+10,0,1.15441e+10,-6.01996e+09,-3.06977e+09,3.9139e+09,-1.84143e+08,-4.87643e+09,-1.26559e+09,-6.32852e+09,-6.28523e+08,-2.50438e+08,4.13371e+09,-4.83511e+08,-2.34955e+09,3.53543e+09,-1.40275e+09,1.20041e+09,-3.6638e+09,-476460,-4.65991e+09,-2.8167e+09,-8.65041e+07,-4.11196e+07,-785865,0,0,-6.17404e+09,-5.71246e+09,-2.02743e+09,-1.2881e+10,-5.48012e+09,0,1.32137e+10,0,-8.50144e+09,-3.38631e+07,-3.80677e+09,-2.58561e+09,3.84196e+08,9.13036e+08,-8.71997e+09,-9.58411e+08,-3.3193e+09,7.9426e+09,-9.58522e+08,1.39263e+09,6.54429e+08,-2.2637e+09,-1.50826e+09,7.9211e+08,5.70661e+08,0,-1.30115e+07,2.7769e+09,1.59566e+08,2.51404e+09,6.92655e+08,-3.70198e+08,6.87413e+06,-5.04566e+08,2.49935e+09,-2.44799e+09,-2.79907e+09,3.37389e+09,0,-4.32839e+09,0,0,0,0,0,0,0,0,0,0,0,0,0,0,0,0,0,0,0,0,0,0,0,0,0,0,0,0,0,0,0,0,0,0,5.03664e+09,-9.77709e+09,-8.65753e+09,-5.60143e+09,-3.68094e+07,-4.51655e+09,-1.6298e+09,2.29416e+09,-3.00158e+09,1.77833e+08,-2.0513e+09,-2.53894e+09,-8.67698e+09,-2.13846e+10,-2.40847e+09,4.65663e+08,-5.41105e+09,0,6.31242e+08,6.91829e+08,1.45732e+09,5.32265e+08,4.41618e+09,-7.31917e+08,2.23582e+06,-5.75604e+09,-1.00062e+10,1.77021e+08,-2.59387e+09,-2.05991e+10,-5.2818e+06,-5.90951e+09,0,-2.43569e+11,-1.48378e+11,-7.38891e+10,-4.09394e+10,-4.30818e+10,-3.27619e+10,-2.874e+10,-1.15477e+09,-9.12185e+09,-9.22424e+09,-1.93108e+10,-7.00192e+09,-6.46071e+08,-1.79002e+10,-1.04523e+10,-1.77974e+10,-2.18221e+10,-7.72963e+09,-2.10281e+10,-6.75212e+09,1.28679e+09,-4.217e+10,1.59106e+09,-1.97016e+10,-1.36792e+10,-4.25766e+10,1.54331e+09,-3.12968e+10,-4.26531e+10,-8.44029e+09,-2.24047e+10,-3.31455e+10,0,-5.41603e+09,-5.41603e+09,-5.41603e+09,-5.41603e+09,-5.41603e+09,-5.41603e+09,-5.41603e+09,-2.34328e+08,-8.69841e+08,1.4685e+08,-2.54333e+09,-8.30487e+08,-1.89718e+09,-5.41603e+09,-1.62255e+09,-1.67585e+09,-2.96054e+09,-7.7301e+08,-2.10251e+09,-9.41458e+08,3.03286e+08,-3.43324e+09,9.59388e+08,-2.08015e+09,-1.39636e+09,-5.83898e+09,-1.10572e+09,-4.74168e+09,-5.41603e+09,-3.39301e+09,-2.24099e+09,-4.05653e+09,-8.3103e+10,-9.83159e+09
0,2.48516e+09,-2.39606e+09,-1.16076e+10,3.37056e+09,1.13366e+08,-4.51423e+09,-2.07105e+08,1.57881e+09,-1.94455e+09,-7.96786e+08,2.11503e+09,-1.70022e+07,8.67578e+08,-1.99111e+09,-2.2711e+09,3.11318e+08,-5.10838e+08,0,-2.53543e+08,-3.18361e+09,-1.51329e+09,1.62738e+08,-7796,-3.75636e+07,-2.95469e+08,-2.29824e+09,1.87213e+08,-207780,-1.63751e+09,-4.12841e+09,-8.99368e+08,-1.73684e+09,0,-7.87442e+09,1.61633e+09,-2.22944e+09,-2.96189e+09,-523676,1.02749e+09,-3.11941e+07,-2.50185e+09,-1.6241e+09,-9.45663e+08,-1.20252e+09,-3.27876e+08,-3.15509e+08,-1.8236e+09,-2.89578e+09,-6.49062e+07,0,0,0,-3.31543e+08,-5.80003e+08,1.74168e+08,0,0,-2.84598e+08,0,-8.89909e+08,-1.03368e+09,-1.13931e+09,-9.44247e+08,0,2.88341e+08,0,-5.12057e+09,-3.1156e+09,-3.22371e+09,-4.29807e+09,1.98675e+09,6.0684e+08,-3.16003e+09,-3.33755e+08,-6.1962e+08,-1.32867e+09,-3.4906e+08,-1.3715e+07,1.21246e+09,-1.23424e+09,-6.32498e+09,-1.15164e+09,-533201,0,-8.27404e+08,-7.14508e+07,-1.21353e+09,-2.54596e+09,-1.69358e+07,-629798,-113090,-6.60361e+08,-2.50779e+08,-1.26744e+09,-2.78909e+09,-2.80827e+09,0,-2.18662e+09,0,0,0,0,0,0,0,0,0,0,0,0,0,0,0,0,0,0,0,0,0,0,0,0,0,0,0,0,0,0,0,0,0,0,-7.89492e+09,-5.76049e+09,-1.1385e+10,7.71158e+07,2.74136e+09,-9.82258e+09,-6.79023e+08,-6.89612e+08,-4.01493e+09,-4.43417e+09,-1.37477e+09,8.63645e+08,-1.66974e+09,-6.40192e+09,-2.12384e+10,-3.59055e+08,1.62683e+09,0,1.34611e+09,1.49618e+09,3.32313e+09,-1.76033e+09,-3.07865e+09,-332225,-113090,-3.36599e+09,-3.38062e+09,-4.48741e+09,-4.33187e+09,-1.25059e+10,-1.61484e+08,-1.79672e+09,0,-2.44961e+11,-1.46791e+11,-7.70508e+10,-4.36455e+10,-4.6813e+10,-2.92695e+10,-2.95786e+10,2.71841e+09,-1.51576e+10,-1.32579e+10,-1.54937e+10,-1.10147e+10,5.44348e+09,-4.56877e+09,-1.97348e+10,-1.57842e+10,-1.46535e+10,-8.60584e+09,-1.45762e+10,-7.80193e+09,-1.23343e+09,-3.27088e+10,-4.51479e+09,-2.05084e+10,-1.24496e+10,-4.07864e+10,-8.51877e+09,-2.34228e+10,-4.25672e+10,-1.41141e+10,-2.75726e+10,-2.57018e+10,0,-5.2465e+09,-5.2465e+09,-5.2465e+09,-5.2465e+09,-5.2465e+09,-5.2465e+09,-5.2465e+09,7.72004e+07,-2.40332e+09,-2.07632e+09,-1.76592e+09,-1.05096e+09,5.53828e+08,-1.60217e+09,-5.2465e+09,-1.62282e+09,-1.57332e+09,-8.60584e+08,-1.69125e+09,-9.89235e+08,-1.21713e+08,-3.72366e+09,-1.079e+09,-2.16878e+09,-1.30299e+09,-4.7111e+09,-1.37273e+09,-3.02116e+09,-5.2465e+09,-3.45009e+09,-2.86335e+09,-3.15257e+09,-7.97317e+10,-2.49334e+09
0,-1.137e+10,1.50815e+09,-2.86965e+09,-4.32833e+09,1.62093e+08,-4.97865e+09,-5.55897e+09,-9.4231e+08,4.57531e+08,0,-582552,0,-1.2406e+09,429938,1.46112e+08,183270,0,0,0,1.60975e+08,0,-4.00713e+09,0,1.49144e+08,0,-1.39149e+09,-1.39032e+09,-1.09256e+09,-4.38417e+09,-4.52234e+09,0,-5.10196e+08,0,-6.23363e+09,-5.12142e+09,-1.68211e+09,-3.94962e+09,0,93577,-1.38974e+09,-3.67572e+08,30312,0,0,0,2.9455e+08,-1.10031e+09,4.37316e+08,-5.2172e+09,-83049,0,0,1.62093e+08,0,0,0,-582552,0,0,-1.38974e+09,-1.09219e+09,1.63014e+08,-1.39339e+09,0,-9.85002e+08,0,-7.78094e+09,-4.11011e+09,-5.09799e+09,-4.26135e+09,-1.09617e+09,-1.81048e+09,0,-1.63204e+07,-3.58379e+08,-5.10009e+08,0,0,-1.18562e+07,-3.22914e+07,0,460250,0,0,-8.33965e+07,-8.33965e+07,0,0,0,93577,0,-8.33965e+07,0,-3.59577e+08,-1.10826e+09,-1.1098e+07,0,-1.0921e+09,0,0,0,0,0,0,0,0,0,0,0,0,0,0,0,0,0,0,0,0,0,0,0,0,0,0,0,0,0,0,0,0,0,0,-2.14879e+10,-1.21216e+10,-8.5765e+09,-7.71418e+09,-9.3408e+08,-6.30626e+09,-6.95046e+09,5.8955e+08,-2.63945e+09,-1.89975e+09,0,0,-2.77957e+09,-4.05933e+07,-1.35102e+09,-1.24479e+09,5.38913e+07,0,-8.11866e+06,-2.81875e+08,-372878,-4.94124e+09,0,2.94644e+08,30312,-2.77948e+09,-2.78123e+09,0,-6.16671e+09,-6.51347e+09,0,-1.33301e+09,0,-2.39991e+11,-1.32084e+11,-8.60567e+10,-4.17214e+10,-3.98695e+10,-2.86423e+10,-3.82729e+10,-1.4601e+10,-3.06238e+10,-2.58967e+10,-2.18904e+10,-2.49342e+10,-8.79372e+09,-9.82517e+09,-6.01075e+09,-4.57107e+10,-1.29536e+10,-9.84878e+09,-1.93636e+10,-2.77008e+09,-3.3559e+06,-1.93912e+10,-1.263e+10,-1.59677e+10,-2.94679e+10,-2.13996e+10,-6.72101e+09,-3.27889e+10,-4.06759e+10,-1.60707e+10,-3.59491e+09,-1.94016e+10,0,-5.2172e+09,-5.2172e+09,-5.2172e+09,-5.2172e+09,-5.2172e+09,-5.2172e+09,-5.2172e+09,-1.53377e+09,-3.3164e+09,-2.83065e+09,-2.1891e+09,-2.49342e+09,-1.25312e+09,-1.09979e+09,-6.77835e+08,-5.2172e+09,-1.28998e+09,-9.84878e+08,-1.91242e+09,-2.81229e+08,-372878,-2.83395e+09,-1.57875e+09,-1.55244e+09,-2.94679e+09,-2.56539e+09,-1.22823e+09,-3.53332e+09,-5.2172e+09,-2.8511e+09,-3.59491e+08,-2.4252e+09,-6.63803e+10,-2.35099e+09
0,-2.30232e+08,3.66199e+09,8.73825e+08,-2.10115e+09,3.29109e+08,-1.58286e+09,-1.42232e+09,-4.86314e+09,-3.16184e+08,-1.54708e+09,-1.31802e+09,6.98132e+08,-2.07095e+09,1.24357e+09,1.95846e+09,-7.13705e+08,-8.78373e+09,0,1.5016e+09,5.52431e+09,1.45264e+09,-3.5187e+09,-3.68196e+09,-1.66519e+09,0,-1.49305e+09,1.2908e+09,1.11908e+09,-2.74477e+09,-6.45861e+09,4.03602e+08,-2.10187e+08,0,-1.06091e+10,-3.77442e+09,-2.76124e+09,-3.77884e+09,-33558,6.99363e+08,-1.48484e+09,-5.46394e+08,1.16972e+09,0,0,-1.29955e+07,-2.7316e+08,-5.14864e+09,6.4215e+08,7.8317e+08,-9.67962e+08,0,0,1.19788e+09,-2.83023e+08,6.99363e+08,-2.44267e+08,-1.48086e+09,0,0,-8.39502e+07,3.89557e+08,2.74584e+09,4.03913e+08,0,-1.71073e+09,0,-1.22538e+10,-4.81214e+09,-2.43204e+09,-4.176e+09,5.73808e+08,-2.85101e+09,-8.16031e+09,1.82291e+09,-1.17867e+09,-2.11612e+09,-1.49252e+09,0,8.24344e+08,-5.37928e+09,-1.61291e+09,271841,-4.23778e+09,0,0,-289940,-6.14716e+08,-4.4539e+09,-1.5557e+09,0,0,-4.71453e+09,-7.87267e+08,-2.50891e+09,-5.5058e+09,-4.09822e+09,-1.93485e+08,-1.8628e+09,0,0,0,0,0,0,0,0,0,0,0,0,0,0,0,0,0,0,0,0,0,0,0,0,0,0,0,0,0,0,0,0,0,0,-1.36702e+09,-3.19726e+09,-1.23256e+10,1.38859e+09,1.09763e+07,-5.95675e+09,3.66821e+09,-1.15876e+10,5.75774e+07,-4.16616e+09,1.71408e+09,1.24232e+08,-2.42745e+09,-1.00958e+10,3.74284e+09,-8.68306e+08,-1.2609e+09,0,8.25747e+08,3.62309e+08,8.06703e+08,-8.01799e+09,-1.72195e+08,-7.13705e+08,0,-5.20022e+09,-2.43506e+09,-3.77396e+09,-8.06435e+09,-2.11004e+10,3.15127e+08,-2.68646e+09,0,-2.41959e+11,-1.43979e+11,-8.68187e+10,-4.55968e+10,-4.22779e+10,-3.1673e+10,-4.07699e+10,-1.38648e+09,-1.1776e+10,-4.04278e+09,-1.54825e+10,-9.22372e+09,3.5433e+09,-2.55484e+09,-3.95593e+09,-8.44725e+09,-3.55282e+10,-6.16848e+08,-1.81235e+10,-1.149e+10,2.22413e+09,-3.48418e+10,-1.1016e+10,-1.65837e+10,-2.21157e+10,-3.31337e+10,-6.44355e+09,-2.69365e+10,-3.8136e+10,-9.50471e+09,-2.39537e+10,-3.10193e+10,0,-5.17051e+09,-5.17051e+09,-5.17051e+09,-5.17051e+09,-5.17051e+09,-5.17051e+09,-5.17051e+09,-1.65607e+09,-1.20436e+09,-1.27986e+09,-1.65789e+09,-8.41435e+08,-4.03916e+07,-2.1935e+09,7.74608e+07,-9.24582e+08,-5.17051e+09,-6.16848e+07,-1.29944e+09,-4.40575e+08,3.58574e+08,-5.10593e+09,-2.08376e+09,-2.04435e+09,-2.21157e+09,-4.45415e+09,-8.45902e+08,-3.17107e+09,-5.17051e+09,-4.07581e+09,-2.34285e+09,-3.8649e+09,-6.82394e+10,-1.43526e+09
0,-3.04671e+09,-3.2674e+09,-3.04671e+09,-4.9011e+09,0,-9.36083e+09,0,-6.09343e+09,0,0,-1.6337e+09,0,0,-1.6337e+09,0,0,0,0,0,-3.2674e+09,-4.9011e+09,0,-4.68041e+09,0,0,0,0,0,-6.09343e+09,-6.09343e+09,0,-3.04671e+09,0,-3.04671e+09,-3.04671e+09,0,0,0,-4.68041e+09,0,-3.04671e+09,0,0,0,0,0,-1.6337e+09,0,0,0,-4.68041e+09,0,-3.2674e+09,0,0,0,0,0,0,0,0,0,0,0,0,0,-9.36083e+09,-3.04671e+09,-3.04671e+09,-1.6337e+09,0,-1.24075e+10,0,0,0,0,0,0,0,0,0,0,0,0,0,-3.2674e+09,0,-3.04671e+09,-1.6337e+09,0,0,0,0,0,-3.04671e+09,-9.14014e+09,0,0,0,0,0,0,0,0,0,0,0,0,0,0,0,0,0,0,0,0,0,0,0,0,0,0,0,0,0,0,0,0,0,0,0,0,-3.27629e+10,-4.9011e+09,-4.9011e+09,-1.56749e+10,0,-3.2674e+09,0,-3.04671e+09,0,0,0,-3.2674e+09,0,-1.6337e+09,0,0,0,0,0,-2.48151e+10,-2.17684e+10,-1.21869e+10,-1.6337e+09,0,0,0,0,0,-6.31412e+09,-1.52336e+10,0,0,0,-2.12032e+11,-1.26151e+11,-8.26138e+10,-3.41759e+10,-3.74433e+10,-7.72713e+09,-4.68041e+10,-1.82803e+10,0,0,-1.47033e+10,-1.30696e+10,-1.6337e+10,-1.14359e+10,0,0,0,-4.21237e+10,0,-1.21869e+10,-2.01347e+10,-1.52336e+10,-2.94955e+10,0,-4.68041e+10,0,0,0,-3.13499e+10,0,0,-2.74204e+10,0,-4.68041e+09,-4.68041e+09,-4.68041e+09,-4.68041e+09,-4.68041e+09,-4.68041e+09,-4.68041e+09,-3.04671e+09,0,0,-1.6337e+09,-1.6337e+09,-1.6337e+09,-1.6337e+09,0,0,0,-4.68041e+09,0,-4.68041e+09,-4.68041e+09,-3.04671e+09,-4.68041e+09,0,-4.68041e+09,0,0,0,-4.68041e+09,-3.04671e+09,0,-3.04671e+09,-9.05616e+10,-1.6337e+09
0,4.6148e+09,-2.66769e+09,-6.61439e+08,7.45488e+08,0,0,-1.01217e+09,-5.02914e+09,-6.55742e+08,0,0,-2.46023e+08,-6.57755e+08,-2.62097e+09,-8.11684e+08,0,-1.33007e+09,0,-3.28544e+08,-5.80497e+08,-1.04759e+09,-1.01419e+09,0,-1.01419e+09,0,0,-1.74915e+06,0,-5.33247e+09,0,-1.01419e+09,-3.42823e+09,0,-4.89025e+09,-1.26203e+09,-1.15929e+09,-3.3392e+09,0,0,-1.4178e+09,-1.95738e+09,-6.55134e+08,-1787,0,0,0,-1.33014e+09,-3.24309e+08,0,0,0,-5.10353e+09,-1.66678e+09,0,0,0,0,2.01893e+06,0,0,0,2.42983e+09,-4.43273e+09,0,-4.10942e+08,0,-5.11044e+09,-2.25074e+09,-1.77446e+09,-1.87031e+09,2.01535e+06,-1.58453e+09,-2.03369e+09,-3.36417e+09,1.64621e+06,-3.24309e+08,-2.46023e+08,0,0,-6.50108e+08,-2.15347e+09,0,-372718,0,-2.83573e+08,-2.19194e+09,-4.90027e+08,0,0,0,2.01893e+06,1.21136e+07,-2.80809e+08,0,-1.29739e+09,-1.00954e+07,0,-8.88023e+08,0,0,0,0,0,0,0,0,0,0,0,0,0,0,0,0,0,0,0,0,0,0,0,0,0,0,0,0,0,0,0,0,0,0,-1.09981e+10,-7.6592e+09,-2.88704e+09,-2.64238e+09,-2.8283e+08,-2.02439e+09,-2.80816e+08,-9.40435e+09,-6.57829e+08,-1787,-2.46023e+08,0,-1.55928e+09,-1.07379e+10,-4.89522e+09,-9.01528e+08,-71623,0,0,-4.6772e+09,6.05678e+06,-1.01593e+09,0,-3.24309e+08,0,-1.14215e+09,-1.89295e+09,-1.00954e+07,-6.67596e+09,-2.5885e+08,0,-3.43219e+09,0,-2.34024e+11,-1.38611e+11,-9.52641e+10,-3.88616e+10,-4.05474e+10,-3.72193e+10,-4.47951e+10,-2.15209e+10,-2.53724e+10,-1.08228e+10,-7.38496e+09,-1.13776e+10,-9.65348e+09,-1.39664e+10,-8.01806e+09,-1.82079e+10,-1.19755e+10,-1.83485e+10,-3.65548e+10,-6.32785e+09,-6.56578e+09,-1.48382e+10,-1.42504e+10,-2.94064e+10,-1.89427e+10,-1.02713e+10,-1.95839e+10,-5.01231e+09,-4.01593e+10,1.99475e+09,-1.67461e+10,-2.61626e+10,0,-5.10353e+09,-5.10353e+09,-5.10353e+09,-5.10353e+09,-5.10353e+09,-5.10353e+09,-5.10353e+09,-4.12759e+09,-2.73395e+09,-1.11471e+09,-7.877e+08,-1.16236e+09,-1.18705e+09,-2.93056e+09,-1.62027e+09,-1.91094e+09,-1.3306e+09,-1.83485e+09,-5.10353e+09,-1.54443e+09,-8.09735e+08,-1.68683e+09,-1.7813e+09,-3.07449e+09,-1.89366e+09,-1.14014e+09,-2.17594e+09,-5.0224e+08,-5.10353e+09,-2.70692e+08,-1.77603e+09,-3.43219e+09,-7.10389e+10,-2.02448e+09
0,1.81759e+09,-2.31892e+09,-6.82823e+08,3.09811e+09,-5.29597e+08,-6.24304e+09,-4.75975e+09,2.02012e+09,2.44064e+09,8.14759e+08,4.2621e+08,1.95378e+09,-7.05112e+09,1.53186e+08,-2.01019e+09,-4.11421e+06,-5.122e+08,0,-338974,-6.12702e+09,7.68335e+09,1.12144e+09,7.69032e+08,9.6828e+07,-3.58774e+08,-5.62093e+09,-2.39737e+09,-5.75061e+09,-1.16506e+09,-1.07627e+09,0,-7.6736e+08,0,-8.93736e+09,-9.63178e+09,-9.9329e+09,7.997e+09,-505247,-3.62437e+09,-6.29677e+09,5.90852e+09,2.81412e+09,-1.54776e+09,-2.25745e+09,-207,-7.0136e+09,5.88951e+08,-1.45819e+09,-1.91026e+08,2.37346e+09,7.71278e+08,1.08203e+09,-5.1036e+09,-7.26053e+09,2.35945e+09,0,-4.25869e+09,-1.05189e+09,0,-5.74273e+09,1.99587e+09,-7.28772e+09,5.18716e+09,0,4.62953e+09,0,-5.91842e+09,6.38541e+09,-1.87894e+09,2.35823e+09,-7.58571e+08,3.66908e+09,-1.09368e+10,1.27813e+09,8.5485e+06,-7.57398e+09,-1.3995e+07,0,2.83631e+09,-1.17471e+09,-4.24957e+09,-1.47838e+09,-7.68675e+08,0,-338974,-4.87569e+09,3.35454e+09,-4.2296e+07,1.8807e+08,-1.88836e+08,-3.34913e+08,-4.68507e+09,1.54063e+09,-1.95608e+08,-4.91583e+09,-3.71706e+09,0,-8.06242e+09,0,0,0,0,0,0,0,0,0,0,0,0,0,0,0,0,0,0,0,0,0,0,0,0,0,0,0,0,0,0,0,0,0,0,7.20003e+09,-5.99706e+09,-1.42784e+10,5.40384e+09,1.26164e+09,-5.65613e+09,-1.95888e+09,2.54665e+09,3.04214e+09,-1.6553e+09,-1.61976e+09,8.82733e+08,-1.51307e+09,1.21799e+07,-4.86387e+09,-9.09601e+08,5.20736e+08,-5.94292e+08,-8.38303e+08,-1.10617e+10,5.59084e+07,-3.77029e+09,-1.00255e+09,-1.20175e+09,-1.33911e+09,-4.01394e+09,-3.83726e+09,-1.53594e+09,-5.60353e+09,-1.89636e+10,-6.68506e+08,-5.72118e+09,0,-2.486e+11,-1.45007e+11,-7.61634e+10,-4.63105e+10,-4.17058e+10,-2.98784e+10,-2.09416e+10,2.83299e+09,-9.71599e+09,-8.7124e+09,-1.94392e+10,-1.09054e+10,-4.60235e+09,-2.45852e+09,-7.81091e+09,-2.08451e+10,-1.85569e+10,-1.09877e+09,-1.89249e+10,-2.49981e+10,-2.52226e+09,-3.71429e+10,1.75703e+09,-2.27101e+10,-1.37166e+10,-4.05536e+10,-6.74017e+08,-3.36321e+10,-3.31788e+10,-7.42016e+09,-3.18872e+10,-2.64418e+10,0,-5.21661e+09,-5.21661e+09,-5.21661e+09,-5.21661e+09,-5.21661e+09,-5.21661e+09,-5.21661e+09,1.45864e+09,2.16258e+07,-1.86747e+09,-2.40861e+09,-8.06888e+08,-1.73438e+09,-2.87892e+08,-2.03927e+09,-2.34285e+09,-1.69436e+09,-9.21782e+07,-1.97641e+09,-5.21661e+09,9.89694e+07,-3.74757e+09,2.13948e+08,-2.79958e+09,-1.75411e+09,-5.48735e+09,-1.11107e+09,-3.91184e+09,-5.21661e+09,-2.59899e+09,-3.25557e+09,-3.60965e+09,-8.02652e+10,3.71264e+09
0,-6.28789e+09,-6.78218e+08,-4.0231e+09,-6.16849e+09,-4.85792e+08,-6.63682e+09,-1.28898e+09,1.72603e+09,-1.39411e+09,-2.59122e+09,-2.15077e+09,-1.63907e+09,-1.02633e+09,-1.25958e+09,-1.89479e+09,-1.61174e+09,-7.52541e+08,0,-3.22066e+09,-3.75402e+09,-5.80402e+09,-4.49278e+08,-356536,-6.58887e+07,0,-1.20395e+09,0,0,1.28299e+09,-1.57571e+09,0,-5.80748e+09,0,-7.54364e+09,-1.78433e+09,-3.79884e+09,-4.9015e+09,-4.85614e+08,2.39242e+09,3.79925e+08,0,-409359,-9.17675e+07,4.40516e+09,-7.06349e+07,-1.10366e+07,-4.07271e+09,-2.03496e+09,0,-3.95847e+06,0,0,-7.06502e+09,1.09745e+09,4.76713e+08,0,0,0,-2.67263e+07,-9.85962e+08,0,-4.49415e+09,-2.29946e+09,0,1.7639e+09,0,-7.89032e+09,-2.01854e+09,-1.37647e+09,-8.79139e+08,-1.27401e+09,-5.96177e+09,6.68083e+08,-1.13291e+09,1.6561e+08,-1.20224e+07,-2.23302e+07,-1.40603e+09,1.76541e+08,2.97437e+09,-7.26066e+08,-1.20224e+07,-7.03014e+08,0,6.87279e+08,-2.37402e+09,-1.03598e+10,-1.56046e+09,-2.63217e+08,-6.58887e+07,0,1.50142e+08,-5.84211e+08,0,-2.66268e+09,-6.07782e+09,0,-2.94096e+08,0,0,0,0,0,0,0,0,0,0,0,0,0,0,0,0,0,0,0,0,0,0,0,0,0,0,0,0,0,0,0,0,0,0,-1.3605e+09,-6.00881e+09,-1.12863e+10,-9.12389e+08,-2.24577e+09,-4.99924e+09,-6.39034e+09,9.11134e+08,-1.23632e+09,-1.81324e+09,-1.35302e+09,-2.39187e+09,-6.3861e+09,-2.60317e+09,-6.09163e+09,1.84949e+09,8.11148e+08,1.19934e+09,-1.82056e+09,-1.45123e+10,-9.22332e+09,-4.22407e+08,1.50022e+09,-1.31777e+08,-6.58887e+07,-7.72919e+08,3.65064e+08,-3.80297e+09,-1.80013e+09,-8.66225e+09,-1.99619e+08,-2.3616e+09,0,-2.38923e+11,-1.41932e+11,-8.3934e+10,-3.88358e+10,-3.73028e+10,-2.65886e+10,-4.30551e+10,-7.92868e+09,-1.24502e+10,-2.06203e+10,-1.27343e+10,-8.14843e+09,-3.92177e+09,-7.70513e+09,-5.9857e+09,-1.6822e+10,-1.08289e+10,-4.68544e+09,-1.26027e+10,-5.59077e+09,-2.79528e+10,-4.20064e+10,1.48191e+10,-2.14317e+10,-1.29076e+10,-2.73766e+10,-1.15754e+10,-2.50384e+10,-4.45652e+10,-6.91002e+09,-2.72973e+10,-2.81012e+10,0,-5.22425e+09,-5.22425e+09,-5.22425e+09,-5.22425e+09,-5.22425e+09,-5.22425e+09,-5.22425e+09,-6.42442e+08,-1.49154e+09,-2.51285e+09,-1.28413e+09,-1.3656e+09,-1.11687e+09,-1.26662e+09,-1.67331e+09,-1.65963e+09,-1.14773e+09,-3.4861e+08,-2.2315e+09,-3.32962e+09,-5.22425e+09,-4.39618e+09,2.00697e+09,-2.16952e+09,-1.29735e+09,-2.923e+09,-1.27805e+09,-2.88414e+09,-5.22425e+09,-2.55253e+09,-2.74969e+09,-3.48005e+09,-8.41145e+10,1.95264e+09
0,1.45197e+09,3.7611e+08,-4.75175e+09,4.06132e+09,2.20655e+09,-4.86649e+08,-9.8961e+09,-6.03319e+09,2.82125e+09,-1.12824e+09,-1.2347e+09,1.21355e+09,-8.63818e+08,-4.85145e+09,-6.81509e+09,-1.23042e+08,1.89794e+08,7.33692e+08,0,2.28108e+09,-1.9464e+09,-2.06083e+08,5.68493e+09,7.31776e+08,766,3.22653e+09,-8.5255e+08,-1.79069e+09,-7.95085e+09,-6.95226e+09,-7.44484e+08,-3.39017e+09,0,-4.70528e+09,8.57832e+08,-2.15383e+08,-3.58145e+09,-3.58261e+08,-6.07575e+09,1.96154e+08,1.54984e+08,-4.637e+08,1.13448e+09,-5.68316e+08,1.81685e+09,-3.8525e+07,-3.04062e+08,-3.04052e+09,0,-1.5238e+09,0,0,-7.90003e+09,-1.44608e+09,-1.52376e+09,-2.90707e+07,1.33153e+09,1.14798e+08,0,-2.58421e+09,-4.85626e+08,1.85823e+08,-9.77782e+08,1.70597e+09,4.98413e+08,0,-6.73756e+09,-4.62337e+09,-7.79007e+09,-5.75141e+09,-4.03406e+09,-1.8112e+08,-8.26879e+09,-6.54503e+09,1.14006e+09,8.09932e+08,1.46104e+09,1.36978e+09,1.08811e+09,2.6818e+09,-1.07848e+08,55065,-4.66372e+07,0,0,9.77603e+08,1.57878e+09,-2.13668e+09,2.08799e+09,-3.43813e+08,-8.12511e+08,4.00076e+08,2.46923e+09,-3.05987e+09,2.66511e+09,-5.26802e+09,-9.17476e+08,8.16651e+08,0,0,0,0,0,0,0,0,0,0,0,0,0,0,0,0,0,0,0,0,0,0,0,0,0,0,0,0,0,0,0,0,0,0,-7.23286e+09,-1.33174e+09,-8.5251e+09,-2.64254e+09,2.96086e+09,-5.47777e+09,4.00912e+09,-5.34706e+09,-2.03564e+09,-5.00369e+09,-3.30924e+09,0,3.52188e+09,-1.06537e+10,-1.22831e+10,7.33011e+08,-2.20916e+09,-5.96543e+08,3.2818e+07,3.4193e+09,-9.21301e+08,1.55979e+09,1.53628e+09,1.18469e+09,5.92346e+08,7.35763e+08,-2.07163e+09,-3.36055e+09,-6.54259e+09,-1.70293e+10,7.48376e+08,-2.26214e+09,0,-2.41774e+11,-1.4799e+11,-8.13277e+10,-4.47317e+10,-4.1595e+10,-2.85986e+10,-2.26351e+10,-1.28559e+09,-1.47139e+10,-1.37446e+10,-1.98709e+10,-7.95915e+09,-3.99231e+09,-2.06144e+09,-1.22274e+10,-2.34239e+10,-2.05638e+10,-3.5258e+09,-1.70068e+10,-1.36867e+10,8.35499e+08,-4.73779e+10,6.96548e+09,-2.78907e+10,-1.99579e+10,-3.98481e+10,-6.59782e+09,-2.6281e+10,-3.93824e+10,1.64339e+09,-3.11784e+10,-2.82981e+10,0,-5.10249e+09,-5.10249e+09,-5.10249e+09,-5.10249e+09,-5.10249e+09,-5.10249e+09,-5.10249e+09,-1.90559e+09,-1.29852e+09,-1.79379e+09,-2.35221e+09,-3.55898e+08,-2.84668e+07,-1.51888e+09,-3.4474e+09,-2.28285e+09,-2.41594e+09,-3.38865e+08,-1.75174e+09,-1.49088e+09,-1.8995e+08,-5.10249e+09,2.0307e+09,-2.49865e+09,-2.00632e+09,-3.54856e+09,-9.66289e+08,-3.49777e+09,-5.10249e+09,-2.85839e+09,-3.03861e+09,-3.26504e+09,-7.6117e+10,-4.47669e+09
0,-3.6887e+10,-1.57584e+10,8.7715e+07,-1.65383e+10,-2.06126e+09,-8.46134e+08,-8.759e+09,1.72532e+08,5.11174e+08,0,0,-8.59728e+06,269741,0,0,2.00259e+06,-1.46665e+10,50541,0,-2.33006e+09,1.6524e+07,-2.77093e+06,-1.68927e+10,1.06236e+06,0,1.87657e+06,-2.5958e+08,256868,-5.59573e+09,-2.51015e+06,-2.21408e+09,269941,0,-4.66049e+09,2.56535e+08,150627,-9.11768e+09,-159358,9.19368e+07,-40451,326770,-1.84889e+06,0,0,-5.96812e+06,0,1244,9.02438e+07,0,-4.83991e+09,6918,0,150627,0,1.96527e+06,-7.98021e+09,0,0,0,8.44864e+07,0,1.33059e+08,-1.79835e+06,0,106241,0,-3.8388e+09,-1.12905e+09,1.63986e+06,-3.89346e+09,8.68704e+08,217345,-73346,1.49539e+08,-1.0475e+09,0,0,-1.02004e+06,9.03176e+07,1244,1.80909e+08,0,-4.16316e+09,0,0,1.64760e+06,1.33059e+08,-1.65701e+06,-4.5376e+09,1.33087e+08,0,25850,5.4622e+06,0,-5.7413e+08,-1.79276e+06,1.44012e+08,-1.11527e+09,0,0,0,0,0,0,0,0,0,0,0,0,0,0,0,0,0,0,0,0,0,0,0,0,0,0,0,0,0,0,0,0,0,0,-2.10227e+10,-7.15644e+09,-4.15292e+09,-6.24282e+09,-1.62037e+09,-1.05003e+10,3.54332e+08,3.03946e+08,-6.22654e+08,-3.44066e+08,-3.45058e+08,9.02438e+07,-4.66691e+09,-3.44284e+09,-1.07787e+09,1.49676e+08,-7.45526e+08,0,3.70393e+06,-7.33485e+09,237068,-4.66482e+09,-1.00457e+10,2.22513e+08,0,3.70393e+06,-3.52077e+09,-4.21528e+08,-7.51526e+09,6.95606e+06,1.09244e+07,-3.44773e+09,0,-2.22691e+11,-1.32067e+11,-9.97343e+10,-2.8418e+10,-3.87082e+10,-3.0267e+10,-4.12669e+10,-8.73734e+09,-8.39578e+09,-1.35683e+10,-1.42076e+10,-8.8077e+09,-1.77961e+10,-1.3031e+10,-1.81744e+10,-1.32355e+10,-1.67459e+10,-2.74969e+10,-5.15313e+09,-1.70826e+10,-8.22987e+09,-1.86676e+10,-2.48611e+09,-2.8032e+10,-1.64772e+10,-2.331e+10,-1.00032e+10,-2.88893e+10,-3.83477e+10,1.07669e+06,-1.0983e+10,-2.99141e+10,0,-5.19016e+09,-5.19016e+09,-5.19016e+09,-5.19016e+09,-5.19016e+09,-5.19016e+09,-5.19016e+09,-8.111e+08,-9.55661e+08,-1.39124e+09,-1.45526e+09,-8.73304e+08,-2.23725e+09,-1.64739e+09,-1.89811e+09,-1.30838e+09,-4.07401e+09,-2.74968e+09,-5.05871e+08,-2.67457e+09,-8.08005e+08,-2.33349e+09,-5.19016e+09,-2.76753e+09,-1.6479e+09,-2.33044e+09,-1.36936e+09,-2.93106e+09,-5.19016e+09,193149,-1.30421e+09,-3.44767e+09,-7.59857e+10,-4.23999e+09
0,-4.80668e+09,-1.90857e+09,-2.54939e+09,-3.63995e+09,-3.42929e+07,-2.81926e+09,-1.47802e+08,1.38942e+09,-7.87776e+07,-8.2871e+07,-2.88401e+07,0,1.43034e+08,-1.39316e+09,4.18187e+08,6.63432e+08,-1.90825e+09,0,0,-2.64067e+09,-2.60232e+08,-5.3247e+08,-3.82932e+08,-2.09813e+09,-1.39316e+09,2.22024e+07,2.91026e+06,-1.34541e+09,1.24893e+09,3.68614e+08,2.29859e+07,-1.35667e+09,0,-4.85146e+09,-8.62375e+09,-2.49226e+09,-1.94058e+09,0,121782,-3.41575e+08,3.36791e+06,-1.52152e+06,0,-1.55297e+09,0,949711,0,5.80561e+08,2.91026e+06,6.63432e+08,0,0,-2.2574e+09,0,-2.56255e+08,0,-5.44488e+09,-1.39316e+09,0,0,0,-3.94822e+09,-2.10908e+09,-4.67806e+08,4.59719e+07,0,-1.0101e+10,-6.86268e+09,-4.50213e+09,-4.98255e+09,0,-6.21652e+08,-7.39008e+08,-6.25377e+09,-2.24699e+06,-1.70788e+08,-1.39187e+08,0,-1.73669e+09,-34572,-4.119e+09,-1.89448e+09,6.79725e+07,0,0,-1.9053e+09,0,-2.45786e+08,-1.44111e+08,-1.15381e+07,-5.12363e+08,0,-1.70788e+08,-1.03801e+09,-1.55198e+09,-4.04652e+09,-1.56327e+08,-1.39043e+09,0,0,0,0,0,0,0,0,0,0,0,0,0,0,0,0,0,0,0,0,0,0,0,0,0,0,0,0,0,0,0,0,0,0,-9.59403e+09,-6.02645e+09,-6.85555e+09,-3.15742e+09,-1.02722e+08,-5.19247e+09,-3.32844e+08,-6.03301e+09,-2.54913e+09,-8.2871e+07,-2.86658e+07,0,-5.49366e+09,-3.24452e+09,-1.08312e+09,-1.23105e+09,0,0,0,-5.92525e+09,-2.78722e+08,-1.03524e+09,-3.48652e+08,-3.96958e+09,-1.65609e+09,6.73582e+06,-3.09858e+08,-2.90602e+09,-6.84344e+09,-1.0054e+10,0,-3.54905e+09,0,-2.40248e+11,-1.29809e+11,-8.339e+10,-4.05187e+10,-4.17917e+10,-3.32955e+10,-5.08497e+10,-1.56041e+10,-1.31049e+10,-2.17095e+09,-3.15132e+10,-1.34236e+10,-1.51128e+10,-2.26169e+10,-1.06101e+10,-9.30033e+09,-1.88409e+10,-8.19471e+09,-1.37799e+10,-1.10924e+10,-3.29159e+09,-1.39386e+10,-5.59858e+09,-4.08868e+10,-2.2365e+10,3.38435e+07,-6.32901e+09,-2.11407e+10,-4.12991e+10,-7.63652e+09,-3.43653e+10,-2.92403e+10,0,-5.24109e+09,-5.24109e+09,-5.24109e+09,-5.24109e+09,-5.24109e+09,-5.24109e+09,-5.24109e+09,-2.64981e+09,-1.57366e+09,-2.50748e+08,-3.32629e+09,-1.34236e+09,-2.21992e+09,-2.72546e+09,-1.48134e+09,-1.17595e+09,-2.00178e+09,-8.19471e+08,-1.74385e+09,-2.38211e+09,-3.83054e+08,-1.60083e+09,-8.09285e+08,-5.24109e+09,-2.73198e+09,6.27817e+06,-6.80675e+08,-2.64302e+09,-5.24109e+09,-2.34775e+09,-3.49665e+09,-3.54905e+09,-7.70324e+10,-1.25836e+09
0,-6.36294e+09,-5.59943e+09,-4.78471e+09,-1.98063e+09,0,-4.67799e+09,-5.83222e+07,-1.71869e+09,-6.65341e+08,1.01648e+08,-83544,0,-1.14715e+08,-1.23911e+09,-4.96192e+08,-6.99499e+08,0,0,0,-4.16459e+09,0,-2520,-1.14715e+08,-8.33356e+08,-2.04328e+09,-1.14715e+08,-8.0707e+08,-1.13447e+09,-2.06238e+09,-2.65259e+09,-9.08724e+08,-2.81028e+09,0,-1.34567e+09,-4.02801e+09,-4.08329e+09,-1.69096e+09,0,-1.48327e+09,2.03306e+08,-1.45015e+06,0,0,-9.34926e+08,0,0,0,-9.08724e+08,0,0,0,-6.65341e+08,-2.01627e+09,0,-1.14715e+08,-1.14715e+08,-1.23613e+09,-5.13954e+09,0,-1.45015e+06,0,-9.08296e+08,-9.34926e+08,0,-6.99499e+08,0,-4.94077e+09,-5.67237e+09,-2.96332e+09,-3.66221e+09,-1.57261e+09,-1.56109e+09,-6.65341e+08,-1.45015e+06,-6.65341e+08,0,0,0,-1.14715e+08,-1.56446e+09,-2.3467e+09,0,0,0,0,-5.35972e+09,-6.65341e+08,-7.83685e+08,-5.73573e+08,-86644,-6.65343e+08,-5.67122e+09,-6.65341e+08,-86644,-8.97543e+08,-7.09541e+09,-9.35009e+08,-6.66791e+08,0,0,0,0,0,0,0,0,0,0,0,0,0,0,0,0,0,0,0,0,0,0,0,0,0,0,0,0,0,0,0,0,0,0,-4.87663e+09,-5.71264e+09,-8.04997e+09,-3.85e+09,-1.13175e+08,-1.56498e+10,-4.63485e+08,-9.20167e+09,2.56424e+06,-2.72618e+09,-1.14715e+08,0,-1.27776e+08,-2.3496e+09,-8.78165e+09,427373,0,0,0,-6.22344e+09,-1.99602e+09,-1.91015e+09,0,-1.23622e+09,-1.2363e+09,-1.01166e+09,-1.37221e+09,-2.37077e+09,-7.1107e+09,-7.22215e+09,0,-4.44624e+09,0,-2.39953e+11,-1.34123e+11,-8.1233e+10,-3.95559e+10,-4.0243e+10,-1.85567e+10,-4.03381e+10,-6.26369e+09,-1.2316e+10,-5.4462e+09,-2.18096e+10,-1.23579e+10,2.2659e+08,-1.50419e+10,-1.03548e+10,-1.52615e+10,-1.63408e+10,-1.36629e+10,-1.08399e+10,-1.82917e+10,-2.99001e+09,-1.55255e+10,-5.7223e+09,-1.73857e+10,-4.26612e+10,-8.821e+09,-1.18925e+10,-1.48353e+10,-4.14321e+10,-8.35457e+09,-3.00986e+10,-3.58396e+10,0,-5.2411e+09,-5.2411e+09,-5.2411e+09,-5.2411e+09,-5.2411e+09,-5.2411e+09,-5.2411e+09,-1.71869e+09,-1.36441e+09,-8.07073e+08,-2.28594e+09,-1.23579e+09,-1.30615e+07,-2.01947e+09,-2.2888e+09,-1.59602e+09,-1.63408e+09,-1.36629e+09,-1.57406e+09,-3.60557e+09,-5.65138e+08,-1.83341e+09,-8.15663e+08,-2.06914e+09,-5.2411e+09,-1.56186e+09,-1.47386e+09,-1.83406e+09,-5.2411e+09,-2.62597e+09,-3.19424e+09,-4.44624e+09,-9.24796e+10,424853
0,-1.57697e+09,-4.73102e+09,-1.3494e+10,-3.15402e+09,0,-5.02366e+09,0,0,0,-1.57701e+09,-1.57701e+09,0,-3.44665e+09,-6.8933e+09,0,0,-1.57701e+09,0,0,76816,0,0,0,0,0,0,0,-1.034e+10,0,-6.30803e+09,0,-3.44665e+09,0,-3.15398e+09,-3.44661e+09,-3.44665e+09,-1.57701e+09,0,-5.02366e+09,0,0,0,0,0,0,0,-3.44665e+09,0,0,0,0,0,0,38408,0,0,0,0,-5.02362e+09,0,0,-3.44665e+09,38408,0,0,0,153632,0,0,0,0,0,0,0,38408,0,0,0,38408,153632,0,0,0,0,0,38408,0,0,0,0,0,76816,0,0,38408,76816,0,0,0,0,0,0,0,0,0,0,0,0,0,0,0,0,0,0,0,0,0,0,0,0,0,0,0,0,0,0,0,0,0,0,0,0,-4.73076e+09,-3.44661e+09,-8.47027e+09,-4.73102e+09,-1.57701e+09,-3.15402e+09,0,0,38408,-6.30803e+09,-1.57701e+09,0,-6.89323e+09,-1.37865e+10,0,0,-1.57701e+09,0,0,115224,0,-5.02366e+09,0,0,0,-3.44658e+09,0,-6.8933e+09,-5.02362e+09,-9.46193e+09,0,-3.44665e+09,0,-2.31087e+11,-1.39084e+11,-7.50615e+10,-4.0189e+10,-3.8612e+10,-2.69876e+10,-5.02362e+10,0,307264,-7.88504e+09,-4.36359e+10,-1.57701e+10,-2.41263e+10,-1.03399e+10,0,-3.44665e+10,-1.26161e+10,-5.02362e+10,-1.57701e+10,153632,345672,-4.52129e+10,0,0,0,-4.17661e+10,0,-1.72333e+10,-4.1766e+10,153632,384080,-2.75732e+10,0,-5.02362e+09,-5.02362e+09,-5.02362e+09,-5.02362e+09,-5.02362e+09,-5.02362e+09,-5.02362e+09,0,38408,-1.57701e+09,-5.02366e+09,-1.57701e+09,-3.44661e+09,-3.44661e+09,0,-3.44665e+09,-1.57701e+09,-5.02362e+09,-1.57701e+09,38408,38408,-5.02366e+09,0,0,0,-5.02362e+09,0,-3.44665e+09,-5.02362e+09,-1.57697e+09,38408,-3.44665e+09,-7.53544e+10,-3.44661e+09
0,6.5143e+09,-4.32871e+09,2.09579e+09,1.19849e+10,-6.84809e+07,9.99645e+08,-6.13904e+09,3.73948e+09,-1.66829e+09,1.60806e+08,3.37029e+09,-1.45622e+08,3.73154e+09,-3.77106e+08,-5.78447e+09,0,-1.97683e+08,0,0,-1.7488e+09,3.94683e+09,-1.05086e+09,0,0,-6.92985e+07,-3.96812e+09,3.86398e+07,-3.31646e+09,7.09243e+09,-4.65623e+08,-1.30476e+09,-8.04435e+09,0,-1.06249e+10,-4.84767e+09,-8.53296e+09,6.07402e+09,-6.11049e+06,-4.97731e+08,-4.65079e+09,-4.50137e+08,-1.83549e+09,5.2681e+09,-3.05001e+09,0,-8.32065e+06,4.07672e+09,2.83755e+09,0,0,0,0,1.87051e+09,5572,-3.71456e+08,0,0,5.85422e+06,0,-3.21865e+09,-1.77652e+08,1.0225e+09,-1.19021e+10,0,4.84042e+08,0,-4.21573e+09,-9.50626e+09,-4.93587e+09,-3.64145e+09,-3.00319e+09,-8.19423e+09,-3.21329e+09,1.84568e+08,5.0495e+09,-116438,-6.83285e+08,0,3.22744e+09,-3.79155e+09,-6.5056e+08,0,0,0,0,2.74626e+09,-6.81844e+08,-7.38463e+08,-58207,-1.16795e+07,-6.92985e+07,-1.34778e+09,-5.75068e+09,-211940,-7.01388e+09,5.36441e+09,-6.94045e+07,4.73516e+09,0,0,0,0,0,0,0,0,0,0,0,0,0,0,0,0,0,0,0,0,0,0,0,0,0,0,0,0,0,0,0,0,0,0,4.83017e+07,-4.21503e+09,-1.7869e+10,4.40779e+09,-1.01628e+09,-9.58977e+09,2.37292e+09,2.25482e+09,-1.88743e+09,4.9952e+09,-3.2606e+09,-1.04566e+09,7.36378e+09,-7.24827e+09,1.15888e+09,-9.95469e+08,-4.83537e+08,0,-4.22313e+08,-2.4785e+09,3.5978e+09,-4.6145e+09,-1.46791e+09,0,8.7765e+08,-1.48795e+10,-1.65032e+10,1.94307e+09,-6.72314e+09,-2.46391e+10,2.94288e+09,-7.24498e+09,0,-2.47805e+11,-1.4227e+11,-7.58388e+10,-4.34611e+10,-3.90386e+10,-2.58505e+10,-1.48372e+10,-9.30909e+08,-5.836e+09,-1.68316e+10,-1.97105e+10,-1.22885e+10,-4.42411e+09,-1.47578e+08,-2.42153e+09,-2.18087e+10,-2.6747e+10,-6.33893e+09,-2.29494e+10,-1.20674e+10,-1.96572e+09,-4.23868e+10,-5.24375e+09,-2.63879e+10,-1.4578e+10,-4.13398e+10,-2.71182e+10,-3.35363e+10,-4.82174e+10,-1.18092e+10,-2.5035e+10,-3.08083e+10,0,-5.39158e+09,-5.39158e+09,-5.39158e+09,-5.39158e+09,-5.39158e+09,-5.39158e+09,-5.39158e+09,4.79782e+08,-6.84006e+08,-6.40756e+08,-2.28132e+09,-1.34798e+09,9.89034e+08,-7.48779e+08,-4.86013e+08,-2.28042e+09,-2.74282e+09,-6.33893e+08,-1.95199e+09,-1.16779e+09,4.89707e+08,-5.02383e+09,-8.38964e+08,-2.63996e+09,-1.33942e+09,-6.15352e+09,-5.39158e+09,-3.50876e+09,-5.39158e+09,-4.34516e+09,-2.34662e+09,-3.92915e+09,-6.99577e+10,-9.79953e+08
0,-2.30756e+09,-1.26094e+09,-7.2455e+09,1.19355e+09,1.52243e+06,-2.93199e+09,-3.36816e+09,-2.11469e+09,-1.61488e+09,-1.79212e+09,5.38833e+07,0,-2.73914e+09,-6.89433e+08,-7.97901e+08,0,-4.13015e+08,0,0,-1.02855e+08,-2.53625e+06,-1.19188e+09,-366384,1.52243e+06,3.04487e+06,-1.64156e+09,1.88265e+06,-3.14044e+09,-3.08133e+08,-1.59626e+09,0,1.11999e+09,0,-2.85827e+09,-3.02479e+09,-3.90769e+08,-2.83443e+09,0,-6.46858e+08,-1.32872e+09,2.20515e+08,-1.37194e+06,-5.89731e+08,-7.1753e+06,0,1.07204e+09,-5.5029e+09,-1.06133e+09,-1.81315e+08,-3.50075e+07,0,0,3.36158e+08,0,1.0546e+09,0,0,0,0,-9.54745e+08,-3.09462e+09,-2.62909e+09,-2.51232e+09,0,-3.68915e+09,0,-5.02904e+09,-4.24353e+09,-1.03532e+10,-4.33572e+09,1.53755e+09,-3.66478e+09,-5.42886e+09,-1.22166e+09,-1.44974e+08,-1.5669e+09,1.10268e+08,4.01955e+06,-1.67335e+07,-6.91341e+08,-1.63418e+09,-607577,5.38833e+07,0,0,1.19101e+09,-145321,4.87305e+07,7.79957e+06,0,0,0,-1.43249e+08,-7.47888e+09,-2.03311e+09,-1.62659e+09,-125347,-1.27072e+09,0,0,0,0,0,0,0,0,0,0,0,0,0,0,0,0,0,0,0,0,0,0,0,0,0,0,0,0,0,0,0,0,0,0,-4.95398e+09,-7.12966e+09,-1.27986e+10,-2.37606e+08,-1.31292e+09,-7.30209e+09,-5.70737e+08,-1.1843e+09,-1.96447e+09,-4.43529e+09,2.75944e+08,3.0139e+08,-1.18261e+09,-4.32244e+09,-2.5072e+09,-607577,-1.29183e+09,0,-1.21515e+06,5.87611e+08,1.11792e+08,-1.05498e+10,3.33521e+06,1.52243e+06,1.52243e+06,-3.27892e+09,-3.31123e+09,-5.77161e+09,-5.18006e+09,-1.07673e+10,0,-3.36818e+09,0,-2.47677e+11,-1.42963e+11,-7.34521e+10,-4.05716e+10,-4.25761e+10,-2.78042e+10,-3.88269e+10,5.7665e+08,-1.40532e+10,-1.29357e+10,-1.86196e+10,-2.04811e+08,-1.13406e+10,-8.00004e+09,-7.10748e+09,-1.36088e+10,-1.12266e+10,-1.52306e+10,-2.66391e+10,8.05391e+08,-9.76944e+08,-4.16225e+10,-5.27523e+09,-1.52459e+10,-1.0839e+10,-3.64357e+10,-1.76501e+10,-3.34518e+10,-4.11486e+10,-1.90251e+10,-2.40772e+10,-2.84e+10,0,-5.29374e+09,-5.29374e+09,-5.29374e+09,-5.29374e+09,-5.29374e+09,-5.29374e+09,-5.29374e+09,-3.72349e+08,-1.94178e+09,-2.13197e+09,-2.09186e+09,1.00598e+07,-1.42071e+09,-1.92062e+09,-1.31081e+09,-1.37913e+09,-1.29126e+09,-1.52306e+09,-2.66409e+09,2.81731e+08,-8.67834e+07,-5.39008e+09,-6.58058e+08,-1.52436e+09,-1.08345e+09,-4.13561e+09,-2.20575e+09,-5.29374e+09,-5.29374e+09,-3.55276e+09,-2.40773e+09,-3.54949e+09,-8.09407e+10,-3.07106e+09
0,7.21569e+09,1.6777e+09,3.9191e+09,5.4457e+08,5.5982e+09,-6.59394e+09,-6.93408e+09,4.91031e+09,3.83858e+09,5.20005e+09,-1.77048e+09,-3.65223e+07,-5.81583e+09,-1.25355e+10,-4.05738e+08,-2.53578e+09,4.94907e+09,-6.84515e+08,3.47617e+08,-4.88731e+09,1.41155e+08,3.11738e+06,8.33574e+09,1.19129e+09,1.14936e+09,-2.51706e+09,-5.7981e+09,-2.94132e+10,-2.28029e+09,1.41983e+09,1.71516e+09,-3.92049e+09,0,-1.31853e+10,-9.46118e+09,-2.24266e+10,-3.65829e+09,5.2743e+09,-3.49215e+09,-1.29942e+10,-6.82229e+09,-3.76255e+09,-8.32779e+08,1.16976e+10,-8.99439e+08,3.18281e+09,-8.95533e+09,-1.32926e+09,1.10623e+08,8.96254e+09,0,7.06439e+09,-7.81382e+09,1.57184e+09,6.01108e+09,3.75363e+09,-1.51812e+09,1.55996e+09,-9.49444e+09,1.8469e+10,-7.56254e+09,1.21971e+10,-5.86474e+09,0,1.33533e+10,0,-2.00067e+09,-7.41767e+09,-7.45581e+09,-3.35442e+09,-2.0309e+09,-1.92769e+09,-5.36539e+09,4.79001e+09,-1.30981e+09,-1.73667e+09,-1.63723e+09,7.44541e+08,4.6356e+09,6.14013e+09,-3.9237e+06,-2.15927e+09,4.81936e+09,0,-1.0809e+08,5.10724e+09,1.90367e+09,1.06652e+10,-9.19792e+08,-2.99395e+09,-3.04067e+06,-3.98761e+09,-7.32716e+09,-3.76479e+09,-6.74731e+09,6.79744e+09,-1.177e+08,-1.07952e+10,0,0,0,0,0,0,0,0,0,0,0,0,0,0,0,0,0,0,0,0,0,0,0,0,0,0,0,0,0,0,0,0,0,0,2.88104e+09,2.46284e+09,-7.18896e+09,4.33411e+09,-1.51445e+09,-6.45593e+09,6.93035e+08,9.21761e+09,-5.99307e+09,-3.25573e+09,1.61761e+09,3.04231e+09,-8.67524e+09,-1.14588e+10,-4.83379e+09,-8.59085e+08,-7.94076e+09,6.448e+07,-9.72786e+08,7.20774e+09,2.92827e+09,-2.47605e+09,-9.70631e+08,-2.09999e+09,-4.31668e+08,-8.5454e+09,-2.8636e+09,-1.65968e+10,-1.44677e+10,-2.50733e+10,-2.11672e+08,-9.93166e+09,0,-2.44182e+11,-1.50814e+11,-6.94763e+10,-4.91321e+10,-5.06774e+10,-2.48804e+10,-2.19277e+10,1.90244e+09,-8.38694e+09,-1.28077e+10,-2.04683e+10,-1.1962e+10,-2.49003e+09,-3.63909e+09,-8.76621e+09,-2.44314e+10,-2.27506e+10,-5.57202e+09,-2.46877e+10,-1.14915e+10,-2.79867e+09,-4.18914e+10,-7.57419e+08,-2.59053e+10,-1.65865e+10,-4.5878e+10,-1.38125e+09,-3.15901e+10,-4.07345e+10,-1.16941e+10,-3.2535e+10,-3.13585e+10,0,-5.41879e+09,-5.41879e+09,-5.41879e+09,-5.41879e+09,-5.41879e+09,-5.41879e+09,-5.41879e+09,1.39981e+09,-1.78856e+09,-1.04279e+09,-1.48355e+09,-9.11113e+08,-9.16268e+08,-3.07255e+09,-1.53389e+09,-2.77216e+09,-9.00014e+08,-6.19206e+08,-1.559e+09,-1.18777e+09,4.00975e+08,-2.63323e+09,1.18089e+09,-3.05933e+09,-1.43119e+09,-7.04225e+09,1.0989e+08,-8.89274e+09,-5.41879e+09,-3.44149e+09,-3.11492e+09,-4.45861e+09,-7.9272e+10,7.29843e+09
0,8.98322e+09,-5.23713e+09,-4.09523e+09,8.84513e+09,-8.52985e+08,-3.83988e+09,-5.91314e+09,8.78802e+09,-4.69289e+09,-1.17445e+09,9.94422e+09,-1.41659e+09,-4.7577e+09,8.98645e+09,-2.15565e+08,4.39824e+09,3.50241e+09,-1.3339e+06,-1.18674e+06,-8.1142e+09,3.13936e+09,3.76573e+09,-2.74764e+08,-3.82885e+09,3.44396e+09,1.09162e+09,2.42663e+09,-2.35776e+09,1.03536e+10,-5.65283e+08,3.59887e+09,-8.24751e+09,0,-8.7032e+09,-3.86684e+08,-2.46959e+09,-1.78872e+09,8.06981e+08,-2.44485e+09,-7.1128e+08,4.66201e+08,1.53071e+09,-2.55085e+09,1.05349e+09,1.05495e+09,-9.30273e+08,7.61383e+09,-9.54918e+09,-1.68552e+07,-3.36766e+09,0,-8142,3.66905e+09,-7.75155e+09,-2.29204e+09,-3.17595e+07,2.28906e+09,1.23347e+09,-1887,-3.70357e+09,-4.55854e+09,-1.29117e+10,-4.6905e+09,-3.62666e+09,1.12566e+10,0,2.08146e+09,-7.82145e+09,-1.16746e+10,7.39581e+09,6.93359e+08,-6.73984e+08,-1.07973e+10,-4.04064e+09,3.08113e+09,-4.7192e+09,-6.73619e+09,-1.37311e+07,8.56768e+08,-4.45919e+09,4.73246e+09,-1.42264e+08,-1.79823e+08,0,-112846,5.70149e+08,-2.16695e+09,2.23752e+09,2.02695e+09,-2.32345e+07,-1.58227e+09,-4.50022e+09,6.85243e+08,-7.40797e+08,-2.38626e+09,-8.21577e+09,5.25246e+08,-2.7647e+09,0,0,0,0,0,0,0,0,0,0,0,0,0,0,0,0,0,0,0,0,0,0,0,0,0,0,0,0,0,0,0,0,0,0,1.30982e+09,-2.36182e+09,-1.36822e+10,7.35052e+09,-6.2285e+08,-8.9608e+09,8.25415e+08,5.88627e+09,2.5924e+09,-6.8016e+09,-1.07968e+09,2.54682e+09,-6.81711e+09,-1.16609e+10,-9.06333e+09,-2.61439e+09,2.75051e+09,-8.10621e+08,-4.66056e+08,-1.4623e+08,6.42587e+09,-1.39507e+09,1.77973e+09,5.0255e+08,3.74221e+08,-3.6897e+09,-6.15822e+09,-2.58404e+09,-2.55174e+08,-2.56609e+10,-2.83446e+09,-9.08102e+08,0,-2.46201e+11,-1.50002e+11,-7.32296e+10,-4.37458e+10,-4.22638e+10,-2.63197e+10,-2.33615e+10,6.63027e+08,-9.58222e+09,-1.16239e+10,-1.63191e+10,-9.86748e+09,-1.9121e+09,-5.03092e+09,-1.01379e+10,-2.27429e+10,-2.44372e+10,-2.89399e+09,-2.41677e+10,-6.37933e+09,-2.87873e+09,-3.92589e+10,-3.07913e+09,-2.4525e+10,-1.73319e+10,-4.14391e+10,-5.03853e+09,-3.56045e+10,-4.44955e+10,-1.36666e+10,-2.99565e+10,-2.73667e+10,0,-5.27991e+09,-5.27991e+09,-5.27991e+09,-5.27991e+09,-5.27991e+09,-5.27991e+09,-5.27991e+09,1.17629e+09,-1.06377e+09,-2.55714e+09,-1.24028e+09,-7.69603e+08,-1.35604e+09,-4.55074e+08,-2.42335e+09,-2.11182e+09,-2.03456e+09,-3.70594e+08,-2.81875e+09,-1.04006e+09,-3.1742e+08,-4.25696e+09,5.26289e+07,-2.56165e+09,-1.38642e+09,-4.85374e+09,-1.1168e+09,-4.58456e+09,-5.27991e+09,-5.27991e+09,-3.22935e+09,-2.92023e+09,-7.51094e+10,-3.86224e+09
0,-6.77415e+08,2.94263e+09,0,-5.74897e+08,0,0,-2.69294e+09,-3.13768e+09,0,0,0,-3.96799e+08,0,0,0,0,0,0,0,0,0,7.0998e+07,0,-1.24543e+09,0,0,-1.03035e+09,-2.0607e+09,-2.42759e+09,-1.24543e+09,0,5.34739e+09,0,-4.78248e+09,2.80733e+09,-2.08016e+08,1.85204e+09,0,0,-8.07883e+09,0,0,0,-1.24543e+09,0,0,0,-2.69294e+09,0,0,0,0,0,0,-3.45794e+09,0,-2.06409e+09,0,0,0,0,0,-2.27542e+09,-5.08981e+09,-2.13443e+08,0,-1.38829e+10,-1.56971e+10,-8.44456e+09,-6.60666e+09,0,-7.86708e+07,-9.10918e+09,-5.09804e+08,0,0,0,0,0,0,-2.77162e+09,0,-1.7682e+09,0,0,182085,0,0,-1.4757e+09,0,364170,0,-2.69276e+09,-1.03035e+09,7.118e+07,-1.24525e+09,0,-6.62602e+09,0,0,0,0,0,0,0,0,0,0,0,0,0,0,0,0,0,0,0,0,0,0,0,0,0,0,0,0,0,0,0,0,0,0,-1.08752e+10,-4.2197e+09,-3.43043e+09,-2.5134e+09,0,-1.07714e+10,0,-1.12122e+10,0,-1.0298e+09,-7.37849e+08,0,0,-1.04888e+10,-3.45545e+09,0,-2.86869e+08,0,0,364170,0,-1.32624e+09,0,0,0,0,-3.72311e+09,0,-5.08981e+09,-4.33575e+09,0,-2.92481e+09,0,-2.33394e+11,-1.38527e+11,-8.97132e+10,-4.07186e+10,-4.07185e+10,-2.98684e+10,-2.29401e+10,-1.62632e+10,0,-9.27188e+09,-1.78495e+10,-9.07665e+09,0,-1.02748e+10,5.38865e+09,-1.13465e+10,-3.55824e+10,-1.96777e+10,-1.83516e+10,1.2746e+06,-7.37849e+09,-3.52751e+10,-1.6713e+10,-2.97857e+10,-2.62895e+10,0,-1.42449e+10,-7.21245e+09,-4.34519e+10,-2.10326e+10,-4.58083e+10,-2.87992e+10,0,-5.08981e+09,-5.08981e+09,-5.08981e+09,-5.08981e+09,-5.08981e+09,-5.08981e+09,-5.08981e+09,-3.11229e+09,0,-1.03017e+09,-1.98328e+09,-9.47345e+08,0,-2.07636e+09,-3.53135e+08,-1.13465e+09,-3.76375e+09,-1.96777e+09,-1.86668e+09,182085,-7.37849e+08,-3.99882e+09,-2.27359e+09,-3.30952e+09,-2.62892e+09,0,-2.16911e+09,-1.03035e+09,-5.08981e+09,-3.01345e+09,-5.08981e+09,-3.32161e+09,-7.22003e+10,-2.165e+09
0,2.48492e+09,-4.06132e+09,6.87192e+09,5.49345e+09,2.02632e+08,1.32016e+09,-1.05686e+10,6.61654e+08,-2.21149e+09,4.19352e+08,-2.31428e+09,3.68474e+06,8.32498e+08,2.42167e+09,-4.22382e+09,6.99499e+08,-1.80797e+09,0,9.75371e+07,6.34525e+09,-6.29157e+09,-6.48161e+09,-7254,9.09766e+07,3.16758e+08,-5.12132e+09,4.13101e+08,7.08181e+07,-7.51677e+09,4.94755e+09,4.60422e+09,-3.76882e+09,0,-1.70772e+10,6.93106e+08,-9.14175e+09,-1.38724e+10,1.92821e+08,4.44676e+09,-1.81321e+10,6.09579e+09,2.73728e+08,8.41172e+08,5.5607e+08,580,4.87035e+08,1.03876e+08,7.72404e+09,3.44332e+08,8.87003e+08,0,2.78121e+09,4.06751e+09,-1.48758e+08,5.54192e+09,-7254,1.71515e+09,8.96167e+08,0,3.25177e+09,2.39478e+09,-3.29204e+09,-7.65817e+09,6.14925e+09,-3.44611e+09,0,-2.51257e+09,-1.23915e+10,-1.0304e+10,-1.15808e+10,2.57541e+09,5.42971e+08,9.75822e+07,8.02505e+09,-510065,-8.34796e+09,0,0,-3.93136e+08,-1.52116e+10,4.40893e+09,-6.68803e+07,0,0,8.58167e+06,-1.65347e+09,-3.13156e+09,2.40699e+09,721191,8.58167e+06,987201,-2.34855e+09,-5.06771e+09,-7.11402e+07,-1.70382e+09,4.82895e+09,-9.17867e+08,-3.43954e+08,0,0,0,0,0,0,0,0,0,0,0,0,0,0,0,0,0,0,0,0,0,0,0,0,0,0,0,0,0,0,0,0,0,0,3.38947e+09,4.079e+09,-1.08079e+10,4.84928e+09,1.53713e+09,-1.20773e+10,2.13388e+09,4.80796e+09,-4.64392e+08,-3.83465e+09,7.16128e+09,2.04086e+09,1.82313e+09,5.55591e+09,-7.13126e+09,9.95443e+08,4.97482e+08,0,-1.30638e+09,7.60074e+09,-8.70827e+08,-5.83969e+09,-4.2544e+08,1.7965e+09,0,-6.25063e+09,-3.34307e+09,3.31596e+09,-8.08758e+08,-3.24207e+10,-3.01636e+09,-5.135e+08,0,-2.34175e+11,-1.52151e+11,-7.75404e+10,-4.62503e+10,-4.57981e+10,-3.55228e+10,-2.30983e+10,-1.27476e+09,-1.10009e+10,-1.12178e+10,-2.01544e+10,-1.21411e+10,-3.40114e+09,-5.4214e+09,-1.23007e+10,-2.36549e+10,-2.40934e+10,-6.30314e+09,-2.20328e+10,-1.1015e+10,-2.89141e+09,-3.96291e+10,-1.73445e+09,-2.69688e+10,-1.63605e+10,-4.72165e+10,-2.14622e+09,-3.51886e+10,-3.82913e+10,-1.35719e+10,-3.44772e+10,-4.37469e+10,0,-5.16127e+09,-5.16127e+09,-5.16127e+09,-5.16127e+09,-5.16127e+09,-5.16127e+09,-5.16127e+09,1.83157e+09,-1.34035e+09,-2.21399e+09,-1.47435e+09,-1.00965e+09,-6.51623e+07,-1.25516e+09,-1.15228e+09,-2.16825e+09,-2.45169e+09,-6.30314e+08,-3.15718e+09,5.34505e+08,-1.33341e+09,-4.40015e+09,-2.69898e+08,-2.33576e+09,-1.51466e+09,-6.0937e+09,-6.89213e+08,-2.94782e+09,-5.16127e+09,-4.38743e+09,-2.7658e+09,-5.16127e+09,-8.60561e+10,1.1929e+09
