0,-2542,-1607,-187,-388,-287,-532,-163,-1743,-409,522,-239,162,-340,-1101,-982,266,-375,2,140,-604,-400,-548,480,-97,27,-1863,155,419,-435,-2120,69,-626,0,-1192,1205,-147,-190,-139,-372,-841,604,1258,-252,-399,109,-339,-1471,370,524,100,188,648,1016,27,152,-92,134,-58,-7625,-925,846,-2107,721,333,292,0,-775,-469,-250,-893,574,-275,560,-1723,-596,895,71,16,427,-74,-7,-182,-308,0,399,286,578,757,-298,48,323,-55,-317,-441,-630,-910,7,-845,0,0,0,0,0,0,0,0,0,0,0,0,0,0,0,0,0,0,0,0,0,0,0,0,0,0,0,0,0,0,0,0,0,0,-4141,-2852,-4149,393,-1609,-1679,-65,527,-1032,-1016,-788,-237,-227,-3213,-437,636,703,0,182,-1137,257,323,-521,-16,-255,-4738,-2114,-428,-787,-4714,135,-1461,0,-69670,-43053,-25338,-11321,-10691,-9282,-10641,-3525,-5832,-1000,-1137,-2740,-7161,-2884,-1194,-6088,-1985,-5040,-5928,-4281,-753,-4875,-1844,-4377,-7171,-14886,-8213,-906,-11439,-5587,-1574,-7724,0,-1519,-1519,-1519,-1519,-1519,-1519,-1519,-586,-631,-87,-260,-269,-764,-876,-225,-484,-192,-485,-81,-472,-29,-405,-256,-436,-695,-2916,-1136,-51,-1519,-1261,-103,-971,-21580,-73
0,-2404,-1058,-775,511,-205,-1035,755,136,19,-68,238,15,264,-412,161,-5,-76,-2,35,324,953,-142,-350,157,-231,-676,-258,-487,-403,-910,95,-1290,0,-1603,-826,-1098,1104,-36,54,524,-434,-114,30,68,30,-606,-987,307,268,-153,0,-55,439,401,-203,-187,60,127,-3348,-251,-292,-1956,-1643,160,2315,0,-561,-409,-1404,-180,-455,-975,429,-734,-381,79,-248,-89,-246,-519,-438,169,-500,0,-5,-63,440,-43,-426,307,24,-703,754,-467,12,-1148,350,-1429,0,0,0,0,0,0,0,0,0,0,0,0,0,0,0,0,0,0,0,0,0,0,0,0,0,0,0,0,0,0,0,0,0,0,-3244,-1942,-3256,-1313,-305,-1376,-91,-1196,-1212,15,-295,419,-1687,-2105,-221,274,-1044,0,48,-1113,91,-604,-1064,92,-52,-3977,-178,-374,-2110,-4894,45,-658,0,-70588,-42440,-24715,-11616,-11543,-9296,-10065,-3522,-5724,-759,-1503,-2465,-7565,-2927,-779,-6635,-1794,-5238,-6548,-4367,-785,-4719,-2485,-4314,-7258,-15126,-8321,-1400,-11258,-5425,-1290,-7674,0,-1568,-1568,-1568,-1568,-1568,-1568,-1568,-575,-762,-63,-194,-209,-984,-695,-97,-593,-333,-524,-575,-478,110,-567,-564,-363,-739,-2383,-827,-302,-1568,-1402,-64,-929,-21442,197
0,-2975,-993,-678,-1530,-522,231,756,-623,-409,-320,-155,83,-657,-2220,-862,199,-38,-3,-6,344,-25,-783,-327,-132,156,-1049,-365,29,125,-753,-4,-403,0,-329,-1890,-1893,327,-247,151,412,-778,-39,106,207,-1,-147,-764,-240,184,-14,0,-105,-385,260,-96,103,261,185,-2287,-176,-144,-521,-326,0,140,0,-930,-1467,-46,-316,-695,-878,185,-1135,-232,2,-118,-17,444,-43,-506,-2,-7,0,0,-40,-102,-116,51,-14,-121,-410,-330,-6,-491,-779,0,-421,0,0,0,0,0,0,0,0,0,0,0,0,0,0,0,0,0,0,0,0,0,0,0,0,0,0,0,0,0,0,0,0,0,0,-3337,-1136,-4112,-1592,-1049,-1811,-613,-1415,-28,-89,-140,-162,-175,-2873,-188,-133,-520,0,-10,-841,-277,-379,155,308,124,-3073,-554,-531,-1946,-5339,-53,-1169,0,-70922,-41360,-24930,-12169,-9871,-10075,-10904,-2049,-5067,-895,54,-2383,-7425,-3740,-1534,-5812,-2675,-5417,-5353,-3918,-226,-5906,-2038,-4063,-7110,-13850,-8663,-868,-12622,-5193,-913,-8295,0,-1548,-1548,-1548,-1548,-1548,-1548,-1548,-600,-584,-126,-40,-248,-796,-964,-333,-564,-341,-542,-576,-484,-37,-733,-257,-375,-677,-2067,-1004,-152,-1548,-1239,-97,-1096,-22444,-882
0,-3161,-200,-698,723,83,-889,511,-948,-840,-636,125,307,-373,-1567,-815,179,24,0,111,-279,-33,-384,-276,-147,-61,-1792,-934,157,-687,-677,99,446,0,-867,1171,-45,47,320,651,-199,138,-309,-497,294,456,141,-112,319,327,151,0,513,-167,59,469,1294,93,-475,-4991,-290,-32,-1229,-1581,564,-4359,0,-526,-1059,170,-907,-44,-595,599,-1141,-105,306,313,346,437,662,-435,-439,-697,0,-48,-939,-37,300,-523,382,158,-58,-620,-255,216,-321,-136,364,0,0,0,0,0,0,0,0,0,0,0,0,0,0,0,0,0,0,0,0,0,0,0,0,0,0,0,0,0,0,0,0,0,0,-4348,-2263,-4524,-580,-147,-1878,-423,-399,-1336,423,629,26,-628,-1464,-1342,-73,529,0,42,-754,399,-150,246,-300,12,-2689,-731,-401,-1833,-4022,142,-499,0,-68963,-43500,-24587,-12644,-12380,-9473,-10925,-3660,-6387,-792,-997,-2645,-7247,-2449,-847,-5504,-1719,-5070,-5415,-4101,-678,-4538,-1495,-4241,-7054,-14930,-8288,-639,-11521,-5309,-1429,-8624,0,-1521,-1521,-1521,-1521,-1521,-1521,-1521,-601,-917,-116,36,-151,-767,-493,-312,-551,-186,-507,-535,-624,-29,-441,-112,-421,-742,-2446,-1086,-117,-1521,-1191,-76,-1304,-21615,192
0,-5465,-926,-1730,-1645,-1393,-1926,-556,5,-185,-187,1,0,2,-1683,-323,0,-752,0,0,-365,1,-556,-2256,0,-185,4,-307,0,-1055,-555,0,3,0,-881,0,-938,-825,-1670,-554,-216,1,1,0,-46,0,-376,0,-46,-373,0,0,0,0,0,-186,0,0,0,-940,-375,0,-564,3,0,-182,0,-178,-1074,-1311,-649,-1358,-1775,-87,10,0,-376,0,0,0,-1128,-92,1,0,0,0,-188,0,0,0,0,-46,-187,3,0,-43,-1174,0,-376,0,0,0,0,0,0,0,0,0,0,0,0,0,0,0,0,0,0,0,0,0,0,0,0,0,0,0,0,0,0,0,0,0,0,-1406,-2594,-2529,-1701,-1981,-3795,-877,13,5,-506,-232,0,-375,-4873,-2999,-187,-376,0,0,-946,2,-552,0,0,-46,-1121,-722,-376,-2185,-959,0,-1122,0,-65831,-38404,-22964,-10353,-5462,-3814,-9340,-1299,-3521,-3991,-3883,-1760,-3001,-3566,-4490,-9201,-4912,-10650,57,-2151,27,-4306,-1480,0,-7673,-10306,-4089,-4664,-10983,-3375,-5040,-9355,0,-1483,-1483,-1483,-1483,-1483,-1483,-1483,-127,-370,-506,-416,-176,-375,-1125,-795,-976,-604,-1065,6,-365,3,-560,-561,0,-795,-1255,-549,-504,-1483,-606,-504,-1122,-28602,-364
0,-1586,-1194,-1133,-1224,58,-2254,61,-826,-583,54,-246,6,-752,-2374,-1841,5,13,0,0,-1782,183,-1866,36,0,185,-842,-383,-643,-1406,-618,0,-539,0,-880,-435,-643,-245,112,-1335,-376,37,11,3,41,4,5,-255,-212,198,-187,14,0,-284,-69,-136,1,0,5,-1941,-101,20,-451,-750,0,35,0,-502,-394,-280,-47,-181,-1036,194,46,128,10,25,0,-324,11,84,1,44,0,0,-165,-156,-120,18,1,2,28,108,35,-326,-676,0,5,0,0,0,0,0,0,0,0,0,0,0,0,0,0,0,0,0,0,0,0,0,0,0,0,0,0,0,0,0,0,0,0,0,0,-5612,-1747,-2629,-1451,193,-48,-934,-1473,-1173,-159,135,38,-587,-2534,-1347,-373,-420,0,55,-2199,-31,-1319,-1340,-175,-116,-2456,-494,-430,-1741,-2934,59,-775,0,-68644,-41329,-25166,-11742,-12222,-7408,-11286,-3934,-7857,-2922,-6345,-1528,-6602,-4271,-1304,-6132,-1063,-1404,-2638,-1890,-237,-6119,-2499,-4410,-6586,-11271,-4314,-1582,-11127,-1012,-1429,-7938,0,-1505,-1505,-1505,-1505,-1505,-1505,-1505,-615,-975,-299,-692,-148,-826,-941,-462,-630,-176,-139,-265,-632,-31,-956,-520,-458,-651,-1648,-518,-260,-1505,-599,-137,-967,-23936,-1452
0,-4519,-1651,-1400,498,771,-630,-2119,-840,-619,123,-335,0,-293,-912,-328,1,-275,0,4,17,-313,-182,-12,175,79,-2272,-753,153,-1522,-1779,51,-343,0,-866,-748,-78,-426,-151,138,-979,-374,-49,74,143,0,73,169,63,0,141,0,126,-354,0,-93,-85,77,106,-2096,-381,-84,331,-1117,210,-1393,0,-2774,686,29,-1698,-71,-958,-359,-363,399,51,123,1,168,-143,707,-75,-354,0,0,-1386,0,392,-1372,6,139,-941,142,-364,-1005,-576,15,460,0,0,0,0,0,0,0,0,0,0,0,0,0,0,0,0,0,0,0,0,0,0,0,0,0,0,0,0,0,0,0,0,0,0,-5234,-1633,-3411,-1463,-156,-734,-723,-554,642,-667,145,4,-267,-1701,422,-76,-351,0,18,-395,57,-76,-1162,8,-92,-2857,-2176,565,-1386,-3541,-314,-1085,0,-68732,-41985,-25346,-13150,-12521,-9944,-9921,-2799,-5988,-1291,-1617,-2845,-5901,-2813,166,-6000,-1112,-4400,-5667,-3362,-1364,-3615,-689,-3396,-7122,-13544,-12004,-1760,-11632,-6117,-1002,-11031,0,-1516,-1516,-1516,-1516,-1516,-1516,-1516,-493,-560,-171,-152,-284,-622,-540,103,-615,-195,-440,-592,-548,-162,-357,-415,-313,-689,-2171,-1516,-149,-1516,-1313,-104,-1346,-21345,171
0,-1810,-984,-1861,-1485,-224,-1131,-213,-1735,94,13,-81,-100,65,-1316,191,197,92,-5,15,849,-55,-65,-210,0,-21,-2081,-251,125,-458,-2567,-1,-1001,0,-1325,-746,-356,-119,96,-231,-156,-1748,242,368,-4,0,105,-616,707,-9,-29,0,186,15,0,93,-35,-173,0,-1929,-151,120,-716,-1551,0,53,0,-1780,-818,-742,-357,73,-844,102,-753,116,5,45,0,-143,-474,-78,-11,-333,0,-1,-322,137,-169,11,-26,-11,-370,-4,-96,-429,-732,0,-102,0,0,0,0,0,0,0,0,0,0,0,0,0,0,0,0,0,0,0,0,0,0,0,0,0,0,0,0,0,0,0,0,0,0,-5555,-1424,-2790,-985,-464,-1239,-1398,-4921,-628,110,-54,0,-101,-1706,-826,115,35,-6,302,281,632,-779,-338,29,3,-2414,-724,-3,-1681,-3608,112,-1031,0,-69956,-42381,-24874,-11888,-11793,-8809,-10054,-6233,-4615,-1564,-3469,-2100,-5986,-4039,-304,-6832,-3775,-6119,-7054,-2313,106,-5532,-2668,-5030,-6661,-11399,-6774,-176,-12106,-4772,-1221,-7735,0,-1539,-1539,-1539,-1539,-1539,-1539,-1539,-1539,-480,-101,-352,-220,-606,-816,-31,-654,-401,-613,-636,-149,82,-632,-405,-511,-669,-1820,-791,-3,-1539,-1323,-111,-1070,-21634,-1223
0,-3423,-714,-1142,-646,-163,-462,-855,-794,-1112,-390,-215,0,-642,-1509,-1493,6,-263,0,20,-1996,66,-1265,0,-116,0,-650,-450,-326,-1013,-681,0,4,0,-2724,381,-663,-178,-139,-90,-159,-49,-1505,-57,79,0,-119,-390,-864,0,-105,0,-250,-332,76,-227,0,42,0,-374,17,-129,-2,-630,0,2,0,-2675,-514,-308,-1732,-259,-228,-226,138,-163,-189,54,0,73,-424,-314,14,-185,0,0,-639,-368,-24,-60,-22,0,-406,73,-32,-756,-244,0,-186,0,0,0,0,0,0,0,0,0,0,0,0,0,0,0,0,0,0,0,0,0,0,0,0,0,0,0,0,0,0,0,0,0,0,-6032,-2212,-1296,-2049,380,-2665,-1716,-1627,-1189,-108,-101,-224,-761,-1535,-3287,-169,-160,0,129,-1135,-384,-796,-28,-19,0,-1416,-548,-348,-1819,-3218,0,-317,0,-69085,-41244,-26341,-11630,-11851,-8587,-11774,-1008,-10504,-2858,-1560,-706,-4211,-2772,188,-4071,-3380,-4200,-5754,-3708,-3940,-4718,-2432,-6048,-5310,-7914,-5802,-4355,-11463,-4187,-3320,-2537,0,-1504,-1504,-1504,-1504,-1504,-1504,-1504,-334,-1504,-353,-188,-93,-566,-663,-577,-422,-441,-420,-713,-781,-455,-739,-315,-630,-531,-1076,-671,-519,-1504,-896,-332,-317,-21368,-331
0,-3198,-1321,-2184,-718,-59,-2434,-454,-418,37,-1560,391,-70,-461,-56,-560,-327,-229,0,141,-1572,-322,-193,-296,-8,-10,-115,-347,306,-631,-1296,0,-1054,0,-1064,-261,-601,-140,0,-263,44,-311,-51,-1288,0,352,-28,-474,-161,0,186,0,141,-897,2,-1,0,0,0,-284,-493,0,-543,-2036,0,107,0,-1259,-68,-204,-267,214,-239,-207,-45,-57,-982,-87,0,-79,-383,-257,-25,-196,0,0,85,83,-122,-261,0,0,-169,223,-110,-281,-826,0,116,0,0,0,0,0,0,0,0,0,0,0,0,0,0,0,0,0,0,0,0,0,0,0,0,0,0,0,0,0,0,0,0,0,0,-4078,-2698,-2477,-1125,109,-1245,-1240,-542,-698,-1989,-102,-75,-324,-517,-421,-239,-130,0,0,-1563,-308,111,-678,-116,50,-709,-983,180,-1498,-4126,-199,-803,0,-69867,-41660,-25278,-11704,-12656,-8211,-10972,-2824,-5701,-9409,-209,-2797,-4308,-3530,-3011,-7269,-2761,-3960,-4238,-3863,-2375,-6436,-4005,-3016,-4790,-10043,-6120,-1976,-12472,-6486,-1901,-6205,0,-1549,-1549,-1549,-1549,-1549,-1549,-1549,-414,-651,-1549,-25,-259,-520,-496,-441,-786,-313,-396,-316,-781,-292,-704,-655,-314,-475,-1132,-772,-160,-1549,-1477,-210,-803,-21146,-910
0,-4019,-1082,-456,-2205,53,-463,-2149,-1097,-584,33,-262,0,-563,-284,-898,-262,-5,0,0,-610,-170,-532,0,-219,-49,-356,-12,-49,-504,-1353,79,4,0,-2032,40,-260,-645,-4,-88,-408,120,33,0,-1501,0,53,-789,-471,0,0,0,0,-381,93,-173,0,158,-213,-477,-185,4,-79,-329,-55,-192,0,-568,-634,-320,-819,44,-543,-70,64,16,-416,0,0,-150,-117,624,-49,-42,0,0,-613,19,202,0,0,-4,-111,-137,-62,-213,-546,-164,-162,0,0,0,0,0,0,0,0,0,0,0,0,0,0,0,0,0,0,0,0,0,0,0,0,0,0,0,0,0,0,0,0,0,0,-6065,-3193,-1930,-1955,-195,-1774,-1348,-1508,-590,-93,-314,88,-498,-746,-647,102,-72,0,-45,-1193,-326,-878,0,-71,-4,-522,-942,-522,-1810,-2276,0,-612,0,-68929,-39560,-27054,-11674,-11906,-9041,-10484,-3509,-6813,-1054,-12858,-1878,-3662,-4224,-4278,-7691,-3489,-2860,-2757,-2523,-3136,-4819,-2280,-4206,-5940,-10204,-6614,-3741,-12230,-516,-5060,-5158,0,-1501,-1501,-1501,-1501,-1501,-1501,-1501,-593,-805,-153,-1501,-179,-482,-616,-567,-790,-365,-286,-295,-532,-352,-620,-285,-440,-621,-1167,-789,-437,-1501,-502,-520,-612,-19236,-974
0,-3645,-1447,-560,-1806,-402,-188,-1100,0,-188,-555,0,-477,-181,-745,-158,0,-184,0,0,-1604,0,-194,-836,0,0,0,-369,0,-899,-1499,-268,0,0,-1338,0,-376,-763,0,-181,0,0,0,-563,0,-1517,-369,-553,0,0,0,0,0,0,-316,-311,-254,0,0,0,0,0,-188,-368,0,-188,0,-3746,-1041,1,-1122,-254,-473,-1114,0,0,-183,-158,-414,-527,-556,-158,0,0,0,-158,-1661,-316,-268,-134,0,0,0,0,0,0,-547,0,0,0,0,0,0,0,0,0,0,0,0,0,0,0,0,0,0,0,0,0,0,0,0,0,0,0,0,0,0,0,0,0,0,0,0,-9019,-2860,-1906,-4249,-1138,-674,-1288,0,0,-744,-217,0,-824,-1298,-790,-292,-184,0,0,-1808,3,-388,-328,0,0,0,-738,-368,-1991,-2427,-134,-510,0,-65446,-38362,-26165,-10954,-9862,-10140,-11068,-3690,-3572,-5125,-7325,-12162,-5739,-7478,-474,-8688,-6502,-5550,-8848,-187,-941,-2549,-1416,10,-9290,0,-2583,-3842,-11492,-749,-928,-4214,0,-1457,-1457,-1457,-1457,-1457,-1457,-1457,-369,-376,-717,-770,-1457,-764,-1063,-158,-898,-687,-555,-954,-526,-157,-371,-371,1,-929,0,-369,-421,-1457,-559,-133,-510,-21317,-905
0,-1463,-1295,-307,-1397,-592,-8,328,376,141,11,-7,0,-607,-1939,322,55,-278,0,-80,-373,-13,-380,-10,73,0,-706,51,-45,-399,-1581,0,-924,0,-739,50,-1476,-82,-183,-237,-189,-115,56,-60,-40,188,-1395,-929,-30,-33,50,0,0,-473,14,-41,-111,6,-1,-1113,-151,-515,-723,-2193,0,6,0,-977,-452,-909,-553,-475,-1848,-204,-87,-229,-1,146,0,-138,-697,3,-73,0,0,0,173,0,-243,64,-18,-1,-358,-258,0,-116,-724,0,-320,0,0,0,0,0,0,0,0,0,0,0,0,0,0,0,0,0,0,0,0,0,0,0,0,0,0,0,0,0,0,0,0,0,0,-3797,-2072,-2791,-1251,-1092,-1543,371,681,-534,26,-83,-68,-1941,-3926,-370,-33,46,0,-260,-1289,28,67,-350,-96,0,-2187,-655,-588,-1039,-4238,0,-1061,0,-69934,-42432,-25015,-11906,-9850,-8556,-10889,-665,-4524,-1266,-1661,-3310,-11159,-2529,-1265,-5176,-1444,-6530,-6092,-2358,-1559,-6333,-2249,-4905,-6628,-10556,-8337,-382,-12963,-5194,-1070,-8677,0,-1524,-1524,-1524,-1524,-1524,-1524,-1524,19,-509,-129,-188,-319,-1524,-1002,-134,-526,-152,-653,-667,-432,-154,-693,-332,-494,-663,-1492,-935,-153,-1524,-1393,-107,-1084,-22897,-527
0,-361,-457,-1018,-391,-364,-876,520,-700,-10,564,-52,-53,-277,-3141,-111,-20,-274,0,-15,-334,177,-847,-430,-155,-101,-1990,-576,143,-642,-1319,0,-1473,0,851,-43,-1048,646,-65,105,-165,-1428,-196,231,143,-23,-782,-938,151,-18,-288,0,-129,-272,-38,-172,-3,-13,-28,-2163,-593,-496,-994,-2430,0,550,0,11,294,5,-152,-212,-383,-555,-263,-385,492,-20,-16,-460,-1267,-24,-37,53,0,0,741,-12,-103,368,-52,26,-217,261,98,-43,316,0,159,0,0,0,0,0,0,0,0,0,0,0,0,0,0,0,0,0,0,0,0,0,0,0,0,0,0,0,0,0,0,0,0,0,0,-3665,-2362,-2022,-1519,74,-1413,-551,-1079,-316,1,-108,14,-1489,-4726,-394,-120,-680,0,-193,799,288,-92,-557,-158,27,-2507,-745,70,-1776,-5220,-169,-1130,0,-69346,-43084,-26329,-12124,-11697,-9652,-9700,-2760,-5554,-724,-316,-872,-6882,-5248,-1072,-6205,-1135,-5600,-5235,-2504,-815,-5580,-1244,-5182,-6844,-13641,-7017,385,-11875,-4747,-1111,-7912,0,-1533,-1533,-1533,-1533,-1533,-1533,-1533,-623,-634,32,-61,-95,-989,-1533,-145,-640,-238,-560,-564,-157,-40,-676,-271,-556,-692,-2052,-867,20,-1533,-1340,-128,-988,-23558,-718
0,-2814,-857,-1593,-1457,-3,-1006,-339,-436,-275,-108,-2,-2,-329,-656,-3132,-206,-61,0,-12,-507,-14,-375,-4,-44,-2,-474,-98,-44,-558,-1349,-50,-284,0,-1126,-1041,-182,-207,-29,115,-176,-289,-77,-22,-65,-1,-36,-345,-1758,-24,0,0,0,-313,-1,-334,-1,0,0,-552,-161,-61,-503,-289,0,-342,0,-488,-842,-602,-365,209,-164,-520,-419,-71,-167,98,-5,243,-201,-1157,-29,-32,0,-3,204,-9,-103,-33,-58,0,-223,-173,-8,-251,-380,0,-287,0,0,0,0,0,0,0,0,0,0,0,0,0,0,0,0,0,0,0,0,0,0,0,0,0,0,0,0,0,0,0,0,0,0,-5716,-1847,-2493,-1640,378,-1811,-759,-1175,-728,-428,150,202,-330,-1516,-4603,-155,-47,0,-93,-95,733,-720,-342,-43,-115,-1051,-1071,-77,-1755,-2625,-20,-788,0,-70490,-40816,-25620,-12384,-12723,-9302,-9758,-4021,-6284,-2745,-2514,-3224,-4088,-4452,-4560,-6032,-2691,-4220,-2999,-4129,461,-6526,-1870,-5462,-5503,-11700,-6236,-470,-12143,-3367,-4010,-7138,0,-1521,-1521,-1521,-1521,-1521,-1521,-1521,-634,-757,-347,-253,-303,-454,-717,-1521,-637,-287,-422,-381,-484,117,-813,-295,-581,-562,-1400,-779,-66,-1521,-801,-408,-904,-21866,-825
0,-4707,-648,-910,-1247,79,-729,-902,-142,-222,-140,-204,0,-338,-94,-303,0,0,0,0,-425,0,-554,0,0,-1,-588,-392,-213,-1050,-888,0,-298,0,-1522,-843,-568,-1575,19,21,-188,12,0,0,1,0,-68,-45,-137,-1494,-85,0,0,0,0,10,0,-173,0,-181,-188,-414,1,-255,0,-174,0,-1249,-515,-389,-629,-77,-90,0,-84,-11,-105,1,0,-68,20,5,0,0,0,0,10,0,0,0,0,0,10,0,-27,-254,-351,0,-68,0,0,0,0,0,0,0,0,0,0,0,0,0,0,0,0,0,0,0,0,0,0,0,0,0,0,0,0,0,0,0,0,0,0,-7205,-3230,-1899,-3000,-201,-711,-1671,-67,-622,-293,10,0,-461,93,-242,-486,-68,0,0,-426,-145,-662,0,-68,0,-549,-988,0,-1659,-1919,0,-299,0,-68744,-38418,-26126,-11998,-11772,-10443,-12179,-4469,-7598,-6872,-5388,-2720,-6055,-4007,-5313,-12960,-4857,-1580,-4699,-639,-1305,-2904,-3424,-5659,-9099,-6842,-4122,-6156,-11978,-3667,-2160,-4320,0,-1494,-1494,-1494,-1494,-1494,-1494,-1494,-475,-843,-741,-558,-272,-699,-401,-599,-1494,-501,-158,-544,-148,-145,-411,-428,-590,-910,-815,-569,-681,-1494,-708,-216,-540,-16259,-411
0,-3865,193,-265,-1310,343,-700,-405,-628,-213,-487,-229,82,-294,-2149,-760,86,-1693,0,-218,360,164,-1049,-1255,-163,0,-190,112,-16,-547,-835,-4,-156,0,-2093,-435,-129,-1696,85,-126,-197,-115,21,-79,0,-6,-117,-684,99,138,-1339,0,0,100,0,82,-75,-178,0,-435,-58,41,-171,-26,0,-139,0,-3007,-1104,-347,-1460,-212,-418,-1224,-148,-174,-530,-123,-1,-6,-514,-351,5,-840,0,0,-45,-36,-536,-1629,-1,0,-307,-5,62,-955,-856,0,-120,0,0,0,0,0,0,0,0,0,0,0,0,0,0,0,0,0,0,0,0,0,0,0,0,0,0,0,0,0,0,0,0,0,0,-7323,-1308,-1663,-2443,-393,-866,-38,-3420,143,-751,278,-5,-364,-2241,-1452,-339,-1731,0,143,-213,226,-1617,-1690,-92,0,-591,-756,-215,-1884,-2331,86,-431,0,-67955,-42138,-27353,-11097,-11823,-9890,-13160,-2949,-5687,-1268,-236,-2850,-5439,-3492,-3856,-4040,-9212,-6240,-3263,-3292,-284,-3940,-2603,-3026,-4350,-11627,-4693,-1282,-11443,-4732,-2382,-5024,0,-1500,-1500,-1500,-1500,-1500,-1500,-1500,-726,-591,-330,-31,-278,-622,-908,-632,-415,-1500,-624,-399,-309,7,-724,-946,-346,-435,-1315,-540,-141,-1500,-878,-230,-587,-20300,-114
0,-188,-376,-188,-564,0,-752,0,-376,0,0,-188,0,0,-188,0,0,0,0,0,-376,-564,0,-376,0,0,0,0,0,-376,-376,0,-188,0,-188,-188,0,0,0,-376,0,-188,0,0,0,0,0,-188,0,0,0,-376,0,-376,0,0,0,0,0,0,0,0,0,0,0,0,0,-752,-188,-188,-188,0,-940,0,0,0,0,0,0,0,0,0,0,0,0,0,-376,0,-188,-188,0,0,0,0,0,-188,-564,0,0,0,0,0,0,0,0,0,0,0,0,0,0,0,0,0,0,0,0,0,0,0,0,0,0,0,0,0,0,0,0,0,0,0,0,-2632,-564,-564,-1316,0,-376,0,-188,0,0,0,-376,0,-188,0,0,0,0,0,-1880,-1692,-752,-188,0,0,0,0,0,-564,-940,0,0,0,-16920,-9964,-6580,-2632,-3008,-564,-3760,-1128,0,0,-1692,-1504,-1880,-1316,0,0,0,-3384,0,-752,-1504,-940,-2256,0,-3760,0,0,0,-2632,0,0,-1692,0,-376,-376,-376,-376,-376,-376,-376,-188,0,0,-188,-188,-188,-188,0,0,0,-376,0,-376,-376,-188,-376,0,-376,0,0,0,-376,-188,0,-188,-7332,-188
0,-2432,-1421,-173,-808,0,0,-252,-862,-272,0,0,0,-149,-630,-490,-138,-228,0,-127,-80,-378,-129,0,-129,0,-132,-103,0,-352,-34,-129,-552,0,-1545,-370,-382,-931,0,0,-171,-541,-176,-42,0,0,0,-233,-85,0,0,0,-1497,-943,0,0,-132,0,3,0,0,0,-26,-127,0,-287,0,-1515,-667,-361,-624,-81,-543,-441,-786,-85,-85,0,0,0,-522,-364,-34,-89,0,-358,-241,-31,0,-396,-132,3,18,-179,0,-399,-34,0,-446,0,0,0,0,0,0,0,0,0,0,0,0,0,0,0,0,0,0,0,0,0,0,0,0,0,0,0,0,0,0,0,0,0,0,-5730,-2368,-945,-1927,-224,-1024,-347,-2094,-461,-42,0,0,-371,-1691,-1794,-256,-138,0,-270,-2570,9,-190,0,-85,0,-638,-603,-34,-1719,-16,0,-977,0,-68598,-39862,-27994,-11256,-11671,-10409,-12986,-5197,-8586,-4241,-1980,-3080,-4150,-2584,-2397,-5302,-4115,-6460,-9051,-4006,-3730,-1581,-2384,-6424,-5079,-4278,-8005,-376,-12474,-1909,-3301,-7518,0,-1497,-1497,-1497,-1497,-1497,-1497,-1497,-948,-958,-441,-198,-308,-467,-566,-513,-573,-457,-646,-1497,-784,-413,-190,-364,-677,-507,-503,-889,-41,-1497,-212,-343,-978,-19628,-853
0,-3023,-669,-1228,-1457,-377,-2138,-146,-81,148,390,219,422,-218,-1676,-502,-165,-61,0,-9,-2124,729,82,-77,24,-191,-2446,-795,246,-280,-2176,0,-681,0,-2629,-765,-221,-636,-2,-388,180,27,135,21,-63,-1,-403,-157,-246,-4,182,174,234,-748,210,278,-62,-14,-2,-2252,-724,309,-429,-246,0,91,0,-591,-409,-168,-1161,136,-485,-344,168,-344,-333,-133,-4,45,-796,-121,-97,-21,0,-13,-1658,-70,-71,-632,-3,-386,-793,31,147,-354,-506,0,-634,0,0,0,0,0,0,0,0,0,0,0,0,0,0,0,0,0,0,0,0,0,0,0,0,0,0,0,0,0,0,0,0,0,0,-3229,-1788,-2708,-1375,-574,-706,-927,-392,-74,29,-90,79,-463,-2869,478,-198,152,-23,-327,-3578,-167,-215,-585,-121,-224,-4005,-1055,-89,-1495,-2518,-56,-1119,0,-70201,-42167,-26171,-12149,-11375,-8466,-9967,-3442,-5014,-657,-350,-2786,-6461,-3112,-489,-5896,-891,-3331,-3495,-7132,-2750,-6345,-932,-5134,-6260,-12284,-8427,-263,-12644,-3344,-2284,-7984,0,-1524,-1524,-1524,-1524,-1524,-1524,-1524,-372,-501,-55,-42,-229,-750,-861,-88,-636,-70,-318,-538,-1524,-214,-628,-286,-527,-713,-2178,-1097,35,-1524,-879,-234,-1011,-21531,-364
0,-3292,-1833,-1038,-1780,-137,-933,-272,8,-268,-363,-64,-763,-184,-806,-60,-104,-77,0,-104,-2411,-1420,-555,0,0,0,-72,-180,0,-504,-1926,0,-597,0,-1436,-500,-416,-14,-155,-39,-136,0,-23,-149,74,-2,-53,-478,-5,0,0,0,0,-1444,-1409,-376,0,0,0,-27,-136,0,-364,-801,0,-230,0,-527,-92,-404,-289,4,-348,0,-153,-41,0,33,0,9,193,-1,0,0,0,187,429,-292,-269,0,0,0,-18,0,0,-466,-749,0,-4,0,0,0,0,0,0,0,0,0,0,0,0,0,0,0,0,0,0,0,0,0,0,0,0,0,0,0,0,0,0,0,0,0,0,-6336,-1633,-2440,-1377,-88,-1690,-860,-528,-586,-370,-205,12,-719,-484,-1665,-94,18,-144,0,-2959,-712,-230,-27,0,-180,-1128,-316,-496,-2002,-2621,0,-1054,0,-68807,-40761,-25682,-11789,-11616,-8982,-12910,-2497,-6232,-3328,-1382,-4277,-5533,-2985,-1499,-3892,-3061,-6676,-3005,-3825,-11157,-4350,-349,-1560,-6600,-8355,-4358,-1654,-11654,-4863,-3320,-8705,0,-1499,-1499,-1499,-1499,-1499,-1499,-1499,-317,-715,-421,-168,-503,-648,-456,-323,-409,-312,-682,-397,-1021,-1499,-578,-47,-156,-678,-960,-499,-215,-1499,-1096,-332,-1059,-21439,-904
0,-3405,186,-1066,-950,388,-722,-694,-2288,235,-417,-92,209,-602,-527,-1192,0,229,5,0,-597,-442,-563,339,132,0,-536,-90,-182,-955,-1958,41,-530,0,-750,-155,-53,-241,-63,-393,-356,-173,185,-22,-242,114,-289,-483,-963,0,-190,0,0,-631,-131,-1233,-28,123,8,-916,-392,14,-823,-426,282,-23,0,-2015,642,-778,-1389,-478,-572,-1806,-1045,153,-169,-22,197,-68,-121,-2,-60,-8,0,0,-714,-126,-282,200,-12,0,-105,-32,5,87,-755,27,-35,0,0,0,0,0,0,0,0,0,0,0,0,0,0,0,0,0,0,0,0,0,0,0,0,0,0,0,0,0,0,0,0,0,0,-5143,-1414,-2379,-1283,-139,-1412,152,-2004,-708,-375,-62,0,-544,-1460,-2292,142,-152,-127,1,-1680,-229,-1702,123,1,0,-1023,-631,-31,-1953,-3073,211,-538,0,-68622,-43889,-25687,-12356,-11564,-8757,-8881,-6180,-7014,-2687,-1682,-1840,-4197,-2699,-2211,-5702,-1699,-3098,-4202,-4608,-1432,-10880,138,-5434,-5978,-10831,-3941,-466,-11124,-3408,-2931,-6370,0,-1482,-1482,-1482,-1482,-1482,-1482,-1482,-1169,-717,-367,-210,-132,-570,-529,-666,-562,-182,-322,-451,-823,-236,-1482,96,-519,-597,-1341,-526,-66,-1482,-962,-237,-768,-22250,-866
0,-6778,-2722,-127,-2593,-674,-299,-2049,-303,19,0,0,191,2,-552,0,3,-2371,0,0,-120,21,-190,-3014,-127,0,-588,-80,2,-839,-318,-213,0,0,-1605,-411,2,-1237,19,1,-294,-188,0,0,0,134,0,-184,0,0,-150,0,0,-126,0,-130,-2326,0,0,-950,0,0,-184,0,0,0,0,-5536,-723,-169,-4107,-324,2,-712,-499,-18,0,0,40,3,-940,4,-128,-1587,0,0,-128,0,122,-1770,2,0,-183,-188,-376,-664,2,1,-172,0,0,0,0,0,0,0,0,0,0,0,0,0,0,0,0,0,0,0,0,0,0,0,0,0,0,0,0,0,0,0,0,0,0,-8353,-2343,-1364,-2491,-323,-1953,-258,-1114,-123,-10,28,0,80,-2775,-1578,76,-1309,0,4,-379,2,-217,-2260,-256,0,-2176,-1802,-36,-1879,-1418,59,-483,0,-64905,-39470,-28920,-9055,-10906,-9959,-11603,-3616,-6160,-4070,-1468,455,-2955,-3289,-9426,-6291,-6534,-8920,-1274,-597,27,-4695,-2113,-2439,-2770,-9383,-8050,-5590,-11694,-1556,-4627,-4175,0,-1526,-1526,-1526,-1526,-1526,-1526,-1526,-572,-641,-408,-144,82,-287,-774,-1100,-634,-1206,-892,-202,-135,5,-511,-1526,-282,-277,-1328,-1012,-600,-1526,-329,-478,-483,-22886,-358
0,-3236,-1911,-1258,-1167,0,-521,-347,-1116,-295,-252,-243,0,-302,-1109,-248,0,-148,0,0,-374,2,-193,-20,5,-281,-988,-272,-168,-206,-1687,-22,-321,0,-1520,-701,-419,-610,0,-10,-154,-220,-158,0,-150,0,6,-188,-84,-160,-39,0,0,-133,0,-152,0,-1512,-281,-656,0,0,-348,-291,-311,20,0,-1350,-1215,-489,-768,0,-287,-335,-315,-135,-189,-2,0,-139,-11,-351,-298,-16,0,0,-110,0,4,-10,-191,-231,-112,-77,-77,-565,-135,-7,-168,0,0,0,0,0,0,0,0,0,0,0,0,0,0,0,0,0,0,0,0,0,0,0,0,0,0,0,0,0,0,0,0,0,0,-5762,-3174,-2074,-2286,1,-1447,-1362,-1861,-500,-84,-89,0,-1006,-694,-672,-186,0,0,0,-702,-4,-318,-10,-361,-169,-376,-960,-425,-1533,-2750,0,-531,0,-68878,-37443,-25017,-11841,-12009,-9743,-12812,-6178,-5062,-3805,-5436,-1850,-5479,-4678,-2235,-3976,-2227,10,-6508,-1351,-4268,-4321,-4344,-12951,-9018,-2468,-5191,-1890,-12358,-1737,-7750,-4310,0,-1501,-1501,-1501,-1501,-1501,-1501,-1501,-969,-615,-433,-592,-185,-692,-668,-359,-462,-243,1,-687,-267,-427,-498,-548,-1501,-998,-460,-650,-256,-1501,-660,-809,-531,-20997,-462
0,-3355,-1513,-2319,-1139,-32,-1223,-327,-624,-186,16,-6,0,-149,-431,-660,-116,0,0,0,-505,0,-338,-8,34,-370,-280,-296,-8,-311,-644,-215,-462,0,-444,-321,-847,-950,-32,-459,120,-180,0,0,-161,0,-2,-446,-184,0,0,0,-186,-287,0,-8,-8,-209,-1453,-587,-180,0,-183,-335,0,-148,0,-1228,-1331,-415,-382,-516,-1075,-188,-757,-317,-143,-2,0,-8,-758,-783,-274,0,0,0,-2118,-186,-358,-40,-5,-211,-2213,-188,-3,-791,-1237,-26,-366,0,0,0,0,0,0,0,0,0,0,0,0,0,0,0,0,0,0,0,0,0,0,0,0,0,0,0,0,0,0,0,0,0,0,-4810,-3087,-3150,-2243,-21,-4435,-961,-1638,-262,-689,-8,0,-242,-2088,-3716,-315,0,0,0,-1024,-558,-1242,0,-93,-121,-802,-890,-82,-1694,-1724,0,-838,0,-69229,-38140,-22994,-11767,-11479,-4888,-10316,-5101,-3565,-2384,-2303,-930,-509,-4807,-2087,-7985,-2730,-4820,-2679,-6516,-2326,-5134,-2384,-3067,-12759,-5508,-5086,-1177,-12121,-3190,-4619,-6346,0,-1510,-1510,-1510,-1510,-1510,-1510,-1510,-830,-433,-320,-248,-93,-91,-853,-743,-869,-273,-482,-401,-1045,-307,-708,-305,-334,-1510,-939,-664,-127,-1510,-713,-486,-816,-27868,-22
0,-1586,-988,-1061,-589,-136,-1307,-59,-410,-103,-37,-17,0,-500,-1583,-485,-1,-172,0,0,-663,-14,-418,-82,-24,-1,-1478,-366,-13,-651,-1993,0,-747,0,-865,-428,-809,-198,-94,-35,-13,-235,-21,-34,-10,0,-412,-961,-165,0,-16,0,0,-206,75,-97,-12,-3,0,-1696,-260,-66,-727,-1360,0,-146,0,-563,-533,-471,-500,-106,-573,-191,-181,-5,0,0,0,75,-167,-64,-44,-64,0,0,-123,-44,-13,-39,0,-2,28,-15,-31,-116,-834,0,-243,0,0,0,0,0,0,0,0,0,0,0,0,0,0,0,0,0,0,0,0,0,0,0,0,0,0,0,0,0,0,0,0,0,0,-3585,-2046,-2341,-1452,-553,-1199,-671,-832,-307,-48,-39,0,-1046,-2640,-753,-16,-164,0,-44,-891,-59,-301,-459,-5,-1,-1909,-738,-137,-1896,-4173,0,-1070,0,-70676,-42347,-26122,-11992,-11479,-9254,-9976,-3212,-4385,-861,-1110,-3400,-7147,-3529,-1463,-6569,-2894,-5820,-6330,-3047,-888,-5642,-2608,-4715,-7826,-10405,-7931,-993,-12070,-4660,-1010,-9132,0,-1546,-1546,-1546,-1546,-1546,-1546,-1546,-487,-483,-98,-121,-340,-903,-888,-293,-663,-331,-582,-657,-493,-93,-648,-418,-476,-783,-1546,-931,-124,-1546,-1302,-101,-1153,-22462,-495
0,-2154,-883,638,-432,-311,-101,574,247,-127,94,-32,9,-51,-2311,-331,-5,-242,0,0,-1858,28,-175,-131,0,-187,-1626,-439,-86,-129,-2428,-56,-811,0,-1296,-972,-817,-226,-242,209,497,457,-101,526,274,0,-301,-781,345,-5,-85,0,0,-652,20,116,0,0,179,-2290,-1487,-85,-779,-1709,0,511,0,-1336,-1549,-463,-1269,-252,-1357,509,350,-66,-7,-87,0,150,-451,-127,0,-255,0,0,-463,-13,78,-425,-39,-351,-521,98,0,-36,-748,-23,-518,0,0,0,0,0,0,0,0,0,0,0,0,0,0,0,0,0,0,0,0,0,0,0,0,0,0,0,0,0,0,0,0,0,0,-3278,-1464,-3422,-1244,-793,-1820,-476,632,-193,624,2,0,-817,-3225,-825,-11,-211,0,56,-888,-188,162,335,-38,140,-2725,-420,-378,-2108,-2423,382,-1155,0,-70178,-41118,-26378,-12012,-10610,-9139,-9958,-2386,-4887,-1517,-664,-3479,-8571,-3422,-722,-6219,-2117,-5260,-4865,-3639,3,-4255,-2267,-3533,-6691,-13268,-13008,-1741,-12202,-5302,-63,-8487,0,-1526,-1526,-1526,-1526,-1526,-1526,-1526,-70,-541,-28,-45,-347,-959,-1019,-166,-624,-291,-526,-505,-750,-15,-412,-311,-361,-684,-2043,-1526,-229,-1526,-1261,24,-1045,-21945,-499
0,-1689,-1216,-373,-781,0,167,-897,-191,-172,-464,0,0,-468,-1339,-389,39,-137,0,0,-69,-129,-648,-9,0,0,-483,-69,-1261,-336,-593,0,-323,0,-1260,-13,-373,-685,0,-56,-516,2,-153,0,-93,0,-374,-905,-158,-131,-29,0,0,-153,-9,-216,0,0,0,-375,-245,-1947,-608,-466,0,-230,0,-2146,-227,-1464,-632,-17,-815,-1211,-291,-24,-310,6,93,-257,-227,114,0,0,0,0,26,-29,-134,-79,0,0,0,-34,-534,-441,-936,0,-140,0,0,0,0,0,0,0,0,0,0,0,0,0,0,0,0,0,0,0,0,0,0,0,0,0,0,0,0,0,0,0,0,0,0,-5028,-2352,-4014,-1548,-160,-1046,-231,-749,-414,-951,10,-135,-1229,-1860,-190,39,-188,0,39,-536,90,-971,-44,0,0,-557,-921,-1539,-1488,-3084,0,-583,0,-69384,-41312,-23803,-11888,-11919,-10346,-12301,-2541,-5094,-2125,-5438,-2838,-6782,-4109,-1857,-5827,-2216,-7180,-5195,-2658,197,-9138,-2028,-5275,-5190,-7685,-4611,-9839,-12080,-2311,-300,-5713,0,-1512,-1512,-1512,-1512,-1512,-1512,-1512,-377,-614,-385,-589,-288,-911,-844,-248,-588,-257,-718,-512,-339,12,-1139,-270,-529,-519,-910,-588,-1512,-1512,-739,-30,-714,-21246,-449
0,-1265,-934,-665,-637,-671,-684,702,-243,305,500,-299,-90,-643,-2820,-502,-41,480,3,-21,-284,-25,-583,202,-137,239,-2050,-852,-400,127,-1947,186,-1317,0,-481,-2330,-1736,493,-92,-253,252,-1112,-242,693,-5,0,-381,-1597,198,5,215,0,257,-343,316,372,172,-132,186,-3339,712,-473,-941,-931,0,1041,0,-110,128,-723,363,-349,-499,1166,93,-128,270,90,0,102,-370,-318,-8,87,0,0,604,333,332,-513,-19,-77,-189,44,74,66,228,-13,-529,0,0,0,0,0,0,0,0,0,0,0,0,0,0,0,0,0,0,0,0,0,0,0,0,0,0,0,0,0,0,0,0,0,0,-3307,-541,-2007,-748,-924,-1267,-1900,-377,-311,1231,-9,-33,-1811,-2132,-667,434,-950,122,-44,358,628,211,14,-230,34,-3220,225,-644,-2505,-5748,-40,-1835,0,-69422,-42733,-25310,-13130,-10308,-9727,-10471,-3311,-5937,-1227,-1469,-2847,-7477,-3021,-591,-6786,-1774,-5905,-6543,-4405,-739,-5342,-2231,-4760,-7722,-14902,-8199,-1417,-12171,-5782,-1383,-7453,0,-1543,-1543,-1543,-1543,-1543,-1543,-1543,-495,-637,184,-135,-297,-1021,-994,-188,-640,-176,-578,-423,-407,52,-484,-307,-519,-734,-2370,-807,-286,-1543,-1418,-125,-1082,-22393,719
0,-555,-1299,-1826,257,-232,-2305,369,-65,-568,345,112,-1,-1161,-1114,322,119,-344,0,-3,-1120,483,557,-141,-27,181,-2776,-212,-236,-177,-3086,86,-1301,0,-949,-43,-701,-23,188,-178,277,-89,2,-436,17,159,-728,-421,-347,-6,0,0,-2,-160,123,-148,-24,41,-1,-3646,-248,447,-1083,-2592,-75,903,0,280,273,-680,70,-141,-611,-790,-479,91,161,-82,-11,-55,-235,239,-16,-167,0,-1,-61,-81,476,-37,-118,4,-649,143,344,-983,-1137,43,-577,0,0,0,0,0,0,0,0,0,0,0,0,0,0,0,0,0,0,0,0,0,0,0,0,0,0,0,0,0,0,0,0,0,0,-2659,-3004,-3086,-1248,234,-744,-548,-700,-270,-86,-23,318,-2498,-3609,-467,-153,440,179,-37,-1775,-210,59,243,103,120,-3921,-772,250,-1325,-3466,-60,-1091,0,-70879,-42254,-24746,-12349,-12417,-8530,-10700,-3167,-6059,-808,171,-1955,-7198,-2971,-1457,-6624,-1444,-5219,-5588,-2714,-210,-4688,-2769,-4078,-6934,-14198,-8092,-745,-11892,-5179,-404,-7866,0,-1546,-1546,-1546,-1546,-1546,-1546,-1546,-450,-690,-69,8,-149,-1164,-835,-171,-668,-148,-504,-646,-583,20,-390,-341,-408,-663,-2519,-906,6,-1546,-1546,-41,-1057,-21677,-786
0,-2465,-1360,2,-1006,0,0,-177,-485,0,0,1,-53,0,0,0,0,0,0,0,0,0,1,0,-187,1,0,2,0,-300,-411,0,-342,0,-1813,-760,-72,-983,0,0,-733,0,0,0,-188,0,0,0,-183,0,0,0,0,0,0,-509,0,-187,0,0,0,0,0,-188,-1432,-112,0,-1822,-3139,-937,-880,0,-158,-1851,-1246,0,0,-113,-135,0,0,-341,0,0,0,0,0,0,0,-135,-299,0,0,-183,0,-185,-411,0,-1070,0,0,0,0,0,0,0,0,0,0,0,0,0,0,0,0,0,0,0,0,0,0,0,0,0,0,0,0,0,0,0,0,0,0,-2685,-418,-316,-590,0,-841,2,-4869,0,0,0,0,0,-2629,-1782,0,-230,0,0,0,0,-373,0,0,0,0,-367,0,-1543,-411,-135,-1379,0,-65737,-37283,-27317,-11456,-11456,-10457,-11014,-3760,0,0,-2700,-3772,0,-8691,-3404,-1880,-10360,-5510,-6542,0,0,-7729,-6017,-6057,-8711,0,-5262,0,-12292,-1579,-12753,-11417,0,-1432,-1432,-1432,-1432,-1432,-1432,-1432,-1036,0,0,-300,-396,0,-1132,-571,-188,-1059,-551,-736,0,0,-861,-769,-673,-871,0,-581,0,-1432,-300,-1432,-1432,-16305,-188
0,-2274,-914,-1182,-576,-333,-309,-540,-1034,-70,-107,-76,0,-295,-1715,175,-28,-62,0,151,-1340,-81,-236,0,1,73,-966,-349,-273,-1795,-599,284,-158,0,-1230,352,-677,-2258,-45,119,-582,166,81,-137,101,18,-525,-650,-120,13,76,0,48,448,218,186,0,86,157,-1199,-189,128,-214,-2099,103,-1422,0,-1186,-635,-347,-705,27,-522,121,109,0,-204,0,0,-70,-498,-429,-8,0,0,0,-87,15,109,0,0,0,-75,-483,13,-190,104,-116,-40,0,0,0,0,0,0,0,0,0,0,0,0,0,0,0,0,0,0,0,0,0,0,0,0,0,0,0,0,0,0,0,0,0,0,-3116,-2110,-1778,-1573,-454,-1730,-1051,44,-636,476,179,21,-1082,-2364,-853,5,-164,0,-46,-457,42,521,-119,-92,2,-1182,-749,296,-1694,-5730,-46,-906,0,-69445,-41842,-25926,-11935,-11259,-9622,-10011,-3695,-5985,-468,-1461,-2779,-7498,-3503,-1123,-5972,-1460,-5340,-5313,-4854,-494,-4380,-825,-3895,-7252,-14427,-8718,-684,-11187,-4916,-2015,-12275,0,-1508,-1508,-1508,-1508,-1508,-1508,-1508,-441,-661,-44,-125,-274,-947,-873,-235,-599,-161,-534,-532,-629,-30,-380,-118,-390,-702,-1785,-1049,-52,-1508,-1324,-179,-1508,-20744,-412
