0,-3342,-363,-735,-1334,-669,-2846,-1419,-134,10,-370,-1131,151,-1055,-1526,-1771,-2004,1515,-323,-476,-15,655,-1665,-82,568,1125,-542,35,-1452,-2699,-3022,45,844,0,-3748,78,-5,-1837,790,-492,-1030,1752,1562,65,-6604,221,-1606,-576,2470,-2103,-2631,649,-1594,4088,-2276,-1301,796,911,1394,-1528,-1099,2527,-4863,3417,-729,-3013,0,-2646,-1796,-317,-1146,-56,291,-1141,-743,-2128,-2030,76,2068,-2994,-299,-411,-151,573,220,606,-1314,165,-777,133,1593,2756,613,538,-617,-1425,-2274,313,-2897,0,0,0,0,0,0,0,0,0,0,0,0,0,0,0,0,0,0,0,0,0,0,0,0,0,0,0,0,0,0,0,0,0,0,-6192,-4025,-5255,-2692,-1175,-4849,-1523,-4079,-1594,-4352,-186,-5,-3583,-5616,-3293,234,-1011,-1768,-629,-1264,-260,-2922,809,-1792,1238,-776,-1432,-1097,-4728,-7919,-66,-3438,0,-136699,-79343,-48924,-23323,-23396,-15436,-18664,-606,-7965,-9436,-6669,-7856,-12682,-3201,-8504,-12597,-17522,-6258,-12187,-3843,-9532,-8550,-2787,-18327,-3149,-7426,-8093,-7801,-22448,-3819,-13358,-15742,0,-3060,-3060,-3060,-3060,-3060,-3060,-3060,-381,-1079,-1397,-1549,-542,-2192,-1247,-1153,-1780,-1902,-748,-731,-24,-1185,-2183,313,-1669,381,-758,-1677,-825,-3060,-1275,-1373,-2564,-47379,-1161
0,-3059,-273,-1187,-1372,-1334,-3818,-1207,4,-1438,138,45,753,-646,-1761,-1746,-414,1108,-57,-4697,651,508,-775,-345,-1004,622,-734,35,-1120,-1339,-2925,-1209,2138,0,-4361,398,-1031,-985,3382,601,596,-946,3374,330,-410,696,-2255,595,801,-3850,-4625,970,-909,3493,-742,454,2510,-1184,-1152,-239,-1272,-126,-3749,2400,-1247,4072,0,-2227,-1679,-704,-1207,-519,225,-1209,-1085,-2490,-1410,902,-2265,-2783,-1198,-119,41,417,-50,141,-851,-959,-938,-114,237,880,87,-209,-1076,361,-2089,48,-1615,0,0,0,0,0,0,0,0,0,0,0,0,0,0,0,0,0,0,0,0,0,0,0,0,0,0,0,0,0,0,0,0,0,0,-5994,-3886,-6298,-2840,-1703,-4703,-1861,-4350,-1235,-4217,87,-534,-3906,-5868,-3645,173,-2564,1336,-60,-1909,-467,-3777,413,-826,-1455,-1015,-2001,-870,-4850,-8630,-608,-3171,0,-136874,-79302,-49420,-22209,-23882,-15206,-18705,-783,-8123,-9581,-7081,-8021,-12850,-3413,-8681,-12808,-17520,-6449,-12420,-4072,-9800,-8770,-2921,-18416,-3165,-7547,-8051,-7926,-21506,-3985,-13305,-15995,0,-3088,-3088,-3088,-3088,-3088,-3088,-3088,-716,-658,-1676,-775,-910,-2244,-1017,-1339,-1999,-2780,-425,43,-303,-1146,-1141,-618,-2464,-427,-969,-1596,-1089,-3088,-1488,-1628,-427,-47195,-959
0,-3467,-740,-879,-2079,-919,-3147,-2456,3,-317,775,224,99,-908,-809,-877,369,175,-211,272,1283,-921,-1613,-714,-1185,862,-1366,1636,-854,88,-2164,212,961,0,-3477,-3632,-879,-1245,2020,-885,2768,-1521,-76,-1073,-999,-1232,941,3291,594,2897,385,0,-263,-28,636,271,-426,-840,380,0,246,1171,-2742,2508,246,3000,0,-3163,-1962,-532,-1425,-2088,606,-879,-215,-1791,797,1433,-264,-1155,-943,1267,-1375,1563,-10,-178,-713,462,71,190,1623,302,-877,-1463,97,-345,-371,-1303,-2966,0,0,0,0,0,0,0,0,0,0,0,0,0,0,0,0,0,0,0,0,0,0,0,0,0,0,0,0,0,0,0,0,0,0,-5968,-4537,-5718,-3420,422,-4262,-1747,-3458,-1381,-3989,673,55,-2658,-6323,-3518,607,-1443,-343,-1614,-1447,-811,-2361,927,1038,-1839,-411,-1319,-960,-3564,-8680,-730,-3891,0,-137722,-79780,-49094,-23392,-22712,-14987,-18531,-519,-7515,-9384,-6559,-7338,-12448,-2916,-8336,-12457,-17229,-6016,-11808,-3474,-9266,-8501,-2546,-17913,-2764,-7054,-7713,-7596,-20340,-3483,-12893,-15393,0,-2910,-2910,-2910,-2910,-2910,-2910,-2910,-571,-1008,-1296,-611,-868,-1612,-1026,-1087,-893,-1746,-658,-2247,-438,-990,-1050,-334,-1653,-324,-1539,-741,-843,-2910,-1219,-1559,-1877,-47352,-107
0,-3304,-1344,-1366,-607,-144,-2312,-762,513,-1192,-484,-159,1720,-874,-1947,-1079,-564,2091,1480,-185,-172,633,828,7,1287,-507,-103,525,895,-346,-2184,790,-543,0,-3927,224,612,-2194,-3237,-95,-1926,3680,-7700,1415,19,1448,-813,-744,2211,-1542,-335,66,-110,6825,-331,269,106,-1674,-967,1376,3311,1483,-1629,2894,1569,-13493,0,-2900,-1997,-1202,-108,2276,1456,-522,-588,-1231,-3871,-476,1698,-2616,-1026,-932,911,259,-1314,563,-862,2423,-1249,1089,1773,-1004,1750,35,-1219,869,-1558,799,-3955,0,0,0,0,0,0,0,0,0,0,0,0,0,0,0,0,0,0,0,0,0,0,0,0,0,0,0,0,0,0,0,0,0,0,-6109,-5432,-5500,-2775,1126,-5176,-381,-4052,-1477,-3659,2612,-1210,-2174,-5222,-2991,-700,-537,35,3169,-1311,587,-2285,532,-124,2468,-1321,596,-1152,-2542,-8132,-139,-1856,0,-137592,-79948,-49378,-21912,-22298,-15703,-17887,-143,-7617,-9143,-6583,-7526,-12293,-2855,-8099,-12242,-17190,-6077,-11625,-3456,-9275,-8319,-2458,-18007,-2693,-7148,-7814,-7432,-20674,-3460,-12982,-15393,0,-2658,-2658,-2658,-2658,-2658,-2658,-2658,-59,-1597,-1682,-346,-387,-1877,-1283,-1089,-1532,-1462,-581,-1629,212,-558,-1494,1009,-1674,-253,-755,-326,-1007,-2658,-1203,-921,-3428,-47047,-601
0,-7526,-3065,-725,-868,-576,-462,-2278,-2481,-484,27,-110,271,273,-2506,-4170,361,142,0,10,-450,481,-2748,-1164,-137,1312,-1207,562,570,-1395,1230,-857,-1087,0,295,2820,-852,-5446,-1801,-3314,-1840,421,-638,12,-886,3,0,-1102,-17,43,0,0,31,67,49,711,-71,141,0,0,-1634,15,-1232,700,307,-1783,0,-4175,-1359,-3002,-2196,-1340,-3009,-922,-552,-1235,-635,319,-306,498,-1630,767,-298,-1372,52,59,158,184,-3141,-1075,-455,-1058,-771,-697,-488,1254,-5519,-442,179,0,0,0,0,0,0,0,0,0,0,0,0,0,0,0,0,0,0,0,0,0,0,0,0,0,0,0,0,0,0,0,0,0,0,-8352,-6764,-4606,2121,1295,-8091,-621,-4423,-175,-2114,-103,269,-938,-4467,-3479,-828,-754,1,-498,372,1515,-3763,445,-471,-1098,-3030,-2243,-1589,-6020,-6966,-1534,-2006,0,-136641,-79082,-50457,-24053,-21019,-8565,-19384,-1035,-8242,-10700,-7528,-7877,-8873,-3561,-6721,-11493,-15696,-7073,-12081,-3177,-7549,-7622,-2879,-15686,-3634,-8265,-7008,-9888,-22068,-735,-13514,-17135,0,-3001,-3001,-3001,-3001,-3001,-3001,-3001,-807,-1223,-1341,-766,-764,-904,-1317,-1362,-1262,-1768,-702,-1119,-303,-532,-1656,-593,-1652,-446,-1313,-1102,-1073,-3001,-1129,-1604,-2271,-45524,-781
0,-4368,-214,425,-114,-833,-3099,-1938,-945,812,1003,2746,1122,-574,-4087,-2128,214,1028,-1818,-1,-54,-55,1590,-1396,-1455,809,-1403,-476,-156,-914,-2563,1418,1142,0,-1591,1229,-1045,-2687,-1087,-2881,-3379,-255,-1675,1386,600,184,-4174,569,313,-162,8,772,14,2741,1657,-1632,337,252,-1184,0,-545,1359,-2306,3575,70,-4472,0,-2694,-527,-952,1298,1285,555,-1312,-1427,75,557,-640,1270,1101,-1488,-1991,-1026,-1137,728,-317,-1542,-1943,-2125,-797,273,-1501,247,-719,1243,-2160,-1378,-868,137,0,0,0,0,0,0,0,0,0,0,0,0,0,0,0,0,0,0,0,0,0,0,0,0,0,0,0,0,0,0,0,0,0,0,-5875,-3163,-5713,-2052,432,-2850,216,-3277,-1833,-3690,47,2710,-3394,-4309,-3241,-182,-1360,742,727,-1097,722,-3275,-247,-1074,-1229,-941,-1594,-1037,-3105,-8703,1160,586,0,-138921,-78261,-48496,-20221,-22853,-15199,-18957,-606,-7577,-9360,-6821,-7806,-12529,-3328,-7683,-12631,-17317,-6568,-11508,-4028,-9766,-8396,-2646,-18060,-2655,-7002,-8253,-7699,-20353,-3754,-12920,-16199,0,-2882,-2882,-2882,-2882,-2882,-2882,-2882,-651,-1366,-1003,-209,-252,-1957,-1247,-1473,-1648,-1673,-697,-675,-506,-924,-1377,-593,-1999,-576,-888,-1106,-428,-2882,-1259,-1114,-2317,-46646,1002
0,-3526,-208,-2293,-321,-1085,-2853,-762,62,207,2541,544,2767,-133,-679,-1228,165,-1003,376,784,1284,-1465,-1587,2402,1260,-984,-2020,-804,1615,-2032,-1581,3351,1138,0,-5144,1143,1961,-1443,533,-1008,-2237,-114,-7629,480,-2216,-579,2156,-2141,1655,-253,1095,0,123,4542,1477,-3363,913,1222,640,0,-617,749,648,3358,19,-14220,0,-2312,-1644,-1560,-406,966,267,-357,-1589,7,1238,1785,1669,-532,-2592,-146,-1793,1325,297,745,-1592,-167,-687,1704,275,2339,439,-3715,-120,-2307,-1590,796,1697,0,0,0,0,0,0,0,0,0,0,0,0,0,0,0,0,0,0,0,0,0,0,0,0,0,0,0,0,0,0,0,0,0,0,-5931,-2340,-5897,-2829,274,-5327,-1214,-2605,-2281,-2851,751,1303,-2043,-4278,-2077,-734,793,0,340,-864,-312,-1191,1962,-1897,855,-204,-7815,-1379,-4288,-8034,-414,-504,0,-136229,-78654,-50873,-21705,-23440,-15713,-17545,-334,-7754,-9680,-6913,-7530,-12538,-2911,-8374,-12274,-17497,-5763,-11758,-3480,-9286,-8470,-2989,-17913,-2930,-6898,-13604,-7375,-20728,-3403,-12946,-16052,0,-2844,-2844,-2844,-2844,-2844,-2844,-2844,-458,-1727,-827,-426,-237,-1309,-1272,-1017,-1543,-1642,-509,-1607,-11,-971,-1523,499,-1807,-8,-873,-2844,-651,-2844,-1125,-675,-3033,-47504,-126
0,-3632,1537,-3256,-1529,-2177,-2280,-1270,-5218,-506,-1323,-479,-51,431,-1259,-865,-1495,-839,-1320,2752,1525,-1531,-1126,-1185,-2084,-544,354,-505,-1944,-1389,-2865,-445,466,0,-2525,-408,-2811,709,185,-1532,1916,-5493,112,-116,1545,-98,639,-3140,412,-895,-537,-50,-861,113,1410,435,-4,-2278,0,0,822,-1188,-3025,2055,-582,2858,0,-2354,-1121,-1179,-2606,813,-506,-1322,-5216,-290,980,-636,532,-4236,-1987,-903,-1559,-658,-12,177,271,909,481,-884,-322,-269,89,-715,-443,1164,-2520,109,-601,0,0,0,0,0,0,0,0,0,0,0,0,0,0,0,0,0,0,0,0,0,0,0,0,0,0,0,0,0,0,0,0,0,0,-6199,-3766,-8115,-1884,-898,-4060,-1649,-9167,-452,-3043,253,-622,-1925,-5629,-2115,788,-2245,-904,863,-1405,748,-2516,-1007,-1400,95,283,-2198,-2097,-5733,-7115,612,-731,0,-136919,-78637,-50879,-23796,-22601,-14868,-19298,-5776,-7055,-8669,-6250,-7151,-12209,-2364,-7709,-11883,-16624,-5574,-11589,-2944,-8636,-8316,-1800,-17338,-2342,-6729,-7154,-7108,-21829,-3203,-12310,-15371,0,-3087,-3087,-3087,-3087,-3087,-3087,-3087,-3087,-1201,-1238,-978,-672,-1730,-1354,-1118,-1498,-1975,-786,64,-244,-710,-793,-610,-2312,-306,-470,-975,-1278,-3087,-1426,-1268,-1818,-47079,-1384
0,-2864,-1024,-774,2,-2803,-3116,-1987,621,-2746,-320,-978,646,-931,-2183,-1034,323,823,0,1586,-96,142,-112,-35,47,861,744,-1248,-879,-3917,-1626,75,-1414,0,-4059,-40,-3592,-2642,-1115,1302,-890,1120,-1756,-353,436,-984,-788,-1304,-78,523,-3384,0,1935,3716,-724,-3917,727,2487,-507,0,16,-864,1977,581,195,760,0,-3092,-1578,-1704,-223,1310,849,-1257,111,-5315,-941,2140,888,-2032,-2311,-241,820,185,0,-629,-632,-721,-1431,-3585,-497,-877,837,878,3546,1643,-1387,457,-1068,0,0,0,0,0,0,0,0,0,0,0,0,0,0,0,0,0,0,0,0,0,0,0,0,0,0,0,0,0,0,0,0,0,0,-6191,-3323,-4029,-2832,-87,-6623,-1958,-3789,-2465,-1489,12,-2214,-1897,-3919,-3263,242,-2615,-300,1703,-1244,1792,-1141,-1468,255,-2063,-618,-2181,-1189,-5354,-8157,1321,-49,0,-139444,-78654,-47873,-21822,-20979,-15944,-18507,-63,-8727,-8941,-6265,-7416,-11912,-2306,-7864,-12080,-16707,-5906,-11735,-3761,-8859,-8037,-1943,-17295,-2543,-6779,-7106,-7644,-22304,-3123,-12339,-15041,0,-3042,-3042,-3042,-3042,-3042,-3042,-3042,-200,-3042,-1336,-506,-908,-1756,-1173,-1248,-1018,-2506,-636,-1402,-281,-837,-1397,-788,-1502,-516,-502,-914,-703,-3042,-1208,-1124,-1875,-46021,-838
0,-2379,-1573,-2100,-1661,-1592,-2685,-1950,512,571,-4288,3597,-329,-1849,-2948,375,3160,-442,0,-1448,1530,-1324,-149,1472,600,-111,-578,-76,179,351,-1898,-847,-2844,0,-3074,-1463,336,-298,-367,-758,-731,-3570,-219,1057,-2092,2421,2025,-3130,-1789,675,-1536,0,499,-6506,2646,-1718,605,1295,0,0,2837,207,-2277,-7858,749,2189,0,-1371,-2007,-659,-1034,1056,-1720,-2319,729,508,-5748,1508,-412,734,-199,-212,-2188,1195,0,-1298,-834,593,620,1766,-677,-833,-1078,-1629,375,-726,-957,0,-2018,0,0,0,0,0,0,0,0,0,0,0,0,0,0,0,0,0,0,0,0,0,0,0,0,0,0,0,0,0,0,0,0,0,0,-5797,-4780,-6722,-1656,559,-4036,-2115,-4118,1084,-7189,417,-583,-2865,-5022,-3453,907,-1641,0,397,-1119,-118,-3188,675,442,611,-168,-1238,-1231,-2929,-7813,-1229,-2439,0,-136793,-79466,-50213,-22276,-23336,-14481,-19316,-133,-8066,-12853,-6512,-7327,-12245,-3381,-7791,-12128,-16870,-6010,-11795,-3131,-9447,-8035,-2326,-18080,-2537,-6836,-7545,-7787,-22150,-3834,-12607,-14775,0,-2960,-2960,-2960,-2960,-2960,-2960,-2960,-658,-611,-2960,-299,-623,-1420,-1522,-1287,-907,-1794,-601,-1226,-1006,-765,-1271,274,-1642,-287,-866,-802,-826,-2960,-2236,-1394,-1911,-47316,-2507
0,-3409,-3207,33,-530,-455,1672,-3158,-3853,-1359,101,-19,-235,-2834,-431,-261,14,2061,78,-69,-817,-827,-274,483,10,423,3617,1059,467,-1968,-2605,-415,-28,0,-9633,546,-408,-832,-1281,-2536,1583,-563,-1643,-622,-2956,426,2026,-487,-2297,-29,-356,-302,128,1677,1365,-458,193,1126,437,0,2424,-407,-1231,1351,0,-1213,0,-3351,-1470,-552,-362,1155,-2195,-3130,970,-870,-306,-4474,-1530,-1557,-1733,281,-365,353,0,0,-855,-451,227,143,-1054,752,1383,-97,-1076,-3386,-844,0,1088,0,0,0,0,0,0,0,0,0,0,0,0,0,0,0,0,0,0,0,0,0,0,0,0,0,0,0,0,0,0,0,0,0,0,-6289,-4829,-5921,-4327,212,-5162,-2295,-4559,155,-2123,-6042,1532,-1057,-4224,-3230,1591,-2931,-129,-1412,-838,500,-2578,16,-377,616,-1051,1452,-116,-2465,-7530,720,-1069,0,-134646,-80317,-49937,-21141,-23215,-15363,-19913,-255,-7431,-9209,-17463,-7363,-12368,-3180,-8525,-12011,-17107,-5867,-11717,-3497,-9057,-7699,-2723,-17845,-2768,-7759,-8308,-7762,-21089,-3682,-13095,-14620,0,-2948,-2948,-2948,-2948,-2948,-2948,-2948,-826,-1294,-1230,-2948,-717,-1579,-1005,-1401,-1080,-1789,-622,-1617,-433,-847,-1109,-236,-1814,-54,-381,-347,-850,-2948,-1331,-1279,-1743,-47440,-1856
0,-3589,-1237,-3003,-2769,-152,-359,454,-739,528,233,-380,-2757,-118,-4148,-1353,570,-581,0,0,-1353,-95,670,-619,-423,0,338,-1598,508,2177,-6322,-420,-926,0,-7471,-591,-558,-1189,-150,-1394,-644,720,1018,-1375,-498,-2610,-58,-500,275,0,800,0,0,-914,-539,-626,-1081,-238,0,0,1164,108,-1478,32,879,913,0,-2880,-1239,-2548,-2870,-307,-1962,-3837,-104,0,-1465,-439,-2475,-570,-941,-1739,244,705,0,-410,845,-400,-55,1444,-155,-157,-1756,-1765,236,-2911,-2642,-44,-1063,0,0,0,0,0,0,0,0,0,0,0,0,0,0,0,0,0,0,0,0,0,0,0,0,0,0,0,0,0,0,0,0,0,0,-7072,-6283,-2092,-3232,-694,-4859,-3330,-1407,-726,-1781,723,-2751,-1539,-4508,-5151,-203,-986,-159,0,-2829,-1391,-2157,-849,-157,15,-2075,-997,-833,-3286,-5766,-35,-1322,0,-135907,-78498,-50425,-22877,-22257,-14986,-21308,1060,-6840,-8562,-6336,-18857,-11415,-3533,-5192,-11041,-16543,-4661,-10823,-3529,-7645,-7905,-1793,-16537,-2458,-6587,-5587,-6409,-23649,-4172,-11460,-14936,0,-2945,-2945,-2945,-2945,-2945,-2945,-2945,-47,-602,-1295,-693,-2945,-1370,-1363,-1316,-1043,-1716,-482,-1232,-778,-1007,-1026,-288,-1751,-260,-1008,-854,-639,-2945,-1887,-1108,-1795,-46643,-945
0,-3016,-869,-2541,-2889,-1059,-2578,-2394,-1878,1473,-707,773,-131,-5067,-2101,-2981,981,-1377,791,-426,1299,686,-327,280,1112,437,-3000,522,693,508,-1615,360,-2378,0,-4585,-3326,-1758,-195,-594,-844,-215,-2588,1998,-628,1260,612,1955,-2727,-198,-962,1580,-462,0,-5742,2617,86,-113,2725,1493,0,-141,-4051,-3918,-10482,-1183,1553,0,-1626,-2488,-341,-1269,815,-419,-1932,-1501,229,1176,-1228,-307,-3153,126,-854,-348,-273,0,0,-1479,-1232,1139,644,129,-96,-251,-6,403,44,-1898,-13,-602,0,0,0,0,0,0,0,0,0,0,0,0,0,0,0,0,0,0,0,0,0,0,0,0,0,0,0,0,0,0,0,0,0,0,-6156,-5645,-5677,-1249,631,-4389,-1381,-2690,-894,-1651,-343,-29,-5647,-5361,-1624,-2327,-465,-158,-1639,-2011,4356,-2335,-527,488,-192,1650,-68,-533,-3348,-6901,165,-2937,0,-136014,-80317,-49362,-22802,-23369,-15292,-19829,-113,-7595,-8920,-6283,-7541,-15778,-2902,-7883,-11874,-17153,-5501,-11452,-3437,-8971,-8528,-1716,-17524,-2882,-6637,-7418,-7662,-22733,-3918,-12859,-14744,0,-2947,-2947,-2947,-2947,-2947,-2947,-2947,-877,-792,-1073,-674,-743,-2947,-1195,-1354,-1453,-1861,-533,-984,-1137,-317,-958,-179,-1307,-124,-629,-812,-1115,-2947,-2485,-1353,-1621,-48655,-132
0,-3595,-192,-2262,-1017,-895,-3580,-2149,-260,1651,827,3350,1345,1356,-7821,-2395,194,-1868,-292,-2410,-576,1302,-681,1711,2620,-564,1445,651,1276,-557,-1775,-613,1208,0,418,1616,1735,2666,-846,-937,3987,-7404,5098,-4398,1210,-2999,-8817,1448,-5439,35,-4200,-508,652,1570,-1791,1009,1224,-1953,-189,0,-7055,-5024,-7503,-4144,395,5032,0,-2799,-1959,-1470,-802,126,-138,-740,-141,-377,-435,-918,-466,-2091,-5449,463,235,-123,-323,643,-759,-1569,-351,-1359,-2092,696,152,1159,754,-483,-334,895,-1068,0,0,0,0,0,0,0,0,0,0,0,0,0,0,0,0,0,0,0,0,0,0,0,0,0,0,0,0,0,0,0,0,0,0,-6478,-3320,-5326,-2792,-1379,-5362,-1368,-2627,683,-4422,-853,1371,-5405,-10784,-2848,-923,1008,112,-820,319,-1009,-2242,1109,2627,1253,-51,-1140,-15,-3282,-6847,-2136,-1572,0,-137127,-79656,-49370,-23788,-23515,-16002,-18794,182,-7352,-8772,-6058,-6721,-11823,-8576,-7561,-11883,-16918,-5599,-11116,-2995,-8375,-7788,-1651,-17574,-2126,-6591,-7185,-6771,-20705,-3174,-12311,-15365,0,-3209,-3209,-3209,-3209,-3209,-3209,-3209,-1025,106,-1720,-641,-747,-2678,-3209,-1778,-1205,-2301,-563,-2207,-176,-1149,-962,426,-1872,-93,-726,-1434,-978,-3209,-1504,-1377,-1068,-47385,-2319
0,-2497,-50,-2429,-1312,399,-2923,-1800,935,-205,-1377,-1458,-774,207,-2144,-6214,2721,-2226,-22,1570,1242,650,-3092,3686,-839,-254,612,648,-482,-614,-3696,1423,-3,0,-2907,-1362,1251,-644,60,602,-797,-1174,-1913,455,188,469,2064,-2591,-2755,-1267,-725,-3,-332,264,-159,-1876,-237,-1294,1550,0,-1123,-1623,-3385,-1879,-610,1930,0,-1924,-3558,-720,-211,-169,821,-2379,-445,91,-728,747,-1768,-443,-384,-3976,3043,-586,1780,-771,947,-997,398,1347,-827,1489,-85,-288,1249,-483,-506,-1892,-3744,0,0,0,0,0,0,0,0,0,0,0,0,0,0,0,0,0,0,0,0,0,0,0,0,0,0,0,0,0,0,0,0,0,0,-6572,-3547,-5115,-2095,-1169,-6190,-2572,-3790,-340,-3300,1627,-669,-5729,-5220,-5724,-316,-881,-72,2977,-876,-1217,-1445,-534,-293,1883,-197,-443,96,-5203,-6903,539,-3784,0,-137452,-79511,-48955,-23786,-22937,-16126,-19371,-336,-7178,-9083,-6167,-7188,-11919,-2444,-11101,-11855,-17072,-5883,-11602,-3237,-8907,-7808,-1776,-17429,-2448,-6722,-7327,-7075,-21603,-3396,-12680,-14529,0,-2977,-2977,-2977,-2977,-2977,-2977,-2977,-481,-1362,-1404,-651,-993,-1582,-1254,-2977,-786,-2163,-420,-416,-166,-1063,-1480,86,-2060,222,-997,-710,-785,-2977,-1638,-1322,-2391,-47252,52
0,-6009,-2519,-4687,-642,-424,-2916,-1975,-2101,762,-589,-258,321,-1137,548,-3326,-252,14,0,20,140,-283,-358,229,-1172,-689,570,-276,-38,-4323,-3441,0,13,0,-5018,-3768,1299,-52,-706,-1160,-1303,297,-395,329,587,-144,-220,-674,-112,-3261,146,-115,-5,-840,44,-629,0,-315,687,0,-42,-80,3517,-3210,58,-847,0,-1650,-1971,-2203,-949,884,-405,-2499,624,-91,-719,-199,0,-1215,-400,1840,-591,93,0,-174,-1689,-561,244,238,55,-519,13,-594,-2833,-2712,-4980,-89,-1450,0,0,0,0,0,0,0,0,0,0,0,0,0,0,0,0,0,0,0,0,0,0,0,0,0,0,0,0,0,0,0,0,0,0,-8332,-2260,-6068,-2028,-515,-2466,-3547,-1836,-112,-3234,253,-6,-1564,-3507,-1806,-3304,-304,-400,-125,-4232,-60,-1501,1068,434,83,-1945,-1964,-1694,-1908,-7525,-527,-1815,0,-135511,-76049,-49677,-25108,-23655,-17469,-20856,-834,-7613,-8987,-6160,-8251,-11814,-2580,-7466,-22935,-17319,-6105,-11522,-2579,-8330,-8531,-1775,-16842,-2762,-6742,-7204,-6585,-25095,-3924,-12812,-16157,0,-3052,-3052,-3052,-3052,-3052,-3052,-3052,-385,-892,-1320,-592,-808,-1595,-650,-1087,-3052,-1737,-662,-1221,-920,-919,-1076,-30,-1784,-320,-732,-1008,-1123,-3052,-2308,-1337,-1910,-46921,715
0,-3017,307,-27,-1301,271,-3564,-1302,-1376,-719,-1048,-1628,2160,230,-1397,-2003,-251,-3096,0,-622,427,839,-369,-532,516,0,406,-331,1239,-2134,-2232,778,62,0,-5645,-1020,-3354,-1810,802,380,59,1436,-82,-2005,1488,1595,-474,-3048,514,50,1854,0,3073,500,-1123,-1387,1867,363,0,0,1483,-70,127,-1833,2420,-2205,0,-1737,-1966,347,-1296,-422,-351,-858,1303,-2066,282,-1139,1642,-14,326,-1331,240,-2858,0,1508,-1047,-376,-2367,-1207,-2268,0,778,-2858,-385,32,-2087,551,-795,0,0,0,0,0,0,0,0,0,0,0,0,0,0,0,0,0,0,0,0,0,0,0,0,0,0,0,0,0,0,0,0,0,0,-6613,-3137,-4888,-1697,-669,-3709,-850,-4282,1348,-4217,313,-559,-825,-4831,-3084,498,-3228,-31,1184,-107,-610,-4078,1785,-1859,-1475,112,-1323,-529,-4875,-7108,-23,-2194,0,-136681,-79014,-49131,-23481,-23518,-16292,-19143,-51,-7586,-8972,-6514,-7498,-12457,-3205,-8016,-12127,-21425,-6149,-11663,-3473,-9270,-8069,-2493,-17772,-2735,-7045,-7704,-7605,-22570,-3410,-13106,-15395,0,-2942,-2942,-2942,-2942,-2942,-2942,-2942,-297,-943,-1596,-748,-266,-1354,-1175,-1392,-1159,-2942,-618,-1196,-327,-1054,-1627,-65,-2102,-421,-598,-1108,-731,-2942,-1667,-938,-2154,-47869,-1500
0,-6137,-1761,-1466,-3503,0,-376,-551,-795,0,0,-943,0,7,-1126,-766,0,0,-11,0,-892,-564,-551,-188,0,0,-7,0,-364,-1663,-1510,0,-404,0,-4053,7,0,-1993,0,-1698,0,7,0,0,7,0,1,-180,-1108,-755,0,-2872,0,-1292,0,0,0,-399,0,0,0,1,12,0,0,13,0,-2845,-2761,-1108,-3276,0,-2437,-1102,36,0,0,0,0,0,-535,-3736,-353,0,-353,0,-1484,0,-551,-188,16,0,-353,-1102,-715,-754,0,0,0,0,0,0,0,0,0,0,0,0,0,0,0,0,0,0,0,0,0,0,0,0,0,0,0,0,0,0,0,0,0,0,0,0,0,-15459,-2034,-3931,-8417,0,-3531,-551,-1110,0,0,-748,-376,-338,-2563,-5523,0,0,0,0,-4067,-704,-1102,-188,0,0,-439,-1102,-755,-3392,-1510,0,-391,0,-130923,-78560,-50735,-22524,-22896,-14854,-26416,-7558,-8300,0,-11596,-10764,-6920,-8616,-4547,-10112,-6030,-25384,-5967,-12575,-10632,-11436,-940,-17167,-11240,-8971,-3306,-13837,-22823,-4530,-7220,-3128,0,-2862,-2862,-2862,-2862,-2862,-2862,-2862,-942,-830,0,-1328,-1114,-725,-1302,-1568,-1122,-603,-2862,-747,-2031,-1190,-1364,-188,-1755,-1124,-977,-551,-1567,-2862,-755,-722,-391,-36236,-2488
0,-5315,-4324,-1309,-350,-2298,-1354,-1203,18,1142,0,-138,-562,-501,1150,-2568,-845,288,0,141,-3575,586,-833,-75,0,0,460,-1009,0,-2324,-1378,0,718,0,-5178,1245,86,-3210,-192,40,-6,-865,-606,-312,-248,0,0,8,-273,696,-146,0,-2027,-2718,31,370,-42,-136,40,0,-424,0,1245,-2064,-219,-1423,0,-5752,-2880,-2443,-1649,-251,-1749,-1092,-1001,15,0,-6,0,-634,-237,-2732,-11,-412,0,-446,-409,43,-435,-6,0,40,-492,-567,4,-1773,-894,0,-801,0,0,0,0,0,0,0,0,0,0,0,0,0,0,0,0,0,0,0,0,0,0,0,0,0,0,0,0,0,0,0,0,0,0,-7540,-6012,-5809,-2450,-570,-3888,-1745,-1388,-257,-53,-420,-400,-1842,-2448,-9856,14,-1998,0,197,-3270,622,-319,43,1,0,6,-1095,-21,-3624,-5476,-12,-1847,0,-136283,-77591,-50891,-24019,-20889,-17249,-19763,-3034,-9714,-5511,-8548,-5878,-11263,-3713,-7371,-10284,-13040,-4930,-17636,-6548,-8982,-7431,-4816,-19705,-3430,-6294,-5975,-7333,-23774,-2428,-14129,-16240,0,-3025,-3025,-3025,-3025,-3025,-3025,-3025,-627,-942,-590,-936,-684,-1424,-524,-2280,-1043,-1540,-493,-3025,-1652,-770,-874,-612,-1984,-331,-632,-907,-735,-3025,-1224,-1436,-1960,-45218,-1438
0,-3290,-685,-16,-1521,-1917,-3884,-2951,208,1371,-230,-643,1047,-1511,-650,-1003,-929,-503,333,595,-4293,497,-483,65,-531,-978,-932,896,-1376,-827,-3082,-2638,587,0,-3301,-945,-296,111,1778,-312,1603,-2164,-581,-3104,1312,-19,-5740,1917,-1258,1784,-81,-43,-140,-2936,-7942,2003,-976,-3572,-1312,-2,-4443,612,-4932,3085,-85,5181,0,-2206,-1127,-54,-1095,443,-213,-1481,774,-1860,-2004,261,-1255,-1034,-1655,35,2652,-153,-103,-254,-6400,743,279,287,-1030,-2489,530,-2185,-216,-399,-1107,-72,-2077,0,0,0,0,0,0,0,0,0,0,0,0,0,0,0,0,0,0,0,0,0,0,0,0,0,0,0,0,0,0,0,0,0,0,-5587,-4249,-5577,-2985,-1887,-3507,-1420,-2558,-1197,-3273,2210,389,-1870,-5265,-2066,1196,917,-1413,76,-7172,1262,-2620,424,-1535,1037,-18,-682,-40,-3398,-7557,-768,-1118,0,-137126,-79407,-49300,-25428,-22569,-15111,-19011,-280,-7230,-8673,-6282,-7183,-11969,-2546,-7578,-12093,-16792,-5464,-11586,-9198,-8886,-7964,-2051,-17522,-2353,-6609,-7359,-7030,-19973,-3035,-12657,-14939,0,-3019,-3019,-3019,-3019,-3019,-3019,-3019,-402,-1227,-1733,-193,-814,-2188,-710,-1187,-739,-1584,-669,-383,-3019,-1498,-894,351,-2419,-617,-838,-1288,-805,-3019,-1452,-1622,-1241,-47282,-783
0,-2854,-992,-2103,-1771,-733,-1696,-1140,-728,-601,-1327,-1600,-1361,-492,-3544,-2597,-1261,-1640,0,-604,-167,-3887,2120,1911,-367,-25,-87,-993,-1071,-1732,-2410,-292,-1458,0,-4648,-1684,-1597,1737,-312,-108,-1262,-1778,-3,1560,621,1939,341,-2068,-527,-295,2565,0,281,-5887,2281,-1567,-96,-21,0,-209,-978,159,-1408,-5277,545,994,0,-2659,-3624,-1782,339,1178,-2135,-933,85,-202,-2564,91,-487,670,-651,1431,16,-934,0,1080,-248,-3102,-162,-41,155,-72,-364,-324,581,-3348,-1010,-159,-1356,0,0,0,0,0,0,0,0,0,0,0,0,0,0,0,0,0,0,0,0,0,0,0,0,0,0,0,0,0,0,0,0,0,0,-6350,-5017,-3732,-2919,-650,-5153,-1660,-2816,-887,-3296,1472,-131,-1462,-1636,-1953,526,-347,-249,-2085,-1519,-8043,-2920,-936,-856,-433,-1091,-1268,1182,-1297,-6871,-470,-1108,0,-137150,-79334,-48228,-23554,-23459,-14752,-20165,-313,-7310,-8143,-6023,-6680,-11727,-3051,-7644,-11726,-16673,-5731,-11164,-2309,-17286,-7678,-1454,-17481,-2090,-6543,-8066,-6601,-21912,-2869,-12504,-14742,0,-2997,-2997,-2997,-2997,-2997,-2997,-2997,-555,-924,-1377,-629,-672,-1267,-1095,-1129,-1274,-1703,-598,-1018,-1013,-2997,-1013,-77,-1857,-262,-834,-1163,-575,-2997,-1836,-1288,-1817,-47516,-1143
0,-2573,-1229,-701,-1123,1438,-1914,-3115,-774,961,-331,1269,-2215,-240,-2055,-1915,-1645,2773,69,0,1384,222,-3725,702,-1433,999,323,-2106,212,-1428,-3290,525,-95,0,-3198,-227,1282,-2091,-1927,-2952,-3308,2968,-1610,813,-1451,3092,-5294,-4332,-2936,1762,-86,0,791,2601,-1597,-3827,-485,519,373,0,-82,1985,-405,326,-2815,-1541,0,-1059,-2642,1049,-1682,-93,141,-3405,-1624,-2011,-2087,-2309,-699,2233,-862,-228,-44,-1590,0,91,44,-535,-4855,3042,-1987,34,2073,1199,274,-2574,-2979,-2094,-214,0,0,0,0,0,0,0,0,0,0,0,0,0,0,0,0,0,0,0,0,0,0,0,0,0,0,0,0,0,0,0,0,0,0,-6580,-5885,-5518,-1698,-606,-4263,-2568,-3773,-1775,-4554,-1057,613,-1843,-4293,-3242,382,-1595,923,767,-1477,419,-5663,1193,-2917,-2583,954,-2102,-1232,-2300,-6824,2372,-2225,0,-136418,-80998,-48441,-23924,-22044,-15217,-19911,-177,-7628,-9011,-6128,-7401,-12616,-2579,-8419,-12304,-17193,-5742,-12067,-3582,-9249,-10738,-2400,-17712,-2753,-7341,-7471,-7574,-20587,-3502,-12968,-15470,0,-2904,-2904,-2904,-2904,-2904,-2904,-2904,-338,-1318,-1355,-818,-661,-1776,-1157,-1674,-1259,-1918,-475,427,-103,-1074,-2904,-47,-2353,-393,-435,-1007,-578,-2904,-1623,-1498,-1799,-47179,638
0,-2223,-2505,-1518,-1777,-1665,-3847,-1975,-1829,690,-730,-350,538,-418,-1038,-2792,482,771,0,28,-1453,1354,-714,-3054,1335,197,2866,-654,-2907,-1931,-2076,-495,1204,0,-798,-714,-1593,-2187,537,316,-2006,1163,21,124,-1553,1777,0,-409,1499,79,-1825,0,48,1446,0,669,-5993,18,170,0,561,-846,-1309,-1212,-252,-2054,0,-1503,-788,-2087,-1500,-1056,544,-4456,1189,-1050,61,497,2075,-2613,-3397,-2721,1,-84,0,0,146,-23,-2453,-2526,577,0,-815,-1233,115,458,563,1784,655,0,0,0,0,0,0,0,0,0,0,0,0,0,0,0,0,0,0,0,0,0,0,0,0,0,0,0,0,0,0,0,0,0,0,-5407,-3831,-3687,-4860,334,-5148,-1595,-1985,967,-2562,-1308,438,-1180,-7242,-2205,162,1770,205,-887,160,-2214,186,-2505,-1663,-809,-1505,-715,-84,-5042,-6730,-640,-381,0,-136219,-80375,-49641,-23101,-21750,-15465,-20051,-508,-7870,-9733,-6216,-7188,-11689,-2884,-7961,-12164,-16352,-6305,-11435,-3229,-9597,-8188,-4547,-18127,-2766,-6704,-8265,-7458,-21634,-3925,-12687,-16144,0,-2950,-2950,-2950,-2950,-2950,-2950,-2950,-197,-718,-1284,-893,-236,-1590,-1497,-1418,-1144,-1572,-610,-888,-293,-1048,-1050,-2950,-1786,-325,-614,-1029,-1118,-2950,-1338,-1229,-1723,-46558,-1517
0,-4132,265,-2871,-2441,-633,-1269,-1396,1854,886,-1214,98,-269,270,-914,-1259,661,-1267,-719,0,-1094,-729,-203,-297,-1939,-191,-296,-1253,-42,1576,-413,127,-958,0,-4239,-2787,-378,-810,15,345,-874,-1894,-162,831,-1340,468,-312,294,-14,366,-241,1091,-262,-32,-278,-708,-494,-3070,-57,0,187,-547,-1871,-707,0,-461,0,-2482,-4044,-1318,-1501,-798,-202,-2851,-1607,-542,291,1198,-481,-510,-1842,903,-1462,-314,0,410,-78,-4,-8,1152,860,626,-338,-1120,-124,-2334,-2066,0,-2051,0,0,0,0,0,0,0,0,0,0,0,0,0,0,0,0,0,0,0,0,0,0,0,0,0,0,0,0,0,0,0,0,0,0,-6619,-6602,-6100,-4489,-557,-4255,-2051,-3756,-2367,-1712,-312,-514,-2621,-6051,-1727,-626,-86,0,6,-600,-1049,-2378,-88,-1745,454,1030,-784,-2441,-4608,-10077,0,-1166,0,-137202,-78347,-47158,-23437,-21971,-18323,-20767,-1297,-6793,-8676,-6512,-8004,-9947,-3474,-7463,-12573,-15283,-5512,-11121,-4986,-7540,-7623,-2333,-23980,-2502,-7987,-6612,-7386,-22684,-3707,-12254,-14831,0,-2993,-2993,-2993,-2993,-2993,-2993,-2993,-670,-1018,-1048,-743,-880,-1312,-1213,-956,-1364,-1718,-514,-1127,-679,-960,-1128,-628,-2993,-167,-826,-957,-1054,-2993,-1697,-1213,-2072,-47286,-1585
0,-7098,-4028,-3425,-3761,-511,-2768,-1817,-267,47,337,-335,0,-1722,-510,-1806,-83,-375,0,0,-582,0,-179,-60,-205,-171,-53,-446,-651,-3226,-1976,-113,-1108,0,-1213,-616,-252,-2268,-303,-1220,-491,0,-403,0,-210,0,-146,-410,-429,-575,0,0,-482,-1522,0,-12,-20,-318,-3143,0,0,0,-328,253,0,-614,0,-1932,-964,-1617,-980,-25,-961,-736,0,-1298,0,-199,0,150,-272,-277,-139,-35,0,549,-3457,-552,-139,-140,-766,-785,-3047,-532,-316,-199,369,0,-487,0,0,0,0,0,0,0,0,0,0,0,0,0,0,0,0,0,0,0,0,0,0,0,0,0,0,0,0,0,0,0,0,0,0,-6294,-7257,-6438,-3633,-549,-6014,-1501,-758,1215,243,-755,-310,-1622,-157,-5579,-208,-965,0,0,-774,-1516,-707,-490,-295,-344,-318,-1254,-1222,-3402,-8205,-965,-1977,0,-136184,-75604,-46988,-22096,-22348,-12773,-22392,-1215,-6209,-8770,-6420,-5840,-12620,-4701,-6289,-10910,-13515,-5150,-8832,-5305,-6872,-6893,-3266,-12496,-24745,-7422,-7548,-7949,-22515,-4971,-13022,-16217,0,-2967,-2967,-2967,-2967,-2967,-2967,-2967,-224,-666,-819,-792,-615,-1596,-582,-1438,-1147,-1489,-515,-1169,-1164,-894,-793,-497,-1408,-2967,-1084,-978,-1014,-2967,-1453,-1410,-1989,-47939,-710
0,-11076,-2820,0,-5606,0,0,-4230,0,0,0,0,0,-2752,0,0,0,0,0,0,-2820,0,-1410,0,0,0,-1410,0,0,-2786,-2752,0,0,0,-2786,0,0,-2752,0,0,0,0,0,0,0,0,0,0,0,0,0,0,0,0,0,0,0,0,0,-4196,-1410,0,0,-1376,0,-1410,0,0,0,0,0,0,0,0,0,0,0,0,0,0,0,0,0,0,0,0,0,0,0,0,0,0,0,0,0,0,0,0,0,0,0,0,0,0,0,0,0,0,0,0,0,0,0,0,0,0,0,0,0,0,0,0,0,0,0,0,0,0,0,0,0,0,0,-9632,-2820,0,-4128,0,0,0,0,0,0,0,0,0,-1376,0,0,-1376,0,-1376,-11280,0,0,0,0,0,-5640,-1410,0,-2786,-1376,0,-1410,0,-128156,-77940,-55720,-22288,-22288,-22288,-22220,-14100,0,-14100,0,-13760,-11008,-12384,0,-14100,-12384,0,-12384,0,0,-12690,0,0,-14100,-16614,-11280,-13760,-22288,-8256,-13760,-11280,0,-2786,-2786,-2786,-2786,-2786,-2786,-2786,-1410,0,-1410,0,-1376,-1376,-1376,0,-1410,-1376,0,-1376,-1410,0,-1410,0,0,-1410,-2786,-1410,-1376,-2786,-1376,-1376,-1410,-26586,-2786
0,-3309,601,-2813,-1588,-474,-3202,-1410,-3403,-428,1738,1497,-2322,615,-1048,244,622,224,1825,1074,2039,1912,-520,3332,-1206,-182,164,-4713,594,-1795,-1611,-149,-2848,0,-5806,-3835,-1400,-696,1019,-250,1674,-3531,1580,4662,-581,-1092,1620,331,-1303,599,384,0,-544,-5051,1717,-219,-7,773,-37,-6,2826,-29,1397,-5628,-211,1251,0,-1825,-1629,-1247,-849,-986,-1459,-1092,-483,-13,-2974,-16,-110,-72,-1454,-866,-1477,-1306,-99,-186,-290,-1020,-86,489,-102,-1823,-1894,-3110,848,-2202,-1322,-1004,-518,0,0,0,0,0,0,0,0,0,0,0,0,0,0,0,0,0,0,0,0,0,0,0,0,0,0,0,0,0,0,0,0,0,0,-6745,-4032,-5711,-1376,291,-3177,-1689,-1294,-1857,-1493,502,1125,-1063,-4640,-2609,-1504,-1931,-39,-791,-1984,260,-2107,-751,829,688,-1,-7795,-887,-3493,-7183,1739,-2608,0,-137936,-78452,-49158,-22781,-22914,-15796,-18707,-279,-7028,-9111,-5980,-7121,-12240,-2706,-7656,-11598,-16989,-5427,-11250,-2944,-8849,-7649,-1585,-17632,-1937,-6804,-14070,-7256,-21392,-3166,-12375,-14815,0,-2883,-2883,-2883,-2883,-2883,-2883,-2883,-899,-1315,-718,-511,-952,-1114,-1051,-1219,-1455,-1857,-374,-1402,-823,-598,-1059,155,-1790,-304,-451,-2883,-673,-2883,-1891,-1333,-1430,-47054,-1027
0,-2714,594,-2882,-2546,800,-1541,-188,-2125,605,3,-711,114,-11,-1196,-2531,-1250,-225,140,-1,1121,-303,-1534,124,142,664,-1275,184,-4499,-2060,-4965,-917,1318,0,-4582,-962,-99,-1587,-253,-2188,-2205,1069,-1043,288,1009,168,-133,-1112,537,1125,-836,593,0,1819,-643,-1781,-8,-2557,0,0,-435,-4727,-1012,1240,936,374,0,-2874,-2122,-424,-729,-1686,-2822,-1617,-1057,-1349,116,485,-270,224,-240,678,-724,639,0,0,-478,-624,-2509,-250,625,167,-357,-2533,-4425,-902,-2295,501,-917,0,0,0,0,0,0,0,0,0,0,0,0,0,0,0,0,0,0,0,0,0,0,0,0,0,0,0,0,0,0,0,0,0,0,-6243,-3663,-5752,-3292,537,-3321,-2912,-4986,-408,-2180,-484,-1769,-1538,-4888,-2356,635,92,73,102,-1366,-853,-332,2145,-874,663,-2600,-1094,-4215,-3857,-6842,172,-2521,0,-136290,-79737,-49911,-23908,-23334,-14914,-19183,-371,-7357,-9237,-6665,-7143,-11972,-2734,-7328,-12189,-16579,-5826,-11852,-3386,-9207,-7927,-1574,-17439,-2804,-6722,-7602,-12054,-21421,-3278,-13102,-14940,0,-2992,-2992,-2992,-2992,-2992,-2992,-2992,-747,-1006,-1101,-672,-890,-1335,-1017,-1100,-1257,-1700,-502,-1025,-229,-1163,-1468,51,-2021,-131,-964,-1145,-2992,-2992,-1614,-1241,-1659,-47631,-854
0,-3139,-898,-1881,-1458,-340,-4445,-2000,421,-925,-686,-1421,-1497,-2235,-888,-1710,-542,1707,-1947,585,587,462,-506,-1048,-2597,-1694,-1207,-645,-1525,-2017,-2269,-758,1098,0,-4519,-3280,-4311,-1025,3371,275,344,-3554,2725,-225,3342,-2740,-581,-1123,-1352,1565,2256,31,281,-2273,2950,25,867,-933,698,0,4762,907,1487,-1078,2532,1943,0,-2180,-1966,-720,-1844,-667,-1253,-1177,-969,-3361,-2667,617,1713,-440,-1491,160,-1370,-4492,-481,-70,-866,0,-1118,467,2060,-1762,790,-985,-605,-797,-2112,2448,-4365,0,0,0,0,0,0,0,0,0,0,0,0,0,0,0,0,0,0,0,0,0,0,0,0,0,0,0,0,0,0,0,0,0,0,-6366,-3752,-5890,-2654,-443,-4421,-1392,-3360,-750,-3181,-1896,2189,-2789,-5342,-2915,342,-243,-1213,-1488,-735,-1082,-2422,1168,-1241,-679,-420,-927,-1011,-4347,-7838,26,-3759,0,-136905,-79846,-49958,-23016,-23457,-15539,-18853,-448,-7838,-9173,-6622,-7643,-12547,-3026,-8153,-12465,-17317,-6030,-12029,-3643,-9197,-8372,-2446,-18009,-2753,-7151,-7921,-7490,-21675,-3595,-13128,-15317,0,-2692,-2692,-2692,-2692,-2692,-2692,-2692,-791,-559,-1579,-573,-732,-1711,-1309,-1397,-971,-1923,-964,-240,-693,-684,-1448,-125,-1976,-619,-333,-317,-1060,-2692,-1719,-888,-1617,-47522,-1882
0,-2879,-1060,-2599,-1115,851,-3388,-822,-753,350,-290,1347,-668,-2887,-269,-1063,-757,2718,0,165,1762,-1082,-997,1705,1202,783,-1547,36,-613,-2387,-6545,472,705,0,-3613,-1151,-1153,-1514,760,277,-1493,-26,-34,-3422,2220,-2834,-6336,-1769,-91,-1208,-4107,0,-1103,2719,-5309,-2012,1018,-1408,-2202,-1,-2785,-11,-4855,-505,-1345,3292,0,-2690,-2256,-1868,-852,-637,-76,-1271,750,-353,-262,1910,368,-3620,-762,-94,1051,1430,-248,-2080,702,1036,-1827,1984,-677,1691,158,2192,369,-849,-5183,-797,-2041,0,0,0,0,0,0,0,0,0,0,0,0,0,0,0,0,0,0,0,0,0,0,0,0,0,0,0,0,0,0,0,0,0,0,-6402,-4223,-7045,-1937,-2502,-4954,-1936,-3051,-487,-3709,638,1448,-2042,-5334,-2371,-1042,-790,2298,1975,-865,-7,-1339,747,-2058,1026,402,-1101,-568,-2994,-10962,-886,-3963,0,-137436,-79502,-50363,-23163,-24016,-15471,-19244,420,-7034,-8684,-6098,-6694,-11515,-2306,-7390,-11612,-16548,-5250,-10913,-2966,-8584,-7533,-1381,-17104,-1991,-6163,-7303,-6669,-21249,-6987,-12067,-14566,0,-3193,-3193,-3193,-3193,-3193,-3193,-3193,-266,-64,-1602,-94,-838,-2640,-1011,-1101,-1492,-1766,-320,-3263,-58,-1267,-1555,-143,-2111,-81,-987,-361,-773,-3193,-3193,-1484,-2267,-47156,300
0,-4489,-1114,-48,-3855,992,753,-3215,-722,7,-939,0,-687,-1532,-962,-1540,-461,1269,0,53,-2462,-88,-2255,-2300,0,10,719,-792,880,-1644,-5413,-2818,-713,0,-5176,-3547,-1456,-1023,-308,-1069,-202,-743,-97,-1454,0,-820,336,-499,775,82,3731,0,53,-1112,-383,-631,665,0,0,0,1182,-710,-300,-591,-662,-834,0,-5363,-4086,-1848,-2788,-3305,-3280,-3036,580,-72,0,-144,-189,12,-215,58,871,1749,0,0,1081,515,-1900,2399,-383,160,878,-731,-1356,-238,-2195,163,-858,0,0,0,0,0,0,0,0,0,0,0,0,0,0,0,0,0,0,0,0,0,0,0,0,0,0,0,0,0,0,0,0,0,0,-8756,-5917,-5649,-2584,-59,-4579,-1328,-1705,-663,-1436,-308,-1197,-2777,-4094,-4281,-327,270,12,-1,-3166,41,-3053,1245,0,96,-520,-1356,-1275,-2991,-5456,-1301,-1889,0,-134427,-78065,-50495,-21375,-21224,-15729,-21102,1130,-8945,-8721,-6498,-7177,-10419,-2540,-7692,-12415,-16749,-6812,-11504,-3211,-8385,-8601,-2801,-15947,-3256,-7187,-7303,-8269,-24707,-6135,-25262,-17212,0,-2988,-2988,-2988,-2988,-2988,-2988,-2988,-146,-977,-1255,-695,-1007,-1438,-831,-1268,-1225,-973,-680,-1277,-887,-830,-1644,-99,-1633,-299,-611,-900,-1073,-2988,-1979,-2988,-2177,-46401,-2745
0,-3000,-1094,-1236,-2431,-254,-3358,-1522,-88,1059,2963,-2993,859,-1160,-2030,-1911,2609,508,1718,1232,829,1400,-855,1411,93,-1839,-667,157,-1563,-2375,-3337,3849,-5,0,-6395,-823,-679,-6788,-133,-2771,-7247,1378,2256,-1266,2028,-748,841,-2221,511,650,3630,25,57,3750,-1617,-2662,-147,1195,-1897,-3124,1910,1423,-2462,815,547,-3786,0,-2503,-1650,-1374,-1964,2519,726,-2021,-581,-480,111,-1312,-245,-1525,-2375,-1020,1690,-2724,-222,565,-1024,-1933,170,1306,748,938,1522,1413,-1258,-1672,-2470,440,-6210,0,0,0,0,0,0,0,0,0,0,0,0,0,0,0,0,0,0,0,0,0,0,0,0,0,0,0,0,0,0,0,0,0,0,-6096,-3987,-5711,-2834,-3359,-3707,-1085,-4052,-2203,-4458,-1694,-2535,-4911,-4295,-3341,-586,-1310,1490,755,-1339,451,-1597,-273,-2241,1208,-634,-1193,-913,-2299,-7650,-718,-1513,0,-136986,-79346,-49361,-24403,-22405,-15098,-18363,-387,-7921,-9440,-6628,-7683,-12525,-3196,-8309,-12575,-17324,-6321,-11795,-3836,-9441,-8438,-2625,-18212,-2960,-7362,-7929,-7749,-21787,-3614,-13217,-15921,0,-2954,-2954,-2954,-2954,-2954,-2954,-2954,-373,-505,-1209,-1086,-1035,-1928,-1410,-1407,-908,-1716,-331,-2240,-162,-1114,-1320,144,-2036,-455,-784,-291,-1006,-2954,-1564,-896,-2954,-46941,-703
