0,-49,87,-101,-383,1222,2577,-288,84,-1,444,-317,-119,644,318,536,214,223,-251,-502,256,779,390,-730,-565,1209,-423,543,227,52,243,290,1139,0,463,311,-32,-1602,-2323,758,348,-686,1063,1170,-2668,-673,14,222,313,-1071,-16,-959,-204,1022,1340,1543,-3794,-621,-653,-522,37,2339,-456,-327,-761,-694,0,-104,122,-144,-845,1257,3001,-9,155,-43,-351,565,415,509,177,230,297,265,1090,397,511,675,340,-701,424,-1237,-667,437,-258,-446,494,497,501,0,0,0,0,0,0,0,0,-260,-173,-1594,752,-1306,-1715,-299,-700,-377,668,2753,0,311,-1954,1025,0,2023,-367,-1178,-1380,-94,-585,-142,-2138,-2355,0,22,-99,-204,-371,1362,2417,6,-167,-275,109,-275,142,-325,-232,-129,-482,1,-364,-154,-150,-427,296,-387,-225,-639,-324,-639,-51,148,-344,-246,-1054,0,-7,-76,-304,-518,1244,2463,3,-216,-94,-174,-102,-222,-237,-219,-162,-243,33,-264,-162,-167,-88,118,-503,-125,-172,-415,-366,-67,-459,-215,-95,-310,0,396,396,396,396,396,396,396,-109,-520,-35,-987,39,-111,-219,112,73,-1679,621,123,254,-1011,396,994,289,363,2119,2314,-1308,2201,400,-359,0,-114,127,-771768
0,-270,149,-706,-247,1612,170,-390,300,-81,805,-422,-842,1020,253,547,-388,117,346,190,375,1672,209,-639,-576,-3251,-658,1015,-307,-564,56,184,-207,0,-638,724,-1081,-71,-402,-2373,1009,35,-607,915,-57,-121,531,554,-1279,-1858,-964,-600,-1844,598,1486,1162,3509,-1968,-1903,-2080,260,-491,-740,-331,-1138,1869,0,-208,320,-535,-312,1995,-5,-393,-59,287,1105,-346,1465,435,-201,708,657,373,2232,140,421,34,88,-593,-1554,-658,-504,655,-680,183,331,75,-1415,0,0,0,0,0,0,0,0,-403,1242,-663,-1912,-2227,-945,86,-271,368,-1632,484,0,101,-1063,807,0,-503,-2440,325,-245,-211,-319,-3,-3180,-1335,0,102,204,-803,-177,1944,447,89,-35,-590,-111,-223,-189,-399,-402,-199,645,-54,854,-245,-348,-105,25,-327,386,848,-4,-204,-216,149,-235,-541,293,0,55,193,-657,-383,1937,386,-10,-228,-125,-205,-498,-185,-261,-188,-234,-53,-109,-232,-214,-231,-185,40,-188,-250,-138,-147,-88,-138,-495,-207,-303,-406,0,874,874,874,874,874,874,874,-39,-13,-24,3743,-192,570,21,-175,-85,-1118,167,-278,83,-88,874,-603,534,-340,217,130,-293,2655,-397,1090,2301,-218,-1086,-132085
0,-692,-334,38,-622,-247,-384,-1400,556,-684,1524,-408,-2165,1492,743,989,-249,-1717,-775,11,-84,2162,183,-1436,-3248,-600,785,1132,199,64,487,-3017,362,0,-334,-87,-556,390,-966,-349,851,70,-445,785,70,80,1710,1229,-1492,262,-1305,-783,-775,737,2890,1736,-731,185,1539,850,548,-63,-1417,-1244,-1124,2914,0,-648,1048,-366,-1251,-799,-189,-823,363,568,1615,1311,2503,697,60,977,230,479,1564,-2485,395,110,308,-1329,2542,-1184,851,135,-799,-629,621,-1627,-1530,0,0,0,0,0,0,0,0,-100,-772,-938,-1148,265,-1002,-29,-86,-533,-2,0,0,116,-1666,653,0,-795,-570,-1213,-1856,386,1870,419,-63,-36,0,-101,-112,-337,-89,279,246,-89,79,109,-308,394,-182,-224,-412,-148,1142,-791,1355,-629,81,-908,-281,438,-776,-1103,-1354,707,-488,601,-43,543,-1190,0,87,147,-114,-300,259,309,-63,-38,177,-79,88,-39,-73,-36,10,50,-46,-147,64,-155,-107,-36,-6,18,158,-183,114,-60,-36,-68,-5,29,0,-190,-190,-190,-190,-190,-190,-190,93,-1335,896,-1374,46,410,563,25,-293,-384,114,-618,109,43,-190,-163,-208,36,805,340,209,370,-228,-216,-950,-163,-1746,-23194
0,307,-1228,1560,1974,2837,1607,59,837,-534,618,524,58,1467,460,1000,512,-378,-1947,2118,993,147,-881,-24,291,109,578,416,-1290,1922,51,1318,507,0,-71,-785,742,2409,-3654,-1219,1322,1060,-5575,1209,-796,-751,-18,-585,3350,952,1281,3112,3063,1826,2992,-421,159,-889,78,518,864,-969,143,-3022,1391,-6778,0,85,-1135,1243,278,1746,2061,163,89,417,602,1445,2150,-425,163,-453,695,949,-755,2290,465,666,-1991,1135,1962,269,507,-120,1019,262,1149,-744,3100,0,0,0,0,0,0,0,0,-251,2453,-153,-2143,1164,-534,-255,-336,3948,-361,75,0,152,-716,-1510,0,39,14,1609,570,40,-358,-344,234,0,0,-10,-958,278,-139,266,659,82,-21,-33,-579,287,1641,133,-402,14,140,-452,132,604,-45,-463,-1483,188,1504,-697,-399,1356,-74,352,329,525,647,0,493,-889,353,-747,869,323,177,46,81,-42,25,-59,-23,42,155,-13,-34,68,217,-61,84,-1502,-9,57,102,-52,-7,64,23,-19,9,5,0,258,258,258,258,258,258,258,176,-1378,290,183,222,-209,679,373,640,523,-61,-965,333,-271,258,482,298,-171,491,937,-141,56,-146,117,-136,-60,-23,-4193
0,901,1364,617,-31,987,-419,189,251,82,54,419,10,217,437,-98,78,214,11,13,450,77,468,481,66,34,32,75,122,-547,291,5,403,0,-571,-1085,-1070,-191,-215,-533,3,0,-209,63,-437,20,-86,-626,1,-24,244,22,221,-194,7,590,0,-379,1,12,-29,0,290,22,-194,-214,0,18,202,564,378,-798,1424,154,45,133,6,66,21,393,-271,-112,-97,-188,1,19,6,26,492,-524,26,10,98,90,-81,41,222,-153,-221,0,0,0,0,0,0,0,0,-238,36,610,0,0,-605,248,-918,0,50,0,0,-287,254,-1805,0,232,0,95,-3,317,-57,498,0,0,0,233,861,783,-180,-418,153,-378,-346,141,595,93,233,-39,-1055,268,-127,-19,10,-97,379,123,339,413,-73,-6,-110,84,375,-118,244,-295,118,0,-137,287,545,504,457,-620,-25,88,127,-440,205,-274,226,-229,369,116,-594,-444,184,316,-111,-215,-1071,175,-189,326,-151,23,-497,-299,102,294,0,5,5,5,5,5,5,5,-20,34,89,22,1,11,-161,-49,0,-25,-40,36,67,39,5,-87,6,-15,52,7,76,-88,100,-53,43,156,-421,3140
0,796,-243,1783,683,1164,145,2362,-671,874,2760,4004,1246,-1103,1530,1424,281,-1623,6,1282,-522,1845,2946,1389,-1224,120,-914,2649,1887,3547,1114,1630,-1352,0,1302,-315,-179,-1929,-3208,1181,-140,-3065,-896,1890,-344,-130,-551,-844,519,-1092,4303,-2662,1363,-1711,465,2584,-3,1701,66,-2625,2816,96,-1259,469,1165,429,0,2074,20,5230,898,-503,-3836,-862,-679,-2213,2485,1062,3195,1243,3811,-1266,1293,3391,5,91,1558,-4294,2474,1565,-2745,1093,1385,-1141,5001,867,1224,686,4025,0,0,0,0,0,0,0,0,-652,2358,-2127,-2841,681,-2962,-2266,-2368,1828,-437,64,0,-1183,-3934,4508,0,-706,16,-941,-589,-1203,111,-1577,-2153,0,0,203,-466,866,-96,1794,1147,345,-614,-1959,-744,2124,42,-255,-593,409,-3401,929,-1256,-1131,281,2261,972,-197,-189,-1677,-91,1547,168,1338,-235,-1021,-820,0,871,-589,41,-1099,1008,223,1246,-709,-314,-723,-603,-580,-650,-631,-100,-551,-721,-476,-741,-293,-368,1181,-811,-642,-409,-790,294,-503,-696,-718,-690,-721,0,32,32,32,32,32,32,32,-639,-1296,1109,579,153,-210,124,-138,-290,788,-425,342,-187,-622,32,347,-267,-66,-100,-316,559,142,507,-193,387,92,-55,-44627
0,568,-877,2727,706,-2080,372,909,1290,286,1104,-647,35,-803,2702,1850,3220,1914,-266,-1519,1705,297,-2164,398,-1935,-709,1461,500,1359,-1011,-59,2290,-599,0,447,859,677,-1227,-202,-1626,2896,583,-7730,708,1080,258,1182,-867,-543,360,-2375,2,-197,-465,-571,-15,0,146,-48,282,2143,1,4435,220,385,-8268,0,135,1,513,390,534,166,1817,747,-61,376,990,-1677,1199,1618,-746,-2180,-1912,-1693,817,1116,-80,-3049,-662,-1514,-554,1968,-214,268,522,1844,1023,5399,0,0,0,0,0,0,0,0,-503,-205,-2812,15,0,-1734,529,-1461,0,-332,-2476,0,133,-2067,-71,0,1,0,-900,-2548,1202,824,961,533,0,0,-648,-788,-1367,505,1683,1007,890,141,146,870,407,-416,171,-804,1350,1485,327,-1209,340,1358,-915,-2184,106,652,-1571,1191,394,-922,-979,-801,1580,-374,0,-632,-207,223,265,1241,43,972,542,281,112,484,760,275,315,400,659,574,432,789,383,414,-1743,310,453,432,554,-286,233,189,214,314,-115,0,147,147,147,147,147,147,147,280,-431,25,111,-104,29,284,85,366,-400,-521,89,423,-111,147,39,-218,-245,371,147,225,401,219,629,-370,724,-2821,-2761
0,-153,185,227,29,-36,-42,-22,99,16,-34,55,0,47,-537,-42,-58,-7,-54,-1,-31,15,103,0,0,0,-33,-34,-19,52,-260,-5,213,0,-117,-368,-248,0,0,-1,0,2072,-10,-13,-24,0,68,78,-1,-17,149,0,-20,-24,52,-2,0,0,0,-8,0,0,-40,-20,-7,-9,0,196,-83,20,-93,64,38,92,-1923,-6,-6,-22,-12,0,110,-6,-3,-75,0,0,-1,-8,-40,-3,0,0,-8,-7,-5,-8,-8,-3,-196,0,0,0,0,0,0,0,0,-317,-17,-26,0,0,-34,519,-57,0,-7,0,0,-25,-14,-24,0,0,0,-25,28,-10,0,172,0,0,0,-240,17,-208,-45,55,-208,-80,-106,-73,37,-50,0,-86,97,-100,60,46,-88,-4,-59,-10,-171,71,-4,-6,-58,6,-24,71,-361,-57,-23,0,-120,144,0,-22,-131,165,61,115,-118,93,92,23,208,-128,-334,-102,-279,112,155,30,-115,96,68,54,-74,359,-103,-202,235,-73,132,492,0,-6,-6,-6,-6,-6,-6,-6,-6,-21,5,7,1,18,18,-54,-12,-31,-3,4,-11,-8,-6,17,5,-8,28,-11,-26,31,-55,6,52,-411,-139,-2129
0,-348,-167,1090,-837,163,1332,-840,1171,302,385,-463,1420,3524,47,818,119,-687,-2484,-4136,741,1922,-1722,-402,-999,-11,1135,1326,-581,-77,350,-1332,6,0,28,108,17,-2940,-915,-2141,-1262,-1112,4008,612,1063,-338,1615,-111,-1912,3979,3146,-175,7150,1071,567,-685,-4,3041,1797,-484,3799,-681,2014,-1600,-2619,1197,0,-32,663,454,-1242,-1085,2132,-112,-596,250,778,922,-1172,2219,333,771,-1296,107,-1419,-640,386,2058,-2143,-37,-458,-313,781,431,-1079,229,673,-2105,2353,0,0,0,0,0,0,0,0,-964,-284,-905,2954,2575,-864,-949,-615,-1114,-61,-274,0,-621,-1237,-993,0,1231,0,589,1555,49,-1309,-1175,1522,0,0,50,-377,1050,-902,-464,2335,11,-586,-65,352,-1158,-1592,-686,447,-571,1432,-810,-1251,-384,-753,-117,-1130,-208,551,755,-1384,726,-464,-88,-218,165,-955,0,-317,217,980,-1015,180,2050,243,-83,902,-263,-7,-270,-228,-278,-131,-211,-181,-71,-443,-284,-165,-1212,-259,-113,-181,-124,-424,-109,-215,-87,-162,-262,0,-267,-267,-267,-267,-267,-267,-267,-217,-267,-394,506,-59,558,-967,-164,42,51,-803,2275,54,20,-267,-86,19,129,464,573,-335,-402,-2014,-209,-1177,210,-2328,-78749
0,11,-215,591,-1204,-169,-1356,907,1492,237,-1040,-160,2721,-3094,-866,571,-234,2847,0,-606,1474,2291,313,3045,2475,445,1839,-2835,1966,299,-838,2493,-11,0,1037,1207,-1358,2537,-6,1008,797,-388,1728,6411,-903,-251,2392,-2071,-422,-223,341,0,-316,-117,3539,-459,-5,-1,341,-199,693,-2,2654,0,-967,113,0,196,1520,-135,-202,161,54,-1944,-2376,-555,-2392,-1041,-1301,-979,-993,2179,-1131,1736,0,-1920,1331,-330,436,-900,-12,-30,-2333,-1871,848,-1239,-1419,-2074,132,0,0,0,0,0,0,0,0,-2198,-161,-1645,0,0,104,-2939,1291,0,-643,0,0,-3313,-2842,3364,0,-11,0,1671,3334,1751,-338,-1489,0,0,0,64,-353,-1517,-720,271,719,-287,553,-717,-355,332,331,1088,51,-318,478,-1825,0,-480,896,-362,-1108,196,-468,1869,-2059,477,1561,1160,253,-421,-1331,0,172,63,-846,-93,319,-422,-628,-383,89,-1394,343,-50,329,191,-171,338,-302,100,129,-251,234,712,216,287,345,-28,1032,226,-68,296,519,-33,0,72,72,72,72,72,72,72,-330,324,72,-149,145,-16,-700,313,-60,220,10,-1633,2,253,72,319,227,292,414,194,635,324,-157,-45,-6,-361,-63,-18842
0,-1194,1090,-564,-323,234,153,-489,168,1528,458,-706,564,2727,379,1170,-1250,-1501,955,-615,9,2152,375,1258,-186,1572,-16,704,-281,363,474,-978,-2132,0,-2665,673,-1,-2318,-921,-3,597,243,827,-1222,4566,526,163,286,620,1904,24,174,-928,771,1307,886,0,1500,-663,-812,2586,0,-2301,-2148,-228,2669,0,-813,1218,513,-1051,848,315,-802,1206,-796,755,-984,-233,1929,296,-144,-1899,2357,0,1002,980,1798,1085,-1405,8,-188,2495,46,-926,-1019,1255,2336,1747,0,0,0,0,0,0,0,0,-361,1399,-116,-142,-644,-1103,-58,-265,1433,30,0,0,-528,-2144,1927,0,-24,0,-303,-3333,-46,1794,-96,1017,0,0,-154,662,-633,-480,787,196,325,398,-524,729,-152,-1037,-518,-141,-87,1087,782,-1574,-1885,144,-77,858,11,2447,668,1181,1957,-208,-413,-481,544,182,0,-67,664,-644,-978,276,33,298,36,57,-54,-650,-36,-138,31,-44,2,-72,75,204,34,4,471,-48,-175,-219,-17,316,-59,231,36,-121,-108,0,153,153,153,153,153,153,153,169,-50,-56,153,-86,306,-79,125,2,162,-37,-991,141,304,153,-23,357,272,444,145,-152,-134,-96,257,244,-349,-433,-73131
0,-1267,474,2176,-624,-306,232,-798,801,6,3980,214,-625,327,477,2112,-154,-453,0,0,1625,425,-1125,-1765,2069,-27,875,-83,-1879,-1083,95,282,608,0,94,-859,-1116,135,-2,-1092,948,0,1429,3,945,3677,1113,489,-99,471,360,0,0,675,-2826,-34,0,-827,0,307,-1101,-6,208,226,-196,539,0,-329,-446,-983,-1083,-217,801,-2004,-756,-220,203,-1331,-1027,301,2739,-1719,-30,201,0,-254,-1456,687,437,127,-714,0,1200,-292,-1223,-63,428,395,-372,0,0,0,0,0,0,0,0,-1553,-510,-648,0,211,-925,-531,-1125,-7,-632,0,0,-98,-242,944,0,784,0,-464,638,-296,609,-590,0,0,0,-253,-346,-31,-653,202,1137,571,-1638,402,462,-383,-1815,-2723,1276,-2237,258,-152,-12,-347,-1115,314,-303,1063,107,-415,-413,-1013,-120,1319,162,1497,308,0,-572,-293,1948,699,427,172,-790,-84,449,360,674,-1001,537,298,-202,122,-297,-188,-122,389,149,-623,144,521,-278,82,-229,574,-214,-31,120,-286,0,13,13,13,13,13,13,13,-323,64,436,3,13,-137,476,-327,66,-98,-20,-184,2,-127,13,-17,194,-72,242,-208,-295,147,29,212,41,388,228,-15155
0,-1707,56,623,1982,-430,-471,2083,-1615,1707,11,-1055,1081,-185,1707,-511,-1377,406,0,961,-922,34,-1185,-649,-227,-12,-218,-883,2228,-1408,-203,-629,-1202,0,1157,-2019,634,4,-157,-335,-7,-13,168,-326,1138,-292,5420,-918,0,236,639,0,906,-273,216,-491,11,-569,0,473,-221,-230,530,-130,-33,25,0,583,-1156,-1933,422,417,-1026,1786,1632,-2028,-1287,768,-124,-4395,196,137,595,23,-2,-864,-619,217,-714,1055,-183,-518,393,1818,-62,536,-807,374,780,0,0,0,0,0,0,0,0,-1162,667,-367,0,0,745,222,541,0,-120,0,0,788,539,1995,0,1455,-120,-74,-612,529,699,-1046,0,667,0,375,-10,-1161,-831,-1700,201,737,446,1186,-2115,1236,1862,-1792,-732,-320,-566,-375,0,905,-339,-1021,148,-441,101,-29,-1122,-916,-184,734,-437,-249,948,0,372,-401,-690,280,1102,-153,1486,-378,-316,24,-676,-227,-753,-232,-317,-228,-467,-258,-169,-285,109,-519,-548,-87,-1,-49,-872,-643,-160,326,-679,166,0,-96,-96,-96,-96,-96,-96,-96,-109,58,-406,99,230,-96,-41,-47,-134,-34,-26,141,-165,9,-96,-107,27,-68,-103,-169,153,97,-230,-125,182,278,522,-14002
0,-483,-726,-1175,-271,-257,1569,578,-1271,1265,1454,1452,-4313,434,-393,564,-2674,853,-408,1371,-169,1190,-620,1703,-455,1793,-919,491,195,785,452,-1744,996,0,204,881,47,-667,-1554,-1906,-4,-3057,460,-400,2028,-374,-2439,3366,364,-2973,4368,-864,-1990,-1761,-2344,-213,0,-2604,0,-2500,-854,-1096,-3919,-1166,-529,4058,0,-564,302,-1349,-1255,-128,-1255,446,221,-628,885,481,1859,1141,-710,-995,563,1006,4924,301,200,1681,577,1067,5164,-15,803,1211,762,1018,1285,3382,-1557,0,0,0,0,0,0,0,0,-754,5429,-2960,-68,-191,-4323,640,-2099,164,-1158,0,0,298,-760,1181,0,-369,0,-425,-620,-497,-1365,-861,535,0,0,284,275,-1606,-782,1053,1528,327,270,185,149,-3191,625,440,-152,-226,466,370,-430,-2910,412,270,-15,-195,-1146,-1131,3040,-320,-442,2560,-38,1665,410,0,425,-199,-1080,-1164,246,622,-527,471,298,394,571,163,317,-242,572,294,-85,273,246,450,481,-151,462,283,148,298,-511,408,191,-77,289,211,0,-80,-80,-80,-80,-80,-80,-80,-412,639,-369,367,-351,-443,-80,-182,-607,1023,265,-572,-57,-165,-80,113,47,291,-106,-535,-67,-68,-340,594,295,-337,-1680,-67189
0,-832,-347,-43,-1096,-12,-54,-13,-7,-46,-7,514,-4,-5,118,-61,-1,313,-1,-3,-254,0,-181,-13,-6,-4,-6,-11,-17,-77,-23,-1,-22,0,896,514,83,353,0,102,-7,-2,-45,100,-137,-1,0,-254,94,0,-234,0,0,-476,0,-80,0,-2,0,-41,-8,0,1,0,0,0,0,48,494,-9,720,-7,-134,-53,-6,0,-50,-421,-5,0,-95,-22,-1,-52,-3,0,-25,0,-96,-73,-22,0,-24,-19,-2,-17,-4,0,-11,0,0,0,0,0,0,0,0,9,104,80,0,0,103,-402,151,0,0,0,0,-26,-1,79,0,0,0,-257,-2,195,57,151,0,0,0,190,-311,-219,32,-59,-416,-75,63,-53,-158,-44,-2,393,-306,-463,0,27,0,-2,339,-1,392,-256,-4,-2,-40,-31,-104,-63,763,57,-6,0,3,-405,130,-5,54,478,135,-367,-77,279,-392,-468,249,750,271,2,-4,234,-390,592,-278,-225,778,-206,-334,516,-217,8,119,-157,444,-291,0,-3,-3,-3,-3,-3,-3,-3,-31,-12,24,-48,-48,74,-19,-3,0,5,23,-53,15,-28,-3,48,-24,-34,13,-29,8,2,73,50,-33,-534,-316,-298
0,-1440,-393,409,-341,941,1640,-384,-339,-324,830,77,4,2044,220,630,997,893,253,0,-1682,-533,-141,572,6,750,-705,1174,-432,92,231,359,-638,0,-206,-4198,-133,-325,-3,-331,-104,-546,15,1014,195,-366,610,-702,0,1473,-186,4,-2,869,491,120,0,-233,258,-171,-51,0,-453,-2,-29,205,0,910,349,-16,-937,-92,-101,-2117,705,59,-530,-167,-8,-241,760,-760,-1510,-181,184,70,418,-570,-1674,-1877,403,-100,-88,-284,-143,132,784,-141,5,0,0,0,0,0,0,0,0,714,1032,-1487,463,-3,-929,660,-928,0,-6,0,0,-1364,-751,1056,0,0,0,101,-316,-679,924,-1460,0,0,0,479,99,-320,-99,-342,14,-613,741,63,1849,-251,601,130,-1225,-275,-361,-701,-57,-247,1602,-408,730,833,1116,-229,863,1124,-1017,753,-135,1551,658,0,796,-97,-991,-606,-56,-1120,-114,-105,173,-206,-30,282,-664,-632,-27,81,-367,-254,-119,-453,-419,208,152,-22,46,-171,703,661,-608,124,-161,-1,0,56,56,56,56,56,56,56,117,249,147,83,51,95,-32,-136,56,-44,13,-352,-61,-219,56,-40,127,60,112,235,-161,84,1,100,19,-584,411,-11158
0,202,-1281,2368,-1230,-389,-555,-1442,382,-406,-194,-582,-108,3941,453,576,-2249,-2608,1444,-607,680,-1935,-572,-127,-1397,-47,2411,1212,-719,634,744,579,1951,0,218,-73,128,779,-54,101,2655,3196,1872,471,1415,244,209,-438,-2898,1221,7787,5,3402,-2461,-2397,78,-642,2423,0,1014,3629,-1162,1557,-1206,4699,3111,0,148,-720,1261,-1004,455,536,-980,-273,402,457,2064,2678,1098,-787,550,1877,-1739,926,235,120,-526,-64,-1336,-575,-1370,164,1810,-891,1769,562,-24,-9367,0,0,0,0,0,0,0,0,504,3196,-2844,1285,332,-2089,-1907,-31,0,-343,-1579,0,-434,690,-918,0,911,0,689,-654,-24,446,22,-539,0,0,-378,-70,1074,188,362,-130,-182,-1059,-40,355,1999,484,-911,-120,-1175,-1491,-2683,254,-998,-787,-348,34,813,1946,-2697,146,752,-337,2679,-705,-1152,244,0,698,-460,1098,-756,-406,-132,71,-90,-275,-245,-548,-120,-238,-122,-92,-227,-2046,-370,-310,32,-240,-678,-177,-448,-186,-314,-204,-164,-523,-508,-141,-34,0,-4,-4,-4,-4,-4,-4,-4,266,124,-200,1086,351,201,-141,-307,-38,-4,68,-690,-285,-520,-4,-1229,286,-430,411,694,-158,508,119,99,-247,157,-365,-62739
0,-726,-240,132,342,-7,211,558,-113,23,0,17,0,0,578,588,109,4,-84,0,419,592,300,-38,149,19,-8,784,-70,22,-206,9,22,0,-180,-49,6,-7,-1,-78,0,-57,-29,0,-63,0,0,422,69,4,3,15,0,-286,-471,-150,0,0,0,0,136,0,0,0,0,-3,0,-9,94,1,-670,-33,-274,-342,-116,187,0,-82,0,28,-2,39,3,-32,-135,0,-24,-23,-48,-38,-38,0,-8,-63,278,-3,13,-19,3,0,0,0,0,0,0,0,0,54,-166,0,0,0,0,-652,-252,0,0,177,0,-766,-425,122,0,0,0,0,-5,-112,0,162,0,0,0,-62,-132,-18,-15,-356,-95,-539,-134,111,3,-32,7,0,278,234,-59,-133,0,0,-342,5,-273,164,0,96,0,89,48,11,83,49,40,0,-51,274,-265,64,397,236,331,426,-261,-153,-230,-427,-478,395,-138,313,-155,36,-425,359,-208,49,240,-81,-215,-254,69,-244,-140,-206,101,168,0,0,0,0,0,0,0,0,6,5,-15,-32,-42,-45,101,54,37,-30,0,-25,-64,-53,0,41,3,-10,-27,101,-10,-11,-20,14,22,-147,73,487
0,439,-1607,358,578,171,-234,-465,-512,-136,70,77,0,82,522,1850,-15,998,0,117,462,411,658,667,-79,0,161,-746,147,10,379,-42,-26,0,-187,668,-312,-13,-4,-16,1,-102,-35,281,-65,0,9,-94,-3,-10,-45,0,646,-3,441,-369,4,-83,0,72,1165,0,92,-42,-3,-19,0,-296,703,-472,-257,-564,-482,-155,359,-59,-100,-113,0,206,-11,387,-145,2,-59,-683,-308,-133,176,130,0,0,-434,-246,0,-57,-182,-119,-47,0,0,0,0,0,0,0,0,-251,-3,-155,0,0,-221,-274,-405,0,-4,0,0,-644,-225,251,0,-23,0,-25,-172,329,-84,-821,0,0,0,-432,172,846,-200,239,-322,-473,-716,36,253,-132,-35,-434,400,-949,-122,-46,0,-34,-290,153,-251,-751,-104,-110,686,106,-368,48,-287,262,-19,0,-287,537,-291,80,94,990,356,112,-1,51,-177,45,168,7,-60,222,114,-131,-665,-567,-437,-513,-222,-141,590,195,111,-158,11,-337,-318,531,0,-8,-8,-8,-8,-8,-8,-8,-111,-23,40,-41,1,-29,55,82,-7,100,-19,-8,-135,21,-8,12,-43,48,60,47,-5,2,-129,-32,42,256,-113,-4397
0,145,-1201,472,545,-1965,1406,1854,54,1868,1725,-1145,-788,1837,153,2196,1867,-1100,3721,984,-899,2528,-340,76,848,-26,-424,2823,-789,-1749,193,-1653,-539,0,-715,-976,-195,2114,-125,-861,-183,-338,195,-927,-1153,-158,-2254,-650,4943,-133,-2449,-123,-66,3856,-3522,-81,-289,212,-635,-48,-22,-284,-565,-15,1621,2760,0,-5,-433,-4646,105,2808,193,212,2628,1190,185,-1398,2033,1726,1842,2454,2038,981,105,-2,-1125,-15,1615,211,-617,-126,799,2134,-100,-2082,1371,-1399,-2960,0,0,0,0,0,0,0,0,-242,-911,-2702,-49,-564,189,1224,-554,0,0,2082,0,1919,-7686,603,0,0,0,-1843,817,1688,997,492,0,0,0,401,-106,-1329,-102,438,380,373,-441,-542,435,441,783,699,266,678,2346,-27,-1285,-2275,-1215,1131,-1013,450,-2441,-1353,-241,279,1490,1123,789,-2551,-1639,0,352,-431,-1452,-321,-188,941,844,-1,232,76,692,74,61,241,3,-218,402,231,278,-1326,274,-804,206,348,260,187,557,100,319,602,166,1171,0,121,121,121,121,121,121,121,166,431,-121,-311,120,192,-123,972,590,250,466,-1092,121,-729,121,155,-190,-188,-182,656,-122,-202,528,-382,84,-666,-1247,-67906
0,-1032,1189,-1145,-198,356,245,352,-1889,1881,-681,-989,2377,0,-34,-293,-755,-386,696,755,-480,-767,-741,679,22,-125,-600,142,-127,-1079,-1577,-153,329,0,1834,211,-303,3497,2,-32,1345,-1167,3177,2685,799,54,1319,360,-8,261,-1074,-41,199,-2868,8418,1182,-3,261,0,-158,948,-397,715,-62,-5,1613,0,-45,428,284,-723,-639,-735,730,-1076,666,928,-872,2196,-323,-1153,-64,664,1425,-69,539,951,-4336,-1045,486,49,0,1515,-1657,-407,-490,448,-43,463,0,0,0,0,0,0,0,0,-3780,-88,1318,-199,-209,1747,-1945,-837,-2,-101,-6,0,-558,-1573,1786,0,0,0,-9,2480,-1379,1719,117,-10,0,0,305,437,-1563,648,-1123,-554,698,673,-1100,340,1008,-1562,-1089,1182,-715,-769,-774,1929,-1632,-1370,-2049,-1556,-767,1363,-328,-909,564,-1434,-822,-1494,1696,2805,0,-527,401,-734,2208,188,-80,624,109,100,-3,-165,-212,26,265,-273,354,-56,-9,368,155,-1106,-753,-744,-217,-27,-136,-136,134,-193,41,-17,-112,0,-152,-152,-152,-152,-152,-152,-152,-713,495,441,119,262,168,-239,-219,-25,-184,99,-509,-417,-152,-152,-39,145,-48,-115,-16,-361,-15,-329,-15,299,708,-523,-15823
0,-153,302,25,48,-77,1349,184,-265,323,-756,55,198,-287,212,-480,-305,-1,-2149,-1952,-163,-775,99,-552,-71,-3346,-205,-417,-312,976,-373,-283,1193,0,489,857,1113,-870,-2355,-2779,2204,-2044,1629,-549,-151,1204,-1289,87,262,194,1650,-961,240,990,-1850,3312,-487,383,325,1262,156,212,764,242,2756,2423,0,74,755,343,-503,-190,1489,-246,-213,71,-513,1438,133,-69,317,-275,-395,140,1188,-350,135,-251,-42,-647,-290,1699,-929,-268,448,341,-277,656,-2525,0,0,0,0,0,0,0,0,-372,1680,-2283,3003,1194,-2690,-607,-1283,1827,942,138,0,845,-2328,1508,0,-2445,-1630,-1749,-1561,-166,-696,-450,1974,-253,0,-40,340,50,-215,366,1841,292,6,-761,-166,-148,-151,-363,-154,-107,193,-246,-1078,681,-362,-127,113,-129,-1090,-95,142,-226,-123,223,128,-1024,1120,0,-91,31,-14,-298,352,1812,158,-132,-290,-158,-294,-138,-159,-223,-127,-177,-163,-147,101,-216,-180,126,-266,-152,-130,-285,-286,-43,-128,-149,-426,-43,0,-238,-238,-238,-238,-238,-238,-238,-302,1801,362,860,244,-536,-16,-201,142,586,-421,-2623,-57,49,-238,360,-240,-287,144,-670,-195,-146,-1073,2063,-1986,-59,96,-307775
0,1218,-153,367,1029,11,109,38,172,107,107,24,82,69,172,-192,25,54,0,21,-436,351,799,528,5,1,29,48,-101,-34,144,92,-238,0,494,-237,-1116,-40,0,23,4,0,40,14,2,5,11,0,0,3,-864,0,4,-590,4,-24,775,1,0,3,1,0,14,0,-61,25,0,-158,27,359,54,26,118,119,119,29,6,9,126,26,116,20,19,553,47,5,635,9,871,-783,0,0,15,18,13,11,440,-19,100,0,0,0,0,0,0,0,0,-98,2,58,0,3,70,13,-1255,30,1,0,0,428,-594,-429,0,0,0,9,8,-98,0,190,0,0,0,96,298,512,-527,138,199,184,4,110,195,106,310,116,60,242,77,102,4,-43,245,46,-922,-299,11,2,107,120,37,86,30,-401,146,0,-524,725,388,-293,33,-242,-161,-567,329,58,-49,-66,328,-131,35,64,-238,169,-428,28,204,-72,-50,343,-163,-433,-75,449,163,455,5,-398,0,26,26,26,26,26,26,26,-37,62,44,10,46,62,23,-115,22,-39,22,-36,31,2,26,26,36,-16,-27,12,30,24,126,-38,-36,1391,182,-1074
0,-162,541,734,-810,401,1432,-10,432,-623,-61,149,-6,-80,-821,-135,289,1703,-5,-23,764,291,-294,-140,-1776,-284,800,403,-218,-76,419,35,-426,0,-486,-988,-24,-224,-52,-641,-105,0,786,-43,-285,-66,-186,-1000,262,-58,385,0,1283,809,-10,-1180,0,3101,267,34,157,-127,-432,0,32,-75,0,-394,618,558,376,-1583,632,-1030,-369,-698,336,101,-2,938,255,444,-400,-1428,0,-1242,-590,-223,-397,1114,-1566,0,-124,-49,887,550,-10,13,17,0,0,0,0,0,0,0,0,528,0,55,0,0,-589,72,-757,0,0,0,0,-63,0,695,0,0,0,270,-427,330,0,-1207,0,0,0,115,-1236,-1126,342,492,-845,163,-536,-352,-251,311,155,983,-960,-620,-221,368,-9,763,-277,409,255,-348,98,-159,-251,70,718,455,-467,-181,-223,0,-273,224,253,671,334,-1391,421,115,-205,204,-353,119,324,614,-884,102,145,114,-110,547,153,70,-26,-169,-74,-815,696,-100,-317,-1465,-359,54,0,-51,-51,-51,-51,-51,-51,-51,17,-148,24,-1,20,139,-179,-169,-22,153,10,-333,119,62,-51,75,-51,-20,-10,85,149,23,-273,-46,-83,217,-678,-8151
0,327,5,-163,50,-35,-152,198,175,54,-86,-52,-6,0,387,-56,-143,-3,0,0,-23,-794,-227,152,-42,-29,-63,-41,-94,-41,-398,-3,-1,0,411,-65,-86,-1,0,0,98,0,32,-8,423,0,0,0,0,-4,0,0,0,-396,427,405,0,-5,8,71,-2,0,50,0,0,-1,0,-145,99,454,-275,1,-122,-34,0,-315,-14,-418,0,-3,-424,-52,134,-8,-27,0,354,455,127,-17,-11,-3,178,-64,541,8,753,0,-5,0,0,0,0,0,0,0,0,58,0,-27,0,0,-3,-14,-98,-1,0,0,0,343,427,-77,0,0,0,0,-27,180,0,-399,0,0,0,-750,464,-318,-100,223,273,-232,151,63,-216,75,0,-17,400,-135,0,-6,0,0,316,50,-22,264,-50,-31,0,38,0,-54,335,128,-11,0,-148,-309,388,-410,-125,65,-39,-114,307,-339,210,-124,-177,-574,-419,104,-403,67,-107,-434,-455,-118,569,-172,143,284,246,-267,-105,149,-465,-122,0,8,8,8,8,8,8,8,27,56,-69,23,-13,-20,-20,-76,9,-42,4,-14,16,11,8,121,-28,8,47,15,36,-15,44,-34,-14,659,103,-924
0,-643,574,-6,916,183,1353,-1121,96,-82,-1094,-3873,-2563,433,555,259,1580,311,0,139,283,-590,-250,-719,-505,43,-623,-1363,104,56,-186,267,-38,0,226,-1824,-882,-135,-6,-1523,-1037,134,262,3199,2751,1275,2384,-1778,-432,-220,1014,0,-61,419,774,-3294,1,2409,-127,3435,5203,336,2209,0,309,-552,0,-402,385,-235,-149,-1779,486,-470,-205,1284,-1580,431,-358,-162,1556,1420,-1619,58,-65,590,-487,-813,940,1057,-901,-177,-1635,-3668,-1774,37,922,531,-1137,0,0,0,0,0,0,0,0,-1251,508,-1307,0,0,649,-1519,-1170,0,0,0,0,-1399,249,1844,0,1145,0,-50,2107,2550,897,-503,0,0,0,825,-807,214,-958,880,-1210,-286,-1506,1620,-350,2555,-4287,-897,-1654,-263,380,-244,584,-510,-344,-875,-1736,-1232,-380,1215,-490,-1297,-1071,-823,-1146,421,992,0,236,-781,1221,-249,402,-94,-63,302,-618,242,-360,163,-267,-202,-204,-756,266,-139,194,-175,-265,-584,-267,-501,116,-96,-109,26,-196,-200,-228,181,0,-40,-40,-40,-40,-40,-40,-40,-243,541,-254,-24,-577,214,-499,-39,-130,131,38,133,-171,-152,-40,-176,131,107,-40,128,83,218,-61,130,152,757,1365,-10313
0,-368,-636,1145,440,127,1566,-201,-257,-1378,379,249,-1328,1353,-115,181,299,99,128,-257,-847,2693,442,-701,-1915,3501,1392,-913,-1029,-346,90,-171,1115,0,227,-675,1148,-1782,-114,-1782,2979,0,395,2948,2678,-730,4899,-2553,-511,648,1715,-2,1150,-79,1209,445,1,-643,1915,574,7923,-15,2455,1197,-498,1300,0,-36,-512,636,221,370,-703,-57,641,-772,1215,1369,-3819,1150,-379,-118,823,189,-1606,-5594,694,3444,-784,-751,550,-2878,-302,-1253,-64,-381,-280,-1602,1598,0,0,0,0,0,0,0,0,-480,-3,1794,0,0,1326,-2481,-166,1386,0,0,0,-3592,-1011,-137,0,0,0,3316,309,889,0,-2183,0,0,0,-303,-748,676,191,-135,474,236,-504,27,-499,-2073,-112,-626,619,-125,-1730,361,165,-1414,-266,-2271,-652,-1043,1560,4009,166,-2541,77,-1720,-711,-658,-2435,0,-310,-747,1265,187,200,893,-1035,-60,120,66,22,99,8,-65,49,60,-279,135,-111,-70,126,-293,-266,-72,-27,-248,-888,-28,149,520,89,226,0,56,56,56,56,56,56,56,-66,-294,571,-170,-589,811,-596,-69,-72,197,-118,331,-416,403,56,-345,-52,652,700,56,-17,-59,-196,-284,126,554,1014,1780
0,132,-85,-47,-61,-1,-84,-192,27,-6,27,18,-5,-6,-106,-182,-9,-10,0,0,-8,-5,-23,0,-3,0,0,-14,-19,-4,54,0,-9,0,161,123,-110,-1,0,48,0,0,-4,27,0,72,-6,-7,0,0,35,0,0,-3,16,-3,0,-1,0,-45,72,90,-3,-2,0,0,0,-87,-93,-50,-8,-5,142,-176,108,16,0,0,0,0,-43,-46,-9,46,-3,0,0,0,-131,-12,0,0,-104,0,-47,0,0,0,-10,0,0,0,0,0,0,0,0,27,0,27,0,0,-20,182,233,0,0,0,0,12,16,104,0,0,0,72,0,141,0,27,0,0,0,-174,60,15,116,-50,-149,560,54,21,165,16,-43,4,-99,-126,-14,44,0,0,34,48,232,-4,-1,-3,130,-61,-102,0,185,0,-19,0,0,1,192,0,56,43,-121,54,-16,-156,16,96,218,-6,21,-158,-165,-7,-192,-185,75,-179,-184,55,-117,-52,153,-43,-1,-14,-50,-152,0,0,0,0,0,0,0,0,27,4,9,5,12,19,-5,-10,-19,-5,-1,-21,-15,15,0,-25,5,-12,3,15,0,-2,25,-5,-19,-25,88,4
0,-218,-1262,850,-304,18,237,-411,581,-1058,1217,-2021,1587,2760,1050,626,-2439,1119,-37,-2263,629,1568,-549,657,627,4504,1413,-1129,-466,497,2,-580,412,0,152,-1438,-994,-308,-173,-888,621,1234,1871,1661,-1483,-421,1497,144,-2186,1594,2669,0,-72,-207,-1220,194,0,-394,859,89,3814,867,4720,1173,4106,897,0,3,-799,-543,-488,-1009,1045,-1565,463,-1605,1427,-1864,1482,1935,799,890,1137,101,-1,-416,267,1934,-336,-57,439,-1412,-1260,-559,2671,-2230,218,4658,-3711,0,0,0,0,0,0,0,0,-844,831,-924,-1,-726,-826,-519,207,-187,-522,0,0,-313,-690,569,0,-2206,0,-2185,-3366,695,-591,-252,0,-19,0,-27,-1340,775,-231,1461,526,542,250,-675,-638,1269,112,-688,-755,-49,-757,580,1077,1211,92,-167,-154,127,-1148,1268,232,117,-1464,845,-101,105,-94,0,198,-1265,767,238,663,566,56,-224,-138,98,240,76,-258,-194,32,-219,-92,-69,121,-388,-5,-271,-217,-28,-79,-133,554,-117,-33,-74,-109,205,0,120,120,120,120,120,120,120,146,-108,345,-121,211,739,-40,-48,142,65,97,-1944,8,142,120,266,-271,514,212,-4,216,120,-69,818,-356,-325,1363,-33138
0,-16,-11,41,177,-3,-13,-10,-5,-5,0,-19,0,8,77,-22,0,0,0,0,-9,-2,61,-1,0,0,-6,3,-2,-1,6,-36,-1,0,-37,5,-4,-33,0,0,0,-5,-39,0,27,-9,31,53,0,0,-1,0,-1,-6,-4,-6,0,0,0,0,-5,-2,-3,0,0,0,0,-133,-21,-10,-81,-4,-19,91,-3,36,-2,46,-1,0,-10,0,-4,-7,0,0,35,-4,-20,0,0,0,0,0,0,-2,-25,0,-9,0,0,0,0,0,0,0,0,-16,-10,-2,-8,0,-18,39,-38,0,-8,0,0,-6,-4,-12,0,0,0,-11,-4,0,0,-71,0,0,0,-166,-29,-3,-87,53,92,35,-28,16,68,25,-16,46,47,-48,-5,27,-6,14,121,-6,-5,-10,0,0,12,-6,41,-7,145,42,-12,0,-38,55,-62,13,-46,-60,-90,-73,107,126,119,-24,33,-76,-62,-81,-48,-4,-28,-55,-100,-35,-21,-110,-20,47,3,13,-92,-51,94,-78,0,0,0,0,0,0,0,0,-13,11,19,19,-5,10,13,-17,-9,-4,-1,1,8,-12,0,-4,-11,-2,4,-1,5,-11,0,10,-10,115,-57,1
0,-152,373,232,-460,-370,2424,-607,978,-2401,1317,192,622,-323,823,1100,758,1478,856,1004,-372,-273,-651,-953,2327,-877,2362,1715,-790,2044,390,-724,254,0,-264,693,-857,-158,-360,-2,-174,-206,963,-449,-805,1951,1156,447,-1368,1171,1452,0,6,1558,55,1282,1338,32,0,-3,1504,0,-1787,-456,5330,116,0,70,1202,863,-1331,64,-385,749,-1409,-679,-370,933,1401,125,-1368,4336,-1920,2087,0,-238,-2518,-691,755,-674,210,0,-552,-1168,-3526,-316,-325,-3649,-368,0,0,0,0,0,0,0,0,-1278,-50,1026,0,-12,-1796,-1628,-443,0,0,0,0,-2498,-36,-103,0,0,0,-183,0,327,0,-595,0,-429,0,-12,-953,-600,-955,217,-1440,1415,250,-538,-900,1274,-420,-2054,-1275,-71,-2165,-815,1352,-656,1703,-29,-588,-465,-632,-373,-412,2207,-281,-3430,521,1937,2678,0,75,-327,-133,-1686,521,-1101,865,365,274,346,282,178,506,181,76,176,-78,322,179,147,384,-458,115,-177,300,448,-248,-368,1049,265,315,117,0,9,9,9,9,9,9,9,-130,-449,97,157,372,-238,-282,363,-198,452,253,-30,-198,-59,9,53,176,-95,166,364,-523,-244,-20,9,85,78,1311,-14901
0,-345,239,-110,-79,-519,212,-2215,-424,1105,2545,-816,3560,892,2279,-264,2117,-1523,52,700,795,3051,283,3315,1281,24,-330,858,-1925,-1312,1362,-2479,-3996,0,-1560,309,1194,-4001,804,-550,-6548,948,-4048,686,-178,725,2971,1224,-1811,2075,924,28,-1883,911,3132,2898,19,-139,-1205,-1682,436,0,-1520,345,-4690,1604,0,-872,1169,798,-1044,-1394,-1594,164,-1005,5267,-1451,-1889,731,2500,-35,-1224,964,-1101,-297,228,1649,-2441,400,996,-4067,1350,1838,-2023,2249,1107,439,-473,-1565,0,0,0,0,0,0,0,0,-898,0,-3364,0,-2172,-3180,-760,-1873,-2418,2484,1068,0,-792,-2329,986,0,-1393,0,2218,-2164,-896,-534,-1239,2878,0,0,-61,841,228,-343,964,1760,302,-31,-14,749,-1322,936,-802,-957,875,3058,956,15,4768,-279,178,-406,-1312,1925,-177,-765,341,-264,-220,126,653,-1361,0,411,655,106,-1649,49,1311,223,130,-334,-445,-132,-395,-303,-275,2,-350,-264,-286,-471,-274,-421,-1552,-80,-148,-332,-427,-258,-357,115,-237,-184,-870,0,-12,-12,-12,-12,-12,-12,-12,-128,-31,-128,180,537,64,85,-393,498,151,58,922,201,117,-12,-410,-251,-34,4,-56,-242,-370,8,-878,-12,423,570,-48534
