0,35.5291,211.79,-195.095,-424.927,316.303,-772.969,406.834,24.2923,-426.176,-173.695,-583.541,1841.84,1520.34,429.089,436.693,791.998,-219.135,952.544,-1562.9,779.628,776.961,1374.18,-1113.76,-61.0542,-816.495,412.92,1892.87,-40.3928,903.745,423.759,197.349,1563.69,0,871.765,320.702,504.529,-2200.18,-13.2408,-1698.56,-860.762,227.771,731.739,917.18,-2846.27,-1140.17,200.754,1656.95,1328,-1529.5,801.101,-2298.22,-1274.34,1577.29,1269.34,2394.9,-148.855,1431.57,-1547.92,488.992,1020.13,-26.0429,543.545,-1434.28,-278.654,-2549.66,0,11.1851,289.821,577.487,-1373.5,-15.2508,-543.042,703.661,84.8036,200.492,-786.168,1658.52,1826.13,-255.762,-422.643,563.948,915.535,567.741,-575.502,1393.52,757.73,313.913,2554.41,-1009.74,1634.62,-1694.44,-826.934,571.545,-290.466,456.41,547.4,974.44,974.332,0,0,0,0,0,0,0,0,-576.979,1435.93,-2315.98,-446.58,582.287,-3067.96,27.6924,-1081.11,-486.354,-672.313,0,0,432.529,-2440.52,2998.06,0,-480.053,0,-2274.58,-119.594,-1274.6,-857.036,-245.766,0,0,0,-82.0108,-348.075,-242.512,-411.785,631.274,-234.74,426.916,134.662,-304.821,108.32,-1652.78,-15.5232,69.8222,-718.586,103.388,-303.036,492.617,-2097.7,-875.004,-92.423,350.807,954.552,-242.699,45.6731,-169.213,-799.611,58.0598,811.169,1196.17,-457.815,826.96,-1161.56,0,-154.836,-48.4468,-93.0302,-461.028,374.078,-135.509,632.219,-139.297,-132.587,-99.1685,75.0273,3.99504,-57.5145,-96.3036,-160.971,-95.0679,-154.576,23.7163,-64.9928,-198.848,-87.5562,1364.56,-137.076,-35.0798,-46.1594,-154.209,-173.576,-170.239,-267.205,-154.797,-84.562,-450.129,0,161.645,161.645,161.645,161.645,161.645,161.645,161.645,-24.4747,-449.45,-211.236,-907.522,309.855,-159.033,613.638,209.008,-65.6686,-81.5215,-399.516,-259.486,325.591,18.2954,161.645,-331.517,121.441,-427.422,-359.181,571.882,-99.057,288.62,1541.43,41.1368,1189.01,118.263,2009.87,-183542
0,170.805,704.988,-724.402,-814.172,494.415,-280.927,-848.17,1505.45,-765.086,1097.99,-1326.79,115.801,1374.37,1190.67,870.55,-2141.16,-1682.58,-942.039,1956.31,764.36,3436.27,975.95,-1131.27,-153.562,-7.09368,1193.26,-434.315,2979.66,-270.621,-112.15,1536.33,867.165,0,-1033.73,1620.46,-590.248,-2996.27,-17.3532,-1319.71,2578.06,155.37,409.492,497.952,1488.19,-592.529,1726.2,1763.54,194.156,-623.986,-1038.02,-791.753,-971.712,1018.68,3993.72,-34.1123,247.952,-970.66,0,-551.856,1170.47,0,-429.536,0,-3728.46,-259.458,0,-610.231,356.977,531.046,-1283.54,-299.076,92.0132,-830.909,528.857,-202.424,428.921,731.477,372.422,1236.57,374.136,737.475,-907.891,1779.54,1411.11,807.504,1397.88,148.238,1094.7,-579.577,-1762.58,4370.16,-2217.77,505.936,1272.62,1588.3,270.151,4088.75,-937.572,0,0,0,0,0,0,0,0,-791.213,-2637.3,-1339.32,-343.179,-2298.86,-1961.37,906.926,-269.736,-1654.8,-1884.61,0,0,-442.268,889.554,1928.61,0,2053.66,0,543.863,-1602.71,197.964,-500.574,566.886,0,-44.5915,0,-74.0468,188.42,-1607.65,19.5581,996.63,745.649,648.955,225.226,-1388.73,857.027,1200,10.0462,1853.6,-599.086,38.7442,-139.567,-605.866,-1498.27,3079.18,-239.007,-131.748,-156.739,686.017,-114.438,-1240.93,104.158,617.466,-812.495,921.453,-150.673,-1166.92,3946.16,0,-412.204,356.627,-1044.57,-140.985,816.304,757.54,162.54,85.9496,64.8679,135.84,297.398,124.729,87.7776,148.196,27.6337,348.019,162.896,315.485,157.179,125.877,107.658,-88.8623,58.6244,32.9451,107.156,-82.6965,305.711,-36.4347,-122.179,385.395,-92.2972,-387.364,0,248.864,248.864,248.864,248.864,248.864,248.864,248.864,170.964,1204.6,167.842,-746.527,-226.839,431.716,378.438,-60.668,-636.463,-327.66,-150.547,-1154.16,262.551,844.37,248.864,-255.997,-223.025,322.929,-119.307,192.999,586.556,768.704,95.9609,271.32,442.024,-102.919,2015.65,-45409.1
0,-553.646,-95.2638,-111.878,787.126,-710.509,-1722.88,-592.973,255.42,-501.853,741.659,97.2336,290.092,-1225.49,1541.69,849.754,-1136.95,117.447,-22.8748,-4.99452,1534.18,750.094,1104.74,-998.359,29.3076,-118.906,289.388,81.4862,1014.28,343.909,1238.78,-12.1281,466.135,0,-703.629,-1213.03,-642.17,-38.9854,0,-68.1137,-13.9931,345.595,-372.895,143.285,248.195,55.9056,1031.67,59.0042,-0.999692,736.424,101.891,-27.1577,239.551,-10.8387,1234.9,631.028,-27.6993,-27.1417,0,-144.474,261.576,0,-621.547,-3.98622,0,-8.85625,0,181.038,352.387,-49.6594,-453.127,-455.252,-607.008,-500.334,1468.11,815.859,143.878,-110.072,50.2642,392.285,259.277,74.8408,678.19,38.8711,55.1384,-183.523,1584.36,127.928,517.813,-286.642,627.123,-3.99446,171.983,581.873,-204.546,-612.511,927.554,-119.741,465.238,0,0,0,0,0,0,0,0,-264.245,-12.9812,169.825,-6.83417,-13.8896,-1345.92,-352.271,-138.451,-16.8438,-11.9835,0,0,-433.822,-644.197,244.028,0,-17.9234,0,-110.968,-400.888,892.935,-20.9235,-187.607,0,0,0,-735.073,678.881,-117.01,-280.746,-6.82572,683.852,1526.6,-483.038,-1306.53,82.7178,-507.04,164.562,-725.921,-913.85,-1528.35,459.397,-1186.24,-75.2094,606.017,-968.739,-131.211,-271.148,342.886,-85.7709,28.7209,537.063,-925.304,-435.503,-169.51,1105.56,171.213,70.5526,0,-943.943,370.741,99.4102,668.407,1055.34,1128.2,1768.4,-592.363,100.207,111.981,377.705,-858.094,211.29,-303.713,-504.283,-57.3792,-460.891,-155.101,-583.854,-474.454,-11.2579,-306.669,-102.019,-197.551,-203.673,-412.585,677.333,-75.0239,-462.276,-617.315,-332.492,465.785,0,-14.6562,-14.6562,-14.6562,-14.6562,-14.6562,-14.6562,-14.6562,72.9474,-198.941,53.5445,21.8798,-31.1161,-166.209,-18.7618,-124.749,33.236,-140.09,-22.5204,8.93508,123.069,132.626,-14.6562,-133.979,24.4773,-29.7852,32.6414,38.2724,119.709,-154.586,178.899,3.49764,45.0979,484.566,1519.28,-8629.66
0,602.597,48.3725,1405.8,1063.15,-432.966,1701.86,834.205,2612.96,-471.656,-970.568,913.269,205.199,27.8227,494.39,714.936,413.067,-86.6502,0.995703,53.0393,1407.64,466.301,-296.877,178.451,36.473,8.93209,-209.674,460.756,-116.983,-0.539823,266.652,15.5447,944.798,0,670.69,-203.031,1561.07,3416.61,-129.411,-627.546,-105.124,14.2899,-2326.27,28.3167,-1103.24,-415.653,607.095,144.116,2.89474,433.836,133.194,155.457,-202.574,-1223.43,100.907,3073.77,1.99607,223.165,2.97226,155.696,116.233,10.2594,384.839,15.125,68.8967,-1109.07,0,1604.22,2115.82,814.984,-2354.79,253.938,249.515,-319.869,-102.376,301.013,-2101.56,412.289,739.974,497.481,-951.885,24.9275,34.0697,364.047,245.212,277.658,108.89,61.4296,-986.669,592.032,59.6008,9.95592,325.309,-22.8043,331.795,-1408.54,-53.0918,158.04,368.851,0,0,0,0,0,0,0,0,-937.926,148.439,939.576,-1041.08,143.416,-65.4052,735.127,-3205.11,0,236.701,0,0,310.79,-305.638,-854.165,0,195.147,0,929.618,-503.817,485.633,-247.842,-2627.73,0,0,0,-131.964,41.1903,-1769.19,820.097,-190.342,514.562,148.156,3421.14,-861.967,-449.139,-637.311,994.469,1027.14,-443.575,256.383,-533.104,-772.456,96.7085,117.68,413.772,-1114.53,676.533,1177.41,-311.017,119.01,511.793,-102.163,-1118.32,1444.25,-1612.33,-888.504,-60.368,0,770.779,225.244,-633.107,-703.366,954.906,-1506.59,-39.9777,-125.631,-164.467,-553.513,-168.674,-119.337,-518.946,610.017,950.766,-301.131,-80.2357,-72.2192,123.293,-427.41,-310.409,-1069.39,546.525,616.076,130.674,513.225,1332,-314.584,19.0754,-142.911,-3.97841,-643.753,0,57.0158,57.0158,57.0158,57.0158,57.0158,57.0158,57.0158,488.246,-330.772,-310.688,-111.753,154.807,157.518,59.0188,-125.52,4.67381,-17.3096,42.6154,315.124,59.0259,-110.194,57.0158,312.052,82.1441,27.1543,222.796,128.12,-72.2204,19.1249,-415.429,-65.0001,-0.392408,-280.023,-767.932,-4899.48
0,65.0483,-36.4914,21.0431,34.1667,32.3027,28.1068,20.4443,9.91735,13.3055,15.1119,8.74519,0,0.993989,-14.4203,-61.4066,7.22688,5.99208,0,1.99541,9.94391,0,29.3639,8.06396,0.983733,0,15.8726,7.25199,0,10.3512,22.3002,0.999802,1.98354,0,20.2293,-37.5206,14.2331,-100.578,8.92946,-123.69,1.99896,1.95877,0.98477,0.958771,-31.9013,0.99731,2.9894,11.6369,0,0.999802,1.99863,0,0.999952,1.99462,2.96743,14.8689,2.99521,0.983733,0,1.99794,0,0,7.64574,0,0,2.99891,0,51.0794,14.9126,13.8882,50.6276,33.1626,-40.511,31.6649,0.999994,1.9887,7.90695,0.994348,0,0.999442,7.90695,0,5.93985,0,0,1.99379,5.95236,4.67271,3.99883,11.9732,0,0,6.94161,0,0,0,9.89332,0,0,0,0,0,0,0,0,0,0,46.9289,0,-65.7148,0,0,11.1841,-144.041,-159.093,0,0,0,0,-59.719,0.999952,28.514,0,0,0,16.2849,11.2227,3.99981,-65.7205,23.6793,0,0,0,41.05,20.5059,-67.4472,-28.7819,-136.774,77.8855,50.1732,56.79,9.6375,-78.4793,8.01365,8.95171,20.4028,-49.4057,48.1745,-26.6305,1.12425,1.99686,2.99486,-43.8363,0,9.88219,25.0671,0.983733,0,-13.4119,18.4496,11.9947,32.1062,-30.6216,2.99691,3.98265,0,108.102,132.854,53.4065,18.5069,78.4026,74.2317,-92.2481,132.335,89.6727,-55.7975,-157.948,152.006,105.165,64.9297,-65.8543,-87.0492,20.1218,69.0786,132.616,-113.671,158.293,-66.5987,7.86987,37.0789,39.8137,-77.3725,75.5538,33.9076,-83.5221,-212.583,65.2627,40.8594,0,2.00291,2.00291,2.00291,2.00291,2.00291,2.00291,2.00291,24.893,11.6588,-17.6014,-17.2096,16.1955,14.1735,-12.3393,-23.818,-9.95132,3.02355,7.10755,15.6231,-19.9335,16.6933,2.00291,6.99617,4.00301,3.98137,-4.96873,11.2478,4.99021,-9.91395,-18.7332,6.92594,4.98245,37.4388,-13.0386,-43.3106
0,382.973,47.418,476.897,633.253,459.647,1740.4,161.539,260.622,-151.32,1135.93,508.724,11.8918,419.818,692.685,1886.44,8.94536,-194.786,45.804,525.085,1062.48,177.557,774.239,251.627,-276.885,1.98196,441.698,58.4677,-266.304,13.9514,672.284,4.82209,417.898,0,1323.34,-528.283,99.1605,-1330.08,-71.5835,3595.51,70.6688,0.993782,-516.524,-217.795,-1535.33,-381.23,-367.1,-867.011,297.641,-1167.72,639.551,-322.148,235.122,104.127,38.5751,2085.51,522.5,16.9402,0,-729.815,42.2148,0,-188.096,171.004,0.99948,-715.967,0,2104.01,1771.13,586.667,1899.28,84.664,-5885.63,217.527,99.0279,70.0539,-294.55,772.3,315.66,48.5807,375.355,375.677,719.344,105.932,0,7.95651,610.748,5.94348,-1334,478.915,31.9013,0,316.501,60.1787,14.9373,278.969,54.022,1.65294,475.52,0,0,0,0,0,0,0,0,-358.967,44.0716,-131.369,285.108,-229.728,-122.099,-1329.35,-2844.22,74.7748,-78.842,0,0,-382.569,-715.049,322.184,0,235.826,0,-475.877,-592.234,-724.866,-197.991,-1540.85,0,0,0,1818.7,-118.786,-641.655,-1320.62,142.283,423.45,139.016,1363.6,-69.331,326.534,315.552,-197.755,-112.666,663.053,1101.18,135.371,-622.995,24.9463,38.6773,438.952,7.78738,385.728,745.617,321.303,26.4661,-124.766,838.445,770.011,117.996,-744.171,-7.76199,-567.087,0,522.505,-884.716,1424.86,259.449,-407.655,-486.377,883.703,-231.773,456.22,18.8988,-27.4409,839.735,-1408.55,-129.473,-876.734,611.48,-75.6367,-682.901,213.901,-1469.86,-1362.47,-732.799,-330.504,390.29,985.942,-531.276,785.215,274.037,-448.619,538.439,-1145.15,169.507,0,25.9193,25.9193,25.9193,25.9193,25.9193,25.9193,25.9193,113.35,-19.5556,83.8641,3.63139,35.8575,-154.202,-10.3985,-6.0023,38.2196,-22.5777,-93.43,210.417,36.3885,-184.766,25.9193,212.921,74.3161,101.439,-95.3734,-0.869733,7.08113,-14.5771,35.7208,-113.773,-4.4078,-326.642,6.80046,-7605.81
0,-206.312,-1715.9,1173.22,1297.55,-1014.71,678.566,-670.925,47.1408,-324.577,-241.934,-130.816,16.6482,499.584,543.213,375.294,5.97279,-79.532,70.4883,0,753.991,7.93121,-119.59,-117.202,135.087,1.99915,-553.045,377.527,0,-246.73,-248.1,73.7613,74.485,0,83.3111,1227.07,-710.128,-645.801,0,-7.02687,3691.3,3.01916,-1159.32,265.516,-40.7253,0,42.6115,73.5432,0,12.8172,25.6302,-300.829,8.92715,-476.196,0,106.715,0,-115.771,-3.98399,-44.4627,58.0616,0,231.244,0,0,-290.217,0,1807.07,71.9104,285.905,-1367.62,819.818,42.452,-1330.07,156.334,-82.7786,465.274,272.851,0.998802,38.6445,621.098,279.596,0.998433,-176.381,296.584,0,191.358,0,460.231,340.99,1.99838,3.31404,543.945,146.655,4.98835,-508.189,240.236,7.97576,101.499,0,0,0,0,0,0,0,0,688.272,0,-321.281,0,0,-385.024,-643.807,-507.436,0,0,0,0,-519.212,2.99739,729.021,0,-364.509,0,-69.6595,-632.693,1.99575,0,-1140.19,0,0,0,375.197,140.867,-438.85,552.59,282.587,-693.776,-693.219,318.768,-171.837,584.087,72.9578,-456.69,-437.372,276.37,-340.985,91.8386,103.306,13.9448,0,-636.705,-214.67,-813.628,825.821,-29.9975,137.875,-0.227166,415.091,-309.753,-127.452,-675.902,61.1109,-143.962,0,-96.8103,277.123,-530.48,557.26,-64.4958,2.98584,1211.51,-94.1896,79.9807,972.006,16.1812,-320.056,-707.081,-698.808,-769.484,799.164,-565.237,33.3473,-456.086,606.14,498.551,-356.482,258.961,-119.059,-35.6243,439.344,-231.549,1058.53,748.848,815.635,853.236,-576.32,0,2.90014,2.90014,2.90014,2.90014,2.90014,2.90014,2.90014,111.934,-197.116,172.367,19.1448,-75.9099,-94.8636,17.1608,-96.3015,91.0791,-68.849,11.3535,-41.6249,-8.06232,29.481,2.90014,163.571,-49.2251,10.3579,25.7516,2.90014,75.5765,9.77214,-100.832,99.7084,-81.2725,621.865,-32.0868,-6300.97
0,58.479,0,-3.99865,-83.3411,-53.242,87.9364,-4.98456,-135.951,-18.7404,-4.99747,48.8602,0,0,-89.9354,0,0,0,0,0,0,0,-98.4699,0,0,0,31.1103,0,-0.990542,66.6031,-5.99656,0,-5.98511,0,-6.97076,-4.99746,-2.99792,0,-0.999994,0,0,-1.98592,37.5845,0,-38.8654,0,0,-39.8642,0,-1.99945,0,-0.990542,0,0,66.5968,48.0688,0,-0.998899,0,-37.8658,-1.98802,0,-40.8641,0,0,-0.999323,0,-95.7094,-32.7297,-7.9942,-7.59003,-51.45,-51.8376,-12.9889,-7.9928,-25.5996,0,-1.99893,0,0,-137.947,-1.99893,-1.99842,-1.99893,0,0,0,-16.7461,-14.9686,-1.9978,0,0,-77.7293,-4.99676,-0.998899,-23.7359,-5.99628,0,-0.998899,0,0,0,0,0,0,0,0,156.923,0,-4.99747,0,0,0,326.839,-5.97894,0,0,0,0,0,-37.8658,57.6307,0,0,0,137.182,-1.99893,0,0,-4.99696,0,0,0,23.0175,42.7166,11.9793,-34.7106,-12.762,59.8341,-22.9435,-40.2363,11.9849,-5.99527,-3.98908,0,-0.999603,-6.9864,-8.98626,-37.4808,-1.99893,0,-1.99945,0,0,4.00124,0,-0.999323,0,0,-6.98349,-0.990542,5.001,-3.97604,-0.999323,-7.98334,0,-88.3532,-38.8304,-35.708,110.545,102.567,-111.82,33.9946,9.38459,84.8341,-53.961,55.9752,0,-48.8711,-61.9764,-32.9148,111.36,-25.9804,-28.8991,122.598,0,87.9628,-16.1215,-13.988,-57.8587,-9.90542,35.9353,-63.861,-36.9089,33.0168,-48.8839,-78.9399,-63.8667,0,-1.98592,-1.98592,-1.98592,-1.98592,-1.98592,-1.98592,-1.98592,-1.98592,9.00635,-6.99512,5.9982,0,-4.98707,-0.987019,-4.9879,6.98815,-2.99783,-2.98897,8.98615,0,9.99477,-1.98592,-1.99822,-5.98569,-0.990542,6.98924,-7.98282,-3.98889,4.0021,-6.98498,-7.99393,-7.98334,-91.2295,3.01034,38.9326
0,-1176.05,122.769,234.263,-634.051,218.981,-403.482,-1208.73,483.014,-900.269,2393.74,2323.81,-0.998103,231.743,-618.799,-215.416,-492.964,-1081.19,0,95.5051,309.736,237.547,74.1366,-483.42,-1543.29,0,1824.7,-210.155,797.305,-590.724,569.727,0,1215.79,0,-965.726,-1833.37,136.288,-1258.85,0.98477,-253.709,-1402.86,37.5845,2523.06,948.963,-1835.76,0,685.466,1992.78,0,1314.62,-160.242,3.31099,398.824,-630.904,1423.35,-1749.88,0,422.421,-1.99516,-310.862,1011.43,0,-605.42,0,0,-149.594,0,-948.996,1679.1,692.525,-1454.69,-216.211,-1706.63,184.751,-477.691,-2994.65,-220.305,25.746,0,40.151,711.896,398.673,1106.14,626.176,261.089,0,1567.57,150.15,224.219,-381.641,452.476,-31.5147,-1749.48,115.89,-464.076,106.556,2053.8,0,66.4469,0,0,0,0,0,0,0,0,-1451.68,534.692,728.221,-154.971,0,-1564.96,473.539,304.735,-745.516,-195.52,0,0,-445.596,-1036.55,869.37,0,896.75,0,-276.343,391.439,-1583.07,1486.03,-261.621,0,0,0,146.768,-999.611,-318.224,260.971,732.093,2059.12,1775.31,496.406,-895.958,-1123.47,219.58,-3.9942,1107.36,2820.15,-2180.28,1643.45,912.572,0,0,1182.67,-470.407,-1660.58,-978.953,833.375,51.7292,1089.42,-1153.94,235.453,-307.398,795.458,385.665,748.264,0,602.44,-1740.11,484.576,1717.24,-493.926,1678.66,187.43,34.3366,1054.71,-511.241,442.184,-493.816,-851.525,-870.658,438.826,-508.654,201.14,294.36,506.386,-15.6801,-994.399,-991.181,-600.697,672.316,770.485,208.427,-1508.39,-1066.38,383.067,-652.702,648.725,-895.588,0,30.2401,30.2401,30.2401,30.2401,30.2401,30.2401,30.2401,-87.8028,30.2401,234.353,112.113,-49.8808,-35.1761,323.966,-125.346,222.846,25.7838,55.8761,-295.383,196.78,-69.0314,30.2401,-305.589,166.827,78.8704,70.9372,-110.027,-192.151,47.2108,17.286,103.439,-143.979,-744.189,-383.224,-20909.3
0,-32.605,1081.15,-808.166,-145.184,-59.968,-792.276,1155.79,839.282,-838.54,-640.116,92.0968,282.795,260.958,608.163,-404.201,41.7452,414.835,0,0,151.007,-493.748,-254.398,-437.437,-24.364,0,-315.089,-903.74,485.608,-509.997,450.787,0,-231.79,0,1212.14,-678.342,-146.851,1040.67,0,-76.1043,-12.8988,-0.997748,596.786,2259.24,-169.816,-10.9255,101.117,-89.9564,0,0,-188.625,0,-11.9225,0,306.207,-468.234,-12.7268,0,0,-133.294,322.628,0,1320.88,0,-77.6237,-22.5584,0,-391.458,81.621,1001.02,102.383,-295.424,546.445,-1315.93,-234.887,-711.945,-865.373,271.366,-683.39,-120.305,-102.454,1068.37,-19.9999,359.113,0,0,369.388,93.9056,-2166.36,-510.093,0,0,-668.285,84.8055,-811.013,-595.333,114.999,0,245.689,0,0,0,0,0,0,0,0,-326.637,-657.564,759.547,0,-1.99561,162.317,-746.116,-1332.97,0,-615.547,0,0,-620.72,-671.509,833.029,0,0,0,1136.59,593.064,-224.445,-11.9225,-201.233,0,0,0,-1576.01,-501.599,-1644.59,-445.666,1126.11,485.382,141.976,-501.23,-0.692433,-462.077,23.0097,205.399,-208.845,-232.653,-321.414,-90.3668,-324.758,0,0,1014.61,-178.488,962.304,65.5774,0,-24.364,268.669,-71.8942,607.118,44.2352,-663.65,308.993,-350.491,0,-108.338,811.919,-15.8718,-1014.08,-881.499,-248.167,-258.697,60.9732,-310.813,-535.101,3.23047,100.964,66.296,-969.195,555.819,188.439,-142.33,697.435,701.003,50.6236,82.808,624.037,8.57649,108.524,228.629,-231.894,678.251,-57.7374,549.103,298.094,90.5459,-369.426,0,-13.8472,-13.8472,-13.8472,-13.8472,-13.8472,-13.8472,-13.8472,-16.3498,-158.28,-13.8472,21.7888,-10.7153,26.1539,-153.221,-43.4401,11.9817,-50.7212,69.7435,153.81,96.4908,-86.0824,-13.8472,-110.763,8.41601,20.4265,5.66998,66.6467,-0.0467571,79.6964,-0.100401,32.1915,-74.0731,-18.1345,83.2907,-3893.9
0,-1805.24,261.513,338.851,309.432,6.48696,-1427.73,894.19,-482.05,516.648,314.129,-140.329,0,1580.89,232.962,631.5,-52.739,120.934,363.63,-164.649,1743.62,25.4271,-38.2346,59.2274,22.761,0,-475.009,-367.183,-31.6756,-181.504,1597.87,0,195.948,0,-1606.62,-28.8964,202.52,572.213,-33.4116,461.84,-24.535,-642.12,-283.647,-289.884,36.3763,1081.48,885.681,-181.194,167.572,-366.984,-8.14752,-339.79,82.6218,192.259,291.428,-440.815,-0.999307,-22.4445,0,251.642,300.565,0,-312.273,0,-22.7783,-1.98932,0,-1624.99,161.206,-661.474,-958.828,-735.97,725.129,-680.793,188.845,-33.5564,143.64,-2.99627,-1046.96,430.822,-710.13,-820.38,139.852,449.078,0,445.25,-150.329,209.511,-990.391,149.235,23.553,0,52.0794,383.588,-19.9374,15.8063,198.66,-94.4668,-199.168,0,0,0,0,0,0,0,0,254.519,-134.342,75.7466,0,0,-1477.61,-237.719,-337.655,0,-696.857,0,0,-1049.49,-266.354,1293.5,0,-156.168,0,-21.7689,-114.829,-366.984,32.809,-623.983,0,0,0,292.179,-843.829,-120.66,-221.078,832.429,513.162,32.2906,67.4765,93.1811,-456.008,94.9494,-117.245,52.693,191.535,1136.01,432.951,-305.461,-21.6782,36.407,-51.3351,567.145,86.5579,389.696,143.986,222.737,-346.876,78.7564,-1088.5,-43.794,-464.114,-14.9418,-5.20947,0,347.249,-581.186,122.75,-294.605,-14.3137,-229.98,-144.144,186.123,-458.042,-459.667,102.705,-1117.81,303.82,1149.71,-559.734,203.039,348.028,-68.8624,81.9885,-613.456,-10.3543,158.408,380.774,151.976,-520.12,-484.142,244.36,239.662,51.5027,-788.618,-330.116,-41.6754,0,6.90274,6.90274,6.90274,6.90274,6.90274,6.90274,6.90274,-42.7207,-29.9759,-67.0043,6.90274,-120.053,177.63,44.5162,21.7316,35.6119,-9.24252,-6.67005,132.68,7.12735,81.6803,6.90274,122.242,16.3663,-29.7382,-101.538,52.5258,-126.743,-43.7453,-8.01848,-46.2303,-5.20947,327.398,-422.8,-5043.66
0,334.71,158.84,-596.269,791.004,-20.9441,665.612,-41.3272,-57.4223,-10.1137,632.847,0,-286.664,0,104.587,526.418,34.4923,-369.577,0,0,643.934,-1.93598,-289.592,6.64968,298.788,0,-0.994894,269.989,-21.6607,-854.45,-66.3112,0,256.919,0,-719.71,-94.1025,-174.448,-371.551,0.99731,-222.037,0,0,0,34.4923,174.513,1314.16,0,11.9625,0,-305.872,-44.5114,0,0,388.425,-236.478,-637.861,0,9.80683,0,0,-391.706,0,891.419,0,0,0.982801,0,9.74601,-133.682,754.44,-627.644,297.197,137.445,0,-11.3558,-2.99384,0,-170.411,-1632.3,-1.99931,-38.7177,0,308.349,412.866,0,0,-291.584,-32.8088,370.799,-267.345,-340.006,0,-3.99543,0,-3.99543,-12.9059,-154.282,0,-213.732,0,0,0,0,0,0,0,0,-7.71959,0,-327.661,0,102.553,45.7468,-17.7036,-519.839,0,-1.99654,0,0,-182.414,-45.0288,891.242,0,-5.99197,0,-29.6492,115.38,0,0,-283.446,0,0,0,116.136,-80.0413,-210.748,-81.6025,-79.3561,139.101,1020.47,-45.6653,0,287.117,-1.25891,267.699,5.33322,130.501,-44.0383,-13.1075,93.7157,0,0,135.24,6.01008,-203.438,-51.2495,-53.817,0,-24.1736,-27.5515,-71.1893,-37.7753,-213.16,4.10255,24.2827,0,-261.973,156.428,166.19,101.545,-211.057,-733.283,-251.379,-158.941,-104.86,-138.406,183.432,218.11,-176.516,-358.945,-120.314,210.956,-161.121,-178.172,-38.6232,-386.466,266.305,-147.603,336.417,78.5692,-36.666,-192.967,-139.502,-173.565,154.706,453.015,444.443,104.636,0,-1.64531,-1.64531,-1.64531,-1.64531,-1.64531,-1.64531,-1.64531,-28.1104,-13.1075,48.8389,18.6275,-1.64531,-12.7435,-16.8315,-15.7773,23.4817,-7.06252,-17.8172,-3.86232,30.7135,-4.39367,-1.64531,9.52727,-1.26508,-3.6666,-25.178,-17.3391,-27.041,14.0994,-26.4184,44.8545,17.3088,155.643,40.851,-2709.83
0,-1352.96,771.122,227.675,238.5,-132.465,-167.994,-88.5964,-162.605,0,-1.99942,-218.807,0,-265.812,-503.006,-28.5609,-9.83751,-188.461,0,0,-144.756,-85.4453,132.019,7.02261,0,0,-32.0221,-67.0125,0,-26.844,506.141,0,20.2131,0,2292.71,-282.654,-128.135,-1.67653,0,0,-0.999316,0,-0.978225,0,7.88939,0,2598.76,0,0,0,0,0,0,0,137.608,-864.113,0,-0.997832,0,-5.9865,-27.2508,0,-8.72382,0,0,-0.998152,0,-331.107,-241.776,-295.408,-341.058,-84.8055,-334.63,-33.5149,-246.061,-2.82452,-2.99959,210.372,0,-2105.51,-52.5896,0,0,257.893,0,-0.998865,-19.8782,0,56.8387,125.364,-5.83962,0,-11.677,74.3167,0,-32.9221,0,0,-57.9558,0,0,0,0,0,0,0,0,409.845,0,-8.8378,0,0,-3.80274,582.059,-48.0584,0,0,0,0,-10.8333,0,515.22,0,0,0,0,-1.99554,0,0,-493.924,0,0,0,-109.119,42.0126,214.302,-10.2365,-214.438,-115.464,-22.7592,8.11958,-31.5024,-45.6848,57.3496,-57.9863,15.8921,-28.0866,-93.3413,0,-2.99486,0,-24.7832,-153.374,102.331,-123.423,354.659,-6.28703,-1.99432,-71.2011,-2.04806,-15.7016,-80.8818,-31.9055,0,-46.9606,0,-317.093,-318.608,-14.9041,352.491,433.121,620.5,42.7891,44.9151,-240.015,427.114,199.347,-305.505,-237.769,-231.498,-183.227,-374.178,165.388,109.936,333.953,-223.788,30.7818,285.222,-159.261,214.553,181.935,194.712,-164.484,-294.957,225.685,156.318,406.13,-369.193,0,0.176508,0.176508,0.176508,0.176508,0.176508,0.176508,0.176508,5.42133,-27.532,36.7593,25.6151,-36.3492,0.176508,-23.3121,-35.3188,-38.4015,23.1825,10.9936,45.9347,-55.2629,18.5275,0.176508,40.9731,20.1428,17.994,7.38254,-18.9474,-31.0659,5.88893,13.6629,40.613,-45.4894,-146.173,-76.614,-5215.58
0,-1061.26,-12.0626,-10.9035,229.306,604.601,277.194,-261.191,479.36,-203.557,-506.084,-43.1715,-156.372,-30.6853,-1161.37,-593.873,1.92799,-81.7701,-108.628,0,3.23267,316.058,-1917.01,-127.56,-75.6626,44.6469,867.067,128.204,-341.298,314.519,-42.7547,-29.7294,66.3347,0,-183.337,-533.38,866.221,290.365,-0.994348,-180.606,-2.98873,-7.87556,590.918,-228.618,108.311,-24.4733,0,3363.54,-7.94766,-5.54403,-45.7884,-190.747,-19.2754,-19.7124,-115.497,-300.235,0,-25.8752,0,-70.6777,-0.999652,0,-480.297,-17.8969,-1.99755,183.368,0,46.5575,282.795,-477.99,-1040.8,-137.606,-894.229,230.557,16.4002,234.421,681.537,-381.298,-77.1505,185.909,-585.465,49.5968,-256.006,-11.7257,337.172,-196.328,-33.3345,-46.9893,1040.04,-89.4895,-71.1532,0,-225.59,-40.5215,14.8061,57.0491,30.8497,34.5948,-148.341,0,0,0,0,0,0,0,0,-13.2396,0,-80.6311,0,-9.55134,-34.6793,-782.46,699.084,0,-9.55134,0,0,-238.306,-150.415,1628.55,0,-12.5442,0,-558.297,-50.9605,261.622,67.0702,-156.718,0,0,0,811.675,1018.27,235.078,-139.812,296.153,-533.92,20.5176,-266.297,650.81,-767.351,-44.2856,-408.537,-87.165,60.8626,-275.665,342.366,-564.589,-7.88025,-169.888,161.855,-403.001,-595.335,75.0895,-196.695,-25.5425,-4.51003,172.506,52.7202,120.956,-56.5671,-25.7651,-89.3486,0,95.6214,-659.093,-245.187,57.5909,-732.383,1363.33,-405.849,168.191,-9.37332,254.053,466.966,467.988,118.137,-783.747,-125.416,11.3496,569.064,33.0342,-185.092,261.671,438.715,370.223,-464.199,230.508,452.038,-189.792,-314.395,191.449,648.267,-831.859,-188.387,631.447,0,3.72146,3.72146,3.72146,3.72146,3.72146,3.72146,3.72146,37.6539,96.5924,-80.9918,45.7354,-20.8096,15.1516,3.72146,-25.4221,9.30939,-14.436,6.29499,-22.3703,13.5407,3.88711,3.72146,-56.743,-17.2037,47.1142,-25.3953,-10.7167,17.9298,72.7565,-108.492,-21.1285,67.5151,-267.098,467.138,-6531.78
0,0,0,0,0,0,0,0,0,0,0,0,0,0,-0.999989,0,0,0,0,-0.999989,0,0,0,0,0,0,0,0,0,0,0,0,0,0,0,0,0,0,0,0,0,0,0,0,0,0,0,0,-0.999989,0,0,0,0,0,0,0,0,0,0,0,0,0,0,0,0,0,0,-1.99998,-0.999989,0,-2.99997,0,-0.999989,0,0,0,0,-0.999989,0,0,-1.99998,-0.999989,0,0,-0.999989,0,0,0,0,0,0,0,0,0,0,0,0,0,0,0,0,0,0,0,0,0,0,0,0,0,0,0,0,0,-0.999989,0,0,0,0,-0.999989,0,-0.999989,0,0,0,0,0,-0.999989,0,0,0,0,0,-2.99997,-1.99998,-2.99997,-2.99997,0,-0.999989,0,0,0,0,-0.999989,0,0,-0.999989,-1.99998,0,0,0,0,-1.99998,0,-1.99998,0,0,0,0,0,0,0,0,0,0,0,-45.9995,-26.9997,-16.9998,-7.99991,-7.99991,-5.99994,-9.99989,0,0,0,-7.99991,0,0,-5.99994,-4.99995,0,0,-8.9999,-8.9999,-6.99992,0,-6.99992,0,-9.99989,-9.99989,0,0,-8.9999,0,0,0,0,0,-0.999989,-0.999989,-0.999989,-0.999989,-0.999989,-0.999989,-0.999989,0,0,0,-0.999989,0,0,-0.999989,-0.999989,0,0,-0.999989,-0.999989,-0.999989,0,-0.999989,0,-0.999989,-0.999989,0,0,-0.999989,0,0,0,0,-11.9999,-0.999989,-2.99997
0,-82.2162,-2.79958,63.8882,67.2964,-20.8323,-205.478,-3.94872,780.219,78.2293,624.702,-22.7161,21.4632,501.097,-381.624,626.564,-1.99881,-4.9979,0,0,-531.94,0,-269.929,-22.8703,-1.99881,1.99888,13.5936,0,-58.3301,25.1541,298.995,9.87786,-116.386,0,-614.86,-509.474,52.7341,-18.433,0,-27.3146,0,-107.521,-206.097,0,33.3113,-31.234,-28.9049,170.878,0,2.28602,-10.9445,0,0,672.824,0,-269.192,0,0,0,0,-3.05719,0,-65.6688,0,0,0,0,491.756,58.2987,439.603,-438.61,22.9018,-142.348,1.71711,-58.3397,185.108,13.5936,-2.19949,0,-281.871,225.428,-53.5018,0,-5.95769,0,0,-29.9826,0,90.4182,-145.335,0,0,-21.8786,16.8214,0,1.99888,-149.412,0,128.818,0,0,0,0,0,0,0,0,-127.023,-16.8992,-503.104,0,0,-108.887,193.565,-606.087,-2.99909,0,0,0,-75.2038,0,575.085,0,0,0,0,0,-35.7129,0,152.349,0,0,0,-323.712,-138.888,27.9399,1.11932,124.816,138.202,-2.23161,66.2357,-45.2928,101.778,8.09667,-12.9365,168.191,19.423,44.9085,-21.397,-14.9885,0,2.47592,105.3,0,56.2943,-212.006,0,0,-10.9393,68.2279,38.1789,5.38633,144.933,-25.8775,44.0288,0,-67.573,298.22,-452.725,46.3222,-108.598,260.211,-55.9555,-496.661,17.7089,86.3946,66.5336,-126.048,-377.214,-1.23502,47.7004,46.9691,-261.498,85.8567,-170.842,128.928,-158.901,-202.131,434.09,-133.979,-121.043,108.65,-111.792,-170.02,-216.093,-354.663,-153.936,287.734,0,2.28602,2.28602,2.28602,2.28602,2.28602,2.28602,2.28602,5.69105,3.24174,32.3365,7.11216,-14.8755,-12.7589,22.6434,5.95832,2.28602,-29.8387,8.58567,11.2847,26.9925,-15.8901,2.28602,6.73485,-13.5978,-11.9044,8.94257,-2.97996,-22.5884,-24.9222,8.02966,-16.9936,37.0847,256.351,70.0691,-1626.34
0,-1.72461,-327.146,-82.912,-758.944,-248.367,-321.345,-533.38,-268.228,110.821,-138.045,144.232,504.99,192.558,397.778,880.546,-31.1297,-608.068,0,-3.9691,667.246,225.298,-541.397,-359.355,96.5072,0,658.608,213.962,68.0072,430.222,692.297,-98.1965,389.833,0,431.693,-463.878,320.945,-243.284,0,-180.206,7.94302,32.1907,-16.9028,545.045,-58.9255,251.526,-16.8777,-1095.29,-405.834,120.566,2658.55,0,-246.267,41.6999,-20.0469,499.113,-0.99897,-51.4569,0,29.5997,239.271,-48.5763,-333.986,-125.962,-6.92809,-216.381,0,434.431,339.001,738.003,-452.192,261.516,-263.329,165.341,181.852,424.392,-479.131,-142.549,-422.78,427.319,127.291,274.838,0,-3035.59,0,303.865,429.731,-53.4442,234.522,-165.987,94.2734,0,-120.937,222.623,88.3119,573.842,391.962,-13.9469,-357.108,0,0,0,0,0,0,0,0,473.034,384.39,-3.59715,0,257.416,-214.892,-481.473,-207.845,0,0,0,0,-235.523,222.945,320.997,0,-24.7141,0,-513.099,-593.019,315.312,366.2,-569.989,0,0,0,-299.93,95.6405,-912.302,-62.5491,525.394,401.463,-347.054,-225.419,-27.1624,176.273,236.734,8.73623,414.617,-231.97,-200.767,61.2452,843.84,-209.794,-49.0757,263.151,-143.896,-209.203,-156.744,80.8911,0,-296.157,-256.069,101.278,69.4241,-716.487,-75.2592,-188.434,0,-492.37,487.185,274.789,94.2927,-410.186,491.775,-485.426,-728.776,86.4566,218.959,291.474,-195.397,-379.267,187.555,-858.951,465.734,333.044,-172.571,-408.161,-1341.76,-461.965,-127.648,262.786,180.963,636.102,218.757,246.07,-325.647,-460.653,-282.822,343.725,282.376,0,16.0447,16.0447,16.0447,16.0447,16.0447,16.0447,16.0447,-53.5346,92.2695,31.9503,62.2661,40.449,42.3459,-109.611,-51.8013,61.6416,16.0447,-38.2366,-44.5431,-17.5451,-23.111,16.0447,-23.8971,37.6464,63.6102,-2.3228,-3.37091,19.8686,64.5049,-45.9304,14.9395,10.7689,655.498,-225.273,-5405.9
0,-309.505,-159.567,-35.4236,28.7095,0,106.492,10.0911,277.146,58.8737,0,107.396,0,0,224.33,606.928,0,0,0,0,54.5474,0,100.166,0,92.2964,0,0,-137.908,149.663,0,0,0,0,0,-30.4189,35.4229,-70.8618,-10.6361,0,-27.8848,-13.2424,-42.6293,37.4463,0,-52.7924,0,0,233.627,149.826,0,0,-1.96713,0,-45.8474,0,-83.1548,0,-9.89063,0,0,189.793,0,0,0,0,0,0,-124.446,-13.9989,-44.7647,-16.799,0,7.62674,170.908,-72.7209,26.2324,0,-60.7265,0,0,-125.65,-333.617,0,0,0,-9.89063,-12.8356,0,149.524,-5.88991,0,0,0,-36.3604,-37.537,0,0,0,-12.8356,0,0,0,0,0,0,0,0,-266.415,-117.216,0,0,0,0,-296.52,-288.338,0,0,0,0,-21.7594,0,-98.9908,0,0,0,0,-7.62096,-94.0241,0,0,0,0,0,-182.604,-179.331,52.0827,-41.2457,-106.902,-43.0009,-205.308,0.244351,33.7901,0,2.96547,0,0,167.523,101.124,0,0,0,0,-8.32523,0,-209.879,0,0,95.2413,0,7.90299,0.244351,0,0,0,-12.8356,0,-77.6524,258.461,55.4621,117.157,91.1649,-58.9697,17.8803,185.848,-70.4732,0,-66.1254,-128.356,0,-94.6268,-127.238,0,0,-17.7042,-128.23,12.1054,81.4734,145.03,-96.7948,-104.521,-65.5867,0,63.2239,-117.048,0,0,0,-102.685,0,-1.96713,-1.96713,-1.96713,-1.96713,-1.96713,-1.96713,-1.96713,8.14734,0.244351,0,-9.87012,-12.8356,0,10.8685,10.8685,0,0,-1.96713,-2.21148,-2.21148,8.14734,-1.96713,-12.8356,-2.21148,2.96547,0,7.90299,-9.87012,0,0,0,-12.8356,-247.346,10.8685,-456.186
0,-42.5467,-31.7719,-1.92679,45.6158,1.01995,-31.6141,-28.6663,25.7615,0,-27.5931,8.96219,0,-1.98774,62.3246,-12.8815,0,-4.94174,15.8605,-0.998795,50.4192,16.8025,-2.97215,38.675,0,0,-9.89435,0,0,-6.89826,-18.8242,-6.93092,-0.0046972,0,-8.08218,-10.9214,-5.85775,-6.89826,0,-1.97938,-1.98165,0,-3.9915,-2.98101,1.02172,0,3.98976,-5.92395,0,0,-15.7657,0,0.000229761,0,11.8412,-4.91086,0.997752,15.8605,0,5.95063,0,3.98621,10.9014,0,0,-1.97938,0,-3.89475,0.99119,-10.8121,-45.6511,-2.04123,14.913,-16.8314,0,25.7615,0,19.7584,0,0,0,-2.92333,0,-0.985733,-4.94717,0,-4.94717,0,2.99553,8.85414,0,0,19.8109,0,11.8742,-2.98101,0,0,-2.98101,0,0,0,0,0,0,0,0,8.04897,0,-7.88789,0,0,-1.9695,20.7801,-25.6823,0,0,0,0,-8.91874,-4.96039,0.00205461,0,0,0,12.8808,-5.93213,-19.8416,-4.96039,-54.1636,0,0,0,-37.5395,23.7504,65.3258,-30.7727,48.5015,66.4835,-17.7964,24.8687,10.8882,-18.7885,-4.98735,0,11.8694,16.7612,-36.8192,-0.992932,-56.2104,0,2.99013,19.7928,1.94681,-20.7864,-34.4242,0,0,-12.8211,-34.6078,-24.7623,7.92038,-36.4696,-0.992932,-4.96509,0,-58.5548,17.9586,-61.5921,8.05011,-47.4784,-47.8012,89.0066,50.9158,46.355,-21.5751,151.352,79.8093,-131.388,4.34313,-149.586,60.5501,-169.303,-20.7329,14.9925,161.386,-16.3162,25.6741,152.449,93.2724,-119.137,72.9458,-78.241,147.728,6.23905,-147.436,-160.9,-39.7207,0,0.000229761,0.000229761,0.000229761,0.000229761,0.000229761,0.000229761,0.000229761,10.9595,7.90133,-7.88256,20.7828,7.98093,-11.9486,9.82851,-22.7892,5.95571,-24.7207,-0.981964,0.000229761,21.7732,0.931394,0.000229761,20.8189,10.9133,-11.9137,8.88727,-11.8781,11.8985,1.02212,-25.6893,-16.8824,-4.96509,75.6519,9.93863,-12.8052
0,-595.497,-418.64,1526.27,-1329.74,1096.97,-754.043,-309.913,907.16,-257.801,-371.231,-255.399,-275.77,769.438,1276.11,1327.27,198.576,0,-1.99885,-1.99849,-720.664,1126.55,46.5205,-12.0702,-434.837,-15.6703,-398.952,-937.938,309.706,1630.54,-250.384,0,1377.91,0,-892,-229.652,-1004.87,-37.6162,0,-10.966,-106.585,0,95.7914,0,596.628,-861.885,0,-337.027,-1.99885,-82.24,-21.8165,-14.9254,0,3212.29,-546.205,-698.393,0.997725,-23.2348,-131.821,0,0,-10.6935,-1114.62,0,-0.999156,569.173,0,-389.043,-575.587,-792.089,575.989,382.913,698.964,1305.9,91.5063,691.2,571.718,124.745,723.475,-23.3796,-411.005,222.052,-211.656,9.87798,-15.6832,0,-1172.11,861.433,1258.71,-362.673,263.809,-11.8375,528.062,-317.526,402.594,-830.092,993.614,-62.7464,-2450.75,0,0,0,0,0,0,0,0,220.024,0,-591.475,0,-166.596,-1344.48,-341.293,-1415.36,0,0,0,0,88.906,-807.122,-831.322,0,-28.7704,0,-20.9314,868.756,1196.03,-107.287,283.297,0,0,0,-102.379,-442.341,1330.42,1463.45,-1234.66,5.97833,-191.948,-758.409,654.431,377.883,142.215,17.0741,-386.206,170.11,890.273,-35.1657,-1.99748,199.591,-314.194,-809.897,-381.717,1002.18,-575.096,-92.7986,-172.021,188.543,-1030.03,-213.534,99.5064,704.553,-51.5567,-221.747,0,577.867,-815.089,21.1898,73.9188,-118.364,199.493,-254.011,-269.567,-75.8688,-268.299,220.281,12.9578,122.142,-588.314,-117.827,22.9388,-354.019,-241.94,-457.046,-439.955,358.772,-346.688,269.202,244.187,-209.956,-345.176,-211.026,215.12,116.461,-304.651,-457.052,1056.55,0,15.8572,15.8572,15.8572,15.8572,15.8572,15.8572,15.8572,19.0714,151.417,-28.1403,30.9714,-55.0744,-86.2484,6.12812,90.4411,-10.7547,-36.7955,-7.4956,-74.3227,15.8572,61.1715,15.8572,-87.6893,65.7801,-54.1305,8.32474,-164.44,166.5,-13.9719,142.643,-57.2354,60.7074,-833.361,358.859,-7175.56
0,468.965,17.0239,-358.225,433.384,417.074,-123.333,158.564,-346.468,341.702,-443.897,178.672,2.66895,-49.6351,-79.0425,0,0,-18.0919,-49.0822,-18.9018,496.507,-1453.34,107.776,-1569.91,-5.93691,0,267.117,-38.3187,-117.858,-485.543,-370.322,0,-474.426,0,306.861,249.786,-72.5415,0.00852799,3.94616,0,0,92.0233,-13.9218,11.8046,-33.415,-8.96155,-4.99776,51.6885,0,0,-62.881,0,-8.85153,-221.191,3824.57,-722.545,0.589633,0,0,0,-23.2349,0,1076.04,0,0,-7.9169,0,-410.508,94.9771,-302.423,-69.3142,17.8656,-868.722,-99.2701,-39.0659,-125.026,892.621,-115.058,-5.90858,0,74.9859,-1.99922,0,72.3334,0,-181.697,955.251,-2528.16,-487.969,532.195,-6.97995,0,-210.145,-98.6972,-25.7877,77.3097,-102.101,-165.106,430.284,0,0,0,0,0,0,0,0,1053.57,-1.99556,18.2743,0,-9.96677,147.966,-623.719,-1.99922,0,-0.997779,0,0,-573.654,641.592,1795.92,0,-1.99919,0,108.604,292.935,-144.568,-644.186,323.519,0,0,0,26.6664,-370.908,-133.45,-260.173,196.385,-170.65,195.726,1102.3,48.3052,282.699,-74.3545,-234.015,-7.88156,168.191,-79.6118,98.6244,2.46352,14.3536,-72.029,-318.771,-157.153,-352.513,-293.319,-8.96647,0,-60.8174,-43.7001,-171.974,124.217,-65.9585,140.773,14.8647,0,-108.37,-187.747,701.821,-482.951,-706.382,1091.59,-460.029,-296.955,-127.854,106.128,34.8433,-414.789,321.848,-95.1077,-106.657,87.382,-507.768,111.021,-76.1981,137.791,-416.401,-375.51,483.992,-131.592,-986.562,107.911,206.855,-486.371,113.885,177.279,827.138,-119.462,0,-8.88892,-8.88892,-8.88892,-8.88892,-8.88892,-8.88892,-8.88892,156.54,11.3257,86.0641,-0.931296,-67.0972,40.7299,-50.6979,-19.0267,18.6006,-51.4941,7.62924,-74.4252,47.5934,-8.88892,-8.88892,-108.495,-15.9451,-98.6562,30.3709,29.5839,-94.6558,26.1724,-3.75837,75.7263,-16.2648,-25.0158,154.157,-3617.92
0,-307.461,1512.73,-817.319,1005.29,-769.062,1203.79,198.588,-1460.11,860.221,30.215,127.332,-976.186,687.051,157.95,781.736,358.168,2904.63,-3022.97,-94.6477,-200.086,467.068,-742.518,-300.871,1098.87,-3041.56,1439.34,-237.355,2614.56,604.04,-234.387,1103.85,613.867,0,-320.611,1181.15,963.474,-680.635,-7.62814,-1086.38,-1062.39,-518.008,-534.125,4315.7,593.415,2342.05,3201.01,-1659.42,2271.68,-3874.67,2339.81,-498.731,2846.29,-428.237,-1580.14,3741.38,-645.25,-184.394,32.9844,1960.28,1313.36,0,3206.62,-299.839,1019.16,-2354.95,0,-321.635,1760.45,1222.69,110.734,-997.709,215.84,-290.377,283.966,616.171,1553.34,1250.84,218.685,357.184,-455.342,-53.8939,-3388.78,374.211,4317.91,-145.12,412.898,-269.661,-499.998,-1502.7,849.659,-874.759,1287.37,1106.32,2218.79,-617.993,-157.877,1185.82,326.125,0,0,0,0,0,0,0,0,-568.037,3604.77,-1767.63,1852.13,-831.112,-2193.55,-443.935,-733.806,0,-213.952,0,0,1103.68,-5829.53,2261.4,0,383.451,0,-1955.68,342.494,-216.569,-770.403,150.004,0,0,0,-164.001,-51.4871,-33.412,-767.34,709.444,452.773,308.46,264.281,1792.24,883.765,1992.55,-486.711,2227,-591.968,-359.948,-394.954,1181.03,-2494.26,2019.48,-1022.87,3442.62,-1852.88,-1353.01,-432.966,1864.49,-1285.77,310.655,-232.953,-139.936,-382.818,-784.89,-2462.15,0,-661.652,71.8557,175.121,555.574,464.632,1391.91,382.999,121.539,-321.884,-481.04,30.0624,126.471,-437.207,249.488,394.308,-1.00927,-411.528,160.745,434.916,298.215,-21.3779,-1282.86,415.667,-167.239,-145.122,-12.0758,78.529,-82.4966,-78.6319,70.1189,130.056,877.396,0,-75.0402,-75.0402,-75.0402,-75.0402,-75.0402,-75.0402,-75.0402,-187.637,623.766,453.434,707.948,39.3202,384.149,-520.418,230.007,-730.124,626.62,-153.73,-786.027,16.3594,-379.102,-75.0402,-405.873,265.617,-216.396,79.318,203.772,335.966,35.7582,-618.828,265.399,-944.664,592.818,1453.87,-106911
0,671.262,161.482,221.463,215.641,204.628,72.5619,0,248.188,2.96238,107.511,2.99821,0.997725,304.635,7.98862,99.0209,32.3824,22.8394,0,-236.682,348.697,16.5171,174.469,337.095,0,0,0.999307,4.85456,0,5.98612,41.2881,22.5656,50.2286,0,101.939,-21.8847,-312.491,2.99397,-0.995611,-28.9261,0,0,7.83726,96.7062,0.999307,4.98632,-316.669,0,0,5.98612,1.99792,0,0.997752,7.97949,1.17927,-221.133,-193.834,0,0,0,0,0,5.85386,0,15.8514,-167.025,0,-62.28,-275.257,-40.4367,262.936,-160.292,52.5348,25.4241,0,0.99897,64.3275,0,8.61247,207.698,5.97632,1.99221,0.995788,23.7179,0,101.738,290.606,6.85022,313.951,-656.147,2.18205,0,0,0,0,0.999049,21.7074,2.18205,75.2092,0,0,0,0,0,0,0,0,-390.714,0,-259.021,0,10.8817,-283.073,0,-449.85,2.96238,0,0,0,-392.597,45.1328,-289.97,0,0,0,32.4532,4.85456,0,6.85022,107.944,0,0,0,-39.9887,124.027,71.757,-145.324,84.4575,212.013,48.5456,164.901,19.883,-76.7526,15.0348,107.916,-15.698,19.9601,47.3548,-42.8885,18.7101,6.85022,-194.372,-501.497,11.9928,-175.305,313.532,1.99221,0,-125.084,8.34795,20.4172,29.1523,126.751,-49.7226,36.1065,0,-27.9327,255.753,242.572,-234.051,-54.2525,-234.638,17.9623,-119.486,-152.848,-24.1622,255.929,-88.9027,-218.125,43.4621,190.585,104.031,87.7469,187.501,88.3482,94.3645,-72.9234,282.083,262.018,175.883,148.345,-20.0564,72.2283,136.737,185.518,86.1127,-143.527,-49.3293,0,9.19319,9.19319,9.19319,9.19319,9.19319,9.19319,9.19319,-9.71123,-12.0167,-9.13915,27.9135,4.44915,-32.1231,7.73871,-11.0897,10.3469,15.6011,19.4351,-11.1932,-15.2446,0.874882,9.19319,9.19319,18.0058,14.8345,-11.1688,9.02853,15.7154,23.436,38.3803,-15.0468,-5.48103,203.774,-126.627,6.92548
0,-657.689,148.839,-128.458,-1003.02,-12.8197,31.6238,124.259,260.465,-6.92855,-18.8045,-716.359,87.3863,137.324,773.315,-42.7684,0,261.775,-571.814,0,653.524,374.84,626.173,-574.654,224.066,0,479.745,115.131,-504.262,-16.846,125.612,0,373.165,0,669.563,-132.658,-129.401,219.192,0.983733,-9.94324,-189.771,-5.98635,-3.97921,0,118.696,9.80683,48.1227,-116.721,124.27,0,-201.215,-362.863,-15.8605,140.898,-14.744,69.3227,0,-4.87177,0,3.91198,0,25.0432,-6.92855,-50.893,0,-63.2545,0,43.7809,-443.86,-106.83,761.719,-59.7459,337.272,-258.668,-37.9615,-2.94934,0,639.347,-66.138,-487.509,330.616,-12.8197,0,12.0557,922.059,20.3708,-1094.13,-94.4706,-219.463,-85.8057,-13.1691,0,251.809,-46.4807,292.213,-5.98635,134.035,0,-342.338,0,0,0,0,0,0,0,0,53.0492,0,-5.98483,0,0,248.77,-877.36,-205.606,0,0,0,0,309.333,-207.198,105.611,0,0,0,377.254,16.5074,124.27,0,170.992,0,0,0,-589.33,102.843,148.635,329.449,-623.46,-538.464,145.743,-192.444,-13.8571,-11.9697,20.6665,-393.937,417.364,-266.809,9.92423,0,-41.949,0,0,209.771,-105.206,778.312,-43.501,-320.287,-6.60642,21.308,-156.487,0,-6.92855,-192.885,0,-30.4363,0,6.84075,257.455,-31.0128,-206.031,656.068,140.538,94.0662,-218.385,-41.5713,-191.224,345.471,140.844,26.0355,65.4011,-96.7016,246.356,272.407,99.5117,112.299,56.3897,150.368,-1408.67,277.173,65.5435,-219.811,-582.931,-219.69,188.63,-260.92,2.52321,-229.045,-373.19,0,-4.87177,-4.87177,-4.87177,-4.87177,-4.87177,-4.87177,-4.87177,-14.1263,-6.92855,-22.7983,41.6842,-22.2038,39.0107,-9.15588,-22.3701,24.6356,30.3074,8.6893,-8.93097,27.5789,10.359,-4.87177,-53.3483,-4.87177,-22.6418,55.1098,-29.102,12.5894,-29.7609,18.9384,-22.9045,-43.6054,-378.953,-304.713,587.007
0,71.8345,31.9003,-24.8598,-6.9537,0,-31.8149,0.125499,27.9008,13.9504,-5.99595,0,0,0,0,0,0,0,0,0,-19.9456,0,0,13.9504,-0.99859,0,0,-7.95373,0,-0.99859,5.99667,0,-5.99595,0,-7.95373,0,0,0,0,0,15.9456,0,13.9504,0,0,0,0,0,0,0,0,0,0,-10.9933,0,-3.99819,0,0,0.000720956,0,0,0,0,0,0,-0.99859,0,0,-19.9894,-4.99736,-6.99454,0,-4.99736,31.9023,0,0,-4.99736,0,0,0,0,0,0,0,0,0,-4.99736,0,-6.99512,0,-4.99736,0,0,0,0,-4.99736,0,0,-4.99736,0,0,0,0,0,0,0,0,13.9504,0,-0.99859,0,0,0,0,0,0,0,0,0,-0.99859,0,-8.9516,0,0,0,0,0,0,0,0,0,0,0,-17.9871,-19.9456,-35.8524,-29.8571,0,-40.8504,-15.9075,27.9008,13.9504,-11.9919,5.99667,0,-7.95373,0,0,0,0,0,0,-21.9859,0,-7.95229,0,-7.95373,-5.99595,0,11.9933,0,0,43.9338,0,-5.99595,0,-5.96351,8.05641,81.6314,-13.9446,0.00576765,77.6685,-46.0091,9.7925,97.6528,-35.9757,53.97,-59.9595,-71.5836,0,0,-79.5373,0,139.504,-71.5836,58.928,0,27.9044,97.6528,-125.547,6.00244,0,55.9271,0,-53.9635,10.0363,-59.9595,-41.9716,0,0.000720956,0.000720956,0.000720956,0.000720956,0.000720956,0.000720956,0.000720956,7.95445,13.9504,-5.99595,5.99667,-5.99595,-7.95373,0,0,-7.95373,0,13.9504,-7.95373,0.000720956,0,0.000720956,13.9504,-13.9497,0.000720956,0,5.99667,0,-5.99595,5.99667,-5.99595,-5.99595,-102.598,13.9504,2.00375
0,-1294.03,-19.1446,-75.0107,-1350.8,-76.6401,487.625,798.901,-357.914,-409.21,-142.319,209.934,-124.305,98.7131,615.192,130.894,46.0767,-105.421,0,40.0449,324.642,159.917,-194.689,-129.502,-39.3508,0,1087.14,-221.735,-238.132,709.399,2011,0,71.991,0,409.321,-1222.27,-153.296,-18.5228,-0.998972,-235.247,-107.695,-310.373,-395.349,629.28,-258.739,0,88.4108,-389.189,56.1131,68.5686,29.5997,0,5.95063,74.2475,533.48,-92.3216,0,2.91414,0,2748.64,1408.18,0,-198.785,0,0,-121.171,0,481.184,454.649,-6.03098,284.053,-734.497,-614.122,-174.835,-82.4237,416.36,-68.5909,-232.217,0,-129.675,261.53,0,0,37.9147,0,134.869,508.159,-781.463,657.84,133.157,85.2089,0,-3742.48,-382.797,-449.439,9.79624,-1200.63,0,0,0,0,0,0,0,0,0,0,931.999,0,-546.489,73.1591,0,-397.978,724.695,-109.473,0,0,0,0,-963.687,800.021,-472.854,0,0,0,271.04,-468.779,540.416,86.8401,-539.457,0,0,0,-644.064,210.131,180.883,-998.916,5.82217,-427.059,-165.779,1445.92,142.651,-207.283,-54.7154,-124.305,-58.3166,-61.2521,131.106,114.645,-31.4255,26.22,-102.304,-318.094,113.948,254.745,-786.837,109.144,-37.5716,-977.591,201.096,-741.185,4.20449,-346.396,0,-5.72962,0,485.493,-353.914,-205.747,911.895,737.171,719.659,-256.082,-184.956,-732.097,-568.092,-423.949,-196.654,-98.2642,-965.879,225.182,-33.142,-222.268,-1055.8,284.03,345.326,-213.041,-354.915,57.2052,163.923,-122.795,420.809,499.467,-360.818,-608.819,319.944,429.817,-45.9728,0,-8.64293,-8.64293,-8.64293,-8.64293,-8.64293,-8.64293,-8.64293,144.225,-7.49633,-90.3493,-68.6528,-44.5263,-49.711,29.1114,43.3822,19.6149,-29.7581,-102.958,37.8559,-2.9407,61.2861,-8.64293,-79.8921,42.7856,-16.0367,-8.64293,107.886,-124.916,0.263506,24.4459,42.9817,-5.74472,-84.801,-43.9445,-1304.95
0,-714.922,375.846,21.3499,1105.7,129.443,409.682,-148.296,206.219,67.4466,170.751,-297.624,-234.018,-241.886,122.054,-646.534,-315.323,-11.6864,243.679,-84.5766,-519.471,-19.49,526.854,-6.85687,0,-71.6441,483.836,-73.5562,141.259,-937.938,1096.98,-267.492,-270.368,0,1287.09,296.257,254.78,-22.6863,0,44.4251,266.355,-114.049,276.134,370.831,216.353,-239.958,1399.95,-92.4214,-189.716,40.3859,-88.2521,-63.904,0,0,216.403,-544.41,0,0,0,-88.5712,2772.07,0,1148.63,0,5.13993e-05,-54.3678,0,145.4,-646.049,-357.219,-660.436,-810.761,-353.811,-24.4177,1186.45,534.869,-207.494,361.124,0,-553.713,935.926,-378.08,207.561,312.892,-39.2799,0,-545.669,147.247,-1573,-39.7599,-285.738,0,-118.602,-2573.28,270.701,495.946,190.221,-83.5767,324.921,0,0,0,0,0,0,0,0,-1604.58,0,-93.3749,0,0,-11.078,-1228.27,1320.48,68.8322,0,0,0,-320.623,-69.2156,1192.08,0,0,0,28.9389,-350.908,-11.897,0,-920.1,0,0,0,-534.013,-727.716,560.943,1025.89,486.586,185.821,279.836,-1163.13,-22.0861,-4.50344,-136.51,-72.4603,143.383,104.005,-272.766,-310.95,-178.393,132.356,104.951,1119.19,186.143,-246.168,-655.735,182.002,-71.8872,-132.329,-224.709,64.5208,24.7764,-40.1181,-120.09,-263.837,0,427.122,-432.124,-648.68,-411.152,130.386,-350.464,-973.916,836.331,215.071,-289.495,103.056,-256.018,451.739,-25.6175,63.8147,-121.518,-629.077,-210.45,230.589,34.9821,137.267,227.573,576.474,-382.019,-44.6024,235.925,411.408,-828.511,-350.569,-149.315,-3.75933,178.573,0,-8.04317,-8.04317,-8.04317,-8.04317,-8.04317,-8.04317,-8.04317,-65.2757,108.239,-5.32851,9.21537,-80.2454,118.84,-18.4327,-10.2798,-43.1012,-59.4517,6.24015,36.1249,-23.1587,59.8355,-8.04317,-15.7347,-48.5754,-18.8134,40.9198,-8.04317,-36.3928,35.0306,17.7672,-54.1486,-17.6187,-35.1517,-880.646,-7167
0,41.0235,-6.84386,3.98621,-67.639,0,-57.2337,0,0,0,0,-21.2176,0,0,-57.694,-126.019,0,0,3.98621,0,45.0098,0,0,3.98621,-25.2038,0,0,0,-6.82612,-21.6602,0,0,22.1856,0,32.016,0,0,10.2594,0,0,0,0,0,0,0,0,0,0,0,0,-10.8301,0,3.98621,-25.2038,-6.82612,0,0,33.0156,0,0,0,0.985744,0,0,0,0,0,46.0449,-25.2038,0,47.7994,0,4.00396,0,0,4.00396,0,29.0294,0,0,0,0,0,0,3.82565,29.0294,0,0,-10.8301,0,0,0,0,0,0,0,0,0,0,0,0,0,0,0,0,0,0,0,0,0,0,0,0,-61.2377,0,0,0,0,0,8.00792,4.00396,8.99367,0,0,0,0,0,12.0119,0,0,0,0,0,-98.1904,-24.218,-30.6971,-96.0897,0,-48.7536,0,0,0,-10.8301,-25.2038,0,4.00396,-25.2038,-46.4036,0,0,0,0,6.63184,12.0119,-13.388,0,0,-25.2038,0,0,-17.6562,-6.82612,0,0,22.1856,0,12.3286,77.8301,38.4355,7.88595,7.88595,109.869,9.85744,0,36.0357,-97.4706,29.4792,370.196,36.0357,-216.203,-39.5757,0,-97.4706,70.3067,-37.9941,83.7124,-77.4509,25.0818,260.139,70.3067,-186.794,0,0,21.3421,-39.7748,0,-108.301,177.485,0,0.985744,0.985744,0.985744,0.985744,0.985744,0.985744,0.985744,0,4.00396,-10.8301,7.81186,37.0196,4.00396,-36.0339,-21.1998,0,-10.8301,7.81186,-3.01822,11.8158,-6.82612,0.985744,33.0156,7.81186,-21.1998,0,0,0.985744,-6.82612,0,-10.8301,22.1856,-80.114,-21.1998,31.7815
0,-577.564,477.507,1113.52,-170.643,-575.196,331.569,-103.386,1068.53,-317.52,-416.529,-178.746,-5.92567,525.477,-98.0036,391.942,-81.2483,-92.5886,0,-5.9271,1236,-169.92,1060.95,-27.2489,-8.96928,0,-36.3979,93.6942,-188.07,386.366,-1537.69,-21.7309,249.021,0,-362.767,-386.095,-1129.9,-13.1967,-0.989689,-5.9759,93.4475,-45.4391,-70.2402,475.81,93.018,-6.93488,-3.8116,-231.658,-3.57793,-11.8616,2.16077,0,-10.8994,-456.355,616.222,-689.986,0,-35.7378,0,-46.4739,234.421,0,2814.99,0,0,92.1291,0,174.257,-529.826,13.2366,497.59,-351.636,158.101,-647.648,-80.6732,-371.748,237.545,-104.562,140.834,-104.335,-405.97,-375.346,-3.99615,-56.757,0,-127.31,104.681,-126.672,-592.488,-323.987,-50.6005,-101.201,260.75,-88.283,-2.99811,-2969.02,-161.756,0,-384.128,0,0,0,0,0,0,0,0,436.575,-10.8375,-1034.67,-20.3013,0,-175.093,1034.19,-989.007,-0.997005,0,0,0,298.522,-182.594,170.482,0,-0.995286,0,540.619,140.63,-17.912,-3.57793,-400.649,0,0,0,740.643,437.149,-72.1391,-44.8219,382.582,-625.539,-554.613,503.193,436.296,378.195,-57.6119,-0.558184,-168.757,-327.515,482.921,-28.2141,-260.819,-11.7046,0,-520.216,-185.36,331.404,20.2983,-23.4675,-109.123,296.176,54.0964,-339.438,-120.331,-190.634,-19.8967,16.5017,0,-381.368,-182.306,-22.299,76.8513,461.954,76.1636,256.035,102.35,-125.214,76.2772,30.8997,512.398,567.242,140.382,-1127.09,-421.867,170.124,-268.773,35.4996,68.1883,-89.0072,-372.524,-505.605,412.165,189.533,450.336,-117.837,-526.425,-214.799,1466.74,-36.1848,-41.2829,0,-10.4107,-10.4107,-10.4107,-10.4107,-10.4107,-10.4107,-10.4107,198.454,-45.9264,-28.3378,-23.7303,63.9813,64.0722,11.1423,-162.015,-54.8185,-23.788,-28.0478,-6.13665,73.0823,-13.7331,-10.4107,-105.462,29.0397,-2.07908,146.501,29.2571,-107.484,-10.4107,-82.3991,-7.78125,-7.07524,150.517,-190.666,-3325.57
0,-2.99987,0,0,-0.999955,0,0,0,0,0,0,0,0,0,-0.999955,0,0,-0.999955,0,0,0,-0.999955,0,0,-0.999955,0,0,0,0,0,0,0,0,0,0,0,0,0,0,0,0,0,0,0,0,0,0,-0.999955,0,0,0,0,0,0,0,0,0,0,0,0,0,0,0,-0.999955,0,0,0,-3.99982,0,0,-1.99991,0,0,0,0,0,0,0,0,0,0,0,0,0,0,0,0,0,0,0,0,0,0,0,0,0,0,0,0,0,0,0,0,0,0,0,0,0,0,0,0,0,0,-0.999955,0,0,0,0,0,0,0,-1.99991,0,0,0,-0.999955,0,0,0,-1.99991,0,0,0,-6.99969,0,-0.999955,-2.99987,0,-1.99991,0,0,0,0,0,0,0,0,0,0,-0.999955,0,0,0,-0.999955,0,0,0,0,-0.999955,0,0,0,-1.99991,0,0,0,-45.998,-29.9987,-18.9992,-7.99964,-7.99964,-5.99973,-9.99955,0,0,0,0,-9.99955,0,-6.99969,0,0,-7.99964,-9.99955,0,0,-7.99964,-7.99964,0,-8.9996,0,-7.99964,0,-9.99955,0,-4.99978,0,0,0,-0.999955,-0.999955,-0.999955,-0.999955,-0.999955,-0.999955,-0.999955,0,0,0,0,-0.999955,0,-0.999955,0,0,-0.999955,-0.999955,0,0,-0.999955,-0.999955,0,-0.999955,0,-0.999955,0,-0.999955,0,-0.999955,0,0,-8.9996,-0.999955,-0.999955
0,135.926,-434.99,140.24,-227.999,-106.264,88.7816,-42.3316,-62.4231,0,-12.6781,0,-36.4344,-12.6781,-29.8512,148.655,25.7747,125.235,0,66.8636,129.304,-9.87136,-202.516,-275.707,0,0,0,-141.704,0,46.4073,-170.412,-17.9476,-46.4207,0,-240.753,118.481,-61.1524,-0.996824,0,-1.99896,0,0,0,-9.67969,58.0769,0,1.98842,-37.1207,0,0,29.7874,0,97.4028,-14.7805,0,-1.00234,0,0,0,0,8.45012,0,0,-37.1207,1.93795,-5.95239,0,-299.787,541.695,172.203,154.53,-2.99538,228.603,-56.8363,14.7669,0,0,-51.3496,0,3.97685,-182.489,18.8819,7.89213,-10.9644,0,-89.6203,-229.388,2.9767,-33.2781,-75.427,0,0,0,76.9578,0,0.999677,0,-13.4525,102.947,0,0,0,0,0,0,0,0,0,0,-5.99688,0,0,0,84.9574,-19.4203,0,0,0,0,52.08,0,65.218,0,0,0,0,0,0,0,-3.99597,0,0,0,95.8304,100.07,-130.449,-50.0148,-50.2474,104.794,173.8,-10.9774,-20.4356,-25.3563,-27.1608,47.1685,-15.6766,-58.2046,-63.4474,-44.4264,-63.8723,0,123.976,-40.5125,-40.5785,49.6794,-12.0137,0,0,0,109.814,33.7834,-2.65106,95.6597,-48.8744,-19.2344,0,135.21,-267.117,-82.0835,-112.89,175.011,-404.676,-173.671,-128.125,-75.954,-226.852,-110.707,176.317,27.827,-0.0933106,226.957,-98.718,21.8315,-87.4121,73.1451,-40.3405,-135.165,141.279,92.7623,-113.998,124.553,337.834,174.808,371.323,402.803,-187.518,97.716,-16.7282,0,1.93795,1.93795,1.93795,1.93795,1.93795,1.93795,1.93795,-18.6758,-9.63896,-28.0563,-13.8124,18.7051,0.54376,-22.2802,31.1626,-10.9478,10.2017,-8.74121,19.4083,-14.3637,-18.2639,1.93795,-33.7981,-11.3998,12.4553,33.7834,22.8326,40.5106,44.7559,-30.3386,1.93795,1.4611,230.077,17.563,-142.225
0,-925.542,-705.186,-402.999,884.738,-180.752,892.433,-214.924,471.564,-396.696,637.605,0,40.5373,618.102,44.6629,771.443,29.6909,658.732,38.3315,30.5587,1623.35,250.23,1715.49,449.163,-215.135,-270.395,494.625,642.88,593.288,236.394,270.088,0,-310.392,0,355.023,-336.894,909.68,-858.835,-2.99993,-1075.37,-1092.42,-441.436,-404.333,677.259,15.8455,7.962,-256.6,608.998,0,0,-286.243,0,-610.896,-1935.27,186.83,-1371.97,-208.706,-71.7471,-454.767,-110.062,643.594,0,455.591,0,89.8586,17.6654,0,479.111,818.039,364.443,-847.264,-307.395,-506.317,244.844,114.077,308.665,-392.107,8.91291,156.115,100.079,-195.371,69.5093,1.99906,-286.272,0,38.2893,65.137,88.9513,-312.51,116.82,223.378,548.595,172.922,1048.97,182.738,184.931,139.213,61.1281,274.298,0,0,0,0,0,0,0,0,232.25,0,-1021.43,0,-109.955,-1241.14,-1332.24,317.722,0,60.3419,0,0,154.472,-79.3926,1166.23,0,0,0,309.883,-442.747,-1491.38,-683.502,-517.393,0,0,0,210.367,824.564,-90.1733,602.745,-53.8848,737.936,1042.69,100.845,-366.871,-880.665,1.25221,-21.8785,-24.5495,-632.508,548.935,73.1498,-131.281,29.7033,315.815,-196.475,424.498,677.693,-957.546,-454.291,249.159,989.32,-760.662,961.352,613.36,114.759,-39.4504,1000.16,0,335.403,-514.616,-679.206,914.176,646.852,43.2189,931.578,-585.488,286.03,-310.021,-348.765,-292.432,-163.162,257.542,49.2276,-305.126,-136.243,821.03,-631.497,17.1421,493.403,-765.784,302.118,380.35,-365.981,232.533,-390.592,-213.231,37.3143,268.26,-621.562,-480.557,0,12.7275,12.7275,12.7275,12.7275,12.7275,12.7275,12.7275,-10.8186,-57.3204,-128.936,-18.4879,-21.9651,-96.7276,-124.892,198.318,-20.0287,-12.0965,88.9064,33.4756,-27.1646,136.452,12.7275,-21.0903,-13.7445,-29.3388,139.521,5.14141,3.27694,99.3757,27.4926,-47.5293,12.7275,193.732,425.496,-5546.98
