0,0,0,0,0,0,0,0,0,0,0,0,0,0,0,0,0,0,0,0,0,0,0,0,0,0,0,0,0,0,0,0,0,0,0,0,0,0,0,0,0,0,0,0,0,0,0,0,0,0,0,0,0,0,0,0,0,0,0,0,0,0,0,0,0,0,0,0,0,0,0,0,0,0,0,0,0,0,0,0,0,0,0,0,0,0,0,0,0,0,0,0,0,0,0,0,0,0,0,0,0,0,0,0,0,0,0,0,0,0,0,0,0,0,0,0,0,0,0,0,0,0,0,0,0,0,0,0,0,0,0,0,0,0,0,0,0,0,0,0,0,0,0,0,0,0,0,0,0,0,0,0,0,0,0,0,0,0,0,0,0,0,0,0,0,0,0,0,0,0,0,0,0,0,0,0,0,0,0,0,0,0,0,0,0,0,0,0,0,0,0,0,0,0,0,0,0,0,0,0,0,0,0,0,0,0,0,0,0,0,0,0,0,0,0,0,0,0,0,0,0,0,0,0,0,0,0,0,0,0,0,0,0
0,0,0,0,0,0,0,0,0,0,0,0,0,0,0,0,0,0,0,0,0,0,0,0,0,0,0,0,0,0,0,0,0,0,0,0,0,0,0,0,0,0,0,0,0,0,0,0,0,0,0,0,0,0,0,0,0,0,0,0,0,0,0,0,0,0,0,0,0,0,0,0,0,0,0,0,0,0,0,0,0,0,0,0,0,0,0,0,0,0,0,0,0,0,0,0,0,0,0,0,0,0,0,0,0,0,0,0,0,0,0,0,0,0,0,0,0,0,0,0,0,0,0,0,0,0,0,0,0,0,0,0,0,0,0,0,0,0,0,0,0,0,0,0,0,0,0,0,0,0,0,0,0,0,0,0,0,0,0,0,0,0,0,0,0,0,0,0,0,0,0,0,0,0,0,0,0,0,0,0,0,0,0,0,0,0,0,0,0,0,0,0,0,0,0,0,0,0,0,0,0,0,0,0,0,0,0,0,0,0,0,0,0,0,0,0,0,0,0,0,0,0,0,0,0,0,0,0,0,0,0,0,0
0,0,0,0,0,0,0,0,0,0,0,0,0,0,0,0,0,0,0,0,0,0,0,0,0,0,0,0,0,0,0,0,0,0,0,0,0,0,0,0,0,0,0,0,0,0,0,0,0,0,0,0,0,0,0,0,0,0,0,0,0,0,0,0,0,0,0,0,0,0,0,0,0,0,0,0,0,0,0,0,0,0,0,0,0,0,0,0,0,0,0,0,0,0,0,0,0,0,0,0,0,0,0,0,0,0,0,0,0,0,0,0,0,0,0,0,0,0,0,0,0,0,0,0,0,0,0,0,0,0,0,0,0,0,0,0,0,0,0,0,0,0,0,0,0,0,0,0,0,0,0,0,0,0,0,0,0,0,0,0,0,0,0,0,0,0,0,0,0,0,0,0,0,0,0,0,0,0,0,0,0,0,0,0,0,0,0,0,0,0,0,0,0,0,0,0,0,0,0,0,0,0,0,0,0,0,0,0,0,0,0,0,0,0,0,0,0,0,0,0,0,0,0,0,0,0,0,0,0,0,0,0,0
0,0,0,0,0,0,0,0,0,0,0,0,0,0,0,0,0,0,0,0,0,0,0,0,0,0,0,0,0,0,0,0,0,0,0,0,0,0,0,0,0,0,0,0,0,0,0,0,0,0,0,0,0,0,0,0,0,0,0,0,0,0,0,0,0,0,0,0,0,0,0,0,0,0,0,0,0,0,0,0,0,0,0,0,0,0,0,0,0,0,0,0,0,0,0,0,0,0,0,0,0,0,0,0,0,0,0,0,0,0,0,0,0,0,0,0,0,0,0,0,0,0,0,0,0,0,0,0,0,0,0,0,0,0,0,0,0,0,0,0,0,0,0,0,0,0,0,0,0,0,0,0,0,0,0,0,0,0,0,0,0,0,0,0,0,0,0,0,0,0,0,0,0,0,0,0,0,0,0,0,0,0,0,0,0,0,0,0,0,0,0,0,0,0,0,0,0,0,0,0,0,0,0,0,0,0,0,0,0,0,0,0,0,0,0,0,0,0,0,0,0,0,0,0,0,0,0,0,0,0,0,0,0
0,0,0,0,0,0,0,0,0,0,0,0,0,0,0,0,0,0,0,0,0,0,0,0,0,0,0,0,0,0,0,0,0,0,0,0,0,0,0,0,0,0,0,0,0,0,0,0,0,0,0,0,0,0,0,0,0,0,0,0,0,0,0,0,0,0,0,0,0,0,0,0,0,0,0,0,0,0,0,0,0,0,0,0,0,0,0,0,0,0,0,0,0,0,0,0,0,0,0,0,0,0,0,0,0,0,0,0,0,0,0,0,0,0,0,0,0,0,0,0,0,0,0,0,0,0,0,0,0,0,0,0,0,0,0,0,0,0,0,0,0,0,0,0,0,0,0,0,0,0,0,0,0,0,0,0,0,0,0,0,0,0,0,0,0,0,0,0,0,0,0,0,0,0,0,0,0,0,0,0,0,0,0,0,0,0,0,0,0,0,0,0,0,0,0,0,0,0,0,0,0,0,0,0,0,0,0,0,0,0,0,0,0,0,0,0,0,0,0,0,0,0,0,0,0,0,0,0,0,0,0,0,0
0,0,0,0,0,0,0,0,0,0,0,0,0,0,0,0,0,0,0,0,0,0,0,0,0,0,0,0,0,0,0,0,0,0,0,0,0,0,0,0,0,0,0,0,0,0,0,0,0,0,0,0,0,0,0,0,0,0,0,0,0,0,0,0,0,0,0,0,0,0,0,0,0,0,0,0,0,0,0,0,0,0,0,0,0,0,0,0,0,0,0,0,0,0,0,0,0,0,0,0,0,0,0,0,0,0,0,0,0,0,0,0,0,0,0,0,0,0,0,0,0,0,0,0,0,0,0,0,0,0,0,0,0,0,0,0,0,0,0,0,0,0,0,0,0,0,0,0,0,0,0,0,0,0,0,0,0,0,0,0,0,0,0,0,0,0,0,0,0,0,0,0,0,0,0,0,0,0,0,0,0,0,0,0,0,0,0,0,0,0,0,0,0,0,0,0,0,0,0,0,0,0,0,0,0,0,0,0,0,0,0,0,0,0,0,0,0,0,0,0,0,0,0,0,0,0,0,0,0,0,0,0,0
0,0,0,0,0,0,0,0,0,0,0,0,0,0,0,0,0,0,0,0,0,0,0,0,0,0,0,0,0,0,0,0,0,0,0,0,0,0,0,0,0,0,0,0,0,0,0,0,0,0,0,0,0,0,0,0,0,0,0,0,0,0,0,0,0,0,0,0,0,0,0,0,0,0,0,0,0,0,0,0,0,0,0,0,0,0,0,0,0,0,0,0,0,0,0,0,0,0,0,0,0,0,0,0,0,0,0,0,0,0,0,0,0,0,0,0,0,0,0,0,0,0,0,0,0,0,0,0,0,0,0,0,0,0,0,0,0,0,0,0,0,0,0,0,0,0,0,0,0,0,0,0,0,0,0,0,0,0,0,0,0,0,0,0,0,0,0,0,0,0,0,0,0,0,0,0,0,0,0,0,0,0,0,0,0,0,0,0,0,0,0,0,0,0,0,0,0,0,0,0,0,0,0,0,0,0,0,0,0,0,0,0,0,0,0,0,0,0,0,0,0,0,0,0,0,0,0,0,0,0,0,0,0
0,1104,162,711,-1230,-3,16,-1269,1611,-320,-563,77,-857,1605,640,-675,1392,-268,111,1607,-216,-931,-977,289,426,0,-1403,-1615,377,-810,1939,527,427,0,-472,56,907,841,-1463,124,-162,1287,1950,-452,2034,1566,1046,837,1806,-1893,-812,-661,106,-1810,-1241,775,633,-895,0,218,836,-1514,285,735,-517,69,0,314,213,-156,482,1218,-513,-1306,-936,-789,-1074,155,0,15,-1374,1182,-128,-388,-272,28,-1981,-249,1220,935,502,0,594,1024,97,-466,1785,5,-860,0,0,0,0,0,0,0,0,-524,-420,1139,0,0,-1534,-948,-628,0,281,0,0,-470,-1199,193,0,618,0,-65,238,-1134,-144,657,-46,0,0,-214,770,266,1747,545,424,-395,-920,-2735,-2175,980,389,-784,344,1276,-151,374,966,-1008,1006,-1916,510,-1839,-489,-72,1380,-202,-1266,-375,-945,-516,-458,0,1276,77,-45,-1483,-145,820,16,-328,96,385,-464,-409,352,83,-261,200,-395,296,-108,121,147,-50,-610,-142,-418,-363,755,110,-240,-111,-173,-216,0,19,19,19,19,19,19,19,19,-211,-262,31,40,70,19,270,-58,-145,44,788,-335,-503,119,-74,2,-49,549,118,-333,-175,641,-72,-303,-38,1107
0,-2241,232,-822,74,1269,-15,1795,-740,1197,693,-520,-3,-1078,-38,121,-247,76,-10,869,-331,-119,257,115,-1,-19,-620,53,-88,781,-740,-46,-618,0,-342,1364,1156,847,-23,2001,908,-2544,435,1927,847,-1226,370,683,-400,-286,1254,-309,-93,-201,1279,252,816,-224,-19,906,-1681,181,-1353,408,-141,1252,0,-232,-37,-1334,660,-19,-226,-1857,829,-383,-450,-513,-25,-401,-497,683,305,253,-6,349,-179,-269,-781,-578,-68,0,1304,200,-28,315,606,-65,-61,0,0,0,0,0,0,0,0,862,0,893,-540,-2,1139,-563,-1215,0,-29,0,0,-1285,19,-1980,0,-154,0,539,368,-421,-674,607,0,0,0,-420,-2270,664,-670,1057,83,133,-830,-825,1257,-998,-353,-693,633,-702,456,-308,0,606,-1214,316,1005,150,-510,629,-1196,506,267,-765,-394,-64,-928,0,1080,6,427,-1848,-2108,-304,-741,943,-258,-596,722,875,1120,-167,1393,573,-342,625,-7,1070,76,-160,-103,819,746,800,377,86,26,-399,1106,-624,0,22,22,22,22,22,22,22,-148,22,519,-75,9,43,22,-12,175,51,30,94,-214,124,56,61,-49,12,-74,-54,18,-167,-156,79,-146,542,-1333
0,-183,1542,680,-229,412,-177,596,-1210,235,-43,-124,168,-289,1461,511,505,1124,255,-128,1429,812,-282,204,459,0,-206,787,-1331,309,1198,0,-607,0,813,-788,-920,1207,-209,-1885,724,-125,-892,1337,-1008,205,-31,-743,-390,488,-1640,466,-370,-647,-2215,260,68,159,0,308,588,244,360,-434,92,147,0,150,-1019,-2041,-79,426,853,-32,839,938,201,489,1054,0,121,827,72,681,-174,261,1592,954,-982,-1178,76,0,175,-69,360,-764,-10,0,-147,0,0,0,0,0,0,0,0,-549,-725,-2890,0,425,683,607,1493,0,-679,0,0,-1406,-321,1,0,-106,0,412,-1493,-340,-128,1209,0,0,0,443,-233,-94,-216,-763,715,533,-816,1602,606,-48,473,626,-1073,-1100,-457,-141,0,364,967,-333,67,-930,0,-615,775,880,-449,29,449,0,1156,0,843,-1003,-345,883,54,-223,888,131,-78,986,-701,-685,-1319,-452,-1191,-684,801,-67,4,605,-1146,-561,-332,-128,-1052,451,-1512,-116,-546,328,818,1051,0,-10,-10,-10,-10,-10,-10,-10,-173,253,-10,-128,164,-33,-10,15,-81,40,48,-305,254,-220,-120,-271,46,-78,180,-21,-148,-74,280,91,201,1622,377
0,-520,-988,-104,-325,-57,18,682,440,105,-517,0,226,-19,-205,-590,-16,-1462,-11,1473,243,206,501,-5,-14,0,385,-631,-60,-76,-281,0,465,0,2815,858,-37,199,-134,401,-507,-23,10,-657,-7,330,-23,2847,-270,-8,79,-70,-167,-862,-29,-864,0,-6,0,-154,569,-184,-48,79,-193,-510,0,-674,103,-26,-223,-8,-29,-17,-190,310,-163,0,-119,0,-1065,-59,-4,1298,-1,-319,-359,-165,-178,103,22,0,-249,-13,21,-47,-13,0,-6,0,0,0,0,0,0,0,0,-1105,-119,719,0,0,120,-1041,-268,0,-179,0,0,1368,324,968,0,-2,0,574,230,718,-24,-1010,-2,0,0,1666,-704,57,-1290,-832,-82,240,503,220,33,307,-36,-80,90,-48,-152,766,0,-566,89,-16,110,1723,-45,-399,97,-69,-120,44,-768,289,-19,0,216,830,17,901,975,-328,-349,-255,660,-525,-360,589,-998,-696,75,-10,481,-328,-236,-839,40,713,-973,-315,179,27,-151,-585,-279,213,506,-412,0,-7,-7,-7,-7,-7,-7,-7,-63,127,-111,-7,99,-100,-7,-116,-19,98,-41,71,-36,36,125,106,-36,-22,66,-7,-21,-43,-178,60,-51,-172,-33
0,715,-1584,-1174,-930,268,636,-181,-63,-98,-649,28,-257,-5,-566,-958,-48,38,0,-1,397,673,387,108,294,0,387,24,102,-317,143,0,375,0,-1729,1939,549,312,270,113,0,-55,-230,-31,0,539,-5,600,47,-10,208,0,-3,-859,-54,-144,0,-875,0,-189,128,-44,250,-307,0,-236,0,1025,200,-628,972,52,265,-135,-22,-1,681,0,496,-5,468,-161,0,27,0,0,-15,332,864,0,0,0,309,-66,-200,0,90,0,-302,0,0,0,0,0,0,0,0,-140,0,1016,0,-1339,0,472,58,0,14,0,0,313,-587,-473,0,700,0,195,-74,202,79,-236,0,0,0,-623,-385,746,929,-855,716,217,-206,-425,-968,-26,1,55,-233,411,-8,105,0,0,-361,540,164,324,-136,-929,-76,-130,-435,143,174,0,43,0,118,-114,1961,-724,385,-1610,410,-294,369,-89,658,710,230,-591,703,46,-272,70,-177,355,-34,182,-648,377,139,-576,368,165,245,276,-730,344,0,15,15,15,15,15,15,15,-78,-42,-4,66,15,27,15,10,-2,12,7,-7,-17,87,98,-27,36,-79,5,25,-21,40,14,-73,43,-76,-33
0,-216,242,-859,1478,-411,-305,-54,127,-1951,900,1273,0,214,-771,746,651,174,0,112,1729,-203,89,349,-425,0,-173,78,497,-514,160,7,763,0,-1166,1596,1589,-263,-15,573,-244,175,1409,-193,-602,5,37,-1208,1284,-660,1563,564,0,202,0,276,821,772,0,-320,-277,219,-336,-176,-188,-786,0,1431,471,-77,740,354,-76,1053,27,501,-87,-73,0,-313,933,308,-89,-229,0,0,-293,393,-426,480,-80,0,-16,-290,-66,1085,-664,0,79,0,0,0,0,0,0,0,0,-1709,-742,308,0,0,-469,-53,-1243,0,-796,0,0,544,-429,-303,0,0,0,-1135,707,-1338,-294,445,0,0,0,-157,356,278,-1022,968,-512,-125,138,-381,-201,-102,6,998,992,1136,86,0,-600,-24,344,-274,498,-1053,951,0,322,-359,36,736,-573,0,108,0,830,-143,-252,-453,-616,81,881,-48,-104,-234,-465,-1191,-117,63,379,-1068,-414,186,65,214,-517,-1112,795,-568,460,-108,270,632,-787,858,-499,408,0,35,35,35,35,35,35,35,-129,-102,99,-5,-118,35,35,261,-108,-29,15,81,274,-103,-46,174,65,46,-143,6,-2,-11,67,-68,56,1353,1123
0,-690,532,628,22,-1302,208,-618,-281,-690,683,-410,1180,-2351,1175,844,-1422,-2059,402,-590,178,-157,1153,475,-295,0,-51,156,1186,-149,-591,-118,-526,0,1267,-476,-889,-2427,-533,-192,-2592,3900,-2329,821,-548,61,2143,2421,1173,665,2183,744,1409,3215,-1277,1260,321,2391,99,1113,2208,1475,406,67,812,1775,0,2681,204,-2564,-1730,706,-46,1172,1772,-1011,1472,-557,-167,-1853,449,-555,443,-1224,-374,1661,607,785,-2147,516,-1609,-276,-333,-1122,1222,1196,-857,-11,715,0,0,0,0,0,0,0,0,332,1087,616,-100,613,920,-2962,87,0,995,-1528,0,-1008,3715,958,0,-566,0,362,835,1991,-1158,8,0,20,0,-582,444,76,-18,1356,-20,562,-535,-373,109,-561,-959,341,-538,72,-1868,-420,-115,1245,309,-1315,1923,-536,505,2037,1220,641,910,3224,887,-444,-302,0,1242,-83,-586,-357,-19,115,-78,-38,-305,138,338,145,-350,80,189,-235,220,-89,401,99,239,-663,-408,0,90,87,-546,-422,-659,114,581,357,0,26,26,26,26,26,26,26,515,-537,165,-81,45,-115,26,181,-291,-48,-96,-1190,340,216,65,-274,78,195,141,232,614,286,-345,82,56,469,2784
0,559,1836,-167,1245,-881,1530,245,-589,-158,1599,-1166,126,1082,1483,185,-526,843,-355,-861,-979,1,-900,733,-219,40,-192,-456,-1027,-2446,399,305,-654,0,-288,-1933,-452,-171,963,371,-26,-736,-487,-1147,584,-955,-1147,-2418,1715,526,-160,229,-769,963,0,-2457,792,-888,40,-542,160,1328,1488,24,-600,927,0,840,-413,920,35,-766,-376,-1193,700,647,-484,396,-134,-534,-88,-673,-161,974,515,-438,204,0,1517,-154,-248,0,879,514,-147,1244,-46,226,-175,0,0,0,0,0,0,0,0,97,-228,1467,0,1690,436,-1507,-1365,0,-120,0,0,749,0,1281,0,880,0,1549,398,457,-116,-1842,0,0,0,-76,1158,546,-646,884,-178,-221,1133,617,502,-320,-522,-1147,1622,295,977,-1687,0,-1329,1248,-411,-2044,2029,-1237,1264,952,281,79,339,1401,-390,-145,0,654,-467,231,963,152,-385,-335,865,-579,357,-136,416,70,1348,283,84,393,211,398,-165,530,1035,-86,562,86,-811,-260,24,231,-334,-821,-68,0,44,44,44,44,44,44,44,147,-12,195,-94,71,-124,44,44,146,-72,60,-452,202,12,-293,447,-115,143,176,57,73,74,-95,-128,-66,803,-2505
0,-1048,-1100,1243,-206,-249,509,1,-37,-156,363,26,-5,-20,-962,-326,0,90,0,0,-25,0,-5,-61,0,0,273,63,-76,199,742,-31,-24,0,973,1250,-618,-784,240,-590,1,-1757,720,5,-526,294,-821,279,92,-39,-647,0,-4,972,0,-72,-387,-13,0,-535,-26,1096,-1250,-560,-30,156,0,-391,-641,-1186,-327,-6,420,0,-585,105,-25,-3,0,282,-1023,-17,0,-7,0,-1,-386,0,-6,-12,0,0,-3,0,0,-477,19,-6,-181,0,0,0,0,0,0,0,0,1246,330,-73,0,0,1071,1700,-590,0,75,0,0,501,0,126,0,-4,0,-476,-7,-1036,1760,-651,0,0,0,62,322,-23,858,34,-532,82,1077,-332,0,-28,0,-98,187,-184,-273,-176,0,-300,226,4,-66,-406,0,-137,-1189,66,-149,-74,-768,-72,142,0,79,917,627,-127,-331,-119,-502,-434,1111,1265,-436,-364,176,-571,-205,-78,8,710,-974,-48,-464,-396,1506,697,517,320,194,-626,-628,94,-941,-202,0,-39,-39,-39,-39,-39,-39,-39,-49,122,139,-47,-43,59,-39,-123,-39,-14,71,-59,124,-46,-85,80,68,38,-161,29,-86,-47,-130,-108,-44,-334,-191
0,505,395,-258,2341,-155,-2467,-147,144,616,-975,-711,736,1178,-1754,-832,-5,757,134,-1096,-172,801,-889,887,-108,-85,-2068,-596,-790,353,-2737,-113,422,0,-287,-379,-2478,-912,828,7,326,163,-2714,-369,375,-1396,693,272,2065,912,1666,16,679,-479,-191,153,-1490,-952,0,2081,383,-1393,675,-949,211,-64,0,-642,1397,1286,754,0,579,-1810,1886,1395,-558,-33,-742,-841,-500,904,-5,-1163,-114,-1030,-1363,-850,1308,357,-4,0,-147,1620,-299,-212,-317,1,-930,0,0,0,0,0,0,0,0,713,771,-158,0,-49,258,1989,866,0,-1613,-90,0,1602,-1354,-951,0,-370,0,-690,-631,-907,-1425,650,48,0,0,-214,-1255,1413,138,-382,760,118,1390,-217,992,-277,-554,1183,-757,1720,696,457,-29,-475,1676,375,347,155,530,-1086,-245,-1520,-623,-1619,1480,683,1019,0,313,245,1368,-621,-123,1289,-620,-546,139,-515,8,125,-741,900,-1503,-658,-609,253,34,776,-591,200,1033,304,-1039,-635,362,1022,158,13,450,-707,0,21,21,21,21,21,21,21,375,-43,-86,-13,-188,173,21,322,94,21,17,524,204,-181,6,102,-60,-221,-220,-63,-299,-207,-186,128,-10,-339,-1549
0,-33,-386,-31,146,-18,-317,-1,-126,-110,-633,88,0,87,-409,-102,0,-304,0,-1,-388,-175,-99,-139,-8,0,-62,-209,-11,0,-339,0,-202,0,-244,258,-12,-215,0,191,-532,-5,144,142,-50,0,-44,15,0,0,-213,5,0,-153,-57,-95,-39,0,0,24,178,0,0,409,0,214,0,4,-19,5,6,0,-18,-66,6,0,600,0,0,-44,689,-79,0,0,0,0,-24,-1,-20,-52,-22,0,-2,3,-22,0,490,0,0,0,0,0,0,0,0,0,0,-70,-22,379,-39,0,-24,710,-75,0,587,0,0,328,253,0,0,0,0,-3,-457,-34,0,299,0,0,0,176,-94,-545,-65,-12,-434,110,-44,-5,16,-6,0,-89,-159,-130,0,52,6,0,-27,17,-133,-18,0,-30,0,-4,37,0,315,0,463,0,297,391,683,93,70,618,21,-341,273,-334,-48,90,254,-796,-384,310,178,39,-536,484,263,-323,464,-360,-220,193,449,60,0,-314,560,-355,0,5,5,5,5,5,5,5,-58,28,17,-6,9,14,5,-77,31,30,5,-64,22,30,-67,27,-39,-25,15,-4,3,0,86,56,12,-680,5
0,294,-531,-95,53,-46,364,163,-509,35,132,113,-200,35,-953,164,0,-69,125,88,-431,-55,128,0,0,0,-432,-197,77,-75,-731,0,-919,0,512,-305,261,336,114,-462,125,-324,148,-572,115,151,0,-1036,147,5,-728,0,-73,-217,-251,-21,0,194,0,130,-601,-181,95,510,0,851,0,-153,128,-3,-414,216,-19,-348,139,89,1,-75,0,0,-269,26,0,137,0,0,52,148,-21,0,-136,0,-4,0,-11,5,-41,0,-41,0,0,0,0,0,0,0,0,621,0,-595,0,0,43,2440,360,0,502,0,0,-254,-165,103,0,0,0,319,699,-25,30,-384,0,0,0,-63,159,-545,103,299,320,588,419,-57,-189,131,-55,8,-355,-186,114,136,0,-69,-674,230,364,0,-279,72,-8,-195,2,45,-613,-66,-159,0,235,929,567,-75,-495,-115,-511,-366,555,257,366,-186,-296,271,1279,-609,162,-275,-220,344,-877,897,312,751,318,-573,444,-352,310,669,-584,680,0,11,11,11,11,11,11,11,-2,77,-89,65,-29,-21,11,179,-49,14,-15,11,-118,-97,145,39,53,39,-42,15,-49,41,-59,-65,56,108,-262
0,-934,-357,251,-2663,935,868,-1344,-312,828,-2642,-608,-303,-1875,250,271,961,956,-106,186,496,-1981,-403,-251,-399,-21,-2023,-1698,1606,408,531,83,40,0,-1757,-815,2262,155,-1213,306,1304,1918,510,1709,-28,1171,1024,-2434,-362,-754,-849,-272,186,280,3820,-1048,-6,-550,-21,-1050,762,52,2221,237,361,-314,0,-1368,337,417,1251,-949,-187,-599,-1637,-383,66,90,-239,1969,2140,-1362,-460,177,169,-1026,486,-436,-9,773,2320,0,774,233,-1103,-723,-1165,-245,1350,0,0,0,0,0,0,0,0,-135,-272,621,169,-522,-261,-115,268,199,-699,-3,0,-325,264,495,0,-648,0,358,129,-104,2478,354,0,41,0,-299,814,356,803,1216,-500,113,643,-408,-766,369,1193,-896,-18,-252,560,-1470,-799,90,383,294,-893,-423,53,-71,67,-205,-277,-103,-617,346,981,0,651,291,1151,-779,483,-274,-523,-27,-158,376,-46,-160,529,1382,1027,484,-8,491,-252,-730,416,272,-461,-63,323,-35,851,37,-171,-1035,-285,-545,0,59,59,59,59,59,59,59,45,110,-99,-71,114,49,59,-41,99,-158,-52,213,59,231,-179,-46,80,54,-244,-3,41,411,-125,26,17,-552,-1990
0,-172,-83,-631,48,-85,-700,0,152,285,-27,323,-45,-16,-335,0,2,587,2,-2,422,-353,165,-238,1,0,175,0,46,541,-394,0,-328,0,303,101,389,-204,0,-218,0,220,-243,308,-186,-4,0,-294,0,0,-553,-35,0,-513,9,-258,0,0,0,155,0,-28,-191,-7,0,-101,0,104,-34,352,-291,3,338,-4,-140,117,-3,-44,-55,0,453,0,-2,-3,0,-20,795,337,-9,0,-4,0,-57,0,-57,-27,77,0,439,0,0,0,0,0,0,0,0,-544,-26,-85,-25,-65,0,-578,0,0,-30,0,0,-1342,-326,48,0,-3,0,-339,0,0,-115,328,0,0,0,441,74,-154,-54,-351,-86,0,246,25,96,-25,166,-42,499,-28,-28,88,0,-2,112,-248,28,126,-16,0,-58,-8,26,106,27,0,7,0,65,231,151,29,473,706,54,796,410,-666,349,-307,-102,321,-52,358,541,-687,168,216,608,114,-536,16,-210,94,-192,163,576,-12,-270,56,0,5,5,5,5,5,5,5,73,59,-40,39,-31,-16,5,-8,33,63,-72,2,-31,5,8,-81,-1,-21,-4,-20,15,89,4,-27,7,-244,12
0,1815,1543,876,921,22,49,-126,591,-477,-142,590,-181,113,242,699,-4,520,23,-148,202,-541,1782,284,-46,0,1096,-337,260,-220,1273,169,158,0,-454,-1944,-362,569,830,294,-623,-486,667,555,-272,-196,357,986,-625,-13,373,16,-161,-235,-432,-300,0,-127,0,198,145,-1026,-429,-594,-10,-211,0,-675,790,443,-1480,-436,-1061,370,144,-241,-209,-373,384,279,893,-913,90,-650,-44,0,239,59,-544,-209,-35,-2,-316,41,-723,-35,-159,121,140,0,0,0,0,0,0,0,0,-615,-10,-657,-6,-138,-257,-868,445,0,-262,0,0,-474,1179,-26,0,297,0,-457,-303,436,403,-1129,0,0,0,241,589,263,-222,-71,666,727,330,285,1327,-41,-44,164,-174,-457,129,-270,-13,-107,265,85,-294,560,216,-222,28,-139,113,369,2064,34,-60,0,903,-577,-174,1437,-41,363,493,-14,-882,-36,-170,-415,-136,-765,321,18,809,-1022,560,-1627,-200,-372,-149,365,1234,311,-527,250,1002,311,736,-708,0,38,38,38,38,38,38,38,-5,-53,78,-28,-59,52,38,-53,22,52,-104,27,-163,15,38,116,74,101,93,-112,-69,109,176,105,-70,-537,-490
0,0,0,0,0,0,0,0,0,0,0,0,0,0,0,0,0,0,0,0,0,0,0,0,0,0,0,0,0,0,0,0,0,0,0,0,0,0,0,0,0,0,0,0,0,0,0,0,0,0,0,0,0,0,0,0,0,0,0,0,0,0,0,0,0,0,0,0,0,0,0,0,0,0,0,0,0,0,0,0,0,0,0,0,0,0,0,0,0,0,0,0,0,0,0,0,0,0,0,0,0,0,0,0,0,0,0,0,0,0,0,0,0,0,0,0,0,0,0,0,0,0,0,0,0,0,0,0,0,0,0,0,0,0,0,0,0,0,0,0,0,0,0,0,0,0,0,0,0,0,0,0,0,0,0,0,0,0,0,0,0,0,0,0,0,0,0,0,0,0,0,0,0,0,0,0,0,0,0,0,0,0,0,0,0,0,0,0,0,0,0,0,0,0,0,0,0,0,0,0,0,0,0,0,0,0,0,0,0,0,0,0,0,0,0,0,0,0,0,0,0,0,0,0,0,0,0,0,0,0,0,0,0
0,1533,-953,184,-152,208,-907,0,-819,392,-4,-104,-275,83,-1802,-1691,0,290,0,0,-1174,239,-808,36,11,0,-1343,-123,-437,-28,-56,0,24,0,-1167,1914,-436,846,-760,-121,0,874,-741,21,75,1007,235,959,1211,-63,-800,0,-123,40,377,24,36,-6,0,1016,-460,0,-131,1315,0,157,0,385,-378,349,-502,-2,-8,0,-205,59,0,161,-400,-252,-1193,-853,0,217,0,0,-379,-201,92,0,0,0,-521,0,387,-8,170,0,-209,0,0,0,0,0,0,0,0,883,194,-335,0,-408,256,755,1350,0,365,0,0,1307,-373,403,0,-68,0,1079,938,-784,0,253,0,0,0,764,201,-10,82,-411,531,273,431,-176,-235,-93,-444,-246,607,968,-126,259,0,-297,-107,145,484,216,177,-449,-237,0,376,-113,225,76,25,0,19,1175,-463,210,981,708,-253,-484,-208,-187,-200,210,244,734,-495,1299,-541,-490,685,-367,1083,-609,832,-54,-581,866,145,-32,-1190,-1497,-76,-277,0,2,2,2,2,2,2,2,68,-56,-74,-17,-31,32,2,49,111,-21,-49,23,-68,127,-64,140,2,-103,82,50,-49,-147,41,0,-28,-206,-182
0,0,0,0,0,0,0,0,0,0,0,0,0,0,0,0,0,0,0,0,0,0,0,0,0,0,0,0,0,0,0,0,0,0,0,0,0,0,0,0,0,0,0,0,0,0,0,0,0,0,0,0,0,0,0,0,0,0,0,0,0,0,0,0,0,0,0,0,0,0,0,0,0,0,0,0,0,0,0,0,0,0,0,0,0,0,0,0,0,0,0,0,0,0,0,0,0,0,0,0,0,0,0,0,0,0,0,0,0,0,0,0,0,0,0,0,0,0,0,0,0,0,0,0,0,0,0,0,0,0,0,0,0,0,0,0,0,0,0,0,0,0,0,0,0,0,0,0,0,0,0,0,0,0,0,0,0,0,0,0,0,0,0,0,0,0,0,0,0,0,0,0,0,0,0,0,0,0,0,0,0,0,0,0,0,0,0,0,0,0,0,0,0,0,0,0,0,0,0,0,0,0,0,0,0,0,0,0,0,0,0,0,0,0,0,0,0,0,0,0,0,0,0,0,0,0,0,0,0,0,0,0,0
0,487,-128,1936,-2061,2204,1636,428,1202,-1758,169,958,-538,-968,528,876,-1792,418,-301,-384,-815,131,-2347,-11,1460,0,792,1048,-114,1295,1924,-712,-367,0,377,-2067,-1156,2136,1647,2342,361,-482,2068,-451,-80,-157,-1703,995,-3256,1770,-503,-26,-30,1987,-344,2374,-925,-759,-95,500,-1950,-186,-225,479,212,-958,0,506,-245,413,-1273,-803,-1890,-536,-739,-290,31,238,-18,1616,-189,1217,-291,384,0,0,1910,-486,345,280,-400,278,606,-334,48,-545,-613,220,737,0,0,0,0,0,0,0,0,133,-584,-18,0,-53,-512,-348,433,0,72,3,0,-937,149,1185,0,528,0,-1016,-228,495,-1197,1608,0,-6,0,259,676,86,846,-2306,-1550,-1997,-1605,1005,-472,418,295,1545,-954,-843,-291,1362,0,-20,495,-552,133,-150,-371,-48,-503,1227,933,397,36,76,-562,0,268,297,-350,1265,-686,-367,203,661,354,-369,-141,-723,562,363,383,164,-183,-476,375,-660,-848,263,-216,-233,675,372,-72,464,35,-225,114,148,0,7,7,7,7,7,7,7,-83,-54,-111,139,-104,54,7,-119,-44,155,-80,-4,198,-195,156,-290,11,81,7,-41,164,-24,223,-9,33,1228,1319
0,-1118,131,23,-618,-451,-202,698,1955,947,888,15,1389,1198,431,-1488,-79,-220,-50,-487,1311,494,826,-773,-125,85,2009,1265,-412,689,-831,-46,1465,0,-17,-1223,153,-893,-32,-1119,-956,-303,37,-295,-623,-607,-872,-3038,-2012,197,259,-802,613,-2086,-216,-613,-193,573,-99,-1166,2568,-12,-556,203,-413,-1396,0,-371,-646,1965,-191,-344,662,3243,1194,-878,-810,104,-399,-436,854,244,-362,158,-92,504,219,6,-900,-547,0,-121,-1262,-195,-210,-1186,1609,-220,-860,0,0,0,0,0,0,0,0,-605,324,-144,0,-401,-1786,1567,247,0,190,1618,0,1268,-65,-597,0,-650,0,-1648,-1857,2074,907,678,0,-54,0,-1248,-600,-1643,1696,379,-631,1001,-199,-501,115,-213,517,317,-623,535,-8,491,35,472,-1368,818,-488,313,-70,-57,203,18,1001,-196,-1191,308,401,0,825,1206,-757,719,240,434,1340,-732,-1131,-408,-414,354,-331,549,-36,-558,26,171,-526,-14,-737,-291,-368,-428,-1078,291,-1806,-81,-8,362,30,39,0,-26,-26,-26,-26,-26,-26,-26,131,-52,-66,52,92,-191,-26,-251,-81,92,88,339,-67,30,-193,-196,-70,-127,-221,-26,236,-35,83,-34,233,285,310
0,581,325,310,913,-177,103,61,9,-118,404,-37,130,67,1268,118,2,-727,-8,-240,-342,3,1169,36,-4,0,-176,86,-585,411,97,0,655,0,708,-618,-976,-264,-308,-225,48,-616,12,-218,-406,-18,84,-481,-845,-44,-49,51,-570,-56,268,987,4,0,0,164,-188,917,-1187,163,0,214,0,-572,340,493,-162,140,682,-86,14,0,441,3,0,0,-45,1907,62,-196,0,137,2,137,-270,0,62,0,0,33,633,555,-138,0,-908,0,0,0,0,0,0,0,0,142,51,-303,-2,-81,81,-466,-525,0,932,0,0,140,-622,-984,0,-25,0,419,0,-690,191,-26,0,0,0,1112,654,487,-534,485,604,-326,-756,-177,-22,-96,-242,-66,-61,-120,-109,31,36,-11,-233,-210,-760,-379,-11,-4,340,17,1139,15,-406,36,-178,0,1085,-352,-162,796,-60,-1013,818,397,82,-272,348,-209,-256,-115,-465,-151,-131,-39,842,429,544,110,723,258,574,363,112,-1314,365,-480,-16,-214,0,10,10,10,10,10,10,10,-81,-24,3,45,-42,-9,10,7,-24,-14,4,26,-6,12,14,48,28,57,111,6,10,35,-79,2,-39,-560,-918
0,557,-797,-1288,1123,-719,390,92,-2148,1189,-58,157,-331,1039,325,2445,549,-907,0,-77,-562,1695,859,-1013,-36,0,2403,844,-177,-461,-1234,0,-932,0,176,63,301,-1527,418,-1495,923,1331,45,-231,366,-262,-936,895,274,-788,194,0,-196,-972,325,-249,0,478,0,-1707,-1755,-627,847,-2341,0,-641,0,-897,-152,1020,2151,603,-409,521,-2600,112,435,258,155,578,46,-1671,121,-944,0,-330,-969,-393,-53,-1182,-1,121,-1410,-661,438,-330,-185,0,1340,0,0,0,0,0,0,0,0,-702,119,-1289,546,496,838,554,1412,0,736,0,0,149,124,3,0,-3,0,508,-388,526,-585,507,0,-1,0,-204,-69,-1771,-1559,-35,956,496,1130,804,-859,448,-44,-372,76,-1789,624,416,0,486,-2605,1289,-926,384,227,189,-1684,-1710,-100,-1113,-299,-208,-607,0,-328,941,510,-461,-259,302,-1630,-391,-390,1082,50,996,673,-1886,319,644,-276,-380,265,599,1241,873,-23,-65,830,-479,53,570,1652,472,938,1195,0,1,1,1,1,1,1,1,-338,177,-61,96,101,182,1,99,115,-3,-38,-171,-436,425,51,170,60,114,-134,-304,63,1,-308,73,75,746,1730
0,190,1019,-1341,391,-673,-720,-951,753,37,855,403,-952,-68,323,-99,89,396,-163,-315,-756,-526,-462,-1009,-967,0,1286,1419,963,131,10,-2,70,0,408,886,795,393,-318,56,-117,-1807,-431,-2093,-613,-486,-395,-151,-1880,-21,-703,-4,-433,1674,250,-162,-449,728,95,-1115,-1812,-317,-867,896,407,-358,0,-484,367,438,10,-269,1290,2542,-377,-184,51,-211,211,-45,-382,-562,410,875,393,228,97,-96,1072,753,-375,0,-294,-709,-340,426,-523,-5,-21,0,0,0,0,0,0,0,0,1498,277,-916,0,-165,-935,-780,-1222,-199,-699,0,0,-810,-579,-421,0,-424,0,-438,619,-74,17,-2596,0,0,0,280,-37,-556,418,-985,-283,-606,-1421,2047,1143,260,274,-594,176,-362,-137,255,522,972,165,1176,188,201,522,-72,269,791,-1303,-1015,-1121,-47,-836,0,-347,-272,121,936,2261,-966,1202,874,616,84,914,493,270,759,-805,790,494,952,317,600,96,1192,-800,-484,-23,-471,1631,470,988,410,-623,-81,0,2,2,2,2,2,2,2,-48,281,-65,61,-69,-174,2,-493,65,42,170,187,97,-12,352,-163,-100,0,-107,167,-86,-32,2,-27,-30,909,793
0,8,-736,-37,-208,-61,-324,-44,-84,15,-66,-4,0,0,-466,-32,-7,-75,0,0,-95,0,-55,-13,0,0,20,-76,0,0,70,-11,323,0,-114,162,-254,-41,-242,-201,-16,-10,6,-1,-28,0,-12,28,236,25,133,0,0,-236,0,10,0,0,0,-27,543,0,0,-133,-3,-154,0,-104,-442,-24,-62,0,-192,-31,-90,-12,0,0,0,-12,-230,-302,0,-98,0,0,-16,0,-44,-51,0,0,-24,-101,0,0,-24,-11,-90,0,0,0,0,0,0,0,0,106,0,-1,0,0,-32,99,305,0,0,0,0,232,10,-1,0,0,0,-11,-328,0,0,89,0,0,0,-363,23,67,-218,59,-438,-910,156,-6,-59,-32,0,-44,-82,62,-28,-192,0,0,-42,20,-53,-175,-16,0,-347,32,-22,0,-47,-25,79,0,-39,1325,220,80,220,1131,335,42,187,-113,-256,0,-30,621,-369,-540,-68,540,-10,-223,710,-417,-113,-214,-120,679,450,242,0,55,20,396,0,-3,-3,-3,-3,-3,-3,-3,12,19,-24,-32,0,-13,-3,-10,-55,-30,54,-1,-38,74,-56,-44,-23,-12,29,52,22,0,1,-3,51,-824,-1
0,-955,-246,-12,-37,-17,-157,-6,-28,-1,-354,-358,0,-9,212,-141,0,-103,-24,-5,-58,-4,-9,0,-1,0,-43,148,0,-6,-528,-12,-2,0,99,202,243,-46,-35,-235,1099,-595,-53,-110,590,-22,0,-13,-8,-7,-248,98,-1,-5,-3,-21,0,0,0,-7,-257,0,-31,-21,0,1,0,-17,-8,-15,-5,-1,-3,-679,-2,0,-83,-10,0,-1,-30,0,0,0,0,-4,-7,0,-4,-1,0,0,0,-10,0,-3,-84,-1,0,0,0,0,0,0,0,0,0,105,0,315,0,0,-23,-292,-146,0,358,0,0,-106,-3,-2,0,0,0,-20,628,-7,-3,206,0,0,0,730,79,248,-298,-117,-323,105,-202,64,2,-21,-54,-79,44,-156,-1,-86,-6,-21,-170,-11,-36,-7,-1,0,-77,235,-91,-22,754,-6,-123,0,127,-103,-444,244,178,726,203,662,374,450,332,38,582,91,-309,398,139,102,-347,-444,401,-406,392,-628,-270,-463,146,-102,-365,443,139,171,0,1,1,1,1,1,1,1,-6,49,22,40,-4,47,1,-76,39,6,17,-49,-79,38,-48,48,-63,-27,-61,89,-20,-43,77,12,1,-25,76
