0,0,0,0,0,0,0,0,0,0,0,0,0,0,0,0,0,0,0,0,0,0,0,0,0,0,0,0,0,0,0,0,0,0,0,0,0,0,0,0,0,0,0,0,0,0,0,0,0,0,0,0,0,0,0,0,0,0,0,0,0,0,0,0,0,0,0,0,0,0,0,0,0,0,0,0,0,0,0,0,0,0,0,0,0,0,0,0,0,0,0,0,0,0,0,0,0,0,0,0,0,0,0,0,0,0,0,0,0,0,0,0,0,0,0,0,0,0,0,0,0,0,0,0,0,0,0,0,0,0,0,0,0,0,0,0,0,0,0,0,0,0,0,0,0,0,0,0,0,0,0,0,0,0,0,0,0,0,0,0,0,0,0,0,0,0,0,0,0,0,0,0,0,0,0,0,0,0,0,0,0,0,0,0,0,0,0,0,0,0,0,0,0,0,0,0,0,0,0,0,0,0,0,0,0,0,0,0,0,0,0,0,0,0,0,0,0,0,0,0,0,0,0,0,0,0,0,0,0,0,0,0,0
0,0,0,0,0,0,0,0,0,0,0,0,0,0,0,0,0,0,0,0,0,0,0,0,0,0,0,0,0,0,0,0,0,0,0,0,0,0,0,0,0,0,0,0,0,0,0,0,0,0,0,0,0,0,0,0,0,0,0,0,0,0,0,0,0,0,0,0,0,0,0,0,0,0,0,0,0,0,0,0,0,0,0,0,0,0,0,0,0,0,0,0,0,0,0,0,0,0,0,0,0,0,0,0,0,0,0,0,0,0,0,0,0,0,0,0,0,0,0,0,0,0,0,0,0,0,0,0,0,0,0,0,0,0,0,0,0,0,0,0,0,0,0,0,0,0,0,0,0,0,0,0,0,0,0,0,0,0,0,0,0,0,0,0,0,0,0,0,0,0,0,0,0,0,0,0,0,0,0,0,0,0,0,0,0,0,0,0,0,0,0,0,0,0,0,0,0,0,0,0,0,0,0,0,0,0,0,0,0,0,0,0,0,0,0,0,0,0,0,0,0,0,0,0,0,0,0,0,0,0,0,0,0
0,0,0,0,0,0,0,0,0,0,0,0,0,0,0,0,0,0,0,0,0,0,0,0,0,0,0,0,0,0,0,0,0,0,0,0,0,0,0,0,0,0,0,0,0,0,0,0,0,0,0,0,0,0,0,0,0,0,0,0,0,0,0,0,0,0,0,0,0,0,0,0,0,0,0,0,0,0,0,0,0,0,0,0,0,0,0,0,0,0,0,0,0,0,0,0,0,0,0,0,0,0,0,0,0,0,0,0,0,0,0,0,0,0,0,0,0,0,0,0,0,0,0,0,0,0,0,0,0,0,0,0,0,0,0,0,0,0,0,0,0,0,0,0,0,0,0,0,0,0,0,0,0,0,0,0,0,0,0,0,0,0,0,0,0,0,0,0,0,0,0,0,0,0,0,0,0,0,0,0,0,0,0,0,0,0,0,0,0,0,0,0,0,0,0,0,0,0,0,0,0,0,0,0,0,0,0,0,0,0,0,0,0,0,0,0,0,0,0,0,0,0,0,0,0,0,0,0,0,0,0,0,0
0,0,0,0,0,0,0,0,0,0,0,0,0,0,0,0,0,0,0,0,0,0,0,0,0,0,0,0,0,0,0,0,0,0,0,0,0,0,0,0,0,0,0,0,0,0,0,0,0,0,0,0,0,0,0,0,0,0,0,0,0,0,0,0,0,0,0,0,0,0,0,0,0,0,0,0,0,0,0,0,0,0,0,0,0,0,0,0,0,0,0,0,0,0,0,0,0,0,0,0,0,0,0,0,0,0,0,0,0,0,0,0,0,0,0,0,0,0,0,0,0,0,0,0,0,0,0,0,0,0,0,0,0,0,0,0,0,0,0,0,0,0,0,0,0,0,0,0,0,0,0,0,0,0,0,0,0,0,0,0,0,0,0,0,0,0,0,0,0,0,0,0,0,0,0,0,0,0,0,0,0,0,0,0,0,0,0,0,0,0,0,0,0,0,0,0,0,0,0,0,0,0,0,0,0,0,0,0,0,0,0,0,0,0,0,0,0,0,0,0,0,0,0,0,0,0,0,0,0,0,0,0,0
0,0,0,0,0,0,0,0,0,0,0,0,0,0,0,0,0,0,0,0,0,0,0,0,0,0,0,0,0,0,0,0,0,0,0,0,0,0,0,0,0,0,0,0,0,0,0,0,0,0,0,0,0,0,0,0,0,0,0,0,0,0,0,0,0,0,0,0,0,0,0,0,0,0,0,0,0,0,0,0,0,0,0,0,0,0,0,0,0,0,0,0,0,0,0,0,0,0,0,0,0,0,0,0,0,0,0,0,0,0,0,0,0,0,0,0,0,0,0,0,0,0,0,0,0,0,0,0,0,0,0,0,0,0,0,0,0,0,0,0,0,0,0,0,0,0,0,0,0,0,0,0,0,0,0,0,0,0,0,0,0,0,0,0,0,0,0,0,0,0,0,0,0,0,0,0,0,0,0,0,0,0,0,0,0,0,0,0,0,0,0,0,0,0,0,0,0,0,0,0,0,0,0,0,0,0,0,0,0,0,0,0,0,0,0,0,0,0,0,0,0,0,0,0,0,0,0,0,0,0,0,0,0
0,0,0,0,0,0,0,0,0,0,0,0,0,0,0,0,0,0,0,0,0,0,0,0,0,0,0,0,0,0,0,0,0,0,0,0,0,0,0,0,0,0,0,0,0,0,0,0,0,0,0,0,0,0,0,0,0,0,0,0,0,0,0,0,0,0,0,0,0,0,0,0,0,0,0,0,0,0,0,0,0,0,0,0,0,0,0,0,0,0,0,0,0,0,0,0,0,0,0,0,0,0,0,0,0,0,0,0,0,0,0,0,0,0,0,0,0,0,0,0,0,0,0,0,0,0,0,0,0,0,0,0,0,0,0,0,0,0,0,0,0,0,0,0,0,0,0,0,0,0,0,0,0,0,0,0,0,0,0,0,0,0,0,0,0,0,0,0,0,0,0,0,0,0,0,0,0,0,0,0,0,0,0,0,0,0,0,0,0,0,0,0,0,0,0,0,0,0,0,0,0,0,0,0,0,0,0,0,0,0,0,0,0,0,0,0,0,0,0,0,0,0,0,0,0,0,0,0,0,0,0,0,0
0,0,0,0,0,0,0,0,0,0,0,0,0,0,0,0,0,0,0,0,0,0,0,0,0,0,0,0,0,0,0,0,0,0,0,0,0,0,0,0,0,0,0,0,0,0,0,0,0,0,0,0,0,0,0,0,0,0,0,0,0,0,0,0,0,0,0,0,0,0,0,0,0,0,0,0,0,0,0,0,0,0,0,0,0,0,0,0,0,0,0,0,0,0,0,0,0,0,0,0,0,0,0,0,0,0,0,0,0,0,0,0,0,0,0,0,0,0,0,0,0,0,0,0,0,0,0,0,0,0,0,0,0,0,0,0,0,0,0,0,0,0,0,0,0,0,0,0,0,0,0,0,0,0,0,0,0,0,0,0,0,0,0,0,0,0,0,0,0,0,0,0,0,0,0,0,0,0,0,0,0,0,0,0,0,0,0,0,0,0,0,0,0,0,0,0,0,0,0,0,0,0,0,0,0,0,0,0,0,0,0,0,0,0,0,0,0,0,0,0,0,0,0,0,0,0,0,0,0,0,0,0,0
0,2041,-142,98,-2200,82,-47,-2887,1595,-465,-3109,824,-1336,1959,58,-1394,1391,-752,-462,-104,238,122,-1354,-579,518,0,-1190,558,300,-1432,2610,1003,-288,0,-108,10,182,-748,-1318,-256,479,130,2749,2099,895,1283,672,215,1024,-3065,-1422,-516,-83,-582,-1279,623,1670,-1685,0,-794,23,-1592,2867,143,164,464,0,523,988,-220,-99,-202,-10,-1453,180,37,-750,9,0,194,-1910,-528,-601,-745,-477,-149,-1330,-467,1548,-215,997,0,971,528,-578,-934,1448,4,-971,0,0,0,0,0,0,0,0,-1154,-261,802,0,0,-973,-1837,-175,0,421,0,0,-328,-781,285,0,1013,0,1658,2445,-1517,-506,58,-295,0,0,484,330,498,997,594,304,-261,-932,-3344,-480,395,64,-278,1560,626,373,936,-335,-194,-1159,-1952,-376,-3110,1179,-500,1296,-1645,-1465,-1897,-2176,-1655,-651,0,1409,302,-766,-1590,196,1085,356,-629,-328,495,-267,-223,66,275,17,-108,265,330,-779,241,171,409,50,-102,-530,-809,807,152,82,-1466,-401,-543,0,-81,-81,-81,-81,-81,-81,-81,-81,-261,-68,-33,-92,164,-81,-43,-201,-176,-146,758,-292,-366,115,-273,192,-103,684,137,-470,-182,392,-118,-266,339,1218
0,-1860,-828,-365,-1198,1857,37,1890,881,2501,796,12,-3,-1530,503,514,72,-254,-14,-84,-1012,-242,-609,269,35,-8,-99,-32,-149,600,-1207,-117,-653,0,595,256,833,1049,-200,1845,-66,-2064,1400,2910,758,-1163,1670,437,-1040,159,1679,-452,-114,84,1427,-352,1000,-40,-15,1048,-1612,-78,-1926,-180,-150,1811,0,804,1271,-1497,723,133,-1012,-2105,-1337,-532,-768,-861,-6,-364,-1244,1535,549,-133,-9,-233,1748,-132,-812,-268,-155,0,668,503,-75,305,64,-65,-140,0,0,0,0,0,0,0,0,1527,-613,-400,-790,-6,1246,470,-352,0,164,0,0,237,-925,-2208,0,-96,0,307,705,-716,-483,185,1,0,0,-825,-1734,1887,376,1395,606,-407,-1657,-26,900,1,-374,-624,-73,-626,-177,-1064,0,627,-876,443,1110,302,-453,1236,-108,372,41,-1510,666,99,-1907,0,662,180,712,27,-2697,-1411,-1327,600,10,-379,889,-122,1090,616,1199,404,626,1205,893,1489,-376,-383,495,713,364,324,-441,314,-626,420,752,-154,0,61,61,61,61,61,61,61,-205,61,440,13,-86,142,61,123,161,72,73,168,167,15,-197,231,-26,-48,-19,-25,-63,-364,-95,52,-41,87,-646
0,-414,1497,1948,994,385,-53,1347,328,112,1565,624,-301,-793,2038,-1096,22,912,-397,251,-750,893,-1073,172,424,0,-3052,1284,-2577,178,960,0,-941,0,364,-603,-972,1692,-132,-504,637,1366,-1592,1556,-1509,254,-22,-1269,342,1164,-1479,653,-360,-1098,-3586,-200,-6,46,0,910,341,910,807,-960,-15,400,0,-790,-969,-2238,-27,886,-1501,668,-534,193,870,538,1137,0,1143,681,330,1072,-110,-861,1409,1004,-854,-589,317,0,27,-462,618,-773,402,0,321,0,0,0,0,0,0,0,0,-1382,-890,-4284,0,359,1949,820,1149,0,-1363,0,0,-615,-429,660,0,-55,0,766,-773,135,-221,2243,0,0,0,1234,-451,-713,-198,-830,1377,-53,-589,3108,675,104,204,821,-1314,-2480,-235,-312,0,-168,1549,-361,172,84,0,306,511,752,-871,556,1218,-277,933,0,491,-562,-567,1112,-61,-161,517,-929,292,1143,-616,-283,5,-797,-696,-455,898,-766,-558,1255,-365,214,-469,48,-293,1401,-322,198,-797,687,232,459,0,31,31,31,31,31,31,31,-174,409,31,-143,137,196,31,-210,-40,-19,-62,-350,175,-274,-166,-101,78,88,102,82,-147,-25,506,-6,192,1101,-76
0,225,-1251,-317,-379,-165,-430,594,315,147,-334,-15,342,-71,-43,-841,-6,-2145,-15,1927,107,35,780,-1,-10,0,450,-844,-174,-239,99,0,581,0,3323,1027,98,-30,-198,888,-730,242,223,-781,-5,551,-47,4353,-769,-14,415,-57,-422,-847,129,-1400,0,-8,0,-54,663,-408,31,221,-94,-709,0,-658,286,397,-29,-32,-77,-13,-88,216,-231,0,-161,-1,-1461,-197,-1,1690,-7,-443,-440,-191,-79,138,59,0,-311,-31,53,-15,-177,0,-10,0,0,0,0,0,0,0,0,206,-118,1416,0,0,53,-1231,165,0,-435,0,0,1008,110,814,0,-5,0,522,427,826,-25,-1796,-2,0,0,1770,-382,395,-1155,-746,-353,757,750,190,25,211,72,-78,-166,-261,-273,1038,0,-463,153,-87,21,1885,-102,-471,42,-449,-143,75,-328,386,-216,0,218,845,-534,1206,1101,-4,-514,-305,479,-925,-155,356,-726,-1502,953,-286,729,-481,-901,-991,334,1424,-926,-284,221,976,-675,-764,-57,-179,1010,-818,0,-5,-5,-5,-5,-5,-5,-5,112,119,-89,-5,116,-87,-5,-95,-58,126,-56,-56,-101,33,156,137,-35,-25,162,-91,-61,-23,-216,130,-138,-474,74
0,59,217,-429,804,191,1998,-293,-197,-78,-936,-135,-1327,-4,-418,-1173,-31,125,0,0,181,-141,221,164,432,0,266,-1184,242,-275,-154,0,201,0,-1371,2185,-440,-1332,257,-363,0,-71,-190,-514,212,1416,-4,602,898,-22,156,0,-438,-1769,111,694,0,-885,0,838,1111,-143,-281,28,0,-40,0,664,-951,-1988,1029,143,-379,-158,0,-52,1223,-29,618,-4,489,-1195,0,-84,0,0,777,660,660,0,-28,0,94,-28,-491,2,-381,0,-526,0,0,0,0,0,0,0,0,-311,126,990,0,-1748,0,54,324,0,216,0,0,1053,-252,-696,0,705,0,-431,246,99,513,569,0,0,0,-1172,-1274,1332,640,-597,290,615,-371,-282,-1129,-3,-157,77,205,205,-20,-68,1,0,-165,459,597,376,-64,-1273,282,-651,-167,117,328,0,50,0,-383,-267,2678,-796,46,-1506,631,-370,149,-54,785,1248,165,-882,1271,133,-665,-361,-195,3,163,204,-532,790,163,-889,686,-80,-16,-520,-640,401,0,5,5,5,5,5,5,5,-132,-32,-42,83,5,23,5,33,6,-32,-36,-51,8,100,168,1,95,-111,16,18,-54,6,-13,-64,50,551,-167
0,1689,1390,-494,2477,85,-1107,-462,-54,-2012,1625,851,0,1396,-960,2112,1225,30,0,146,1489,0,61,46,-555,0,-28,386,156,555,202,17,1032,0,-2342,1620,-218,473,8,1041,283,214,1360,-398,-1317,4,78,-1867,829,-1091,2341,0,737,335,0,-98,1150,976,0,672,-243,144,-1167,242,-124,-930,0,1681,645,784,970,96,-34,2527,507,515,-120,543,0,-913,465,46,-144,-277,0,0,-430,0,-235,327,-174,0,117,-36,-117,708,-836,0,13,0,0,0,0,0,0,0,0,-2658,-1032,562,0,0,-897,854,-1540,0,-776,0,0,14,0,-63,0,0,0,-1777,-109,-884,-746,1527,0,0,0,-414,-1348,-246,-1481,461,-1174,-892,451,-694,-88,74,17,463,397,1337,268,104,0,-40,662,-156,647,-424,1314,0,-238,-392,-822,598,-907,-271,499,0,529,190,-14,-723,-738,573,630,-270,-681,-764,-1304,-621,-237,881,876,-1748,-489,270,-1167,260,276,-898,-243,-1261,-620,694,-548,603,-348,407,198,-349,0,-11,-11,-11,-11,-11,-11,-11,-181,-247,155,-91,-60,-11,-11,366,-149,12,27,89,233,12,-55,107,30,-62,-56,-96,-92,-40,82,-18,-54,2559,412
0,-1413,396,860,-222,-1843,97,864,27,-767,-408,-709,1600,-5025,1201,78,-1803,-1693,-374,-498,735,-2696,270,-228,436,0,738,703,1445,225,-1545,286,642,0,1155,-1119,-147,-2181,-197,301,-1367,3933,-1329,1393,296,-4,1593,3342,2395,-441,1761,804,1557,3096,-1108,1723,-912,3089,0,1705,3362,2057,991,-303,1211,2625,0,526,329,-1985,-1529,720,-435,909,2697,-638,1451,-1110,-595,-2193,640,438,723,-1075,-300,2741,277,-93,-3311,839,-2480,0,-718,-1502,1726,1907,138,98,663,0,0,0,0,0,0,0,0,764,107,746,-298,689,254,-3717,-58,0,914,-2135,0,-1838,4444,573,0,-557,0,-67,1312,2128,-1120,-774,0,-138,0,-513,297,-705,-635,1059,104,733,-811,296,-201,570,-890,-854,-520,-968,-108,-433,-409,1096,-91,-2157,2897,-2269,895,1026,-259,158,1304,4924,1103,-170,552,0,1703,-381,-256,-1627,525,387,445,-500,-636,12,84,-420,-625,293,205,-234,24,-456,-13,-179,69,-1181,-802,18,-363,-45,-387,-965,-1207,189,65,-120,0,33,33,33,33,33,33,33,611,-519,253,67,67,-685,33,209,-45,124,-287,-458,200,-126,-103,-923,157,94,-158,498,758,572,-431,149,273,667,3591
0,-851,1505,-1147,1386,-670,1760,545,503,862,284,-2674,1358,1333,1431,669,695,1923,-32,791,-1541,0,-878,1252,235,141,-21,-1539,-1646,-843,785,536,-89,0,-518,-1013,-522,100,-543,-665,2591,-840,-1046,-1521,2003,-1788,-1109,-3627,857,-168,-1708,183,-1171,642,0,-1914,457,-1744,140,-22,-311,1613,801,-431,-1070,-128,0,-324,-547,2856,1002,-202,-167,-1472,1201,148,192,1201,-487,-771,70,215,-195,1782,919,-1196,-475,0,3105,-1033,-835,0,597,1075,-2,1377,-1163,-173,-66,0,0,0,0,0,0,0,0,-170,-584,1592,0,1956,752,-867,-2206,0,64,0,0,2123,0,605,0,647,0,1806,795,1402,-519,-1617,0,0,0,46,-126,-541,-526,1062,543,-720,1153,316,2629,-1114,339,-1321,2019,768,990,-1823,5,-2347,484,-734,-1600,1846,-1454,2738,1258,877,589,47,1346,61,681,0,1241,-1443,374,275,721,-71,-479,703,-14,722,-248,516,186,1433,157,-478,-364,-175,721,-43,594,729,140,951,80,-905,-310,-97,837,-255,-594,112,0,46,46,46,46,46,46,46,255,-13,284,-121,193,-93,46,46,26,-171,90,-691,119,-14,-281,462,-220,310,250,51,194,170,-248,-124,-60,250,-2661
0,316,-1155,1231,177,-293,600,90,193,223,627,-58,-3,-32,-958,-355,0,45,0,0,-338,0,-28,-30,0,0,176,86,-154,24,834,-15,-39,0,509,1182,146,-646,257,454,180,-2086,839,-94,-245,543,-1202,682,948,-42,-663,0,-9,1407,0,8,-554,-15,0,-846,52,1499,-1100,-724,-65,95,0,-932,-442,-1508,-428,-2,415,0,-494,-75,-88,-2,0,631,-1160,-6,0,-27,0,0,-589,0,0,-66,0,0,-21,0,-6,-917,-66,-5,-95,0,0,0,0,0,0,0,0,1148,-324,-568,0,0,1181,753,253,0,-90,0,0,677,0,458,0,-9,0,-446,-27,-1279,2182,-512,0,0,0,-443,89,-621,1215,-427,-655,252,398,-458,-135,-179,0,-438,1066,226,-268,-21,0,67,348,2,-112,-630,0,0,-233,88,89,-17,-698,-115,168,0,114,1090,1363,-493,129,-1141,-873,261,468,531,-460,-53,-410,-803,-336,-110,178,590,65,505,-472,376,176,404,-130,230,11,352,-12,107,-1650,-261,0,-42,-42,-42,-42,-42,-42,-42,-58,4,6,-70,-3,-27,-42,73,-42,5,59,38,201,-47,3,-138,38,-13,-114,21,41,16,-129,-185,-57,-357,-61
0,489,354,-1254,3263,-294,-2845,-487,703,-171,-948,-1255,734,1432,-1625,-593,-26,596,310,-1301,329,690,-1285,1291,-141,0,-2560,-822,-820,-789,-1833,-491,465,0,-1353,467,-1849,-549,159,-145,802,-120,-2491,918,1197,-1616,935,-1037,2813,637,1424,-81,1013,-1348,380,471,-1101,-891,0,1723,1018,-1473,-207,-1236,-268,-23,0,-1034,-352,1441,103,-2,1250,-1445,-564,1307,-1233,-97,-258,-550,869,1846,-64,-2019,-249,-1206,-1451,-897,1353,283,32,0,21,1508,-441,495,-27,2,-813,0,0,0,0,0,0,0,0,-759,1244,-36,0,-80,36,1661,1596,0,-251,72,0,1342,-1638,-1908,0,-321,0,-851,-1048,-696,-847,1510,297,0,0,-284,-1647,1423,-107,216,-31,296,974,7,245,-195,-462,760,-542,176,-289,53,-22,-595,1237,375,1384,11,873,-713,-1220,-201,-836,-1790,-264,739,1251,0,47,595,872,-1616,-143,1706,-220,236,643,360,145,952,77,668,-1648,-208,-540,0,-389,661,-690,391,2076,78,-27,-103,245,606,168,360,691,-787,0,-8,-8,-8,-8,-8,-8,-8,47,8,2,19,-73,269,-8,419,5,-8,3,-97,77,-178,28,477,-37,-74,-299,70,-366,-297,-149,97,-15,37,-1759
0,-26,-250,-28,-65,-12,-603,-1,-116,-508,-555,167,0,0,-461,-78,0,-571,-18,0,-822,-427,-90,-68,-4,0,-48,-122,-8,0,-191,0,-43,0,-153,127,-38,17,0,-128,-668,-12,173,29,-85,0,0,279,-1,0,-83,4,-2,-535,150,-83,48,0,0,32,82,-4,0,293,0,62,0,40,-58,2,-62,0,-57,-27,2,0,757,0,0,0,562,-234,0,0,0,0,-61,-1,-58,64,-59,0,-6,1,-59,0,519,0,0,0,0,0,0,0,0,0,0,-66,361,356,-82,0,0,1004,-150,0,704,122,0,1315,497,3,0,0,0,-15,-464,-60,0,586,0,0,0,414,-99,-651,-180,-22,-535,1,-52,-20,24,-20,0,-18,-18,-221,0,7,0,0,90,-5,-186,-12,0,-63,0,9,44,0,437,0,679,0,204,400,798,2,66,1355,-62,-236,437,-271,-160,0,168,-1326,-506,270,213,-68,-577,313,466,-772,240,-677,-217,187,584,-113,0,-484,890,-508,0,4,4,4,4,4,4,4,-48,44,34,-20,0,15,4,-119,27,27,4,-67,30,68,-119,34,-74,-28,15,9,-20,0,116,89,19,-633,4
0,-1084,-1967,-38,-374,-297,-99,-288,-346,0,-148,49,-605,0,-468,854,0,59,95,-538,-810,-58,-40,5,0,0,-584,71,26,0,214,0,-705,0,166,721,729,926,10,-4,269,-902,49,-584,335,506,-257,-809,488,10,-709,2,-113,899,-176,-134,0,96,0,122,-1613,-240,139,-56,0,400,0,798,512,-331,-534,271,-48,-658,306,-7,42,-369,0,0,-157,693,0,187,0,344,0,117,-23,0,0,0,-29,311,-16,-139,-86,0,258,0,0,0,0,0,0,0,0,1287,0,-256,0,0,247,1528,-883,0,287,0,0,-308,-20,168,0,0,0,411,1086,208,39,-688,0,0,0,57,144,54,234,185,225,456,73,-29,-559,59,0,-64,-337,543,98,-13,2,10,-1075,268,201,0,-21,19,188,-245,-31,-52,-409,0,-37,0,528,776,-188,77,-41,54,-11,212,977,173,-84,-71,4,345,15,-618,-231,-599,-18,774,-871,948,203,1045,-129,-191,120,203,633,485,-840,681,0,16,16,16,16,16,16,16,63,99,-136,-1,-17,-7,16,171,-51,-42,-50,16,-52,-74,112,26,112,-11,3,-27,15,62,-54,-84,71,-481,-229
0,1036,-690,180,-3527,1434,2190,-1346,-775,2485,-1910,-315,897,-639,-464,-842,345,381,652,150,570,-1908,306,-952,-1416,-133,-1180,-1967,1458,307,2241,75,-2683,0,-1424,459,2415,-700,-352,-1374,-356,4048,-1111,-7,-436,476,2500,-1432,-399,839,-168,233,-1317,1336,3761,-1158,-54,-399,-121,1218,446,-809,1552,625,1352,-143,0,-1166,-319,-473,2806,-910,676,-2044,-1798,-764,-1218,-321,128,1631,1245,-2050,-644,50,-12,34,231,459,848,-337,2024,0,2403,272,-997,-1463,-289,-634,613,0,0,0,0,0,0,0,0,88,1077,1891,548,196,-1191,-558,1303,265,-654,242,0,-1799,262,1592,0,-244,0,1426,-848,-127,1392,193,0,163,0,-228,1560,19,381,588,-1110,454,-208,-514,-703,-530,1827,-1132,621,1052,-917,-1689,-272,1188,492,784,-310,-305,-1507,-1209,-446,-70,104,-1515,-1265,1075,-444,0,-283,858,1071,123,-40,253,-487,655,126,846,165,86,121,1276,706,-258,-308,1657,-1280,70,144,204,-1120,7,-132,-24,-71,-494,-113,-296,-208,151,0,90,90,90,90,90,90,90,201,404,-167,-13,361,129,90,-23,-37,-227,250,-512,90,350,390,-346,-129,-68,250,-233,-60,16,172,166,-154,519,-2105
0,282,-55,-900,-4,-37,-673,0,252,247,-71,417,-57,0,-359,0,0,581,-15,-9,365,-282,124,-43,-1,0,426,0,84,741,-532,0,-486,0,219,9,529,-307,-47,-493,0,243,-416,435,-332,-7,0,-420,0,0,-519,-5,0,-544,2,-408,0,-4,0,213,0,-17,-319,-2,0,6,0,-153,-1,370,-204,6,285,-2,-56,232,-1,-38,0,0,410,0,0,-35,0,-12,1071,432,-105,0,-52,0,-147,0,-93,-4,45,0,502,0,0,0,0,0,0,0,0,-632,-6,-24,-4,-51,0,-205,0,0,-17,0,0,-1377,-266,220,0,14,0,-499,0,-5,-45,330,0,0,0,246,378,-92,-176,-570,57,0,193,19,-4,-32,-17,-18,248,-42,-28,16,-4,-2,92,-220,-107,29,-46,0,-49,-1,-138,136,-171,0,10,0,121,45,208,57,680,856,42,870,313,-704,364,-328,338,389,-168,418,314,-526,472,123,377,258,-506,-155,-290,-132,-179,19,571,3,40,208,0,4,4,4,4,4,4,4,87,39,-47,37,-46,32,4,-21,39,34,-55,30,-27,4,-3,-65,-25,-29,-19,-18,-15,108,-32,4,24,-368,-6
0,1449,1733,1386,1459,-943,-673,-344,188,-977,-216,375,-105,28,488,1098,-60,1021,31,-645,115,-427,1921,365,-158,0,643,-272,336,298,584,43,53,0,534,-1986,-439,1324,1575,614,-478,-263,847,742,182,-194,42,452,-850,-13,335,-37,-154,-353,-1095,114,0,-392,0,-275,607,-1480,-633,-516,-1,-383,0,-318,-109,31,-2166,339,-579,-94,-12,-27,-120,-599,403,29,1187,-491,74,-621,-104,-2,336,116,-1754,-63,-38,0,147,263,-457,-750,-450,45,424,0,0,0,0,0,0,0,0,157,-30,-839,-7,-374,-257,-1305,1007,0,-397,0,0,-605,1571,30,0,516,0,-11,-594,320,278,-1379,0,0,0,-92,1278,311,-445,-863,1107,1095,453,-143,1221,-20,-214,-159,122,-73,-199,62,-37,-64,359,217,-49,723,-430,12,-87,-37,-238,230,1843,287,162,0,884,-295,-377,639,84,-224,815,687,-807,-11,-199,-556,437,-762,-31,908,1199,-783,752,-2102,8,-8,-841,602,1248,23,533,-1,687,-256,526,-304,0,24,24,24,24,24,24,24,121,-104,76,-30,-104,12,24,66,71,160,-93,-12,-225,39,24,51,16,126,50,50,-152,11,-18,90,-9,-1235,-220
0,0,0,0,0,0,0,0,0,0,0,0,0,0,0,0,0,0,0,0,0,0,0,0,0,0,0,0,0,0,0,0,0,0,0,0,0,0,0,0,0,0,0,0,0,0,0,0,0,0,0,0,0,0,0,0,0,0,0,0,0,0,0,0,0,0,0,0,0,0,0,0,0,0,0,0,0,0,0,0,0,0,0,0,0,0,0,0,0,0,0,0,0,0,0,0,0,0,0,0,0,0,0,0,0,0,0,0,0,0,0,0,0,0,0,0,0,0,0,0,0,0,0,0,0,0,0,0,0,0,0,0,0,0,0,0,0,0,0,0,0,0,0,0,0,0,0,0,0,0,0,0,0,0,0,0,0,0,0,0,0,0,0,0,0,0,0,0,0,0,0,0,0,0,0,0,0,0,0,0,0,0,0,0,0,0,0,0,0,0,0,0,0,0,0,0,0,0,0,0,0,0,0,0,0,0,0,0,0,0,0,0,0,0,0,0,0,0,0,0,0,0,0,0,0,0,0,0,0,0,0,0,0
0,382,-1503,-1011,-620,305,-787,0,-624,252,-20,506,22,-11,-2010,-1968,0,471,0,0,-260,380,-34,74,34,0,-1587,91,-676,-258,311,0,-409,0,-2098,1629,471,222,-746,-1193,0,1287,-1094,24,-603,667,438,967,1809,-41,-423,0,-49,-239,1104,-301,74,858,0,315,-404,0,131,1367,0,538,0,1670,-983,201,328,-51,386,0,-234,12,0,255,-610,-321,-1645,-910,0,363,0,0,-354,-315,12,0,0,0,-428,0,575,-16,152,0,-121,0,0,0,0,0,0,0,0,196,307,-192,5,-132,-218,859,1002,0,-275,0,0,766,-700,644,0,-909,0,1202,270,-608,0,-812,0,0,0,1873,987,1403,30,-487,672,-156,878,147,-146,-79,202,-354,808,1422,-82,534,0,-428,-731,355,370,444,607,-467,-143,0,503,-103,718,0,-19,0,-503,1756,-502,94,939,1161,106,-633,-684,304,-80,-1019,646,831,-425,413,-960,-490,618,-422,126,-1397,1544,-780,-303,731,-387,-254,-674,-1396,40,91,0,-5,-5,-5,-5,-5,-5,-5,87,-78,-3,0,-87,18,-5,93,29,-29,-49,8,-124,95,-78,267,-5,-77,23,-43,-46,-92,34,4,8,218,-105
0,14,14,14,28,0,0,0,28,-6,0,0,0,0,0,-3,0,0,0,0,0,0,0,0,0,0,14,0,0,0,0,0,0,0,14,0,-3,14,0,-3,0,0,-2,0,0,0,0,0,0,0,0,0,0,-7,0,0,0,0,10,14,0,0,0,0,0,0,0,14,56,0,0,14,28,0,28,14,0,0,0,0,14,0,14,0,0,0,14,0,0,0,0,0,0,0,0,14,0,0,0,0,0,0,0,0,0,0,0,0,0,0,0,0,0,10,-3,0,0,0,0,0,0,0,0,0,0,0,0,0,0,0,0,0,0,93,56,53,40,0,64,0,42,22,-8,0,0,0,-11,0,0,0,0,0,-4,0,0,0,0,0,0,0,0,28,-4,0,-1,0,460,160,111,80,66,-9,100,42,85,-32,0,0,0,87,-34,126,140,0,0,97,0,-37,0,100,93,112,0,0,98,-32,0,-32,0,10,10,10,10,10,10,10,14,10,-4,0,0,0,10,-4,14,14,0,0,10,0,-4,0,10,10,14,0,0,14,-4,0,-4,214,0
0,1048,359,1784,-2209,2036,1243,679,1230,-3066,732,1595,-783,344,358,1828,-1864,1004,15,-591,-121,682,-1685,1051,1253,0,2604,684,598,1047,1653,-1122,-250,0,1514,-2533,-839,2180,1590,3271,-994,-1490,2135,-1303,-108,-323,-3302,1939,-5913,2317,-423,-33,-11,1828,-43,2350,-1022,-1035,-14,-406,-2124,-612,367,1222,-405,-1239,0,1293,703,513,-2541,-1482,-1680,212,591,-615,180,59,-137,2172,26,920,-519,473,0,-122,2199,-437,54,1259,286,0,1111,-589,16,-491,-833,566,1184,0,0,0,0,0,0,0,0,1176,-658,422,0,31,-374,-38,440,0,-590,14,0,-1126,-564,1595,0,444,0,-2126,-1186,-102,-1634,1291,0,-5,0,66,444,-178,1139,-1239,-2276,-914,-1430,-16,-663,354,-370,2042,-1559,-1344,408,1808,0,-58,1352,-840,-565,-1963,-609,-150,-912,1064,1648,1164,251,-258,213,0,-333,637,-1142,2686,-785,-127,82,983,1438,312,-63,352,-162,-138,799,8,-22,574,832,-1342,-1018,481,211,445,-166,906,1215,642,127,193,-481,142,0,15,15,15,15,15,15,15,106,-208,-32,177,-114,72,15,-327,35,225,57,-110,279,-222,158,-278,44,-33,15,-156,219,58,233,-170,107,1421,1030
0,-236,-811,1330,-1277,370,-1472,479,-1542,129,1542,-378,1340,1280,1849,-626,-231,-799,617,280,2339,572,1315,-1083,-210,0,616,-720,-4,166,-1430,-201,630,0,160,-1816,-909,89,-232,-1285,-271,-929,-367,-191,-813,-693,-1351,-3506,-1794,274,-427,-969,1648,-1786,-173,-1644,-321,857,0,-2244,1949,-10,-594,-7,-637,461,0,-249,954,1085,-1011,-100,911,2439,2468,118,-1419,246,-91,-680,130,297,-538,-292,-89,482,-237,84,-709,-470,1,-46,-1532,134,0,-195,2089,175,-895,0,0,0,0,0,0,0,0,-1098,550,-464,0,-137,-1340,2977,-2140,0,170,1692,0,2259,383,-34,0,-529,0,-1995,-1884,-8,2053,731,0,36,0,-1956,-395,-1498,2627,835,281,1332,2074,-1816,-1312,-42,740,1982,-1882,1635,-441,404,814,96,-1007,-312,-1500,1326,71,-440,1564,1824,545,626,-1720,277,-22,0,943,1711,-1030,458,-1153,185,1691,-823,-1157,-285,167,348,-771,82,-172,446,647,165,541,-128,-394,-136,-396,-170,-664,390,-1553,-433,-266,707,106,221,0,-35,-35,-35,-35,-35,-35,-35,15,-260,-245,-2,166,-88,-35,-280,-49,-67,223,640,144,16,-200,-118,2,-115,-345,-35,9,179,37,-28,86,-681,1684
0,17,821,-122,560,15,6,32,87,124,920,216,213,519,724,243,1,-520,-6,-229,916,182,1911,4,-29,0,-433,13,-836,465,-158,0,1349,0,474,-700,-1485,-352,-227,-1310,2,-363,-60,-377,-895,373,151,-252,-809,-126,-650,71,-387,-375,407,765,0,0,0,525,12,945,-1620,283,0,-324,0,-286,1037,1475,119,285,1446,11,128,0,541,257,0,186,723,1779,146,126,13,124,198,124,-855,0,301,0,-2,4,291,817,-24,0,-997,0,0,0,0,0,0,0,0,104,-80,-284,-161,-615,-464,-663,-712,0,1078,0,0,-749,-1082,-687,0,-49,0,303,0,-672,302,-17,0,0,0,1102,783,349,-629,-646,521,48,-114,-118,3,-24,-402,119,-159,-191,-26,-8,3,0,10,-103,-381,12,145,-37,173,32,1316,24,-505,14,-146,0,1538,-1371,57,791,797,-375,111,208,24,-533,420,-399,-551,-93,-290,-575,-16,39,697,430,462,-389,72,532,97,124,139,-764,762,-549,-264,389,0,28,28,28,28,28,28,28,5,-16,27,56,-83,-4,28,2,-58,1,12,25,43,-1,38,11,90,6,69,20,28,75,-97,-25,28,-833,-1021
0,-233,-817,-1354,1670,-1042,219,395,-2374,1726,194,-482,-775,964,328,1951,783,-87,0,455,-1765,1192,816,-1036,31,0,3925,1723,1626,-214,-2133,0,-539,0,-198,-184,444,-1750,973,-626,-1355,1762,356,-1432,722,-598,-1323,481,1224,-913,859,0,-317,-1450,202,625,0,813,0,-2586,-1290,81,1139,-1455,0,-1589,0,-985,-465,744,1993,248,-96,1047,-1222,71,797,258,18,635,123,-2089,60,-1297,0,-642,-1019,-435,494,-526,-68,46,-1676,-1028,469,180,-28,0,1641,0,0,0,0,0,0,0,0,-324,321,-2631,797,366,1494,35,1463,0,671,0,0,-141,718,-1419,0,-131,0,-14,-263,1199,-983,206,0,-56,0,-133,697,-1733,-1233,541,545,667,1146,693,-1789,594,-70,-134,319,-2825,800,540,0,624,-1534,1953,-2176,1582,-104,0,-1642,-1227,-1267,-1025,-42,-182,-244,0,1030,-290,561,-695,-672,-39,-837,-688,-1147,1118,192,579,44,-1226,-154,680,-1150,270,228,679,1288,195,-894,-451,524,-1941,719,322,963,412,232,971,0,6,6,6,6,6,6,6,-170,189,-331,111,-48,168,6,-43,141,22,27,128,-523,490,-186,292,9,57,-257,-44,243,6,-304,5,72,-163,1468
0,303,556,-1403,113,-889,210,-423,472,-836,1490,498,-1185,-926,-152,215,-511,313,-350,0,685,1449,-494,-654,-868,0,1101,1597,897,-227,128,91,1519,0,191,736,1683,272,55,192,419,-4102,-228,-2648,-1070,424,37,502,-2493,275,-452,3,-1,1846,-152,535,-406,370,0,-1670,-2235,-381,-586,1758,100,-814,0,-382,-911,1052,-98,-76,1065,2107,-1629,-135,-42,493,49,327,341,-296,826,1042,427,1141,-1834,-21,855,770,-126,0,-1240,-372,-365,-91,-308,-6,-877,0,0,0,0,0,0,0,0,1805,507,-8,0,-432,-874,-874,-884,-265,-336,0,0,-2173,-1292,-522,0,-417,0,-557,-518,474,-110,-3070,0,0,0,-267,590,-1105,618,-786,-471,-1495,-1912,2645,1380,-17,-363,-671,-188,1701,161,393,272,656,329,1814,49,396,-236,-14,573,-518,445,-448,-777,22,-1295,0,-990,742,1081,1020,2040,-1024,-39,296,301,-513,1246,673,159,361,-723,980,256,188,10,247,353,448,694,297,694,-259,652,440,792,361,-47,536,0,43,43,43,43,43,43,43,-507,377,22,52,-99,-188,43,-248,126,87,54,534,-90,131,379,100,-98,68,-223,-165,122,-67,43,16,-39,637,-530
0,-51,-116,15,-516,-48,-330,-114,-608,94,-565,-77,0,-98,-636,-361,-1,-269,0,0,-471,0,-16,-4,0,0,66,-13,0,0,-209,-4,688,0,119,450,-272,470,-264,-256,-114,785,-92,-63,72,0,-6,5,255,297,375,0,0,-506,0,1,0,0,0,-118,757,0,0,-239,2,-462,0,-195,-525,-11,-104,0,-202,18,-97,-6,0,0,0,-7,-270,-368,0,-109,0,0,-6,0,-66,-70,0,0,-12,-100,0,0,-14,-4,-97,0,0,0,0,0,0,0,0,188,0,873,0,0,-130,954,1061,0,0,0,0,699,29,-3,0,0,0,-4,-624,0,0,732,0,0,0,-903,257,253,-67,29,-235,-949,380,-98,246,-5,-1,-136,-155,-19,-8,-79,0,0,52,58,24,-111,-26,0,-376,-46,-8,0,554,-20,33,0,173,609,87,109,299,1039,479,-38,352,-581,-40,-9,107,122,-718,-648,182,330,240,-148,273,-270,97,106,-360,444,-124,228,0,-684,46,64,0,2,2,2,2,2,2,2,61,25,-9,-5,-1,-27,2,-15,-36,10,33,24,-38,36,-33,-11,8,-36,0,-15,22,0,14,2,9,-84,-7
0,-2886,859,51,-233,-216,850,-218,-64,0,-532,-24,0,-125,-309,-211,0,-346,-17,-1,-124,1,-57,0,0,0,-212,347,-102,-282,-1144,-101,-18,0,463,-732,638,-148,-407,50,815,-767,-101,-154,756,-109,509,-37,186,-36,-198,201,-2,-31,-31,-166,-21,-6,0,-312,-588,-2,-386,-72,0,-9,0,-155,-51,-559,-12,-62,-151,-354,-2,0,-58,-400,0,-1,-493,-14,-14,-27,0,0,-17,-1,-42,-37,0,0,-3,-420,-28,-3,-131,-2,-4,0,0,0,0,0,0,0,0,-55,0,348,-5,0,-483,-220,-629,5,496,-7,0,-387,-42,-44,0,0,0,426,1107,-115,481,597,0,0,0,923,18,401,-954,341,387,-416,-804,142,-79,-75,-112,25,-96,-550,-25,-100,-8,-4,-478,239,97,-35,-5,0,-111,434,-535,-142,1015,-11,-153,0,401,-452,-661,463,288,-1192,275,452,-38,-365,-168,-397,405,1086,-92,1590,65,141,709,-973,-74,-86,1007,-779,1170,-758,140,732,-948,2055,624,202,0,-7,-7,-7,-7,-7,-7,-7,-124,18,-84,-11,-62,33,-7,-131,152,-11,31,48,-201,9,-30,114,-79,117,-97,102,-5,-128,232,51,-7,-140,232
