0,0,0,0,0,0,0,0,0,0,0,0,0,0,0,0,0,0,0,0,0,0,0,0,0,0,0,0,0,0,0,0,0,0,0,0,0,0,0,0,0,0,0,0,0,0,0,0,0,0,0,0,0,0,0,0,0,0,0,0,0,0,0,0,0,0,0,0,0,0,0,0,0,0,0,0,0,0,0,0,0,0,0,0,0,0,0,0,0,0,0,0,0,0,0,0,0,0,0,0,0,0,0,0,0,0,0,0,0,0,0,0,0,0,0,0,0,0,0,0,0,0,0,0,0,0,0,0,0,0,0,0,0,0,0,0,0,0,0,0,0,0,0,0,0,0,0,0,0,0,0,0,0,0,0,0,0,0,0,0,0,0,0,0,0,0,0,0,0,0,0,0,0,0,0,0,0,0,0,0,0,0,0,0,0,0,0,0,0,0,0,0,0,0,0,0,0,0,0,0,0,0,0,0,0,0,0,0,0,0,0,0,0,0,0,0,0,0,0,0,0,0,0,0,0,0,0,0,0,0,0,0,0
0,0,0,0,0,0,0,0,0,0,0,0,0,0,0,0,0,0,0,0,0,0,0,0,0,0,0,0,0,0,0,0,0,0,0,0,0,0,0,0,0,0,0,0,0,0,0,0,0,0,0,0,0,0,0,0,0,0,0,0,0,0,0,0,0,0,0,0,0,0,0,0,0,0,0,0,0,0,0,0,0,0,0,0,0,0,0,0,0,0,0,0,0,0,0,0,0,0,0,0,0,0,0,0,0,0,0,0,0,0,0,0,0,0,0,0,0,0,0,0,0,0,0,0,0,0,0,0,0,0,0,0,0,0,0,0,0,0,0,0,0,0,0,0,0,0,0,0,0,0,0,0,0,0,0,0,0,0,0,0,0,0,0,0,0,0,0,0,0,0,0,0,0,0,0,0,0,0,0,0,0,0,0,0,0,0,0,0,0,0,0,0,0,0,0,0,0,0,0,0,0,0,0,0,0,0,0,0,0,0,0,0,0,0,0,0,0,0,0,0,0,0,0,0,0,0,0,0,0,0,0,0,0
0,0,0,0,0,0,0,0,0,0,0,0,0,0,0,0,0,0,0,0,0,0,0,0,0,0,0,0,0,0,0,0,0,0,0,0,0,0,0,0,0,0,0,0,0,0,0,0,0,0,0,0,0,0,0,0,0,0,0,0,0,0,0,0,0,0,0,0,0,0,0,0,0,0,0,0,0,0,0,0,0,0,0,0,0,0,0,0,0,0,0,0,0,0,0,0,0,0,0,0,0,0,0,0,0,0,0,0,0,0,0,0,0,0,0,0,0,0,0,0,0,0,0,0,0,0,0,0,0,0,0,0,0,0,0,0,0,0,0,0,0,0,0,0,0,0,0,0,0,0,0,0,0,0,0,0,0,0,0,0,0,0,0,0,0,0,0,0,0,0,0,0,0,0,0,0,0,0,0,0,0,0,0,0,0,0,0,0,0,0,0,0,0,0,0,0,0,0,0,0,0,0,0,0,0,0,0,0,0,0,0,0,0,0,0,0,0,0,0,0,0,0,0,0,0,0,0,0,0,0,0,0,0
0,0,0,0,0,0,0,0,0,0,0,0,0,0,0,0,0,0,0,0,0,0,0,0,0,0,0,0,0,0,0,0,0,0,0,0,0,0,0,0,0,0,0,0,0,0,0,0,0,0,0,0,0,0,0,0,0,0,0,0,0,0,0,0,0,0,0,0,0,0,0,0,0,0,0,0,0,0,0,0,0,0,0,0,0,0,0,0,0,0,0,0,0,0,0,0,0,0,0,0,0,0,0,0,0,0,0,0,0,0,0,0,0,0,0,0,0,0,0,0,0,0,0,0,0,0,0,0,0,0,0,0,0,0,0,0,0,0,0,0,0,0,0,0,0,0,0,0,0,0,0,0,0,0,0,0,0,0,0,0,0,0,0,0,0,0,0,0,0,0,0,0,0,0,0,0,0,0,0,0,0,0,0,0,0,0,0,0,0,0,0,0,0,0,0,0,0,0,0,0,0,0,0,0,0,0,0,0,0,0,0,0,0,0,0,0,0,0,0,0,0,0,0,0,0,0,0,0,0,0,0,0,0
0,0,0,0,0,0,0,0,0,0,0,0,0,0,0,0,0,0,0,0,0,0,0,0,0,0,0,0,0,0,0,0,0,0,0,0,0,0,0,0,0,0,0,0,0,0,0,0,0,0,0,0,0,0,0,0,0,0,0,0,0,0,0,0,0,0,0,0,0,0,0,0,0,0,0,0,0,0,0,0,0,0,0,0,0,0,0,0,0,0,0,0,0,0,0,0,0,0,0,0,0,0,0,0,0,0,0,0,0,0,0,0,0,0,0,0,0,0,0,0,0,0,0,0,0,0,0,0,0,0,0,0,0,0,0,0,0,0,0,0,0,0,0,0,0,0,0,0,0,0,0,0,0,0,0,0,0,0,0,0,0,0,0,0,0,0,0,0,0,0,0,0,0,0,0,0,0,0,0,0,0,0,0,0,0,0,0,0,0,0,0,0,0,0,0,0,0,0,0,0,0,0,0,0,0,0,0,0,0,0,0,0,0,0,0,0,0,0,0,0,0,0,0,0,0,0,0,0,0,0,0,0,0
0,0,0,0,0,0,0,0,0,0,0,0,0,0,0,0,0,0,0,0,0,0,0,0,0,0,0,0,0,0,0,0,0,0,0,0,0,0,0,0,0,0,0,0,0,0,0,0,0,0,0,0,0,0,0,0,0,0,0,0,0,0,0,0,0,0,0,0,0,0,0,0,0,0,0,0,0,0,0,0,0,0,0,0,0,0,0,0,0,0,0,0,0,0,0,0,0,0,0,0,0,0,0,0,0,0,0,0,0,0,0,0,0,0,0,0,0,0,0,0,0,0,0,0,0,0,0,0,0,0,0,0,0,0,0,0,0,0,0,0,0,0,0,0,0,0,0,0,0,0,0,0,0,0,0,0,0,0,0,0,0,0,0,0,0,0,0,0,0,0,0,0,0,0,0,0,0,0,0,0,0,0,0,0,0,0,0,0,0,0,0,0,0,0,0,0,0,0,0,0,0,0,0,0,0,0,0,0,0,0,0,0,0,0,0,0,0,0,0,0,0,0,0,0,0,0,0,0,0,0,0,0,0
0,0,0,0,0,0,0,0,0,0,0,0,0,0,0,0,0,0,0,0,0,0,0,0,0,0,0,0,0,0,0,0,0,0,0,0,0,0,0,0,0,0,0,0,0,0,0,0,0,0,0,0,0,0,0,0,0,0,0,0,0,0,0,0,0,0,0,0,0,0,0,0,0,0,0,0,0,0,0,0,0,0,0,0,0,0,0,0,0,0,0,0,0,0,0,0,0,0,0,0,0,0,0,0,0,0,0,0,0,0,0,0,0,0,0,0,0,0,0,0,0,0,0,0,0,0,0,0,0,0,0,0,0,0,0,0,0,0,0,0,0,0,0,0,0,0,0,0,0,0,0,0,0,0,0,0,0,0,0,0,0,0,0,0,0,0,0,0,0,0,0,0,0,0,0,0,0,0,0,0,0,0,0,0,0,0,0,0,0,0,0,0,0,0,0,0,0,0,0,0,0,0,0,0,0,0,0,0,0,0,0,0,0,0,0,0,0,0,0,0,0,0,0,0,0,0,0,0,0,0,0,0,0
0,797,1267,1332,311,-476,-153,-3172,1294,1208,-65,-307,1466,3570,755,1114,553,-59,-1639,1087,-136,-451,-1794,-57,434,0,-1571,-968,251,-1020,3100,-590,-460,0,27,695,1922,2101,-296,206,263,811,1597,-1212,-62,2403,279,-1848,2530,-2827,-1944,218,-19,-1401,-2164,360,-103,-1349,0,-622,671,-2006,499,1420,191,5,0,478,724,-998,925,80,203,12,-461,-1904,728,-154,-1627,284,176,270,-351,91,8,1367,-1685,-238,921,-234,1321,101,667,287,727,-1028,1558,9,113,0,0,0,0,0,0,0,0,-257,886,840,0,-1110,-1915,-367,-391,0,-986,0,0,-163,-1009,1100,0,719,0,257,-704,-615,135,418,-299,0,0,-212,967,301,1060,1715,1454,-725,-26,-1684,-230,-879,-867,-1758,715,-187,-30,316,476,-421,1405,-1714,1412,329,576,-456,626,-925,-1189,-847,-2046,-692,-155,0,1140,715,-212,-922,-215,1054,-981,-351,-98,-176,-326,-315,-490,713,-286,-275,-12,-593,-457,450,217,-345,-183,-381,-755,-342,-125,212,-269,-661,181,-62,0,101,101,101,101,101,101,101,101,212,63,-301,-122,-3,101,305,-293,-376,-153,1088,-153,-517,420,-31,132,-111,886,-135,-262,-253,798,-120,-266,-785,1081
0,-1733,-414,-775,564,2000,-39,2624,-682,1040,1196,171,0,-1732,523,-1456,-154,-917,-23,139,-220,417,487,218,-155,-14,897,46,-268,360,-879,-81,-1346,0,-233,2663,1046,2516,434,1770,1139,-1463,1784,1605,1343,-891,831,1532,-749,-68,1435,-506,-65,-831,1375,-98,907,-97,-15,562,-1099,-69,-966,49,136,1869,0,491,-670,-1708,1003,365,-424,-1110,-538,-920,-170,-753,-4,-289,-1926,1502,94,-116,-7,-107,738,-342,-1047,109,-106,0,489,752,-30,550,-916,-242,-42,0,0,0,0,0,0,0,0,1980,-929,1123,-706,-6,854,-1326,-886,0,722,0,0,-646,638,-1334,0,0,0,399,896,-794,-1005,915,0,0,0,-294,-834,680,-636,730,244,1240,-2374,-1128,1336,-52,-712,-1165,1645,799,523,-208,0,1290,-892,286,711,-44,-623,1015,-1558,599,-118,-1228,445,-55,-2476,0,714,166,-162,-1044,-3041,-156,479,1007,362,65,210,-10,750,-172,520,-223,959,1206,327,441,-272,811,286,143,613,1187,497,179,-211,266,1172,474,0,61,61,61,61,61,61,61,-207,61,719,-59,-90,-81,61,-27,108,261,67,-8,-141,205,174,193,-107,11,-130,109,-110,-250,-162,93,-80,90,-250
0,-70,920,1397,220,830,626,1115,238,173,66,2029,-1144,-810,1701,-589,-816,1097,-379,203,-207,652,-1275,265,-5,0,-2508,1377,-1597,374,1949,0,-2293,0,420,-169,1256,-1710,1196,-1792,550,365,-1237,2702,-1877,450,-190,-1405,354,568,268,443,464,-349,-2332,1912,85,211,0,500,267,-51,480,-792,-31,698,0,-1217,-522,-3401,341,33,643,48,2013,-279,-653,-81,787,0,46,847,67,-211,-235,-238,1535,448,-1129,-1124,0,0,155,-915,-468,-1234,795,0,684,0,0,0,0,0,0,0,0,-1343,-1546,-3032,0,-902,2225,1123,2364,0,-1084,0,0,-753,-97,731,0,-25,0,721,-1584,83,-195,1030,0,0,0,196,-366,-1180,-768,-937,-412,826,-592,1126,-79,14,831,1696,-482,-1536,-490,-1180,2,-665,1221,-1125,585,-275,0,-197,1356,2293,-95,891,458,-105,215,0,103,82,139,344,-1146,-152,454,329,594,2015,-330,78,-1141,-208,-1230,-549,1480,-61,-416,693,-199,1183,-55,-631,-815,129,-1704,-422,-856,213,26,-738,0,-3,-3,-3,-3,-3,-3,-3,101,79,-3,1,10,178,-3,21,-122,-22,-23,-274,214,-233,165,-138,-45,-2,5,27,-210,-54,401,-11,-92,1975,-321
0,365,-1199,-649,-131,-136,-49,571,-636,-251,-336,0,-9,-24,-378,-428,-2,-1785,-57,1641,-119,-31,569,0,-1,0,207,-612,-428,-24,-50,0,474,0,3163,291,-12,-1061,-331,300,-426,774,388,-1000,-9,-255,-66,3353,356,-3,-359,-43,-212,-217,-211,-1049,0,-3,-23,-22,499,-429,179,-668,-89,-494,0,-145,284,-241,490,-110,-434,-52,-217,233,-9,0,-325,0,-311,-208,-4,1430,-14,-356,-2,-14,-54,109,15,0,-221,-160,4,-43,-132,0,-11,0,0,0,0,0,0,0,0,358,-3,-322,0,0,72,-534,605,0,-79,0,0,376,175,892,0,0,0,436,309,598,-61,-491,-1,0,0,1654,-613,251,-948,-143,135,187,600,-378,-72,245,58,-9,-191,1290,-215,1084,0,-482,-213,-272,-284,734,-27,-315,-108,-128,-104,121,-404,58,-132,0,-471,1550,488,1222,648,21,-61,21,-297,-201,-154,-279,37,-2006,-495,-766,121,704,-127,-215,593,783,-971,-94,1098,114,-984,-1301,438,435,712,-98,0,-9,-9,-9,-9,-9,-9,-9,90,-44,-200,-9,-81,1,-9,112,-99,41,59,203,-39,24,82,-16,-11,76,40,-110,-166,61,-131,68,-32,-850,204
0,148,-115,-544,279,-628,2122,-116,2,-23,-1713,43,-722,-1,-808,-1915,-11,-276,0,0,-179,-338,558,132,620,0,173,-446,-348,-439,-787,0,-28,0,-1480,2003,1253,-1859,813,62,0,399,302,98,219,2023,-1,831,1368,-60,-243,0,-17,-1239,-84,262,0,-942,0,693,1267,36,-329,292,0,-350,0,1431,-449,-2136,46,10,-1115,217,-23,-42,1115,-345,-266,-1,-450,-1072,0,-837,0,0,-13,1588,1830,0,-24,0,635,-14,-460,6,-1117,0,-322,0,0,0,0,0,0,0,0,-481,142,1271,0,-3137,0,433,66,0,262,0,0,1233,64,-1835,0,669,0,-361,-931,-151,864,23,0,0,0,-1232,-1108,561,1023,-709,-828,665,-542,-524,-1249,-55,-32,-29,578,131,-60,-352,3,168,-422,289,-240,280,-304,-728,-359,141,-756,334,1079,0,84,0,-494,-1010,1459,1734,490,-265,135,-755,560,-122,684,2104,635,-611,992,301,-334,707,-711,540,-39,18,-988,941,-102,-411,663,829,264,810,-810,170,0,-3,-3,-3,-3,-3,-3,-3,-140,32,-60,44,-3,60,-3,-43,17,-178,71,-36,-8,148,59,-72,96,-83,37,68,-85,70,30,-81,30,1074,-122
0,130,-584,807,853,-469,172,-501,76,-813,668,721,0,280,-386,2414,1014,-321,0,106,834,-316,700,82,-674,0,-213,238,559,765,1136,35,506,0,-1866,1176,-532,713,-343,914,514,261,1028,-448,-1388,1,484,-789,475,-855,1472,481,753,143,0,-477,27,906,0,-757,-232,306,-774,380,-57,-418,0,1827,735,50,264,82,399,1778,-16,808,0,620,0,756,-1193,-46,-89,-241,0,0,511,413,-193,36,-79,0,3,5,-67,160,77,0,168,0,0,0,0,0,0,0,0,-1429,-911,576,0,0,-1144,-6,-2139,0,-1050,0,0,-154,-301,207,0,0,0,-1566,-39,-1209,-746,-91,0,0,0,-207,-987,38,-517,687,-1506,181,316,445,142,-90,6,40,1675,832,161,151,-539,0,515,-139,68,-1675,1048,0,-588,-430,557,625,-548,-132,102,0,889,-72,-1018,-43,59,-223,1205,-138,-348,-409,-1128,-717,-396,725,24,-441,-411,-892,-82,-579,613,-681,1010,-571,180,421,88,794,-400,701,-286,-58,0,2,2,2,2,2,2,2,-93,31,131,-67,-71,2,2,156,-21,-40,-95,63,127,27,-38,-65,63,18,-270,-22,94,-37,164,-44,5,1692,645
0,-423,-866,-245,687,-1156,-434,182,121,-2195,-768,-1943,473,-3445,1031,694,-1414,-1597,1241,-340,334,-124,238,-275,509,0,377,-2567,2832,-292,-463,312,2097,0,389,-1487,-1107,-1518,-3201,-684,-1294,3621,-2371,2541,632,972,2292,2545,2389,723,1694,-104,1309,2952,-1647,1202,223,1230,249,79,3162,1796,1114,667,560,2285,0,716,1286,-776,-1754,1623,-1345,-453,249,-250,240,-881,1510,-2309,-661,-330,416,-78,-337,3456,-287,-353,-1579,-958,-2081,3,-1048,-779,1625,2057,393,118,-554,0,0,0,0,0,0,0,0,1160,464,-192,-18,3691,1115,-3468,-264,0,1030,-1781,0,-1351,3126,387,0,-737,0,1635,689,3670,-1810,-455,0,182,0,308,-379,292,-1508,1690,446,478,-703,-601,331,1121,-1267,191,-1016,-136,-209,-470,-272,102,966,-1228,2397,-1233,310,1992,-351,1149,927,4568,769,27,368,0,1980,-1076,-132,-1362,-76,313,397,-288,-125,-405,153,-269,-244,132,267,-283,266,33,-44,336,-5,-1019,-543,109,-149,360,-213,-845,-1327,-139,63,-419,0,-140,-140,-140,-140,-140,-140,-140,416,-1261,-160,35,579,-240,-140,262,51,25,-122,-1028,295,-17,-334,-845,-40,177,-492,285,1028,431,-437,108,24,829,4013
0,-202,1197,-1080,1289,-392,1874,-650,-231,-487,-865,-1540,992,1302,1198,124,1260,1508,-126,-1198,-1197,0,-538,478,27,77,-16,-1061,-142,-955,432,818,-478,0,1106,-2238,-1122,-377,108,247,745,-700,380,-1371,1019,-1413,-471,-2204,899,1326,-232,225,-563,719,0,-1504,890,-1484,74,-366,-1471,62,789,-807,-554,364,0,-1009,-220,1576,687,-85,-505,-628,-208,1474,-309,1422,-749,-347,483,710,-319,890,490,-1350,699,0,1743,-856,-370,0,1354,592,-118,1286,-1529,-456,399,0,0,0,0,0,0,0,0,453,-349,1718,0,1558,-239,-1413,-1951,0,-351,0,0,1419,0,211,0,703,0,1413,1532,1296,-529,-1076,0,0,0,-544,322,635,2003,695,-116,-840,462,1016,1445,-601,1022,-1267,1414,194,198,-184,166,-1879,878,629,-1679,1986,-827,1503,1529,-99,792,673,1543,-1043,-671,0,1596,-1123,-195,2647,-166,-437,-1186,324,-588,-25,-236,-285,362,921,224,-302,-550,-395,702,432,641,335,0,1041,373,-578,-386,-371,326,-493,-45,-124,0,20,20,20,20,20,20,20,10,216,60,-79,113,-66,20,20,51,49,36,-1011,295,127,-240,475,-91,203,306,-91,105,159,-242,-128,-97,-434,-2191
0,683,-879,754,63,-303,463,0,272,104,630,-43,-3,-26,-853,-615,0,17,0,0,-184,0,48,-36,0,0,275,42,-49,228,589,-20,-22,0,101,1180,179,-439,278,133,0,-1201,571,-24,-178,391,-359,-85,813,-33,-415,0,-1,1299,-2,-25,-350,-13,0,-653,-23,1210,-1283,-598,-40,-8,0,-944,-447,-841,-485,-17,424,0,-462,149,-151,0,0,548,-541,-35,0,-57,0,0,-487,0,-2,-66,0,0,-35,0,-40,-420,-93,-6,-35,0,0,0,0,0,0,0,0,922,-263,-472,0,0,466,1067,302,0,-242,0,0,461,-2,507,0,-7,0,-279,-18,-968,1471,-650,0,0,0,-628,-134,-718,1330,-120,-510,-68,162,-325,-189,-139,0,-437,758,210,-78,-19,0,-92,150,0,-120,-413,0,-20,55,42,56,-13,-373,-80,109,0,268,626,1109,-339,-102,-756,-263,-33,819,818,-287,-475,-362,-676,-485,-219,-30,340,-228,721,-846,173,433,210,60,747,-33,-306,877,-598,-1144,-395,0,-33,-33,-33,-33,-33,-33,-33,-34,73,46,-45,-39,-17,-33,19,-33,-16,34,-54,196,-85,7,-54,19,4,11,1,-29,86,-190,-129,-68,-461,-71
0,3,-253,-739,1992,-351,-2518,-297,218,1618,226,-804,-844,1131,-1473,-301,25,645,456,-882,-364,1269,-363,1423,-68,-186,-1344,-1415,-1652,-190,-2088,-686,-276,0,-166,-236,-2446,-834,1152,261,170,-255,-2384,1236,614,-3816,5,-622,2276,402,-481,145,146,-469,68,-420,-830,-549,0,3706,490,-1290,-316,402,-277,242,0,-1059,1146,1133,249,-3,431,-1960,1517,1180,-1615,-77,53,-622,1515,352,-55,-88,-68,-1696,-1750,-637,1421,271,41,0,345,1534,-1005,1478,194,0,-1280,0,0,0,0,0,0,0,0,565,42,543,0,243,251,1292,105,0,-33,-335,0,2030,-2028,-976,0,-233,0,-403,865,-2813,-1658,139,300,0,0,-741,-1602,-149,119,-1259,1101,4,1762,517,999,85,-1185,-247,-1258,209,72,-84,-100,-533,338,532,-928,1238,740,-1307,44,-2840,-880,-2795,142,975,841,0,316,-187,1714,615,445,708,-691,-437,-99,727,324,699,-848,640,-1051,-584,-699,302,-540,615,-1054,-514,1182,729,-437,-546,232,1140,411,221,568,-132,0,-2,-2,-2,-2,-2,-2,-2,337,66,289,51,-485,-33,-2,159,-14,-2,40,540,40,-185,-179,545,66,-193,69,-169,-650,-307,-99,88,8,118,-2987
0,109,47,-31,-355,0,-469,-2,-93,-535,-447,56,0,-5,-454,-113,0,-309,-17,0,-850,-580,-102,54,-10,0,-5,1,-15,0,-316,0,145,0,-68,-52,-51,305,0,202,-2,-70,88,30,-26,0,-13,452,-2,0,-93,10,0,-622,191,-99,162,0,0,68,-163,-2,0,361,0,-126,0,14,-17,-2,-23,0,-21,-69,0,0,219,0,0,-7,281,-61,0,0,0,0,-29,-7,-15,216,-15,0,-61,-2,-15,0,-94,0,0,0,0,0,0,0,0,0,0,-183,453,472,-10,0,-16,747,-77,0,681,246,0,1221,664,14,0,0,0,-162,55,-58,0,808,0,0,0,52,-114,-160,-221,-70,-244,-765,-159,-26,27,-6,0,-113,-123,-130,0,159,-8,0,24,34,-125,0,0,-25,0,7,5,0,418,0,304,0,406,436,453,-74,150,612,411,-225,229,109,-48,-150,224,-803,-337,660,202,-131,-494,546,208,-519,-208,-465,-505,250,172,-125,0,23,560,-133,0,10,10,10,10,10,10,10,-73,20,41,-6,-15,7,10,-72,66,64,10,-63,29,51,-85,28,-49,-53,9,7,-21,0,120,56,19,-279,10
0,-302,-1207,-276,-79,-17,59,61,-250,0,82,0,-234,0,-734,414,0,-10,35,43,-199,-66,-97,0,0,0,-46,248,-16,-32,-650,0,-463,0,123,211,568,-82,130,189,-180,-127,88,-251,293,69,-201,-965,-313,2,-332,0,102,638,-297,0,0,87,0,163,-793,31,-16,388,0,561,0,-167,287,-661,-16,208,14,-533,-146,2,2,-267,-8,0,-656,-437,0,59,0,165,32,85,16,0,-144,0,-17,165,-16,0,-258,0,-93,0,0,0,0,0,0,0,0,1165,0,-653,0,0,198,1832,872,0,151,0,0,-766,-344,100,0,0,0,-14,399,-49,65,-138,0,0,0,430,228,189,269,16,126,-212,298,17,-297,56,-79,-100,-443,-581,64,-82,0,-160,-1239,-129,131,0,-259,76,395,-98,-75,-1,-928,-21,0,0,205,1003,583,10,-265,-316,-250,200,903,187,-262,-368,-377,1053,825,-226,894,-245,-1278,714,-549,800,-280,666,-316,384,669,45,-6,496,-299,910,0,9,9,9,9,9,9,9,114,101,-89,-18,-62,-48,9,78,-16,68,-21,9,-82,-130,95,-35,35,-24,95,59,-8,1,-109,-32,100,-588,-285
0,360,890,238,-4227,1055,684,-719,-238,1787,-2378,162,644,-1479,49,-443,221,-639,-29,302,808,-2388,-885,-1276,-1086,-60,-1491,-1666,293,405,78,140,-397,0,-1203,6,1563,162,-284,-10,2607,1293,318,-61,216,947,1130,-847,-812,-272,-1272,367,-1802,602,4086,-81,-18,42,-53,1544,264,554,3326,-413,494,-1192,0,-546,-1529,185,1470,-1318,1449,-1642,-2048,-572,288,-312,235,531,1597,-1643,-234,368,69,-2493,-142,-320,643,964,719,0,2572,-795,-581,-1159,371,-263,214,0,0,0,0,0,0,0,0,-231,758,848,137,-480,-709,280,912,299,-708,207,0,-538,132,1892,0,220,0,1486,2289,-1349,2398,-765,0,-252,0,-607,1852,906,974,422,-654,-534,2839,-135,-1283,1026,757,-1058,-647,133,-107,-1788,-1203,-203,557,126,-234,-1160,-1128,-857,77,325,178,-368,-750,1573,1289,0,-122,1427,1019,-708,909,-339,-432,265,52,302,40,137,75,636,1063,573,464,619,35,-307,600,269,370,67,447,-82,1015,-244,-672,-554,-4,-626,0,98,98,98,98,98,98,98,188,413,-290,124,224,-151,98,-79,48,-333,3,-441,98,176,141,-140,-103,30,468,121,-85,393,-210,194,93,-572,-1750
0,171,48,137,-43,-22,-69,51,-96,123,63,37,-14,-32,462,0,0,549,-6,-6,499,418,32,-4,-5,0,63,13,70,717,-386,0,-114,0,-217,64,-292,33,-10,-265,0,38,4,-1,32,-14,0,-2,0,0,-560,0,0,-174,5,-64,0,-1,0,-29,0,-4,-417,-1,0,-23,0,-91,-4,321,-53,-26,-40,26,4,-15,1,-18,-22,0,282,0,-1,-11,0,0,633,290,-69,0,-24,0,-31,0,-29,6,10,0,160,0,0,0,0,0,0,0,0,-45,-6,-13,-4,-17,0,-732,0,0,-8,-1,0,-1143,-799,-53,0,1,0,-63,-2,-12,-61,221,0,0,0,92,198,-126,-68,-24,-175,-3,110,3,76,6,77,-5,251,-11,-37,15,-3,-2,179,-108,-97,58,-63,0,-159,2,-14,81,-112,0,21,0,125,58,87,-5,122,589,-69,569,28,-303,360,-120,277,-170,-29,38,225,-390,244,76,242,-59,-438,-113,-120,-6,-177,159,524,29,-110,187,0,5,5,5,5,5,5,5,58,16,-21,41,-11,24,5,-4,0,21,-40,12,7,5,-34,-48,-22,-12,-24,-14,17,85,-23,-11,23,260,-4
0,1077,516,920,872,-1371,-503,-174,1045,-330,-163,184,228,-12,383,-67,-2,532,54,-596,-422,-21,1409,184,-50,0,554,-308,112,-483,922,180,65,0,965,-1597,-1078,864,1598,-37,-502,-1239,208,379,262,48,218,1344,-1007,-1,295,-112,0,-574,-479,-266,-7,-459,0,48,307,-1086,186,-887,2,-451,0,271,694,1212,-1489,349,243,-3,1006,-30,1559,-636,420,35,839,-580,156,254,-177,0,518,-104,-1141,-107,-35,0,21,239,-494,-506,385,69,435,0,0,0,0,0,0,0,0,-934,-16,-1083,0,-463,-293,-834,892,0,-69,0,0,-634,1354,-130,0,648,0,194,-249,7,607,-1258,0,0,0,189,853,-694,-377,-309,922,913,152,48,137,-63,198,11,-970,722,-271,-1109,-5,-102,-68,568,172,869,136,-184,174,12,-296,55,1941,353,-80,0,882,-907,171,1066,-51,-337,1018,820,-593,-336,279,-801,595,-607,10,578,1237,-230,679,-2520,-178,138,-583,491,634,-240,-50,187,211,119,26,484,0,27,27,27,27,27,27,27,85,-64,50,-54,-37,55,27,-3,46,114,-47,-50,-370,114,27,92,86,45,88,-5,-157,7,121,63,37,-1021,-597
0,0,0,0,0,0,0,0,0,0,0,0,0,0,0,0,0,0,0,0,0,0,0,0,0,0,0,0,0,0,0,0,0,0,0,0,0,0,0,0,0,0,0,0,0,0,0,0,0,0,0,0,0,0,0,0,0,0,0,0,0,0,0,0,0,0,0,0,0,0,0,0,0,0,0,0,0,0,0,0,0,0,0,0,0,0,0,0,0,0,0,0,0,0,0,0,0,0,0,0,0,0,0,0,0,0,0,0,0,0,0,0,0,0,0,0,0,0,0,0,0,0,0,0,0,0,0,0,0,0,0,0,0,0,0,0,0,0,0,0,0,0,0,0,0,0,0,0,0,0,0,0,0,0,0,0,0,0,0,0,0,0,0,0,0,0,0,0,0,0,0,0,0,0,0,0,0,0,0,0,0,0,0,0,0,0,0,0,0,0,0,0,0,0,0,0,0,0,0,0,0,0,0,0,0,0,0,0,0,0,0,0,0,0,0,0,0,0,0,0,0,0,0,0,0,0,0,0,0,0,0,0,0
0,396,-434,-861,-116,460,-883,0,-541,99,-12,501,568,-216,-2571,-1316,-2,287,0,0,356,-263,-34,43,4,0,-1466,881,-389,-177,355,0,-834,0,-1439,553,84,-114,25,-1738,0,1871,-940,40,-862,189,324,1609,1250,-55,-412,0,-114,-1043,1014,-212,43,1012,0,146,-967,0,104,855,0,889,0,1442,-930,-264,35,-619,110,0,-307,106,0,422,-288,-357,-1394,-485,0,417,0,0,-271,-164,316,0,0,0,44,0,417,-59,281,0,-30,0,0,0,0,0,0,0,0,-49,282,-271,42,-76,20,562,19,0,-245,0,0,1395,-146,593,0,-1078,0,840,687,-292,0,-221,0,0,0,1782,635,2627,131,-801,1978,944,287,129,-161,-111,-75,-413,1013,1060,-114,337,0,-595,-529,406,470,258,187,-200,181,0,613,-92,899,86,63,0,-414,2274,-564,127,887,435,-1004,-951,-642,74,-323,-8,402,598,-198,641,-754,-570,285,-578,203,-1683,856,-308,-520,92,29,-459,-936,-1269,-16,162,0,-6,-6,-6,-6,-6,-6,-6,31,-72,-33,-30,31,-24,-6,33,47,-37,-57,-36,-67,105,-71,150,-6,-72,-4,63,-11,-116,90,7,25,254,-71
0,-71,42,46,52,0,-32,-10,28,-4,0,0,0,0,-10,-11,0,-10,0,0,0,0,-16,0,0,-3,19,0,0,0,-16,0,0,0,42,0,21,26,0,44,0,0,-8,0,23,0,0,-10,0,0,0,0,0,-8,0,0,0,0,10,3,-10,0,0,-16,0,-10,0,-53,66,-20,0,19,2,-30,2,19,0,0,0,0,-7,-16,19,-10,0,0,-13,0,-30,-10,0,0,-32,-10,0,3,-16,0,0,0,0,0,0,0,0,0,0,23,0,0,0,0,0,10,67,0,0,0,0,0,0,0,0,0,0,0,0,0,0,0,0,0,0,-19,59,160,7,-16,40,0,24,80,-32,0,0,0,-92,26,-16,-20,0,0,-6,0,-52,-60,0,0,-32,-10,-50,22,-15,0,-14,0,490,130,-43,80,77,26,200,83,265,-128,184,0,0,186,-56,27,130,230,230,227,0,-220,-10,130,95,72,-70,-50,5,79,0,-128,0,10,10,10,10,10,10,10,16,36,-16,23,0,0,10,1,3,9,23,23,20,0,-32,-10,13,10,3,-10,-10,3,1,0,-16,95,0
0,378,463,1562,-1586,1426,11,1244,513,-1621,-56,639,-169,273,910,1789,-706,1306,-202,-351,-703,293,-2495,366,1600,0,872,1483,620,335,919,-26,-286,0,-224,-2833,-850,1073,114,2853,-305,-469,819,-638,-160,-787,-1991,646,-4283,1196,-673,-366,-14,3050,1094,1734,-675,-793,-34,91,-1066,-105,-639,1064,-227,-1826,0,-1221,1460,1426,-2612,57,-595,417,592,521,197,597,1,2084,2,440,-34,140,0,-360,2141,-676,53,1140,75,0,731,267,0,261,-557,332,989,0,0,0,0,0,0,0,0,-53,-449,1004,0,-2,-889,-93,1418,0,-341,6,0,-1036,154,1170,0,-153,0,-1447,-3110,160,-965,1499,0,0,0,514,536,761,916,-1638,-1964,-262,-646,-1250,-374,510,242,2238,-1223,-460,-129,1098,0,-20,-353,-583,229,-1819,-193,-8,-775,1679,2286,362,-135,-684,28,0,500,-182,232,-255,65,-256,255,683,1083,-493,85,-355,514,75,486,-497,-240,202,-165,-1239,58,-152,50,-225,-228,-138,-76,-951,6,-356,-715,956,0,3,3,3,3,3,3,3,62,-172,-36,163,-100,227,3,-61,-17,129,-36,-103,186,34,-3,-426,-9,-27,3,-75,201,-64,223,-132,60,897,1019
0,-1011,-453,274,-2361,119,-141,764,1599,547,2674,-96,975,1386,17,-1593,-409,-29,640,261,1474,-1073,1503,-1051,-287,186,408,1008,-919,-896,626,-62,2402,0,302,-1473,-450,600,-148,-1029,-1572,-1188,-858,-661,-607,-393,-1006,-3924,-3804,105,-346,-769,1224,-1799,-233,-569,-78,832,-239,-1353,1838,-77,504,-416,-433,-1293,0,185,-211,460,-1439,-598,-295,2687,879,49,-720,-635,89,-448,1872,622,-436,-544,-189,397,-1396,94,-2278,-656,675,-189,-2283,90,-42,-1497,1008,457,-591,0,0,0,0,0,0,0,0,-498,511,-2113,0,0,-426,2100,-114,0,417,1658,0,996,-296,-219,0,-674,0,-1284,-907,2321,1749,2198,0,72,0,-1826,-648,-1929,1522,459,-523,740,-343,657,-1200,-656,836,1616,-1518,63,-581,1268,1032,1550,-1503,87,-879,391,384,-113,351,-1062,-1069,-282,-2813,783,1457,0,1042,499,-965,-634,-192,606,1685,-679,-899,-189,-2,242,-182,1003,216,-329,283,-32,-272,-92,-199,479,-814,-860,-1155,218,-557,486,-298,667,-505,-308,0,-45,-45,-45,-45,-45,-45,-45,-23,90,-184,-41,178,94,-45,-461,-165,179,234,743,-232,-162,-140,-276,7,-151,-560,-45,70,-72,127,24,361,1219,1069
0,-85,235,122,1394,357,286,-90,-275,141,573,244,265,512,1221,10,-19,-378,6,-301,1339,618,1872,6,-34,0,-308,-5,-852,230,-308,0,801,0,1248,-510,-1589,-1052,-426,-853,-107,-144,-250,-102,-879,525,70,-244,-1075,-49,-11,-10,-645,-315,242,-30,0,0,0,341,-87,1091,-975,486,0,-61,0,-272,773,1377,-34,141,707,-81,208,0,736,271,0,1,134,1787,124,-337,16,179,0,183,-628,0,140,4,-1,7,174,599,-15,0,-792,0,0,0,0,0,0,0,0,-47,73,-465,-105,-651,-43,-1546,-630,0,665,0,0,-498,-1123,-402,0,-67,0,578,136,-909,53,21,0,0,0,1121,851,311,-670,-774,643,-51,-610,22,177,-196,-420,73,247,-451,45,-51,78,136,398,-51,-486,70,-51,-49,322,38,1351,-17,-596,22,-206,0,1308,-834,116,662,902,-514,306,318,-381,-549,750,261,-393,438,-831,19,-49,-470,574,116,11,-522,556,892,355,-142,251,-605,910,-258,-582,-281,0,25,25,25,25,25,25,25,-55,-39,37,96,-2,22,25,-119,12,-16,-38,18,104,-12,-24,79,88,31,79,34,25,80,-67,-56,-52,-963,-1135
0,-54,-158,-1936,1839,-755,-75,-70,-2415,197,396,-363,-892,224,8,1328,176,181,0,205,-454,1900,1046,-920,28,0,3931,1925,1112,549,-3284,0,-743,0,-725,-57,157,-1201,164,-1456,-1940,48,485,-829,396,-501,-1204,860,748,-296,847,0,-294,-2517,84,-373,0,825,0,-2023,-619,201,390,-1429,0,-1309,0,-491,-928,1148,2510,-255,-797,656,-2202,-183,-356,402,43,-98,-618,-1594,87,-1477,0,-543,-934,-526,673,-523,0,81,-2308,-592,1004,-319,-142,0,1858,0,0,0,0,0,0,0,0,-1113,1274,-1235,706,724,1781,433,1448,0,1218,0,0,204,602,-1655,0,-266,0,-830,-895,288,-394,214,0,-2,0,557,-150,-1881,-2284,717,1152,270,1868,-60,-1825,425,-29,724,373,-1841,891,325,0,169,-2185,1626,-1238,221,-71,-29,-1374,-898,-758,-1470,288,-928,-703,0,-132,601,980,-1445,-39,539,-1224,-356,-493,939,187,845,523,-1266,491,642,-678,480,438,1126,1198,486,-60,-396,908,-1074,570,563,1034,-457,328,712,0,-21,-21,-21,-21,-21,-21,-21,-417,115,-260,98,19,195,-21,58,150,43,48,-31,-476,480,-91,293,12,96,-220,-15,241,-21,-481,-60,35,623,1198
0,672,1058,-517,-582,-68,-784,-389,1019,-791,885,687,-1554,-750,329,578,296,585,46,-303,-48,154,-708,396,-840,0,1232,1625,958,708,48,26,826,0,69,1690,1542,1515,-354,1381,211,-2954,101,-1824,308,99,-663,325,-2007,112,1251,24,-231,2899,-680,-120,-270,587,31,-1655,-2303,-162,-1502,-181,327,1064,0,945,-1097,2247,108,148,1154,1249,196,-328,-1090,428,153,245,795,102,564,395,444,1585,265,281,641,1748,-104,0,-963,-593,-580,-97,-165,-11,-1245,0,0,0,0,0,0,0,0,197,-364,436,0,637,-732,-511,-1896,-299,55,1,0,-2173,-700,-1104,0,281,0,-2087,801,874,-331,-3034,0,0,0,907,942,-1232,35,-57,-1009,-1095,-2404,2080,2125,-539,691,27,32,141,411,1122,377,1741,994,442,68,467,191,-88,736,301,-1212,-518,-136,-49,-738,0,-412,1062,-613,-407,1283,-684,60,586,480,-662,796,309,208,155,292,798,217,838,878,-107,-485,626,787,-245,87,38,753,524,1070,1600,-103,507,0,119,119,119,119,119,119,119,-336,181,6,146,30,-164,119,-279,135,353,173,426,183,-95,171,391,-13,3,-301,-10,4,-67,119,19,-4,280,670
0,-202,-366,30,-487,-81,-379,-111,-642,41,-610,-191,0,-75,-910,402,-6,-293,0,0,-166,0,-17,-6,0,0,3,-12,0,0,-289,-6,477,0,157,171,-292,463,-284,-401,-85,853,-75,-175,189,0,0,-547,350,85,266,0,0,-636,0,-2,0,0,0,-99,450,0,0,-151,-1,-366,0,-217,-228,-13,-118,0,-24,-105,-19,0,0,0,0,-1,-74,-114,0,-15,0,0,0,0,-40,-46,0,0,-4,-21,0,0,0,-6,-12,0,0,0,0,0,0,0,0,47,0,1063,0,0,-95,1174,-223,0,0,0,0,678,59,-4,0,0,0,-10,-376,0,0,604,0,0,0,-1026,79,395,-86,-15,-129,-808,259,-79,356,-2,-1,-95,-132,-23,-9,-68,0,0,269,118,128,-101,-16,-4,-437,-193,-12,0,556,-20,32,0,11,894,-120,66,372,925,1121,-168,323,86,-16,-49,-184,479,-532,-10,-230,-230,496,75,403,-385,1,156,-746,1007,-298,112,0,-1300,23,104,0,-1,-1,-1,-1,-1,-1,-1,33,21,72,-2,-5,-45,-1,-14,6,-34,-23,48,22,58,-32,-19,14,-75,46,-45,10,0,-58,-1,14,-237,4
0,-840,406,151,-287,-15,349,-243,-182,-4,-18,-173,-12,-69,143,28,-2,-55,0,-10,-131,28,-77,0,-1,0,-31,209,-118,-87,-551,-39,-35,0,-260,5,277,-17,-333,-282,283,-524,-29,-22,530,-47,532,-5,246,0,-67,0,-21,-106,-16,-73,0,-42,0,-357,-379,-2,-345,-4,0,0,0,-203,-95,-47,-19,-69,-56,-367,0,0,-3,0,0,-3,-88,0,-4,44,0,0,-2,0,-38,0,-1,0,-7,-40,0,-42,-10,0,6,0,0,0,0,0,0,0,0,-13,0,-32,-42,0,-476,148,-428,0,-5,0,0,-143,-66,-25,0,0,0,553,192,-74,417,363,0,0,0,750,-79,325,-694,-225,9,-863,-519,71,-73,-46,-42,100,-32,-349,-12,7,6,1,-408,222,129,-29,-4,-4,-24,196,-90,-17,664,-52,339,0,451,-279,-698,337,642,-20,179,138,-350,-992,-528,-208,806,-166,493,1028,-1144,-386,403,-920,113,718,-11,-502,1316,-524,222,694,-286,1360,1221,-109,0,0,0,0,0,0,0,0,-110,-20,-114,-60,-31,89,0,-1,101,-122,-38,15,-171,28,63,-6,-55,131,-39,40,41,-36,182,113,0,-66,20
