0,0,0,0,0,0,0,0,0,0,0,0,0,0,0,0,0,0,0,0,0,0,0,0,0,0,0,0,0,0,0,0,0,0,0,0,0,0,0,0,0,0,0,0,0,0,0,0,0,0,0,0,0,0,0,0,0,0,0,0,0,0,0,0,0,0,0,0,0,0,0,0,0,0,0,0,0,0,0,0,0,0,0,0,0,0,0,0,0,0,0,0,0,0,0,0,0,0,0,0,0,0,0,0,0,0,0,0,0,0,0,0,0,0,0,0,0,0,0,0,0,0,0,0,0,0,0,0,0,0,0,0,0,0,0,0,0,0,0,0,0,0,0,0,0,0,0,0,0,0,0,0,0,0,0,0,0,0,0,0,0,0,0,0,0,0,0,0,0,0,0,0,0,0,0,0,0,0,0,0,0,0,0,0,0,0,0,0,0,0,0,0,0,0,0,0,0,0,0,0,0,0,0,0,0,0,0,0,0,0,0,0,0,0,0,0,0,0,0,0,0,0,0,0,0,0,0,0,0,0,0,0,0
0,0,0,0,0,0,0,0,0,0,0,0,0,0,0,0,0,0,0,0,0,0,0,0,0,0,0,0,0,0,0,0,0,0,0,0,0,0,0,0,0,0,0,0,0,0,0,0,0,0,0,0,0,0,0,0,0,0,0,0,0,0,0,0,0,0,0,0,0,0,0,0,0,0,0,0,0,0,0,0,0,0,0,0,0,0,0,0,0,0,0,0,0,0,0,0,0,0,0,0,0,0,0,0,0,0,0,0,0,0,0,0,0,0,0,0,0,0,0,0,0,0,0,0,0,0,0,0,0,0,0,0,0,0,0,0,0,0,0,0,0,0,0,0,0,0,0,0,0,0,0,0,0,0,0,0,0,0,0,0,0,0,0,0,0,0,0,0,0,0,0,0,0,0,0,0,0,0,0,0,0,0,0,0,0,0,0,0,0,0,0,0,0,0,0,0,0,0,0,0,0,0,0,0,0,0,0,0,0,0,0,0,0,0,0,0,0,0,0,0,0,0,0,0,0,0,0,0,0,0,0,0,0
0,0,0,0,0,0,0,0,0,0,0,0,0,0,0,0,0,0,0,0,0,0,0,0,0,0,0,0,0,0,0,0,0,0,0,0,0,0,0,0,0,0,0,0,0,0,0,0,0,0,0,0,0,0,0,0,0,0,0,0,0,0,0,0,0,0,0,0,0,0,0,0,0,0,0,0,0,0,0,0,0,0,0,0,0,0,0,0,0,0,0,0,0,0,0,0,0,0,0,0,0,0,0,0,0,0,0,0,0,0,0,0,0,0,0,0,0,0,0,0,0,0,0,0,0,0,0,0,0,0,0,0,0,0,0,0,0,0,0,0,0,0,0,0,0,0,0,0,0,0,0,0,0,0,0,0,0,0,0,0,0,0,0,0,0,0,0,0,0,0,0,0,0,0,0,0,0,0,0,0,0,0,0,0,0,0,0,0,0,0,0,0,0,0,0,0,0,0,0,0,0,0,0,0,0,0,0,0,0,0,0,0,0,0,0,0,0,0,0,0,0,0,0,0,0,0,0,0,0,0,0,0,0
0,0,0,0,0,0,0,0,0,0,0,0,0,0,0,0,0,0,0,0,0,0,0,0,0,0,0,0,0,0,0,0,0,0,0,0,0,0,0,0,0,0,0,0,0,0,0,0,0,0,0,0,0,0,0,0,0,0,0,0,0,0,0,0,0,0,0,0,0,0,0,0,0,0,0,0,0,0,0,0,0,0,0,0,0,0,0,0,0,0,0,0,0,0,0,0,0,0,0,0,0,0,0,0,0,0,0,0,0,0,0,0,0,0,0,0,0,0,0,0,0,0,0,0,0,0,0,0,0,0,0,0,0,0,0,0,0,0,0,0,0,0,0,0,0,0,0,0,0,0,0,0,0,0,0,0,0,0,0,0,0,0,0,0,0,0,0,0,0,0,0,0,0,0,0,0,0,0,0,0,0,0,0,0,0,0,0,0,0,0,0,0,0,0,0,0,0,0,0,0,0,0,0,0,0,0,0,0,0,0,0,0,0,0,0,0,0,0,0,0,0,0,0,0,0,0,0,0,0,0,0,0,0
0,0,0,0,0,0,0,0,0,0,0,0,0,0,0,0,0,0,0,0,0,0,0,0,0,0,0,0,0,0,0,0,0,0,0,0,0,0,0,0,0,0,0,0,0,0,0,0,0,0,0,0,0,0,0,0,0,0,0,0,0,0,0,0,0,0,0,0,0,0,0,0,0,0,0,0,0,0,0,0,0,0,0,0,0,0,0,0,0,0,0,0,0,0,0,0,0,0,0,0,0,0,0,0,0,0,0,0,0,0,0,0,0,0,0,0,0,0,0,0,0,0,0,0,0,0,0,0,0,0,0,0,0,0,0,0,0,0,0,0,0,0,0,0,0,0,0,0,0,0,0,0,0,0,0,0,0,0,0,0,0,0,0,0,0,0,0,0,0,0,0,0,0,0,0,0,0,0,0,0,0,0,0,0,0,0,0,0,0,0,0,0,0,0,0,0,0,0,0,0,0,0,0,0,0,0,0,0,0,0,0,0,0,0,0,0,0,0,0,0,0,0,0,0,0,0,0,0,0,0,0,0,0
0,0,0,0,0,0,0,0,0,0,0,0,0,0,0,0,0,0,0,0,0,0,0,0,0,0,0,0,0,0,0,0,0,0,0,0,0,0,0,0,0,0,0,0,0,0,0,0,0,0,0,0,0,0,0,0,0,0,0,0,0,0,0,0,0,0,0,0,0,0,0,0,0,0,0,0,0,0,0,0,0,0,0,0,0,0,0,0,0,0,0,0,0,0,0,0,0,0,0,0,0,0,0,0,0,0,0,0,0,0,0,0,0,0,0,0,0,0,0,0,0,0,0,0,0,0,0,0,0,0,0,0,0,0,0,0,0,0,0,0,0,0,0,0,0,0,0,0,0,0,0,0,0,0,0,0,0,0,0,0,0,0,0,0,0,0,0,0,0,0,0,0,0,0,0,0,0,0,0,0,0,0,0,0,0,0,0,0,0,0,0,0,0,0,0,0,0,0,0,0,0,0,0,0,0,0,0,0,0,0,0,0,0,0,0,0,0,0,0,0,0,0,0,0,0,0,0,0,0,0,0,0,0
0,0,0,0,0,0,0,0,0,0,0,0,0,0,0,0,0,0,0,0,0,0,0,0,0,0,0,0,0,0,0,0,0,0,0,0,0,0,0,0,0,0,0,0,0,0,0,0,0,0,0,0,0,0,0,0,0,0,0,0,0,0,0,0,0,0,0,0,0,0,0,0,0,0,0,0,0,0,0,0,0,0,0,0,0,0,0,0,0,0,0,0,0,0,0,0,0,0,0,0,0,0,0,0,0,0,0,0,0,0,0,0,0,0,0,0,0,0,0,0,0,0,0,0,0,0,0,0,0,0,0,0,0,0,0,0,0,0,0,0,0,0,0,0,0,0,0,0,0,0,0,0,0,0,0,0,0,0,0,0,0,0,0,0,0,0,0,0,0,0,0,0,0,0,0,0,0,0,0,0,0,0,0,0,0,0,0,0,0,0,0,0,0,0,0,0,0,0,0,0,0,0,0,0,0,0,0,0,0,0,0,0,0,0,0,0,0,0,0,0,0,0,0,0,0,0,0,0,0,0,0,0,0
0,1489.03,-144.55,219.343,-1448.12,103.32,10.9493,-2053.29,1078.34,-434.447,-1785.93,533.51,-865.226,1575.54,77.7852,-1105.55,917.597,-494.653,-360.518,5.92053,520.637,61.8428,-1064.14,-301.704,402.743,0,-632.332,369.435,220.014,-999.174,1882.68,602.111,-176.603,0,26.6536,137.411,287.053,-246.951,-796.373,-320.917,323.205,61.6404,1916,1276.23,573.191,892.029,348.027,-164.875,838.734,-2042.79,-853.712,-285.464,-72.3465,-454.295,-920.293,832.552,971.649,-1099.92,0,-480.306,-8.20394,-1078.35,1867.31,138.036,70.6603,311.854,0,587.205,678.619,-270.009,-122.381,-1.42687,-36.2557,-1307.54,149.144,9.24186,-445.194,35.1112,0,173.158,-1235.39,-321.468,-399.878,-494.114,-284.25,-159.596,-1102.3,-379.581,719.785,2.06143,630.944,0,726.361,220.238,-377.08,-605.137,1157.46,3.9837,-756.356,0,0,0,0,0,0,0,0,-787.379,-202.588,425.051,0,0,-874.937,-1223.58,-182.898,0,211.812,0,0,-200.591,-482.883,121.92,0,746.23,0,884.288,1614.47,-947.612,-405.544,-179.39,-184.978,0,0,240.563,221.174,233,980.476,391.212,144.625,-156.247,-506.794,-2384.6,-336.117,247.898,72.4138,-217.923,1283.35,678.892,324.783,585.424,-247.224,20.1585,-882.772,-1308.19,-301.826,-2071.03,834.938,-392.072,1085.32,-1193.78,-1004.91,-1187.15,-1823.88,-1034.38,-394.001,0,1056.34,233.862,-572.303,-1040.56,-27.6931,801.152,216.72,-408.648,-139.388,350.396,-161.096,-107.558,14.9348,205.104,-55.769,72.7336,167.993,177.885,-473.792,300.925,298.439,343.607,162.066,-103.516,-413.396,-566.2,658.485,247.37,45.6426,-861.652,-180.471,-273.415,0,-41.3702,-41.3702,-41.3702,-41.3702,-41.3702,-41.3702,-41.3702,-41.3702,-154.193,-47.9508,-28.5495,-51.886,101.88,-41.3702,-14.8065,-112.755,-118.14,-99.957,450.842,-181.84,-232.467,86.5283,-154.62,141.142,-80.5467,468.978,86.6816,-294.057,-128.406,265.421,-72.3074,-159.954,177.714,714.229
0,-1485.74,-634.458,-389.847,-883.287,1391.25,88.5988,1473.62,478.833,1890.6,613.604,15.867,-2.99705,-1127.93,387.798,253.164,51.3071,-178.948,-13.7418,-52.7671,-704.325,-170.598,-455.111,158.708,26.6755,-7.8842,-179.552,-21.6777,-122.824,482.877,-919.088,-86.9269,-491.125,0,276.299,285.611,656.447,892.538,-124.358,1469.43,-5.06999,-1538.82,964.228,2037.92,473.502,-820.682,1091.73,658.919,-714.198,74.4644,1229.43,-352.255,-100.873,-34.7688,1013.48,-216.263,670.246,13.2953,-14.5541,880.332,-1123.5,-56.4313,-1445.36,-189.125,-98.8389,1252.12,0,503.812,912.308,-1153.95,416.014,52.7694,-694.02,-1618.6,-971.376,-342.228,-633.339,-628.208,-5.87968,-300.668,-970.069,1251.53,410.784,-112.091,-8.80206,-209.296,1344.3,-94.6169,-630.295,-222.76,-120.681,0,501.907,362.022,-71.6769,249.574,13.0265,-62.0355,-133.402,0,0,0,0,0,0,0,0,1268.73,-327.68,-93.0386,-485.302,-5.97252,961.843,209.953,-274.361,0,127.088,0,0,117.919,-763.16,-1524.98,0,-80.7468,0,211.063,538.711,-528.195,-376.966,125.465,0.957289,0,0,-587.639,-1259.05,1410.83,301.744,1023.13,411.434,-317.797,-1250,-172.77,755.058,41.9786,-293.19,-520.98,-119.432,-539.332,-152.976,-810.968,0,507.742,-587.486,307.436,892.39,121.884,-359.724,807.142,-99.7433,275.062,18.8138,-1279.36,439.715,95.9083,-1297.72,0,512.941,207.481,422.884,16.7005,-2006.89,-1007.41,-1011.38,379.553,7.85875,-259.913,664.342,-129.749,864.078,390.84,993.584,294.533,466.941,892.979,735.923,1134.02,-283.973,-312.63,327.651,597.744,311.435,247.082,-354.616,282.42,-403.734,364.553,610.985,-72.0228,0,41.9866,41.9866,41.9866,41.9866,41.9866,41.9866,41.9866,-163.308,41.9866,346.858,10.5984,-71.5056,90.3353,41.9866,97.0385,115.084,56.8421,51.8181,140.195,126.967,-3.50273,-129.945,138.044,-11.5793,-35.6374,2.46844,-15.3043,-44.609,-277.297,-107.705,46.005,-25.9679,189.807,-594.688
0,-208.161,1129.43,1544.3,801.461,269.903,105.378,1049.67,520.436,124.86,1206.96,432.155,-213.192,-589.819,1421.61,-886.744,53.4228,789.217,-312.345,188.292,-725.329,673.678,-672.934,76.6358,321.19,0,-2161.75,1021.76,-1887.25,208.272,829.093,0,-625.925,0,354.051,-422.139,-698.531,1215.43,-121.588,-333.716,437.644,946.006,-1256.98,1055.5,-1087,33.3526,-20.7685,-874.497,173.628,634.44,-1264.65,500.156,-256.699,-633.221,-2611.42,-282.375,-29.3153,44.4917,0,645.811,301.731,682.588,612.301,-639.07,21.54,336.903,0,-503.297,-738.673,-1672.58,33.5706,677.739,-1074.26,480.763,-358.498,172.247,763.157,387.561,886.321,0,799.045,554.187,244.196,904.503,-78.6406,-639.323,1116.52,732.59,-616.227,-457.227,226.062,0,-6.71889,-388.13,450.488,-623.495,246.203,0,220.384,0,0,0,0,0,0,0,0,-1161.98,-693.418,-3346.32,0,325.354,1487.5,806.863,881.677,0,-1072.54,0,0,-424.683,-364.503,387.764,0,-53.4945,0,574.647,-638.1,113.627,-190.689,1699.36,0,0,0,849.237,-353.444,-469.203,-263.27,-574.95,866.794,18.3624,-447.651,2269.99,544.282,83.6735,134.222,586.396,-1032.91,-1829.9,-156.701,-273.041,0,-122.189,1271.19,-236.963,104.034,26.0774,0,299.856,379.786,542.55,-645.695,366.252,1019.43,-208.808,653.787,0,361.031,-351.677,-396.365,895.051,-62.7696,-196.892,387.902,-719.873,292.916,876.958,-457.02,-200.785,-49.104,-637.043,-522.628,-347.734,704.052,-523.493,-362.616,1026.03,-258.158,202.752,-429.784,30.0846,-272.26,1054.21,-326.31,94.8929,-599.275,487.54,163.284,371.183,0,23.542,23.542,23.542,23.542,23.542,23.542,23.542,-122.156,293.788,23.542,-104.205,96.5273,141.42,23.542,-162.978,-28.8845,-11.0776,-41.4322,-257.064,163.051,-200.072,-132.434,-101.702,56.8334,59.4571,82.761,51.3503,-110.298,-22.6634,400.678,-2.39846,139.837,894.915,-74.5693
0,90.4991,-882.618,-231.258,-387.188,-131.12,-344.285,462.667,200.719,114.871,-285.228,-13.032,250.726,-50.7426,-55.7072,-592.366,-5.94302,-1488.76,-14.7197,1290.41,60.5323,49.2504,505.547,-0.999406,-9.93654,0,341.29,-597.961,-73.145,-187.869,74.9667,0,401.946,0,2695.43,661.082,7.09253,82.3257,-178.563,643.778,-497.373,165.051,144.356,-541.086,-2.71877,425.648,-45.5407,3000.75,-572.228,-13.0105,227.403,-55.1631,-307.95,-437.831,94.1721,-1004.72,0,-7.90329,0,-55.8876,467.018,-355.584,26.4437,129.584,-79.7667,-497.614,0,-454.791,224.59,331.342,44.4142,-30.0623,-88.4374,-13.2677,-79.0559,149.995,-165.632,0,-101.968,-0.999272,-996.725,-192.757,-0.996576,1139.26,-6.98066,-269.05,-274.537,-129.394,-67.2448,110.277,47.0348,0,-264.672,-30.94,41.1032,-14.7442,-147.82,0,-9.91653,0,0,0,0,0,0,0,0,263.071,-104.089,1066.2,0,0,39.5568,-875.674,57.4069,0,-240.095,0,0,686.699,96.7802,642.311,0,-4.90724,0,399,325.383,598.703,-23.8891,-1225.12,-1.97059,0,0,1405.87,-268.855,340.047,-843.742,-534.39,-265.108,564.521,523.209,189.302,68.9611,139.978,45.2546,-62.5776,-63.7956,-255.695,-218.499,809.911,0,-311.537,157.895,-51.3695,35.0684,1444.36,-80.2199,-303.774,2.59691,-338.836,-122.025,50.8352,-373.394,276.511,-156.678,0,123.064,695.049,-393.46,815.109,852.384,89.2569,-421.084,-336.414,385.052,-648.95,-88.5449,440.01,-572.263,-1036.04,747.931,-219.583,556.318,-364.539,-630.675,-757.035,162.792,1104.54,-736.101,-282.284,215.777,640.618,-539.417,-642.465,-22.6311,-129.949,852.238,-647.734,0,-2.71877,-2.71877,-2.71877,-2.71877,-2.71877,-2.71877,-2.71877,73.6579,94.7525,-54.8223,-2.71877,105.967,-69.2566,-2.71877,-80.7708,-45.8032,98.2136,-44.1402,-40.1094,-56.4278,22.2231,121.55,102.192,-33.8216,-8.79977,105.805,-71.5752,-55.3413,-17.1854,-167.173,104.701,-105.585,-297.911,64.6717
0,70.1684,76.3368,-404.658,540.123,97.5064,1360.81,-270.264,-179.925,-55.848,-772.672,-122.842,-1030.95,-3.97986,-297.165,-795.58,-20.1539,165.064,0,0,61.8747,-100.679,214.831,124.545,331.807,0,201.525,-785.794,172.053,-207.494,-73.9177,0,110.322,0,-1069.87,1670.79,-91.1683,-894.893,214.063,-219.23,0,-59.774,-82.0851,-322.587,185.21,929.493,-3.97986,448.855,579.417,-20.8463,74.2674,0,-303.402,-1296.36,29.563,482.474,0,-641.839,0,499.163,798.923,-109.799,-212.207,-25.477,0,-47.1586,0,550.603,-744.696,-1527.73,779.091,93.9199,-274.326,-146.545,0,-47.8852,944.101,-28.217,457.247,-3.97986,486.786,-893.234,0,-63.9497,0,0,665.32,582.963,523.033,0,-27.2179,0,96.2646,-27.6571,-384.501,1.9978,-255.989,0,-352.139,0,0,0,0,0,0,0,0,-263.71,112.608,726.617,0,-1053.15,0,-9.56003,364.029,0,132.091,0,0,768.129,-220.915,-501.787,0,488.167,0,-266.103,149.045,83.7152,381.876,343.261,0,0,0,-970.329,-920.253,989.235,488.811,-470.329,262.326,351.538,-305.528,-236.903,-882.93,2.09388,-67.936,66.4984,141.909,215.801,-18.8894,-106.6,0.998898,0,-131.95,359.564,470.682,260.768,-52.0474,-845.705,202.645,-431.118,-153.695,88.8412,239.856,0,40.2557,0,-245.03,-127.293,1935.74,-619.691,98.2443,-1096.17,634.617,-278.274,106.384,3.79597,609.331,807.05,157.374,-729.071,948.57,110.446,-562.57,-253.51,-212.178,-15.8321,85.7918,108.394,-432.878,566.727,75.5193,-582.727,575.454,-34.5011,-79.7674,-398.863,-502.582,323.045,0,4.17545,4.17545,4.17545,4.17545,4.17545,4.17545,4.17545,-108.721,-19.4055,-30.3676,64.5576,4.17545,21.1933,4.17545,41.9002,5.05564,-36.1698,-25.2511,-41.991,5.11775,73.6287,129.763,-5.94565,66.5597,-77.0186,15.0766,27.8851,-42.6728,-2.67538,-17.1131,-50.2582,40.2557,555.815,-93.0379
0,1284.56,1000.67,-400.586,1820.02,103.261,-799.848,-358.942,-147.008,-1415.99,1134.59,661.526,0,1028.07,-671.672,1628.47,853.712,36.6719,0,100.245,1134.89,0,58.0018,33.0384,-415.379,0,12.6508,283.54,178.182,459.899,278.51,16.8352,674.881,0,-1705.97,1074.63,-91.3726,232.567,41.4625,751.972,157.535,118.77,937.265,-277.872,-936.887,3.97986,71.3403,-1279.57,588.759,-761.703,1652.45,0,516.918,361.026,0,-71.8514,862.84,750.096,0,450.713,-209.559,121.692,-879.579,183.426,-89.4292,-573.319,0,1299.89,528.484,573.141,693.93,59.905,173.376,1857.09,429.286,378.589,-101.754,365.841,0,-648.342,278.142,44.1162,-87.9644,-231.782,0,0,-332.889,0,-173.607,255.512,-133.127,0,103.675,-30.1258,-79.4803,489.613,-613.007,0,-2.29069,0,0,0,0,0,0,0,0,-1868.49,-704.269,407.21,0,0,-632.493,564.96,-1116.62,0,-549.515,0,0,-118.308,0,-42.4275,0,0,0,-1361.05,-75.6668,-704.908,-521.477,1160.15,0,0,0,-287.166,-955.221,-245.861,-1084.35,314.816,-933.863,-742.568,283.621,-471.304,-91.3798,83.8353,16.68,342.549,308.768,995.887,201.542,103.119,0,-38.7496,535.121,-115.47,516.711,-321.042,993.506,0,-189.327,-279.477,-624.866,432.002,-689.437,-208.585,378.621,0,417.905,183.292,53.1497,-544.382,-562.565,328.656,479.912,-249.847,-524.041,-537.687,-970.428,-491.354,-215.026,643.895,700.113,-1349.99,-275.015,186.034,-967.612,270.161,252.664,-658.023,-189.657,-976.271,-510.014,524.729,-398.198,469.488,-376.196,316.881,169.928,-242.715,0,-5.38998,-5.38998,-5.38998,-5.38998,-5.38998,-5.38998,-5.38998,-143.367,-173.799,107.658,-68.0798,-47.0694,-5.38998,-5.38998,284.072,-114.44,16.6482,18.6034,50.432,185,13.7194,-32.8951,80.0866,21.8825,-51.0014,-45.8612,-72.6382,-63.9892,-39.5738,79.0918,-11.1251,-36.475,1971.04,322.118
0,-1210.45,249.443,547.481,-254.621,-1204.48,-75.2831,612.143,-11.4505,-546.616,-309.64,-466.747,998.548,-3654.61,1137.69,144.185,-1277.24,-1550.39,-150.035,-180.114,242.413,-1816.57,274.744,-359.246,289.262,0,317.945,359.068,1253.74,306.779,-1142.01,205.028,256.172,0,794.598,-1137.08,-320.9,-1904.28,-131.45,281.704,-1030.44,3193.72,-1054.81,1093.45,150.328,-24.2159,1204.34,2354.86,1903.28,89.8361,1558.9,551.064,1270.36,2582.71,-640.194,1130.11,-283.35,2233.52,0,1196.95,2537.98,1371.09,768.598,-298.154,786.866,2037.7,0,398.195,315.775,-1364.73,-1098.3,176.602,-242.44,826.615,2032.36,-429.539,1068.01,-808.112,-542.803,-1618.17,491.596,151.386,469.823,-706.007,-264.424,1904.94,56.3798,-164.184,-2227.84,583.347,-1669.24,0,-625.972,-1252.94,1324.7,1199.43,146.209,29.8174,290.758,0,0,0,0,0,0,0,0,378.807,93.4503,686.705,-222.429,678.225,428.957,-2900.02,-125.772,0,632.33,-1596.46,0,-1668.62,3257.42,774.713,0,-377.178,0,-80.3011,898.484,1534.61,-818.562,-631.866,0,-161.971,0,-410.209,118.596,-368.25,-633.903,858.776,105.93,699.242,-639.639,38.8204,-102.293,494.3,-665.494,-418.075,-508.054,-834.421,-133.159,-256.158,-269.65,664.32,-38.7203,-1642.74,1950.53,-1778.03,682.76,822.867,-113.917,103.258,973.572,3609.1,813.632,-215.393,515.808,0,1349.95,-362.482,-91.3756,-1112.19,439.675,308.298,472.748,-390.656,-489.235,-55.5116,30.8168,-281.352,-592.094,214.521,119.848,-230.031,-82.5002,-381.812,-60.4562,-134.027,36.9437,-981.348,-676.419,51.9463,-266.805,32.7678,-332.03,-777.716,-974.786,95.5834,5.82979,-109.449,0,17.3907,17.3907,17.3907,17.3907,17.3907,17.3907,17.3907,456.313,-451.54,206.703,44.0081,29.3323,-464.965,17.3907,135.85,-41.285,59.5607,-211.132,-219.828,104.014,-81.0958,-55.7255,-665.932,136.015,70.3435,-104.092,319.148,570.394,409.057,-332.678,81.2147,162.837,647.739,3033.42
0,-504.07,1097.15,-966.762,1115.01,-374.946,1236.93,210.307,407.315,542.722,53.7547,-1941,1060.73,955.544,1208.19,572.714,450.042,1479.35,-68.2481,376.604,-968.211,0,-641.565,936.684,157.239,126.199,157.787,-1086.49,-1108.43,-457.454,408.644,346.299,-222.11,0,-310.29,-547.11,-295.438,15.4503,-380.188,-463.508,1525.78,-840.386,-588.57,-1015.3,1528.04,-1230.96,-727.607,-2946.78,831.329,-224.879,-1399.01,118.749,-956.977,439.411,0,-1408.51,287.134,-1281.64,125.201,59.4381,-397.483,1181.91,244.105,-337.503,-629.953,-193.226,0,-249.132,-429.81,2004.09,716.653,-205.261,14.366,-1125.96,810.599,82.3065,56.6562,888.373,-312.825,-569.723,194.972,111.27,-123.457,1242.61,677.199,-840.948,-405.115,0,2184.51,-750.295,-538.056,0,512.807,826.197,-75.0683,1089.17,-911.547,-152.725,207.383,0,0,0,0,0,0,0,0,-33.8018,-411.702,1034.58,0,1233.46,418.406,-727.819,-1797.47,0,145.88,0,0,1547.54,0,588.15,0,459.965,0,1260.45,490.121,1042.7,-317.89,-1163.96,0,0,0,40.5742,119.42,-357.313,-407.379,720.176,255.454,-665.238,1036.89,393.823,1771.47,-748.848,235.4,-1074.31,1485.83,518.943,766.755,-1295.19,4.80213,-1701.91,391.609,-591.561,-1184.44,1373.34,-1048.72,1764.96,955.878,590.478,471.507,99.265,1007.41,-10.2435,391.988,0,1031.52,-1055.26,259.304,104.321,524.723,-48.5506,-437.247,589.52,-102.85,593.159,-173.172,418.354,174.088,1140.23,118.84,-340.471,-155.089,-120.115,524.281,22.9169,416.762,565.399,103.605,681.027,111.148,-673.185,-289.773,-62.4769,620.831,-167.037,-533.486,110.825,0,35.563,35.563,35.563,35.563,35.563,35.563,35.563,197.014,23.514,178.27,-81.3841,143.853,-82.3607,35.563,35.563,24.4535,-105.543,61.2387,-509.934,102.815,-17.48,-186.418,323.464,-157.019,212.851,210.09,7.47854,139.038,127.802,-189.249,-98.0109,-39.9811,266.149,-1827.39
0,333.044,-901.318,763.02,135.043,-225.505,450.683,70.8805,187.451,113.07,409.839,-33.98,-2.97864,-31.3213,-748.229,-298.314,0,49.768,0,0,-206.224,0,-9.29243,-29.4616,0,0,163.657,68.3733,-116.769,28.3804,556.938,-14.7332,-37.2442,0,431.248,918.145,124.61,-468.45,202.441,335.669,141.761,-1355.53,638.515,-80.1073,-206.9,379.635,-805.916,399.367,568.215,-28.5544,-506.611,0,-8.78448,1045.98,0,92.9495,-390.216,-14.7976,0,-622.292,34.6451,1028.93,-663.769,-538.777,-50.4645,83.5368,0,-728.336,-383.714,-964.581,-294.396,-1.98539,172.769,0,-438.452,-76.4033,-81.4298,-1.99683,0,447.424,-778.422,-5.96761,0,-25.3403,0,0,-462.123,0,0,-61.0411,0,0,-20.8295,0,-5.97211,-588.455,-41.9543,-4.96102,-73.222,0,0,0,0,0,0,0,0,814.023,-226.919,-356.296,0,0,785.999,688.97,254.237,0,-46.6104,0,0,420.087,0,237.385,0,-8.84635,0,-355.981,-14.2199,-882.561,1397.38,-393.925,0,0,0,-231.026,104.223,-452.443,867.809,-295.768,-440.627,222.297,396.387,-352.801,-124.158,-138.9,0,-341.913,797.148,236.479,-202.144,-17.884,0,57.1597,235.794,1.99957,-81.6067,-458.358,0,0,-173.767,70.3679,73.6355,-17.7526,-600.682,-90.1732,119.272,0,68.614,878.167,1031.53,-327.26,92.3819,-737.949,-667.52,147.305,330.31,472.344,-437.421,-13.0489,-192.867,-644.377,-230.604,-54.8461,193.896,449.486,23.3172,482.389,-381.723,308.647,94.683,339.528,-12.427,179.047,20.0138,303.516,8.41993,80.5464,-1295.83,-230.186,0,-28.5544,-28.5544,-28.5544,-28.5544,-28.5544,-28.5544,-28.5544,-24.8815,-1.97608,8.73353,-63.0385,0.981471,-13.8594,-28.5544,52.4045,-28.5544,9.16499,44.9486,31.7404,151.59,-37.9723,5.63417,-105.549,31.5884,-1.2427,-83.0164,17.918,33.9865,16.4203,-110.842,-145.616,-45.5524,-313.594,-54.2423
0,404.282,157.52,-888.005,2402.13,-198.459,-2224.54,-379.229,535.231,-125.891,-647.175,-909.952,537.193,1003.95,-1298.55,-382.611,-13.5947,400.177,227.617,-922.612,249.193,537.027,-976.275,1052.27,-112.241,0,-1868.03,-644.795,-663.629,-538.262,-1451.43,-364.445,340.526,0,-945.299,423.547,-1350.08,-461.052,170.941,3.55297,619.562,-228.883,-1773.4,837.989,822.021,-1123.31,668.616,-520.293,1994.25,493.911,987.055,-137.424,698.788,-1007,222.843,357.42,-762.818,-662.883,0,1336.77,744.229,-999.089,-124.028,-835.205,-190.039,-8.50847,0,-921.028,-244.124,1014.96,246.813,-1.97429,884.776,-1036.47,-384.531,917.102,-770.581,-20.2674,-268.536,-416.5,562.073,1347.21,-46.2782,-1526.55,-175.587,-831.62,-1069.74,-689.984,1002.52,186.833,31.1428,0,0.272221,1102.98,-350.13,321.495,183.724,1.69151,-645.978,0,0,0,0,0,0,0,0,-557.968,905.026,-121.039,0,-65.4149,97.9765,1267.18,1328.76,0,8.7934,119.489,0,846.608,-1169.01,-1418,0,-259.404,0,-798.52,-736.72,-533.984,-646.134,1216.25,186.949,0,0,-306.534,-1159.23,1070.37,-3.39123,-46.1678,81.8685,322.939,640.751,-98.4176,214.176,-109.143,-360.911,602.749,-431.655,254.465,-202.169,74.1354,-21.631,-417.527,864.748,325.022,948.547,-87.1173,642.537,-485.929,-939.63,-165.333,-620.39,-1321.52,-186.386,565.983,893.996,0,124.906,495.855,751.455,-1257.33,33.4652,1211.15,-105.962,321.845,575.837,247.239,95.5266,719.443,-8.22695,443.462,-1380.56,-211.21,-468.104,118.339,-343.945,502.05,-504.46,350.155,1699.31,-40.0105,-21.2813,-85.2863,179.67,363.614,130.875,162.149,478.455,-674.178,0,-5.27443,-5.27443,-5.27443,-5.27443,-5.27443,-5.27443,-5.27443,32.6444,3.52183,28.4992,18.1244,-56.1539,194.856,-5.27443,316.152,2.06596,-5.27443,13.0803,-45.9761,38.5857,-127.856,15.6611,350.228,-40.0858,-50.721,-235.443,48.0034,-280.361,-217.758,-91.0895,67.8594,-26.0334,-177.713,-1268.87
0,-45.7008,-194.076,-27.4974,-66.3472,-11.8615,-468.662,-1.00837,-111.148,-412.279,-431.127,137.072,0,0,-404.438,-76.9048,0,-462.351,-17.83,0,-694.518,-358.879,-87.9036,-66.9363,-3.97575,0,-47.4461,-82.8547,-7.96028,0,-156.664,0,-39.0805,0,-89.0937,99.1722,-36.7973,30.2897,0,-50.5147,-512.08,-11.8594,143.55,18.5617,-72.066,0,0,212.971,-0.99518,0,-18.7926,3.34585,-1.98649,-438.871,102.08,-73.7505,48.2832,0,0,31.3943,36.2722,-3.98926,0,259.215,0,53.4472,0,46.5678,-46.0521,1.9826,-39.5564,0,-45.0347,-26.319,1.96541,0,569.954,0,0,0,366.162,-186.191,0,0,0,0,-49.0308,-0.998033,-46.0348,64.3776,-47.0348,0,-5.86354,0.982704,-47.0348,0,362.426,0,0,0,0,0,0,0,0,0,0,-62.9245,284.313,293.611,-65.0948,0,0,855.98,-126.748,0,525.566,109.473,0,1088.58,443.768,7.30057,0,0,0,-14.5965,-356.67,-57.8406,0,513.589,0,0,0,365.966,-94.0787,-522.042,-144.923,-21.7205,-406.291,-52.1474,-50.4743,-19.3961,19.182,-19.4846,0,-17.7251,-14.3888,-190.125,0,6.08833,-0.0629771,0,83.6841,-1.00164,-157.262,-11.8615,0,-51.0105,0,8.16323,32.5204,0,370.533,0,531.294,0,173.399,335.409,654.243,-3.67673,60.3488,997.269,-14.6918,-193.981,331.991,-179.842,-155.877,0,164.397,-982.829,-435.45,222.399,171.888,-61.4674,-444.38,334.276,368.54,-654.782,198.409,-531.075,-222.567,183.184,475.739,-110.542,0,-367.168,759.533,-401.994,0,3.34585,3.34585,3.34585,3.34585,3.34585,3.34585,3.34585,-42.8422,32.5204,29.034,-19.4846,0,14.6672,3.34585,-101.641,22.2399,22.2399,3.34585,-51.4145,32.4119,55.3509,-101.641,29.034,-58.2086,-27.3578,14.6672,8.16323,-19.4846,0,98.1931,75.9533,14.3667,-533.47,3.34585
0,-870.59,-1532.71,-37.3543,-282.151,-251.823,-69.374,-226.14,-270.176,0,-120.715,46.4675,-450.218,0,-359.759,719.974,0,38.6111,81.5683,-407.5,-657.468,-48.7539,-34.3543,2.7965,0,0,-446.385,55.8484,21.7185,0,171.591,0,-560.434,0,129.524,576.925,619.393,695.58,-13.2713,22.6274,207.13,-706.58,53.0334,-444.354,271.743,370.945,-213.555,-587.406,338.499,9.75275,-534.182,1.98649,-69.2482,740.224,-137.268,-114.791,0,87.8127,0,92.5808,-1258.95,-190.952,110.173,-49.6044,0,330.862,0,592.527,381.352,-306.294,-406.236,191.986,-55.8469,-538.731,192.421,-18.5583,33.4955,-314.303,0,0,-161.292,480.589,0,131.627,0,278.989,0,87.7858,-12.6914,0,0,0,-22.2404,247.542,-15.5904,-119.748,-80.4824,0,198.507,0,0,0,0,0,0,0,0,1053.5,0,-204.179,0,0,200.552,1170.04,-649.155,0,224.885,0,0,-237.2,-2.34427,165.29,0,0,0,319.422,830.392,186.545,45.2687,-549.07,0,0,0,7.37961,95.417,72.2962,215.235,151.365,171.627,354.922,38.2307,-22.2404,-459.591,43.9455,0,-56.9593,-283.673,413.947,68.2258,-7.54581,1.98649,7.42994,-812.192,204.739,160.984,0,-12.3779,16.2506,146.873,-195.109,-16.9933,-34.9318,-341.169,0,-29.3173,0,453.448,655.275,-183.038,53.5224,23.3268,32.5506,26.1432,141.888,752.015,104.835,-104.594,-3.55618,-35.5903,295.119,1.96943,-514.679,-180.343,-424.936,-52.9091,638.154,-670.116,747.358,184.116,835.805,-90.942,-181.554,130.004,193.604,483.085,395.875,-720.409,552.612,0,12.698,12.698,12.698,12.698,12.698,12.698,12.698,44.9285,76.4249,-111.022,-5.67412,-8.283,-10.5553,12.698,130.582,-43.6701,-32.6948,-33.9395,12.698,-32.8483,-56.5958,91.1795,23.364,91.1239,-7.46914,-0.742025,-19.0277,17.8332,48.3846,-45.286,-72.0409,57.6111,-396.405,-177.261
0,675.518,-438.998,114.72,-2671.11,886.693,1593.6,-920.859,-522.326,1963.14,-1480.42,-315.806,626.196,-556.479,-385.412,-766.552,250.524,232.191,409.071,88.634,310.778,-1553.18,198.024,-631.05,-1024.34,-118.315,-907.195,-1394.76,1111.13,162.849,1650.09,47.9062,-1853.47,0,-1334.91,140.988,1689,-358.403,-325.505,-1096.9,-246.924,2893.49,-697.745,21.5033,-246.559,432.333,1427.56,-1143.11,-363.598,530.762,-103.828,208.325,-1018.29,718.289,2790.34,-832.443,-41.1064,-338.125,-106.665,784.696,300.148,-591.737,1278.89,473.654,862.654,-205.488,0,-930.803,-273.614,-362.241,2006.55,-595.144,383.662,-1399.67,-1340.75,-568.808,-892.297,-291.87,128.545,1190.13,923.368,-1307.09,-471.171,64.852,-11.6954,-10.1709,354.253,260.811,495.198,-272.544,1440.5,0,1770.7,195.498,-781.737,-1009.18,-329.769,-420.854,636.471,0,0,0,0,0,0,0,0,104.908,675.878,1369.92,397.892,11.3458,-707.227,-324.67,1162.08,167.691,-448.529,177.098,0,-1224.36,248.298,875.904,0,-196,0,1030.9,-548.744,52.1323,979.723,300.189,0,190.113,0,-150.057,1244.99,28.8707,185.694,476.253,-629.299,445.922,-15.3419,-375.38,-550.567,-439.274,1245.55,-845.528,389.544,778.935,-531.806,-985.348,-212.18,798.184,450.031,419.648,-209.283,-232.884,-1113.71,-810.875,-264.214,-42.5685,67.2901,-1023.48,-957.357,783.755,-388.335,0,-65.19,647.789,758.425,89.4864,23.1732,165.434,-382.398,546.224,66.4546,688.707,111.887,72.7779,134.313,972.782,552.832,-263.809,-273.376,1291.69,-991.699,-27.1544,133.07,215.342,-906.316,54.9835,-130.121,-51.7549,-61.3889,-410.099,-185.826,-263.097,-199.69,92.8102,0,58.1837,58.1837,58.1837,58.1837,58.1837,58.1837,58.1837,166.62,312.304,-124.176,-15.6213,251.674,64.2768,58.1837,5.66005,-31.7808,-143.307,186.23,-395.367,58.1837,231.853,229.978,-260.487,-101.852,-42.5826,173.842,-160.124,-38.5327,20.2977,125.556,107.377,-96.3681,314.06,-1506.21
0,249.109,-41.0985,-594.672,3.39196,-36.2162,-457.581,0,229.695,186.56,-61.3398,357.924,-44.9681,0,-226.347,0,0,368.198,-10.4492,-8.89358,194.94,-235.413,153.398,-40.2403,-1.00006,0,333.964,0,70.4148,506.376,-381.403,0,-335.354,0,169.326,10.2152,343.52,-210.317,-36.2239,-398.159,0,196.83,-299.844,326.649,-284.713,-6.9808,0,-284.536,0,0,-318.127,-4.6097,0,-385.965,0.953199,-334.15,0,-3.87775,0,171.431,0,-16.6432,-186.549,-1.99943,0,4.81498,0,-145.962,-1.11496,234.122,-171.144,5.65156,207.797,-1.94964,-45.6984,167.059,-0.984641,-34.3965,-0.186531,0,283.329,0,0,-27.0382,0,-9.10648,752.361,284.496,-82.9393,0,-40.9335,0,-112.493,0,-74.5645,-3.99253,40.9422,0,347.098,0,0,0,0,0,0,0,0,-511.053,-5.8457,-23.4856,-3.86158,-43.3366,0,-198.718,0,0,-15.4068,0,0,-957.647,-152.986,150.345,0,10.5445,0,-385.354,0,-4.9019,-38.297,214.415,0,0,0,224.856,305.743,-93.2684,-113.769,-391.013,-15.4461,0,163.112,11.9637,8.03165,-24.6393,-1.42646,-13.0338,208.035,-39.4338,-20.6741,17.0104,-3.86679,-1.98204,59.9501,-164.906,-85.8785,28.3888,-38.2716,0,-39.6328,-0.974818,-104.175,106.444,-136.735,0,6.41388,0,73.3214,25.7842,196.923,47.9967,481.419,687.006,31.4713,657.712,247.669,-522.607,284.574,-249.483,285.999,268.128,-149.937,330.429,264.306,-408.876,350.795,107.903,300.406,182.156,-405.423,-77.9487,-268.811,-118.62,-155.388,10.2235,487.032,-2.32341,42.6787,162.246,0,2.95217,2.95217,2.95217,2.95217,2.95217,2.95217,2.95217,69.0596,30.86,-36.6337,28.993,-34.6381,27.2965,2.95217,-18.9371,30.9755,28.8941,-42.7802,19.9683,-22.8458,2.95217,-2.84874,-52.1593,-15.7197,-26.8811,-15.2492,-15.6362,-11.9646,87.1014,-26.0239,4.26787,18.5187,-302.543,-2.43652
0,1220.56,1415.02,1085.62,1251.84,-683.269,-448.886,-278.255,204.938,-658.697,-123.095,292.963,-67.5884,30.8187,374.179,925.373,-50.0127,631.276,30.1496,-466.627,100.91,-312.279,1303.67,283.783,-136.133,0,522.217,-194.96,175.941,163.745,525.408,46.4973,105.902,0,368.275,-1633.41,-398.047,993.315,1178.01,436.164,-433.539,-186.73,524.701,533.222,139.365,-174.829,32.3796,433.474,-632.969,-12.9329,359.997,-34.7509,-99.5679,-262.352,-716.342,10.6281,0,-260.942,0,-210.377,437.365,-986.903,-566.358,-391.384,1.70895,-361.887,0,-154.724,-90.364,48.9827,-1724.47,231.689,-470.719,18.7613,-0.649263,5.0774,-45.6477,-460.942,368.299,36.9446,748.655,-409.73,60.7609,-413.894,-74.1382,-1.97327,268.359,113.578,-1123.81,-46.0456,-34.4618,0,109.02,183.107,-356.055,-517.256,-341.486,41.1634,319.01,0,0,0,0,0,0,0,0,-13.9505,-27.8809,-653.407,-6.90724,-288.504,-230.47,-1044.36,754.511,0,-290.455,0,0,-400.488,1116.9,46.9996,0,385.879,0,0.162048,-445.697,200.941,292.246,-1164.71,0,0,0,-45.402,943.82,248.979,-284.446,-617.968,966.043,818.07,306.306,-118.339,988.792,-29.2205,-165.357,-140.787,146.426,-158.495,-129.334,57.2992,-35.5541,-45.5833,282.151,155.067,-83.1977,634.263,-324.131,11.9143,-44.3303,-9.2701,-257.722,172.073,1488.79,211.2,82.2439,0,672.982,-204.976,-234.567,496.531,50.7419,-275.886,607.292,498.371,-671.33,-69.8507,-225.985,-467.038,362.69,-513.726,62.2608,691.403,903.525,-702.032,557.656,-1763.16,-59.4635,50.3677,-617.151,565.204,1014.38,93.6973,337.079,78.0953,626.668,-202.161,435.313,-351.648,0,19.9004,19.9004,19.9004,19.9004,19.9004,19.9004,19.9004,80.8285,-85.6457,61.521,-32.1248,-79.5017,9.15754,19.9004,54.0951,55.9885,124.875,-81.6326,-10.6422,-177.458,29.746,19.9004,56.5751,25.1772,102.63,52.6746,30.7625,-114.57,17.1116,-9.15289,73.5883,-24.7998,-917.75,-187.992
0,0,0,0,0,0,0,0,0,0,0,0,0,0,0,0,0,0,0,0,0,0,0,0,0,0,0,0,0,0,0,0,0,0,0,0,0,0,0,0,0,0,0,0,0,0,0,0,0,0,0,0,0,0,0,0,0,0,0,0,0,0,0,0,0,0,0,0,0,0,0,0,0,0,0,0,0,0,0,0,0,0,0,0,0,0,0,0,0,0,0,0,0,0,0,0,0,0,0,0,0,0,0,0,0,0,0,0,0,0,0,0,0,0,0,0,0,0,0,0,0,0,0,0,0,0,0,0,0,0,0,0,0,0,0,0,0,0,0,0,0,0,0,0,0,0,0,0,0,0,0,0,0,0,0,0,0,0,0,0,0,0,0,0,0,0,0,0,0,0,0,0,0,0,0,0,0,0,0,0,0,0,0,0,0,0,0,0,0,0,0,0,0,0,0,0,0,0,0,0,0,0,0,0,0,0,0,0,0,0,0,0,0,0,0,0,0,0,0,0,0,0,0,0,0,0,0,0,0,0,0,0,0
0,158.874,-1019.38,-781.947,-428.823,261.406,-575.438,0,-452.793,42.2411,-19.7984,326.17,-36.3847,-4.67845,-1516.34,-1377.64,0,377.08,0,0,-295.163,328.878,-35.3187,48.2565,32.5632,0,-1143.11,110.571,-519.635,-181.881,116.267,0,-343.549,0,-1438.51,1075.78,281.353,66.3909,-606.289,-761.621,0,745.452,-718.776,23.141,-405,561.306,297.805,704.976,1316.08,-41.5328,-306.733,0,-43.3344,88.798,761.76,-175.867,48.2565,587.619,0,186.211,-324.298,0,106.721,1074.4,0,447.667,0,1285.19,-716.916,113.369,298.397,-18.7516,221.602,0,-173.964,24.2925,0,193.255,-459.116,-226.715,-1248.12,-756.252,0,241.217,0,0,-253.73,-209.301,79.0572,0,0,0,-329.207,0,411.966,-15.4573,156.066,0,-98.5244,0,0,0,0,0,0,0,0,184.656,205.797,-194.799,2.59917,-120.385,-65.7431,701.759,701.712,0,-223.869,0,0,500.245,-488.244,450.783,0,-638.463,0,789.218,184.807,-519.323,0,-617.108,0,0,0,1536.11,689.412,1191.17,29.0704,-332.44,335.781,-75.4808,592.109,129.729,-129,-60.8422,243.573,-218.485,705.55,955.183,-83.0657,349.58,0,-326.907,-402.577,322.674,311.422,289.539,520.876,-356.27,-185.281,0,422.391,-69.524,594.246,0,-20.5308,0,-339.246,1362.31,-346.096,131.503,661.251,970.908,31.9523,-388.797,-595.251,225.436,-46.6132,-876.899,513.551,487.456,-230.549,442.544,-719.729,-321.557,535.117,-430.134,95.9453,-1052.71,1121.51,-667.317,-298.975,613.306,-260.273,-233.904,-476.04,-962.237,-26.7742,70.8782,0,-4.35287,-4.35287,-4.35287,-4.35287,-4.35287,-4.35287,-4.35287,50.6663,-66.9579,-9.50202,0.319027,-68.7906,29.5733,-4.35287,60.8532,31.7945,-28.2454,-32.1557,13.5498,-79.2561,81.1713,-48.6892,188.445,-4.35287,-65.5245,5.23339,-28.9193,-43.8504,-63.618,36.1631,-2.67742,5.59415,254.361,-68.5877
0,12.5206,12.5206,12.5206,25.0412,0,0,0,25.0412,-5.96636,0,0,0,0,0,-2.98318,0,0,0,0,0,0,0,0,0,0,12.5206,0,0,0,0,0,0,0,12.5206,0,-2.98318,12.5206,0,-2.98318,0,0,-1.99816,0,0,0,0,0,0,0,0,0,0,-6.96544,0,0,0,0,8.53836,12.5206,0,0,0,0,0,0,0,12.5206,50.0825,0,0,12.5206,25.0412,0,25.0412,12.5206,0,0,0,0,12.5206,0,12.5206,0,0,0,12.5206,0,0,0,0,0,0,0,0,12.5206,0,0,0,0,0,0,0,0,0,0,0,0,0,0,0,0,0,8.53836,-2.98318,0,0,0,0,0,0,0,0,0,0,0,0,0,0,0,0,0,0,82.6629,50.0825,47.0993,35.5637,0,56.6367,0,37.5618,19.0749,-7.96452,0,0,0,-10.9477,0,0,0,0,0,-3.98226,0,0,0,0,0,0,0,0,25.0412,-3.98226,0,-0.99908,0,392.764,130.944,92.0724,68.3068,55.7862,-10.3879,85.3836,37.5618,74.6844,-31.8581,0,0,0,75.2723,-33.8562,112.686,125.206,0,0,83.8107,0,-36.8394,0,85.3836,79.8284,100.165,0,0,87.6443,-31.8581,0,-31.8581,0,8.53836,8.53836,8.53836,8.53836,8.53836,8.53836,8.53836,12.5206,8.53836,-3.98226,0,0,0,8.53836,-3.98226,12.5206,12.5206,0,0,8.53836,0,-3.98226,0,8.53836,8.53836,12.5206,0,0,12.5206,-3.98226,0,-3.98226,186.136,0
0,683.229,257.374,1425.95,-1597.17,1415.72,1101.75,555.293,933.067,-1944.94,379.077,1057.66,-455.766,301.266,202.704,1387.06,-1229.42,769.932,25.8295,-328.785,97.515,433.508,-1370.5,714.123,826.248,0,1885.45,598.571,345.314,597.546,1296.39,-675.612,-88.8928,0,868.662,-1854.28,-694.234,1593.75,909.504,2341.58,-544.553,-1166.03,1468.84,-887.341,24.8281,-241.661,-2333.05,1379.42,-3977.07,1514.23,-449.928,-32.3923,-10.6313,1334.4,-42.912,1751.21,-836.663,-735.747,-12.5206,-458.116,-1455.81,-459.262,229.899,899.736,-219.256,-963.657,0,752.027,410.493,416.118,-1772.4,-829.275,-1353.43,309.545,527.239,-443.639,153.527,157.327,-96.2637,1541.43,30.7824,580.284,-385.049,362.417,0,-99.5867,1506.9,-312.074,86.7992,858.617,156.654,0,847.471,-335.704,15.9428,-301.616,-605.874,421.851,774.783,0,0,0,0,0,0,0,0,813.161,-505.171,452.926,0,29.0417,-207.674,-71.49,124.682,0,-477.193,13.7981,0,-765.317,-360.26,1093.63,0,301.34,0,-1401.09,-786.177,-14.4739,-1034.89,1061.86,0,-4.70723,0,70.7794,207.94,-190.471,948.882,-904.849,-1565.79,-716.664,-1083.78,-39.5104,-376.121,247.235,-210.562,1558.97,-1088.43,-887.796,269.479,1156.61,0,-52.1113,846.255,-607.77,-408.841,-1380.13,-512.369,-108.841,-664.908,790.037,1209.3,756.886,143.854,-236.331,124.59,0,-98.1936,429.519,-705.574,2111.69,-543.398,-229.75,46.1231,697.306,1034.46,61.0024,-132.232,211.432,-109.233,-47.6328,503.219,-21.4005,-70.7971,343.426,566.726,-1091.53,-748.051,311.478,110.132,212.597,-203.574,561.429,843.888,338.137,20.5973,-85.6503,-403.088,64.0003,0,5.96226,5.96226,5.96226,5.96226,5.96226,5.96226,5.96226,72.0959,-156.224,-21.6929,129.755,-60.2741,75.1716,5.96226,-226.962,14.7845,129.104,35.0661,-68.6109,192.822,-163.756,94.6243,-200.315,-3.80127,-32.4935,5.96226,-70.3967,143.496,26.8419,180.335,-111.244,69.3713,986.705,651.674
0,-280.08,-595.885,942.126,-1034.71,221.056,-1104.91,291.027,-1226.04,-16.4053,1072.23,-189.19,994.945,864.638,1405.01,-516.353,-155.519,-544.097,449.483,202.733,1821.76,443.441,1056.29,-802.395,-163.349,0,409.059,-517.699,-3.96283,86.0746,-996.698,-109.583,600.47,0,227.371,-1366.61,-670.708,-37.4152,-115.44,-988.967,-237.327,-251.107,-207.425,-216.919,-585.724,-502.75,-892.45,-2691.18,-1313.32,148.36,-297.858,-696.249,1258.85,-1474.22,-174.36,-1171.58,-231.01,594.691,0,-1395.46,1273.05,-9.9406,-329.944,13.1688,-500.397,212.083,0,-188.488,636.248,767.806,-665.548,-119.723,705.122,1866.16,1770.24,177.401,-1102.6,117.892,-92.1429,-446.475,123.282,213.02,-425.965,-265.388,-99.0651,306.482,-235.6,79.8786,-439.102,-371.837,0.999029,-42.6713,-1094.21,81.4804,0,-143.334,1351.59,154.711,-695.604,0,0,0,0,0,0,0,0,-834.021,384.054,-347.018,0,-107.813,-871.388,2127.64,-1628.41,0,129.104,1182.34,0,1626.57,301.042,-40.6454,0,-385.059,0,-1266.59,-1164.53,-7.96481,1298.26,642.639,0,5.97151,0,-1517.57,-229.759,-1121.18,1989.1,609.351,217.819,858.806,1441.94,-1157.12,-979.877,-79.2991,492.218,1369.52,-1313.17,1161.81,-309.081,240.981,584.905,45.7902,-800.932,-245.321,-1122.87,1011.85,91.3493,-327.227,1140.53,1070.41,387.427,466.091,-1094.59,189.098,-30.4192,0,754.668,1195.79,-722.031,199.138,-796.504,201.564,1153.1,-640.829,-949.227,-164.167,162.318,255.173,-554.576,96.8389,-104.745,303.539,466.375,110.384,473.926,-121.788,-310.59,-86.809,-324.038,-88.4468,-472.464,235.789,-890.087,-219.696,-176.684,513.279,96.2033,154.847,0,-25.1576,-25.1576,-25.1576,-25.1576,-25.1576,-25.1576,-25.1576,26.0187,-172.472,-195.894,6.45401,115.743,-53.073,-25.1576,-218.8,-43.8666,-47.2916,153.18,429.601,81.5793,9.409,-131.926,-89.6789,5.01847,-84.2362,-219.28,-25.1576,14.5863,120.047,42.9393,-16.9969,67.6795,-530.527,1083.71
0,38.9584,664.658,-103.855,443.427,50.5005,-18.6042,31.4012,45.2879,76.994,696.216,108.409,191.563,398.691,638.436,169.384,0.89566,-332.303,-5.66032,-184.124,686.112,131.193,1392.02,3.96283,-23.9247,0,-330.388,12.5264,-549.332,209.274,-133.702,0,1028.27,0,391.154,-590.851,-1203.33,-244.015,-182.782,-904.072,1.96242,-273.845,-57.2774,-311.172,-634.822,276.415,101.932,-155.226,-617.436,-107.952,-490.263,58.0413,-254.04,-294.827,298.17,597.257,0,0,0,405.665,11.936,646.809,-1120.25,242.021,0,-333.953,0,-224.022,855.596,1214.03,79.2041,201.737,1146.83,10.5919,53.1818,0,436.262,210.166,0,156.982,473.882,1340.66,117.637,96.1362,12.6954,91.911,168.195,91.911,-546.444,0,249.846,0,-1.99903,3.99152,160.818,625.812,-30.4547,0,-673.895,0,0,0,0,0,0,0,0,71.4558,-28.074,-188.527,-103.536,-472.918,-335.128,-530.348,-623.762,0,748.601,0,0,-537.645,-839.498,-565.638,0,-44.1261,0,259.937,0,-568.784,227.443,-7.38626,0,0,0,906.951,688.617,325.773,-491.893,-380.179,333.308,47.7697,-111.66,-81.9124,-4.27185,-31.4332,-336.637,97.8541,-234.862,-164.826,-40.3339,-0.0285362,2.86789,0,40.7491,-90.4012,-291.644,11.9655,121.353,-27.4237,128.083,31.4349,1055.36,20.6877,-445.18,13.9699,-138.846,0,1231.88,-1122.88,-3.81384,611.494,491.347,-319.414,60.0835,187.068,48.7726,-462.555,373.412,-258.522,-414.325,33.8987,-174.998,-459.154,-46.9604,63.8464,587.685,368.475,365.584,-314.08,71.3384,414.465,106.648,127.346,135.143,-519.087,629.392,-469.847,-246.547,313.672,0,22.578,22.578,22.578,22.578,22.578,22.578,22.578,-2.85109,-8.26115,16.5954,48.2522,-60.0099,0.600538,22.578,-7.09749,-48.8907,-2.4818,13.1791,24.4282,43.1059,-4.30413,27.4542,10.9083,71.7614,7.92245,58.8642,19.5032,22.578,59.2356,-84.4549,-23.2577,20.4223,-476.805,-779.889
0,-1.37478,-488.49,-755.372,1236.48,-721.631,429.451,273.081,-1628.67,1321.78,125.719,-292.457,-533.973,563.164,130.421,1382.89,543.226,-54.2372,0,299.494,-1133.96,849.123,689.319,-686.527,26.888,0,2754.52,1178.8,959.018,-208.803,-1662.84,0,-390.54,0,-191.048,223.935,397.676,-1367.72,748.763,-608.283,-686.26,1199.4,113.824,-907.872,489.96,-365.507,-561.801,564.292,568.229,-639.4,587.523,0,-235.043,-1417.79,93.9473,174.823,0,535.482,0,-1999.65,-787.5,94.6165,946.243,-976.471,0,-938.899,0,-717.43,-207.642,590.479,1333.29,207.027,-76.8589,702.356,-893.705,-11.6658,391.671,208.868,15.3763,470.694,34.4064,-1450.04,48.1388,-916.538,0,-369.876,-681.036,-217.612,382.435,-366.376,-56.4715,42.6713,-1216.9,-566.193,502.409,-120.796,53.8477,0,1175.85,0,0,0,0,0,0,0,0,-299.225,199.416,-1854.03,492.21,191.472,648.411,71.0353,1179.83,0,360.461,0,0,296.125,352.563,-975.543,0,-84.8726,0,350.17,-179.067,669.94,-504.602,250.766,0,-29.4071,0,-157.634,242.584,-1365.22,-996.751,449.44,444.021,533.057,909.45,447.965,-1349.34,409.005,-67.0888,-44.9308,256.062,-2024.74,506.824,405.253,0,416.996,-1390.95,1426.99,-1454.2,1096.12,-129.201,0,-1321.11,-621.003,-856.979,-741.542,-105.149,-104.471,-98.2734,0,712.863,-133.746,469.748,-533.544,-555.386,-109.661,-614.424,-516.286,-783.28,857.609,274.318,535.575,147.799,-895.952,31.814,498.013,-792.196,249.974,202.761,673.335,1035.67,183.281,-513.546,-174.798,504.974,-1377.73,458.562,150.758,789.765,313.171,325.866,757.382,0,16.0265,16.0265,16.0265,16.0265,16.0265,16.0265,16.0265,-122.904,117.954,-245.271,94.0709,-22.4146,122.333,16.0265,-31.2015,95.6803,9.31044,24.9974,99.6278,-365.428,352.311,-128.717,227.133,11.7027,54.7646,-191.197,-1.13727,151.976,16.0265,-212.667,22.1396,65.1475,-36.4661,1061.67
0,154.732,530.591,-1103.86,-26.32,-746.815,22.1827,-258.721,341.366,-816.703,1191.65,419.693,-935.349,-516.468,-49.9011,31.3699,-366.848,256.791,-234.658,0,432.786,1104.16,-357.967,-499.476,-518.439,0,751.707,1106.9,647.9,-161.977,201.279,62.0345,1142.09,0,184.288,430.577,1250.05,205.912,41.672,151.62,271.151,-2998.04,10.6625,-2006.01,-776.153,277.525,2.0401,502.306,-1856.45,201.516,-262.503,1.45744,-0.999178,1264.27,-111.657,441.844,-294.712,205.262,0,-1213.2,-1568.98,-267,-397.724,1133.47,114.005,-542.433,0,-175.582,-512.811,785.499,-57.9627,-44.6993,798.887,1564.13,-1177.64,-139.154,-119.773,279.327,31.7318,222.774,235.855,-139.746,584.365,755.482,315.688,858.219,-1340.32,-29.3022,614.667,592.711,-113.955,0,-924.937,-220.298,-258.063,84.6957,-187.671,-5.97331,-633.484,0,0,0,0,0,0,0,0,1372.23,381.066,-31.2255,0,-295.054,-691.146,-824.213,-576.115,-167.691,-253.084,0,0,-1580.47,-943.82,-383.073,0,-245.494,0,-423.606,-365.58,389.803,-84.9516,-2491.8,0,0,0,-273.118,389.025,-1066.58,477.256,-559.758,-305.152,-1019.98,-1550.21,2001.14,935.77,-13.0073,-194.28,-546.486,-162.77,1259.53,92.4412,298.488,212.18,505.646,258.317,1328.3,74.6845,279.998,-162.611,-13.8654,453.023,-404.764,211.12,-391.875,-467.531,2.58807,-1001.14,0,-660.076,523.394,814.766,734.781,1553.63,-756.776,90.3027,166.244,228.917,-309.848,944.505,431.725,28.2773,281.53,-611.455,720.033,197.005,103.748,12.2556,12.105,241.339,394.115,524.804,239.34,514.529,-277.013,540.611,317.165,603.61,322.811,-85.632,464.066,0,30.5035,30.5035,30.5035,30.5035,30.5035,30.5035,30.5035,-384.607,274.414,5.69223,38.5396,-80.4446,-143.629,30.5035,-189.286,92.3094,71.7616,39.8416,402.468,-95.3318,100.726,293.047,75.4156,-59.5898,50.0664,-176.055,-108.237,84.9793,-34.8222,30.5035,8.7022,-21.9339,495.051,-399.664
0,-36.2159,-148.329,8.81117,-406.865,-46.1666,-273.325,-92.1311,-486.091,72.8833,-443.658,-71.2309,0,-76.2274,-558.17,-255.35,-0.999822,-209.287,0,0,-370.946,0,-15.843,-3.97591,0,0,45.9578,-12.9177,0,0,-149.552,-3.97591,534.777,0,84.0662,373.739,-217.181,357.466,-209.293,-202.01,-91.9589,610.739,-70.2448,-57.8494,68.0738,0,-5.96545,6.57286,200.493,221.265,304.164,0,0,-406.168,0,-1.70895,0,0,0,-95.8996,611.393,0,0,-204.453,0.711705,-342.919,0,-191.149,-474.828,-10.9484,-101.931,0,-178.507,-0.47607,-85.2675,-5.96545,0,0,0,-6.96476,-245.63,-330.94,0,-97.1177,0,0,-5.96545,0,-65.2426,-69.2185,0,0,-11.9309,-88.2448,0,0,-13.9282,-3.97591,-85.2682,0,0,0,0,0,0,0,0,176.738,0,692.369,0,0,-107.69,795.574,831.228,0,0,0,0,543.15,25.0293,-2.99775,0,0,0,-3.94071,-491.321,0,0,585.942,0,0,0,-742.103,177.093,194.128,-69.2562,27.6103,-231.036,-778.764,318.616,-76.2102,191.996,-3.15713,-0.999304,-113.656,-123.172,-17.2315,-7.96333,-76.3155,0,0,20.4366,50.0587,12.7058,-109.665,-25.6976,0,-317.737,-44.0131,-7.95182,0,443.896,-19.771,32.2834,0,112.826,607.122,70.8866,97.6099,233.543,890.571,361.056,38.5676,296.561,-453.033,-25.2571,-8.99374,50.1004,131.943,-559.234,-539.916,184.631,288.842,200.541,-157.093,244.029,-280.878,95.0662,74.4355,-347.106,391.399,-116.518,225.092,0,-510.433,34.1282,61.4298,0,0.711705,0.711705,0.711705,0.711705,0.711705,0.711705,0.711705,57.3303,21.7024,-7.01759,-3.15713,-0.999304,-26.0403,0.711705,-13.1034,-32.7614,10.6074,28.8842,20.0541,-37.6585,31.9117,-35.3965,-10.9742,4.87379,-34.7106,0.784903,-14.1622,21.7141,0,15.1473,0.711705,8.66465,-161.09,-7.22915
0,-1977.96,532.602,54.1947,-193.291,-159.963,535.67,-147.009,-70.3819,0,-384.206,-21.2812,0.0452974,-108.418,-313.265,-136.98,0,-254.516,-16.302,-0.915084,-106.655,0.96609,-48.2208,0,0,0,-168.384,197.798,-87.0684,-232.195,-852.699,-71.4345,-16.2448,0,274.574,-405.592,447.166,-126.41,-269.812,-49.4587,664.468,-512.496,-93.88,-130.123,521.338,-89.7599,366.858,-19.2931,147.353,-24.9425,-156.281,159.158,-1.94905,-21.4777,-26.5975,-136.644,-17.2213,-3.59725,0,-214.506,-417.403,-1.96242,-258.913,-58.4891,0,-5.76091,0,-125.159,-46.0452,-358.844,-11.9619,-49.3691,-116.076,-320.563,-1.69151,0,-52.605,-235.834,0,-0.997691,-314.959,-12.1232,-5.46751,-23.6321,0,0,-15.8632,-0.998266,-36.456,-30.3937,0,0,-2.99634,-254.511,-10.9349,-2.82893,-113.371,-1.69151,-3.18687,0,0,0,0,0,0,0,0,-70.7388,0,267.982,-2.59917,0,-336.944,-152.093,-504.936,4.99243,371.689,-5.74044,0,-287.322,-34.6713,-39.04,0,0,0,305.572,813.368,-100.173,342.699,390.451,0,0,0,827.738,37.5557,357.21,-760.944,182.502,348.392,-339.732,-643.506,132.027,-58.6935,-70.6913,-92.2928,18.8245,-20.2862,-439.323,-21.2976,-87.847,-7.8667,-3.9375,-363.655,190.232,73.3335,-32.665,-4.99475,0,-84.7327,354.608,-429.325,-102.716,849.331,-9.85724,-133.409,0,336.077,-378.22,-574.296,373.984,266.226,-748.944,165.702,398.812,-24.8021,-325.711,-111.285,-264.701,346.073,782.873,-90.9159,1246.07,29.3871,137.061,523.956,-770.459,-38.3442,-105.933,752.372,-608.005,968.454,-636.42,91.0863,612.832,-731.448,1666.22,523.498,167.174,0,-3.80214,-3.80214,-3.80214,-3.80214,-3.80214,-3.80214,-3.80214,-90.0002,16.0164,-68.3356,-6.3333,-44.8695,28.5395,-3.80214,-103.693,119.935,-12.12,26.631,31.7046,-156.543,8.85896,-29.4958,83.7616,-61.6596,96.8454,-80.1467,78.4945,-1.66316,-98.5401,188.144,44.0515,-3.80214,-146.493,210.082
