0,148027,22879.1,-17883.7,100177,5696.49,-9641.86,23115.1,-40290,-9147.18,-8421.69,-6362.95,-2108.65,-21392.8,-7256.19,-22572.4,-2052.34,196665,-3232.31,-2753.05,-35198.4,-12584.9,-23859,149357,-1916.29,0,13404.3,-8402.55,-1699.73,-23866.9,-28407.9,6257.36,-1580.01,0,-22397.4,-2208.14,-1470.26,-4907.51,1137.5,-9159.22,-10747,-525.878,-1345.37,-6751.57,-7980.24,51.6311,-7487.21,150.946,666.7,239.77,18166.8,-1.99714,189.225,-10394,-195.308,182.742,41200.7,-1.99485,-1592.98,171.655,-4423.01,-1173.43,286.811,-489.267,397.93,1658.5,0,95752.8,13858.1,9217.47,81298.9,7510.82,-23039.1,35602.6,-17754.8,-2667.21,-20508.2,-3902,-1349.53,-8460.09,11272.6,-15504,-1285.33,148002,-19.4161,4585.05,-28640.3,-7998.66,-4638.49,176207,1831.14,-1365.52,-10012.9,1899.96,-3103.77,-6987.33,-18017.6,6471,-6918.31,0,-5425.23,-20272.1,-9693.64,0,0,0,0,-279.157,4966.66,-8595.69,-3507.79,-4083.49,-2046.7,7001.79,-16035.7,9964.94,65551.6,-1374.41,0,-29448.1,2032.44,-11828.6,0,-2069.98,0,-17446.8,2935.67,-10767.4,-9373.64,3080.12,7979.23,-1621.6,0,-31102.1,-5863.36,38951.6,-50035.3,15218.3,26511.3,-31398.2,-41563.6,-13609,-3296.71,-5030.52,14380.3,-20799.2,15828.8,-3575.18,-162.093,56324.9,-6948.43,6402.38,-60913.9,-4684.2,-11739.7,56029.3,-1356.42,-10306.4,6405.43,16396.5,2851.46,-25506.4,10758.4,2835.89,-17.6787,0,-23030.5,47094.2,11813,-107382,-13817.1,30995.3,6820.06,-44890.4,-5896.85,-21188.1,274.979,-1673.41,-8209.63,-23520,17057.4,-22364.2,21759.1,-8058.37,-21543.4,-59781.7,-28397.1,-3591.45,85738.5,-3474.75,3570.69,4070.46,4952.91,-13844.5,-46217.3,-9864.7,-9230.26,-16014.3,0,1968.25,1968.25,1968.25,1968.25,1968.25,1968.25,1968.25,-14530.4,-2137.87,-6634.01,-2743.42,517.62,-6839.56,499.514,-3996.32,-1565.94,51053.6,-1966.29,-3552.16,-22437.6,-5186.23,-5305.7,63670.7,-698.829,-969.419,-604.548,1417.26,-2773.73,-11086.7,-4005.58,1633.76,-2075.53,44609.5,-27189.9,0,143876,24439.2,-6555.47,114189,13522.1,-14386.3,31713.7,-26036.7,-4298.49,-18608.6,-7221.44,-4557.32,-2048.71,23775.4,-15724.9,-3057.36,207999,-1210.04,655.655,-41379.2,-10296.5,955.044,160705,1355.06,-46.3116,4232.94,-7009.9,-5708.64,-20072.8,-26112,11349.5,-9268.46,0,-35476.8,-1519.47,-5247.77,-1537.91,-3165.26,-3192.25,-12990.1,-1541.22,-689.271,-6185.96,-3201.36,-278.541,-7757.72,-2780.68,3522.21,-254.876,28082.4,0,36.5805,-3499.6,571.042,2003.53,48074.7,-1241.76,0,1335.72,-1829.16,-41.0708,-397.047,-1864.87,-412.019,8137.94,0,137921,14430.5,-5082.16,118514,4024.33,-36219.9,30560.6,-17581,-242.741,-26947,-10569.6,694.566,-9535.71,-1606.03,-18945.5,-1201.81,166763,1398.61,3570.64,-45077.7,-8178.57,-11377.5,189544,601.48,-839.664,-12545.8,363.372,-4632.61,-5276.82,-16686.4,7000.35,-2829.1,0,-3564.88,-26859.6,-7339.79,0,0,0,0,-6750.79,-2092.97,1945.35,-1621.58,-4232.35,-19364.4,-20551.7,-21318.5,7665.43,57115,-4816.47,0,-23671.8,-4634.38,-24088.1,0,-3389.85,-2118.83,-10248.4,505.038,-7708.12,-14966.4,-8754.71,3350.8,-6504.39,0,-46278.3,8161.02,41343.2,-39241,12622.1,28474.5,-37598.6,-39739.3,-19620.3,-7763.86,-4109.22,16518.2,-21480.3,12705.1,-5343.66,3223.85,59351,-6154.42,5246.64,-69513.7,-7926.62,-15327.8,66973.3,-292.926,-10681.3,10207.5,14913.2,1617.31,-22326,6369.25,2151.4,645.186,0,-35037.5,27638.3,8056.55,-158527,-11293.4,39495.3,14426.5,-56721.5,-15111.9,-12049.1,13008.5,-1749.6,-15130,-17671.4,14896.8,-18860.2,-4391.3,-8634.26,-13927.5,-36315.2,-23422.4,-10110.7,53981.1,-5109.71,-6176.59,-108.786,14456.5,-7786.49,-45243.4,-2240.58,-591.131,-18845.4,0,1963.74,1963.74,1963.74,1963.74,1963.74,1963.74,1963.74,-14837,-3550.84,-6720.05,-1620.51,635.428,-7531.69,-462.401,-4291.36,-1248.5,51979.8,-1945.65,-3152.63,-21945.7,-5391.45,-5764.78,65020.9,-807.769,-2001.24,-1204.55,2215.31,-2425.96,-10748.7,-4496.65,2446.99,-2513.63,46164,-27274.9,0,155979,25676.3,-6097.78,162032,1279.18,-14875.6,37568.5,-61185.7,-2182.67,-22228.3,-13921.8,-2109.86,-35358.2,8074,-36632.3,1169.15,220550,-554.741,4949.68,-56446.3,-31.3981,-9155.29,161499,-1023,0,4988.23,13078.8,-560.74,-11389.7,-29808.8,14669.1,-4449.86,0,-18852.1,-3035.33,17865.6,-24790.4,5985.58,-17025.1,-205.796,-2277.84,-87.0682,-15770.7,-6.47733,-1196.75,-4132.36,-973.438,-845.109,400.03,19623.4,-5.81594,-18.502,1314.3,-3917.16,3633.5,56307.9,0,-46.3116,-9181.71,79.6169,19.6764,664.948,-2313.91,-552.358,2686.66,0,157590,4945,-24827.7,152599,1579.36,-28895.7,17799.4,-22512.6,-13038.4,-32765.7,-9720.52,-3763.3,-7055.13,-15291,-13486.8,-6968.21,197391,1138.53,304.201,-53246.4,-6954.66,-5962.62,225706,-568.663,-2781.2,-7187.9,-13471.3,-5840.16,-16909.6,-28733.6,6726.1,-1200.49,0,-3693.97,-22063.5,-11320.2,0,0,0,0,22871.5,8921.66,13107.5,1428.11,-5993.89,1202.12,2012.11,-364.024,5379.05,58671.9,-5698.46,0,-17082.6,-15258.1,-28913.8,0,-836.799,-839.664,-8340.29,-11890.8,-13537.6,-12269.2,-10336.3,724.996,-5844.76,0,-38054.3,20895.7,42909.1,-32276.3,12689.3,26492.2,-46959.4,-48265.8,-21448.1,-11119.6,-3184.65,13091.9,-21145.6,8925.28,-14193.9,638.707,61347.7,-6169.92,6296.76,-76038.8,-7510.8,-15473.7,77463.1,1172.47,-9382.92,11148.3,12821.2,838.677,-25909.4,4469.41,2994.28,-547.558,0,11403,63911.1,38787.8,-191316,7187.7,61510,41291.5,-28868.3,-11095.6,7343.72,19949.6,11405.2,-695.902,-8876.23,30740.9,2347.15,-27205.5,5.54194,-11201.3,-9825.31,-25743.3,-4377.81,11635.2,-6807.74,-6313.76,2856.04,29051.7,2952.24,-26205.7,17899.6,6419.09,-17516.6,0,3590.13,3590.13,3590.13,3590.13,3590.13,3590.13,3590.13,-14023.9,-3550.84,-5906.82,-807.286,1448.6,-6718.53,-462.401,-3478.13,377.896,53606.2,-1132.48,-2339.46,-21132.6,-5391.45,-5764.78,66647.3,-807.769,-2001.24,-1204.55,3028.53,-1612.8,-9122.28,-4496.65,3260.22,-2513.63,38618.1,-26461.8,0,247063,48389.7,-17786.3,155197,-4633.74,-27779.3,37536,-14330.8,-11736.8,-30158.8,-7461.09,-3105.08,-24222.7,-17027.4,-30902.8,-4403.97,226737,-1870.03,6148.53,-49231.2,-20722.1,-21770.6,207824,-1519.65,-1600.8,-2192.95,-6326.87,-4527.59,-21196.1,-52201.2,8069.07,-1693.97,0,-43403.1,-29239.1,14723.9,38527.2,1765.16,1823.75,2324.43,-105.157,-4275.81,-11558.6,-3632.21,-30.6858,-1496.54,3629.99,-993.172,-1066.65,48455.4,0,-985.827,1094.67,760.393,-3208.44,65912.7,-761.095,0,-718.276,-1235.87,73.5538,50.5287,1381.93,1362.07,2612.44,0,218058,31151.5,-7626.26,127495,5703.95,-23267.4,17857.1,-5645.14,-1009.66,-24688.4,-7559.07,-2413.88,-4324.18,-2585.93,-25196.5,-4035.03,195179,-13.5823,2805.23,-26510.2,-13410.1,-128.704,235757,251.662,-2027.88,-2248.11,-3636.37,-2298.35,-9823.11,-21914.9,5005.82,-6263.21,0,-67835.3,-41471.5,-17018.4,0,0,0,0,-46729.5,7452.1,-1021.56,-2257.65,-9328.58,-19867.4,5573.1,-6740.5,7899.24,68153.6,-3357.56,0,-62311.5,-891.836,-21413.7,0,361.665,-46.3116,-15243.6,-3853.55,-14733.9,-9176.16,-13906.8,6151.2,-4333.23,0,-37313,27061.6,39130.6,-31528.7,9464.94,33788,-55419.1,-52098.6,-23505,-13019.1,-2500.24,10999.8,-21453.3,10358.3,-16499.7,-565.28,63244.4,-3734.16,9282.05,-80005.2,-8222.91,-21797.3,94153.2,4150.77,-10065.7,16879.2,9041.67,-21.3686,-26534.1,3068.16,3031.69,-919.669,0,-41686.1,46054.3,31093.9,-212972,16420.7,42354.3,56975.2,-21329.5,-5054.62,19045.1,17819.6,15517.7,4178.84,-6097.16,45551.3,4341.79,-72194.6,-2309.51,-19294.2,5638.38,-16631.4,8303.96,-71080,-10539.1,-5284.96,-5184.45,35816.2,5728.1,-25339.7,29503.2,6548.17,-15713.6,0,3590.13,3590.13,3590.13,3590.13,3590.13,3590.13,3590.13,-14023.9,-3550.84,-5906.82,-807.286,1448.6,-6718.53,-462.401,-3478.13,377.896,53606.2,-1132.48,-2339.46,-21132.6,-5391.45,-5764.78,66647.3,-807.769,-2001.24,-1204.55,3028.53,-1612.8,-9122.28,-4496.65,3260.22,-2513.63,36014.4,-26461.8
0,455.973,-306.103,-1212.08,-632.042,-514.608,-1884.07,2221.91,4921.24,2872.27,792.03,-1042.8,413.5,-396.129,-4362.29,-1320.41,-1216.37,-416.207,-314.88,-403.735,1349.03,1568.02,469.397,1090.26,-1264.54,0,2632.28,436.77,596.651,-2400.59,-1305.21,-678.428,-1817,0,911.862,-1446.56,-3772.27,2228.36,-235.264,1243.22,200.981,-137.028,2448.9,-767.281,-697.97,-84.267,-756.435,384.819,788.446,-181.38,-193.208,-48.9428,-236.483,-229.656,-708.551,-1349.88,571.666,125.006,0,80.3654,-1179.11,-39.4837,845.53,-363.318,-235.474,1318.07,0,-694.255,-2132.21,-1640.39,1738.69,632.988,-246.415,-296.929,605.328,2257.05,3234.25,1256.72,-100.737,1523.66,1498.92,2531.9,-1202.66,-36.6765,-515.801,1353.09,-550.548,73.622,-1541.37,267.09,-595.629,-125.794,203.758,1527.71,-510.028,-151.787,1698.45,-1554.14,-2369.73,0,3190.8,-570.685,895.484,0,0,0,0,697.034,-2362.82,1435.83,-1509.38,-251.947,2236.73,1040.41,956.885,-81.215,674.962,-924.235,0,2666.78,-1816.82,2192.61,0,-95.4208,-3.76396,-3110.81,-5431.94,-482.44,-1642.42,622.912,1052.01,-1622.67,0,73.559,692.707,-1427.75,1635.63,-1217.02,1529.08,-1344.22,3515.52,-1663,-2046.33,291.407,-250.867,-2804.28,1516.93,-1295.83,2609.49,203.341,-350.987,-1392.94,1128.94,36.5824,752.654,726.59,1715.14,-156.4,-1025.7,-622.227,1035.66,-734.103,-1187.28,-1795.18,2286.31,0,-919.771,2546.74,498.689,-815.09,447.917,-1078.7,476.701,-1137.39,-363.077,-738.374,-993.924,285.547,-404.01,-817.711,-340.358,-2073.87,-403.585,-1797.82,-1019.91,-50.6867,-1668.63,-1164.68,544.649,-233.733,-777.596,-1511.66,-369.787,-160.933,90.341,349.541,384.353,-2433.79,0,-110.748,-110.748,-110.748,-110.748,-110.748,-110.748,-110.748,846.47,342.492,115.899,-9.61541,-11.7806,-60.045,-85.9483,124.94,-216.794,-17.897,-308.303,67.5802,431.386,-252.344,-161.959,353.745,-34.9172,-106.355,-230.696,-619.702,43.9428,-397.716,2.35758,-287.861,-634.358,660.212,869.326,0,-135.134,386.293,-544.57,981.865,217.009,1422.95,2774.53,-1139.96,2872.08,3495.97,-2023,371.456,2702.33,-2647.94,-607.551,-946.9,621.815,-1214.83,-805.665,6.91067,-411.583,848.952,11.4834,61.5377,-32.9909,2685.14,-3019.5,-448.612,-684.301,-47.3289,-1000.71,-590.569,0,805.711,302.119,-2642.48,2569.33,1661.68,954.184,2002.93,1.3736,-298.731,-114.941,909.916,-59.4349,-726.564,113.619,2028.52,-257.742,-881.132,626.194,243.715,1320.78,-4.26232,-373.077,78.9808,-804.161,0,-2155.31,735.019,-105.724,-572.199,-774.47,-242.726,-1716.68,0,618.877,-2448.83,-151.104,1055.21,-2625.14,-1138.48,-326.593,992.324,1631.76,241.327,-2140.22,-1543.72,417.698,-4222.06,-2522.47,286.757,-1722.62,329.58,1748.14,409.32,-661.012,-1943.57,394.947,274.943,-77.9637,1371.95,1571.84,707.359,1370.83,1327.05,-442.117,-283.665,0,-1135.14,-175.928,2736.99,0,0,0,0,1326.81,648.783,-368.774,-14.2217,1045.81,76.2237,188.217,-1371.79,-694.305,-927.655,-996.497,0,576.499,776.003,-61.1598,0,-1174.07,-55.55,-2088.85,-222.724,-1156.09,-5425.99,69.8724,167.683,1513,0,-777.337,-232.795,-2755,155.015,-1224.26,-518.637,1573.88,-1557.93,-399.451,-1795.69,-1159.97,130.011,21.5326,2728.59,1500.97,1370.97,720.426,-402.391,-732.339,1946.04,-361.954,1612.52,-304.124,1417.15,-741.136,-724.139,161.193,853.764,336.635,-1401.54,-2419.12,2551.92,0,-402.015,728.487,-1165.71,-400.308,1533.51,-369.281,397.494,1112.82,-452.86,753.356,144.605,-926.666,-793.943,-496.317,-737.22,1361.37,-498.101,1561.91,596.483,555.019,1358.24,459.961,-394.3,-50.4886,451.822,97.6517,1156.62,580.055,224.777,-1037.83,-1444.19,3853.47,0,-54.6513,-54.6513,-54.6513,-54.6513,-54.6513,-54.6513,-54.6513,73.5442,494.363,113.885,-277.899,-130.067,169.728,-452.793,-178.075,109.822,-257.172,64.7685,361.684,481.457,67.5315,-47.7113,-146.877,-27.5092,-45.582,48.3676,0.376642,43.0747,-478.694,-198.579,-551.715,217.561,-425.145,694.611,0,-660.496,-2107.16,-4371.12,4425.6,191.949,2234.44,1779.89,-1331.07,2408.52,2533.02,-2243.16,-1780.99,1348.95,-5713.59,-436.117,-2228.71,-1141.66,-25.3696,2012.46,-2027.01,-2999.2,736.567,-2232.85,403.07,0,150.602,380.582,-94.4484,-146.313,-1968.16,1377.59,1186.14,0,-548.709,-341.757,539.374,1476.41,951.466,-239.882,2439.26,-1268.8,1393.54,2971.68,761.286,-328.164,85.9364,-1587.17,1046.68,216.597,-75.5507,-108.668,-506.042,561.135,151.088,-136.351,849.186,454.062,-32.9909,-1672.54,804.554,-29.5725,1274.43,-1423.06,-121.923,-2519.09,0,-743.882,-2018.16,150.41,887.621,433.749,458.743,-328.564,1629.95,2030.24,-784.877,-2030.88,966.475,413.888,-2858.99,-2165.3,-878.923,-1530.19,-419.198,2803.24,2692.31,-712.031,2113.18,-312.548,277.629,390.617,-1986.42,2826.69,-1310.97,-1721.24,-204.938,-1311.39,273.138,0,2685.2,3343.23,791.393,0,0,0,0,-40.6535,-1278.41,-1355.1,-187.945,1281.75,601.097,2894.63,-1260.09,1240.29,1382.21,-394.327,0,-2427.89,1218.32,-356.878,0,-2399.12,-70.2439,2568.66,354.639,-790.747,-3262.76,133.828,-2181.47,1721.34,0,2575.27,-1588.27,-877.809,-1661.19,916.584,-2834.37,478.915,-2128.35,2797.1,-946.105,-106.503,-38.5453,-187.403,1098.49,-734.197,356.104,197.236,124.088,1812.52,-49.452,-378.708,359.382,-426.315,658.672,-611.858,26.8728,-1267.77,-1216.45,1222.28,-348.453,-2578.17,1466.43,0,411.674,-2060.65,-558.705,-1799.22,-2901.31,886.576,1072.61,468.279,696.955,-693.693,1427.25,563.356,762.4,2253.57,1820.92,391.979,862.088,78.7984,1143.91,272.838,456.505,1223.05,1196.25,434.378,202.18,1791.21,-532.186,-443.346,411.508,231.337,853.208,-543.845,0,-50.945,-50.945,-50.945,-50.945,-50.945,-50.945,-50.945,-267.063,736.622,-35.1602,-75.036,33.5642,302.487,-430.601,-179.933,-106.441,-138.061,-8.52771,1134.23,-97.8069,-228.742,299.352,-371.896,-18.3787,-12.6013,177.594,289.659,-418.134,-144.438,-419.621,-411.164,-119.354,-3247.57,-1067.49,0,-1075.45,3372.34,3161.61,-3158.84,-1343.01,346.221,-2942.38,-3437.59,942.26,1266.01,-957.528,1313.09,275.569,-3050.53,2659.99,-397.568,-759.255,-990.951,3306.03,-1666.43,131.259,616.843,997.876,-831.385,-261.005,526.825,3867.43,563.915,-437.69,-2457.45,354.721,-2694.88,0,-2463.5,-10418.1,-1013.55,1137.83,2364.32,443.566,1770.39,-2090.13,616.721,105.495,3795.59,-236.247,765.646,-2.94451,-1347.25,809.442,-393.507,415.205,4.44653,753.612,-135.724,1017.77,-206.034,-446.29,0,-2668.32,1952.43,265.684,-2248.15,2488.9,-220.08,2065.1,0,-2201.48,4822.67,3043.34,-1503.64,-1359.07,-709.714,-235.14,-1350.14,-995.142,2056.53,-1603.84,-1146.99,1472.93,-749.947,443.811,-648.818,-2329.91,264.673,-727.68,-2604.38,-123.702,449.67,-766.914,-1036.8,578.12,-2215.81,3824.74,-1323.41,3580.78,-4410.7,-2209.85,4213.93,0,483.839,-329.182,-9843.87,0,0,0,0,56.2085,1445.44,-460.634,-5501.78,508.081,3049.58,-723.069,1542.93,-198.39,-2606.59,-259.109,0,-831.676,-2772.73,1166.14,0,-10.5979,-92.3049,700.881,-17.4572,-3130.04,-1689.78,886.774,-70.6707,3479.37,0,-2341.99,-536.36,2016.39,1009.09,-906.636,802.037,467.242,98.3952,-372.111,1582.87,-406.618,-579.346,-227.714,10.8768,-967.702,1445.18,1919.97,591.4,1845,-3411.95,-1719.93,-1532.53,-814.9,-244.017,-841.169,3210.19,2112.48,-2003.52,4844.94,1206.12,-1481.47,-908.892,0,1094.88,-1326.24,66.876,2542.2,1351.62,771.287,23.8261,188.162,361.529,736.493,-331.863,286.024,620.191,-843.797,-579.364,379.194,91.3345,638.237,-1232.51,-284.857,369.293,-272.452,373.697,-4.12306,602.476,-671.564,449.101,649.607,-522.486,685.91,26.1486,-2269.33,0,-15.3821,-15.3821,-15.3821,-15.3821,-15.3821,-15.3821,-15.3821,-653.512,156.067,275.758,-320.392,3.71941,595.62,-597.619,168.118,68.0322,-552.288,123.278,1246.89,-804.567,-429.626,134.054,-265.534,-264.647,-2.89184,-0.0853273,1291.03,-527.931,425.578,-269.927,-377.995,425.056,2779.47,-722.619
0,37.9206,-2788.9,-953.661,1740.78,-146.618,-2081.02,164.341,2021.13,1970.18,-1969.01,1151.45,-2055.43,-1226.7,-1233.12,2234.92,222.132,418.456,746.453,-554.701,-1534,1332.73,2063.02,-27.6467,-314.161,0,1770.8,4573.5,-974.359,997.878,-1245.11,-226.673,1800.15,0,676.332,861.064,-1143.27,672.924,470.884,2250.12,-1404.55,-1927.59,-1003.01,673.836,663.592,51.4389,-429.886,-1717.65,-115.072,1093.37,2443.6,-27.7456,399.98,1608.46,-136.085,-2921.63,-1135.28,0,0,-3112.48,-889.483,-33.2392,-3037.6,-734.224,-334.123,-5939.5,0,944.709,-1812.5,807.627,63.5597,-354.661,-495.421,132.243,-2949.23,208.704,1108.36,-521.321,948.529,2091.24,938.02,-5731.03,-1069.36,-1657.27,-447.58,-191.939,1446.88,-168.159,-2360.75,-1125.71,-633.448,-186.88,238.173,-1724.82,1333.67,4359.76,-253.897,460.313,-1256.64,0,2991.96,335.567,-1214.18,0,0,0,0,-1851.02,3068.03,-2960.01,2234.99,-538.283,-2279,-3224.92,2680.72,-447.121,-1140.09,-906.714,0,-1404.04,1058.76,3646.78,0,-536.815,0,1262.66,1580.32,1767.7,-1551.5,-261.009,1430.82,1294,0,-1203.16,-1221.26,496.79,-3790.19,-544.163,-1830.05,-1179.72,952.395,-205.539,-1629.31,-1052.69,1427.19,1178.08,222.181,-2666.56,-931.346,1057.42,146.235,840.82,-1002,-1435.55,1642.04,106.926,-706.106,1305.14,37.5956,1944.93,1183.83,1708.25,1380.45,3657.73,-697.656,0,-1149.03,1057.86,122.85,295.087,279.307,1164.23,1662.96,544.053,-247.885,-154.91,1355.21,-614.307,1427.38,-1657.03,384.324,1244.14,486.927,858.945,1972.44,-1473.28,810.58,977.975,-1526.12,-3634.47,68.8809,-2354.9,123.185,126.354,-777.365,-518.359,-375.168,-4351.21,0,-36.9065,-36.9065,-36.9065,-36.9065,-36.9065,-36.9065,-36.9065,-321.026,522.167,-423.742,357.67,-109.769,76.1114,-468.262,-321.269,11.1822,130.855,36.9594,-13.8315,-235.799,146.227,508.673,-442.448,-582.501,118.714,-194.997,564.488,340.396,78.9898,-132.603,531.824,-547.075,927.975,793.866,0,659.462,1217.88,1159.54,-3384.81,997.353,154.978,3224.02,-3917.79,1785.79,855.573,199.811,-451.03,1289.96,-1779.83,-1322.49,303.726,-1706.3,82.5079,218.437,-1020.13,4385.57,1869.93,-1243.42,-301.074,-0.775614,196.425,2537.29,-152.246,1304.67,-885.54,1101.31,995.903,0,2218.42,-3807.21,-3964.87,-2119.94,-106.902,715.095,-1721.53,210.349,-130.793,-2034.54,-652.536,-730.496,-403.969,-340.912,-862.71,-378.119,-598.028,-712.507,-145.878,1990.38,-545.116,1774.05,-267.55,-821.262,0,536.97,-2373.93,-160.478,1633.31,2597.45,-493.019,-806.842,0,-556.449,-1447.5,-1674.41,1389.26,-1926.99,163.712,-1964.73,-957.445,-1385.74,1759.72,2148.94,-1022.95,291.185,-3173.47,-1603.71,-431.549,70.8144,-671.945,-234.052,994.516,-8.56211,-408.857,-2197.15,-850.559,-3.99914,-524.54,735.611,524.219,-1380.56,-3265.5,-640.419,-186.864,0,2252.39,1282.03,5129.96,0,0,0,0,120.052,1772.19,1024.18,2082.48,-218.253,-1641.11,-1727.81,-262.578,103.047,238.322,134.597,0,-1028.65,1127.24,250.69,0,-761.17,-182.88,-1953.74,347.706,2127.67,-2830.62,-1233.23,748.275,-2271.05,0,929.304,2464.05,-2894.72,2754.75,736.653,-2381.98,-109.498,1252.69,603.821,305.442,1901.39,1186.17,2351.08,2082.65,-2694.55,-2453.41,-419.678,280.625,2312.74,-1013.42,-2319.03,-1540.67,1430.3,-282.704,1854.6,1000.57,-59.441,830.929,2770.51,731.968,3187.32,-1797.01,0,953.518,-2178.03,721.664,1146.5,162.442,639.199,-1902.25,851.413,558.747,1051.17,-2254.68,-2375.68,315.648,-1062.88,2307.41,-628.941,-855.454,-1238.79,1411.77,-1065.41,666.767,-1666.85,-2397.27,-1552.14,1064.92,599.476,2603.63,-342.311,-3231.04,2295.58,-1149.96,3549.57,0,-17.1799,-17.1799,-17.1799,-17.1799,-17.1799,-17.1799,-17.1799,-244.074,629.979,298.904,230.041,-392.908,220.279,-369.168,-443.864,-348.526,-342.644,-170.051,-254.45,-114.272,329.952,185.349,-475.377,-457.264,273.187,-45.7976,330.782,282.779,-267.428,275.231,345.785,351.75,1273.59,1363.22,0,-209.554,-2136.5,561.905,-1963.03,-13.7552,573.845,5544.77,-2648.52,-1244.26,759.504,-2979.26,-36.0017,1425.77,862.137,-3015.28,1624.83,-384.601,-1504.43,1345.55,-1415.33,-1235.07,-1429.36,-1583.42,-901.314,0,338.608,4383.81,780.839,3461.23,-1059.62,-96.7762,-278.868,0,-959.549,-2297.35,-1115.08,-684.055,-644.824,743.851,-2934.99,-890.602,-2378.64,1608.13,5931.31,-414.647,1207.34,-2713.47,1226.31,181.823,-629.847,-612.438,938.686,750.366,188.428,2713.93,-2237.39,-89.7233,-0.775614,-311.085,42.281,1136.17,-1073.85,-1639.11,99.6132,-1684.11,0,-1970.46,380.739,1507.61,-2238.32,-2502.68,-242.828,-743.057,968.854,-593.512,-292.022,-5165.01,-1670.33,2858.37,-3957.65,-637.874,-1167.3,-1627.48,192.093,9.03282,-1950.51,755.023,-1078.43,-2028.93,-1878.33,-461.285,789.633,4419.69,-1641.02,-884.475,-773.44,-150.31,946.432,0,4757.99,209.998,274.487,0,0,0,0,-43.5586,4584.66,5049.43,2084.97,-1521.42,-940.033,-766.528,-944.79,-1187.83,514.289,198.033,0,1628.45,4855.17,559.79,0,-899.218,-3.99914,-1624.28,-720.961,-784.632,-4170.82,1591.29,352.866,2493.25,0,73.8298,-351.259,-235.591,2461.24,1291.13,1378.34,-1213.96,400.076,4660.52,-3480.42,386.946,-600.59,-2548.39,566.477,-297.412,-1342.41,623.949,44.1037,1522.63,109.558,-667.788,723.466,891.252,-1250.4,2132.2,712.61,-1137.47,1114.13,-407.973,-419.485,2076.07,-394.185,0,2365.34,919.583,-1288.21,1408.43,1915.4,-4651.11,-3735.56,-221.484,-2204.15,1370.24,-451.438,630.728,199.738,463.586,-737.744,-1358.03,-1290.79,-214.476,-1687.33,-36.8483,-370.686,-802.689,1461.84,702.611,781.099,569.454,-2469.79,1679.67,1521.08,-476.571,-237.958,-418.968,0,5.65991,5.65991,5.65991,5.65991,5.65991,5.65991,5.65991,-244.074,652.819,321.744,230.041,-392.908,220.279,-346.328,-443.864,-325.686,-319.804,-147.211,-254.45,-91.4317,329.952,185.349,-452.537,-457.264,273.187,-45.7976,353.622,282.779,-244.588,275.231,345.785,351.75,-1714.68,1386.06,0,-3581.89,1832.15,1435.93,-5510.02,-1148.44,-1244.11,-1199.37,-2721.88,-2251.64,-2263.24,-1975.82,-1128.67,2536.64,-3726.59,-209.556,609.354,-2350.18,-310.976,-91.5562,-4586.81,724.615,244.042,-3264.33,-942.467,0,-192.408,2594.12,1699.13,-507.442,-2538.17,909.246,-645.529,0,-1867,-270.551,-5487.02,82.6004,714.508,1199.76,-1306.17,1887.33,702.561,3473.25,540.688,-128.597,-432.235,-411.573,570.238,850.347,724.234,-434.913,1475.9,517.241,2538.88,2733.61,-1190.12,44.848,0,-1195.02,5012.53,-540.22,2219,1798.24,249.532,1157.13,0,-3108.36,3360.25,1153.53,-3879.74,-3042.96,-918.364,2439.85,-2798.83,-3151.81,989.523,229.431,656.597,2515.77,-3272.19,-1069.73,-113.684,-1621.33,-80.0092,1203.99,-1054.55,1162.77,-2441.36,-2550.89,-2013.8,-710.603,-2418.71,4717.17,1288.52,284.661,-1916.01,-37.8048,-2553.35,0,-3985.07,-1932.01,-3262.7,0,0,0,0,457.167,2661.7,4148.16,-440.455,-3302.85,1815.67,2110.39,-576.306,-2891.55,-255.524,-1621.47,0,-870.935,2817.9,-86.5693,0,-2208.12,-97.7663,-336.492,-1884.12,962.587,-3648.11,236.745,-549.887,5963.55,0,-1927.03,-534.388,3266.71,3471.99,1644.33,-4703.38,3389.58,1840.64,249.869,-1205.34,689.219,-1315.63,-1499,-1205.74,-197.859,-1883.94,1323.72,-133.608,-1103.96,1305.81,-2349.43,1642.85,962.209,-2463.38,4235.34,4450.42,-2523.78,1547.55,-1492.99,-149.319,2217.23,243.906,0,1137.08,-1976.79,4794.7,3713.83,1900.88,4136.31,1659.47,-1071.11,1502.33,-3290.6,247.915,1640.78,-2734.04,1288.7,-2923.59,-617.259,-494.203,825.422,-2623.9,3774.93,-1572.15,-274.199,3096.28,3514.54,-981.054,53.286,-4273.6,-2956.47,2141.09,-330.473,-524.95,-1457.27,0,5.65991,5.65991,5.65991,5.65991,5.65991,5.65991,5.65991,-244.074,652.819,321.744,230.041,-392.908,220.279,-346.328,-443.864,-325.686,-319.804,-147.211,-254.45,-91.4317,329.952,185.349,-452.537,-457.264,273.187,-45.7976,353.622,282.779,-244.588,275.231,345.785,351.75,-4183.03,1386.06
0,-2698.52,-1649.57,1913.11,-211.589,-1543.14,-2180.92,-839.922,-657.098,-707.576,-1271.66,2503.72,-645.684,-730.189,135.074,707.381,20.3835,-3662.13,311.378,173.236,1696.09,766.716,739.752,483.637,308.315,347.726,-2496.26,-2504.24,-2301.57,-333.168,1628.13,943.191,-839.603,0,-1513.78,409.948,-1754.48,900.301,410.112,2941.48,4194.96,-2220.38,-2150.48,7479.79,-445.116,-75.4521,1727.81,-578.793,-709.222,-119.712,1491.1,-104.115,-67.1023,2324.86,-420.367,-615.604,-2102.17,747.73,-13.596,-1821.64,625.217,-88.8766,487.493,821.13,1091.95,546.866,0,-1545.57,-505.73,799.742,-2259.73,-1752.67,55.7535,-1983.49,3459.55,494.292,-3481.23,-901.524,942.673,915.362,47.4742,1457.95,-837.407,-4157.53,785.004,1363.82,-3330.45,-867.272,3253.87,-1195.95,1646.09,1212.22,7.8724,647.385,359.483,116.237,-140.506,643.995,277.399,0,-1756.1,972.123,1756.1,0,0,0,0,1335.56,4291.32,-315.693,-1064.42,852.385,589.841,-240.457,1499.84,-387.767,3901.99,10.3727,0,2096.67,1775.43,1522.03,0,1977.78,-467.762,4825.35,-1044.26,-465.3,2118.26,-1868.16,213.645,-2257.85,0,-3778.65,1321.31,937.154,-1028.8,100.803,-166.285,-1050.39,-1993.78,-1686.02,761.767,-327.885,433.442,-1326.4,490.522,-2585.62,906.361,-1642.02,-1592.67,-1082.09,-2355.71,1625.88,-2465.31,-646.041,-733.324,113.566,-919.973,23.6987,-1383.22,16.3921,2195.92,-2872.63,-127.079,0,1521.75,479.51,-702.742,1205.7,3888.62,1394.12,-1257.23,-1343.04,1863.94,-1501.41,742.576,-0.975834,3088.28,-1475.37,-722.765,-3262.49,4101.87,81.2293,487.095,2010.11,-3844.95,984.491,3909.75,-2936.58,-1868.47,-901.75,1495.07,1494.09,-2319.6,2534.4,-1889.91,1439.76,0,137.967,137.967,137.967,137.967,137.967,137.967,137.967,-141.92,284.504,179.584,98.9328,149.354,426.469,78.2081,-48.7056,-386.439,65.1061,-178.811,-74.6535,244.159,-56.487,668.224,-326.628,101,-67.6312,-328.825,7.5232,-238.539,-84.6464,557.891,-193.811,645.808,-4007.6,1141.53,0,1409.56,-1642.63,1218.98,-1262.63,121.978,1997.81,859.966,580.604,2091.85,3612.49,-168.698,897.973,6134.19,-2517.62,-1032.68,-1412.34,-612.656,-408.955,-152.096,4168.07,-1863.45,-517.486,2681.58,481.106,-46.9324,-600.424,2224.43,-2164.42,2266.58,859.145,-1160.99,-196.597,0,819.168,2212.28,3773.82,-2780.5,-505.054,-1476.28,4644.97,238.95,-1278.08,-1338.67,1599.09,473.902,1508.32,1981.11,-1733.89,-613.858,1624.11,758.59,-33.2898,-510.66,-719.419,2051.75,-44.8466,654.865,347.726,-257.108,1219.73,-61.7501,1106.06,155.674,55.3745,435.813,0,2144.38,-341.126,-697.062,-720.35,2183.02,-1177.61,326.518,1804.47,2885.88,-1117.06,-1657.11,1123.55,-5501.13,1928.43,1312.51,-561.988,591.958,-458.132,401.545,2755.72,708.389,97.5977,-161.95,1861.77,-15.6943,-1890.41,-335.637,-1836.73,1185.1,1195.8,1504.93,-340.704,0,-1362.74,1104.32,-1525.67,0,0,0,0,-1403.94,-760.173,-994.837,-521.342,-1772.03,719.576,-1743.95,963.455,390.428,-919.838,1088.05,0,-720.952,656.163,1314.27,0,1157.12,742.571,436.197,-2861.91,930.267,-2581.14,-1783,2778.31,-1356.04,0,2827.39,-1152.27,329.903,3732.66,1149.62,344.862,375.715,-1088.73,-2542.64,-1430.88,-55.7188,160.724,1460.02,-2507.06,227.921,-455.521,1208.84,-1847,-745.008,155.517,987.558,-881.223,689.726,-163.98,14.1036,-3434.24,-1108.27,281.662,-643.692,271.063,-3220.37,1782.97,0,1368.21,-5.01686,2061.53,-1522.96,-1025.66,3398.6,-763.406,450.942,1162.18,1127.62,-907.277,-196.008,-648.2,3158.81,-1639.54,1152.57,2539.47,-671.262,-1207.45,-3883.66,2136.41,-779.599,538.88,-33.025,1154.28,2905.12,-472.824,184.591,828.799,-198.362,744.457,-1067.51,0,240.49,240.49,240.49,240.49,240.49,240.49,240.49,58.2294,174.446,25.7631,-44.4863,67.1684,367.277,295.264,-205.14,-174.026,448.253,-282.188,-214.074,196.403,134.182,476.968,50.4015,420.228,216.97,-533.066,-92.3685,-268.839,106.013,491.319,111.539,578.654,-800.662,1364.11,0,2597.34,-1390.6,-933.993,-554.9,-1790.83,2339.94,900.28,-1104.73,2510.19,1060.41,-1274.32,1332.28,4694.51,-1082.05,-302.866,1679.43,2052.15,617.451,1053.08,2642.12,-2341.07,1705.82,2542.42,393.558,0,-444.645,849.474,-2520.75,499.857,-618.119,-679.801,578.911,0,2878.01,2420.34,2145.29,257.813,3825.14,-467.829,1137.49,1455.24,-873.104,-205.572,1236.11,-251.346,-1033,-13.964,-1332.4,-672.809,3048.59,-27.1436,-47.2532,80.0278,-521.203,-857.164,-1725.8,647.917,-46.9324,-3247.84,1851.08,-42.4046,-250.274,-809.13,-241.523,1961.56,0,3142.05,-2573.25,-297.93,1387.73,1009.59,103.785,124.8,139.295,-890.94,-3154.47,146.225,-1645.56,-723.159,1195.99,-1411.13,-675.34,51.3576,-390.713,-258.862,-2922.32,3167.72,1692.2,732.604,1580.71,270.883,-2813.2,127.216,-1665.19,3255.86,1865.05,3036.4,-2214.5,0,-298.566,2718.46,2316.87,0,0,0,0,-2133.6,605.132,-670.196,-1158.38,1358.56,-257.688,1414.97,-261.085,-1926.87,-2128.64,431.053,0,3433.57,1104.89,-466.177,0,965.241,687.968,145.074,-3402.87,1022.24,-1272.89,-1958.31,989.068,-1700.54,0,-39.7274,-1254.45,-320.427,-973.637,-20.4045,375.679,4449.68,-164.878,2371.7,16.8424,-1149.25,547.749,1246.6,334.908,681.761,347.402,1929.12,-2362.56,1116.55,-860.086,418.879,2281.75,-1427.66,-1027.04,318.45,1909.62,1190.8,1960.84,34.709,-1101.52,-3589.02,240.366,0,-1225.41,815.268,-2210.3,81.8708,-1146.65,-812.955,11.3316,2373.16,-2107.74,945.625,-626.816,-65.0377,-293.832,-1377.34,833.918,505.418,-1635.58,153.875,756.773,-409.265,-871.591,-1980.52,3018.29,1294.37,988.117,1623.61,-1066.64,-1442.85,-66.4983,914.347,1164.1,-904.004,0,234.606,234.606,234.606,234.606,234.606,234.606,234.606,56.232,172.51,23.8271,-46.4365,63.2206,363.343,293.314,-207.076,-175.962,446.317,-286.122,-216.072,196.403,132.232,474.972,50.4015,418.292,215.02,-537.014,-94.3189,-272.725,102.065,487.371,107.605,578.654,3055.46,1358.23,0,2553.24,3392.16,3417.91,1054.73,4328.4,-607.581,90.9391,-962.43,1456.87,-1701.46,-1545.07,183.361,-4329.53,1618.25,843.869,179.623,4503.77,-255.154,1054.45,-2355.59,-3031.28,1492.67,1248.65,1784.78,589.327,3792.88,-1841.23,-1858.26,-2368.12,-779.14,-1318.77,-427.844,0,-4312.73,269.682,-4003.71,3370.27,3230.59,6652.54,4416.19,-890.155,-1365.78,-1492.46,791.995,-856.543,1474.44,1077,-2134.3,543.577,117.148,589.51,-37.7924,-1935.36,118.14,767.952,2137.54,90.9257,0,-3060.13,-688.486,-401.861,194.319,-708.96,-1497.86,2457.26,0,1464.26,855.103,-1440.6,3011.39,-48.8897,3487.93,-2623.5,-4342.62,-1443.72,-1091.9,951.567,1395.26,294.714,-3023.62,-129.324,-653.194,3265.29,-394.59,1184.14,-756.584,3773.79,-1193.13,4756.27,346.488,1606.52,-2451.4,-1812.41,-1586.14,892.793,-215.787,4173.83,-298.282,0,9840.11,352.215,-1528.04,0,0,0,0,7952.35,3826.35,4404.37,-1230.86,-725.772,4332.4,2114.88,-566.572,-2017.37,-148.193,1118.93,0,5575.45,-300.979,1943.82,0,1923.61,-782.386,2192.7,2779.23,653.029,2501.94,2918.01,3231.87,-1812.92,0,-1216.46,263.041,-1026.13,-1666.12,-345.23,533.331,-3754.35,1513.03,-13.3386,-250.737,-1726.76,1015.09,4714.28,323.877,-1528.32,824.01,2843.45,-2647.58,-300.838,-313.967,-422.17,-2803.09,2085.04,-522.396,1290.48,1824.83,581.091,1497.88,-24.6174,12.2599,-2986.93,266.371,0,-260.966,-1591.77,1279.54,-5329.02,-4906.83,-6092.42,1289.18,-2525.75,-731.04,-1402.25,-408.148,296.179,-2852.87,-268.918,1722.85,771.568,-6909.22,-20.2403,-1447.67,1853.24,2169.2,1396.29,-6770.06,378.504,-440.245,-4353.04,954.251,-1031.09,1029,-4341.2,-324.969,-1140.96,0,230.606,230.606,230.606,230.606,230.606,230.606,230.606,56.232,172.51,23.8271,-46.4365,63.2206,363.343,293.314,-207.076,-175.962,446.317,-290.122,-220.072,192.403,128.232,470.972,50.4015,414.292,211.02,-541.014,-98.3187,-276.725,102.065,487.371,107.605,578.654,476.815,1354.23
0,-398.411,-1328.17,2174.19,-2359.05,-1798.03,-473.39,2066.79,-4034.34,-672.89,1805.38,-2083.63,760.513,2203.39,-1045.96,-1013.07,-1164.77,1875.4,-554.088,1543.89,-1343.46,-2870.52,1770.08,849.777,1103.72,0,-2755.37,-804.525,996.144,2242.95,135.522,-1700.41,-1053.1,0,1997.07,1836.39,-875.764,630.344,-465.987,90.1642,227.259,818.042,412.019,360.004,703.965,915.535,571.868,-729.345,-222.471,53.3756,29.2,-1.99686,-155.82,-1574.81,682.916,-249.631,2166.12,0,-9.76497,3697.09,-626.285,-100.342,83.5254,-631.767,697.459,85.1334,0,-1223.51,612.431,1511.67,-2397.92,-1370.15,-1456.53,89.2829,1134.05,1869.21,-3103.77,-307.128,157.988,-1734.68,-1250.28,133.503,-148.435,2770.21,-11.6105,-240.63,1507.1,1332.97,1256.32,3558.51,-61.6731,-38.273,723.408,3265.21,160.192,-666.367,234.902,1168.72,-289.115,0,-50.5444,679.359,-1614.61,0,0,0,0,948.318,-165.451,-165.572,-944.665,423.338,2951.63,-119.822,-3997.6,1290.77,-1240.13,596.886,0,3420.59,1096.41,-816.509,0,-564.701,526.593,-1140.09,-716.795,-1289.18,-1075.58,33.013,-251.772,-34.2795,0,-542.688,1431.52,-2343.09,3.70068,1720.52,1041.91,-183.073,1660.35,-751.193,-1295.99,-101.671,2834.77,-1227.87,959.96,-1456.92,564.994,-24.0184,-880.664,-1194.16,-936.897,-1312.06,2128.13,765.205,-1341.48,650.245,1026.7,-435.996,1145.5,-472.112,-2926.27,405.657,-878.885,0,-637.959,-2046.85,2464.13,2977.93,1929.74,1365.2,-1356.13,-1684.89,1485.54,1319.72,126.715,-701.298,265.604,-1689.85,2936.28,-334.572,-1421.19,-126.203,219.151,-407.391,1140.21,-1685.2,-2277.78,5.10357,864.053,-325.385,-1578.54,923.227,-237.416,3205.19,-265.233,-749.07,0,2.01164,2.01164,2.01164,2.01164,2.01164,2.01164,2.01164,-115.848,417.971,-145.229,-355.824,439.083,302.994,-385.562,-361.717,16.2156,157.46,73.9282,-1213.44,66.5128,-24.9164,335.776,893.174,-85.9024,199.285,120.148,-102.074,183.554,-51.3301,-9.66717,-28.7309,-305.749,1339.12,-1800.86,0,638.933,112.698,596.495,462.796,-3914.93,2249.68,624.951,-777.384,-2422.27,-2600.07,677.543,418.678,5009.61,-1071.71,-221.343,-1301.71,2209.22,346.479,1127.02,489.135,485.694,377.997,3783.93,197.605,847.656,-1005.16,-1600.52,-118.268,-428.308,2234.78,-276.873,516.285,0,1316.44,861.453,444.802,-431.334,-852.981,-3409.04,-970.63,-946.781,-941.224,1270.26,-1195.22,25.5355,-1808.66,-598.812,-161.088,-375.228,354.47,0,-37.7278,-556.136,1089.04,-210.36,408.095,-21.2582,0,-256.573,-120.866,-2.70848,485.395,-879.523,167.686,-902.868,0,534.579,-62.956,87.2937,-973.858,521.829,-1231.68,2863.51,-1058.06,2063.86,824.948,-274.054,-112.873,2387.72,-3592.55,270.632,124.767,1967.87,-60.5172,-74.1694,378.943,-372.648,-237.38,361.342,-822.413,532.469,1440.69,4019.39,-121.527,-1599.52,-77.273,-453.86,-650.135,0,-2611.68,954.574,-1069.75,0,0,0,0,126.561,353.116,942.836,-1441.79,2398.57,108.476,1545.51,-676.767,1287.91,-1544.76,-270.446,0,1668.83,-1122.53,-117.431,0,906.237,-48.0378,1385.81,-416.435,1369.94,1161.78,-708.317,396.494,-200.232,0,-3722.61,1389.51,-208.177,-562.728,646.682,1539.3,-1605.79,1608.93,1931.63,-581.62,-151.087,1648.04,-2184,-125.072,-637.344,768.907,-198.202,-1046.33,-1757.65,920.84,72.499,2117.26,-519.017,-1429.54,79.9586,-65.752,-1539.96,523.152,-649.223,-1252.99,432.529,-1399.02,0,3366.06,-1589.97,1148,690.851,3447.1,1127.22,-569.725,-189.273,-57.9932,-1074.79,83.5746,-53.2459,-627.943,-21.1498,-2238.27,-473.158,-690.045,-31.3886,361.459,-2236.49,-825.819,-511.033,1009.25,285.033,490.356,-843.404,-1711.33,-15.5619,-185.303,721.861,-375.438,-195.246,0,-19.0361,-19.0361,-19.0361,-19.0361,-19.0361,-19.0361,-19.0361,-123.601,414.378,-154.844,-371.118,432.47,288.52,-390.38,-363.717,6.94372,144.251,64.496,-1224.94,66.5128,-25.8968,320.322,879.143,-85.9024,193.148,103.951,-103.055,179.875,-69.2211,-12.8468,-45.1193,-313.725,1451.67,-1818.75,0,1083.68,1488.94,-1131.71,-2734.33,-747.123,-1110.13,-150.33,-1233.57,678.329,1327.44,1179.95,1964.95,3386.59,-1386.78,-1187.51,-717.193,182.44,-270.103,-35.3954,-264.238,1638.32,1710.57,4285.1,418.883,813.148,811.285,-1694.99,976.187,-1226.55,-524.045,962.969,671.021,0,637.033,724.681,-2719.49,2817.96,-4774.04,343.793,1300.56,-1348.39,506.307,-119.682,-861.348,83.3955,236.214,-1115.36,-101.288,-198.66,-371.157,0,95.797,-1142.49,643.079,-1351.26,2063.91,-60.5172,847.656,-453.412,2525.13,164.117,-133.988,109.536,-264.776,-1549.57,0,868.699,-2700,1307.19,2385.56,2466.65,29.9417,2051.1,-109.602,-1367.39,-1644.48,-1070.77,312.323,1872.91,171.875,-2954.17,-221.264,2323.59,-50.9064,1345.5,-991.671,-158.873,-48.9018,-96.9902,-377.993,874.839,-1105.99,2891.63,1045.16,1370.96,-928.779,-269.212,303.954,0,200.069,548.156,1901.61,0,0,0,0,-1012.1,-748.83,-414.239,-592.305,1182.08,448.683,-1570.91,2530.53,627.955,1281.71,361.493,0,2435.32,-1897.54,473.046,0,741.351,127.065,2608.63,-2519.84,946.146,-568.362,43.6667,-595.954,-580.687,0,1905.06,1386.38,1423.45,-2057.43,2846,1781.76,-2498.68,1216.73,871.753,-1597.49,947.315,2214.06,-1952.41,-79.2263,-1139.9,155.107,-984.723,-1055.65,-1461.81,-1338.04,389.281,2056.44,-2515.96,-1458.47,-619.19,1243.65,-1609.86,872.912,-1064.5,2286.26,492.462,-714.219,0,26.2697,-538.097,-1886.67,-655.945,56.2251,-1471.96,-755.956,1244.33,196.861,941.6,-513.135,-1223.97,-1106.79,116.612,-849.487,302.18,-459.737,-47.0377,-203.903,1966.26,-1154.99,-1704.02,788.214,-415.82,-59.3971,-2090.29,-1062.52,-2285.18,529.672,-1127.77,-406.034,113.443,0,-19.0361,-19.0361,-19.0361,-19.0361,-19.0361,-19.0361,-19.0361,-123.601,414.378,-154.844,-371.118,432.47,288.52,-390.38,-363.717,6.94372,144.251,64.496,-1224.94,66.5128,-25.8968,320.322,879.143,-85.9024,193.148,103.951,-103.055,179.875,-69.2211,-12.8468,-45.1193,-313.725,-274.207,-1818.75,0,3552.18,2087.79,359.78,-1196.7,130.285,1409,2548.9,-1932.61,-506.966,-3093.39,-1109.61,2384.61,3527.87,68.8846,869.077,-138.182,1416.74,1122.3,153.058,-967.291,-30.26,1114.51,789.387,1045.77,10.4362,-2946.81,2282.36,-1147.75,2225.37,59.7603,-977.762,1396.13,0,-3737.69,-4281.42,-382.986,5229.09,-1029.12,4342.22,1968.55,-143.292,-462.613,1642.4,239.887,179.285,821.129,-1777.24,-473.116,511.761,613.583,-9.80134,-9.38647,-1018.89,710.754,-398.655,2432.77,-91.9449,813.148,-1367.57,94.4188,664.928,647.645,-506.797,-386.399,473.773,0,3686.09,-2795.56,-843.084,-372.74,316.825,1197.13,-791.629,892.17,192.252,1106.74,-596.918,-2359.11,-2249.01,-3567,-1195.12,-1075.47,1918.06,-10.5232,578.986,-2528.94,-1249.13,-3120.37,2680.08,25.9568,935.652,-173.973,-1640.3,-90.8175,-1326.88,-1267.57,-477.163,-849.619,0,3204.52,680.064,-2205.1,0,0,0,0,-1115.53,1000.69,455.234,338.392,2642.99,2954.33,526.886,-1994.17,579.825,-2018.12,-1069.41,0,-231.835,-216.259,1799.01,0,127.897,1514.79,2762.01,-467.7,2496.11,-1793.91,2131.35,1248.8,-1535.25,0,1102.78,-971.347,-701.642,637.173,2992.32,4906.82,983.401,-621.178,1746.56,-1123.96,1087.81,2107.93,-2927.61,-850.86,496.145,628.231,-1544.38,-1037.43,393.236,2757.18,-424.282,-375.426,-1162.05,-1693.32,-846.1,-103.944,-2440.79,-188.916,-375.004,2656.5,-126.463,-773.405,0,375.887,3858.34,-515.419,-4056.27,-2736.23,-11478.5,-731.042,1477.61,-1406.64,-1583.53,-498.491,-457.692,705.518,1732.12,-1402.64,-112.476,521.338,-45.821,-490.343,2566.77,630.138,2151.02,-282.663,-920.224,-462.219,3078.98,-828.044,3.96968,-1180.3,-2854.06,324.365,-105.101,0,-36.2039,-36.2039,-36.2039,-36.2039,-36.2039,-36.2039,-36.2039,-140.769,397.21,-154.844,-371.118,427.172,283.222,-390.38,-363.717,-4.92714,132.38,64.496,-1242.11,61.216,-31.1938,315.024,861.975,-85.9024,193.148,86.7833,-103.055,179.875,-81.0919,-12.8468,-56.9901,-325.595,-1047.09,-1835.92
0,1975.78,-3510.76,1680.5,-6072.87,1352.39,-932.64,-1292.81,-579.109,1461.27,-785.212,1632,-1101.4,1350.01,-4297.28,-2270.78,-1732.07,-305.61,-1235.54,1487.04,-5169.69,19.584,-891.98,2046.72,276.882,0,1429.27,1831.2,1428.61,-4646.54,-1268.09,1380.27,-797.91,0,-1909.2,-5337.87,-2322.2,-5150.24,390.197,1549.93,626.995,2347.99,-3878.25,-5155.34,-1937.85,-150.28,-546.187,3599.11,-1278.25,-383.242,-2912.14,-230.73,-235.336,-630.705,858.843,1568.63,172.488,0,13.6559,-1726.66,456.119,0,622.067,1442.69,-137.36,1088.98,0,-3719.17,2992.48,4200.26,851.489,508.755,1978.2,2159.09,-522.704,258.426,2414.74,-1169.67,-81.7075,-1052.47,2067.94,2688.07,125.33,-165.987,-583.073,-1301.76,-1889.37,1169.47,4144.81,401.574,280.404,28.9635,-701.421,-185.259,-1288.86,2792.02,-3483.22,33.5064,-1425.94,0,730.022,-331.142,-1144.53,0,0,0,0,1741.94,3786.65,2061.86,3058.47,1026.19,1278.36,-1990.58,991.279,-810.787,3951.85,-227.422,0,3026.28,1629.64,-1043.33,0,-254.734,0,-655.232,3165.68,2697.47,1259.88,1289.58,-192.229,1627.39,0,-1099.09,2266.02,-1360.1,3321.45,-934.651,-2211.28,2698.12,-1197.19,5201.96,-1721.14,1218.53,1239.71,-436.777,503.057,-2675.17,-2878.56,325.485,-291.532,-3368.46,1107.34,2422.99,-378.222,-2827.6,172.618,1253.72,1564.01,387.169,-1322.23,-993.442,-364.745,-164.619,-722.344,0,1723.51,1746.92,94.7101,2176.4,-667.849,-385.895,-1571.91,-2366.68,-1989.59,-82.3031,616.083,-680.322,607.709,935.102,528.49,1392.09,-1267.85,393.418,2881.97,-373.239,1663.06,-906.733,1790.18,-1106.7,3.59142,-1076.28,-3222.88,-2320.63,-1479.62,685.366,-232.268,-673.104,0,81.105,81.105,81.105,81.105,81.105,81.105,81.105,-57.5744,399.234,-240.154,689.704,14.2182,120.065,117.249,-201.636,-423.762,20.2413,-331.134,-118.339,-392.938,791.202,423.587,293.751,-63.1537,129.993,-50.6107,284.571,-80.5618,-171.23,31.6936,62.6856,-436.053,4384.03,5204.12,0,1311,2657.7,-254.3,4112.84,1708.18,2268.25,-2969.04,-685.256,1022.97,-124.304,-613.35,-1324.31,33.2841,2387.78,2002.65,-482.372,2609.39,-1797.27,104.508,-7085.79,-1165.4,1207.59,1144.63,732.929,-404.763,-1300.79,2598.03,1087.61,1025.11,-2016.15,256.144,459.62,0,335.978,-3707.81,-1670.83,-2828.24,1065.13,-156.14,679.383,-24.4255,1105.98,912.241,2739.96,74.3695,-1139.28,-999.197,-1601.19,83.25,284.512,161.758,357.453,-1906.82,795.72,227.386,322.766,-338.492,0,-1098.8,18.4836,133.499,137.608,218.736,13.9655,1472.08,0,455.191,-344.245,2806.59,-1509.27,633.141,2218.1,2568.89,-532.025,-474.351,195.125,-3716.06,-216.881,813.158,-2635.1,-2562.19,437.964,-2283.5,7.2658,-1351.48,-297.086,1130.37,952.195,1917.96,279.231,30.9633,-315.075,2084.46,-348.963,749.885,-4195.34,1357.04,-1457.07,0,562.049,-4067.38,1737.03,0,0,0,0,805.192,1713.21,-3315.85,2228.16,271.909,2573.16,2701.22,2722.51,-2389.4,-243.83,-685.828,0,3822.01,4653.76,111.255,0,-227.405,13.6559,-841.978,-835.493,1804.04,-160.748,3311.53,-193.454,-1493.88,0,-4129.91,2576.29,-3337.57,4495.59,-1063.73,-4146.18,1318.31,-2335.09,1732.66,74.659,1383.62,2015.68,478.132,-605.032,-666.448,-1703.76,956.156,-522.261,-2702.5,190.728,2767.6,2491.44,-3837.72,-624.947,1148.16,2980.78,1637.37,-2850.32,-2452.75,1086.14,-92.5621,-1480.1,0,2267.24,4243.37,262.665,-1312.94,-1693.89,-84.1788,608.665,2195.85,-1801.92,607.538,-197.011,-568.58,-1557.81,-329.144,-1911.69,-232.91,-1301.4,390.285,-659.032,1347.59,-88.5997,-2326.7,1389.12,-459.046,502.196,-1882.55,-2533.67,-635.351,-233.474,800.39,-608.527,1259.69,0,81.105,81.105,81.105,81.105,81.105,81.105,81.105,-57.5744,399.234,-240.154,689.704,14.2182,120.065,117.249,-201.636,-423.762,20.2413,-331.134,-118.339,-392.938,791.202,423.587,293.751,-63.1537,129.993,-50.6107,284.571,-80.5618,-171.23,31.6936,62.6856,-436.053,1225.44,5204.12,0,837.918,2352.16,5731.33,2203.25,2113.37,3037.23,-1080.46,12.7804,-216.719,-1853.74,1404.99,-1071.87,1156.21,1629.42,-2841.67,-1486.75,-1947.98,267.947,-993.608,-2970.13,3266.58,2801.95,-2040.35,-423.731,-811.194,-369.126,1105.63,-1128.27,1545.48,-426.46,-49.6497,-1039.93,0,3422.51,3159.98,-3158.08,-2059.17,1735.26,965.509,-600.28,42.9857,-68.9222,-1128.49,-843.822,-623.543,-1795.21,-1813.3,-636.173,1134.95,513.662,-65.0979,16.1876,298.813,1850.42,-2071.23,566.876,343.516,-404.763,-2363.87,-490.134,-291.114,-101.78,450.932,11.192,-1748.62,0,-925.109,3718.56,1243.18,-1861.53,618.399,2055.19,2590.63,1426.87,-1491.31,1058.28,2553.29,577.538,266.281,-1067.99,3685.84,345.092,-1805.04,-440.011,-778.775,-3445.76,-925.443,1445.75,3262.72,1349.55,15.6556,2507.37,263.987,-798.09,-630.9,163.884,1025.38,1704.88,0,3523.85,1551.41,-1063.07,0,0,0,0,-5245.94,3148.31,-1689.16,-1894.5,-1800.88,1966.45,2411.84,3104.43,-2149.26,4225.2,-1991.86,0,3808.71,2095.26,-2349.35,0,-2007.43,28.9635,-3788.25,1.33871,2665.32,1707.34,899.261,440.548,-1297.25,0,2172.31,-613.072,-4042.08,2057.56,-3079.56,-4193.27,-2012.64,4018.05,-995.541,544.162,1287.44,2777.54,1698.27,2720.42,-916.854,-1561.23,-232.93,-522.261,-1317.5,696.268,4374.73,2062.48,-1869.81,903.156,1642.14,-750.126,1558.2,-2624.56,-2281.27,-304.848,-527.874,404.624,0,-646.039,-1441.12,2562.23,3036.19,-738.635,-24.5907,2131.2,-830.478,3919.72,716.837,-381.149,-219.463,-2091.35,-3324.39,-4411.93,-839.944,-943.615,305.236,-2677.4,-2317.27,-1807.31,-201.564,-459.772,-923.44,819.412,951.9,-365.394,1270.14,-776.832,-791.636,-103.532,-49.9161,0,81.105,81.105,81.105,81.105,81.105,81.105,81.105,-57.5744,399.234,-240.154,689.704,14.2182,120.065,117.249,-201.636,-423.762,20.2413,-331.134,-118.339,-392.938,791.202,423.587,293.751,-63.1537,129.993,-50.6107,284.571,-80.5618,-171.23,31.6936,62.6856,-436.053,1292.5,5204.12,0,3927.6,3419.54,4897.2,4080.86,393.942,5173.18,-946.817,-1205.62,-467.27,962.751,1514.66,-698.641,-490.737,-2907.31,896.836,-1477.01,-811.581,-471.739,-420.109,-3071.09,1105.06,-2090.42,3883.41,-779.618,13.6559,48.653,4602.94,-1215.24,1370.1,-769.285,426.891,2231.02,0,2687.03,3449.43,1331.37,63.0258,1256.83,4236.63,-226.327,731.916,-495.554,1838.88,-1746.43,75.7776,-436.34,2903.99,1778.54,-77.1332,-371.231,-169.302,-538.448,700.885,1324.36,-1770.45,-438.247,-75.6961,-811.194,-11.6887,-1657.69,-52.2857,-92.1275,1607.08,622.969,110.228,0,4294.86,2034.96,-2684.84,-1178.69,2237.26,2035.62,4744.52,-6490.58,-276.205,-5362.41,-957.719,-1017.79,-92.1998,-5647.08,-4704.38,-462.062,-1449.08,34.2991,-707.643,-7415.25,-1525.08,1434.91,91.5628,-703.449,28.9635,-1273.52,79.2647,1654.07,-4220.93,-1106.88,1536.89,-1747.95,0,-681.945,-121.204,1895.58,0,0,0,0,369.939,2208.3,1449.89,1878.05,-827.903,-436.579,1566.23,136.171,-1477.93,1248.91,-1493.48,0,5589.22,4672.81,-2284.76,0,-1121.75,-402.763,-3263.98,-3203.49,-379.645,3264.75,954.568,-660.598,-3691.35,0,-538.317,3217.58,-972.527,-165.027,-5266.86,-1070.99,-4148.8,5022.1,2191.76,1369.34,435.194,2863.97,202.116,2846.04,-4526.07,-912.692,-101.424,-510.503,2241.79,-889.253,2214.39,1838.68,-1522.63,370.863,933.398,-671.682,1148.84,-1738.14,-3030.22,-468.443,-534.617,542.881,0,340.579,-3853.43,-5363.07,1356.2,2027.67,-10920,-864.241,996.489,-278.408,-1803.09,-740.61,207.02,2454.4,1342.65,4400.56,-812.272,986.546,486.275,907.57,1184.36,1185.84,1688.12,-2067.81,1912.49,961.314,582.663,2439.49,1393.05,1346.78,180.818,-590.16,-911.813,0,81.105,81.105,81.105,81.105,81.105,81.105,81.105,-57.5744,399.234,-240.154,689.704,14.2182,120.065,117.249,-201.636,-423.762,20.2413,-331.134,-118.339,-392.938,791.202,423.587,293.751,-63.1537,129.993,-50.6107,284.571,-80.5618,-171.23,31.6936,62.6856,-436.053,436.443,5204.12
0,9758.62,0,0,5692.54,0,0,4066.1,813.199,0,0,0,0,0,0,0,0,5692.54,0,0,0,0,0,6505.75,0,0,0,0,0,813.199,0,0,0,0,3252.84,0,813.199,2439.66,0,0,2439.66,0,0,3252.79,0,0,0,0,0,0,0,0,0,0,0,0,813.22,0,0,4066.02,0,0,0,0,0,3252.79,0,6505.76,0,0,4879.33,0,0,5692.53,0,0,0,0,0,0,0,813.224,0,2439.66,0,0,813.224,0,0,5692.55,0,0,1626.45,1626.45,0,0,813.224,0,0,0,2439.63,813.224,4065.99,0,0,0,0,17077.2,0,2439.58,813.224,0,0,13011.2,3252.81,0,1626.44,0,0,2439.62,0,3252.79,0,0,0,4879.25,3252.79,0,3252.79,4879.22,0,813.199,0,28462.1,17077.3,9758.5,5692.46,0,4066.09,8945.25,16264,0,2439.62,0,0,0,3252.79,1626.4,0,0,0,0,4879.28,0,3252.79,0,0,0,7318.91,8945.27,0,4065.99,5692.5,0,5692.44,0,293567,177279,115475,46352.7,52045.2,47979.1,35781.1,6505.58,14637.9,40660.1,47978.9,8131.99,16264.4,16264,10571.8,0,6505.75,16264.4,6505.78,8132.08,0,26022.3,0,24396.6,0,22769.5,51232,16264.4,40660.3,4879.28,48792.3,46352.7,0,6505.65,6505.65,6505.65,6505.65,6505.65,6505.65,6505.65,4065.99,1626.44,4879.22,4879.22,813.199,1626.44,3252.79,1626.42,0,1626.44,1626.44,813.224,1626.42,0,3252.79,1626.44,2439.66,0,4066.02,6505.65,1626.44,4879.22,1626.42,4879.23,5692.44,96771.5,5692.44,0,6505.76,0,3252.79,4879.31,0,0,2439.65,16264,0,6505.59,813.224,0,0,13011.2,0,0,4066.1,0,0,813.224,0,3252.79,6505.75,0,0,3252.79,3252.79,0,0,813.224,0,0,0,4066.08,0,4065.99,3252.89,0,0,3252.89,0,0,0,0,0,0,0,813.199,0,0,0,0,0,0,0,0,0,0,4066.02,813.224,0,0,0,0,3252.79,0,8132.19,0,0,7318.99,0,0,7318.98,0,0,0,0,0,0,0,0,0,4066.09,0,0,0,0,0,6505.75,0,0,0,0,0,0,0,0,0,0,3252.85,813.224,813.199,0,0,0,0,1626.4,0,3252.8,0,0,0,3252.79,4066.04,0,1626.44,0,0,4066.04,0,0,0,0,0,3252.89,813.224,0,4065.99,5692.43,0,813.199,0,28462.1,17077.3,12198.1,5692.46,0,5692.54,8945.25,16264,0,2439.62,0,0,0,6505.59,1626.4,0,0,0,0,4879.28,0,3252.79,0,0,0,7318.91,8945.27,0,4065.99,5692.5,0,5692.44,0,292754,177279,109783,43913,52045.2,46352.8,32528.2,6505.58,14637.9,36594.2,47978.9,8131.99,16264.4,9758.38,9758.58,0,6505.75,16264.4,6505.78,6505.66,0,26022.3,0,24396.6,0,22769.5,51232,16264.4,40660.3,4066.07,48792.3,46352.7,0,6505.65,6505.65,6505.65,6505.65,6505.65,6505.65,6505.65,4065.99,1626.44,4879.22,4879.22,813.199,1626.44,3252.79,1626.42,0,1626.44,1626.44,813.224,1626.42,0,3252.79,1626.44,2439.66,0,4066.02,6505.65,1626.44,4879.22,1626.42,4879.23,5692.44,103277,5692.44,0,4879.31,0,0,3252.88,0,0,813.22,0,0,0,0,0,0,0,813.224,0,3252.88,0,0,0,0,0,4066.1,0,0,1626.45,0,0,0,0,0,0,0,1626.44,0,4065.99,3252.88,0,813.199,3252.89,0,0,3252.79,0,0,0,0,0,0,0,0,0,0,0,3252.79,2439.65,0,0,6505.59,0,0,0,0,0,3252.79,0,11385.1,0,0,11385.1,0,0,11385.1,0,0,0,0,0,0,0,0,0,5692.55,0,0,0,0,0,6505.75,0,0,0,0,0,0,0,0,0,0,2439.64,813.224,4065.99,0,0,0,0,17890.4,0,7318.8,813.224,0,0,19516.8,4879.22,0,813.22,0,0,6505.69,0,0,0,0,0,2439.66,4879.25,0,4065.99,6505.66,0,813.199,0,28462.1,17077.3,13011.3,6505.67,0,11385,10571.7,16264,0,2439.62,0,0,0,6505.59,1626.4,0,0,0,0,4879.28,0,3252.79,0,0,0,7318.91,8945.27,0,4065.99,7318.93,0,5692.44,0,292754,177279,108970,40660.1,52045.2,39847,26022.4,6505.58,14637.9,35780.9,47978.9,8131.99,16264.4,6505.59,8945.39,0,6505.75,16264.4,6505.78,4879.23,0,26022.3,0,24396.6,0,22769.5,51232,16264.4,40660.3,2439.62,48792.3,46352.7,0,6505.65,6505.65,6505.65,6505.65,6505.65,6505.65,6505.65,4065.99,1626.44,4879.22,4879.22,813.199,1626.44,3252.79,1626.42,0,1626.44,1626.44,813.224,1626.42,0,3252.79,1626.44,2439.66,0,4066.02,6505.65,1626.44,4879.22,1626.42,4879.23,5692.44,109783,5692.44,0,2439.67,0,0,4066.11,0,0,1626.45,0,0,0,0,0,0,0,813.224,0,2439.65,0,0,1626.45,0,0,813.22,0,0,2439.66,1626.45,0,0,0,0,0,0,2439.66,0,4065.99,1626.44,813.224,9758.4,2439.66,0,0,4065.99,0,0,0,0,0,0,0,0,0,0,0,3252.79,3252.87,0,0,3252.79,0,0,0,0,0,3252.79,0,13824.7,0,0,13824.7,0,0,13011.5,0,0,0,0,0,0,0,0,0,6505.75,0,0,0,0,0,8945.42,0,0,0,0,0,0,0,0,0,0,813.199,813.224,4065.99,0,0,0,0,17890.4,0,6505.61,813.224,0,0,19516.8,4879.22,0,813.22,0,0,4879.23,0,0,0,0,0,4879.25,3252.79,0,4065.99,7318.85,0,813.199,0,28462.1,17077.3,13011.3,7318.88,813.199,16264.2,17077.3,16264,0,2439.62,0,0,0,6505.59,1626.4,0,0,0,0,4879.28,0,6505.59,0,0,0,7318.91,8945.27,0,4065.99,7318.93,0,5692.44,0,292754,177279,108970,38220.4,50418.9,26022.7,17077.3,6505.58,14637.9,35780.9,47978.9,8131.99,16264.4,6505.59,8945.39,0,6505.75,16264.4,6505.78,4879.23,0,22769.5,0,24396.6,0,22769.5,51232,16264.4,40660.3,1626.42,48792.3,46352.7,0,6505.65,6505.65,6505.65,6505.65,6505.65,6505.65,6505.65,4065.99,1626.44,4879.22,4879.22,813.199,1626.44,3252.79,1626.42,0,1626.44,1626.44,813.224,1626.42,0,3252.79,1626.44,2439.66,0,4066.02,6505.65,1626.44,4879.22,1626.42,4879.23,5692.44,116289,5692.44
0,4420.74,-2496.59,-1718.62,949.805,-44.548,402.479,244.904,-3419.05,886.882,-2438.18,767.855,-316.085,139.987,10.9643,1383.58,288.236,136.003,871.265,-1565.46,1910.57,244.801,385.662,1339.49,-127.199,0,-871.253,-1528.64,-583.095,-952.921,2204.92,659.826,27.6712,0,3060.79,-1585.19,2429.65,1758.34,-65.2668,-952.863,2388.13,-939.364,1524.63,1542.71,1190.79,-82.3325,-671.942,-269.696,-271.418,117.757,218.8,561.472,412.653,-603.513,-284.519,2475.82,-758.782,0,0,2679.96,605.54,-7.66384,576.177,-898.443,-27.9352,1966.39,0,2705.84,2272.66,-3322.28,396.307,-499.944,-686.655,333.963,671.998,-1372.44,-699.009,1990.64,838.794,2281.79,-3165.21,-1816.54,-365.236,-1522.56,299,-1280.99,4558.57,-1921.74,-4843.18,1585.59,612.383,0,-3004.38,150.759,1014.53,-16.7328,2812.85,-598.795,-1294.98,0,-2755.36,321.174,1129,0,0,0,0,3752.34,-406.502,1179.86,-5647.11,179.621,-1468.38,1677.09,-2043.54,178.858,474.022,-391.171,0,485.937,1350.32,2740.62,0,1249.43,0,-483.873,-1276.57,-951.647,-3826.96,-1236.49,123.857,-568.95,0,2384.05,-1456.91,-1995.28,-2352.04,-892.886,4260.73,-1317.6,661.605,-2254.29,1273.22,1584.62,334.551,1521.41,-939.283,2398.94,467.605,-1944.29,952.132,-280.941,-1664.07,768.947,-721.999,-169.248,-773.183,258.839,-2060.37,-217.171,-695.816,-1413.31,283.534,741.91,775.371,0,-1057.92,41.43,1437.77,-531.365,907.448,-3618.9,-630.682,-1471.52,2680.71,-1302.12,-22.9945,1022.12,510.861,-3093.45,1032.7,-2344.24,2556.84,2081.61,-674.863,-1427.34,1773.25,60.3963,-1760,-1529.78,-1599.6,1276.58,1504.86,-383.178,1819.14,38.5829,-894.179,-549.056,0,-74.3994,-74.3994,-74.3994,-74.3994,-74.3994,-74.3994,-74.3994,-74.3994,381.479,-104.849,-174.234,197.667,231.375,-637.337,68.3708,-165.702,-8.11774,433.963,-656.749,326.014,193.105,-40.5154,-30.7004,-56.8356,-134.076,-246.928,-77.3102,-160.687,-365.471,311.319,0.468508,46.156,-2002.68,-1378.87,0,-155.603,-973.732,-1510.37,-142.865,-423.409,-1261.71,3351.4,-492.533,1046.27,-686.59,-1770.16,180.223,-796.524,-2439.7,3508.12,1241.15,2373.85,2257.26,114.492,280.988,911.208,177.638,-480.8,-58.1117,0,-3358.52,-464.022,-222.091,-3806.05,2668.7,305.097,-1995.24,0,21.3673,-1945.87,1089.32,761.135,-58.6112,-1519.46,1216.54,9.8335,1365.53,170.929,72.8872,-125.817,1007.46,-271.62,158.748,-32.6716,269.559,390.87,-358.101,733.111,-347.281,-1296.95,21.5682,29.6695,0,1190.44,842.409,-1.99754,-1656.09,1171.15,554.682,331.961,0,-1096.12,2932.46,-2707.1,180.4,-356.299,-592.829,-4388.87,-281.548,1688.33,1231.94,-1561.62,1272.18,-2727,284.256,-203.616,55.652,562.664,-130.528,770.517,2780.81,-87.2651,-268.58,2672.45,-326.004,-1.9281,862.927,-2617.56,-5.11826,-707.065,-1708.09,-123.638,-306.594,0,1585.37,-1816.64,685.168,0,0,0,0,-1120.37,-105.768,1345.8,1185.32,-1357.96,1313.66,2244.46,-4305.73,-556.068,-865.418,-996.299,0,-2325.33,-527.615,2008.28,0,1642.76,0,268.048,-246.355,-395.701,3216.18,-777.919,-1220.34,85.8542,0,3701.59,-249.557,-53.6869,-3177.58,-2089.79,3985.6,-2090.69,1560.29,-1202.04,-1251.48,1206.68,576.816,-440.91,-1296.45,210.611,386.593,-2301,780.535,560.741,-1896.01,-321.307,-1478.73,-1067.53,211.367,156.906,-776.537,-298.067,-1181.46,227.62,879.086,1767.38,1320.51,0,159.083,-1927.19,666.404,-225.382,2039.38,-1440.1,1749.4,-786.598,672.539,45.3894,-988.365,-2728.92,476.133,1777.09,-2627.82,372.679,135.818,-1419.19,-736.216,2231.32,-432.705,2079.54,-887.274,1602.89,1408.4,-649.547,-2391.53,1619.37,727.988,136.736,-63.167,126.822,0,-111.093,-111.093,-111.093,-111.093,-111.093,-111.093,-111.093,-111.093,419.318,4.02543,-366.305,-218.347,-116.718,-76.3743,-325.967,146.734,17.5476,68.4395,-540.409,180.488,-80.8572,-9.25286,-17.0794,310.075,156.338,-211.42,-518.699,-18.6993,-168.499,172.541,122.002,71.2862,-226.616,-1230,0,-1743.44,-2425.04,-948.639,-1162.21,-612.794,-1252.33,-97.9258,800.103,1427.02,2288.87,2704.05,686.195,-992.323,959.675,215.833,2170.61,-833.045,-83.8374,-608.014,-1868.96,1212.13,-731.103,-1888.58,1249.05,0,-2439.37,-3152.55,262.084,-865.212,2542.72,-1226.61,-1244.49,0,-949.476,-1775.34,2317.06,1659.12,-414.051,-3321.37,1727.53,-1396.94,536.431,-1908.25,-2900.33,-101.818,-292.901,2083.57,-108.144,-272.182,872.24,386.699,-173.702,-546.326,-1155.84,743.111,640.177,452.802,0,856.98,1269.53,-224.621,777.312,955.554,280.304,-1524.51,0,1192.89,1807.06,208.144,669.534,-855.235,1172.15,-305.727,-2119.48,1194.43,3007.84,-682.506,-165.542,71.478,-2752.72,-31.7704,738.043,344.551,-446.075,709.523,1664.55,1213.41,-872.39,2066.88,-224.796,-53.8066,1052.16,-625.628,1211.33,2148.48,-338.934,-318.036,2320.03,0,-82.728,-2190.72,-4911.97,0,0,0,0,2831.4,2552.95,-2934.31,297.094,-879.404,1446.89,1338.69,-1554.82,-1326.1,1668.25,1361.89,0,434.715,-346,1090.96,0,-709.668,0,-499.662,1146.69,-963.832,-5852.37,-1816.52,962.364,-681.832,0,-3447.89,1614.85,-1300.51,-1089.35,-245.695,230.41,-1328.79,-3765.44,-772.109,395.956,1184.36,-383.947,-1935.94,-347.976,-3224.78,1644.05,-1749.96,933.826,3136.09,80.9202,-533.867,1356.3,-3419.22,1029.76,154.913,-1659.11,-1145.03,2093.36,538.173,664.071,1460.15,-353.389,0,1985.41,-1838.44,3074.67,70.0068,1142.64,2286.34,-1944.82,2418.92,-1485.64,-2369.87,174.083,-484.065,1248.1,770.67,904.913,-802.387,-966.389,-1648.06,-805.626,852.042,-2365.41,-2957.74,2365.79,1013.62,379.563,664.896,-1998.05,-1666.17,-2036.03,365.703,928.718,-636.296,0,-123.142,-123.142,-123.142,-123.142,-123.142,-123.142,-123.142,-123.142,499.943,-65.9057,-203.751,-133.641,-45.4697,109.674,-379.877,215.204,-66.4353,30.6183,-590.875,61.6946,-207.555,-96.0276,-102.248,279.555,48.0668,-121.507,-451.694,71.2143,-331.884,95.0322,208.688,68.9021,928.125,-1174.42,0,-2941.64,-3263.56,200.066,-4469.95,145.143,-5523.65,-1475.53,856.52,1535.67,-2115.71,-1987.67,-1463.47,652.504,-2432.16,1063.01,3027.34,570.705,-1356.59,155.474,198.07,675.075,-411.624,-3048.21,-242.633,-1.9281,-668.634,-1487.98,711.464,-326.063,2834.11,326.908,264.266,0,-166.713,161.222,-3232.57,3820.02,-1479.63,-1762.99,131.263,2648.78,1282.13,-843.254,-255.924,-230.829,265.785,1509.29,-1494.99,1243.89,2300.98,-297.737,242.239,-710.433,-2182.54,3519,-2320.3,-785.003,0,2994.4,680.695,141.511,-193.37,2457.68,-48.3037,-1878.08,0,-911.461,-960.127,-947.19,2142.06,-676.024,-190.342,3084.35,-4387.48,2168.21,986.56,-349.324,865.707,-959.338,3179.98,1455.37,654.086,3005.77,613.346,456.93,-861.238,-1065.85,1358.81,3898.61,-434.725,-61.0662,-189.056,-1425.53,-164.573,983.855,-2169.11,632.524,1038.53,0,1064.91,-4071.78,446.011,0,0,0,0,386.735,2003.07,2065.86,2842.34,-346.858,-360.405,359.777,-1055.35,-2785.94,-2143.98,1933.21,0,3146.09,2920.91,-1019.97,0,1852.37,0,484.572,-867.674,83.2094,-2838.76,-216.788,-752.586,-1771.97,0,338.986,-1150.42,242.54,-1972.78,-321.233,112.115,-517.177,1976.37,-797.214,-1311.12,1296.74,-274.773,-1222.45,2084.26,-900.137,-1127.59,-801.039,1126.77,1816.64,-1952.03,727.005,2074.84,-2524.99,2245.01,58.9512,-3301.61,-1539.23,1128.05,-197.858,-1222.55,1831.76,-309.412,0,1314.25,2255.26,1496.89,2182.26,953.289,5873.45,-2928.15,-3203.99,-3092.03,1273.1,557.523,-33.9511,-2673.26,204.181,-349.983,534.804,-3784.57,-148.846,1293.86,-444.532,-612.305,-1493.48,1346.22,-2767.13,-716.344,-2410.05,-781.225,-1453.1,-1708.18,237.917,-2437.88,-242.301,0,-172.307,-172.307,-172.307,-172.307,-172.307,-172.307,-172.307,-172.307,568.032,52.155,-203.385,-81.8998,-429.716,357.174,-128.208,153.391,-101.546,141.204,-586.663,-62.4062,92.6448,193.35,-384.168,36.4457,-72.0387,-259.294,-495.962,44.6567,-456.091,85.2221,-44.7579,31.0956,1253.97,-1419.59
0,-338.552,251.61,12.1119,2070.09,867.612,-1208.64,-665.681,-640.926,-2796.86,1542,394.333,310.744,561.823,2815.87,1942.15,237.627,1428.63,-122.759,458.399,484.739,126.556,-853.099,-1218.84,-93.9358,0,321.562,-880.891,-564.199,530.448,-130.106,-856.655,225.373,0,1119.85,933.863,-1936.13,-523.132,41.4299,575.173,605.086,-12.7105,-206.492,342.78,263.651,482.336,-177.805,-170.597,-614.583,-452.287,-48.4079,157.848,0,-205.087,-129.94,301.345,-1974.47,0,0,-1264.85,325.766,0,-443.901,673.884,-36.5096,-626.581,0,38.8952,-2108.84,472.459,-1466.38,1017.47,2262.31,-1390.64,1178.59,-67.1497,-1324.71,-403.483,412.897,-758.068,-1762.54,1294.19,-747.08,1258.8,555.018,-89.627,318.596,-548.475,639.186,1550.85,-47.529,0,-252.565,441.083,763.865,2932.3,-325.533,299.364,506.774,0,237.119,528.241,-187.976,0,0,0,0,-15.665,-1145.78,-1320.63,1546.81,-419.74,-271.839,-1594.8,-283.467,910.978,-1140.09,-716.769,0,345.432,-465.559,-1765.24,0,-528.84,0,-830.487,1358.3,-266.152,-1750.02,-735.248,-341.46,-193.863,0,-1247.12,1276.13,1121.11,-490.828,-404.91,-628.236,1982.42,-501.268,1487.07,1795.51,-869.603,107.367,-154.129,-156.148,-1110.36,567.378,599.479,0,-56.6448,49.162,-60.1,-2480.83,-1101.61,674.149,309.486,1319.99,433.882,1228.22,-1437.82,-72.1268,515.373,-539.489,0,863.783,-82.5216,-420.495,861.892,-1556.69,-627.697,-676.857,443.15,487.258,606.701,-461.879,-2413.91,-2294.33,-2470.18,-1320.04,2338.61,-344.053,632.084,-781.415,2298.02,2705.74,3531.72,-270.897,-397.128,1544.78,816.359,890.181,-350.078,107.378,-1630.86,-864.116,1167.16,0,-4.38493,-4.38493,-4.38493,-4.38493,-4.38493,-4.38493,-4.38493,45.1166,-4.38493,145.403,-88.7911,-152.031,-309.436,-356.737,-9.21092,285.524,190.291,50.5422,299.167,329.086,162.627,-248.076,-488.46,-39.3283,185.427,-27.7581,249.156,81.165,-90.8977,-138.607,-129.802,16.1665,595.258,564.889,0,845.574,1477.04,-2913.82,-1274.51,1037.57,738.122,1561.11,2477.14,-2048.72,-1098.29,-1190.03,-453.626,-540.797,-1197.39,-1951.13,-1507.37,941.344,-121.414,1112.89,1138.27,-1101.04,93.3227,-137.564,-222.97,0,-2620.81,2387.64,1407.27,1359.75,-320.076,-163.286,1300.75,0,-1242.6,-670.479,959.601,-1778.77,200.155,-563.344,-127.778,299.188,-585.366,803.439,-718.317,-21.3212,358.75,-199.723,3.18742,-185.323,-473.257,-6.28203,0,-502.189,-321.973,1183.15,-593.906,-19.082,0,-252.329,-972.778,0,333.495,-637.375,-0.127015,-760.742,0,-2985.34,-847.423,575.297,3608.19,-21.2302,953.443,87.2263,526.673,-312.089,-757.39,1479.6,507.625,782.74,2067.17,619.789,-361.862,-1699.45,-551.63,-131.538,-811.888,-630.269,-2178.92,-1173.37,428.661,0,592.685,-161.732,676.343,-583.359,2024.29,-387.836,-1673.92,0,517.562,6.02164,532.794,0,0,0,0,454.388,-1182.88,324.198,1682.43,370.196,-1115.89,-1681.38,3426.7,504.82,1644.66,8.21558,0,357.412,270.924,-2090.42,0,-529.04,0,286.014,-835.801,-2036.82,-1546.88,57.2938,244.078,1007.93,0,-95.1993,-1788.2,-1676.17,-215.582,1048.96,-393.448,1211.34,1689.6,-597.71,854.15,-994.53,-139.992,473.562,558.44,-201.122,957.183,1016.58,0,607.056,254.788,513.21,-3065.52,878.899,809.674,2682.3,582.721,1508.4,-279.006,-931.768,519.238,436.042,-708.11,0,-107.621,2436.33,1669.74,-301.655,-2611.15,-254.776,-2189.51,-1215.49,-277.932,-746.549,-1737.69,3177.58,1095.15,2506.86,-1883.18,-2225.21,363.96,161.197,-1606.47,-1131.65,-1979.78,167.511,1826.59,-454.09,-1622.34,-1407.83,-841.436,10.4348,140.363,-2.77584,-1834.42,679.427,0,-43.2124,-43.2124,-43.2124,-43.2124,-43.2124,-43.2124,-43.2124,423.15,-43.2124,-111.65,-204.276,344.047,105.352,193.597,1.42528,-281.777,157.019,-52.153,473.169,-69.5255,-325.282,-692.949,-112.686,1.31521,105.799,-296.744,85.9234,-24.547,-119.766,213.216,-182.762,-18.8053,465.122,-582.797,0,-1704.05,-331.104,-1276.97,-1933.1,1187.29,1011.81,3086.93,99.404,-2119.77,-334.773,-1363.5,240.431,-810.091,-1059.09,1974.55,-289.699,-437.999,105.497,-165.363,1022.83,-254.097,-2763.92,-448.194,-106.951,0,-1926.14,1810.53,138.609,-588.622,3406.03,189.152,46.9955,0,-3648.44,178.716,721.497,1367.18,453.748,774.606,-1925.16,21.9403,-1279.12,174.476,-605.735,-308.723,273.603,1735.6,638.094,-70.2476,479.54,-75.4115,0,854.119,-88.7119,1113.75,-794.485,-23.5497,0,-321.31,-798.479,0,265.498,534.918,-16.4745,-207,0,49.7904,-974.478,1238.27,382.046,-1510.55,396.602,1000.02,-441.735,-1791.65,121.463,1104.32,1251.88,-1038.89,-1391.39,476.868,210.841,-1379.83,230.686,-55.2535,170.718,-824.184,-1179.32,-1683.87,-146.988,0,-1271.89,1456.95,-764.604,-1542.87,-3585.09,-297.034,-1198.77,0,-32.0025,-433.128,1490.04,0,0,0,0,3697.13,-1518.19,407.592,581.791,-408.667,892.682,-676.411,-856.75,-728.589,216.716,-664.383,0,-1368.54,-268.03,752.168,0,46.4658,0,-191.632,-828.361,-339.078,2689.79,255.917,301.167,1567.65,0,-2149.37,1797.77,-2493.48,-210.695,142.965,209.914,-1993,-527.924,367.784,-989.6,-90.6405,-149.29,-178.153,617.306,841.47,473.112,669.252,0,1172.33,-2169.78,615.395,-362.149,1169.49,705.575,2723.66,1045.44,544.171,353.975,-451.433,567.384,371.04,-143.736,0,486.55,1271.34,670.374,-2335.54,-689.436,-1808.16,-311.045,494.645,938.414,-2875.79,1897.56,-2033.42,-2145.04,216.186,621.906,774.228,621.912,-806.111,1604.45,1053.02,-225.264,-2186.78,-1405.54,-207.597,891.111,192.846,-2075.87,-545.328,-1206.8,2086.62,1623.87,-1854.3,0,-51.9975,-51.9975,-51.9975,-51.9975,-51.9975,-51.9975,-51.9975,334.346,-51.9975,-431.009,165.063,-141.752,-300.587,-57.574,369.613,33.0899,-21.2175,-126.139,762.191,-43.7629,-104.878,-494.133,-628.074,25.5045,360.738,-230.651,82.0942,-132.622,-93.0864,321.051,204.965,-321.15,-184.235,489.415,0,-3476.04,-1175.41,1869.52,-1929.11,-2269.9,-1421.37,307.478,330.346,-2202.21,14.5172,-914.001,868.82,-1743.16,-4302.53,2644.48,-106.898,-581.012,56.159,-118.381,-1817.84,-971.469,-1326.37,-3598.5,227.883,0,-1796.38,61.7025,341.832,38.8795,1032.19,-366.09,-485.834,0,-992.094,-53.2312,2345.27,2655.6,1102.18,715.062,3594.2,2216.2,-1786.46,830.05,526.583,-186.903,-233.497,2338.17,1814.94,374.768,-909.296,-541.377,-6.59016,951.058,147.612,-676.197,1062.32,393.415,0,-956.93,148.415,-22.8363,183.915,834.433,-11.0967,305.163,0,-2974.59,3481.34,1776.63,1516.58,674.393,381.256,-1710.86,-155.369,-2348.56,-1208,1782.1,-151.982,458.403,-1817.5,-58.9648,-923.055,852.571,-417.485,589.264,1290.03,162.598,1527.49,-842.338,-142.257,0,-2300.56,822.204,-428.157,-630.398,1793.34,-255.745,-999.783,0,1623.99,830.764,-638.842,0,0,0,0,1410.68,-7052.05,746.931,-985.899,138.449,-809.759,2052.48,-2614.51,-172.963,339.954,235.539,0,1873,-365.293,-2106.46,0,-877.213,0,476.656,-6.97408,-1643.62,1410.25,134.941,619.613,2291.21,0,2915.71,1303.1,-3236.93,891.632,258.845,109.099,-3322.43,-2205.48,3754.61,-1385.57,22.6516,-149.29,-1472.78,3076.2,272.042,324.159,-642.311,0,1462.01,-399.658,1405.62,201.666,-381.451,537.487,2742.23,420.274,144.743,606.87,-1729.53,1566.56,190.243,1134.63,0,97.2397,-2618.52,658.451,679.429,300.783,1068.02,879.178,96.6237,5715.17,3066.05,-416.667,-291.512,1749.57,441.631,1705.19,-1112.86,-2315.44,-493.579,-55.3391,-428.413,75.0038,-764.429,738.99,271.548,-860.087,-431.923,-767.167,-640.598,834.639,848.838,-324.029,-3694.39,0,-14.2412,-14.2412,-14.2412,-14.2412,-14.2412,-14.2412,-14.2412,169.299,-14.2412,111.789,-85.5621,13.3816,-205.121,128.734,376.318,-192.127,-338.728,-133.844,800.101,146.817,42.5217,-293.254,-624.496,38.1182,232.141,-472.405,185.64,-201.634,-1.09448,614.018,-27.1155,-411.668,-2476.17,377.396
0,-2687.98,1426.76,1112.74,1278.73,-599.559,-1021.32,3037.13,938.744,-212.5,-929.46,-704.959,-139.871,-818.544,-323.087,1279.23,1691.59,-657.058,297.518,198.763,1854.9,-2471.43,-988.367,-1195.61,293.781,0,1957.81,176.721,-920.239,-282.741,-1436.28,288.283,2228.26,0,704.093,922.695,-564.527,1329.03,-253.308,180.174,-156.228,-402.921,132.484,-494.485,-1539.6,-25.542,-41.267,679.231,-1588.09,-537.35,-122.887,-281.416,0,222.679,783.942,1210.87,-299.582,-59.2113,0,-739.678,-140.944,0,413.737,-296.293,-1.87783,389.674,0,-869.296,216.208,-2367.94,-818.952,-870.566,-2060.01,-638.279,-1348.13,1847.63,2341.84,-93.6557,80.3296,-545.113,2028.26,862.545,527.309,-1499.78,-225.059,641.718,-2442.44,154.553,-1240.44,-2262.07,-103.068,0,675.979,-984.86,-62.5772,-255.282,44.1417,-511.919,-718.652,0,-1142.33,-1954.46,-625.77,0,0,0,0,763.206,-536.004,-1766.3,601.63,1593.22,-354.047,4155.72,1098.72,-1216.2,-2191.45,777.226,0,643.515,-1572.12,-757.649,0,-97.6826,0,-1165.73,1230.69,-230.524,645.047,-404.64,-256.717,-194.647,0,-461.664,-1515.38,635.065,1292.54,710.597,1372.83,-1211.96,-1455.63,-2054.45,622.984,443.486,-1216.03,-111.593,2218.29,-1576.9,-1117.81,764.978,-11.1338,1456.27,-855.678,574.635,2681.55,-748.6,-400.954,-836.041,-560.664,-730.932,2052.03,-411.395,-548.187,-830.144,667.127,0,-8.04844,-290.281,972.892,-387.77,719.538,1251.91,-1959.22,-1662.16,-561.433,-1015.64,188.887,792.79,-2432.3,-624.321,-2200.78,516.019,1346.15,-657.95,85.958,2195.56,1568.56,-627.414,4206.1,1962.07,-1470.06,-577.844,986.872,261.099,-1116.92,1645.64,929.502,2113.35,0,-36.6624,-36.6624,-36.6624,-36.6624,-36.6624,-36.6624,-36.6624,-316.689,-447.054,-36.6624,-30.2966,108.49,-430.286,836.107,-212.527,-13.6436,-192.195,-11.982,512.467,161.854,-109.489,-51.9156,-40.15,159.493,-230.61,-117.804,55.1557,109.979,-124.855,-186.25,-62.9376,305.176,476.078,2287.76,0,-867.19,794.36,604.505,-1881.88,-991.201,-3698.83,-370.151,516.064,-776.65,1000.06,525.42,-622.705,-1245.36,-967.019,-2046.13,-421.526,-2269.46,661.791,882.625,825.034,-1599.69,927.304,-2410.26,-134.826,0,655.691,-1185.26,82.6396,-866.342,2090.87,100.364,2596.45,0,-527.777,-691.107,601.288,-1192.75,-737.991,2025.12,3660.3,536.249,71.7329,-4544.65,53.7554,959.961,238.677,-761.412,-1518.75,498.902,2246.11,-520.884,-2.72524,780.874,729.804,-2786.16,-1028.59,-63.0145,0,-129.63,-521.918,0,-644.75,-1729.15,-95.9122,-497.972,0,-2250.24,788.118,-18.2595,-111.681,-953.744,-600.168,-3394.2,1840.11,3303.91,900.248,462.277,2183.17,-1730.62,3798.75,1967.29,-72.6277,-1074.88,218.287,-474.43,240.443,-100.944,752.676,-1958.19,-122.066,0,-2167.17,-342.512,-121.976,-2063.79,5837.2,-389.614,-816.282,0,-229.712,-874.37,-1425.04,0,0,0,0,-2555.45,-1477.97,-133.548,-1989.6,617.761,-564.151,3341.83,193.072,-1.44982,-3534.96,463.288,0,2020.32,-1457.11,1376.32,0,73.0811,0,2089.91,-696.077,-434.728,2717.63,-556.546,328.835,-345.31,0,3506.2,-1404.89,-1018.29,-1422.62,886.46,3069.67,-269.601,524.039,1279.58,1083.51,505.659,-1131.55,-455.025,1604.7,-3241.64,344.776,177.538,-35.6869,1595.07,-4787.25,-27.8661,-1029.34,-1024.66,48.2418,-1013.24,699.563,-322.736,2162.54,-326.471,-782.693,-816.56,768.819,0,271.813,76.9875,-171.318,-1225.35,1258.57,-1313.28,-909.405,3485.13,2970.01,24.225,-777.799,1168.95,3052.76,53.9988,-215.766,1800.57,-628.53,-1367.23,-1827.68,2198.33,-653.196,1757.09,-3108.07,-1781.18,1131.23,271.314,1699.06,-1046.67,-803.154,814.628,-3068.68,256.675,0,-67.2378,-67.2378,-67.2378,-67.2378,-67.2378,-67.2378,-67.2378,434.613,130.246,-67.2378,-64.0953,317.559,-70.3716,697.636,-486.192,214.336,-464.612,-70.032,427.977,127.776,-337.555,40.5196,-1194.85,-197.976,10.8216,13.6211,-164.924,63.9869,-225.694,460.041,-379.741,111.773,-179.04,2492.83,0,-26.5274,-807.16,-2209.59,817.012,-1659.27,-12.9332,133.442,3176.09,2559.47,-680.35,-569.442,-2541.88,-1573.56,-941.216,-881.613,823.227,-2426.31,62.1576,805.229,2407.99,-288.768,-1926.64,-3254.11,-357.343,0,1652.52,-633.959,88.4489,-1221.34,2990.79,-216.171,285.917,0,-1519.31,-2755.22,-913.041,2342.47,-140.977,-1025.77,1868.79,656.781,1336.79,-2297.58,374.096,314.663,-554.238,-894.2,-1208.91,-735.626,1117.59,-74.4606,0,-742.353,-340.863,-197.661,-1212.13,0,0,1679.19,-915.277,0,-397.898,-2544.53,-108.196,-79.8118,0,-513.647,-769.723,1440.74,-1738.55,-1391.19,-203.449,-762.284,848.962,606.305,-1261.53,-1882.86,-8.34491,-595.463,3205.2,-437.775,-3.10633,778.036,-14.6814,-304.312,4829.54,-1088.81,453.025,-1828.66,-197.555,0,2024.72,840.565,442.973,231.976,3730.7,-318.974,-693.66,0,951.544,994.453,-2203.74,0,0,0,0,321.904,-1354.31,-639.967,1455.63,4527.37,-575.317,-1447.81,395.432,38.9514,-5674.68,447.866,0,-1041.05,-2021.07,112.923,0,454.624,0,-1964.49,-1392.05,445.169,517.446,823.389,172.138,-1096.33,0,-3244.8,508.648,-517.705,381.825,1057.96,-679.874,-1272.17,1383.4,972.508,770.467,-163.723,-188.994,-380.891,418.292,-1504.53,281.183,293.862,-51.7427,378.097,-896.798,-578.49,-1512.77,-1709.48,391.538,-1432.03,1314.45,-1465.79,2150.96,-1204.66,1911.51,-885.677,-719.655,0,-1477.32,574.848,2261.92,-1755.69,1326.49,1438.05,-756.071,-4363.56,-2776.31,2743.14,211.304,373.679,-2157.22,3146.22,481.479,-126.143,-183.922,1823.19,956.302,193.581,188.525,1602.25,1835.61,698.222,1462.37,-702.101,-2390.19,-164.787,1131.06,-96.4755,1459.14,-1906.8,0,-100.874,-100.874,-100.874,-100.874,-100.874,-100.874,-100.874,202.357,-230.509,-100.874,-17.7589,247.65,-583.669,338.866,-315.591,26.2777,-570.632,283.549,574.874,475.093,-440.4,-162.951,-776.663,98.9484,1.32496,259.25,-711.471,294.708,-123.767,640.826,2.60285,-420.781,-638.197,2363.69,0,2411.89,3513.21,473.365,119.73,-2179.28,-3940.96,-686.008,-2891.48,368.749,3547.74,-1257.14,1261.51,-1426.2,1629.82,-839.457,-1023.69,-4451.39,376.546,58.5717,1182.83,-2700.28,461.815,-2898.61,-176.119,0,-1838.11,-2066.56,-84.0111,209.988,5398.15,-931.587,-3310.78,0,-2250.83,-2005.57,-3241.86,-2107.64,-1963.27,1408.86,2180.61,-1686.35,113.173,-7258.13,-119.184,-667.22,-124.776,-1117,115.677,207.067,-1499.51,-304.168,-246.705,-2085.83,-1157.21,-1439.38,-934.53,-22.0878,0,1797.64,-282.294,-62.6083,-366.514,-4143.66,0,2316,0,1887.3,-709.78,456.826,-830.941,-1028.89,-327.142,-1083.85,1326.26,-1559.73,-1027.44,1094.82,-1483.32,-766.234,5638.76,-556.569,-381.803,-2975.9,-703.025,128.533,4420.75,168.962,-861.037,-3771.15,223.973,0,870.041,-602.724,-592.044,-1662.87,4791.83,227.868,887.256,0,-320.669,-2791.41,2594.68,0,0,0,0,5062.66,3005.96,399.569,-912.319,1832.27,-535.384,-904.031,-845.645,2108.81,1493.08,-193.295,0,6201.98,-2536.63,1216.59,0,348.439,0,2485.57,561.306,2128.97,333.911,5976.79,-469.787,-1047.17,0,1928.14,-540.893,485.253,644.113,2590.2,-1047.17,-1816.12,692.234,-493.597,1751.61,1331.45,-144.192,-1288.44,-1121.42,1755.56,-314.021,-216.198,-67.8243,-448.144,1859.34,-72.4498,1530.38,-1006.95,22.3645,-604.352,1624.39,-1806.69,256.307,-1168.99,-2743.29,-641.484,-109.805,0,1040.94,-718.739,-1394.52,-2630.11,1738.4,3500.05,-1872.03,4133.88,777.119,849.567,233.067,-2153.74,257.684,-2019.13,964.795,-1934.4,-1071.23,889.565,814.526,-1626.75,-663.811,-1937.72,-177.283,-409.2,-655.239,-183.725,-2737.45,757.712,-91.6225,146.02,635.199,-1064.9,0,-105.355,-105.355,-105.355,-105.355,-105.355,-105.355,-105.355,663.721,-140.003,-105.355,94.7244,-135.47,-388.335,191.673,59.4365,-143.808,-835.202,123.037,550.867,995.231,-668.665,-38.9081,-1106.12,-1.2631,-164.819,328.434,-822.051,237.739,-305.985,967.503,-127.95,-281.98,251.216,2514.55
0,-1560.68,-833.412,-23.554,73.0944,-5.4032,-1.98823,-46.4456,282.487,-118.966,-67.1521,-314.775,-13.6766,-3.75502,-86.8466,-316.232,-55.4025,-159.507,-7.60832,-5.50496,-41.7174,-26.7483,-260.474,-21.6276,-5.3078,0,-41.2368,-176.788,-48.4208,-89.069,-146.585,0,436.812,0,2489.01,-65.7438,-8.17868,-1066.57,-1.98881,-3.98,-34.3097,-8.86124,-83.6231,-8.07572,-73.7019,0,0,-36.231,-81.5075,-3.7533,-60.3906,0,0,0,-1.86775,-11.0708,-92.9368,0,0,339.683,-3.94314,0,-5.46992,-35.2469,0,-102.226,0,616.635,434.551,-27.4186,147.047,-11.1862,-11.8825,-125.395,-266.73,167.425,-44.8772,-294.413,405.51,-9.61076,-152.579,714.665,-1.67061,-194.265,0,0,692.621,365.575,-86.9655,-55.0076,0,0,-124.11,579.346,-10.0638,-270.302,-97.785,0,190.273,0,-277.545,-596.54,-51.6379,0,0,0,0,-297.245,-98.7492,-90.1191,-618.518,-52.5803,-1.99512,-82.3086,326.329,-5.50658,-74.9028,-4.99914,0,391.249,-83.91,-417.097,0,0,0,-34.9066,-236.305,-10.9397,267.528,-180.695,0,-65.6921,0,-292.516,-199.003,-717.435,154.041,-9.34316,-67.0501,-168.256,-550.317,-666.998,-116.416,3.55964,-798.566,381.11,820.077,970.42,-87.7882,473.248,0,-246.726,-630.182,-184.547,-328.557,-507.392,-114.497,0,-38.7462,341.735,-44.1316,129.923,769.278,-14.8739,-564.668,0,-667.351,484.527,247.011,-215.085,-204.565,-147.584,114.716,718.683,341.211,560.304,1015.88,2266.9,1026.92,2596.76,-242.852,248.41,-2464.08,-3454.93,732.012,-1304.24,876.807,-675.455,-2635.3,2202.1,1344.64,-803.022,-3101.65,-2372.89,-966.972,1222.84,1491.52,2199.9,0,-29.0607,-29.0607,-29.0607,-29.0607,-29.0607,-29.0607,-29.0607,-12.1982,-46.0163,23.3664,-29.0607,180.758,139.267,305.889,137.082,9.42885,-248.113,-346.755,7.01264,-89.2273,94.531,-177.962,-419.06,208.229,134.464,-70.2338,-259.76,-248.644,-93.4363,153.181,147.665,208.989,-1839.69,1122.68,0,20.9582,-39.195,-43.1288,-2673.14,-3.96426,-57.103,-87.7741,-779.516,725.223,-154.527,-719.916,408.504,-11.4426,-98.6781,322.283,-89.1677,-214.808,-1.07761,-71.9906,1474.39,343.679,-641.828,-113.301,0,0,278.647,-267.48,-54.3662,-59.9684,-310.267,0,-42.8027,0,1571.19,-38.8662,-21.8735,1249.26,-5.4032,-12.1329,-58.8303,-0.161907,-89.8616,-11.3234,-45.6163,0,-3.91662,-76.3643,-35.2155,-3.08144,-98.5699,0,0,-0.371018,448.308,-14.611,-11.3791,-5.3078,0,275.654,369.041,0,-1.4411,0,0,-239.358,0,695.266,-533.968,-95.8023,184.243,-11.1806,-7.95702,-114.952,357.114,462.05,-76.7398,-333.704,-28.2536,0,-278.813,-15.29,-1.51989,-163.06,-67.7568,-44.1378,-47.6721,-18.8413,-82.5752,-58.0614,0,0,-45.082,-226.202,-16.7029,-438.812,-184.826,0,112.733,0,170.854,-678.686,-72.7808,0,0,0,0,849.564,-137.251,-78.5117,-835.989,-56.3521,-12.7887,-181.618,3.71489,-9.58214,-121.341,-11.5298,0,-617.452,-113.355,-439.325,0,0,0,-77.5825,665.454,-46.0079,136.167,-349.831,-1.99917,625.443,0,628.544,-515.632,-600.956,221.398,-14.2581,-101.976,126.533,-848.206,305.847,-290.019,-45.3618,-142.631,350.547,249.491,1265.3,-110.495,392.89,0,351.152,-905.204,-221.91,-638.095,-564.01,-172.949,0,-288.659,5.54458,518.056,-82.6691,544.288,-14.8739,-542.314,0,-1300.55,866.145,114.444,-202.866,-253.232,-108.87,-194.109,2938.47,2013.38,-488.929,1632.94,-2492.31,-1971.37,-330.383,-1270.43,-793.948,-200.842,-489.854,2524.41,-1273.29,-650.806,811.147,-208.975,-1412.64,1279,-665.656,1328.8,-241.596,1942.98,-275.252,-3629.26,1866.95,0,-36.0048,-36.0048,-36.0048,-36.0048,-36.0048,-36.0048,-36.0048,251.726,327.767,-110.005,-36.0048,-231.104,-164.897,-71.6366,27.0355,-100.78,-40.8958,-57.0219,204.055,-136.96,-21.2927,-100.529,-124.492,-159.09,127.9,-52.2678,187.516,15.9384,149.626,-57.5891,-364.614,177.566,-1720.81,-25.1719,0,-2233.53,-655.627,-117.014,-306.788,-11.9195,-57.0027,-64.4758,85.0758,-254.313,-96.8035,-526.242,405.482,-5.08074,-380.188,1213.03,-38.837,-282.324,-67.7568,-34.6638,-139.736,-68.8779,-67.5656,-100.209,0,0,239.648,-345.775,-32.3854,-419.352,-360.469,0,-300.354,0,2477.36,-144.912,-50.1826,-1695.3,-10.8064,-73.232,-115.684,-69.2279,302.883,-39.9064,-175.594,0,0,-55.032,-100.552,-11.3082,-87.7721,0,0,-3.88698,-60.4031,-92.1512,-11.3594,0,0,-93.8803,-3.9942,0,0,-3.02352,0,519.797,0,-332.141,-473.668,-69.8743,221.709,-7.2074,-17.412,-239.544,-83.557,-549.903,452.108,-552.175,-92.184,-9.67986,227.276,253.046,-5.34716,-238.567,-491.625,-2.23666,107.914,408.218,814.386,-129.144,-20.4679,0,-86.807,323.843,-34.5975,-24.4764,476.955,-7.64574,398.986,0,334.912,-533.057,-135.945,0,0,0,0,743.207,1084.46,-169.621,-1135.09,-77.9227,-31.7948,298.593,-287.674,-63.0867,-166.596,-12.6074,0,1086.25,371.491,-330.839,0,0,0,-112.218,-87.3354,-77.3254,-254.041,-614.236,0,-109.635,0,76.6073,237.913,-1073.55,105.177,-73.0709,-196.212,61.0406,-486.396,-79.3078,-572.613,-268.772,35.2513,270.985,1179.6,964.154,-145.316,285.552,0,380.405,93.1361,-242.681,-63.6499,-615.636,-206.059,-2.11566,-147.467,748.644,495.756,-452.748,-492.963,-14.8739,700.904,0,-1030.01,984.31,878.999,-43.9891,-124.769,116.085,122.097,-608.018,-1187.78,-1174.63,2393.23,-1265.74,-571.942,240.09,273.556,365.834,-340.572,1678.75,-1948.25,2405.76,14.4083,-676.179,165.048,-1915.96,-2761.75,267.424,1759.26,1116.71,290.708,1902.27,-228.611,-3132.34,0,-28.4717,-28.4717,-28.4717,-28.4717,-28.4717,-28.4717,-28.4717,-41.8917,-71.5146,-160.146,-28.4717,-99.5112,-34.7512,151.033,231.555,10.1938,-83.3503,110.676,-215.732,354.943,42.2158,-41.5998,-94.7193,-214.25,-276.387,6.66998,239.465,146.816,-85.9911,90.6528,-25.113,-195.511,-461.534,578.381,0,-2924.87,-473.047,-216.527,-312.776,-9.95036,-51.0694,-236.591,-474.857,-322.124,-82.3629,-2720.17,-115.788,-20.6524,-243.531,-522.444,-30.3608,-394.39,-503.793,-169.343,974.065,-68.3251,570.687,-72.4789,-4.21312,0,87.0041,113.482,-79.2563,-193.675,107.518,-5.64658,-199.739,0,5848.48,-171.194,-112.389,-540.77,-7.9476,-84.3547,-131.937,-112.995,1123.65,-72.1648,-588.231,-1.78871,-3.7533,415.085,-129.018,-19.1529,-152.262,-56.6652,-6.39912,-94.7672,-72.4543,-97.3019,-105.23,0,0,-102.712,-81.3094,-6.37248,-118.082,653.87,0,315.901,0,-1500.34,-1180.72,-161.104,-1592.22,-58.0134,-108.569,142.859,105.282,-188.124,548.371,-1004.09,-21.601,-14.7319,-292.311,-247.649,-50.7983,-421.849,217.839,0,-551.905,-61.1184,506.226,-115.687,-2.1324,0,23.9041,438.501,-105.137,-157.746,-285.468,0,624.175,0,-107.795,63.1546,-108.498,0,0,0,0,1165.21,-73.1147,155.069,-873.996,-79.5414,-39.989,-462.622,1483.87,-42.7404,388.737,-7.60832,0,1134.03,1276.38,287.048,0,-16.2548,0,-119.3,834.544,-53.5078,-299.795,10.485,-1.99917,-201.764,0,645.662,1004.44,-948.779,-201.891,-93.0422,-353.953,1450.24,94.548,913.595,-648.842,-1729.86,-162.562,233.693,789.977,2005.99,-76.1801,238.31,0,948.48,484.679,-337.371,-237.657,-618.86,-270.185,-2.11566,-637.81,-506.316,-74.4399,-495.628,171.247,-22.5264,-33.8427,0,-559.415,354.173,1043.12,109.631,-34.2399,396.621,-1405.07,-580.92,-1263.44,-426.514,6683.51,-421.967,1027.54,587.359,386.645,-1134.87,147.062,-140.72,-281.59,690.028,0.0303523,702.889,-933.566,970.04,-488.513,-354.813,-1589.31,1089.54,-554.476,-62.4832,-729.922,-5297.75,0,-25.3992,-25.3992,-25.3992,-25.3992,-25.3992,-25.3992,-25.3992,19.6265,72.3997,-52.6446,-25.3992,-80.325,118.211,79.3958,297.739,-135.411,-19.7619,-49.0948,-27.1283,263.612,73.7144,173.189,-242.078,67.7255,-49.0629,-110.373,-79.0405,77.0828,-181.94,59.3168,-76.0094,-427.736,-197.283,707.048
0,1158.39,33.8837,-287.02,-2917.24,-24.2126,-131.691,-603.91,-540.797,-487.636,-1296.39,-492.133,1536.64,-154.463,897.338,518.869,-128.986,-551.737,-7.61478,-298.7,345.523,249.448,1043.97,172.303,-38.2132,0,248.807,-935.061,-202.01,-169.646,241.921,-98.5831,963.448,0,-366.937,-340.226,-222.448,1624.84,-3.96004,-173.609,-469.45,-29.0521,570.026,595.827,-63.3055,-59.596,-2.52444,167.79,-101.613,0,296.662,-1.99338,-49.4531,-172.691,-221.539,803.571,385.403,-5.63256,0,-320.475,-88.2682,0,-54.9101,-143.886,0,834.29,0,1454.72,-393.637,-419.055,457.595,-130.133,-80.0278,1007.1,483.439,-300.833,777.913,-29.0555,1658.59,-194.883,298.144,152.74,-67.1088,-352.231,0,-100.008,-515.467,-382.511,-274.641,1183.82,-122.545,0,-263.303,703.175,-74.8381,938.948,2512.47,-134.667,-75.082,0,720.702,-266.594,-43.3136,0,0,0,0,-817.004,384.315,832.943,-131.07,-1371.66,-103.616,-38.6771,77.43,-56.7209,-126.616,-3.81342,0,-1353.42,390.916,43.9211,0,-216.508,0,-234.336,-228.373,1056.92,-334.228,-1085.3,-33.1091,-1552.12,0,-59.2855,54.7629,587.984,-3360.11,-270.577,-240.918,-670.003,29.6449,-281.916,-503.248,782.665,-1664.01,2200.48,195.265,-644.727,-599.512,723.174,-344.14,523.092,-1401.76,126.609,804.328,-109.843,-326.642,-32.3175,-613.344,-1828.64,756.964,-618.392,-282.481,266.503,1137.58,0,-168.752,784.656,-24.7121,1121.17,254.418,451.782,-82.1467,-1649.43,-1713.05,153.909,434.961,-194.569,-518.868,-1179.41,63.0163,965.597,-2071.61,562.46,2827.38,299.018,784.872,-1234.85,-413.443,-915.508,-850.252,-423.167,209.996,408.827,-1795.14,2969.02,996.743,-373.748,0,-21.8079,-21.8079,-21.8079,-21.8079,-21.8079,-21.8079,-21.8079,-252.32,-201.059,56.0954,20.2382,-21.8079,122.612,34.0446,6.57139,11.3269,-208.236,20.4898,351.794,-279.881,94.7796,118.63,-55.959,-162.505,-88.257,-163.621,-216.717,194.587,-203.337,421.086,99.6888,83.675,-1117.44,-2433.78,0,187.292,-2174.41,-920.37,-414.524,-30.1982,-162.63,901.096,1376.73,-93.4301,85.603,-537.33,1035.45,-237.892,257.063,-1629.52,-89.5712,-1020.85,-32.7942,-182.266,-194.37,-513.718,796.335,1664.21,-151.361,0,-644.752,-675.677,-72.4906,-626.49,829.004,-175.445,-220.812,0,1920.4,-455.824,-474.15,-1402.92,0,-355.099,-568.266,-17.3445,491.799,494.623,-163.409,-68.5866,-8.66446,548.028,-126.187,-1.99855,-38.7406,0,-324.88,-70.7386,-350.887,-97.521,-164.752,-36.161,0,-533.028,-158.943,-1.83344,0,-318.821,-9.79118,-672.975,0,-375.887,91.4617,50.6976,1971.27,-512.95,-57.8718,-236.025,-1631.72,-182.136,1009.13,352.086,-285.864,-120.113,1000.45,-576.138,-26.3836,-552.614,0,592.65,-1264.77,11.5291,-417.712,892.08,103.876,0,448.66,382.428,61.2878,-300.193,727.014,-309.125,-67.6482,0,18.6475,1860.24,-250.547,0,0,0,0,-1327.37,-131.129,-1372.79,75.8147,1232.24,-192.54,1566.08,2763.78,-199.401,554.357,-11.4282,0,-455.922,492.565,284.958,0,-169.359,0,196.611,526.896,500.7,757.655,1609.94,-83.8171,951.292,0,319.7,2102.36,1482.18,-1867.57,313.363,375.678,91.4895,106.214,-292.621,-79.1428,1211.78,-2034.3,2054.71,-631.828,-801.309,-105.15,126.608,-427.378,-70.7452,-1342.09,-194.281,1538.68,-507.622,-562.045,-32.3175,-1083.41,-2620.09,1413.63,-301.838,-292.284,156.716,313.198,0,544.743,-642.665,97.7506,1653.65,207.863,177.999,-869.777,555.139,800.479,601.557,215.478,227.469,-651.095,2352.07,1235.25,-2433.94,-953.719,-1099.98,-791.285,1215.62,557.547,-380.723,-1277.97,521.309,633.366,-207.46,-76.6029,221.012,-1627.54,2.06228,406.234,1169.8,0,-2.74018,-2.74018,-2.74018,-2.74018,-2.74018,-2.74018,-2.74018,-93.8346,25.822,73.8977,62.4803,-2.74018,84.4413,509.186,86.5872,-285.644,-188.496,-157.158,17.4922,-211.227,0.27527,172.186,-86.9821,-29.3741,60.1047,-191.557,-262.199,212.231,-209.841,255.469,-1.52281,133,-1105.64,-2078.44,0,1177.41,-1692.49,259.363,-246.532,-30.7844,-34.0242,1045.57,426.02,-524.076,-229.108,337.962,899.844,-198.271,-929.387,-1113.5,-237.895,-986.621,-40.1094,-76.7015,-226.597,-237.901,-617.933,-594.473,-26.98,0,-537.616,-17.0565,534.225,648.509,1026.38,-353.007,-755.61,0,-63.433,-66.6097,-840.132,2035.51,-13.4008,-664.145,-717.498,-19.2752,1339.1,577.983,-176.096,-312.785,-13.5548,1980.84,408.723,0,123.868,0,616.428,-68.3817,882.57,1115.43,454.007,-134.784,0,-910.377,335.211,-10.7688,-24.7632,-63.0105,-20.9016,373.199,0,-467.601,522.809,-415.348,-707.809,-886.822,-195.799,10.9187,-1123.73,-231.195,-355.004,106.869,1574.88,-254.343,1108.39,571.122,-136.343,-352.597,0,-164.649,-655.664,-418.565,537.309,3200.77,66.5095,-1.99193,-378.095,-935.932,1222.01,-592.809,-784.209,-151.821,368.695,0,-757.399,-79.4174,-879.565,0,0,0,0,954.397,-629.211,-742.17,-376.962,-307.554,-347.924,1023.81,608.586,539.107,96.0465,-5.8068,0,389.847,-224.836,-443.682,0,-193.422,0,886.077,-701.357,-822.551,-176.5,3201.66,-167.659,37.6783,0,2010.01,689.824,-233.926,-2034.83,1144.55,-155.143,263.621,474.903,193.394,161.053,931.274,-1905.16,2815.2,468.54,-530.259,-197.516,609.293,-429.69,-878.68,-927.701,-536.411,837.661,-559.704,-94.2768,-34.3093,73.0996,-2109.63,1785.76,-499.42,-534.947,-28.5596,660.401,0,-369.791,64.414,1603.19,1151.34,-480.207,782.448,-610.767,-702.955,-1035.01,7.50347,-1134.26,-148.754,994.937,-416.931,307.023,-1784.49,964.626,-429.721,-1210.67,-2205.26,-174.25,1116.46,402.787,-1587.89,-1316.65,172.875,-721.496,1199.86,610.421,-143.137,-1535.94,-217.472,0,-33.3329,-33.3329,-33.3329,-33.3329,-33.3329,-33.3329,-33.3329,0.935986,-133.937,-57.9744,-107.959,-33.3329,299.604,323.526,25.1688,-181.714,45.4615,-90.9303,-44.4929,-369.377,-70.9392,254.31,190.441,-197.084,-135.295,-85.6564,-415.024,390.854,-3.45587,269.669,-225.788,19.6637,-1324.36,-2148.17,0,-867.061,394.792,698.127,-1788.41,-24.0346,-815.854,94.0468,-368.134,-278.597,-248.074,583.18,-1146.39,-416.309,-1123.68,-1046.98,-340.446,-961.231,-11.3451,1926.34,-2480.59,-1179.37,380.411,-1635.24,200.351,0,-190.136,360.8,896.798,-737.516,761.23,-273.83,-1224.78,0,-3077.15,-326.072,-1383.33,-25.5719,-29.6304,-1185.17,-218.01,-131.964,765.289,-751.472,-268.906,40.1074,-12.9186,-289.774,304.283,-0.865677,-726.249,0,-222.577,-137.15,9.85671,792.763,1586.79,-9.84908,0,-986.577,-408.166,-217.958,682.97,-242.863,0,-510.754,0,-647.348,-1194.95,-1126.05,-776.203,-1245.42,-958.549,64.1557,975.689,-235.934,205.247,-378.612,2216.84,-368.945,452.191,3095.87,-192.39,-538.91,0,-81.6806,-201.831,-355.002,499.581,3124.28,362.898,-1.99193,464.047,-820.897,96.1595,-965.291,1492.83,-482.31,-627.208,0,-508.712,196.951,-548.744,0,0,0,0,924.692,-378.516,600.476,-181.61,695.796,-223.23,4087.57,-794.919,480.869,709.642,-40.241,0,2789.33,1520.85,16.8231,0,369.134,0,-11.8469,-1393.09,-578.046,548.277,1385.6,-337.845,2662.77,0,-853.676,-990.618,1079.16,-2740.61,1704.31,220.176,822.561,510.819,305.475,510.132,-26.2377,-1467.28,1750.05,226.243,-19.567,-263.915,-27.7008,-429.69,-751.589,-2333.49,73.3702,1175.08,-1078.02,-262.232,-81.1881,230.171,-352.999,2143.45,-1216.63,-399.423,-340.847,719.363,0,-1218.02,1626.99,1465.82,740.627,-594.747,2551.57,781.091,-1159.93,-2097.98,-933.553,1082.4,-397.493,161.655,-1435.61,-1861.46,1855.69,645.939,-1285.2,-2259.67,-198.2,-1170.71,675.307,2484.25,-1276.47,652.827,-1986.01,-1944.46,554.889,1615.47,-478.813,-1697.42,-475.667,0,-23.6902,-23.6902,-23.6902,-23.6902,-23.6902,-23.6902,-23.6902,75.1169,-233.964,-61.7245,67.2746,-23.6902,89.0304,191.693,-32.2767,153.894,-89.8509,-177.045,-99.0484,-255.641,-110.102,353.609,427.571,-61.6166,56.9648,-272.392,-455.88,289.529,-7.27182,250.696,-313.224,1.4481,-904.922,-2328.93
0,-212.772,3541.9,-1360.66,3823.23,-69.6948,-1171.26,-151.782,961.404,-152.208,-84.9269,-1712.39,-372.876,-2228.67,988.22,483.342,884.198,461.832,-181.694,-385.013,-1972.93,-880.499,-1057.91,-1257.12,-272.412,0,878.704,-1711.17,-99.6753,2818.94,309.795,-247.826,-1284.11,0,-1726.2,-4216.26,943.885,-1630.64,-40.1544,439.879,91.9205,-740.487,357.065,-96.243,-571.443,-39.0233,-1072.51,707.216,125.06,-346.2,53.5429,0,98.9013,571.007,-41.6484,503.887,-258.053,0,0,-969.416,-369.277,0,904.272,-410.559,-14.8565,-33.6846,0,513.607,2135.4,-187.709,-639.218,-634.366,716.962,1620.35,114.689,1633.13,-92.9181,-6.5484,-406.006,-1094.18,-935.243,520.531,-951.681,-567.307,0,850.481,1524.5,1281.79,1510.78,-578.01,1407.27,0,1985.47,1426.08,-4.01101,-580.142,739.249,-207.327,2246.23,0,-2157.41,-3707.2,-563.622,0,0,0,0,-443.599,-1539.9,-1348.81,4265.37,-920.931,-451.624,-52.8425,-96.0225,-271.514,783.891,-73.6428,0,2903.04,-1432.91,511.76,0,-503.501,0,-1066.32,-507.555,-739.227,383.558,9.4588,1140.09,425.84,0,-2061.55,647.513,1583.73,4036.05,-812.345,822.889,-2155.02,418.544,-892.016,329.238,3118.64,-118.784,3134.8,-3162.69,-1506.02,518.684,111.448,0,75.4171,1533.54,-624.132,-2.79489,-1127.06,107.887,-60.3379,-401.491,631.559,-584.446,1125.49,340.362,-1491.17,-52.7358,0,-738.347,2298.68,-1172.84,537.49,1465.85,-897.179,-2112.5,-994.266,-646.474,-411.412,-460.781,319.986,1598.79,3331.76,-704.869,-462.099,-2510.42,1706.29,906.051,667.183,-1317.03,539.19,737.4,-1662.01,-1371.09,-823.488,-2140.44,-67.1361,-110.287,4055.94,-841.407,-1545.97,0,-11.339,-11.339,-11.339,-11.339,-11.339,-11.339,-11.339,-68.3715,-103.274,-182.994,456.885,-153.763,-11.339,106.109,-117.797,-62.8612,-166.702,145.095,-142.628,522.632,-301.443,214.931,-336.175,-92.276,-143.143,-47.7732,-267.081,-149.45,500.185,501.945,-166.25,-47.8509,-969.418,-1232.09,0,-155.857,1532.29,-884.058,931.46,-800.541,-230.605,-714.415,425.187,1806.83,-1275.23,395.869,-1111.26,-2683.45,3145.93,824.696,-890.35,180.623,-194.763,71.5046,1890.37,-294.113,225.979,-1397.98,493.132,0,1541.58,2564.2,-302.187,372.838,450.235,868.401,-766.661,0,-2234.86,119.275,1081.42,-1802.36,-70.0103,-696.751,1535.1,-687.639,521.892,267.229,-109.191,-81.6197,96.5609,-381.776,28.3266,620.772,-349.181,0,618.191,1305.73,-157.875,-940.421,-432.875,696.251,0,-22.5749,45.9962,-3.97582,-161.296,-1349.8,-7.01194,1216.16,0,-2571.83,-124.972,566.753,1506.37,-103.044,67.3679,966.553,-811.143,-1250.25,449.935,1125.14,-33.597,-57.6972,398.5,1978.6,-461.655,30.8768,-1.8965,143.139,1156.62,-386.483,-486.515,-687.83,-482.359,0,-733.851,-2784.76,-340.206,809.988,1734.02,127.421,457.992,0,751.701,-1240.61,-2839.86,0,0,0,0,1740.19,-372.217,-1417.49,-117.564,-1112.38,-608.085,-607.309,-527.061,96.9613,195.442,-60.5742,0,-3208.78,-48.3513,2475.5,0,-159.24,0,1044.67,-1074.61,-577.613,2783.88,-0.289694,122.252,-751.181,0,933.579,-709.174,951.59,1193.09,-1196.66,554.926,-1762.55,181.575,-1146.06,674.762,3331.35,-208.654,1147.56,-2999.68,-718.224,534.419,167.713,0,1969.32,679.645,-648.204,742.509,-1388.15,363.269,-111.483,-1893.63,253.883,52.35,78.4101,-233.647,-1559.02,451.469,0,-1739.4,-199.09,397.237,1682.71,2045.47,190.133,-1403.27,-1142.47,1115.26,-408.718,-1456.22,-1194.17,1949.11,-1174.77,-1255.48,-241.752,91.9077,-835.369,-879.738,2727.59,227.843,-1282.55,1296.45,-12.5802,761.303,510.088,-2466.18,-1353.9,691.723,3264.7,374.722,-1344.34,0,-15.5989,-15.5989,-15.5989,-15.5989,-15.5989,-15.5989,-15.5989,-29.4298,117.687,-116.21,337.771,-374.169,-15.5989,-132.842,33.0852,-34.1605,31.7383,-109.26,-208.248,455.117,-130.718,54.32,-391.565,89.8474,64.9821,26.2083,-349.211,-252.553,499.885,396.337,-7.32372,-111.679,-1174.32,-1053.82,0,-2489.67,1003.36,-80.936,-1071.61,-434.019,-67.5961,1888.68,-800.465,-119.265,-527.859,-202.36,499.336,-1126.36,830.798,-431.965,-696.311,81.2743,608.386,158.374,3428.02,-161.499,1121.83,168.398,-75.0755,0,2554.3,-1355.1,-179.897,-1119.93,1735.88,-93.4849,222.639,0,-1679.05,-314.353,627.179,-3186.03,-663.849,242.621,-555.702,373.487,105.484,-49.0569,41.4631,-25.6679,-617.789,-441.66,-433.48,-240.904,-978.917,0,-3.91212,552.69,-317.165,-1204.67,477.54,-21.2722,0,-933.412,520.762,-10.0967,110.934,-117.817,-34.9688,650.746,0,-1288.63,-239.765,-2422.61,1309.2,254.146,-1554.43,-165.034,-961.66,832.815,-979.345,534.765,-1049.49,-1949.79,1958.58,1648.43,-92.3216,-191.783,0,1046.83,2593.59,-754.211,1702.87,-969.467,515.122,0,485.299,-1783.13,-187.185,4216.89,2254.98,238.06,-214.57,0,1061.7,1062.92,450.48,0,0,0,0,341.968,-646.038,-349.087,512.872,-1492.98,-1129.69,1285.15,-485.99,190.829,469.147,-232.708,0,-3082.24,-382.219,-66.9112,0,795.564,0,251.987,160.391,-978.178,537.781,2603.76,1001.46,-1097.77,0,1746.36,2898.69,-1160.29,1283.57,-1007.04,-2054.17,883.689,14.4512,-292.491,1156.44,2297.94,-524.18,1275.4,-2888.48,1336.65,1205.46,923.396,0,377.089,41.6248,-186.023,656.949,-1093.74,-720.501,256.993,-1780.65,296.327,-294.482,-772.907,-1425.18,-1023.69,-535.829,0,376.921,-2894.42,2677.58,1287.1,2023.98,3632.11,-1507.03,667.618,395.38,-733.4,48.7855,-407.089,3764.75,-1581.59,-1353.19,103.641,14.2656,-1075.86,-134.996,1017.47,124.744,35.864,-1169.68,1177.7,-26.7504,-94.346,-1067.51,-1224.89,1728.38,-1850.72,-230.98,666.988,0,21.6515,21.6515,21.6515,21.6515,21.6515,21.6515,21.6515,-36.4604,80.7749,-118.209,302.851,-300.007,21.6515,-88.5538,28.0462,47.0395,31.7383,-70.0183,-129.046,455.117,-167.637,128.489,-391.565,164.017,23.0242,-10.7105,-353.201,-287.473,579.093,359.425,-14.3614,-37.5096,67.9714,-1011.53,0,-703.039,1748.61,932.337,-524.468,-731.039,-1274.77,1200.05,-126.957,169.499,-1018.72,119.661,-549.667,-2309.75,1655.34,211.841,-170.218,-454.336,369.416,374.455,2041.92,-669.332,-887.342,-1156.8,174.955,0,3944.08,-389.05,-190.759,89.3134,4277.89,425.867,1388.99,0,-1394.27,-1781.44,-1465.04,1323.96,-129.243,-1848.59,-1026.72,-591.351,-278.546,-913.243,97.8447,-17.4048,94.819,93.6701,1009.13,546.889,-373.16,0,-879.227,-354.865,-228.907,-756.203,1172.35,154.504,0,-276.036,-954.551,-22.0606,512.733,-222.875,-20.0429,-2645.23,0,1999.75,-1320.29,1384.06,-94.0679,736.874,314.363,-392.582,-512.983,3969.25,-20.3225,-445.352,-1064.27,-3784.28,-266.714,337.423,-255.812,-363.985,0,-346.665,2010.36,260.836,-764.29,-969.787,-538.281,0,-142.001,-794.282,-114.459,362.609,2374.32,-435.109,36.1223,0,-2540.87,252.335,1775.49,0,0,0,0,989.966,-2603.52,-791.558,848.283,-610.877,-1616.85,1223.58,-656.249,-559.634,-340.976,-123.09,0,3648.08,-1564.27,5691.7,0,142.216,0,-507.68,-961.052,-1297.19,2643.88,1466.87,1129.57,574.606,0,79.4099,886.837,-1757.31,545.272,-1351.86,1119.11,2295.46,1365.9,907.216,2294.45,1938.37,-629.709,354.758,-2055.26,-1894.8,690.335,-169.049,0,1740.63,-2214.17,26.8637,-887.437,-212.681,-11.579,108.204,-663.878,233.515,-779.669,1280.25,-214.397,-1043.47,-1097.09,0,173.051,-329.945,-994.506,2205.88,1662.55,2113.1,523.33,310.452,-322.994,-864.208,-381.486,-75.7576,7495.41,-1502.03,592.032,-246.628,261.517,-1444.66,-723.101,-1582.39,747.035,-113.499,6.54016,589.306,397.095,-68.9779,-498.663,1726.23,-215.375,-4067.89,-1157.59,579.907,0,23.41,23.41,23.41,23.41,23.41,23.41,23.41,143.502,141.867,-131.272,207.111,-294.768,23.41,-98.441,-40.0621,0.493236,-114.328,-119.833,-76.08,354.892,-142.777,78.6185,-170.848,42.0079,50.5298,139.742,-374.298,-67.7906,552.761,341.561,-110.077,-101.818,231.06,-1063.38
